{"layers":[{"neurons":[0.3355916142463684,-0.6524362564086914,0.9134523272514343,-0.9999905228614807,0.7831273078918457,0.3233817517757416,-0.9331662058830261,-0.4687718152999878,-0.7834465503692627,-0.8609036207199097,-0.9812296628952026,-0.9896181225776672,0.7008353471755981,0.24874606728553773,0.35973915457725527,0.3959689736366272,-0.527567446231842,0.9213622808456421,-0.6689545512199402,-0.018171515315771104,0.9206545948982239,0.28985631465911868,-0.850134551525116,0.9182575345039368,-0.458365797996521,0.31576332449913027,-0.23303644359111787,0.9300691485404968,-0.8199345469474793,0.9115188121795654,-0.8384743332862854,-0.49487459659576418,-0.8778614401817322,-0.9412673115730286,-0.6553803086280823,-0.14288081228733064,0.7268334627151489,0.04338468983769417,0.486258327960968,0.9980353116989136,-0.3674162030220032,0.9424461722373962,0.7306618094444275,0.5614414215087891],"weights":{"rows":44,"cols":22,"data":[0.5413662791252136,-1.156768798828125,0.8582665920257568,-0.34698593616485598,0.8169930577278137,-0.48698920011520388,0.12230801582336426,0.3477867543697357,0.35778382420539858,-0.22763283550739289,-0.4709309935569763,-0.24387763440608979,0.2073010951280594,0.32884541153907778,0.31821590662002566,0.23750247061252595,-1.2449803352355958,-0.05842204391956329,0.7339001297950745,0.22070445120334626,0.6773036122322083,-0.41805994510650637,0.6369871497154236,-0.501169741153717,0.5259141325950623,-1.1709064245224,0.11375755816698075,-0.21809008717536927,0.6571840643882752,1.4830560684204102,-0.9682607650756836,0.044792644679546359,-0.36172986030578616,-0.42105939984321597,0.9461464881896973,-0.24670414626598359,-0.15990377962589265,0.6098537445068359,-0.5185083150863648,0.31570878624916079,0.24358981847763062,0.7308916449546814,0.25074610114097597,-0.12211178243160248,-0.22883003950119019,-0.3641316890716553,-0.7397554516792297,0.5074518918991089,-0.5425997376441956,-0.09511712193489075,-0.13079246878623963,-0.47414374351501467,-0.6070117950439453,0.18558642268180848,-0.5622901320457459,-0.5382785201072693,-1.2301816940307618,0.6265566349029541,-0.536942720413208,-0.31496161222457888,-0.8741704821586609,0.33793768286705019,-0.6412609815597534,-0.4760591387748718,-0.2821334898471832,-0.5439906716346741,-0.39951756596565249,-0.13651277124881745,0.10947932302951813,0.6089437007904053,0.7775797247886658,1.3137749433517457,1.4512906074523926,0.2622695565223694,1.860052227973938,0.12031383067369461,0.41853067278862,0.1408914178609848,0.9125694632530212,-0.6062683463096619,-0.4706195294857025,0.6691418290138245,0.5587316155433655,-0.12503209710121156,0.45550262928009035,0.7481967806816101,-0.4008539617061615,-0.6874257922172546,0.34085318446159365,-0.13567259907722474,-0.35697782039642336,0.26275676488876345,-0.06828846782445908,0.2963813841342926,-0.02696407213807106,0.04906710237264633,0.3101750910282135,0.12644213438034059,-0.12671424448490144,-0.3806779682636261,-0.4585312008857727,0.6020206212997437,0.04061516374349594,0.951115608215332,-0.5915374755859375,-0.500951886177063,0.3397504687309265,-0.5218074321746826,0.37657487392425539,0.2131587713956833,-0.26842421293258669,0.8545950651168823,-0.03795240446925163,-0.5851660966873169,0.9307382106781006,-0.9797880053520203,-0.0691501796245575,-0.056452538818120959,-0.16818216443061829,-0.6250316500663757,-0.9008485078811646,-0.47208911180496218,0.719243586063385,0.07140563428401947,0.17037835717201234,0.6563498377799988,-1.6973614692687989,-0.23172618448734284,-0.32537248730659487,-0.35522207617759707,0.09878253936767578,-0.08056112378835678,1.1919032335281373,0.5831179022789002,0.310136616230011,0.04545557498931885,-0.057351842522621158,-0.3521880507469177,0.21101509034633637,0.4499429166316986,0.1689421832561493,0.22312971949577332,0.4116297960281372,-0.06294365972280503,0.08436693996191025,-0.26343482732772829,-0.3815970718860626,-0.3903822898864746,0.4625900983810425,0.2499258667230606,-0.14340201020240785,0.7426896691322327,0.05717585235834122,-0.08355149626731873,0.4043424129486084,-0.12779687345027924,-0.4057401418685913,0.8811344504356384,-0.3179425597190857,-0.029667895287275316,0.2914543151855469,-0.6079899668693543,-0.9077361226081848,-0.9469476342201233,0.4496646821498871,0.3373808264732361,0.4485308825969696,-0.21648795902729035,0.4415149986743927,0.707766056060791,-1.0890616178512574,-0.26977503299713137,-0.3384424149990082,-0.45581158995628359,-0.28001725673675539,-0.37459462881088259,0.1622428148984909,0.01383138820528984,-0.03883667662739754,0.22597116231918336,0.20839425921440125,-0.9608296751976013,0.42904090881347659,0.20079605281352998,0.43890729546546938,-0.4488392472267151,-0.9122604727745056,0.4826965034008026,-0.910692572593689,-0.4255453944206238,-0.1669319123029709,-0.20341676473617555,-0.6446573138237,0.7205526232719421,-0.01933363452553749,0.9712245464324951,0.16375932097434998,-0.20065678656101228,0.10212630033493042,0.14715856313705445,-0.4470381438732147,-0.22671277821063996,0.6784058213233948,-0.5358231663703919,-0.32209712266921999,-0.16090571880340577,0.20518530905246736,0.14697764813899995,0.014247756451368332,0.11686988919973374,1.1508921384811402,-0.12197599560022354,-0.2590499818325043,0.5129185318946838,0.5094282031059265,0.3279028832912445,-0.44305911660194399,-1.0606138706207276,0.40150460600852969,-0.025034531950950624,0.2891184091567993,-0.7812449932098389,-0.0618310421705246,0.5941152572631836,0.9113574624061585,0.32501429319381716,0.39680373668670657,-0.5562813878059387,0.6156953573226929,-0.4818207323551178,-0.4088449478149414,0.10377506166696549,-0.1966848522424698,-0.1599818766117096,-0.13989371061325074,0.40374061465263369,-0.14316198229789735,0.10524673014879227,-0.34741124510765078,-0.3234289288520813,-0.37181228399276736,-0.6337376236915588,0.5106635093688965,0.48347318172454836,1.0222601890563965,0.3393532931804657,-0.9942098259925842,-0.31556451320648196,-0.20590195059776307,0.017710139974951745,0.185832679271698,0.22476452589035035,0.7242576479911804,0.6948673129081726,0.7737017273902893,-0.011749498546123505,-0.5203486084938049,0.03405049443244934,0.8655717372894287,-0.4907281994819641,0.887561559677124,0.43442246317863467,-0.25041502714157107,-0.422615110874176,-0.22877533733844758,0.8667537569999695,0.333955317735672,-0.47952911257743838,-0.020811572670936586,-0.04233632609248161,-0.7161214351654053,0.25444307923316958,1.1708073616027833,0.12040702998638153,-0.04712660238146782,0.16891442239284516,-0.5694130659103394,-0.10673817992210388,-0.4626169800758362,0.3148951530456543,-0.25890931487083437,0.36148887872695925,0.432844877243042,-0.3244090676307678,-0.5234130620956421,-0.861538290977478,0.06919710338115692,-0.016956603154540063,0.4483482837677002,0.18515683710575105,-0.07993929833173752,-1.3032554388046265,-0.9990289807319641,-1.157707691192627,-0.04937559366226196,0.5453160405158997,0.12360645830631256,0.4063061475753784,0.69745934009552,0.2364368885755539,-0.054194916039705279,-1.18246328830719,-0.672604501247406,0.009179066866636277,-0.2110183835029602,0.05344405397772789,0.03506642207503319,-0.03470088914036751,0.21373026072978974,-0.2867111563682556,-0.29647040367126467,-0.8820815086364746,0.5814871788024902,-0.7715694308280945,-0.42254841327667239,0.7739179730415344,0.5394185781478882,-0.3804529905319214,-0.09713207185268402,0.75071120262146,-0.925423264503479,0.9012433290481567,-0.678033709526062,-0.05616632103919983,-0.0765872448682785,0.045688968151807788,0.5837249159812927,-0.24634358286857606,-1.0968881845474244,-0.4105636179447174,-0.29169249534606936,0.17751388251781465,-0.34016120433807375,-0.46117284893989565,0.13821431994438172,-0.22854115068912507,-0.43810540437698367,-0.03222723677754402,-0.032645754516124728,-0.5016950964927673,-0.1977175921201706,-0.13134941458702088,-0.12659919261932374,0.5745916366577148,0.41785821318626406,0.3834120035171509,0.3366720378398895,-0.3160242736339569,0.3445947766304016,1.1841410398483277,-0.12707240879535676,0.28247424960136416,-0.06660076975822449,0.5332258343696594,0.4701651632785797,-0.19558845460414887,0.3385898172855377,0.03084222599864006,1.0159889459609986,1.0157819986343384,0.22439290583133698,0.1173410564661026,-1.1453336477279664,-0.49122345447540285,1.1775970458984376,0.5080918073654175,0.0625370517373085,0.019899612292647363,-0.7653375864028931,0.6428624391555786,0.03263922035694122,-0.5019330382347107,0.11561718583106995,-0.3434094786643982,0.030620049685239793,0.07490480691194534,0.6059878468513489,1.3163795471191407,-0.019296638667583467,0.03586530312895775,1.0195896625518799,-1.058779239654541,-0.3940107226371765,0.22062179446220399,-0.18744254112243653,-1.1355184316635132,-0.45403847098350527,0.9451161026954651,0.05198159068822861,0.2711188793182373,-0.542955756187439,0.07958042621612549,0.0384790264070034,0.6787382960319519,0.7930623888969421,-0.2532287836074829,-0.2784443199634552,-0.3955717086791992,0.09731869399547577,0.5934960842132568,0.4772825241088867,0.11351612210273743,-0.13094015419483186,0.6864119172096252,-0.3163018822669983,-0.023229504004120828,0.051505621522665027,0.4726402163505554,1.001749038696289,0.07449667900800705,0.5411766171455383,0.21611285209655763,0.5034433007240295,0.276837021112442,0.24322804808616639,-0.08645825833082199,-0.12525320053100587,-0.056331370025873187,-0.40336039662361147,0.0388137623667717,0.2037162482738495,-0.18039007484912873,-0.17929665744304658,-0.5316609144210815,1.166638970375061,0.08188189566135407,-0.38481074571609499,-0.1681496500968933,-0.5995215177536011,0.9974029660224915,0.7586987018585205,0.7126287221908569,1.1941276788711548,-0.26712989807128909,-0.4835250675678253,0.8583101630210877,0.21234892308712007,0.5139474272727966,0.15190228819847108,0.354701429605484,-0.44036275148391726,-0.06214384734630585,1.0178240537643433,0.40182751417160036,-0.22093141078948975,-0.6282933354377747,1.0042614936828614,-1.291006088256836,-0.1775156408548355,-1.5890835523605347,0.0630030483007431,-0.6361104249954224,-0.6378077268600464,0.48744693398475649,0.059066109359264377,-0.48751798272132876,-0.2841990292072296,-0.2085680365562439,-0.21431905031204225,0.014619311317801476,0.2595592141151428,-0.5448481440544128,0.42839550971984866,-0.3270341455936432,0.5747374296188355,0.65962153673172,0.31736958026885989,-0.24206353724002839,-0.3750167787075043,-0.3316284418106079,0.6709204912185669,-0.021187733858823777,-0.03753792867064476,0.7439700365066528,-0.2873784303665161,0.5182967185974121,-0.5972169637680054,-0.13962601125240327,0.7661950588226318,0.7140390276908875,0.5220239758491516,0.060797374695539477,0.4120035171508789,1.0747997760772706,-0.10820581018924713,-0.8502120971679688,-0.3245947062969208,0.8012481331825256,-0.628873348236084,0.09263212233781815,-0.3328021466732025,-0.21876348555088044,0.9795262813568115,-0.41159331798553469,0.8968753814697266,0.02222616970539093,0.27542564272880556,-0.09009571373462677,-0.37870538234710696,-0.583040714263916,-0.4630248248577118,-0.5238592028617859,-0.19151358306407929,-0.08739613741636276,-0.3196999132633209,1.381184697151184,-1.3435490131378174,0.18380579352378846,0.670717716217041,0.8109853267669678,0.17428475618362428,-0.12066160887479782,0.09893906861543656,-0.30775511264801028,-0.14239749312400819,-0.03315573185682297,-0.12472455948591232,-0.2939901351928711,-0.1526498645544052,1.0174247026443482,-0.06596831977367401,0.0398407056927681,-0.0999002605676651,-0.07667501270771027,-0.481032133102417,0.26199468970298769,-0.6499897241592407,-0.5901280045509338,0.03392644599080086,-0.2188294678926468,-0.49050331115722659,0.4948555529117584,0.052342306822538379,0.12535811960697175,0.39531734585762026,0.3284456729888916,-0.36997467279434206,-0.06556303799152374,-0.4165622293949127,-0.4963605999946594,0.015583387576043606,-1.2473366260528565,0.8295414447784424,-0.10403519868850708,-0.13666754961013795,-0.6137814521789551,-0.5983381867408752,-0.37432029843330386,-0.26998093724250796,-0.5986047983169556,1.060499668121338,-0.12059415876865387,0.2810141146183014,-0.35728082060813906,0.37992388010025027,-0.06676843017339707,-0.6065198183059692,-0.7936000823974609,0.4274856746196747,0.15529048442840577,0.48994436860084536,0.8252555727958679,0.5348564982414246,-0.9358893036842346,0.7030140161514282,-0.48473116755485537,0.323241263628006,0.5315255522727966,-0.12479226291179657,-1.1168384552001954,-0.13059812784194947,-0.07246065884828568,0.03150763362646103,-0.6408805251121521,-0.044012024998664859,1.0583833456039429,-0.6008808612823486,0.21098445355892182,0.3411048650741577,0.27488669753074648,-0.19937339425086976,0.43340417742729189,-0.6873353719711304,-0.08046725392341614,0.5118743181228638,-0.8704859018325806,-0.011596687138080597,0.5731070041656494,0.5659347772598267,-0.6363521814346314,0.46018511056900027,0.33467769622802737,-0.9885842204093933,-0.11821923404932022,0.22804561257362367,0.7359868288040161,0.23428821563720704,-0.5078099966049194,0.08331586420536041,-0.19327403604984284,-2.363025426864624,-0.3580552935600281,0.7175513505935669,-0.637027382850647,-0.04710053279995918,0.08654375374317169,-0.06108903884887695,-0.7030946016311646,-0.44665607810020449,-0.20518553256988526,0.4853978455066681,0.1688283383846283,-0.35504594445228579,-0.3010638952255249,0.041711002588272098,-0.1030522882938385,0.22435513138771058,-0.1316838413476944,-0.8880981802940369,-0.07986898720264435,0.08852654695510864,0.5095882415771484,0.3927706182003021,-0.08484147489070893,0.3825312852859497,-0.6139747500419617,-0.24938136339187623,-0.03996307775378227,-0.713325560092926,-0.7981774806976318,-0.09789019823074341,0.16715438663959504,-0.30642762780189516,0.24943578243255616,0.23384366929531098,0.34360769391059878,-0.395690381526947,0.6230899095535278,0.6779879331588745,0.014979701489210129,-0.005679843947291374,-0.3309003412723541,0.6749799847602844,-0.2232641726732254,-0.31246688961982729,0.27280566096305849,-0.6845930814743042,-0.12173774093389511,-0.35679739713668826,-0.3376244604587555,-0.2006096988916397,-0.5929760336875916,0.6575596928596497,0.00790118332952261,-0.027573639526963235,-0.2968589663505554,-0.6131841540336609,-0.6698036193847656,0.6523296236991882,0.32944339513778689,0.488394170999527,0.3165803551673889,0.3149319291114807,-0.4030812382698059,0.6470661163330078,-0.08832639455795288,-0.4820067882537842,-0.40777140855789187,1.530786156654358,-0.24626514315605164,-0.23161643743515016,0.6713964343070984,-0.4349335730075836,-0.7378612756729126,-0.1596398651599884,0.047330472618341449,-0.3974188268184662,-0.10432624071836472,0.06847325712442398,-0.30104124546051028,-0.3169465959072113,0.5077151656150818,0.07373826205730438,0.6353301405906677,-0.19055213034152986,-0.762765109539032,-0.39430299401283266,0.4269676208496094,0.21294660866260529,-0.12498436868190766,0.7834903597831726,-0.9642650485038757,0.7630734443664551,-0.9545770883560181,-0.7363824248313904,-0.1657169759273529,-0.5587010979652405,0.6365786194801331,0.033310674130916598,1.178829550743103,0.5687609910964966,0.2284563034772873,0.6414023041725159,-0.17025955021381379,-0.11408106237649918,-0.7912291884422302,0.04586467519402504,-0.26195472478866579,0.24913963675498963,-0.2738937735557556,0.67238849401474,-0.5707659721374512,1.0130641460418702,-0.12783649563789369,-0.7250752449035645,0.44339779019355776,0.01787954568862915,-0.022867240011692048,-0.009923148900270462,-0.08732568472623825,0.8217164278030396,0.49763113260269167,0.07124543935060501,0.3254207968711853,0.03689741715788841,-1.0156067609786988,0.3599151074886322,0.08746150881052017,0.12773734331130982,0.6465492248535156,-0.42258456349372866,0.35837164521217348,-0.8371924161911011,0.6420251727104187,0.6712738275527954,0.5253739953041077,0.27210402488708498,0.197598397731781,-0.12148705869913101,0.5739926099777222,-0.4857722222805023,0.3064189851284027,0.5099676251411438,0.11688922345638275,0.9986288547515869,-0.26962172985076907,-1.2251683473587037,-1.051169991493225,0.18269826471805573,-0.6368007659912109,-0.004153987392783165,-0.6238293051719666,-0.05670608952641487,0.10263548791408539,0.7253865599632263,0.15024657547473908,-0.16535411775112153,0.47203877568244936,-0.6717963814735413,0.5008389949798584,0.0033823566045612098,-0.1988091915845871,-0.017092961817979814,-0.30398938059806826,-0.12826299667358399,-0.002959376899525523,0.4923844635486603,0.23857559263706208,0.7131938934326172,-0.38813769817352297,-0.4319275915622711,-0.890910267829895,0.6128747463226318,0.010534127242863179,-0.37406736612319949,-0.45527124404907229,-0.17926858365535737,-0.20034894347190858,-0.23461030423641206,-0.22311507165431977,0.4659676253795624,0.1607835590839386,0.8557004928588867,0.6357551217079163,0.16501490771770478,0.5583925843238831,0.4641222059726715,-0.2515897750854492,-0.6630121469497681,-0.22769133746623994,0.5890925526618958,-0.8377707600593567,0.12317031621932984,-0.07318641245365143,-0.06427224725484848,-0.7515770792961121,-0.2608841359615326,0.23152229189872743,-0.09872133284807205,0.1641516536474228,-0.29078245162963869,-0.4849371612071991,0.7153956890106201,-0.6755186319351196,0.27420908212661745,0.3516569435596466,-0.04815158620476723,-0.03155544027686119,-0.4025738537311554,0.412002831697464,-0.4339214563369751,-0.2117786705493927,0.9314786791801453,0.16507042944431306,0.05128214880824089,-1.013609766960144,-0.030128005892038347,-0.05901096761226654,-0.4246714413166046,-0.3687905967235565,0.20363669097423554,0.06143983080983162,0.2769341766834259,0.7020847797393799,-0.3366643786430359,0.1492195427417755,-1.029215931892395,-0.7291337847709656,-0.0956500694155693,-0.1444997638463974,0.3892703950405121,0.006726468913257122,-0.58210688829422,0.9806225299835205,0.33809638023376467,0.6351264119148254,-0.13059817254543305,-0.4661779999732971,-0.5828367471694946,0.2383284568786621,-0.22003965079784394,0.0739792212843895,-0.24562343955039979,-0.4468630254268646,0.15619714558124543,-0.6614702939987183,0.0006762029370293021,0.8423671126365662,-0.12951134145259858,0.2624969482421875,0.26951026916503909,0.17797887325286866,-0.12168017774820328,0.28349101543426516,-0.38542795181274416,0.18017323315143586,0.8241074085235596,0.8498306274414063,0.2510548233985901,0.48130735754966738,0.9118703603744507,0.5128851532936096,-0.5329011082649231,-0.5078257322311401,-0.7626587748527527,-0.07122403383255005,-0.5100480318069458,0.2222638726234436,0.4532751441001892,0.28110674023628237,-1.1879326105117798,0.35379770398139956,0.5100162029266357,0.29347875714302065,-0.8030068874359131,0.07298639416694641,-0.4914586842060089,-0.46435779333114626,0.24954071640968324,0.7956854701042175,-0.3479520380496979,-0.7403859496116638,0.7894260287284851,0.43143272399902346,-0.3354812264442444,-0.17460501194000245,0.2655090093612671,-0.0448182113468647,0.37817639112472536,-0.9529030919075012,1.3302115201950074,-0.10905750095844269,0.4890235960483551,-0.08837305009365082,-0.0054978919215500359,-0.541673481464386,0.5631288886070252,-0.82352614402771,0.35533279180526736,-0.52241450548172,0.9475494623184204,0.6041172742843628,1.1965636014938355,0.07609445601701737,0.37001559138298037,0.4671403765678406,-0.3506303131580353,0.4787540137767792,-0.09712918102741242,0.03236130252480507,-0.8041448593139648,0.8483666777610779,0.17759892344474793,0.289078950881958,-0.2513509690761566,0.07433031499385834,0.18311387300491334,0.7437582015991211,0.06225314736366272,-0.3050394654273987,0.042599670588970187,0.43547049164772036,-0.3897044062614441,0.5496776700019836,-0.9121680855751038,0.12484167516231537,-0.07885675877332688,0.24990364909172059,0.1955399513244629,0.24243631958961488,0.8318528532981873,0.6059272885322571,-1.3338117599487305,-0.9345789551734924,-1.0037428140640259,-0.4113840162754059,-0.09283137321472168,0.3666997253894806,-0.7812939286231995,0.050396695733070376,-0.37284812331199648,-0.562072217464447,-0.19373677670955659,-0.3763043284416199,-0.019876869395375253,0.029847973957657815,0.41901838779449465,-0.20388580858707429,0.18670134246349336,-0.3951531946659088,0.5524552464485169,-0.9836363196372986,0.4068860411643982,0.15445664525032044,-0.6014253497123718,0.006867054384201765,0.5438838005065918,0.855077862739563,-0.3149014115333557,0.5488246083259583,0.10905297845602036,0.05906282737851143,-0.028954170644283296,0.3041893541812897,0.8559614419937134,0.31715527176856997,0.1753770262002945,0.7767174243927002]},"biases":[-0.6363941431045532,-0.49840080738067629,-0.25810885429382326,0.1308848112821579,0.16341330111026765,-0.4735291004180908,0.45273488759994509,-0.11251790821552277,-0.2857217788696289,-0.11858844757080078,-1.6917177438735963,-0.6506969332695007,1.314628005027771,-0.08870057016611099,0.375543475151062,-0.6976118683815002,0.21983939409255982,0.6099645495414734,-0.24806314706802369,-0.25829824805259707,-0.06706437468528748,-0.03833842650055885,0.6552040576934815,0.6650800704956055,-0.26997295022010805,0.13266944885253907,0.740679919719696,0.13498637080192567,-0.3527807891368866,-0.887750506401062,-0.8462628126144409,0.3144996166229248,-0.2346358448266983,-0.7045146226882935,-0.48863548040390017,-0.599960207939148,0.4707314372062683,-0.23575642704963685,0.10677412152290344,-0.21111828088760377,0.5340080261230469,0.5457188487052918,-0.15061049163341523,0.3163699507713318]},{"neurons":[0.88059401512146,0.9848282337188721,0.9922104477882385,0.9954873919487,0.8717353343963623,0.08941281586885452,0.9977185130119324,0.9468623399734497,0.9688560962677002,-0.26227256655693056,-0.8504528999328613,-0.5791312456130981,-0.9991633296012878,-0.9937742352485657,-0.9992653727531433,-0.9505215883255005,0.9952447414398193,0.9998660087585449,0.952608585357666,-0.7866115570068359,-0.21131671965122224,-0.9632859826087952],"weights":{"rows":22,"cols":44,"data":[0.33418506383895876,-0.08517749607563019,0.19177763164043427,0.018010342493653299,-0.6167603135108948,1.0076699256896973,0.1815733015537262,-0.16054463386535645,0.7627216577529907,-0.7297722101211548,-0.300682932138443,0.5179126262664795,0.29238682985305788,-0.4360063672065735,0.4915546476840973,-0.008085150271654129,-1.0275509357452393,-0.5825720429420471,-0.6343775391578674,-0.6129990816116333,-0.995894730091095,0.09409657120704651,-0.29018643498420718,0.3179130256175995,-0.32912328839302065,-0.10948634147644043,-0.5011913180351257,-0.6146429181098938,0.11122598499059677,-0.223616361618042,-0.7493934035301209,-1.41054368019104,-0.9639418721199036,0.5288054943084717,-1.3021804094314576,0.18830786645412446,0.03209483623504639,0.009355026297271252,0.04797518253326416,-0.09864729642868042,-0.5296331644058228,-0.2756578028202057,-0.691743791103363,0.3968929946422577,1.0088213682174683,0.444773405790329,0.1950681358575821,-0.02190743200480938,0.4335748851299286,0.444918155670166,0.4995366632938385,-0.7823172807693481,-0.9700028300285339,0.39584654569625857,0.6628511548042297,-0.5231210589408875,0.42009440064430239,0.08912138640880585,0.08181989938020706,-0.6924023032188416,-0.4940398335456848,0.44832149147987368,-0.11173701286315918,-0.537368655204773,-0.5568917393684387,0.2019907683134079,0.876645028591156,-0.16810715198516847,-0.036510709673166278,0.18876931071281434,0.8270586729049683,1.247135043144226,1.349470615386963,0.8337337374687195,-0.41679367423057558,-0.7969852089881897,-0.6350012421607971,-0.9671332240104675,-0.7451176643371582,-0.6797699928283691,-0.07051577419042587,0.712828516960144,-0.19397830963134767,-1.0378741025924683,0.5120621919631958,0.12010076642036438,-0.518602192401886,0.49138373136520388,0.8334912061691284,0.011742855422198773,0.11307793855667114,-0.47122445702552798,0.34612441062927248,-0.2133021354675293,0.6473848223686218,-0.8173614144325256,-0.2550891935825348,-0.17478227615356446,0.02469545230269432,-0.3175519108772278,-0.799454391002655,-0.07319312542676926,0.5696656107902527,0.4491212069988251,-1.3276455402374268,1.150227427482605,0.3112950623035431,0.28815191984176638,0.28286704421043398,0.30439579486846926,0.24354593455791474,0.7067819833755493,0.30067503452301028,0.5694004893302918,-0.45276644825935366,0.4743385314941406,-0.7525243759155273,-0.3966789245605469,0.39345651865005495,0.06199294328689575,0.151322603225708,1.11897873878479,0.15713945031166078,-0.31993141770362856,0.6193656921386719,-0.5977905988693237,0.37661540508270266,-0.14462576806545258,0.45038720965385439,-0.2887406647205353,-0.824981689453125,1.184262990951538,0.04938890412449837,0.6029247641563416,-0.27569901943206789,0.27204641699790957,0.6416227221488953,-0.39866530895233157,0.046777717769145969,-0.6421048045158386,0.17585645616054536,-1.1501808166503907,0.36873871088027956,-0.3757738471031189,-0.5529079437255859,0.22887948155403138,0.4255377948284149,0.3598099946975708,-0.27275899052619936,-0.18873226642608643,0.43401312828063967,0.05816786736249924,0.11065756529569626,-0.1645914763212204,-0.05078261345624924,-0.08242595195770264,0.2836551368236542,0.07559037953615189,-0.9803330302238464,0.052990589290857318,-0.51064532995224,0.3613128960132599,-0.6777141690254211,0.9177213907241821,-0.8106997013092041,-0.6059961915016174,-0.057814549654722217,-1.0726022720336915,0.062426045536994937,-0.9680132865905762,0.39917540550231936,-0.5961942672729492,0.039351582527160647,0.5095339417457581,-0.36192676424980166,0.0335940457880497,-0.2560757100582123,-0.40022507309913638,0.6680406332015991,-0.5183361172676086,-0.1641974300146103,-0.4278111457824707,0.73187255859375,-0.5163546800613403,0.01650349795818329,-0.05773203819990158,0.3971720039844513,0.32583749294281008,0.5918509364128113,-0.09747765213251114,-0.3031677007675171,-0.3056368827819824,-0.390464723110199,0.2552797198295593,0.46771517395973208,0.2212008684873581,0.2632773816585541,-0.21829694509506226,0.5007103085517883,0.31728971004486086,0.1001487523317337,0.10057823359966278,-0.005548577755689621,0.837332546710968,-0.34922361373901369,-0.19713671505451203,-0.7899372577667236,-0.20976588129997254,0.3347591161727905,0.5328584313392639,-0.30607569217681887,0.6136114597320557,-0.5229762196540833,-0.8044148683547974,-0.29387861490249636,0.06849052757024765,-0.00043216938502155244,-0.5413505434989929,0.4158077836036682,0.4164838194847107,0.03286079317331314,0.7145804166793823,0.2232552468776703,-0.7884634733200073,-0.5642629265785217,-0.49319976568222048,-0.9340211749076843,-0.3156145215034485,-0.37651556730270388,0.5102514624595642,0.8790997862815857,0.37300243973731997,-0.04012193903326988,0.01985294744372368,0.31094270944595339,0.3506507873535156,-0.07986076921224594,0.7348560690879822,0.5741090178489685,-0.026277119293808938,-1.305540680885315,-0.8958425521850586,-0.14867264032363892,-0.21880435943603517,-0.2160012125968933,0.665219783782959,-0.6012619137763977,0.6189162731170654,-0.5670236349105835,-0.33251142501831057,0.35733261704444888,0.09712769836187363,0.05128610506653786,-0.19641359150409699,-0.7596946358680725,0.93058842420578,-0.21405665576457978,-0.6932393908500671,0.4181346297264099,0.17528791725635529,0.3527112603187561,0.03755742311477661,0.23324593901634217,-0.7338273525238037,1.377739429473877,0.4393210709095001,-0.3451402485370636,0.5006334781646729,-0.6030476093292236,-0.2948412001132965,-0.5811336636543274,-1.0939475297927857,-0.4923015534877777,-0.4053659737110138,-1.3326232433319092,-0.38502323627471926,0.32106590270996096,-0.29517048597335818,0.695590078830719,-0.5121556520462036,-0.0574793666601181,-0.06111915409564972,-0.2961384952068329,0.28634682297706606,0.5537999868392944,-0.21604213118553163,-1.2726404666900635,0.39617103338241579,0.21145391464233399,0.15433856844902039,-0.2602282762527466,-0.7683857679367065,-0.26258930563926699,0.28489455580711367,-0.6370662450790405,0.15246860682964326,0.4705406129360199,0.48952266573905947,-0.049249276518821719,-0.49254900217056277,-1.3098313808441163,0.8745191097259522,0.047932207584381106,0.4957304000854492,1.0061115026474,0.715171217918396,-0.13738414645195008,-0.5165130496025086,0.498494029045105,-0.43247905373573305,0.270567387342453,-0.3349973261356354,-0.5912065505981445,0.1733092963695526,-0.5050092935562134,0.07508298754692078,0.8300670981407166,-0.0406290665268898,0.2587278485298157,-0.009554250165820122,0.14505153894424439,0.3641214966773987,-0.07637175917625427,0.8017623424530029,-0.27657416462898257,-1.113373041152954,0.05682967230677605,-0.29772189259529116,-0.43111303448677065,0.34715598821640017,0.2843858301639557,-0.2312483936548233,0.01137622632086277,0.22612838447093965,-0.04754870384931564,0.6422246098518372,0.07515601068735123,0.1610274463891983,-0.22619947791099549,0.3765649199485779,-0.2572875916957855,-0.6962497234344482,0.002773069543763995,-0.3512175977230072,-0.32775285840034487,-0.4555220901966095,0.9664973020553589,0.785006046295166,0.10092770308256149,-0.6289345026016235,-0.06966958940029144,0.579613208770752,0.11398085951805115,0.3829866647720337,-0.09770786762237549,-0.2740129232406616,-0.33202388882637026,0.032120250165462497,-0.26969993114471438,-1.076928973197937,0.6982602477073669,0.016605213284492494,-0.46915173530578616,0.4414312541484833,0.16448146104812623,0.025842688977718355,-0.8030365109443665,0.466765433549881,-0.09254883229732514,-0.36805295944213869,-0.4823673367500305,-0.06505625694990158,1.6020770072937012,-0.5538998246192932,-0.0419582836329937,0.7197305560112,0.5343825817108154,-0.5392172336578369,-0.459011435508728,-0.1378982812166214,-0.07956189662218094,-0.5596434473991394,0.05631903558969498,-0.6497293710708618,0.03378244861960411,0.1623082458972931,0.23433002829551698,0.1221843734383583,0.3183276355266571,0.5802410244941711,-0.8951367139816284,1.5859673023223878,-0.13134805858135224,-0.6561555862426758,-0.7725841403007507,0.8690025210380554,0.3901543617248535,0.03490002453327179,0.3576347529888153,-0.06316369771957398,0.144502192735672,0.20256471633911134,-0.30701977014541628,0.6092380285263062,0.4792821407318115,-1.3142014741897584,0.4433242976665497,-0.6015357971191406,0.5767818093299866,-0.09745084494352341,-0.030676594004034997,0.7599943280220032,0.7645355463027954,-0.40797746181488039,0.7432997822761536,-0.7295168042182922,-0.7753339409828186,0.3117642402648926,-0.45842036604881289,0.2767390310764313,0.16625362634658814,0.47636863589286806,-0.8023433089256287,-1.068041205406189,-0.11154567450284958,-0.4140457510948181,0.3529508113861084,-0.15745007991790772,-0.4318530559539795,0.9140399098396301,0.3639604151248932,0.1283542811870575,0.9184775352478027,0.26660168170928957,0.40619680285453799,0.4939994215965271,-0.44961437582969668,-0.3772602677345276,-0.21902066469192506,-0.5576139688491821,-1.3137799501419068,0.30638474225997927,0.442966103553772,-1.0050705671310425,0.6809875965118408,0.029790610074996949,0.40725916624069216,-0.19387808442115785,0.0072823818773031239,0.281976580619812,0.5250440239906311,-0.09197134524583817,0.48224201798439028,0.7811585664749146,0.21711194515228272,-1.2464909553527833,0.1904141753911972,-1.2756211757659913,0.14022324979305268,-0.20075979828834535,-0.520448625087738,0.2569107413291931,-0.16848455369472505,-0.5602563619613648,-0.26728352904319765,0.3985220789909363,0.9773699641227722,0.7918869853019714,0.2084950953722,0.3714141249656677,-0.2442421168088913,0.1058625876903534,0.4200855791568756,0.14088322222232819,-0.8285372853279114,-0.21671141684055329,-0.38974881172180178,-0.33829155564308169,-0.069806307554245,-0.2685219347476959,-0.3337598145008087,-0.17112258076667787,0.04863053560256958,-0.21822422742843629,-1.1192138195037842,0.5727533102035523,-0.7955933809280396,-0.03717922419309616,-0.8666049838066101,-0.5688515901565552,-0.6712805032730103,-0.1355343610048294,0.31657612323760989,0.34080833196640017,0.09172657877206803,-0.39996230602264407,1.3325181007385255,-0.5450366139411926,0.03257172554731369,-0.6986407041549683,-0.038183506578207019,0.12741920351982118,-0.032558195292949679,-1.3664886951446534,-0.5419415831565857,0.02688843011856079,0.5437138080596924,-0.3458921015262604,0.45850807428359988,0.04179883748292923,0.8337091207504273,0.027207760140299798,-0.5779811143875122,0.505551278591156,0.2078167200088501,0.19869770109653474,0.5293649435043335,-0.5900742411613464,0.18839521706104279,-0.06689126789569855,0.05357006937265396,0.109248086810112,0.8124803900718689,0.8856576681137085,0.3593394458293915,-0.4365024268627167,0.2284066081047058,0.842576265335083,0.4655560553073883,-0.1368076205253601,0.042120665311813357,0.471318781375885,-0.383777916431427,-0.39401528239250185,0.553903341293335,-0.0046353768557310108,0.1398715376853943,0.22395743429660798,0.17198124527931214,0.45859068632125857,-0.1016649529337883,0.11060009151697159,0.2658770978450775,0.02272799424827099,0.013390127569437027,-1.2709944248199463,-0.6251711845397949,0.33275219798088076,-0.19803977012634278,0.5763974189758301,-0.33784717321395876,-0.38048699498176577,-0.17580977082252503,0.3303922414779663,0.3109235465526581,0.42025265097618105,0.27246585488319399,-0.19633249938488007,0.9847483038902283,-0.4236220717430115,-0.4685901403427124,-0.8797895908355713,-0.17408233880996705,-0.1292978823184967,-0.2432233691215515,0.0801883116364479,-0.00495557114481926,-0.4757085144519806,-0.6550847887992859,-0.3840247392654419,-0.38157474994659426,-0.19472385942935944,-0.07368429750204086,0.49511322379112246,0.7725158333778381,0.5283069014549255,-0.4402027130126953,-0.08152260631322861,-0.5139662027359009,0.0014798811171203852,0.2761582136154175,-0.30522283911705019,-0.24915742874145509,-0.297760546207428,-0.310491681098938,-0.8865179419517517,-0.40347665548324587,-0.17282430827617646,-0.41547223925590517,-0.3212040364742279,0.5678313374519348,0.6178866624832153,-0.11304380744695664,-0.05539218708872795,-0.032812174409627917,-0.9464828968048096,0.23131635785102845,-0.4902103841304779,0.5773821473121643,-0.12456341832876206,0.18556396663188935,-0.19393545389175416,0.6591333150863648,-0.3445780277252197,-0.2984370291233063,-0.0644771084189415,0.009893666952848435,0.23260441422462464,-0.6926355957984924,-0.04103716462850571,-0.5357006788253784,-0.49720776081085207,0.0038076406344771387,-0.184772327542305,0.22942709922790528,-0.06741053611040116,0.5684423446655273,0.3065393567085266,0.16236898303031922,-0.4296886920928955,0.3740174472332001,-0.048110321164131168,0.1772238165140152,-0.8514298796653748,0.32296282052993777,0.20944342017173768,0.076246477663517,-0.07719945907592774,-0.014425164088606835,0.9223977327346802,-0.904181182384491,0.015714824199676515,-0.39817073941230776,-0.35713642835617068,0.5272755026817322,0.08526875078678131,-0.9856929779052734,0.11887866258621216,-0.2587313652038574,-0.4680075943470001,0.703067421913147,-0.25909480452537539,-0.010725393891334534,-0.28781959414482119,0.6264849305152893,0.2941000759601593,0.1316480040550232,-0.36876219511032107,0.6790476441383362,-0.5104544758796692,0.17438791692256928,0.3426514267921448,0.11046548932790756,0.010938252322375775,-0.05796913430094719,-0.03307376801967621,0.022236917167901994,-0.03751335293054581,-0.3770313262939453,-1.2842148542404175,0.4749435782432556,0.7645983099937439,-0.6730822920799255,-0.11552615463733673,-0.6313456296920776,0.8881906867027283,0.2868063151836395,0.6474080085754395,-0.8870107531547546,0.606050431728363,0.5660610198974609,-0.5058952569961548,-0.21179260313510896,0.10199606418609619,0.20172807574272157,-0.06713761389255524,0.43053534626960757,-0.4734865427017212,0.45504164695739748,-0.05253797024488449,-0.07827875763177872,0.6951571702957153,-0.16105416417121888,0.13405287265777589,-0.36435410380363467,-0.8851090669631958,-0.577116847038269,0.25924432277679446,-0.09062134474515915,-0.03622410446405411,-0.6570309996604919,-0.27497726678848269,0.4230322241783142,0.22803401947021485,0.6587181687355042,0.6142288446426392,0.26476019620895388,0.12708160281181336,0.34255194664001467,-0.19866220653057099,-0.10988021641969681,-0.2770402133464813,0.11019696295261383,-0.40121448040008547,0.6727064251899719,-0.27301162481307986,1.1440759897232056,-0.5990564227104187,0.7577546238899231,-0.24379681050777436,-0.7625482082366943,0.40622979402542117,-0.573313295841217,0.4393708407878876,0.041572701185941699,-0.3191539943218231,-0.764511227607727,-0.4404182434082031,-0.6856375336647034,-0.12157988548278809,-0.33482059836387637,-0.372336208820343,-0.7885599136352539,-0.4723060131072998,0.15142376720905305,-0.21869663894176484,0.2829626500606537,0.48924019932746889,0.5638057589530945,0.4012598991394043,-0.09875892102718353,0.14349809288978578,-0.1317874938249588,-0.8893680572509766,-0.04765209183096886,-0.07366212457418442,0.6061052680015564,-0.5340811014175415,0.32369759678840639,0.04086509346961975,0.4533859193325043,0.00364901521243155,-0.6809219121932983,-0.21504521369934083,-0.2639186680316925,0.5645022988319397,0.39534568786621096,0.1496933251619339,-0.4192023277282715,-0.7217271327972412,0.8511531352996826,-0.18735721707344056,-0.2331513613462448,0.4095255136489868,-0.3227943480014801,-0.8340162038803101,-1.214101791381836,0.006431884597986937,-0.6265667080879211,-0.3355688452720642,-0.6513974666595459,0.3027428984642029,0.6188716888427734,-0.08095283806324005,-0.9041953086853027,0.10846748948097229,0.6549849510192871,-0.1736564040184021,-0.393495112657547,0.9128634929656982,-0.6771758794784546,0.039561979472637179,1.1502764225006104,-0.16783596575260163,0.07253307104110718,0.22583869099617005,-0.41940033435821535,-0.328112930059433,-0.43480950593948367,-0.035069290548563007,-0.15508438646793366,-1.0774829387664796,0.007193322759121656,-0.1007642149925232,0.3593272566795349,-0.5667153596878052,0.6048282384872437,-0.300035297870636,0.49885717034339907,-0.12048956751823425,-0.0016141554806381465,-0.20850951969623567,0.016753405332565309,0.48639506101608279,-0.4150296151638031,0.4131835401058197,0.18105004727840424,0.5470841526985169,0.4703116714954376,0.7719758152961731,-0.6964710354804993,0.05094090849161148,-0.44833511114120486,0.0637291744351387,1.0711824893951417,-0.3488083779811859,-0.4519522190093994,-0.03381146490573883,-0.35056817531585696,1.1567867994308472,-1.5858771800994874,0.24790596961975099,-0.08054891973733902,-0.15679720044136048,0.573686957359314,-0.1470685750246048,-0.5115676522254944,0.13388364017009736,0.1757737100124359,0.9298980236053467,1.0042130947113038,-0.3769319951534271,0.5551644563674927,-0.04121970757842064,-0.5097296237945557,-0.4985477030277252,0.605162501335144,1.5793101787567139,0.623897910118103,-0.4226577579975128,-0.5343096852302551,-0.27380698919296267,-0.1945943683385849,0.1770821362733841,0.1633787602186203,0.9196335673332214,-0.20011650025844575,-0.4338819086551666,-0.8068423867225647,0.45412859320640566,0.13367176055908204,0.5732715725898743,-0.15795814990997315,-0.9782619476318359,-0.23442085087299348,0.7476322054862976,0.642192542552948,0.3063180446624756,-0.5481852293014526,-0.1078556552529335,0.6319621205329895,0.24586518108844758,-0.8530026078224182,-0.6052978038787842,-0.1402500867843628,-0.3130852282047272,-0.21649706363677979,-0.4404579997062683,-0.5717498660087586,0.3869034945964813,-0.940632164478302,-0.4518141746520996,-0.048999104648828509,-0.04861300438642502,0.00006201243377290666,0.2426612377166748,0.29208260774612429,-0.7758878469467163,-0.4569683074951172,0.3836013078689575,0.07092954218387604,1.6168086528778077,-1.3029440641403199,0.43112054467201235,-0.3540770709514618,-0.05050833523273468,0.01627768948674202,0.6980130076408386,-0.2672056257724762,0.43009597063064577,0.07728420943021774,0.40122154355049136,-0.6660202145576477,-0.06606537848711014,-0.3935670852661133,0.2219841182231903,-0.26128461956977847,-0.2699858546257019,0.515561580657959,-0.7221457958221436,0.8120778799057007,0.4986441433429718,0.011835473589599133,-0.17522233724594117,0.7620804905891419,0.30714619159698489,-0.305581659078598,-0.5466790795326233,0.31331077218055727,-0.20389097929000855,0.5940873622894287,-0.4247835576534271,0.12257103621959686,-0.37191224098205569,-0.650836706161499,0.5186757445335388,-0.21637862920761109,-0.10926761478185654,-0.0334993377327919,0.39425188302993777,0.17346392571926118,-1.0445170402526856,0.010086307302117348,-0.7884603142738342,-0.28920355439186098,0.06589501351118088,-0.015351501293480397,-0.33087357878685,-0.24318531155586244,-0.12798431515693665,-0.3492935597896576,-0.053051114082336429,0.49673545360565188,-0.4768995940685272,0.5679410696029663,0.029704172164201738,-0.3584464490413666,-0.17695942521095277,-0.8664507269859314,0.9795064926147461,-0.2827378213405609,-0.05008218437433243,-0.1910461187362671,0.008796785958111287,-0.49309903383255007,0.010756278410553933,0.639592170715332,-0.8617903590202332,-0.4638979136943817,-0.1800551861524582,-0.11471650749444962,-0.06425011157989502,0.8685128688812256,0.8803170323371887,-0.7956063747406006,0.668224036693573,0.15264132618904115,0.21548371016979218,0.8348438143730164,0.3818854093551636,-0.3223717212677002,-0.19534370303153993,0.23667898774147035,0.1133415475487709,0.03681512176990509,0.5499329566955566,0.027804573997855188,0.5614904165267944,-0.5771421194076538,-0.12116862833499909,0.6212857961654663,1.139282464981079,-0.20716789364814759,-0.13025666773319245,0.25306084752082827,-0.27195489406585696,0.14378392696380616,-0.13543637096881867]},"biases":[-0.3369203507900238,-0.12390460073947907,-0.16521061956882478,0.45835286378860476,0.595947265625,0.282732218503952,-0.12031355500221253,0.4474824368953705,0.2720736861228943,-0.02137492597103119,-0.006969355512410402,0.047231778502464297,-0.74904865026474,0.9203759431838989,-0.8046669960021973,0.6293247938156128,-0.061336878687143329,-0.5057129263877869,-0.045315586030483249,0.06540386378765106,-0.2727167010307312,-0.5107725858688355]},{"neurons":[-0.6688764691352844,-0.9999185800552368,0.38690754771232607,-0.9820091724395752,-0.4490719735622406,-0.956677258014679,0.9999668598175049,0.9659572839736939,0.15311284363269807,-0.9860605597496033,0.9997634291648865],"weights":{"rows":11,"cols":22,"data":[-0.3822046220302582,-0.1075902134180069,0.882535994052887,0.1543576866388321,0.6310738325119019,0.3902474641799927,-0.05880432203412056,0.6067938208580017,0.26588159799575808,0.3414725065231323,-0.5533349514007568,0.6896806359291077,0.23675768077373506,-0.17237669229507447,0.38519278168678286,0.6856948733329773,-0.18417412042617799,-1.2662806510925294,-0.867684006690979,-0.49776679277420046,-0.7467599511146545,0.03244778886437416,-0.9588127136230469,-0.7023860812187195,0.4430270791053772,-0.03152375668287277,-0.07687307894229889,-0.45319700241088869,-0.21192064881324769,0.7574133276939392,-0.39188694953918459,0.871761679649353,-0.45319637656211855,1.493463397026062,0.2569301426410675,0.5631828308105469,0.04475013539195061,0.9659054279327393,-1.1442205905914307,0.12134168297052384,-0.030146313831210138,-0.06586173176765442,0.24302822351455689,0.28934720158576968,0.13269449770450593,0.7280236482620239,-0.36725473403930666,0.2800276279449463,0.19705495238304139,0.45040035247802737,0.7977455854415894,-0.7967489957809448,-0.06610806286334992,-0.12629921734333039,0.31378036737442019,-0.1631045937538147,-0.5603456497192383,-0.1975248008966446,0.5606480836868286,0.22144904732704163,-0.25156545639038088,0.28932318091392519,0.6729718446731567,0.9438207149505615,0.2549190819263458,0.016712432727217675,-0.4204806983470917,-0.5969414114952087,-0.4871367812156677,0.356510728597641,0.4204925000667572,-0.7766018509864807,0.42290133237838747,0.46352872252464297,0.13896781206130982,0.4867681562900543,0.1056068018078804,0.276044636964798,0.6945321559906006,0.4689379930496216,-0.3114107847213745,-0.9670886397361755,-0.4170556962490082,-0.6724031567573547,-0.5689219832420349,0.10039733350276947,0.24775709211826325,-0.00039452919736504555,-0.1318499892950058,0.4099528193473816,-0.38657331466674807,-0.028960807248950006,0.3548954129219055,0.6069847345352173,-0.13001719117164613,-0.030437905341386796,-0.6937668323516846,0.2721654176712036,0.24820099771022798,0.0871850997209549,0.4547359347343445,-0.08037592470645905,-0.32818371057510378,0.2693142890930176,-0.7019490003585815,0.3925042152404785,1.3477075099945069,0.24183334410190583,0.41782790422439577,-0.04680877551436424,-0.5024909973144531,-0.6727403998374939,-0.06329596042633057,0.6543574929237366,-0.24350382387638093,0.6375141739845276,-0.15812087059020997,-0.2738375961780548,-0.5129334926605225,-0.2022322118282318,0.2810925543308258,0.2591865062713623,-0.37151461839675906,-0.02761741541326046,0.41896820068359377,0.49361172318458559,-0.07496190071105957,0.25827905535697939,0.162226602435112,-0.7641643285751343,0.21511772274971009,0.07935158908367157,-0.2799094319343567,-0.4980372190475464,0.741886556148529,-0.01839306205511093,0.17019227147102357,0.5657373070716858,0.1088692769408226,0.7450878024101257,0.20282280445098878,0.4179441034793854,-0.8545130491256714,-0.28858381509780886,-0.03699081763625145,-0.9355651140213013,-0.2558029890060425,0.305978387594223,0.450519323348999,-0.16053861379623414,0.6894538998603821,-0.3883473575115204,0.7540103793144226,-0.23682118952274323,-0.34165456891059878,-0.4294308125972748,0.22739651799201966,0.5075700879096985,0.29550737142562868,-0.28021255135536196,-0.03515714034438133,0.20511993765830995,0.17174069583415986,-0.5991395115852356,-0.22677837312221528,0.3310386836528778,-0.3657591640949249,-0.4799942374229431,-1.0484648942947388,0.4373396337032318,-0.23563796281814576,0.2936927378177643,0.6811818480491638,-0.15105700492858888,1.3701077699661255,0.4150225520133972,-0.26138368248939516,1.8188972473144532,-0.7297655344009399,0.7351566553115845,-0.3170541226863861,-0.9144213199615479,-0.2925276756286621,0.10004724562168122,-1.8102400302886963,-0.35329025983810427,-0.03716044872999191,-0.23465581238269807,0.24783502519130708,-0.45883190631866457,-0.26832085847854617,0.11503201723098755,0.6849815249443054,0.006993703544139862,-1.007301926612854,0.08029179275035858,0.18195562064647675,-0.46169033646583559,-0.14908011257648469,0.5042403340339661,-0.43478649854660036,0.4033241271972656,-0.3278307318687439,-0.8734780550003052,-0.023234272375702859,-0.4881509840488434,-0.5270442366600037,0.2838220000267029,0.11909249424934387,0.0017429233994334937,0.6828880906105042,0.07334800064563751,-1.2729966640472413,-0.8154343366622925,-0.3469716012477875,-0.039343781769275668,-0.9860605001449585,0.7388414144515991,0.41923680901527407,0.4383438229560852,0.7908543348312378,-0.16345961391925813,0.19210632145404817,0.1879187375307083,1.0375633239746094,-1.012274980545044,0.3600199222564697,0.16923928260803224,0.07009375840425492,-0.031343575567007068,-0.11725194752216339,0.08873731642961502,0.3007284700870514,-1.5065840482711793,-0.2748580276966095,-0.866192102432251,0.4066300094127655,1.043663740158081,0.10992654412984848,0.8418160080909729,-0.3994014859199524,0.4691753387451172]},"biases":[0.12419179826974869,-0.13323278725147248,-0.24333427846431733,-0.4898090064525604,-0.000480593676911667,-0.31152811646461489,1.2788054943084717,-0.3074435293674469,0.19500666856765748,-0.154300719499588,-0.6678200960159302]}],"seed":713594710}