{"layers":[{"neurons":[-0.9969815015792847,0.770477294921875,-0.7735543847084045,-0.9275485277175903,0.999647855758667,-0.9961445927619934,-0.9990142583847046,-0.973261833190918,-0.9999906420707703,-0.9633297920227051,-0.9977849125862122,-0.9917896389961243,0.9922425150871277,-0.9623861312866211,0.9998069405555725,0.2190687209367752,-0.9975846409797669,-0.12459148466587067,-0.9413681626319885,-0.36118239164352419,0.9918307662010193,-0.31783729791641238,-0.8758341073989868,0.999785304069519,-0.6463507413864136,0.9999969005584717,0.9961166977882385,0.9853802919387817,-0.9973102807998657,-0.8255781531333923,-0.923385500907898,-0.730204164981842,-0.9875335097312927,0.02975991554558277,0.9996302723884583,0.9945515394210815,0.9648256301879883,0.9147388935089111,-0.9993974566459656,0.9994418621063232,0.9985541105270386,0.9978750348091126,0.8815534114837647,-0.7349662184715271],"weights":{"rows":44,"cols":22,"data":[1.4409557580947877,-0.26935675740242007,0.29951211810112,0.36408060789108279,0.6747790575027466,-0.6602094769477844,1.8258745670318604,1.4785442352294922,-0.7239524722099304,0.5593773126602173,0.5968368053436279,-0.3475492298603058,-0.48834922909736636,1.2124860286712647,-0.0070507703348994259,0.6280126571655273,-2.2351057529449465,1.26038658618927,0.8411346673965454,0.7715452313423157,-0.37739425897598269,-0.49425190687179568,1.138025164604187,-0.1982157826423645,0.353605180978775,-1.9784473180770875,2.350090503692627,1.4969311952590943,0.6681116223335266,0.9934123754501343,-1.380611538887024,-0.26201876997947695,-0.10126412659883499,0.35848501324653628,0.37938210368156435,-0.1818372905254364,-0.40301403403282168,-0.1670001894235611,-0.12748917937278748,1.8118395805358887,-1.0855801105499268,-1.1759437322616578,1.1697640419006348,0.43931302428245547,-0.1976822465658188,-0.6392874717712402,-1.6526848077774048,0.8733561635017395,-0.709138035774231,-0.40183067321777346,0.7058637142181397,-0.9464241862297058,-1.092150092124939,2.3953561782836916,-1.1581311225891114,-0.032967668026685718,-1.6605592966079713,-0.41513967514038088,-0.34981635212898257,0.35213223099708559,-0.5899618268013,0.2192455381155014,-0.1238144040107727,0.2064005732536316,0.4907594621181488,-0.2505243420600891,0.46875929832458498,0.41563680768013,-0.28145161271095278,0.9896005392074585,0.4450739920139313,1.4954228401184083,1.5716665983200074,0.9483089447021484,1.2305934429168702,-0.37747159600257876,-2.151801586151123,0.3007599413394928,1.0493839979171754,-0.3339802920818329,-1.360428810119629,0.701981246471405,1.2289079427719117,0.11722905933856964,-0.004524696618318558,0.22377780079841615,0.565477192401886,-1.1863387823104859,0.6137062311172485,-0.050788115710020068,-0.320427268743515,0.9373788237571716,-0.1693599969148636,0.6923663020133972,-2.2783443927764894,-0.16781587898731233,0.1531354933977127,0.07158047705888748,-0.7164720892906189,-1.5089623928070069,-1.07962167263031,0.7584538459777832,0.22120091319084168,0.5340970158576965,-1.049336552619934,-0.10460790991783142,-0.10373304784297943,-0.9894766807556152,-0.599191427230835,0.08417857438325882,-0.4148547649383545,0.14223454892635346,-0.29729729890823367,-0.9921279549598694,0.34779226779937746,-1.7924065589904786,0.5559788346290588,0.5470401644706726,-0.43713322281837466,-0.27766919136047366,-0.24774815142154694,-0.69261634349823,1.0457504987716675,-1.7489527463912964,-0.42379680275917055,0.8737432360649109,-0.7942065596580505,-0.6248435974121094,-0.38879233598709109,-0.3428122103214264,-2.049260139465332,-0.9192727208137512,1.0040841102600098,1.3421400785446168,1.0230463743209839,-0.006710372399538755,-0.32399800419807436,-0.2157021015882492,0.09109314531087876,0.40318939089775088,-0.00263801752589643,0.5221124291419983,0.7920323014259338,-0.3220665454864502,-0.3176487684249878,-0.6720330715179443,0.21347804367542268,-1.1375936269760132,-0.3823559880256653,-0.22591422498226167,0.6644812226295471,1.1999059915542603,-0.048712488263845447,-1.9538403749465943,1.3449558019638062,-0.698353111743927,0.837935209274292,1.6607646942138672,-1.4198871850967408,0.24643251299858094,0.05251646786928177,0.9856082201004028,-0.3536359667778015,-1.095139980316162,2.0196456909179689,0.48185715079307558,0.906725287437439,0.5620274543762207,-0.3618670701980591,0.08939365297555924,0.09876444190740586,0.5617793202400208,1.2031826972961426,-1.278625726699829,-1.2428115606307984,-1.060196042060852,0.7096490263938904,0.12685686349868775,-0.8307093381881714,0.07563881576061249,-1.1842834949493409,-1.0080995559692383,0.36643972992897036,0.6057704091072083,0.3138572871685028,1.5203443765640259,-0.2955912947654724,0.9210495352745056,-0.74445641040802,-0.6903213262557983,1.213103175163269,-0.30553245544433596,-1.6150972843170167,1.1420601606369019,-0.7343125343322754,-1.0240334272384644,0.5081712603569031,-2.295734167098999,-0.7303537726402283,0.6860700249671936,-0.5141322016716003,-0.07289709895849228,0.7526856064796448,-1.8229249715805054,0.2558363676071167,1.1709206104278565,-2.2271080017089845,0.8000624775886536,0.7585545182228088,0.7146540880203247,0.4694737493991852,-0.03237002715468407,-0.4781780242919922,1.4488226175308228,0.20109784603118897,1.1573187112808228,0.27772220969200137,-1.9369115829467774,0.5688884258270264,-0.4253300428390503,1.1816428899765015,0.7098310589790344,-0.3834843337535858,1.0644543170928956,1.5976371765136719,-0.23309080302715302,-0.22948551177978517,-1.110446572303772,2.9895358085632326,1.3109073638916016,-0.7404186129570007,-0.1431547850370407,0.42029106616973879,-1.1816717386245728,-0.6560246348381043,1.0512433052062989,1.0002936124801636,-0.09572108834981919,-0.8842082619667053,-0.5163869261741638,-1.385854959487915,1.0137498378753663,0.79682457447052,0.8483344912528992,0.5464932918548584,2.0873613357543947,-0.3869127035140991,-0.5120683908462524,-0.10127279907464981,-0.12968549132347108,0.5793235301971436,1.4444947242736817,-1.0290559530258179,2.213230609893799,0.8058921098709106,-0.8198700547218323,-0.11930518597364426,1.9725068807601929,-0.2988569438457489,0.643090546131134,-0.3566873073577881,0.33363258838653567,0.05946806073188782,-0.6162136197090149,-0.253510445356369,0.9931883215904236,0.08152612298727036,-1.127537488937378,-1.2183870077133179,-0.5768017768859863,-2.672114372253418,0.5012803673744202,1.5414072275161744,0.5427579283714294,0.004812287632375956,-0.176567941904068,-0.1974032074213028,-0.17195484042167664,0.02343711070716381,1.259973168373108,0.019759802147746087,-0.9451186656951904,-0.582185685634613,0.6163056492805481,0.48243576288223269,-0.639052152633667,0.6511121988296509,-0.6303575038909912,0.06583885848522186,0.6178244948387146,0.48760464787483218,-1.4186725616455079,-0.9778851270675659,-0.7664512395858765,-0.7963523268699646,1.5684034824371338,0.7557491064071655,0.8968818187713623,0.3288286328315735,0.18936075270175935,-0.4287044405937195,-2.329413414001465,-0.596782922744751,1.2099288702011109,-1.4817724227905274,1.4006352424621583,1.0093936920166016,0.356354296207428,0.057229019701480868,-0.2812018394470215,-0.12222389131784439,-1.566001296043396,1.0720549821853638,-2.1097843647003176,-1.0522485971450806,-0.8845305442810059,-0.9000838994979858,-1.1060724258422852,-1.9795889854431153,0.3772079348564148,-0.13319052755832673,0.8480377197265625,-2.528898000717163,0.6937314867973328,-0.6195946931838989,-0.6563764810562134,-0.39644747972488406,-1.4923354387283326,-2.4362130165100099,-0.9910421371459961,-1.8745445013046265,1.076344609260559,-0.4032953381538391,-0.8386712670326233,0.8952765464782715,-1.1947951316833497,-1.2247123718261719,0.34502318501472475,-0.48027339577674868,-0.4783363938331604,-1.0988526344299317,-0.6176316738128662,0.9208962917327881,1.2243220806121827,1.056575059890747,-0.4514964818954468,1.5301257371902466,-0.13800323009490968,0.8601396679878235,2.980462074279785,-0.15523609519004823,0.5874073505401611,-0.5968796014785767,1.688711166381836,-0.041287023574113849,1.1384097337722779,0.3021528720855713,-0.2759506404399872,1.3904262781143189,1.1794297695159913,1.2128846645355225,-0.8008812069892883,-1.5110819339752198,-0.8514671325683594,1.7784740924835206,0.7060325741767883,1.0819395780563355,0.0531298890709877,-0.6103662848472595,0.5975423455238342,1.6164777278900147,-0.4160154461860657,1.3603956699371338,-0.5420267581939697,0.515182375907898,0.021429220214486123,1.3923624753952027,1.3850994110107422,0.3714506924152374,-0.9271524548530579,0.4690970480442047,-0.7188149094581604,-0.6981381773948669,0.09128378331661225,0.7376099824905396,-1.1864216327667237,-1.1320416927337647,1.4466761350631714,-0.22434167563915254,1.5227352380752564,-1.3739837408065797,-0.2801317870616913,-0.05918252840638161,2.4704906940460207,0.9776711463928223,-0.6826713681221008,-1.5850348472595215,-0.4152388572692871,0.2084968537092209,0.04523703083395958,0.5710877776145935,0.7474222183227539,0.8141741156578064,0.3452158272266388,-0.6944860816001892,-0.8363302946090698,0.5560687780380249,1.6670948266983033,2.019101858139038,-1.043282389640808,-0.22630514204502107,1.098758578300476,0.7866319417953491,-0.14125943183898927,0.35943663120269778,0.12520921230316163,0.04457227513194084,1.502063274383545,0.8733914494514465,0.9622425436973572,0.8442401885986328,-1.7634061574935914,-1.441961646080017,-0.05131567269563675,1.5848416090011597,-0.5952476263046265,-0.761406421661377,-0.6523042321205139,-0.05516810342669487,1.3399099111557007,0.25223514437675478,0.3716529905796051,0.45636582374572756,-0.04382310435175896,0.0785968080163002,1.9281277656555176,-0.3724013864994049,1.277003288269043,-0.20231211185455323,0.30268192291259768,0.4792419970035553,-0.3382638692855835,1.5466687679290772,0.019485704600811006,1.4084110260009766,-0.8724940419197083,0.5469843149185181,-2.5730245113372804,-0.1586706042289734,-0.9110836982727051,0.331556111574173,-0.6322417855262756,-1.2598183155059815,0.7648050785064697,0.7186272740364075,-1.2691855430603028,-0.19254222512245179,-0.5930467247962952,0.4849633276462555,1.0436748266220093,0.4859083592891693,1.0543755292892457,1.377388834953308,-0.5614262819290161,0.8062533140182495,0.3334220051765442,0.832641065120697,-0.11104465276002884,-0.7095980644226074,0.05495745688676834,0.41198593378067019,0.24034082889556886,0.4698770344257355,0.8419122695922852,-1.2220419645309449,1.4074645042419434,-0.2044515162706375,0.4703168570995331,0.9243237376213074,2.1052002906799318,0.8937559127807617,0.03910078853368759,-0.3135453760623932,-0.672980010509491,-0.12480123341083527,-1.5973525047302247,-1.2482517957687379,-0.08278072625398636,0.463252454996109,0.321258008480072,-1.9136782884597779,0.43589356541633608,2.2125296592712404,0.5565811395645142,1.6181235313415528,0.4380253255367279,0.6922224164009094,0.1800280511379242,-2.558070659637451,0.3802606761455536,-0.972929060459137,-0.19405606389045716,0.6222091913223267,-0.7128733992576599,-0.04389216750860214,1.5462623834609986,-1.1057676076889039,0.7068208456039429,1.0855847597122193,-0.7220448851585388,-0.3350577652454376,-0.7406531572341919,-0.8638843894004822,-0.09076441824436188,-0.12026023119688034,-0.3814585506916046,0.6167615056037903,-1.3079692125320435,0.06590154021978378,0.6588579416275024,-2.1642754077911379,0.6537022590637207,-0.3194906413555145,-0.8168783187866211,0.23852522671222688,-0.0762719064950943,-1.3560612201690674,-1.2535724639892579,0.6216204762458801,-0.8394565582275391,0.2781410813331604,0.507575273513794,-1.1499786376953126,1.5516690015792847,0.8616012334823608,0.4673774540424347,-0.2561560869216919,-0.6995185017585754,-0.039761174470186236,-0.3167871832847595,1.8025977611541749,-0.5482892394065857,0.531650722026825,-1.9803012609481812,-0.07490182667970658,-0.8146113753318787,-1.203905463218689,-0.7329344749450684,-0.4599500894546509,-0.4136417806148529,-1.8661389350891114,0.27840787172317507,0.7321538925170898,-1.4928278923034669,-1.4667103290557862,0.06859956681728363,-2.969784736633301,-0.1840542107820511,-0.4347611367702484,-0.6112912893295288,-0.9755865931510925,0.5070132613182068,0.043140336871147159,0.20550449192523957,0.8417729735374451,-1.776343584060669,-1.3972193002700806,1.9510499238967896,0.3051806390285492,-1.506016492843628,0.0809670090675354,-0.33334454894065859,1.0825469493865967,-1.227115273475647,1.5707056522369385,2.146569013595581,-1.3850914239883423,0.4347282946109772,0.06945686787366867,-0.30638808012008669,-0.7644299268722534,0.3230012357234955,-0.743597686290741,-0.03295992314815521,0.6765170097351074,1.3226490020751954,-0.4554319977760315,0.4765719175338745,0.8284134864807129,0.09778369218111038,1.2593966722488404,-0.5868236422538757,-1.4364880323410035,-0.36944812536239626,-0.2990480363368988,-0.7772626876831055,0.04888461157679558,-1.0090601444244385,-0.5084493160247803,0.8410119414329529,-1.3511167764663697,0.04503348842263222,0.23945122957229615,-1.2659047842025757,0.30371445417404177,-0.5669624209403992,-0.8487837314605713,0.0957094356417656,-0.7595807313919067,0.44400864839553835,0.6506599187850952,0.5584671497344971,0.08880773931741715,0.4516204595565796,-0.29379498958587649,-0.1374586671590805,0.5768025517463684,0.15133915841579438,0.017588168382644655,1.105787754058838,-0.1474025696516037,1.2453444004058838,0.0655769407749176,0.23271751403808595,1.2354376316070557,-0.8471114039421082,-0.1386662870645523,0.31876686215400698,0.5087246298789978,-1.508346676826477,0.3122130334377289,1.0272787809371949,-1.6082102060317994,0.2966449558734894,-0.14160791039466859,-0.8256561756134033,0.44450992345809939,-0.6634212136268616,-0.5012964606285095,0.2929328382015228,-1.7210813760757447,-0.32364773750305178,0.9042690992355347,-0.5927351713180542,-0.7730087041854858,0.18270409107208253,-0.7294943332672119,0.35298314690589907,-0.5353267192840576,0.1293882429599762,1.1235655546188355,-0.33470597863197329,-0.3860505521297455,0.9024353623390198,-0.9940547943115234,-0.08166760951280594,-0.2042437493801117,-0.9144600033760071,0.7729402184486389,-0.37354663014411929,0.19319544732570649,0.3029506802558899,0.09293430298566818,0.687798798084259,0.673735499382019,0.36219140887260439,-0.33421456813812258,-0.5525459051132202,1.306010127067566,-0.4036283493041992,-0.33904948830604555,-1.3180677890777588,-0.09047333896160126,-0.9469106197357178,0.04654489457607269,-0.18894407153129579,0.16498416662216187,-0.2795341908931732,-0.20289169251918794,-0.4430781900882721,0.3140065371990204,0.5561813116073608,-1.16538405418396,0.7177537083625794,-0.40347692370414736,-1.1159766912460328,0.9256464242935181,-0.08079627901315689,-0.6265381574630737,0.16655944287776948,-0.08298036456108093,0.6318275928497315,0.9252198934555054,-0.42684173583984377,-0.20475564897060395,-0.2534676194190979,-0.28152337670326235,1.4668965339660645,0.03309815376996994,0.6239389777183533,-0.9199421405792236,0.9679597616195679,0.6877304911613464,0.03122131898999214,-0.8530819416046143,-0.7051841616630554,1.0272573232650757,0.5515291094779968,-0.0039986916817724709,-0.8503800630569458,0.9240031242370606,-0.36479565501213076,0.9688345193862915,-0.689635694026947,-0.40040144324302676,-1.3197895288467408,0.8126649260520935,-0.108552485704422,0.2093985229730606,-0.22757893800735475,1.270949125289917,1.5151129961013795,0.48017629981040957,0.6476408243179321,0.016467750072479249,-1.3766753673553467,-1.0522209405899048,0.41793233156204226,-0.1132364422082901,1.2904284000396729,-1.2524387836456299,0.7948135137557983,-2.1806800365448,1.3910045623779297,1.5236632823944092,0.6602062582969666,0.4158119559288025,0.1778949499130249,-1.3717577457427979,0.5896552205085754,-0.7074761390686035,0.3395273685455322,0.28939753770828249,-0.11270458251237869,1.3096287250518799,-0.10426733642816544,-1.1146481037139893,-1.6701536178588868,0.18354667723178864,-0.2616400718688965,1.0206199884414673,-1.7433422803878785,-0.6457759141921997,1.9305388927459717,1.151975393295288,0.43531692028045657,-0.23239144682884217,1.764419436454773,-1.2108454704284669,0.5123608708381653,-2.332007646560669,-0.6552636027336121,-1.4325495958328248,-0.9785698056221008,0.3645170331001282,-0.19913485646247865,-0.9254539608955383,0.9245559573173523,0.594482421875,-0.3916054964065552,-0.6447458863258362,-1.2740825414657593,1.6248953342437745,-0.6833171248435974,-0.7670515775680542,0.11121950298547745,-1.6955311298370362,-0.7140257954597473,-0.9415681958198547,-0.8660369515419006,0.3205999732017517,0.18272162973880769,0.4798738658428192,1.8556735515594483,0.4366629421710968,0.3533705174922943,0.3194162845611572,0.40005213022232058,-0.6499412059783936,0.8280344605445862,2.3647830486297609,-0.8904598355293274,0.14397291839122773,0.2106776386499405,-0.9189967513084412,-0.2414560467004776,-0.5093021988868713,-0.12061453610658646,-0.40842586755752566,-0.21794572472572328,-0.37933552265167239,-3.24900484085083,0.5490333437919617,-0.8753404021263123,0.43360206484794619,0.6784564256668091,0.09308750182390213,0.263515830039978,1.0457528829574586,0.2988644540309906,0.5475805997848511,0.10798104107379914,0.11677104979753494,0.3543975055217743,0.6534530520439148,-1.722193956375122,-0.7306474447250366,-0.6799219250679016,-0.43290823698043826,1.135068655014038,0.22763177752494813,-0.5019958019256592,-0.26355379819869997,1.6578415632247925,-0.9018639922142029,0.4621119797229767,-1.3857444524765015,-0.3442520797252655,-1.6837929487228394,1.1031956672668458,0.8633118271827698,-0.05959737300872803,0.46283382177352908,1.182806134223938,-0.7463595867156982,0.42430824041366579,-0.9163005352020264,-1.3592040538787842,-1.3412407636642457,0.6695079803466797,0.09168318659067154,-0.000931048474740237,0.8236289024353027,-0.3845987319946289,-0.17394869029521943,-0.6564092040061951,-0.667322039604187,2.0889406204223635,1.3862484693527222,0.05937840789556503,1.9766825437545777,0.01742193102836609,-0.7762399911880493,0.17533694207668305,-0.8898053765296936,0.9541676640510559,0.5834171175956726,0.9403269290924072,0.4764411449432373,0.670940637588501,1.308454155921936,-0.15908679366111756,-0.506537914276123,0.19394536316394807,-0.8792243003845215,0.22376959025859834,-0.9911227226257324,-1.0220074653625489,0.6637008786201477,0.45056042075157168,-0.9399867057800293,0.5070117115974426,-0.7058465480804443,0.7625440955162048,-0.7875298857688904,-0.42246493697166445,0.1647718995809555,-0.1974201500415802,-0.24907326698303224,0.05750417709350586,-0.5589043498039246,-0.4412938356399536,1.028554081916809,-1.2885499000549317,-0.2749253213405609,-0.10212552547454834,-0.6558318734169006,-0.12396782636642456,-0.25176844000816347,-0.23999780416488648,1.0545660257339478,-0.32688403129577639,0.23656156659126283,0.9965190291404724,-0.7089844942092896,0.39521223306655886,0.3845694065093994,0.37188395857810976,0.4949476420879364,-2.4960834980010988,1.7731518745422364,0.6065829992294312,1.2124255895614625,0.6362825036048889,0.23243865370750428,0.05698968842625618,0.7225983738899231,0.5241485238075256,-0.7069647908210754,-0.24644768238067628,-1.1202545166015626,0.6600390672683716,-0.4745634198188782,0.6637289524078369,-0.2565600574016571,-0.9082314968109131,0.2743697464466095,0.10824368894100189,0.14154188334941865,-0.5221806168556213,-0.33250904083251955,0.8762601613998413,-1.4036341905593873,-1.271354079246521,-0.048410627990961078,0.2825314998626709,-0.8967680335044861,0.633000373840332,0.01979644037783146,-0.6946911811828613,1.081886649131775,0.27280864119529726,-0.08605608344078064,-1.6535170078277588,-2.3678500652313234,-0.4326169490814209,0.008076530881226063,-0.07284513115882874,-2.154773473739624,-0.15152183175086976,-0.813379168510437,-0.727444589138031,-0.6161923408508301,-0.6360772848129273,0.08133366703987122,-0.2276727259159088,1.2169036865234376,0.5937201976776123,-0.29226574301719668,-0.7759831547737122,0.7971524596214294,-1.3685505390167237,1.0777924060821534,1.2158920764923096,-1.2109047174453736,-0.3605775535106659,0.46453070640563967,0.28699320554733279,-0.8893370032310486,1.257513165473938,0.37428075075149538,-0.5172718167304993,-2.4850621223449709,-0.19254186749458314,1.2751681804656983,0.7427183389663696,-0.5795472860336304,0.9142576456069946]},"biases":[1.247393250465393,-0.6048504114151001,-0.36837610602378847,0.2613494098186493,0.6825683116912842,-0.38381096720695498,-1.9285763502120972,0.36286088824272158,-1.28463613986969,-1.07716703414917,-0.6971455812454224,0.15211108326911927,1.4284113645553589,-0.021499261260032655,-1.6522026062011719,-1.7012592554092408,0.7679017782211304,0.15604406595230103,-0.6155579686164856,-0.23629353940486909,-0.807769238948822,-1.2424063682556153,1.4171093702316285,1.9060297012329102,0.8216930627822876,1.6411694288253785,0.7640578746795654,-0.4962494671344757,0.05906211584806442,0.13943776488304139,-1.5677804946899415,-0.007849623449146748,0.477963924407959,-0.4819241762161255,0.09489549696445465,-1.345772624015808,0.7189401388168335,-0.37928470969200137,-0.23297180235385896,-0.4652582108974457,-0.03088044747710228,1.8240046501159669,-0.021294234320521356,-0.12571918964385987]},{"neurons":[0.9998283386230469,-0.9999880790710449,0.992778480052948,0.5799211263656616,0.9991494417190552,-0.9643163681030273,0.9999986886978149,-1.0,1.0,1.0,-0.9955852627754211,0.9085485339164734,-0.9999998807907105,-0.999997079372406,-1.0,-0.9999998211860657,0.9999997615814209,0.9875049591064453,1.0,0.9644023180007935,0.9186357855796814,-0.9285234808921814],"weights":{"rows":22,"cols":44,"data":[0.18443357944488526,0.8819088339805603,-0.5260711312294006,0.694003164768219,-0.8666477203369141,2.0527901649475099,2.0208332538604738,-0.8239454030990601,0.6663734912872315,-0.678053617477417,-0.8928025960922241,1.34230637550354,0.9218311905860901,-1.3762438297271729,0.49976202845573428,-0.5531495213508606,-0.2380283921957016,-0.00884102564305067,-0.9585210084915161,-1.4217498302459717,-0.7640694379806519,0.15312173962593079,-0.59847491979599,-0.11867484450340271,-0.7624021172523499,0.12017803639173508,1.6040875911712647,-0.7598252296447754,-0.010164093226194382,-0.8996407389640808,-2.0467703342437746,-1.558139443397522,-0.9384555220603943,0.6770766377449036,-1.2543691396713257,-0.4164881110191345,0.16001559793949128,-0.5121005177497864,-0.5281237959861755,-0.19983315467834474,-0.7237882614135742,0.43513983488082888,0.6597199440002441,0.41166773438453677,2.050222635269165,-0.011247328482568264,1.2341009378433228,1.3053537607192994,1.8378714323043824,-0.4854501187801361,0.9764873385429382,-0.34625303745269778,-0.9889824986457825,0.6981688737869263,1.6763972043991089,-1.066543698310852,0.6924456357955933,0.6627484560012817,-0.8717271685600281,-1.385622262954712,-0.37777215242385867,0.9813489317893982,-1.0642530918121338,-0.5056701898574829,-0.6470307111740112,0.5631470680236816,1.0889812707901,-0.1632108837366104,0.42345789074897768,0.5923736691474915,1.0072546005249024,2.8155860900878908,2.3207056522369386,1.9319612979888917,0.1284131407737732,-1.836978554725647,-0.89690762758255,-0.24388159811496736,-0.17089839279651643,-1.1726093292236329,0.2119850367307663,-0.7742758989334106,0.21694616973400117,-1.1303701400756837,0.9881445169448853,-0.26149776577949526,-0.37823793292045596,0.631054699420929,1.367079496383667,0.8280099630355835,0.45179060101509097,-0.40437275171279909,2.1660847663879396,0.03647461533546448,1.190203309059143,-1.3599092960357667,-0.5093412399291992,-0.3226463198661804,-0.29933273792266848,0.12999121844768525,-1.1901030540466309,0.4230477511882782,0.5275182127952576,0.7277403473854065,-1.6692253351211548,0.8222204446792603,0.018744632601737977,0.763663113117218,0.16821937263011933,0.8264172673225403,-1.460387110710144,-0.466304212808609,-1.3792219161987305,-0.3475812077522278,0.01986510492861271,0.9761786460876465,-0.24896590411663056,-0.4587680697441101,0.8659018874168396,0.18093165755271913,1.7774882316589356,1.0859978199005128,-0.15290962159633637,-0.36240601539611819,0.3828132450580597,-0.5174072980880737,-0.6049044132232666,-0.2886055111885071,0.784367024898529,0.5356548428535461,-0.6235828399658203,1.1999043226242066,-0.11281897872686386,0.5266250371932983,-0.9371328353881836,1.7308160066604615,0.7066155672073364,-0.4645557403564453,-0.47562846541404726,-0.8958006501197815,0.4749470055103302,-1.5328831672668458,-0.07451626658439636,-0.42219382524490359,-1.1970969438552857,1.0133813619613648,0.7158231139183044,0.19442728161811829,-0.05304016172885895,1.008994460105896,0.21705766022205354,-0.019365644082427026,-0.35391896963119509,-0.21513675153255464,1.3729552030563355,0.1835200935602188,0.1395464688539505,1.6796060800552369,-0.6358433961868286,0.5908448100090027,-0.6042702198028565,1.7267643213272095,0.3244912922382355,1.5652869939804078,-0.416540265083313,-0.4179989695549011,-0.0690634623169899,-0.6345847249031067,0.6492112874984741,-1.1359107494354249,-0.24684692919254304,-1.0009541511535645,0.810458779335022,-0.13138112425804139,0.24222294986248017,0.4002065658569336,-0.7638278007507324,-0.5618072152137756,0.6874062418937683,0.8416476845741272,0.030313566327095033,-1.3761804103851319,1.2213066816329957,-0.5544617176055908,0.17629311978816987,-1.871333360671997,0.3197976052761078,2.2541613578796388,0.7995538711547852,-1.1517980098724366,-0.07889200747013092,-0.705315113067627,-0.5234781503677368,1.0938431024551392,0.09034933894872666,0.4983914792537689,0.8703627586364746,-0.0609765499830246,0.9113414287567139,0.40431734919548037,1.3956117630004883,0.7102226614952087,0.29156380891799929,0.3971557319164276,-1.2190461158752442,-1.102877140045166,-0.08440414816141129,0.11693546921014786,-0.26832470297813418,0.1397143006324768,-0.5264270901679993,0.072621189057827,-1.5357985496520997,0.269753634929657,-0.6297182440757752,-0.028123296797275544,-0.2996494472026825,1.1114133596420289,1.4011353254318238,0.5103814005851746,-1.268340826034546,-0.30623504519462588,-0.016052940860390664,-1.7516881227493287,-0.4444415271282196,0.42860615253448489,-0.15170550346374513,0.07893655449151993,0.1790415197610855,0.687676191329956,2.1651320457458498,0.8398283123970032,-0.3304615318775177,0.1438521295785904,-0.898066520690918,-0.7637825608253479,0.9560049176216126,0.9175409078598023,0.1690049022436142,-2.0792386531829836,-1.7451539039611817,-0.8110072016716003,0.23480723798274995,-0.6380928158760071,0.5709065794944763,1.482310175895691,-1.6943644285202027,1.2421241998672486,-0.8280026912689209,-0.22155870497226716,-0.07931758463382721,0.0012756165815517307,-0.03736310824751854,0.25545763969421389,-0.4098427891731262,1.6035609245300294,-0.8823514580726624,0.9571480751037598,0.19012722373008729,-0.3237260580062866,-0.24443542957305909,0.7513552904129028,0.9711161255836487,-1.071183204650879,0.9672905802726746,0.1249632015824318,-0.31408965587615969,-0.13682375848293305,0.12722426652908326,-0.6504051089286804,-0.6778764128684998,0.10379495471715927,0.7583081126213074,-0.3804631233215332,-0.982815146446228,-0.4314410388469696,0.28933462500572207,0.7910003066062927,1.3017282485961915,-0.2158288210630417,-0.45029664039611819,-0.849772572517395,-1.2302865982055665,-1.8680129051208497,0.8078497648239136,-0.7316586971282959,-1.5587825775146485,1.2234562635421754,-0.6130306124687195,-0.15155036747455598,-0.7574432492256165,-0.986544132232666,-0.8216089010238648,-0.264048308134079,-0.11243948340415955,0.3360966444015503,0.9591947197914124,-0.2910533547401428,-0.17667856812477113,0.02664467878639698,-0.8988083600997925,0.3862360119819641,-0.8780491352081299,0.1075771227478981,0.5507011413574219,0.3238455355167389,-1.5721954107284547,-0.23497554659843446,0.9401955604553223,-0.17204098403453828,-0.6307400465011597,0.7646821141242981,-0.26124805212020876,0.6214833855628967,-0.47503817081451418,-0.23874162137508393,-0.08007095009088516,0.31935280561447146,1.1464638710021973,-0.5364445447921753,0.03046358749270439,0.6780357956886292,-0.2140093296766281,0.25324687361717226,-0.17347931861877442,-1.0819154977798463,0.38428959250450137,0.8330060839653015,-0.17117176949977876,-0.41327643394470217,2.4487969875335695,-0.22585320472717286,-0.30974316596984866,-0.03570370003581047,0.5045835971832275,0.14070245623588563,0.2882556617259979,1.7612866163253785,0.09263798594474793,0.8509731888771057,-0.05334363505244255,-0.8715986013412476,-0.18086594343185426,0.4985300302505493,-1.1784749031066895,-0.3679693341255188,1.038991093635559,1.102049469947815,0.6794071197509766,-1.8125132322311402,0.08607296645641327,0.15389780700206757,0.780417263507843,1.0282046794891358,-1.05396568775177,-0.5965636372566223,-0.7567986845970154,-0.5308677554130554,-1.0719679594039918,-0.8545324802398682,0.8706507682800293,0.7768075466156006,-0.49211385846138,1.298189401626587,1.0307856798171998,-1.0776982307434083,-1.477879285812378,1.0651346445083619,0.014704576693475247,-1.6025705337524415,-0.8751063942909241,0.04963868483901024,1.1094789505004883,-1.6763168573379517,-0.1292801797389984,-0.10205355286598206,0.07268935441970825,0.7689684629440308,-0.08261461555957794,-0.9089653491973877,-1.2461967468261719,-0.7341356873512268,-0.09898704290390015,-0.5541715025901794,-0.44920313358306887,-0.28337565064430239,-0.5307720899581909,-0.26151803135871889,1.1325082778930665,1.4534307718276978,-1.013087511062622,3.1979894638061525,0.7754356265068054,0.2732950448989868,-1.928972840309143,0.16714246571063996,0.5980123281478882,0.7510766983032227,-0.43072181940078738,0.879491925239563,0.12518708407878877,1.3975801467895508,-0.27385127544403078,-0.3437879979610443,0.5304376482963562,-2.7555031776428224,0.016796333715319635,0.5477363467216492,2.004375696182251,-0.7483986616134644,0.4410708546638489,-0.7041869163513184,1.0191808938980103,-0.2777984142303467,0.43125683069229128,-1.0680575370788575,-1.5113519430160523,0.2961484491825104,-0.5761036276817322,-0.5271491408348084,-0.4103328287601471,0.4442051351070404,-0.3707225024700165,1.4826982021331788,-0.3728042244911194,-0.588492214679718,0.39978015422821047,-0.19857294857501985,-1.0171259641647339,2.5746188163757326,-0.0032041147351264955,0.026092873886227609,0.7565093040466309,1.806892991065979,-0.09020058810710907,0.15164294838905335,-0.9404401779174805,0.8620871305465698,0.0028242964763194324,-1.8327518701553345,-1.2753958702087403,0.8174989819526672,-0.30624938011169436,-1.514891505241394,1.865773320198059,-0.3141232430934906,0.8453928828239441,0.25819167494773867,0.3563039302825928,-0.574049174785614,1.0457531213760377,0.9635935425758362,0.6877607107162476,0.22656121850013734,-1.0150774717330933,-1.3873553276062012,-0.35722616314888,0.05299362167716026,0.5669641494750977,1.3532209396362305,-1.4864888191223145,-0.9577154517173767,-0.9271292090415955,-1.137040376663208,-0.376199334859848,-0.04819239675998688,0.59600430727005,0.9715762734413147,-0.5095977783203125,0.4120774567127228,0.011804630979895592,0.16335183382034303,1.503572940826416,0.90236496925354,-0.6935054063796997,-0.42650285363197329,-0.8236104846000671,-0.32608920335769656,0.253993421792984,-1.1840122938156129,-1.5267640352249146,0.5812352299690247,-0.7309038639068604,-2.4613678455352785,0.4570649564266205,0.4172830581665039,-2.999464988708496,0.32247766852378847,-0.08247900754213333,-0.5715389847755432,-1.1981502771377564,-0.8512718677520752,2.7653908729553224,1.0641902685165406,-0.9282060861587524,-0.7420628666877747,1.8098734617233277,-0.5423880815505981,1.0290066003799439,-0.22968418896198274,1.2230356931686402,-0.5330861806869507,0.03587404265999794,-2.0109477043151857,-1.8194680213928223,0.8083181381225586,0.8824383020401001,-0.8457390069961548,0.3749695122241974,0.5418763160705566,2.3017501831054689,1.7323145866394044,-0.5503372550010681,0.5532565712928772,0.5396823883056641,0.9997329115867615,1.2024154663085938,-0.5529271364212036,0.7104593515396118,-2.0364296436309816,0.12373634427785874,0.3310580253601074,0.5845521092414856,0.4100881516933441,0.28584030270576479,-1.2032862901687623,0.6762402057647705,0.9190851449966431,0.6659523844718933,0.5710140466690064,1.5411208868026734,0.5294405817985535,0.19765682518482209,0.6595260500907898,0.5114403367042542,0.407356321811676,1.271973967552185,1.3722957372665406,0.2889355719089508,0.8320290446281433,0.44584670662879946,-0.19091303646564485,-1.2207108736038209,1.7801834344863892,0.05151994153857231,-1.5297070741653443,-1.8991529941558838,-1.3279588222503663,0.4964272379875183,-0.7658054232597351,-0.7242669463157654,-1.070009708404541,0.28280243277549746,0.22812706232070924,0.3638954758644104,0.09611942619085312,-0.6985512375831604,0.391148179769516,1.5435316562652588,-1.3464897871017457,-1.150792121887207,-0.9638891816139221,-0.1576090157032013,-0.3810793459415436,-0.6827083230018616,0.3428134620189667,0.06390701234340668,-0.4173230826854706,-1.5856165885925294,0.14852029085159303,0.28811103105545046,0.43016135692596438,-0.44515812397003176,1.1784971952438355,0.1799672245979309,-1.3370858430862427,-1.6259697675704957,-1.0577802658081055,0.3601548969745636,-0.589228093624115,0.19009225070476533,1.4713876247406006,-0.06554878503084183,-0.4328778088092804,0.06586964428424835,-1.4721243381500245,0.4925456941127777,-0.27742627263069155,-0.467810720205307,-0.6804779171943665,0.9834476113319397,0.32438334822654726,-0.9360382556915283,1.875352144241333,1.1605287790298463,-0.9921651482582092,-0.7508603930473328,0.5889562964439392,-0.3871154487133026,-0.6315913200378418,0.9943135380744934,-0.4624641537666321,1.244863510131836,-0.5377723574638367,0.9319247007369995,-0.3340441882610321,-1.294958233833313,-0.15376543998718263,-2.4456448554992677,-0.6707399487495422,-1.264613389968872,-1.4048209190368653,0.7784886360168457,0.2666763961315155,-0.30471527576446535,-0.5330119729042053,1.3486095666885377,0.7606877684593201,-0.5929371118545532,-0.08110871911048889,0.4707680940628052,0.09773898124694824,-0.9968087077140808,-1.2405248880386353,-0.1324646919965744,1.680924892425537,1.1536606550216675,0.9416284561157227,0.08080325275659561,0.8119020462036133,-0.6472121477127075,-0.3263518214225769,-0.6080626249313355,-2.0074381828308107,0.4568846821784973,-0.38825610280036929,-0.8612572550773621,0.19836804270744325,-0.1339447945356369,-1.9957911968231202,0.36969420313835146,-0.36543402075767519,0.6520617604255676,-0.709683358669281,1.3745534420013428,0.4112624228000641,2.4650371074676515,0.29174280166625979,0.9447532892227173,-0.7309454083442688,0.06901441514492035,1.1099213361740113,-0.26432719826698305,-0.45530346035957339,-0.36420154571533205,0.6015929579734802,0.8549633622169495,-0.7758742570877075,-0.9087645411491394,-0.9361059665679932,0.8997652530670166,1.123130202293396,-0.06339885294437409,0.6107239723205566,0.40082818269729617,0.5634926557540894,0.6397024989128113,1.2527989149093629,-0.8978250622749329,1.2945973873138428,0.3345521092414856,0.1299106776714325,-0.8649163842201233,0.446711003780365,1.1254066228866578,-1.2331798076629639,0.29707732796669009,-0.756266176700592,0.5444350242614746,0.5946993827819824,-1.370018482208252,0.5910958647727966,-0.7148244380950928,-0.00585834588855505,-0.07109766453504563,-0.024052241817116739,-1.3654860258102418,0.12253072112798691,0.4285326302051544,-0.04629272595047951,0.12457933276891709,0.886649489402771,0.48816317319869997,0.5920608639717102,0.1454940289258957,0.8099241852760315,0.3297492563724518,-0.10082636028528214,0.5776616930961609,0.14732863008975984,-1.0439796447753907,-0.4845277667045593,0.09597722440958023,0.18546436727046967,0.3561035990715027,-0.7593413591384888,0.5496169924736023,-0.9885323643684387,1.3715263605117798,-0.5698661804199219,0.09969688951969147,0.12295019626617432,-0.3519490659236908,-0.019262254238128663,-0.6534720659255981,-1.2871348857879639,1.0692217350006104,-0.5332879424095154,0.6061285734176636,-0.933928906917572,0.6187593936920166,-0.0869603157043457,-0.24761076271533967,0.347665935754776,1.5240123271942139,-0.976087749004364,0.1849348545074463,1.6012877225875855,-0.022126955911517144,-0.005915156565606594,0.06755228340625763,-0.8257122039794922,-0.9611689448356628,-0.982232391834259,0.9956439137458801,0.05505590885877609,-0.7564042806625366,-1.265252947807312,0.21381156146526338,-1.288491129875183,0.5712788701057434,0.363395094871521,-0.6864368915557861,-0.9502030611038208,-0.6313280463218689,0.6977291107177734,0.6212442517280579,0.24658848345279694,-0.11549778282642365,-0.1298113912343979,0.2853648364543915,-0.14851538836956025,1.5487841367721558,-0.5494660139083862,-0.37194615602493288,0.6538431644439697,-0.9962511658668518,1.0486080646514893,-1.4898996353149415,-0.5925911664962769,-0.02233891375362873,-0.8703440427780151,0.6071200370788574,0.46428167819976809,-0.6506293416023254,-0.3249495029449463,-0.706266462802887,-1.1148730516433716,-1.1388756036758423,1.2306264638900757,0.31875914335250857,-0.04440557211637497,0.7698772549629211,0.23776698112487794,-0.20722046494483949,0.18315905332565309,-0.01632118970155716,-0.7124528288841248,-0.6643960475921631,1.255794644355774,-0.05508645996451378,-1.0067301988601685,1.8893489837646485,-0.7771321535110474,0.545783519744873,-2.1576082706451418,0.7047398090362549,0.8044841289520264,-0.14129287004470826,-1.7090909481048585,-0.836010217666626,0.013099529780447483,-1.2765580415725709,2.074517250061035,-0.15910577774047852,1.2743395566940308,1.6494386196136475,-0.20603971183300019,-0.3843332827091217,1.7859368324279786,0.21728073060512544,-1.4571857452392579,-0.7154452800750732,0.5832975506782532,0.3636236786842346,-1.4525431394577027,-0.8250571489334106,1.266558289527893,0.5712405443191528,0.3386094868183136,-1.7091996669769288,0.252398818731308,-0.023035963997244836,0.5550904273986816,2.6712193489074709,0.8170715570449829,-1.556915044784546,0.6065703630447388,0.6970559358596802,0.8931513428688049,0.4759182035923004,-1.7991863489151,0.9338822960853577,0.30848029255867007,-1.052656888961792,-1.3159385919570923,1.0514270067214966,1.7375339269638062,1.8804054260253907,-1.6282823085784913,-1.2056422233581544,0.35738763213157656,-0.042985402047634128,2.3620851039886476,-0.4978660047054291,0.8831484913825989,-0.2960164248943329,-0.8855112791061401,-0.6358286738395691,0.22219446301460267,1.5380436182022095,-0.06213267892599106,-0.28680703043937685,-0.4159879982471466,0.8931472897529602,0.7083801031112671,2.2625768184661867,0.22262589633464814,-0.4254041016101837,-0.8508561849594116,0.6637725234031677,0.487775593996048,0.19621795415878297,-1.109611988067627,-0.8294587731361389,-0.3529464304447174,-1.4717808961868287,-1.303848385810852,0.14812211692333222,0.6149636507034302,-2.339097738265991,-0.6836435794830322,0.05660085752606392,0.3677384853363037,0.6257004737854004,0.9205182194709778,0.19655905663967133,-0.20264574885368348,-0.44015082716941836,1.2090182304382325,1.8854385614395142,1.1955299377441407,-2.2906246185302736,-0.32448098063468935,-0.1599269062280655,-0.17259465157985688,0.4879778325557709,0.8845526576042175,0.7870010733604431,0.39791029691696169,1.0367021560668946,0.6787979602813721,-1.9639452695846558,1.2892792224884034,-1.7722254991531373,1.5286976099014283,0.3619421124458313,-0.6274960041046143,0.4161818325519562,-2.1120078563690187,1.6007046699523926,1.400261402130127,1.0985032320022584,-0.570431649684906,1.3652207851409913,0.31892353296279909,-0.011327013373374939,0.03116181306540966,0.48246151208877566,1.2396423816680909,0.9096030592918396,-0.9432752132415772,-0.3289940059185028,-0.2763845920562744,-0.9926578998565674,1.3601808547973633,-0.25560057163238528,0.7848942875862122,0.07951904088258743,0.9272732734680176,-0.07749110460281372,-0.9841408729553223,1.5272116661071778,-1.9598556756973267,-0.7792550325393677,-0.16299109160900117,1.2504947185516358,0.955437421798706,-1.1734482049942017,1.1703574657440186,-0.6350656747817993,-0.9822953343391419,0.052130911499261859,-0.8991928696632385,-0.1586780995130539,0.2136257141828537,-0.9115728139877319,0.25603988766670229,-0.9077211618423462,0.944755494594574,-2.0829720497131349,0.20278838276863099,0.15603958070278169,-1.455163598060608,-1.9580590724945069,-0.5808247923851013,0.9553807377815247,0.2752174735069275,-0.7591030597686768,-0.33103910088539126,-0.20841221511363984,0.43617579340934756,2.1469032764434816,1.1665910482406617,-2.0855324268341066,0.7793214321136475,1.0430679321289063,0.7642239332199097,1.1917911767959595,0.49133598804473879,-0.38415297865867617,-0.7689973711967468,0.17900437116622926,0.5954470634460449,0.25769761204719546,1.7534726858139039,-0.24263514578342439,0.11554254591464997,-0.9787589907646179,0.43422162532806399,-0.2739740014076233,0.974425733089447,-0.9706373810768127,1.5212135314941407,-1.062499761581421,1.554152011871338,0.6857016682624817,0.3566781282424927]},"biases":[0.607408344745636,-0.5855616927146912,0.08801865577697754,1.5876083374023438,-0.6654597520828247,-0.3339994251728058,0.018636034801602365,0.10063377767801285,0.799402117729187,0.881756603717804,0.24331286549568177,0.19571298360824586,-2.4302456378936769,0.03508513793349266,-1.243321180343628,1.2011686563491822,-1.1468504667282105,0.059475045651197436,-0.4418189227581024,-0.21358580887317658,-0.68659907579422,-1.3840316534042359]},{"neurons":[-0.9639805555343628,-0.9991260766983032,0.999652624130249,-0.4905569851398468,-0.9975721836090088,-0.9751039743423462,1.0,-0.5029853582382202,-0.9992530345916748,-0.4435844421386719,0.9939591288566589],"weights":{"rows":11,"cols":22,"data":[-0.7332007884979248,0.49651795625686648,2.230435609817505,-0.37420737743377688,1.2982085943222047,0.5789228677749634,-0.46486324071884158,0.9950440526008606,-0.24664072692394257,0.005234817508608103,-0.9572113752365112,0.9602250456809998,0.556715726852417,0.18161141872406007,0.5366216897964478,0.07911865413188935,-0.34243229031562807,-0.3703169822692871,-0.7844604849815369,-1.248518943786621,0.06089932098984718,0.032250452786684039,-1.4904382228851319,-0.8147273659706116,0.281008243560791,-0.011043624952435494,-0.2410341501235962,0.20239746570587159,-1.3182604312896729,0.062370914965867999,0.7000986337661743,0.14679346978664399,-0.5725500583648682,1.6593788862228394,0.6182147860527039,0.5137780904769898,-0.3676493167877197,0.745117723941803,-2.0092058181762697,-0.008395583368837834,-0.14807891845703126,-0.1781024932861328,-0.23587247729301454,-0.2968458831310272,-1.3281474113464356,0.2786262631416321,-0.7359364032745361,0.9537042379379273,1.7953412532806397,-0.720238208770752,1.2066102027893067,-0.1901252269744873,0.03297458216547966,0.37873464822769167,0.10956714302301407,-0.4541042149066925,-0.5229759812355042,-0.7006227970123291,-1.3491342067718506,-0.37567439675331118,-0.5767766237258911,0.06356211751699448,1.7255877256393433,-0.2451508790254593,0.6847596168518066,0.7396992444992065,0.26199057698249819,-1.3230534791946412,-1.1129862070083619,-0.8211941123008728,1.1210041046142579,-0.3824736773967743,0.32714372873306277,-0.37864115834236147,0.06179175525903702,-0.7752801775932312,-0.6992623805999756,-0.36481910943984988,-0.4082629382610321,-0.9740925431251526,0.5818637609481812,-0.6429955363273621,-1.2461110353469849,-0.3426070809364319,-0.9998617172241211,0.07524240016937256,0.08804471790790558,0.5604759454727173,0.8407908082008362,0.8434867262840271,-0.3385949432849884,-0.518480122089386,0.6351279020309448,0.7569148540496826,-1.6984834671020508,0.2138894498348236,-0.8346787691116333,-0.43798166513442995,-0.09759216010570526,1.3433258533477784,0.5296951532363892,-1.2233721017837525,-0.45910054445266726,0.6497861742973328,-1.8338900804519654,0.5409528017044067,-0.9039257168769836,1.4863860607147217,0.41538774967193606,-0.04066140577197075,-0.37019139528274538,-1.1112669706344605,-0.5337622165679932,0.9549182057380676,-0.08546920865774155,0.0032116372603923084,-0.47172021865844729,0.5609612464904785,-1.3456364870071412,0.3172876536846161,-0.03735782578587532,1.140876054763794,-0.7320622801780701,-0.6787337064743042,0.8249350190162659,0.8475794196128845,-0.4095369279384613,0.412565678358078,-0.013372980058193207,-1.39760422706604,0.3892436623573303,-1.0331037044525147,1.0608513355255128,-1.570143222808838,2.030743360519409,-0.043076302856206897,0.04421468451619148,1.3448699712753297,0.0900917574763298,0.3287374675273895,-0.13911893963813783,1.417779803276062,-1.8563110828399659,-0.9092716574668884,-0.19912725687026978,-1.0184669494628907,-0.8564211130142212,0.08658570051193237,-1.0091501474380494,1.2438997030258179,0.6996800303459168,0.36208125948905947,0.7490464448928833,-0.8996654748916626,-0.6037861108779907,-0.17447663843631745,-0.08473824709653855,-0.0075951823964715,0.1946590095758438,0.1990329623222351,-0.2953757047653198,0.12550301849842072,-0.3611755669116974,-0.29918181896209719,1.467821478843689,0.11607713997364044,-0.27291202545166018,-1.5662858486175538,-0.7944253087043762,-0.975415050983429,0.5543607473373413,-0.27886441349983218,1.0110276937484742,0.14833304286003114,-0.6318009495735169,1.016990065574646,-1.0760724544525147,2.8142759799957277,-2.2636473178863527,0.45947813987731936,-0.46336331963539126,-0.7068812847137451,-0.5891251564025879,0.1333027184009552,-2.5664732456207277,-0.5494465231895447,1.166791319847107,-0.6731187105178833,-0.20031479001045228,-1.6119506359100342,-0.59490966796875,-1.092822551727295,0.9263081550598145,0.09083323180675507,-2.0795788764953615,1.0069762468338013,0.8714736700057983,-0.5720028877258301,-0.2368551343679428,1.2512317895889283,-2.440969944000244,0.8321547508239746,-0.36488497257232668,-1.4337713718414307,-0.09506048262119293,-0.2761579751968384,-0.3876139223575592,-0.4618508517742157,-0.27267205715179446,0.8918370604515076,0.2603461742401123,0.6037191152572632,-0.9732752442359924,0.023651588708162309,0.42807668447494509,-0.2938038110733032,0.5153319239616394,1.087180733680725,-0.02291668765246868,0.9681384563446045,1.7543600797653199,1.3082249164581299,-1.920658826828003,0.5820142030715942,-0.6121001839637756,0.020876603201031686,-1.3240152597427369,-0.5457618832588196,-1.1079679727554322,-0.21450459957122804,0.6024526953697205,1.64559006690979,-0.09253129363059998,-1.588515043258667,-1.0015335083007813,-0.9690420627593994,0.4824182987213135,1.7204021215438843,0.5544555187225342,0.4994182586669922,0.42241519689559939,0.3189610242843628]},"biases":[0.394735723733902,-0.7847842574119568,-1.5277596712112427,-0.8787077069282532,-0.9061601758003235,-1.5678017139434815,1.6270296573638917,-1.1184033155441285,2.5784454345703127,0.6533679962158203,-1.1007102727890015]}],"seed":2085708933}