{"layers":[{"neurons":[-0.9396887421607971,-0.34958818554878237,0.465119868516922,-0.9781585335731506,0.9997219443321228,-0.9956086874008179,0.12653042376041413,0.08872360736131668,-0.9987642765045166,-0.9781894683837891,-0.999100387096405,-0.9976556897163391,0.707319974899292,-0.9908948540687561,0.9988574981689453,0.8623434901237488,-0.931776225566864,0.948826789855957,-0.4898417294025421,-0.9795563817024231,0.8021182417869568,-0.6407886743545532,-0.967132031917572,0.9996012449264526,-0.822589099407196,0.9513765573501587,0.9576399326324463,0.9993040561676025,-0.995181679725647,-0.9397257566452026,-0.9985252618789673,-0.9767984747886658,-0.9564163088798523,-0.9923718571662903,0.962405800819397,-0.15563400089740754,0.8560364246368408,0.986285388469696,-0.9920411109924316,0.9922714829444885,0.998787522315979,-0.19394536316394807,0.4888822138309479,-0.35018450021743777],"weights":{"rows":44,"cols":22,"data":[0.9538888335227966,-1.1071105003356934,0.9168420433998108,0.6091823577880859,0.6102522015571594,-1.2081774473190308,0.6393827795982361,0.8379144668579102,-0.405272513628006,0.17374983429908753,0.1469563990831375,0.16486628353595735,0.038914185017347339,1.1653602123260499,-0.36200645565986636,0.23676730692386628,-1.0765680074691773,0.7841280698776245,1.2510457038879395,0.5609062910079956,-0.29756614565849306,-0.17137254774570466,0.8909512162208557,0.8207501769065857,0.8411222100257874,-1.7813947200775147,0.8597744107246399,-0.4993395209312439,0.6617070436477661,1.5219789743423463,-1.695687174797058,0.12967482209205628,-0.865243136882782,-1.0822033882141114,0.9331851005554199,-0.8971582055091858,-0.3533012866973877,-0.1522614061832428,0.04345063120126724,1.437544584274292,-0.3313160538673401,-0.16786563396453858,1.504043698310852,-0.39835214614868166,-0.16406117379665376,-0.4738880395889282,-1.3956260681152344,-0.15003129839897157,-0.8979666233062744,-0.3431861698627472,0.289829283952713,-0.938179075717926,-0.7324714064598084,0.6295778155326843,-1.3050638437271119,-0.30319198966026308,-1.759068489074707,-0.17346987128257752,-0.5351736545562744,0.20398758351802827,-0.8753743767738342,1.4604966640472413,-0.7100717425346375,-0.18395738303661347,0.0598236620426178,-0.5220434665679932,0.3741128742694855,-0.6887340545654297,0.32023969292640688,-0.5002824664115906,0.6322141289710999,1.7189000844955445,1.0995752811431885,0.9734849333763123,0.49150097370147707,-0.6621041297912598,-0.4394395649433136,0.6098682284355164,0.9730809330940247,-0.31384000182151797,-0.08585556596517563,0.8687729835510254,1.5773935317993165,0.3753145635128021,-0.5880544185638428,0.6085906624794006,0.6096104979515076,-1.1896653175354005,1.0294162034988404,-0.5249804258346558,-0.1458083838224411,1.3297194242477418,-0.28197136521339419,1.3311773538589478,-1.7450220584869385,0.17651408910751344,0.12084195017814636,0.08418476581573487,-0.6716357469558716,-1.2582166194915772,-0.8597411513328552,0.7307488918304443,0.1589990109205246,0.5632349848747253,-0.08889635652303696,-0.8907818794250488,-0.08787333965301514,-0.9794796109199524,-0.559901773929596,-0.041262801736593249,-0.5665866732597351,0.7969491481781006,-0.14577226340770722,0.2694637179374695,0.5254938006401062,-1.9479666948318482,0.28296440839767458,0.5485740900039673,0.38099515438079836,-0.865824818611145,-0.031516216695308688,-0.4813702404499054,0.9179518818855286,-1.7540322542190552,-0.3651736080646515,0.65023273229599,-1.3533004522323609,-0.16849370300769807,-0.11166178435087204,-2.4954798221588136,-1.7481733560562134,-0.5802698135375977,1.168445110321045,0.5557833313941956,0.8369959592819214,-0.006729188375174999,-0.03299518674612045,-0.6717536449432373,-0.02437492273747921,-0.4586491286754608,-0.011443693190813065,-0.7557178139686585,-0.6559169888496399,0.17808029055595399,-0.3317587077617645,0.17117749154567719,-0.5408899784088135,-0.8422559499740601,-0.005982234142720699,-0.11404946446418762,0.6602991223335266,0.9846057891845703,0.7243077158927918,-1.0750539302825928,1.0612703561782838,-0.4052095115184784,0.8082112073898315,0.917471706867218,-0.42548948526382449,-0.3916282653808594,0.542915403842926,0.09116457402706146,-1.406831979751587,-0.4946559965610504,1.4998184442520142,0.07123766094446182,0.4154093563556671,0.47332215309143069,0.00969617161899805,0.8055131435394287,-0.1632106900215149,0.23957812786102296,-0.31398913264274599,-1.282339334487915,-0.4241841435432434,-0.6305385231971741,-0.06296099722385407,0.4255754053592682,-0.7830909490585327,0.8440371751785278,-1.063119888305664,-0.05822278931736946,0.3676142990589142,0.733496367931366,0.42655181884765627,-0.10903926938772202,-1.8828569650650025,0.994316041469574,-0.680841326713562,-0.3766888976097107,-0.16644850373268128,-0.25734037160873415,-1.9120347499847413,0.27383682131767275,-0.019271861761808397,-0.021568965166807176,0.28233590722084048,-1.7063392400741578,0.12848466634750367,1.3632316589355469,-0.1619175225496292,-0.06453598290681839,0.6538222432136536,-1.553272008895874,0.07511104643344879,1.0178565979003907,-0.9847266674041748,0.11315543949604035,0.03561466932296753,1.2840070724487305,1.206678867340088,-0.1041644737124443,-0.5532239675521851,0.09395677596330643,0.480360746383667,0.7739328145980835,-0.6423103213310242,-2.3629567623138429,0.5972851514816284,-0.38068804144859316,0.228175088763237,0.2686379551887512,-0.5308098196983337,0.6245476603507996,1.1664910316467286,-0.16070573031902314,-0.3329102396965027,-0.5811299681663513,2.188798427581787,0.23126515746116639,0.028603538870811464,-0.5451506972312927,0.8673273921012878,-1.1786234378814698,-1.3068501949310303,0.7665785551071167,0.9667094349861145,0.23010382056236268,-0.14054621756076814,-0.7546705603599548,-0.47746965289115908,0.4437026083469391,0.24504145979881288,0.6913580894470215,0.13049794733524323,1.608200192451477,-0.6516930460929871,-1.2817814350128174,0.05884096398949623,-0.47758442163467409,0.43183377385139468,1.1674062013626099,-0.35082975029945376,1.6327508687973023,-0.30721476674079897,-0.9623077511787415,-0.8257254362106323,0.5915181040763855,-0.3609228730201721,0.9393600225448608,0.15566758811473847,0.18393829464912415,-0.7326222658157349,0.4208664298057556,-0.19646058976650239,0.6143930554389954,0.41989514231681826,-1.081833839416504,0.3653062582015991,-0.977635383605957,-0.9140633940696716,0.2353557050228119,0.2953640818595886,0.45940208435058596,0.941601037979126,0.3382192850112915,-0.45432162284851076,0.38445642590522768,-0.058629028499126437,0.39711880683898928,-0.12375924736261368,-0.2555543780326843,-1.1166346073150635,0.19091197848320008,0.46579089760780337,-0.8574888110160828,0.1387268751859665,-0.46802496910095217,-0.4063071310520172,0.13710030913352967,0.5089461803436279,-0.6535745859146118,-1.3365188837051392,-1.1945230960845948,0.3411236107349396,2.022200584411621,0.060951683670282367,0.4724540412425995,1.1714264154434205,0.23565788567066194,-0.4149090349674225,-1.6374061107635499,-0.6408511400222778,1.0395290851593018,-0.35248157382011416,0.1994183361530304,0.8896557688713074,0.395972341299057,0.3550761640071869,-0.3412865102291107,-0.062273189425468448,-0.9863740801811218,1.0614426136016846,-1.1358546018600464,-0.3896373510360718,0.046323105692863467,-0.18347983062267304,-0.7152898907661438,-1.1789522171020508,0.8843597769737244,-0.22682516276836396,1.2903743982315064,-1.5422461032867432,0.30235016345977785,-0.23765286803245545,-0.631522536277771,0.3186361789703369,-0.9290682077407837,-1.7589547634124756,-0.26261386275291445,-1.3949733972549439,0.263811856508255,-0.6876780986785889,-0.7465003728866577,1.5936479568481446,-0.05057189241051674,-0.4134219288825989,-0.48793742060661318,-1.3395709991455079,-0.21233220398426057,-1.0599887371063233,-0.46532413363456728,0.7071303129196167,1.1943798065185547,2.2331035137176515,-0.5932789444923401,1.5154513120651246,-0.9035637378692627,0.27425703406333926,1.9666715860366822,-0.32287606596946719,-0.018454866483807565,-0.4071095287799835,1.5860010385513306,0.313009113073349,0.2763037085533142,0.9603398442268372,0.1733512580394745,0.99188232421875,0.7736374735832214,0.8796569108963013,-0.4817183315753937,-1.6915007829666138,-0.9819314479827881,1.5367072820663453,0.7024589776992798,0.6372216939926148,0.5152487754821777,-0.6800436973571777,0.1292582005262375,1.1745390892028809,-1.023323893547058,0.43235403299331667,-0.5430148839950562,0.07286030054092407,0.09726208448410034,1.045440912246704,1.5397967100143433,0.6677961349487305,-0.3179446756839752,1.0164337158203126,-0.9689492583274841,-1.4623425006866456,-0.05234088376164436,-0.3774698078632355,-1.1680340766906739,-0.7215133309364319,1.4508779048919678,-0.6596547365188599,1.2046624422073365,-0.48540109395980837,1.0394216775894166,-0.15134359896183015,1.4898035526275635,1.8198826313018799,-0.493561714887619,-1.7852898836135865,-0.6775020360946655,0.6276194453239441,-0.34427574276924136,0.4322170615196228,0.24776630103588105,0.5268523693084717,-0.014030687510967255,-0.8002311587333679,-0.5446292161941528,0.44719505310058596,1.0428962707519532,0.8158255219459534,-0.22123602032661439,0.18292394280433656,0.2488178312778473,0.5295580625534058,0.16518060863018037,0.23213261365890504,0.3628624677658081,0.08501768857240677,0.6823357343673706,0.8117393255233765,0.6345892548561096,0.8675472140312195,0.44216883182525637,-1.1634509563446046,-0.15316545963287354,1.1952271461486817,0.35304367542266848,-0.5038241744041443,-0.15137825906276704,-0.3994526267051697,1.416245460510254,0.7514551281929016,0.824478805065155,0.9150802493095398,-0.7743520736694336,-0.07110673189163208,1.7337303161621094,-0.1476837694644928,1.132245421409607,-0.2593829333782196,-0.5983873605728149,-0.4009155333042145,0.41279399394989016,0.8701374530792236,0.41246387362480166,0.6890411972999573,-0.7910874485969544,1.0294264554977418,-1.614270806312561,-0.976455569267273,-1.7583481073379517,-0.4058261215686798,-0.45048055052757265,0.5548802018165588,0.1434663087129593,0.21644753217697144,-1.1249651908874512,0.18709811568260194,-0.594153106212616,-0.02426903136074543,0.8522942066192627,0.22339656949043275,-0.01639600656926632,0.7090979814529419,-0.11217333376407623,0.8268540501594544,0.3828045725822449,0.5524809956550598,0.016886333003640176,-0.5297113656997681,0.27326029539108279,0.30776628851890566,0.010444954968988896,0.5750090479850769,0.5081345438957214,-0.9547063708305359,-0.3365873098373413,-1.4860836267471314,0.1454954445362091,0.951198160648346,2.6823580265045168,1.0342568159103394,-0.3674498200416565,0.441171258687973,0.8846874833106995,-0.6553422212600708,-1.9464279413223267,-1.1338419914245606,0.6999098658561707,0.4899434447288513,-0.7181746363639832,-0.5787644982337952,-0.5586605668067932,2.0567996501922609,0.3497970700263977,1.1499571800231934,0.7820583581924439,0.22075240314006806,-0.02819668874144554,-2.1962034702301027,-0.1668350249528885,-0.9233286380767822,0.041470542550086978,0.04358194023370743,0.14762811362743379,0.766968846321106,1.965087652206421,-0.5641402006149292,0.49684345722198489,2.0046911239624025,0.4513372480869293,-0.5923423171043396,0.04431218281388283,-0.4409169852733612,0.19255077838897706,0.36779162287712099,-0.3826635777950287,0.42625463008880618,-1.5507177114486695,0.409572958946228,1.5340417623519898,-1.4228625297546387,0.18489773571491242,0.20105916261672975,-0.8304555416107178,-0.5045163631439209,-0.054807111620903018,-0.47682592272758486,-1.2570875883102418,0.31391921639442446,-0.7476574778556824,-0.21557074785232545,0.0008552232175134122,-1.1533185243606568,0.9381287097930908,0.8292939066886902,0.29249808192253115,-0.7364025712013245,-0.779135525226593,0.4951701760292053,-0.23388004302978517,1.170161485671997,-1.0155342817306519,0.8166492581367493,-0.42402613162994387,-0.08403253555297852,-0.8812412619590759,-1.196223497390747,0.22571410238742829,-0.48711714148521426,-0.41220828890800478,-1.650121808052063,0.847630500793457,0.3139922022819519,-0.929515540599823,-0.5222101807594299,-0.046813853085041049,-1.5673269033432007,-0.3654433786869049,0.5307547450065613,0.10236205905675888,-1.057289481163025,1.1676607131958008,0.50751131772995,-1.0138334035873414,0.9972374439239502,-1.6214278936386109,-1.1601334810256959,0.7582322955131531,-0.13113076984882356,-1.3511525392532349,0.19610543549060822,-0.6726961135864258,1.15068519115448,-0.869377613067627,1.4143320322036744,2.180591106414795,-0.6753002405166626,0.23375770449638368,0.42109864950180056,0.09658806771039963,0.11069642752408982,0.4320194125175476,-1.1336106061935425,-0.420967161655426,1.0473666191101075,1.4791221618652344,-0.16714885830879212,0.7707822322845459,0.899574875831604,-0.3180789053440094,1.8795119524002076,0.37768790125846865,-1.1001304388046265,0.2336670458316803,-0.6279737949371338,-0.7019922733306885,0.7232786417007446,-0.9250779151916504,0.24712742865085603,-0.3511129915714264,-1.7947965860366822,0.04515976458787918,0.7929704189300537,-1.0727245807647706,-0.2999141812324524,0.06680533289909363,-0.8033145070075989,0.47399258613586428,0.09068029373884201,-0.4866889417171478,0.31239044666290285,-0.1369917243719101,0.21417270600795747,-0.05013545975089073,-1.153545618057251,-0.14933189749717713,0.37813130021095278,-0.3689989149570465,-0.2922420799732208,0.6842390298843384,-0.9451185464859009,0.07852519303560257,-0.7291247248649597,-0.3511316180229187,1.2927086353302003,-0.697117805480957,0.2649196684360504,-0.20257626473903657,0.5675274133682251,-0.3925956189632416,0.3153762221336365,0.2576800286769867,-0.5427383780479431,-0.13114331662654878,-0.1640491634607315,0.030411208048462869,-0.5466169118881226,-0.6594324111938477,-0.24832923710346223,0.7798663377761841,-0.8487430810928345,0.20238642394542695,0.6729580163955689,-0.7918276190757752,-0.5415853261947632,-0.5011906623840332,-0.5941133499145508,0.3650430142879486,-0.49328920245170596,-0.2974608242511749,0.7019129395484924,-0.1938379555940628,0.12419084459543228,1.1763417720794678,0.017188051715493203,0.3923954665660858,-0.023254726082086564,-0.9366223216056824,0.3728450536727905,-0.3352782130241394,-0.40629518032073977,0.5589908361434937,0.035961102694272998,0.4298831820487976,1.0956782102584839,0.32894185185432436,0.24684599041938783,-0.3892042934894562,2.0161311626434328,-0.11218482255935669,-0.25459372997283938,-0.7877121567726135,0.20789046585559846,-1.5057035684585572,-0.27433666586875918,-0.49472278356552126,-0.17096492648124696,-0.35272496938705447,-0.5040779113769531,0.4045794904232025,0.25330907106399538,-0.17255324125289918,-0.4915884733200073,1.07024347782135,0.10253091156482697,-0.8267946839332581,0.9426174163818359,-0.12114150077104569,-0.9114643931388855,-0.5330290198326111,0.7092477083206177,0.533987820148468,1.0689562559127808,-0.8246825933456421,-0.09349412471055985,0.590964674949646,-0.1062399372458458,1.1249868869781495,-0.5351417064666748,0.6112415790557861,-0.35702601075172427,0.8389623761177063,0.9889581203460693,-0.08259660750627518,0.058001808822155,-0.9749189615249634,0.413372665643692,0.43789640069007876,-0.06129474192857742,-1.253578782081604,1.0973644256591797,-0.6779125928878784,0.7517244219779968,-0.6995252966880798,-0.4980018734931946,-0.14476275444030763,-0.07335968315601349,0.06769239902496338,-0.30720436573028567,0.12615056335926057,1.7419840097427369,1.2474557161331177,0.4411128759384155,0.5008249878883362,0.04969107359647751,-1.500054121017456,0.4409596920013428,0.4095030128955841,-0.39247506856918337,1.051936388015747,-0.47524115443229678,0.23501253128051759,-0.5320507884025574,1.397896647453308,0.5171014666557312,0.7027150988578796,0.4076411724090576,-0.23392117023468018,-0.8921685218811035,1.6513067483901978,-1.005365252494812,0.058036938309669498,0.3390132188796997,0.7353965044021606,0.8499274253845215,-0.32230478525161745,-0.9994999766349793,-1.6623027324676514,0.13052600622177125,-0.10447324067354202,0.8141734600067139,-0.5654140114784241,-0.06618000566959381,0.5705203413963318,0.10600919276475907,0.2528982162475586,0.11884908378124237,0.6715468764305115,-0.9967623949050903,0.666339635848999,-1.2065333127975464,-0.4964967668056488,-0.38944756984710696,-0.8727596998214722,-0.16501371562480927,-0.07850900292396546,-0.1836710423231125,0.9772952198982239,1.6000934839248658,-0.3927428722381592,-0.5082741975784302,-0.33764442801475527,0.3655812442302704,0.1445796638727188,-0.5681005120277405,-0.10727833211421967,-0.867539644241333,-0.2021852433681488,-1.33988618850708,-1.084568977355957,0.2511991262435913,0.18976013362407685,1.2142943143844605,1.1600837707519532,0.4873126149177551,0.7088884711265564,-0.32242193818092348,0.1400398313999176,-0.7314246892929077,1.009944200515747,0.6332772374153137,-0.9306119084358215,0.5080440044403076,-0.04374263063073158,-0.8186826109886169,-0.04714518040418625,0.15082359313964845,0.8842214941978455,0.0972352996468544,-0.37478843331336977,-0.30300411581993105,-3.213768482208252,0.6644868850708008,-1.1180744171142579,0.1571025252342224,0.015267990529537201,0.43428105115890505,0.026813574135303499,0.5018596649169922,0.5845274925231934,-0.8912088871002197,0.42006924748420718,0.7142629027366638,0.3856652081012726,0.20556868612766267,-1.4472761154174805,-0.03050960600376129,-0.49212387204170229,-0.4648866057395935,0.8460748791694641,0.22507578134536744,-0.026450591161847116,0.051124852150678638,0.37108123302459719,-0.8839725255966187,0.10871542990207672,-1.1411350965499879,0.5626068115234375,-1.1037013530731202,-0.2934039235115051,0.7481855750083923,-0.17453213036060334,-0.10934798419475556,1.0073027610778809,-0.26747074723243716,0.234091654419899,-0.6161186695098877,-0.516139030456543,-0.9029797315597534,0.39884093403816225,-0.7788077592849731,-0.22195979952812196,0.6859471201896668,-0.4239847660064697,0.8821007609367371,-0.3721391558647156,-0.23467281460762025,1.5098692178726197,0.4522456228733063,1.2143062353134156,1.7626783847808838,0.0701969563961029,0.02921116352081299,0.6170400381088257,-0.8786590695381165,0.24173125624656678,0.14521247148513795,-0.024566777050495149,0.24950163066387177,0.6728219985961914,1.3391207456588746,0.011225919239223004,-0.2580205798149109,-0.034058548510074618,-0.17161405086517335,0.11350660771131516,-0.8074486255645752,-0.74248206615448,0.6006687879562378,-0.27649152278900149,-0.9095594882965088,0.10070157796144486,0.2067987322807312,0.2682226300239563,-0.6765970587730408,-0.2883414328098297,-0.5985382795333862,-0.34456849098205569,-0.7212952971458435,0.8685539364814758,-0.9498211741447449,-0.3111763298511505,1.1075094938278199,-0.33040371537208559,-0.3360212445259094,-0.6491998434066773,-0.7321723103523254,-0.7324978113174439,-0.3496251106262207,-0.39728933572769167,1.1426986455917359,-0.7477953433990479,0.06590208411216736,1.4240249395370484,0.5927699208259583,-0.8392778635025024,-0.8236046433448792,0.4756566882133484,1.0895508527755738,-1.6095633506774903,1.815541386604309,1.6670671701431275,0.5475356578826904,0.6131346225738525,-0.1289374977350235,0.7070397734642029,1.2662020921707154,-0.1293477714061737,-0.8397331833839417,-0.400994211435318,-0.3455992043018341,0.8330264687538147,0.8271538019180298,0.8829259276390076,-0.6802047491073608,-0.31379175186157229,0.34492623805999758,-0.07594145834445954,-0.3513067960739136,0.10367543250322342,0.014337211847305298,0.6017280220985413,-1.0898526906967164,-0.81330806016922,-0.0749702900648117,0.3574928343296051,-0.7792608737945557,0.7302197813987732,-0.5578457117080689,0.3388335406780243,1.1934679746627808,0.48340997099876406,-0.0815819501876831,-0.9802200198173523,-1.575900912284851,-1.457760214805603,0.316829115152359,0.5432237982749939,-1.0018529891967774,0.25595077872276308,-1.0023092031478882,-1.3595902919769288,-0.06387757509946823,-0.44550907611846926,-0.1418401598930359,-0.06740890443325043,1.9432384967803956,-0.6536161303520203,0.033422600477933887,-1.1053463220596314,0.5556821227073669,-1.5213849544525147,1.3712091445922852,1.2191795110702515,-1.7843499183654786,-0.5598250031471252,0.4411624073982239,0.7780891060829163,-0.16274631023406983,0.7920059561729431,0.21010276675224305,-0.685472309589386,-1.2960190773010255,-0.18131981790065766,1.0012047290802003,1.3349277973175049,-0.14381450414657594,0.8713635802268982]},"biases":[-0.6610865592956543,-0.6282452940940857,-0.403602659702301,-0.9684407711029053,0.07548026740550995,0.5081115961074829,-1.123667597770691,0.6120045781135559,-1.5772638320922852,-0.41105127334594729,-0.6991004347801209,-0.28934651613235476,1.072752833366394,-0.8973544836044312,-0.009095806628465653,-1.3738538026809693,0.5720278024673462,0.5820531845092773,-1.0625795125961304,0.3982105851173401,-0.6089511513710022,-1.379275918006897,0.764320969581604,1.5513160228729249,0.2496994584798813,1.3260313272476197,0.3890475630760193,-0.4889662265777588,-0.7821460962295532,-0.6946347951889038,-0.6476292014122009,-0.6711134314537048,-0.6188502907752991,-1.7942378520965577,-0.23281554877758027,-1.1511449813842774,0.7478772401809692,-1.2576055526733399,0.2963179349899292,-0.21044372022151948,0.5323018431663513,1.3365050554275513,-0.15817882120609284,0.0715857520699501]},{"neurons":[0.9991455078125,-0.9988765120506287,0.9999992251396179,0.9629698395729065,0.9342924356460571,-0.9999257326126099,0.9999994039535523,-1.0,0.9217358827590942,0.9991232752799988,-0.9999768137931824,-0.9861645698547363,-0.9919538497924805,-0.999976396560669,-1.0,-1.0,0.9999977350234985,1.0,1.0,-0.9999999403953552,-0.9646395444869995,-1.0],"weights":{"rows":22,"cols":44,"data":[0.8363271951675415,0.35638749599456789,-0.37012988328933718,0.37550342082977297,-0.6717722415924072,1.1625444889068604,1.448383092880249,-0.6374808549880981,0.4488109052181244,-0.6382261514663696,-0.5254271626472473,-0.6587579846382141,0.189329132437706,-1.0540515184402466,0.7095717787742615,-0.9983852505683899,-0.6066057682037354,0.49979302287101748,-0.9237534403800964,-1.8085825443267823,-0.5693955421447754,-0.29494044184684756,0.1460714042186737,-0.6632610559463501,-0.3968313932418823,1.1470975875854493,1.059444546699524,-1.1883544921875,0.020232919603586198,-0.004618808627128601,-1.7532947063446046,-1.6074961423873902,-0.946953296661377,0.8215833902359009,-1.1703308820724488,0.18058183789253236,-0.13918539881706239,-1.0169949531555176,-0.16420318186283112,-0.28327831625938418,-0.725817859172821,0.27341288328170779,0.6615697741508484,-0.04777003079652786,0.5719189047813416,0.33287501335144045,0.7078282833099365,1.1712028980255128,0.04320371150970459,0.15122264623641969,1.5528136491775513,-0.7668250203132629,-1.3406060934066773,0.2666938304901123,1.3285906314849854,-0.04334314167499542,0.019894124940037729,0.483174204826355,-0.6500624418258667,-1.4287257194519044,0.053765956312417987,1.2085779905319214,-0.3994891941547394,-0.612060546875,-0.9277815222740173,0.773518443107605,1.7292766571044922,-0.0868326723575592,-0.12072435021400452,-0.0629902109503746,0.3891059160232544,2.334432363510132,2.506134271621704,2.0881142616271974,-0.34517472982406618,-2.2327263355255129,-1.1580454111099244,-0.4956417381763458,-0.6109692454338074,-1.6862578392028809,0.48789262771606448,-0.3251506984233856,-0.15382523834705354,-1.1990439891815186,1.4419395923614503,0.3020087778568268,-0.0025872832629829647,1.8713579177856446,0.29468822479248049,-0.2541255056858063,1.4908307790756226,-1.6674768924713135,2.738708734512329,-0.016092918813228608,0.5672577023506165,-1.8078935146331788,-0.6300531625747681,-0.43386444449424746,-0.6809096336364746,-0.2871561050415039,-1.1643145084381104,0.0647311732172966,-0.031294554471969607,1.347278356552124,-1.265177845954895,0.8246084451675415,0.0187990739941597,1.192685842514038,-0.10626723617315293,0.35444915294647219,-1.0451927185058594,-0.43811073899269106,-0.6102492213249207,0.3389991819858551,-0.22829832136631013,0.578916609287262,-0.24966399371623994,0.002466054866090417,-0.06907790154218674,-0.32646825909614565,0.7383468747138977,1.099389910697937,-0.18574154376983643,-0.313172847032547,0.42270639538764956,-0.5959997773170471,-0.2010948657989502,-0.5203742384910584,0.723927915096283,0.16272637248039246,-0.2215881496667862,1.3519190549850464,-0.25822365283966067,0.6098025441169739,-0.9618420004844666,1.2057536840438843,0.4055400490760803,-0.38253268599510195,0.2647547721862793,-0.2181168496608734,0.4107772707939148,-1.9845980405807496,-0.07474016398191452,-0.4279167950153351,-0.8028019070625305,0.7735278010368347,1.652238130569458,0.6602421998977661,-0.4618520736694336,0.6142603158950806,0.603644073009491,-0.005391855724155903,-0.5603660941123962,-0.17650029063224793,1.1335935592651368,0.4962320029735565,-0.07836074382066727,0.4840245842933655,0.7218455672264099,-0.4830353856086731,-0.7431161403656006,0.9901972413063049,-0.5781419277191162,1.5706019401550294,-0.5566896796226502,-1.0132697820663453,-0.13109859824180604,-0.6281401515007019,0.484012246131897,-1.2044833898544312,0.3256996273994446,-0.7513656616210938,0.04573948681354523,0.789293110370636,0.020949548110365869,-0.40858644247055056,-0.10049939900636673,-0.07528847455978394,1.3036030530929566,0.26723936200141909,0.26623067259788515,-0.882719099521637,-0.07830721884965897,-0.2989068925380707,0.6095797419548035,-1.6514774560928345,0.3207263946533203,1.4855482578277588,0.9063159227371216,-0.5671395063400269,-0.3443775773048401,-0.6548619866371155,-0.6184599995613098,1.2013118267059327,0.7875674366950989,0.15743589401245118,0.47196537256240847,-0.10707416385412216,0.16572779417037965,-0.09471753984689713,0.4195609986782074,0.2819245159626007,-0.6016720533370972,1.0370948314666749,-0.3274742364883423,-1.1174938678741456,0.137551948428154,-0.14555002748966218,0.025154871866106988,0.4331699311733246,-0.9971809983253479,0.41073349118232729,-0.947206974029541,-0.8275159001350403,-0.900086522102356,0.1950540840625763,-0.12087197601795197,0.17909394204616548,0.7165756225585938,0.8784379959106445,-1.0343258380889893,0.1282387375831604,0.15933570265769959,-1.840616226196289,-1.7273629903793336,-0.006763277109712362,-0.9463838934898377,-1.0056333541870118,-0.09256860613822937,0.9504628777503967,1.9806268215179444,0.5585829615592957,-0.29071566462516787,0.6604763269424439,0.14346548914909364,-0.5747815370559692,0.9942437410354614,0.7733185291290283,0.19682647287845612,-1.598733901977539,-2.2076797485351564,-0.03134717792272568,0.5574780106544495,0.09355444461107254,0.32230204343795779,1.1601866483688355,-0.8950467705726624,1.2061986923217774,-0.5651554465293884,-0.31116899847984316,0.8828744292259216,0.08418043702840805,-0.6094556450843811,0.4804302752017975,0.006017790641635656,0.7555461525917053,-0.28424984216690066,-0.19142699241638184,0.7432054281234741,0.13210271298885346,-0.006186803802847862,0.1417466253042221,0.7831787467002869,-0.19934289157390595,1.110527753829956,0.39353975653648379,-0.27454349398612978,-0.500373125076294,-0.5219002962112427,-0.9865018129348755,-0.6987948417663574,-0.7186112403869629,0.08533880114555359,-0.3608204424381256,-1.167406678199768,-0.26630067825317385,0.2548609972000122,0.178513765335083,2.3676600456237795,-0.1380212903022766,-1.066097617149353,-0.21450066566467286,-1.1838147640228272,-0.5214536786079407,-0.05605977401137352,-1.2224798202514649,-1.5189776420593262,0.7508745789527893,-0.5608251690864563,-0.443045973777771,-0.4581441283226013,-0.7660839557647705,-0.9439820051193237,-0.015773894265294076,-0.8572205305099487,0.04513479769229889,0.9334241151809692,1.138224720954895,-0.1487131416797638,0.026719389483332635,-0.48530006408691409,0.6566533446311951,-0.6470158100128174,0.5706377625465393,-0.10391388088464737,1.6790751218795777,-0.6554508209228516,-0.4709586501121521,1.4419828653335572,0.26127171516418459,-0.4857378602027893,0.5420154333114624,-0.5412405133247376,0.48167213797569277,-0.5421359539031982,-0.272773802280426,0.5215110778808594,1.0168330669403077,1.2911834716796876,0.06949616223573685,-0.1154482439160347,-0.01285484153777361,-0.4029141366481781,0.4815782606601715,-0.16635675728321076,-1.1322174072265626,0.3854057192802429,0.09195051342248917,-0.1195148453116417,-0.2526732087135315,1.8063799142837525,0.023263312876224519,-0.41267675161361697,-0.38166338205337527,0.4326997995376587,0.8719635009765625,0.09541245549917221,1.2546803951263428,0.02951422892510891,0.7594068050384522,-0.7665796279907227,-0.20235443115234376,-0.16460371017456056,-0.41439327597618105,-1.186354637145996,-0.8640751242637634,1.0275012254714966,0.7825762033462524,0.2670608460903168,-1.2158417701721192,-0.12498967349529267,0.2869892418384552,1.062441110610962,0.5451177358627319,-0.03447486460208893,-0.5975354909896851,-0.1957869678735733,0.44820940494537356,-0.5631599426269531,-1.0709608793258668,0.7103275656700134,1.154733657836914,-0.7289889454841614,1.9876371622085572,0.730232298374176,-1.7408784627914429,-1.6048377752304078,1.6792725324630738,-0.8089722394943237,-0.6243023872375488,-0.8230123519897461,0.4042504131793976,1.2764312028884888,-1.1923984289169312,-0.01836187019944191,0.3422973155975342,0.8008663654327393,-0.36148983240127566,-0.0612003393471241,-0.9116052985191345,0.04070423170924187,-0.6670721173286438,0.055041972547769549,0.17677351832389832,-0.43775349855422976,1.3178789615631104,-0.41737085580825808,-0.45070743560791018,0.2030051052570343,0.4103418290615082,-0.8893169164657593,2.811464548110962,0.632570743560791,-0.4997134804725647,-1.5228222608566285,1.3774549961090088,1.0315831899642945,0.5807675719261169,0.09347561001777649,0.3454457223415375,0.3611372113227844,0.1521795392036438,-0.5796195864677429,1.1552106142044068,0.2637973427772522,-1.537817120552063,0.12332449108362198,-0.43484336137771609,1.2032288312911988,-0.5719249844551086,0.05653566122055054,0.467631459236145,1.2947609424591065,-0.97806316614151,0.5582674741744995,-1.0462085008621216,-0.616722047328949,0.6955157518386841,-0.704754114151001,0.05061952397227287,-0.15076902508735658,0.2892245352268219,-0.4331730902194977,0.02095940336585045,-0.5978881120681763,0.5179833769798279,0.9609684348106384,-0.644558846950531,-0.822499692440033,1.1585745811462403,0.585640013217926,0.2083434909582138,1.433830738067627,1.2656362056732178,-0.03055943362414837,-0.14727374911308289,-0.6255573630332947,0.3710958957672119,0.5266984701156616,-1.008331298828125,-1.1550382375717164,0.07369406521320343,0.33621925115585329,-0.8485344648361206,1.1826868057250977,0.03686808794736862,0.7634520530700684,-0.1633514016866684,1.0828832387924195,-0.22119292616844178,0.893366277217865,0.21987232565879823,0.3261483609676361,0.3756943941116333,0.8599024415016174,-2.0121653079986574,-0.09884759783744812,-1.237014889717102,0.1868947446346283,0.309070885181427,-0.23385731875896455,-0.7188430428504944,-0.5483190417289734,-0.8103839159011841,0.031667571514844897,1.42018461227417,0.595725417137146,0.33285120129585268,0.8302115797996521,0.41327428817749026,-0.49217143654823305,0.5811486840248108,0.5397488474845886,0.9521622657775879,-1.277451992034912,-0.37425506114959719,-0.4578360915184021,-1.2764174938201905,0.14528098702430726,-0.7596400380134583,-0.5716679692268372,0.8671168684959412,-0.7330999374389648,-1.4480806589126588,-1.0939339399337769,0.08007589727640152,-1.2031465768814088,-0.1884154975414276,-1.7892122268676758,-0.4585352838039398,-0.548850953578949,-0.507748007774353,0.34175121784210207,0.772570013999939,0.4349765181541443,-0.5635952949523926,0.6708132028579712,-0.43672460317611697,0.4615796208381653,-0.5996460914611816,0.4684397280216217,0.2738465368747711,-1.2543020248413087,-1.5035181045532227,-0.43405744433403017,0.4836314916610718,1.052427053451538,-2.075141429901123,0.34235021471977236,0.021206989884376527,1.411848545074463,1.4569554328918458,-0.40002670884132388,0.5214956998825073,0.5507888197898865,1.5017136335372925,1.6461904048919678,-0.72761070728302,-0.3184548318386078,-1.0389786958694459,0.3193846344947815,0.6517930626869202,0.6131705045700073,0.30999621748924258,0.1443689912557602,-1.146477460861206,-0.5206595659255981,-0.26711320877075198,0.8625231981277466,-0.5421203970909119,1.4691158533096314,-0.4785924255847931,-0.6668097972869873,0.205929696559906,0.5129256844520569,-0.1015346571803093,0.06514279544353485,0.5477020144462586,0.4699040651321411,0.8343620896339417,0.05876370146870613,0.6088252067565918,-1.1516958475112916,1.0886069536209107,0.013346011750400067,-0.7812220454216003,-2.339752435684204,-0.5909415483474731,-0.099638931453228,-0.4056645333766937,-0.5647020936012268,-1.3276137113571168,0.2357751727104187,0.18849925696849824,0.4820752739906311,0.6707912087440491,-0.2817287743091583,0.10490303486585617,1.5483242273330689,-1.1787902116775513,-0.8481127619743347,-1.5394023656845093,0.29550090432167055,0.11158689856529236,-0.21567776799201966,-0.021380536258220674,-0.4281015694141388,-1.1717389822006226,-0.7270821332931519,-0.11801795661449433,-0.11110981553792954,0.13938550651073457,-0.28007131814956667,1.8784983158111573,0.5453319549560547,-0.7544049024581909,0.11341026425361633,-0.2810311019420624,-0.6405149102210999,0.3733946979045868,-0.8642075657844544,1.4808598756790162,-0.20210149884223939,-0.04234910011291504,-0.3892129361629486,-0.8475869297981262,0.5196356773376465,-0.11970876902341843,0.2636522054672241,-0.7295598387718201,1.329581618309021,0.7299967408180237,-0.6049118041992188,1.0155055522918702,0.4491228759288788,-1.4512659311294556,-0.40931570529937746,-0.10029284656047821,0.9081010818481445,-0.34968501329421999,-0.05428772792220116,-0.13147908449172975,1.18610417842865,-0.2358395904302597,0.07728175818920136,-0.1442158818244934,-0.47496718168258669,0.028639432042837144,-1.551179051399231,-0.07294803857803345,-1.1772841215133668,-1.40108060836792,0.14131349325180055,0.04673013463616371,-0.23039774596691132,-0.4385486841201782,0.3182145953178406,0.7035879492759705,-1.1215516328811646,0.5713503360748291,-0.3494471609592438,-0.015389058738946915,-0.04754878953099251,-1.2149055004119874,0.44238775968551638,0.5373636484146118,0.6863016486167908,0.6046225428581238,0.14153558015823365,1.925854206085205,-0.6834333539009094,0.8100546598434448,-0.9574360847473145,0.06967131048440933,0.43324506282806399,-0.28871405124664309,-1.1793806552886963,-0.09533566981554032,0.7574610114097595,-1.5640910863876343,0.5688738226890564,-0.7766957879066467,-0.17051272094249726,-0.269023597240448,0.8685218095779419,0.7270857095718384,1.066664695739746,0.204221710562706,0.9473077058792114,-0.7215315103530884,-0.08876857161521912,0.28356945514678957,-0.3287564814090729,-0.42522677779197695,0.09681929647922516,-0.2779180407524109,0.40009334683418276,-0.29522812366485598,-0.9895750284194946,-1.3598952293395997,0.5028703808784485,0.7946013808250427,-0.18850868940353394,0.9972816705703735,0.09853728860616684,1.184216856956482,0.4617765247821808,0.6268060803413391,-0.900522768497467,1.2121731042861939,-0.42420464754104617,0.29709479212760928,-0.5532476902008057,-0.04856758192181587,-0.11140058189630509,-0.7042757272720337,0.2979103624820709,-0.7446851134300232,0.06793428957462311,0.34648117423057558,-1.5884209871292115,0.6482299566268921,-0.7196111083030701,-0.6380165815353394,-0.11190510541200638,-0.7312281727790833,-1.6602805852890015,0.3817560076713562,0.6735535860061646,0.2845640778541565,-0.5025421977043152,0.47098398208618166,-0.15124116837978364,1.034738540649414,0.05911654233932495,0.3674725592136383,0.6257368922233582,0.10822472721338272,1.118854284286499,1.3161046504974366,-0.8710941672325134,-0.841359555721283,-0.24350568652153016,0.1697651594877243,0.3552052676677704,0.1674732267856598,1.6531145572662354,-0.6225143671035767,1.5371758937835694,-0.34820231795310976,-0.5328399538993836,0.1330183744430542,-0.4578374922275543,-0.25741806626319888,0.15543726086616517,-0.11785461008548737,-0.7902445197105408,-0.3936854600906372,0.06038234755396843,-0.14438341557979585,-0.049198348075151446,-0.5339871644973755,-0.3326321840286255,0.05681939423084259,1.1574413776397706,0.282541960477829,0.24402475357055665,1.7793198823928834,0.6897007822990418,0.12022047489881516,-0.14210443198680879,-0.41938677430152895,-0.2569727301597595,-1.2979077100753785,0.36564329266548159,-0.6970133781433106,-1.1390061378479005,-1.5942822694778443,0.3560499846935272,-0.9370518922805786,0.1317989081144333,0.2663726508617401,-0.31982341408729555,-1.097582221031189,-0.9773894548416138,0.7912160158157349,0.6293971538543701,0.3004057705402374,-0.8020792603492737,-0.12921665608882905,0.6027302145957947,-0.31975552439689639,0.2965308725833893,1.114996314048767,-0.09166418015956879,-0.34313294291496279,-1.2210993766784669,0.796096682548523,-0.7562150955200195,-1.1455707550048829,0.7072669267654419,-0.7906143665313721,1.6497278213500977,0.6336515545845032,-0.39311596751213076,0.01843702234327793,-0.5002073645591736,-1.0887691974639893,-1.2067466974258423,1.6147451400756837,-0.3362354040145874,0.84039705991745,1.060171127319336,0.2396959513425827,-0.7218226194381714,0.21095634996891023,-1.6372939348220826,-0.6584281921386719,-0.5007391571998596,-0.5340941548347473,-0.4567379653453827,-1.4628286361694337,0.262829452753067,0.06428370624780655,0.42507538199424746,-1.3637250661849976,0.6851618885993958,0.1675426959991455,1.3338370323181153,-1.0009382963180543,-1.2383224964141846,-0.14155195653438569,-0.6479039788246155,0.415111243724823,-0.4057742655277252,0.9165736436843872,1.2587320804595948,0.692194402217865,-0.7319658994674683,1.7338387966156006,-0.15898139774799348,-0.9869132041931152,-0.7030960321426392,0.31665995717048647,0.9603180289268494,-1.143531084060669,-0.008039655163884163,0.3058074712753296,0.6495829820632935,0.19871889054775239,-1.725494623184204,0.2531825006008148,-0.2193140834569931,0.043229732662439349,0.9552857279777527,-0.2846534252166748,-1.979440450668335,0.33003607392311098,-0.8283275365829468,1.5641216039657593,0.748958945274353,-1.7075510025024415,0.050704821944236758,0.012511994689702988,-1.6269384622573853,-1.3186070919036866,1.2336132526397706,2.14780855178833,1.5979269742965699,-1.710572600364685,-0.8928347229957581,1.0383306741714478,-0.2002353072166443,2.1341772079467775,-0.35990357398986819,0.6902451515197754,0.30836737155914309,-0.38829925656318667,-0.3577519357204437,0.5499105453491211,0.3259546160697937,0.5087586641311646,0.2794754207134247,-1.003163456916809,0.6860023140907288,0.10872415453195572,1.7941763401031495,-0.05121215805411339,-0.8060368299484253,-0.055648185312747958,0.37523937225341799,0.24709254503250123,0.7573869824409485,-0.97990483045578,0.05349528044462204,-0.588305652141571,-1.9212315082550049,-1.1867903470993043,-0.7891767024993897,-0.12853240966796876,-2.3548173904418947,-0.36323216557502749,0.0018789453897625208,-1.0456966161727906,0.40250805020332339,1.1837106943130494,1.203921914100647,-0.09364189952611923,-0.14092187583446504,1.4292985200881959,1.0002573728561402,2.0201098918914797,-1.6408036947250367,0.5545870065689087,0.4474668502807617,-0.04549458995461464,0.7726203203201294,1.1194461584091187,0.2043640911579132,0.6807189583778381,0.6990755200386047,0.4269200563430786,-1.0663940906524659,0.778056800365448,-0.5315103530883789,1.292195200920105,0.36299335956573489,-1.2222806215286255,0.9137187004089356,-2.324413537979126,1.0446932315826417,1.3593125343322755,0.20606012642383576,0.45699262619018557,0.9957031011581421,0.31984978914260867,-0.7175391316413879,-0.2071024775505066,-0.35257092118263247,0.9590961933135986,0.6693622469902039,-0.9968307018280029,-0.39534875750541689,0.15999966859817506,-0.6298321485519409,1.6145955324172974,-0.39810702204704287,0.932747483253479,-0.03339230269193649,1.0833483934402466,0.7053009271621704,-0.6694014668464661,1.5982530117034913,-1.948561429977417,-0.4478527009487152,0.07351192086935044,-0.04654564708471298,0.17884375154972077,-1.1281707286834717,-0.9404743313789368,-1.3111248016357422,-0.4187743365764618,-0.3346414864063263,-0.842271625995636,0.2985038459300995,0.5946714282035828,-0.357265442609787,0.533083438873291,-1.4681097269058228,1.039851188659668,-0.4982568323612213,-0.12736019492149354,0.351511150598526,-0.7266435027122498,-1.0196670293807984,0.32594746351242068,-0.2759203016757965,0.14353856444358827,-0.8306183815002441,-0.08722806721925736,-0.19424155354499818,0.6516100764274597,1.637757658958435,1.049055576324463,0.04068578779697418,1.1696984767913819,0.3141867518424988,0.7656881809234619,1.686557650566101,-0.007233852986246347,-0.0911562591791153,-0.7868114113807678,0.2161734402179718,0.6471579074859619,0.33153635263442995,1.2141834497451783,-0.5160551071166992,0.4176640510559082,-1.1014693975448609,0.12993428111076356,0.13161814212799073,1.3110369443893433,-1.4034672975540162,0.7613096833229065,-0.8701170682907105,0.6525442600250244,0.26242783665657046,0.29356545209884646]},"biases":[0.647543728351593,-0.506228506565094,-0.19248051941394807,0.7791875600814819,-0.38320136070251467,-0.9208658933639526,-0.04330892115831375,0.4460527002811432,0.8016437292098999,1.031079888343811,0.35517141222953799,0.03484432026743889,-1.9251161813735963,-0.07386797666549683,-1.467167615890503,1.4108929634094239,-0.9611681699752808,-0.8654516339302063,0.5535239577293396,-0.3388438820838928,-0.1709567755460739,-0.9639538526535034]},{"neurons":[-0.930036723613739,-0.9771298766136169,0.9631218910217285,-0.7027761936187744,-0.999716579914093,-0.4497954249382019,0.9999878406524658,-0.5128158926963806,-0.9999995231628418,-0.7957947254180908,0.9761704206466675],"weights":{"rows":11,"cols":22,"data":[-1.2138926982879639,1.2102593183517457,1.0366060733795167,0.27089646458625796,1.2261661291122437,0.31261369585990908,0.5713995695114136,1.5589359998703004,0.34098151326179507,0.34021425247192385,-0.33324381709098818,0.548863410949707,-0.12082627415657044,-0.38248616456985476,0.01384107954800129,0.6740650534629822,0.07717821002006531,-1.2941346168518067,-0.6256477236747742,-1.0223602056503297,0.07520174980163574,0.08428247272968292,-1.1612606048583985,-0.2668240964412689,0.43009647727012637,0.03342842683196068,-0.3122002184391022,-0.11784324049949646,-0.29408347606658938,0.10435690730810166,0.6018720865249634,0.883732259273529,-1.5667043924331666,1.2250603437423707,1.2625468969345093,0.20896194875240327,-1.3233511447906495,1.3936238288879395,-1.5432212352752686,0.12784163653850556,-0.22876998782157899,-0.3520640432834625,-0.29088690876960757,0.12712331116199494,-0.28451818227767947,1.4890458583831788,-1.1463567018508912,1.716017246246338,1.375382900238037,-1.1269747018814088,0.2098086178302765,-0.6887662410736084,0.4031946361064911,0.3752967119216919,0.21857233345508576,-0.3146255612373352,-0.5417385697364807,-0.5925382971763611,-0.6602896451950073,0.5740986466407776,-1.2010071277618409,-0.003871217602863908,0.9974309206008911,0.7467300295829773,0.5321552753448486,0.2481406331062317,0.2743472456932068,-0.35165420174598696,-0.09586126357316971,0.4291306734085083,1.2891134023666382,-0.38358452916145327,0.42258912324905398,-0.2612895965576172,-0.40981781482696535,-0.031509336084127429,-0.047382283955812457,0.688918948173523,0.3725709617137909,-0.10567998141050339,-0.0054212394170463089,-0.25244635343551638,-0.6422953605651856,-0.38693100214004519,-0.5291612148284912,0.34300699830055239,0.6946706175804138,-0.037258297204971316,1.0301605463027955,0.5688591599464417,-0.09464988857507706,0.3096526861190796,0.8621066212654114,-0.01011187769472599,-1.2521106004714966,-0.014964904636144638,-0.8232097625732422,-0.45726335048675539,-0.687934935092926,1.5058470964431763,0.6082146763801575,-1.606217861175537,-0.47119250893592837,0.6017499566078186,-0.5971860885620117,0.10949543118476868,0.28645631670951846,2.253693103790283,0.41709691286087038,-0.354062020778656,-0.40560945868492129,-0.21659016609191895,0.25958651304244997,0.8465291857719421,-0.03126133605837822,-0.2668415606021881,0.017970075830817224,0.5513869524002075,-1.3726863861083985,-0.3931256830692291,-0.033038411289453509,-0.08786436170339585,-0.4651126563549042,-0.23353731632232667,0.7847393751144409,1.0113343000411988,-0.5838107466697693,0.9523058533668518,0.15703390538692475,-0.7674878239631653,0.640984058380127,-1.6113182306289673,-0.03833099827170372,-1.5946098566055298,0.8242332339286804,0.3852967619895935,0.47836098074913027,1.6351615190505982,0.17925576865673066,0.7427895069122315,0.15638938546180726,1.029555320739746,-0.8870618939399719,-1.416383147239685,-0.08618418872356415,-1.3090198040008546,-0.09663499891757965,0.6334816217422485,-0.6923310160636902,0.7783361673355103,0.41390272974967959,0.728832483291626,0.7515261173248291,-0.3954698145389557,-0.12126245349645615,1.2604825496673585,0.5771657228469849,0.5523596405982971,0.09999457001686096,-0.3626115620136261,-0.3515617251396179,-0.09066426008939743,-0.11855052411556244,-0.3633110225200653,1.2590477466583253,-0.33185431361198428,-0.20184053480625153,-0.2848428785800934,-0.7060731053352356,-0.42104461789131167,0.1496339589357376,0.20880776643753053,0.8787689208984375,-0.09897017478942871,0.07811737060546875,0.416140615940094,-1.4999104738235474,2.145547866821289,-1.0770491361618043,1.5507620573043824,-0.8968081474304199,-1.0207417011260987,-0.19059963524341584,0.24642512202262879,-2.338693618774414,-0.17615965008735658,1.0047067403793336,-0.6751412153244019,0.31839630007743838,-0.7333372831344605,-0.7133194208145142,0.9875234961509705,-0.09561801701784134,0.4567295014858246,-1.823447823524475,0.7564908862113953,0.9911372065544128,-0.573664128780365,0.2543765902519226,0.9249001145362854,-0.9024306535720825,1.1173713207244874,-0.2921162247657776,-1.1511069536209107,-0.145999938249588,-0.5681662559509277,-0.3250482380390167,-0.25728142261505129,0.10119675099849701,0.4279073178768158,0.8303264379501343,0.1832420974969864,-1.9563369750976563,-0.8442239761352539,0.007024479564279318,-0.29468661546707156,-0.26345980167388918,1.4310886859893799,0.9139072895050049,0.7149749398231506,0.783226490020752,0.358014315366745,-0.9696083068847656,0.2540335953235626,-0.4436553120613098,0.3379848003387451,-0.9811093211174011,0.2836154103279114,-0.48042333126068118,0.17916229367256165,0.13046514987945558,1.4715734720230103,-0.7122251987457275,-1.8443409204483033,-0.7953753471374512,-0.862589955329895,0.3639785349369049,1.915086030960083,0.11289718002080918,-0.4004327952861786,-0.4813154935836792,-0.010172419250011444]},"biases":[0.3366192579269409,-0.35209470987319949,-0.3963620662689209,-0.5058576464653015,-1.0302188396453858,-0.7209910154342651,1.2511069774627686,-1.5433344841003419,0.9831473231315613,0.9737771153450012,-1.1039072275161744]}],"seed":690454941}