{"layers":[{"neurons":[-0.9864804744720459,0.9366371631622315,0.7542111277580261,-0.9956631660461426,0.9991753697395325,-0.9998458623886108,-0.7905887961387634,-0.8084810972213745,-0.9998583197593689,-0.9993709921836853,-0.9999987483024597,-0.9997864365577698,-0.15399305522441865,-0.9315572381019592,0.7515529990196228,0.9550080299377441,-0.5770182609558106,0.9309132099151611,-0.9936364889144898,-0.9933196902275086,0.9998794794082642,-0.8082100749015808,-0.9999927282333374,0.9998872876167297,-0.1909102350473404,0.9941849708557129,0.5869619250297546,0.9999241232872009,-0.9663775563240051,-0.9133467078208923,-0.9886435866355896,-0.9997577667236328,-0.886265754699707,-0.9997298717498779,0.7385435104370117,0.02634374611079693,0.9984215497970581,-0.9896689057350159,-0.9513977766036987,0.9995445013046265,0.9996246099472046,0.4409126043319702,-0.9960505962371826,-0.4886815547943115],"weights":{"rows":44,"cols":22,"data":[1.0196055173873902,-1.1066676378250123,0.5073679685592651,0.6089996099472046,0.6100690960884094,-1.207815170288086,0.4184587597846985,0.8511981964111328,-0.6408788561820984,0.17368033528327943,0.1361590027809143,-0.03403555601835251,-0.5093792080879211,1.3951441049575806,-1.150362253189087,0.6210062503814697,-0.8528563976287842,0.8051139712333679,0.8033276200294495,0.5607380270957947,-0.27394959330558779,-0.17132113873958589,0.9163962006568909,0.2523365318775177,0.9491722583770752,-1.7708461284637452,0.6940188407897949,-0.49918973445892336,0.6397899389266968,1.618407130241394,-1.6950091123580933,0.05257398262619972,-1.7300525903701783,-0.35012149810791018,0.9067535400390625,-0.9244867563247681,-0.5213159322738648,-1.14728581905365,0.04344194382429123,0.6440656185150147,-0.5469717979431152,-0.16781528294086457,1.3928180932998658,-0.12018586695194245,-0.03744673728942871,-1.273646354675293,-1.6578336954116822,-0.14997127652168275,-0.5075536370277405,-0.3702552020549774,-0.006109505891799927,-0.9378976225852966,-1.2511788606643677,1.0617538690567017,-1.6315038204193116,-0.3030707538127899,-2.0536112785339357,-0.17343518137931825,-0.5350666046142578,0.09837131202220917,-0.4366508424282074,1.4925779104232789,-0.28599315881729128,-0.18390220403671266,-0.33690375089645388,-0.28742480278015139,0.9688990116119385,-0.5643407106399536,0.64678955078125,-0.4397607743740082,0.5772738456726074,1.6242599487304688,2.142852783203125,0.5721341967582703,0.493839830160141,-0.6619054675102234,-1.0615168809890748,0.2458195984363556,1.1894807815551758,-0.30523791909217837,-0.250874400138855,0.7512927651405335,1.9931920766830445,0.8765435814857483,-0.07389003038406372,1.0070730447769166,0.15573810040950776,-1.1891894340515137,1.3793127536773682,-0.2651812732219696,0.3198463022708893,0.541908323764801,-0.322114497423172,1.3307780027389527,-1.7785784006118775,-0.25364041328430178,0.1977934092283249,0.0799337849020958,-0.2550182640552521,-1.3078380823135377,-0.7390769124031067,0.714995265007019,0.1589513123035431,0.5637593269348145,-0.08886080235242844,-0.25711455941200259,0.3357967734336853,-0.9790878891944885,-0.11919847875833512,-0.5843594670295715,0.04508797824382782,1.2518798112869263,0.052052855491638187,0.28832584619522097,0.5637114644050598,-1.8579741716384888,0.12086907774209976,0.5484095811843872,0.8621054887771606,-0.7784501910209656,-0.68560791015625,-0.17418286204338075,0.9853972792625427,-1.7535061836242676,-0.8458983898162842,1.0263688564300538,-1.3519113063812256,-0.4233783781528473,-0.08297307789325714,-0.7132192254066467,-1.8906409740447999,-0.7141711711883545,1.0570435523986817,0.4924546480178833,0.6940813064575195,-0.00672784261405468,-0.28940314054489138,-0.6714849472045898,0.03195972740650177,0.1256231665611267,0.004755116533488035,0.5030672550201416,0.21191191673278809,0.17806248366832734,-0.331659197807312,0.171126127243042,-0.5407277941703796,-0.8422582149505615,-0.388068825006485,-0.4933687448501587,0.20659573376178742,0.7748598456382752,0.7330383062362671,-0.615330696105957,0.5284144282341003,-0.3104515075683594,0.8079687356948853,1.3387603759765626,-1.395686149597168,0.0019128024578094483,0.5343477129936218,0.09113723039627075,-0.48060110211372378,-0.4945076107978821,1.6533432006835938,0.48306334018707278,0.012596845626831055,0.4731801748275757,0.33987748622894289,0.805271565914154,0.38619232177734377,-0.17417937517166139,-0.268360435962677,-1.2602275609970093,-0.8767188191413879,-0.630349338054657,-0.09244487434625626,0.13663053512573243,-0.8314968943595886,0.8277720212936401,-1.0628008842468262,-0.46154093742370608,0.3674672842025757,0.6830191612243652,0.8921390771865845,-0.10900656133890152,-1.2929117679595948,1.2170677185058594,-0.7488621473312378,-0.37657588720321658,-0.17448365688323975,-0.2849367558956146,-1.5910069942474366,0.27372726798057558,0.2565121054649353,0.054031822830438617,0.5413291454315186,-1.4518380165100098,-0.8813475966453552,1.3628227710723878,-0.8530721068382263,-0.007226059213280678,0.6536260843276978,-1.55280601978302,0.8619974851608276,0.6044045090675354,-0.7517343163490295,0.11311018466949463,-0.029770012944936754,0.8380098342895508,1.206075668334961,-0.11258115619421005,-0.35711193084716799,0.12075114995241165,0.15225635468959809,0.33765536546707156,0.0746494010090828,-2.949138641357422,0.16213840246200562,-0.3805738687515259,1.2688710689544678,0.2685573995113373,-0.7551727294921875,0.2177351415157318,1.3117809295654297,-0.16065753996372224,-0.24124906957149507,-0.6259326338768005,2.1881418228149416,-0.007192537654191256,0.028594959527254106,-0.27842846512794497,1.2088178396224976,-1.1782697439193726,-1.1334030628204346,0.5141443610191345,-0.05140960216522217,1.2664320468902588,-0.6750272512435913,-1.0207000970840455,-0.4481070041656494,0.26622310280799868,0.2449679672718048,0.6911506652832031,0.13044574856758119,2.1104025840759279,-1.0610336065292359,-1.0960502624511719,0.17467506229877473,-1.2365423440933228,-0.35015249252319338,1.5905503034591675,-0.5217685103416443,1.632424235343933,-0.10000462830066681,-1.1388180255889893,-0.6203052401542664,0.6397672295570374,-0.6180146336555481,-0.37265095114707949,0.49777910113334658,-0.031039804220199586,0.8414149880409241,0.4328315854072571,-0.34626859426498415,0.8417014479637146,0.612291693687439,-1.4952927827835084,0.40280526876449587,-0.9773421287536621,-0.34652161598205569,0.23528511822223664,0.9365227222442627,0.49889564514160159,0.662830114364624,0.1814856231212616,-0.16346973180770875,0.34236347675323489,-0.058617301285266879,0.7790319323539734,-0.1237221211194992,-0.2554522156715393,-1.0178126096725464,-0.3594859540462494,1.0503506660461426,-1.1392699480056763,0.1746579110622406,-0.0077398428693413738,-0.16446593403816224,0.2227388173341751,0.21936684846878053,-1.5085371732711793,-1.0635230541229249,-0.9043543338775635,-0.08670976758003235,1.7208062410354615,0.33167389035224917,-0.5478273034095764,0.389008492231369,0.2355872094631195,0.01647396758198738,-1.6633727550506592,-0.6406589150428772,0.993988037109375,-0.7186458706855774,0.34603351354599,0.8088176846504211,0.07977522164583206,0.1782476305961609,-0.22696325182914735,0.23127074539661408,-0.986078143119812,0.6045829653739929,-1.0796393156051636,-0.30521631240844729,0.04630458354949951,-0.44957491755485537,-0.7150753140449524,-1.4289920330047608,1.1008380651474,-0.43921634554862978,0.928655743598938,-2.01926851272583,0.35694658756256106,-0.0693107545375824,-0.12197636067867279,0.3337864577770233,-0.9298108816146851,-1.746779441833496,-0.3925173282623291,-1.8792369365692139,0.26370635628700259,-0.45782533288002016,-0.8138050436973572,2.454301118850708,-0.39474666118621828,-0.4132979214191437,0.045838866382837298,-0.703072726726532,0.05308343470096588,-0.20144958794116975,-0.23033295571804048,0.38407135009765627,1.194021463394165,1.8905467987060547,0.20942150056362153,1.1991522312164307,-0.7095431089401245,0.24643108248710633,2.4481406211853029,0.23301807045936585,-0.39314982295036318,-0.38519972562789919,1.5995855331420899,0.5257387161254883,-0.23208239674568177,1.4423691034317017,-0.42905130982398989,0.9915847778320313,0.231584370136261,1.3355079889297486,-1.0298075675964356,-1.368882417678833,0.11752191185951233,1.4940153360366822,0.7022482752799988,0.901505708694458,0.4274023175239563,-0.6343926191329956,0.1292194426059723,1.421541452407837,-1.5040730237960816,0.4322243332862854,-0.5546930432319641,0.0728311538696289,-0.01743679866194725,0.966882586479187,1.539334774017334,0.4538607895374298,-0.3178492784500122,0.8886460065841675,-0.9686586260795593,-1.4617576599121094,0.203451007604599,-0.7787687182426453,-0.8436621427536011,-0.962285578250885,0.988145112991333,-0.5417543053627014,1.5069656372070313,-0.48525547981262209,0.7064972519874573,-0.15129819512367249,1.8320417404174805,1.0960386991500855,0.13793706893920899,-1.7845759391784669,-0.7428705096244812,0.870912492275238,0.16113853454589845,0.42351216077804568,-0.18399330973625184,1.3046413660049439,-0.014025076292455197,-0.7558795809745789,-0.5444657802581787,0.49704813957214358,1.2572931051254273,0.8155807852745056,-0.5919305682182312,0.21857906877994538,0.3336702883243561,0.5169886350631714,0.42501702904701235,0.23203976452350617,0.8740713596343994,-0.4489516317844391,0.3878761827945709,1.0864042043685914,1.1092677116394044,0.9283250570297241,0.6421168446540833,-1.9501806497573853,-0.715496838092804,1.6065460443496705,0.352937787771225,-0.8317853212356567,-0.21138480305671693,-0.18545188009738923,2.4704360961914064,0.5747400522232056,0.3091939389705658,0.9148057699203491,0.020901290699839593,-0.07108540832996369,1.8011937141418458,-0.1933852881193161,1.4813838005065919,-0.5003260970115662,-0.6853403449058533,-0.2967670261859894,0.7408773899078369,1.0608716011047364,0.9919557571411133,0.6888344883918762,-0.7908501625061035,0.1002555638551712,-1.996625304222107,-0.9761626720428467,-1.541588306427002,-0.2184189409017563,-0.7659773826599121,-0.03563264012336731,0.14342325925827027,1.24686598777771,-1.1567637920379639,0.18702329695224763,-0.2402610182762146,0.17876693606376649,0.4650142192840576,0.223329558968544,-0.07298696041107178,0.8613529205322266,-0.5897404551506043,0.8265233635902405,0.3825095593929291,0.9552040696144104,-0.9297577738761902,-0.5295524001121521,-0.08636155724525452,-0.13056576251983643,0.19193850457668305,0.043021053075790408,0.24779728055000306,-0.9544199705123901,0.22536610066890717,-0.6844208836555481,-0.33895736932754519,0.9509127736091614,2.4333367347717287,1.0339465141296387,-0.3514781892299652,0.16431516408920289,-0.2856791615486145,-0.9675144553184509,-1.6680996417999268,-1.5290236473083497,0.46614891290664675,0.547200620174408,-0.17232327163219453,0.32280027866363528,0.07370073348283768,2.0559768676757814,0.7638441920280457,1.7114912271499634,-0.07709231972694397,0.2206861972808838,0.3116723299026489,-1.5154489278793336,0.37539076805114748,-0.923051655292511,0.4930500388145447,0.5828417539596558,-0.7372804284095764,0.3690207004547119,1.8265784978866578,-1.1084249019622803,0.496694415807724,1.8768928050994874,0.432807981967926,-0.4891354739665985,0.044298894703388217,-1.227731704711914,0.1924930214881897,0.360310435295105,-0.3825487792491913,-0.005421191453933716,-1.2737473249435425,-0.18212567269802094,1.0787091255187989,-1.1082987785339356,0.040725305676460269,0.20099885761737824,-0.8301234245300293,-0.4675739109516144,-0.06252077221870423,-1.0004562139511109,-1.2567105293273926,0.8507473468780518,-0.7001869678497315,0.24272966384887696,0.2801210880279541,-1.15297269821167,0.26972267031669619,0.8290451765060425,0.29241037368774416,-0.7361817359924316,-0.0696595311164856,0.49502164125442507,-0.2983916997909546,1.16981041431427,-1.4474645853042603,0.7865661382675171,-0.6111608147621155,0.14999373257160188,-0.48307597637176516,-1.1294461488723755,-1.1012200117111207,-0.012428849935531617,-0.46629950404167178,-1.8406120538711548,0.2595672011375427,0.31392940878868105,-0.41910141706466677,-0.522001326084137,-0.12633927166461945,-1.8169963359832764,-0.31204256415367129,0.30818668007850649,-0.31916144490242007,-1.053572416305542,1.6205705404281617,0.5073591470718384,-1.2926639318466187,1.0053218603134156,-1.5066131353378297,-0.6233015656471252,0.8860698938369751,-0.6608064770698547,-0.7554988265037537,-0.9871344566345215,-0.6737353205680847,1.0974208116531373,-1.2031387090682984,1.4137665033340455,1.8972710371017457,-0.675097644329071,0.21673092246055604,0.5056095123291016,-0.27592509984970095,0.751857578754425,0.8060414791107178,-0.9059474468231201,-0.42084088921546938,0.4803113341331482,0.9261109828948975,-0.16709871590137483,0.7705510258674622,0.9116410613059998,-0.35962024331092837,2.083869457244873,0.35862457752227785,-1.0869388580322266,0.23359695076942445,-0.728247880935669,-0.7017816305160523,1.0905970335006714,-0.9216633439064026,0.24705331027507783,-0.4330490529537201,-1.752700686454773,0.04514621943235397,0.7927325963973999,-1.5843929052352906,-0.9956905841827393,0.0667852908372879,-0.803073525428772,0.28514283895492556,-0.11304621398448944,-0.4865429401397705,0.5458152890205383,-0.15614710748195649,-0.0797361508011818,0.011442293412983418,-0.7760341763496399,-0.5190312266349793,0.6034347414970398,-0.6754716634750366,-0.5775793194770813,0.7167485952377319,-0.5649678707122803,0.08772331476211548,-0.7288331389427185,-0.6252734661102295,1.2590252161026,-0.8535683751106262,-0.29760390520095827,0.23020561039447785,0.5301160216331482,-0.8565528392791748,0.3129945993423462,0.3551918864250183,-0.1612921804189682,-0.06892755627632141,-0.23073028028011323,-0.006318866740912199,-0.6687459945678711,-0.28056272864341738,-0.24822992086410523,0.7369399070739746,-0.7013877630233765,0.47168299555778506,-0.07910192012786865,-0.7915109992027283,-0.564136266708374,-0.1962893158197403,-0.6117221117019653,-0.20515084266662599,-0.5096108913421631,-0.5219959616661072,0.7764325737953186,-0.3796897232532501,0.16152791678905488,1.175988793373108,-0.09468922019004822,-0.06913866847753525,-0.023247752338647844,-0.7217999696731567,0.09746336936950684,-0.5740188360214233,0.1645733267068863,0.32571810483932497,0.7285328507423401,0.9261893630027771,1.595009207725525,0.3438941240310669,0.24672259390354157,-0.3891264498233795,1.984369158744812,-0.11215116828680039,-0.254491925239563,-0.8927915096282959,-0.06092718243598938,-1.6029499769210816,-0.24052636325359345,-0.3237330913543701,-0.0917532742023468,-0.8014494776725769,-0.245074063539505,0.1505315601825714,-0.0457967109978199,-0.17250147461891175,-0.5281999111175537,1.3995388746261597,-0.09596562385559082,-0.8242108225822449,0.9572238922119141,-0.4113035500049591,-0.5186499357223511,0.04131128638982773,0.4743434190750122,1.67067289352417,1.6731358766555787,-0.9626943469047546,-0.3094125986099243,-0.21559350192546845,-0.6017255783081055,0.9341766834259033,0.06549546122550965,0.6037259697914124,-0.35691890120506289,0.8387107253074646,0.9886614680290222,-0.4713606536388397,-0.6107822060585022,-0.9747239947319031,0.8331038951873779,0.3826926052570343,0.05157686024904251,-0.8621405363082886,0.7249690294265747,-0.26676708459854128,0.48467904329299929,-0.8590574264526367,-0.14316080510616303,-0.1447048783302307,0.2765488624572754,0.45735278725624087,0.4372602701187134,0.12610012292861939,0.7548288702964783,1.2469569444656373,0.11078301072120667,0.44257140159606936,0.01650567166507244,-1.3621727228164673,0.13455475866794587,0.8967956900596619,-0.8684564828872681,0.8023516535758972,-0.46545368432998659,0.404317170381546,-1.2241863012313843,1.3121192455291749,0.8541401028633118,0.2987091541290283,0.40743738412857058,-0.2995336055755615,-0.6535012722015381,0.8300959467887878,-0.8856459856033325,0.3622385263442993,0.6269721984863281,0.5908448696136475,0.8989677429199219,0.39832213521003725,-1.5215036869049073,-1.5612916946411133,-0.38195279240608218,-0.3805801570415497,0.8139292001724243,-0.5652443766593933,-0.033905066549777988,1.3536579608917237,1.217085599899292,0.2528223395347595,0.11881343275308609,0.006439816672354937,-0.996463418006897,0.4741351306438446,-1.2475402355194092,-0.4963478147983551,-0.3893307149410248,-0.4872232675552368,-0.38653266429901125,-0.26385942101478579,0.36688822507858279,0.8306323289871216,1.0119749307632447,-0.39262503385543826,-0.4304184019565582,-0.3488439619541168,0.6313854455947876,0.6194421052932739,-0.8685656785964966,0.016784636303782464,-0.8842331767082214,-0.17109385132789613,-1.1290839910507203,-0.7475607991218567,0.15618211030960084,0.29719534516334536,1.2139300107955933,1.0576660633087159,0.9120029211044312,0.6332994699478149,-0.0687933936715126,0.1070905327796936,-0.8010549545288086,-0.041544754058122638,1.6507545709609986,-0.954829752445221,-0.6372628808021545,-0.25579285621643069,-0.7820928692817688,-0.8222041130065918,0.4454573690891266,0.6271916031837463,-0.3041142225265503,-0.27554863691329958,-0.33009183406829836,-3.174630641937256,0.30314916372299197,-1.0486019849777222,0.15705540776252747,0.5812130570411682,0.41443875432014468,-0.4639686048030853,0.1859865039587021,0.7243319749832153,-0.5934915542602539,0.810430645942688,0.2711309790611267,-0.001887559425085783,0.20550702512264253,-2.187283992767334,-0.8686589598655701,0.246169775724411,-0.4631842076778412,0.4497487545013428,0.2250082790851593,0.09091854095458985,0.22002072632312776,0.14720726013183595,-0.9047149419784546,0.27868881821632388,-0.3447817265987396,-0.7961435317993164,-1.646132469177246,0.3488916754722595,0.747961163520813,0.1368817389011383,-0.34712308645248415,0.7781239748001099,-0.26739054918289187,0.23404483497142793,-0.7861335873603821,-0.7372141480445862,-0.9026185870170593,0.35617944598197939,0.0700572058558464,0.24253776669502259,1.417643427848816,-0.7297757267951965,1.192798137664795,0.01417688187211752,0.3226690888404846,2.3434557914733888,-0.5211384296417236,0.9057431817054749,1.9585460424423218,-0.11047843098640442,-0.37215712666511538,0.5090744495391846,-0.5945935249328613,0.9565562009811401,0.8271964192390442,0.15072602033615113,0.24942679703235627,0.6726201176643372,0.8385372161865234,-0.10801751911640167,-0.16498048603534699,-0.024493291974067689,-0.29504868388175967,0.11347256600856781,-0.8072870969772339,-0.9223295450210571,0.600488543510437,-0.2763809263706207,-1.2941359281539918,0.3971535563468933,0.5242735147476196,0.034659985452890399,-0.5354556441307068,-0.14393770694732667,0.14832352101802827,-0.5945340394973755,-0.48715296387672427,0.7581436634063721,-0.6024606227874756,-0.37327951192855837,0.855328381061554,-0.5727434754371643,0.1603929102420807,0.4636825919151306,-0.5740962028503418,-0.9933232665061951,-0.09858819842338562,-1.009787917137146,1.095931053161621,-0.730988085269928,0.09310196340084076,1.423597812652588,-0.23223437368869782,-0.009239254519343377,0.3915928900241852,-0.05095897242426872,0.8305320143699646,-1.9735206365585328,1.6542072296142579,0.6081014275550842,0.6223224401473999,0.5945055484771729,-0.10145144164562226,0.5488932728767395,0.7860928773880005,0.15003329515457154,-0.7192272543907166,-0.7394195795059204,-0.801211416721344,0.8936589360237122,0.5828214287757874,1.0737584829330445,-0.17306116223335267,-0.31369760632514956,0.34482279419898989,-0.37011244893074038,-0.5429251194000244,0.10364433377981186,0.020954705774784089,0.6015475392341614,-1.0552514791488648,-0.6135300397872925,-0.17838610708713532,0.31252792477607729,-1.7569869756698609,1.0379879474639893,-0.32012102007865908,-0.3527498245239258,1.3909375667572022,0.4590299725532532,0.30671998858451846,-0.5747398138046265,-2.15999698638916,-0.2093023806810379,0.6370936036109924,0.5430065989494324,-1.2779293060302735,-0.21155157685279847,-1.2275773286819459,-1.374464511871338,0.4790366291999817,-1.1570407152175904,-0.14179760217666627,-0.6176547408103943,1.1559027433395386,-0.06299281120300293,-0.14739201962947846,-0.7575080394744873,0.3891626000404358,-1.058767557144165,0.9133114814758301,1.2188136577606202,-1.209356427192688,-0.5649536848068237,1.030574083328247,1.232724666595459,0.13135893642902375,1.3642445802688599,0.13700157403945924,-0.6851981282234192,-1.2956303358078004,-0.8546625375747681,1.278488039970398,0.8602990508079529,-0.1708480566740036,0.44996199011802676]},"biases":[-0.5983258485794067,-0.6279940009117127,-0.40344125032424929,-0.5045825242996216,-0.05126088857650757,0.507959246635437,-0.7776296734809876,0.03285643458366394,-1.576790690422058,-0.41088688373565676,-0.6988906860351563,-1.0307258367538453,1.2238963842391968,-1.2414584159851075,-0.06359127163887024,-1.3674827814102173,0.5718561410903931,1.1448465585708619,-1.298064112663269,0.3981707692146301,-0.07820695638656616,-1.3648899793624879,0.7640153169631958,1.9355287551879883,0.24959959089756013,0.4011420011520386,0.3889697790145874,-0.48881953954696658,-0.39165011048316958,-0.37024760246276858,-1.0329959392547608,-0.552727222442627,-0.6065968871116638,-1.793520212173462,-0.6901089549064636,-1.7086749076843262,0.9006453156471252,-0.7725840210914612,0.2962290644645691,0.12457804381847382,0.532142162322998,1.0997132062911988,-0.15813137590885163,0.07156427204608917]},{"neurons":[0.9998306632041931,-0.9966802597045898,1.0,0.9999999403953552,-0.5583164095878601,-0.9998022317886353,0.9999980330467224,-0.9999995827674866,0.9999998211860657,0.9001581072807312,-0.24203239381313325,0.8865907788276672,-0.977098286151886,-0.7059060335159302,-1.0,-1.0,0.9999814629554749,1.0,1.0,-1.0,0.294469952583313,-1.0],"weights":{"rows":22,"cols":44,"data":[0.06076172739267349,1.2673372030258179,0.02185926027595997,0.8500210642814636,-0.6642399430274963,2.055234670639038,1.4480934143066407,-1.4334135055541993,0.8951220512390137,-0.9594264626502991,-0.5252695679664612,-0.03058576211333275,0.4235626757144928,-0.7413820028305054,0.6213819980621338,-0.7702781558036804,-0.5657017230987549,0.2857154905796051,-0.9233840107917786,-1.7741780281066895,-0.8359300494194031,0.15350505709648133,-0.6877530813217163,-0.5416301488876343,-0.5486316084861755,0.9282792210578919,1.6162151098251343,-1.7828078269958497,0.29040566086769106,-0.2917312681674957,-1.8670240640640259,-1.6070140600204468,-0.9606698751449585,0.35415956377983096,-1.1697458028793336,0.18050959706306458,-0.13914364576339723,-1.0166898965835572,-0.07050296664237976,-0.3599589467048645,-0.7302554845809937,0.13341383635997773,0.6613712906837463,0.0012242645025253296,-0.45030686259269717,0.06810536980628967,0.7075452208518982,0.7972548007965088,0.47482842206954958,0.10469235479831696,0.7807982563972473,-0.7665183544158936,-1.1470682621002198,1.3061050176620484,1.0702099800109864,-1.1637970209121705,0.001566635794006288,0.8794808387756348,-0.874078631401062,-1.4282971620559693,-0.3903326690196991,0.7673806548118591,-0.39936938881874087,-1.3974649906158448,-0.5957138538360596,0.27614492177963259,1.706839919090271,-0.08679795265197754,0.2437855303287506,-0.08717294037342072,0.5864860415458679,2.0052857398986818,2.403959035873413,2.0874876976013185,-0.5694355368614197,-1.3326164484024048,-0.47308841347694399,-0.24630600214004517,-0.13877780735492707,-1.9236077070236207,0.48779505491256716,-0.3250531554222107,-0.155583918094635,-0.9001511335372925,0.7068697214126587,0.22294384241104127,0.028758853673934938,1.733074426651001,0.7084218859672546,-0.13425801694393159,1.490234613418579,-1.8314173221588135,1.9188090562820435,-0.0160880908370018,0.580925703048706,-1.2852832078933716,-0.6298641562461853,-0.7415048480033875,-0.8187239170074463,-0.733329176902771,-0.881967306137085,0.0647052749991417,0.36558082699775698,0.9392232298851013,-0.9904764890670776,0.8243611454963684,-0.5612945556640625,0.9813272356987,-0.12382782250642777,0.8847858905792236,-1.642804741859436,-0.4874700605869293,-0.5880961418151856,0.19273525476455689,-0.7856029272079468,0.9217787981033325,-0.4885595738887787,0.013367511332035065,-0.1201832965016365,0.20272639393806458,0.9379969835281372,0.7973910570144653,-0.1533077210187912,-0.3130788803100586,0.8243957757949829,-0.5957017540931702,-0.025612562894821168,-0.9498509168624878,0.7236384153366089,0.5949438214302063,-0.5430989265441895,1.5954375267028809,0.27722835540771487,1.3823206424713135,-0.9394787549972534,1.7953970432281495,0.36549440026283266,-0.7674020528793335,-0.6336068511009216,0.2296971082687378,0.22038708627223969,-1.4523361921310425,-0.07471027225255966,-0.31669002771377566,-0.7878819704055786,-0.17441843450069428,1.6326038837432862,0.7856477499008179,-0.28476279973983767,0.7317408323287964,0.0993296355009079,-0.005390238016843796,-0.09142465889453888,-0.17649364471435548,0.5938594937324524,0.49608314037323,-0.07833722978830338,0.6687272787094116,0.7498061656951904,0.005178009159862995,-0.712283194065094,0.972349226474762,0.239518404006958,0.4932483434677124,-1.0885297060012818,-0.7012650966644287,-0.13105925917625428,-1.4866846799850464,0.5810543298721314,-1.1631413698196412,0.6540828943252564,-0.751065194606781,1.4532067775726319,0.47535333037376406,0.9290246963500977,-0.9251435995101929,-0.39229893684387209,-0.045155931264162067,0.9920070171356201,0.5399298071861267,0.2674032151699066,-0.8823660016059876,0.8139268159866333,-0.4962652325630188,0.4430866837501526,-1.6953659057617188,0.32063019275665285,1.7842658758163453,0.8822150826454163,-0.5669693946838379,-0.2785939574241638,-0.658458948135376,-0.6930127739906311,1.20294988155365,1.0722453594207764,0.13327747583389283,0.5514670610427856,0.19325515627861024,0.39891955256462099,-0.09468913078308106,0.979956865310669,-0.41377487778663638,-0.557940661907196,0.480023056268692,-0.5895127058029175,-1.2664202451705933,-0.16290512681007386,-0.39456963539123537,0.02514481358230114,-0.0005816700286231935,-0.44229182600975039,0.4362620413303375,-1.5399510860443116,-0.10666564851999283,-0.7423034906387329,0.19499556720256806,-0.5563653707504273,-0.055180344730615619,0.7163606882095337,0.2730056643486023,0.03936392813920975,0.27456867694854739,-0.17426544427871705,-1.2108354568481446,-0.9219219088554382,-0.29010793566703799,-0.8982023000717163,-0.7521287202835083,-0.05985172465443611,1.2298243045806885,1.4019323587417603,0.708768904209137,-0.29062849283218386,0.08037447929382324,-0.2848660945892334,-0.553076446056366,1.5499786138534547,1.185914158821106,0.7483175992965698,-1.5982543230056763,-2.207017421722412,-0.71736741065979,0.304659903049469,0.3538326323032379,0.35818755626678469,1.1597226858139039,-1.0279970169067383,1.2397983074188233,-0.5649859309196472,0.1222732812166214,0.9503503441810608,0.08415517956018448,-0.9247878789901733,1.0378180742263795,-0.5544388294219971,1.4638689756393433,-1.130558967590332,-0.21621836721897126,0.9844978451728821,0.18772099912166596,0.04748863726854324,0.10565909743309021,0.7829437851905823,-0.8713675737380981,1.618054747581482,0.2991149127483368,-0.27425533533096316,-0.21518447995185853,0.021097026765346528,-1.0088509321212769,-0.8548628687858582,-0.9932748675346375,-0.21862901747226716,-1.1183720827102662,-0.5869221091270447,-0.5611899495124817,0.25686100125312807,-0.009238204918801785,2.0361671447753908,-0.7394281625747681,-0.6010065078735352,-0.07522464543581009,-1.1834596395492554,0.22272580862045289,-0.02652619034051895,-0.541761040687561,-1.7613723278045655,1.6158089637756348,0.5693247318267822,-0.19722864031791688,-0.45800670981407168,-0.765777587890625,-0.9436988234519959,0.11699501425027847,-0.8234257698059082,0.19606004655361176,0.5321505665779114,0.9066483974456787,-0.11315102130174637,0.4638385474681854,-0.4845453202724457,2.062002658843994,-0.9216514825820923,0.20364739000797273,-0.3202519416809082,0.32081159949302676,-0.5777473449707031,-0.5132268071174622,1.4414061307907105,0.4206067621707916,-0.1842842698097229,0.002783645875751972,-1.1173068284988404,0.552179217338562,-0.541973352432251,-0.19433602690696717,-0.032747555524110797,0.3427845537662506,0.8207280039787293,-0.2497762143611908,0.05644460767507553,-0.3923448324203491,-0.08223018050193787,0.2862115502357483,-0.16630686819553376,-1.1318776607513428,0.38529011607170107,0.4952321946620941,0.3683292269706726,-0.2525973916053772,2.1389036178588869,0.04855421558022499,-0.9195789098739624,0.04850685968995094,0.23858049511909486,0.8717018961906433,0.09538383781909943,1.4381589889526368,0.7199804782867432,0.7490052580833435,-0.39685094356536868,-1.1174272298812867,-0.16275694966316224,-0.6153620481491089,-1.185998797416687,-0.8638159036636353,0.8384926915168762,0.7158892154693604,-0.7258455157279968,-1.7882797718048096,-0.12495218217372894,0.28684574365615847,1.152294397354126,0.18585225939750672,-1.7279354333877564,-1.5211533308029175,-0.22323234379291535,-0.009134134277701378,-0.5629909634590149,-1.1013702154159547,0.900108277797699,0.7685961723327637,-0.02881423756480217,1.394093632698059,0.7386606335639954,-1.7161880731582642,-1.8439892530441285,1.5407134294509888,-0.7554529309272766,-1.4455695152282715,-1.7570974826812745,0.5394191145896912,1.203763484954834,-1.1920408010482789,0.43335092067718508,0.39132192730903628,0.48067933320999148,0.2617949843406677,0.4618915915489197,-0.9113318920135498,-0.5683281421661377,-0.6853864192962647,0.033117249608039859,-0.37767791748046877,-0.8756747245788574,0.19080893695354463,0.028077490627765657,0.06774646043777466,0.25717106461524966,0.8699274063110352,-0.6349189281463623,3.2232863903045656,0.5391486287117004,-0.4995635747909546,-1.1092783212661744,0.7095516920089722,0.14716601371765138,0.5429311394691467,0.05490007624030113,0.3928440809249878,-0.15024511516094209,0.21834155917167664,0.7103803753852844,1.4488987922668458,0.2676320970058441,-2.807189464569092,0.12327516824007034,-0.38464275002479555,-0.09375995397567749,-0.7178581953048706,0.1593361645936966,0.46749117970466616,1.7705662250518799,-0.9389345645904541,0.5115896463394165,-0.5218080282211304,-0.5958516597747803,0.5400127172470093,-0.4539281129837036,0.07917222380638123,0.4411900043487549,0.7143022418022156,-0.023711204528808595,-0.1766175776720047,-0.1684863567352295,-0.595323383808136,0.5721907019615173,-0.3561183214187622,-0.8222529292106628,1.0957119464874268,0.6250818967819214,0.2082393318414688,0.8614479899406433,1.2652565240859986,-0.9351714849472046,0.22952702641487122,-0.6253697276115418,0.30496859550476076,0.6389461159706116,-0.7756706476211548,-1.1331475973129273,0.34918174147605898,0.7867183685302734,-0.8482799530029297,1.8335319757461548,0.24670198559761048,0.7632229924201965,-0.16330240666866303,0.46532103419303896,0.04300209879875183,1.6494908332824708,0.21473044157028199,0.6896892189979553,0.10847596079111099,-0.04245747998356819,-1.9173651933670045,0.39622360467910769,-1.2366437911987305,0.18683868646621705,0.35987818241119387,0.012728650122880936,-0.741725504398346,-0.6331968903541565,-0.8311563730239868,0.17708218097686768,1.460607647895813,0.6048278212547302,0.8666092753410339,-0.16334962844848634,0.9287311434745789,-1.0394573211669922,0.3689720630645752,0.5395869612693787,1.0276066064834595,-0.695241391658783,-0.2717125415802002,-1.0489952564239503,-0.8010678291320801,-0.19262297451496125,-0.794771134853363,-0.07053013145923615,0.6107810139656067,-0.7328066825866699,-1.4476462602615357,-0.9531420469284058,0.005801558494567871,-1.1615049839019776,-0.4214877188205719,-0.2879883050918579,-0.852380096912384,-0.5192398428916931,-0.21148106455802918,1.1702884435653687,0.7723382711410523,0.6097522974014282,-0.7952881455421448,1.217151165008545,-0.1849878430366516,0.3735320568084717,-0.23025915026664735,0.46829918026924136,0.8305302858352661,-1.2539258003234864,-2.278677463531494,-0.4339272677898407,0.47901061177253725,1.0420430898666382,-0.9164597988128662,0.345552533864975,0.2904317080974579,1.8906311988830567,1.8487364053726197,-0.5517148971557617,0.5212870836257935,0.6143060326576233,0.9857386350631714,1.273224949836731,-0.8383969068527222,-0.06984081119298935,-0.4645354151725769,0.8575906753540039,0.6893883943557739,0.7198089361190796,0.013489335775375367,0.3820030987262726,-1.6171365976333619,-0.2600293457508087,0.6970122456550598,0.8385334014892578,-0.34612008929252627,1.0063890218734742,-0.011118719354271889,-1.6357245445251465,0.006948976777493954,0.5127718448638916,-0.5005602240562439,1.155041217803955,0.727567195892334,0.2846912145614624,0.834111750125885,0.02517371065914631,1.0967957973480225,-1.2347341775894166,0.871519148349762,-0.38535866141319277,-0.9968441128730774,-1.839411735534668,-0.12167684733867645,0.39942479133605959,-0.6073591709136963,-0.9191221594810486,-1.2257230281829835,0.6535155773162842,0.6626652479171753,0.481930673122406,1.0931624174118043,-0.8556890487670898,0.35159429907798769,1.0485012531280518,-1.4131213426589966,-0.8144452571868897,-1.8416697978973389,0.2953827381134033,-0.0780828446149826,0.3513760566711426,0.09618517756462097,-0.1406508833169937,-1.2261340618133546,-1.4185101985931397,0.0629778504371643,0.4370785057544708,0.13934370875358582,-0.8030698895454407,1.6868129968643189,0.11349838972091675,-0.5386689305305481,-0.8185029625892639,-0.7883632183074951,-0.34430962800979617,-0.176698699593544,-0.6194193959236145,0.4363376498222351,-0.11131244152784348,-0.042336393147706988,-0.3821338713169098,-0.8472478985786438,0.5194277763366699,-0.8386785984039307,-0.04288802668452263,-0.7467370629310608,0.8025233745574951,0.040950752794742587,-0.7233440279960632,1.2150352001190186,-0.0331738218665123,-2.1564860343933107,-0.4091520309448242,-0.4049537479877472,1.3734382390975953,-0.3495451807975769,-0.056565672159194949,-0.4127427041530609,1.2222816944122315,-0.23627938330173493,0.3927067518234253,-0.14417260885238648,-0.5121748447418213,0.382956326007843,-0.5006450414657593,-0.07292615622282028,-1.1769310235977173,-0.9539150595664978,1.500778317451477,0.0467161200940609,0.11680815368890763,-0.4402218163013458,0.3181191086769104,0.47865673899650576,-0.7304553985595703,0.5682728290557861,0.07624615728855133,-0.2339148223400116,-0.1416407823562622,-1.6788960695266724,-0.04209097474813461,0.16961738467216493,0.6089165806770325,0.7185384035110474,0.26558244228363039,1.6893023252487183,-0.560135543346405,0.09143888205289841,-0.7799323201179504,-0.38926228880882265,0.863661527633667,0.2723415791988373,-1.301493763923645,-0.09529754519462586,1.357688069343567,-1.9436061382293702,0.3602050244808197,-0.7764627933502197,0.23316653072834016,-0.31093087792396548,0.8682612776756287,0.30720365047454836,1.0455666780471802,-0.2823680341243744,0.9470235705375671,-1.1718100309371949,-0.08873307704925537,0.8026200532913208,-0.8344036340713501,-0.45658302307128909,0.3682917654514313,-0.34017565846443179,0.08538884669542313,-0.5347332954406738,-0.716310441493988,-1.3594871759414673,0.339983731508255,0.28670719265937807,-0.18845213949680329,0.9906919002532959,0.14062297344207765,0.546955406665802,0.7107561230659485,0.7708960175514221,-0.6075753569602966,1.251422643661499,-0.6626927852630615,0.15702669322490693,-0.8071482181549072,0.2892324924468994,0.13039985299110413,-0.9692868590354919,0.2601091265678406,-0.3154112696647644,0.06791390478610993,0.34637725353240969,-1.5879446268081666,-0.09212158620357514,-1.0836451053619385,-0.22693543136119843,0.2110808789730072,-1.003305196762085,-1.9548425674438477,0.2246071994304657,0.6732168197631836,0.5835468769073486,-0.5493196249008179,0.782375156879425,0.46185344457626345,0.5936024188995361,-0.4130880534648895,1.208122968673706,-0.20438703894615174,0.10818144679069519,0.5405027270317078,0.429161012172699,-0.5587083697319031,-0.841107189655304,0.07373664528131485,0.16971424221992494,0.35506317019462588,-0.1348644196987152,1.2311443090438843,-0.7035237550735474,1.7981176376342774,-0.9934799671173096,-0.03287751227617264,0.887694776058197,-0.08648139983415604,0.15816771984100343,0.42263659834861758,-0.6039226651191711,-0.46070948243141177,-0.4733595848083496,-0.2767632007598877,-1.5740567445755005,0.024871032685041429,-0.4771382212638855,-0.26897764205932619,0.14445941150188447,1.4536633491516114,-0.8798381686210632,0.18662869930267335,1.397798776626587,0.20085082948207856,0.2093568593263626,-0.14206179976463319,-0.23167060315608979,-0.5715394020080566,-1.6813840866088868,0.36549702286720278,-0.5013001561164856,-0.7624940872192383,-1.5614409446716309,0.2143896520137787,-1.0098429918289185,-0.36469680070877077,0.30926963686943056,-0.6368356347084045,-0.8873512148857117,-1.4162334203720093,0.8976132869720459,1.1688117980957032,0.7861025333404541,-0.8017584681510925,-0.12088164687156677,0.42525699734687807,-1.0602072477340699,0.2616674304008484,0.2772684395313263,0.33576175570487978,-0.18494310975074769,-1.033133864402771,0.9036849737167358,-0.7444498538970947,-0.6183704733848572,0.7516720294952393,-0.7902982234954834,1.134477138519287,0.6335248351097107,-0.436066210269928,0.018431490287184717,-0.9985779523849487,-1.0883338451385499,-1.2063847780227662,2.0642337799072267,0.13364756107330323,0.526611864566803,1.0597472190856934,0.4928433895111084,-0.6728067994117737,0.36559078097343447,-1.6368029117584229,-1.212867021560669,-1.0519582033157349,-0.21088385581970216,-0.4809648096561432,-0.943173348903656,0.9074485301971436,-0.2929237186908722,0.9887183904647827,-1.3633159399032593,0.6849563717842102,-0.4538378417491913,0.7168062329292297,-0.34296566247940066,-0.962428867816925,0.39598706364631655,-0.9329389333724976,0.7490604519844055,0.4006023705005646,1.2415846586227418,2.1316685676574709,1.056687831878662,-0.3852568566799164,0.8705935478210449,0.28022849559783938,-0.7566089630126953,-1.1181774139404297,-0.05099335312843323,0.9016512036323547,-1.3917460441589356,-0.23399925231933595,0.4392933249473572,0.6961333155632019,0.6436381340026856,-1.7248046398162842,0.16478043794631959,-0.22278383374214173,-0.2358373999595642,2.642073631286621,0.44117996096611025,-2.377474784851074,0.28816545009613039,0.060376208275556567,1.1116646528244019,0.7488091588020325,-1.1816465854644776,0.09921592473983765,0.012576115317642689,-0.4684346318244934,-1.2900669574737549,1.0129330158233643,2.1471641063690187,1.309159278869629,-1.5561274290084839,-0.8925668597221375,0.028838694095611573,0.6353878974914551,1.802630066871643,-0.7326114177703857,0.6900380849838257,0.5507490634918213,-1.1090902090072632,0.2801573574542999,1.1041063070297242,0.17576122283935548,0.5398020148277283,0.8861145973205566,-1.002862572669983,0.6857278943061829,0.7533748745918274,0.8428066968917847,-0.08767681568861008,-0.5731408596038818,-0.48321375250816347,0.5916593670845032,0.15071789920330048,-0.30569666624069216,-1.4082635641098023,0.053479231894016269,0.21282200515270234,-1.9206552505493165,-1.8699932098388672,0.22945687174797059,-0.7045215964317322,-1.8863505125045777,-0.36308687925338747,0.026088355109095575,-0.42927929759025576,0.4548231363296509,0.8887646794319153,1.5718047618865967,0.39488041400909426,-0.2434106320142746,1.3929859399795533,1.4997518062591553,1.7391538619995118,-1.2099515199661255,0.15723441541194917,-0.769167423248291,0.23211902379989625,0.7723885774612427,1.3710458278656006,0.19346511363983155,0.8205512762069702,0.6374847888946533,0.9551979899406433,-0.5189818143844605,0.8068472743034363,-0.8920583128929138,1.183672547340393,0.9457713961601257,-0.25124332308769228,0.7545421123504639,-2.5068135261535646,1.360408067703247,1.3589048385620118,0.4835057556629181,-0.0812743678689003,1.365351676940918,0.31975385546684267,-0.7435111999511719,-0.2212253361940384,0.011019224300980568,0.1465141922235489,0.7961459159851074,-1.3962156772613526,-0.16027167439460755,0.1737193763256073,-0.6296432018280029,1.5509110689163209,-0.036296673119068149,0.6771811246871948,0.2749897539615631,0.20726780593395234,0.7050893902778626,-1.2157126665115357,1.6282869577407838,-0.9269609451293945,-0.5139229893684387,-0.3437918722629547,0.37920844554901125,0.8626607060432434,-1.1277196407318116,-0.9401921629905701,-0.7611805200576782,-0.3132730722427368,-0.8134560585021973,-0.6494430303573608,0.2740650177001953,0.04267506301403046,-0.35715824365615847,0.5329235792160034,-0.698341429233551,1.0395393371582032,-0.9166309833526611,-0.1319572925567627,0.46336087584495547,-0.7264255285263062,-1.4030033349990845,0.16987979412078858,0.6372936367988586,0.09824512898921967,-0.3575884699821472,0.2658025026321411,-0.2949599325656891,0.09265411645174027,2.1769614219665529,1.4201682806015015,-1.9304288625717164,0.18173637986183167,0.508610725402832,0.9051872491836548,1.6858830451965333,-0.007231683470308781,-0.627528965473175,-0.21379360556602479,0.15622912347316743,0.6468990445137024,0.33140379190444949,1.1320264339447022,-0.5159002542495728,1.080644965171814,-1.258771538734436,-0.11755762249231339,0.6064645648002625,1.9525794982910157,-0.28763121366500857,1.3542896509170533,-0.1302034705877304,0.9415199756622315,-0.5157175064086914,0.451391339302063]},"biases":[1.1465849876403809,-1.406697154045105,-0.1924227774143219,0.9487427473068237,-0.5580470561981201,-0.6329320669174194,-0.4131740927696228,0.44591888785362246,0.8013230562210083,0.8855047225952148,0.3550293445587158,-0.1327054500579834,-0.7519144415855408,-0.07384582608938217,-1.5156826972961426,1.41032874584198,-0.33815526962280276,-0.3781009316444397,0.4359062910079956,-0.3387422263622284,-0.20057952404022218,-1.1888223886489869]},{"neurons":[-0.5582515597343445,-0.9895737171173096,0.9218865633010864,-0.5333249568939209,-0.9999991655349731,-0.9413316249847412,0.9997422695159912,-0.9817343354225159,-0.999976634979248,-0.6260501146316528,0.999995768070221],"weights":{"rows":11,"cols":22,"data":[-0.923281729221344,0.4667056202888489,1.9251630306243897,0.7862546443939209,1.1207690238952637,0.3118331730365753,0.23176296055316926,1.5584683418273926,0.3408792316913605,0.33953189849853518,-0.33314386010169985,0.5486987233161926,-0.1572580486536026,-0.7150111198425293,0.558830201625824,0.3965339660644531,0.411276251077652,-1.2937464714050294,-0.8314840197563171,-0.6311718225479126,-0.06142271310091019,0.03233441710472107,-0.8521300554275513,-0.112104132771492,-0.037851687520742419,-1.0455138683319092,-0.8728057146072388,0.18891394138336183,-0.7201247215270996,0.10667290538549423,0.601691484451294,0.6001933217048645,-1.002864122390747,1.4816871881484986,0.6307947635650635,0.30088502168655398,-1.1262704133987427,0.7940002679824829,-1.5601071119308472,0.047288455069065097,-0.5487426519393921,-0.1785304695367813,-0.2910803556442261,0.5800037980079651,0.21475183963775636,0.25706467032432558,-1.3339476585388184,1.9385462999343873,1.3146425485610963,-1.0777045488357545,0.20974567532539369,-0.36464303731918337,-0.04861783608794212,0.37518414855003359,0.21384435892105103,-0.3565777540206909,-0.5415760278701782,-0.21286116540431977,-0.35589978098869326,0.0243306215852499,-1.6853419542312623,0.8247884511947632,1.29616117477417,0.7465059757232666,0.7812498807907105,0.24806620180606843,0.7961426973342896,-0.1823781281709671,-0.0718591958284378,0.3211921155452728,1.288726806640625,-0.3834311068058014,1.0985866785049439,-0.26121118664741518,-0.5173288583755493,-0.3799733817577362,-0.047368068248033527,0.031979113817214969,0.3724219501018524,-0.10563772171735764,-0.006617271341383457,-0.14700810611248017,-0.22541552782058717,-0.417621374130249,-0.5567694902420044,0.5525738596916199,0.45774322748184206,-0.016082903370261194,0.9771773219108582,1.0016844272613526,-0.8257285952568054,0.7652900815010071,0.32228273153305056,0.0009213836747221649,-1.2517350912094117,0.40219879150390627,-0.936796247959137,-0.4571262001991272,-0.6977712512016296,0.875856876373291,1.1173275709152222,-1.1217443943023682,-0.45311403274536135,0.6015694737434387,-1.6235675811767579,-0.3967688977718353,0.2885396182537079,2.297110080718994,0.4351985454559326,-0.27747437357902529,-0.31204378604888918,-0.21648189425468446,-0.0608413890004158,0.846275269985199,-0.4059004485607147,-0.2423986792564392,-1.002716302871704,0.5512215495109558,-1.8156064748764039,-0.393007755279541,-0.43497127294540408,-0.04221819341182709,-0.4649266302585602,0.2735676169395447,0.8261803388595581,0.968280553817749,-0.583635687828064,0.9519249796867371,-0.5424709916114807,-1.0887258052825928,0.8865013122558594,-1.826066493988037,-0.03831949830055237,-1.593972086906433,1.7256414890289307,0.5264312624931336,0.2947681248188019,1.3497616052627564,0.1048278734087944,1.2611627578735352,-0.3881344497203827,1.0008518695831299,-0.9689158797264099,-0.49429526925086977,-0.10918839275836945,-1.0305033922195435,-0.07637054473161698,0.41615524888038638,-0.6921233534812927,0.8049409985542297,0.41377854347229006,-0.12994979321956635,0.7513757944107056,-0.3953511714935303,-0.47703877091407778,1.1272673606872559,-0.2056618183851242,0.693078339099884,0.459670752286911,0.20325998961925507,0.17074202001094819,-0.13505461812019349,0.38864368200302126,-0.8978886604309082,2.051023006439209,-0.33175477385520937,0.2417280673980713,-0.44886514544487,-0.2931627333164215,0.3247685432434082,0.14958907663822175,0.2958696782588959,0.9915682077407837,-0.6057587265968323,-0.06315927952528,0.8178941607475281,-1.078766107559204,2.144904136657715,-1.4136919975280762,1.5502967834472657,-0.8964495062828064,-1.4225414991378785,-0.11253872513771057,0.2463511973619461,-2.7702858448028566,-0.5508219003677368,0.6773364543914795,-0.23381252586841584,-0.44428950548171999,0.11983922123908997,-0.682915449142456,0.3459511995315552,0.10733138024806977,-0.0045873625203967098,-1.8229008913040162,0.7562639713287354,0.7071829438209534,-0.5734921097755432,-0.23742429912090302,0.9244377613067627,-1.240570306777954,1.080552577972412,-0.25981032848358157,-1.03671395778656,-0.1816883385181427,-0.27684926986694338,-0.6333658695220947,0.09745108336210251,0.3183700740337372,-0.2732151448726654,0.3034225404262543,0.5034909248352051,-1.2955644130706788,-0.843970775604248,-0.11046414822340012,-0.2945687174797058,-0.05514180660247803,1.0558083057403565,0.41212788224220278,0.8846120238304138,1.6006799936294556,-0.09028889238834381,-1.0503123998641968,0.5048648118972778,-0.7158702611923218,-0.14550307393074037,-1.4065724611282349,-0.06025295704603195,-0.19790655374526978,0.17910856008529664,0.6786936521530151,1.6953428983688355,-0.7489060759544373,-1.9212093353271485,-0.36269891262054446,-0.877800703048706,0.4802653193473816,2.081153154373169,0.6600608229637146,-0.4158051013946533,-0.5080181956291199,0.34122195839881899]},"biases":[0.5273692607879639,0.07317489385604859,-0.48288050293922427,-0.2887805104255676,-0.970253050327301,-0.7207026481628418,1.2697505950927735,-1.1214271783828736,0.4826444983482361,0.9636703133583069,-1.5854206085205079]}],"seed":2050782584}