{"layers":[{"neurons":[-0.17303648591041566,0.7532074451446533,0.6727085113525391,-0.9980890154838562,0.8161542415618897,-0.8590380549430847,-0.05892327427864075,-0.38447844982147219,-0.9848681092262268,-0.9978889226913452,-0.9999295473098755,-0.865723729133606,0.841086745262146,-0.9583523869514465,0.9951092600822449,0.8919425010681152,0.39737555384635928,0.9993208050727844,0.01768861897289753,-0.9167236685752869,0.968925416469574,-0.9113875031471252,-0.9411064386367798,0.9526145458221436,-0.995272159576416,0.638698935508728,-0.6528468728065491,0.9539557695388794,-0.9458152651786804,-0.09248974919319153,-0.8032273650169373,-0.7543449997901917,-0.97931307554245,-0.9878262877464294,0.010999675840139389,-0.22475282847881318,0.9958635568618774,-0.806816816329956,-0.8773725628852844,0.9979472756385803,0.9609432220458984,0.8324155807495117,0.4458036720752716,0.3078954815864563],"weights":{"rows":44,"cols":22,"data":[0.5709947347640991,-1.1408166885375977,0.30966001749038699,0.17378327250480653,0.6111682653427124,-0.45145246386528017,0.05662538856267929,0.8532480001449585,-0.05782608687877655,0.10728880763053894,-0.4125681221485138,-0.24348773062229157,0.19283191859722138,0.6218369007110596,-0.16620337963104249,0.2370990365743637,-1.0013749599456788,0.3292763829231262,0.7326534986495972,0.5617482662200928,0.6761530637741089,-0.17162981629371644,1.5946613550186158,0.08242170512676239,0.5972409248352051,-1.3591585159301758,0.3274068832397461,-0.5306277275085449,0.4525379538536072,1.2977701425552369,-1.5529038906097413,0.0852491706609726,-0.3611515164375305,-0.3258153200149536,0.973377525806427,-0.23611782491207124,-0.20940463244915009,0.08326232433319092,-0.7851021885871887,0.8705980181694031,0.10963209718465805,0.6935251355171204,0.6366003155708313,-0.12191655486822128,0.27883508801460268,-0.681441605091095,-1.2473573684692383,0.44733065366744997,-0.5416780710220337,-0.5059859156608582,-0.07222940772771836,-1.1155977249145508,-0.405864953994751,-0.04041377827525139,-0.561335027217865,-0.5779995918273926,-1.809460163116455,-0.37231650948524477,0.048948995769023898,-0.14985308051109315,-0.8767762184143066,0.9578213691711426,-0.6402357220649719,-0.4752505123615265,0.13113336265087129,-0.5431209802627564,-0.37143802642822268,0.5382099151611328,0.10930429399013519,-0.03028988651931286,0.7762588858604431,1.2867376804351807,2.114828109741211,0.9749463796615601,0.49214038252830508,-0.6631643176078796,-0.030604997649788858,-0.023782050237059594,0.7744731903076172,-0.3724215030670166,-0.07614527642726898,0.6531984210014343,1.304032802581787,-0.49831414222717287,-0.2634122669696808,0.8564738631248474,0.4861066937446594,-0.9737880825996399,0.651606023311615,0.17144158482551576,-0.12529636919498444,0.77928626537323,-0.16032062470912934,0.3215380907058716,-0.02692096307873726,0.03560507670044899,-0.23539231717586518,0.08431113511323929,-0.2554777264595032,-0.7598077654838562,-0.30105921626091006,0.41359150409698489,0.15923769772052766,0.5341967344284058,0.06952203065156937,-0.9799729585647583,0.34430980682373049,-0.9808518886566162,0.17487643659114839,0.21279671788215638,-0.46919113397598269,0.6988807320594788,-1.1801508665084839,-0.23461304605007173,0.929250180721283,-0.8803707361221314,0.03745417296886444,0.26962506771087649,0.3571130633354187,-0.869634211063385,-0.6083256602287293,-0.48445308208465578,0.7422816157341003,-1.7566654682159424,0.12332091480493546,0.9097704887390137,-1.694478154182434,-0.19535356760025025,-0.18515950441360475,-0.6594449281692505,-0.25713685154914858,-0.7154578566551209,1.1898785829544068,0.3873714208602905,0.6790421605110169,0.5620530247688294,-0.08838173747062683,-0.6355912089347839,-0.2664159834384918,-0.11642962694168091,-0.19666121900081635,0.26755520701408389,0.211958110332489,0.03998876363039017,-0.010636726394295693,0.16437126696109773,-0.5066534280776978,-0.7014410495758057,-0.005991214420646429,-0.11420925706624985,-0.09554451704025269,0.7432459592819214,0.06296934187412262,-0.5065308213233948,0.5031933188438416,0.29361221194267275,0.11906442046165467,0.901382327079773,-0.8101168274879456,-0.06579131633043289,0.2438073456287384,-0.6070178151130676,-0.9061942100524902,-0.9453391432762146,0.7469663023948669,0.43504804372787478,0.4159913659095764,-0.21612019836902619,0.2757708430290222,0.9418984651565552,-0.7519012689590454,-0.19898435473442079,-0.24070431292057038,-0.8984419703483582,-0.27954164147377016,-0.10890975594520569,0.521518886089325,0.013807892799377442,-0.6784275770187378,0.5230686664581299,-1.1096371412277222,-1.0109939575195313,0.42835497856140139,0.7615808248519898,0.43494731187820437,0.1165415346622467,-1.7063860893249512,1.2734336853027344,-0.909236490726471,-0.42482253909111025,-0.5952706933021545,-0.17643311619758607,-0.8919427394866943,0.7194005846977234,-0.5279975533485413,-0.010870889760553837,0.14445003867149354,-0.9621871709823608,-0.053747933357954028,0.8369690775871277,-0.44627875089645388,-0.43179669976234438,0.6772534847259522,-0.5349128842353821,0.07522380352020264,0.6085848808288574,-0.1934371292591095,0.16796188056468965,0.02046026661992073,0.6415925621986389,0.7929748296737671,-0.08738149702548981,-0.29026421904563906,0.7239253520965576,0.5444522500038147,0.33826372027397158,-0.4102057218551636,-1.66461181640625,0.29270225763320925,-1.0206446647644044,0.7044084072113037,-0.3301650285720825,-0.41722238063812258,0.5931060910224915,1.6277357339859009,-0.6551068425178528,-0.33344337344169619,-0.6128742694854736,1.891507863998413,-0.48105040192604067,-0.42342516779899599,0.3521296977996826,1.2179609537124634,-0.17671844363212586,-0.25371816754341128,0.8033703565597534,0.05944819748401642,-0.03668626397848129,-0.3082859516143799,-1.4952667951583863,-0.3711807131767273,0.2122976928949356,0.24543386697769166,0.4827002286911011,0.4745749533176422,1.5676602125167847,-0.916032612323761,-0.31502848863601687,0.08597372472286225,0.3007812798023224,-0.032060276716947559,0.686724066734314,0.02295064926147461,0.5173551440238953,0.012298226356506348,-0.5221771001815796,-0.5864606499671936,0.03399265184998512,-0.10571537911891937,-0.12953484058380128,0.35693952441215517,0.21584533154964448,-0.7194598317146301,0.04818756878376007,0.17212408781051637,0.37378668785095217,0.42048341035842898,-0.8889314532279968,-0.013851326890289784,-0.5484944581985474,-0.7149050235748291,0.2843778133392334,0.7998797297477722,1.0361377000808716,0.12124580889940262,0.16080766916275025,-0.5684458613395691,0.1629037857055664,-0.6650724411010742,0.29856160283088686,-0.06072917580604553,0.056294508278369907,-0.34314683079719546,0.044180553406476977,0.9402551651000977,-0.8600748777389526,-0.3499690890312195,-0.4015894830226898,0.27841413021087649,0.2066464126110077,-0.07980351150035858,-1.2502477169036866,-1.3385251760482789,-1.1557410955429078,-0.18568263947963715,1.307944655418396,0.5977118611335754,0.38385114073753359,1.2129935026168824,-0.18278932571411134,-0.4319548010826111,-0.7693147659301758,-0.6774191856384277,1.1564818620681763,-0.2106810063123703,0.19982144236564637,0.2030782848596573,-0.03464195132255554,0.21336722373962403,-0.2652425765991211,0.15582002699375153,-0.5106891989707947,1.0325838327407838,-0.295460045337677,-0.3820623755455017,0.04296599328517914,0.07446008920669556,-0.864193320274353,-1.4315667152404786,0.4655483663082123,-0.8681614398956299,1.4430238008499146,-1.175099492073059,-0.021940037608146669,0.03330671787261963,0.045611362904310229,0.5827333927154541,-0.21659769117832185,-1.8329358100891114,-0.40449923276901247,-1.8826228380203248,0.2642078697681427,-0.33961737155914309,-0.22294792532920838,0.8569223284721375,-0.8203901052474976,-0.13313406705856324,-0.11467279493808747,-1.1110446453094483,0.3451889157295227,-0.7277067303657532,-0.16067510843276978,0.3177875280380249,0.6723399758338928,0.4121943712234497,0.003349021077156067,1.5086537599563599,-1.3386900424957276,0.1674243062734604,1.678274393081665,-0.10990933328866959,0.2820225954055786,-0.5799916386604309,0.5323200821876526,0.35341840982437136,0.30276942253112795,0.6883829236030579,0.20513148605823518,1.034481406211853,0.5791165828704834,0.28724920749664309,0.1171417310833931,-1.2999833822250367,-0.5983248949050903,0.6112842559814453,0.4672962427139282,1.1070668697357178,0.6335604786872864,-0.764037549495697,0.7440217733383179,0.23191428184509278,-1.3402633666992188,-0.028576137498021127,-0.3428604304790497,1.5127253532409669,0.40283143520355227,0.6049585342407227,1.4269682168960572,0.0995052382349968,0.0358043797314167,1.0179595947265626,-1.4503103494644166,-0.8407615423202515,0.4811052680015564,-0.1871241331100464,-1.1196556091308594,-0.6213499307632446,1.4532012939453126,0.1272648572921753,1.3555387258529664,-0.7510011792182922,0.14291900396347047,0.03841366246342659,1.1405456066131592,1.1447256803512574,-0.2527986168861389,-1.1440900564193726,-0.7115649580955505,-0.1357191503047943,0.050229694694280627,0.47651946544647219,0.3426389694213867,-0.17334623634815217,-0.014050344936549664,-0.757241427898407,-0.7435382604598999,-0.06455719470977783,0.7436861991882324,0.7020735740661621,-0.5045261383056641,0.925290584564209,0.3999740481376648,0.4871671497821808,0.7827081680297852,0.18801674246788026,0.5607798099517822,-0.28128814697265627,0.1043042540550232,0.5581590533256531,0.03874783217906952,0.5911460518836975,-0.2302074134349823,-0.6522441506385803,-0.5308108329772949,1.7661536931991578,0.03637061268091202,-0.8170889019966126,0.03472081199288368,-0.3492252230644226,1.9762367010116578,0.5978643298149109,0.8569905757904053,0.9165456295013428,-0.28050851821899416,-0.23004744946956635,1.714302659034729,-0.14789065718650819,0.5131257772445679,-0.22812946140766145,-0.36364224553108218,-0.4396587014198303,0.1066116914153099,1.0160950422286988,0.4011850655078888,0.42808282375335696,-0.6269046068191528,1.030971884727478,-0.9717261791229248,-0.7274571657180786,-1.5442112684249879,-0.41822582483291628,-0.6350298523902893,-0.3325057625770569,-0.02974797412753105,0.7048741579055786,-1.2077656984329224,0.06369665265083313,-0.24349245429039002,-0.21399779617786408,0.4384668171405792,0.22954221069812776,-0.04861300438642502,1.040533185005188,-0.02027927152812481,0.7332538366317749,0.6585010886192322,0.5474154353141785,-0.19468890130519868,-0.3744172155857086,0.0063020288944244389,0.10220884531736374,0.21643035113811494,0.2468767613172531,1.0341836214065552,-0.5703452229499817,0.39727047085762026,-0.6185906529426575,-0.13940276205539704,0.6980614066123962,1.921191930770874,1.0505030155181885,0.13570688664913178,0.9510402083396912,0.5784145593643189,-0.1080436185002327,-1.5119900703430176,-0.9762269258499146,0.5176350474357605,-0.41842353343963625,-0.27042141556739809,-0.7337654829025269,-0.240866020321846,1.338279128074646,-0.40345364809036257,0.8953518867492676,0.7378921508789063,-0.20806540548801423,0.18257923424243928,-1.7139208316802979,-0.5820503234863281,-0.5118387341499329,-0.5070270299911499,0.5551948547363281,-0.08724768459796906,0.24420540034770966,1.5361379384994507,-1.8007817268371583,-0.25635334849357607,1.2590476274490357,0.3522498607635498,-0.0669725239276886,-0.0695192888379097,-0.24944362044334413,0.23564513027668,-0.2587108910083771,-0.3972702920436859,0.27786263823509219,-0.8194628953933716,0.4102698564529419,1.0453641414642335,-1.7592058181762696,0.03978098928928375,0.3655833303928375,-0.8316190838813782,-0.5053243637084961,0.10207848995923996,-0.6488856077194214,-0.5891255736351013,0.29248175024986269,-0.04516696557402611,-0.4896700978279114,0.3679788112640381,-0.7637413144111633,0.7932659387588501,1.368423581123352,0.32788774371147158,-0.35739096999168398,-0.06545165926218033,-0.09223248064517975,-0.6868115663528442,0.9815183281898499,-1.1734832525253297,0.1252945363521576,0.025928646326065065,0.15496616065502168,-1.0003424882888795,-0.9035930633544922,-0.7490503191947937,-0.14473606646060944,-0.4127858281135559,0.32089072465896609,-0.12038931995630264,0.11268232762813568,-0.3330296277999878,-0.5229417681694031,0.06719434261322022,-1.1470825672149659,-0.7363893985748291,0.2814825177192688,-0.1416323035955429,-0.5681692957878113,0.8687657713890076,0.537643551826477,-0.9342995285987854,1.392447590827942,-1.5200307369232178,-0.0733879879117012,0.68117755651474,0.1040080189704895,-0.8257004022598267,0.5518607497215271,-0.918196976184845,0.5443340539932251,-0.6651024222373962,0.4340612590312958,1.4682362079620362,-0.681069552898407,-0.22947081923484803,0.404680460691452,0.27441978454589846,0.6145524382591248,0.43271124362945559,-1.1350853443145753,-0.8194453120231628,0.7194381356239319,0.186419278383255,-0.008654414676129818,0.6573425531387329,0.742343544960022,-0.6182723045349121,1.4975610971450806,-0.13229939341545106,-1.0294125080108643,-0.11801842600107193,0.04369179531931877,-0.14192327857017518,0.5269182324409485,-0.7645554542541504,0.09369046241044998,-0.5173108577728272,-1.7534559965133668,-0.9358508586883545,0.9240151047706604,-1.1073238849639893,-0.404092401266098,0.03584468737244606,-1.1086678504943848,-0.33768323063850405,-0.025111541152000428,-0.20483699440956117,0.7825048565864563,0.1685415506362915,-0.07987981289625168,0.04440075159072876,-1.1705588102340699,-0.5199663043022156,0.22397403419017793,-0.08772224932909012,-0.5888135433197022,0.01497795432806015,-1.3108781576156617,0.07768860459327698,0.020119676366448404,-0.6208603978157044,0.894655704498291,-1.1737229824066163,-0.14553646743297578,-0.0398951955139637,0.42054030299186709,-0.8580960631370544,-0.23066598176956178,-0.03212582319974899,-0.25331029295921328,0.2091263085603714,0.07412250339984894,-0.009881065227091313,-0.4173843264579773,0.26241597533226015,-0.2487020492553711,0.7810370922088623,-0.38169488310813906,0.2026902437210083,0.6739682555198669,-0.506127655506134,-0.3119361400604248,-0.31777897477149966,-0.6834985613822937,-0.1047399714589119,-0.34568652510643008,-0.24132882058620454,0.6510290503501892,-0.5919687747955322,0.6564427018165588,1.1061642169952393,-0.07170280814170838,-0.10787905752658844,-0.48575693368911745,-0.9198058843612671,0.211439311504364,0.3376847505569458,0.09415867924690247,0.20728027820587159,0.20005080103874207,-0.3881441056728363,0.8459604978561401,0.3583677411079407,0.08567320555448532,-0.6451903581619263,1.4368844032287598,0.40155690908432009,-0.7263918519020081,0.04790915176272392,-0.3363485038280487,-1.154481053352356,-0.3105068802833557,0.12804821133613587,-0.3701483905315399,-0.24269704520702363,0.06836377829313278,-0.19594228267669679,0.29211151599884035,0.09635484218597412,0.07362036406993866,0.2943693995475769,-0.5950853824615479,-0.3136959373950958,-0.4094395935535431,0.43341580033302309,-0.49869146943092348,0.013905669562518597,0.8370270729064941,-0.5151001811027527,0.7617772817611694,-1.0024503469467164,-0.3293135166168213,-0.13567520678043366,-0.5671080946922302,0.9527826905250549,0.03325409069657326,0.21340680122375489,0.13512428104877473,0.22806823253631593,0.6583641171455383,0.24815042316913606,-0.22897186875343324,-0.9928395748138428,0.5711652040481567,-0.6379559636116028,0.23772819340229035,-0.7275550961494446,0.7832236886024475,-0.4000508487224579,1.1266131401062012,-0.6612542867660523,-0.7238435745239258,-0.14834091067314149,0.056274767965078357,-0.027748821303248407,0.2743931710720062,-0.0871773511171341,1.5585588216781617,0.49678584933280947,0.30394211411476138,0.024829646572470666,0.3899891674518585,-1.3892483711242676,-0.08342215418815613,0.41019976139068606,-0.15550605952739716,0.9042990207672119,0.14042498171329499,0.15005545318126679,-1.0265452861785889,0.8624725937843323,0.18795464932918549,0.730523943901062,0.2716689705848694,0.1972627490758896,-0.9287676215171814,1.204556941986084,-0.6901389360427856,0.3750532567501068,0.7481404542922974,0.7948082089424133,0.9969325661659241,0.0843665599822998,-1.4819214344024659,-1.6069823503494263,0.2712429463863373,-0.16739827394485475,0.5475138425827026,-0.6227696537971497,-0.06627272069454193,0.3071047067642212,1.192015528678894,-0.14582426846027375,-0.09784914553165436,0.29686933755874636,-0.6706551909446716,0.6442436575889587,-0.7486928105354309,0.08136288076639176,-0.1692531257867813,-0.3236694931983948,-0.12739095091819764,0.8746819496154785,-0.13987837731838227,0.16179612278938294,1.275339961051941,-0.17814044654369355,-0.43119391798973086,-0.585259735584259,0.39591410756111147,-0.41276904940605166,-0.40357378125190737,-0.45449793338775637,-0.17653967440128327,-0.3123016655445099,-0.008185869082808495,-0.4770819842815399,0.2515259087085724,0.19004499912261964,0.8960662484169006,1.590671181678772,-0.04038374498486519,0.5653311014175415,0.37183746695518496,-0.2511875331401825,-0.6619521379470825,0.83243328332901,0.5880919098854065,-1.094443917274475,0.12297338247299195,-0.06873290985822678,-0.6628632545471191,-0.4102195203304291,-0.3270271122455597,0.8436033129692078,-0.35079503059387209,-0.8013502955436707,-0.3134857714176178,-1.1268988847732545,0.08825403451919556,-0.8258777260780335,0.37063080072402956,0.7174376249313355,0.0063536399975419048,0.03676701337099075,0.18632160127162934,0.36935749650001528,-0.7525118589401245,0.08953297138214112,0.27156513929367068,0.3862055540084839,-0.393411248922348,-1.2819674015045167,-0.372327983379364,-0.058916620910167697,-0.4639723300933838,-0.39846399426460268,0.6224967837333679,0.36317723989486697,0.428516149520874,0.7009623050689697,-0.4852844476699829,0.18086223304271699,-0.8072105050086975,-0.31699711084365847,-0.6938613057136536,-0.32825344800949099,0.1134071797132492,-0.2509169578552246,-1.0747911930084229,1.008713960647583,-0.4213854670524597,0.6042739152908325,-0.3907519280910492,-0.46538612246513369,-0.9728289246559143,1.1369260549545289,-0.04287514463067055,-0.3629350960254669,-0.24520620703697205,-0.46448755264282229,0.5607726573944092,-0.24581006169319154,-0.003303783480077982,1.2981033325195313,0.3926173448562622,0.6245933771133423,0.6903892755508423,-0.1918507218360901,-0.40508532524108889,0.2661326229572296,-0.6561185717582703,0.5990282297134399,0.8227075338363648,0.7819105982780457,0.29808738827705386,1.0541385412216187,0.9081091284751892,-0.14467494189739228,0.27809834480285647,-0.024542327970266343,-0.8056910634040833,-0.2510296404361725,-0.780129611492157,-0.18039001524448396,0.9847303628921509,-0.2769065797328949,-1.170926809310913,-0.1374729424715042,0.14475145936012269,0.49342331290245058,-0.7672197818756104,-0.1522061824798584,-0.3570885956287384,-1.0248982906341553,-0.09293850511312485,0.8081936240196228,-0.5659850239753723,-0.137150838971138,1.1748828887939454,0.43069988489151,-0.12422532588243485,-0.08877167850732804,-0.3792988955974579,-0.4396529495716095,0.13409429788589478,-0.9513795971870422,1.345676302909851,-0.34696799516677859,0.39905276894569399,0.8931296467781067,0.18054285645484925,-0.9902315735816956,0.03994981199502945,-1.3051917552947999,0.8320284485816956,-0.8656749129295349,1.9123975038528443,1.0666948556900025,1.2687758207321168,0.8548650741577148,-0.13031533360481263,0.11049394309520722,0.2025223821401596,0.15030360221862794,-0.2931169271469116,-0.40155601501464846,-0.578091561794281,0.846925675868988,0.5870041847229004,0.8707037568092346,-0.2509240508079529,0.15172405540943147,-0.05028430372476578,0.37814438343048098,-0.15402129292488099,0.10384145379066467,0.4896097779273987,0.5075147747993469,-0.7395943999290466,-0.21624073386192323,-0.07509034872055054,0.3130596876144409,-0.570338249206543,1.0370585918426514,0.3534884452819824,0.44978275895118716,1.3169245719909669,0.07099703699350357,-0.4242742359638214,-1.3024773597717286,-1.5785822868347169,-0.9929884672164917,0.01737227477133274,0.5440393090248108,-1.0033570528030396,-0.34867626428604128,-0.7648066282272339,-0.9100344181060791,-0.5214993953704834,-0.938435971736908,-0.019843105226755143,-0.32411783933639529,1.7338835000991822,-0.7034860253334045,-0.011425201781094075,-0.7943515777587891,0.5515719652175903,-1.1291269063949586,0.6920313835144043,0.6263027191162109,-0.8386834859848023,-0.28982919454574587,0.5511908531188965,0.8059008717536926,0.0021955370903015138,0.8000239729881287,0.1102239191532135,-0.6863639950752258,-0.5040912628173828,-0.46271470189094546,0.9559325575828552,0.3166165351867676,-0.1711558699607849,0.762269914150238]},"biases":[-0.9349626302719116,-0.23517565429210664,-0.41194388270378115,-0.13836632668972016,0.07559356838464737,0.360705703496933,-0.12778103351593018,-0.16594523191452027,-0.9493213295936585,-0.049739278852939609,-1.3733336925506592,0.22415469586849214,1.3123949766159058,-0.5664342045783997,0.029976636171340944,-1.0158129930496216,0.4149591028690338,0.6089284420013428,-0.24764177203178407,-0.142815500497818,-0.5557618141174316,-0.9397550225257874,0.7653918266296387,0.6639503836631775,-0.06433117389678955,1.0537282228469849,0.3450794517993927,-1.0339300632476807,-0.3521815538406372,-0.5442591905593872,-0.8448252081871033,-0.7644420266151428,-0.44772279262542727,-1.796931266784668,-0.5310472846031189,-0.6604869961738586,1.3715568780899048,-0.44950878620147707,0.0384538434445858,-0.21075963973999024,0.9049303531646729,1.0658154487609864,-0.25596100091934206,0.2949018180370331]},{"neurons":[0.9826719760894775,0.9992583394050598,0.9999873638153076,0.9999287128448486,0.967085599899292,-0.9993525147438049,0.8827298879623413,-0.9995402097702026,0.997973620891571,0.9940752983093262,-0.9997588992118836,-0.997512936592102,-0.9999873042106628,0.20037473738193513,-0.9999999403953552,-0.9935763478279114,0.9995183348655701,0.9999963641166687,0.9999997019767761,-0.9484049081802368,0.4331200420856476,-0.9999828934669495],"weights":{"rows":22,"cols":44,"data":[0.30486178398132326,0.41223976016044619,-0.08608643710613251,0.37614232301712038,-0.8986837267875671,0.7286915183067322,0.5244585275650024,-0.4370911419391632,0.7027403712272644,-0.43154019117355349,-0.8092625141143799,0.8790004849433899,0.476077675819397,-1.0854448080062867,0.2749527096748352,-0.2157716602087021,-0.6086607575416565,-0.8050606846809387,-0.44245216250419619,-0.9119399785995483,-0.8600136637687683,0.15554597973823548,-0.2473590224981308,0.07456021755933762,-0.5496751070022583,0.47241172194480898,1.0776931047439576,-0.624872624874115,0.2362840473651886,0.1645732820034027,-1.9399536848068238,-1.4145599603652955,-1.3043594360351563,0.30316245555877688,-1.2796010971069337,0.36194556951522829,0.032040320336818698,-0.5856267213821411,-0.396986722946167,-0.17104008793830872,-0.48644840717315676,0.005071297287940979,-0.42932453751564028,0.027038902044296266,0.6926804780960083,0.03771127760410309,0.44642072916030886,0.40322422981262209,-0.05104183405637741,-0.14731989800930024,1.0410336256027222,-0.7679761648178101,-1.389705777168274,0.429029256105423,1.2901314496994019,-1.0011980533599854,0.01451047696173191,0.48380276560783389,-0.08833225071430206,-0.6913644671440125,-0.18255218863487245,0.9537228941917419,-0.20820169150829316,-0.8520975112915039,-0.2550051510334015,1.180209755897522,1.2349640130996705,-0.16782160103321076,-0.5782832503318787,0.23766249418258668,0.3087962865829468,2.3661041259765627,1.7273038625717164,1.6202712059020997,-0.4161272943019867,-1.7168974876403809,-0.9729753136634827,-1.5063703060150147,-0.6983214616775513,-1.2071906328201295,0.48012983798980715,-0.09077920764684677,-0.16448812186717988,-0.7464656233787537,0.9415910840034485,0.22334551811218263,-0.337566614151001,1.16683030128479,0.6451988816261292,0.011722908355295658,0.942317545413971,-1.5863076448440552,1.2305684089660645,-0.0033775256015360357,0.6248268485069275,-0.8419338464736939,-0.5129970908164978,-0.17448538541793824,-0.7067041993141174,0.09246733784675598,-0.36979013681411745,0.08258793503046036,0.5031036138534546,0.15903224050998689,-1.0592565536499024,1.1482735872268677,-0.6383490562438965,0.7171996831893921,-0.10641612112522125,0.3763059377670288,-0.6809027194976807,-0.05635776370763779,0.24030478298664094,0.7898035645484924,-0.03516027703881264,0.7344275116920471,-0.761472761631012,-0.3960050940513611,0.17506344616413117,-0.3279394507408142,0.15506228804588319,1.4417437314987183,0.5050389766693115,-0.342743456363678,0.918278694152832,-0.14501866698265077,0.5555180311203003,-0.3485400974750519,0.7250146865844727,-0.288250207901001,-0.3333970904350281,1.4790880680084229,0.6318027377128601,0.8346927165985107,-0.33738481998443606,0.7049776911735535,0.23196081817150117,-0.8072717189788818,0.07831297069787979,-0.6346300840377808,0.026983516290783883,-1.319110631942749,0.08040732890367508,-0.8558576107025147,-0.5753982663154602,-0.20585530996322633,0.6084627509117127,0.6841508150100708,-0.6246662735939026,0.6262624859809876,-0.008696168661117554,0.05807487294077873,-0.3360081613063812,-0.16431190073490144,1.120018720626831,0.4578673839569092,0.25926637649536135,0.0754619836807251,-0.3056934177875519,-0.33125895261764529,-0.5097779035568237,0.059681184589862826,-0.362983763217926,1.4702438116073609,-0.8093226552009583,-0.5766960978507996,0.3547559082508087,-0.6366971731185913,0.062320005148649219,-1.0967539548873902,0.4182984232902527,-0.6841138601303101,0.5469706654548645,0.7747470140457153,0.17863279581069947,0.08774316310882569,-0.10323235392570496,-0.548462986946106,0.4241490364074707,0.46394026279449465,-0.1626686304807663,-1.3180674314498902,0.31364625692367556,-0.8881595730781555,0.30880963802337649,-0.358029305934906,-0.15309332311153413,0.4969530701637268,0.9140653014183044,-0.07065010070800781,-0.34382227063179018,-1.1083985567092896,-0.3898014724254608,0.25484612584114077,0.8184519410133362,0.1576407104730606,0.05161251872777939,-0.5133306980133057,0.5852271318435669,-0.20217309892177583,0.09997863322496414,-0.19493284821510316,-0.0055397069081664089,0.6592031717300415,-0.3486303985118866,-0.3005113899707794,-0.7885954976081848,-0.3073863387107849,0.5717760920524597,-0.7405390739440918,-0.3739241659641266,0.06882862746715546,-0.9485340118408203,-0.8030484318733215,-0.7405648231506348,0.06837418675422669,-0.6469795107841492,-0.2117210328578949,0.2545635402202606,1.013954997062683,-0.28965380787849429,0.35528334975242617,0.3628162145614624,-1.3613150119781495,-0.9587610960006714,-0.4365333914756775,-0.8998326659202576,0.07345494627952576,0.23466706275939942,0.9517945647239685,0.9075531959533691,1.059630036354065,-0.5144941806793213,0.4337506592273712,-0.24408304691314698,-0.6833335757255554,0.12419898808002472,1.1291859149932862,0.36617547273635867,-0.3959498107433319,-1.3159751892089844,-0.8629174828529358,0.4912353754043579,-0.20829147100448609,0.6110740900039673,0.6640898585319519,-0.4470624625682831,0.6178649663925171,-0.566060483455658,0.05467422306537628,0.9520626068115234,0.0843152403831482,0.26316285133361819,0.3366788625717163,-0.7733387351036072,1.4071935415267945,-0.24952413141727448,-0.6921310424804688,0.7443211674690247,0.1750076562166214,0.036672379821538928,0.04822448268532753,0.45699745416641238,-0.787097692489624,1.7503249645233155,0.2958660423755646,-0.8499942421913147,-0.2824893891811371,-0.8957784175872803,-0.4273535907268524,-1.0346126556396485,-0.7206395268440247,-0.5524837970733643,-0.6512407660484314,-0.9911040663719177,-1.3281400203704835,0.08057130873203278,0.345186710357666,0.6276751756668091,-0.495190292596817,-1.1461145877838135,-0.42571258544921877,-0.49998968839645388,-0.007790433708578348,0.535778820514679,-0.21567513048648835,-1.5920789241790772,0.7424971461296082,0.1058683842420578,-0.7133944034576416,-0.07793943583965302,-0.7670806050300598,-0.14504505693912507,0.05260874330997467,-0.8819183707237244,0.17622010409832,0.9634246826171875,0.48869115114212038,-0.049165621399879459,0.02675682306289673,-0.899499237537384,1.3706436157226563,0.06495615839958191,0.4456035792827606,0.6532108783721924,0.04605299234390259,-0.7087488174438477,-0.5156357288360596,1.441535472869873,-1.0225223302841187,-0.10884623974561691,0.6892282962799072,-0.5902613401412964,0.4729836583137512,-0.5022976398468018,-0.23984239995479585,-0.3852008283138275,0.5905262231826782,1.0001044273376465,-0.24929283559322358,-0.18735043704509736,-0.5177822709083557,-0.3653123080730438,0.7024521827697754,-0.22349217534065247,-1.1210647821426392,0.15484127402305604,-0.26967906951904299,-0.4303807318210602,-0.6374884843826294,1.4063570499420167,0.02329823561012745,-0.3128405213356018,0.22574427723884583,-0.023694586008787156,0.8079985976219177,0.06271276623010636,0.01576175168156624,-0.301628053188324,0.3759252429008484,-0.6598509550094605,-0.3018365800380707,-0.019948715344071389,-0.21059349179267884,-0.9010685086250305,-0.48707321286201479,1.3451167345046998,0.7836726307868958,0.15612654387950898,-1.4593664407730103,0.13066479563713075,0.5786287188529968,0.11378724128007889,0.7866008281707764,-0.023213747888803483,-0.5537795424461365,-0.6633037328720093,-0.31155306100845339,-0.5583611726760864,-1.0723540782928467,0.49918025732040408,0.878903865814209,-0.13543590903282166,1.8449530601501465,0.5683071613311768,-0.16801176965236665,-0.8523693680763245,1.4010117053985596,-0.317767471075058,-1.6170746088027955,-0.6872721910476685,-0.22843435406684876,1.3594045639038087,-0.6780160665512085,-0.5316678881645203,0.748174786567688,0.7752646803855896,-0.960218608379364,0.5005292892456055,-0.3918173015117645,-0.5841280221939087,-0.559259831905365,-0.5379024147987366,-0.6263154149055481,0.0337250642478466,0.7461644411087036,-0.222396582365036,-1.5356731414794922,-0.2955072820186615,-0.1423802673816681,-0.8907409906387329,2.5772182941436769,0.5374188423156738,-0.48818403482437136,-1.0092462301254273,0.7153457999229431,0.5649062395095825,0.030110135674476625,0.3353658616542816,0.7173334360122681,0.14425674080848695,0.44660449028015139,-0.43300190567970278,1.0088562965393067,0.08471101522445679,-2.1862540245056154,0.4425712525844574,-0.33429428935050967,0.3750098943710327,-0.5322291851043701,-0.034236058592796329,0.45225629210472109,1.296704649925232,-0.8646811246871948,0.7115646600723267,-0.8092017769813538,-0.6176478862762451,0.07334525883197785,-0.4576874375343323,0.050841622054576877,0.06610998511314392,0.715660810470581,-0.29429560899734499,-0.7942253351211548,-0.2702848017215729,0.14069637656211854,0.9668877124786377,-0.27011311054229739,-0.43111950159072878,0.9672484993934631,0.9396470785140991,-0.05898687243461609,0.947655439376831,1.0228190422058106,0.005934273358434439,0.6198126077651978,-0.1271418184041977,0.4319801330566406,0.1055181547999382,-0.47238728404045107,-1.1125264167785645,0.700926661491394,0.3990563154220581,-0.9037551879882813,0.8762657046318054,0.02974000759422779,0.7915821671485901,0.051214221864938739,0.3282336890697479,-0.7140998244285584,1.341354250907898,-0.12160465121269226,0.1659068465232849,0.08993996679782868,-0.3899034559726715,-1.823891043663025,-0.20244960486888886,-1.0870754718780518,0.16358542442321778,0.22203905880451203,-0.4056256115436554,-0.29720547795295718,-0.09767130017280579,-0.5593046545982361,-0.09774073958396912,0.38233786821365359,0.8145221471786499,0.7905418276786804,-0.08137670159339905,0.4139361083507538,-0.23243162035942079,0.1830865740776062,0.8959195017814636,0.6913048028945923,-0.8271299004554749,-0.1917000561952591,-0.44385582208633425,-0.3973233699798584,0.49101710319519045,-0.26814624667167666,-0.5725260972976685,0.33405423164367678,-0.41764476895332339,-1.590208649635315,-0.9006187319755554,-0.2288084179162979,-0.87477707862854,-0.05151815339922905,-0.3403439521789551,0.009969222359359265,-0.5201753377914429,-0.13530415296554566,0.3160383403301239,0.3402634561061859,0.3454749584197998,-1.0493921041488648,1.0511484146118165,-0.5617343187332153,0.4518735408782959,-0.2624817490577698,0.1549871563911438,0.4822542071342468,-0.5884430408477783,-1.36416757106781,-0.434796005487442,0.15285322070121766,0.5427902340888977,-0.8607782125473023,0.34813523292541506,0.08761049807071686,0.904497504234314,0.02716154232621193,-0.4006272256374359,0.16398634016513825,0.6457633376121521,1.1205527782440186,1.6486616134643555,-0.5890719294548035,-0.6331189870834351,-0.8353205323219299,0.05347907170653343,0.48111197352409365,0.8223668336868286,0.26511454582214358,0.3587290346622467,-1.3539352416992188,-0.24403849244117738,1.0182037353515626,0.4522348642349243,-0.13657522201538087,1.2795889377593995,0.8552137613296509,-0.7958618402481079,-0.032778918743133548,0.5493422150611877,-0.004627966322004795,0.5182512998580933,0.41400113701820376,0.5186988711357117,0.21501123905181886,-0.6309828758239746,0.11041222512722016,-0.9175236821174622,0.5309661626815796,0.013367382809519768,-1.2836315631866456,-1.2970185279846192,-0.04032978042960167,-0.4405992031097412,0.05488080158829689,-0.6451554298400879,-0.41578927636146548,0.02157977595925331,0.7339968681335449,0.3237156867980957,0.4116698205471039,-0.056702643632888797,-0.791808009147644,1.3731348514556885,-1.076490044593811,-0.5140668153762817,-1.3080952167510987,0.38353636860847475,-0.04021482169628143,-0.2428102195262909,0.4847537577152252,-0.1408901810646057,-1.067544937133789,-0.9365978240966797,0.049321264028549197,0.1619540899991989,0.21582572162151338,0.053661178797483447,1.261475920677185,0.6402239799499512,-0.27606284618377688,-0.048137515783309939,-0.09635032713413239,-0.3352070450782776,-0.480840265750885,-0.10428549349308014,0.2480769157409668,-0.2347673624753952,-0.3316934108734131,-0.30996426939964297,-0.8556268215179443,0.5203637480735779,-0.2786218225955963,-0.016493920236825944,-0.35484111309051516,1.0422217845916749,0.3090842068195343,-0.694458544254303,0.13897645473480225,0.6827269792556763,-0.9417431354522705,0.4466520845890045,0.061424609273672107,0.6698553562164307,-0.19102370738983155,0.4531579911708832,-0.521496593952179,0.6868101954460144,-0.7195481061935425,-0.368887335062027,-0.14444680511951447,-0.07249007374048233,-0.5109798312187195,-0.5976323485374451,-0.23986272513866425,-1.3990979194641114,-0.6369226574897766,0.11359084397554398,0.06436526775360108,-0.1935659945011139,0.06516840308904648,0.3132728934288025,0.47951915860176089,-0.3015502691268921,-0.42895880341529848,0.37338215112686159,-0.1310616135597229,0.1769227832555771,-1.1875264644622803,0.44305187463760378,0.20908765494823457,0.04778965935111046,-0.0770760253071785,0.09055179357528687,1.4304503202438355,-0.9138653874397278,0.33737418055534365,-0.397494375705719,-0.3776821196079254,0.5711386203765869,0.5181547403335571,-0.9841170310974121,0.02527672052383423,-0.3658614754676819,-0.8708186745643616,0.6962722539901733,-0.7581446170806885,-0.1707857847213745,-0.2694544196128845,0.6254207491874695,0.5285458564758301,1.111849308013916,0.20452828705310822,0.5763840079307556,-0.43312764167785647,-0.1012670248746872,0.7424467206001282,-0.1308046132326126,-0.04849141836166382,-0.02487187273800373,-0.3890632092952728,-0.05999385565519333,0.05497673153877258,-0.46998655796051028,-1.4638936519622803,0.4684630334377289,0.7416433095932007,-0.2991305887699127,-0.11534145474433899,-1.1304326057434083,0.8068626523017883,0.18347133696079255,0.23195300996303559,-0.8855040073394775,0.6050209999084473,0.27739688754081728,-0.29179999232292178,-0.33898240327835085,0.10182280838489533,0.07780546694993973,-0.06703027337789536,0.13444916903972627,-0.9855881929397583,0.5770723223686218,-0.05344032123684883,-0.49314266443252566,0.4991109371185303,-0.7162938117980957,0.08908213675022125,-0.12055498361587525,-2.0536017417907717,-1.349906325340271,0.4526382386684418,0.024214670062065126,-0.03616257384419441,-0.5503643751144409,0.23819051682949067,0.11267723143100739,0.5731838941574097,0.6575992703437805,0.5496958494186401,-0.12658250331878663,0.10838719457387924,0.6125339269638062,0.22573481500148774,-0.10969357192516327,-0.5221121311187744,0.062331557273864749,-0.7135770320892334,0.3309505581855774,-0.13510741293430329,1.2877978086471558,-0.8054253458976746,1.2052761316299439,-0.27405425906181338,-0.33313918113708498,0.07334791123867035,-0.43043315410614016,0.2891131043434143,-0.08305718749761582,-0.6149866580963135,-0.7536089420318604,0.019487179815769197,-0.6844728589057922,-0.5968262553215027,-0.04927220568060875,-0.4073345959186554,-0.7872204184532166,0.06678929179906845,0.9471911787986755,-0.17519128322601319,0.30673933029174807,0.6455996632575989,0.5261834859848023,0.3633345067501068,-0.472663015127182,-0.22800962626934052,-0.3491165041923523,-0.9447011351585388,0.333102822303772,-0.502253532409668,0.3541994094848633,-1.6908047199249268,0.007241400890052319,0.08129064738750458,0.8568209409713745,0.28090253472328188,-0.1864214837551117,-0.6457818746566773,-0.40477168560028078,0.5635433197021484,0.6303419470787048,0.4936025142669678,0.05455484613776207,-0.3993319272994995,0.4259805381298065,-0.42143604159355166,0.24977439641952516,0.40887078642845156,0.1690816581249237,-0.8400822877883911,-1.169685959815979,0.046188727021217349,-0.23645846545696259,-1.1467328071594239,0.3669368624687195,-0.7917220592498779,0.6178204417228699,0.6347297430038452,-0.4453624188899994,-0.42169085144996645,-0.22752636671066285,-1.0613137483596802,-0.9523571729660034,1.1039656400680543,-0.3831835985183716,-0.2705647349357605,1.4503880739212037,0.49975213408470156,-0.11853784322738648,0.6542432308197022,-0.28777530789375307,-0.25884124636650088,-0.2626962959766388,-0.0350097231566906,-0.47681984305381777,-0.8397020101547241,-0.20829644799232484,-0.14863243699073792,0.8145694732666016,-1.1546568870544434,0.5503734946250916,0.2656627297401428,0.8081379532814026,0.027658438310027124,-0.6112906336784363,-0.2081761658191681,-0.5032392144203186,1.1063735485076905,-0.4069654643535614,0.5223270058631897,1.3749418258666993,0.17621058225631715,-0.24974898993968965,1.1958472728729249,-0.6952880024909973,-0.5718392729759216,-0.4476183354854584,0.06252427399158478,0.9633572101593018,-0.5769667029380798,-0.2764078378677368,0.26025620102882388,0.06483626365661621,0.7450670003890991,-1.6909469366073609,0.15145038068294526,-0.8795694708824158,-0.21188174188137055,0.7052029371261597,-0.14683343470096589,-0.5106987357139587,0.022921806201338769,0.4103477895259857,0.8639301061630249,1.1387892961502076,-0.7382813692092896,0.12567901611328126,0.0441032350063324,-0.5208168625831604,-0.8325874209403992,1.0099842548370362,1.8804783821105958,0.6228381395339966,-1.2863649129867554,-0.9045916199684143,0.06439567357301712,-0.17614595592021943,0.5204281806945801,0.22856467962265016,0.26460421085357668,0.2909385859966278,-0.5117743611335754,-0.8196459412574768,0.33514323830604555,0.4352014660835266,0.50400710105896,-0.6220301985740662,-0.9604928493499756,-0.31562718749046328,0.7579355239868164,0.17340269684791566,-0.4943019151687622,-0.5490071177482605,-0.06879504770040512,0.9909430742263794,0.40398702025413515,0.3035221993923187,-0.6043300628662109,0.06840897351503372,0.2132054716348648,-0.7381194233894348,-0.5479670763015747,-0.8187562823295593,0.38624629378318789,-1.2894459962844849,-0.8568150997161865,0.026137972250580789,0.013176384381949902,0.4031122922897339,0.8828549385070801,0.08419670164585114,-0.4605370759963989,-0.1057090312242508,1.3953561782836915,0.38172343373298647,2.3240232467651369,-1.4548879861831666,0.4504017233848572,-0.3534756302833557,-0.04555832967162132,0.41791239380836489,0.6081608533859253,0.19383306801319123,0.38578733801841738,0.23284026980400086,0.301035076379776,-1.0789244174957276,-0.20251744985580445,-0.672538161277771,0.7915381789207459,0.0027961586602032186,-0.28594133257865908,0.5086153745651245,-1.5453420877456666,0.428668737411499,1.665929913520813,0.011815369129180909,0.1767088919878006,0.7607859373092651,0.5480501055717468,-0.4090586304664612,-0.28640806674957278,-0.1424655020236969,0.5647493600845337,0.5931375026702881,-0.3803320825099945,-0.3019486665725708,-0.3816402554512024,-0.6307145953178406,1.4311025142669678,-0.396462082862854,0.4658357501029968,-0.033442433923482898,1.0561888217926026,0.17316927015781403,-1.1010644435882569,0.8162791728973389,-0.7871209979057312,-0.42438560724258425,0.07362227886915207,0.22370819747447968,-0.013416526839137078,-0.8403491377830505,-0.8834890127182007,-0.4937691390514374,0.002751663327217102,0.0034472644329071047,-0.4760895073413849,0.5493125915527344,0.30588775873184206,-0.3578375577926636,0.18743908405303956,-0.38630756735801699,1.041308045387268,-0.4082331955432892,-0.04999711364507675,0.24859434366226197,0.14789685606956483,-1.0607175827026368,-0.03969065845012665,0.6466167569160461,0.1437540501356125,-0.4727499186992645,-0.07400356978178024,0.4164789319038391,0.25810256600379946,1.5777745246887208,0.5549337863922119,-1.0755006074905396,0.3172421157360077,1.1758919954299927,0.8782293796539307,1.2475301027297974,0.7864996790885925,-0.0924159586429596,-0.5777280330657959,0.7869420051574707,0.689029335975647,-0.08646606653928757,0.3739875555038452,0.02776011824607849,0.5667216777801514,-0.32299065589904787,-0.31414419412612917,0.6073797941207886,2.052792549133301,-0.18914681673049928,-0.03558104485273361,0.25263097882270815,0.2080555409193039,0.1435396820306778,0.29783740639686587]},"biases":[0.49476009607315066,-1.1334666013717652,-0.4995076060295105,-0.01614612713456154,0.43738555908203127,-0.5992209315299988,-0.1201091855764389,0.44676700234413149,0.3020256459712982,0.8871001601219177,0.3556334376335144,0.04715155065059662,-0.9030964970588684,0.5768427848815918,-0.8745526075363159,1.3091148138046265,-0.6353371739387512,-0.5049044489860535,1.265338659286499,-0.14786095917224885,-0.5090239644050598,-0.16837000846862794]},{"neurons":[0.15883541107177735,-0.9998380541801453,0.990028977394104,-0.8618722558021545,-0.9298669695854187,-0.9911084175109863,0.9995614290237427,0.7409612536430359,-0.9985290169715881,0.9837862849235535,0.9653491973876953],"weights":{"rows":11,"cols":22,"data":[-0.359740287065506,0.7943905591964722,1.2341337203979493,0.5656891465187073,1.0591225624084473,-0.17923370003700257,-0.04234708845615387,1.6835565567016602,0.16726556420326234,0.37711042165756228,-0.5523950457572937,0.9316814541816711,-0.024171680212020875,-0.01750089041888714,0.5829772353172302,0.7497325539588928,0.33852386474609377,-1.195832371711731,-0.4149061441421509,-0.5340349674224854,-0.21088925004005433,0.03239266946911812,-1.464119553565979,-0.02688484638929367,0.47620487213134768,-0.03147020936012268,0.05770351365208626,-0.2437397837638855,0.007636558264493942,0.48391321301460268,-0.43960651755332949,0.5550282001495361,-0.20363938808441163,1.1917469501495362,0.7308926582336426,0.04267568141222,-0.3615852892398834,0.6547843813896179,-1.1830110549926758,0.20415379106998444,-0.030095107853412629,-0.4268011152744293,-0.24855487048625947,0.5648726224899292,0.3679717481136322,0.9047557711601257,-0.9129005074501038,0.6477459669113159,0.7114295959472656,-0.6527926325798035,0.7701948881149292,-0.8359089493751526,-0.3986700773239136,0.4385559558868408,0.31324735283851626,-0.2538870871067047,-0.5424975752830505,-0.19720898568630219,0.1859598606824875,0.004963369574397802,-1.2028101682662964,0.04054347798228264,0.6718287467956543,0.7454800605773926,0.2545115351676941,0.016689050942659379,-0.41980844736099245,-0.26025867462158205,-0.8997040390968323,0.44511064887046816,0.5067055821418762,-0.2596071660518646,0.7031700611114502,-0.09789738059043884,0.13870100677013398,-0.22489504516124726,0.1440081000328064,0.12375526130199433,0.41068151593208315,0.014248617924749852,-0.5242365598678589,-0.40636807680130007,-0.4273579716682434,-0.7081286907196045,0.03887467086315155,0.08935023844242096,0.15926915407180787,0.2078203409910202,0.9718265533447266,0.6384823322296143,-0.38966867327690127,0.8580718636512756,0.2248573750257492,0.40109533071517947,-0.6264930367469788,-0.07153234630823136,-0.824363112449646,-0.25045204162597659,-0.18915465474128724,0.02967170439660549,0.3728015124797821,-0.9044731259346008,-0.8620580434799194,0.5744819641113281,-0.5479178428649902,-0.15183492004871369,0.2890883982181549,1.6853258609771729,0.605901300907135,0.1321103572845459,-0.40658068656921389,-0.21689362823963166,-0.2995085120201111,-0.06777717918157578,0.18205681443214417,0.5286630988121033,-0.18854089081287385,0.09640952944755554,-0.80733722448349,-0.7228913307189941,-0.04398137703537941,0.6193627715110779,-0.48957765102386477,0.1451626420021057,0.42907702922821047,1.0298365354537964,0.2245030701160431,0.2984197437763214,0.18583104014396668,-0.7628662586212158,0.6489652395248413,-0.9787553548812866,-1.0300254821777344,-0.49719125032424929,1.2525423765182496,0.01485434826463461,0.05220770090818405,0.743356466293335,0.36563313007354739,0.9502416849136353,0.15662416815757752,0.7926187515258789,-0.9707586765289307,-0.6318563222885132,-0.0863049328327179,-1.0046511888504029,-0.03390343487262726,-0.5602765679359436,-0.6934396624565125,0.34416690468788149,0.40332096815109255,-0.3907281458377838,0.7527295351028442,-0.39606350660324099,-0.5279703140258789,-0.7762550711631775,-0.10057802498340607,0.5067586302757263,0.47041112184524538,0.08609309047460556,-0.41402730345726015,-0.442615270614624,-0.16626282036304475,-0.47076258063316347,0.08257591724395752,0.5796603560447693,-0.6674566268920898,-0.6767715215682983,-1.1177912950515748,0.10434446483850479,0.14985857903957368,0.36508893966674807,0.6800928115844727,-0.6068501472473145,0.8383647799491882,0.3747990131378174,-0.28838399052619936,1.6524449586868287,-0.856565535068512,0.19136351346969605,-0.3231533169746399,-1.0220258235931397,-0.016265787184238435,0.23316675424575807,-2.5025994777679445,-0.16885097324848176,0.786139726638794,-0.23425722122192384,0.28484728932380679,-0.45805251598358157,-0.3386761248111725,0.6334105730056763,0.8205531239509583,0.006981823593378067,-2.017531633377075,0.990641176700592,0.45354047417640688,-0.46090608835220339,-0.24900475144386292,0.63858962059021,0.2989482879638672,0.6486443281173706,0.005440105218440294,-1.0077153444290162,-0.3698004484176636,-0.906806230545044,-0.8749572038650513,0.34249433875083926,0.30146247148513796,0.011936254799365998,0.5196541547775269,0.183498814702034,-1.3980636596679688,-0.8140491843223572,-0.3173709809780121,-0.2951289713382721,-0.336956650018692,0.7375863790512085,0.4040515124797821,0.4770199954509735,1.3871159553527833,-0.16318194568157197,-0.0008764075464569032,0.18725453317165376,0.8940137624740601,-0.2509034276008606,0.06894196569919586,0.4970536530017853,-0.5025925040245056,-0.003287016414105892,-0.0005558436969295144,1.0046014785766602,-0.2850886583328247,-1.504024863243103,-0.5645120143890381,-0.8648072481155396,0.37086084485054018,2.098487377166748,-0.3130626082420349,0.27937185764312746,-0.25058168172836306,0.46837836503982546]},"biases":[0.46906647086143496,-0.352588027715683,-0.3950950503349304,-0.48902589082717898,-0.0004798733280040324,-0.7672389149665833,1.6058955192565919,-0.6149744987487793,0.5863500833511353,0.5430586934089661,-1.2620238065719605]}],"seed":1020588459}