{"layers":[{"neurons":[0.39527907967567446,-0.3021606206893921,0.9769578576087952,-0.9999765753746033,0.856502890586853,-0.4468376338481903,-0.9014003872871399,-0.1857186257839203,-0.9368555545806885,-0.9566572904586792,-0.98823082447052,-0.9684369564056397,0.7490044832229614,0.192535862326622,0.5125642418861389,-0.3885757327079773,-0.3148946166038513,0.9475943446159363,-0.6066506505012512,-0.033118750900030139,0.8260704278945923,0.23947089910507203,-0.9650866985321045,0.5757955312728882,-0.8334587216377258,0.938774585723877,0.4400433897972107,0.8892340064048767,-0.7487509250640869,0.7912711501121521,-0.5881115794181824,-0.7524553537368774,-0.9967943429946899,-0.9784164428710938,0.4207330346107483,-0.12503862380981446,0.7593992948532105,0.07035873830318451,0.43932342529296877,0.999589741230011,-0.32816699147224429,0.5762159824371338,-0.42074549198150637,0.32689452171325686],"weights":{"rows":44,"cols":22,"data":[0.5409874320030212,-1.3531591892242432,0.8576659560203552,-0.346743106842041,0.8164213299751282,-0.48664841055870058,0.14117085933685304,0.3475433588027954,-0.2074417620897293,-0.22747354209423066,-0.4706014394760132,-0.24370697140693665,0.20715603232383729,0.32861530780792239,-0.4616328179836273,0.23733626306056977,-1.2441091537475587,-0.05838116258382797,0.7333865165710449,0.22055000066757203,0.4546746611595154,-0.41776740550994875,0.6365414261817932,-0.5008190274238586,0.525546133518219,-1.0867949724197388,0.11367794871330261,-0.21793746948242188,0.656724214553833,1.3308550119400025,-0.9675832390785217,-0.22758720815181733,-0.5643671154975891,-0.4207647442817688,0.9218425750732422,-0.29556208848953249,-0.15979187190532685,0.6094269156455994,-0.4832748770713806,0.8889385461807251,0.243419349193573,0.9426161646842957,0.8341553211212158,-0.12202633172273636,-0.2286699116230011,-0.4025063216686249,-0.7392377853393555,0.5070968270301819,-0.5422200560569763,-0.09505055844783783,-0.130700945854187,-0.47381195425987246,-0.49963000416755679,0.11379928141832352,-0.5618966817855835,-0.5785778760910034,-1.8145718574523926,0.6261181235313416,-0.536566972732544,-0.333793580532074,-0.873558759689331,0.3013850748538971,-0.6408122181892395,-0.47572600841522219,-0.28193607926368716,-0.5436100363731384,-0.4329451620578766,0.06577212363481522,0.10940270870923996,0.608517587184906,0.7770355939865112,1.3128554821014405,1.4502750635147095,0.022914955392479898,1.858750581741333,0.18520621955394746,-0.06826495379209519,-0.02380584552884102,0.7970603108406067,-0.6058440208435059,-0.4702901840209961,0.668673574924469,0.8016878366470337,-0.12494460493326187,0.45518389344215395,0.7476731538772583,-0.4005734324455261,-0.6121186017990112,0.3406146764755249,-0.6604973077774048,-0.3567280173301697,0.26257291436195376,0.012390251271426678,0.20425838232040406,-0.02694520354270935,0.04903276637196541,0.3099580407142639,0.1263536661863327,-0.0896957740187645,-0.4206772744655609,-0.4582103192806244,0.6015992760658264,-0.09930724650621414,0.9504500031471252,-0.5911235809326172,-0.5006014108657837,-0.21486926078796388,-0.18534556031227113,0.038188327103853229,0.21300961077213288,-0.26540273427963259,0.8539970517158508,-0.0379258468747139,-0.58475661277771,0.9300868511199951,-0.979102373123169,-0.06910178065299988,-0.056413035839796069,-0.43105176091194155,-0.6245942711830139,-0.8335299491882324,-0.47175875306129458,0.9328643083572388,0.0713556706905365,-0.5128892064094544,0.6279377937316895,-1.6961736679077149,-0.23156403005123139,-0.32514479756355288,-0.39834287762641909,0.09871341288089752,-0.27795106172561648,1.1910691261291505,0.5827098488807678,0.08964207768440247,-0.17439024150371552,-0.057311706244945529,-0.3519415855407715,-0.1607169508934021,0.4496280550956726,0.17958611249923707,0.28134995698928835,0.41134172677993777,-0.06289961189031601,0.12669432163238526,-0.263250470161438,-0.38133004307746889,0.0313115157186985,0.37038663029670718,0.24975097179412843,-0.14330166578292848,0.7421699166297913,0.057135842740535739,-0.08349303156137467,0.4040594696998596,0.03669871762394905,-0.18302477896213532,0.880517840385437,-0.8046368956565857,-0.029647134244441987,0.2912503480911255,-0.6075644493103027,-0.9131153225898743,-0.9462849497795105,0.4493499994277954,0.8186450004577637,0.4482170045375824,-0.2163364589214325,0.44120603799819949,0.7072708010673523,-0.857649564743042,-0.2695862352848053,-0.33820557594299319,-1.0120539665222169,-0.6302493214607239,-0.3743324875831604,0.16212928295135499,0.013821708969771862,-0.37726637721061709,0.5616397261619568,-0.013928420841693879,-0.7663470506668091,0.4287406802177429,0.20065553486347199,0.33107301592826846,-0.19589821994304658,-0.9116220474243164,0.27183449268341067,-0.9100552797317505,-0.42524760961532595,-0.16681508719921113,-0.17660963535308839,-0.6442062258720398,0.7200483679771423,-0.019320104271173478,1.3052759170532227,0.1636447161436081,-0.6380100846290588,0.10205483436584473,0.14132805168628694,-0.7785073518753052,-0.22655412554740907,0.6779310703277588,-0.5354481339454651,-0.022127903997898103,-0.16079312562942506,-0.1936306655406952,0.14687480032444,0.014237785711884499,0.1075936108827591,1.1500868797302247,-0.12189064174890518,-0.2588686943054199,0.5125596523284912,0.5090717077255249,0.32767340540885928,-0.37565240263938906,-1.0598716735839844,0.40122362971305849,-0.5275060534477234,0.28891605138778689,-0.3304953873157501,-0.06178777292370796,0.5936995148658752,1.4435062408447266,0.5069301724433899,0.16063348948955537,-0.7901615500450134,1.0250483751296998,-0.4814835488796234,-0.40844592452049258,0.10370244085788727,-0.19654721021652223,-0.15986992418766023,-0.13979580998420716,0.36774757504463198,-0.1430618017911911,0.0919688418507576,0.016408110037446023,-0.32320258021354678,-0.37155210971832278,-0.6332941055297852,0.4791291654109955,0.4831348657608032,1.0215449333190919,0.33911582827568056,-1.353110671043396,-0.3153436779975891,-0.20575785636901856,0.01769774593412876,-0.09771382808685303,0.6872049570083618,0.4172970652580261,0.694381058216095,0.7306147217750549,-0.13237369060516358,-0.5199844241142273,0.03402666375041008,0.8649660348892212,-0.4903847873210907,0.3572966754436493,0.43411844968795779,-0.23748522996902467,-0.4223193824291229,-0.22861523926258088,0.8661472201347351,0.30142223834991457,-0.4791935384273529,-0.020797008648514749,-0.15494626760482789,-0.7156203389167786,0.2542650103569031,1.1699879169464112,0.49648672342300417,0.11439403891563416,0.16879622638225556,-0.5690146088600159,0.4397386312484741,-0.46229323744773867,0.3146747946739197,-0.25872814655303957,0.3650680482387543,0.43254196643829348,0.044224757701158527,-0.5230467319488525,-0.860935389995575,0.06914868205785752,-0.4019511044025421,0.7649526596069336,0.6891212463378906,-0.07988335937261582,-1.3023433685302735,-0.47926804423332217,-1.1568974256515504,-0.08667830377817154,0.5449343919754028,0.12351995706558228,0.4060218036174774,0.6969712376594544,0.2362714260816574,-0.054156992584466937,-1.1816357374191285,-0.6721338629722595,0.009172644466161728,-0.21087071299552918,0.02957715280354023,0.03504188358783722,-0.02242351695895195,0.21358069777488709,-0.2626997232437134,-0.2962629497051239,-0.8814642429351807,0.8393390774726868,-1.1493586301803589,-0.7487495541572571,0.7982090711593628,0.07452713698148728,-0.37965306639671328,-0.09706410020589829,0.6770346760749817,-0.9247756600379944,0.9006126523017883,-0.9404250979423523,-0.05612701550126076,-0.07653364539146424,0.045656997710466388,0.583316445350647,-0.24617119133472444,-1.0961204767227173,-0.59961998462677,-1.2831629514694214,0.017695944756269456,-0.3399231731891632,-0.4608501195907593,0.13811761140823365,-0.8212109804153442,-0.4377988278865814,-0.032204680144786838,-0.03262291103601456,-0.5013440251350403,-0.19757923483848573,-0.46971094608306887,0.3181054890155792,0.5570033192634583,0.41756579279899599,0.3763033449649811,0.3364364504814148,-0.3158031404018402,0.3443536162376404,1.1833124160766602,-0.12698347866535188,0.28227657079696658,-0.5805719494819641,0.5328527092933655,0.5148313641548157,-0.19545158743858338,0.21984800696372987,0.03082064352929592,1.0152779817581177,1.0325331687927247,0.22353878617286683,0.12450456619262696,-1.0546467304229737,-0.49087971448898318,1.176772952079773,0.507736325263977,0.09045920521020889,0.01988568715751171,-0.7648019790649414,0.6424126029014587,0.03595156595110893,-0.5015817284584045,0.11553627997636795,-0.3431691527366638,0.03059862181544304,0.040229685604572299,0.6055638194084168,1.3154582977294922,0.02667531929910183,0.03584020584821701,1.0188761949539185,-1.0580382347106934,-0.39373499155044558,0.5118263363838196,-0.18731136620044709,-1.376680850982666,-0.45372071862220766,0.9444547295570374,0.05194521322846413,0.27092915773391726,-0.5425757765769959,0.07952473312616348,0.03845209628343582,0.5940768718719482,0.7878738045692444,-0.2530515789985657,-0.461059033870697,-0.8680859208106995,0.5272436738014221,0.6173304319381714,0.4769485294818878,0.11343668401241303,-0.13084852695465089,0.6859316229820252,-0.3160805404186249,-0.48480597138404848,0.051469579339027408,0.4723094701766968,1.4523199796676636,0.1218557208776474,0.5407978892326355,0.21596162021160127,0.503091037273407,0.82574462890625,0.09015479683876038,-0.06275040656328201,-0.12516556680202485,-0.05629194900393486,-0.8354660272598267,0.03878660127520561,-0.18162478506565095,-0.18026384711265565,-0.17917117476463319,-0.5312888026237488,1.2581065893173218,0.3791840076446533,-0.38454145193099978,-0.1680319905281067,-0.5991019606590271,0.7237776517868042,0.7581677436828613,0.2926352620124817,1.1932920217514039,-0.2982984185218811,-0.4831867218017578,0.857709527015686,0.212200328707695,0.5135877728462219,0.15179599821567536,0.3544532060623169,-0.44005459547042849,-0.0621003620326519,0.7569785118103027,-0.005120499059557915,-0.22077681124210359,-0.6278536319732666,1.003558874130249,-1.2901026010513306,-0.1773914098739624,-1.587971568107605,0.0629589632153511,-0.635665237903595,-0.648411750793457,0.9164317846298218,0.5154989361763,-0.5312172174453735,-0.2840001583099365,-0.20842207968235017,-0.21416907012462617,0.014609080739319325,0.25937753915786745,-0.5061225891113281,0.9646663069725037,-0.02029753103852272,1.0506136417388917,0.6591599583625794,0.31714749336242678,-0.7809909582138062,-0.3747543394565582,-0.24043649435043336,0.24573934078216554,-0.021172907203435899,-0.037511661648750308,0.5797144174575806,-0.28717732429504397,0.7572014927864075,-0.7729308009147644,-0.18010592460632325,0.8856332898139954,0.7811899781227112,0.5216586589813232,0.06075482815504074,0.41171520948410036,1.0740476846694947,-0.1081300899386406,-0.8496171236038208,-0.3243675231933594,1.0137985944747925,-0.6284332275390625,0.09256729483604431,0.12290988862514496,-0.2411070317029953,0.9788408279418945,-0.4113052785396576,0.8962477445602417,0.022210614755749704,0.1893850862979889,-0.090032659471035,-0.37844038009643557,-0.5826326608657837,-0.46270081400871279,-0.5234925746917725,-0.19137956202030183,-0.08733497560024262,-0.3194761872291565,0.89493727684021,-1.3426088094711304,-0.29171860218048098,0.6702483296394348,0.8104178309440613,0.17416280508041383,-0.12057717144489289,0.35133323073387148,-0.34553262591362,0.11509309709072113,-0.07113544642925263,-0.016261549666523935,-0.8834273815155029,-0.14939558506011964,1.0167129039764405,-0.5504369139671326,0.039812829345464709,0.3179333806037903,-0.07662135362625122,-0.5057793259620667,0.2618113160133362,-0.6495348811149597,-0.5897150039672852,-0.4019097685813904,-0.21744287014007569,-0.3915880024433136,0.4945092797279358,0.022660205140709878,0.12527039647102357,0.9324066638946533,0.3282158076763153,-0.35774853825569155,-0.06551714986562729,-0.23935459554195405,-0.49601322412490847,0.015572482720017434,-1.2464637756347657,0.8289609551429749,-0.10396239906549454,0.15512120723724366,-0.6159897446632385,-0.9263285994529724,-0.374058336019516,-0.26979199051856997,-0.5981858968734741,1.0597575902938843,-0.12050976604223252,0.2707526385784149,-0.843975841999054,0.3796580135822296,0.36774253845214846,-0.6389076113700867,-0.37887582182884219,0.427186518907547,0.15518179535865785,-0.021000936627388,0.7789725065231323,0.6318252086639404,-0.9352343678474426,0.7025220990180969,-0.4843919575214386,0.3230150640010834,1.0145459175109864,-0.08590870350599289,-1.1160569190979005,-0.1305067539215088,-0.07240995764732361,0.03148558363318443,-0.6404320001602173,0.3035092055797577,1.0576426982879639,-0.9348674416542053,0.21083681285381318,0.035023778676986697,0.2746943533420563,-0.19997172057628632,0.5324389338493347,-0.686854362487793,-0.08041094243526459,0.5115160942077637,-0.8698767423629761,-0.0600319467484951,0.5727059841156006,0.5656141638755798,-0.6359068751335144,0.4598630666732788,0.33444347977638247,-0.9878923892974854,-0.11813650280237198,0.22788603603839875,0.2675550580024719,0.23412427306175233,-0.7653204202651978,0.08325755596160889,-0.10770530998706818,-2.3613715171813967,-0.3578047454357147,0.717049241065979,-0.6365815997123718,-0.04706757143139839,0.0864831954240799,-0.061046287417411807,-0.7026026248931885,-0.4463435113430023,-0.20504194498062135,0.22603954374790193,0.16871018707752229,-0.3168705701828003,-0.3008531928062439,0.010440247133374215,-0.10298017412424088,0.2241981327533722,-0.09438567608594895,-0.8874766826629639,-0.07981309294700623,0.18771395087242127,0.5092315673828125,0.02013980597257614,-0.2819858193397522,0.3658885955810547,-0.9890870451927185,-0.24920684099197389,-0.03993511199951172,-0.625889003276825,-0.8242647051811218,-0.09782169759273529,0.15716500580310822,-0.3062131702899933,0.24926123023033143,0.17408515512943269,0.34336724877357485,-0.39541348814964297,0.6226539015769959,0.9678563475608826,0.014969219453632832,-0.005675869528204203,-0.33066877722740176,0.6745076775550842,-0.4750758111476898,-0.31224825978279116,0.2726147770881653,-0.6841140389442444,-0.10484476387500763,-0.20416396856307984,-0.33738818764686587,0.060639191418886188,-0.5925610661506653,0.6570994853973389,0.6718981266021729,-0.02755434438586235,0.03744230046868324,-0.6127550601959229,-0.669334888458252,0.6518731713294983,0.32921287417411806,0.4880523979663849,0.17932547628879548,0.3147115409374237,-0.40279915928840639,0.646613359451294,-0.0882645919919014,-0.48166948556900027,-0.40748605132102969,1.4790927171707154,-0.2460928112268448,-0.3375346064567566,0.6709266304969788,-0.7263843417167664,-0.7373449206352234,0.011297517456114293,0.12816351652145387,-0.3971407115459442,-0.1362437754869461,0.06842533499002457,-0.30083054304122927,-0.31672483682632449,-0.05560225620865822,0.07368665933609009,0.8114232420921326,0.32400017976760867,-0.7622313499450684,0.07450048625469208,0.42666882276535036,0.2127975970506668,-0.12489689886569977,0.7940599918365479,-1.5039925575256348,0.7625394463539124,-0.9539090394973755,-0.48649120330810549,-0.1358109563589096,-0.5583101511001587,1.2616044282913209,0.4521338939666748,1.1780046224594117,0.5683629512786865,0.7896115779876709,0.6409534215927124,-0.16659684479236604,0.2442779690027237,-0.7906755208969116,0.04583257809281349,-0.26177138090133669,0.2489652931690216,-0.359755277633667,1.1677213907241822,-0.570366621017456,1.4474411010742188,-0.6619159579277039,-0.7245678901672363,0.4417482614517212,0.05632544308900833,-0.022851238027215005,-0.4661145806312561,-0.08726457506418228,0.8211414217948914,0.49728289246559145,0.0711955800652504,0.3251930773258209,0.390379399061203,-1.0148959159851075,0.83673095703125,0.08740030229091644,0.12764795124530793,0.6460967659950256,-0.42228883504867556,0.3581208884716034,-0.8366065621376038,0.6415758728981018,0.6708040237426758,0.33017873764038088,0.2719135880470276,0.785925030708313,-0.12140204012393952,0.573590874671936,-0.5074530243873596,-0.2904505729675293,0.5096108317375183,0.11680742353200913,0.7120639681816101,-0.26943305134773257,-1.2608989477157593,-1.6085901260375977,0.1825704127550125,-0.6440655589103699,0.36437633633613589,-0.6159332990646362,-0.056666407734155658,0.668996274471283,0.7248789072036743,0.009557557292282582,-0.1652384102344513,0.4717084467411041,-0.671326220035553,0.5004885196685791,-0.5544750094413757,-0.19867005944252015,-0.2569183111190796,-0.3037766218185425,0.47103002667427065,-0.002957305870950222,-0.08679567277431488,0.2384086400270462,1.1198909282684327,-0.3878660798072815,-0.4316253364086151,-0.7271731495857239,0.6187986135482788,0.010526754893362522,-0.37380558252334597,-0.4549526572227478,-0.17914313077926637,-0.5132167935371399,-0.23444613814353944,-0.22295893728733064,0.1987135410308838,0.16067104041576386,0.8551017045974731,0.6353102326393127,0.0024606790393590929,0.5580018162727356,0.4637974202632904,-0.2514137029647827,-0.6625481843948364,-0.22753199934959413,0.5886803269386292,-0.6460641622543335,0.12308412045240402,0.014150604605674744,-0.06422727555036545,-0.7317078113555908,-0.26070159673690798,0.3443991541862488,-0.22184689342975617,0.14834827184677125,-0.2905789613723755,-0.33686935901641848,0.7148950099945068,-0.675045907497406,0.2740171551704407,0.3514108657836914,-0.04811789095401764,-0.019354546442627908,-0.4022921323776245,0.4117145240306854,-0.43361780047416689,-0.2116304636001587,0.9308268427848816,0.38855311274528506,-0.16605941951274873,-1.012900471687317,0.38862842321395876,-0.05896967276930809,-0.4243742525577545,-0.015832681208848954,0.20349419116973878,0.06139683723449707,0.2767403721809387,0.7015934586524963,-0.33642879128456118,0.30475690960884097,-0.532577395439148,-0.7286235094070435,-0.09558313339948654,-0.6333851218223572,0.38899797201156618,0.006721762008965015,-0.581699550151825,0.707396924495697,-0.07638877630233765,0.24980561435222627,-0.13050679862499238,-0.4658517837524414,-0.06561068445444107,0.7205269932746887,-0.2198856621980667,0.07392744719982147,-0.2531992793083191,-0.40706220269203188,0.15608783066272736,-0.6610074043273926,0.0006757297669537365,0.9248351454734802,-0.1294206976890564,0.26231324672698977,0.2693216800689697,0.17785432934761048,-0.12159502506256104,0.28329262137413027,-0.4791388213634491,0.5996276140213013,0.8235307335853577,0.8492359519004822,0.250879168510437,0.3153732120990753,1.228326439857483,0.4072622060775757,-0.5325281023979187,-0.5074703097343445,-0.7621250748634338,-0.07117418944835663,-0.6670843958854675,0.22210833430290223,0.4186188578605652,-0.2771836519241333,-1.1871013641357422,0.35355010628700259,0.5114474296569824,0.4974728524684906,-0.8024449348449707,0.0729353204369545,0.5937603712081909,0.07900269329547882,-0.08076277375221253,0.7951286435127258,-0.3115527629852295,-0.7398678064346314,0.7505990862846375,0.4311307966709137,-0.3352464735507965,0.17146062850952149,0.0628775879740715,-0.04478684812784195,0.3779117465019226,-0.9522362351417542,1.2649863958358765,-0.1089811846613884,0.4886813759803772,0.24368564784526826,-0.16383633017539979,-0.5412943959236145,0.562734842300415,-1.1452995538711548,0.7971768379211426,-0.5871239900588989,1.3555370569229127,1.2699370384216309,1.399542212486267,0.26203349232673647,0.069060318171978,0.6921210289001465,-0.0831022635102272,0.04110366478562355,-0.09706120938062668,0.03233865648508072,-0.4934209883213043,0.847773015499115,0.7605172991752625,0.28887662291526797,-0.24013875424861909,0.07427830249071121,0.18298573791980744,0.7432377338409424,-0.23907849192619325,-0.304826021194458,0.04256986081600189,0.5166458487510681,-0.3894316852092743,0.5492929816246033,-0.9115297794342041,0.12475430965423584,-0.5408350229263306,0.6516438722610474,0.20179887115955354,0.2422666698694229,1.3182421922683716,0.6055033206939697,-1.3328783512115479,-0.9339249730110169,-1.0030403137207032,-0.41109612584114077,-0.0927664116024971,0.36644312739372256,-0.7807471752166748,0.08955855667591095,-0.3725872039794922,-1.2341053485870362,-0.19360120594501496,-0.3760409951210022,-0.5798240303993225,0.029827088117599489,0.4187251627445221,-0.24541990458965302,0.1865706890821457,-0.35463836789131167,0.5520686507225037,-0.9829480051994324,0.5190682411193848,0.15434856712818147,-0.601004421710968,0.006862248759716749,0.5587420463562012,0.8066665530204773,-0.3146810531616211,0.5484405755996704,-0.24588710069656373,0.10728469491004944,0.04639032483100891,-0.05607260763645172,0.9568889737129211,0.3169333040714264,0.1395513266324997,0.7761738896369934]},"biases":[-0.6359488368034363,-0.23541097342967988,-0.25792819261550906,-0.34940430521965029,0.37038201093673708,-0.47319772839546206,0.4524180591106415,-0.11243917047977448,-0.28552183508872988,-0.11850545555353165,-1.6905338764190674,-0.6502416133880615,1.3137080669403077,-0.08863849937915802,0.3752806782722473,-0.6971237063407898,0.21968555450439454,0.6095377206802368,-0.24788954854011537,0.28620150685310366,-0.22351481020450593,-0.48090025782585146,0.6547455191612244,0.6646146774291992,-0.26978400349617007,0.700575053691864,0.7401615977287293,0.006960970815271139,-0.3525339365005493,-0.8871292471885681,-0.8456705808639526,0.6431423425674439,-0.2344716489315033,-0.7040215730667114,-0.48829352855682375,-0.5995404124259949,0.4402754604816437,-0.23559144139289857,0.1066993996500969,-0.21097053587436677,0.5336343050003052,0.5245465636253357,-0.0006458013085648418,0.48307135701179507]},{"neurons":[0.5322731137275696,0.9998086094856262,0.9960654377937317,0.9345281720161438,0.8107547163963318,-0.8542523384094238,0.9969110488891602,0.9097746014595032,0.9718931317329407,0.7121054530143738,0.941689133644104,-0.13539063930511475,-0.9522932767868042,-0.9899585247039795,-0.9958986639976502,-0.711770236492157,0.9936667084693909,0.9982213973999023,0.9824655652046204,-0.9975430965423584,0.24687448143959046,-0.9986217617988586],"weights":{"rows":22,"cols":44,"data":[0.3339512050151825,-0.5983395576477051,-0.08617257326841355,0.01799773797392845,-0.6163287162780762,0.7108052372932434,0.18144623935222627,-0.1705992966890335,0.9088292717933655,-0.7292615175247192,-0.27685269713401797,0.5175501704216003,0.29218220710754397,-0.43875813484191897,0.4912106692790985,-0.21598753333091737,-1.0268317461013795,-0.4805248975753784,-0.6339336037635803,-0.6125701665878296,-0.9951978325843811,-0.473886638879776,-0.3295740783214569,0.31769055128097536,-0.3288929760456085,0.12933574616909028,0.06261102855205536,-0.6142127513885498,0.11114814877510071,0.16473795473575593,-0.7050126194953919,-1.4764773845672608,-0.9632673263549805,0.2677184045314789,-1.3012691736221314,0.18817609548568726,0.03207238018512726,0.009348480962216854,0.06285951286554337,-0.26344314217567446,-0.5292626023292542,-0.27546489238739016,-0.7215517163276672,0.39661526679992678,0.5827949643135071,0.4444621503353119,0.19493162631988526,-0.02189210057258606,0.43327146768569949,0.4451585114002228,0.4991871118545532,-0.7817698121070862,-1.4295401573181153,0.5869189500808716,0.6623872518539429,-1.0330700874328614,0.41980043053627016,0.089059017598629,0.0817626342177391,-0.6919177770614624,-0.4678928852081299,0.5692833662033081,-0.11165881901979447,-0.5818141102790833,-0.5565020442008972,0.20184941589832307,0.8978018760681152,-0.16798950731754304,-0.036485157907009128,0.18863721191883088,0.8264799118041992,1.7392730712890626,1.730621099472046,1.4689812660217286,-0.4165019989013672,-1.0659836530685425,-0.6345568895339966,-0.966456413269043,-0.7445962429046631,-0.6024318933486939,0.4110725522041321,0.7123296856880188,-0.1938425600528717,-1.037147879600525,0.5117037892341614,0.3783107101917267,-0.5182392001152039,0.9220673441886902,0.8329079151153565,0.011734637431800366,0.32348644733428957,-0.4708946943283081,0.34588220715522768,-0.21315287053585053,0.5245938301086426,-0.816789448261261,-0.26589396595954897,-0.17465996742248536,0.024678170680999757,-0.3173297047615051,-0.7988949418067932,0.08267056941986084,0.5692669749259949,0.44880691170692446,-1.3267165422439576,0.6769223213195801,-0.06781939417123795,0.2879502773284912,0.2826690673828125,0.7459607720375061,0.11886174231767655,0.7062873840332031,1.1785309314727784,0.3135947585105896,-0.4374484419822693,0.9264759421348572,-0.815230667591095,-0.3964013159275055,0.393181174993515,0.06194956228137016,0.15121671557426454,1.0935713052749634,-0.01817132532596588,-0.3430863916873932,0.6189322471618652,-0.5973722338676453,0.12709040939807893,-0.14452457427978517,0.3574748635292053,-0.2885386049747467,-0.49308541417121889,1.5551832914352418,0.04935434088110924,0.6025028824806213,-0.27550604939460757,0.27185603976249697,0.21788600087165833,-0.3983863294124603,0.04674498364329338,-0.641655445098877,0.17573338747024537,-1.1493759155273438,0.4005095958709717,-0.6513873338699341,-0.5525210499763489,0.2287193089723587,0.42524001002311709,0.35955819487571719,-0.27256810665130618,-0.18860019743442536,0.43370941281318667,0.05812716484069824,0.11058013141155243,-0.16447630524635316,-0.05074707418680191,0.1554114818572998,0.2412191778421402,0.07553748786449433,-0.9796469807624817,-0.34645453095436098,-0.5102880001068115,0.03693646192550659,-0.6772398948669434,0.9170791506767273,-0.8101323843002319,-0.6055721640586853,-0.05777409300208092,-1.0701936483383179,0.06238235905766487,-0.9673358798027039,0.5148669481277466,-0.6847983598709106,0.039324045181274417,0.5091773271560669,-0.3214607238769531,0.27361413836479189,0.225875124335289,-0.6491143703460693,0.6675731539726257,-0.5621153116226196,-0.3188706040382385,-0.3395185172557831,0.5766667127609253,-0.5159933567047119,0.3091186285018921,0.3426334261894226,-0.12575671076774598,0.3752536177635193,0.8658629059791565,-0.08419206738471985,-0.3029555380344391,-0.3375075161457062,-0.3901914656162262,0.2599523961544037,0.4673878848552704,0.2210460752248764,0.11410011351108551,-0.22827470302581788,0.500359833240509,-0.21287281811237336,0.10007866472005844,0.03560905531048775,-0.005544695071876049,0.8561185598373413,-0.34897923469543459,-0.19699876010417939,-0.7893844842910767,-0.3588399291038513,0.33452484011650088,-0.006779186427593231,-0.3058614730834961,0.6131821274757385,-0.5226103067398071,-0.8038519620895386,-0.29367291927337649,0.06844259798526764,-0.0004318669671192765,-0.5409716963768005,0.41551679372787478,0.4161923825740814,0.03283779323101044,0.7140803337097168,0.223099023103714,-0.7879117131233215,-0.7912068963050842,-0.49285462498664858,-0.9006429314613342,-0.22963915765285493,-0.37625208497047427,0.43924006819725039,0.9227084517478943,0.3727414309978485,-0.040093861520290378,0.019839053973555566,0.3107251226902008,0.35040542483329775,-0.07980488240718842,1.0691384077072144,0.5737072229385376,-0.02625873126089573,-1.3046269416809083,-0.895215630531311,-0.14856860041618348,-0.21865125000476838,-0.21585005521774293,0.08642309904098511,-0.8485881090164185,0.6184831857681274,-0.5666268467903137,-0.5699557065963745,0.3570825457572937,0.09705973416566849,0.07790975272655487,-0.19627614319324494,-0.7591630220413208,0.9299372434616089,0.2791889011859894,-0.6927542686462402,0.3988592028617859,-0.0820210799574852,0.3524644374847412,0.037531137466430667,0.23308271169662476,-0.7729964256286621,1.3767752647399903,0.43901363015174868,-1.0746774673461915,0.06130199879407883,-0.6026256084442139,-0.38591209053993227,-0.8912712335586548,-1.56768798828125,-0.49195703864097597,-0.4050822854042053,-1.6264358758926392,-0.3416002690792084,0.3208412230014801,-0.33052751421928408,0.6951032876968384,-0.5117972493171692,-0.05743914470076561,-0.06107638403773308,-0.259881854057312,0.5223070979118347,0.5534123778343201,-0.21589094400405885,-1.2717499732971192,0.39589378237724306,0.21130594611167909,0.06055138632655144,-0.2596580684185028,-0.7678480744361877,-0.23198403418064118,0.28469517827033999,-0.8939335942268372,0.1523618996143341,0.5022115111351013,0.4891800880432129,-0.049214813858270648,0.026783596724271776,-1.3089147806167603,0.8739071488380432,0.04789866507053375,-0.06687755882740021,1.0054073333740235,0.7146707773208618,-0.13728798925876618,-0.6933140158653259,1.0080595016479493,-0.5074980854988098,0.2703780233860016,-0.9113391041755676,-0.5907928347587586,0.1731880158185959,-0.485999196767807,-0.24008238315582276,0.8294862508773804,0.06759350001811981,0.25854676961898806,-0.009547564201056958,0.452208936214447,0.3638666868209839,-0.23491959273815156,0.21886225044727326,-0.6039180755615234,-1.1220743656158448,0.510226309299469,-0.021269939839839937,-0.43081134557724,0.37247684597969057,0.28418681025505068,0.12883304059505464,-0.0030761128291487695,0.22597013413906098,-0.023718291893601419,0.6417752504348755,0.06276922672986984,0.16091476380825044,-0.22604118287563325,0.3763014078140259,-0.25710755586624148,-0.6957624554634094,0.00277112890034914,0.011237110011279583,-0.32752349972724917,-0.48756057024002077,1.3280147314071656,0.784456729888916,-0.1486227661371231,-1.0943132638931275,-0.06962082535028458,0.48340079188346865,0.11390109360218048,0.4440062344074249,-0.09763949364423752,-0.5587809085845947,-0.1833525151014328,-0.3520965874195099,-0.5589198470115662,-1.0734269618988038,0.4711626470088959,0.034080322831869128,-0.5532377362251282,0.8448898792266846,0.16436636447906495,0.02582460455596447,-0.8024745583534241,0.46643880009651186,-0.09248406440019608,-0.3677954077720642,-0.4820297658443451,-0.06501072645187378,1.5316449403762818,-0.5535122156143189,-0.04192892089486122,0.7192268967628479,0.7972407341003418,-0.5388399362564087,-0.4633704721927643,-0.13780179619789124,-0.07950621843338013,-0.5592517852783203,0.012273091822862625,-0.6492746472358704,0.03375880792737007,0.1621946543455124,0.23416604101657868,0.12209887057542801,0.3181048631668091,0.579835057258606,-0.8945103287696838,1.58485746383667,-0.13125616312026978,-0.33763715624809267,-0.7720434665679932,0.8683943748474121,0.38988134264945986,0.03487560153007507,0.35738447308540347,-0.06311949342489243,0.14440107345581056,0.20242296159267426,-0.306804895401001,0.608811616897583,0.4789467453956604,-1.3132818937301636,0.4430140554904938,-0.601114809513092,0.5763782262802124,-0.09738264977931977,-0.19427107274532319,0.5961666703224182,0.7640005350112915,-0.6329824328422546,0.7122766375541687,-0.729006290435791,-0.7747913599014282,0.31154605746269228,-0.4580995738506317,0.2765454053878784,-0.27824705839157107,0.45233336091041567,-0.8017818331718445,-1.0672937631607056,-0.11146761476993561,-0.45406267046928408,0.7999494075775147,-0.1573399007320404,-0.43155086040496828,0.9618219137191773,0.6135071516036987,0.12826447188854218,0.9178348183631897,0.26641514897346499,0.005940211471170187,0.41643252968788149,-0.44929972290992739,-0.5781703591346741,-0.18618139624595643,-0.5165688991546631,-1.3128604888916016,0.3061703145503998,0.3993357717990875,-1.051491141319275,0.6805110573768616,0.029769763350486757,-0.0889514833688736,0.051260337233543399,0.007277285680174828,-0.24724985659122468,0.8071483969688416,-0.39367127418518069,0.4903496503829956,0.7464433908462524,0.008735128678381443,-2.0160281658172609,0.19028092920780183,-1.2747284173965455,0.09490720927715302,-0.20061931014060975,-0.14531706273555757,0.25673091411590578,-0.16836665570735932,-0.18390174210071565,-0.09783853590488434,0.3982431888580322,0.991414487361908,0.7913328409194946,-0.023919759318232538,0.4143502414226532,-0.02560221217572689,0.10578850656747818,0.37219181656837466,0.14078465104103089,-0.8279575109481812,-0.1918918788433075,-0.38947606086730959,-0.2705899477005005,0.09751317650079727,-0.2683340013027191,-0.33352625370025637,-0.1710028350353241,-0.3415239155292511,-0.4893227815628052,-0.7203897833824158,0.5723524689674377,-0.7909281849861145,-0.037153203040361407,-0.8659985661506653,-0.5684535503387451,-0.6708106994628906,-0.36311283707618716,0.31635457277297976,0.3405698537826538,0.09166238456964493,-0.3996824026107788,1.3315856456756592,-0.5446552634239197,0.059551216661930087,-0.6981517672538757,-0.03815678507089615,0.127330020070076,-0.032535407692193988,-1.365532398223877,-0.34623798727989199,0.02686961367726326,0.5433332920074463,-0.3456500470638275,0.4581872224807739,0.04176958650350571,0.8331257104873657,0.027188720181584359,-0.5775766968727112,0.5051974654197693,0.517353355884552,0.6880040168762207,0.7707201242446899,-0.5896613001823425,-0.6096200346946716,-0.4148799479007721,0.05353258177638054,0.10917163640260697,0.8119118213653565,0.885037899017334,0.3590879738330841,-0.4361969530582428,0.2282467633485794,0.8419866561889648,0.4526873826980591,-0.13671186566352845,0.042091190814971927,0.6562710404396057,-0.3835093677043915,-0.12165508419275284,0.5535157322883606,-0.004632133524864912,0.1397736668586731,0.22380070388317109,0.17186088860034944,0.45826977491378786,-0.19934266805648805,0.11052269488573075,0.26569101214408877,0.022712089121341707,0.5785068869590759,-0.9761303663253784,-0.6418015360832214,0.3325193524360657,-0.19790118932724,0.5759940147399902,-0.3341403901576996,-0.4162052869796753,-0.17568674683570863,0.33016103506088259,0.3107059597969055,0.38601309061050417,0.2722751796245575,-0.1961951106786728,1.0146123170852662,-1.5015060901641846,-0.4682622253894806,-0.6661472916603088,-0.15508493781089784,-0.12920740246772767,-0.24305316805839539,0.48523879051208498,-0.004952102899551392,-0.47537562251091006,-1.1964564323425294,-0.38375601172447207,-0.3813077211380005,-0.1945875883102417,-0.31730619072914126,0.7633460760116577,0.7719752192497253,0.5394462943077087,-0.4398946762084961,-0.08146554976701737,-0.5136065483093262,0.0014788454864174128,0.27596497535705569,-0.30500921607017519,-0.24898307025432588,-0.2975521385669708,-0.3102743923664093,-0.8858975768089294,-0.4031943082809448,-0.4674777090549469,-0.4151814877986908,-0.3209792673587799,0.4666827321052551,0.6174542903900147,-0.1129647046327591,-0.055353425443172458,0.030963238328695298,-0.9458205699920654,0.23115448653697968,-0.48986732959747317,0.5769781470298767,-0.12447624653577805,0.5171549320220947,-0.19379974901676179,0.658672034740448,-0.7202680110931397,0.11938154697418213,-0.06443199515342713,-0.012751417234539986,0.5957371592521668,-0.692150890827179,-0.4123665690422058,-0.8015195727348328,-0.48677513003349306,0.0038049761205911638,-0.18464303016662599,0.22926653921604157,-0.06736336648464203,0.5680446028709412,0.30632486939430239,0.16225536167621613,-0.42938798666000368,0.37375572323799136,0.13167762756347657,0.15136517584323884,-0.9203855991363525,0.32273682951927187,0.27798110246658327,0.07619312405586243,-0.07714542746543884,-0.014415069483220578,1.4573315382003785,-0.9035484194755554,0.015703827142715455,-0.3978920876979828,-0.35688650608062746,0.5269065499305725,0.1316531002521515,-0.9850031733512878,0.1187954694032669,-0.2585502862930298,-0.46768009662628176,0.7025754451751709,-0.7589031457901001,-0.010717888362705708,-0.2876181900501251,0.6260464787483215,0.9778693318367004,0.30849453806877139,0.020540546625852586,0.5576397180557251,-1.0353740453720093,0.1327146589756012,0.3424116373062134,0.2701658308506012,0.010930598713457585,-0.07247809320688248,-0.009951240383088589,0.022221356630325319,-0.037487100809812549,-0.16474419832229615,-1.2833161354064942,0.47461122274398806,0.7640632390975952,-0.6726112365722656,-0.11544530838727951,-1.2146260738372803,0.7813969254493713,0.2866056263446808,0.6469548940658569,-1.25138258934021,0.6056263446807861,0.5656648874282837,-0.5055412650108337,-0.21164439618587495,0.10192468762397766,0.20158690214157105,-0.06709062308073044,0.13458369672298432,-0.4459443986415863,-0.010742569342255593,0.24849051237106324,-0.07822398096323013,0.9408304691314697,-0.1609414666891098,0.1339590698480606,-0.3640991449356079,-0.8359883427619934,-0.576712965965271,0.25906288623809817,-0.09055792540311814,0.15472561120986939,-0.6565712094306946,-0.8694085478782654,-0.03946002572774887,0.22787444293498994,0.6582571864128113,0.6137990355491638,0.26457494497299197,0.10849563777446747,0.3423122465610504,-0.19852317869663239,-0.10980332642793656,-0.27684637904167178,0.11011984944343567,-0.40093371272087099,0.7197290062904358,-0.27282053232192995,1.1432753801345826,-0.5986371636390686,1.2063614130020142,-0.243626207113266,-0.7620145678520203,-0.04407908767461777,-0.5729120969772339,0.2858158051967621,0.04154360666871071,-0.31893065571784975,-0.7639762163162231,-0.4401100277900696,-0.6851577162742615,-0.12149480730295181,-0.049321506172418597,-0.8112309575080872,-0.7880080938339233,-0.10250750929117203,0.1513177901506424,-0.1753665804862976,0.2827646732330322,0.48889783024787905,0.5634111762046814,0.40097910165786745,-0.09868980944156647,-0.2640945315361023,-0.13169528543949128,-0.8887456655502319,-0.047618743032217029,-0.0736105814576149,0.7819697260856628,-0.8544244766235352,0.04545903950929642,-0.2260724902153015,0.7470963001251221,0.003646461758762598,-0.20421333611011506,-0.21489472687244416,-0.26373401284217837,0.5641071796417236,0.2531973719596863,0.14958858489990235,-0.4189089834690094,-0.4661900997161865,0.8027076125144959,-0.1872261017560959,-0.23298820853233338,0.40923893451690676,-0.32256844639778139,-0.8334325551986694,-1.213252305984497,0.07139623910188675,-0.6261281967163086,-0.33533400297164919,-0.6509416103363037,0.30253103375434878,0.5189196467399597,-0.08089619129896164,-0.4458080530166626,0.10839158296585083,0.3833363950252533,-0.6834160089492798,-0.6236191391944885,1.1050702333450318,-0.4048137366771698,0.14106380939483643,1.149471402168274,-0.7079067230224609,0.07248231768608093,0.2256806492805481,-0.4630087912082672,-0.30138301849365237,-0.4194493889808655,-0.035044752061367038,-0.15497586131095887,-1.0767289400100709,0.02461334504187107,-0.1006937026977539,0.7746148109436035,-0.5663187503814697,0.6185508370399475,0.26592856645584109,0.5162292122840881,-0.3438929617404938,-0.0016130259027704597,-0.2083636075258255,0.016741683706641198,0.4860546886920929,-0.414739191532135,0.5228496193885803,0.18092334270477296,0.5289653539657593,0.4699825644493103,0.771435558795929,-0.6959837079048157,0.0509052611887455,-0.44802138209342959,0.06368458271026612,1.0704330205917359,-0.3485642969608307,-0.44821134209632876,0.26051661372184756,-0.3503228425979614,0.9222220778465271,-1.5847673416137696,0.247732475399971,-0.8804495334625244,0.304012656211853,0.5732855796813965,-0.1469656527042389,-0.5112096667289734,0.13378997147083283,0.1756507158279419,0.9572628140449524,1.0093897581100464,-0.37666821479797366,0.05872960761189461,-0.04119086638092995,-0.48933711647987368,-0.2188839465379715,0.5838096141815186,1.5782049894332886,0.6234613060951233,-0.42236199975013735,-0.5339358448982239,0.14718520641326905,-0.19445818662643434,0.4648788869380951,0.1632644385099411,0.9189900159835815,-0.23340876400470735,-0.5918154120445252,-0.8203839659690857,0.45381081104278567,0.13357819616794587,0.5728703737258911,-0.157847598195076,-0.3905741274356842,-0.2342568039894104,0.7471089959144592,0.6417431831359863,0.3061036765575409,-0.5478016138076782,-0.6936715245246887,0.6315198540687561,0.6690940856933594,-1.072920799255371,-0.6048742532730103,0.012543491087853909,0.09800241142511368,-0.21634556353092194,-0.44014978408813479,-0.5713497400283814,0.3866327404975891,-0.9399739503860474,-1.1775707006454468,-0.048964813351631168,-0.048578985035419467,-0.22073295712471009,0.30698126554489138,0.29187819361686709,-0.7753449082374573,-0.10581479966640473,0.22314970195293427,0.07087989896535874,2.190469980239868,-1.302032232284546,0.44961556792259219,-0.12059686332941055,-0.5299270749092102,0.13890215754508973,0.6975245475769043,-0.31190773844718935,0.4297949969768524,0.27220410108566286,0.40094077587127688,-0.6655541658401489,-0.06601914763450623,-0.3932916820049286,0.79225093126297,-0.282380610704422,-0.28622743487358096,0.5152007341384888,-0.7216404676437378,0.2508370280265808,0.41597622632980349,0.011827191337943077,-0.175099715590477,0.7615472078323364,0.3069312572479248,-0.6744363307952881,-1.0634522438049317,0.313091516494751,0.055089399218559268,0.5907680988311768,-0.3807125985622406,0.12248526513576508,-0.38202211260795596,-0.6312825083732605,1.2733879089355469,-0.2162272036075592,-0.10919114947319031,-0.03347589448094368,0.39397600293159487,0.1733425259590149,-1.0437860488891602,0.010079248808324337,-0.7879085540771484,-0.2890011966228485,0.06584890931844711,-0.015340758487582207,-0.3306420147418976,-0.7287921905517578,-0.12789474427700044,-0.4942631423473358,0.018943071365356447,0.5034135580062866,-0.4765658676624298,0.5578869581222534,0.02968338504433632,-0.35819560289382937,-0.17683559656143189,-0.8658443689346314,0.9788210391998291,-0.282539963722229,-0.0500471368432045,-0.1909124255180359,0.008790630847215653,-0.3563007414340973,0.01074875146150589,0.6391445398330689,-0.8611872792243958,-0.46357327699661257,-0.17992918193340302,-0.16206659376621247,-0.06420515477657318,0.7435908913612366,0.8797010183334351,-0.7950496077537537,1.1426738500595093,0.2549862563610077,0.6508988738059998,0.8342596292495728,0.3373141884803772,-0.32214614748954775,-0.27239206433296206,0.23651336133480073,0.11326223611831665,0.011860258877277375,0.5495481491088867,0.02778511680662632,0.5610974431037903,-0.5767382383346558,-0.09488962590694428,0.5979262590408325,1.4809602499008179,-0.23881486058235169,-0.13016550242900849,0.2528837323188782,-0.36938342452049258,0.1436832994222641,-0.16676552593708039]},"biases":[-0.38123080134391787,-0.8953894376754761,0.3540881872177124,0.45803210139274599,0.7587730288505554,-0.16285566985607148,-0.12022936344146729,0.10116805136203766,0.2718832790851593,1.001259684562683,-0.006964478176087141,0.04719872772693634,-0.8782073259353638,1.0435502529144288,-0.8041039109230042,0.4196258783340454,-0.2620584964752197,-0.5053591132164002,-0.04528387635946274,0.24293628334999085,-0.14495675265789033,-0.5104150772094727]},{"neurons":[-0.7594419121742249,-0.9894548654556274,0.7952526807785034,-0.9343222975730896,0.43772244453430178,-0.5543588399887085,0.9999804496765137,0.9979519844055176,0.05988795682787895,-0.9887816905975342,0.9997187852859497],"weights":{"rows":11,"cols":22,"data":[-0.381937175989151,-0.10751492530107498,0.8819183707237244,0.09606238454580307,0.630632221698761,0.3899743854999542,-0.05876316875219345,0.606369137763977,0.2656955122947693,0.3412335515022278,-0.5529477596282959,0.6891979575157166,0.016132939606904985,-0.17225606739521027,0.3849232494831085,0.6852150559425354,0.08488360792398453,-1.2653944492340088,-0.8670768141746521,-0.49741846323013308,-0.2111002653837204,0.03242507949471474,-1.1347535848617554,-0.3602461516857147,0.7030704021453857,-0.03150169551372528,-0.09368979185819626,-0.4528798460960388,-0.590567409992218,0.7568833231925964,-0.44004637002944949,0.8711516261100769,-0.4528792202472687,1.444457769393921,0.25675031542778017,0.562788724899292,0.06534729152917862,0.655439555644989,-1.143419861793518,0.2043580412864685,-0.030125219374895097,-0.34974709153175356,0.2428581565618515,0.28914472460746767,0.3683399260044098,0.7275142073631287,-0.42581480741500857,0.2798316776752472,0.19691705703735352,-0.0013360562734305859,0.797187328338623,-0.7961914539337158,-0.06606180220842362,-0.12621085345745088,0.3135607838630676,-0.06045389175415039,-0.5599534511566162,-0.19738657772541047,0.27232006192207339,0.2212940752506256,-0.3713721036911011,0.6960304379463196,1.0288447141647339,0.9431602358818054,0.25474071502685549,0.5719634890556336,-0.22621308267116548,-0.5965237021446228,-0.4616754949092865,0.3562612235546112,-0.004951957613229752,-0.6752732992172241,0.42260539531707766,0.46320435404777529,0.10183626413345337,0.09826042503118515,0.4045151174068451,0.29915302991867068,0.6940460801124573,0.46860983967781069,-0.12879402935504914,-0.966411828994751,-0.4167638421058655,-0.671932578086853,-0.8465617299079895,0.10032707452774048,0.16966184973716737,-0.00039425311842933297,-0.1317577213048935,0.40966594219207766,-0.38630279898643496,-0.028940539807081224,0.35464707016944888,0.40984901785850527,-0.12992621958255769,-0.03041660599410534,-0.693281352519989,0.27197495102882388,0.2658615708351135,0.08712408691644669,0.45441770553588869,-0.08031968027353287,-0.3279540240764618,0.2691258490085602,-0.7014577984809876,0.3922295570373535,1.670289397239685,0.4440158009529114,0.4175355136394501,-0.04677601903676987,-0.5021392703056336,-0.6722696423530579,-0.06325167417526245,0.6538995504379273,-0.24333342909812928,0.5291920304298401,-0.15801021456718446,0.26837241649627688,-0.5125746130943298,-0.20209069550037385,0.28089582920074465,0.2590051293373108,-0.37125465273857119,-0.02759808860719204,0.4186750054359436,0.4932663142681122,-0.1712644100189209,0.30483290553092959,0.1859983652830124,-0.7636295557022095,0.21496719121932984,-0.30926936864852908,-0.27971354126930239,-0.4976887106895447,1.2536702156066895,-0.018380193039774896,0.17007316648960114,0.5471336841583252,0.6040970087051392,0.7445663809776306,0.20268087089061738,0.41765162348747256,-0.8539150953292847,0.19539161026477815,-0.03696493059396744,-1.4112483263015748,-0.255623996257782,0.3057642877101898,0.4502040445804596,-0.1604262739419937,0.7374532222747803,-0.388075590133667,0.7534826993942261,-0.23665547370910645,-0.34141549468040469,-0.42913031578063967,0.24446940422058106,0.5072149634361267,0.6443045735359192,-0.2800164520740509,-0.03513253852725029,0.358725905418396,0.5642445087432861,-0.23290406167507173,-0.2266196757555008,0.33080703020095827,-0.365503191947937,-0.4796583354473114,-1.0645463466644288,0.4111987054347992,-0.24746160209178925,0.2934872508049011,0.680705189704895,-0.23521588742733003,1.3691489696502686,0.4147321283817291,-0.22035928070545197,1.8176244497299195,-0.7773118019104004,0.3758477568626404,-0.3168322443962097,-0.9137814044952393,-0.2923229932785034,0.25767678022384646,-1.8089731931686402,-0.4776846766471863,-0.03713444620370865,-0.49410903453826907,0.2407761514186859,-0.4585108160972595,0.3335724174976349,0.11495152115821839,0.6806905269622803,0.006988809444010258,-1.0065969228744507,0.08023560792207718,0.14752289652824403,-0.46136724948883059,-0.2839778661727905,-0.05170522630214691,-0.43448224663734438,0.40304186940193179,-0.3276013135910034,-0.8728668093681336,-0.02321801334619522,-0.49862873554229739,-0.5266754031181336,0.2836233973503113,0.12029432505369187,-0.023494653403759004,0.6824102401733398,0.0732966810464859,-1.2721058130264283,-0.8148636817932129,-0.48537641763687136,-0.1683158427476883,-0.9853704571723938,0.7383244037628174,0.4189434349536896,0.8596782684326172,0.7903009057044983,-0.16334521770477296,0.19197188317775727,0.1877872347831726,1.0368373394012452,-1.0115665197372437,0.06060757860541344,-0.15873904526233674,0.07004470378160477,-0.03132164478302002,-0.11716989427804947,0.08867521584033966,0.3005180060863495,-1.5196077823638917,-0.6679901480674744,-0.8655859231948853,0.3711948096752167,1.0429335832595826,0.1199822723865509,0.8393182754516602,-0.3991219997406006,0.46884700655937197]},"biases":[0.12410488724708557,-0.13313953578472138,-0.24316400289535523,-0.48946622014045718,0.17890793085098267,-0.3113101124763489,1.277910590171814,-0.3072283864021301,0.4604998230934143,-0.1541927605867386,-0.3568272590637207]}],"seed":640722019}