{"layers":[{"neurons":[-0.702764093875885,-0.9542213678359985,0.33931463956832888,0.27869555354118349,0.7630245089530945,-0.21804198622703553,0.6031936407089233,-0.5851008892059326,-0.8501977324485779,-0.5137059092521668,-0.9242149591445923,0.53122878074646,-0.7706242203712463,0.9658850431442261,0.5267171859741211,-0.7435063123703003,0.9953684210777283,0.13465720415115357,0.3157491981983185,0.9925614595413208,-0.7624607682228088,0.870379626750946,0.4155474901199341,-0.7490750551223755,-0.9671517014503479,0.8736086487770081,-0.009236445650458336,-0.8411625027656555,-0.921735405921936,0.8559582829475403,-0.8143611550331116,0.775881826877594,-0.8749749064445496,-0.7051302790641785,-0.5576464533805847,-0.288653701543808,0.3800147473812103,-0.933398962020874,-0.12503324449062348,0.8426241874694824,-0.5992159843444824,-0.5394646525382996,0.9320105910301209,-0.9043651223182678],"weights":{"rows":44,"cols":22,"data":[0.4735628366470337,-0.42103996872901919,-0.2504552900791168,0.6665750741958618,-0.16635525226593018,0.5740804672241211,-0.06587406247854233,-0.047918468713760379,0.318690687417984,0.08448390662670136,0.6735948324203491,-0.13918864727020265,0.12804603576660157,-0.46180930733680727,0.09918378293514252,-0.20111681520938874,-0.5396098494529724,0.29702135920524599,-0.060675643384456637,-0.1729295700788498,-0.6910598874092102,-0.4486687183380127,0.33431312441825869,-0.37538719177246096,0.2942895293235779,0.5338619947433472,0.3464983403682709,-0.4214685559272766,0.5644198060035706,0.0563090443611145,-0.5806811451911926,0.6040462255477905,0.6999489068984985,-0.1709078699350357,-0.028632119297981263,-0.08600865304470062,-0.2054944783449173,-0.4528489112854004,0.1966896653175354,-0.11983748525381088,-0.37111756205558779,-0.05277517810463905,0.01879844255745411,-0.30756276845932009,-0.03688337281346321,-0.19589568674564362,0.5706489086151123,0.9000520706176758,0.24956496059894563,-0.006433174014091492,-0.09920968115329743,0.46213245391845705,-0.394520103931427,0.13042373955249787,-0.5401320457458496,0.7004714012145996,0.28002986311912539,-0.32648107409477236,-0.07356783747673035,0.25881707668304446,0.3306814134120941,0.5905656218528748,-0.6256535053253174,-0.08634009957313538,0.7420506477355957,0.4029496908187866,-0.45746874809265139,-1.0333775281906129,0.3629680573940277,-0.06361693143844605,-0.2537072002887726,-0.09677645564079285,0.4180324673652649,-0.007662427611649036,0.09423938393592835,0.5649898648262024,-0.5896915197372437,-0.2357303947210312,0.527579128742218,-0.7854475378990173,-0.2355823814868927,0.6960606575012207,0.15596359968185426,-0.4523603022098541,0.559313178062439,0.9621427059173584,0.3791283965110779,0.5581672191619873,0.25197893381118777,-0.5877025723457336,0.09711721539497376,0.26014551520347597,-0.2674020230770111,-0.18117888271808625,-0.7108054161071777,0.28284358978271487,0.38623055815696719,0.5889956951141357,-0.03889015316963196,-0.14898079633712769,0.27399352192878725,0.5841850638389587,0.10940546542406082,0.36928874254226687,-0.15749673545360566,-0.03350488469004631,-0.03787616267800331,0.20171451568603517,-0.7916620969772339,0.19704298675060273,-0.18114428222179414,-0.5501865744590759,-0.3019239902496338,0.5307201743125916,0.16183097660541535,-0.6848111748695374,0.3698570728302002,-0.4066164791584015,0.11603211611509323,-0.23713485896587373,-0.20893819630146027,-0.741438627243042,0.16819286346435548,-0.729338526725769,0.21220563352108003,0.1939479112625122,-0.43517011404037478,-0.4431059658527374,-0.19687841832637788,-0.16018669307231904,0.00060273427516222,-0.11344005167484284,0.7622769474983215,0.0033635038416832687,0.28979596495628359,0.013099698349833489,-0.49880778789520266,-0.5828050971031189,0.4274568259716034,0.18179742991924287,-0.12670397758483888,-0.267198771238327,-0.36511966586112978,0.31735172867774966,0.21928705275058747,-0.8803665041923523,-0.21822254359722138,0.8067672848701477,0.6499273777008057,0.02812124788761139,-0.2799237370491028,0.012090381234884262,-0.43475541472435,0.08257187902927399,-0.11651946604251862,-0.4561607241630554,-0.8041645884513855,-0.04465629160404205,0.41512227058410647,-0.5100698471069336,0.09730920195579529,-0.6927895545959473,-0.37231549620628359,-0.02595594711601734,-0.14315809309482575,0.01109439879655838,-0.4541451036930084,-0.1211579218506813,0.6795842051506043,0.04790933057665825,-0.443250834941864,-0.3832712173461914,-0.29412606358528139,-0.487623393535614,-0.24303561449050904,0.22531111538410188,0.14298425614833833,0.40038323402404787,-0.41750213503837588,0.3817934989929199,0.3157804608345032,0.3896658420562744,-0.15567944943904878,-0.10229428857564926,0.4044552445411682,-0.2480762004852295,0.1816866546869278,0.03746820241212845,-0.316403329372406,-0.671358585357666,-0.01870274543762207,-0.2701318860054016,-0.0286062303930521,-0.07939869165420532,0.43011781573295596,0.4474213719367981,0.048639316111803058,0.10457880049943924,0.34452757239341738,0.3589310944080353,-0.410541832447052,-0.060068219900131229,-0.2088499218225479,-0.5899869203567505,-0.16648916900157929,0.19825546443462373,0.6880679130554199,0.42352327704429629,-0.151982381939888,-0.20590467751026154,0.17714297771453858,0.022456012666225435,0.08813149482011795,-0.014532788656651974,0.9147580862045288,0.3521137535572052,0.16083775460720063,-0.058594606816768649,-0.4875860810279846,0.12047556042671204,0.13613301515579225,0.199358269572258,-0.07113290578126908,0.11453502625226975,0.31002360582351687,-0.025252044200897218,0.1312345266342163,0.0688985213637352,-0.15868715941905976,-0.2179010659456253,-0.14413830637931825,0.1284726858139038,-0.022141404449939729,-0.41309189796447756,0.23346468806266786,0.25977760553359988,0.45818856358528139,0.32796329259872439,0.05104883015155792,0.41973164677619936,-0.4773327112197876,0.36227473616600039,-0.6381898522377014,-0.039555877447128299,0.12867774069309236,0.4086563289165497,-0.2963095009326935,0.25715941190719607,0.6886993050575256,0.3767455518245697,0.12141469120979309,-0.042623527348041537,-0.5054909586906433,0.19331879913806916,-0.1654953956604004,0.4657573997974396,-0.19808824360370637,0.05087509751319885,-0.541669487953186,0.6074623465538025,0.7920616865158081,0.10707081854343414,-0.6033812761306763,0.2556713819503784,0.3416057229042053,0.897377610206604,0.661858081817627,0.635465681552887,0.09999501705169678,0.1845988780260086,0.20602262020111085,-0.06252995133399964,0.6070474982261658,0.18095242977142335,-0.12645851075649262,0.04257499426603317,-0.25456279516220095,0.34674540162086489,0.08286906778812409,0.08534552901983261,0.053076401352882388,0.41484686732292178,0.4234207272529602,-0.36884915828704836,-0.046590421348810199,0.6933174729347229,-0.500325083732605,-0.011555345728993416,0.08854358643293381,-0.17372339963912965,-0.09460125863552094,-0.6292734742164612,0.35916832089424136,-0.28605008125305178,-0.41349855065345766,0.24283672869205476,-0.13211452960968018,0.6298366189002991,0.25105130672454836,0.30683714151382449,-0.39189836382865908,0.5263717174530029,-0.04102472960948944,0.07109548151493073,0.04104028269648552,-0.6394017338752747,-0.2739394009113312,0.7561579346656799,0.30942288041114809,-0.5225553512573242,0.10871559381484986,0.14867167174816132,-0.329316645860672,-0.07447588443756104,-0.5301611423492432,0.15568099915981294,0.6378132700920105,-0.6017937064170837,0.46271446347236636,0.30961260199546816,-0.17456136643886567,0.6038041114807129,0.06476788222789765,-0.44713833928108218,-0.43486320972442629,0.4022770822048187,-0.384777694940567,-0.9674522876739502,0.27041950821876528,-0.12429839372634888,-0.0459597185254097,-0.03092338517308235,-0.11763560771942139,-0.5475954413414002,0.5468552708625794,-0.27111852169036868,0.07458992302417755,0.44245973229408266,-0.09086602926254273,-0.18849584460258485,0.5617521405220032,-0.13137570023536683,-0.30125340819358828,0.2542252838611603,0.29228442907333376,0.5606493949890137,-0.03453689441084862,-0.3136765658855438,-0.021610762923955919,-0.5135027766227722,0.12922435998916627,0.048359841108322147,-0.8913722038269043,-0.22837038338184358,-0.4722735285758972,-0.07237361371517182,-0.5318781137466431,-0.0793597623705864,-0.6985034942626953,0.38265377283096316,-0.39767900109291079,0.6866629719734192,-0.3037840723991394,0.541454017162323,-0.17503437399864198,0.8689380884170532,-0.7367268800735474,0.01990359276533127,0.2670150101184845,0.36135146021842959,0.17994490265846253,-0.07161355763673783,-0.29406827688217165,-0.476249635219574,0.17028315365314485,0.11840629577636719,0.1275758296251297,-0.2150111347436905,0.36695146560668948,-0.5640004277229309,-0.03199615702033043,-0.02971022203564644,0.32550132274627688,0.22290897369384767,-0.051958318799734119,-0.02159043215215206,-0.11588699370622635,0.3726884126663208,0.2292715311050415,0.08917784690856934,-0.3753942847251892,0.07960429787635803,0.9076490998268127,-0.11040375381708145,0.047248560935258868,-0.08813091367483139,-0.2860289514064789,0.056021615862846377,0.1848694086074829,0.17799322307109834,-0.26015520095825198,-0.31613337993621828,0.1597902774810791,0.06793016195297241,-0.20922039449214936,-0.03881901502609253,0.25451603531837466,0.2956593632698059,1.130781650543213,-0.2831442654132843,0.31807073950767519,-0.0514117106795311,-0.22278934717178346,0.0923554003238678,-0.6816544532775879,0.2566598355770111,0.05058012530207634,0.46728605031967165,-0.6407895088195801,0.6626702547073364,0.3955020010471344,-0.20024070143699647,-0.7694247364997864,-0.25199535489082339,-0.4314197301864624,0.005029372870922089,-0.08357302844524384,0.014040771871805191,-0.863877534866333,-0.091349296271801,0.07906518876552582,0.47151869535446169,-0.40103304386138918,0.31458669900894167,0.061183493584394458,0.4653688073158264,0.11867448687553406,-0.2826719284057617,0.11332739144563675,0.07354383915662766,-0.006148489657789469,-0.37595468759536745,0.3768133223056793,-1.0557026863098145,0.1290186047554016,0.021411262452602388,0.10423899441957474,-0.4378145933151245,-0.07378974556922913,-0.329608678817749,0.7888745665550232,-0.027562275528907777,-0.001604400109499693,0.5822104215621948,0.2893740236759186,0.01631622016429901,0.6270266771316528,-0.20315641164779664,0.13727226853370667,0.21130049228668214,-0.24483683705329896,0.8171748518943787,0.6507731676101685,-0.5249786376953125,0.4655073881149292,-0.14810724556446076,-0.6839209198951721,0.11671573668718338,0.039622657001018527,-0.04220977798104286,-0.5133941173553467,-0.25007954239845278,0.11123120784759522,0.16266712546348573,-0.23538228869438172,0.46785032749176028,-0.5845375657081604,-0.14561079442501069,-0.030493687838315965,0.16285279393196107,0.09767306596040726,0.3857687711715698,-0.667256236076355,0.6950585842132568,-0.022538986057043077,0.1904069483280182,1.1719233989715577,-0.2100519835948944,0.48656609654426577,0.26854804158210757,-0.33683812618255618,0.8979768753051758,-0.281827837228775,-0.0017381757497787476,-0.22653985023498536,-0.37244802713394167,-0.08705996721982956,0.42774972319602969,-0.2705043852329254,0.40510302782058718,0.108585424721241,-0.10772605985403061,-0.5065717697143555,0.34917381405830386,0.46915847063064577,1.149314045906067,-0.4508948028087616,-0.1026444211602211,0.4625293016433716,0.32903045415878298,-0.6605120897293091,-0.15369153022766114,0.20185230672359467,0.37810200452804568,0.006334243807941675,0.060517825186252597,0.083232581615448,-0.3524128198623657,0.03595620021224022,0.1482744663953781,0.40356606245040896,0.2757633328437805,0.8973255157470703,0.14877867698669434,-0.5193495154380798,0.715523898601532,0.49886560440063479,0.6281826496124268,-0.1308426856994629,-0.25397852063179018,-0.3910601735115051,0.638266921043396,-0.36516833305358889,0.3598569333553314,0.6063373684883118,0.2435956597328186,0.23378053307533265,-0.295515775680542,0.8846288919448853,-0.9139755964279175,-0.8005476593971252,-0.010470271110534668,0.28849050402641299,0.4971180260181427,-0.13094964623451234,-0.6467046737670898,0.6901520490646362,-0.6643245816230774,-0.06574180722236633,-0.46013346314430239,0.08049105852842331,-0.35977882146835329,0.3381791412830353,-0.29792481660842898,0.5035684704780579,-0.06987297534942627,-1.0762608051300049,-0.11129478365182877,-0.220460444688797,-0.003014926565811038,-0.713858425617218,0.3273859918117523,0.07242020964622498,-0.6026067137718201,0.33677756786346438,-0.48739469051361086,0.34406957030296328,0.6884069442749023,0.09150629490613938,-0.30116963386535647,-0.06453630328178406,-0.3692684769630432,0.30009588599205019,0.06552565097808838,-0.3270457684993744,0.19286216795444489,-0.06315410137176514,-0.21044164896011353,0.1372806429862976,-0.7308099865913391,0.3084230422973633,0.4310646653175354,-0.1401384174823761,-0.29319703578948977,-0.12456037104129791,-0.22185279428958894,0.1609957367181778,0.16263043880462647,0.33602383732795718,-0.4896749258041382,-0.5188435316085815,-0.04708857834339142,-0.6078551411628723,-0.49224740266799929,0.5595282912254334,-0.3366623818874359,-0.23404079675674439,-0.07524633407592774,0.4868721663951874,-0.289729505777359,-0.041556745767593387,-0.521756112575531,-0.04901418089866638,0.30456793308258059,0.05256062373518944,0.3726220428943634,-0.20227071642875672,0.029924213886260988,0.04801171272993088,-0.5265973806381226,0.18377618491649629,0.046630725264549258,0.7746661901473999,0.27301913499832156,-0.12503588199615479,-0.2831959128379822,0.2247101366519928,0.04389476403594017,-0.3165653944015503,-0.2385813146829605,0.7870610952377319,-0.04431074857711792,-0.19536647200584413,0.33670464158058169,0.2387433648109436,-0.34935909509658816,0.4339597523212433,0.5209252834320068,-0.009694812819361687,-0.25676429271698,-0.250401109457016,0.16718782484531403,-0.3026391267776489,-0.47008970379829409,0.1577652096748352,-0.08826087415218353,-0.4603414237499237,-0.12821315228939057,0.49364930391311648,0.46306008100509646,-0.5198351144790649,-0.4188452363014221,0.2557225525379181,-0.16715499758720399,-0.05780920386314392,-0.36835402250289919,-0.2500583231449127,-0.433530330657959,-0.16737815737724305,-0.48084425926208498,-0.05293446406722069,1.163651466369629,-0.39973074197769167,0.014465617947280407,0.2719290852546692,-0.4273683428764343,-0.23155969381332398,-0.1985824704170227,0.6317834854125977,-0.19735056161880494,0.35492345690727236,-0.19585396349430085,0.2677861452102661,-0.33555394411087038,-0.1028195321559906,-0.46675753593444826,0.47503218054771426,0.7142249345779419,-0.4875734746456146,-0.27242740988731387,-0.1246211975812912,0.6172013878822327,-0.5829079151153565,-0.34258541464805605,0.15872614085674287,-0.4037103056907654,-0.3610014021396637,-0.4737422466278076,0.13581989705562592,-0.21344852447509767,-0.08041009306907654,-0.2160625159740448,-0.003306675236672163,0.23013918101787568,0.22649116814136506,-0.006715426221489906,-0.5123398900032044,0.1513231098651886,0.5459433794021606,-0.6558516621589661,-0.20023788511753083,0.2545727491378784,0.026232747361063958,-0.2875259816646576,0.17211347818374635,0.47125139832496645,-0.2224804162979126,-0.03353351354598999,-0.502181887626648,0.029641881585121156,-0.1829656958580017,-0.051525600254535678,0.3623119592666626,-0.24201525747776032,0.21502365171909333,0.29565438628196719,-0.6642815470695496,-0.06477636098861695,0.026717064902186395,-0.27124911546707156,0.6896305680274963,-0.2524339556694031,-0.017025604844093324,-0.32582327723503115,-0.19007232785224915,0.03511624038219452,-0.18630297482013703,-0.1526593416929245,-0.4637870490550995,-0.221857950091362,0.5583508014678955,-0.3061662018299103,-0.333930104970932,0.15006963908672334,0.016364559531211854,0.3857661187648773,-0.2019658386707306,0.10292823612689972,0.5374618172645569,-0.037748172879219058,-0.1821650117635727,-0.16168305277824403,-0.09612350165843964,-0.5018515586853027,0.11315882951021195,-0.4451373517513275,0.3622879385948181,-0.10729649662971497,0.14172565937042237,-0.3526729941368103,0.17884135246276856,0.3132933974266052,0.5187066793441773,-0.41466784477233889,0.7575798630714417,-0.5163936614990234,-0.6060759425163269,-0.24779054522514344,-0.3679499924182892,-0.5804849863052368,0.36515578627586367,-0.4953462779521942,0.9268273115158081,0.27310067415237429,0.2771643400192261,0.3853735625743866,-0.16538719832897187,0.6015194058418274,-0.2987845838069916,-0.443225234746933,0.12165004760026932,0.33149492740631106,-0.04481296241283417,-0.4703603684902191,-0.4980182349681854,-0.21600353717803956,0.18338444828987122,0.37630367279052737,0.7065209746360779,0.35788804292678835,-0.4663833677768707,0.6679520010948181,-0.1377965360879898,-1.0923101902008057,-0.25692903995513918,0.02276197448372841,0.3146984279155731,-0.8183638453483582,0.2630419433116913,-0.29427582025527956,0.537656307220459,0.46195822954177859,0.688550591468811,0.5431452989578247,0.45756760239601138,0.5961597561836243,0.06414489448070526,0.17327961325645448,-0.5714449882507324,-0.4921477735042572,-1.1655577421188355,0.16006827354431153,-0.3371032774448395,-0.22293905913829804,-0.209886834025383,-0.2661595940589905,0.39870914816856387,-0.33949023485183718,-0.556976318359375,0.20602117478847505,-0.14882953464984895,-0.002052555326372385,0.6653767228126526,0.14512822031974793,0.4354366958141327,0.1529884785413742,-0.5910570621490479,0.3736870586872101,0.9306414127349854,0.8642222285270691,0.5353829264640808,-0.2133837342262268,0.6090133190155029,-0.04703235253691673,-0.10462348163127899,-0.26967382431030276,-0.16231194138526917,0.6282795667648315,0.08423583954572678,-0.2734922468662262,-0.17002935707569123,-0.40789100527763369,0.6033486723899841,0.4191720485687256,-0.009327184408903122,-0.3213406205177307,-0.5732368230819702,-0.3807322680950165,-0.07864457368850708,0.18578274548053742,0.2479410469532013,0.2788121998310089,-0.4482918977737427,0.19864307343959809,0.7656266093254089,0.45857003331184389,0.520341694355011,0.7989107370376587,0.48275288939476015,0.17663748562335969,-0.05876825004816055,0.12620127201080323,-0.00007535313488915563,-0.15227249264717103,0.2815537750720978,-0.363484650850296,0.5768980979919434,-0.18290939927101136,0.5962158441543579,0.4384823441505432,-0.8195037841796875,0.5254508256912231,0.4831961691379547,-0.5875226855278015,-0.26602819561958315,0.06083116680383682,-0.15675115585327149,-0.24554118514060975,-0.260684609413147,0.28408023715019228,0.3818095326423645,-0.48928940296173098,-0.35766783356666567,-0.32911941409111025,0.02164994738996029,0.06052184849977493,0.05375745892524719,0.19904997944831849,-0.576458215713501,0.3398553729057312,0.35078194737434389,0.5001583695411682,-0.5235041379928589,-0.4312666654586792,0.49208584427833559,-0.28297704458236697,-0.6401616334915161,-0.05152744799852371,-0.33723896741867068,0.3386114835739136,0.08979590237140656,0.43570420145988467,0.2843558192253113,0.3038591742515564,0.09136117994785309,-0.6987977623939514,0.2682422399520874,0.010985217988491059,0.021551314741373063,-0.41767552495002749,-0.04054813086986542,-0.2803739905357361,0.26721861958503725,0.3065473437309265,-0.3959883749485016,-0.5401195287704468,0.20124728977680207,-0.3347862660884857,-0.2978055775165558,0.5619124174118042,-0.508614182472229,-0.006202425807714462,0.5629290342330933,0.07610967755317688,0.3777158856391907,0.2242334485054016,-0.27220311760902407,-0.11348173767328263,0.82079017162323,0.46440330147743227,-0.32469722628593447,0.3976048529148102,-0.7421872615814209,0.8126499056816101,-0.22861407697200776,0.2535264492034912,0.23735623061656953,0.21610569953918458,0.3410681188106537,0.06589590758085251,-0.438728004693985,0.4252108633518219,0.05036205053329468,0.4394896626472473,-0.21759259700775147,-0.4743841290473938,0.30405229330062868,0.2615186870098114,-0.4690995216369629,-0.17971386015415193,-0.11849689483642578,0.41682398319244387,-0.12977132201194764,-0.7905638813972473,-0.07542029023170471,-0.4158867299556732,0.5821621417999268,0.11685307323932648,0.32946693897247317,0.040290236473083499,-0.41051262617111208,0.29150667786598208,0.5176538228988648,-0.2009882777929306,0.10242638736963272,-0.09703630208969116,0.0002651247486937791,1.0157452821731568,0.18673868477344514,-0.1564033180475235,-0.2514393627643585,-0.5234155058860779,0.406967431306839,0.37539148330688479,-0.1701398342847824,-0.28930729627609255,0.42498302459716799,0.11012048274278641,-0.19674642384052277,0.6859190464019775,0.7444410920143127,-0.532821536064148,-0.2746381461620331,-0.08591723442077637,-0.32132649421691897,0.13113521039485932,0.16614484786987306,0.4324348270893097]},"biases":[-0.581413984298706,-0.4985503852367401,0.030296863988041879,-0.007293129339814186,-0.1434357911348343,-0.13446427881717683,0.31870773434638979,-0.2596362233161926,0.5110616683959961,0.05449367314577103,-0.7082803249359131,-0.32076990604400637,0.2696147859096527,0.7797269225120544,0.05060873553156853,0.009250283241271973,0.2199273556470871,0.23693953454494477,-0.05803710222244263,-0.38577431440353396,0.5517560243606567,-0.159244105219841,0.3313627541065216,0.049696601927280429,-0.24030065536499024,0.439733624458313,0.8617656230926514,-0.2598365843296051,-0.535027027130127,0.11530236154794693,-0.4956275522708893,-0.34969431161880495,-0.353348046541214,-0.020116273313760759,-0.2623872458934784,-0.4908941090106964,-0.32056713104248049,-0.49565866589546206,-0.07490289211273194,0.4553161859512329,-0.29268741607666018,0.0144652733579278,-0.18646177649497987,-0.19048921763896943]},{"neurons":[-0.9746043086051941,-0.9248254299163818,0.6042529344558716,0.9152730107307434,0.9967665076255798,-0.4072283208370209,0.8538573980331421,0.8046202659606934,0.9694551229476929,-0.7515753507614136,-0.4007454514503479,-0.9865086674690247,-0.34119677543640139,-0.8382046818733215,-0.10592937469482422,-0.2465321272611618,-0.9162587523460388,-0.8734254240989685,-0.3853820562362671,-0.9013316035270691,0.9969854354858398,0.897722601890564],"weights":{"rows":22,"cols":44,"data":[0.6095085144042969,-0.059852663427591327,0.6671306490898132,-0.21007966995239259,0.0540391243994236,0.4256843328475952,-0.6214489340782166,-0.1370736062526703,0.33571019768714907,-0.3037097752094269,-0.35683879256248476,-0.056264907121658328,0.22578249871730805,-0.23981326818466187,-0.46169328689575198,-0.013970687985420227,-0.6101832389831543,-0.025924231857061387,-0.63456791639328,-0.29352349042892458,-0.3094694912433624,-0.07584096491336823,-0.37731054425239565,0.34578773379325869,0.07602185010910034,-0.3876981735229492,0.3288224935531616,0.04863814264535904,-0.3239325284957886,0.04548071324825287,-0.23081935942173005,0.01825903356075287,-0.04800094664096832,0.13104639947414399,0.36246153712272646,0.1184854805469513,0.4833412170410156,-0.4274139702320099,-0.13660401105880738,-0.15572555363178254,0.3127096891403198,0.09197568148374558,-0.05704745650291443,-0.1021970584988594,-0.6078307032585144,0.5773041248321533,-0.36537474393844607,-0.6329011917114258,0.5423896908760071,0.42812007665634158,0.28189244866371157,-0.08023061603307724,-0.039545297622680667,0.09492725878953934,0.5110975503921509,-0.5350359082221985,-0.7679603695869446,-0.0929320827126503,0.21170812845230103,-0.6838403940200806,0.09970550984144211,-0.4903247356414795,0.364227294921875,-0.5508731603622437,-0.4755963981151581,0.6152937412261963,0.3259056508541107,0.821002185344696,0.4090055525302887,0.12978869676589967,0.25202032923698428,0.9479904174804688,-0.1167927235364914,0.13937366008758546,-0.3582332730293274,-0.25755757093429568,0.17566171288490296,0.206171914935112,0.6066269874572754,-0.0806029886007309,-0.5863178968429565,0.4204750657081604,0.5989463925361633,0.15354736149311067,-0.19501234591007234,-0.4333343207836151,-0.2939363420009613,0.7440939545631409,0.14824172854423524,0.23873752355575562,-1.0354413986206055,0.4368272125720978,0.46289750933647158,0.5711466073989868,0.07213374972343445,0.231484517455101,-0.7507268190383911,0.24290505051612855,0.1354859620332718,-0.30555710196495058,-0.1346898376941681,-0.263187438249588,0.11176075041294098,-0.3361395597457886,-0.33327242732048037,0.5912275910377502,-0.5600975751876831,0.4873860478401184,0.142867773771286,0.6950085759162903,-0.28557127714157107,0.19260750710964204,-0.4540958106517792,0.0775311142206192,0.1832488477230072,-0.8611717224121094,-0.26523131132125857,0.22064241766929627,0.3740604817867279,0.31959864497184756,0.22778618335723878,-0.1410093605518341,0.19308829307556153,-0.4631780683994293,-0.5646129250526428,0.41238176822662356,0.395207941532135,-0.06869140267372132,0.4439571499824524,0.09294173121452332,0.1969762146472931,0.3862748444080353,0.4976481795310974,-0.44013047218322756,-0.5532980561256409,0.37556275725364687,0.16745580732822419,1.0105769634246827,0.5392565131187439,-0.049799345433712009,0.0722774788737297,0.034986820071935657,0.26039165258407595,0.23449791967868806,0.012924041599035263,-0.22812490165233613,-0.4424232840538025,0.011180546134710312,-0.1842312067747116,-0.35123246908187868,-0.19379931688308717,0.26953446865081789,-0.34505340456962588,0.01522107608616352,-0.3055555522441864,-0.5203230977058411,0.7832263112068176,0.29277345538139346,-0.32383817434310915,-0.03498886153101921,0.09918969124555588,0.38476356863975527,-0.14538106322288514,0.6626203656196594,-0.30113375186920168,-0.02632904052734375,-0.08821287751197815,-0.4441353380680084,-0.19376900792121888,-0.2791282534599304,-0.5410233736038208,-0.4689827561378479,-0.3388326168060303,-0.8107805252075195,0.27710413932800295,-0.18566204607486726,0.40970590710639956,-0.5445624589920044,0.9667285680770874,-0.0035140400286763908,-0.04427376762032509,-0.3782010078430176,-0.4333454370498657,-0.452112078666687,0.12740002572536469,-0.1715145707130432,-0.3610132932662964,0.15273067355155946,-0.24364659190177918,0.11439695954322815,0.043369196355342868,0.3713527023792267,-0.164685919880867,0.09986864030361176,-0.05691821873188019,-0.20876279473304749,-0.26963600516319277,0.08060579001903534,-0.4113003611564636,-0.05658203735947609,-0.06425602734088898,0.3849011957645416,0.35319286584854128,-0.10887164622545243,-0.39438769221305849,-0.09914522618055344,0.16938285529613496,0.9950575232505798,-0.7209481000900269,-0.2070256471633911,-0.19351226091384889,0.17663535475730897,0.2866673767566681,0.14299678802490235,0.398761510848999,-0.037437062710523608,-0.038341958075761798,0.07963059097528458,0.21524786949157716,0.09617693722248078,0.4149783253669739,0.24097014963626862,0.6321089267730713,-0.6800462603569031,-0.39881211519241335,-0.33731818199157717,0.4802502989768982,0.07174976170063019,0.16182872653007508,0.28028133511543276,-0.32257357239723208,-0.29605594277381899,0.1762479543685913,0.06028116121888161,0.0015965783968567849,0.3426172137260437,-0.159065842628479,0.016849949955940248,0.5774694085121155,-0.20756623148918153,0.004665752872824669,0.30703774094581606,-0.05184180662035942,0.15666963160037995,0.0273215901106596,-0.05460932478308678,-0.12694543600082398,0.4225665330886841,-0.6802265048027039,-0.09178324788808823,-0.3659950792789459,-0.44910597801208498,0.11839514970779419,0.058096058666706088,-1.2126483917236329,0.6391316652297974,0.34504440426826479,-0.1422918438911438,0.6263576745986939,0.047527946531772616,0.06125650927424431,-0.09088931977748871,-0.018387645483016969,0.0466945543885231,-0.32374364137649538,-0.7799641489982605,-0.2724602222442627,0.06259053945541382,0.33960333466529848,-0.3714119791984558,-0.04593818634748459,0.2586715817451477,0.3643418550491333,-0.27520081400871279,-0.4388037919998169,-0.14293347299098969,0.24891576170921327,0.7612646818161011,0.2233000099658966,0.2293655425310135,0.47814980149269106,0.5605127215385437,0.3151555061340332,0.40064623951911929,-0.321901798248291,-0.19859595596790315,-0.11838457733392716,-0.0593409463763237,-0.40699902176856997,0.3705604672431946,-0.21542426943778993,-0.2968035340309143,-0.16953781247138978,-0.24933184683322907,-0.019215185195207597,-0.4222494661808014,0.41737061738967898,0.4896205961704254,0.023282315582036973,0.1464458853006363,-0.4839208722114563,-0.17330621182918549,-0.5189080238342285,0.6849823594093323,0.21193552017211915,0.7153857946395874,-0.49636775255203249,0.8489007353782654,0.4960375130176544,0.04293559491634369,-0.13200904428958894,-0.06464782357215882,0.06874300539493561,0.5159158706665039,-0.5129407644271851,0.1443282961845398,-0.5371566414833069,-0.2968308925628662,0.052465248852968219,0.24192653596401215,0.48269206285476687,0.3855637013912201,-0.1301300823688507,0.17664781212806703,-0.2766571342945099,-0.6391975283622742,-0.1824103146791458,0.009026560932397843,0.20266683399677277,0.11776189506053925,-0.22242967784404756,0.22719372808933259,-0.13713836669921876,-0.04520433396100998,0.11241002380847931,0.07198898494243622,0.07517856359481812,0.3959035277366638,0.0015834979712963105,0.08834800124168396,-0.4202587604522705,0.18210135400295258,-0.2793456017971039,-0.16494308412075044,0.449573278427124,-0.5364028811454773,-0.5501441955566406,1.113092303276062,0.03778551518917084,-0.2070125937461853,-0.4325674772262573,0.4091692268848419,0.054004691541194919,0.18275585770606996,0.5663255453109741,0.46654632687568667,-1.0195960998535157,-0.2518916130065918,-0.035907164216041568,-0.21361374855041505,-0.3613816499710083,0.09450038522481919,-0.6782476305961609,0.14721965789794923,-0.3827630579471588,0.17913848161697389,-0.029344946146011354,-0.3660719394683838,0.0698787271976471,-0.10337601602077484,0.41135090589523318,0.7285447120666504,-0.6084311604499817,0.028830379247665407,0.2751609683036804,0.6155385375022888,0.21909886598587037,-0.061932776123285297,-0.45210307836532595,-0.36686891317367556,0.28596803545951846,-0.4377698600292206,0.06937362253665924,-0.3473772406578064,0.012112416326999665,0.14468617737293244,-0.3352249562740326,0.30435165762901308,0.7231436967849731,-0.0430503711104393,-0.6552546620368958,0.21734340488910676,-0.19485507905483247,0.12405279278755188,0.06990319490432739,0.33740943670272829,-0.26558631658554079,0.05594444274902344,0.6748564839363098,0.6196625828742981,-0.28410980105400088,-0.0014057885855436326,-0.2624813914299011,0.4273851811885834,0.29517659544944765,0.1718083918094635,-0.5521312355995178,0.19651943445205689,0.4666473865509033,0.17201733589172364,0.9183409214019775,0.5712567567825317,-0.19308516383171082,0.4640955626964569,-0.5141751170158386,0.2652909755706787,0.4790009558200836,-0.025199411436915399,0.010617099702358246,-0.10323706269264221,-0.45342597365379336,0.8198860883712769,0.4401938319206238,-0.8773645758628845,0.4091758728027344,-0.27961236238479617,0.8077500462532044,0.08164975047111511,0.12297742068767548,0.7827025651931763,0.07314474880695343,-0.20693479478359223,0.3197498321533203,-0.8102059960365295,0.014866595156490803,0.13394948840141297,0.21159318089485169,0.897395133972168,-0.7053071856498718,0.42097342014312746,0.1890823245048523,0.04711056500673294,-0.6281887292861939,-0.0510232150554657,-0.31097447872161868,0.27386873960494997,0.7320036292076111,-0.14890727400779725,-0.6041915416717529,0.6372066140174866,0.5918464064598084,0.2634439170360565,0.44280463457107546,-0.030915528535842897,-0.09602321684360504,0.2710115909576416,-0.2448306679725647,-0.6574625372886658,-0.03270416706800461,0.2384209781885147,-0.7820947170257568,0.05793269723653793,0.5337033271789551,0.7267209887504578,0.3678032457828522,0.5889983773231506,0.4585660398006439,0.11367166042327881,0.7402222752571106,-0.09826448559761048,-0.06944087147712708,0.587515115737915,-0.24619603157043458,0.6338307857513428,-0.2529124319553375,-0.4573647677898407,-0.22547176480293275,-0.20141682028770448,-0.4136597514152527,0.19542358815670014,-0.5560402274131775,0.26571786403656008,0.24433833360671998,-0.0940132588148117,-0.3321346044540405,-0.1705542504787445,-0.5791912078857422,0.2520531415939331,0.307605504989624,0.19869528710842133,-0.35526588559150698,0.0369345098733902,0.3255918323993683,-0.1921321004629135,-0.5835849046707153,0.07884880900382996,0.6762844920158386,-0.4528626799583435,-0.5067847967147827,0.007515781559050083,0.20636166632175446,0.19049395620822907,-0.19085213541984559,-0.6439961791038513,0.07623322308063507,0.07469645142555237,0.29652372002601626,-0.1266697496175766,1.0288387537002564,-0.3822900950908661,0.07167312502861023,-0.18507257103919984,0.35300585627555849,0.5500948429107666,0.1519031673669815,-0.2883695960044861,0.21897129714488984,-0.5514967441558838,-0.0572318360209465,-0.2926035225391388,-1.0721534490585328,0.40489909052848818,-0.5648828744888306,0.2370513528585434,0.05193513259291649,0.004826025106012821,-0.00758093548938632,-0.846287190914154,-0.1209203451871872,0.1866268366575241,-0.08902820944786072,0.37394630908966067,-0.1885901689529419,0.29034435749053957,0.06584522128105164,-0.2542262375354767,-0.15989947319030763,0.1021290048956871,0.09260134398937226,-0.25752317905426028,-0.39279553294181826,-0.20368899405002595,0.4404418468475342,-0.19221733510494233,0.09887205064296723,-0.17217066884040833,-0.30223041772842409,-0.30452871322631838,-0.0989556536078453,-0.38203945755958559,0.15193195641040803,-0.2273482084274292,-0.3401380777359009,0.13719512522220612,0.9749839305877686,-0.49438735842704775,0.29435357451438906,-0.19639141857624055,0.507014274597168,-0.5235435962677002,0.4656427502632141,-0.704116702079773,-0.09630389511585236,0.012275505810976029,-0.1728251725435257,-0.28523319959640505,0.015078609809279442,0.006807634606957436,-0.7092934846878052,-0.12150448560714722,-0.18189449608325959,0.23030270636081696,-0.11000952869653702,-0.2404438704252243,-0.594278872013092,-0.07752019166946411,-0.20675909519195558,-0.8094035387039185,-0.22277230024337769,0.6361555457115173,0.34238994121551516,-0.3969231843948364,-0.031488895416259769,-0.2978200912475586,-0.27540069818496706,-0.4047832489013672,-0.49488428235054018,-0.47481754422187807,0.31192123889923098,0.13184258341789246,0.12220004200935364,-0.3019605278968811,-0.12512363493442536,-0.326042503118515,-0.17513366043567658,0.2894912362098694,-0.607988715171814,-0.39661863446235659,0.3182007074356079,-0.0016132942400872708,0.03126059100031853,-0.039613787084817889,-0.16332393884658814,-0.13519850373268128,0.5593864917755127,-0.1982031911611557,-0.09001825749874115,-0.948062539100647,-0.35282739996910097,0.20616182684898377,-0.33596861362457278,0.3967665731906891,0.035746343433856967,0.14092668890953065,-0.49268388748168948,-0.13525129854679109,-0.06084376946091652,-0.17799383401870728,0.19350546598434449,-0.5846108198165894,0.47693002223968508,0.04640518128871918,0.20730489492416383,0.18632841110229493,-0.16340753436088563,0.562243640422821,-0.3180091679096222,-0.8906845450401306,0.2749829590320587,0.04467609524726868,0.3028694987297058,-0.49816301465034487,0.11772316694259644,0.29707080125808718,0.3929356336593628,-0.16745230555534364,-0.3641524910926819,-0.2110169380903244,0.20050263404846192,-0.06558911502361298,0.7522053122520447,0.10232695937156677,-0.20408116281032563,-0.6337663531303406,0.29358792304992678,0.024543553590774537,-0.4494878649711609,0.061682164669036868,-0.4354293942451477,0.1708274930715561,0.17140905559062959,0.3445602357387543,-0.8010821342468262,0.7202857136726379,-0.648688554763794,0.09105706214904785,0.38258832693099978,-0.5422862768173218,-0.3771067261695862,0.2922561764717102,0.47513359785079958,-0.16015315055847169,0.31991124153137209,-0.7683914303779602,0.6308885812759399,0.856431245803833,0.5183260440826416,-0.3586201071739197,0.4561542570590973,-0.12079542130231857,0.5643169283866882,-0.3027821481227875,0.7881383895874023,-0.09066641330718994,0.4501020908355713,-0.6944718360900879,0.03286798298358917,-0.4887409210205078,-0.33029332756996157,0.29687735438346865,0.40579020977020266,-0.11437280476093292,0.1853378564119339,0.22757141292095185,-0.41109925508499148,0.2437632977962494,-0.4917486011981964,0.6155056953430176,-0.2856103181838989,0.3771122992038727,-0.22976665198802949,-0.06326580792665482,0.5971219539642334,-0.09597819298505783,0.24246537685394288,-0.13373731076717378,0.39302709698677065,0.026773914694786073,-0.47346949577331545,-0.06678055226802826,0.5012091398239136,-0.36437633633613589,-0.07432389259338379,0.15493570268154145,0.669929563999176,-0.4660778343677521,0.23861929774284364,-1.1136457920074463,-0.4591456949710846,-0.8964909911155701,0.11696585267782211,0.05830579251050949,-0.16998007893562318,-0.48686012625694277,-0.24248553812503816,-0.48181846737861636,-0.3289119601249695,-0.12883658707141877,-0.017134487628936769,-0.13235251605510713,-0.6205979585647583,-0.744890570640564,-0.1606278270483017,-0.31736838817596438,0.3353162705898285,-0.06300730258226395,0.33937162160873415,0.5978735685348511,0.2243986874818802,-0.17823711037635804,-0.33821362257003786,0.2051791101694107,-0.2216666042804718,-0.02887347713112831,-0.1469801515340805,0.6813269257545471,-0.26396268606185915,-0.04374369978904724,-0.626629650592804,-0.5510168671607971,-0.06504340469837189,0.667465329170227,0.8615007996559143,-0.5870100855827332,-0.0012914101826027036,0.485676646232605,0.5309575796127319,0.1433354914188385,0.3211684226989746,-0.17422913014888764,-0.22074247896671296,-0.033888079226017,-0.06475232541561127,0.2262820303440094,0.4984695017337799,-0.047521382570266727,-0.19827264547348023,-0.36014410853385928,0.5370326638221741,-0.04869335889816284,-0.44880491495132449,0.12306080758571625,0.057480718940496448,0.41569557785987856,-0.6082473397254944,0.29278454184532168,-0.17099259793758393,-0.20749077200889588,0.2531161606311798,0.1405060887336731,-0.14105594158172608,0.7788034677505493,0.5216668248176575,0.19152499735355378,-0.20967325568199159,0.417910099029541,-0.10629095137119293,-0.49083611369132998,-0.06724898517131806,1.2871370315551758,-0.35622990131378176,-0.34364646673202517,0.34699782729148867,0.3712981641292572,-0.5000849962234497,-0.1926015019416809,0.36820217967033389,0.20609767735004426,0.3936932384967804,-0.4845566749572754,-0.21124547719955445,-0.24596431851387025,-0.16342295706272126,0.27815330028533938,-0.1319023221731186,0.25525936484336855,-0.32963067293167117,-0.9221128225326538,0.4136698246002197,0.24464106559753419,-0.02939514070749283,0.16994483768939973,-0.6147840619087219,0.7981348037719727,-0.09480726718902588,-0.56192946434021,-0.42204326391220095,-0.3972059190273285,0.45630380511283877,0.42361587285995486,-0.35830187797546389,0.020406614989042283,0.36282995343208315,0.19102320075035096,0.02957119047641754,0.005098928231745958,-0.22110596299171449,0.17201870679855348,0.2528465688228607,0.4434531629085541,0.09095379710197449,0.6166194081306458,0.07272475212812424,-0.3767302334308624,-0.10536525398492813,0.3126666247844696,0.17523258924484254,-0.0824262723326683,0.22917386889457704,0.6867591738700867,-0.5958834290504456,0.13074180483818055,-0.3051237463951111,0.41204485297203066,-0.6982901692390442,0.22545595467090608,0.4742692708969116,-0.36500662565231326,-0.3174636960029602,0.04100598767399788,0.4111199975013733,0.27445465326309206,0.0354536771774292,-0.09386749565601349,-0.10522245615720749,-0.4789700508117676,-0.4780958592891693,-0.1420162469148636,-0.47576960921287539,-0.13317278027534486,-0.2619566321372986,-0.1489972174167633,-0.2121467888355255,-0.22174033522605897,0.2723466455936432,-0.6372291445732117,0.013377605006098748,-0.44059014320373537,-0.3624460995197296,0.7463623285293579,0.302141010761261,0.025204939767718316,0.4932544231414795,0.6828204989433289,0.2971465587615967,0.45059096813201907,-0.010219969786703587,-0.5589088201522827,-0.45323461294174197,0.14482469856739045,0.7539375424385071,0.8409743905067444,-0.15066763758659364,0.25920775532722475,-0.09938167035579682,0.5466219186782837,-0.2486460655927658,-0.07911758124828339,-0.3831179440021515,-0.553703248500824,0.14981119334697724,-0.21711058914661408,-0.15867425501346589,-0.13875991106033326,0.41746529936790469,0.3697870969772339,-0.22896867990493775,0.07035817950963974,-0.5267040729522705,0.5002674460411072,-0.9365785121917725,0.39992624521255495,-0.36844363808631899,0.2509903013706207,0.8767731785774231,-0.330061137676239,-0.20662280917167664,0.2803037166595459,0.7962163686752319,-0.6864590048789978,-0.6360720992088318,0.03153480961918831,0.12259554862976074,-0.6236535310745239,0.3973314166069031,0.15748651325702668,-0.15467794239521027,-0.09879904240369797,0.257411390542984,0.5992777347564697,-0.28289204835891726,-0.47046375274658205,-0.10309568047523499,0.11085743457078934,0.5308417677879334,0.04669071361422539,-0.1925973743200302,-0.48746418952941897,-0.400654673576355,0.12788406014442445,-0.3609604239463806,0.4612382650375366,-0.4063343107700348,-0.5128486752510071,0.08177079260349274,-0.3861687183380127,-0.24913936853408814,0.5048549175262451,-0.4237734079360962,-0.36004236340522768,-0.21068455278873444,-0.9197726249694824,0.33526697754859927,-0.22736133635044099,0.0984559953212738,0.1385163515806198,-0.3010384738445282,0.20574718713760377,0.42729735374450686,-0.6608592867851257,-0.04605969786643982,0.17270737886428834,0.24417564272880555,0.3659595847129822,-1.0431618690490723,-0.18271583318710328,0.15268713235855103,0.24505583941936494,0.1185227707028389,0.1271935999393463,-0.4310944676399231,0.32252591848373415,-0.5447659492492676,-0.12918053567409516,0.5734307765960693,0.43818074464797976,0.08891382813453675,-0.11765755712985993,-0.4563378095626831,-0.19205865263938905,0.20682983100414277,0.5551849007606506,0.3969097137451172,-0.018584415316581727,0.2833355665206909,0.29735100269317629,-0.024601727724075319,0.32712772488594057]},"biases":[0.12171870470046997,0.42911478877067568,0.1087622344493866,-0.3240828216075897,0.17024943232536317,-0.02087860181927681,-0.2666807174682617,0.44766148924827578,0.39485785365104678,-0.07050970196723938,-0.2931818962097168,-0.7972829341888428,-0.36702531576156618,0.10784826427698136,0.2797429859638214,0.42845991253852847,0.0186532661318779,-0.3781488835811615,0.19666004180908204,0.2722136974334717,-0.02878962829709053,-0.12345164269208908]},{"neurons":[-0.32523050904273989,-0.8156840801239014,-0.462782621383667,-0.1681271195411682,-0.378966361284256,-0.7920187711715698,0.9943860769271851,0.5842639207839966,0.9983455538749695,-0.3805346190929413,-0.6239030361175537],"weights":{"rows":11,"cols":22,"data":[0.2609179615974426,-0.09029823541641236,-0.14558589458465577,0.034718044102191928,-0.22922833263874055,0.32558247447013857,-0.06273020803928375,0.8329598903656006,0.3584650456905365,0.4898287057876587,0.16297955811023713,0.6216691732406616,-0.2307601124048233,-0.2205372452735901,0.27972766757011416,-0.034326642751693729,0.47783249616622927,-0.2483893632888794,0.13875196874141694,0.47194433212280276,0.1097848117351532,0.5070570707321167,-1.0120586156845093,0.44067031145095827,0.3225855827331543,-0.06626442819833756,-0.16826945543289185,0.003072202205657959,-0.36259663105010989,0.30780029296875,-0.8050646781921387,0.7460789680480957,-0.211009219288826,0.7904027700424194,0.19301442801952363,0.14017900824546815,0.2910584509372711,0.30794286727905276,-0.32495084404945376,0.5738058090209961,0.6416960954666138,-0.18084993958473206,1.0766761302947999,0.17806376516819,0.4010756015777588,0.3911009728908539,0.3194096088409424,0.4961116909980774,-0.27013927698135378,0.3498515486717224,0.49518096446990969,-0.6530338525772095,0.7388333082199097,-0.19909921288490296,0.0691487044095993,-0.3456617593765259,0.4533494710922241,-0.15618233382701875,0.38164982199668887,-0.6264306902885437,0.6020161509513855,0.1388304978609085,-0.16511666774749757,0.5397512912750244,-0.14219006896018983,0.15148960053920747,-0.008250284940004349,0.8070105910301209,-0.19512757658958436,0.23307056725025178,0.12060220539569855,0.13510915637016297,-0.22489605844020844,0.41019806265830996,-0.7849786877632141,-0.18794961273670197,-0.03504882752895355,0.2026814967393875,-0.13576547801494599,-0.19306373596191407,-0.5040549635887146,-0.8336270451545715,-0.5998703837394714,0.10441361367702484,-0.42465558648109438,0.005608635954558849,0.41403844952583315,0.12831316888332368,0.4623139202594757,-0.3207644522190094,-0.4061940908432007,-0.814511775970459,0.010555633343756199,0.7092007398605347,0.028050966560840608,-0.4829656481742859,0.35271403193473818,-0.047214820981025699,0.21905982494354249,-0.2115333080291748,0.28554457426071169,-0.3274272084236145,-0.571982741355896,-0.533329427242279,-0.4298720955848694,-0.44566285610198977,0.6997938752174377,-0.22974705696105958,0.043936580419540408,-0.17902830243110658,-0.5241606831550598,-0.04936419427394867,0.5596954822540283,0.2871705889701843,-0.4805925190448761,0.5117132067680359,-0.4072328209877014,0.22291602194309236,0.041194967925548556,0.01816309057176113,0.25492995977401736,-0.1944558322429657,0.4858868718147278,0.41323262453079226,0.11698542535305023,0.5823981761932373,0.2696627378463745,0.4422874450683594,0.20497550070285798,0.16725672781467439,0.11878445744514466,0.07936745882034302,-0.34726768732070925,0.4109867513179779,-0.45350438356399538,0.5223258137702942,0.15564016997814179,-0.41156521439552309,0.5514165163040161,0.82188880443573,0.8807804584503174,0.5406761169433594,-0.4765697717666626,-1.0066579580307007,0.4620654582977295,-0.3413791358470917,-0.39833420515060427,-0.0647045448422432,0.24372424185276032,0.3003152012825012,0.23491965234279633,-0.601479709148407,0.16013407707214356,-0.23408424854278565,-0.284323513507843,0.558992862701416,0.4407333731651306,-0.3299404978752136,0.1644686609506607,-0.08165886253118515,-0.03516769036650658,0.22632047533988954,-0.5569939017295837,-0.12945306301116944,0.00624528992921114,0.08155447989702225,0.328884482383728,-0.7083522081375122,0.5640707015991211,-0.19902049005031587,-0.7640011310577393,0.14845825731754304,-0.6812092661857605,-0.012002607807517052,0.1406969577074051,-0.029496602714061738,-0.26766058802604678,0.6503819227218628,0.5490162372589111,0.4089481234550476,-0.02525731734931469,-0.043314576148986819,0.48838910460472109,0.07468847930431366,0.72568279504776,-0.17448335886001588,0.19393236935138703,-0.2363450825214386,0.15126927196979524,-0.3271373510360718,-0.859084963798523,-0.15871290862560273,0.43501371145248415,0.018011219799518586,-0.09713497757911682,-0.6652018427848816,0.10745389759540558,0.5936533212661743,0.3593757450580597,-0.15213486552238465,0.17759549617767335,0.538037896156311,-0.383558064699173,-0.18916982412338258,0.04133591055870056,0.2384137213230133,-0.595368504524231,0.8120591640472412,-0.2607722580432892,0.03407496213912964,0.2831253409385681,0.7704653143882752,0.5695119500160217,-0.0349959135055542,0.2514986991882324,-0.8776448369026184,-0.4303683042526245,0.07701234519481659,0.39490845799446108,0.40502190589904787,0.038026005029678348,0.5890290141105652,-0.07397693395614624,0.17387540638446809,-0.4493865966796875,-0.26856371760368349,-0.40570518374443056,0.08136725425720215,-0.5264490246772766,-0.5031935572624207,0.14349839091300965,-0.21239659190177918,0.6391043066978455,-0.5343241691589356,-0.16560278832912446,0.31607019901275637,0.39839184284210207,-0.037072766572237018,0.06699958443641663,0.13757136464118958,-0.026136042550206186,0.6360297203063965]},"biases":[0.2257809340953827,-0.24501149356365205,-0.048914164304733279,-0.5365021824836731,-0.0820668488740921,-0.15295618772506715,-0.4145582318305969,-0.3075050413608551,0.5077487826347351,-0.19189199805259705,0.10377682745456696]}],"seed":321403468}