{"layers":[{"neurons":[-0.9827666282653809,0.7045098543167114,0.8040451407432556,-0.925208568572998,0.9997711181640625,-0.9945772886276245,-0.6105318665504456,0.07795100659132004,-0.9998043179512024,-0.9565833806991577,-0.9995344877243042,-0.9920197129249573,0.8198441863059998,-0.99263596534729,0.9997266530990601,0.1271856278181076,-0.7891397476196289,0.76228928565979,-0.9804401397705078,-0.9790859818458557,0.9931385517120361,-0.6274974942207336,-0.9908901453018189,0.9979280233383179,-0.4999224543571472,0.9562038779258728,0.9689757823944092,0.9834315180778503,-0.9918367862701416,-0.7719787359237671,-0.9957602620124817,-0.8629103899002075,-0.8709128499031067,-0.9875891208648682,0.9036682844161987,0.08681651949882508,0.8717095255851746,0.9548083543777466,-0.9990549683570862,0.9932817816734314,0.9988884925842285,0.7728140354156494,0.44868794083595278,-0.639242947101593],"weights":{"rows":44,"cols":22,"data":[0.954461395740509,-1.1076642274856568,0.7969453930854797,0.6095479726791382,0.6106184124946594,-1.2089027166366578,0.6397665143013,0.8523951172828674,-0.10047034919261933,0.17385411262512208,0.1470446139574051,-0.034066200256347659,0.23524869978427888,0.9379557967185974,0.2161933332681656,0.236909419298172,-1.0772141218185425,0.805838942527771,0.8335964679718018,0.561242938041687,-0.2741962671279907,-0.17147541046142579,0.9172214269638062,0.2525637149810791,0.6761029958724976,-1.7824639081954957,0.8602904677391052,-0.49963924288749697,0.7051073908805847,1.5228923559188843,-1.385452389717102,0.1205887496471405,-0.86576247215271,-0.5632323026657105,0.9337452054023743,-0.9140370488166809,-0.521785318851471,-0.16387370228767396,0.043476711958646777,1.3060023784637452,-0.3523978292942047,-0.16796639561653138,1.1577242612838746,0.41320404410362246,-0.1641596406698227,-0.5831587314605713,-1.5714054107666016,0.31875181198120119,-0.8985055685043335,-0.3705885708332062,0.2900032699108124,-0.9387421607971191,-1.252305507659912,0.6299557089805603,-1.63313627243042,-0.3033739924430847,-1.8489553928375245,-0.17357398569583894,-0.5355483889579773,0.098459891974926,-0.8758997917175293,0.9484170079231262,-0.2776481807231903,-0.18406780064105988,0.13102848827838899,-0.2876836359500885,-0.005918161943554878,-0.09146276116371155,0.3204319179058075,-0.054070424288511279,0.5466602444648743,1.719931721687317,1.689010739326477,0.9740692377090454,0.49174681305885317,-0.6625677347183228,-1.5125921964645386,0.246040940284729,1.1905518770217896,-0.423583984375,0.2799958884716034,0.7233668565750122,1.5781824588775635,0.19833290576934815,-0.26320159435272219,0.6089559197425842,0.15917426347732545,-1.1902601718902588,1.07548987865448,-0.2654200494289398,-0.14589591324329377,0.9404774308204651,-0.2821406126022339,1.331976294517517,-1.7460694313049317,-0.25384342670440676,0.19797152280807496,0.0842352882027626,-0.2552478611469269,-1.258971929550171,-0.8738900423049927,0.7156391143798828,0.15909443795681,0.5642669200897217,0.18424470722675324,-0.7361407279968262,0.34400004148483279,-0.9799695014953613,-0.397159218788147,-0.041283439844846728,0.04512857645750046,0.7974274754524231,-0.5498791337013245,0.2695715129375458,0.7407275438308716,-2.043527364730835,0.08456891775131226,0.5489034056663513,0.3812238574028015,-0.7791511416435242,-0.6077784299850464,-0.12717531621456147,0.9185028672218323,-1.7550851106643677,-0.365392804145813,1.078110694885254,-0.8791621327400208,-0.1685948222875595,-0.16395051777362824,-0.7138614654541016,-1.390997052192688,-0.7148142457008362,1.1691464185714722,0.8917093873023987,0.6947063207626343,-0.006733227521181107,-0.033014990389347079,-0.672156810760498,-0.1599852442741394,-0.015859805047512056,-0.011450560763478279,0.5035202503204346,0.25817492604255679,0.17822282016277314,-0.3319578468799591,0.16422338783740998,-0.5412147045135498,-0.7850943803787231,-0.005985824391245842,-0.11410650610923767,0.2067817747592926,0.9851967692375183,0.7247424721717835,-0.6158847808837891,1.061907410621643,-0.405452698469162,0.8086153864860535,1.3399658203125,-0.8584060072898865,0.054629549384117129,0.5348289012908936,0.09121929109096527,-0.5389696359634399,-0.49495288729667666,1.6551628112792969,0.48349830508232119,-0.4065448045730591,0.47360625863075259,-0.019344301894307138,0.8059966564178467,-0.16330866515636445,-0.17433620989322663,-0.2404637187719345,-1.2829806804656983,-0.4244387447834015,-0.630916953086853,-0.09252811968326569,0.13675355911254884,-0.7835609316825867,0.8285173773765564,-1.0637578964233399,-0.5750862956047058,0.36779817938804629,0.7797885537147522,0.8929424285888672,-0.1091047152876854,-1.074033498764038,0.9036429524421692,-0.7495365142822266,-0.37691497802734377,-0.16654840111732484,-0.2765789031982422,-1.5823969841003419,0.2739737629890442,-0.019281500950455667,0.054080478847026828,0.5418165922164917,-1.2553939819335938,-0.8821412324905396,1.3640499114990235,-0.3090246319770813,-0.019830936565995218,0.65421462059021,-1.5542043447494507,0.07515612989664078,1.0184674263000489,-0.6253405213356018,0.11321203410625458,0.035636045038700107,0.8387644290924072,1.2071616649627686,-0.1126825213432312,-0.24357523024082185,1.067099928855896,0.1524086892604828,0.3379594087600708,0.07471662014722824,-2.951794147491455,0.5976436138153076,-0.380916565656662,0.7037746906280518,0.26879921555519106,-0.7558526992797852,0.6249224543571472,1.1671912670135499,-0.1608022004365921,-0.3331100642681122,-0.5814205408096314,2.1901121139526369,-0.007199014537036419,0.028620706871151925,-0.05383924022316933,1.2099063396453858,-1.179330825805664,-0.7133991122245789,0.7803577184677124,0.48284274339675906,0.23024193942546845,-1.040306806564331,-1.8507579565048218,-0.6265913248062134,0.44396892189979555,0.24518853425979615,0.5996397733688355,0.13056321442127229,1.5846976041793824,-0.7898064255714417,-0.7314201593399048,0.2574666142463684,0.04766362905502319,0.46822118759155276,1.1512210369110108,-0.5222383737564087,1.6338942050933838,-0.10009467601776123,-1.109148383140564,-0.5859330296516419,0.4286746382713318,-0.3611395061016083,-0.024989236146211625,0.11564698815345764,0.18404871225357057,-0.7330620288848877,0.4211190342903137,0.1612807810306549,0.8424593210220337,0.022200152277946473,-1.0824832916259766,-1.021640419960022,-0.9782221913337708,-0.9146119952201843,0.23549696803092957,0.7954971194267273,0.4993448853492737,0.40631431341171267,0.3383884131908417,-0.45459431409835818,0.38719236850738528,-0.058664217591285709,0.779733419418335,-0.12383352965116501,-0.25568222999572756,-1.117304801940918,0.19100746512413026,0.9395032525062561,-0.8862612247467041,0.17481517791748048,-0.46830588579177859,-0.1307993233203888,0.26604562997817995,0.5045943260192871,-0.6999813914299011,-1.1052395105361939,-1.152703881263733,-0.08678784221410752,1.722355842590332,0.33197253942489626,0.43468528985977175,0.9648688435554504,0.23579932749271394,0.11489725857973099,-1.7416157722473145,-0.6412357687950134,1.040152907371521,-0.6505070328712463,0.34634509682655337,0.29920515418052676,0.079847052693367,0.17840813100337983,-0.27616122364997866,-0.062304332852363589,-0.9867687225341797,1.0620797872543336,-1.1365362405776978,-0.6596100926399231,-0.19231447577476502,-0.4499797523021698,-0.7157192230224609,-1.4302787780761719,0.7251076698303223,-0.43961185216903689,1.2910199165344239,-2.0210866928100588,0.2063450664281845,-0.23779550194740296,-0.12208618968725205,0.31882742047309878,-0.9306480884552002,-1.7497414350509644,-0.3928707540035248,-1.8809292316436768,0.26397019624710085,-0.45823758840560915,-1.0828531980514527,1.5777031183242798,-0.05060224607586861,-0.41371142864227297,-0.48823028802871706,-0.7037058472633362,0.21710903942584992,-0.7096847295761108,-0.4645625352859497,0.929851233959198,1.1950966119766236,0.6474667191505432,-0.5935757160186768,1.1051607131958008,-0.6141213774681091,0.24670231342315675,2.450345039367676,-0.32306990027427676,0.5877439975738525,-0.4072723984718323,1.586794376373291,0.31319698691368105,0.27646952867507937,0.960820198059082,0.17486882209777833,0.9924776554107666,0.7739469408988953,0.8829024434089661,-1.0307347774505616,-1.4223049879074097,-0.5385265350341797,1.5376296043395997,0.5972397327423096,1.1060709953308106,0.5155065655708313,-0.634963870048523,0.12933580577373506,1.1752440929412842,-1.3855609893798829,0.4326135218143463,-0.5433407425880432,0.07289673388004303,-0.054242685437202457,1.0460683107376099,1.540720820426941,0.3782874345779419,-0.3181036710739136,1.1597225666046143,-0.9695308208465576,-1.2999536991119385,0.03998290002346039,-0.37769636511802676,-1.168501377105713,-0.429498553276062,1.4517487287521363,-0.22510577738285066,1.0417530536651612,-0.48569244146347048,1.2303509712219239,-0.1421937793493271,1.8336913585662842,1.143581509590149,-0.4881020188331604,-1.774902105331421,-0.7435393929481506,0.6279332637786865,0.045391105115413669,0.4090940058231354,0.12760983407497407,0.5271685123443604,-0.014037705026566983,-0.756560206413269,-0.5449560880661011,0.4974956810474396,1.258425235748291,0.8163151741027832,-0.5924635529518127,0.18303373456001283,0.6183129549026489,0.517454206943512,0.4253997206687927,0.2322487086057663,0.36304396390914919,0.07678920775651932,0.3882254660129547,0.9952082633972168,0.7314670085906982,0.8680679202079773,-0.9177742004394531,-1.1641491651535035,-0.5303333401679993,1.6079926490783692,0.35325556993484499,-0.6696080565452576,-0.20788826048374177,-0.18561887741088868,1.933932900428772,0.7519060969352722,0.8249737024307251,0.915629506111145,-0.02697164937853813,-0.07114941626787186,2.0434460639953615,0.11652744561433792,1.1329249143600464,-0.5007766485214233,-0.6859574913978577,-0.29703423380851748,0.4569757580757141,1.322312355041504,0.40086424350738528,0.6894547343254089,-0.7916414141654968,0.8774315714836121,-1.9984230995178223,-0.9770416617393494,-1.5429763793945313,-0.4016447067260742,-0.6343951225280762,-0.9407374858856201,0.41155391931533816,0.7042400240898132,-1.1578054428100587,0.1871916949748993,-0.24047736823558808,-0.024283597245812417,0.8528057336807251,0.22353065013885499,0.8055273294448853,0.683892011642456,-0.6944260597229004,0.5356185436248779,0.42658719420433047,0.9560642242431641,-0.5051025152206421,-0.530029296875,-0.08643931895494461,0.3079510033130646,0.1921113282442093,0.38160398602485659,0.5551196932792664,-0.9552794098854065,0.6955630779266357,-0.6850371360778809,0.14558279514312745,0.9517690539360046,2.313241958618164,1.0348776578903199,-0.36767035722732546,0.4414360523223877,0.25811275839805605,-0.2947709560394287,-1.6696016788482667,-0.9753485918045044,0.25871551036834719,0.21241098642349244,-0.718605637550354,-0.5791118144989014,0.07376709580421448,2.057828426361084,0.35000699758529665,1.1505323648452759,0.14011189341545106,0.22088490426540376,0.1850317120552063,-2.181039333343506,-0.16693516075611115,-0.9238828420639038,0.0414954349398613,0.5833665728569031,-0.3752135634422302,0.31645023822784426,1.2857261896133423,-1.1094229221343995,0.49714165925979617,0.9575749039649963,0.4515630006790161,-0.5926385521888733,0.044338781386613849,-0.8048839569091797,0.19266635179519654,0.36063486337661745,-0.38289326429367068,0.3367658853530884,-1.2748942375183106,0.4098187983036041,1.0796804428100587,-1.4237165451049805,0.185008704662323,0.2011798471212387,-0.8308709263801575,-0.5048192739486694,-0.05484000965952873,-0.954544723033905,-1.2578421831130982,0.31410765647888186,-1.0929992198944092,0.24294821918010713,0.0008557365508750081,-1.1540108919143677,0.5778859257698059,0.8297916650772095,0.7958946824073792,-0.7368445992469788,-0.7795252203941345,0.4954673945903778,-0.31786611676216128,1.1708638668060303,-1.0818355083465577,0.817057728767395,-0.4242382049560547,0.1501287817955017,-0.8817701935768127,-1.1304632425308228,-1.000554084777832,-0.4874095022678375,-0.4124557077884674,-1.6511121988296509,0.27935609221458437,0.3141806721687317,-0.929980456829071,-0.5225235819816589,-0.05755183473229408,-1.8420928716659547,-0.31229230761528017,0.28120118379592898,0.10242349654436112,-0.5812589526176453,1.0394952297210694,0.5078160166740418,-0.7489064931869507,0.9976364374160767,-1.5079697370529175,-0.6238628029823303,0.7376471161842346,-0.13119633495807649,-1.3519636392593384,0.19622313976287843,-0.6730998754501343,1.0984089374542237,-0.6645705103874207,1.4148980379104615,2.1819000244140627,-0.6757055521011353,0.21692608296871186,0.4213514029979706,-0.27617353200912478,0.5436499714851379,0.43227869272232058,-1.1340640783309937,-0.4212198257446289,0.6072806119918823,1.480009913444519,0.10385554283857346,0.7712448835372925,0.9503833651542664,-0.31826984882354739,1.8806400299072266,0.3756556808948517,-1.0879175662994385,0.2338072955608368,-0.7289036512374878,-0.7024135589599609,-0.1904395967721939,-0.9027403593063355,0.24727575480937959,-0.3513237237930298,-1.7537401914596558,0.04518686980009079,0.79344642162323,-1.5575062036514283,-0.30006420612335207,0.05160078406333923,-0.803796648979187,0.028341248631477357,0.09072564542293549,-0.486981064081192,0.8936782479286194,0.19569531083106996,-0.07980795204639435,-0.05016053095459938,-0.7767329216003418,-0.5465311408042908,0.6039780974388123,-0.36914655566215517,-0.5780994296073914,0.6846497058868408,-0.7255387902259827,0.07857231795787811,-0.7294894456863403,-0.3513072431087494,1.2933553457260132,-0.8543369174003601,0.2650786340236664,-0.18715226650238038,0.5305933952331543,-0.8573240637779236,0.3132764399051666,0.08991807699203491,-0.5430641770362854,-0.11317215859889984,-0.18120652437210084,0.03042946197092533,-0.35554876923561098,-0.28081539273262026,-0.24845343828201295,0.78033447265625,-0.8491675853729248,0.2025078982114792,0.6733618974685669,-0.7922236919403076,-0.22116246819496156,-0.1965053677558899,-0.594351053237915,-0.2053355723619461,-0.5134645700454712,-0.2976393699645996,0.7023342251777649,0.2931526005268097,0.16167336702346803,1.1770477294921876,-0.37640711665153506,-0.06920092552900315,-0.0232686847448349,-0.9371845126152039,0.4184771776199341,-0.19149771332740785,-0.40653905272483828,0.206638365983963,0.03598269075155258,0.43009820580482485,1.2237039804458619,0.34420377016067507,0.24694475531578065,-0.38947683572769167,1.9861559867858887,-0.11225215345621109,-0.7567004561424255,-0.943141520023346,-0.06098204478621483,-1.387658953666687,-0.27450135350227358,-0.32402458786964419,-0.17106755077838899,-0.35293668508529665,-0.2452947348356247,0.40478184819221499,-0.045837946236133578,-0.1726568043231964,-0.4918835163116455,0.7405980825424194,-0.1603446751832962,-0.8249529600143433,0.9580857753753662,-0.07473444938659668,-0.8586150407791138,0.04134848341345787,0.47477054595947268,0.5343082547187805,1.1090061664581299,-0.8251775503158569,-0.3274003863334656,0.6298439502716065,-0.10630369931459427,1.773531436920166,0.03321753069758415,0.22966042160987855,-0.3572402894496918,0.8394659161567688,0.3220881521701813,-0.4717850983142853,-0.6113321781158447,-0.9756016731262207,0.5706513524055481,0.42158225178718569,-0.06133153289556503,-0.862916886806488,1.0980231761932374,-0.3996909558773041,0.4851154685020447,-0.6999451518058777,-0.49830079078674319,-0.10301344841718674,-0.07339637726545334,-0.014593127183616162,0.4376539885997772,-0.23653008043766023,1.7430295944213868,1.248079776763916,0.5775588750839233,0.5010754466056824,0.016522185876965524,-1.3633992671966553,-0.020162327215075494,0.40974879264831545,-0.3927106261253357,1.1144921779632569,-0.46587279438972475,0.4046812355518341,-1.1026315689086915,1.3133007287979127,0.5174118876457214,0.596099853515625,0.40784505009651186,0.1970655620098114,-0.8927040100097656,0.830843448638916,-1.005767583847046,0.36256471276283266,0.3391827940940857,0.7856402397155762,0.850437581539154,0.39868080615997317,-1.1747236251831055,-1.5626975297927857,-0.38229674100875857,-0.10452549159526825,0.8146621584892273,-0.5657534003257752,-0.062268566340208057,0.7059523463249207,0.6248223781585693,0.2530500292778015,0.11892041563987732,0.6719499230384827,-0.9973606467247009,0.47931742668151858,-1.2072575092315674,-0.49679476022720339,-0.38968130946159365,-0.4876619875431061,-0.16511276364326478,-0.0785561203956604,-0.18376290798187257,0.5519561171531677,1.0128861665725709,-0.39297857880592348,-0.4308059811592102,-0.5847916603088379,0.617343008518219,0.14465197920799256,-0.43222859501838686,0.02118789590895176,-0.8680603504180908,-0.1712479144334793,-0.9448695778846741,-0.7482339143753052,0.11206966638565064,0.18987403810024262,1.215023159980774,1.1561319828033448,0.48760509490966799,0.6338697075843811,0.25528684258461,0.10717623680830002,-1.0836918354034424,0.6769226789474487,1.1605945825576783,-0.9310773611068726,-0.08228373527526856,-0.25602319836616518,-0.8265507817268372,-0.3905032277107239,-0.32673290371894839,0.8729528784751892,0.0972936600446701,-0.7942271828651428,-0.31317242980003359,-3.1774892807006838,0.4097956418991089,-1.157436490058899,0.3702232837677002,0.4523029327392578,0.4345417022705078,0.21959072351455689,0.18615397810935975,0.5823366641998291,-0.5940259695053101,0.3748714029788971,0.2577466368675232,0.3858966827392578,0.20569206774234773,-1.7348551750183106,-0.03052791766822338,-0.012479851022362709,-0.4636012613773346,0.8465827107429504,0.22521087527275086,-0.02646646648645401,0.22021885216236115,0.1473398059606552,-1.0734256505966187,0.01804589480161667,-0.8064843416213989,-0.5099188089370728,-1.6476147174835206,0.2502444088459015,0.7486346364021301,-0.16115787625312806,-0.10940267145633698,1.0079071521759034,-0.26763132214546206,0.23423215746879579,-0.7868414521217346,-0.5164487361907959,-0.903521716594696,0.35650014877319338,0.07574488967657089,-0.22209301590919496,1.0958459377288819,-0.42423924803733828,0.6593315601348877,-0.31356796622276308,-0.23479017615318299,1.5107754468917847,0.5012035965919495,0.876767635345459,1.7635599374771119,-0.11057791113853455,-0.40472090244293215,0.5934025645256043,-0.5951288938522339,0.9574174880981445,0.3741963505744934,0.7189112901687622,0.24965138733386994,0.6732257604598999,0.9678325057029724,-0.10811478644609451,-0.25817543268203738,-0.024515345692634584,-0.29531437158584597,0.11357473582029343,-0.8079332113265991,-0.7429276704788208,0.6010292768478394,-0.27662980556488039,-0.9100143909454346,0.10075194388628006,0.14460676908493043,0.26838359236717226,-0.8049525618553162,-0.14406731724739076,-0.010986916720867157,-0.34477531909942629,-0.48759162425994875,0.8690752387046814,-0.6030030846595764,-0.31133195757865908,0.8560985326766968,-0.33056896924972536,0.16053733229637147,-0.08868294954299927,-0.7324653267860413,-0.7779218554496765,-0.22841070592403413,-1.0107982158660889,1.096917986869812,-0.7481693625450134,0.6643900275230408,1.4248796701431275,-0.6663557291030884,-0.6051914095878601,0.391945481300354,-0.05100485682487488,0.8312799334526062,-1.9752978086471558,1.8816486597061158,0.6086490154266357,0.6228828430175781,0.6137697696685791,-0.14682872593402863,0.7074641585350037,0.786800742149353,0.15016838908195496,-0.719874918460846,-0.7311967611312866,-0.8019328117370606,0.5271446704864502,0.2693777084350586,0.8316465616226196,-0.3023889660835266,-0.3139486610889435,0.3451332747936249,0.40308961272239687,-0.19034157693386079,0.10373765975236893,0.014345817267894745,0.6020892262458801,-1.090506911277771,-0.8137962222099304,-0.07501529157161713,0.3127780556678772,-1.0661704540252686,1.0389225482940674,-0.32040926814079287,-0.1461746245622635,1.1940648555755616,0.48370012640953066,-0.08163091540336609,-0.9808083772659302,-1.576846718788147,-0.43333899974823,-0.3539995551109314,0.5434955358505249,-0.963264524936676,-0.24324320256710053,-1.2286826372146607,-1.3604063987731934,-0.06390313804149628,-0.7258569598197937,-0.14192527532577516,-0.06744936108589173,1.3396341800689698,-0.6540084481239319,0.03343931585550308,-1.1058992147445679,0.551020622253418,-1.0597209930419922,0.9141339063644409,1.2199112176895142,-1.2149075269699097,-0.5654623508453369,1.0651495456695557,0.7784783244132996,0.0021935617551207544,0.7700501680374146,0.1371249407529831,-0.6858150959014893,-1.3274492025375367,-0.1932363063097,1.2795113325119019,0.876883327960968,-0.17100189626216889,0.9172797799110413]},"biases":[-0.336910218000412,-0.024162258952856065,-0.4038045406341553,-0.5050368905067444,0.07552556693553925,0.5084166526794434,-0.7783299088478088,0.3640967905521393,-1.5780527591705323,-0.4112568795681,-0.6995199918746948,-0.28952014446258547,1.3114765882492066,-0.3662972152233124,-0.009101266041398049,-1.3746784925460816,0.5723711252212524,0.5824025869369507,-1.2992329597473145,0.3984495997428894,-0.8105204701423645,-1.3661190271377564,0.7647032737731934,1.5520919561386109,0.24979935586452485,1.3268272876739503,0.38928109407424929,-0.4892597198486328,-0.2096450924873352,-0.6949127912521362,-1.0339261293411255,-0.6715162396430969,0.1297769546508789,-1.7953147888183594,-0.23295529186725617,-1.1518359184265137,0.31866389513015749,-0.4491043984889984,0.29649579524993899,-0.21057003736495973,0.5326213240623474,1.3373072147369385,-0.15827377140522004,0.07162871211767197]},{"neurons":[0.9962959289550781,-0.8187586665153503,0.9999986290931702,0.99616938829422,0.8523901700973511,-0.9995764493942261,1.0,-1.0,0.9998947978019714,0.9999091029167175,-0.9738302230834961,0.978071391582489,-0.9991553425788879,-0.8481253385543823,-1.0,-0.9999998211860657,0.9999998807907105,0.9999987483024597,1.0,-1.0,0.8619465827941895,-0.9999996423721314],"weights":{"rows":22,"cols":44,"data":[0.35092270374298098,0.290194034576416,0.021878942847251893,0.3757287859916687,-0.8854715824127197,1.1632423400878907,1.449397325515747,-1.1021429300308228,0.7021783590316773,-0.6386091709136963,-0.5256900191307068,0.8011311888694763,0.42390167713165285,-1.0546841621398926,0.7099977135658264,-0.7709717154502869,-0.5662111043930054,0.1323067843914032,-0.9242154359817505,-1.9498668909072877,-0.9088871479034424,0.15364328026771546,0.1461590826511383,-0.6636590957641602,-0.5491256713867188,0.9291151165962219,1.0600804090499879,-0.8396956324577332,0.27183768153190615,-0.2919939458370209,-1.723037838935852,-1.6084610223770142,-0.9500343203544617,0.07085981965065003,-1.1707991361618043,0.1806902140378952,-0.1392689347267151,-1.0662345886230469,-0.16430172324180604,-0.12281163036823273,-0.7262534499168396,0.2735770344734192,0.6619668006896973,-0.047798704355955127,0.5722050070762634,0.33307480812072756,0.7081823348999023,0.7979727387428284,0.759160041809082,0.14507177472114564,1.2196828126907349,-0.7672085762023926,-1.1481012105941773,0.39354705810546877,1.32938814163208,-1.1481269598007203,0.04947049915790558,0.6413350105285645,-0.6504526138305664,-1.4113808870315552,0.05379822850227356,1.1774288415908814,-0.3997289836406708,-0.612427830696106,-0.6221287250518799,0.7739052772521973,1.7303144931793213,-0.16632971167564393,-0.15325438976287843,-0.08725143224000931,0.5870141386985779,2.3358335494995119,2.488579750061035,2.089367389678955,-0.34531283378601076,-2.2340667247772219,-0.4735144376754761,-0.8382503390312195,-0.029641062021255494,-1.687269926071167,0.48818546533584597,0.013021334074437619,-0.19345523416996003,-0.8404762744903565,0.9916090965270996,0.22314457595348359,0.028784748166799547,1.176461935043335,0.29489457607269289,0.17075522243976594,1.3027822971343995,-1.6684776544570923,2.173680067062378,-0.01610257662832737,0.5675414204597473,-1.3699480295181275,-0.6304312944412231,-0.7421725392341614,-0.6812502145767212,-0.28732848167419436,-1.165013313293457,0.2769133150577545,0.36591002345085146,0.4329668879508972,-0.9913683533668518,0.8251034021377564,0.01881035789847374,0.7661874294281006,-0.12393931299448013,0.3546619117259979,-1.544407606124878,-0.4383736848831177,-0.6105543971061707,0.7889351844787598,-0.22843535244464875,0.7435846328735352,-0.24978886544704438,0.0024675349704921247,-0.06911936402320862,-0.32761165499687197,0.738789975643158,1.1000498533248902,-0.153445765376091,-0.3133607804775238,0.9453960657119751,-0.5962978005409241,-0.2800641655921936,-0.2638223469257355,0.7243624329566956,0.16282403469085694,-0.6257067918777466,1.3527305126190186,0.2775057554244995,0.8619023561477661,-0.9403246641159058,0.9467754364013672,0.40578344464302065,-0.38276228308677676,-0.6341773867607117,-0.3233270049095154,0.4411785900592804,-1.5031660795211793,-0.0747850239276886,-0.42817363142967226,-0.8032837510108948,0.7739920616149902,0.32359108328819277,0.7863551378250122,-0.46212926506996157,0.6146290302276611,0.2178187370300293,-0.005395091604441404,-0.606208324432373,-0.31606951355934145,0.5943942666053772,0.49652984738349917,-0.07840777188539505,0.48431509733200076,-0.19603872299194337,0.0051826718263328079,-0.7435621023178101,0.9907915592193604,-0.5784888863563538,0.4936924874782562,-0.8514047861099243,-0.8970527052879334,-0.13117727637290955,-0.6285170912742615,0.4843027591705322,-1.1641886234283448,0.3790975511074066,-0.7517414689064026,0.8155210614204407,0.7896878719329834,0.2430722564458847,-0.14597883820533753,-0.7664294242858887,-0.045196592807769778,1.3043855428695679,0.5740869045257568,0.2676440179347992,-0.8831605911254883,0.25036829710006716,-0.8510434031486511,0.6098312735557556,-1.6524686813354493,0.3209189176559448,1.3084194660186768,0.8830094337463379,-0.5674799680709839,-0.32439523935317995,-0.6551895141601563,0.13745634257793427,1.2020328044891358,0.7879613637924194,0.13339748978614808,0.4722486436367035,0.19342917203903199,0.39927875995635989,-0.2019912153482437,0.41977083683013918,-0.4141474962234497,-0.6019730567932129,0.48045527935028078,-0.32767075300216677,-0.6209701895713806,0.1376345008611679,-0.14560826122760774,0.025169970467686654,-0.0005821938393637538,-0.24868892133235932,0.4109800159931183,-0.9477754831314087,0.030737604945898057,-0.7399725914001465,0.19517116248607636,-0.5568664073944092,0.22798693180084229,0.717005729675293,0.5448819398880005,-0.4709354341030121,0.12831571698188783,-0.19828183948993684,-1.4874759912490845,-0.8665683269500732,-0.006767336744815111,-0.8990231156349182,0.12440420687198639,-0.09262417256832123,0.9509382247924805,1.4033349752426148,0.7094070911407471,-0.3316534459590912,0.6846731305122376,-0.2851226031780243,-0.5705565214157105,0.9948405027389526,0.8544754385948181,0.19694460928440095,-1.5996935367584229,-2.2090046405792238,-0.5632777214050293,0.33633238077163699,-0.030142376199364663,0.5517216920852661,1.1607669591903687,-0.895583987236023,1.2069225311279297,-0.5654946565628052,-0.3113557696342468,0.9512061476707459,0.08423095941543579,-0.6097605228424072,1.0388563871383668,-0.24941661953926087,0.7559996247291565,-0.46867892146110537,-0.21641305088996888,0.7436515092849731,0.18789003789424897,0.2898637056350708,0.14183171093463899,0.7836487889289856,-0.8765202760696411,1.3858946561813355,0.33222728967666628,-0.31594714522361758,-0.21537823975086213,-0.5222135782241821,-1.0097594261169434,-0.6992143392562866,-0.2736746072769165,-0.2188039869070053,-0.3610369861125946,-0.8854114413261414,-0.6823601722717285,0.25501397252082827,0.2112458050251007,1.8035964965820313,-0.4947942793369293,-0.7715615630149841,-0.2146294116973877,-1.1845252513885499,-0.5217666029930115,0.5278699398040772,-0.8559839725494385,-1.7629584074020386,1.637693166732788,0.02206803672015667,0.1306992918252945,-0.4584191143512726,-0.7664671540260315,-0.9445486068725586,-0.3250172734260559,-0.8422728180885315,0.3372076153755188,0.9624617099761963,0.6802617907524109,-0.049111563712358478,0.026735426858067514,-0.48498162627220156,0.65704745054245,-1.0119733810424805,0.10730412602424622,0.1556445211172104,0.32110047340393069,-0.7523128390312195,-0.4712413251399994,1.4427040815353394,-0.5763315558433533,-0.1844502091407776,0.375250905752182,-1.118312954902649,0.4819612503051758,-0.5424613952636719,-0.23960267007350923,-0.03277704119682312,0.7497667670249939,0.8214670419692993,-0.25000113248825076,-0.11552321165800095,-0.012861271388828755,-0.0823042243719101,-0.11266463994979859,-0.16645662486553193,-1.132896900177002,0.3856370449066162,0.09200570732355118,-0.28070199489593508,-0.2528248429298401,2.140829563140869,0.023277275264263154,-0.31079816818237307,-0.38189244270324709,0.43295949697494509,0.8724868297576904,0.09546972066164017,1.4394540786743165,0.09297209233045578,0.7598626017570496,-0.4177914559841156,-0.6598661541938782,-0.14156435430049897,-0.17335891723632813,-1.187066674232483,-0.8645937442779541,1.336490511894226,0.7830458879470825,0.17296437919139863,-1.789889931678772,-0.1250646859407425,0.8096084594726563,1.0629725456237794,0.5454449653625488,-0.03449556231498718,-0.5978941917419434,-0.19590447843074799,-0.5659105777740479,-0.5634979009628296,-1.071496605873108,0.710753858089447,1.1554267406463624,-0.028840182349085809,1.6470839977264405,0.7306705713272095,-1.7177335023880005,-1.6058011054992676,1.5454174280166627,-0.8094578385353088,-1.352393627166748,-0.8235062956809998,0.4044930636882782,1.277197241783142,-1.193114161491394,-0.01837288960814476,0.34250277280807497,0.8012669086456299,-0.09559530764818192,0.46932876110076907,-0.9121524691581726,-0.4848732054233551,-0.8517943024635315,0.05506950244307518,-0.608383059501648,-0.43801623582839968,0.19994215667247773,-0.38375064730644228,-0.23797690868377686,0.257402628660202,0.41054704785346987,-0.8898506760597229,2.8131520748138429,0.49558573961257937,-0.5000134110450745,-1.5244197845458985,0.7101906538009644,0.14729852974414826,0.5811161994934082,0.09351301193237305,0.39319780468940737,0.13076534867286683,0.15225565433502198,-0.2399550825357437,1.155903935432434,0.2678462862968445,-2.2368900775909426,0.12339851260185242,0.18506282567977906,1.203951120376587,-0.5722110867500305,0.15947964787483216,0.2521626353263855,1.772160530090332,-0.9786502122879028,0.5584908723831177,-1.0880004167556763,-0.6170921921730042,0.8472577333450317,-0.45433685183525088,0.07924351096153259,0.06605050712823868,0.7149454355239868,-0.4333464205265045,-0.17737281322479249,-0.5982469320297241,-0.028002038598060609,0.7133482098579407,-0.6449457406997681,-0.8228287100791931,0.9663783311843872,0.5858743786811829,0.20844769477844239,0.8622236847877502,1.2663958072662354,0.25587350130081179,0.08880236744880676,-0.6259328722953796,0.4936118423938751,-0.04792507365345955,-0.7763690948486328,-1.1557313203811646,0.07373829931020737,0.0598968043923378,-0.8728129267692566,1.697965383529663,0.24689944088459016,0.7639102935791016,-0.1634494513273239,1.0835332870483399,-0.25038209557533266,1.3401474952697755,0.21492378413677216,0.6903102397918701,-0.07375231385231018,-0.042495712637901309,-2.048227071762085,0.03813508152961731,-1.2377573251724244,0.18700692057609559,0.5228306651115418,-0.22507213056087495,-0.7424677014350891,-0.5486480593681336,-0.8108702898025513,-0.1412418782711029,0.6359502077102661,0.596023440361023,0.3330509662628174,-0.07945811748504639,0.413522332906723,-0.49246683716773989,0.3693042993545532,0.5400728583335877,0.9527337551116943,-0.6958674192428589,-0.1915276050567627,-0.4435008764266968,-0.8017891645431519,-0.03891310468316078,-0.7954868078231812,-0.5720110535621643,0.47109100222587588,-0.7334665656089783,-1.8782638311386109,-1.0943716764450074,0.4111778140068054,-1.162550926208496,-0.18849089741706849,-0.28824764490127566,-0.4588105082511902,-1.1229995489120484,-0.26016244292259219,1.155561923980713,0.7730337381362915,-0.502662718296051,-1.0484479665756226,1.2182471752166749,-0.4042190611362457,0.3738683760166168,-0.23046648502349854,0.4687208831310272,0.27401086688041689,-0.9263768792152405,-1.504420518875122,-0.4343179762363434,0.708757758140564,1.0429813861846924,-0.9194470047950745,0.3425556719303131,0.021217597648501397,1.4126960039138795,1.4578299522399903,-0.5522116422653198,0.5217564702033997,0.5511193871498108,1.1194326877593995,1.6471784114837647,-0.559490978717804,-0.31864598393440249,-1.1794999837875367,0.9250810146331787,0.7279761433601379,0.6533254384994507,0.31018227338790896,0.38234707713127139,-1.2847484350204468,-0.26026350259780886,0.6976398825645447,0.8392884731292725,0.023658912628889085,0.9810777902603149,-0.01582241989672184,-0.6390508413314819,0.006955233868211508,0.5132336020469666,-0.10983996838331223,0.9497023224830627,0.7282223701477051,0.28494757413864138,0.8348628878593445,0.02519637905061245,0.6091907024383545,-0.7458509206771851,0.87230384349823,0.013354022055864334,-1.2864247560501099,-1.7340571880340577,-0.5912371873855591,-0.0996987372636795,-0.4059080183506012,-0.6445749998092651,-0.7372938394546509,0.2358931005001068,0.1885935366153717,0.48236462473869326,0.6711267828941345,-0.2818979024887085,0.10496599972248078,1.5492534637451172,-1.164826512336731,-0.8631033301353455,-1.5403263568878174,0.2956487238407135,-0.07815315574407578,-0.2158072292804718,0.07441683113574982,-0.14077752828598023,-0.9516779184341431,-0.7274457216262817,0.06303456425666809,-0.1111765056848526,0.139469176530838,-0.609026312828064,1.6883318424224854,0.5279004573822022,-0.7548576593399048,-0.1900562047958374,-0.78907310962677,-0.30310913920402529,-0.1730903536081314,-0.345731258392334,0.9987016916275024,-0.2022228091955185,-0.042374514043331149,-0.38247793912887576,-0.8480108380317688,0.5198955535888672,-0.2783711552619934,-0.04293093457818031,-0.747409462928772,0.975996732711792,0.04098762571811676,-0.6052747964859009,1.2161293029785157,0.4493924379348755,-0.9773855209350586,-0.4095204472541809,-0.09719066321849823,0.9086461067199707,-0.34985992312431338,0.393317312002182,-0.13157117366790772,1.2233823537826539,-0.7189007997512817,0.5162894129753113,-0.14430242776870728,-0.47525227069854739,0.38330116868019106,-1.4667495489120484,-0.07299181818962097,-1.1779907941818238,-0.9547740817070007,0.9122067093849182,0.04675818607211113,-0.23051297664642335,-0.43881189823150637,0.31840556859970095,0.4790877401828766,-0.332349568605423,0.5716933012008667,-0.09485327452421189,-0.015398295596241951,-0.14176832139492036,-1.2155131101608277,0.4426532983779907,0.5376862287521362,1.149621605873108,0.5866634845733643,0.14162051677703858,1.6908234357833863,-0.9130432605743408,0.0996457189321518,-0.7806346416473389,-1.7885818481445313,0.46033406257629397,0.22863972187042237,-1.1800886392593384,-0.09538335353136063,-0.020000960677862169,-1.9453563690185547,0.5692153573036194,-0.3666786849498749,-0.1706150770187378,-0.26918506622314455,0.8690431118011475,0.7273765802383423,1.0465081930160523,0.20434428751468659,0.9478762745857239,-0.7218924164772034,-0.08881297707557678,0.8033428192138672,-0.3289538025856018,-0.42548200488090517,-0.2902674376964569,-0.3886743485927582,1.1450161933898926,-0.5274232029914856,-0.7169554233551025,-1.3607113361358643,0.4631407856941223,0.7950783371925354,-0.18862183392047883,0.5489779710769653,0.14074958860874177,1.0058116912841797,0.46205368638038638,0.7715901732444763,-0.9010632634162903,0.8481318950653076,-0.28308728337287905,0.15715236961841584,-0.5535797476768494,0.2894929349422455,0.13051727414131165,-0.970159649848938,0.2980593740940094,-0.7451320886611939,0.06797505915164948,0.3466891348361969,-1.5893744230270386,0.5710996985435486,-0.7200430631637573,-0.22713977098464967,-0.11196107417345047,-0.7316670417785645,-1.6612770557403565,0.3819851279258728,0.381320595741272,0.2645096778869629,-0.5498142242431641,0.4712666869163513,0.42189157009124758,0.5941368937492371,-0.02331722155213356,0.902941107749939,0.17160607874393464,0.1082896813750267,0.5409893989562988,0.4527937173843384,-0.8716170191764832,-0.8418645262718201,0.07380303740501404,0.16986706852912904,0.3306528329849243,-0.13498586416244508,1.6541067361831666,-0.8034756779670715,1.627573847770691,-0.4643591642379761,-0.3684200942516327,0.1463356614112854,-0.1313900649547577,0.15832598507404328,0.10031190514564514,-0.7126150131225586,-0.46112433075904848,-0.5896826386451721,-0.27956196665763857,-1.0072884559631348,-0.04922787472605705,-0.38412612676620486,-0.2097047120332718,0.20068642497062684,1.1984177827835084,-0.880630373954773,0.19212722778320313,1.399057388305664,0.20107188820838929,0.12029263377189636,-0.14218972623348237,-0.46370041370391848,-0.4062083959579468,-0.6597979068756104,0.36582615971565249,-0.5017515420913696,-0.763180673122406,-1.595239281654358,0.21458269655704499,-1.2044925689697266,0.13187803328037263,0.2665325105190277,-0.3200153708457947,-0.5870499014854431,-1.0772984027862549,0.3906952738761902,0.6297748684883118,0.6991986632347107,-0.8024803996086121,-0.12929421663284303,0.4255547821521759,-0.29051271080970766,0.2967088222503662,0.2775181233882904,0.2982076108455658,-0.34333890676498415,-1.1686335802078248,0.4685670733451843,-0.7147411704063416,-0.6189272999763489,0.7076914310455322,-0.7910098433494568,1.1036489009857178,0.6340318918228149,-0.37417060136795046,0.018448086455464364,-0.45208850502967837,-1.0894228219985963,-1.2074710130691529,1.5180457830429078,0.11015230417251587,0.5348269939422607,1.0607014894485474,0.2398398220539093,-0.6337532997131348,0.21108296513557435,-0.29967737197875979,-0.6587575078010559,-1.0285948514938355,0.23513759672641755,-0.4570120871067047,-0.9919369220733643,0.9082657098770142,-0.3857075870037079,0.8139180541038513,-1.3645435571670533,0.685573160648346,0.06722702085971832,0.7174516916275024,-0.34327447414398196,-0.7342187762260437,0.3963436484336853,-1.1852397918701172,0.6983955502510071,-0.40601781010627749,1.242702603340149,1.5650230646133423,0.16317464411258698,-0.38560375571250918,1.2289619445800782,-0.15907680988311768,-1.4621487855911255,-0.9458679556846619,0.31685003638267519,0.9024630784988403,-1.373340368270874,-1.1016234159469605,0.3059910237789154,0.6499727964401245,0.6078528165817261,-1.7263576984405518,0.2533091604709625,-0.21944572031497956,0.04325568303465843,0.6771457195281982,0.015195130370557309,-1.9804304838180543,0.014810710214078427,0.3962682783603668,1.2306952476501465,0.749408483505249,-1.4314736127853394,0.05073525756597519,0.01252075657248497,-1.1602747440338135,-1.2913577556610108,1.0138449668884278,2.149097442626953,1.1086859703063965,-1.6739057302474976,-0.8933706283569336,0.39024025201797488,0.1245889887213707,2.006622791290283,-0.733271062374115,0.6906594634056091,0.48907458782196047,-1.1100889444351197,-0.41162940859794619,0.5189683437347412,0.7213481664657593,0.6814461350440979,0.27964314818382265,-1.0037657022476197,0.6864140033721924,0.7540532350540161,1.6226364374160767,-0.08775576204061508,-0.6322306990623474,-0.4836488962173462,0.5870097875595093,0.19781984388828278,0.19692564010620118,-0.9804930090904236,-0.15105625987052918,0.2130136489868164,-1.9223846197128297,-1.1875027418136597,0.22966347634792329,-0.1286095678806305,-1.8389421701431275,-0.36345016956329348,0.026111846789717675,-0.42966586351394656,0.402749627828598,0.8895649313926697,1.1062934398651124,-0.17601384222507478,-0.10560335963964462,1.966340184211731,1.5011022090911866,2.0416247844696047,-1.2109198570251465,0.1573759913444519,0.09804494678974152,-0.0546056292951107,0.7730841040611267,1.083519458770752,0.19363930821418763,0.022715479135513307,0.5168929100036621,0.6811780333518982,-1.0777435302734376,0.8076545596122742,-0.8305056095123291,1.2929707765579224,0.3632112145423889,-0.8334040641784668,0.9141756892204285,-2.0970983505249025,0.5439853072166443,1.3601285219192505,0.5034410953521729,-0.08134755492210388,0.5857007503509522,0.3200097680091858,-0.7442551851272583,-0.05493234843015671,0.011029146611690522,0.4594804346561432,0.5172321200370789,-1.525112271308899,-0.3992307186126709,-0.2774091958999634,-0.6302101612091065,1.5523076057434083,-0.398345947265625,1.124642014503479,-0.033412348479032519,1.0838901996612549,0.70572429895401,-1.0051308870315552,1.6297531127929688,-1.9497309923171998,-0.44812148809432986,0.004873920697718859,0.2234845906496048,0.4466876685619354,-1.128735065460205,0.7276971936225891,-0.7618659138679504,-0.31355515122413638,0.23816196620464326,-0.47561365365982058,0.27431178092956545,0.028632713481783868,-0.35747987031936648,0.5334034562110901,-0.7851753830909729,1.0404753684997559,-0.917456328868866,0.19146037101745606,-0.15164229273796082,-0.7270796298980713,-1.4042667150497437,0.17003276944160462,0.6378675103187561,0.14362472295761109,-0.4723718762397766,0.2660418450832367,-0.19435814023017884,0.09273754805326462,2.187152624130249,1.0495800971984864,-1.8570525646209717,0.5870382189750671,0.8216741681098938,0.9060023427009583,1.6874010562896729,-0.007238194812089205,-0.0950562134385109,-0.5584269762039185,0.21630318462848664,0.6474815607070923,0.33170220255851748,1.2149122953414918,-0.5163648128509522,0.5848767757415772,-1.2867217063903809,-0.005728844087570906,0.13167080283164979,1.1896677017211915,-1.2621206045150757,0.7617666721343994,-0.8706393241882324,0.6971507668495178,0.6880371570587158,0.2937416434288025]},"biases":[0.5706381797790527,-0.8218644857406616,-0.19259603321552277,0.9495970606803894,-0.3834313452243805,-0.9214186072349548,-0.4135461449623108,0.44632041454315188,0.8020446300506592,0.88630211353302,0.35534903407096865,0.03486523777246475,-1.926271677017212,-0.3189752995967865,-1.468048095703125,1.4115986824035645,-0.634765625,-0.4027823507785797,0.43629881739616396,-0.33904725313186648,-0.5086168646812439,-0.5904430747032166]},{"neurons":[-0.036358870565891269,-0.9679011702537537,0.9819673299789429,-0.3833661675453186,-0.999493420124054,-0.5428653359413147,0.9999853372573853,-0.0793616846203804,-0.9999735355377197,-0.7923510670661926,0.9992506504058838],"weights":{"rows":11,"cols":22,"data":[-0.895512580871582,0.4671258330345154,1.4800770282745362,0.2956128716468811,1.2182141542434693,0.3121139705181122,0.5717425346374512,1.5598716735839844,0.34118616580963137,0.046543948352336887,-0.5518981218338013,0.5491927862167358,-0.12088670581579209,0.17112542688846589,0.5824527740478516,0.7490580677986145,0.37496426701545718,-1.2949113845825196,-0.7872110605239868,-1.022973895072937,0.0752468928694725,0.03236353024840355,-1.2041441202163697,-0.2669842541217804,-0.037885770201683047,-0.33036673069000246,-0.312387615442276,0.2653443515300751,-0.3054128587245941,0.10676895827054978,0.6022332906723023,0.8842626810073853,-1.0657647848129273,1.4380251169204713,0.631362795829773,0.5122660994529724,-0.36125999689102175,0.7947152256965637,-1.7400829792022706,0.2427237182855606,0.2881896197795868,-0.17869122326374055,-0.2913132905960083,0.5643079876899719,-0.28468894958496096,0.2572961449623108,-1.1470447778701783,1.372855305671692,0.9765992164611816,-1.1276512145996094,0.2099345475435257,-0.364971399307251,-0.1372966170310974,0.3755219876766205,0.21403691172599793,-0.1984255611896515,-0.5420636534690857,-0.5928939580917358,-0.6606858968734741,0.0019732718355953695,-1.201728105545044,0.010582445189356804,0.6712243556976318,0.7471781969070435,0.5178505778312683,0.2482895702123642,0.0006445255712606013,-0.5709771513938904,-0.6200133562088013,0.42938822507858279,1.2898871898651124,-0.3838147521018982,0.6200928092002869,-0.26144641637802126,-0.517794668674469,-0.38031551241874697,-0.04741072282195091,0.07814551889896393,0.37275731563568118,-0.1057434156537056,-0.005424493458122015,-0.1781848669052124,-1.0063345432281495,-0.7284266352653503,-0.5572708249092102,0.35020968317985537,0.6950876116752625,-0.03728066012263298,0.9780572652816773,1.0025864839553834,-0.6727099418640137,0.30983853340148928,0.8376725912094116,0.019226351752877237,-1.2528622150421143,-0.01497388631105423,-0.8236215114593506,-0.45753780007362368,-0.6698505878448486,0.49306946992874148,1.003371238708496,-0.7688267827033997,-0.4714753329753876,0.6020509600639343,-0.7306521534919739,0.10917674750089646,0.2887994349002838,2.2550458908081056,0.6053562164306641,-0.27775201201438906,-0.31232476234436037,-0.21669849753379823,-0.2992689907550812,0.8470373153686523,-0.24289579689502717,-0.4789732098579407,-0.5082721710205078,0.5517178773880005,-1.3500845432281495,-0.3933616578578949,-0.043941810727119449,0.6188055872917175,-0.46534526348114016,-0.25673097372055056,0.785210371017456,0.9691524505615234,-0.5616921782493591,0.952782154083252,-0.06362201273441315,-0.7074010968208313,0.3111763298511505,-1.3544503450393677,-0.03835400193929672,-1.5954073667526246,1.3857582807540894,0.19589842855930329,0.4786480963230133,1.2542674541473389,0.71888667345047,1.262298345565796,0.1564832627773285,1.0431114435195923,-0.9261118769645691,-0.9394010901451111,-0.086235910654068,-1.0038477182388306,-0.050919122993946078,0.24331994354724885,-0.6927465796470642,0.3767455518245697,0.4141511619091034,-0.13006681203842164,0.7519771456718445,-0.3957071900367737,-0.3286302089691162,0.2870844900608063,0.23018716275691987,0.49310439825057986,0.10005459189414978,0.2078651338815689,0.1708957701921463,0.4551379382610321,0.38899362087249758,-0.3275267481803894,1.2375917434692383,-0.3320535123348236,-0.44661960005760195,-0.4493142366409302,-1.3036599159240723,0.0738886222243309,0.14972376823425294,0.1396355926990509,0.6794809699058533,-0.6063041687011719,-0.06321614235639572,0.818630576133728,-1.0797374248504639,2.1468353271484377,-0.8557093143463135,1.7622129917144776,-0.8972566723823547,-1.0213544368743897,0.31810522079467776,0.24657303094863892,-2.772780418395996,-0.5513178706169128,0.6969122886657715,-0.6754788756370544,-0.4084310233592987,-0.35395926237106326,-0.713747501373291,0.9881162047386169,1.1529184579849244,0.050361212342977527,-2.015514850616455,1.1369132995605469,0.7078197598457336,-0.5739511251449585,-0.23763808608055116,0.9254552721977234,-0.9132959842681885,0.28949227929115298,0.2552856504917145,-1.1792131662368775,-0.18187013268470765,-0.5581397414207459,-0.874082624912262,0.09753882884979248,0.5571665167808533,0.17869633436203004,0.5230740904808044,0.5039442181587219,-1.7421940565109254,-0.8447307348251343,-0.11056362092494965,-0.2948339879512787,-0.2636179029941559,1.4318045377731324,0.38836202025413515,0.921991765499115,1.602121353149414,0.35822921991348269,-0.9702873229980469,0.7614432573318481,-0.7165148854255676,0.3475528657436371,-0.8803107738494873,-0.06030721589922905,-0.7864693403244019,0.17926983535289765,0.15690119564533235,1.1158030033111573,-0.7125813961029053,-1.9229393005371094,-0.795852780342102,-0.8887325525283814,0.48069778084754946,1.623326063156128,0.1129649430513382,0.08315485715866089,-0.4816043972969055,0.3415292203426361]},"biases":[0.2707001566886902,-0.35227084159851076,-0.38078105449676516,-0.1641436666250229,-0.9711266756057739,-0.7213516235351563,1.2518579959869385,-1.1223245859146119,0.9836390614509583,0.964538037776947,-1.1044591665267945]}],"seed":1956625099}