{"layers":[{"neurons":[-0.9749266505241394,0.9568417072296143,0.622017502784729,-0.9800665974617004,0.9984024167060852,-0.9360095858573914,-0.9130354523658752,-0.9860418438911438,-0.9958053231239319,-0.9983325004577637,-0.9999774694442749,-0.9999828338623047,0.9968798160552979,-0.9212653636932373,0.9999982714653015,0.1997610628604889,-0.9995392560958862,0.8517354130744934,-0.99187833070755,-0.9907099008560181,0.9635249376296997,-0.5601277351379395,-0.9127286672592163,0.9999834895133972,-0.08988252282142639,0.9999877214431763,0.9997804760932922,0.9978580474853516,-0.9798917174339294,-0.9637854099273682,-0.995122492313385,-0.9818099141120911,0.09728363901376724,0.9157571792602539,0.9999232888221741,0.9999683499336243,0.9436293840408325,0.9854849576950073,-0.9999580979347229,0.972099781036377,0.991302490234375,0.9999043345451355,-0.22504717111587525,-0.9932566285133362],"weights":{"rows":44,"cols":22,"data":[0.877817690372467,-0.904021680355072,0.7035815119743347,0.36386221647262576,0.8998475670814514,-0.6599454283714294,2.087953805923462,1.1222172975540162,-0.22730177640914918,0.2845838963985443,0.5846298336982727,-0.042741917073726657,-0.48735377192497256,1.45707106590271,-0.00704795029014349,0.655204713344574,-2.3577611446380617,1.248725414276123,0.8510387539863586,0.7712367177009583,-0.8226344585418701,-0.3489169776439667,1.1848299503326417,-0.03609887883067131,0.49083876609802248,-1.9776561260223389,1.8458571434020997,1.297611117362976,0.47893428802490237,1.141417384147644,-1.1216073036193848,0.10573756694793701,-0.5041426420211792,0.4280785918235779,0.28356611728668215,0.19550731778144837,-1.0002301931381226,-0.16699150204658509,-0.1563931554555893,1.7192463874816895,-0.5140616297721863,-1.188024640083313,1.1692962646484376,0.4029960632324219,-0.19756367802619935,-0.6026544570922852,-1.6520239114761353,0.3552823066711426,-1.263068675994873,-0.6985407471656799,0.25347626209259035,-0.7553229331970215,-1.091713309288025,2.3943982124328615,-0.8785641193389893,0.632968008518219,-2.068359136581421,-0.4149736166000366,-0.9904810190200806,0.4656318724155426,-0.7083294987678528,0.2191578596830368,-0.6103430390357971,-0.2113410383462906,0.5358654856681824,-0.25037407875061037,0.5858883261680603,0.25835204124450686,-0.0714428722858429,0.9892047643661499,0.49535590410232546,1.8876500129699708,2.4410510063171388,1.0656764507293702,1.2301013469696046,-0.0353926382958889,-1.778505802154541,0.6468685269355774,1.023470163345337,-0.8457989692687988,-1.3066502809524537,0.7017005085945129,1.4963966608047486,0.0941544771194458,0.4497346580028534,0.22366593778133393,-0.4475708305835724,-0.987947940826416,0.6134607791900635,0.2450890988111496,-0.6825594305992127,0.954687237739563,0.03313980624079704,1.3217824697494507,-2.276977777481079,0.2794577181339264,0.7360448837280273,0.3918481171131134,-0.40211257338523867,-1.4721307754516602,-0.8542929887771606,0.7127108573913574,0.221112459897995,0.6803358197212219,-0.6314156651496887,-0.2942914664745331,-0.23947152495384217,-1.1539499759674073,-0.5989518165588379,0.08414490520954132,-0.4146888256072998,0.7455636262893677,0.3540509045124054,-0.9917311668395996,-0.03527793660759926,-1.9443607330322266,0.7585743069648743,0.4263458549976349,-0.43367281556129458,-0.2775581181049347,-0.6052669286727905,-1.1798056364059449,1.0453323125839234,-1.3397678136825562,-0.42754513025283816,0.8733937740325928,-0.7938095927238464,0.1547868698835373,-0.20066866278648377,-0.342675119638443,-1.7423290014266968,-0.3202516734600067,1.0036826133728028,1.34160315990448,1.3952155113220215,-0.23389530181884767,-0.32386842370033266,-0.3471032381057739,1.1779224872589112,0.40302813053131106,-0.5060271620750427,0.9799750447273254,0.45163822174072268,-0.24324080348014832,-0.4390842318534851,-0.6622679829597473,-0.25360894203186037,-0.7960582375526428,0.5294051170349121,-0.22582386434078217,0.20006193220615388,1.249932050704956,-0.034644633531570438,-1.9530588388442994,0.7396940588951111,0.06656012684106827,1.0251044034957886,1.6601004600524903,-1.320292592048645,0.3092111051082611,-0.1289205551147461,0.984918475151062,-0.13310758769512177,-1.094592571258545,1.8586087226867676,0.4816162586212158,0.9062719941139221,0.5617464184761047,-0.36172235012054446,-0.6142225861549377,-0.4145873785018921,0.719795286655426,1.2027015686035157,-0.9553479552268982,-0.7034873366355896,-0.550252377986908,0.43651634454727175,0.1446649134159088,-1.0680150985717774,0.07560856640338898,-0.6222344636917114,-0.7177667617797852,0.36629319190979006,0.5486887097358704,0.31373175978660586,1.1538938283920289,-0.8415115475654602,1.3833019733428956,-0.5982956886291504,-0.3870527446269989,1.2126179933547974,-1.106778621673584,-1.656593918800354,0.06652157753705979,-0.2875210642814636,-1.0236238241195679,0.5396535396575928,-2.2943568229675295,-1.138555645942688,1.1647075414657593,-0.5138238668441773,-0.2594400942325592,0.7522341012954712,-1.4031709432601929,0.595252513885498,1.170452356338501,-1.3987621068954468,0.7067483067512512,0.6031805276870728,0.7561962008476257,1.1878269910812379,-0.22348053753376008,-0.5622326731681824,1.1050004959106446,0.17050816118717194,1.1568557024002076,0.27761110663414,-1.9406836032867432,0.5422266721725464,-0.830081582069397,1.186186671257019,0.7095471024513245,-0.8514453768730164,0.5540404915809631,1.3231533765792847,-0.23295098543167115,-0.02206439897418022,-1.2774134874343873,2.9880411624908449,1.3103830814361573,0.038703516125679019,-0.33124691247940066,1.350786566734314,-1.2804434299468995,-1.0230193138122559,1.264193058013916,0.9998935461044312,0.2706904411315918,-1.4856154918670655,-1.2496379613876343,-0.38632887601852419,-0.8538571000099182,0.23753045499324799,0.8762927055358887,0.546220064163208,2.3998067378997804,-0.38668060302734377,-0.46330252289772036,0.47149452567100527,-0.4873124361038208,0.46813446283340456,1.4439170360565186,-0.21575023233890534,1.6195346117019654,1.3605841398239136,-0.9589581489562988,0.24774780869483949,1.9717180728912354,-0.7892458438873291,0.6428332924842835,-0.007514103315770626,0.04231717810034752,-0.7031209468841553,-0.1635318398475647,0.30144625902175906,0.839180052280426,-0.016942914575338365,-1.078269362449646,-1.2169930934906006,-0.47231200337409975,-2.4368536472320558,1.3954919576644898,1.0368590354919434,0.9041923880577087,-0.1397056132555008,-0.17649731040000916,-0.45581236481666567,-0.17188605666160584,0.0137108713388443,1.3794385194778443,-0.055338405072689059,-0.9447407126426697,-0.5726097226142883,0.07770740985870362,0.6503319144248962,-0.6387326717376709,0.12863968312740327,-0.6301054358482361,0.06579937040805817,0.14966917037963868,0.4874096214771271,-1.2116703987121583,-0.9773963093757629,-0.5613448619842529,-0.5321778655052185,0.8015778660774231,0.13106484711170197,0.9964976906776428,0.7441288828849793,0.18924716114997865,-0.5935761332511902,-2.6355016231536867,-0.686183512210846,0.9949472546577454,-0.9844158291816711,0.783390462398529,0.7984302043914795,0.3678213655948639,0.05720040947198868,-0.48735764622688296,0.24142958223819734,-1.5653749704360963,1.5079618692398072,-2.46267032623291,-1.4663892984390259,-0.6254686117172241,-0.7475370764732361,-1.1056299209594727,-3.489215135574341,0.4738815724849701,-0.2530492842197418,0.3621236979961395,-2.5276339054107668,0.6934539675712586,-0.08805706351995468,-0.26696062088012698,0.04243031516671181,-1.4917385578155518,-1.8490368127822877,0.7107405662536621,-1.490740418434143,-0.32913902401924136,-0.4030534029006958,-1.5535861253738404,1.9043560028076172,-1.1629886627197266,-1.7564986944198609,1.1203023195266724,-0.48008131980895998,0.16302955150604249,-1.1359550952911378,-0.5720983147621155,1.6144330501556397,1.174407958984375,0.8485126495361328,-0.7777561545372009,1.4031085968017579,-0.3226153254508972,0.8194004893302918,2.876575469970703,-0.6117162108421326,0.2621546685695648,-1.0430601835250855,1.6880358457565308,0.2511484920978546,1.1450685262680054,0.8107559680938721,0.23936422169208527,1.9409449100494385,1.1789581775665284,1.7221630811691285,-0.5027812719345093,-1.5104776620864869,-0.19249172508716584,1.777762770652771,1.177309274673462,0.4761867821216583,0.05309801921248436,-0.9491866827011108,0.06753387302160263,1.912671446800232,-0.9666057825088501,0.8838977217674255,-0.5418100357055664,0.6443905234336853,0.02142065204679966,0.8666860461235046,1.4810609817504883,0.8918349146842957,-0.43754541873931887,0.4511852264404297,-1.0006197690963746,-1.2310093641281129,0.5989865064620972,0.7373149991035461,-1.1859471797943116,-1.1294740438461304,0.9992883801460266,-0.41625627875328066,1.5218218564987183,-1.2358016967773438,-0.3436294496059418,-0.09234653413295746,2.411223888397217,1.086130142211914,-0.4998120665550232,-1.584242582321167,-0.09032972902059555,0.20841346681118012,-0.35951516032218935,1.624574065208435,0.7191640734672546,0.33880141377449038,-0.03784928470849991,-0.2735835313796997,-0.8359957933425903,0.4954600930213928,1.2329622507095338,1.483224868774414,-0.5085276365280151,-0.6595746874809265,1.0980994701385499,0.9361036419868469,-0.3274262547492981,0.35925692319869997,0.5491603016853333,0.4662107825279236,1.062027931213379,0.9081721305847168,1.1772280931472779,0.8970328569412231,-0.8590683341026306,-1.4410967826843262,-0.05128489434719086,2.059072256088257,-0.5950095653533936,-0.7611019611358643,-0.6661219000816345,-0.6759095191955566,1.2959613800048829,0.6446159482002258,0.5628354549407959,1.2407703399658204,-0.043801199644804,-0.6313872337341309,1.3988947868347169,0.1160622388124466,1.2570008039474488,0.28545165061950686,0.0352763831615448,0.47905030846595766,-0.19996824860572816,1.5863127708435059,0.01947401463985443,1.2633298635482789,-0.8719706535339356,0.561672031879425,-2.571995496749878,-0.0347035750746727,-0.43374255299568179,0.1965058445930481,-0.6318625211715698,-0.7986777424812317,1.2362059354782105,0.7183398604393005,-1.2517329454421998,-0.468121200799942,-0.890949010848999,0.36751633882522585,1.0432575941085816,0.48571404814720156,1.0486304759979249,1.5430256128311158,-0.1620272845029831,0.47728970646858218,0.3503357470035553,0.7072964906692505,-0.8884572982788086,-0.9961093068122864,-0.11703469604253769,0.10227002203464508,0.24024470150470735,1.3098461627960206,0.841407299041748,-1.221431016921997,1.2932831048965455,-0.20436973869800569,0.4035584330558777,0.2407425045967102,1.8078515529632569,1.4703617095947266,-0.2878369688987732,0.01832587830722332,-0.7118861079216003,-0.6220744848251343,-1.0989984273910523,-0.9715520143508911,0.6525136828422546,-0.05422784015536308,0.3189704418182373,-2.5925090312957765,0.08866901695728302,1.2739057540893555,0.5562472343444824,1.617476463317871,0.43785014748573305,0.751579761505127,0.4164181053638458,-2.5570473670959474,0.19715090095996858,-0.6739016771316528,-0.5426718592643738,-0.07090399414300919,0.047903042286634448,-0.04387461394071579,1.9283565282821656,-1.1051044464111329,0.7065381407737732,1.4107569456100464,-0.7217561602592468,0.38287004828453066,-0.3958549499511719,-0.863538920879364,0.05982068181037903,-0.1202121302485466,-0.3481217622756958,0.7929494380950928,-1.3074461221694947,0.5357437133789063,0.6950775980949402,-1.8006693124771119,1.0980991125106812,0.4779672622680664,-1.0035308599472047,0.039607346057891849,-0.3214399814605713,-1.3555189371109009,-1.2323312759399415,0.6520689725875855,-0.8389530181884766,0.775580108165741,0.4316449761390686,-1.1492888927459717,1.8044774532318116,1.013759732246399,1.2398114204406739,-0.7339029312133789,-0.6131649017333984,0.31880757212638857,-0.3166287839412689,1.8018767833709717,-0.5480150580406189,1.0492584705352784,-1.9795092344284058,0.26307857036590578,-0.4003887474536896,-1.3180296421051026,-0.7324948310852051,-0.459766149520874,-0.3944982588291168,-1.419543981552124,-0.29648569226264956,0.9269264340400696,-1.4842110872268677,-1.4661238193511963,0.8545911908149719,-2.7223944664001467,-0.18396219611167909,0.47154247760772707,-0.9246832132339478,-0.9751964211463928,0.5067598223686218,0.44906434416770937,-0.23611696064472199,1.0484274625778199,-2.625525712966919,-0.5988462567329407,1.9502696990966797,0.3517211079597473,-1.4587583541870118,0.18417581915855409,-0.7981423735618591,1.0820057392120362,-0.8370447754859924,1.569920539855957,2.1457107067108156,-1.3276562690734864,0.24201808869838715,0.06942909210920334,-0.3103071451187134,-0.6628405451774597,0.32283976674079897,-1.3779656887054444,-0.0792156532406807,0.6047956943511963,1.891145944595337,-0.44098523259162905,0.4763813018798828,0.8280821442604065,-0.8155484199523926,0.988202691078186,-0.1413615196943283,-1.3981066942214966,0.589557409286499,-0.40895989537239077,-0.7767187356948853,0.16508281230926515,-0.8990464806556702,-1.2682969570159913,0.640081524848938,-1.3505765199661255,0.04500647634267807,0.3339042365550995,-1.2854381799697877,-0.20199202001094819,0.9144526124000549,-0.567829430103302,0.415866494178772,-0.8155316114425659,0.021087877452373506,0.8602770566940308,0.2701784372329712,-0.065589539706707,0.4513947069644928,-0.5336405038833618,-0.27178847789764407,0.52712482213974,-0.5049800276756287,0.017581135034561158,1.105234980583191,-0.7599437236785889,0.7062377333641052,0.06553760170936585,0.5584713220596314,1.2349436283111573,-0.8796838521957398,-0.43358147144317629,0.2775973379611969,0.5084195733070374,-0.6702443957328796,0.32543128728866579,1.0268678665161133,-3.0880930423736574,-0.013523745350539685,-0.31117329001426699,-1.0144346952438355,0.41019904613494875,-0.966225802898407,-0.43470266461372378,0.8533164262771606,-1.8219621181488038,-0.4373457431793213,1.7012286186218262,-0.6028929352760315,-0.7726994752883911,0.5138463377952576,-0.8207680583000183,-0.20451581478118897,-0.6557168960571289,-0.2917197346687317,1.3639929294586182,-1.0719809532165528,0.16104403138160706,0.90207439661026,-0.9936572313308716,-0.06532572209835053,-0.2418765276670456,-1.1860843896865845,0.6103605628013611,-0.33376315236091616,-0.13453204929828645,0.3936384916305542,0.09237705171108246,0.6873862147331238,0.6483779549598694,-0.38912642002105715,0.26950085163116457,-0.38788315653800967,1.6038885116577149,0.09251060336828232,-0.4212275743484497,-0.9656659364700317,-0.3204396665096283,-1.4345134496688843,-0.9038796424865723,-0.2165089249610901,-0.17157486081123353,-0.25656116008758547,-0.20276999473571778,-0.46261274814605715,0.5555500388145447,0.10026824474334717,-1.1646851301193238,0.7173231244087219,-0.4032752215862274,-1.115418791770935,0.9097496271133423,-0.5073235034942627,-0.8161183595657349,0.2884373962879181,-0.1885748654603958,1.070072054862976,0.9248498678207398,-0.38598260283470156,-0.7780686020851135,-0.29537031054496767,0.1851862519979477,1.367632508277893,0.033084921538829806,0.8962007164955139,-0.6581088900566101,0.9675726294517517,0.3216792941093445,0.02918465994298458,-0.5111110210418701,-0.725759744644165,1.2534863948822022,0.5511983036994934,-0.003997092135250568,-0.2996465265750885,0.8696794509887695,-0.3646497428417206,0.9860369563102722,-0.8802403211593628,-0.325996994972229,-1.1475330591201783,1.2553797960281373,-0.06890077888965607,0.5812214612960815,-0.5687379240989685,1.4330494403839112,1.251512050628662,0.39837780594825747,0.48226606845855715,0.016457870602607728,-1.1720086336135865,0.00003096841828664765,0.4080313742160797,0.387594074010849,1.8494724035263062,-1.0817537307739258,0.7521117925643921,-2.670548439025879,0.6042050123214722,1.0897995233535767,1.566138505935669,0.41564565896987917,0.17719370126724244,-1.1780242919921876,0.9852595925331116,-0.7094190120697022,0.1313018798828125,0.28928178548812868,-1.0086015462875367,1.3088432550430298,-0.1228797510266304,-1.7010343074798585,-1.3263546228408814,-0.5850622057914734,-0.009867338463664055,1.0202118158340455,-1.856482744216919,0.5527031421661377,1.6544369459152222,1.1515147686004639,0.4351428151130676,0.25403547286987307,1.8111010789871216,-1.210361123085022,0.03808862343430519,-2.9559638500213625,-0.5221969485282898,-1.4319766759872437,-0.9781784415245056,0.5218175649642944,-1.0484503507614136,-0.4372360110282898,0.9338752627372742,1.0562286376953126,-0.3914097249507904,-0.4761888384819031,-1.2733182907104493,1.561606526374817,-0.7268635034561157,-0.7666680812835693,0.11223788559436798,-1.6161736249923707,0.13240376114845277,-1.2679991722106934,-0.8656905293464661,0.3204076588153839,0.8100621104240418,-0.05544903874397278,1.8319988250732422,-0.527057409286499,0.35319387912750246,0.9829277992248535,0.2052019238471985,-0.6708617210388184,0.8401013016700745,1.4599329233169556,-0.8899257183074951,-0.6161538362503052,-0.36311471462249758,-0.9618743658065796,-0.622168242931366,-0.30783140659332278,0.30189794301986697,-0.4081808924674988,-0.6857495307922363,-0.3791837990283966,-3.285637378692627,0.548758864402771,-0.8749028444290161,0.43334197998046877,0.6862483024597168,0.056368473917245868,0.2842307984828949,1.0453346967697144,0.8529375195503235,0.2555689215660095,0.10793785750865936,0.11672434955835343,-0.045893944799900058,0.6531917452812195,-1.7215051651000977,0.3480108976364136,-0.5761224627494812,-0.4327351152896881,1.4158626794815064,-0.11233934015035629,-0.9189817309379578,0.12412736564874649,1.6298843622207642,-1.345937967300415,-0.42620259523391726,-0.9229802489280701,-0.9967482089996338,-2.123997449874878,0.3837665021419525,0.8707007765769959,-0.40374234318733218,-0.1089877188205719,1.8268303871154786,-0.2665628492832184,0.7186055183410645,-1.3342194557189942,-0.979821503162384,-1.0230071544647217,0.3710438013076782,0.09244970977306366,-0.0009305830462835729,1.0985639095306397,-1.27605402469635,-0.17387913167476655,-0.4254317581653595,-0.6670551896095276,2.4786765575408937,0.9913106560707092,0.4193829596042633,2.0043399333953859,0.017414964735507966,-0.7759295701980591,0.9920043349266052,-0.7440840005874634,0.8224215507507324,1.1762897968292237,1.6940810680389405,0.7211076617240906,0.6468947529792786,1.340510368347168,-0.15899136662483216,-0.13540278375148774,-0.03607496619224548,-0.5300245881080627,-0.20625542104244233,-0.7742530703544617,-1.1824122667312623,0.5370214581489563,0.15588632225990296,-0.30245107412338259,0.5068089365959168,-0.2845150828361511,0.40990346670150759,-0.7872149348258972,-0.29021236300468447,0.4806705117225647,-0.6744217872619629,-0.4377499520778656,0.46093815565109255,-0.6056675314903259,-0.40824124217033389,1.0279370546340943,-1.288034439086914,0.14758412539958955,-0.10206426680088043,-0.6257408261299133,-0.12391824275255203,-0.2132854014635086,-0.2399018257856369,1.054144263267517,0.18622875213623048,0.3198137581348419,0.9961204528808594,-0.6849247217178345,0.053991686552762988,0.5974785089492798,0.37166088819503786,0.6250630021095276,-2.4950850009918215,1.5849568843841553,0.2676553428173065,1.2119406461715699,0.0461488775908947,0.7376943230628967,0.05696120113134384,0.9757327437400818,0.6753914952278137,-1.1989210844039918,-0.714675784111023,-1.3156535625457764,0.6597751379013062,-0.21379362046718598,0.5436524748802185,-0.5828142166137695,-0.907686710357666,0.49099475145339968,0.4393305480480194,-0.08830881118774414,-0.43661344051361086,-0.33237606287002566,-0.21148359775543214,-1.4656505584716797,-1.2708457708358765,-0.048386428505182269,0.2823619842529297,-0.6699163317680359,1.3508739471435547,0.15547430515289308,-0.15296746790409089,1.761248230934143,0.2823457717895508,-0.10989615321159363,-0.9091852307319641,-1.8985830545425416,-0.33356139063835146,-0.1174263209104538,-0.24480916559696198,-1.5262001752853394,-0.1557607799768448,-0.8129726052284241,-1.5029851198196412,-0.9140867590904236,-0.6356956958770752,0.06623682379722595,-0.2758530080318451,0.9771806001663208,-0.2533251941204071,-0.23898062109947205,-0.8216047286987305,0.3168514370918274,-0.762293815612793,0.8393970131874085,1.2151626348495484,-1.2360121011734009,0.2293505221605301,0.5648705363273621,0.28682100772857668,-0.392890602350235,1.2567588090896607,0.17911508679389954,-0.8261511921882629,-2.4840683937072756,-0.19246485829353333,1.2602567672729493,0.7630505561828613,-0.1703362613916397,0.4089079201221466]},"biases":[1.2468944787979127,0.24719125032424928,0.06861057877540589,0.2835070788860321,0.42788371443748476,-0.38358074426651,-1.4567523002624512,-0.442748099565506,-0.8708844184875488,-0.6656930446624756,-0.6967971324920654,0.15203504264354707,1.4276973009109498,-0.021490663290023805,-1.1202564239501954,-1.3691904544830323,0.18318487703800202,0.15595045685768128,-1.2941755056381226,-0.1478785276412964,-0.6657890677452087,-0.9991469383239746,0.536547064781189,1.4635244607925416,0.4760091304779053,1.6405130624771119,0.3636113405227661,-0.487403929233551,0.3051881194114685,-0.2584647834300995,-1.5671534538269044,-1.335817575454712,0.47772499918937685,-1.5433915853500367,-0.23204849660396577,-1.2618268728256226,-0.32061684131622317,-1.299483299255371,-0.4402155578136444,-0.750901460647583,-0.5871974229812622,0.8236944079399109,-0.7313354015350342,-1.0478050708770753]},{"neurons":[0.9858877062797546,-0.9996989965438843,1.0,-0.643024742603302,0.99758380651474,-0.5849800705909729,1.0,-1.0,1.0,1.0,-0.9310572743415833,-0.9927172660827637,-0.9999994039535523,-1.0,-1.0,-0.9883018732070923,0.9996634125709534,0.9999967813491821,0.9999998807907105,-0.9731435179710388,-0.9952470660209656,-0.9997773170471191],"weights":{"rows":22,"cols":44,"data":[-0.1239985004067421,0.31947118043899538,-0.5257555842399597,0.38981449604034426,-0.9702261686325073,1.6954073905944825,2.0200250148773195,-0.10985514521598816,0.5613043308258057,-0.21958136558532716,-0.8922670483589172,2.164665937423706,0.4222515821456909,-1.3755559921264649,0.49956214427948,-0.5528729557991028,-0.43564990162849429,0.10775727033615112,-1.3743747472763062,-2.07951021194458,-0.7320554852485657,0.18851400911808015,-1.1099861860275269,-0.06782352179288864,-0.6563594341278076,0.6086269021034241,1.582534909248352,-0.8978740572929382,-0.010159012861549855,-0.8992809653282166,-1.2633086442947388,-2.1082653999328615,-0.9380802512168884,-0.4261031746864319,-1.5691026449203492,0.047576408833265308,0.2849510610103607,-0.5118445158004761,-0.3564717769622803,-0.19975322484970094,-0.7234988212585449,0.2974163293838501,0.6593901515007019,0.5978084206581116,0.6392650008201599,-0.2854217290878296,1.1361799240112305,1.3047010898590088,1.639352560043335,-0.4852559566497803,1.1898678541183472,-0.34611454606056216,-1.0962117910385132,0.7063045501708984,1.6757267713546754,-0.670864462852478,0.2009797841310501,0.6248878836631775,-1.3736473321914673,-1.3847911357879639,-0.1774916648864746,0.9807602763175964,-0.913484513759613,-0.3149352967739105,-0.6463176608085632,0.5324984192848206,1.6869698762893677,0.628107488155365,0.5639055967330933,0.39374473690986636,0.780426561832428,3.186272144317627,2.50347900390625,1.9219164848327637,0.12555569410324098,-1.8360601663589478,-0.4328639805316925,-0.5042113661766052,-0.7432841062545776,-1.126765251159668,0.4861879050731659,-0.7739661931991577,0.21685940027236939,-1.129918098449707,1.5013668537139893,0.46172696352005007,0.07035478204488754,1.0705256462097169,0.9451612830162048,0.47865942120552065,0.8865494132041931,-0.11609254032373429,2.1652185916900636,0.01698426343500614,0.7748092412948608,-1.356292724609375,-0.45609718561172488,-0.11216148734092713,-0.3446992039680481,-0.2471403330564499,-1.1896271705627442,0.22874337434768678,0.1418737769126892,0.71686851978302,-1.3194711208343506,0.5334251523017883,0.002754524117335677,0.5231983661651611,0.38070952892303469,0.7027071118354797,-0.9870273470878601,-0.0667668953537941,-0.7615845203399658,0.07192018628120423,0.019853191450238229,0.8666813969612122,-0.2488165646791458,-0.5732560753822327,-0.1029239296913147,0.19492264091968537,1.787772536277771,1.8222455978393555,-0.03558049723505974,0.012256253510713578,0.4108223617076874,-0.6939578056335449,-0.7179234027862549,-0.2884901165962219,1.691417932510376,0.5354406237602234,-0.9661789536476135,1.214787483215332,-0.1699531078338623,0.5263091921806336,-0.15294572710990907,1.859205722808838,0.4417029023170471,-0.28391385078430178,-0.8163116574287415,-1.2423646450042725,0.49933773279190066,-1.7495445013046265,-0.04323285073041916,-0.32290899753570559,-1.1963788270950318,0.7823888063430786,0.6170169711112976,0.19317086040973664,0.5116427540779114,0.1842021644115448,0.21694914996623994,-0.17740294337272645,-0.37752464413642886,-0.4600813388824463,1.3724061250686646,0.21580936014652253,-0.3040129542350769,1.8293654918670655,-0.6250622272491455,-0.007009606342762709,-0.5433023571968079,1.1320708990097047,0.6847324371337891,1.3261206150054932,-0.41629040241241457,-0.34525546431541445,-0.0690358355641365,-0.9685493111610413,0.6744930148124695,-1.1354563236236573,0.07698331773281098,-0.7349371314048767,0.7737885117530823,-0.13132856786251069,0.7525884509086609,-0.35278409719467165,-0.763446033000946,-0.023863904178142549,1.063014030456543,0.4934377372264862,0.030301444232463838,-1.3756301403045655,0.7429701089859009,-0.5542399883270264,0.2446364164352417,-2.275874137878418,0.04151967167854309,1.4725323915481568,0.25373387336730959,-0.5652143955230713,-1.0626771450042725,-0.8960732221603394,0.40035104751586916,1.0960296392440797,0.038758981972932819,0.14894485473632813,1.1210453510284424,0.020584966987371446,0.6068887114524841,0.1765303611755371,1.3950536251068116,0.709938645362854,-0.10757278650999069,1.2239423990249634,-1.2184367179870606,-1.1483603715896607,-0.685642659664154,0.1721196174621582,-0.6676355004310608,0.13991326093673707,-0.5262165665626526,-0.13617447018623353,-1.9301655292510987,0.11088979989290238,-0.15793615579605103,-0.02402091771364212,-0.43043094873428347,-0.008400147780776024,0.8025269508361816,0.5425980091094971,-0.8021098971366882,-0.5967394113540649,-0.06187862902879715,-1.7509876489639283,-0.4442637860774994,0.40634778141975405,0.07461479306221008,0.07890499383211136,0.17896991968154908,0.7157540321350098,1.7621620893478394,0.9766884446144104,-0.1635139137506485,0.2887130677700043,-0.6856947541236877,-0.5670839548110962,0.9907697439193726,0.6593239903450012,0.05273749306797981,-1.5605734586715699,-1.1800912618637086,-0.7245544195175171,0.2346663922071457,-1.2364743947982789,0.6163486838340759,1.4817174673080445,-1.693686842918396,1.0671616792678834,-1.1409333944320679,-0.1410696804523468,-0.0792858675122261,0.0012748513836413622,0.006862770300358534,0.2586430311203003,-0.47749581933021548,1.602919578552246,-0.4744590222835541,0.9567652344703674,0.7504674792289734,-0.04351789504289627,0.3473324775695801,0.2890515625476837,0.7567753195762634,-1.070754885673523,2.454362392425537,0.4220372438430786,-0.5539246201515198,-0.13675536215305329,0.12717336416244508,-1.6274749040603638,-0.663093090057373,-0.4480750262737274,0.9651690721511841,-0.6269345283508301,-1.3048075437545777,-0.43126848340034487,-0.027132006362080575,0.6416736245155335,1.3012075424194337,-0.5400331616401672,-0.48200666904449465,-0.599470853805542,-1.2297945022583008,-1.8290660381317139,0.8259657621383667,-1.2936702966690064,-1.2307220697402955,1.2229670286178589,-0.6127855181694031,-0.1514897495508194,-0.1721104383468628,-1.2162275314331055,-0.8211160898208618,-0.2639162838459015,-0.6049420237541199,0.8428018093109131,0.9586193561553955,-0.21961036324501038,-0.4821160137653351,0.02663136087357998,-0.8982692360877991,0.38600432872772219,-0.8776979446411133,0.10687575489282608,0.6254705190658569,0.32371601462364199,-1.5715665817260743,-0.23488156497478486,1.3067744970321656,-0.17673160135746003,-0.6057852506637573,0.4204166531562805,-0.2611435651779175,1.233130693435669,0.0882788822054863,-0.23864613473415376,-0.06197791546583176,0.31919318437576296,1.5923020839691163,-0.864065945148468,-0.0471661314368248,0.34743526577949526,0.2907274663448334,0.2531202435493469,-0.5935815572738648,-0.5602454543113709,0.3840591013431549,1.0118787288665772,-0.7379116415977478,-0.8387773036956787,1.9817702770233155,-0.1772242784500122,-0.30961930751800539,-0.03568585589528084,0.4612524211406708,1.1668390035629273,0.8618717789649963,1.7605823278427125,0.09260094165802002,-0.183273047208786,0.3922412395477295,-0.662874698638916,-0.3504136800765991,0.28467878699302676,-1.2805463075637818,0.44348016381263735,1.0384718179702759,0.8536355495452881,0.5236583948135376,-1.8117884397506714,0.20561246573925019,0.5861383080482483,0.7551171779632568,0.48594069480895998,-1.4183504581451417,-0.5963249802589417,-0.1651940941810608,-0.5306554436683655,-1.3670406341552735,-1.6381804943084717,1.5080442428588868,0.7764968872070313,-0.0901903584599495,1.4391305446624756,1.0301673412322999,-1.4806745052337647,-0.4592835605144501,1.004204511642456,-0.9922547340393066,-1.61453378200531,-1.3747553825378419,0.049618836492300037,0.9795026779174805,-1.23703932762146,-0.08088957518339157,-0.06328555941581726,0.29823383688926699,1.688689947128296,-0.08258156478404999,-0.9085109233856201,-1.2456984519958497,-1.8434507846832276,-0.10049226880073548,-0.5539498329162598,-0.4363112151622772,-0.33091750741004946,-0.20906338095664979,-0.2196929156780243,0.6375851035118103,0.8787810802459717,-0.7948859930038452,3.3475255966186525,0.7750479578971863,-0.5660292506217957,-1.7433615922927857,0.16707561910152436,0.25824984908103945,0.5174696445465088,-0.46187397837638857,0.8858700394630432,0.12513701617717744,1.433285117149353,-0.2737417221069336,0.3084709942340851,0.5460513234138489,-2.3204774856567385,-0.004587617702782154,0.5065147876739502,2.3159589767456056,-0.7480993866920471,1.0449779033660889,-0.7929689288139343,0.9321064352989197,-0.19235695898532868,0.7107375264167786,-1.142682671546936,-1.0436136722564698,0.2960299849510193,-1.0284627676010132,0.01948654092848301,-0.1728263944387436,1.3226900100708008,-0.07870382815599442,0.7210633158683777,-0.5161827206611633,-0.5881980657577515,0.7105004191398621,0.05375908315181732,-1.4120826721191407,1.2005959749221802,0.5351988077163696,0.02607722207903862,1.2124119997024537,1.7557796239852906,-0.45741674304008486,0.08203218132257462,-0.8166569471359253,0.8615700006484985,-0.08793117851018906,-1.4337427616119385,-0.5002759695053101,0.8171720504760742,-0.12077530473470688,-1.5315884351730347,1.4536224603652955,-0.3139975965023041,0.687284529209137,-0.7020547986030579,0.1606961041688919,-0.19819222390651704,1.2443279027938843,0.9631118774414063,0.6874855756759644,0.12932687997817994,-1.0144686698913575,-1.3868004083633423,-0.14845401048660279,-0.6498091816902161,0.05438823625445366,1.35267972946167,-1.4858942031860352,-1.2123969793319703,0.5440017580986023,-1.1363582611083985,0.11444341391324997,0.03010719083249569,0.5957658886909485,0.8377109169960022,-0.5110048651695252,0.07747968286275864,0.011799910105764866,0.1921927034854889,0.6476249694824219,1.4614953994750977,-0.6622918248176575,-0.20254424214363099,-0.3564763069152832,-1.2392487525939942,-0.03875388205051422,-1.1834204196929932,-1.071865439414978,0.5941405296325684,-0.6600841879844666,-1.6838992834091187,0.15984125435352326,0.8991226553916931,-2.978206157684326,0.32228419184684756,-0.043291814625263217,-0.6105014085769653,-1.1976710557937623,-0.8509314060211182,2.317549228668213,1.0212674140930176,-0.9278348684310913,-1.2221338748931885,1.5518769025802613,-0.09330140054225922,0.2235410362482071,-0.347470223903656,0.9219023585319519,-0.26358067989349368,0.035859692841768268,-2.2711989879608156,-1.8187403678894044,0.7066041231155396,1.1872738599777222,-0.9996603727340698,0.3748195469379425,0.15538755059242249,2.3008298873901369,1.7373905181884766,-0.7797448039054871,0.5529246926307678,0.7363713979721069,0.2831191420555115,1.2016942501068116,-0.9666092395782471,0.1909588873386383,-2.0356152057647707,-0.14781850576400758,0.2574898302555084,0.7787295579910278,0.3919116258621216,0.6421602368354797,-1.2028051614761353,0.68388831615448,1.2133519649505616,1.0588805675506592,0.025063684210181237,1.030523657798767,0.20515066385269166,-0.2619425654411316,-0.013021114282310009,0.48469915986061098,-0.42412513494491579,1.1571800708770753,1.4770280122756959,-0.30764302611351015,0.831529974937439,0.44566836953163149,-0.19079850614070893,-1.2202225923538209,1.7791155576705933,-0.71808260679245,-1.528942346572876,-1.6039400100708008,-1.1336077451705933,0.49612945318222048,-0.7654991149902344,-0.29195916652679446,-1.0694749355316163,0.2440754622220993,0.2280358225107193,0.3637135326862335,-0.4244457185268402,-0.6981321573257446,0.39099177718162539,1.5429142713546754,-2.220940351486206,-0.6144022345542908,-0.9635036587715149,0.4205808937549591,-0.39322391152381899,-0.15624120831489564,0.5156354308128357,0.4837692379951477,-0.7858784198760986,-1.5846654176712037,-0.3106900453567505,0.2879957854747772,0.4299893379211426,-0.444891095161438,1.766736388206482,0.3793397545814514,-1.238517165184021,-2.349764823913574,-1.1510868072509766,0.36001089215278628,-0.5889924764633179,0.20444326102733613,0.9780157208442688,0.3672763705253601,-0.24053740501403809,-0.1365279257297516,-0.825656533241272,0.9051285982131958,-0.27725982666015627,-0.46762362122535708,-0.5094781517982483,0.9829559922218323,0.9223868250846863,-0.5735933184623718,1.8814433813095093,1.0247610807418824,-0.991569995880127,-0.5108606219291687,-0.08659443259239197,-0.5157591104507446,-0.09074489772319794,0.5002201199531555,-0.21253934502601624,1.2441167831420899,-0.5767247080802918,0.9382086992263794,-0.3339105546474457,-1.1318995952606202,-0.7800458073616028,-1.8858391046524048,-0.7512132525444031,-1.1785715818405152,-1.5665417909622193,0.196433886885643,0.2372521013021469,-0.5436045527458191,-0.41790586709976199,1.3416742086410523,1.1423845291137696,-0.2058659791946411,-0.031133834272623063,0.47053277492523196,-0.18042156100273133,-0.7888941168785095,-1.2872824668884278,-0.056305550038814548,1.1367695331573487,1.6558202505111695,1.161619782447815,0.317658007144928,1.3203691244125367,-1.2992814779281617,-0.3262212872505188,-1.0396862030029297,-1.739861249923706,0.45661062002182009,-0.14938324689865113,-1.213882565498352,0.4440174698829651,0.5156043767929077,-1.6694562435150147,0.45753002166748049,-0.1426416039466858,0.6518009305000305,-0.7093995213508606,1.731082797050476,0.32065698504447939,2.4638047218322756,0.29156777262687685,0.9858114123344421,-0.7169563174247742,-0.025358933955430986,1.2855628728866578,-0.5358001589775086,-0.47348999977111819,-0.364055871963501,0.282184898853302,0.6348447799682617,-0.7754088640213013,-0.7141646146774292,-0.7317079901695252,0.650646984577179,2.014800548553467,0.4848858118057251,0.03860596567392349,0.26312750577926638,0.7218660712242127,1.5428144931793213,1.2520473003387452,-0.8974660038948059,1.2475489377975464,0.13408590853214265,0.39417287707328799,-0.45870229601860049,-0.5404096841812134,0.9142170548439026,-2.1554930210113527,0.3273496627807617,-0.10420307517051697,0.31900832056999209,0.5944615006446838,-1.253188133239746,0.38518062233924868,-0.8029959201812744,-0.03849981725215912,-0.07105501741170883,0.2316616177558899,-1.3301982879638672,0.1224694699048996,0.4186879098415375,-0.04626495763659477,0.2636692225933075,-0.4924684464931488,0.4019349217414856,0.5918241143226624,-0.3053756356239319,0.8093574047088623,0.38142865896224978,-0.0013505202950909734,0.5109760165214539,0.4436667263507843,-0.742927074432373,-0.21837769448757173,-0.3473704159259796,-0.10744739323854447,0.10187851637601853,-0.7880367636680603,-0.061610713601112369,-0.9169366359710693,1.4485385417938233,-0.6322179436683655,-0.4604223072528839,0.14331555366516114,-0.24963624775409699,-0.15083730220794679,-0.6532107591629028,-0.691278874874115,0.3272661864757538,-0.5331721305847168,0.26251471042633059,-1.6071789264678956,0.5902261137962341,0.33145421743392947,-0.20124295353889466,0.3352891504764557,0.14942429959774018,-0.23663678765296937,-0.39752548933029177,1.4551514387130738,-0.022113682702183725,0.4560988247394562,-0.4781261384487152,-0.25757789611816409,-0.9605923891067505,-0.9436017870903015,0.2962958514690399,0.055033888667821887,-0.7561017274856567,-1.2985414266586304,0.2493225336074829,-1.4523563385009766,0.2965196967124939,0.719886064529419,-0.9132564067840576,-1.0407750606536866,-1.094103217124939,0.6974501013755798,0.6820791363716126,0.6171485781669617,-0.8901882767677307,0.3482322096824646,0.4793137013912201,0.46392449736595156,1.54816472530365,-0.5113641023635864,0.49588340520858767,-0.024275165051221849,-1.1899160146713257,0.6755419373512268,-0.5490903258323669,-1.1023246049880982,0.135805144906044,-0.5962963700294495,0.6068772673606873,0.46409597992897036,-0.6503691673278809,-0.46925902366638186,-0.7254312634468079,-1.3714736700057984,-1.1381925344467164,1.6609256267547608,0.1459888219833374,0.583967387676239,1.0494346618652344,0.2376718968153,0.31588324904441836,0.18308579921722413,-0.44863471388816836,-0.7120966911315918,-0.831262469291687,1.617275595664978,-0.3212801516056061,-1.7214769124984742,1.9600245952606202,-0.3995373547077179,0.4822513461112976,-1.2826768159866334,0.45459049940109255,0.5924984216690064,0.34404635429382326,-1.2626237869262696,-1.123977541923523,-0.08822638541460037,-1.0115188360214234,1.5511337518692017,0.03974210470914841,0.8538899421691895,1.2737234830856324,-0.855094313621521,-0.3455410301685333,1.7677879333496094,0.2763160169124603,-1.4563117027282715,-0.6692674160003662,0.34488314390182497,0.38148385286331179,-1.3392423391342164,-0.621579647064209,0.7120081186294556,0.791812002658844,-0.21597042679786683,-1.7220536470413209,0.2522726058959961,0.3792184591293335,1.1034374237060547,2.6326229572296144,0.40834230184555056,-2.0886316299438478,0.6317823529243469,0.6584739685058594,0.8927941918373108,0.8018295168876648,-0.9277642965316773,0.9335088133811951,0.308356910943985,-1.0859625339508057,-1.2759153842926026,1.44026780128479,1.9649996757507325,2.2494707107543947,-2.135114908218384,-0.7899196147918701,0.3572089672088623,-0.29627034068107607,2.139414072036743,-0.9346425533294678,0.8827952742576599,0.6199018955230713,-0.9512608647346497,-0.6355743408203125,0.3932352364063263,0.8429003953933716,0.5746720433235169,0.29595279693603518,-0.9759892225265503,0.8101316094398499,0.7080968618392944,2.06447172164917,0.20283038914203645,-0.4228112995624542,-0.4221165180206299,0.6634407043457031,0.7346465587615967,0.19613946974277497,-0.21125982701778413,-0.5702003836631775,0.2121420055627823,-1.470898151397705,-1.3033268451690674,0.08768734335899353,0.8959141969680786,-3.5703768730163576,-0.6833701133728027,0.056578222662210467,0.008465174585580826,0.6254501938819885,0.920150101184845,0.22650064527988435,-0.21906578540802003,-0.58772212266922,2.4449081420898439,1.87247896194458,1.7122191190719605,-2.289708375930786,-0.4300525188446045,0.07527223229408264,-0.19631992280483247,0.48768511414527895,1.043744683265686,0.737427294254303,0.3977511525154114,1.036287546157837,0.27900800108909609,-1.9631599187850953,1.2887636423110963,-1.3362033367156983,2.086667060852051,0.36179739236831667,-0.6272450089454651,0.25004225969314577,-2.1272687911987306,1.9458602666854859,1.919033408164978,0.48495063185691836,-1.465110182762146,0.9836078882217407,-0.03915739059448242,-0.011320218443870545,0.031149350106716157,0.4822685420513153,0.6619408130645752,0.6252593398094177,-0.9428979754447937,-0.26868578791618349,-0.27627408504486086,-0.6276942491531372,1.3718852996826172,-0.25549834966659548,0.6733551025390625,0.30305570363998415,0.2584162950515747,0.26865309476852419,-0.9836488962173462,1.5266008377075196,-1.9590717554092408,0.2195032835006714,-0.04964815825223923,0.7886787056922913,0.7566298246383667,-0.6586323380470276,1.0820904970169068,-1.0803303718566895,-0.5954983830451965,-0.2345510870218277,-0.9334045052528381,-0.1585829108953476,0.13997332751750947,-1.0220330953598023,0.6242173910140991,-0.9073581099510193,0.6805158853530884,-1.231768250465393,0.2026667445898056,0.30038905143737795,-0.7130908966064453,-1.9572759866714478,-0.08542829751968384,0.9549986124038696,0.2751074433326721,-0.24740996956825257,-0.06678096204996109,0.07561258226633072,0.6206579208374023,2.145615816116333,1.1661244630813599,-2.0112459659576418,-0.2959462106227875,1.1427937746047974,0.7845295071601868,0.645115852355957,0.9326344132423401,-0.3565604090690613,-0.7501028776168823,0.018682243302464486,0.6448967456817627,0.0990435853600502,1.494922399520874,-0.24253810942173005,0.11547324061393738,-0.771432101726532,0.4340479373931885,-0.4036341905593872,1.2237112522125245,-0.9702492356300354,1.350232720375061,-1.0618624687194825,1.0807721614837647,1.0802806615829468,0.7682317495346069]},"biases":[0.17787431180477143,-0.5853275656700134,-0.29723024368286135,2.1554207801818849,-0.9923571348190308,-0.3337990939617157,-0.1968427449464798,0.8890532851219177,0.20374682545661927,0.8789929151535034,0.010739506222307682,0.1959218680858612,-2.42878794670105,-0.8164367079734802,-1.4269441366195679,1.8571594953536988,-0.6321682333946228,0.044116877019405368,-0.4415980875492096,-0.028006616979837419,-0.6508172750473023,-0.4446541666984558]},{"neurons":[-0.9874187707901001,-0.9999547600746155,0.9904335737228394,-0.8419205546379089,-0.9999948740005493,-0.9941663146018982,1.0,-0.09910813719034195,-0.9999999403953552,-0.9240587949752808,-0.9103103280067444],"weights":{"rows":11,"cols":22,"data":[-1.1598459482192994,0.7898828983306885,2.0880064964294435,-0.12284190207719803,1.2976893186569214,0.1191287487745285,-0.5950567126274109,0.9944471716880798,-0.4964604079723358,0.005231677088886499,-0.45277801156044009,1.1231495141983033,-0.15599425137043,-0.0020559600088745357,0.5796895623207092,0.1693388670682907,-0.47791019082069399,-0.8530188798904419,-0.7841467261314392,-1.2257397174835206,0.06087496504187584,0.038704030215740207,-1.489842176437378,-0.8144015073776245,0.24589665234088899,-0.2949661612510681,0.07778596878051758,0.47503426671028139,-0.7380093336105347,0.10638321191072464,0.38477468490600588,0.14673475921154023,-1.3737717866897584,1.2185757160186768,0.6179675459861755,0.5135725736618042,-0.3674287796020508,0.40315574407577517,-2.0227322578430177,-0.00839138776063919,-0.22351880371570588,0.2979183793067932,-0.23577813804149629,0.7145892381668091,-0.4780745208263397,0.2785148024559021,-1.2207305431365967,0.9533227682113648,1.7944437265396119,-0.8222374320030212,0.9584450125694275,-0.3988998234272003,0.032961394637823108,0.751524031162262,0.20848697423934937,-0.4539225995540619,-1.393656611442566,-0.7002726197242737,-0.17034375667572022,-0.6790169477462769,-0.7909742593765259,0.06353669613599777,1.3897318840026856,0.6127310395240784,0.6844857335090637,0.21030549705028535,0.7689425945281982,-1.3225241899490357,-1.1125410795211793,-0.8208656907081604,1.4863014221191407,-0.3822824954986572,0.32698020339012148,0.15901310741901399,0.06176704168319702,-1.1969919204711915,-0.3728831112384796,-0.3646731972694397,-0.039302729070186618,-0.9735082387924194,0.8595876693725586,-0.6864581108093262,-1.7019728422164918,-0.14021307229995728,-0.9690489768981934,0.1325826644897461,0.6816991567611694,0.506960391998291,1.371806025505066,1.3995487689971924,-0.3384595215320587,-0.26183927059173586,1.1852915287017823,0.14463354647159577,-1.6978040933609009,0.5570958256721497,-0.8343449831008911,-0.43780651688575747,-0.09755312651395798,1.3048144578933716,0.9912934899330139,-2.238387107849121,-0.45882517099380495,0.6213123798370361,-1.4607768058776856,0.5406824350357056,-0.4031766653060913,1.485791563987732,-0.1481095552444458,0.1518450677394867,-0.8376260995864868,-1.01702880859375,-0.6720408201217651,0.9545362591743469,0.21188916265964509,0.19984912872314454,-0.37125423550605776,0.5606247186660767,-0.8807413578033447,0.3171607553958893,0.0002896925143431872,0.6594826579093933,-0.42582717537879946,0.2727753818035126,0.8648707866668701,1.2837949991226197,-0.388812392950058,0.7687056064605713,0.09875625371932984,-1.5623282194137574,-0.0033284525852650406,-1.3194547891616822,0.5427191853523254,-1.3745405673980713,2.063917636871338,-0.2639535963535309,0.44578060507774355,1.34406316280365,0.6195899844169617,0.7561740875244141,-0.13906329870224,1.2859152555465699,-1.491814374923706,-0.9310181736946106,0.13735893368721009,-1.0632320642471314,0.06717219948768616,0.20757749676704408,-1.00874662399292,1.243402361869812,1.1683202981948853,0.08039350807666779,0.7199300527572632,-0.38974708318710329,-0.5353184938430786,0.2590557038784027,0.22301085293293,0.44217729568481448,-0.3274112343788147,0.20864765346050263,-0.8072311282157898,0.1254277378320694,-0.36103108525276186,-0.7938328385353088,1.467234492301941,-0.20921480655670167,-0.27280285954475405,-1.1964725255966187,-0.7082660794258118,-0.9748299717903137,0.5812856554985046,0.5888229012489319,1.0106233358383179,-0.8537092208862305,0.00957702286541462,0.9906629920005798,-1.0755345821380616,3.086972713470459,-1.7553144693374634,0.6727215647697449,-0.4861304759979248,-0.7397178411483765,-0.12076571583747864,0.3280673027038574,-2.76198673248291,-0.5876889228820801,1.2016925811767579,-1.051068663597107,-0.19675295054912568,-0.3891315758228302,0.4107505679130554,-0.5616564154624939,1.2881277799606324,0.09079690277576447,-2.177460193634033,0.627224326133728,1.0429272651672364,-0.5743334293365479,-0.23671305179595948,1.2039170265197755,-1.841788649559021,0.8318219184875488,0.07411494106054306,-1.6528449058532715,-0.09502246230840683,-0.8325889706611633,-0.37352293729782107,0.3219236433506012,-0.01978766731917858,-0.1998123824596405,1.14619779586792,0.6034775972366333,-1.4696415662765504,-0.23484864830970765,0.5418402552604675,0.3559144139289856,-0.0048154424875974659,0.8673314452171326,-0.022907523438334466,0.703637421131134,1.2568782567977906,0.9164818525314331,-1.5434209108352662,0.5817815065383911,-0.6231458187103272,-0.2640478014945984,-1.3234857320785523,-0.5454890727996826,-1.1590375900268555,0.35922494530677798,0.6022117137908936,1.0588932037353516,0.0659220963716507,-1.5573387145996094,-0.9035771489143372,-1.0098767280578614,1.0879462957382203,1.566292405128479,0.5332368612289429,0.4431160092353821,0.4222462773323059,0.9067422151565552]},"biases":[0.39457786083221438,-0.4990113079547882,-1.527148723602295,-0.8781806230545044,-0.9056165814399719,-1.107339859008789,0.6537860035896301,-0.7090965509414673,2.5774145126342775,0.9338124990463257,-1.1000500917434693]}],"seed":1424734881}