{"layers":[{"neurons":[-0.8752529621124268,0.559070348739624,0.7131326794624329,-0.924467921257019,0.9828444123268127,-0.999499499797821,0.6263799071311951,-0.12617944180965424,-0.9971559643745422,-0.9917905926704407,-0.9999894499778748,-0.9695304036140442,0.6057682037353516,-0.9960447549819946,0.9959351420402527,0.9996072053909302,-0.9883477687835693,0.9971523880958557,-0.9842222929000855,-0.9778854846954346,0.9941762089729309,-0.9029308557510376,-0.9938190579414368,0.999917209148407,-0.5997216701507568,0.5194107294082642,0.9804919362068176,0.9770092368125916,-0.9427345395088196,-0.9875364899635315,-0.9237766861915588,-0.766966700553894,-0.9511448740959168,-0.9891128540039063,0.9814006686210632,0.6247474551200867,0.90059494972229,0.9917758107185364,-0.998085081577301,0.9868168830871582,0.7571842074394226,0.8252245783805847,-0.43979233503341677,0.5749911069869995],"weights":{"rows":44,"cols":22,"data":[0.9542705416679382,-1.0380630493164063,0.7967860102653503,0.6094260215759277,0.5779910683631897,-1.2086609601974488,0.41985854506492617,0.8325660228729248,-0.40543463826179507,0.17383672297000886,-0.38133496046066286,-0.311257541179657,0.8920173048973084,1.2020467519760132,-0.185594841837883,0.23686203360557557,-1.0772141218185425,0.8056777715682983,0.833513081073761,1.0476857423782349,0.13982561230659486,-0.6165820360183716,0.9170379638671875,0.168518528342247,0.5609703063964844,-1.7821074724197388,0.41874197125434878,-1.057882308959961,0.630168616771698,1.964585304260254,-1.5513516664505005,0.12056463211774826,-1.3153506517410279,-0.5896559357643127,0.9750694632530212,-0.9139456748962402,-0.3733139634132385,-0.6077229976654053,0.04347236454486847,1.2010409832000733,-0.5474095344543457,-0.16793280839920045,1.1576085090637208,-0.39851152896881106,-0.16414321959018708,-0.583100438117981,-1.5657129287719727,0.024187792092561723,-0.5079599022865295,-0.3433234989643097,0.06306307762861252,-0.9386482834815979,-1.1851832866668702,0.9751097559928894,-1.6329729557037354,-0.30331331491470339,-2.0550496578216554,-0.1735566258430481,-0.5354948043823242,-0.1497182697057724,-0.8758121728897095,1.4612271785736085,-0.33790823817253115,-0.18403099477291108,-0.023837551474571229,-0.5222523212432861,-0.047481719404459,-0.09145361185073853,0.32036784291267397,0.46578744053840639,0.5963876843452454,1.7195876836776734,1.6565433740615845,0.9737770557403565,0.49169763922691347,-0.6624352335929871,-1.5121383666992188,0.610173225402832,1.239725112915039,-0.5343424081802368,-0.38543766736984255,0.39677953720092776,1.5780246257781983,0.11875329166650772,-0.26317527890205386,0.6351475715637207,0.6098544001579285,-1.5580666065216065,1.0292229652404786,-0.31815168261528017,-0.18300558626651765,1.070974349975586,-0.8136711716651917,0.6945953369140625,-1.4026402235031129,-0.22131353616714478,0.016260413452982904,0.07998975366353989,-0.255222350358963,-1.2588460445404053,-0.8346442580223084,0.7310411930084229,0.15906260907649995,0.5642104744911194,-0.08893192559480667,-0.25729459524154665,0.3111559748649597,-0.9753788113594055,-0.3970797657966614,-0.04127931222319603,0.04511955380439758,0.7972679734230042,-0.5976701378822327,0.06687454879283905,0.74057936668396,-2.032259941101074,0.08456046134233475,0.04644090682268143,0.38118574023246767,-0.8662578463554382,-0.6076568365097046,-0.4859788119792938,0.9317507743835449,-1.7360765933990479,0.3865312933921814,0.9610978364944458,-1.3088574409484864,0.15288694202899934,-0.2781350016593933,-1.9174562692642213,-1.3908579349517823,-0.44467872381210329,1.1689125299453736,0.8916202187538147,0.6945673823356628,-0.00673255417495966,-0.0330083891749382,-0.8322227597236633,-0.26614969968795779,-0.11632487922906876,-0.011449416168034077,-0.7560201287269592,0.21206031739711762,0.17818717658519746,-0.3319246470928192,0.16419054567813874,-0.506096363067627,-0.8429322838783264,-0.3653775155544281,-0.11409509181976319,0.20676109194755555,0.9849997162818909,0.564828097820282,-0.3444453775882721,0.6881001591682434,-0.15488582849502564,0.8085345029830933,0.9178388118743897,-0.8583201766014099,0.05462408810853958,0.53477543592453,-0.12235507369041443,-1.4073947668075562,-0.4938139021396637,1.6546664237976075,0.09881885349750519,-0.40642285346984866,0.23316001892089845,-0.4693045914173126,0.9408628940582275,-0.17452043294906617,-0.17431877553462983,-1.0549598932266236,-1.2828524112701417,-0.4606424868106842,-0.6308538317680359,0.6980030536651611,0.4257456660270691,-0.8129189014434815,0.8284345269203186,-1.0635452270507813,-0.5749712586402893,0.36772462725639346,0.779710590839386,0.4344691336154938,-0.6093860268592835,-1.6726466417312623,0.9035525918006897,-1.1571433544158936,-0.37680190801620486,-0.44985148310661318,-0.27649593353271487,-1.582080602645874,0.8057407140731812,-0.1449078768491745,0.05407506972551346,0.01214559841901064,-1.3722261190414429,-0.8818765878677368,0.8361325263977051,0.22370757162570954,-0.019826969131827356,0.654083788394928,0.01355296466499567,0.07514861226081848,0.6080373525619507,-0.7925541400909424,0.11320070922374726,0.03562891483306885,1.3665627241134644,1.2071616649627686,0.12654811143875123,-0.6507360339164734,0.7226673364639282,0.15237820148468018,0.3378918170928955,-0.6425673365592957,-2.397782564163208,0.4459262788295746,-0.45352697372436526,0.7036339044570923,0.23197731375694276,-0.6785235404968262,0.6492316722869873,1.3493283987045289,-0.5018088221549988,-0.33307674527168276,-0.5813624262809753,2.1819827556610109,-0.007197574712336063,0.028614982962608339,0.1391579806804657,1.2096643447875977,-1.1790950298309327,-0.7133277654647827,0.5145044326782227,0.48284274339675906,0.7103311419487,-0.7312842607498169,-1.021619200706482,-0.44842079281806948,0.4438801109790802,0.24518853425979615,0.5995798110961914,0.13053710758686067,2.1123030185699465,-0.9025777578353882,-1.096817970275879,0.05886450782418251,0.5554690957069397,0.13067810237407685,1.1511058807373047,-0.3509701192378998,1.633567452430725,-0.6477267146110535,-0.6674046516418457,-0.7177407145500183,0.4285889267921448,-0.3611033856868744,-0.024986736476421357,0.11562386155128479,0.18401190638542176,-0.7329154014587402,0.4210348129272461,0.16124853491783143,0.8422908782958984,0.4200631082057953,-0.7713132500648499,0.3654524087905884,-0.9780265688896179,-1.0072487592697144,0.27941054105758669,0.9419267177581787,0.4992949366569519,0.4062736928462982,0.3383207619190216,-0.423638254404068,0.38715365529060366,-0.05865835025906563,0.39727771282196047,-0.12380876392126084,0.3406517505645752,-1.1481873989105225,-0.21082840859889985,0.9195173978805542,-0.8861725926399231,0.04968077689409256,-0.40118807554244997,-0.2943912148475647,0.2659657895565033,0.5044934153556824,-0.5838087201118469,-1.3370535373687745,-1.1524733304977418,-0.3142414689064026,1.9545499086380005,0.060976069420576099,0.4033460021018982,1.0931276082992554,0.23577575385570527,0.4115413427352905,-1.6122455596923829,-0.6411074995994568,1.0400488376617432,-0.6504420042037964,0.19949813187122346,0.7125722765922546,-0.014378933236002922,0.17837245762348176,-0.27610597014427187,-0.06229810416698456,-0.9867687225341797,1.0380998849868775,-1.1364226341247559,-0.6594781279563904,-0.19229523837566377,-0.30963456630706789,-0.7156476378440857,-1.42999267578125,0.7249626517295837,0.1174575611948967,1.2908908128738404,-2.0208845138549806,-0.03111874684691429,-0.20785148441791535,-0.03534168750047684,0.3187636435031891,-1.4437434673309327,-1.7493914365768433,-0.000457181129604578,-1.8636136054992676,0.26391738653182986,-0.2640513777732849,-0.7468737959861755,1.7337396144866944,-0.31638818979263308,-0.5997576117515564,-0.488181471824646,-1.1943615674972535,0.3856615126132965,-0.7096137404441834,-0.4645160734653473,0.7074132561683655,1.194977045059204,0.6473372578620911,-0.5933976173400879,1.5160577297210694,-0.6140599846839905,0.2466529756784439,2.449854850769043,-0.3230052888393402,-0.1513046771287918,-0.4072723984718323,1.586635708808899,0.23759505152702332,0.2764142155647278,0.9607241153717041,0.17485132813453675,0.9923784136772156,0.7739469408988953,0.5074384808540344,-1.0306316614151,-1.4220205545425416,0.6438959240913391,1.63521409034729,0.1676807850599289,1.1059603691101075,0.9214071035385132,-0.5185641646385193,0.732319712638855,0.7322231531143189,-1.3852839469909669,-0.07725854218006134,-0.3792479932308197,0.07288216054439545,-0.014371559955179692,1.3972288370132447,0.8595006465911865,0.7106083631515503,-0.3180718719959259,0.9911000728607178,-0.9694338440895081,-1.010154128074646,0.03997890278697014,-0.3713412284851074,-1.168501377105713,-0.4294126629829407,1.5194453001022339,-0.22508326172828675,1.2051445245742798,-0.9124564528465271,1.2299818992614747,-0.14217956364154817,1.833324670791626,1.3211287260055543,0.1380336582660675,-1.7653961181640626,-0.718045175075531,0.627870500087738,0.08400669693946839,0.40897127985954287,0.1275843232870102,0.5271158218383789,-0.014036301523447037,-0.7564845681190491,-0.5448471307754517,0.49739620089530947,0.5083886384963989,0.8162335157394409,-0.9515990614891052,0.41715967655181887,0.8476577997207642,0.5174024701118469,0.4253571927547455,0.8174174427986145,0.36300766468048098,0.07678152620792389,0.3882254660129547,0.8120640516281128,1.123836874961853,0.8679811358451843,0.42115190625190737,-0.24114786088466645,-0.7159979343414307,1.6076710224151612,0.4015018939971924,-0.669474184513092,0.11751820892095566,-0.6055763363838196,1.9337395429611207,0.7517557740211487,0.6611641049385071,0.8215416669845581,-0.8738475441932678,-0.40233564376831057,1.752727746963501,-0.1477428376674652,1.1328116655349732,-0.500726580619812,-0.6857516765594482,-0.33652958273887637,1.0067716836929322,0.6382546424865723,0.40078407526016238,0.6893168091773987,-0.7915622591972351,0.6380884051322937,-1.55836820602417,-1.1285737752914429,-1.319426417350769,-0.401564359664917,-0.6343317031860352,-0.456097811460495,0.143523707985878,0.21653413772583009,-0.9875022768974304,0.03495325520634651,-0.3122308552265167,-0.09925931692123413,0.8526351451873779,0.2235082983970642,0.023466549813747407,0.7579439878463745,-0.6943566203117371,0.5191692113876343,0.3616572320461273,0.5527572631835938,-0.5050015449523926,-0.5299763083457947,-0.08642203360795975,0.3079202175140381,0.01044913474470377,0.3815658390522003,1.0330466032028199,-0.9551838636398315,0.2255239188671112,-0.6849686503410339,0.14556823670864106,0.9516738653182983,2.7021963596343996,1.610068917274475,0.024457259103655816,0.04678463935852051,0.2580869495868683,-0.2947414815425873,-1.6895736455917359,-0.9751535654067993,0.12234118580818176,0.8738682866096497,-0.7185337543487549,-0.05726989731192589,0.07375971972942352,2.0576226711273195,0.3499720096588135,1.4007383584976197,-0.20043961703777314,-0.21028055250644685,0.30427277088165285,-2.180821180343628,-0.16690178215503694,-0.9433666467666626,-0.11592511087656021,-0.2251640260219574,-0.3985089361667633,0.369316041469574,1.828040361404419,-1.1093119382858277,0.4970422387123108,1.73111093044281,-0.03203366696834564,-0.5607596039772034,0.044334348291158679,-1.1814414262771607,0.1926470845937729,0.3200800120830536,-0.38285496830940249,0.3367322087287903,-0.7792192101478577,0.4098187983036041,1.0794644355773926,-1.4597502946853638,-0.05449608340859413,-0.09459899365901947,-0.1932893842458725,-0.467901349067688,-0.05482904240489006,-0.611278235912323,-1.257590651512146,0.783349335193634,-0.7105531692504883,0.24289964139461518,0.5689128637313843,-0.7629779577255249,0.7538822293281555,0.4271989166736603,0.29267367720603945,-0.7812768220901489,-0.7794472575187683,0.49541783332824709,-0.5396767854690552,1.3687489032745362,-0.703623354434967,0.8168942928314209,-0.4241957664489746,0.1501137763261795,-1.003828525543213,-1.1797325611114503,-0.2849045991897583,-0.48736077547073367,-0.41241446137428286,-1.4311184883117676,0.25980091094970705,0.31414926052093508,-0.9298874735832214,-0.5224190354347229,-0.057540323585271838,-2.1204445362091066,0.03796936944127083,0.2811449468135834,-0.49516186118125918,-1.057712435722351,1.039391279220581,0.5616731643676758,-1.2935692071914673,0.9869771003723145,-1.6220766305923463,-0.6238003969192505,0.7375733256340027,-0.1311701089143753,-1.3518284559249879,-0.013418092392385006,-0.8217659592628479,1.3782575130462647,-0.6645040512084961,1.4148980379104615,2.1814637184143068,-0.7763829827308655,0.21688269078731538,0.4212671220302582,-0.27611827850341799,0.7363980412483215,0.3278219401836395,-1.133837342262268,-0.8736461997032166,0.6072198748588562,1.479861855506897,-0.1672324538230896,0.7574816346168518,1.0868589878082276,-0.31826984882354739,2.069648504257202,0.3756181299686432,-1.0937750339508057,0.23378391563892365,-0.2735179364681244,-0.14178141951560975,0.5538860559463501,-0.8209293484687805,-0.109347403049469,-0.3512534499168396,-1.795514702796936,0.04517783224582672,0.7932877540588379,-0.8282527327537537,-0.30003419518470766,0.12299401313066483,-0.3976154923439026,0.028338413685560228,0.0726672112941742,-0.23312371969223023,0.5462520718574524,0.1956561803817749,-0.07979997247457504,-0.035457104444503787,-0.7475561499595642,-0.5464764833450317,0.6037969589233398,-0.36907270550727847,-0.5780416131019592,0.0798734724521637,-0.7253937125205994,-0.17169764637947083,-0.7294164896011353,-0.3512721061706543,1.2932260036468506,-0.8540806770324707,-0.2475740909576416,-0.03985930234193802,0.17140254378318788,-0.3454493284225464,0.3132137954235077,0.08990908414125443,-0.5429555773735046,-0.11316084116697312,0.01451023481786251,-0.2768683135509491,-0.5468355417251587,-0.2807592451572418,-0.24840375781059266,0.4586748480796814,-1.0949134826660157,0.2024673968553543,0.6732945442199707,-0.7922236919403076,-0.5073955059051514,-0.19644641876220704,-0.594351053237915,-0.09516965597867966,-0.513361930847168,-0.2906956970691681,1.0942051410675049,-0.1939155012369156,0.1486784815788269,1.1769300699234009,-0.45941367745399477,-0.0691940039396286,-0.02326635830104351,-0.9371845126152039,0.8406128883361816,-0.19145941734313966,-0.4064577519893646,0.5592144727706909,0.7965090870857239,0.8440281748771668,1.1769213676452637,0.5755437612533569,0.4539220631122589,-0.5722631216049194,2.372175693511963,-0.34562087059020998,-0.7255932092666626,-0.8635328412055969,-0.14137260615825654,-1.3873814344406129,-0.2744739055633545,-0.037871476262807849,-0.1710333377122879,-0.8020909428596497,-0.24522115290164948,0.7924672365188599,0.04156355559825897,-0.1726568043231964,-0.4917851686477661,0.915228545665741,-0.5111247301101685,-0.20671318471431733,0.6280086636543274,-0.02734588459134102,-0.8583574891090393,0.05527569353580475,0.5471129417419434,0.534201443195343,0.7612845301628113,-0.9633684754371643,-0.3273676335811615,-0.4956420958042145,-0.6625133156776428,0.9348308444023132,-0.39607903361320498,-0.03175109624862671,-0.3572045564651489,1.0740909576416016,0.9893538355827332,-0.5321317911148071,-0.4688112735748291,-0.9754065275192261,0.6176823377609253,0.11757226288318634,-0.4425165355205536,-1.2768161296844483,1.3436346054077149,-0.3996110260486603,0.4850669503211975,-0.2807600200176239,-0.48195528984069826,-0.1448206901550293,-0.07338903844356537,-0.014591667801141739,-0.2803632915019989,-0.23650643229484559,1.7513333559036255,1.5690772533416749,0.5774433612823486,0.4429256021976471,0.016518881544470788,-1.3633992671966553,0.16116438806056977,0.40966683626174929,-0.39263206720352175,1.0524626970291138,-0.42814162373542788,0.23510655760765077,-1.102521300315857,1.2665294408798218,1.3210290670394898,0.78426194190979,0.4078042507171631,0.19704586267471314,-0.8597303032875061,0.8306772708892822,-1.005767583847046,0.05806015804409981,0.7774701714515686,0.7854831218719482,0.35533514618873598,0.40121757984161379,-1.431984782218933,-1.1497645378112794,-0.2711094617843628,-0.10450458526611328,0.8144991993904114,-0.5233457684516907,-0.06620648503303528,0.988586962223053,1.0713211297988892,0.5901194214820862,0.1373027116060257,0.5751010775566101,-0.6278111338615418,0.19700954854488374,-1.2071367502212525,-0.1319640576839447,-0.3896033763885498,-0.8254089951515198,-0.3868420422077179,-0.6797178387641907,-0.18374453485012055,0.9776862263679504,1.0127848386764527,0.044528741389513019,-1.0345861911773682,-0.5846747159957886,0.6172195076942444,0.14463751018047334,-0.5946290493011475,0.3958222270011902,-0.8679735660552979,-0.18354839086532594,-0.5861323475837708,-0.7515774965286255,0.2512996196746826,0.297403484582901,0.9463263154029846,1.5335798263549805,-0.12001021951436997,0.9553574919700623,0.27405795454978945,0.10716552287340164,-0.8989062905311585,0.36771613359451296,0.6335306763648987,-0.9309842586517334,-0.08227550983428955,-0.25594639778137209,-1.293732762336731,-0.45737510919570925,0.09379808604717255,0.8427601456642151,-0.3504093587398529,-0.5368559956550598,-0.31310978531837466,-3.176853656768799,0.664752721786499,-0.7049675583839417,0.22485065460205079,0.45221245288848879,0.43449825048446658,-0.3016391098499298,0.18613536655902863,0.7375980615615845,-0.6562809348106384,0.42023733258247378,0.27132081985473635,0.5489179491996765,0.2056509405374527,-1.4478551149368287,-0.030521811917424203,-0.012419357895851136,-0.5417376160621643,0.8694683313369751,0.16834864020347596,-0.031158842146396638,0.22017480432987214,0.0723918080329895,-0.905439019203186,-0.136874258518219,-0.8063230514526367,0.02339090406894684,-1.6474499702453614,-0.3159855008125305,0.7485597729682922,-0.1611417531967163,0.06357059627771378,0.7787467837333679,-0.26763132214546206,0.23420873284339906,0.011476472020149231,-0.7378041744232178,-0.48537689447402956,0.356428861618042,0.018747122958302499,-0.21506549417972566,1.0956268310546876,-0.0006342021515592933,0.667722225189209,-0.37232527136802676,-0.23474322259426118,0.9298597574234009,1.2505546808242798,0.8766799569129944,1.7633836269378663,-0.521275520324707,-0.40463995933532717,0.5932838916778565,-0.8790106177330017,0.9573217630386353,0.37415891885757449,0.004752637352794409,0.24962642788887025,0.6732257604598999,0.9676389098167419,0.20612271130084992,0.07982945442199707,-0.2950710356235504,-0.20734858512878419,0.6415108442306519,-0.8078524470329285,-0.7239862084388733,0.7734610438346863,-0.28739866614341738,-0.9098323583602905,0.3974316716194153,0.14457786083221436,0.1679501235485077,-0.7798499464988709,-0.17543895542621613,-0.1634511649608612,-0.3447408378124237,-0.4874941110610962,0.8689883351325989,-0.602882444858551,-0.3113008141517639,1.272810935974121,-0.3305359184741974,-0.10922183841466904,-0.5074548721313477,-0.7324653267860413,-0.7038568258285523,0.4205681383609772,-1.0105960369110108,1.0966986417770386,-0.3974153399467468,0.6642571091651917,1.4247372150421143,0.5930071473121643,-0.605009913444519,-0.6076758503913879,0.14055290818214417,0.8311136364936829,-2.367405891418457,1.8814605474472047,1.6688202619552613,0.6228205561637878,0.6136469841003418,-0.11695653945207596,0.6865019798278809,0.2023199498653412,-0.05286403372883797,-1.3077447414398194,-0.40115466713905337,-0.8018526434898377,0.8333597779273987,0.5832878351211548,1.0600361824035645,-0.17319968342781068,-0.11505329608917237,0.6729251742362976,0.3777664005756378,-0.19032254815101624,0.10372728854417801,0.01434294879436493,0.4841826558113098,-1.05599045753479,-0.6139597296714783,-0.07500028610229492,0.3127467632293701,-1.7582173347473145,0.730584979057312,-0.5581246614456177,-0.3530321419239044,1.1939454078674317,0.22511792182922364,-0.08162274956703186,-0.5380973815917969,-1.576846718788147,-0.9537782073020935,-0.35392874479293826,0.5434411764144898,-0.8975301384925842,-0.34832775592803957,-1.2286826372146607,-1.4519470930099488,-0.06390313804149628,-1.1087114810943604,-0.1419110894203186,0.05306632071733475,1.3396341800689698,-0.7715960144996643,0.033435970544815066,-0.7581143379211426,0.5509655475616455,-1.5221458673477173,0.49631837010383608,1.6052449941635132,-1.90299654006958,-1.067439317703247,0.44803357124328616,0.7784004807472229,0.3333316445350647,0.7698961496353149,0.13711123168468476,-0.6856779456138611,-1.2965376377105713,-0.1932363063097,1.2793834209442139,0.9530940651893616,-0.15058362483978272,1.35248863697052]},"biases":[-0.3368765413761139,-0.02415742725133896,-0.40376415848731997,-0.5049359202384949,-0.16766709089279176,0.6998748183250427,-0.7783299088478088,0.42326101660728457,-1.577894926071167,-0.41121575236320498,-0.6994500160217285,-0.1908048838376999,1.3112143278121949,-1.2424521446228028,0.48525357246398928,-0.5530861616134644,0.8089494705200195,0.4825083911418915,-1.6817682981491089,0.3984495997428894,-0.5440923571586609,-0.9996227025985718,0.7645503282546997,1.9368841648101807,0.24974940717220307,0.3075823187828064,0.38924217224121096,-0.4892107844352722,-0.20960316061973573,-0.6949127912521362,-1.033822774887085,-0.6713818907737732,-0.4472752809524536,-1.7949557304382325,-0.2329087108373642,-1.1518359184265137,0.318632036447525,-0.44896966218948367,0.540136992931366,0.1246902197599411,0.5325680375099182,1.3373072147369385,-0.15765821933746339,-0.29395151138305666]},{"neurons":[0.9942343831062317,-0.9965441226959229,1.0,0.975009560585022,0.9971756935119629,-0.9999977350234985,0.9999999403953552,-1.0,0.9999564290046692,0.9989534020423889,-0.9874454736709595,-0.9536197185516357,0.5361248850822449,-0.995350182056427,-1.0,-0.9999994039535523,0.9985571503639221,1.0,1.0,-0.9999865293502808,0.7903239727020264,-1.0],"weights":{"rows":22,"cols":44,"data":[0.35088759660720827,0.2901359796524048,0.021876754239201547,0.658475935459137,-0.8853830099105835,0.9612913131713867,0.7349317669868469,-0.7307783365249634,0.7020379304885864,-0.4763813614845276,-0.5256374478340149,-0.03061024099588394,0.42385929822921755,-1.1595876216888428,0.6711531281471252,-0.036237653344869617,-0.5660978555679321,0.160660058259964,-0.924030601978302,-1.5416728258132935,-0.8365154266357422,-0.2950584590435028,-0.6882346868515015,-0.6635927557945252,-0.8585600256919861,0.9772424697875977,0.24427415430545808,-1.8495092391967774,0.27183768153190615,0.727859377861023,-1.8034641742706299,-2.0306801795959474,-0.9613426327705383,0.5853124856948853,-1.176466703414917,0.18065407872200013,-0.1392410695552826,-1.0174016952514649,-0.34000879526138308,0.3303714096546173,-1.3741482496261597,-0.014952045865356923,0.14564310014247895,-0.5966904163360596,0.6919881105422974,0.36345571279525759,0.7081115245819092,1.2895524501800538,0.584616482257843,0.1450427621603012,1.2193169593811036,-0.19857802987098695,-1.1479864120483399,0.8778256773948669,1.2757515907287598,-1.164612054824829,0.058248959481716159,0.9064592123031616,-0.6503875851631165,-1.3972601890563965,0.0537874698638916,1.2090615034103394,-0.2632625997066498,-0.6123666167259216,-0.6220042705535889,0.4212273359298706,2.1979360580444338,-0.08686742186546326,0.24395625293254853,-0.08724270761013031,0.3163203001022339,2.3358335494995119,2.488330841064453,2.089158535003662,-0.34531283378601076,-2.2336199283599855,-0.473467081785202,-0.8381665349006653,-0.1388888955116272,-1.5400784015655518,0.4881366491317749,-0.3252807557582855,-0.1934165507555008,-0.7457195520401001,0.9915099143981934,0.2231222689151764,0.028781870380043985,1.4894683361053467,0.7839933037757874,0.17073814570903779,1.3026520013809205,-1.6684776544570923,1.9135512113571168,-0.003373475046828389,0.5674846768379211,-0.9049130082130432,0.13839071989059449,-0.17429354786872865,-0.6811820864677429,-0.7339161038398743,-1.7564783096313477,0.007334527093917131,0.36587342619895937,0.9399749636650086,-1.566351294517517,1.1703081130981446,-0.5617437362670898,0.7660342454910278,-0.10630975663661957,0.3545909821987152,-1.544407606124878,-0.8020834922790527,-0.6104323267936707,0.3391348421573639,-0.2283896654844284,0.7435102462768555,-0.48895058035850527,0.0024672881700098516,0.15988321602344514,-0.32757890224456789,0.7704136371612549,1.2181066274642945,-0.15343041718006135,-0.31332945823669436,0.934004008769989,-0.5961785912513733,-0.1715085357427597,-0.4765188694000244,0.7242175936698914,0.16279146075248719,-0.6375902891159058,1.3524599075317383,0.27747800946235659,0.8619023561477661,-0.9472214579582214,1.3074977397918702,0.36578693985939028,-0.38272401690483096,-0.6340505480766296,0.22985796630382539,0.41094163060188296,-1.42109215259552,-0.07477754354476929,-0.2947414219379425,-0.8857642412185669,0.1186879351735115,1.4196208715438843,0.8142022490501404,-0.46208304166793826,0.7483352422714233,0.18315626680850984,-0.4973531663417816,-0.12390772998332977,0.5413912534713745,0.5943348407745361,0.49648019671440127,-0.15071523189544679,0.6692624688148499,0.5390859246253967,-0.4832286238670349,-0.6330354809761047,0.059615567326545718,-0.22302067279815675,1.3614767789840699,-0.8594887852668762,-1.0136750936508179,-0.13115105032920838,-0.9192687273025513,-0.49480903148651125,-1.727134346961975,-0.13137072324752809,-0.7516663074493408,0.49107351899147036,0.789608895778656,0.24304795265197755,-0.3998319208621979,-0.18497012555599214,-0.04519207403063774,0.9927016496658325,0.5739147067070007,0.26761725544929507,-0.8830722570419312,1.4144980907440186,-0.8509582877159119,0.4007450044155121,-1.6523034572601319,0.3208868205547333,1.3081578016281129,0.8829211592674255,-0.5674232244491577,-0.32439523935317995,-0.6551240086555481,-0.9020774960517883,1.2017924785614014,0.7878825664520264,0.15749889612197877,0.4721069931983948,0.19337114691734315,0.13491059839725495,-0.2019912153482437,0.4440348148345947,-0.4141060709953308,-0.35831719636917117,0.4804072380065918,-0.3276052474975586,-0.5074779391288757,0.13760696351528169,0.4143737256526947,0.025167454034090043,-0.016110220924019815,-0.4426458179950714,0.41093891859054568,-0.9176687002182007,0.45711636543273928,-0.7398986220359802,0.19513212144374848,-0.556810736656189,0.237699955701828,0.7167906165122986,0.9835171699523926,-0.4708883464336395,0.08934614807367325,-0.2762543261051178,-1.433435082435608,-1.1678978204727173,-0.09480004757642746,-0.898831307888031,0.12437932193279267,0.4378223419189453,0.9735692739486694,1.4031946659088135,0.3045933246612549,-0.2908610999584198,0.6846046447753906,-0.06730253249406815,-0.5704994797706604,0.5347914695739746,0.8543899655342102,0.003136133775115013,-1.5995335578918458,-1.9558188915252686,-0.5632213950157166,0.5086703300476074,-0.033655889332294467,0.21155524253845216,1.1606508493423463,-1.0395578145980836,0.24104353785514832,-0.688459575176239,-0.31129348278045657,0.8593652844429016,0.08422253280878067,-0.6160832047462463,0.4806225001811981,-0.07629109174013138,0.920084536075592,-0.9289595484733582,-0.2163914144039154,0.7691309452056885,0.18785245716571809,-0.00618927925825119,0.5033302903175354,0.7524638772010803,-0.581078052520752,1.3856174945831299,0.2993243634700775,-0.7896507382392883,-0.215356707572937,-0.7805346250534058,-1.0096584558486939,-0.6991444230079651,-0.2736472487449646,-0.21878211200237275,-0.3610008955001831,-0.8852344155311585,-0.26510387659072878,0.06331780552864075,-0.009244673885405064,1.8032357692718506,-0.24561475217342378,-0.7714844346046448,-0.07528484612703324,-1.4386025667190552,-0.5593510866165161,0.5278171300888062,-0.855898380279541,-1.762782096862793,0.7512500882148743,-0.2070160061120987,-0.6991512775421143,-0.45832744240760805,-0.7663905024528503,-0.7896747589111328,0.14732612669467927,-0.9029890894889832,0.3981269598007202,0.6961562633514404,0.6801937818527222,0.4623032212257385,0.4641633629798889,-0.4854942560195923,2.063652753829956,0.4463731348514557,0.10728266835212708,0.15561339259147645,0.32110047340393069,-0.7522376179695129,-0.4711470901966095,1.4424155950546265,-0.3120191693305969,-0.18441331386566163,0.422860711812973,-0.8422008156776428,0.9620816707611084,-0.5787230730056763,-0.2395307868719101,-0.3042951822280884,0.6215126514434815,-0.15157030522823335,-0.24904365837574006,0.06236639618873596,-0.01285998523235321,-0.0822959914803505,0.48177093267440798,-0.22577401995658875,-1.1199442148208619,0.38559848070144656,0.09199650585651398,-0.5761606693267822,-0.17473798990249635,1.7835859060287476,0.023272618651390077,-0.3107670843601227,-0.38185426592826846,0.4328728914260864,0.30874767899513247,0.09545063227415085,1.2551825046539307,0.09297209233045578,0.7597866058349609,-0.4177078902721405,-0.37291261553764346,-0.1490669548511505,-0.41455909609794619,-1.1868292093276978,-0.2908479869365692,1.5072294473648072,0.7829675674438477,-0.42007434368133547,-1.29611337184906,-0.12503968179225923,0.21063506603240968,1.0628662109375,0.5453904271125794,-0.03448866307735443,-0.9920361638069153,-0.19588488340377809,-0.10401776432991028,-0.5634415745735169,-1.1021413803100587,0.7106828093528748,0.9407232403755188,-0.02883441559970379,1.646754503250122,0.7305244207382202,-1.7175617218017579,-1.8452805280685425,1.6347101926803589,-0.8092959523200989,-1.1908161640167237,-0.6907915472984314,0.404412180185318,0.8290809988975525,-1.193114161491394,-0.0778697058558464,-0.02855224348604679,0.8011066913604736,-0.3284470736980438,0.4692818224430084,-0.9119700789451599,-0.45366623997688296,-0.6859349608421326,0.05505849048495293,-0.4051799774169922,-0.43797242641448977,1.318406343460083,-0.657917320728302,0.1106797605752945,-0.15591558814048768,0.4105059802532196,-1.4233978986740113,2.9930078983306886,0.5319252014160156,-0.4999634027481079,-1.523962378501892,0.6475213170051575,0.5753704905509949,0.5433656573295593,0.07484953850507736,0.396311491727829,0.36128169298171999,0.15224042534828187,0.20204441249370576,0.7463989853858948,0.26781949400901797,-2.236666440963745,0.12338617444038391,-0.3849121034145355,-0.0464811846613884,-0.5720966458320618,0.0645129457116127,0.2521374225616455,1.4141931533813477,-1.0941764116287232,0.5584908723831177,-1.016711950302124,-0.9979620575904846,0.513601541519165,-0.4542914032936096,0.05063977465033531,0.7064489722251892,0.7148025035858154,-0.43886643648147585,0.020967788994312288,-0.5980674624443054,0.5181905627250671,0.7132768630981445,-0.6199631690979004,-0.8228287100791931,0.5924957990646362,0.5858743786811829,0.208406001329422,1.434691309928894,1.2164851427078248,-0.3584365248680115,0.3402456045150757,-0.6258077025413513,0.4065634608268738,-0.03865750879049301,-0.4718679189682007,-1.1555002927780152,0.3494262397289276,0.1666480451822281,-0.8726384043693543,1.6976258754730225,0.24687474966049195,1.158913254737854,-0.5439885854721069,0.6483356356620789,-0.2503320276737213,1.478274941444397,0.21490229666233064,0.716117799282074,0.337938129901886,-0.04249146208167076,-2.012970209121704,-0.08292864263057709,-1.237509846687317,-0.02622697688639164,0.5227783918380737,-0.211037278175354,-0.7423191666603088,-0.724138081073761,-0.8107081651687622,-0.14122775197029115,1.4555895328521729,0.5959638357162476,0.7444021701812744,0.33848538994789126,0.4134809672832489,-0.595237672328949,0.29119691252708437,0.5399648547172546,0.9525432586669922,-0.6957283020019531,-0.1915084570646286,-0.45801928639411929,-0.8096140623092651,-0.03890921175479889,-0.5288276672363281,-0.07057952135801316,1.0215872526168824,-0.7333931922912598,-1.4486600160598755,-1.0943716764450074,0.43446701765060427,-1.2036279439926148,-0.18849089741706849,-1.1943339109420777,-0.461698055267334,-0.519603431224823,-0.26011040806770327,0.443567156791687,1.081413745880127,0.0749296098947525,-0.5333768725395203,1.217881679534912,-0.3620234727859497,0.4341418743133545,-0.2622193992137909,0.4686740040779114,0.5680528283119202,-0.9262842535972595,-1.504270076751709,0.0003389079065527767,1.1819599866867066,1.0529533624649048,-0.7723714709281921,0.5894336700439453,0.021213354542851449,1.4125547409057618,1.4576841592788697,-0.5521012544631958,0.5324035286903381,0.5511193871498108,1.1194326877593995,1.6468489170074463,-0.5241177678108215,-0.3185822665691376,-1.6589161157608033,0.9248034954071045,0.5591375827789307,0.8216269612312317,0.31015124917030337,0.38230884075164797,-1.1469361782073975,-0.2261364609003067,0.3892843425273895,0.350347101688385,0.02365654706954956,1.205784559249878,-0.015820838510990144,-0.667076587677002,-0.03900443762540817,0.5132336020469666,0.5591767430305481,0.02657718025147915,0.728076696395874,0.4700920581817627,0.8347793817520142,0.0431363470852375,0.628433883190155,-1.1521564722061158,0.87230384349823,0.013351351022720337,-1.2861675024032593,-1.7543083429336548,-0.6449013352394104,-0.09750909358263016,-0.4058268368244171,-0.6444461345672607,-0.3808383047580719,0.2358459234237671,0.18855580687522889,0.6145813465118408,0.6710596680641174,-0.07642432302236557,0.3235231637954712,1.5490984916687012,-1.1469358205795289,-0.8629307150840759,-1.510598063468933,0.2956191599369049,0.264853298664093,-0.2157856523990631,0.07439450174570084,-0.7172031998634338,-0.7657774090766907,-0.9518893361091614,0.0630282610654831,-0.11114315688610077,0.07349441200494766,-0.5632073283195496,1.6881630420684815,0.23446130752563477,-0.3683507740497589,-0.19003720581531526,-0.5447636246681213,-0.3349054753780365,-0.17684012651443482,-0.34569668769836428,-0.6082656383514404,-0.2021823674440384,0.21120710670948029,-0.30962347984313967,-0.3792128562927246,0.519843578338623,-0.2783433198928833,-0.04292235150933266,-0.7472599744796753,0.9758015871047974,0.29455018043518069,-0.7317785024642944,0.9132003784179688,0.4298287630081177,-1.4740207195281983,0.13227558135986329,-0.09718094766139984,1.0426629781723023,-0.3498249351978302,0.39327797293663027,-0.13938342034816743,1.186578631401062,-0.7557785511016846,0.39298173785209658,-0.144273579120636,0.09059202671051026,0.39034923911094668,-1.1162333488464356,-0.678616464138031,-1.5918089151382447,-0.9546785950660706,0.2624208331108093,0.04675351083278656,-0.2304438203573227,-0.43876802921295168,0.3183419108390808,0.5555723309516907,-0.6527993083000183,0.07916157692670822,-0.09483430534601212,-0.015393677167594433,-0.14173997938632966,-1.0177555084228516,0.3949448764324188,0.20889955759048463,1.149506688117981,0.6180031299591065,0.14160636067390443,1.8598012924194337,-0.6837068200111389,0.9553092122077942,-0.47039932012557986,-0.3895348906517029,0.46028801798820498,0.7482846975326538,-0.7222705483436585,-0.0953642800450325,0.5563620924949646,-1.944967269897461,0.3641246259212494,-0.7573110461235046,0.23332981765270234,-0.26910433173179629,0.8689562082290649,0.7273765802383423,1.046298861503601,-0.3077416718006134,0.9476867318153381,-1.1726305484771729,-0.08880409598350525,0.2836829423904419,-0.3289209008216858,-0.8337228298187256,0.3685496747493744,-0.3886743485927582,0.40025344491004946,-0.49846014380455019,-0.7553876042366028,-1.4738643169403077,0.5063961148262024,0.9494118690490723,0.3013235032558441,0.5488681793212891,0.14072144031524659,0.8220767378807068,0.7112538814544678,-0.11593125760555268,-1.0314134359359742,0.8480470776557922,0.60860675573349,0.14483113586902619,-0.5534690022468567,0.30144721269607546,0.13050422072410584,-1.2827630043029786,0.2980295717716217,-0.7450575828552246,0.06796826422214508,-0.05975908786058426,-2.0134806632995607,0.5710425972938538,-0.7199710607528687,-0.2270943522453308,-0.1119498759508133,-0.7315938472747803,-1.6611108779907227,0.38190871477127077,0.6738229990005493,0.5839555263519287,-0.5497043132781982,0.4760069251060486,0.2895616888999939,0.6845141649246216,0.059140194207429889,0.9027605056762695,0.17158891260623933,0.332222044467926,1.1193020343780518,1.2971171140670777,0.10587485879659653,-0.8820892572402954,0.07379565387964249,-0.1656900942325592,0.33061978220939639,-0.13495886325836183,1.232006311416626,-0.7040164470672607,1.627411127090454,-0.3483416438102722,-0.3683832585811615,0.1608741730451584,-0.47161754965782168,0.15829432010650636,0.4229748547077179,-0.7452986836433411,-0.9530965685844421,-0.5896236896514893,-0.7939175367355347,-1.4373853206634522,0.024888450279831888,-0.5081986784934998,-0.19130757451057435,0.14457504451274873,0.655526876449585,-0.06969330459833145,0.18226410448551179,1.4436367750167847,0.20101158320903779,0.20950347185134889,0.0746895894408226,-0.4636540412902832,-0.40616777539253237,-0.23153695464134217,0.23669394850730897,-0.5017013549804688,-0.7631043791770935,-1.5626906156539918,0.4617268145084381,-0.7350135445594788,-0.004886569920927286,0.4863739609718323,-0.3199513554573059,-1.0315804481506348,-1.5573437213897706,0.40986430644989016,0.6296489238739014,0.32919415831565859,-0.8024001717567444,-0.12928128242492677,0.4255547821521759,-0.7096593976020813,0.29661983251571658,0.7671040892601013,0.3595881462097168,-1.036232590675354,-1.1683999300003052,0.46852022409439089,-1.0223945379257203,-1.146028995513916,0.7076206803321838,-0.7908516526222229,1.0933678150177003,0.6340318918228149,-0.3932732343673706,-0.3928721249103546,-0.45208850502967837,-1.0892049074172974,-0.9446119070053101,1.5178940296173096,-1.2452729940414429,0.6276296377182007,0.9445452094078064,0.2398158311843872,-0.6336899399757385,0.38447290658950808,-1.2868645191192628,-0.6586916446685791,-1.0757296085357667,-0.03497122973203659,-0.8940656185150147,-0.991837739944458,0.3331076502799988,-0.38559189438819888,0.8137552738189697,-1.0338411331176758,0.5498233437538147,0.4167426526546478,0.7173081636428833,-0.3055432438850403,-0.8696996569633484,-0.1416369080543518,-1.2105910778045655,0.7436431646347046,-0.006026486400514841,1.7947168350219727,1.6940909624099732,0.5158315896987915,-0.5415647029876709,1.2211604118347169,-0.15907680988311768,-1.1058181524276734,-0.9455841779708862,0.0803043395280838,0.9022825956344605,-1.3732030391693116,-0.32066887617111208,0.4219432771205902,0.6498428583145142,0.9691153764724731,-1.7261850833892823,0.253283828496933,0.14786484837532044,0.04325135797262192,0.6816984415054321,-0.0033938386477530004,-1.9802324771881104,0.31567060947418215,0.39618900418281557,1.0489299297332764,0.7493335604667664,-0.876212477684021,0.05073525756597519,0.012519504874944687,-1.1600427627563477,-1.2912286520004273,1.4366413354873658,2.1488826274871828,1.075278639793396,-1.5573729276657105,-0.4714261293411255,0.0643313005566597,0.12457653135061264,1.2033183574676514,-0.3600475788116455,0.7229450941085815,0.3508876860141754,-0.6190835237503052,-0.6497708559036255,0.44508206844329836,0.721276044845581,0.5435780882835388,-0.11940955370664597,-0.9215333461761475,0.6862081289291382,0.7539778351783752,0.9273711442947388,-0.05123264715075493,-0.9264723658561707,-0.37198710441589358,0.8079460859298706,0.15085361897945405,0.19688625633716584,-0.9802969098091126,0.053516682237386706,0.2129923403263092,-1.2991803884506226,-1.0261608362197877,-0.32640618085861208,0.11082693934440613,-0.664641261100769,-0.36337748169898989,0.02610662393271923,-0.4902503192424774,0.43188562989234927,1.3958592414855958,1.106072187423706,-0.2781234681606293,-0.10559280216693878,1.3939614295959473,1.385811686515808,2.0414206981658937,-1.210798740386963,0.1573445200920105,0.13169127702713014,-0.045512791723012927,0.7729294896125794,1.0834110975265504,0.193600594997406,0.24377670884132386,0.5168929100036621,0.6810417771339417,-1.0775279998779297,0.8074930310249329,-0.31397461891174319,1.2927120923995972,0.46493008732795718,-0.25144439935684206,0.914084255695343,-2.0966789722442629,0.5439308881759644,1.3598564863204957,0.2305963635444641,0.4724176526069641,1.0927064418792725,0.3199777603149414,-0.7441062927246094,-0.05491587147116661,-0.4622231721878052,0.1068059429526329,0.03825585916638374,-0.8358903527259827,-0.3290438950061798,0.1738584190607071,-0.6300841569900513,1.551997184753418,0.05263989046216011,0.9488956332206726,0.19541116058826447,1.0837818384170533,0.705653727054596,-1.0095175504684449,0.7395964860916138,-1.4019854068756104,-0.15253621339797975,-0.42046889662742617,0.5606785416603088,0.44547387957572939,-1.1384172439575196,-0.940850555896759,-0.7617897391319275,-0.3135237991809845,0.23813815414905549,-0.4394854009151459,0.27425694465637209,-0.2597929835319519,-0.3574441075325012,0.5334034562110901,-0.9051515460014343,0.449651837348938,-0.9006180167198181,0.28902626037597659,0.4838241636753082,-0.23235152661800385,-1.0200750827789307,0.20076633989810944,0.6377399563789368,0.14359599351882935,-0.4722774028778076,-0.01638762652873993,0.14434650540351869,-0.1259966790676117,1.6384128332138062,1.049370288848877,-2.3056044578552248,0.5869207978248596,0.8215919733047485,0.7553105354309082,1.6872323751449586,1.2898311614990235,-0.11717997491359711,-0.5583711266517639,-0.2563525438308716,0.6474168300628662,0.33166903257369997,0.8141120672225952,0.22285309433937074,0.7588351964950562,-1.1019099950790406,-0.16365788877010346,0.13167080283164979,1.7336196899414063,-0.37249234318733218,0.7616904973983765,-0.14374740421772004,0.6970112919807434,0.14339619874954225,-0.017084946855902673]},"biases":[0.9077969193458557,-0.8217822909355164,-0.19257678091526032,0.5496302247047424,-0.46243369579315188,-0.6334386467933655,-0.41346344351768496,0.4462311565876007,0.32209470868110659,0.88630211353302,0.35524246096611025,-0.414523184299469,-0.7524409890174866,-0.07389754056930542,-1.5168957710266114,1.4114575386047364,-0.6347021460533142,-0.029534395784139634,0.553745448589325,-0.6677353978157044,-0.03414912149310112,-1.0788800716400147]},{"neurons":[0.11382737755775452,-0.881862998008728,0.9838699698448181,-0.3315460681915283,-0.9985157251358032,-0.9808205962181091,0.9999896883964539,-0.40126270055770876,-0.9982139468193054,0.9905180335044861,0.9795883297920227],"weights":{"rows":11,"cols":22,"data":[-0.9046522378921509,0.46707913279533389,1.8198376893997193,0.3406929075717926,1.2201588153839112,0.31205156445503237,0.2622297406196594,1.55955970287323,0.34115204215049746,0.6386595964431763,-0.5517877340316773,0.5491927862167358,-0.12087461352348328,0.1710912138223648,0.5823363065719605,0.7489831447601318,0.37492677569389346,-1.2455254793167115,-0.4144499897956848,-1.0586963891983033,0.08788736164569855,0.0843161940574646,-1.6310811042785645,-0.29319024085998537,0.4302685558795929,0.033441804349422458,-0.3123563826084137,0.19021911919116975,-0.5010251402854919,0.10675828158855438,0.8371018171310425,1.2863831520080567,-1.0189898014068604,1.5512313842773438,0.9032323360443115,0.20904555916786195,-1.127058982849121,0.7945563197135925,-1.5438387393951417,0.20392931997776032,0.2881608009338379,-0.5217645168304443,-0.2912841737270355,0.5554656982421875,0.21490222215652467,1.0984044075012208,-0.911896824836731,1.372580647468567,0.9697478413581848,-1.1274256706237794,0.9344725012779236,-0.41429901123046877,-0.13728289306163789,0.375484436750412,0.7614040970802307,-0.19840571284294129,-0.5432370901107788,-0.15398964285850526,-0.3767278492450714,0.001973074395209551,-1.2014877796173096,0.5043147206306458,0.6710901260375977,0.7471034526824951,0.5177469849586487,0.24529726803302766,0.0006444611353799701,-0.25997254252433779,-0.6199513673782349,0.4293023347854614,1.2896292209625245,-0.38377636671066286,1.0994659662246705,0.38933098316192629,-0.40998178720474245,-0.03152194246649742,-0.3984169661998749,0.07814551889896393,0.37272003293037417,0.3845720887184143,-0.41018715500831606,-0.25254732370376589,-1.0059672594070435,-0.9044198989868164,-0.5571593642234802,0.35013964772224429,0.39766597747802737,0.1320100873708725,1.2931376695632935,0.9905519485473633,-0.09468775987625122,0.30974557995796206,0.8375888466835022,0.0009220289066433907,-1.039753794670105,-0.014972388744354248,-0.8234567642211914,-0.45749205350875857,-0.6604161262512207,1.313032627105713,1.5415767431259156,-0.7687498927116394,-0.47142818570137026,0.6019907593727112,-1.0268315076828004,-0.3705964684486389,0.8319439888000488,2.2989487648010256,0.1482897847890854,-0.2776964604854584,-0.40577173233032229,-0.21667683124542237,-0.060890085995197299,0.003157509956508875,-0.031273841857910159,-0.8488379716873169,-0.508170485496521,0.5516626834869385,-1.349814534187317,-0.39332231879234316,-0.22465769946575166,1.0026112794876099,-0.4649747610092163,-0.2566796541213989,0.7851318717002869,0.9690555334091187,-0.5616360306739807,0.9057953953742981,-0.04727497324347496,-0.9562883973121643,0.6413047313690186,-1.3541795015335084,-0.43905046582221987,-1.4109864234924317,1.2514156103134156,0.38545089960098269,0.47855237126350405,1.3709325790405274,0.5411295294761658,1.2742137908935547,-0.34004807472229006,1.0429028272628785,-0.9696913957595825,-1.1559582948684693,-0.12414898723363877,-0.7492648363113403,-0.09667365998029709,0.22405314445495606,-0.6926773190498352,0.3766702115535736,0.4141097366809845,0.1383921355009079,0.7519771456718445,0.002580663189291954,-0.12131097167730332,0.2870270907878876,0.23018716275691987,0.4930550754070282,0.10003457963466644,-0.17656010389328004,0.3417493402957916,0.4550924301147461,0.3889547288417816,-0.17016498744487763,1.2374680042266846,0.2547994554042816,-0.2475532740354538,-0.4492243826389313,-0.706355631351471,0.11426277458667755,0.1497087925672531,0.03401120379567146,0.6793450713157654,-0.6062435507774353,-0.06320982426404953,0.8498572111129761,-1.0795214176177979,2.1237523555755617,-0.9854730367660523,1.5513824224472047,-0.8971669673919678,-1.4321781396865845,0.3180416226387024,0.24652370810508729,-2.3396291732788088,-0.19015033543109895,0.9621367454528809,-0.23399965465068818,-0.123258575797081,-1.1896746158599854,-0.8706435561180115,0.4882144629955292,1.152687907218933,0.050356175750494,-1.8241773843765259,1.136685848236084,0.6344799399375916,-0.5738937258720398,0.23055031895637513,0.9251776337623596,-0.316938579082489,1.242220163345337,1.1089363098144532,-1.0189963579177857,-0.012347995303571225,-0.5546474456787109,-0.8241749405860901,0.10081098228693009,0.5570550560951233,0.18723459541797639,0.3036653995513916,0.18331541121006013,-1.7677979469299317,-0.8141089081764221,-0.3163568675518036,-0.29480451345443728,-0.2005332112312317,1.4315181970596314,0.3882843554019928,0.33387690782546999,1.0445727109909058,-0.23281969130039216,-0.9700932502746582,0.76136714220047,-0.7164432406425476,0.7132059335708618,0.13311588764190675,-0.06030118465423584,-0.7863907217979431,0.46759191155433657,0.15688550472259522,1.1156914234161378,-0.7124388813972473,-1.8823738098144532,-0.9821146130561829,-0.8629350662231445,0.4806497097015381,2.0828187465667726,0.3046380877494812,0.11562244594097138,-0.181783527135849,0.3415292203426361]},"biases":[0.5277912616729736,-0.3522356152534485,0.11301466822624207,-0.5060600638389587,-1.0306309461593629,-0.721279501914978,1.2517328262329102,-1.1222124099731446,0.9835407137870789,0.9643451571464539,-1.5865308046340943]}],"seed":795299352}