{"layers":[{"neurons":[-0.24026410281658173,0.32354551553726199,-0.05451111122965813,-0.9725143909454346,0.9930740594863892,-0.9992731213569641,-0.9851568937301636,-0.9973214268684387,-0.9999916553497315,-0.9999367594718933,-0.9999954700469971,-0.9999734163284302,0.991274893283844,-0.406118243932724,0.9867861866950989,0.9998287558555603,-0.9997364282608032,0.9936231970787048,-0.9974194169044495,-0.9042816758155823,0.9998030662536621,-0.956188976764679,-0.8776718974113464,0.9992650747299194,0.055273108184337619,0.9945129156112671,0.9998472929000855,0.9998536705970764,-0.9999495148658752,-0.7780024409294128,-0.9998024702072144,-0.84281986951828,-0.9887601733207703,0.2614644169807434,0.9997583627700806,0.9999232292175293,0.9924573302268982,0.998832643032074,-0.9986528158187866,0.9961458444595337,0.9919286966323853,0.9634290933609009,0.0532076470553875,-0.4579985737800598],"weights":{"rows":44,"cols":22,"data":[1.4415322542190552,-0.5392643213272095,0.7042150497436523,0.3642262816429138,0.7470211386680603,-0.23611252009868623,1.0536421537399293,0.8498415350914002,-0.7242421507835388,0.5596011877059937,0.5590947866439819,-0.3476882874965668,-0.5142495632171631,1.6080114841461182,0.2155241072177887,0.6557946801185608,-2.087592601776123,1.249849796295166,0.5552111864089966,0.7992465496063232,-0.916856586933136,-0.10906541347503662,1.5460542440414429,0.25183233618736269,-0.030489368364214898,-1.9794367551803589,1.2595566511154175,1.0546869039535523,0.4793655276298523,0.9938098192214966,-1.122617244720459,-0.24176813662052155,-0.23391100764274598,-1.141326665878296,0.5090380311012268,0.3544063866138458,-1.0011308193206788,-0.12036079168319702,-0.11762326210737229,1.2299296855926514,-0.4996408522129059,-1.2993147373199463,1.1730878353118897,0.40335893630981448,-0.5412765145301819,-0.6395432949066162,-0.8635521531105042,0.4302481412887573,-0.6271158456802368,-0.7575092911720276,0.28555184602737429,-0.9468027949333191,-1.0926963090896607,2.575596809387207,-0.23958942294120789,0.6335379481315613,-2.0702216625213625,-0.0533093623816967,-0.34995630383491518,0.46822312474250796,-0.655697762966156,0.1708119511604309,-0.26928260922431948,-0.3700675964355469,0.5363479852676392,-0.2506245970726013,0.5064280033111572,0.014527134597301484,-0.28159239888191225,0.4878210425376892,0.867922306060791,2.1466808319091799,1.5724527835845948,1.0666359663009644,1.3305516242980958,-0.4743713438510895,-2.0701231956481935,0.44825494289398196,1.024391770362854,-0.846560537815094,-1.326271891593933,0.5558671951293945,1.5285968780517579,0.0942486822605133,0.4501396119594574,-0.1575552374124527,0.9296143054962158,-1.987410545349121,0.8904873132705689,0.21346749365329743,-1.0107401609420777,0.9555469155311585,0.03316964581608772,1.3229726552963257,-2.0898330211639406,0.2797093391418457,0.15321208536624909,0.39220094680786135,-0.06443378329277039,-1.509566068649292,-1.1155462265014649,1.7580395936965943,0.22133368253707887,0.6809484362602234,-1.049756407737732,0.14588209986686707,-0.269901305437088,-1.37716543674469,-0.5994311571121216,0.15835410356521607,-0.4150622487068176,0.7462349534034729,0.22927801311016084,-0.7730923295021057,-0.20967808365821839,-1.9461115598678589,0.5562012791633606,0.5472590327262878,-0.08913224935531616,-1.0570560693740845,-0.7858185172080994,-0.3545336425304413,1.4898841381072999,-2.5269570350646974,-0.2840917110443115,0.8741801977157593,-0.7945243716239929,0.10332861542701721,0.17783299088478089,-0.3429836928844452,-1.7438979148864747,-0.30190321803092959,1.0046868324279786,1.5433416366577149,1.3725979328155518,-0.006713728420436382,-0.3724418580532074,-0.3474158048629761,1.178983211517334,-0.11597640812397003,-0.0026390727143734695,0.5223212838172913,0.7500495910644531,-0.64710533618927,0.06478351354598999,-0.6628643274307251,-0.9606990218162537,-0.7967750430107117,0.4869188070297241,-0.2260272204875946,0.19643966853618623,1.251057505607605,0.36224183440208437,-1.8859505653381348,0.7403600811958313,0.06662006676197052,0.8027610778808594,0.2066231667995453,-1.7646477222442628,0.7325610518455505,0.2741655707359314,0.9858053922653198,-0.6219295263290405,-0.7115052938461304,1.905716061592102,0.8691534996032715,0.9570551514625549,0.718011200428009,-0.6775370240211487,-1.041034460067749,0.07359078526496887,0.5683478116989136,0.15808947384357453,-1.279137372970581,-0.7041207551956177,-0.5725926160812378,0.7098619937896729,0.486080527305603,-1.0689767599105836,0.5623157024383545,-0.6227947473526001,-0.6815512180328369,0.36665967106819155,0.5491827726364136,0.3239588439464569,1.2259857654571534,-1.2940491437911988,0.9476414918899536,-0.6282400488853455,-0.35029837489128115,1.2388336658477784,-1.6869008541107178,-1.6157433986663819,0.5821256637573242,-0.28777995705604555,-1.024545431137085,-0.046398237347602847,-2.266510248184204,-1.1395808458328248,1.1658729314804078,-0.5142865180969238,-0.01867479644715786,0.75298672914505,-1.4044344425201417,1.0574275255203248,1.1715062856674195,-1.7793077230453492,0.7073847055435181,0.6037236452102661,0.7568771243095398,0.8978024125099182,-0.22368177771568299,-0.7861993908882141,1.4494023323059083,0.20119842886924745,1.1580132246017457,-0.021768774837255479,-2.1788461208343508,0.2590181529521942,0.27366167306900027,1.187254786491394,0.7101860046386719,-1.2454301118850709,0.6411333680152893,1.9888414144515992,-0.2331840693950653,-0.18999867141246797,-0.6626025438308716,2.5651090145111086,0.5653490424156189,-0.4741630554199219,-0.14322638511657716,1.3520028591156006,-1.1821445226669312,-1.0239405632019044,1.3869653940200806,0.899958610534668,0.4896954894065857,-1.2954638004302979,-0.9893836975097656,-0.38667672872543337,0.44061994552612307,0.23774433135986329,0.5761728882789612,0.6296517848968506,2.478193521499634,-0.3870675265789032,-0.4637197256088257,0.47191905975341799,-0.16542011499404908,0.3886796832084656,1.1478872299194337,-0.6677579879760742,2.1702969074249269,1.3705013990402222,-0.9872356653213501,0.24797089397907258,1.9734933376312256,-0.1478736251592636,0.6434121131896973,-0.9429780840873718,-0.14525733888149262,-0.5387842655181885,-0.6143760085105896,-0.3899470269680023,0.9935857057571411,-0.016958169639110566,-1.0793482065200806,-1.5643494129180909,-0.9743848443031311,-2.6731834411621095,0.9393625259399414,1.0377925634384156,0.9050065279006958,0.00481421360746026,0.15939822793006898,0.10258109867572785,0.33356812596321108,0.04227690398693085,1.3806806802749634,-0.055393777787685397,-0.7095457911491394,-0.20035420358181,0.07777737826108933,0.964385986328125,-0.5175052881240845,1.00176203250885,-0.5149084329605103,0.06586520373821259,0.618133544921875,0.48784852027893069,-1.2127615213394166,-0.9782763719558716,-0.5618503093719482,-0.7967506051063538,1.3533738851547242,0.20524998009204865,1.0315558910369874,0.2996111512184143,0.45791810750961306,-0.42887598276138308,-2.3303451538085939,-0.5664879679679871,0.8464796543121338,-0.5256490111351013,0.784095823764801,0.7991491556167603,0.2060876190662384,0.05725764483213425,-0.2834157943725586,-0.3622516095638275,-1.146811842918396,1.5093196630477906,-2.6848745346069338,-1.4677096605300904,-0.44793665409088137,-0.6878246665000916,-1.653648853302002,-1.7348521947860718,0.7951145172119141,0.15368689596652986,0.36734503507614138,-2.530162811279297,0.20572692155838014,-0.08813635259866715,-0.2910095155239105,-0.7480518817901611,-1.0003505945205689,-1.8507016897201539,-0.1036589965224266,-2.0757033824920656,0.26320576667785647,-0.2666679620742798,-0.971750020980835,1.4657471179962159,-1.4019333124160767,-0.6570048928260803,0.8365693092346191,-0.68717360496521,-0.6977168917655945,-1.485996127128601,-0.6134754419326782,0.6198562979698181,1.3910903930664063,0.8988853096961975,-0.4516771137714386,1.685524344444275,-0.13807223737239839,0.8581681251525879,3.412527322769165,-0.9401105046272278,0.5159386396408081,-1.043999433517456,1.991668462753296,-0.03169148415327072,1.1675390005111695,1.3178534507751465,0.26785337924957278,1.9426926374435425,1.180019736289978,1.288925051689148,-0.6971194744110107,-1.981926441192627,-0.19266505539417268,1.7793635129928589,0.7196856141090393,0.4766155481338501,-0.5219103097915649,-0.9500414133071899,0.06759469211101532,1.9187957048416138,-1.0101568698883057,0.8846936225891113,-0.542297899723053,0.6449707746505737,-0.006059972103685141,0.867466390132904,1.9434415102005005,0.7949579954147339,-0.4379393756389618,0.7849834561347961,-0.9758374094963074,-1.3981739282608033,0.5201287269592285,0.7379789352416992,-1.1870150566101075,-1.1487417221069337,1.0001882314682007,-0.8390073776245117,1.5231921672821046,-0.4842374920845032,-0.2619837820529938,-0.09243893623352051,1.9394208192825318,1.1402697563171387,-0.5345009565353394,-1.5856690406799317,-0.23692159354686738,0.3095890283584595,0.17126458883285523,1.308301329612732,0.8800269961357117,0.5653669834136963,0.5422642230987549,-0.2738298773765564,-0.6316534280776978,0.49595582485198977,1.2461974620819092,1.4845603704452515,-1.3497334718704224,-0.20132040977478028,1.0804460048675538,0.40535780787467959,0.012665651738643647,0.35961639881134035,0.1365787535905838,0.10935905575752258,0.5467633008956909,0.874158501625061,0.5381462574005127,0.8978405594825745,-0.7636605501174927,-1.7390598058700562,-0.05133107304573059,1.689583659172058,-0.7932159304618836,-0.4474404752254486,-0.6526305079460144,-0.6765181422233582,1.725274682044983,0.8290234804153442,0.6840243339538574,1.2235459089279175,0.4007333219051361,-0.29309797286987307,1.6954022645950318,-0.4714958369731903,1.4578545093536378,0.2857086658477783,0.035311680287122729,0.47948169708251955,-0.5249958038330078,2.045703887939453,0.019493499770760537,1.7652171850204468,-0.8727558255195618,0.562177836894989,-1.8213779926300049,-0.0347348228096962,-0.9114482402801514,0.19670246541500092,-0.6324315071105957,-0.7993968725204468,0.7651876211166382,1.2794814109802247,-1.2528600692749024,-0.4685427248477936,-1.3370137214660645,0.3478829264640808,1.5185480117797852,0.48615139722824099,1.049574613571167,1.268259882926941,-0.16217318177223206,0.5340140461921692,0.35065120458602908,0.11934670805931092,-0.8892573118209839,-0.7530686855316162,0.06806625425815582,0.3359922766685486,0.4351924955844879,0.47006502747535708,0.8422491550445557,-1.2226531505584717,0.8118588924407959,-0.5411531925201416,0.5426589250564575,-0.006322820670902729,2.064495325088501,0.8942029476165772,-0.26744940876960757,-0.16661864519119264,-0.47236934304237368,-0.6226346492767334,-1.1000980138778687,-0.9724267721176148,0.6531012654304504,0.726779043674469,0.35131821036338808,-2.5480258464813234,0.08874885737895966,1.7540909051895142,0.32554328441619875,1.3512765169143677,0.42772039771080019,1.1716724634170533,0.18010008335113526,-2.559349775314331,-0.4740878641605377,-0.45669302344322207,-0.1941337138414383,0.4305392801761627,-0.16763781011104585,-0.023661118000745775,1.777287483215332,-1.2414114475250245,0.7071743011474609,1.1798570156097413,-0.6315175294876099,0.3832148015499115,-0.475780189037323,-1.4236558675765992,0.5435782074928284,-0.12033241242170334,-0.3484700620174408,0.828136682510376,-1.2067866325378419,0.0659279152750969,0.6957034468650818,-1.329424262046814,1.0990879535675049,-0.14798389375209809,-0.43298304080963137,-0.3711506724357605,-0.3217294216156006,-0.8872568607330322,-1.165403962135315,0.31316670775413515,-0.8397924900054932,0.7762784361839294,0.43207690119743349,-1.5121726989746094,1.8461322784423829,0.8619459867477417,1.240927815437317,-0.7345637679100037,-0.30753642320632937,-0.36195603013038638,-0.316913902759552,1.372605800628662,-0.47564199566841128,0.48246830701828005,-1.9812917709350587,-0.30181002616882326,-0.40078938007354739,-1.1598776578903199,-1.2702181339263917,-0.8421031832695007,-0.39485350251197817,-1.3213831186294556,0.29939812421798708,0.38355496525764468,-1.2654610872268677,-1.0232173204421998,0.0686270147562027,-2.725118398666382,-0.7594780325889587,-0.05482011288404465,-0.9256084561347961,-0.9760745167732239,0.4963487684726715,0.8211994171142578,-0.15296873450279237,1.049371600151062,-2.4331042766571047,-0.3120242655277252,1.9520256519317628,0.29843059182167055,-1.4378583431243897,0.1843416541814804,-0.9440534114837647,1.0830882787704468,-0.978956401348114,1.5713341236114503,2.1781249046325685,-1.3289846181869507,0.5346640944480896,0.06949160993099213,-0.3065106272697449,-1.1249244213104249,0.32313045859336855,-1.1800057888031006,-0.5363427996635437,0.7389901280403137,1.5330063104629517,0.10591495037078858,0.2398754209280014,0.8288277983665466,0.3133937120437622,0.9890924692153931,-0.14148880541324616,-1.399505615234375,0.3496344983577728,-0.5445647239685059,-0.7775736451148987,0.16523146629333497,-1.493552803993225,-1.2694389820098878,0.4744519889354706,-1.3519278764724732,0.09388495236635208,-0.092264823615551,-1.286724328994751,0.17152367532253266,0.8907145261764526,-1.1673678159713746,0.41624099016189577,-1.0322518348693848,0.17412035167217256,0.8610516786575317,0.27042171359062197,0.08479238301515579,0.49004125595092776,-0.2818225920200348,-0.2720332145690918,0.5276522636413574,0.6827203035354614,-0.7975585460662842,1.1063408851623536,-0.8018738031387329,0.6599385142326355,0.06560317426919937,0.5589742064476013,0.9200673699378967,-0.8804759383201599,-0.4635757505893707,0.2778473198413849,0.713729739189148,-1.2014951705932618,0.04118608683347702,0.43826252222061159,-2.070720672607422,0.21551449596881867,-0.013434523716568947,-1.161833643913269,0.4105684459209442,-1.006248116493225,-0.33567947149276736,0.46897903084754946,-1.7981736660003663,-0.4377395808696747,0.695101797580719,-0.7767523527145386,-1.1281089782714844,0.23927828669548036,-0.8215070962905884,-0.20469997823238374,-1.0116360187530518,0.08342863619327545,1.0628271102905274,-0.3107508420944214,0.16120517253875733,0.9089188575744629,-0.37520450353622439,-0.06538453698158264,0.32432952523231509,-0.8405259251594544,1.143958568572998,-0.47931572794914248,-0.2613368332386017,0.39399293065071108,0.09246022999286652,0.5827465057373047,0.9487690925598145,0.1421540379524231,0.26974353194236758,-0.3882712721824646,1.605332851409912,-0.11609920114278794,1.2915434837341309,-0.892716646194458,-0.3207602798938751,-1.325230360031128,-0.5414431095123291,-0.09923539310693741,-0.17172935605049134,-0.6240731477737427,0.8182002305984497,-0.4482763111591339,0.10497196018695831,0.10035853087902069,-1.2219622135162354,0.12294629216194153,-0.8462549448013306,-1.0956138372421265,0.732722282409668,-0.5077803134918213,-0.8168531656265259,1.3390976190567017,-0.18031780421733857,1.0710355043411255,0.9256826639175415,-0.42701253294944765,-0.2337554395198822,-0.20960916578769685,-0.24292850494384767,1.456020474433899,0.0331147126853466,0.48246392607688906,0.09260913729667664,0.928385853767395,0.3219689428806305,0.029213858768343927,-0.9391286373138428,-0.6691671013832092,1.254615068435669,0.5517497658729553,-0.1663411557674408,-0.8507202863693237,0.8704625368118286,-0.11106767505407334,0.9869248270988464,-1.273934245109558,-0.3531532883644104,0.028067035600543023,1.6031941175460816,-0.4330101013183594,0.6176161766052246,-0.9629067778587341,1.0995970964431763,1.846435308456421,0.44077953696250918,0.7645362019538879,-0.1745666116476059,-1.3444106578826905,-0.3595430254936218,0.4083987772464752,0.3879430890083313,1.3001474142074586,-1.1313446760177613,0.29346948862075808,-2.2556750774383547,0.6047490239143372,1.0925687551498414,0.690777599811554,0.41606155037879946,0.17735324800014497,-1.4873003959655762,1.0890756845474244,-1.3377008438110352,0.697633683681488,0.2895422577857971,-0.09009449183940888,1.3087478876113892,-0.20737440884113313,-1.7025660276412964,-1.220773458480835,1.011694312095642,-0.21651747822761537,1.0211304426193238,-1.0986669063568116,-0.1075984463095665,1.9134931564331055,0.45483770966529848,0.37689971923828127,0.2542896568775177,1.8127318620681763,-1.2114510536193848,0.038126733154058459,-2.5133235454559328,-1.07444167137146,-1.2160447835922242,-0.36207813024520876,0.5222874879837036,-0.06956055015325546,-0.7763968110084534,0.9347161650657654,0.5830271244049072,0.3433448374271393,-0.011420518159866333,-1.6842882633209229,1.6780534982681275,-0.7275180220603943,-0.744864821434021,0.5585020780563355,-1.617790699005127,-0.07943899929523468,-0.9420390725135803,-1.256676435470581,0.6901980638504028,0.22541265189647675,0.2135242223739624,1.8381516933441163,-0.5275320410728455,0.35354724526405337,0.840956449508667,-0.1522623598575592,-0.7471085786819458,0.8283657431602478,1.4612475633621216,-1.23789381980896,-0.6167086362838745,0.2107619196176529,-0.9070705771446228,-0.7347750663757324,-0.5069891214370728,0.5082865357398987,-0.003164087189361453,-0.29567956924438479,-0.8891411423683167,-2.819239377975464,0.5493078827857971,-1.2464638948440552,0.44261449575424197,0.716907799243927,0.09699839353561402,0.28448671102523806,1.4017480611801148,0.8510739803314209,0.5477997064590454,0.2703728973865509,0.11682945489883423,0.35453930497169497,1.2439590692520142,-1.3924177885055543,0.3234977722167969,-0.3007812201976776,-0.4996221363544464,2.114393949508667,-0.33763742446899416,-0.5022468566894531,0.6064547896385193,2.001659631729126,-0.9721142053604126,0.9862792491912842,-1.2924491167068482,-0.9729244709014893,-2.1259098052978517,0.5203741788864136,0.817255437374115,-1.1970503330230713,-0.10908585786819458,1.8284754753112794,-0.26680290699005129,0.7192525863647461,-1.335420846939087,-1.1728802919387818,-1.5005967617034913,0.3347252309322357,0.45503827929496767,0.34803202748298647,1.099553108215332,-1.0136827230453492,0.6516057252883911,-0.6567375063896179,-0.7703253626823425,2.4809083938598635,1.3868030309677125,0.4197605550289154,2.0061445236206056,0.01743064634501934,-0.40354886651039126,0.9928975701332092,-0.7447539567947388,0.9545493721961975,0.33270329236984255,1.6956064701080323,0.9327379465103149,0.845787525177002,1.9096755981445313,-0.12434911727905274,-0.1355246901512146,-0.004765860736370087,-0.8375624418258667,0.0814712792634964,-1.2332520484924317,-1.1834769248962403,0.537505030632019,0.19269496202468873,-0.33082839846611025,0.922520101070404,-0.24171790480613709,0.41027259826660159,-0.7879238128662109,-0.29047366976737978,0.46577394008636477,-0.9075758457183838,-0.4951912462711334,0.4613993465900421,-0.6062735319137573,-0.9049211740493774,1.605855941772461,-1.3616361618041993,0.23778359591960908,-0.06625264137983322,-0.9046852588653565,-0.4300038814544678,-0.18689781427383424,-0.24011783301830293,0.8938298225402832,-0.3270474970340729,0.3201017379760742,1.4316906929016114,-0.21887728571891786,0.05404030159115791,0.384761780500412,0.35691967606544497,0.2200719714164734,-2.5317625999450685,1.5417158603668213,0.2678963541984558,0.8735393285751343,0.6365371346473694,0.6113771796226502,0.5036170482635498,1.478895664215088,0.3113994300365448,-0.7219352722167969,-0.7823087573051453,-1.1207027435302735,0.2585529088973999,-0.2139861285686493,0.6253343224525452,-0.5833389759063721,-1.2538517713546754,0.4914368689060211,0.10829782485961914,-0.13659195601940156,-0.5224417448043823,-0.3103165626525879,-0.5956614017486572,-1.4669703245162964,-1.2719900608062745,-0.04843484237790108,0.283965140581131,-0.6705195307731628,1.0358103513717652,0.15561430156230927,-0.08521349728107453,1.3881582021713257,0.2826000154018402,-0.2755102813243866,-1.654178500175476,-1.9002926349639893,-0.43283331394195559,-0.2442445605993271,-0.5196952819824219,-2.0596606731414797,-0.1743900626897812,-0.8137046098709106,-1.1404072046279908,-1.099632978439331,-0.8648216128349304,-0.35113605856895449,-0.63389652967453,0.9780605435371399,-0.5465491414070129,-0.2391958087682724,-0.8223446011543274,0.9925616383552551,-0.7630565166473389,0.8586409687995911,1.216256856918335,-1.0459156036376954,-0.8804609179496765,0.5653791427612305,-0.012690925970673561,-0.40354815125465395,0.8863799571990967,0.17927637696266175,-0.8245919346809387,-2.4863052368164064,-0.1926574409008026,1.261391520500183,0.7637376189231873,-0.17048963904380799,0.4092760980129242]},"biases":[0.679328441619873,-0.6050924062728882,-0.2804846465587616,0.2837623655796051,0.6135584115982056,-0.6030153632164002,-0.7962839007377625,-0.44314679503440859,-0.8716685771942139,-0.2856026589870453,-0.6974942684173584,-0.06731966137886048,1.828425645828247,0.07166124880313873,-1.1213772296905518,-1.0417649745941163,0.9791313409805298,0.1560908854007721,-1.2954704761505128,-0.4669169485569,-0.6663885712623596,-1.2430278062820435,0.1977439820766449,1.5269421339035035,0.8220218420028687,1.5233896970748902,0.7643635272979736,-0.14793375134468079,0.30546292662620547,0.1385757029056549,-1.5685646533966065,-0.5515125393867493,0.2104196399450302,-1.4150817394256592,-0.5014929175376892,-1.608987808227539,0.3177410662174225,-1.3006534576416016,-0.23306502401828767,-0.751577615737915,-0.03089280240237713,0.8244360685348511,-0.021302754059433938,-0.2348490059375763]},{"neurons":[0.9941266179084778,-0.9997143745422363,0.9999655485153198,0.899272620677948,0.9980874061584473,-0.994768500328064,0.9999998211860657,-1.0,1.0,1.0,-0.9817318916320801,0.7306976318359375,-0.9999890923500061,-1.0,-1.0,-1.0,0.9852210283279419,0.9999919533729553,0.9999999403953552,0.6679553985595703,-0.3626689910888672,-0.9937489628791809],"weights":{"rows":22,"cols":44,"data":[0.16155242919921876,0.024554645642638208,-0.030576471239328386,0.631578803062439,-1.0674569606781006,1.7014892101287842,2.0218441486358644,-0.4541390538215637,-0.047020722180604938,-0.2197790890932083,-0.8930704593658447,1.766473412513733,0.4124048948287964,-1.3769322633743287,0.5000119805335999,-0.5438804626464844,-0.850852370262146,0.06142156198620796,-1.3756122589111329,-2.0813827514648439,-0.7644515633583069,0.23080359399318696,-1.1109856367111207,-0.11872231960296631,-0.718313992023468,-0.24424877762794496,1.6048898696899415,-0.8977422118186951,0.2500450909137726,-0.6351209878921509,-1.308303713798523,-1.558762788772583,-0.4850147068500519,-0.4264868497848511,-1.6124056577682496,0.1778739094734192,0.2852076590061188,0.17967535555362702,-0.5590736865997315,0.13656200468540193,-0.7241503000259399,0.3090429902076721,0.6600498557090759,0.02507019229233265,1.2706966400146485,-0.011251828633248806,1.1373167037963868,1.3349789381027222,1.639543056488037,-0.08981601893901825,1.233036994934082,-1.0595412254333497,-0.9315602779388428,1.017398715019226,1.7189326286315919,-1.144687533378601,0.2011607587337494,0.6254505515098572,-1.1587159633636475,-1.3861767053604127,-0.17765147984027863,0.9816434383392334,-1.047493577003479,0.06986473500728607,-0.4360981285572052,0.7402923703193665,1.5222922563552857,0.6286730766296387,0.2097684144973755,0.3941386938095093,0.7811293005943298,3.189141273498535,2.919438123703003,1.940462589263916,0.030456293374300004,-1.8377134799957276,-0.4332970976829529,-0.5046653747558594,-0.15850120782852174,-1.113128662109375,0.4866257309913635,-0.8149230480194092,0.21705466508865357,-1.130935549736023,1.5181269645690919,-0.6235454082489014,0.551175594329834,1.131759762763977,0.7878450155258179,0.23718494176864625,0.34438133239746096,-0.29174673557281496,2.2092602252960207,0.016999555751681329,1.209876537322998,-1.3575140237808228,0.01769328862428665,-0.11226248741149903,-0.2989872097969055,-0.6741700172424316,-1.1906983852386475,0.6286827325820923,0.5305653214454651,0.8293020725250244,-1.3207913637161255,0.8674444556236267,0.002757004462182522,0.750813364982605,0.2733544111251831,0.8268306255340576,-1.06621515750885,-0.4665374159812927,-0.7622702717781067,-0.479472815990448,0.22878870368003846,0.8676353096961975,-0.8043741583824158,-0.08265800029039383,-0.10301661491394043,0.1950981467962265,1.7893823385238648,1.3608639240264893,-0.17978118360042573,-0.49394211173057558,0.09306780993938446,-0.7415539622306824,-0.7259872555732727,0.20308026671409608,1.2715849876403809,0.48575738072395327,-0.3409403860569,1.1614855527877808,-0.11287540942430496,0.5268357992172241,-0.1530834585428238,1.879670262336731,0.7531160712242127,-0.5349215865135193,-0.4758187532424927,-1.243483304977417,0.3991091847419739,-1.7511199712753297,-0.043271780014038089,-0.3231997489929199,-1.1974560022354127,0.7830933332443237,0.6241189241409302,0.19334480166435243,0.6135005354881287,0.7678425908088684,0.3568575978279114,-0.1775626838207245,-0.5829162001609802,-0.3719497323036194,1.373641848564148,0.1835935264825821,-0.3872227668762207,2.227363109588623,-0.9072133898735046,0.005167145747691393,-0.49383577704429629,2.2587757110595705,0.6854175329208374,1.181921124458313,-0.416665256023407,-1.0700187683105469,-0.06909799575805664,-0.7820514440536499,1.4992175102233887,-1.141117811203003,0.035408344119787219,-0.7356724739074707,0.7744852304458618,0.29172030091285708,0.24231986701488496,0.08029919862747193,-0.7641334533691406,-0.023885391652584077,0.9734521508216858,0.6545342803001404,0.03032872825860977,-1.3447555303573609,0.9900164604187012,-1.4405423402786255,0.5857965350151062,-1.8632172346115113,0.31995752453804018,1.4738582372665406,0.12063270807266236,-0.9913529753684998,-0.6139780879020691,-0.8897528052330017,0.022772183641791345,0.971159815788269,0.5592877864837647,0.5432141423225403,0.8707110285758972,0.02060556225478649,0.9921364188194275,0.8660200238227844,1.396449327468872,1.0475231409072877,-0.05933831259608269,1.2250444889068604,-1.3396668434143067,-1.041314959526062,-0.6344616413116455,0.20244356989860536,-0.18143877387046815,0.13977020978927613,-0.5468700528144836,-0.1362970769405365,-1.5365667343139649,0.11098965257406235,-0.7377560138702393,-0.02404254861176014,-0.2997693717479706,0.4915699064731598,0.798301100730896,0.5430866479873657,-0.9554533362388611,0.12793131172657014,-0.01605936326086521,-1.6631240844726563,-0.44470828771591189,0.9087398052215576,-0.08237588405609131,0.07897604256868363,0.17913107573986054,1.134602427482605,2.0536954402923586,0.9395546317100525,-0.2940730154514313,0.28897303342819216,-0.686312198638916,-0.5712916254997253,0.4666730463504791,0.6599176526069641,0.19633498787879945,-2.45505428314209,-1.7458521127700806,-0.7252068519592285,0.3745657801628113,-2.2717745304107668,0.6169036626815796,1.4830516576766968,-1.6952118873596192,1.2086405754089356,-1.1419607400894166,-0.14121082425117494,0.48345863819122317,0.43573272228240969,0.006868950091302395,1.3313028812408448,-0.47792577743530276,2.066570997238159,-0.4672282040119171,0.5001886487007141,0.19022230803966523,-0.04355708137154579,0.14764080941677094,0.28931182622909548,0.7813794016838074,-1.3084057569503785,1.3743888139724732,0.4224172532558441,-0.6800379157066345,0.10028649866580963,-1.1610112190246583,-1.117600440979004,-0.6636901497840881,-0.4484785199165344,-0.11180470883846283,-0.38061535358428957,-1.3059824705123902,-0.6037840843200684,-0.40993207693099978,0.791395902633667,2.16505765914917,-0.5405194163322449,-0.482440710067749,-0.6000106334686279,-1.181095004081726,-1.8687602281570435,0.8081730008125305,-0.9174525737762451,-1.231830358505249,1.3299262523651124,-0.6133372783660889,-0.15164132416248322,-0.7577462792396545,-0.764247477054596,-0.8219376802444458,-0.26418033242225649,-0.32639628648757937,0.8435606956481934,0.5993322134017944,-0.21980811655521394,-0.48255014419555666,-0.5375729203224182,-0.4864616394042969,0.11997514218091965,-0.878488302230835,-0.36609798669815066,0.0403883159160614,0.011694744229316712,-1.5729817152023316,-0.33669349551200869,1.0702311992645264,-0.17210982739925385,0.16400174796581269,0.765064537525177,-0.2613787353038788,1.2342411279678345,-0.021218260750174524,-0.20554763078689576,0.06719963997602463,0.39294928312301638,1.9782341718673707,-0.48084500432014468,0.527859628200531,-0.07873424887657166,0.2909892499446869,-0.010080674663186074,-0.28951776027679446,-1.1526570320129395,0.38444337248802187,1.0127898454666138,0.2064981758594513,-0.24495992064476014,2.281414747238159,-0.3397789001464844,0.008693555369973183,0.11610345542430878,0.4616677463054657,1.1678897142410279,0.8627340793609619,1.717576265335083,-0.2039569467306137,-0.18343807756900788,0.15609613060951234,-0.8720345497131348,0.08345863223075867,0.8532665967941284,-1.2816994190216065,-0.3681533634662628,1.0394068956375123,1.5708647966384888,0.5241299271583557,-2.004216194152832,0.621141254901886,0.28799107670783999,0.78992760181427,0.4863782823085785,-1.4230594635009766,-0.26425716280937197,-0.16534283757209779,-0.11562557518482208,-1.8809164762496949,-0.8548743724822998,2.596222162246704,1.1653578281402588,0.108638696372509,1.610275387763977,1.0311981439590455,-1.4358935356140137,-1.6378848552703858,1.0051088333129883,-0.9931482076644898,-2.183983087539673,-0.9920085668563843,0.41302433609962466,1.1100338697433472,-1.6640446186065674,-0.4636082649230957,-0.03711939975619316,0.07271844148635864,1.0165698528289796,-0.08265592902898789,-0.9094199538230896,-0.7569617629051209,-0.8298147320747376,-0.10058275610208512,-0.554448664188385,-0.4367477297782898,0.1993631273508072,-0.23632273077964784,-0.26162269711494448,1.2678236961364747,0.8425222635269165,-0.8316433429718018,3.168156385421753,1.2798748016357422,0.2734043598175049,-1.538072109222412,0.1946485936641693,0.2584823966026306,0.46570485830307009,-0.6661483645439148,-0.18659424781799317,0.1252496838569641,0.9897819757461548,0.21252791583538056,0.7430673837661743,1.0406032800674439,-2.2737622261047365,-0.004591748584061861,0.5178578495979309,2.315068244934082,-0.5584894418716431,1.0459188222885132,-0.7044687271118164,1.3901357650756837,-0.11339166760444641,0.3440922200679779,-0.7395777106285095,-1.4680958986282349,0.2058350145816803,-1.0293887853622437,0.017174430191516877,-0.18511997163295747,1.3238810300827027,-0.07877469807863236,0.9965403079986572,-0.5486889481544495,-0.5887277126312256,0.135672464966774,0.053807489573955539,-1.0557715892791749,2.575648784637451,0.1093384325504303,0.026103312149643899,1.2136250734329224,1.757360577583313,-0.6669713258743286,0.7390412092208862,-0.6849084496498108,0.862345814704895,0.0028254264034330847,-1.8517996072769166,-0.4579203426837921,0.8179078698158264,0.006937629077583551,-2.0510146617889406,2.2881522178649904,-0.8185442090034485,0.6206122636795044,-0.24986635148525239,0.3180136978626251,-0.5743362307548523,1.0332671403884888,0.9639790654182434,0.6881734728813171,0.16609887778759004,-1.0154837369918824,-1.4876216650009156,-0.4831027388572693,0.22845050692558289,0.43712976574897768,1.3538978099822999,-1.4873809814453126,-1.1710541248321534,0.6590753197669983,-1.0181989669799805,0.11454645544290543,0.23591794073581696,0.5866918563842773,0.8472458124160767,-0.8843153715133667,0.07754945009946823,0.10486209392547608,0.6447641849517822,0.6482081413269043,1.4628113508224488,-0.6938523054122925,-0.7233462333679199,-0.3526076674461365,-0.7784457206726074,-0.03879265487194061,-1.1844860315322877,-1.0285660028457642,1.2305792570114136,-0.9248688220977783,-2.3053793907165529,0.15998518466949464,0.12385351955890656,-2.9516727924346926,0.3225744068622589,0.019100427627563478,-0.6110511422157288,-1.1675769090652466,-0.8516976237297058,2.319636106491089,1.0221868753433228,-0.49023035168647768,-1.0454118251800538,1.8763517141342164,-0.23394571244716645,0.689372718334198,-0.2604612708091736,1.135392189025879,-0.26381805539131167,-0.7445971369743347,-2.0117526054382326,-1.5299209356307984,0.6924257874488831,0.9503239393234253,-1.0006604194641114,0.35213416814804079,0.1496829390525818,2.659141778945923,1.738955020904541,-0.7804468870162964,0.5037407279014587,0.5398983955383301,0.6547110676765442,1.2153732776641846,-0.17577949166297913,0.1911308467388153,-2.037447929382324,-0.14795160293579102,0.23717063665390016,-0.7399775981903076,0.19075621664524079,0.28595465421676638,-1.5776195526123047,0.6845040917396545,0.8911184668540955,1.6482996940612794,0.521896481513977,1.03145170211792,0.46711090207099917,0.19773592054843903,0.6597899794578552,-0.022108275443315507,-0.4245070219039917,1.2399933338165284,1.4783580303192139,0.4090667963027954,1.3098697662353516,0.43921932578086855,-0.190970316529274,-1.2213213443756104,1.6224514245986939,-0.7187291979789734,-1.530319094657898,-1.8999128341674805,-1.6747264862060547,0.4966258406639099,-0.766188383102417,-0.2922220528125763,-1.593198537826538,0.19138716161251069,0.22824116051197053,0.44933557510375979,0.21901634335517884,-0.6099106073379517,0.18778902292251588,1.544458031654358,-2.22294020652771,-0.9066290855407715,-0.9643712639808655,-0.15767207741737367,-0.5167499780654907,-0.15638189017772675,0.516099750995636,-0.006995983887463808,-0.9720188975334168,-2.2702202796936037,-0.47674012184143069,0.28825512528419497,0.4303765296936035,-0.4453362226486206,1.069452166557312,0.1622198224067688,-1.2396323680877686,-2.767414093017578,-1.152123212814331,-0.3988568186759949,-0.5895228385925293,-0.35629749298095705,1.4376168251037598,-0.17491227388381959,-0.25396907329559328,-0.733779788017273,-1.0189214944839478,0.9059436321258545,-0.27750951051712038,-0.23151452839374543,-0.8358696103096008,0.983841061592102,0.32451316714286806,-0.5741672515869141,1.883137583732605,1.0084586143493653,-0.9924628734588623,-0.7190349102020264,-0.32116425037384035,-0.3769483268260956,0.33603447675704958,0.5007206201553345,-0.46452605724334719,1.2904495000839234,-0.7167471647262573,0.939053475856781,-0.7781749963760376,-1.2954764366149903,-0.15382695198059083,-1.6260221004486085,-0.7518896460533142,-1.1796327829360963,-1.4053831100463868,1.1291007995605469,0.2374657243490219,-0.5440940260887146,-0.589466392993927,1.8660759925842286,1.0593467950820923,-0.7549147009849548,-0.031161868944764139,0.47100353240966799,-0.3287237584590912,-0.7896044850349426,-1.241145372390747,-0.05635625123977661,0.9094934463500977,0.9067447781562805,1.5818960666656495,0.31324562430381777,1.589005947113037,-1.076404094696045,-0.3265150189399719,-0.541191041469574,-1.6787012815475464,0.44686317443847659,-0.14953270554542542,-0.8616018295288086,0.19844740629196168,0.5160686373710632,-1.6709595918655396,0.014123587869107724,-0.06976497918367386,0.6136664152145386,-0.7796390056610107,1.3827424049377442,0.6712449789047241,2.5135674476623537,0.29185950756073,0.5648869276046753,-0.731311023235321,-0.08994874358177185,1.2867205142974854,-0.7338714003562927,-0.45548561215400698,0.018424969166517259,-0.22083620727062226,0.6354164481163025,-0.2193768322467804,-0.6722861528396606,-0.7766748070716858,0.90012526512146,2.0166146755218508,-0.09593471884727478,0.6260984539985657,-0.030786564573645593,0.5637181401252747,1.5456340312957764,1.1519936323165894,-0.781711220741272,1.27774178981781,0.003025522455573082,0.11683128774166107,-0.8859617114067078,-0.32523390650749209,0.8573135137557983,-1.2294172048568726,0.3276444375514984,-0.7565687298774719,0.35032200813293459,0.6053897142410278,-1.5499920845031739,1.1755211353302003,-0.8103895783424377,-0.047260429710149768,-0.1995236873626709,0.23187021911144257,-0.8935592174530029,-0.3054279386997223,0.43034717440605166,-0.04630661755800247,0.03335089236497879,-0.5159826874732971,0.4883584678173065,0.7077005505561829,-0.3149445354938507,0.7908933758735657,0.3298812210559845,-0.0013517363695427776,1.131187915802002,0.9687862396240234,-0.743596076965332,-0.6875260472297669,-0.05187620222568512,0.18030525743961335,0.9150194525718689,-0.7887463569641113,0.6923419237136841,-0.4530166685581207,1.4498428106307984,-0.6327872276306152,-0.9010335206985474,0.14345894753932954,0.022121910005807878,0.393844336271286,-0.2876654863357544,-0.5508249998092651,0.7528724074363709,-0.5335546731948853,-0.2787244915962219,-1.6086260080337525,0.7813948392868042,-0.07241281867027283,0.21816758811473847,0.5382215976715088,0.3257213830947876,-0.50126051902771,-0.39788344502449038,1.6020886898040772,-0.42827746272087099,0.456509530544281,-0.47855666279792788,-0.7224505543708801,-0.961457371711731,-0.9445459246635437,0.7431487441062927,0.055083442479372028,-0.7568582892417908,-1.346326231956482,0.47989749908447268,-1.4350261688232422,0.29678669571876528,0.36354050040245058,-0.4340740144252777,-0.7038895487785339,-0.6805392503738403,1.208611011505127,0.3013633191585541,0.6981021761894226,-0.11554399132728577,-0.28108274936676028,0.5809396505355835,-0.005887127481400967,1.5495587587356568,-0.5211080312728882,0.4000777304172516,-0.024297023192048074,-0.9966498017311096,0.6762178540229797,-0.7882426977157593,-0.6058139204978943,-0.2270534634590149,-1.1202023029327393,0.607423722743988,0.4645138680934906,-0.6510849595069885,-0.45270901918411257,-0.7065489888191223,-1.3727086782455445,-1.1392173767089844,1.104701280593872,0.1461348831653595,0.48780354857444765,1.050379753112793,0.23788589239120484,0.8616106510162354,0.18325066566467286,-1.042396903038025,-0.2668171525001526,-0.8320109844207764,1.6187318563461304,-0.1583942323923111,-1.723026990890503,1.89010488986969,-0.39989712834358218,0.48268556594848635,-1.0629078149795533,0.6974272727966309,0.5942778587341309,-0.09411893784999848,-1.537975788116455,-1.125102162361145,-0.6915915012359619,-1.2483400106430054,1.3614215850830079,-0.1610238254070282,0.8459290266036987,1.6500985622406006,0.14392921328544618,-0.34585216641426089,2.2717196941375734,0.9471802115440369,-1.0783432722091675,-0.6698700785636902,0.18951745331287385,0.38182735443115237,-1.6310325860977173,-1.0513325929641724,0.4059125483036041,0.6947423219680786,0.33874496817588808,-1.709883451461792,0.2525250315666199,0.7432289719581604,1.104430913925171,2.5634195804595949,0.4898407757282257,-1.9743006229400635,0.6068130731582642,0.659066915512085,0.9443773031234741,0.9394707679748535,-1.800086259841919,1.028752326965332,0.49404773116111758,-0.9109296202659607,-1.2260972261428834,1.0518475770950318,1.9667692184448243,2.7113406658172609,-1.8460125923156739,-1.2061246633529664,0.6207013726234436,0.1971161663532257,2.363030195236206,-0.49806520342826846,0.8340685963630676,0.17455583810806275,-1.0127418041229249,-0.14560987055301667,0.40925294160842898,1.1832616329193116,-0.062157537788152698,-0.13127073645591737,-0.34426945447921755,0.8108610510826111,0.7136963605880737,1.984747052192688,0.22273723781108857,-0.42323434352874758,-0.42249664664268496,0.6545239090919495,0.6128240823745728,0.19633571803569795,-0.51425701379776,-1.120658040046692,0.05638241022825241,-1.4747790098190308,-1.3045004606246949,0.08776630461215973,0.9581668376922607,-2.593822956085205,-0.6839854717254639,0.19105464220046998,0.2546730041503906,0.49628737568855288,0.9209786653518677,0.1110638976097107,-0.21926303207874299,0.10834318399429321,1.9606457948684693,1.940754771232605,1.4576187133789063,-2.330235481262207,-0.4304397404193878,-0.16000689566135407,0.21184882521629334,0.488124281167984,0.933593213558197,0.7381650805473328,0.3981093168258667,0.5443023443222046,-0.17517149448394776,-1.7152842283248902,1.289924144744873,-2.3231406211853029,1.3567994832992554,-0.15053102374076844,-0.6641854047775269,0.6951203346252441,-2.1287057399749758,1.9956945180892945,1.355918288230896,0.34878572821617129,-0.911209762096405,0.9421728849411011,-0.039192650467157367,-0.011331545189023018,0.031177397817373277,0.5172094106674194,0.9376953840255737,0.6258849501609802,-1.144237995147705,-0.28803688287734988,-0.07489147037267685,-0.3291429877281189,1.425674557685852,0.3149985074996948,0.17872774600982667,-0.11284834146499634,0.07541954517364502,0.2689219117164612,-0.9638019800186157,1.5279755592346192,-1.9608359336853028,-0.30905526876449587,0.5124428868293762,0.8051663041114807,1.0125758647918702,-1.5745630264282227,1.237595558166504,-0.6353833675384522,-0.7318719029426575,-0.24175511300563813,-1.2161331176757813,-0.15874157845973969,0.3769760727882385,-1.0229535102844239,0.41381722688674929,-0.9081751704216003,1.0149327516555787,-1.4214136600494385,-0.42518121004104617,-0.0255819633603096,-1.4257771968841553,-1.9590383768081666,-0.11936116963624954,0.590595543384552,0.27535516023635867,-0.24763277173042298,-0.24253395199775697,-0.2084956020116806,0.6212167739868164,1.9391287565231324,1.1670578718185425,-2.480513334274292,0.5769115686416626,1.042563557624817,1.126953125,1.2064226865768433,0.4915817081928253,-0.1145276427268982,-0.4158746898174286,0.17909391224384309,0.12500065565109254,0.09913276880979538,3.272523880004883,-0.3477286398410797,0.11558876931667328,-0.6033750176429749,0.4286436438560486,-0.40399765968322756,1.2249356508255005,-0.9711228609085083,1.749413251876831,-0.9807984232902527,1.504181981086731,0.8242493271827698,1.2281603813171387]},"biases":[0.5238734483718872,-0.5858546495437622,-0.20013420283794404,2.1383495330810549,-0.7941770553588867,-0.3341330587863922,-0.30886417627334597,0.044076450169086459,0.4024888575077057,0.5688541531562805,0.010749176144599915,0.5646654963493347,-2.472470760345459,-0.8171718716621399,-1.4282289743423463,2.0486719608306886,-1.1473091840744019,0.044156599789857867,-0.10143952071666718,0.41025248169898989,-0.9392986297607422,-1.720057487487793]},{"neurons":[-0.9988393783569336,-0.9999516606330872,0.9999997615814209,-0.7430307865142822,-0.9967063069343567,-0.9993059039115906,0.9999998807907105,0.0747193843126297,-0.9999999403953552,0.97215735912323,0.9981838464736939],"weights":{"rows":11,"cols":22,"data":[-1.3814064264297486,1.0447068214416505,2.164525270462036,-0.12296480685472489,1.404030203819275,0.11923601478338242,-0.6133310794830322,0.9954422116279602,-0.49690744280815127,0.005236388184130192,-0.26835718750953677,1.0237562656402588,0.2168179154396057,-0.0020578112453222276,0.5802115201950073,0.5477392077445984,-0.4783405363559723,-0.8537869453430176,-0.7055953741073608,-1.0090453624725342,-0.35525187849998476,0.03226335719227791,-1.2188831567764283,-0.8151348233222961,-0.04579830542206764,-0.29523175954818728,-0.3862755596637726,0.4754619896411896,-0.7386738657951355,0.05222570523619652,0.7979942560195923,0.17395949363708497,-0.5730540752410889,0.42266395688056948,0.5833108425140381,0.5140863656997681,-0.06717249751091004,0.40351876616477969,-2.549391984939575,-0.04473992809653282,-0.14815297722816468,-0.1781737506389618,0.3591032326221466,0.15172575414180757,-0.8113181591033936,0.06190262734889984,-0.7817245721817017,1.1710149049758912,1.5052788257598878,-0.398255854845047,0.8334053754806519,-0.3992590308189392,0.630798876285553,0.752200722694397,-0.1281730681657791,-0.45433130860328677,-1.6884195804595948,-0.7430222034454346,-1.0627291202545167,-0.3758247196674347,-0.7917656302452087,0.5258716344833374,1.9801888465881348,0.613344132900238,0.6851020455360413,0.21049486100673676,1.137776494026184,-0.9692281484603882,-0.8465744853019714,-0.8216047883033752,1.0145012140274048,-0.3826267123222351,0.3272746205329895,0.3320971727371216,0.5443785786628723,-0.9219935536384583,-0.3732188642024994,-0.49960729479789736,-0.03943333774805069,-0.9707692265510559,0.39167436957359316,-0.5685275793075562,-1.5601025819778443,-0.3427441716194153,-0.6566300988197327,0.38258546590805056,0.6823130249977112,0.5046842098236084,1.3731786012649537,0.8601078987121582,-0.6422027349472046,-0.4368956685066223,0.6353820562362671,-0.2999618351459503,-1.699502944946289,0.21399644017219544,-0.32955649495124819,-0.4735003411769867,0.056515369564294818,1.3438632488250733,0.9921860694885254,-0.9708660244941711,-0.3141842484474182,0.6500461101531982,-2.0361595153808595,0.541169285774231,-0.3649960458278656,2.0182604789733888,-0.22096677124500276,0.15198180079460145,-0.8383803367614746,-0.8041284084320068,-0.5340292453765869,0.9999839067459106,0.2120799571275711,-0.00652072299271822,-0.5185633301734924,0.5611856579780579,-1.3461748361587525,-0.30199742317199709,0.0002899533719755709,0.6601425409317017,-0.38603901863098147,0.27302101254463198,0.8253476023674011,1.0635377168655396,-0.5159583687782288,0.7374123334884644,0.09884518384933472,-1.5638914108276368,0.006822944153100252,-1.320775032043457,0.5432078838348389,-1.5707714557647706,2.024021863937378,-0.2323269248008728,-0.015317386016249657,0.7605530023574829,-0.1604291945695877,0.29854658246040347,-0.3238203823566437,1.372548222541809,-2.2713139057159426,-0.9318564534187317,0.523512601852417,-0.7356714010238648,-0.8568494319915772,0.3992035984992981,-0.47785937786102297,1.2282583713531495,1.584054708480835,-0.2726882994174957,0.7769770622253418,0.11691378802061081,-0.506769061088562,-0.14283888041973115,0.22321166098117829,0.2752540111541748,-0.3277060389518738,0.7384851574897766,-0.4447886645793915,0.12554065883159638,-0.3613561987876892,0.2939910590648651,1.4685556888580323,0.242746040225029,-0.23130428791046143,-1.197549819946289,-0.7089038491249085,-0.9758053421974182,0.10975470393896103,0.589353084564209,0.7429580688476563,0.14839240908622743,0.009585646912455559,1.0173968076705933,-1.076503038406372,3.161628246307373,-1.4538888931274415,0.43129488825798037,-0.12694790959358216,-0.3762415647506714,-0.4906308650970459,0.34159281849861147,-2.8080902099609377,-0.595895528793335,1.2027746438980103,-1.015516996383667,0.05294036865234375,0.0975676029920578,0.33076924085617068,-0.7277448773384094,1.166311264038086,0.45904740691185,-2.528391122817993,1.007379174232483,0.6145362257957459,-0.5748505592346191,-0.23692621290683747,1.2245635986328126,-1.843631386756897,0.8493520021438599,0.3470538854598999,-1.6544986963272095,0.6706923246383667,-0.27629610896110537,-0.37389665842056277,0.03596058115363121,-0.09752948582172394,0.2947973608970642,0.380276620388031,0.1823665350675583,-1.4711120128631592,-0.23552677035331727,0.4758966565132141,-0.29395073652267458,-0.22436648607254029,1.2176456451416016,-0.005437411367893219,0.9508252739906311,1.3578134775161744,0.9173071384429932,-1.7210522890090943,0.4213063716888428,-0.4612882137298584,-0.508369505405426,-0.5470638275146484,-0.5788083672523499,-1.133955717086792,0.6931755542755127,0.6027539968490601,1.0598467588424683,0.09168511629104614,-1.8454848527908326,-1.2174630165100098,-0.861811637878418,0.4549703896045685,1.6001811027526856,0.5337703824043274,0.44351500272750857,-0.11662445962429047,0.9420787692070007]},"biases":[0.39493316411972048,-0.2626562714576721,-1.3394626379013062,-0.6411575078964233,-0.9064320921897888,-1.1083369255065919,0.6543747186660767,-0.7097350358963013,2.226022720336914,0.7922620177268982,-1.2255942821502686]}],"seed":1358928292}