{"layers":[{"neurons":[-0.9745325446128845,0.9567915201187134,0.6203497648239136,-0.9804424047470093,0.9983804821968079,-0.934937059879303,-0.9141725897789002,-0.9862877726554871,-0.9958028793334961,-0.9982953667640686,-0.9999777674674988,-0.9999827742576599,0.9968162775039673,-0.9197674989700317,0.9999983310699463,0.21532534062862397,-0.9995227456092835,0.8531163334846497,-0.9916143417358398,-0.990733802318573,0.9639912247657776,-0.5664290189743042,-0.9114885926246643,0.999983549118042,-0.10355187952518463,0.9999879002571106,0.999769926071167,0.9978233575820923,-0.9797700047492981,-0.9627373814582825,-0.9950575828552246,-0.9812211394309998,0.09421255439519882,0.914094090461731,0.9999236464500427,0.9999677538871765,0.9434899687767029,0.9851346611976624,-0.999956488609314,0.9719582796096802,0.9912555813789368,0.9999024868011475,-0.2224140614271164,-0.9931420087814331],"weights":{"rows":44,"cols":22,"data":[0.8773788809776306,-0.903569757938385,0.7032298445701599,0.36368030309677126,0.8993977308273315,-0.6596155166625977,2.0869100093841554,1.1216564178466797,-0.22718815505504609,0.28444159030914309,0.5843375325202942,-0.042720552533864978,-0.4871101379394531,1.4563426971435547,-0.0070444270968437199,0.6548771858215332,-2.3565821647644045,1.2481012344360352,0.8506132960319519,0.7708511352539063,-0.8222231864929199,-0.3487425446510315,1.1842374801635743,-0.03608082979917526,0.49059340357780459,-1.9766675233840943,1.8449344635009766,1.2969624996185303,0.4786948561668396,1.1408469676971436,-1.121046543121338,0.10568470507860184,-0.5038905739784241,0.42786461114883425,0.28342440724372866,0.19540956616401673,-0.9997301697731018,-0.16690802574157716,-0.15631498396396638,1.7183868885040284,-0.5138047337532044,-1.1874308586120606,1.1687116622924805,0.40279459953308108,-0.19746491312980653,-0.6023531556129456,-1.6511980295181275,0.3551046848297119,-1.262437343597412,-0.6981915235519409,0.25334957242012026,-0.7549453377723694,-1.0911674499511719,2.3932013511657717,-0.8781248927116394,0.6326515078544617,-2.0673253536224367,-0.41476619243621828,-0.9899858832359314,0.4653991162776947,-0.707975447177887,0.21904830634593965,-0.6100378632545471,-0.2112353891134262,0.535597562789917,-0.25024890899658205,0.5855953693389893,0.2582228481769562,-0.07140714675188065,0.9887102842330933,0.4951082766056061,1.8867064714431763,2.4398305416107179,1.0651435852050782,1.229486346244812,-0.03537494316697121,-1.7776167392730713,0.6465451717376709,1.0229586362838746,-0.8453761339187622,-1.3059970140457154,0.7013497352600098,1.4956486225128174,0.09410741180181503,0.4495098292827606,0.2235541194677353,-0.44734710454940798,-0.9874540567398071,0.6131541132926941,0.24496658146381379,-0.6822181940078735,0.9542099833488464,0.03312323987483978,1.3211216926574708,-2.275839328765869,0.2793180048465729,0.7356768846511841,0.3916522264480591,-0.40191155672073367,-1.4713947772979737,-0.853865921497345,0.7123546004295349,0.22100192308425904,0.6799957752227783,-0.631100058555603,-0.2941443920135498,-0.2393518090248108,-1.1533730030059815,-0.5986523628234863,0.08410284668207169,-0.4144815504550934,0.7451909184455872,0.3538738787174225,-0.9912353754043579,-0.03526029735803604,-1.9433887004852296,0.7581951022148132,0.4261327385902405,-0.43345600366592409,-0.27741938829421999,-0.6049644351005554,-1.179215908050537,1.0448095798492432,-1.3390979766845704,-0.42733141779899599,0.872957170009613,-0.7934127449989319,0.15470948815345765,-0.20056834816932679,-0.3425038158893585,-1.7414580583572388,-0.3200916051864624,1.003180742263794,1.3409326076507569,1.3945181369781495,-0.23377838730812074,-0.3237065076828003,-0.34692972898483279,1.1773335933685303,0.4028266668319702,-0.5057741403579712,0.9794851541519165,0.45141246914863589,-0.24311921000480653,-0.43886473774909975,-0.66193687915802,-0.2534821331501007,-0.7956603169441223,0.5291404724121094,-0.22571098804473878,0.19996193051338197,1.2493072748184205,-0.03462731093168259,-1.9520825147628785,0.7393242120742798,0.066526859998703,1.0245918035507203,1.6592706441879273,-1.319632649421692,0.3090565502643585,-0.1288561075925827,0.9844261407852173,-0.13304105401039124,-1.0940454006195069,1.8576796054840088,0.48137548565864565,0.9058189988136292,0.5614656805992127,-0.3615415394306183,-0.6139156222343445,-0.41438010334968569,0.7194355130195618,1.2021002769470215,-0.9548704028129578,-0.7031356692314148,-0.5499773025512695,0.436298131942749,0.14459258317947389,-1.0674810409545899,0.07557076960802078,-0.6219233274459839,-0.7174079418182373,0.36611005663871767,0.5484144687652588,0.3135749399662018,1.153316855430603,-0.8410908579826355,1.382610559463501,-0.5979965925216675,-0.386859267950058,1.2120118141174317,-1.1062254905700684,-1.6557657718658448,0.06648831814527512,-0.28737732768058779,-1.0231120586395264,0.5393838286399841,-2.293210029602051,-1.137986421585083,1.1641252040863038,-0.5135669708251953,-0.25931042432785036,0.7518579959869385,-1.4024693965911866,0.5949549674987793,1.1698671579360963,-1.3980629444122315,0.7063950300216675,0.6028789281845093,0.7558181881904602,1.187233328819275,-0.2233688235282898,-0.5619516372680664,1.1044479608535767,0.17042292654514314,1.1562775373458863,0.2774723470211029,-1.939713478088379,0.5419555902481079,-0.8296666145324707,1.185593605041504,0.7091924548149109,-0.8510197997093201,0.5537635684013367,1.3224918842315674,-0.23283453285694123,-0.022053370252251626,-1.2767750024795533,2.9865474700927736,1.3097280263900757,0.038684163242578509,-0.331081360578537,1.3501112461090088,-1.2798032760620118,-1.022507905960083,1.2635612487792969,0.9993937015533447,0.27055513858795168,-1.484872817993164,-1.2490133047103882,-0.3861357569694519,-0.8534302711486816,0.23741170763969422,0.8758546113967896,0.5459470748901367,2.3986072540283205,-0.38648733496665957,-0.46307092905044558,0.47125881910324099,-0.4870688319206238,0.46790045499801638,1.4431952238082886,-0.21564237773418427,1.618725061416626,1.3599040508270264,-0.9584787487983704,0.2476239651441574,1.97073233127594,-0.788851261138916,0.6425120234489441,-0.007510347291827202,0.042296022176742557,-0.7027694582939148,-0.16345010697841645,0.30129560828208926,0.8387605547904968,-0.01693444512784481,-1.077730417251587,-1.2163846492767335,-0.4720759093761444,-2.4356353282928469,1.3947943449020386,1.036340594291687,0.9037403464317322,-0.13963578641414643,-0.17640909552574159,-0.4555845260620117,-0.1718001365661621,0.01370401680469513,1.378748893737793,-0.05531074479222298,-0.9442684054374695,-0.5723235011100769,0.07766855508089066,0.6500067710876465,-0.6384133696556091,0.1285753846168518,-0.6297904253005981,0.06576647609472275,0.14959436655044557,0.48716598749160769,-1.2110648155212403,-0.9769077301025391,-0.5610642433166504,-0.5319117903709412,0.8011771440505981,0.1309993416070938,0.9959995150566101,0.7437569499015808,0.1891525387763977,-0.5932793617248535,-2.6341843605041506,-0.6858404874801636,0.9944498538970947,-0.9839237332344055,0.7829988598823547,0.7980310916900635,0.3676374852657318,0.05717181786894798,-0.4871140122413635,0.24130888283252717,-1.5645923614501954,1.507207989692688,-2.4614388942718508,-1.4656561613082886,-0.6251559853553772,-0.7471633553504944,-1.1050773859024048,-3.487471103668213,0.4736446738243103,-0.25292277336120608,0.3619426488876343,-2.5263702869415285,0.6931073665618897,-0.08801303803920746,-0.26682713627815249,0.04240909963846207,-1.4909929037094117,-1.8481124639511109,0.7103853225708008,-1.4899952411651612,-0.32897451519966128,-0.402851939201355,-1.552809476852417,1.9034041166305543,-1.162407398223877,-1.7556207180023194,1.1197422742843629,-0.47984132170677187,0.16294804215431214,-1.1353870630264283,-0.5718122720718384,1.6136260032653809,1.1738208532333375,0.8480885028839111,-0.777367353439331,1.4024070501327515,-0.3224540650844574,0.8189908862113953,2.8751375675201418,-0.6114104390144348,0.2620236277580261,-1.0425386428833008,1.6871919631958008,0.25102293491363528,1.144496202468872,0.8103506565093994,0.23924456536769868,1.9399745464324952,1.1783686876296998,1.7213021516799927,-0.5025299787521362,-1.5097224712371827,-0.19239549338817597,1.77687406539917,1.1767208576202393,0.4759487509727478,0.05307147651910782,-0.9487122297286987,0.06750012189149857,1.9117153882980347,-0.966122567653656,0.8834558725357056,-0.5415391325950623,0.6440683603286743,0.02140994183719158,0.8662527799606323,1.480320692062378,0.8913890719413757,-0.43732666969299319,0.4509596824645996,-1.000119686126709,-1.2303940057754517,0.5986869931221008,0.7369463443756104,-1.185354232788086,-1.1289095878601075,0.9987888336181641,-0.41604819893836977,1.5210611820220948,-1.2351839542388917,-0.3434576392173767,-0.09230037778615952,2.4100186824798586,1.0855871438980103,-0.49956220388412478,-1.5834505558013917,-0.09028457850217819,0.20830929279327393,-0.35933545231819155,1.6237618923187256,0.7188045978546143,0.3386320471763611,-0.03783036023378372,-0.2734467387199402,-0.8355779051780701,0.4952124357223511,1.2323459386825562,1.4824833869934083,-0.5082734227180481,-0.6592450141906738,1.0975505113601685,0.9356356859207153,-0.3272625803947449,0.3590773642063141,0.5488858222961426,0.4659777283668518,1.0614968538284302,0.9077181220054627,1.1766396760940552,0.8965843915939331,-0.8586388826370239,-1.4403762817382813,-0.05125925689935684,2.0580430030822756,-0.5947121381759644,-0.7607214450836182,-0.6657889485359192,-0.6755715608596802,1.2953134775161744,0.6442937850952148,0.562554121017456,1.240149974822998,-0.04377930238842964,-0.6310716271400452,1.3981956243515015,0.11600422114133835,1.2563725709915162,0.28530892729759219,0.03525874391198158,0.4788108468055725,-0.19986827671527863,1.585519790649414,0.01946428045630455,1.2626982927322388,-0.8715347647666931,0.561391294002533,-2.570709705352783,-0.03468623012304306,-0.4335257411003113,0.19640761613845826,-0.6315466165542603,-0.7982784509658814,1.2355878353118897,0.7179807424545288,-1.251107096672058,-0.46788719296455386,-0.8905036449432373,0.3673326075077057,1.0427360534667969,0.485471248626709,1.04810631275177,1.5422543287277222,-0.16194629669189454,0.47705110907554629,0.3501606285572052,0.7069429159164429,-0.8880131840705872,-0.995611310005188,-0.11697619408369065,0.10221889615058899,0.24012459814548493,1.309191346168518,0.8409866690635681,-1.220820426940918,1.292636513710022,-0.20426757633686067,0.403356671333313,0.2406221628189087,1.8069478273391724,1.469626784324646,-0.287693053483963,0.018316715955734254,-0.7115302681922913,-0.6217635273933411,-1.0984488725662232,-0.9710662961006165,0.6521874666213989,-0.054200731217861179,0.31881099939346316,-2.5912132263183595,0.08862468600273133,1.2732689380645753,0.5559691786766052,1.6166678667068482,0.4376312494277954,0.7512040138244629,0.4162099361419678,-2.555769205093384,0.19705232977867127,-0.6735647916793823,-0.5424006581306458,-0.07086855173110962,0.047879092395305637,-0.043852679431438449,1.927392601966858,-1.104551911354065,0.706184983253479,1.4100518226623536,-0.7213953137397766,0.38267865777015688,-0.3956570625305176,-0.8631072640419006,0.059790778905153278,-0.12015204131603241,-0.34794771671295168,0.7925530672073364,-1.3067924976348878,0.5354758501052856,0.6947301030158997,-1.7997691631317139,1.0975501537322999,0.47772833704948428,-1.0030291080474854,0.03958754613995552,-0.3212793171405792,-1.3548412322998047,-1.231715202331543,0.6517429351806641,-0.8385336399078369,0.775192379951477,0.4314292073249817,-1.148714303970337,1.8035753965377808,1.013253092765808,1.2391915321350098,-0.7335360646247864,-0.6128583550453186,0.31864818930625918,-0.31647053360939028,1.800976037979126,-0.547741174697876,1.0487339496612549,-1.9785196781158448,0.26294705271720889,-0.4001886248588562,-1.3173707723617554,-0.7321286201477051,-0.4595363140106201,-0.39430105686187746,-1.4188343286514283,-0.29633745551109316,0.9264630079269409,-1.483469009399414,-1.4653908014297486,0.8541640043258667,-2.7210333347320558,-0.18387024104595185,0.4713067412376404,-0.9242209792137146,-0.9747089147567749,0.5065065026283264,0.44883984327316286,-0.23599892854690553,1.0479035377502442,-2.624213218688965,-0.5985469222068787,1.9492946863174439,0.3515452742576599,-1.4580291509628297,0.1840837448835373,-0.7977433204650879,1.0814648866653443,-0.8366263508796692,1.5691356658935547,2.1446378231048586,-1.3269926309585572,0.2418970912694931,0.06939437985420227,-0.3101520240306854,-0.6625091433525086,0.3226783871650696,-1.3772767782211304,-0.07917605340480805,0.6044933795928955,1.8902006149291993,-0.44076478481292727,0.4761431813240051,0.8276681900024414,-0.8151407241821289,0.9877086877822876,-0.14129085838794709,-1.3974077701568604,0.5892626643180847,-0.40875545144081118,-0.7763304114341736,0.16500027477741242,-0.8985970616340637,-1.2676628828048707,0.6397615075111389,-1.3499013185501099,0.04498397558927536,0.3337373435497284,-1.2847956418991089,-0.20189104974269868,0.9139954447746277,-0.5675455927848816,0.4156586229801178,-0.8151239156723023,0.021077334880828859,0.8598470091819763,0.27004340291023257,-0.06555675715208054,0.45116907358169558,-0.5333737730979919,-0.27165257930755618,0.5268613696098328,-0.5047276020050049,0.017572343349456788,1.104682445526123,-0.7595638036727905,0.7058846354484558,0.06550484150648117,0.5581920742988586,1.2343261241912842,-0.8792440891265869,-0.43336471915245058,0.2774586081504822,0.5081653594970703,-0.6699094176292419,0.32526856660842898,1.0263546705245972,-3.0865492820739748,-0.013516983948647976,-0.3110177218914032,-1.0139274597167969,0.4099940061569214,-0.9657427668571472,-0.43448537588119509,0.852889895439148,-1.8210513591766358,-0.43712714314460757,1.7003780603408814,-0.6025916337966919,-0.7723132371902466,0.5135894417762756,-0.8203577399253845,-0.20441359281539918,-0.6553890705108643,-0.2915738821029663,1.3633110523223878,-1.071445107460022,0.1609635204076767,0.9016234874725342,-0.9931604862213135,-0.06529305875301361,-0.24175560474395753,-1.1854913234710694,0.6100553870201111,-0.33359628915786745,-0.1344647854566574,0.39344170689582827,0.09233087301254273,0.6870425939559937,0.6480538249015808,-0.38893190026283266,0.26936614513397219,-0.3876892626285553,1.6030868291854859,0.09246435761451721,-0.42101702094078066,-0.9651831984519959,-0.32027947902679446,-1.4337964057922364,-0.9034278392791748,-0.21640068292617799,-0.17148910462856294,-0.2564328610897064,-0.20266863703727723,-0.4623814821243286,0.5552722811698914,0.10021811723709107,-1.1641027927398682,0.716964602470398,-0.40307360887527468,-1.114861249923706,0.909294843673706,-0.5070698857307434,-0.8157103657722473,0.28829318284988406,-0.18848060071468354,1.0695371627807618,0.9243875741958618,-0.3857896327972412,-0.7776796817779541,-0.2952226400375366,0.18509367108345033,1.3669488430023194,0.03306838124990463,0.8957527279853821,-0.65777987241745,0.9670889377593994,0.32151851058006289,0.029170069843530656,-0.5108555555343628,-0.7253969311714172,1.2528598308563233,0.5509227514266968,-0.003995094448328018,-0.29949676990509035,0.8692446947097778,-0.36446747183799746,0.9855440258979797,-0.8798002600669861,-0.3258340060710907,-1.1469594240188599,1.2547521591186524,-0.06886633485555649,0.5809308886528015,-0.5684536099433899,1.432332992553711,1.25088632106781,0.39817866683006289,0.4820249676704407,0.016449645161628724,-1.1714227199554444,0.00003095293868682347,0.40782737731933596,0.3874003291130066,1.8485479354858399,-1.081213116645813,0.7517358064651489,-2.66921329498291,0.6039029955863953,1.0892547369003297,1.5653555393218995,0.41543787717819216,0.177105113863945,-1.1774353981018067,0.9847670793533325,-0.7090643644332886,0.1312362402677536,0.28913718461990359,-1.0080972909927369,1.3081889152526856,-0.12281832098960877,-1.7001838684082032,-1.3256915807724,-0.5847697854042053,-0.009862407110631466,1.0197017192840577,-1.8555546998977662,0.5524268746376038,1.6536098718643189,1.1509389877319337,0.43492525815963747,0.25390851497650149,1.8101956844329835,-1.2097561359405518,0.03806958720088005,-2.954486131668091,-0.5219358801841736,-1.4312608242034913,-0.9776894450187683,0.5215567946434021,-1.0479263067245484,-0.43701741099357607,0.9334084391593933,1.0557005405426026,-0.3912140727043152,-0.47595077753067019,-1.272681713104248,1.5608258247375489,-0.7265002131462097,-0.7662848234176636,0.11218178272247315,-1.615365743637085,0.13233758509159089,-1.2673653364181519,-0.8652577996253967,0.32024747133255007,0.809657096862793,-0.05542132258415222,1.831083059310913,-0.5267939567565918,0.35301730036735537,0.9824364185333252,0.20509932935237885,-0.670526385307312,0.8396813869476318,1.4592031240463257,-0.8894808292388916,-0.615845799446106,-0.3629332184791565,-0.9613935351371765,-0.6218571662902832,-0.3076775074005127,0.30174699425697329,-0.4079768657684326,-0.6854068040847778,-0.37899425625801089,-3.283994674682617,0.5484845638275147,-0.8744654655456543,0.4331253468990326,0.6859052777290344,0.056340292096138,0.28408870100975039,1.0448119640350342,0.8525111079216003,0.25544118881225588,0.10788390040397644,0.11666600406169892,-0.04587100073695183,0.6528651714324951,-1.720644474029541,0.3478369414806366,-0.5758345127105713,-0.43251878023147585,1.4151549339294434,-0.11228318512439728,-0.9185223579406738,0.12406530976295471,1.6290695667266846,-1.3452650308609009,-0.4259895086288452,-0.9225188493728638,-0.9962499141693115,-2.1229352951049806,0.3835746645927429,0.8702654838562012,-0.4035405218601227,-0.1089332327246666,1.8259172439575196,-0.2664296329021454,0.718246340751648,-1.3335524797439576,-0.9793316721916199,-1.0224957466125489,0.3708582818508148,0.09240349382162094,-0.0009301178506575525,1.0980148315429688,-1.2754162549972535,-0.17379219830036164,-0.4252190887928009,-0.6667217016220093,2.4774374961853029,0.9908151030540466,0.41917330026626589,2.003337860107422,0.01740625686943531,-0.7755416631698608,0.991508424282074,-0.7437120676040649,0.8220103979110718,1.1757017374038697,1.6932340860366822,0.720747172832489,0.6465713977813721,1.339840292930603,-0.15891186892986298,-0.13533510267734528,-0.03605693578720093,-0.5297596454620361,-0.2061523050069809,-0.7738659977912903,-1.1818211078643799,0.5367529392242432,0.15580838918685914,-0.3022998571395874,0.5065556168556213,-0.28437286615371706,0.40969857573509219,-0.7868214249610901,-0.29006728529930117,0.4804302155971527,-0.6740847229957581,-0.43753111362457278,0.46070775389671328,-0.6053647398948669,-0.4080371558666229,1.0274232625961304,-1.2873907089233399,0.14751036465168,-0.1020132452249527,-0.6254279613494873,-0.12385629117488861,-0.21317878365516663,-0.23978190124034882,1.0536173582077027,0.1861356496810913,0.31965386867523196,0.995622456073761,-0.6845822930335999,0.05396469682455063,0.5971798896789551,0.37147507071495058,0.624750554561615,-2.493837833404541,1.5841646194458008,0.26752153038978579,1.2113348245620728,0.046125806868076327,0.7373255491256714,0.0569327250123024,0.97524493932724,0.6750538349151611,-1.1983217000961304,-0.7143184542655945,-1.3149958848953248,0.6594452857971191,-0.2136867493391037,0.5433806777000427,-0.5825228095054627,-0.907232940196991,0.4907492995262146,0.4391109049320221,-0.08826466649770737,-0.43639516830444338,-0.33220991492271426,-0.21137787401676179,-1.4649180173873902,-1.2702103853225709,-0.04836224019527435,0.28222087025642397,-0.669581413269043,1.3501986265182496,0.15539659559726716,-0.15289101004600526,1.7603678703308106,0.28220465779304507,-0.10984121263027191,-0.9087307453155518,-1.8976340293884278,-0.3333946466445923,-0.11736761778593064,-0.2446867823600769,-1.5254372358322144,-0.15568292140960694,-0.8125661611557007,-1.5022337436676026,-0.9136298298835754,-0.6353779435157776,0.06620370596647263,-0.2757151126861572,0.9766921401023865,-0.2531985342502594,-0.23886115849018098,-0.821194052696228,0.3166930377483368,-0.7619127035140991,0.8389773964881897,1.214555263519287,-1.2353941202163697,0.22923585772514344,0.5645881295204163,0.28667765855789187,-0.3926942050457001,1.256130576133728,0.1790255308151245,-0.8257381916046143,-2.4828264713287355,-0.19236865639686585,1.2596267461776734,0.7626690864562988,-0.17025110125541688,0.408703476190567]},"biases":[1.246271014213562,0.2470676749944687,0.06857626885175705,0.2833653688430786,0.42766982316970827,-0.3833889663219452,-1.456023931503296,-0.44252678751945498,-0.8704490065574646,-0.6653602123260498,-0.6964487433433533,0.15195904672145844,1.4269835948944092,-0.02147991955280304,-1.1196963787078858,-1.3685060739517213,0.18309330940246583,0.15587250888347627,-1.2935285568237305,-0.1478046178817749,-0.6654561758041382,-0.9986474514007568,0.5362788438796997,1.4627928733825684,0.4757711589336395,1.6396929025650025,0.36342954635620119,-0.4871602952480316,0.3050355315208435,-0.25833559036254885,-1.5663701295852662,-1.335149884223938,0.47748619318008425,-1.542620062828064,-0.23193249106407166,-1.261196255683899,-0.3204565644264221,-1.2988336086273194,-0.4399954676628113,-0.7505260705947876,-0.5869038701057434,0.8232825994491577,-0.7309697866439819,-1.0472811460494996]},{"neurons":[0.9858185052871704,-0.9997146129608154,1.0,-0.6311617493629456,0.9974115490913391,-0.5912023782730103,1.0,-1.0,1.0,1.0,-0.9338565468788147,-0.9928228855133057,-0.9999993443489075,-1.0,-1.0,-0.9892293214797974,0.9996492266654968,0.9999966621398926,0.9999999403953552,-0.9691259860992432,-0.9950976967811585,-0.9997752904891968],"weights":{"rows":22,"cols":44,"data":[-0.12393651157617569,0.3193114399909973,-0.5254927277565002,0.3896196186542511,-0.96974116563797,1.6945598125457764,2.019015312194824,-0.10980023443698883,0.5610237121582031,-0.21947160363197328,-0.8918209671974182,2.163583517074585,0.42204049229621889,-1.3748682737350464,0.4993124008178711,-0.5525966286659241,-0.435432106256485,0.10770340263843537,-1.3736876249313355,-2.0784707069396974,-0.7316895127296448,0.18841975927352906,-1.109431266784668,-0.06778962165117264,-0.6560313105583191,0.6083226203918457,1.581743836402893,-0.8974252343177795,-0.010153934359550476,-0.8988314270973206,-1.2626770734786988,-2.1072115898132326,-0.9376112818717957,-0.425890177488327,-1.568318247795105,0.047552622854709628,0.28480860590934756,-0.5115886330604553,-0.35629355907440188,-0.19965337216854096,-0.7231371402740479,0.2972676157951355,0.659060537815094,0.597509503364563,0.638945460319519,-0.2852790355682373,1.135611891746521,1.304049015045166,1.6385329961776734,-0.48501336574554446,1.1892729997634888,-0.34594154357910159,-1.0956639051437379,0.7059513926506043,1.674889087677002,-0.6705291271209717,0.2008793205022812,0.6245755553245544,-1.3729606866836548,-1.3840988874435425,-0.17740292847156526,0.9802700281143189,-0.9130278825759888,-0.31477785110473635,-0.6459946036338806,0.5322322845458984,1.686126470565796,0.6277934908866882,0.5636236667633057,0.3935478925704956,0.780036449432373,3.1846795082092287,2.502227306365967,1.9209556579589844,0.12549293041229249,-1.8351422548294068,-0.43264761567115786,-0.5039592385292053,-0.7429124712944031,-1.1262019872665406,0.48594486713409426,-0.7735793590545654,0.21675099432468415,-1.1293531656265259,1.500616431236267,0.46149614453315737,0.07031961530447006,1.0699903964996338,0.9446887969970703,0.4784201383590698,0.8861062526702881,-0.11603450030088425,2.1641361713409426,0.016975771635770799,0.7744218707084656,-1.3556146621704102,-0.455869197845459,-0.11210542172193527,-0.34452688694000246,-0.2470167875289917,-1.1890323162078858,0.22862902283668519,0.1418028473854065,0.7165101766586304,-1.3188114166259766,0.5331584215164185,0.0027531469240784647,0.5229367613792419,0.38051924109458926,0.7023558020591736,-0.9865339398384094,-0.06673351675271988,-0.7612038254737854,0.07188423722982407,0.019843265414237977,0.8662481307983398,-0.24869218468666078,-0.5729694962501526,-0.10287248343229294,0.1948251873254776,1.7868788242340088,1.821334719657898,-0.03556270897388458,0.012250126339495182,0.41061702370643618,-0.6936109066009522,-0.717564582824707,-0.2883458733558655,1.6905723810195923,0.5351729989051819,-0.9656959772109985,1.2141801118850709,-0.16986815631389619,0.5260460376739502,-0.15286928415298463,1.8582763671875,0.4414820671081543,-0.28377193212509158,-0.8159036040306091,-1.241743564605713,0.4990881383419037,-1.748669981956482,-0.04321124032139778,-0.3227475881576538,-1.195780873298645,0.7819977402687073,0.616708517074585,0.1930743008852005,0.511387050151825,0.18411007523536683,0.2168406993150711,-0.17731426656246186,-0.37733590602874758,-0.45985135436058047,1.3717200756072999,0.21570147573947907,-0.30386096239089968,1.8284510374069214,-0.6247497797012329,-0.007006102241575718,-0.5430307984352112,1.131505012512207,0.684390127658844,1.3254578113555909,-0.4160822927951813,-0.3450829088687897,-0.06900133192539215,-0.9680651426315308,0.6741558909416199,-1.1348888874053956,0.07694483548402786,-0.7345696687698364,0.77340167760849,-0.13126292824745179,0.7522122263908386,-0.35260772705078127,-0.7630643844604492,-0.023851973935961725,1.0624825954437256,0.49319106340408327,0.03028629720211029,-1.3749423027038575,0.7425987720489502,-0.5539628863334656,0.2445141226053238,-2.2747366428375246,0.04149891808629036,1.4717962741851807,0.2536070644855499,-0.5649318695068359,-1.0621460676193238,-0.8956252932548523,0.40015092492103579,1.0954818725585938,0.038739610463380817,0.14887040853500367,1.1204850673675538,0.020574675872921945,0.6065853238105774,0.17644211649894715,1.3943562507629395,0.7095836997032166,-0.1075190082192421,1.2233304977416993,-1.217827558517456,-1.1477863788604737,-0.6852999329566956,0.17203356325626374,-0.6673017144203186,0.13984329998493195,-0.525953471660614,-0.13610638678073884,-1.9292006492614747,0.11083436757326126,-0.15785719454288484,-0.024008911103010179,-0.4302157759666443,-0.008395947515964508,0.8021258115768433,0.542326807975769,-0.8017089366912842,-0.5964410901069641,-0.06184769421815872,-1.7501122951507569,-0.4440416991710663,0.4061446785926819,0.07457750290632248,0.07886554300785065,0.17888043820858003,0.7153962254524231,1.761281132698059,0.9762002229690552,-0.16343218088150025,0.28856873512268069,-0.6853520274162293,-0.5668005347251892,0.9902744293212891,0.6589943766593933,0.0527111291885376,-1.55979323387146,-1.1795011758804322,-0.7241922616958618,0.23454907536506654,-1.235856294631958,0.6160405278205872,1.4809767007827759,-1.6928402185440064,1.0666282176971436,-1.1403629779815674,-0.14099915325641633,-0.07924623042345047,0.0012742140097543598,0.006859339773654938,0.2585136890411377,-0.47725710272789,1.6021183729171754,-0.4742218255996704,0.9562869071960449,0.7500922679901123,-0.04349613934755325,0.34715887904167178,0.2889070212841034,0.756397008895874,-1.07021963596344,2.4531357288360597,0.42182624340057375,-0.5536477565765381,-0.1366869956254959,0.1271098107099533,-1.6266613006591797,-0.6627616882324219,-0.4478510618209839,0.9646865725517273,-0.6266210675239563,-1.3041553497314454,-0.4310528635978699,-0.027118444442749025,0.6413528919219971,1.3005571365356446,-0.5397631525993347,-0.4817657172679901,-0.5991711616516113,-1.2291797399520875,-1.8281517028808594,0.8255528807640076,-1.2930235862731934,-1.2301069498062134,1.222355604171753,-0.6124791502952576,-0.15141402184963227,-0.17202438414096833,-1.2156195640563965,-0.8207056522369385,-0.26378437876701357,-0.6046395301818848,0.8423804640769959,0.9581401348114014,-0.2195005863904953,-0.4818750023841858,0.026618048548698427,-0.8978201746940613,0.38581135869026186,-0.8772591948509216,0.10682233422994614,0.62515789270401,0.3235541880130768,-1.5707809925079346,-0.23476414382457734,1.3061212301254273,-0.1766432374715805,-0.6054824590682983,0.4202064871788025,-0.2610130310058594,1.2325143814086915,0.08823474496603012,-0.2385268360376358,-0.06194693222641945,0.31903359293937685,1.5915061235427857,-0.8636339902877808,-0.047142550349235538,0.34726157784461977,0.29058215022087099,0.25299373269081118,-0.5932847857475281,-0.5599653124809265,0.3838671147823334,1.0113728046417237,-0.7375426888465881,-0.8383579850196838,1.9807796478271485,-0.17713569104671479,-0.3094645142555237,-0.035668011754751208,0.4610218405723572,1.1662555932998658,0.861440896987915,1.759702205657959,0.09255465120077133,-0.18318141996860505,0.39204514026641848,-0.6625432968139648,-0.35023850202560427,0.2845364809036255,-1.279906153678894,0.44325846433639529,1.0379526615142823,0.8532087802886963,0.5233966708183289,-1.8108826875686646,0.20550967752933503,0.5858453512191773,0.7547397017478943,0.48569777607917788,-1.4176414012908936,-0.5960269570350647,-0.16511152684688569,-0.530390202999115,-1.3663572072982789,-1.6373615264892579,1.507290244102478,0.7761087417602539,-0.09014527499675751,1.4384111166000367,1.0296523571014405,-1.4799342155456544,-0.45905396342277529,1.0037026405334473,-0.9917587041854858,-1.6137267351150513,-1.3740681409835816,0.049594029784202579,0.9790130257606506,-1.23642098903656,-0.08084914088249207,-0.06325393170118332,0.29808473587036135,1.6878458261489869,-0.08254028856754303,-0.9080567359924316,-1.2450755834579468,-1.842529296875,-0.10044202953577042,-0.5536729693412781,-0.4360930919647217,-0.33075210452079775,-0.20895886421203614,-0.21958309412002564,0.6372663974761963,0.878341794013977,-0.7944886684417725,3.3458521366119386,0.7746605277061462,-0.5657463073730469,-1.7424901723861695,0.16699209809303285,0.2581207752227783,0.5172109603881836,-0.4616430997848511,0.8854271769523621,0.12507444620132447,1.4325686693191529,-0.2736048996448517,0.30831676721572878,0.5457783341407776,-2.319317579269409,-0.0045853243209421639,0.5062615275382996,2.3148014545440676,-0.7477253675460815,1.0444555282592774,-0.792572557926178,0.9316404461860657,-0.19226080179214478,0.7103822827339172,-1.1421115398406983,-1.043092131614685,0.2958820164203644,-1.0279486179351807,0.01947679929435253,-0.17273999750614167,1.3220288753509522,-0.07866448909044266,0.7207028269767761,-0.5159246325492859,-0.5879039764404297,0.7101451754570007,0.05373220518231392,-1.4113768339157105,1.199995756149292,0.5349311828613281,0.026064185425639154,1.211805820465088,1.7549018859863282,-0.45718806982040408,0.08199116587638855,-0.8162486553192139,0.8611393570899963,-0.0878872200846672,-1.4330260753631592,-0.5000259280204773,0.8167635202407837,-0.12071492522954941,-1.53082275390625,1.4528958797454835,-0.3138406574726105,0.6869409084320068,-0.7017038464546204,0.16061578691005708,-0.19809313118457795,1.2437057495117188,0.9626303911209106,0.6871419548988342,0.12926220893859864,-1.0139614343643189,-1.3861072063446046,-0.14837980270385743,-0.6494843363761902,0.054361045360565189,1.352003574371338,-1.4851515293121338,-1.2117908000946046,0.5437297821044922,-1.135790228843689,0.11438620090484619,0.030092140659689904,0.5954681038856506,0.8372921943664551,-0.5107494592666626,0.07744094729423523,0.011794011108577252,0.19209662079811097,0.6473012566566467,1.4607646465301514,-0.6619607210159302,-0.2024429887533188,-0.3562980890274048,-1.2386293411254883,-0.03873451054096222,-1.1828287839889527,-1.0713295936584473,0.5938434600830078,-0.6597542762756348,-1.6830575466156006,0.15976135432720185,0.8986732363700867,-2.976717233657837,0.32212311029434206,-0.04327017068862915,-0.6101962327957153,-1.1970723867416382,-0.850506067276001,2.3163905143737795,1.0207568407058716,-0.927371084690094,-1.2215229272842408,1.5511010885238648,-0.09325475990772248,0.22342927753925324,-0.34729650616645815,0.9214414954185486,-0.26344895362854006,0.035841766744852069,-2.270063638687134,-1.8178311586380005,0.7062509655952454,1.1866801977157593,-0.999160647392273,0.37463217973709109,0.15530987083911897,2.2996795177459719,1.7365220785140992,-0.779354989528656,0.5526483058929443,0.7360033392906189,0.2829775810241699,1.2010934352874756,-0.966126024723053,0.19086343050003053,-2.034597396850586,-0.14774459600448609,0.2573610842227936,0.7783403396606445,0.3917156755924225,0.6418392658233643,-1.2022037506103516,0.6835464835166931,1.2127453088760377,1.0583512783050538,0.02505115605890751,1.0300086736679078,0.2050481140613556,-0.26181158423423769,-0.013014604337513447,0.484456866979599,-0.4239130914211273,1.1566015481948853,1.4762895107269288,-0.3074892461299896,0.8311142325401306,0.44544559717178347,-0.1907031387090683,-1.219612717628479,1.7782262563705445,-0.7177236080169678,-1.528178095817566,-1.6031383275985718,-1.1330409049987794,0.49588143825531008,-0.7651164531707764,-0.2918132245540619,-1.068940281867981,0.24395345151424409,0.22792182862758637,0.3635317385196686,-0.4242335259914398,-0.6977831721305847,0.3907963037490845,1.5421429872512818,-2.219830274581909,-0.6140950918197632,-0.9630220532417297,0.4203706383705139,-0.3930273652076721,-0.15616311132907868,0.5153776407241821,0.48352739214897158,-0.7854856252670288,-1.5838732719421387,-0.3105347454547882,0.28785184025764468,0.42977437376976015,-0.4446686804294586,1.7658531665802003,0.3791501224040985,-1.2378978729248047,-2.34859037399292,-1.150511384010315,0.3598308861255646,-0.5886980295181274,0.20434105396270753,0.9775267839431763,0.3670927882194519,-0.24041715264320374,-0.13645967841148377,-0.8252437710762024,0.9046761393547058,-0.27712124586105349,-0.467389851808548,-0.5092234015464783,0.982464611530304,0.9219257235527039,-0.5733066201210022,1.8805028200149537,1.0242488384246827,-0.9910743236541748,-0.5106052160263062,-0.08655114471912384,-0.5155013203620911,-0.09069953113794327,0.49997007846832278,-0.2124330997467041,1.2434948682785035,-0.576436460018158,0.9377396702766419,-0.3337436616420746,-1.131333827972412,-0.7796558737754822,-1.8848963975906373,-0.7508377432823181,-1.1779824495315552,-1.5657585859298707,0.19633568823337556,0.23713348805904389,-0.5433327555656433,-0.4176969528198242,1.341003656387329,1.1418135166168213,-0.2057630717754364,-0.031118271872401239,0.47029754519462588,-0.18033136427402497,-0.7884997725486755,-1.286638855934143,-0.056277405470609668,1.1362013816833497,1.6549924612045289,1.1610392332077027,0.31749919056892397,1.3197091817855836,-1.2986319065093995,-0.32605820894241335,-1.0391664505004883,-1.7389914989471436,0.4563823342323303,-0.14930859208106996,-1.2132757902145386,0.44379550218582156,0.5153465867042542,-1.6686217784881592,0.4573012888431549,-0.14257030189037324,0.6514751315116882,-0.709044873714447,1.7302173376083375,0.32049664855003359,2.462573289871216,0.291422039270401,0.9853186011314392,-0.7165979146957398,-0.025346258655190469,1.284920334815979,-0.5355322360992432,-0.4732533097267151,-0.3638738989830017,0.28204381465911868,0.6345273852348328,-0.7750211954116821,-0.7138075828552246,-0.7313422560691834,0.6503217816352844,2.0137932300567629,0.4846433997154236,0.03858666867017746,0.2629959285259247,0.7215051651000977,1.5420432090759278,1.2514214515686036,-0.8970173597335815,1.2469253540039063,0.13401886820793153,0.3939758539199829,-0.45847296714782717,-0.5401395559310913,0.9137600660324097,-2.1544153690338136,0.32718604803085329,-0.10415098816156388,0.3188488781452179,0.5941643714904785,-1.2525616884231568,0.38498809933662417,-0.8025944828987122,-0.03848057612776756,-0.0710195004940033,0.2315458208322525,-1.3295332193374634,0.12240824848413468,0.4184786081314087,-0.04624182730913162,0.2635374069213867,-0.49222227931022646,0.40173399448394778,0.5915281772613525,-0.3052229881286621,0.808952808380127,0.3812379837036133,-0.0013498450862243772,0.5107206106185913,0.4434449374675751,-0.7425557374954224,-0.2182685285806656,-0.3471967875957489,-0.10739367455244065,0.10182759165763855,-0.787642776966095,-0.06157991290092468,-0.9164782762527466,1.4478143453598023,-0.6319019198417664,-0.46019214391708376,0.1432439088821411,-0.2495114505290985,-0.1507619023323059,-0.6528841853141785,-0.6909332871437073,0.32710257172584536,-0.532905638217926,0.26238343119621279,-1.6063754558563233,0.589931070804596,0.33128851652145388,-0.201142355799675,0.3351215124130249,0.14934960007667542,-0.2365184873342514,-0.3973267674446106,1.4544240236282349,-0.022102627903223039,0.4558708369731903,-0.4778871238231659,-0.2574491500854492,-0.9601122140884399,-0.9431300759315491,0.29614773392677309,0.05500637739896774,-0.755723774433136,-1.2978923320770264,0.24919788539409638,-1.4516303539276124,0.2963714301586151,0.7195261716842651,-0.9127998352050781,-1.0402547121047974,-1.0935561656951905,0.6971014142036438,0.6817381978034973,0.616840124130249,-0.8897433280944824,0.34805816411972048,0.479074090719223,0.4636925756931305,1.5473908185958863,-0.5111083984375,0.4956355094909668,-0.024263029918074609,-1.1893211603164673,0.6752042770385742,-0.5488158464431763,-1.1017735004425049,0.13573727011680604,-0.5959983468055725,0.6065738797187805,0.46386396884918215,-0.6500440239906311,-0.4690244495868683,-0.7250685691833496,-1.3707882165908814,-1.1376235485076905,1.6600953340530396,0.14591583609580995,0.5836754441261292,1.048910140991211,0.23755307495594026,0.31572529673576357,0.1829942762851715,-0.44841045141220095,-0.7117407321929932,-0.8308469653129578,1.6164671182632447,-0.3211195170879364,-1.7206162214279175,1.9590446949005128,-0.39933764934539797,0.48201024532318118,-1.28203547000885,0.45436325669288638,0.5922021865844727,0.34387439489364626,-1.2619925737380982,-1.1234155893325806,-0.08818227797746659,-1.0110132694244385,1.5503582954406739,0.03972223773598671,0.8534631133079529,1.2730869054794312,-0.8546668887138367,-0.34536832571029665,1.7669042348861695,0.27617788314819338,-1.4555836915969849,-0.6689327955245972,0.34471073746681216,0.3812931180000305,-1.3385729789733887,-0.6212688684463501,0.7116522192955017,0.7914162278175354,-0.2158624678850174,-1.7211928367614747,0.25214654207229617,0.37902891635894778,1.1028858423233033,2.6313068866729738,0.4081381559371948,-2.087587356567383,0.6314664483070374,0.6581447720527649,0.8923478722572327,0.8014286756515503,-0.9273005127906799,0.9330421090126038,0.3082027733325958,-1.0854195356369019,-1.2752776145935059,1.4395477771759034,1.964017391204834,2.2483465671539308,-2.134047746658325,-0.7895247340202332,0.3570304214954376,-0.2961222231388092,2.1383447647094728,-0.9341753125190735,0.8823539614677429,0.6195919513702393,-0.9507853388786316,-0.6352566480636597,0.39303869009017947,0.8424789905548096,0.5743847489356995,0.29580482840538027,-0.9755013585090637,0.8097265958786011,0.7077428102493286,2.06343936920166,0.2027289867401123,-0.4225999414920807,-0.421905517578125,0.6631090044975281,0.7342793345451355,0.19604142010211945,-0.21115422248840333,-0.5699153542518616,0.21203595399856568,-1.4701627492904664,-1.3026753664016724,0.08764350414276123,0.8954663276672363,-3.568592071533203,-0.683028519153595,0.05654994025826454,0.008460941724479199,0.6251375675201416,0.9196901321411133,0.2263874113559723,-0.21895626187324525,-0.5874282717704773,2.4436862468719484,1.8715429306030274,1.7113631963729859,-2.2885639667510988,-0.42983752489089968,0.07523460686206818,-0.19622179865837098,0.4874413311481476,1.0432230234146119,0.7370586395263672,0.39755234122276308,1.0357695817947388,0.27886852622032168,-1.9621785879135132,1.2881193161010743,-1.3355352878570557,2.0856239795684816,0.36161649227142336,-0.6269314885139465,0.24991725385189057,-2.1262054443359377,1.9448875188827515,1.918074131011963,0.48470818996429446,-1.4643776416778565,0.9831161499023438,-0.039137814193964007,-0.011314560659229756,0.031133778393268586,0.48202744126319888,0.661609947681427,0.6249467134475708,-0.9424266219139099,-0.2685514986515045,-0.27613595128059389,-0.6273804306983948,1.3711994886398316,-0.2553706467151642,0.6730185151100159,0.3029041886329651,0.25828710198402407,0.2685188353061676,-0.9831571578979492,1.525837779045105,-1.958092451095581,0.2193935513496399,-0.049623340368270877,0.788284420967102,0.7562516331672669,-0.6583030223846436,1.0815495252609254,-1.0797903537750245,-0.5952006578445435,-0.2344338297843933,-0.9329378604888916,-0.15850363671779633,0.13990336656570435,-1.0215222835540772,0.6239053606987,-0.9069045186042786,0.6801757216453552,-1.2311525344848633,0.20256541669368745,0.30023884773254397,-0.7127344608306885,-1.956297516822815,-0.08538559824228287,0.9545211791992188,0.2749699056148529,-0.24728628993034364,-0.06674758344888687,0.07557477802038193,0.6203476786613464,2.144542932510376,1.1655415296554566,-2.0102407932281496,-0.29579824209213259,1.14222252368927,0.7841373085975647,0.6447933912277222,0.932168185710907,-0.35638219118118288,-0.7497279644012451,0.018672902137041093,0.6445742845535278,0.09899407625198364,1.4941749572753907,-0.2424168735742569,0.11541551351547241,-0.7710464596748352,0.43383097648620608,-0.4034324288368225,1.2230995893478394,-0.969764232635498,1.3495577573776246,-1.0613316297531129,1.0802319049835206,1.0797406435012818,0.7678477168083191]},"biases":[0.17778539657592774,-0.5850349068641663,-0.29708167910575869,2.1543431282043459,-0.9918610453605652,-0.3336322009563446,-0.19674433767795564,0.8886088728904724,0.20364497601985932,0.8785535097122192,0.010734137147665024,0.19582392275333405,-2.4275736808776857,-0.8160285949707031,-1.4262306690216065,1.8562310934066773,-0.6318522691726685,0.04409482330083847,-0.44137734174728396,-0.027992617338895799,-0.6504918932914734,-0.444431871175766]},{"neurons":[-0.9875432252883911,-0.9999546408653259,0.9907606244087219,-0.8432702422142029,-0.9999948143959045,-0.9941191673278809,1.0,-0.10161098092794419,-0.9999999403953552,-0.9203658699989319,-0.908532440662384],"weights":{"rows":11,"cols":22,"data":[-1.1592659950256348,0.7894880175590515,2.0869624614715578,-0.12278049439191818,1.2970407009124756,0.11906919628381729,-0.5947592854499817,0.9939500689506531,-0.4962122142314911,0.0052290624007582668,-0.4525516629219055,1.122588038444519,-0.1559162586927414,-0.0020549320615828039,0.579399824142456,0.16925422847270966,-0.4776712954044342,-0.852592408657074,-0.7837547659873962,-1.2251269817352296,0.060844533145427707,0.038684677332639697,-1.4890973567962647,-0.8139944076538086,0.24577371776103974,-0.2948186993598938,0.07774707674980164,0.4747968018054962,-0.737640380859375,0.1063300296664238,0.3845823109149933,0.1466614007949829,-1.3730851411819459,1.2179665565490723,0.6176586151123047,0.5133158564567566,-0.367245078086853,0.40295422077178957,-2.021721363067627,-0.008387192152440548,-0.2234070599079132,0.2977694571018219,-0.23566026985645295,0.7142319679260254,-0.4778355062007904,0.2783755958080292,-1.2201201915740967,0.9528462290763855,1.7935466766357422,-0.8218264579772949,0.9579658508300781,-0.39870044589042666,0.03294491395354271,0.7511483430862427,0.2083827406167984,-0.4536956548690796,-1.3929598331451417,-0.699922502040863,-0.17025859653949738,-0.678677499294281,-0.7905787825584412,0.06350492686033249,1.3890371322631837,0.6124246716499329,0.684143602848053,0.21020036935806275,0.768558144569397,-1.3218631744384766,-1.1119849681854249,-0.8204553127288818,1.4855583906173707,-0.3820914030075073,0.32681673765182497,0.1589336097240448,0.06173616275191307,-1.1963934898376465,-0.3726966977119446,-0.36449089646339419,-0.03928307816386223,-0.9730215668678284,0.859157919883728,-0.6861149668693543,-1.7011220455169678,-0.14014296233654023,-0.9685645699501038,0.13251638412475587,0.6813583970069885,0.5067070126533508,1.3711202144622803,1.3988490104675294,-0.33829033374786379,-0.26170840859413149,1.1846990585327149,0.14456124603748322,-1.6969553232192994,0.556817352771759,-0.8339278697967529,-0.4375876486301422,-0.09750436246395111,1.3041622638702393,0.9907979369163513,-2.2372679710388185,-0.45859581232070925,0.6210018396377564,-1.460046648979187,0.5404121279716492,-0.4029751121997833,1.4850488901138306,-0.14803549647331239,0.15176914632320405,-0.8372073769569397,-1.016520380973816,-0.6717049479484558,0.9540591239929199,0.21178323030471803,0.19974921643733979,-0.37106865644454958,0.5603445172309876,-0.8803011178970337,0.31700220704078677,0.00028954772278666496,0.6591530442237854,-0.42561429738998415,0.27263903617858889,0.8644384145736694,1.2831531763076783,-0.38861802220344546,0.7683213353157044,0.09870689362287522,-1.5615472793579102,-0.00332678877748549,-1.318795084953308,0.5424479246139526,-1.373853325843811,2.0628859996795656,-0.26382163166999819,0.44555777311325076,1.3433914184570313,0.6192803382873535,0.7557960748672485,-0.1389937847852707,1.285272479057312,-1.491068720817566,-0.9305527210235596,0.13729025423526765,-1.0627003908157349,0.06713862717151642,0.2074737250804901,-1.0082423686981202,1.2427806854248047,1.1677361726760865,0.08035331219434738,0.7195701599121094,-0.3895522356033325,-0.5350508689880371,0.2589262127876282,0.22289937734603883,0.4419562518596649,-0.32724758982658389,0.2085433453321457,-0.8068276047706604,0.12536503374576569,-0.36085063219070437,-0.7934359908103943,1.466500997543335,-0.20911021530628205,-0.2726665139198303,-1.1958744525909424,-0.707912027835846,-0.9743427038192749,0.5809950828552246,0.5885285139083862,1.010118007659912,-0.8532824516296387,0.009572235867381096,0.9901677370071411,-1.0749969482421876,3.0854294300079347,-1.7544370889663697,0.6723852753639221,-0.48588743805885317,-0.7393479943275452,-0.12070534378290177,0.32790330052375796,-2.760606288909912,-0.5873950719833374,1.2010917663574219,-1.050543189048767,-0.19665460288524629,-0.3889370560646057,0.4105452299118042,-0.5613756775856018,1.2874839305877686,0.090751513838768,-2.1763718128204347,0.6269108057022095,1.0424057245254517,-0.5740463733673096,-0.23659472167491914,1.203315019607544,-1.8408678770065308,0.8314061164855957,0.07407788932323456,-1.652018666267395,-0.09497496485710144,-0.8321727514266968,-0.37333622574806216,0.32176271080970766,-0.019777776673436166,-0.19971248507499696,1.1456248760223389,0.6031759977340698,-1.4689068794250489,-0.23473124206066132,0.5415693521499634,0.35573649406433108,-0.0048130350187420849,0.8668978214263916,-0.022896071895956994,0.7032856941223145,1.256250023841858,0.9160237312316895,-1.5426493883132935,0.5814906358718872,-0.6228343844413757,-0.2639157772064209,-1.3228241205215455,-0.5452163815498352,-1.1584582328796387,0.3590453863143921,0.6019107103347778,1.058363914489746,0.0658891350030899,-1.5565602779388428,-0.9031254649162293,-1.0093718767166138,1.0874024629592896,1.56550931930542,0.5329703092575073,0.44289448857307436,0.42203518748283389,0.9062889218330383]},"biases":[0.3943805992603302,-0.4987618625164032,-1.5263851881027222,-0.8777416348457336,-0.9051638841629028,-1.1067861318588257,0.6534591317176819,-0.708742082118988,2.5761258602142336,0.9333456754684448,-1.099500060081482]}],"seed":1811259938}