{"layers":[{"neurons":[-0.9857734441757202,0.8895307779312134,-0.7297180891036987,-0.902617335319519,0.9990886449813843,-0.9886577725410461,-0.9648876786231995,-0.995681881904602,-0.9999722242355347,-0.9415801167488098,-0.9978420734405518,-0.9999052286148071,0.9948003888130188,-0.9699820876121521,0.9997891783714294,0.9042780995368958,-0.9845046997070313,0.8678745627403259,-0.97422194480896,-0.8763992190361023,0.9996091723442078,-0.6449701189994812,-0.9888107180595398,0.9994675517082214,-0.273452490568161,0.9999901652336121,0.9982332587242127,0.977178156375885,-0.998532235622406,-0.9964271187782288,-0.997753381729126,-0.7394533157348633,-0.9808972477912903,-0.7614014744758606,0.999615490436554,0.9714417457580566,0.8920438289642334,0.36343055963516238,-0.999947726726532,0.9972915053367615,0.998732328414917,0.9998698234558106,0.6388593316078186,-0.9715893864631653],"weights":{"rows":44,"cols":22,"data":[2.409712791442871,-0.9792430996894836,0.6399866938591003,0.3638986051082611,0.6744416952133179,-0.6599454283714294,1.386971354484558,0.8331050276756287,-0.8634031414985657,1.1417275667190552,0.6211811304092407,-0.3473754823207855,-0.4880563020706177,1.4270689487457276,-0.36211487650871279,0.5638625025749207,-2.0701956748962404,1.259630560874939,0.8134498000144959,0.8186251521110535,-0.5935782194137573,-0.49400484561920168,0.742852509021759,0.251605749130249,-0.030461937189102174,-1.5823256969451905,0.8485928773880005,1.0094581842422486,0.6677775979042053,0.9928164482116699,-1.379921317100525,-0.2619139850139618,-0.5041930675506592,-0.542679488658905,0.5411562323570252,-0.1756719946861267,-1.0001301765441895,-0.16693340241909028,-0.44655415415763857,1.7192463874816895,-0.6602741479873657,-1.1455893516540528,1.1720324754714966,0.4061529040336609,-0.19758343696594239,-0.16338588297367097,-1.3776626586914063,1.3483407497406006,-0.8949185609817505,-0.5803489089012146,1.0838720798492432,-0.7581601142883301,-1.0723708868026734,1.5009384155273438,-0.8765162825584412,0.19748227298259736,-2.1602134704589845,-0.09064015001058579,-0.34964147210121157,0.35195621848106387,-0.6368321776390076,0.49247851967811587,-0.07509079575538635,0.20631802082061768,0.4905141294002533,-0.250399112701416,0.4685249626636505,0.6425345540046692,-0.8462969064712524,0.4873821437358856,0.35511428117752077,1.720626711845398,1.5710381269454957,0.9479296207427979,0.6908812522888184,-0.4789379835128784,-2.068260669708252,0.3006095886230469,1.0233677625656129,-0.17351578176021577,-1.3597487211227418,0.7017005085945129,1.2281707525253297,0.5100707411766052,-0.2622818946838379,0.22366593778133393,0.41681429743766787,-1.5552705526351929,0.8895971775054932,-0.024241816252470018,-1.1549679040908814,0.9369102120399475,-0.0418812558054924,1.2785604000091553,-2.277205467224121,-0.16771520674228669,0.1530589461326599,0.11591258645057678,-0.414571613073349,-1.424647331237793,-1.0791898965835572,0.32747551798820498,0.42221081256866457,0.5338299870491028,-0.7227645516395569,-1.27019202709198,-0.26965850591659548,-0.9888831377029419,-0.35132086277008059,0.15821164846420289,-0.39902952313423159,0.6310080289840698,0.2290717363357544,-0.5657002925872803,0.34761837124824526,-1.8416507244110108,0.5557008981704712,0.5467666387557983,-0.06742247939109802,-0.3994499742984772,-0.6052669286727905,-1.026386022567749,0.9043933153152466,-1.7480783462524415,-0.05359574407339096,0.8733064532279968,-0.7938095927238464,-0.10216829925775528,-0.3478058874607086,-0.4919315576553345,-2.0482358932495119,-0.3016315996646881,1.0036826133728028,1.714795708656311,1.0712062120437623,-0.006707688327878714,-0.47070667147636416,-0.28159642219543459,0.0910567119717598,-0.1158604845404625,-0.002636698540300131,0.5097202658653259,0.5208975672721863,-0.32190555334091189,-0.46112576127052309,-0.671697199344635,-0.7105706334114075,-1.1043636798858643,-0.5110651850700378,0.48924127221107485,0.5369336605072022,0.961877167224884,-0.05646359175443649,-2.314013719558716,1.3442834615707398,-0.6980040073394775,0.4614635407924652,0.9750337600708008,-0.8550645709037781,-0.08311113715171814,0.5679143071174622,0.9850170016288757,-0.16274993121623994,-1.236547589302063,1.9326728582382203,0.48166441917419436,0.9062719941139221,0.5617464184761047,-0.689872145652771,0.029840629547834398,-0.07136266678571701,0.5678365230560303,0.588075578212738,-1.2779866456985474,-1.2420661449432374,-1.0595601797103882,1.1585203409194947,-0.12209722399711609,-0.6998009085655212,0.5654019713401794,-0.14038914442062379,-0.6809380650520325,0.8127911686897278,0.5486887097358704,0.3137631416320801,1.5195844173431397,-0.9857268333435059,0.9205890893936157,-0.7440842390060425,-0.31922659277915957,0.05454744026064873,-0.305379718542099,-1.6142898797988892,0.6626274585723877,-0.2874923050403595,-1.0235214233398438,0.5079172849655151,-2.294586181640625,-0.6616005301475525,1.1648240089416505,-0.8572319746017456,-0.06833328306674957,0.7261772155761719,-1.5101617574691773,0.41026878356933596,1.1526262760162354,-2.4493048191070558,0.698716402053833,0.2163998782634735,0.7173040509223938,0.4692859947681427,0.10072023421525955,-0.3868345618247986,1.4479535818099976,0.1376456320285797,1.4426121711730958,0.5237601399421692,-1.899493932723999,0.10431551933288574,-0.4251174032688141,0.6653498411178589,0.26775285601615908,-0.8415507674217224,0.5905179381370544,1.5968384742736817,-0.23297427594661714,-0.15082257986068726,-1.1308777332305909,2.988339900970459,0.5008141398429871,-0.8553031086921692,0.30845117568969729,0.4270429313182831,-0.896803617477417,-0.9794177412986755,1.0506126880645753,1.0125813484191895,0.01919880323112011,-1.2942984104156495,-0.11868903040885925,-0.9717352986335754,0.5546400547027588,0.5126301050186157,0.5755969882011414,0.5461654663085938,2.3998067378997804,-0.386719286441803,-1.4819483757019044,0.4715416729450226,-0.46097713708877566,0.5804006457328796,1.4437726736068726,-0.21577180922031403,2.3105337619781496,0.8055697679519653,-0.8194602131843567,0.24774780869483949,2.243642807006836,-0.2987075448036194,0.3436276614665985,-0.3565090000629425,0.3484090566635132,0.211509108543396,-0.6159670948982239,0.2569333612918854,0.4890661835670471,-0.010660955682396889,-1.0783772468566895,-1.2178996801376343,-0.6712279319763184,-2.670778512954712,0.5010297298431397,1.0367553234100342,0.9509299397468567,0.04028875380754471,0.15925483405590058,-0.49513423442840578,0.3171025216579437,0.0137108713388443,1.3261057138442994,-0.05534394085407257,-0.6730832457542419,-0.5456768274307251,0.6159974932670593,0.9545616507530212,-0.6387965679168701,0.12865254282951356,-0.5144451856613159,-0.22403177618980409,0.6175156831741333,0.48745837807655337,-1.1189566850662232,-0.9773963093757629,-0.5614010095596314,-0.895318865776062,1.5676194429397584,0.4874173104763031,0.15485543012619019,0.7654274702072144,0.18926608562469483,-0.42849016189575198,-2.3282487392425539,-0.748502254486084,1.2093238830566407,-0.9353811144828796,0.9127291440963745,1.008889079093933,0.3561761677265167,0.4815484285354614,-0.2810612916946411,-0.13574561476707459,-1.145780086517334,1.028348684310913,-2.46267032623291,-0.9204005599021912,-0.44753366708755495,-0.9649170637130737,-1.1681984663009644,-1.9677822589874268,0.47392895817756655,-0.1331106275320053,0.8653576374053955,-2.874542236328125,0.13926391303539277,-0.6222140192985535,-0.6561139822006226,0.04243031516671181,-1.4917385578155518,-2.43499493598938,-0.8238011598587036,-1.4941779375076295,0.8099861741065979,-0.4030534029006958,-1.1306895017623902,1.4277276992797852,-1.1940784454345704,-1.2242226600646973,0.3407329320907593,-0.6865553855895996,-0.47804945707321169,-1.629313349723816,-0.6173229217529297,1.614271640777588,1.2237099409103394,0.7822803258895874,-0.4512256383895874,1.684008002281189,-0.08874636888504029,0.8193185329437256,3.226170063018799,-0.8151588439941406,0.6637426018714905,-1.0303328037261963,1.5234026908874512,0.4806402325630188,1.144953966140747,0.6871723532676697,0.23936422169208527,1.3897312879562379,1.1885353326797486,1.3089381456375123,-0.7221788167953491,-1.980143427848816,-0.27620986104011538,1.6817984580993653,0.7057502269744873,0.7242713570594788,0.05309801921248436,-0.6523177623748779,0.7647162675857544,1.61566960811615,-1.0145764350891114,0.8233667016029358,-0.10415822267532349,1.3983608484268189,-0.030569838359951974,0.8817191123962402,1.4380022287368775,0.3768148720264435,-0.4138205349445343,0.46886253356933596,-0.34519892930984499,-1.2731187343597413,0.009248334914445877,0.7373149991035461,-1.4472578763961793,-0.7333661913871765,1.4459530115127564,-0.22422952950000764,1.5219740867614747,-0.9156315922737122,-0.4708789587020874,-0.09235577285289765,1.8651056289672852,1.1392439603805543,-0.6823301315307617,-1.576930284500122,-0.4150312840938568,0.2084343135356903,0.03804897516965866,0.5708022713661194,0.7471232414245606,0.8137670755386353,-0.03784928470849991,-0.2736108899116516,-0.8359957933425903,0.22083237767219544,1.290462851524353,0.9699453115463257,-1.0427608489990235,-0.20113930106163026,1.0173765420913697,0.9845923781394959,-0.09143252670764923,0.3592928647994995,0.13645589351654054,0.4319324195384979,1.0619217157363892,1.14742910861969,0.9617615342140198,0.49690359830856326,-1.2132916450500489,-1.4410967826843262,-0.05129002407193184,1.6017333269119263,-0.23363342881202699,-0.4470379650592804,-0.6520434021949768,-1.2244133949279786,0.906306266784668,0.9089508056640625,0.37142515182495119,0.4266531765460968,-0.04380558058619499,-0.30383068323135378,1.5995409488677979,-0.37221524119377139,1.45654296875,-0.20221097767353059,0.03527991101145744,0.34677228331565859,-0.30985042452812197,1.5458956956863404,0.019475962966680528,1.7634527683258057,-0.8720578551292419,0.4248887002468109,-2.4275548458099367,-0.015096547082066536,-0.5810316801071167,0.33124732971191409,-0.6280912756919861,-1.2591885328292847,1.7967694997787476,0.05454883724451065,-0.864890992641449,-0.19246521592140199,-0.8369216918945313,-0.16166777908802033,0.564158022403717,0.4857626259326935,1.4527978897094727,1.2671189308166505,-0.1690513640642166,0.47728970646858218,0.3503707945346832,0.24899211525917054,-0.8456096649169922,-0.7091724276542664,0.3231552839279175,0.38043534755706789,0.22658522427082063,0.46964216232299807,0.8414914608001709,-1.1950552463531495,1.2932831048965455,-0.41363051533699038,0.14194047451019288,0.7117849588394165,2.1364212036132814,0.5220057368278503,-0.2672088146209717,-0.31341996788978579,-0.23304617404937745,-0.2795949876308441,-1.0989984273910523,-1.2652419805526734,0.5586727857589722,0.8325939178466797,0.35096704959869387,-1.9127216339111329,0.4356756806373596,1.7525129318237305,0.7115286588668823,1.1951791048049927,0.9719271063804627,1.3327394723892213,0.1799200475215912,-2.2117323875427248,0.3801085650920868,-0.9847055673599243,-0.1939590573310852,-0.07090399414300919,0.04789825156331062,-0.05752047151327133,1.6407387256622315,-1.1051044464111329,0.17850914597511292,1.1786776781082154,-0.27023792266845705,-0.1112419068813324,-0.7402829527854919,-1.3602714538574219,-0.4597707986831665,-0.12022415548563004,-0.38126784563064577,0.8273916840553284,-1.3075768947601319,1.4937851428985596,0.6950775980949402,-2.16340970993042,0.3678925335407257,0.018799539655447007,-1.0036312341690064,0.2384059876203537,-0.5549490451812744,-1.15751314163208,-1.252945899963379,0.611120343208313,-0.6091510057449341,0.2779742479324341,0.8583846688270569,-1.1494038105010987,1.5508933067321778,0.8390141129493713,0.3710438311100006,-0.44019749760627749,-0.6585201025009155,0.34132087230682375,-0.35863736271858218,1.3712338209152222,-0.5288048982620239,0.5313848853111267,-0.3385012745857239,-0.20032961666584016,-1.551291584968567,-1.2033034563064576,-1.2287427186965943,-0.8293665051460266,-0.3944982588291168,-1.3201943635940552,0.2782686948776245,0.7318611145019531,-1.731964111328125,-1.4662704467773438,0.06855841726064682,-2.7226667404174806,-0.2339746356010437,-0.43454378843307497,-0.9247757196426392,-1.1496750116348267,0.09381400048732758,0.471857488155365,0.13397763669490815,1.0486372709274293,-2.1224164962768556,-0.6214964985847473,0.9370985627174377,0.3050280511379242,-1.4805634021759034,0.373584121465683,-0.7982221841812134,1.1251477003097535,-1.2265019416809083,1.569920539855957,2.1761655807495119,-1.327789068222046,0.22992420196533204,0.504539430141449,-0.30620425939559939,-0.18646131455898286,0.14031976461410523,-1.6188675165176392,-0.032943446189165118,0.7504974603652954,1.4964165687561036,-0.24259185791015626,-0.31195303797721865,0.8280821442604065,-0.1925593763589859,1.514428973197937,-0.16506150364875794,-1.3981066942214966,-0.21286636590957642,-0.03765334561467171,-0.7768740653991699,-0.2234557718038559,-0.9343984723091126,-0.10792919993400574,0.934332013130188,-1.3507115840911866,0.04501097649335861,0.8020471334457398,-1.4091622829437256,0.30356261134147646,-0.1122899055480957,-1.1662009954452515,0.415866494178772,-0.7592010498046875,-0.514812707901001,0.6503346562385559,0.557813286781311,0.5247476696968079,0.29748982191085818,-0.7225044369697571,-0.4226963520050049,0.5270721316337586,0.18245992064476014,0.42392483353614809,1.0949400663375855,-0.7406377196311951,0.6593447923660278,0.06553760170936585,0.23262444138526917,1.2240040302276612,-0.3561386168003082,-0.04714491218328476,-0.10395176708698273,0.5084704160690308,-1.54538893699646,0.3120569586753845,0.9674838781356812,-1.6075669527053834,0.15223342180252076,-0.1415371298789978,-0.9619389772415161,0.4102400839328766,-0.9706861972808838,-0.4346591830253601,0.2927570939064026,-1.8217799663543702,-0.32348591089248659,0.89228755235672,-0.9614191651344299,0.017994631081819536,0.16592097282409669,-0.43200090527534487,-0.20453627407550813,-0.3046090602874756,-0.2917197346687317,1.06187105178833,-1.1007555723190308,0.1610601395368576,0.90216463804245,-0.37486696243286135,-0.28806987404823305,-0.20416206121444703,-0.9140028357505798,0.7070406675338745,-0.12136688083410263,0.19309887290000916,0.302799254655838,-0.29356223344802859,0.6620445251464844,0.17381151020526887,0.4826793670654297,0.24600809812545777,-0.3033566176891327,1.7342700958251954,-0.3239610195159912,-0.3388461172580719,-0.9656659364700317,0.13413068652153016,-0.9464372992515564,-0.9191765785217285,-0.18886849284172059,0.18684983253479005,-0.25656116008758547,-0.2027902752161026,-0.44285669922828677,-0.3299329876899719,0.10027827322483063,-1.6535372734069825,0.7173948884010315,-0.433271586894989,-1.1155303716659547,0.80488121509552,-0.12311363220214844,-0.49990710616111758,0.2884373962879181,-0.08294717222452164,1.1619665622711182,0.533678412437439,-0.42662835121154787,-0.20467375218868257,-0.25336629152297976,-0.28135451674461367,1.0570284128189088,0.03308822959661484,0.47960183024406435,-0.9194822907447815,0.4644789397716522,0.5861879587173462,0.3193114697933197,-1.2257357835769654,-0.9986845850944519,1.026743769645691,0.30880457162857058,0.02462260238826275,-0.47668036818504336,0.9235411882400513,-0.3646497428417206,0.9682533740997315,-0.6892908811569214,-0.37943822145462038,-0.33271515369415285,0.8122587203979492,-0.3472771644592285,-0.2654033601284027,-0.2704165577888489,1.2704408168792725,1.7756134271621705,0.47998425364494326,0.10720706731081009,0.016459517180919648,-1.4038560390472413,-1.0443329811096192,0.4391695559024811,-0.11317983269691467,1.2897834777832032,-1.2518126964569092,0.8665722608566284,-1.9804184436798096,1.2527211904525757,1.089908480644226,0.6702153086662293,0.41564565896987917,-0.3201178014278412,-1.4859622716903687,0.5893604755401611,-1.0487139225006104,0.36111730337142947,-0.2592470645904541,-0.1126369759440422,0.8331726789474487,-0.10421521961688996,-0.7399725914001465,-1.9541285037994385,0.18345491588115693,-0.2600165605545044,1.02010977268219,-0.802640438079834,-0.0826510414481163,1.9117716550827027,0.4544285237789154,0.39216727018356326,0.25403547286987307,1.9509881734848023,-1.4210566282272339,0.04215555265545845,-2.556628465652466,-0.6669231653213501,-1.2149507999420167,-0.7802521586418152,0.8728371858596802,-0.19903531670570374,-0.9488769769668579,0.9337818622589111,0.5941852927207947,-0.3914097249507904,-0.6444236040115356,-1.5491673946380616,0.7939792275428772,-0.6829755902290344,-1.19788658618927,0.11115279048681259,-2.0865519046783449,-0.7136688232421875,-0.9428961873054504,-0.28966575860977175,0.09880068898200989,0.18264855444431306,0.47968193888664248,1.8364980220794678,1.0084285736083985,0.35322919487953188,0.3976554870605469,0.6953217387199402,-0.6496813297271729,0.8276205062866211,1.0404030084609986,-0.8899257183074951,0.05964387580752373,0.21057231724262238,-0.9617781639099121,-0.7288830876350403,0.0054586539044976238,0.08644178509712219,-0.6543771028518677,-0.21781499683856965,0.2276633083820343,-2.8167030811309816,0.5488137602806091,-0.8748153448104858,0.6473866701126099,0.6796854734420776,0.06666567921638489,0.4431270658969879,1.0454392433166505,0.3367808759212494,0.5472521185874939,0.2701026499271393,-0.1778564304113388,0.35422033071517947,-0.06133653223514557,-2.020331859588623,-0.19910871982574464,-0.19253556430339814,-0.43277838826179507,1.7096292972564698,-0.134425088763237,-0.5017950534820557,0.12411495298147202,1.7475823163986207,-0.9015032649040222,0.6249820590019226,-0.4259129762649536,-0.11086952686309815,-2.865126848220825,0.5636646151542664,0.9104142785072327,-0.16053055226802827,0.06942678242921829,1.1820966005325318,-0.2665628492832184,0.21361032128334046,-0.9158424735069275,-1.1554981470108033,-1.1582688093185425,0.8011016845703125,0.05199720337986946,-0.0009305830462835729,1.0931318998336793,-1.27605402469635,0.3193497955799103,-0.7027790546417236,-0.36888593435287478,2.0881052017211916,1.385416865348816,0.1668977290391922,1.9756944179534913,-0.4725758135318756,-0.6806539297103882,0.5898547768592835,-0.7440096139907837,0.9626534581184387,1.2234082221984864,0.9397628903388977,0.9606489539146423,0.648445188999176,1.307800054550171,-0.15899136662483216,-0.5062846541404724,0.1938484162092209,-0.878784716129303,0.4020330607891083,-0.9906272888183594,-0.7553669214248657,1.2170108556747437,0.1925216019153595,-0.9063814282417297,0.3519976735115051,-0.06802641600370407,0.29154908657073977,-0.6596205830574036,-0.42221152782440188,0.4933633506298065,-0.197341188788414,-0.2351444512605667,0.0574696846306324,-1.167549967765808,-0.4411173462867737,1.028039813041687,-1.288034439086914,-0.27478793263435366,-0.10206426680088043,-1.0137197971343995,-0.0035206973552703859,-0.11582224071025849,-0.45744213461875918,0.5259016752243042,-0.36971643567085268,0.23644331097602845,1.4302595853805543,-0.7085592746734619,0.0118378521874547,0.3843771815299988,0.6718388795852661,0.6250630021095276,-2.4766733646392824,1.7722655534744263,0.6062797904014587,1.3609097003936768,0.6359644532203674,0.6108271479606628,0.05696120113134384,1.2250646352767945,0.5238865613937378,-0.7066113352775574,-0.2462998479604721,-1.119694471359253,0.18845753371715547,-0.3778708577156067,0.6633971929550171,-0.5116494297981262,-0.9077774882316589,0.3686014711856842,0.8445583581924439,-0.20933140814304353,-0.5219717621803284,-0.32900136709213259,0.4743335545063019,-1.4657971858978272,-0.36554908752441409,-0.048386428505182269,0.0384378582239151,-0.6501179337501526,1.7712562084197999,0.0077460939064621929,0.0013915831223130227,1.3869093656539918,0.27267229557037356,-0.08602166175842285,-1.6526902914047242,-2.1596760749816896,-0.4242829978466034,-0.2440248280763626,-0.25796881318092348,-1.9685688018798829,-0.15577635169029237,-1.103529453277588,-1.0404266119003297,-0.6158843040466309,-0.6705415844917297,0.03361005336046219,-0.3139006495475769,1.216416835784912,0.0559871643781662,-0.2921196520328522,-0.821651041507721,0.5710137486457825,-1.419249176979065,1.0772535800933838,1.2192680835723878,-1.2102993726730347,-0.10635966062545777,0.5772727131843567,0.286849707365036,-0.888981282711029,1.351212739944458,0.5076187252998352,-0.5170131921768189,-2.942570447921753,-0.19248411059379579,1.7398838996887208,0.6408926844596863,0.2352410852909088,0.3483985662460327]},"biases":[0.350728839635849,0.21648244559764863,-0.3681919276714325,0.26124486327171328,0.1554940789937973,-0.383619099855423,-1.2637481689453126,0.36267951130867007,-1.4843162298202515,-0.37618333101272585,-0.6968668103218079,0.15203504264354707,1.0732227563858033,-0.17697611451148988,-0.7468073964118958,-1.369327425956726,0.3329712748527527,0.15596605837345124,-1.2941755056381226,-0.823357343673706,-0.8073654174804688,-1.2419095039367676,1.1052350997924805,2.1892995834350588,0.6635705828666687,1.3216625452041627,1.10197913646698,-0.49605098366737368,0.05903259292244911,-0.2584647834300995,-1.9757676124572755,-0.38932615518569949,0.47767722606658938,-1.4217512607574463,-0.4314223527908325,-1.2618268728256226,0.3174552023410797,-1.5943851470947266,-0.23283205926418305,-0.3390413522720337,-0.030865009874105455,1.8229105472564698,-0.0212835893034935,-0.8031703233718872]},{"neurons":[0.9999365210533142,-0.9999997615814209,0.9996696710586548,0.9983311891555786,0.9832791686058044,-0.9942110180854797,1.0,-1.0,1.0,0.9999997019767761,-0.996057391166687,0.998287558555603,-0.9999996423721314,-0.9999998807907105,-1.0,-0.9999999403953552,0.9996791481971741,0.9999982714653015,1.0,-0.9976663589477539,0.9922401905059815,-0.9999862313270569],"weights":{"rows":22,"cols":44,"data":[0.5548250675201416,0.5335025787353516,-0.5258081555366516,0.8447678089141846,-0.8821130394935608,2.0508718490600588,2.0200250148773195,-0.8234511613845825,1.006303071975708,-0.6777824759483337,-1.0986058712005616,1.4182944297790528,0.2618248760700226,-1.5877591371536255,0.6565263271331787,-0.5528729557991028,-0.6542492508888245,0.10775727033615112,-1.390571117401123,-1.8661476373672486,-0.7637637853622437,0.15304520726203919,-0.09972819685935974,-0.11862737685441971,-0.7008819580078125,-0.25492170453071597,1.603446125984192,-0.8969345688819885,-0.010159012861549855,-0.5704740285873413,-2.0457475185394289,-2.6051390171051027,-0.937986433506012,-0.36008474230766299,-1.6826378107070923,-0.4629041254520416,0.2849510610103607,-0.511793315410614,-0.6255396604537964,-0.01211249828338623,-0.7234988212585449,0.4349222779273987,0.6594560742378235,0.1246933713555336,0.6392650008201599,-0.38326773047447207,1.1362935304641724,1.3047010898590088,1.6395164728164673,0.08968957513570786,1.2319276332855225,-0.36066320538520815,-0.9427434802055359,0.9610961079597473,1.675559163093567,-1.0660104751586915,0.34965530037879946,0.6157722473144531,-1.3735100030899048,-1.3849296569824219,-0.15186947584152223,0.9808583855628967,-0.8201395273208618,-0.5053669214248657,-0.5198299288749695,0.24585051834583283,1.6869698762893677,-0.16311298310756684,0.7360615730285645,0.3937841057777405,0.7913587689399719,2.2670247554779054,2.478148937225342,1.931188702583313,0.08261572569608689,-1.751257300376892,-0.08705031871795654,-0.2752358615398407,-0.825982928276062,-0.5850459933280945,0.8484036922454834,-0.08667400479316712,0.43833205103874209,-0.9846664667129517,0.9876505732536316,0.22223150730133058,0.07035478204488754,0.6397742033004761,0.8998283743858337,0.22469237446784974,0.4352058470249176,-0.23479227721691132,2.1652185916900636,-0.09428396075963974,1.2087880373001099,-1.3766114711761475,-0.5090357661247253,-0.3224850296974182,-0.34473368525505068,-0.6251649856567383,-1.0917974710464478,-0.1009262427687645,0.5272017121315002,0.7591552138328552,-1.664010763168335,0.477986603975296,0.018733389675617219,0.7632813453674316,-0.0014988949988037348,0.8260868191719055,-1.199418067932129,-0.3077796399593353,-1.4752224683761597,-0.34744220972061159,0.2742065191268921,0.28973624110221865,-0.6209853291511536,-0.4632434844970703,-0.10291364043951035,0.04870157316327095,1.8286840915679932,1.3596396446228028,-0.10890822112560272,-0.3621886074542999,0.08296322822570801,-0.5862942337989807,-0.6757972836494446,0.2028975635766983,0.8357351422309876,0.6529890894889832,-0.623271107673645,1.1994245052337647,-0.11277385801076889,0.43439656496047976,-1.062767744064331,1.7299507856369019,0.9712690711021423,-0.06984075158834458,-0.4753907024860382,-1.6540753841400147,0.4747096002101898,-1.7495445013046265,-0.3927697241306305,-0.42194056510925295,-1.2214230298995972,1.0127733945846558,0.715465247631073,0.2230467051267624,-0.03681381419301033,0.1841837465763092,0.21694914996623994,-0.016802750527858735,-0.37756240367889407,-0.8135645985603333,1.6601847410202027,0.18341001868247987,-0.1106356605887413,0.9674287438392639,-0.6355255246162415,-0.32539206743240359,-0.37233537435531618,1.1276373863220215,0.6499219536781311,1.3262532949447632,-0.5252835154533386,-0.38830676674842837,0.46426132321357729,-0.6342675089836121,1.1784402132034302,-1.1400911808013917,-0.24669885635375977,-1.0148934125900269,0.8354793787002564,0.291457861661911,0.24207764863967896,-0.14541061222553254,-0.7635223865509033,0.8058518767356873,0.972576379776001,0.6539454460144043,0.030301444232463838,-0.6429398655891419,1.2528495788574219,-1.439246416091919,0.6231790781021118,-2.275646448135376,0.3196696937084198,2.253034830093384,0.5192894339561462,-0.9415402412414551,-0.07886044681072235,-0.7049625515937805,-0.1642993837594986,1.6267372369766236,-0.4417949318885803,0.49809253215789797,0.869840681552887,-0.0609399750828743,0.6069493889808655,0.404115229845047,1.5159202814102173,0.3407061994075775,-0.12492214143276215,0.8501989841461182,-0.6526867151260376,-0.8642451763153076,-0.12043546885251999,0.11688870936632157,-0.2681905925273895,0.13964445888996125,-0.918969988822937,0.0773206353187561,-1.535184383392334,-1.7084993124008179,-0.6294035315513611,-0.32196658849716189,-0.2994697391986847,0.9448884725570679,0.2550044357776642,0.5101262927055359,-0.557998776435852,0.12780344486236573,-0.016044914722442628,-1.8430371284484864,-0.44430822134017947,1.167910099029541,-0.08251073211431503,0.07889710366725922,-0.19455485045909882,0.3104317784309387,2.428685426712036,1.0517404079437256,-0.2857383191585541,0.7208284139633179,-0.8975516557693481,-0.7298756837844849,1.4889682531356812,0.6593899130821228,0.19615834951400758,-1.8701406717300416,-0.9347681403160095,-0.8106017708778381,0.2346663922071457,-0.637773871421814,0.570621132850647,0.9182044863700867,-1.7114932537078858,1.2021042108535767,-0.590924084186554,-0.14108379185199738,0.041347891092300418,0.0012749788584187627,-0.03734442591667175,1.330105185508728,-0.4435617923736572,1.7299002408981324,-0.08854200690984726,-0.058062780648469928,0.19005116820335389,-0.043522246181964877,0.4511687755584717,0.5388233661651611,0.7806764245033264,-1.2138960361480713,1.3731523752212525,0.3485701084136963,-0.6794261336326599,-0.13675536215305329,-0.3427216410636902,-1.0129081010818482,-0.663093090057373,-0.014124119654297829,-0.031887155026197436,-0.3802729547023773,-1.3046770095825196,-0.43126848340034487,0.2891899645328522,0.790604829788208,2.0534512996673586,-0.2450130432844162,-0.48200666904449465,-0.5079132318496704,-1.2151857614517213,-1.8670790195465088,0.5814177989959717,-0.9166272282600403,-1.331733226776123,1.1987025737762452,-0.6127855181694031,0.3981470763683319,-0.7569888830184937,-1.0553430318832398,-0.8211160898208618,-0.263942688703537,-0.6489379405975342,0.33589503169059756,0.9587152004241943,-0.1786368489265442,-0.5265218019485474,0.02663136087357998,-0.8983590602874756,0.43041762709617617,-2.224733591079712,0.06540385633707047,0.5424495935440064,0.32371601462364199,-1.243065595626831,-0.40757229924201968,1.0691614151000977,0.044740207493305209,-0.18375061452388764,0.7643762230873108,-0.3287982940673828,0.47106990218162539,0.04244575649499893,0.023669496178627015,0.06713918596506119,-0.13353055715560914,1.145890712738037,-0.2503219246864319,0.03044835850596428,0.0021639352198690178,-0.21392373740673066,0.2531455457210541,-0.2427002191543579,-1.0812666416168213,0.42931896448135378,1.4115688800811768,-0.15479519963264466,-0.1812574863433838,2.281226873397827,-0.20168288052082063,-0.30961930751800539,0.35663363337516787,0.8927782773971558,1.2268970012664796,0.6253015398979187,1.5658257007598878,0.09260094165802002,0.3125769793987274,-0.5102699995040894,-1.1906462907791138,-0.18079359829425813,0.49833065271377566,-1.0958189964294434,-0.6498141288757324,1.462426781654358,1.022491693496704,0.16889987885951997,-2.2205348014831545,0.08602993935346604,0.5860797166824341,0.7800271511077881,-0.14732997119426728,-1.0534387826919556,-0.595447838306427,-0.756344735622406,-1.1292980909347535,-1.3671773672103882,-0.8541052937507629,1.1149210929870606,1.1643095016479493,-0.49191704392433169,1.297540307044983,0.68896484375,-2.617715835571289,-1.90333890914917,1.2636042833328248,0.01469869539141655,-1.2021212577819825,-1.14829683303833,0.4126114845275879,1.125205159187317,-1.23703932762146,-0.07833556085824967,-0.03708600625395775,0.07265301793813706,0.7376941442489624,-0.08258156478404999,-0.9086017608642578,-1.4714062213897706,-0.8290681838989258,-0.6742489337921143,-1.0168521404266358,0.18948858976364137,-0.4396032691001892,-0.5622599720954895,-0.26138731837272646,1.0025091171264649,0.3553728461265564,-0.9897060394287109,3.1666815280914308,0.4843192994594574,0.27315840125083926,-1.1818708181381226,-0.09058575332164765,0.5977134108543396,0.7507011890411377,-0.43050649762153628,-0.2958165109157562,0.13025635480880738,1.433428406715393,-0.09008504450321198,0.6653274297714233,0.5301724076271057,-2.271716833114624,0.0167879369109869,0.9525954723358154,2.003373622894287,-0.7481741905212402,0.4408503472805023,-0.7038349509239197,1.5127981901168824,-0.20212620496749879,0.023544013500213624,-1.1458102464675904,-1.9085028171539307,0.9586265087127686,-0.5758156776428223,0.009404437616467476,-0.44804874062538149,2.147364377975464,-0.3705371618270874,0.9955441951751709,-0.37261784076690676,-0.5881392359733582,-0.18682800233364106,0.053764458745718,-1.0392869710922242,2.6145248413085939,0.5958438515663147,0.05277557671070099,1.2125332355499268,1.7441229820251465,-0.8356974124908447,0.15156714618206025,-0.8604991436004639,0.8616561889648438,0.0028228843584656717,-1.1180776357650757,-1.2834138870239258,1.1549441814422608,0.0596696138381958,-1.264784336090088,2.2860937118530275,-0.11124174296855927,0.8449702858924866,-0.19788552820682527,0.3560902178287506,-0.5738195776939392,1.0469779968261719,0.9632081985473633,0.6481384634971619,-0.027311639860272409,-1.0144686698913575,-1.6384090185165406,-0.27663156390190127,-0.03677107393741608,0.43673649430274966,1.323439359664917,-1.486042857170105,-1.1700005531311036,-0.583879292011261,-1.1364718675613404,0.2676341235637665,0.05409800633788109,0.5861639976501465,0.9413648843765259,-0.2768825590610504,0.4119126498699188,-0.10410410910844803,0.24327673017978669,1.0105785131454468,1.4614953994750977,-0.23932865262031556,-0.5770131945610046,-0.3564406633377075,-0.8010371327400208,0.2538410723209381,-0.7760432958602905,-1.027640700340271,0.5809446573257446,-0.8386492133140564,-2.3033053874969484,0.596555769443512,-0.11707979440689087,-3.1251673698425295,0.32225197553634646,0.355103462934494,-0.48943546414375307,-1.1977908611297608,-0.41786253452301028,0.9190963506698608,0.7699475884437561,-0.9278348684310913,-1.0716806650161744,1.5898222923278809,-0.08721960335969925,1.0284922122955323,-0.6650571823120117,0.9219945669174194,-0.26358067989349368,-0.7439272999763489,-2.0099427700042726,-1.5285446643829346,0.7017432451248169,0.9493740797042847,-0.9997603297233582,1.2177231311798096,0.6065661907196045,1.8860629796981812,1.7312754392623902,-0.550007164478302,0.5529800057411194,0.5393587350845337,0.6540566682815552,1.2018144130706788,-0.9666092395782471,0.6839835047721863,-1.2220858335494996,0.46751025319099429,0.36604049801826479,0.584201455116272,0.0014089534524828196,0.26987531781196597,-1.202925443649292,-0.4659354090690613,0.890227735042572,1.9078737497329713,0.023566817864775659,1.3395801782608033,0.5007562041282654,0.5871608257293701,0.6591304540634155,0.48126643896102908,-0.41110047698020937,1.2713379859924317,0.3129737675189972,-0.11142715066671372,0.8316131234169006,0.051907531917095187,-0.19079850614070893,-0.9488755464553833,1.7792935371398926,0.45768678188323977,-1.5452088117599488,-1.8982036113739014,-1.6332663297653199,1.009428858757019,-0.7855179309844971,-0.31196150183677676,-1.1216446161270142,0.2826610207557678,0.2280586212873459,-0.12618222832679749,0.09607136994600296,-0.6982019543647766,0.7932170033454895,1.0985080003738404,-1.5317223072052003,-1.1502169370651246,-0.9635036587715149,-0.15753023326396943,-0.38330477476119997,-0.15624120831489564,-0.03847215697169304,0.37201082706451418,-1.17054283618927,-1.5846654176712037,-0.6071444153785706,0.0659831240773201,0.32325249910354617,-0.386485755443573,1.1777904033660889,-0.1320703774690628,-1.238517165184021,-1.6251568794250489,-1.2875210046768189,0.5333114266395569,-0.589051365852356,0.18997822701931,0.9780157208442688,-0.06552255898714066,-0.04220956936478615,-0.7800507545471191,-1.0180048942565919,0.49229946732521059,-0.27725982666015627,-0.23128311336040498,-0.848545491695404,0.9829559922218323,0.32418879866600039,-0.5736506581306458,2.4029364585876467,1.0247610807418824,-1.2134982347488404,-0.5108606219291687,0.5886618494987488,-0.38696059584617617,-0.09074489772319794,0.500170111656189,-0.10264312475919724,1.4105221033096314,-0.7161023020744324,0.9314588308334351,-0.7526520490646362,-1.2943109273910523,-0.1536732017993927,-1.7519636154174805,-0.33198603987693789,-1.1253690719604493,-1.4041187763214112,0.26952603459358218,0.23727582395076753,-0.38493305444717409,-0.47636696696281435,1.0918736457824708,0.8736221194267273,-0.5926406979560852,0.33738255500793459,0.4705798327922821,-0.26868754625320437,-0.7888941168785095,-1.240028738975525,-0.20798607170581819,0.9230538010597229,1.1390682458877564,0.8799081444740295,0.02314690873026848,0.9861343502998352,-1.0753281116485596,-0.3815666735172272,-0.2772065997123718,-2.0066351890563967,0.456656277179718,-0.577157735824585,-0.8608266711235046,0.19826887547969819,-0.13387781381607057,-1.9620786905288697,-0.1270051896572113,-0.3652513325214386,0.7363424897193909,-0.7093995213508606,1.3738662004470826,0.4388253390789032,2.4640510082244875,0.29156777262687685,0.9441865682601929,-0.2202090471982956,-0.2314760684967041,0.5795205235481262,-0.7640599012374878,-0.4550303518772125,-0.0897320955991745,0.282184898853302,0.8062031269073486,-0.7754088640213013,-0.7108454704284668,-1.0967811346054078,0.3632601499557495,1.1225687265396119,-0.06336081773042679,0.6104186773300171,-0.030755789950489999,0.5632110238075256,0.9718478918075562,1.2521724700927735,-0.8356793522834778,1.247673749923706,0.33435145020484927,0.39417287707328799,-1.0619466304779053,-0.0691082626581192,1.0871235132217408,-1.2421307563781739,0.2969287931919098,-0.7558125257492065,0.09876303374767304,0.5944615006446838,-1.3693336248397828,0.5908594727516174,-0.7447341680526733,-0.04721790924668312,-0.3415208160877228,0.8164046406745911,-1.3646670579910279,0.12248171865940094,0.4187297821044922,-0.04626958444714546,0.2636955976486206,0.8862949013710022,0.4879191219806671,0.5918833017349243,0.16071714460849763,0.8095192909240723,0.826882004737854,-0.29698702692985537,0.5109249353408814,0.4437111020088196,-1.0434577465057374,-0.4842855632305145,0.09593883901834488,0.43922752141952517,0.914196252822876,-0.7589617371559143,-0.014013159088790417,-0.9145060181617737,1.395656943321228,0.793843686580658,1.161626935005188,-0.06681688129901886,0.022102007642388345,-0.029048802331089975,-0.9467899799346924,-0.9886832237243652,0.7703002095222473,-0.5330746173858643,0.6813141107559204,-0.9627590179443359,0.5925893783569336,-0.11236419528722763,-0.24748697876930238,0.6519642472267151,1.0162205696105958,-0.5008095502853394,0.1913793534040451,1.6006473302841187,-0.02211589366197586,0.2988138794898987,0.13651004433631898,-0.7218006253242493,-0.9605923891067505,-0.943696141242981,0.7160083651542664,-0.4620411992073059,-0.3515963852405548,-1.2984116077423096,0.21372604370117188,-1.1019524335861207,0.5710504651069641,0.2316778004169464,-0.43368351459503176,-0.40972670912742617,-0.6799269914627075,0.5309267640113831,0.6209337115287781,0.6964073181152344,-0.11544004082679749,-0.17653600871562959,0.5804170370101929,-0.005881243385374546,0.5637829303741455,-0.5492461919784546,0.056103263050317767,0.6534509062767029,-1.294906497001648,0.6756094694137573,-1.4890059232711793,-0.6515796780586243,0.3018557131290436,-0.8699959516525269,1.19264817237854,0.6291750073432922,-0.6504341959953308,-0.4523017406463623,-0.7059133648872376,-1.0676606893539429,-1.1383063793182374,1.23013436794281,0.15929359197616578,0.583967387676239,1.0494346618652344,-0.25524836778640749,0.7625398635864258,-0.18104703724384309,-0.36325404047966006,-0.7120966911315918,-0.6640639305114746,1.6174373626708985,-0.07651147991418839,-1.0061264038085938,1.8882156610488892,-0.27074864506721499,0.43195074796676638,-1.319895625114441,0.29921722412109377,0.5936838388442993,-0.10539824515581131,-1.5364384651184083,-1.1240899562835694,-0.04563314467668533,-1.2757922410964966,1.2384557723999024,0.01921754889190197,0.8946603536605835,1.6486140489578248,0.19011951982975007,-0.3841411769390106,0.922421932220459,0.21717210114002229,-1.4564573764801026,-0.7151591777801514,0.3208138346672058,-0.5650988221168518,-1.4516719579696656,-0.8245621919631958,0.711936891078949,0.6941173076629639,0.3384402096271515,-1.7083452939987183,-0.10559301823377609,0.48234689235687258,0.5548129677772522,2.6328861713409426,0.4818923771381378,-1.9723271131515504,0.7285348176956177,0.6967772245407105,1.0943793058395386,0.8259774446487427,-1.3953475952148438,0.9335088133811951,0.39075663685798647,-1.0860711336135865,-1.2760429382324219,1.0509012937545777,1.9651962518692017,1.8794654607772828,-2.135328531265259,-1.3232899904251099,0.03460511192679405,0.13288849592208863,2.360668182373047,-0.49761712551116946,0.8828835487365723,-0.295838862657547,-1.2315819263458253,0.23527462780475617,0.39327457547187807,1.3763747215270997,0.3941175639629364,0.32199108600616457,-0.4079059362411499,0.48380035161972048,1.075805425643921,2.2614455223083498,0.2225368469953537,-0.4251914620399475,-0.3333919644355774,0.17756494879722596,0.48753175139427187,0.19613946974277497,-0.7102408409118652,-1.0982756614685059,0.5956355333328247,-0.9827805161476135,-1.190115213394165,0.1480332463979721,0.24403169751167298,-2.591489553451538,-0.6104832887649536,0.42236700654029848,0.2544184625148773,0.5673982501029968,0.7918529510498047,0.1964607834815979,-0.2025444358587265,-0.9514518976211548,1.8334168195724488,1.440747857093811,1.144968867301941,-1.737256646156311,-0.3242863416671753,-0.1598629504442215,-0.5859137773513794,0.5529258251190186,0.8559407591819763,0.7866076827049255,0.3623427152633667,0.753003716468811,0.6784586310386658,-1.734924554824829,1.2887636423110963,-1.7711623907089234,1.385375738143921,0.3618335723876953,-1.3638825416564942,0.41597381234169009,-2.2106199264526369,1.9396398067474366,1.3546984195709229,0.11891624331474304,-0.9102989435195923,0.8923138380050659,-0.06714989989995957,0.0487392395734787,-0.22528649866580964,0.411598265171051,0.7906544208526611,0.9090574383735657,-1.4340373277664185,-0.2836676836013794,-0.3232608139514923,-0.601813018321991,2.239929437637329,0.31471511721611025,1.2248015403747559,0.3030860126018524,0.9268097281455994,0.2549107074737549,-0.9346295595169067,1.5049729347229005,-1.9588758945465088,-0.7502905130386353,-0.04965312406420708,1.057924509048462,0.7567055225372315,-0.6586323380470276,1.169655442237854,-0.6347482800483704,-1.0667346715927125,0.047789525240659717,-0.9334045052528381,-0.2329489290714264,-0.15709446370601655,-0.6853175163269043,0.418578565120697,-0.7821972370147705,1.046862006187439,-1.4201349020004273,0.20268701016902924,0.18220244348049165,-0.4560873806476593,-1.864314079284668,-0.31032851338386538,0.9549986124038696,-0.3268742561340332,-0.2360931634902954,-0.07264681905508042,0.0820048376917839,0.3950582444667816,2.143752336502075,1.1660078763961793,-2.08469820022583,0.5763925313949585,1.0425463914871216,0.7845295071601868,1.2140294313430787,0.4911395013332367,-0.3566317558288574,-0.7501779198646545,0.178932785987854,0.5951493382453919,0.25754302740097048,2.079680919647217,-0.21530449390411378,0.11547324061393738,-0.474016010761261,0.6614058613777161,-0.2738644480705261,1.223833680152893,-0.7285391092300415,1.3217302560806275,-1.0619686841964722,0.9317336678504944,0.7192764282226563,0.8873525857925415]},"biases":[0.5919075012207031,-0.9026290774345398,-0.16537579894065858,1.676449179649353,-0.7359309196472168,-0.3338324725627899,-0.13041023910045625,0.044032394886016849,0.746608555316925,1.042911410331726,0.01073843240737915,0.1959218680858612,-2.42878794670105,0.0350675955414772,-1.4268014430999756,1.5890889167785645,-1.1462770700454713,0.044121287763118747,-0.058333128690719607,-0.21350039541721345,-0.34518763422966006,-1.8517144918441773]},{"neurons":[0.6438610553741455,-0.9999210238456726,0.9999803304672241,-0.8696318864822388,-0.9999976754188538,-0.42884665727615359,1.0,-0.2638047933578491,-1.0,-0.4629937410354614,0.9934177398681641],"weights":{"rows":11,"cols":22,"data":[-1.1301357746124268,0.7766109108924866,2.229097843170166,-0.12285418808460236,2.5705935955047609,0.11914066225290299,-0.6233885884284973,1.435378074645996,-0.4512507915496826,0.005232200492173433,-0.45277801156044009,1.0228352546691895,0.2689524292945862,0.2179015725851059,0.5363534688949585,0.1261039823293686,0.03551531583070755,-1.2850143909454346,-0.8301746249198914,-1.747519850730896,0.33401140570640566,0.051193803548812869,-1.1889554262161255,-0.8078784346580505,-0.19114425778388978,-0.22791923582553864,-0.2697959244251251,0.5113544464111328,-0.5867311954498291,-0.9585357308387756,0.6996787190437317,0.5776754021644592,-0.09656864404678345,0.35830697417259219,0.5399632453918457,0.5135211944580078,-0.3674287796020508,0.744819700717926,-2.008000612258911,-0.5330116748809815,-0.28214389085769656,-0.17799565196037293,-0.18798977136611939,0.999902606010437,-0.45429596304893496,0.9891875982284546,-0.3450099229812622,0.9532274603843689,1.7944437265396119,-1.5553832054138184,0.9584450125694275,0.8493824005126953,-0.1922806203365326,0.35669443011283877,0.049991242587566379,-0.1976531744003296,-1.2124980688095093,-0.8919861316680908,-1.1404337882995606,-0.3754866123199463,-0.7910533547401428,1.2341222763061524,1.7245526313781739,0.9094470143318176,0.2216220498085022,0.3090100884437561,0.7689425945281982,-0.5117738842964172,-1.287371039390564,-0.18188238143920899,1.0781575441360474,-0.38232073187828066,0.32538145780563357,-0.058768562972545627,0.3086965084075928,-0.5111536979675293,-0.483521044254303,-0.6019821166992188,0.01379508338868618,-0.9736055731773377,0.5815728902816773,-0.6863894462585449,-1.1957751512527466,0.06336460262537003,-0.9691458940505981,0.3428381681442261,0.7356841564178467,0.5602518320083618,0.9856170415878296,0.8059547543525696,-0.35778698325157168,-0.5916230082511902,0.6348104476928711,0.017158327624201776,-1.9027601480484009,0.2583525776863098,-0.7990944385528565,-0.43780651688575747,0.05646452680230141,1.2336875200271607,1.0275812149047852,-1.5873081684112549,-0.458871066570282,0.6545568108558655,-1.4536997079849244,0.5407364964485169,-0.523110032081604,2.3618075847625734,0.4151385724544525,0.16070187091827393,-0.33924779295921328,-1.1107114553451539,-0.5335487723350525,0.9990842342376709,0.21188916265964509,0.003209710819646716,-0.47153154015541079,0.5606808066368103,-1.344963788986206,-0.3016955554485321,-0.3921522796154022,0.6595486402511597,-0.37108948826789858,-0.21033021807670594,0.8246050477027893,1.0861282348632813,-0.6955123543739319,0.36996370553970339,-0.06338069587945938,-1.5624845027923585,0.5892668962478638,-0.8721966743469238,0.3184933662414551,-1.5906065702438355,2.063917636871338,0.6125421524047852,0.3735237121582031,1.3472601175308228,0.36720961332321169,0.7976850867271423,0.26715347170829775,0.8992779850959778,-2.2935495376586916,-0.9088171124458313,-0.08576828241348267,-1.5756995677947999,-0.856078565120697,0.11654878407716751,-1.0917880535125733,0.6705165505409241,0.69933021068573,-0.2724429666996002,0.7486720085144043,-0.38607257604599,-0.5621064901351929,-0.20330069959163667,-0.08418668061494827,-0.030231833457946779,-0.22173184156417848,0.2811785936355591,-0.18241393566131593,0.12544028460979463,-0.010615797713398934,-0.2990621328353882,1.232774257659912,0.24250338971614839,-0.2465939223766327,-1.5655027627944947,-0.7940281629562378,-0.7835547924041748,0.14914096891880036,0.3806377947330475,0.7157620787620544,0.14825890958309174,-0.18032659590244294,0.9905639290809631,-1.0755345821380616,2.7158448696136476,-2.5314905643463136,0.44585493206977847,-0.5949281454086304,-0.691850483417511,-0.44416049122810366,0.38453176617622378,-2.565190553665161,-0.5491718053817749,1.6394178867340088,-0.6728495359420776,0.0528874509036541,-0.683041512966156,-0.5946122407913208,-0.0085239103063941,0.9258450865745544,0.09080598503351212,-2.1772425174713136,1.0064728260040284,0.6702232956886292,-0.5716598033905029,-0.2367367297410965,1.4965322017669678,-1.841788649559021,0.8214762806892395,-0.3646661043167114,-1.659698247909546,-0.04105592891573906,-0.2760475277900696,0.05451533570885658,-0.05018001049757004,-0.08799014240503311,0.2945321500301361,1.1207170486450196,0.5363786816596985,-1.8647087812423707,-0.2620570957660675,0.8927946090698242,-0.29368627071380618,0.8265178203582764,1.0866371393203736,-0.02290981449186802,1.0658345222473145,1.8467164039611817,1.275038480758667,-1.194638967514038,-0.3185426890850067,-0.6383115649223328,0.020866166800260545,-0.943652868270874,-0.5454890727996826,-1.1590375900268555,0.3162549138069153,0.17404279112815858,1.1663013696670533,-0.09248503297567368,-1.5993602275848389,-1.0087114572525025,-1.6228382587432862,0.4545610845088959,1.5987415313720704,0.5161145925521851,0.3628140687942505,-0.116507887840271,0.6193583011627197]},"biases":[0.39457786083221438,-0.3370918333530426,-1.527148723602295,-1.4374511241912842,-1.2708154916763306,-1.567017912864685,0.6537206172943115,-1.0139307975769044,2.577672243118286,0.6183359622955322,-1.1000500917434693]}],"seed":1739326766}