{"layers":[{"neurons":[-0.9581024646759033,0.21959932148456574,0.9878031015396118,-0.6363396644592285,0.9911598563194275,-0.9994613528251648,0.7414072155952454,0.020631961524486543,-0.9957298040390015,-0.9926323890686035,-0.9999920129776001,-0.990473747253418,0.9787256121635437,-0.9225732684135437,0.9985386729240418,0.991427481174469,-0.9971099495887756,0.9989830255508423,-0.8734485507011414,-0.9256075620651245,0.9904211759567261,-0.5861539840698242,-0.9989242553710938,0.999984085559845,-0.9172627329826355,0.6111493110656738,0.9277305603027344,0.999118983745575,-0.9475572109222412,-0.9697936177253723,-0.992969274520874,-0.9522098302841187,-0.8993874192237854,-0.9880533218383789,0.9123196601867676,0.49073368310928347,0.9589994549751282,0.7882206439971924,-0.9953464865684509,0.9963571429252625,0.9895075559616089,0.8397204875946045,-0.9704042673110962,0.9385894536972046],"weights":{"rows":44,"cols":22,"data":[0.9538888335227966,-1.0375440120697022,0.7963876724243164,0.1430361568927765,0.5777021050453186,-1.0016905069351197,0.6165907979011536,0.8321498036384583,0.3483354449272156,0.17374983429908753,-0.08108897507190705,-0.3111019730567932,0.6436465382575989,1.2014459371566773,-0.09070204943418503,0.7781598567962647,-0.7619295716285706,0.6389644145965576,0.881902813911438,0.8099128007888794,-0.2560445964336395,-0.1714068204164505,0.5562822222709656,0.168434277176857,0.3217424750328064,-1.7812166213989258,0.4185326099395752,-0.5708171725273132,0.7047548294067383,1.8973079919815064,-1.5505762100219727,0.05258975923061371,-1.7305717468261719,-0.3502265512943268,0.9330917596817017,-0.9134888052940369,-0.7431877255439758,-0.6074192523956299,0.04345497488975525,1.2004406452178956,-0.5471359491348267,-0.18671241402626038,1.1435240507125855,-0.12022192776203156,-0.16404476761817933,-0.7254058718681336,-1.1801575422286988,0.5931734442710877,-0.5077059864997864,-0.34490716457366946,0.06303786486387253,-0.938179075717926,-1.1845908164978028,0.974719762802124,-1.6319934129714966,-0.3031616806983948,-2.054227590560913,-0.17348721623420716,-0.5351736545562744,-0.14965838193893434,0.4165150225162506,1.4930256605148316,-0.621586263179779,-0.18395738303661347,0.08741818368434906,-0.5219912528991699,0.15881884098052979,0.22646081447601319,0.6469835638999939,-0.4398927390575409,0.5194841623306274,1.7588032484054566,1.6558809280395508,0.9732902646064758,0.4939880073070526,-0.6621041297912598,-0.9412012696266174,0.6098682284355164,0.9523277282714844,-0.31384000182151797,-0.3852449953556061,0.39662086963653567,1.577078104019165,0.3753145635128021,-0.7611538171768189,0.6348935961723328,0.6096104979515076,-1.1896653175354005,1.379726529121399,-0.7051427960395813,-0.14579379558563233,0.9058002233505249,-0.3222111463546753,0.6942481398582459,-1.7451965808868409,-0.25371649861335757,-0.6227635145187378,0.07995776832103729,-0.25512030720710757,-1.2582166194915772,-0.7392986416816711,0.9917736649513245,0.1589990109205246,0.563928484916687,-0.07336606085300446,-0.2571917176246643,-0.16140896081924439,-0.8950059413909912,-0.11923424154520035,-0.041262801736593249,0.045101508498191836,1.4463204145431519,-0.15744300186634065,0.2884123921394348,0.7614238262176514,-1.8585317134857178,0.0845181867480278,0.5622153878211975,0.3810332715511322,-0.865824818611145,-0.4152383506298065,-0.17423512041568757,0.9313781261444092,-1.7742120027542115,0.04695640504360199,0.9607135057449341,-1.2855151891708375,-0.3863222301006317,-0.2338518500328064,-2.4954798221588136,-1.8912081718444825,-0.5485506057739258,1.168445110321045,0.8682491779327393,0.6942896246910095,-0.006729861255735159,-0.2817521393299103,-0.9076396226882935,-0.2660166323184967,-0.11626672744750977,0.004756542854011059,-0.7555666565895081,0.21197549998760224,0.17808029055595399,-0.7139238715171814,0.17117749154567719,-1.0800235271453858,-0.8425108790397644,-0.3881852626800537,-0.11404946446418762,0.20667840540409089,0.4774791896343231,0.7570109963417053,-0.6154537796974182,0.5271559357643127,-0.40525004267692568,0.8082112073898315,0.7926559448242188,-0.8579768538475037,0.12849538028240205,0.542915403842926,-0.12230613827705383,-1.406831979751587,-0.48148196935653689,1.6538392305374146,0.07123766094446182,0.18235844373703004,0.9109072685241699,-0.4690699875354767,0.9404866099357605,-0.025571370497345926,-0.1742490530014038,-0.26844099164009097,-1.2606055736541749,-0.4604122042655945,-0.6305385231971741,0.7071456909179688,0.2335910201072693,-0.19543136656284333,0.8279376029968262,-1.545006275177002,-0.5746838450431824,0.36104410886764529,1.2035588026046754,0.4342953562736511,-0.6090814471244812,-1.8828569650650025,0.8802356123924255,-0.8125758767127991,-0.3766135573387146,-0.32730916142463686,-0.2764129638671875,-1.8153184652328492,1.0739171504974366,0.2565890848636627,-0.021568965166807176,0.05332258343696594,-1.611881971359253,-1.0706413984298707,0.8357145190238953,-0.5398167967796326,-0.007228227332234383,0.653756856918335,0.013544834218919278,0.049935873597860339,0.6077941656112671,-0.7922371625900269,-0.31147152185440066,-0.029778946191072465,0.9950149059295654,1.206678867340088,-0.06492751836776734,-0.6504757404327393,0.08371476829051972,0.15230204164981843,0.25965940952301028,-0.6421818137168884,-2.362720489501953,0.16218703985214234,-1.0395143032073975,1.2692519426345826,0.2471667379140854,-0.9966720342636108,0.6489720344543457,1.312174677848816,-0.8503748178482056,-0.24132144451141358,-0.7233238220214844,2.50828218460083,-0.48023325204849245,0.028603538870811464,-0.05381232500076294,1.2090595960617066,-0.961771547794342,-0.7130424380302429,0.514298677444458,0.9667094349861145,0.709976077079773,-0.7071722149848938,-1.0210062265396119,-0.4482414722442627,0.4234534800052643,0.24506597220897675,0.6913580894470215,0.18755397200584413,2.1110355854034426,-1.0613518953323365,-1.096379280090332,0.17472746968269349,-0.3385552167892456,0.015393543057143689,1.1908925771713257,-0.5802203416824341,1.6327508687973023,0.2809087336063385,-0.6670043468475342,-0.960905134677887,0.6399592161178589,-0.6182000637054443,0.5271025896072388,0.044208601117134097,-0.6568365097045898,0.8416674733161926,0.4208243489265442,0.1611679196357727,0.8418697714805603,0.8906273245811462,-1.251326322555542,0.40292614698410036,-0.5871639251708984,-1.0068458318710328,0.25341472029685976,0.9415500164031982,0.49904534220695498,0.03816317394375801,0.1409272402524948,-0.4234265089035034,0.34246620535850527,-0.05863489210605621,0.10289347916841507,-0.6932148933410645,-0.2555032968521118,-1.1167463064193726,-0.35959380865097048,0.7317891120910645,-0.38669049739837649,-0.00619003688916564,-0.4010276198387146,0.333484411239624,0.265859454870224,0.5042917132377625,-1.139722466468811,-1.3511135578155518,-1.1520123481750489,-0.31408441066741946,2.1632914543151857,0.060951683670282367,-0.10426875948905945,0.3891252279281616,0.2356814593076706,0.01647891290485859,-2.7042508125305177,-1.0475376844406129,0.6250475645065308,-0.2889906167984009,0.18927587568759919,0.2990555465221405,-0.010392875410616398,0.10575070232152939,-0.014055668376386166,-0.062273189425468448,-0.9863740801811218,0.6047644019126892,-1.1260263919830323,-0.6591485142707825,-0.19219912588596345,-0.4593193829059601,-0.7152183651924133,-1.4292778968811036,0.8387107253074646,-0.32713964581489565,1.2903743982315064,-1.874881625175476,0.30235016345977785,-0.14187729358673097,-0.03532401844859123,0.33388659358024599,-1.4430216550827027,-1.7639737129211426,-0.2900826632976532,-1.3949733972549439,0.2637854814529419,-0.2639193534851074,-0.7465003728866577,1.7461960315704346,-0.783805787563324,-0.4134219288825989,-0.48793742060661318,-1.3662867546081544,-0.09280169010162354,-0.20151002705097199,-0.4643302857875824,1.0393974781036378,1.4390302896499634,1.6250255107879639,-0.6122768521308899,1.199512004852295,-1.0009310245513917,0.2465050220489502,1.8211474418640137,-0.1209992989897728,0.05967524275183678,-0.4071095287799835,1.2615482807159424,0.2531449794769287,0.6053867340087891,0.9601477980613709,-0.4291800558567047,0.99188232421875,0.773560106754303,0.9063316583633423,-1.030219554901123,-1.5276820659637452,0.11755718290805817,1.4944636821746827,0.7024589776992798,0.6372216939926148,0.5152487754821777,-0.6345829963684082,0.7319536209106445,1.237391471862793,-1.3847298622131348,-0.08233232796192169,-0.37905842065811159,-0.42208904027938845,-0.05421556904911995,1.045336365699768,1.3393840789794922,0.710253119468689,-0.3179446756839752,1.4803929328918458,-0.9689492583274841,-1.4773695468902588,0.03996291384100914,-1.1831132173538209,-1.1593234539031983,-0.7214412093162537,1.100713849067688,-0.2249932438135147,1.1836258172988892,-0.9385609030723572,1.0394216775894166,-0.15134359896183015,1.8325914144515992,1.8198826313018799,0.1379784643650055,-1.7852898836135865,-0.717614471912384,0.8151541948318481,0.03547760099172592,0.4322170615196228,0.24776630103588105,0.5268523693084717,-0.014029284007847309,-0.7538318634033203,-0.7883533835411072,0.49724698066711428,0.5081852674484253,0.8158255219459534,-0.2650584876537323,0.2186446487903595,0.8473187685012817,0.5171437859535217,0.5302392244338989,0.5824950933456421,0.24795499444007874,0.09793561697006226,0.3880701959133148,0.8116581439971924,0.6522945165634155,0.8676339983940125,0.6423095464706421,-0.06070556491613388,-0.7157115936279297,1.1952271461486817,0.4013413190841675,-0.669206440448761,-0.20774278044700623,-0.7403059005737305,1.8900353908538819,1.216687560081482,0.37273240089416506,0.8212131261825562,-0.873410701751709,-0.402134507894516,1.7520267963409424,-0.19344331324100495,1.1027950048446656,-0.5005263090133667,-0.788880467414856,-0.3363949954509735,1.0063691139221192,0.6379355788230896,0.11713134497404099,0.6782238483428955,-0.7910874485969544,0.4368788003921509,-1.616011142730713,-0.976455569267273,-1.3003346920013428,-0.3845837116241455,-0.6340780258178711,-0.035643335431814197,0.1434663087129593,0.21644753217697144,-0.9987770318984985,0.06548260897397995,-0.3121059834957123,0.17882058024406434,0.8657709956169128,0.22339656949043275,-0.07300886511802674,0.7090979814529419,-0.5615742802619934,0.5189096331596375,0.3826243579387665,0.5524809956550598,-0.5042228698730469,-0.33621466159820559,-0.07590865343809128,0.011214061640202999,0.034946441650390628,0.4529978334903717,1.0434809923171998,-0.9547063708305359,0.22543373703956605,-0.6846947073936462,-0.375415176153183,0.951198160648346,2.4340670108795168,1.3247476816177369,-0.014486648142337799,0.046761251986026767,0.2579837143421173,-0.9678047895431519,-1.688897967338562,-1.1338419914245606,0.4662887752056122,0.5473647713661194,-0.7182464599609375,-0.05724126845598221,-0.1635986864566803,2.40641188621521,0.7640734314918518,0.6785542964935303,-0.2003394067287445,-0.21019645035266877,0.3117658495903015,-2.1797308921813967,0.08711818605661392,-0.93558669090271,-0.03197123855352402,-0.22505146265029908,-0.37495097517967226,0.3691314160823822,1.8271266222000123,-1.1088683605194092,0.4967937767505646,2.219759225845337,0.4329378604888916,-0.3775249719619751,0.04431218281388283,-1.228100061416626,-0.03273298963904381,0.31991997361183169,0.6412146091461182,0.3394278883934021,-0.7587154507637024,0.08482906967401505,1.533734917640686,-1.4591665267944337,0.04073752462863922,0.20105916261672975,-1.2406843900680543,-0.46771419048309328,-0.04088177904486656,-0.6109727025032044,-1.2570875883102418,0.8510026335716248,-0.7102689743041992,-0.2269158661365509,0.5686285495758057,-1.1641687154769898,0.7323025465011597,0.067870132625103,0.29249808192253115,-0.7789145708084106,-0.4958615005016327,0.4951701760292053,-0.5394610166549683,1.2284420728683472,-1.0810785293579102,0.7868021726608276,-0.42402613162994387,0.15003874897956849,-1.003326654434204,-1.1789908409118653,-0.8773890137672424,-0.9214272499084473,-0.484240859746933,-1.4305461645126343,0.2596450746059418,0.31402361392974856,-0.929515540599823,-0.5221579670906067,-0.1263771802186966,-1.5673269033432007,-0.312136173248291,0.5307547450065613,-0.9148812890052795,-1.0538885593414307,1.6210569143295289,0.6180792450904846,-1.293051838874817,0.9972374439239502,-1.6211036443710328,-0.6235509514808655,0.7372046709060669,-0.1423887014389038,-1.3511525392532349,-0.5975986123085022,-0.6726288199424744,1.3774306774139405,-0.7444165945053101,1.414190649986267,1.8647096157073975,-1.2533435821533204,0.23375770449638368,0.45611074566841128,0.3072124421596527,0.7359563708305359,0.3276580274105072,-1.1218125820159913,-0.8732967972755432,0.4804554581642151,0.9215506315231323,-0.16714885830879212,0.7571029663085938,0.899574875831604,-0.6814995408058167,2.0844945907592775,0.37768790125846865,0.08384106308221817,-0.054368406534194949,-0.27338120341300967,-0.7260515093803406,1.0909242630004883,-0.9219399094581604,-0.10929274559020996,-0.3510778844356537,-1.7947965860366822,-0.4735713303089142,0.7789186835289002,-1.6212241649627686,-0.31078577041625979,0.06680533289909363,-0.3703453838825226,0.2852284014225006,0.05165155231952667,-0.5668975710868836,0.5459790825843811,-0.13269434869289399,0.21417270600795747,0.011445727199316025,0.006646962836384773,-0.5191869735717773,0.6190057396888733,-0.675674319267273,-0.5778103470802307,0.07983353734016419,-0.5651373863220215,-0.29982876777648928,-0.7353739738464356,-0.5684894323348999,1.2927086353302003,-0.8350812196731567,-0.24742558598518372,0.18280117213726045,-0.17020374536514283,-0.7488085031509399,0.31305718421936037,0.325899600982666,-0.5427926778793335,-0.11310426890850067,0.40526869893074038,-0.006320762448012829,-0.6689466238021851,-0.6593664884567261,-0.24830439686775208,0.45844554901123049,-0.8486582040786743,0.4718245267868042,0.6729580163955689,-0.7918276190757752,-0.5415853261947632,-0.19634822010993958,-0.5941133499145508,0.41681569814682009,-0.509763777256012,-0.7400055527687073,1.0937674045562745,0.5544945597648621,0.14861901104450227,0.9431499242782593,-0.4102661907672882,-0.06915941089391709,-0.023254726082086564,-0.9366223216056824,0.4182261526584625,-0.5741910338401794,0.1646227240562439,0.5949335098266602,0.7961109280586243,0.8436062335968018,1.5954877138137818,0.29481464624404909,0.4536951184272766,-0.3892042934894562,2.7902936935424806,-0.27878275513648989,-0.741216242313385,-1.1469554901123047,-0.10879307240247727,-1.386826515197754,-0.2743641138076782,0.09473410993814469,0.2413453459739685,-0.8016899824142456,-0.24512308835983277,0.7656844854354858,-0.22431766986846925,-0.17258775234222413,-0.31364402174949648,0.9147710800170898,-0.5108692646026611,-0.3515111207962036,0.7078707814216614,-0.44103968143463137,-0.8580141663551331,0.2542179226875305,0.7092477083206177,0.296941876411438,1.1113402843475342,-0.9629831910133362,-0.32717129588127139,0.24048428237438203,-0.6621821522712708,0.934457004070282,-0.4179799258708954,0.22954560816287995,-0.6202988028526306,0.5575117468833923,0.9889581203460693,-0.08259660750627518,0.1855708807706833,-0.9749189615249634,0.8934155702590942,0.3828074038028717,0.05159233883023262,-1.2761777639389039,0.8936362266540527,-0.39941126108169558,0.7631735801696777,-0.28061965107917788,-0.48176252841949465,-0.1447482854127884,-0.07335968315601349,-0.01458437368273735,-0.30720436573028567,-0.23641183972358704,1.817211389541626,1.2474557161331177,0.161453515291214,0.4427041709423065,0.016510622575879098,-1.3627177476882935,0.16109994053840638,0.33999794721603396,-0.13697868585586549,1.051936388015747,-0.42797040939331057,0.23498903214931489,-1.102080225944519,1.254228949546814,1.1190214157104493,0.7027150988578796,0.4075596332550049,0.23783878982067109,-0.6536974310874939,1.2052379846572877,-1.005365252494812,-0.03541937470436096,0.6271603107452393,0.7851689457893372,0.3551575243473053,-0.1097121313214302,-1.3926423788070679,-1.1552790403366089,0.13052600622177125,-0.10446279495954514,0.8141734600067139,-0.6659931540489197,0.3329755365848541,0.9881916046142578,1.0432969331741334,0.5898833870887756,-0.054177720099687579,0.5748710036277771,-0.6274973154067993,0.19693075120449067,-1.2479146718978882,-0.4732910096645355,-0.4037266671657562,-0.8727596998214722,-0.38664862513542178,-0.6794460415840149,-0.19148175418376923,0.8308815956115723,0.5794356465339661,-0.6437617540359497,-1.2946025133132935,-0.3489486575126648,0.3762788772583008,0.1445796638727188,-0.660210371017456,-0.023141510784626008,-0.867626428604126,-0.32398590445518496,-0.4011281430721283,-1.1864044666290284,0.13043338060379029,0.2972845137119293,0.9459478259086609,1.5329666137695313,-0.11995022743940354,0.49978968501091006,-0.06881403923034668,0.10712266713380814,-1.659597635269165,-0.052627597004175189,-0.005253310315310955,-0.7611321806907654,-0.42457857728004458,-0.04374263063073158,-0.4808550477027893,-0.4737229347229004,0.10276380926370621,1.259453535079956,-0.2703472375869751,-0.2756313383579254,-0.33019089698791506,-3.1755833625793459,0.6644868850708008,-0.5306096076965332,0.1571025252342224,0.015267990529537201,0.4145631194114685,0.026810891926288606,0.4127178490161896,0.7245492935180664,-0.6385987401008606,0.8106738328933716,0.2712123394012451,-0.0018881259020417929,0.20556868612766267,-1.4472761154174805,-0.03050960600376129,0.7143746614456177,-0.4648401141166687,-0.079595185816288,0.262484610080719,-0.07684292644262314,0.22006474435329438,0.05747902765870094,-0.9049863815307617,0.10526518523693085,-0.3448851704597473,0.02338154800236225,-1.646626353263855,0.3489963710308075,0.7481855750083923,-0.16106121242046357,-0.10904274135828018,0.7783575057983398,-0.5481723546981812,0.23411506414413453,-0.37105387449264529,-0.7374353408813477,-0.9028894305229187,0.010702766478061676,-0.2836930453777313,-0.21497948467731477,0.5562635064125061,0.540950357913971,0.820002555847168,-0.3721391558647156,-0.23079131543636323,1.5097181797027588,1.2500544786453248,0.8763293027877808,1.9542936086654664,-0.23080065846443177,-0.10965392738580704,0.5092271566390991,-0.887184739112854,0.4736950397491455,0.7318620681762695,-0.024566777050495149,0.24947668612003327,0.6728892922401428,1.8020079135894776,0.19727402925491334,-0.16502997279167176,-0.33267417550086977,-0.15524469316005708,0.6411901712417603,-0.8075293898582459,-1.0178053379058838,0.7730743885040283,-0.28725501894950869,-0.9094685316085815,0.3972727358341217,0.14452004432678224,0.0346703864634037,-0.6765970587730408,-0.1753688007593155,-0.1633857786655426,-0.39641711115837099,-0.4872991442680359,0.8835400342941284,-0.6026414036750794,-0.31114521622657778,1.867977499961853,-0.08852485567331314,-0.5826520919799805,-0.5072519779205322,-0.8356852531433106,-0.7324978113174439,0.376026451587677,-1.0100908279418946,1.0962599515914918,-0.7477953433990479,0.06590208411216736,1.7409734725952149,0.5927106142044067,-0.009242026135325432,-0.8009999990463257,0.1852225363254547,0.8547250628471375,-2.411345958709717,1.8803319931030274,1.6670671701431275,0.6225091218948364,0.5946840047836304,-0.11690976470708847,0.6861587762832642,0.2021985948085785,0.15006330609321595,-0.8643073439598084,-0.400994211435318,-0.3455992043018341,0.8939270973205566,0.5829963088035584,0.8310645818710327,-0.17311310768127442,-0.31379175186157229,0.5954345464706421,0.3776153326034546,0.2519747018814087,-0.30201101303100588,0.014337211847305298,0.49906590580940249,-1.055567979812622,-0.6137141585350037,-0.17843961715698243,0.31262171268463137,-1.7575141191482545,0.7302197813987732,-0.5578457117080689,-0.3528556823730469,1.3913549184799195,0.532810389995575,0.10558043420314789,-0.5749122500419617,-2.160645008087158,-0.9707308411598206,0.0989832803606987,1.0299736261367798,-0.6820210814476013,-0.3481188118457794,-1.2548521757125855,-0.42036011815071108,-0.06387757509946823,-1.1573879718780518,-0.1554473489522934,0.0530397966504097,1.658149242401123,-0.7712874412536621,-0.32637444138526919,-0.7577353119850159,0.21968941390514375,-1.5213849544525147,0.5205197334289551,1.6044425964355469,-2.1847314834594728,-1.0669058561325074,0.4477648138999939,0.5809190273284912,-0.16274631023406983,0.7695112824440002,-0.3833489418029785,-0.6854037642478943,-1.2960190773010255,-0.022257424890995027,1.278871774673462,1.5138219594955445,-0.38375982642173769,0.9167295694351196]},"biases":[-0.3367418348789215,-0.6282452940940857,0.4507443606853485,-0.5046834945678711,-0.3916677236557007,0.6995949149131775,-0.6554601788520813,0.4230071008205414,-1.5772638320922852,-0.46690723299980166,-0.6991703510284424,-0.1907285898923874,1.2242636680603028,-1.2418310642242432,-0.06361036002635956,-0.6198907494544983,0.07536202669143677,1.1451901197433472,-1.6809276342391968,0.39829021692276,-0.1790682077407837,-0.9991229772567749,-0.08662151545286179,1.9361095428466797,0.2496744841337204,0.4012623429298401,0.3890864849090576,-0.4889662265777588,-0.39176762104034426,-0.3703587055206299,-1.1944234371185303,-0.5528931021690369,-0.6067789196968079,-1.7940584421157838,-0.6903160214424133,-1.1511449813842774,0.3184727430343628,-0.7728158235549927,0.5398669838905335,0.12461542338132858,0.9732373356819153,1.2787789106369019,-0.3884583115577698,0.100836381316185]},{"neurons":[0.9999898672103882,-0.25364381074905398,1.0,0.9933030605316162,0.9990737438201904,-1.0,0.9999994039535523,-1.0,0.9999829530715942,0.8051546216011047,-0.7672709822654724,-0.9897807240486145,0.6652169227600098,-0.9999914765357971,-1.0,-1.0,0.9999785423278809,1.0,1.0,-0.999970018863678,0.8352499604225159,-1.0],"weights":{"rows":22,"cols":44,"data":[0.060779958963394168,0.8290738463401794,-0.37012988328933718,0.8502761125564575,-0.6717722415924072,0.658282458782196,1.448383092880249,-0.7116846442222595,0.8953906297683716,-0.9010528326034546,-0.5254271626472473,-0.03059493936598301,0.4236897826194763,-0.8589909672737122,0.23015965521335603,0.8984131813049316,-0.4638689160346985,0.4750833213329315,-0.7494152188301086,-1.8085825443267823,-0.8361809253692627,-0.29494044184684756,-0.6879594326019287,-0.6633273959159851,-0.8581308722496033,0.9768516421318054,1.6167000532150269,-1.848584771156311,0.27170178294181826,0.7274227142333984,-1.7195746898651124,-2.029664993286133,-0.9609581232070923,0.6180253028869629,-0.96880704164505,0.1805637776851654,-0.12667536735534669,-1.0169949531555176,-0.3650040328502655,0.3302062749862671,-0.8012610077857971,-0.6999464631080627,0.47865480184555056,-0.047765254974365237,0.08829625695943833,0.3633103668689728,0.7078282833099365,1.1712028980255128,0.5499976873397827,0.15122264623641969,0.7810325026512146,-0.46329352259635928,-1.1472976207733155,0.8774746060371399,1.2749862670898438,-1.1641461849212647,0.0015671058790758253,0.7759658098220825,-0.641048014163971,-1.4287257194519044,-0.5057276487350464,1.667986273765564,0.027325158938765527,-0.612060546875,0.4793801009654999,0.42101678252220156,2.5883586406707765,-0.08682399243116379,0.2438586801290512,-0.13698440790176392,0.3891059160232544,2.5832948684692385,1.6437219381332398,2.0883231163024904,-0.5741380453109741,-1.333016276359558,-0.47323039174079897,-0.2779039740562439,-0.13881945610046388,-1.2051401138305665,0.4879414141178131,-0.3251506984233856,0.2567635178565979,-0.7877565026283264,0.9911134243011475,-0.1976442039012909,0.028767481446266176,1.8713579177856446,0.29468822479248049,-0.2541255056858063,0.98372483253479,-1.6674768924713135,1.9193848371505738,-0.003371788654476404,0.9195393919944763,-1.4746317863464356,0.11822435259819031,-0.047539182007312778,-0.6807734966278076,-0.7335492372512817,-1.7557759284973145,0.0647311732172966,0.36569052934646609,0.9395050406455994,-1.5807758569717408,1.452881932258606,-0.5614629983901978,1.192685842514038,-0.06830412894487381,0.369690477848053,-1.5776230096817017,-0.7983217239379883,-0.5882726311683655,0.3389652967453003,-0.2283211499452591,0.7432129383087158,-0.48870617151260378,0.0024663014337420465,-0.3267297148704529,-0.3667852580547333,0.7700285315513611,1.2344259023666382,-0.22924208641052247,-0.31320416927337649,0.94501793384552,-0.5958805680274963,-0.2010747492313385,-0.5203222036361694,0.6916716694831848,0.5951222777366638,-0.5897328853607178,1.3519190549850464,0.2773115336894989,0.8115081787109375,-0.9466532468795776,1.7959357500076295,0.36560410261154177,-0.8390541076660156,-0.6827185153961182,0.22976604104042054,0.41073620319366457,-1.420523762702942,-0.3558787703514099,-0.31678506731987,-1.232373833656311,-0.17447078227996827,1.6330938339233399,0.8138765692710877,-0.4618520736694336,0.614321768283844,0.4070252776145935,-0.5845409035682678,-0.6057840585708618,0.5410665273666382,0.5939782857894898,0.49628162384033205,0.21212908625602723,0.6689279079437256,0.7218455672264099,-0.34193679690361025,-0.6327822804450989,0.05959172546863556,0.23959028720855714,1.1357479095458985,-0.8591449856758118,-1.013168454170227,-0.16303154826164246,-1.4871306419372559,0.8891240358352661,-1.1831984519958497,-0.1313050538301468,-0.6847848296165466,0.4908280372619629,0.7530398964881897,0.5074504017829895,-0.3996720314025879,-0.1848776638507843,-0.04516948014497757,0.9923046827316284,0.5400918126106262,0.2674834430217743,-0.882719099521637,0.8141710758209229,-0.5298017263412476,-0.07251030206680298,-1.109079122543335,0.18955755233764649,1.2994095087051392,0.9063159227371216,-0.11347434669733048,-0.2949742078781128,-0.6548619866371155,-0.5892142057418823,1.2033107280731202,0.7874886989593506,0.15743589401245118,0.4452112019062042,0.19329380989074708,0.13484317064285279,-0.09471753984689713,0.8806822299957275,-0.4138990640640259,-1.0339069366455079,1.353283405303955,-0.6409831643104553,-0.43540140986442568,-0.7133959531784058,-0.14555002748966218,0.025152357295155526,-0.0005817863857373595,-0.4424245357513428,0.41073349118232729,-1.5404131412506104,-0.7520546913146973,-0.7425262928009033,0.2226223647594452,-0.0706409215927124,-0.05519690364599228,-0.6307709217071533,0.6253116726875305,0.03937574103474617,-0.008428801782429219,0.2843637466430664,-1.4327186346054078,-1.1674306392669678,-0.09475266188383103,-0.8984717726707459,0.1243295818567276,-0.059869684278964999,0.9730826020240784,1.4023529291152955,1.0695465803146363,-0.29071566462516787,0.6604763269424439,-0.057371754199266437,-0.5702142715454102,0.8610137701034546,1.186269998550415,-0.33962512016296389,-1.557285189628601,-1.8713812828063965,-0.5491719245910645,0.5574780106544495,0.3539388179779053,0.5004739761352539,1.1601866483688355,-1.4515764713287354,1.6112768650054932,-0.5652119517326355,-0.3447428047657013,0.9505404829978943,0.03684842213988304,-0.24800869822502137,1.0381295680999756,-0.02976769022643566,1.4643081426620484,-0.7818009853363037,-0.21630486845970155,0.7441405653953552,0.13210271298885346,-0.409659743309021,0.004055437631905079,1.301943063735962,-0.9879146814346314,1.6185402870178223,0.29920467734336855,-0.8285174369812012,-0.10867726057767868,-0.780144453048706,-1.3657636642456055,-0.6987948417663574,-0.5625375509262085,-0.21869461238384248,-0.8899503946304321,-0.8849688768386841,-0.2592257261276245,0.01552779320627451,-0.00924097653478384,1.8025145530700684,-0.7396500706672669,-0.7711759209632874,-0.07524722069501877,-0.6879715919494629,-0.05107786878943443,-0.026534149423241617,-0.5419235825538635,-1.7619009017944337,0.7508745789527893,-0.006423363462090492,-0.19728782773017884,-0.4897192716598511,-0.39170733094215395,-0.7892799973487854,0.11703012138605118,-0.46280616521835329,0.39796772599220278,0.9617881774902344,0.8902406692504883,0.46207210421562197,0.46397775411605837,-0.4852030277252197,2.0626213550567629,-1.0112651586532593,0.10723976045846939,1.006624698638916,0.762141227722168,-0.7348942756652832,-0.47091156244277956,1.0095380544662476,-0.31189435720443728,-0.18432113528251649,0.4226493239402771,-0.8417797684669495,1.2170729637145997,-0.6557015180587769,-0.1943943351507187,0.2834884226322174,0.34288740158081057,-0.15150968730449677,-0.24891915917396546,0.062335219234228137,-0.3924625813961029,-0.08225485682487488,0.5312649607658386,-0.22568371891975404,-1.119384527206421,0.3732762336730957,-0.12406852096319199,-0.1195148453116417,-0.1746681034564972,1.7813220024108887,0.3814927041530609,-0.9198548197746277,-0.3876122236251831,0.2386520802974701,1.0028311014175416,0.7906413674354553,1.2837461233139039,0.6170992851257324,0.7492300271987915,-0.4174990952014923,-0.5994589328765869,-0.16280578076839448,-0.41439327597618105,-0.7105181813240051,-0.29070255160331728,1.5066267251968384,0.7826544642448425,-0.7260633111000061,-1.2158417701721192,0.24794816970825196,0.2869318425655365,1.1526402235031129,0.1859080195426941,-1.406092882156372,-1.1165627241134644,-0.1957673877477646,0.36266952753067019,-0.25030842423439028,-1.1017006635665894,0.7103275656700134,1.061885118484497,-0.8527976870536804,1.3945120573043824,0.7301592826843262,-1.7408784627914429,-1.8445425033569337,1.5411758422851563,-0.8250619173049927,-0.9482940435409546,-1.1375200748443604,1.2929558753967286,1.3012994527816773,-1.3998113870620728,-0.06317922472953797,-0.028535116463899614,0.8007062077522278,0.2618735730648041,0.4690472483634949,-0.911514163017273,-0.5684987306594849,-0.6855920553207398,-0.9093785285949707,-0.3937767744064331,-0.7318474054336548,1.2056282758712769,-0.16917629539966584,0.06776678562164307,-0.3401435315608978,0.4103418290615082,-1.4228285551071168,2.794933319091797,0.5316593647003174,-0.49976345896720889,-1.0264533758163453,0.4376218616962433,1.0313769578933716,0.5430940389633179,0.07481212168931961,0.3961133658885956,-0.15029019117355348,0.17514075338840486,0.7105935215950012,0.7460258603096008,0.26771238446235659,-2.2353246212005617,0.12331216037273407,-0.3847581744194031,-0.04645795002579689,-0.7180736064910889,0.05653566122055054,0.467631459236145,1.6261979341506959,-0.9392163157463074,0.558211624622345,-1.01620352268219,-1.7748664617538453,0.5485221743583679,-0.4584646224975586,0.05061952397227287,0.7060251832008362,0.714445173740387,-0.43864706158638,-0.30800876021385195,0.353889524936676,0.6211473941802979,0.46329814195632937,-0.3562251627445221,-0.822499692440033,0.16590313613414765,0.5855228900909424,0.2083018273115158,1.433830738067627,1.2158771753311158,-0.49364274740219118,0.34010952711105349,-0.8649618029594421,0.30506011843681338,-0.03827352821826935,-0.4716792106628418,-1.154807209968567,0.3492865264415741,0.16656474769115449,-0.8485344648361206,1.6969468593597413,0.2467760145664215,0.798305094242096,-0.5437166690826416,0.6840069890022278,-0.21897158026695252,1.4775358438491822,0.21987232565879823,0.7157598733901978,0.038302406668663028,-0.04247446730732918,-1.7089691162109376,-0.098837710916996,-0.7048511505126953,0.3894089460372925,-0.02850649133324623,-0.05997837707400322,-0.741948127746582,-0.7238484025001526,-0.8103839159011841,0.031667571514844897,1.4550073146820069,0.5956658720970154,0.7440299987792969,-0.307350754737854,-0.044227804988622668,-0.24105508625507356,0.05322939530014992,0.5397488474845886,0.34359779953956606,-1.2542225122451783,-0.19143186509609223,-0.7265806794166565,-0.8360917568206787,-0.32973673939704897,-0.528616189956665,-0.070551298558712,0.610964298248291,-0.4573301672935486,-1.4480806589126588,-0.9534280300140381,0.5415588617324829,-2.1290693283081056,-0.1883966624736786,-1.193856120109558,-0.3246057331562042,-0.5193955898284912,-0.857245147228241,0.17184585332870484,-0.17085067927837373,0.07488466799259186,-0.5331634879112244,1.2039780616760255,-0.3618786633014679,0.4615796208381653,-0.6445279121398926,0.46848657727241518,0.5677688121795654,-1.2543020248413087,-1.5035181045532227,-0.4058535397052765,0.4791543483734131,1.052427053451538,-0.7719853520393372,0.40259939432144167,0.021202748641371728,1.7794970273971558,1.4571011066436768,-0.5518804788589478,0.8538950085639954,0.9414821863174439,0.9860343933105469,1.4142886400222779,-0.8386484980583191,-0.39504683017730715,-1.6694785356521607,0.2798585593700409,0.07276612520217896,0.8212162852287293,0.5021840333938599,0.33929646015167239,-1.617621898651123,-0.00882384181022644,0.3891286551952362,0.35020700097084048,-0.34622398018836977,1.0066908597946168,-0.015814512968063356,-0.710793673992157,-0.06878765672445297,0.6976984143257141,1.0501655340194703,0.7413087487220764,0.7277127504348755,0.4718141555786133,0.7967862486839294,0.05876370146870613,0.14350034296512605,-1.677412986755371,1.0301458835601807,0.013344677165150643,-1.2855244874954224,-1.7504888772964478,-0.5909415483474731,-0.09746035188436508,-0.4056645333766937,-0.9193978905677795,-0.3008496165275574,0.23572802543640138,0.758309543132782,0.6142740845680237,0.8791639804840088,-0.0763784795999527,0.3516997992992401,1.0488159656524659,-1.1351850032806397,-0.8625856041908264,-1.8422223329544068,0.29550090432167055,0.2647208869457245,-0.21567776799201966,0.07436475157737732,-0.1406930834054947,-0.7654711008071899,-0.9597194790840149,0.0630030483007431,-0.11109870672225952,0.0734650269150734,-0.40012386441230776,1.419503927230835,0.23432067036628724,-0.32795336842536929,-0.8187485337257385,-0.5887907147407532,-0.43006783723831179,-0.17675171792507173,-0.6196052432060242,-0.6080223917961121,-0.11134583503007889,0.13728481531143189,-0.7655734419822693,-0.6556363701820374,0.5196356773376465,-0.27823197841644289,-0.042900893837213519,-0.3982362151145935,0.8027642369270325,0.7299967408180237,-0.7235611081123352,0.31590306758880618,0.42965686321258547,-1.0492749214172364,0.6951248645782471,-0.08103105425834656,1.0421417951583863,-0.3496500551700592,0.3931207060813904,-0.13147908449172975,1.1858669519424439,-0.23635028302669526,0.39282459020614626,-0.4632326364517212,-0.5123285055160523,-0.3225575089454651,-1.036790132522583,-0.645184338092804,-0.13487350940704347,-1.268597960472107,0.6963070631027222,0.04672546312212944,-0.23035167157649995,-0.4386364221572876,0.3181827664375305,0.5552945733070374,-0.652472972869873,0.05812922492623329,-0.09479637444019318,-0.01538752019405365,-0.14168329536914826,-1.1724110841751099,0.39478692412376406,0.20879513025283814,0.6863016486167908,0.6176941394805908,0.14153558015823365,1.858871579170227,-0.683364987373352,0.8100546598434448,-0.9574360847473145,-0.38937908411026,0.6691790819168091,0.27242329716682436,-1.428817629814148,-0.09533566981554032,0.806435227394104,-1.9851477146148682,0.9106144905090332,-0.7766957879066467,0.23323649168014527,-0.2689966857433319,1.301228642463684,0.9014812111854553,1.0458803176879883,-0.3076185882091522,0.17199191451072694,-1.17216157913208,-0.08876857161521912,0.28356945514678957,-0.3838563859462738,-0.833306074142456,0.36840227246284487,-0.3884800374507904,0.08541446179151535,-0.527106761932373,-0.7661584615707398,-1.3598952293395997,0.4297478497028351,0.7946013808250427,0.3011728525161743,0.9972816705703735,0.09853728860616684,0.8217479586601257,0.7109694480895996,0.2413177192211151,-1.0310009717941285,1.251798152923584,1.0400842428207398,0.15707381069660188,-1.1278202533721924,0.2892903685569763,0.11989670991897583,-1.2821216583251954,0.2979103624820709,-0.3155059218406677,0.06793428957462311,0.41565680503845217,-2.3471574783325197,1.12235689163208,-0.7196111083030701,-0.18358582258224488,0.21114422380924226,-0.506664514541626,-1.6602805852890015,0.013911454007029534,0.6734188795089722,0.583721935749054,-0.5494295358657837,0.024306349456310273,0.4486207962036133,0.6841720342636108,0.046748410910367969,0.5488719344139099,0.17152029275894166,0.10821390151977539,1.2379043102264405,1.410420298576355,0.10582192987203598,-0.841359555721283,0.07375877350568772,-0.4527132511138916,0.3398491144180298,-0.11382487416267395,1.2315137386322022,-0.7037348747253418,1.62659752368927,-0.34820231795310976,-0.36823591589927676,1.1159075498580933,-0.471381813287735,0.15821519494056703,0.4227634072303772,-0.6639381647109985,-1.146635890007019,-0.571823239326477,-0.6908628344535828,-1.2171891927719117,0.024878496304154397,-0.507944643497467,-0.26905837655067446,0.14450277388095857,0.6118956208229065,-0.5123774409294128,0.7156035900115967,1.7512152194976807,0.20091108977794648,0.20941966772079469,0.07465226203203201,-0.46346861124038699,-0.5977463722229004,-1.6818886995315552,0.7434590458869934,-0.7885221242904663,-1.1390061378479005,-1.5619094371795655,0.4614959955215454,-0.6374601721763611,-0.004884127527475357,0.48613080382347109,-0.6370267868041992,-1.097582221031189,-1.4166582822799683,0.7912160158157349,0.16949081420898438,0.3313068449497223,-0.6561973690986633,0.15022718906402589,0.4253845810890198,-1.0605254173278809,0.38107600808143618,1.114996314048767,0.33586251735687258,-0.18499860167503358,-0.8382158279418945,0.4682391881942749,-1.021883487701416,-0.6198997497558594,0.7284315824508667,-0.7904562950134277,0.8302465081214905,0.6337149143218994,-0.39311596751213076,-0.3721809387207031,-0.9070422649383545,-1.0887691974639893,-0.9442341327667236,1.5195326805114747,0.13266833126544953,0.7587864995002747,0.5061208009719849,0.2396959513425827,-0.9395667910575867,0.36570048332214358,-1.6372939348220826,-1.213231086730957,-1.0522739887237549,-0.5340941548347473,-0.8703503012657166,-0.9434564113616943,0.24568991363048554,-0.38543766736984255,0.8097794651985169,-1.0333243608474732,0.5495485663414002,0.41653433442115786,0.45273858308792117,-0.30542105436325076,-0.9627176523208618,-0.14155195653438569,-1.2101069688796998,0.7492852210998535,0.40072256326675417,1.2419573068618775,2.132308006286621,0.5156253576278687,-0.5413480997085571,1.2218666076660157,-0.15901319682598115,-0.9768460392951965,-0.9452060461044312,0.30952155590057375,0.9603180289268494,-1.3921637535095215,-0.23406946659088136,0.4217745065689087,0.6495829820632935,0.9687277674674988,-1.7253221273422242,0.2531825006008148,-0.16098302602767945,0.04323405772447586,2.0887067317962648,0.44131237268447878,-1.8002381324768067,0.31554436683654787,0.35080668330192568,1.3445653915405274,0.7490338683128357,-1.2236343622207642,0.05070989206433296,0.012511994689702988,-0.4685751795768738,-1.2904540300369263,1.4025932550430298,2.1480233669281008,1.5085898637771607,-1.5565944910049439,-0.47123757004737856,1.0383306741714478,0.6355785131454468,1.1403857469558716,-0.6792862415313721,0.6733877658843994,0.35074737668037417,-1.109423041343689,-0.30664265155792239,0.400816410779953,0.8397282361984253,0.5399640202522278,-0.09323783963918686,-0.9211647510528565,0.6859337091445923,0.7672437429428101,0.8852026462554932,-0.05121215805411339,-0.5733128786087036,-0.3718383312225342,0.5918369293212891,0.150763139128685,-0.2872796058654785,-0.9798068404197693,0.05349528044462204,-0.14883188903331757,-0.7321034073829651,-1.0257502794265748,-0.291157990694046,-0.12853240966796876,-1.8869166374206544,-0.36319583654403689,0.02609357424080372,-0.6152733564376831,0.431626558303833,1.1837106943130494,1.5722764730453492,0.3949988782405853,-0.14092187583446504,1.3934040069580079,1.3852574825286866,2.085193395614624,-1.2103145122528077,0.15728157758712769,0.13163860142230988,-0.04549458995461464,0.7553827166557312,0.626800537109375,0.19350381195545197,0.2436792105436325,0.516686201095581,0.6807013750076294,-1.077204704284668,0.8070893883705139,-0.6654441952705383,1.5900492668151856,0.9460551738739014,-0.25131869316101076,0.9627994894981384,-2.501779317855835,1.360816240310669,1.3595844507217408,0.8255741000175476,0.45699262619018557,1.0922694206237794,0.31984978914260867,-0.7437343597412109,-0.054888416081666949,-0.19972185790538789,0.14655815064907075,0.7809730768203735,-0.8355560898780823,-0.32891228795051577,0.17377150058746339,-1.0877034664154053,1.428957462310791,0.5845254063606262,0.9171056747436523,-0.014526650309562683,0.7645156979560852,0.3950216472148895,-0.8721233010292053,0.739226758480072,-1.4012844562530518,-0.15245996415615083,-0.42025870084762576,-0.07631844282150269,0.17882587015628816,-1.1379618644714356,-0.9404743313789368,-1.0551904439926148,-0.3133670389652252,0.2380429059267044,-0.4392656981945038,0.27414727210998537,0.04268787056207657,-0.357265442609787,0.5331900715827942,-1.4679628610610963,0.44942706823349,-1.027313232421875,-0.13199689984321595,0.48353394865989687,-0.2322353720664978,-1.0196670293807984,0.20068605244159699,0.21406064927577973,0.14353856444358827,-0.4719941020011902,-0.5135825276374817,0.14425992965698243,0.670857846736908,1.8665263652801514,1.4205944538116456,-1.8870760202407838,1.171926736831665,0.508763313293457,1.250937819480896,1.6863889694213868,1.3098292350769044,-0.09499919414520264,-0.639101505279541,0.21619506180286408,0.6470931768417358,0.3315032124519348,0.7827576398849487,-0.5160034894943237,0.7584558129310608,-1.0789376497268677,-0.11759289354085922,0.13161814212799073,1.3409724235534669,-0.2583445906639099,1.327117919921875,-0.09449039399623871,0.2654154598712921,-0.14591491222381593,0.45152679085731509]},"biases":[0.5702959299087524,-1.4071191549301148,-0.1924612671136856,0.7262645363807678,-0.4622025191783905,-0.6331219673156738,-0.6565462350845337,0.4460080862045288,0.32196587324142458,0.885947585105896,0.35506483912467959,-0.598588764667511,-0.7521401047706604,-0.07386797666549683,-1.5161375999450684,1.4108929634094239,-0.634448230266571,-0.7966324090957642,0.055044494569301608,-0.864568829536438,-0.1488838791847229,-0.3293953537940979]},{"neurons":[-0.09497333317995072,-0.9998807907104492,0.9860957860946655,-0.5968100428581238,-0.9994668960571289,0.07997443526983261,0.9997128844261169,-0.2584632933139801,-0.9965472221374512,0.8800759315490723,0.9146258234977722],"weights":{"rows":11,"cols":22,"data":[-0.41563165187835696,1.2102593183517457,1.8191099166870118,0.7864905595779419,0.8210364580154419,0.3119267523288727,-1.1896109580993653,0.864357590675354,0.34098151326179507,0.6382765769958496,-0.33324381709098818,0.893947184085846,-0.12082627415657044,-0.2254476547241211,0.48607879877090456,0.3547363579273224,0.39443492889404299,-0.6439188718795776,-0.5722506046295166,-1.035974383354187,0.09910093247890473,0.7818930745124817,-1.630265712738037,-0.29304367303848269,0.10750468820333481,0.03342842683196068,-0.8730676174163818,0.1889706254005432,-0.3464556038379669,0.6728025674819946,0.7562006115913391,0.600373387336731,-0.6837390661239624,1.2250603437423707,1.262420654296875,0.5061689615249634,-1.1266083717346192,1.3936238288879395,-1.5432212352752686,0.047302648425102237,-0.09231387823820114,-0.3520640432834625,-0.2911677062511444,0.15502619743347169,0.21481627225875855,1.0979652404785157,-0.9115321040153503,1.6235401630401612,0.9693599939346314,-1.1507362127304078,0.7197036743164063,-0.41409188508987429,-0.0486324205994606,0.3137803375720978,0.7610235214233398,-0.3146255612373352,-0.7989845275878906,-0.15392807126045228,-0.4044645428657532,-0.010119790211319924,-1.2010071277618409,0.5041130185127258,1.2965501546859742,0.7466553449630737,0.517591655254364,1.1804481744766236,0.2699728012084961,-0.1511763334274292,-0.11222678422927857,0.32217875123023989,1.2891134023666382,-0.3835461735725403,1.0989164113998414,0.3669135570526123,-0.40977683663368227,-0.07891365140676499,-0.00889743585139513,0.32910457253456118,0.3725337088108063,0.3361966609954834,-0.005420697387307882,-0.252421110868454,-0.6422953605651856,-0.9040582180023193,-0.5568808317184448,0.3499995768070221,0.2518244683742523,0.23626573383808137,1.2924911975860596,0.9900567531585693,-0.07962819188833237,0.3096217215061188,0.322379469871521,0.0009216601029038429,-0.9766331315040588,-0.014964904636144638,-0.9370773434638977,-0.45726335048675539,-0.6979806423187256,0.8761197328567505,1.4354978799819947,-0.31025418639183047,-0.4390943944454193,0.6017499566078186,-1.0263183116912842,-0.39688795804977419,0.28645631670951846,2.297799587249756,0.4353291392326355,-0.2775576114654541,-0.4055688977241516,-0.21654684841632844,-0.060859646648168567,0.0031559313647449018,-0.03126133605837822,-0.8484984636306763,-0.5079672932624817,0.19685395061969758,-1.5087735652923585,-0.3931256830692291,-0.22454538941383363,-0.08786436170339585,-0.4650196135044098,-0.2565513551235199,0.826428234577179,1.0192912817001343,-0.5838107466697693,0.9054331183433533,0.018721217289566995,-0.9558103680610657,0.640984058380127,-1.3535023927688599,-0.43887487053871157,-1.3560316562652588,1.2509150505065919,0.5265891551971436,0.47836098074913027,1.3703842163085938,-0.12577325105667115,1.285627007484436,0.6927865147590637,1.029555320739746,-0.9692066311836243,-0.9389314651489258,-0.10922116041183472,-0.748890221118927,0.008421546779572964,0.6762231588363648,-0.6922617554664612,0.8051825761795044,0.41390272974967959,0.5402263402938843,0.7516012787818909,0.002579115331172943,-0.11506196856498718,0.28691229224205019,0.23007209599018098,0.4927593171596527,0.45980870723724368,0.2033209651708603,-0.08331896364688873,0.45491039752960207,0.38879916071891787,-0.3248700797557831,1.2369730472564698,0.25464656949043276,-0.2474295198917389,-0.44899982213974,-0.29325070977211,0.11421708017587662,0.1496339589357376,0.20880776643753053,0.6937479972839356,-0.6059404611587524,0.49046629667282107,0.849517285823822,-1.078981876373291,2.1229028701782228,-0.35536423325538638,1.5507620573043824,-0.896718442440033,-1.4229683876037598,-0.11257249861955643,0.24642512202262879,-2.338225841522217,0.037528280168771747,0.6775397062301636,-0.23388268053531648,-0.12318463623523712,0.11987518519163132,-0.8813487887382507,0.3460550010204315,0.10736358910799027,-0.05564292520284653,-1.823447823524475,0.7564908862113953,0.3814275562763214,-0.573664128780365,0.2304350584745407,0.9247151017189026,-1.2409425973892213,1.0808769464492798,-0.046926937997341159,-1.0370250940322877,-0.181742861866951,-0.27693232893943789,-0.5249589681625366,-0.12900881469249726,0.31846559047698977,-0.27329713106155398,0.3035135567188263,0.017316516488790513,-1.7318626642227173,-0.4323265552520752,0.03894337639212608,-0.2946571409702301,-0.20043297111988069,1.430945634841919,0.4122515320777893,0.7149749398231506,1.4456286430358887,-0.25779566168785097,-0.9696083068847656,0.16332954168319703,-0.7160850167274475,0.7129207253456116,-1.3999921083450318,-0.10292486846446991,-0.19796593487262727,0.46740487217903139,0.1554623395204544,1.11513352394104,-0.7956910729408264,-1.8816208839416505,-0.7952958345413208,-0.862589955329895,0.4803614020347595,2.081777572631836,0.4021635055541992,-0.4159298539161682,-0.18171080946922303,0.03117738664150238]},"biases":[0.5275275111198425,-0.35209470987319949,-0.4830254018306732,-0.5058576464653015,-1.4159843921661378,0.6555721163749695,1.2509818077087403,-1.1217637062072755,0.9831473231315613,0.9737771153450012,-1.5858962535858155]}],"seed":443617201}