{"layers":[{"neurons":[-0.9506127834320068,-0.39069241285324099,0.45851948857307436,-0.6361634135246277,-0.474739134311676,0.11676188558340073,-0.8489679098129273,0.9431434869766235,-0.6209229826927185,0.7964280247688294,-0.4783630073070526,-0.66090989112854,0.23379328846931458,0.7925597429275513,-0.5140076875686646,0.9395115375518799,-0.5018820762634277,-0.8806190490722656,-0.08206988126039505,0.9196433424949646,0.8177548050880432,-0.7811973094940186,0.5490978360176086,0.13626517355442048,0.8072710633277893,0.8081569671630859,0.7221536040306091,0.047005053609609607,0.4236663579940796,0.9763676524162293,-0.9054669737815857,-0.22263994812965394,-0.37338516116142275,0.8261244297027588,0.11020179092884064,-0.37527507543563845,0.9094847440719605,-0.6287907361984253,0.47167202830314639,0.09542180597782135,-0.37993574142456057,-0.07758866995573044,0.7412287592887878,-0.8998015522956848],"weights":{"rows":44,"cols":22,"data":[0.32567813992500307,-0.5773370265960693,0.1388198435306549,-0.34712478518486025,0.4249585270881653,-0.09915490448474884,0.16320429742336274,0.42454859614372256,0.3699558973312378,-0.4080362617969513,0.6736621856689453,-0.3772190809249878,0.21640992164611817,-0.43878239393234255,0.391567587852478,0.12147791683673859,-0.5396098494529724,-0.05844542011618614,0.9206020832061768,0.23343512415885926,0.1773821860551834,-0.4182271957397461,0.13098642230033875,-0.37542474269866946,0.475961297750473,-0.6529591083526611,0.33361420035362246,-0.21819916367530824,0.6574470400810242,0.5615965127944946,-0.9685513377189636,0.044806089252233508,0.42513078451156618,0.02609971910715103,0.4040639102458954,0.00933055765926838,-0.08799459785223007,0.39994582533836367,-0.16729514300823213,0.6102786064147949,-0.37111756205558779,0.4194183051586151,0.2263854593038559,-0.29518982768058779,0.19904300570487977,-0.19589568674564362,-0.3465438783168793,0.3686496615409851,-0.4587080180644989,0.011771585792303086,-0.13084480166435243,0.3655489683151245,-0.5444150567054749,0.19900627434253694,0.33386433124542239,-0.538493812084198,-0.3672439157962799,0.3070240318775177,0.06870262324810028,-0.31505611538887026,-0.09064371883869171,0.637150228023529,-0.6257160902023315,-0.2111808955669403,0.07768771052360535,-0.27918362617492678,-0.3826356530189514,0.06345085799694061,0.10952313244342804,0.14742638170719148,0.0791485458612442,0.2844773530960083,0.4157153367996216,-0.10429719090461731,0.45504888892173769,0.5650463700294495,-0.052875351160764697,0.14325596392154694,0.5276318788528442,-0.32026809453964236,-0.36930525302886965,0.5479736924171448,-0.024542395025491716,-0.12506960332393647,0.5711222887039185,0.00981915183365345,0.12048038095235825,-0.44221729040145876,0.09505148977041245,-0.14417746663093568,-0.07440314441919327,0.6218302845954895,-0.08539014309644699,0.009259996004402638,0.17197054624557496,0.28284358978271487,0.41387686133384707,0.1264800876379013,-0.09273403882980347,-0.16494688391685487,-0.10458330810070038,0.4390637278556824,0.18493589758872987,0.9321722388267517,0.28479528427124026,-0.4318976104259491,0.20734252035617829,-0.000571953656617552,0.38282570242881777,0.21322274208068849,-0.1414746195077896,0.7385874390602112,-0.24760763347148896,-0.36745068430900576,0.537354052066803,-0.9800819754600525,-0.4647083878517151,-0.07975850254297257,-0.06328878551721573,-0.23713485896587373,-0.6107459664344788,-0.49197661876678469,0.17027617990970612,0.04637783020734787,-0.08029842376708985,-0.05593228340148926,-0.7192675471305847,-0.018009064719080926,-0.46223318576812746,-0.3393966555595398,-0.26553720235824587,0.06999107450246811,0.2934267222881317,0.6594842672348023,-0.2578818202018738,-0.46766313910484316,0.13928104937076569,-0.14192301034927369,0.55301833152771,0.4827401041984558,0.43061497807502749,0.684272289276123,-0.04942767322063446,-0.06296254694461823,-0.041944749653339389,-0.006438011769205332,-0.49913662672042849,-0.36995816230773928,0.47333553433418276,0.16390717029571534,-0.14344504475593568,0.6583947539329529,0.5506230592727661,0.08257187902927399,-0.04286416992545128,-0.1134842038154602,-0.2936075031757355,0.19820193946361543,-0.2819402515888214,-0.02967679686844349,0.13553577661514283,-0.33619925379753115,-0.9003792405128479,-0.02595854364335537,-0.30693796277046206,0.3572915494441986,0.08214134722948075,-0.1850132942199707,0.23950032889842988,0.44010812044143679,-0.443250834941864,-0.10320267081260681,-0.2342439442873001,-0.4844130575656891,-0.3195576071739197,-0.4537816643714905,0.47002819180488589,0.06179162487387657,0.2140788584947586,0.22760432958602906,0.20847764611244203,-0.5257983207702637,-0.03569747880101204,0.18801118433475495,0.4727267622947693,-0.24810101091861726,-0.4038330912590027,0.45186835527420046,-0.4358864426612854,-0.43385452032089236,-0.1669819951057434,-0.20347779989242555,0.03512614965438843,0.8298486471176148,0.5201695561408997,0.47874563932418826,0.26531559228897097,-0.07707887142896652,0.10216715931892395,-0.11995388567447663,-0.41058290004730227,-0.1674789935350418,0.5221961736679077,-0.600335419178009,-0.5474578142166138,-0.2245943695306778,0.5952183604240418,-0.032348956912755969,-0.15199758112430573,0.27346915006637576,0.1436457484960556,0.11622119694948197,-0.42799651622772219,0.024895334616303445,0.3683965802192688,0.7616086006164551,-0.5216147303581238,-0.23464122414588929,0.024750547483563424,-0.1630547195672989,0.20128221809864045,-0.17942547798156739,-0.29638344049453738,0.28512272238731387,0.6052013039588928,-0.025254569947719575,0.1378280222415924,-0.19555741548538209,0.010187841951847077,-0.22583317756652833,-0.01956973783671856,0.3829537332057953,-0.19674386084079743,0.04368596524000168,-0.1714160144329071,0.423907607793808,0.44421955943107607,-0.19458384811878205,-0.347584992647171,-0.3278270959854126,-0.4773804545402527,-0.6339277625083923,0.3500215709209442,0.48366662859916689,-0.06935998797416687,0.5311186909675598,-0.4135352373123169,0.2571851313114166,0.34445953369140627,0.37678322196006777,0.18588842451572419,0.12391985207796097,0.390190452337265,0.44787919521331789,0.7929019927978516,0.10249288380146027,-0.19810804724693299,0.18369115889072419,0.48720070719718935,-0.17046043276786805,0.5615684986114502,0.4345962703227997,-0.35845503211021426,-0.4880004823207855,-0.2328183799982071,0.517944872379303,0.661858081817627,-0.20120470225811006,0.09999501705169678,0.26281028985977175,-0.7163363695144653,0.2525305449962616,0.6071082353591919,0.18097051978111268,-0.04714073985815048,0.5490501523017883,-0.1095409244298935,-0.10678088665008545,0.0449482761323452,0.10538451373577118,-0.0608203299343586,0.07446828484535217,0.4234630763530731,0.29503968358039858,0.01372508518397808,-0.6030663251876831,0.06921786814928055,0.10916732996702194,0.0813177227973938,0.2874533236026764,-0.06453511118888855,-0.5150490403175354,-0.5994024276733398,-0.3531991243362427,-0.07230787724256516,0.5454796552658081,0.12364354729652405,0.6621313095092773,0.989962637424469,0.16838052868843079,-0.28728997707366946,-0.6840400695800781,-0.6834992170333862,0.34350666403770449,-0.183353990316391,-0.23929348587989808,-0.27396678924560549,-0.4176560342311859,0.3361186981201172,-0.2627086043357849,-0.35493627190589907,-0.7652381062507629,0.465315580368042,-0.48887738585472109,-0.26741310954093935,0.7263470888137817,0.30137383937835696,-0.5547322630882263,-0.10786120593547821,0.30964356660842898,-0.7593756914138794,-0.2349478155374527,-0.229588121175766,-0.4903906285762787,-0.06328680366277695,0.19727922976016999,0.47670888900756838,0.04180034250020981,-0.7000467777252197,-0.1611737161874771,0.0023675241973251106,-0.2991824746131897,-0.11764737218618393,-0.30358031392097475,-0.3771403431892395,-0.27114564180374148,-0.4382806718349457,-0.3294242322444916,-0.21269723773002625,-0.18189819157123567,-0.1932653933763504,-0.1313888430595398,0.3961610496044159,0.1757877916097641,0.3127234876155853,0.3836037814617157,-0.01581207476556301,-0.3033178746700287,0.3447326421737671,0.36646363139152529,-0.37788689136505129,-0.21211770176887513,-0.5208796262741089,0.10529091954231262,0.2594442665576935,-0.03296041488647461,-0.2855742573738098,0.07154196500778198,0.6601214408874512,0.25372734665870669,0.22446022927761079,-0.28659170866012576,-0.11050260812044144,-0.4792954921722412,-0.03575100004673004,0.09681657701730728,-0.23324425518512727,0.019905583932995797,-0.3267977237701416,0.3131025731563568,-0.321402370929718,-0.021647324785590173,0.40440332889556887,-0.009983405470848084,-0.49744340777397158,0.07492728531360626,0.8180676102638245,0.5137526392936707,0.4255123436450958,-0.4608764946460724,0.39894694089889529,-0.4737117886543274,-0.023733336478471757,0.2586716115474701,-0.22755753993988038,-0.6897925734519959,-0.11589858680963516,0.0049360366538167,-0.3517646789550781,0.08921166509389878,-0.5332034230232239,0.07961226254701615,0.09467882663011551,0.6790098547935486,0.047248560935258868,-0.1278141438961029,-0.2785557210445404,0.22566427290439607,0.18488790094852448,0.1897508203983307,0.2818053364753723,-0.3161650002002716,-0.03061848133802414,0.22367730736732484,0.02862462028861046,-0.26397353410720827,0.2545414865016937,0.017040906473994256,0.8263693451881409,0.04684874415397644,0.6581946611404419,0.24161933362483979,-0.1118050292134285,0.3451654613018036,0.3450669050216675,0.193410724401474,-0.2621839642524719,-0.15091000497341157,-0.20800141990184785,-0.15362673997879029,0.7959280610084534,-0.1735115796327591,-0.5889961123466492,-0.6835690140724182,0.6882220506668091,0.2188176065683365,-0.3980887532234192,-0.38127216696739199,-0.6246079206466675,0.17859409749507905,0.7589263319969177,0.355108380317688,0.08100378513336182,-0.20133398473262788,0.06326713413000107,0.8585676550865173,-0.3400581479072571,0.26253995299339297,0.11333872377872467,0.35480785369873049,0.10065032541751862,0.30857357382774355,0.25796574354171755,0.48129427433013918,-0.2236572802066803,-0.5763152241706848,0.2632664442062378,-0.413976788520813,-0.17758667469024659,-0.3296416401863098,-0.44389355182647707,-0.26342615485191347,0.04513392224907875,0.5040128231048584,0.24941252171993257,-0.5549861192703247,0.020971789956092836,-0.20317672193050385,-0.45013102889060976,0.19750186800956727,-0.22537676990032197,-0.4607045650482178,0.5637616515159607,-0.03024369478225708,0.4818139970302582,0.21557734906673432,0.4322815239429474,0.17716610431671143,-0.2696113586425781,-0.33176112174987795,0.2157352864742279,0.030962660908699037,-0.03754919394850731,-0.1845957487821579,-0.28749340772628786,0.7389707565307617,-0.5974558591842651,-0.04288044571876526,0.05743987113237381,0.16286908090114594,0.5411837697029114,0.06082170084118843,-0.04762794077396393,0.5952122807502747,-0.22370029985904694,-0.42277878522872927,-0.3246920704841614,0.3810417056083679,-0.6290619969367981,-0.07875576615333557,-0.36794355511665347,-0.38565105199813845,0.5166897773742676,-0.05012497305870056,0.02297176979482174,0.0422937236726284,-0.06884326040744782,0.2717456817626953,-0.27053144574165347,-0.22883173823356629,-0.4922622740268707,0.4697774052619934,-0.2235947698354721,-0.11787088215351105,0.08438850939273834,0.5439272522926331,-0.4508948028087616,-0.36708134412765505,0.4547985792160034,0.2455483376979828,-0.11867782473564148,-0.13665138185024262,0.09897864609956742,-0.2909388840198517,-0.17454861104488374,-0.03316567838191986,-0.12478694319725037,-0.56984943151474,-0.1317952275276184,0.8317431211471558,0.14217589795589448,-0.45980900526046755,-0.5058817863464356,-0.5785369277000427,-0.49637454748153689,0.3006229102611542,-0.23230339586734773,0.2758716940879822,-0.05810554325580597,-0.25397852063179018,-0.3910992741584778,0.1995827555656433,0.05235800892114639,0.5300924181938171,0.13126982748508454,0.3521500527858734,-0.3700857162475586,0.16536551713943482,-0.4166872203350067,-0.4965095520019531,0.5178788304328919,-0.7772189378738403,0.6757554411888123,0.10344142466783524,0.10780410468578339,-0.613965630531311,-0.2120872139930725,-0.3902251720428467,-0.2700619399547577,-0.13262665271759034,0.08049105852842331,0.310132771730423,0.14513526856899262,-0.20786674320697785,0.3800378739833832,-0.05631759762763977,-0.7374058365821838,-0.007299840450286865,0.4276139736175537,-0.2694593071937561,0.4901403784751892,0.3248888850212097,0.41760241985321047,-0.6598802208900452,0.1270870417356491,0.1008429229259491,0.45789065957069399,0.6884757876396179,0.0915154442191124,-1.2465089559555054,-0.15602846443653108,-0.24416658282279969,0.02820880152285099,0.06552565097808838,0.08111997693777085,0.3060189187526703,-0.7409196496009827,0.32838329672813418,0.3764224350452423,0.27499669790267947,0.2700558304786682,0.5956144332885742,-0.233885258436203,-0.39413586258888247,0.5544478893280029,-0.05261792615056038,0.1609957367181778,0.46613767743110659,0.4833321273326874,-0.4615408778190613,-0.02076348103582859,0.3253849744796753,-1.0370447635650635,-0.22556449472904206,0.19789008796215058,0.3941415548324585,0.07456222921609879,-0.5061320662498474,-0.4201914370059967,-0.28975847363471987,-0.6751091480255127,0.15998348593711854,0.6510595083236694,-0.6372185349464417,0.5630833506584168,0.5076525807380676,-0.20229095220565797,-0.17867808043956757,-0.20942941308021546,0.2140747606754303,0.1837945580482483,0.14593525230884553,-0.3551524877548218,-0.16978910565376283,0.04172351956367493,-0.24639613926410676,0.22442245483398438,0.04389915242791176,-0.1334884613752365,0.06149173900485039,0.008093531243503094,0.2552250623703003,-0.3279736638069153,-0.19925737380981446,0.3826460838317871,-0.3493940234184265,-0.6215285658836365,-0.0805511400103569,0.02383025735616684,-0.2567899823188782,-0.37717413902282717,0.16720454394817353,0.04463769122958183,-0.07389923930168152,-0.1794419288635254,-0.3580005168914795,-0.3958091139793396,0.14539149403572083,0.4493211507797241,0.014984196983277798,0.17901013791561128,-0.3751465380191803,0.5155175924301148,-0.16717171669006349,-0.31256067752838137,0.010210921987891198,-1.05424165725708,-0.12364548444747925,-0.6467723250389099,-0.39955615997314455,-0.05293446406722069,-0.23241880536079408,0.6691126823425293,0.008403820917010308,0.07083504647016525,-0.14625704288482667,0.14451685547828675,-0.3771039545536041,0.27099061012268069,-0.19737030565738679,0.0915377289056778,-0.31035396456718447,-0.0838213711977005,-0.1420949250459671,-0.07558828592300415,-0.6330490112304688,0.017203569412231447,-0.39094993472099306,0.9812064170837402,0.2736093997955322,-0.05955181643366814,0.7109709978103638,-0.43754342198371889,-0.3426196873188019,-0.15968777239322663,0.09470485895872116,-0.24200589954853059,-0.41831982135772707,0.32265105843544009,-0.6162888407707214,-0.638049304485321,0.3614462912082672,-0.0033070058561861517,0.8021813631057739,0.1673041433095932,-0.7882439494132996,-0.3944212794303894,0.42713844776153567,0.013501645997166634,-0.49225959181785586,0.4201410710811615,-0.27110785245895388,0.11999429017305374,0.26716184616088869,-0.37449511885643008,0.32364508509635928,-0.5399959087371826,0.5303682088851929,-0.098122738301754,-0.11002559214830399,0.4780198335647583,0.6236214637756348,0.16947709023952485,0.03521842882037163,0.261361688375473,-0.7463063597679138,0.2979438304901123,-0.17297083139419557,0.2562737762928009,-0.10985856503248215,0.6244423389434815,-0.33981388807296755,0.7039512991905212,0.21256157755851746,-0.038254693150520328,0.5468425154685974,-0.18630297482013703,0.5102245211601257,-0.2652100920677185,-0.11363686621189118,0.36753594875335696,0.670932412147522,-0.0992601066827774,0.08171329647302628,0.03690849244594574,-0.6874157786369324,0.5213286876678467,0.061836592853069308,0.1277756541967392,0.07984550297260285,-0.3961063623428345,-0.020151037722826005,0.0523940809071064,-0.10687502473592758,-0.18860650062561036,0.5001769065856934,0.154201939702034,0.46590766310691836,0.45949089527130129,0.37232208251953127,-0.4859665632247925,-0.045220114290714267,0.5187066793441773,-0.22303535044193269,0.7575798630714417,-0.39583107829093935,-0.0441574864089489,-0.6032761931419373,-0.2738005518913269,-0.14881502091884614,-0.05362735688686371,-0.5295331478118897,-0.056728776544332507,-0.1906834840774536,0.32680144906044009,0.20849592983722688,-0.16540373861789704,-0.12021252512931824,-0.3941934406757355,0.5009892582893372,-0.10957395285367966,0.3279498517513275,-0.04481744393706322,-0.38494348526000979,-0.3877350091934204,-0.150955468416214,0.12345535308122635,0.3420046269893646,0.3723059296607971,-0.3998233377933502,-0.4320572018623352,-0.8911775946617127,0.38899630308151247,0.5384886860847473,-0.08919145911931992,-0.45540785789489748,0.26611942052841189,0.19596992433071137,0.17890694737434388,0.08131852746009827,0.6156979203224182,0.16083179414272309,0.5848812460899353,0.5431995987892151,0.41724056005477908,0.5586159825325012,0.3198747932910919,-0.2549961805343628,-0.07247903198003769,-0.4458118677139282,-0.05309859290719032,-0.10241975635290146,-0.46090608835220339,-0.4217754006385803,-0.24585509300231934,-0.5406296849250794,-0.26096242666244509,0.5827226638793945,-0.09875094890594483,-0.1455344408750534,-0.6632691621780396,-0.28625568747520449,0.37000802159309389,-0.6757213473320007,0.14047515392303468,0.1529884785413742,-0.3256393074989319,-0.24143657088279725,-0.09798162430524826,0.42581573128700259,-0.39435523748397829,-0.07776528596878052,0.6090742349624634,-0.04703705757856369,-0.2308211624622345,-0.7610267400741577,-0.2781558632850647,-0.05903457850217819,-0.0875273272395134,-0.2735196053981781,-0.17002935707569123,0.04176316782832146,0.24402044713497163,0.5161690711975098,-0.15573522448539735,0.24371084570884705,-0.5732368230819702,-1.0120091438293458,-0.1063733696937561,-0.24293231964111329,0.24796584248542787,0.07385344803333283,-0.5822815895080566,0.17738714814186097,0.2175798863172531,0.19948072731494904,0.2156779021024704,-0.6251696944236755,-0.20915299654006959,0.17665515840053559,0.038473863154649737,0.12620127201080323,0.024999413639307023,-0.15228772163391114,0.23718273639678956,-0.35296186804771426,-0.5177497267723084,0.522527277469635,-0.3092224597930908,-0.10174356400966644,0.6479724049568176,0.1780322939157486,0.110869862139225,0.20646512508392335,-0.3415588438510895,0.07380814105272293,-0.1714988648891449,0.4361411929130554,0.16927650570869447,-0.21134397387504579,0.5030368566513062,0.6165083050727844,-0.5490971207618713,-0.32911941409111025,-0.8022366762161255,0.24713343381881715,-0.46213313937187197,0.6299057602882385,0.09034109115600586,0.157735675573349,-0.7774555683135986,0.6277170777320862,0.5897295475006104,0.17899364233016969,-0.21339674293994904,-0.28300535678863528,-0.611396074295044,-0.051532600075006488,0.4529745876789093,0.2241085022687912,-0.3426923155784607,-0.7406080961227417,0.527855396270752,0.26519349217414858,-0.07316814363002777,-0.7354422807693481,0.443715900182724,0.1167563796043396,0.04731728136539459,-0.3868406116962433,0.539395272731781,-0.10877279937267304,0.013848486356437207,-0.03757579252123833,-0.39602798223495486,-0.2767527401447296,0.20126742124557496,-0.3348197340965271,0.35547497868537905,-0.5238436460494995,0.7137296795845032,0.6041365265846252,0.7688653469085693,0.07611729204654694,0.3777158856391907,0.3827468156814575,-0.2451402246952057,0.3259288966655731,-0.08061805367469788,0.42567551136016848,-0.32472971081733706,0.8486212491989136,-0.4185446798801422,0.35769596695899966,-0.1943848878145218,0.4549301266670227,0.18694092333316804,0.02976767159998417,0.13765768706798554,-0.3297896683216095,0.08049245178699494,0.42525339126586916,0.07377799600362778,0.4346950352191925,-0.5012477040290833,-0.474431574344635,-0.18607540428638459,0.16185401380062104,0.014220201410353184,0.06803831458091736,0.4581569731235504,0.46795445680618288,-0.7811562418937683,-0.7939180135726929,-0.39861059188842776,0.00944934319704771,0.473222553730011,0.12646755576133729,-0.4529326558113098,0.05041181668639183,-0.141794353723526,-0.79127037525177,-0.29886394739151,-0.42760688066482546,-0.024022173136472703,-0.09704601019620896,0.41914409399032595,0.13727614283561707,0.18675735592842103,-0.556779146194458,0.593411922454834,-0.4695511758327484,0.4070081412792206,0.1805131733417511,-0.39568984508514407,-0.03897799551486969,0.45636311173439028,0.5052326321601868,-0.32159486413002016,0.1507781594991684,0.06076956167817116,-0.012625958770513535,0.18804703652858735,0.18271954357624055,-0.08669416606426239,0.048252347856760028,0.14960673451423646,0.7816086411476135]},"biases":[-0.47921445965766909,-0.4986002445220947,-0.15285375714302064,0.03667393699288368,0.1634623408317566,-0.47367116808891299,0.2866353690624237,0.07921906560659409,-0.06775777041912079,0.40569761395454409,-0.49859777092933657,-0.6761896014213562,0.679817259311676,-0.0887271910905838,0.041139520704746249,-0.3889479339122772,0.2199273556470871,0.02458764612674713,-0.24813757836818696,-0.25837576389312746,0.12113139033317566,-0.3121717870235443,0.40517452359199526,0.30451834201812746,0.30374348163604739,0.4397776126861572,0.4457135796546936,-0.18209853768348695,-0.21776776015758515,0.20557431876659394,-0.31277769804000857,0.31462544202804568,0.044057849794626239,-0.13652341067790986,-0.183289036154747,-0.4908941090106964,0.23228105902671815,-0.3082209825515747,0.17394782602787019,-0.3685511648654938,0.40718182921409609,0.014466719701886177,-0.1676984429359436,-0.19050826132297517]},{"neurons":[-0.9942014813423157,-0.4019271433353424,-0.9674017429351807,-0.8041908144950867,-0.37012410163879397,0.7639849185943604,-0.9903879761695862,0.9980584979057312,0.6912497282028198,-0.9908416867256165,0.9811532497406006,0.07947783172130585,-0.6897256970405579,0.14075696468353272,-0.17072038352489472,0.22213152050971986,0.969737708568573,0.023924434557557107,-0.9548970460891724,0.35453784465789797,0.39571860432624819,-0.7017773389816284],"weights":{"rows":22,"cols":44,"data":[-0.016522562131285669,-0.08521157503128052,0.10699614882469177,0.5699046850204468,0.05404452979564667,0.15633273124694825,0.15232956409454347,-0.47223058342933657,0.32747069001197817,-0.7024089097976685,0.16068056225776673,0.537598729133606,0.2987917363643646,0.07253587245941162,-0.005239375401288271,-0.32870393991470339,-0.0036456813104450704,-0.03501439094543457,-0.6346313953399658,-0.6131830811500549,-0.4294057786464691,0.09413421154022217,-0.290273517370224,0.3809831440448761,-0.4849607050418854,-0.3013060986995697,-0.4403482675552368,0.14085310697555543,0.5287725329399109,0.1625760942697525,0.15839047729969026,-0.7064006924629211,-0.6935884356498718,0.528964102268219,-1.0258086919784547,-0.10117386281490326,0.17419596016407014,0.15781855583190919,-0.22288307547569276,0.33574745059013369,-0.5297921299934387,-0.1819903552532196,0.04115508869290352,-0.08969837427139282,0.3954083025455475,0.5086950063705444,0.19512665271759034,-0.021914003416895868,0.4733552932739258,0.42816290259361269,0.2819206416606903,-0.8690716624259949,-1.133385419845581,0.09493675082921982,0.2989732027053833,-0.5232780575752258,-0.279751181602478,0.08915704488754273,-0.03128592669963837,-0.6926100850105286,0.056367360055446628,-0.1676882654428482,-0.12304271757602692,0.1689567267894745,-0.24267257750034333,0.20205138623714448,0.19011947512626649,0.3107006847858429,-0.03652166202664375,-0.12986168265342713,0.25204554200172427,0.8716632723808289,0.41994017362594607,0.8564503192901611,-0.5170429944992065,-0.3002285659313202,-0.16082420945167542,-0.1785968691110611,-0.7783600687980652,-0.33192673325538638,-0.03661573305726051,0.12506015598773957,-0.23704031109809876,-0.7181298136711121,0.09601888060569763,-0.29047998785972597,-0.5029582977294922,0.44760510325431826,0.3829931914806366,-0.12711332738399507,0.29184070229530337,-0.3882274627685547,-0.1550094336271286,0.13647380471229554,0.6475790143013,-0.7827306389808655,-0.2551657259464264,-0.3386870324611664,0.02470286190509796,-0.4754050672054291,-0.40852630138397219,-0.07321508973836899,0.4041365385055542,-0.07004058361053467,-0.3091070055961609,0.6095571517944336,0.2801246643066406,-0.3165593445301056,0.5098600387573242,0.30451759696006777,0.08531602472066879,0.23872525990009309,0.3007652461528778,0.569571316242218,-0.45294761657714846,0.4958842098712921,-0.6431424617767334,-0.381751149892807,0.5444232225418091,0.1978251338005066,0.22780896723270417,0.563757598400116,0.575589656829834,-0.1808360517024994,0.668530285358429,-0.11465976387262345,0.3952474594116211,-0.006629832088947296,0.5442907810211182,-0.11485365033149719,-0.7818504571914673,0.28019899129867556,0.49769794940948489,0.05815861374139786,0.12639722228050233,0.24174194037914277,0.16747255623340608,-0.39878493547439577,0.06248458847403526,-0.5496937036514282,0.10642758756875992,-0.30784934759140017,0.24622724950313569,-0.05189737305045128,-0.22556543350219727,-0.26901453733444216,-0.579949676990509,0.053450196981430057,-0.05071393772959709,-0.3616243898868561,0.08814852684736252,0.23369455337524415,0.16556577384471894,0.015222598798573017,-0.1084323301911354,-0.23996233940124513,0.35396936535835268,0.07561306655406952,-0.32383817434310915,-0.15905845165252686,0.04620611295104027,0.28656765818595889,-0.19384492933750153,0.5989184379577637,-0.15907135605812074,-0.5588391423225403,-0.08822169899940491,-0.5426514148712158,0.007847442291676999,-0.028141207993030549,-0.0201759971678257,0.5709143280982971,-0.3358130156993866,-0.046108417212963107,-0.23189672827720643,0.1578526794910431,0.4097468852996826,0.18327684700489045,0.609174907207489,-0.4265953600406647,0.5492285490036011,-0.37823882699012759,0.7814542651176453,-0.13367827236652375,0.06748168170452118,-0.06882274150848389,0.20767726004123689,-0.06643792986869812,0.5920284986495972,-0.09750690311193466,0.043373532593250278,0.08796988427639008,0.120376817882061,0.2553563416004181,0.40521299839019778,0.018430542200803758,0.40855252742767336,-0.20577748119831086,0.4617185890674591,0.3173849284648895,-0.05885104835033417,0.10060840845108032,-0.31745898723602297,0.031562309712171558,-0.1382400393486023,0.11391260474920273,-0.8464570045471191,0.3780059516429901,0.1860942393541336,-0.009703977033495903,-0.3032528758049011,0.17665301263332368,-0.5496604442596436,-0.4019198715686798,0.04541734233498573,0.3081439137458801,0.12998619675636292,0.024276433512568475,0.4257452189922333,0.386494517326355,-0.39599037170410159,0.07250726222991944,0.17307479679584504,0.28146058320999148,0.5153828263282776,-0.5352169871330261,-0.4882250428199768,0.07175693660974503,-0.2788362205028534,0.5104045271873474,0.4975079894065857,0.02930556796491146,0.17626558244228364,0.1833305060863495,-0.04324863478541374,-0.30612581968307497,-0.13336041569709779,0.01925809308886528,0.5743386745452881,0.118681900203228,-0.14421860873699189,-0.1329033374786377,-0.013279221951961518,-0.21887002885341645,-0.10035879164934159,0.665419340133667,-0.17365463078022004,0.8048325777053833,-0.6958587765693665,-0.09179242700338364,0.07557496428489685,-0.4491508901119232,0.09339843690395355,-0.09342055767774582,-0.7437205910682678,0.5289352536201477,-0.31441906094551089,-0.15238438546657563,-0.14825904369354249,0.036443158984184268,0.019135991111397744,0.374502032995224,0.24751654267311097,-0.6549837589263916,0.5509369373321533,0.5154644846916199,-0.16914165019989015,0.4275210201740265,-0.178386852145195,-0.09507771581411362,-0.04593818634748459,-0.290968120098114,-0.44505032896995547,0.19778324663639069,-0.5984191298484802,-0.38517725467681887,0.29540249705314639,-0.03320033475756645,0.18982431292533875,-0.41896122694015505,0.0034118187613785269,0.2502385377883911,-0.296227365732193,-0.1323414295911789,-0.14710073173046113,-0.21610695123672486,-0.68239426612854,0.3897816240787506,0.3521359860897064,-0.4704630672931671,-0.27763357758522036,-0.29683321714401247,-0.06085890531539917,-0.30722764134407046,-0.3214500844478607,-0.22129127383232118,0.4174123704433441,0.4896695613861084,-0.062513567507267,-0.29161566495895388,-0.8304057121276856,0.4995063841342926,0.06280653923749924,0.30015629529953005,0.5999343991279602,0.7154573202133179,-0.11363211274147034,-0.2514525055885315,0.20805220305919648,-0.1925293207168579,-0.02944602258503437,-0.29809263348579409,-0.21250607073307038,0.2915242314338684,-0.5129407644271851,0.1443282961845398,0.4675352871417999,0.014541378244757653,0.3142106533050537,-0.04783078283071518,0.14039848744869233,0.47378599643707278,-0.07639466971158982,0.042077627032995227,-0.27668479084968569,-1.236624002456665,0.05697587877511978,-0.5255787968635559,0.1310008019208908,-0.1624358594417572,0.40576186776161196,-0.07220514863729477,-0.022834399715065957,0.22619624435901643,0.23115037381649018,0.606899082660675,0.07518608123064041,-0.2219550609588623,0.17242339253425599,0.4266645312309265,-0.42030078172683718,0.18211956322193147,0.0027739014476537706,-0.3835306763648987,0.14727415144443513,-0.4734874665737152,0.009333132766187191,0.762969970703125,-0.1760113686323166,-0.5698556303977966,-0.06969048827886582,-0.04464380443096161,0.5025708079338074,0.18275585770606996,0.11258833855390549,-0.355154812335968,-0.6706128120422363,0.032129883766174319,-0.4041934311389923,-0.5287216305732727,0.6570863723754883,0.026035379618406297,-0.5046148896217346,0.16334110498428346,0.1658594161272049,0.26246604323387148,-0.466656357049942,0.38648027181625368,0.21733726561069489,0.03081360086798668,-0.15202312171459199,-0.3429547846317291,0.6942568421363831,0.028833262622356416,0.12607342004776,0.6156001091003418,0.1232777014374733,-0.21808262169361115,-0.3906092643737793,-0.15888750553131104,0.051413990557193759,-0.4284422695636749,0.03079076111316681,-0.2238185554742813,-0.06545569747686386,0.12845681607723237,0.2482466697692871,-0.20891878008842469,0.7231436967849731,0.19943256676197053,0.23266875743865968,0.5453246235847473,-0.13138748705387116,-0.5994248390197754,-0.47649869322776797,0.11639616638422013,0.3902714252471924,0.0254057627171278,0.38006681203842165,0.2530985176563263,0.48178353905677798,0.08949051052331925,-0.16816158592700959,0.42742791771888735,0.5162152647972107,-0.8371398448944092,0.0961817130446434,-0.39602503180503847,0.5276331305503845,-0.08797077089548111,0.16642852127552033,0.47334975004196169,0.5033583045005798,0.11784425377845764,-0.041780561208724979,-0.2786467373371124,-0.19077830016613007,0.046166423708200458,-0.5786770582199097,0.09551401436328888,0.10574080049991608,0.47655925154685976,-0.34556955099105837,-0.5304951667785645,0.0812138170003891,-0.4074699580669403,0.5033625960350037,0.08165791630744934,-0.4319826066493988,0.3678007125854492,0.07315206527709961,0.2969706952571869,0.2685539126396179,0.300910621881485,-0.3451164662837982,0.5100541114807129,0.24544554948806764,-0.37737345695495608,-0.44382980465888979,0.4811992943286896,-0.6540674567222595,-0.09867911785840988,0.6531341671943665,-0.6300346851348877,0.33754920959472659,0.24804270267486573,0.489810585975647,-0.19395564496517182,-0.16736479103565217,0.47887948155403139,-0.28929808735847475,-0.44169318675994875,0.4824349582195282,0.13244180381298066,0.1362065076828003,-0.6825931072235107,0.047838009893894199,-0.8318980932235718,0.06693818420171738,-0.167998805642128,-0.2948436737060547,0.2569878101348877,-0.14281204342842103,-0.6135535836219788,0.13216851651668549,0.39868152141571047,0.3726188540458679,0.13494908809661866,0.5155288577079773,0.13795490562915803,-0.0016135282348841429,0.10589434951543808,-0.28775501251220705,0.38005179166793826,-0.4038931131362915,0.10013964772224426,-0.3631560504436493,0.24318815767765046,0.0987672433257103,-0.24353881180286408,-0.17004522681236268,-0.24850988388061524,0.017706086859107019,-0.3616475462913513,-0.8568398356437683,0.2558363080024719,-0.44457483291625979,0.21176445484161378,-0.44886577129364016,-0.5013719201087952,-0.5709969401359558,-0.29274818301200869,-0.3044399917125702,0.6840160489082336,-0.32963648438453677,0.051004808396101,0.7826785445213318,-0.7036293148994446,0.04147542640566826,-0.26038098335266116,-0.18699948489665986,0.12566278874874116,-0.2135271281003952,-0.4702509045600891,-0.5251848101615906,0.02689649909734726,-0.4210914671421051,0.06855987012386322,0.6846401691436768,-0.39487922191619875,0.2993954122066498,-0.0122810835018754,-0.5781545639038086,-0.08147412538528443,-0.3421013653278351,0.20778360962867738,-0.047166354954242709,-0.551551878452301,0.20878683030605317,0.03307786583900452,0.053586140275001529,-0.33089882135391238,0.603125810623169,0.8859233856201172,-0.33920538425445559,-0.14732982218265534,-0.16840079426765443,0.6243611574172974,0.6509851217269898,0.2271745800971985,0.042133305221796039,0.5264455676078796,-0.38800156116485598,-0.18283484876155854,0.06585180759429932,-0.19457775354385377,-0.15991546213626862,0.21747562289237977,0.17205004394054414,0.4803159832954407,0.08483081310987473,-0.40904173254966738,0.3290192782878876,0.010156474076211453,-0.6591415405273438,-0.5050652623176575,-0.5498121976852417,0.3996008336544037,0.9539812803268433,0.43613553047180178,-0.17599497735500337,-0.227370947599411,-0.1287895143032074,-0.002001904882490635,0.47321057319641116,0.4049781858921051,-0.048230383545160297,-0.1781749427318573,0.507014274597168,-0.4524139165878296,0.14462719857692719,-0.5308395028114319,-0.3347451388835907,0.01797657273709774,0.22510741651058198,-0.09080466628074646,0.6251476407051086,-0.28834331035614016,-0.4934319257736206,-0.46186786890029909,0.19017161428928376,0.19022753834724427,0.18454770743846894,0.530072808265686,0.8159905672073364,0.1333674192428589,-0.4006791114807129,0.08275789022445679,-0.006246701814234257,-0.1252395510673523,-0.12817859649658204,-0.39696288108825686,0.00810210220515728,-0.2978498637676239,-0.039420608431100848,-0.12118197232484818,-0.4036380648612976,0.2919349670410156,-0.379262238740921,-0.316437304019928,0.24972012639045716,-0.38669073581695559,0.0756651759147644,0.27135321497917178,0.308375746011734,-0.48592546582221987,0.027126386761665345,-0.3966583013534546,0.7502352595329285,0.028000356629490854,0.2803899347782135,-0.19399365782737733,-0.16327445209026338,-0.06562788784503937,-0.23643554747104646,-0.31471699476242068,-0.13676166534423829,0.4675653874874115,-0.5711698532104492,0.21292658150196076,-0.24089950323104859,0.3968062400817871,0.03574991971254349,-0.18484623730182649,-0.31388819217681887,-0.4406895339488983,-0.06084985285997391,-0.14394551515579225,0.3110274076461792,-0.19947142899036408,0.03827658295631409,-0.048129573464393619,0.17727699875831605,-0.12497451901435852,-0.00504651851952076,0.20950627326965333,-0.2527931034564972,-0.2341422140598297,0.16595233976840974,0.4926232099533081,-0.08890576660633087,0.015719540417194368,-0.4005535840988159,-0.5612374544143677,0.39815396070480349,0.3127420246601105,-0.6330772638320923,0.11727513372898102,-0.047192301601171496,0.02020333893597126,0.22016586363315583,-0.09375918656587601,-0.010728612542152405,-0.2879059612751007,0.14859507977962495,-0.21956172585487367,0.20319640636444093,-0.13946646451950074,-0.019134627655148507,-0.5106076598167419,-0.2712710499763489,0.4642391800880432,0.11050968617200852,0.15001797676086427,-0.6198851466178894,-0.049230143427848819,-0.12319362908601761,-0.5423405170440674,-0.3771444261074066,-0.41130828857421877,0.47513359785079958,0.6553671956062317,-0.16662651300430299,-0.3663979172706604,-0.602240264415741,0.8394216299057007,0.42187678813934328,0.5115593075752258,-0.13149787485599519,0.42030465602874758,0.4023081362247467,-0.6678284406661987,0.028838898986577989,0.10202666372060776,0.6050201654434204,0.4217582643032074,0.294257789850235,-0.2989632785320282,-0.44706451892852785,-0.3209034502506256,0.01211101096123457,0.5680872797966003,-0.16111859679222108,0.0891062319278717,-0.593303382396698,-0.2834734320640564,-0.5245725512504578,-0.021274147555232049,0.07994727790355683,-0.1593150943517685,-0.8004997372627258,-0.40328240394592287,0.6349548101425171,0.14366775751113892,-0.06449364125728607,-0.2381967157125473,-0.11425021290779114,0.1271197348833084,0.15216533839702607,-0.06678055226802826,0.4350524842739105,-0.6379914879798889,0.04664051532745361,-0.1949727088212967,-0.3681536614894867,-0.46612444519996645,0.5559644103050232,-0.7858768105506897,0.6840749979019165,-0.24389435350894929,0.11697755008935929,-0.16011923551559449,-0.42391255497932436,0.4395466446876526,0.04158933088183403,-0.3192497491836548,-0.21035492420196534,-0.15628351271152497,-0.6889951229095459,-0.08061034977436066,-0.5422648191452026,-0.3724479377269745,0.21278782188892365,-0.2532293200492859,-0.14913694560527802,-0.5121985673904419,0.3394055664539337,0.08738454431295395,0.023928077891469003,-0.351029634475708,-0.3620469272136688,0.12342389672994614,-0.051990848034620288,0.020910631865262986,-0.1469801515340805,-0.3610343337059021,0.012493439018726349,-0.043748073279857638,0.591383159160614,-0.0031225327402353288,0.4535219669342041,0.23166199028491975,-0.6811262965202332,-0.26048898696899416,-0.0012915392871946097,-0.008954191580414772,0.1709131896495819,0.1290103793144226,-0.43738651275634768,-0.43151700496673586,0.22476451098918916,-0.06644496321678162,-0.5400602221488953,0.2906878590583801,-0.2779482901096344,-0.21139828860759736,-0.6356175541877747,-0.42059996724128725,-0.4365769922733307,-0.33566951751708987,-0.8381302356719971,0.3028337359428406,0.25394347310066225,0.01129019632935524,-0.2603216767311096,0.27143892645835879,-0.17100970447063447,-0.12666882574558259,-0.39369192719459536,0.36835989356040957,-0.3228762447834015,-0.1194162517786026,0.9726676344871521,-0.16788633167743684,-0.20969422161579133,0.004457387141883373,-0.9144138097763062,0.019176872447133066,-0.434483140707016,-0.03507981449365616,-0.22361236810684205,-0.4444400370121002,0.4874922037124634,-0.15210404992103578,-0.5354646444320679,-0.19262076914310456,0.36823901534080508,-0.3001553416252136,0.07658420503139496,-0.5389407277107239,-0.0016146398847922683,0.31285277009010317,0.018734615296125413,0.4101462960243225,-0.21587738394737245,0.3031356632709503,-0.32966363430023196,0.6313179731369019,0.370177298784256,0.19318526983261109,-0.009396311827003956,0.1699618399143219,-0.33788466453552248,-0.28632625937461855,0.3225857615470886,-0.5718045234680176,-0.42204326391220095,-0.5088194012641907,-0.41052934527397158,1.011212944984436,-0.03677816689014435,0.24798035621643067,-0.5996071100234985,-0.041944991797208789,0.5928995013237,-0.1471274048089981,0.48603710532188418,-0.27140480279922488,0.21769554913043977,1.0010467767715455,0.12912294268608094,-0.5098116397857666,0.323576956987381,0.00851457379758358,-0.13794751465320588,-0.49869728088378909,-0.359480082988739,0.7183867692947388,0.11527823656797409,-0.5529257655143738,-0.595943033695221,-0.1342383176088333,-0.3051542639732361,0.17715299129486085,0.02039608731865883,0.22545595467090608,-0.05696572735905647,-0.8560347557067871,0.19022777676582337,0.5755149126052856,0.4261651635169983,0.7177770733833313,-0.40207716822624209,-0.7117078900337219,-0.23101334273815156,0.7480061650276184,0.4963032603263855,0.4235517084598541,-0.5612016916275024,-0.10788802057504654,0.280827134847641,0.22492584586143495,-0.09139914065599442,-0.49731406569480898,-0.14029215276241303,0.37982386350631716,-0.34552937746047976,-0.44063422083854678,-0.6220030188560486,0.3870195746421814,-0.6373564600944519,-0.03525867685675621,0.21441631019115449,-0.21309566497802735,0.2971762716770172,0.4190642833709717,0.026724664494395257,-0.4065423607826233,-0.47941169142723086,0.23181521892547608,0.12334784865379334,0.1604558825492859,-0.2938445806503296,0.25920775532722475,-0.15906383097171784,-0.1440727263689041,0.054146431386470798,0.3076987564563751,0.511027991771698,0.3211490213871002,0.2828558087348938,0.40138208866119387,-0.39329665899276736,-0.3728220760822296,-0.4567672908306122,0.26789766550064089,-0.4715261161327362,-0.3394395112991333,-0.13343578577041627,0.5264503359794617,0.3979022204875946,0.23398908972740174,0.24917493760585786,-0.2918807864189148,0.19608527421951295,0.14361964166164399,-0.1869892030954361,-0.5789740681648254,0.31959491968154909,-0.5180872082710266,0.05348653346300125,-0.20364634692668916,0.12260781228542328,-0.37206101417541506,-0.09886865317821503,0.27879971265792849,-0.501899003982544,-0.21325935423374177,-0.03350938856601715,0.3943701684474945,0.14960718154907227,0.18486356735229493,-0.06759656220674515,-0.25706395506858828,0.13074891269207,-0.05271470174193382,-0.1925973743200302,-0.352311909198761,-0.32511141896247866,0.15258225798606873,-0.3334747552871704,0.5379562973976135,0.36591583490371706,-0.5128999948501587,-0.0957629606127739,0.44870153069496157,-0.16872109472751618,0.6303802728652954,-0.8152204155921936,1.0068089962005616,-0.21070562303066255,-0.13810305297374726,0.024874120950698854,0.008799426257610321,-0.2724199593067169,0.1385302096605301,0.12132371217012406,-0.557868480682373,-0.17835696041584016,-0.27346548438072207,-0.2567211985588074,0.10144881904125214,0.4023559093475342,0.8805811405181885,-0.45166629552841189,0.7178575396537781,0.15270240604877473,0.3041136860847473,0.07941760122776032,0.12720632553100587,0.027612194418907167,-0.19540230929851533,0.04742523655295372,-0.06696265190839768,0.2947388291358948,0.30217641592025759,0.392930269241333,0.2001921683549881,-0.45638343691825869,-0.24237661063671113,0.2856775224208832,0.5551849007606506,-0.2505112886428833,-0.1680372953414917,0.2708626091480255,0.32331183552742007,0.16959159076213838,-0.48613283038139346]},"biases":[-0.07242386043071747,0.3436848223209381,0.18987682461738587,-0.2173510193824768,0.07296213507652283,0.17444616556167603,-0.2667073905467987,0.44766148924827578,0.27218252420425417,-0.021383479237556459,-0.006971446797251701,0.18713515996932984,-0.5450199246406555,0.3595210909843445,-0.5629853010177612,0.5388286113739014,0.01865513250231743,-0.300274133682251,0.1966797113418579,-0.0337054580450058,-0.4191499650478363,-0.3933175504207611]},{"neurons":[-0.6932340860366821,-0.9462738633155823,-0.5653285384178162,-0.9686484336853027,-0.8728377819061279,-0.08920784294605255,0.6223416924476624,0.19927068054676057,0.8500950336456299,-0.6729742288589478,-0.9910575747489929],"weights":{"rows":11,"cols":22,"data":[0.027263224124908448,0.3600192070007324,1.1496565341949463,0.1265663206577301,0.4927012026309967,0.26586201786994936,-0.10172327607870102,0.6426368951797485,0.8712199926376343,0.26236891746520998,-0.0535423718392849,0.6217313408851624,0.3015860617160797,-0.47687944769859316,0.3853083848953247,-0.034326642751693729,0.002466798759996891,-0.36715856194496157,-0.193204864859581,0.12947411835193635,-0.6405476927757263,0.386875718832016,-0.5447795987129211,-0.7172440886497498,0.5923211574554443,0.28225454688072207,-0.015841169282794,-0.34980344772338869,-0.1557566076517105,0.7775888442993164,-0.39204370975494387,0.9024479389190674,-0.4003639221191406,0.7651408910751343,-0.4322417378425598,-0.10573314130306244,0.0026556304655969145,0.6547855138778687,-0.5102039575576782,0.33643639087677,0.33493083715438845,0.205616295337677,0.155449777841568,0.7297909259796143,0.1327476054430008,-0.016445623710751535,-0.046286676079034808,0.2646105885505676,-0.2228255271911621,-0.043631721287965778,0.24920961260795594,-0.38266509771347048,-0.1438634991645813,-0.0790473222732544,-0.03039710223674774,-0.09525765478610993,-0.4543834626674652,-0.2557842433452606,0.022461917251348497,0.2812769114971161,-0.080563984811306,0.4454689919948578,-0.09654141962528229,0.5398052930831909,-0.03589096665382385,0.005181543063372374,0.18395765125751496,-0.6142780184745789,-0.05990782752633095,-0.1818247139453888,0.08427806943655014,-0.674876868724823,0.5545450448989868,0.45130717754364016,-0.38685381412506106,0.22870473563671113,-0.03504882752895355,0.32943975925445559,0.6948100328445435,0.3550140857696533,-0.4777391850948334,-0.6921992301940918,-0.6546356678009033,-0.3379260003566742,-0.7742844820022583,-0.04053936153650284,0.07474914193153382,0.170388862490654,0.541637122631073,-0.32079651951789858,-0.38668930530548098,-0.29156386852264407,-0.06757485866546631,0.7092716693878174,0.31145045161247256,-0.05803593248128891,-0.896210253238678,0.24119338393211366,0.21908172965049745,0.0872112587094307,0.02441558800637722,0.059750426560640338,-0.5268919467926025,0.00005311974018695764,-0.5138353109359741,0.30764302611351015,0.7106173634529114,0.1654784232378006,0.04394097626209259,0.13592123985290528,-0.0670565664768219,-0.6729422807693481,0.48542267084121706,0.6546192765235901,-0.520599901676178,0.1992027908563614,-0.4296368360519409,0.22293831408023835,-0.5324757695198059,-0.2215900719165802,0.0014070826582610608,0.44284364581108096,0.4859354794025421,-0.24743878841400147,0.6138894557952881,0.7295036315917969,0.1579361855983734,-0.08045226335525513,0.0669717788696289,-0.2450626939535141,0.11878445744514466,0.07937539368867874,-0.3473024070262909,-0.299905389547348,0.12110616266727448,0.38721567392349245,0.13394074141979218,0.2510865032672882,0.11342447251081467,0.6307225227355957,0.20288366079330445,0.3910825848579407,-0.5272414684295654,0.34787407517433169,0.112407386302948,-0.8286425471305847,-0.42327168583869936,-0.02716323360800743,-0.011537834070622921,0.5073333978652954,-0.0023299118038266899,-0.3884638547897339,0.16015009582042695,-0.1951887011528015,-0.4841068685054779,-0.4295596480369568,0.7090519666671753,0.5575191974639893,0.5817511081695557,-0.11326433718204498,-0.035171207040548328,0.3391488790512085,0.5318105816841126,-0.49979209899902346,0.0959867611527443,0.09938511252403259,-0.28948014974594118,-0.7084230780601502,-0.8057941794395447,0.5756592750549316,-0.23573224246501923,0.29400715231895449,0.20006826519966126,-0.32476210594177248,-0.15474821627140046,-0.2523207366466522,-0.11942654103040695,1.351907730102539,-0.37530407309532168,0.3024798631668091,-0.15828149020671845,-0.3777497410774231,-0.4714091420173645,0.051497332751750949,-0.5252330899238586,-0.16043315827846528,0.3060642182826996,-0.2347731739282608,0.15126927196979524,-0.43473148345947268,-0.5418409705162048,0.5796903967857361,0.34178242087364199,0.006995801813900471,-0.6043705344200134,0.08032391965389252,-0.07541366666555405,-0.05322239175438881,0.3452841341495514,0.1989879608154297,-0.8513917326927185,0.4432430863380432,-0.38359642028808596,-0.8198142647743225,-0.02324124611914158,-0.30979853868484499,-0.12791232764720918,-0.29019635915756228,0.3135867416858673,0.4609675109386444,0.6283451914787293,-0.015994636341929437,-0.7045711278915405,-0.0349959135055542,-0.4360157251358032,-0.47505754232406618,-0.31865522265434267,0.42837005853652956,0.4506028890609741,0.3208329975605011,0.7334775924682617,-0.16350865364074708,-0.07397693395614624,0.1738927960395813,0.9172462821006775,-0.2685905694961548,1.0503370761871338,-0.26264554262161257,0.025354821234941484,0.5555807948112488,0.26089608669281008,-0.4631060063838959,0.30081868171691897,-1.0617690086364747,-0.16561934351921082,-0.28531017899513247,0.44278448820114138,0.5713648796081543,-0.02341332659125328,0.842068612575531,0.06414201110601425,-0.23576951026916505]},"biases":[0.07909651845693588,-0.2405189722776413,-0.24343162775039674,-0.6809259057044983,-0.0004807378863915801,0.009550085291266442,0.8311799168586731,-0.3075357973575592,0.1950651854276657,-0.28499314188957217,-0.37291857600212099]}],"seed":535423243}