{"layers":[{"neurons":[-0.9728401303291321,0.7534958720207214,0.9070559144020081,-0.7451503276824951,0.999617338180542,-0.9600904583930969,-0.9994951486587524,0.32575592398643496,-0.9998536109924316,-0.993497371673584,-0.9995484352111816,-0.9997860789299011,0.9813960194587708,-0.7979795336723328,0.9999794960021973,0.9109848737716675,-0.999737560749054,0.6866186261177063,-0.98966383934021,-0.9519249796867371,0.9933356642723084,-0.6346794962882996,-0.4876777231693268,0.9997659921646118,-0.4143068194389343,0.9995447993278503,0.999202311038971,0.999022364616394,-0.9899066090583801,-0.9326819777488709,-0.9918677806854248,-0.9188745617866516,-0.950409471988678,-0.346047967672348,0.9964886903762817,0.9850737452507019,0.9523402452468872,0.9978244304656982,-0.9997349381446838,0.9982083439826965,0.9997477531433106,0.9265346527099609,0.8955906629562378,-0.5587397813796997],"weights":{"rows":44,"cols":22,"data":[1.4434075355529786,-0.5399658679962158,0.6414604187011719,0.10480955988168717,0.6759272217750549,-0.4578010141849518,1.3488123416900635,1.2444112300872803,-0.22562316060066224,0.5603291988372803,0.14436396956443788,-0.2821071147918701,-0.29208770394325259,1.662238597869873,0.21580450236797334,0.6530135273933411,-2.0470776557922365,1.2625312805175782,0.8100916147232056,0.8131024837493897,-0.44454696774482729,-0.6035762429237366,1.0119807720184327,0.2521599531173706,-0.03052903339266777,-1.328259825706482,1.3645740747451783,0.5912367105484009,0.6592168807983398,1.0160131454467774,-1.3829606771469117,-0.2624908685684204,-0.5053035616874695,-0.06674155592918396,0.5679588913917542,-0.17605891823768617,-0.809558629989624,-0.191265270113945,0.06702923774719238,1.2947970628738404,-0.3682529330253601,-1.1907603740692139,1.1718716621398926,0.44010454416275027,-0.1980186104774475,-0.6403752565383911,-1.3806970119476319,0.40330973267555239,-0.8968896865844727,-0.3699590861797333,0.25405994057655337,-0.9539989829063416,-1.2500532865524293,1.5042442083358765,-0.8805871605873108,0.1979370266199112,-2.211547374725342,-0.09083978831768036,-0.4386597275733948,0.3527314066886902,-0.6565507650375366,0.4314666986465454,-0.29669785499572756,0.3224903345108032,0.4993664622306824,-0.2509506344795227,0.10749185085296631,0.41634401679039,0.09211039543151856,0.02142965793609619,0.45846161246299746,2.053295373916626,2.0805530548095705,0.9724146127700806,0.456234335899353,-0.44106703996658327,-2.0728161334991457,0.3275066912174225,1.0511696338653565,-0.2935006022453308,-0.8452233076095581,0.6921535730361939,1.2527450323104859,0.133256196975708,-0.7750473618507385,0.6059013605117798,0.056932784616947177,-1.1883573532104493,0.8916457295417786,0.34585604071617129,-0.31746700406074526,0.9389737844467163,0.023749275133013727,1.3246936798095704,-2.2822210788726808,0.2801012396812439,0.189207062125206,0.0717022716999054,-0.22933562099933625,-1.2506616115570069,-1.0815668106079102,0.714352011680603,0.22162161767482758,0.0810125470161438,-1.0511220693588257,-0.7349637746810913,-0.27025243639945986,-0.9911603331565857,-0.600210964679718,-0.4258154630661011,-0.39931365847587588,0.2150760293006897,0.22957628965377809,-0.566946268081665,0.3484188914299011,-2.9467830657958986,-0.10766318440437317,0.5479709506034851,0.3062249720096588,-0.2781972587108612,-0.606660783290863,-1.181557297706604,0.8976467251777649,-1.7519285678863526,-0.47323641180992129,0.8753174543380737,-0.2859293818473816,-0.3858588933944702,-0.20113074779510499,0.18953704833984376,-1.7465157508850098,0.23063817620277406,1.0059938430786133,1.3446927070617676,1.021842122077942,-0.006722461897879839,0.10384687781333924,-0.6597258448600769,0.6046352386474609,-0.11612728238105774,-0.0026425060350447895,0.5230007171630859,0.7510254383087158,-0.18027415871620179,-0.33142709732055666,-0.6731765270233154,-0.25419294834136965,-0.19438119232654572,-0.5518026947975159,-0.043662458658218387,0.2371625304222107,0.9836215972900391,0.3548509478569031,-1.750468134880066,1.157233715057373,-1.2520344257354737,0.8072418570518494,0.5610973834991455,-0.8570336103439331,0.3099231719970703,-0.07334147393703461,0.7551316022872925,-0.35427314043045046,-1.0970033407211304,1.6927047967910767,0.4827252924442291,0.90826815366745,0.5629836916923523,-0.5882188677787781,0.3386281430721283,0.39207613468170168,0.024356722831726075,-0.1194392517209053,-1.2808012962341309,-0.7690427303314209,-0.586245059967041,0.7108564972877502,0.12707272171974183,-0.7013422250747681,0.47914552688598635,-0.18532410264015199,-0.7128519415855408,0.367136687040329,0.5498971939086914,0.31445422768592837,1.0004994869232178,-0.9878978729248047,0.9021079540252686,-0.7457976341247559,-0.36629024147987368,-0.16628213226795197,-0.27714720368385317,-1.6178454160690308,0.5828830003738403,-0.42275768518447878,-0.6244006156921387,0.5408961772918701,-2.29964017868042,-0.9139922261238098,1.1673895120620728,-0.5150070786476135,-0.018700961023569108,0.6827079057693481,-1.5134878158569337,0.2969454526901245,1.1551649570465088,-1.4097121953964234,0.7002553343772888,0.21689820289611817,1.0860018730163575,0.47838500142097475,-0.09361866116523743,-0.47899165749549868,1.107545018196106,0.20146016776561738,1.1595197916030884,0.8344024419784546,-1.9451525211334229,0.5834341049194336,-0.3404481112957001,1.188918113708496,0.26834261417388918,-0.7517682909965515,0.6553058624267578,1.558553695678711,-0.23348741233348847,-0.2865868806838989,-0.7535198926925659,2.6555838584899904,0.5246974229812622,-0.4747799038887024,-0.14341269433498383,1.249351978302002,-1.1836824417114258,-0.9545312523841858,0.7790321707725525,1.094535231590271,0.22987382113933564,-1.2721335887908936,-1.2525155544281006,-0.6255269050598145,0.6595364809036255,-0.30684176087379458,0.4453616142272949,0.22239786386489869,2.1310782432556154,-0.3875710368156433,-0.7301777005195618,0.08801254630088806,-0.16563530266284944,0.38922423124313357,1.1493804454803467,-0.21624703705310822,1.6232640743255616,0.5520195364952087,-0.8945027589797974,-0.189994677901268,1.9760606288909913,-0.29936543107032778,0.1220160499215126,-0.3572942316532135,0.042414624243974689,-0.5271049737930298,0.15999555587768556,-0.28953373432159426,0.8411124348640442,0.022162441164255143,-1.656954288482666,-0.943081796169281,-0.9865722060203552,-2.3520755767822267,0.9114230871200562,1.0255571603775025,0.6044063568115234,0.19479161500930787,-0.10990296304225922,-0.4962248206138611,0.31780093908309939,0.04620929807424545,1.3291596174240113,-0.05547138676047325,-0.6745657324790955,-0.5739283561706543,-0.02213120460510254,0.9345437288284302,-0.6384531855583191,0.12893590331077577,0.09640750288963318,0.3170265853404999,0.618937611579895,0.48853200674057009,-0.6987923979759216,-0.979548990726471,-0.5459771752357483,-0.797787070274353,1.9693037271499634,0.11704063415527344,0.4339035153388977,0.7917729616165161,0.23542234301567079,-0.4294339418411255,-2.333376884460449,-0.3173162639141083,1.2266966104507447,-0.8813791871070862,0.34322720766067507,1.02797269821167,0.356960654258728,0.05733213201165199,-0.2756921350955963,0.19093112647533418,-1.7014670372009278,1.0261510610580445,-1.3395745754241944,-1.0314862728118897,-0.44856423139572146,-1.1534587144851685,-0.6902917623519898,-1.972116470336914,0.7345182299613953,-0.13343048095703126,0.36027708649635317,-2.533454418182373,0.20599454641342164,-0.24680770933628083,0.30714333057403567,-0.37149322032928469,-1.7237389087677003,-2.2987687587738039,0.14721664786338807,-1.8777341842651368,0.2635481655597687,-0.4039815664291382,-1.1009206771850587,1.4064971208572388,-1.1656668186187745,-1.2269189357757569,0.34561026096343996,-0.6740817427635193,0.16338860988616944,-1.183707356452942,-0.6186826229095459,0.38332563638687136,1.2264052629470826,0.8503815531730652,-0.3067997097969055,1.4063395261764527,-0.6589758396148682,0.5697137713432312,2.883199453353882,-0.14171428978443147,0.5868042707443237,-0.5978952050209045,1.5744516849517823,-0.03173588588833809,1.5944674015045167,0.8126229047775269,-0.13414302468299867,1.9690760374069214,0.9238089919090271,1.34098482131958,-0.8851999640464783,-1.423287034034729,-0.5375580787658691,1.6856712102890015,0.7073046565055847,0.7258665561676025,0.09054402261972428,-0.6114048361778259,0.5574008226394653,1.362184762954712,-1.166251301765442,0.4318786859512329,-0.5430033802986145,0.56859290599823,0.021469978615641595,1.4702435731887818,1.3479379415512086,0.9101349115371704,-0.4147319793701172,1.2025597095489503,-0.8290281891822815,-0.6787371635437012,0.009268704801797867,0.21425896883010865,-1.1460295915603638,-0.8463090658187866,1.449137806892395,-0.22472339868545533,1.5253262519836426,-0.4848674237728119,1.087730884552002,-0.09255918860435486,1.8307596445083619,1.1417531967163087,-0.5009629130363464,-2.107409954071045,-0.4159454107284546,0.5010671615600586,0.0453140027821064,0.5720595121383667,0.08015851676464081,0.5661025047302246,0.531633734703064,-0.29087597131729128,-0.7975229024887085,0.4966009855270386,1.2478187084197999,1.097436785697937,-0.8053807020187378,-0.20158231258392335,0.6173244118690491,0.9072123765945435,-0.11736873537302017,0.3600842356681824,0.572823703289032,0.43288376927375796,0.5474745631217957,1.301650881767273,0.9460000991821289,0.9100120663642883,-1.0919620990753174,-1.4444152116775513,-0.1773694008588791,1.978464961051941,-0.23414801061153413,-0.8062615990638733,-0.6534794569015503,-0.6774659156799316,1.3423240184783936,0.7505539059638977,0.5918192863464356,0.4545116424560547,-0.04390205815434456,-0.01585674285888672,1.6976077556610108,0.11632949858903885,1.721320390701294,0.19732555747032166,0.03535761684179306,-0.07253650575876236,-0.002651011338457465,1.5627950429916382,0.14318472146987916,0.6882147789001465,-0.8257891535758972,0.7620177268981934,-2.4331448078155519,-0.42844584584236147,-0.9538516402244568,0.19695836305618287,-0.6333175301551819,-1.284570336341858,0.7661830186843872,0.7283143401145935,-1.2897144556045533,-0.46919915080070498,-0.11597707867622376,0.27511656284332278,0.8850308656692505,0.42010387778282168,1.051045298576355,1.3709657192230225,-0.16238416731357575,0.5347087383270264,0.3511424958705902,0.9556317329406738,-0.380193293094635,-0.5291289687156677,0.045645568519830707,0.3664652109146118,0.13063594698905946,0.4706765413284302,0.8433448076248169,-1.2242437601089478,1.296261191368103,-0.6779834032058716,0.09335476160049439,0.08381325006484986,2.016592025756836,0.926940381526947,-0.25173622369766238,0.32506147027015688,-0.21433569490909577,-0.2937527894973755,-1.0567355155944825,-0.9736918210983276,0.5132489204406738,0.11716796457767487,0.35177522897720339,-2.079686164855957,0.07364178448915482,1.7563728094100953,0.3493775427341461,1.1486928462982178,0.43885841965675356,0.6934695839881897,0.1474149078130722,-2.1847972869873049,0.5855953097343445,-0.9223134517669678,-0.036580175161361697,0.6386129856109619,-0.37328773736953738,-0.057502951472997668,1.2834138870239258,-1.1076492071151734,0.4962475895881653,1.181391954421997,-0.6644428372383118,-0.21431347727775575,-0.39384740591049197,-0.868241012096405,0.06826095283031464,-0.1204889565706253,-0.3489234149456024,0.8211574554443359,-1.4515342712402344,0.042460039258003238,0.6966781616210938,-1.8048158884048463,0.18469443917274476,-0.1481764018535614,-0.5982100367546082,0.004000643268227577,-0.054746855050325397,-0.9529233574867249,-1.25570547580719,0.3135741055011749,-0.7001042366027832,0.2569451332092285,0.040239930152893069,-1.1306012868881226,1.2865594625473023,0.8283821940422058,0.6941158175468445,-0.7355194687843323,-0.6110140681266785,0.5229429602622986,-0.3173579275608063,1.9356740713119507,-1.0799978971481324,0.5250565409660339,-0.9153389930725098,0.16559231281280518,-0.4013107419013977,-1.2440707683563233,-0.7341816425323486,-0.8311932682991028,0.19891953468322755,-1.3231022357940674,0.27888157963752749,0.32983464002609255,-1.4876289367675782,-1.4696468114852906,0.4134400486946106,-2.728663206100464,-0.18438582122325898,-0.08221614360809326,-0.5002516508102417,-0.9774420857429504,0.958014190196991,0.8222677111625671,-0.4656984210014343,0.47600263357162478,-2.1273038387298586,-0.6228653788566589,1.3301622867584229,0.8537096977233887,-1.439728856086731,0.19587022066116334,-0.9520443677902222,1.084497332572937,-1.2292033433914185,1.4870030879974366,2.1809585094451906,-1.5021486282348633,0.6138052940368652,-0.14555609226226808,-0.31102171540260317,0.10939893126487732,-0.07788755744695664,-1.7088017463684083,0.9348564147949219,0.6472792029380798,1.4879837036132813,0.1036791205406189,0.31533780694007876,0.8299060463905335,-0.2775264084339142,1.077534556388855,-0.1416870504617691,-1.4013261795043946,0.35008934140205386,-0.2995569109916687,-1.1444640159606934,0.048972684890031818,-0.9012069702148438,-0.4524790346622467,0.7434031963348389,-1.3536865711212159,0.04511011391878128,0.49574124813079836,-1.288398265838623,-0.1578764170408249,0.1260118931531906,-1.168886423110962,0.4167824685573578,-0.15002834796905518,-0.5185891389846802,0.9305305480957031,-0.03349708765745163,-0.06574057787656784,0.4951630234718323,-0.2942948639392853,-0.8722434043884277,0.22126369178295136,-0.2007928490638733,-0.5770596861839294,1.0226548910140992,-0.6926646828651428,0.7077931761741638,0.06568852066993714,0.22432458400726319,1.0709432363510132,-0.8486376404762268,0.26500725746154787,0.31934118270874026,0.2149134874343872,-1.0851906538009644,0.31274425983428957,0.08976534008979798,-0.9168553352355957,-0.11297991126775742,-0.1808987259864807,-1.3793222904205323,0.4111436605453491,-0.18699626624584199,-0.061745934188365939,0.7600781321525574,-1.181210994720459,-0.3242308795452118,0.9058983325958252,-0.9635366797447205,-0.2520553171634674,-0.1747399866580963,-0.4329524040222168,-0.20498678088188172,-0.5528801679611206,-0.3369580805301666,1.2560665607452393,-0.37942400574684145,0.649496853351593,0.9042420983314514,-0.37573015689849856,-0.06908337771892548,-0.24243351817131043,-0.8416193723678589,0.7085979580879211,0.5432364344596863,0.19352418184280396,0.3492008149623871,-0.4553295373916626,0.6889691352844238,0.649806022644043,0.34361910820007326,0.24654993414878846,-0.38877636194229128,1.6074211597442628,-0.05230426415801048,-0.7829660773277283,-0.9516667723655701,-0.32117757201194765,-1.2981996536254883,-0.4822348356246948,-0.18928448855876923,0.1872801035642624,-0.25712624192237856,-0.203236922621727,-0.0925426185131073,0.2822263836860657,0.06548316776752472,-1.0651555061340333,0.7528717517852783,-0.001621004194021225,-1.1179873943328858,1.0276460647583008,-0.08094185590744019,-0.6276042461395264,0.28910160064697268,0.15328606963157655,0.9625622034072876,0.9268869161605835,-0.4275680482387543,-0.20512455701828004,0.04995238780975342,-0.10740813612937927,1.853489875793457,0.03316110745072365,0.509155809879303,-0.3566334545612335,0.9698007106781006,0.32238781452178957,0.038670286536216739,-0.12822754681110383,-0.7274309396743774,1.057779312133789,0.38238656520843508,0.024676835164427758,-0.8468615412712097,0.8815297484397888,-0.36545291543006899,0.5123655200004578,-0.6908091306686401,-0.3520159125328064,-0.33344802260398867,1.2502856254577637,-0.039847999811172488,0.6184195876121521,0.12601187825202943,1.262502670288086,1.2543939352035523,0.44997984170913699,0.5002743601799011,0.01649576984345913,-1.4069480895996094,-0.6627528667449951,0.4089709520339966,-0.11342911422252655,1.2926241159439088,-0.7002213597297669,0.38802480697631838,-1.5517449378967286,1.2441699504852296,0.6288867592811585,0.1966889500617981,0.4166027903556824,0.1836847960948944,-2.0221762657165529,0.4326111674308777,-1.0510237216949463,0.36191266775131228,0.33029165863990786,0.332977831363678,0.9965710639953613,-0.10444475710391998,-1.1727283000946046,-1.3292760848999024,-0.10648083686828613,-0.26058927178382876,1.3813093900680543,-0.7969282269477844,-0.2700023651123047,1.3055343627929688,0.9261335134506226,0.3930310308933258,0.6020601987838745,1.3614716529846192,-1.2117712497711182,0.47592052817344668,-2.5165929794311525,-1.0758392810821534,-1.217626690864563,-0.998521625995636,0.3651372492313385,-0.5568109750747681,-0.058140575885772708,0.9360257387161255,0.5983333587646484,-0.39227181673049929,-0.47728538513183596,-1.389302134513855,0.848436713218689,-0.3630916476249695,-0.4935862123966217,0.050103820860385898,-1.619895339012146,-0.08053790777921677,-0.9432646036148071,-0.5348076820373535,0.3211454749107361,0.21488051116466523,0.2138020098209381,1.6097155809402466,0.43744969367980959,0.35400718450546267,0.8420504331588745,0.5040792226791382,-0.7060292363166809,1.3925318717956544,1.8498486280441285,-0.891974925994873,-0.08214396238327027,0.03195633739233017,-0.9205604195594788,-0.6532000303268433,-0.3261778950691223,0.3025931417942047,-0.4194478690624237,-0.8453503251075745,-0.33199191093444826,-3.1724090576171877,0.550022542476654,-1.004083514213562,0.3695574402809143,-0.04270246624946594,0.43380358815193179,0.47519004344940188,0.591854989528656,0.3375226557254791,0.26764246821403506,0.4521002173423767,0.018938865512609483,0.38527971506118777,0.29468822479248049,-1.7826489210128785,0.9734867811203003,-0.5560449957847595,-0.4337315559387207,1.1371136903762818,-0.13472115993499757,0.017450829967856408,-0.23268136382102967,1.2862054109573365,-0.9108004570007324,0.6263586282730103,-0.8545029759407044,-0.9991433620452881,-1.6133718490600587,0.5759047865867615,0.864780843257904,-0.5876893401145935,-0.10922776907682419,1.016592264175415,-0.26714998483657839,0.7581441402435303,-0.917859673500061,-0.8364635109901428,-1.1608200073242188,0.781596839427948,0.09267186373472214,-0.0009326326544396579,1.0955395698547364,-0.3852531611919403,0.3526921272277832,-0.45953017473220827,-0.7854526042938232,1.9606415033340455,1.388607144355774,0.5183998942375183,1.9800457954406739,0.2576653063297272,-0.4040738344192505,0.5923946499824524,-0.594118058681488,0.955791175365448,0.8298640251159668,0.9419269561767578,0.6753278970718384,0.6721494793891907,1.343597412109375,-0.1593574732542038,-0.5697080492973328,0.194275364279747,-0.8386520147323608,0.2972918152809143,-0.9634391069412231,-1.1850165128707886,0.8869268298149109,-0.2149202972650528,-0.9083777666091919,0.39687564969062807,-0.2851702570915222,0.29219120740890505,-0.8126247525215149,-0.423183798789978,0.46905431151390078,-0.34422409534454348,-0.2719307243824005,0.8559375405311585,-0.6070621609687805,-0.9401410818099976,0.8371366858482361,-0.8297040462493897,0.16026464104652406,-0.08854116499423981,-0.6968787908554077,-1.2459138631820679,-0.2280455082654953,-0.7789325714111328,1.1183403730392457,-0.3337022364139557,0.6631951332092285,1.4223171472549439,-0.7101908922195435,-0.29287204146385195,0.5988544821739197,0.3725167214870453,0.6264397501945496,-2.4988956451416017,1.8786404132843018,0.607615053653717,1.2147314548492432,0.8307191133499146,0.612172544002533,0.050233393907547,0.9427087903022766,0.29718735814094546,-0.718652069568634,-0.7300277352333069,-0.8005706667900086,0.7884576916694641,0.40293240547180178,0.6648582816123962,-0.5841562747955322,-0.9081978797912598,0.5291637182235718,0.6741029620170593,0.2723102569580078,0.12202396243810654,0.014321449212729931,0.6010664105415344,-0.9813283085823059,-0.7737855315208435,0.20184169709682465,0.2830122113227844,-0.41582104563713076,0.9913437962532044,0.517528235912323,0.14166852831840516,1.0280921459197999,0.309253990650177,-0.08621113002300263,-0.9633157849311829,-1.5698761940002442,-0.4326029121875763,-0.2555079758167267,-0.37204328179359438,-1.9590308666229249,-0.1561194658279419,-0.8148446679115295,-1.7145609855651856,-0.5909866094589233,-0.6371595859527588,0.06639599055051804,-0.31462347507476809,1.1984763145446778,-0.2199416160583496,-0.29276302456855776,-0.8234143257141113,0.5661163330078125,-0.5908227562904358,0.8413299918174744,1.2179608345031739,-1.2129650115966797,-0.23684671521186829,0.5671958923339844,0.24450494349002839,-0.39379534125328066,1.2988457679748536,0.16495460271835328,-0.7033981084823608,-1.9806785583496094,-0.19290806353092194,1.2774657011032105,0.4105192720890045,-0.17072850465774537,0.9158132076263428]},"biases":[0.688086211681366,-0.21455861628055573,0.025289326906204225,0.2618202567100525,0.34399113059043887,-0.3844640254974365,-1.2823140621185303,0.3635146915912628,-1.2868218421936036,-0.6016128659248352,-0.6984016299247742,-0.48078808188438418,0.889201283454895,-0.021542305126786233,-0.8384080529212952,-1.3723434209823609,0.5870296955108643,0.520003616809845,-1.297155737876892,0.5448659062385559,-0.8091436624526978,-1.0014476776123047,0.9871228337287903,1.5496104955673218,0.8230912685394287,1.3245735168457032,0.38865870237350466,-0.4884774684906006,0.07813254743814469,-0.25905996561050417,-1.570762276649475,-0.5522851943969727,0.12956945598125459,-1.5028557777404786,-0.23258285224437715,-1.3480623960494996,0.31815439462661745,-0.96547532081604,0.2960217595100403,-0.6236336827278137,0.01133769005537033,1.3350356817245484,-0.15800490975379945,-0.051794081926345828]},{"neurons":[0.99791020154953,-0.9980084896087647,0.9974920749664307,0.15349799394607545,0.9999212026596069,-0.9973195195198059,0.9999999403953552,-1.0,1.0,0.9999999403953552,-0.9999907612800598,-0.9177596569061279,-0.9999994039535523,-0.9999996423721314,-1.0,-1.0,0.9999963045120239,0.9999998807907105,1.0,-0.9993884563446045,-0.29421892762184145,-0.9999865889549255],"weights":{"rows":22,"cols":44,"data":[0.6351195573806763,0.5286919474601746,0.023488633334636689,0.41069483757019045,-1.2233631610870362,1.3721016645431519,1.8347972631454468,-0.3470602035522461,0.6675741076469421,-1.146256685256958,-0.5375584363937378,1.7387021780014039,0.7542662620544434,-1.3787235021591187,0.45381852984428408,-0.554090678691864,-0.3097307085990906,0.13206882774829865,-1.4193342924118043,-1.9652315378189088,-1.1534208059310914,0.1533822864294052,-0.13894429802894593,-0.46311789751052859,-0.7636993527412415,0.4590221047401428,1.6149225234985352,-0.8989101052284241,-0.010182405821979046,-0.5717876553535461,-1.7201110124588013,-1.5673795938491822,-0.8473668694496155,0.0707465261220932,-0.8701707124710083,-0.394400417804718,-0.1385948210954666,-0.5617696046829224,-0.7195543050765991,-0.047741733491420749,-0.725092351436615,-0.08094260096549988,0.9196203351020813,-0.08461642265319824,1.2345393896102906,-0.2740967273712158,1.1387962102890015,1.3075748682022095,1.3683912754058838,-0.4863734245300293,1.1919771432876588,-0.7534981966018677,-1.118998408317566,0.8856931924819946,1.6795856952667237,-1.1461765766143799,-0.4881172478199005,0.6562612056732178,-0.6446707844734192,-1.3879799842834473,-0.3008572459220886,0.9830187559127808,-1.2180408239364625,-0.5274901986122131,-0.5210269689559937,0.5337246060371399,1.690854549407959,-0.16348859667778016,0.21004129946231843,0.3946514427661896,0.7931810617446899,2.5807125568389894,2.447550058364868,1.9354420900344849,0.1258448213338852,-2.414712429046631,-0.43386077880859377,-0.2758696675300598,-0.16613194346427918,-1.1011258363723755,0.48730748891830447,0.05433395132422447,0.21733704209327699,-0.9869338274002075,0.9899247884750366,0.22274327278137208,-0.3732020854949951,1.1745809316635132,0.8559137582778931,0.7207377552986145,0.8886798620223999,-0.5684590339660645,2.169987678527832,0.4699532687664032,1.0601497888565064,-1.3676209449768067,-0.48122990131378176,-0.024542391300201417,-0.345492959022522,-0.28684037923812868,-1.484858512878418,0.4804024398326874,0.024829169735312463,0.5471299290657044,-1.322509527206421,1.3369479179382325,0.018776528537273408,0.7649624347686768,-0.2433786690235138,0.7809236645698547,-0.9695973992347717,-0.06691394746303559,-1.164793610572815,0.07208579778671265,-0.2490244209766388,0.9699997901916504,-0.24938951432704926,-0.08277381956577301,-0.10316094011068344,0.18125763535499574,1.4127293825149537,1.767218828201294,0.15381582081317902,-0.3282025158405304,0.6372035145759583,-0.1857011914253235,-0.6759120225906372,0.2033444494009018,1.273239254951477,0.41835078597068789,-0.6411870121955872,1.2174630165100098,-0.31437239050865176,0.5275211930274963,-0.9387274384498596,1.7975037097930909,1.1389292478561402,-0.46376553177833559,-0.4764377474784851,-0.8471724390983582,0.3996284008026123,-1.8022687435150147,-0.07465052604675293,-0.4274890422821045,-0.6954314112663269,1.0189963579177857,0.6786131262779236,0.23431295156478883,-0.3371175527572632,0.3656448423862457,0.7520476579666138,-0.17781145870685578,-0.7099186778068543,-0.46114078164100649,1.2199174165725709,-0.04482489079236984,0.1257099211215973,0.9236913323402405,-0.5286616683006287,0.005173868034034967,-0.6701412200927734,1.1345643997192383,0.6863091588020325,1.1752957105636597,-0.41724902391433718,-0.48502102494239809,0.03579853102564812,-0.6990920901298523,0.8701817989349365,-1.1426022052764893,0.03545795753598213,-0.7366295456886292,0.6637003421783447,0.045045748353004459,0.2426351010799408,-0.14574545621871949,-0.36651960015296938,-0.045119818300008777,1.2723394632339478,0.6553857326507568,0.030368182808160783,-0.8818367123603821,0.5289589166641235,-0.8892170786857605,0.2451997697353363,-1.6828410625457764,0.3203737735748291,1.6804075241088868,0.6482788324356079,-0.5665159225463867,0.25746670365333559,-0.45213979482650759,0.13722287118434907,1.2001110315322877,-0.09919194132089615,0.29956546425819399,0.8718437552452087,0.26262909173965456,0.6083470582962036,0.5903854966163635,1.3419386148452759,0.20912191271781922,0.4394380450248718,0.8520716428756714,-1.2212424278259278,-1.1047537326812745,-0.12070073932409287,0.201460063457489,-0.5118962526321411,0.31697168946266177,-0.24826648831367494,0.07274474948644638,-1.5385656356811524,-0.3316912055015564,-0.7387157082557678,0.194859117269516,-0.11156472563743592,0.6811599731445313,0.25559166073799136,0.5438475012779236,-0.5508586168289185,0.12809774279594422,-0.1979450136423111,-1.8472812175750733,-0.4452868103981018,0.353678435087204,-0.1225946843624115,0.07907877862453461,-0.2530905306339264,0.6497473120689392,2.1552014350891115,0.9211602210998535,-0.3310900628566742,0.6835101246833801,-0.6001691222190857,-0.5695873498916626,0.993051290512085,1.0592479705810547,0.19659040868282319,-1.6408394575119019,-1.748123288154602,-0.8123871684074402,0.2352067530155182,-0.6391785740852356,0.59589684009552,0.9202268719673157,-1.3440065383911133,1.204751968383789,-0.5430424809455872,-0.14139454066753388,1.0204263925552369,0.0012777871452271939,-0.03742668032646179,0.2591867744922638,-0.737297773361206,1.8120547533035279,-0.46783602237701418,-0.16144828498363496,0.5535516142845154,0.03085562214255333,0.44098469614982607,0.5743801593780518,0.7823958992958069,-1.310107946395874,1.3799158334732056,0.27439871430397036,-0.31537890434265139,-0.13707026839256288,-0.6553066968917847,-1.2866216897964478,-0.7282343506813049,0.02460148185491562,0.39951664209365847,-0.5875098705291748,-0.9928783178329468,-0.6863753795623779,0.3158300220966339,0.6821475028991699,1.8005326986312867,-0.3573799729347229,-0.4830683171749115,-0.60085129737854,-1.182631492614746,-1.039740800857544,0.8292650580406189,-0.8545299172401428,-1.3346662521362305,1.1977778673171998,-0.6141351461410523,-0.15183860063552857,-0.41324880719184878,-0.7652416825294495,-0.8230069875717163,-0.6438724994659424,-0.5023640394210815,0.3366685211658478,0.9608268737792969,-0.22009406983852387,0.2514103651046753,0.02669268473982811,-0.9003376960754395,0.38689321279525759,-1.6222478151321412,0.10712186247110367,0.15538014471530915,0.3244290053844452,-1.5751855373382569,-0.3794960677623749,1.07162344455719,-0.1723509579896927,-0.18415531516075135,0.7855931520462036,-0.33572158217430117,0.9823313355445862,-0.5272298455238342,-0.23919567465782166,-0.329673707485199,0.31992819905281069,1.0876835584640504,-0.5143345594406128,0.03051542118191719,-0.39207029342651369,-0.17075029015541078,0.061084046959877017,-0.47997236251831057,-1.131085753440857,0.38494348526000979,1.0142089128494263,0.3383553922176361,-0.28992339968681338,2.27826189994812,0.02324005961418152,-0.3103012442588806,-0.38128188252449038,0.3276297152042389,0.8419800400733948,1.2173802852630616,1.5863192081451417,0.09280488640069962,-0.20908686518669129,-0.08769652247428894,-0.8731689453125,-0.1811918020248413,0.07500611245632172,-1.080938696861267,-0.5874895453453064,1.6297376155853272,1.2815486192703248,0.8059908151626587,-1.7866709232330323,-0.24418747425079347,0.2883657217025757,0.781745195388794,0.7102476358413696,-1.4214743375778199,-0.5968189239501953,-0.23541653156280518,-0.5968119502067566,-1.3701884746551514,-0.8597142696380615,1.117376685142517,0.47187063097953799,-0.49300050735473635,1.300398349761963,0.6443114876747131,-1.7541255950927735,-1.480393886566162,0.9273354411125183,-0.7322635054588318,-2.012242317199707,-0.8766831159591675,0.4135616421699524,1.274900197982788,-1.4979639053344727,-0.07850810885429383,0.27499306201934817,0.4392152428627014,0.640058159828186,-0.08276346325874329,-1.1295613050460816,-1.5728793144226075,-0.5317080616950989,-0.0991554781794548,-1.0190918445587159,-0.4373159110546112,0.1996224820613861,-0.0015104389749467373,-0.001077011926099658,0.7307308912277222,0.40989065170288088,-0.9918859004974365,3.3548240661621095,0.609377384185791,-0.4992139935493469,-1.9322550296783448,0.1674771010875702,0.3784860372543335,1.082515001296997,-0.43145471811294558,0.44029077887535097,0.13055630028247834,1.2546344995498658,-0.2743721008300781,0.6929993033409119,0.6711518168449402,-2.7395005226135256,0.016824912279844285,0.507681131362915,1.5469496250152588,-0.5584254860877991,0.49493175745010378,-0.2522723078727722,1.266129493713379,-0.81988525390625,0.5594872236251831,-0.8257008194923401,-1.508649468421936,0.29671168327331545,-0.9927046298980713,0.009425152093172074,0.10497523099184036,0.6755789518356323,-0.37135329842567446,0.8804970979690552,-0.26724016666412356,-0.027957269921898843,0.7121365070343018,0.05388287827372551,-1.9037134647369385,1.2032402753829957,0.5364848971366882,0.5194846987724304,0.9687690138816834,1.8099673986434937,-0.4931493401527405,-0.19864340126514436,-0.42644402384757998,0.8635540008544922,0.41935938596725466,-0.7735558748245239,-1.0070677995681763,0.07361304014921189,0.5653650760650635,-1.3568251132965088,1.4643056392669678,-0.1114979013800621,0.8468313217163086,-0.1631881296634674,0.18150769174098969,-0.22755733132362367,1.2814931869506837,0.5689041614532471,0.3100346028804779,0.14504589140415193,-0.9723421335220337,-1.8117804527282715,0.09069894999265671,-0.6915112137794495,0.18670794367790223,1.334421992301941,-1.0648179054260255,-1.1609411239624024,-0.9721105098724365,-1.138974905014038,-0.10896390676498413,-0.04827439785003662,0.5971378684043884,0.8125854134559631,-0.5121815800666809,0.41281992197036745,-0.49163034558296206,0.06699740141630173,1.044057846069336,1.1635936498641968,-0.6947548985481262,-0.5782840847969055,-0.36179015040397646,-0.39399483799934389,-0.038843121379613879,-1.1861456632614136,-1.0299041271209717,0.5822242498397827,-0.7322206497192383,-2.5706160068511965,0.4578426480293274,0.28575897216796877,-2.492910146713257,-0.5879772305488586,0.4399011433124542,-0.6045395731925964,-1.1295199394226075,-1.1893879175186158,1.5881195068359376,0.7717205882072449,-0.4931658208370209,-1.0749437808990479,1.5933239459991456,-0.47289517521858218,0.3732333481311798,-0.5016700625419617,0.9240252375602722,-0.3993319869041443,-0.7455657720565796,-2.072334051132202,-1.822928547859192,0.7032889127731323,1.0413137674331666,-1.1786060333251954,0.31151461601257326,0.11615616083145142,1.8133577108383179,1.7352620363235474,-0.09809523820877075,0.5541979670524597,0.5406007766723633,0.48777297139167788,1.2044613361358643,-0.5539233088493347,0.6854900121688843,-1.1950972080230713,0.5153990983963013,0.3129996061325073,0.6134377121925354,0.0014120567357167602,0.3816975951194763,-1.205574870109558,0.1168830394744873,0.6457127928733826,1.2633988857269288,0.023618724197149278,1.0211350917816163,0.5303414463996887,-0.15015274286270142,0.6606482267379761,0.5123617649078369,0.009389080107212067,1.159728765487671,1.1308964490890504,0.28945615887641909,0.8334447145462036,-0.10479042679071427,0.6323896646499634,-0.9550693035125732,1.7832125425338746,0.05160760134458542,-1.5323097705841065,-1.8636475801467896,-1.1362181901931763,0.49727192521095278,-0.4883304536342621,-0.3388453423976898,-1.1292269229888917,0.23551595211029054,0.040329836308956149,0.036874473094940189,0.2438826709985733,-0.6997398138046265,0.1880333125591278,1.5464671850204468,-1.041072130203247,-0.8616372346878052,-0.9656258225440979,0.33804088830947878,-0.3168354332447052,-0.5849689245223999,-0.05513087660074234,-0.024435311555862428,-0.787609338760376,-1.4822070598602296,-0.6608259081840515,0.2886589765548706,0.1347608119249344,-0.25938892364501955,1.7840404510498047,0.18029147386550904,-1.3108110427856446,-1.8618558645248414,-1.1536221504211426,0.10410796105861664,-0.5904077887535095,0.3527854084968567,1.0093287229537964,-0.06566687673330307,-0.042306769639253619,-0.7347343564033508,-1.0202471017837525,0.5190643668174744,0.016811877489089967,-0.08597173541784287,-0.8562542796134949,0.985120952129364,-0.08419831097126007,-0.761393666267395,1.8828952312469483,0.43700656294822695,-1.023124098777771,-0.7199703454971314,-0.6633024215698242,-0.08147715032100678,-0.09095386415719986,0.44623512029647829,0.2464655339717865,1.2469817399978638,-0.7176796197891235,0.9466736316680908,-0.5912867188453674,-1.2971616983413697,-0.1540270745754242,-1.4644044637680054,-0.34569355845451357,-1.176107406616211,-0.8856539726257324,0.5838427543640137,0.23779843747615815,-0.3453458249568939,-0.4774162173271179,1.6654422283172608,1.5830175876617432,-0.5939459204673767,0.32834017276763918,0.471616268157959,-0.05006643757224083,-0.6563410758972168,-1.4260493516921998,-0.5481534004211426,0.9106765985488892,1.147783637046814,0.5952031016349793,-0.06925863027572632,1.6881201267242432,-0.9408571124076843,0.05731987953186035,-1.069313645362854,-1.975553274154663,0.45766210556030276,0.22822852432727815,-1.216556191444397,0.13134300708770753,-0.12327256053686142,-2.171038866043091,0.42557647824287417,-0.3944375514984131,0.6532366275787354,-0.607904314994812,1.0113459825515748,0.38226792216300967,2.018688678741455,0.20397678017616273,0.9463608264923096,-0.732262372970581,-0.08866211771965027,1.1166011095046998,-0.7657427787780762,-0.7741825580596924,-0.396743506193161,-0.25745728611946108,0.8233898282051086,-0.8866683840751648,-0.715809166431427,-0.9377925395965576,0.9012962579727173,1.1250412464141846,-0.18832026422023774,0.41091644763946535,-0.3289204239845276,0.9692067503929138,1.060261845588684,1.2549306154251099,-0.899532675743103,1.2504218816757203,0.3351213335990906,0.15690112113952638,-1.1057264804840088,0.02643628604710102,0.7134888768196106,-1.1643136739730836,0.29758280515670779,-0.757552981376648,0.3507777750492096,0.5957708358764648,-1.5868333578109742,0.8408823013305664,-0.7188918590545654,-0.5841512680053711,-0.07121863961219788,-0.2320323884487152,-1.3678094148635865,0.38954615592956545,0.9683080911636353,0.5209916234016419,0.264276385307312,0.4741210639476776,0.45162948966026308,0.5931869745254517,-0.3153857886791229,0.847080409526825,0.3303103446960449,-0.036965250968933108,0.7104787826538086,0.45206978917121889,-1.0457559823989869,-0.48535218834877016,0.09615014493465424,0.1805398017168045,0.9162098169326782,-0.13477002084255219,0.9412153959274292,-0.9166119694709778,1.8541996479034424,-0.4634776711463928,-0.032854508608579639,0.14364558458328248,0.022150687873363496,-0.029112784191966058,-0.4019557237625122,-0.7404400706291199,0.29395759105682375,-0.5420019626617432,-0.2790870666503906,-0.96487957239151,0.6198122501373291,-0.1126229390501976,-0.20792768895626069,0.34825751185417178,0.753618061542511,-0.8093615770339966,0.19180087745189668,1.6041728258132935,-0.02216460555791855,0.6399604678153992,0.06766722351312638,-0.4332495331764221,-0.5083656907081604,-0.9778464436531067,0.7441154718399048,-0.9300336241722107,-0.7578428387641907,-1.3014014959335328,0.21419677138328553,-1.202446699142456,0.5851808786392212,-0.10436523705720902,-0.3194717764854431,-0.9947148561477661,-0.6814245581626892,0.40197333693504336,0.6223013401031494,0.7014142274856567,-0.892238199710846,-0.12906168401241303,0.6005001068115234,-0.005894786678254604,0.8408475518226624,-0.41196444630622866,0.056226830929517749,-0.3427557051181793,-1.1926559209823609,0.6770976185798645,-0.9013884663581848,-0.6066020727157593,0.1361178606748581,-0.9629610180854797,1.1324745416641236,0.6329548954963684,-0.6519320011138916,-0.4532979428768158,-0.6067115068435669,-1.0876808166503907,-1.1408135890960694,0.8018391132354736,-0.2976086735725403,0.48843812942504885,1.381129264831543,0.2104140967130661,0.2633247375488281,0.5520888566970825,-0.32442373037338259,-0.7136650681495667,-0.6655265092849731,1.0755364894866944,-0.3726927936077118,-0.990251898765564,1.383874773979187,-0.28181880712509158,0.8125355243682861,-1.3228027820587159,0.6978002190589905,0.5950509309768677,0.3448386490345001,-1.0423107147216797,-1.126678466796875,-0.06047782301902771,-1.278730034828186,0.9347541332244873,0.029887251555919648,0.8470295667648315,1.6522451639175416,-0.40744391083717348,-0.3849872648715973,1.1686081886291505,0.18916216492652894,-1.4598110914230347,-0.9423057436943054,0.3004467785358429,0.47717100381851199,-1.4300661087036133,-0.5067344903945923,1.1236543655395508,0.6956461668014526,0.24938328564167024,-1.7121078968048096,0.25285354256629946,-0.21907296776771546,0.12449279427528382,3.186307907104492,0.5095505118370056,-1.9768688678741456,0.6076024174690247,0.6980796456336975,1.1840513944625855,0.8598189949989319,-1.8024280071258546,0.3513980209827423,0.3916172981262207,-1.0763089656829835,-1.32530677318573,1.8460551500320435,1.9478647708892823,1.9774245023727418,-2.1402459144592287,-0.8918530941009522,0.3580315411090851,0.15436910092830659,2.3991401195526125,-0.4987131357192993,0.6894862651824951,0.48824381828308108,-0.9885483980178833,-0.4153565466403961,0.6752663850784302,0.855792224407196,0.5304032564163208,0.2791960835456848,-1.0020605325698853,0.6853166222572327,0.7528476715087891,2.1285884380340578,0.22302700579166413,-0.46618330478668215,-0.6140449047088623,0.6649684906005859,0.46059828996658327,0.19659113883972169,-0.6409977674484253,-0.5715134143829346,0.21263054013252259,-1.4742851257324219,-0.8802920579910278,0.11844499409198761,0.3585960865020752,-2.371769905090332,-0.11551091074943543,-0.023525815457105638,-0.2117076963186264,0.6594924926757813,0.7529508471488953,0.19691318273544312,-0.17569728195667268,-0.14502635598182679,2.25313663482666,1.2421847581863404,1.716161847114563,-1.741083025932312,0.15709295868873597,0.0754380151629448,-0.04917418956756592,0.48880818486213686,0.8860577344894409,0.7391254305839539,0.3631407618522644,0.5099887847900391,0.6800209879875183,-1.3458982706069947,1.2916020154953004,-1.5039278268814088,0.736372709274292,0.3626305162906647,-1.2478883266448975,0.3595496416091919,-2.4992787837982179,1.6034283638000489,1.3576823472976685,0.599613606929779,-0.9644632339477539,0.629485011100769,0.31953009963035586,-0.5659175515174866,-0.11926557123661041,0.5317897796630859,0.7479448914527893,0.7955887913703919,-1.1147289276123047,0.11795226484537125,-0.27691027522087099,-0.6291396617889404,1.4275290966033936,-0.3976295590400696,1.2276220321655274,0.3037535548210144,1.082049012184143,0.26927176117897036,-1.4388861656188965,1.3129888772964478,-1.9464191198349,-0.30945730209350588,-0.04976248741149902,0.5108450055122376,0.7583721876144409,-1.0857146978378297,0.9943785667419434,-0.7450297474861145,-0.5968695878982544,-0.23727227747440339,-0.9007229208946228,-0.15894809365272523,0.028584076091647149,-1.0243866443634034,0.4143555760383606,-0.8104409575462341,1.0386040210723878,-1.4232628345489503,0.20313343405723573,-0.24309656023979188,-1.436363697052002,-1.9011831283569337,-0.31101199984550478,0.5770716071128845,0.1561698615550995,-0.7604707479476929,-0.07281410694122315,-0.19402800500392915,0.4260100722312927,2.1505565643310549,1.1685760021209717,-2.0158774852752687,0.5860410332679749,0.8203604817390442,0.8856469988822937,1.4927990436553956,0.4922212064266205,-0.3574172258377075,-0.7518301606178284,0.1793268769979477,0.646381676197052,0.6776295304298401,1.751808524131775,-0.1961584985256195,0.28500157594680788,-0.9804244041442871,0.4282177686691284,0.0849960669875145,1.0315587520599366,0.047912389039993289,1.3533419370651246,-1.0456178188323975,0.40061303973197939,0.6869370937347412,0.7689037322998047]},"biases":[0.5696688890457153,-0.46089765429496767,0.0881684198975563,1.5821908712387086,-0.7289958000183106,-0.6324259042739868,-0.3645133376121521,0.4455622732639313,1.1754295825958253,1.062646746635437,0.16939373314380647,0.19639267027378083,-1.9376271963119507,0.34699922800064089,-1.4655543565750123,1.409341812133789,-0.6336240172386169,-0.43522629141807558,-0.07534978538751602,0.1854923963546753,-0.6522507071495056,-0.5894991159439087]},{"neurons":[-0.9909109473228455,-0.9991841912269592,0.987139105796814,-0.8458969593048096,-1.0,-0.9998384714126587,0.9999999403953552,-0.15848833322525025,-0.9999991059303284,-0.9951825141906738,0.8156161308288574],"weights":{"rows":11,"cols":22,"data":[-1.0789330005645753,0.7909193634986877,1.8049449920654297,-0.13063445687294007,1.326843500137329,0.15079547464847566,-0.16260197758674622,0.9967371821403503,-0.34181225299835207,0.0052437251433730129,-0.5112121105194092,0.8785896897315979,0.26957178115844729,0.17081767320632935,0.5810245275497437,0.28321775794029238,0.03559353947639465,-1.2928410768508912,-0.7858738303184509,-1.0211340188980103,0.10275416821241379,0.03230532631278038,-1.2204688787460328,-0.8096578121185303,0.04528779909014702,-0.2424587905406952,-0.2703901529312134,0.47612816095352175,-1.2342331409454346,-0.96064692735672,0.6135566234588623,0.1470726579427719,-1.0369393825531006,0.8594402074813843,0.6303533315658569,0.5147551894187927,-0.36827486753463747,0.7934446334838867,-2.012624502182007,-0.008410710841417313,0.3780645728111267,-0.1784055382013321,-0.28653407096862795,0.27649354934692385,-0.5243257880210877,0.24622982740402223,-1.323226809501648,0.9564732313156128,1.5011378526687623,-1.1756870746612549,0.3157638609409332,-0.3643878698348999,-0.1370634138584137,0.374921590089798,0.2136947065591812,-0.19808851182460786,-0.9607118368148804,-0.8006125688552856,-1.1278836727142335,-0.37631362676620486,-1.1998066902160645,0.03653869405388832,1.2814018726348878,0.5736827254295349,0.5659279227256775,0.2107897698879242,0.7192192077636719,-0.7790436148643494,-0.8245048522949219,-0.29349157214164736,1.0805323123931885,-0.38316279649734499,0.3277331292629242,-0.004173394292593002,0.061909280717372897,-0.48154836893081667,-0.047330185770988467,-0.20608264207839967,0.013825466856360436,-0.6784854531288147,0.3828836679458618,-0.46962088346481326,-1.2483562231063843,-0.8314682841300964,-0.9712804555892944,0.35018959641456606,0.6832689642906189,0.0433332622051239,1.3749648332595826,0.8449219465255737,-0.6716344356536865,-0.33644986152648928,0.2588936388492584,-0.25725695490837099,-2.136716365814209,0.2142748385667801,-0.8222224116325378,-0.4388146698474884,0.05658889189362526,0.9654334187507629,1.0298445224761963,-0.7911568880081177,-0.4599277079105377,0.5848308801651001,-1.4639942646026612,0.5481616854667664,-0.1416487842798233,2.3616743087768556,0.6042674779891968,0.15220993757247926,-0.8274917602539063,-1.0192688703536988,-0.6285281777381897,0.694493293762207,0.17493990063667298,0.003217102028429508,-0.4799727201461792,0.5619157552719116,-1.3479260206222535,-0.19783100485801698,0.0002903886488638818,0.6610013842582703,-0.4263555705547333,0.2733761668205261,0.826421320438385,1.6282788515090943,-0.6972095370292664,0.09849214553833008,-0.06352028995752335,-1.5659258365631104,0.5905648469924927,-1.3224931955337525,0.546256422996521,-1.5728148221969605,1.6681236028671265,0.2802521288394928,0.4468071162700653,1.3471583127975464,0.978303074836731,1.255188226699829,0.2484595775604248,1.146091341972351,-1.4117577075958253,-1.0476018190383912,-0.08609803766012192,-1.026740312576294,0.06732014566659928,0.603126585483551,-1.1103776693344117,0.772564709186554,0.3667319416999817,-0.1298588365316391,0.7506998181343079,-0.2420080155134201,-0.4766572415828705,0.2866255044937134,0.5119067430496216,0.9801309108734131,0.04829726740717888,0.19843606650829316,-0.4231738746166229,0.4047323763370514,-0.010639178566634655,-0.299720823764801,1.2354893684387208,0.2430618405342102,-0.4913056194782257,-1.1991077661514283,-0.7957770228385925,-0.6325824856758118,0.14946945011615754,0.38147616386413576,0.717338502407074,-0.3049435615539551,-0.5256304740905762,1.0188223123550416,-1.077903389930725,2.317671775817871,-2.2480247020721437,0.6742706894874573,-0.4848102331161499,-1.0651191473007203,-0.21225032210350038,0.33721762895584109,-2.7683472633361818,-0.5503813624382019,1.0874954462051392,-0.6743314862251282,-0.4037613868713379,-0.39002764225006106,-0.5960410833358765,-0.008542684838175774,1.137752652168274,0.09100598096847534,-2.182037830352783,1.0087904930114747,0.6716995239257813,-0.5729761719703674,-0.2372581511735916,1.2261565923690797,-1.4805654287338257,0.4141770601272583,-0.0487712025642395,-1.617142677307129,0.1524806171655655,-0.27665552496910097,-0.7855530977249146,-0.49960440397262576,-0.08819276094436646,0.2186013013124466,0.48535802960395815,0.5375601053237915,-1.4730257987976075,-0.26263427734375,0.15857702493667603,-0.29433315992355349,-0.12961214780807496,1.429229497909546,-0.022960273548960687,0.7203262448310852,1.2597726583480836,0.4592468738555908,-1.7358518838882447,0.5831794738769531,-0.6245808601379395,0.02091212384402752,-0.5938406586647034,-0.5467451810836792,-1.1497596502304078,0.3169514536857605,0.11166219413280487,1.1139074563980103,-0.4427819550037384,-1.6028828620910645,-1.2783756256103516,-1.1967096328735352,0.4555622637271881,1.6022628545761109,0.15098664164543153,0.20698973536491395,-0.5910545587539673,0.9480186700820923]},"biases":[0.3954865038394928,-0.26299795508384707,-1.5305123329162598,-0.586543083190918,-0.8052066564559937,-1.1098897457122803,1.5669975280761719,-1.1204183101654053,2.1480393409729006,0.9595911502838135,-1.1025832891464234]}],"seed":2051159842}