{"layers":[{"neurons":[0.3469270169734955,0.7448335886001587,0.7210347056388855,-0.9995964765548706,0.9384034872055054,-0.9580523371696472,-0.7943039536476135,-0.05584084615111351,-0.9153673648834229,-0.9983534216880798,-0.999987006187439,-0.9732515215873718,0.6719844341278076,-0.6859142184257507,0.9982330203056336,0.30142492055892947,-0.8793491125106812,0.9965441226959229,0.4230216145515442,-0.9679098129272461,0.9937841892242432,-0.98077791929245,-0.8284400701522827,0.8227605223655701,-0.9597094058990479,0.6586194634437561,-0.7371811270713806,0.9276013970375061,-0.9700335264205933,0.2678009271621704,-0.8517355918884277,-0.693665623664856,-0.9950994849205017,-0.9973595142364502,-0.351626992225647,0.20377382636070252,0.9548401832580566,-0.8478299975395203,-0.9677914381027222,0.9987038373947144,0.9735062718391419,0.9198036789894104,0.6341856718063355,0.8708348274230957],"weights":{"rows":44,"cols":22,"data":[0.5708805322647095,-1.1405885219573975,0.36648088693618777,0.17373114824295045,0.6110460758209229,-0.45136216282844546,0.16766084730625153,0.8530773520469666,-0.057814523577690127,-0.12050910294055939,-0.41248562932014468,-0.03408665210008621,0.1927933543920517,0.6217125654220581,-0.1661701500415802,0.4009178578853607,-1.0011746883392335,0.28932181000709536,0.7325069904327393,0.5616359710693359,0.6760178804397583,0.1297512799501419,1.2235262393951417,0.082405224442482,0.8981699347496033,-1.334830641746521,0.3273414075374603,-0.5305216312408447,0.70553058385849,1.2975105047225953,-1.5525932312011719,0.08523212373256684,-0.7302446365356445,-0.3257501721382141,0.9443504214286804,-0.9146771430969238,-0.20936276018619538,0.11417213827371597,-0.7849451899528503,0.8878724575042725,-0.35267987847328188,0.26780936121940615,1.1822963953018189,-0.20037773251533509,-0.16427458822727204,-0.7309415936470032,-1.247107982635498,0.4472411870956421,-0.541569709777832,-0.28066402673721316,0.17759785056114198,-0.9394934773445129,-0.9370766878128052,-0.040405694395303729,-0.5612227320671082,-0.5778839588165283,-1.809098243713379,-0.3722420632839203,-0.5359234809875488,-0.17134125530719758,-0.8766008615493774,0.9576297998428345,-0.6433241963386536,-1.1079241037368775,0.1311071366071701,-0.5430123805999756,-0.3713637590408325,0.34957191348075869,0.10928243398666382,-0.03028382919728756,0.776103675365448,1.28648042678833,1.6341475248336793,0.974751353263855,0.4920419752597809,-0.6630316972732544,-0.030598876997828485,0.3675439655780792,1.2407172918319703,-0.37234699726104739,-0.07613004744052887,0.9930837750434876,1.30377197265625,-0.12479475885629654,-0.26335957646369936,0.34279295802116396,0.7384551167488098,-0.9735932946205139,0.6051228642463684,0.005790356546640396,-0.12527130544185639,1.339339256286621,0.5785794258117676,0.7928028106689453,-0.7767504453659058,0.03559795394539833,-0.23534522950649262,0.08429427444934845,-0.25542664527893069,-0.7102187871932983,-0.44546568393707278,0.8300336003303528,0.1592058390378952,0.5340899229049683,0.3390212953090668,-0.9797769784927368,0.3442409634590149,-0.9806557297706604,0.18734565377235413,-0.04131648316979408,0.045164696872234347,0.8379994034767151,-1.0269050598144532,-0.23456613719463349,0.9289714097976685,-1.3363056182861329,0.03744668513536453,0.26957112550735476,0.3570416569709778,-0.9053491950035095,-0.6082040071487427,-0.17444434762001038,0.7421332001686096,-1.7563141584396363,0.12329625338315964,0.13722287118434907,-1.6941393613815308,-0.19531449675559998,-0.14701005816459657,-0.6593130826950073,-0.2570854127407074,-0.7153148055076599,1.4118422269821168,0.8492772579193115,0.6789063811302185,0.561940610408783,-0.3146694004535675,-0.6354641318321228,-0.2663626968860626,-0.11640633642673493,-0.011459724977612496,0.503872811794281,0.20081031322479249,0.17832979559898377,-0.01063459925353527,0.1643383949995041,-0.5065521001815796,-0.5317820310592651,-0.005990615114569664,-0.11418641358613968,-0.09552541375160217,0.9858866930007935,0.5756391286849976,-0.5064294934272766,0.5030927062034607,0.0819205641746521,0.31586968898773196,0.9317551255226135,-0.809954822063446,0.42327654361724856,0.24375858902931214,-0.6068964600563049,-0.906013011932373,-0.9451500773429871,0.4488559663295746,0.39778614044189455,0.41590815782546999,-0.21607698500156403,-0.16624297201633454,0.9417101144790649,-0.16342301666736604,-0.1989445686340332,-0.24065618216991425,-0.8982623219490051,-0.424735963344574,-0.6314219236373901,0.47744110226631167,0.013805131427943707,-1.1806023120880128,0.5229640603065491,-1.1094151735305787,-1.0107917785644532,0.39952582120895388,0.7614284753799439,0.43486034870147707,0.11651822924613953,-1.7060449123382569,0.18606914579868318,-1.1349347829818726,-0.4247376024723053,-0.16666501760482789,-0.14382922649383546,-1.3263204097747803,0.4367525279521942,-0.019296932965517045,-0.010868716053664685,0.14442116022109986,-0.9619947671890259,-0.053737182170152667,0.8368017077445984,-0.4461895227432251,-0.019844822585582734,0.6771180629730225,-0.534805953502655,0.07520875334739685,0.583696186542511,-0.40841856598854067,0.1679282933473587,0.02045617625117302,0.6414642930030823,0.8423417210578919,-0.1127839908003807,-0.2902061641216278,0.7237805724143982,0.5443434119224548,0.3381960690021515,-0.41012370586395266,-1.656383991241455,0.2926437258720398,-0.5268734097480774,0.7042675018310547,-0.2760216295719147,-0.417138934135437,0.6498162746429443,1.6274102926254273,-0.6549758315086365,-0.3333766758441925,-0.6127517223358154,1.891129493713379,-0.48095420002937319,-0.42334046959877016,0.3520592749118805,1.2177172899246216,-0.6622099280357361,-0.6507562398910523,0.7408141493797302,0.09022802114486695,0.28182727098464968,-0.6198095083236694,-1.4949678182601929,-0.37110650539398196,-0.2935407757759094,-0.05532699078321457,0.48260366916656496,0.9965964555740356,1.5673466920852662,-0.9158493876457214,-0.6662629842758179,0.08595652878284455,0.23043371737003327,-0.032053861767053607,0.68276047706604,0.39059868454933169,0.5172516703605652,0.012295766733586789,-0.6910064816474915,-0.5863433480262756,0.013906818814575673,-0.1056942343711853,-0.12950894236564637,0.35686811804771426,0.2158021628856659,-0.7335753440856934,-0.46214932203292849,0.669784665107727,0.3737119436264038,0.4203993082046509,-0.8887537121772766,0.3657083213329315,-0.5483847856521606,-0.7147620916366577,0.04508619010448456,0.840509295463562,1.0359305143356324,0.4527586102485657,0.16077551245689393,-0.5683321356773377,0.16287121176719666,-0.4715164005756378,0.2985018789768219,-0.060717031359672549,0.05035160481929779,-0.34307822585105898,0.04417171701788902,0.9400671720504761,-0.8599028587341309,-0.2990591824054718,-0.401509165763855,0.27835845947265627,0.19683167338371278,-0.07978755235671997,-0.7865579128265381,-1.3382574319839478,-1.1555099487304688,-0.18564550578594209,1.3076831102371216,0.41583922505378725,0.7836008071899414,1.2127509117126465,0.2359880656003952,-0.43186843395233157,-1.6426475048065186,-0.6772837042808533,1.2086842060089112,-0.210617795586586,0.19978147745132447,0.20303766429424287,-0.0346350222826004,0.21332454681396485,-0.265189528465271,-0.046617403626441959,-0.5105870366096497,0.5892561078071594,-0.2954009771347046,-0.8553881645202637,0.044709961861371997,-0.4787376821041107,-0.37973079085350039,-1.4312803745269776,0.8407480120658875,-0.8679878115653992,1.4427353143692017,-1.174864411354065,-0.02193564921617508,-0.01038656011223793,0.04560224339365959,0.5826750993728638,-0.24590052664279939,-1.8325692415237427,-0.40441834926605227,-1.8822463750839234,0.2641550302505493,-0.3395155072212219,-0.43826988339424136,0.8567509055137634,-0.8112013936042786,-0.16105805337429048,-0.11464986205101013,-0.7472743988037109,0.34825780987739565,-0.6139212846755981,0.5206618905067444,0.5777727961540222,0.6722055077552795,0.41211193799972536,-0.4944486618041992,1.5354076623916627,-1.3384222984313965,0.2147803157567978,1.67793869972229,-0.10988735407590866,0.250812828540802,-0.579875648021698,1.5877467393875123,0.217600479722023,0.30270886421203616,0.561004102230072,0.2050904631614685,1.034377932548523,0.7745664119720459,0.2871917486190796,0.11711830645799637,-1.2997233867645264,-0.5982052087783814,1.5409117937088013,0.4672027826309204,0.5276204347610474,0.6334337592124939,-0.7638847231864929,0.7438730001449585,0.23186790943145753,-1.3399953842163087,-0.028570422902703286,-0.342791885137558,0.12101513892412186,0.4027508497238159,0.6048375368118286,1.4266828298568726,0.2695654630661011,-0.3882516324520111,1.0177559852600098,-1.0176218748092652,-0.9270796179771423,0.4810090661048889,-0.18708670139312745,-1.1416138410568238,-0.6212257146835327,1.4529106616973878,-0.17771829664707185,1.2467927932739258,-0.48608118295669558,0.22455550730228425,-0.35399988293647768,1.140317440032959,1.1444967985153199,-0.2527480721473694,-1.9923776388168336,-0.7186917662620544,0.6694380044937134,0.04543197900056839,0.4763765037059784,-0.15089014172554017,-0.17331157624721528,0.1779261976480484,-0.7570900321006775,-0.7600381374359131,-0.06454429030418396,0.743537425994873,0.714849054813385,-0.4601249396800995,0.18510153889656068,0.3998940587043762,0.4870210289955139,0.42574021220207217,0.23243460059165955,-0.2410324215888977,0.2726423740386963,0.3885750472545624,0.8147342205047607,0.731979250907898,0.5910277962684631,0.4214889705181122,-0.6521137356758118,-0.53070467710495,1.7658004760742188,0.03635970503091812,-0.6700770258903503,0.07959736883640289,-0.34915536642074587,1.9758414030075074,0.5685491561889648,0.8568191528320313,0.9163622856140137,-0.2804524302482605,-0.23000143468379975,2.044877052307129,-0.14786109328269959,0.5130231380462647,-0.5011774301528931,-0.3635695278644562,-0.43952682614326479,0.16384181380271913,1.0158919095993043,0.4010647237300873,0.9410460591316223,-0.6267791986465454,1.0307656526565552,-1.5226327180862427,-0.7273117303848267,-1.5439025163650513,-0.3793012797832489,-0.6349028944969177,-0.6476340293884277,-0.029742024838924409,0.7047331929206848,-0.9883914589881897,0.024927692487835885,-0.29714468121528628,0.26201197504997256,0.4383791387081146,0.2294963151216507,-0.022913869470357896,1.0403250455856324,-0.020275214686989785,0.6298434138298035,0.6583693623542786,0.5473060011863709,-0.19464996457099915,-0.28143152594566347,0.31667640805244448,0.10218840092420578,0.216387078166008,0.2468273788690567,1.0339767932891846,-0.263109415769577,0.39719101786613467,-0.6184669137001038,-0.1393609493970871,0.9306484460830689,2.315093517303467,1.035602331161499,0.20669801533222199,0.9508500099182129,0.5980821847915649,-0.10803281515836716,-1.5116877555847169,-0.9760316610336304,0.5432235598564148,-0.23452667891979218,-0.2703673541545868,-1.110396385192871,-0.2408178597688675,1.338011384010315,-0.06369944661855698,1.1648765802383423,0.7819430828094482,-0.208023801445961,0.18254272639751435,-2.0203654766082765,-0.16706877946853639,-0.9246222376823425,-0.5069255828857422,0.5550838708877564,-0.08723023533821106,0.09622976928949356,1.5358307361602784,-1.3375519514083863,0.051591094583272937,1.2587958574295045,0.5346341729164124,-0.36366522312164309,0.044369831681251529,-0.6929559707641602,0.23559801280498506,0.3203361928462982,-0.38316139578819277,0.4510619044303894,-0.8192989826202393,0.41018781065940859,1.0451550483703614,-1.7616761922836304,0.41624897718429568,0.3655101954936981,-0.8314527869224548,-0.5051727294921875,-0.3381890654563904,-0.6487557888031006,-0.6592226028442383,0.1000983715057373,-0.7187932729721069,-0.06421899795532227,0.7836906313896179,-0.7635886073112488,0.7654348611831665,1.38642418384552,0.32782217860221865,-0.35731950402259829,-0.7800710797309876,-0.09221403300762177,-0.6866742372512817,0.9044377207756043,-1.1732486486434937,0.5953739881515503,-0.23417380452156068,0.19253087043762208,-1.0001424551010132,-0.9034123420715332,-0.7489004731178284,-0.14470712840557099,0.1453191637992859,-0.17313554883003236,-0.12036523967981339,-0.28243470191955569,-0.3329630494117737,-0.522837221622467,0.06718090176582337,-1.1468532085418702,-0.7362421751022339,0.28142625093460085,-0.1416039913892746,-0.5680556893348694,0.7689257264137268,0.5812501907348633,-0.9341127276420593,1.3921691179275513,-1.5090256929397584,-0.07337331026792526,0.4197344481945038,-0.13646961748600007,-1.1147184371948243,-0.00966651737689972,-0.8858417868614197,0.5442252159118652,-0.18332162499427796,-0.06391076743602753,2.0485448837280275,-0.6809332966804504,0.21707798540592194,-0.07778450846672058,0.06130331754684448,0.5440306663513184,0.4326246976852417,-1.087241768836975,-0.7091379761695862,0.19346384704113007,0.186381995677948,-0.008652684278786183,0.4031047224998474,0.7421951293945313,-0.31120187044143679,1.497261643409729,-0.13227292895317079,-1.696666955947876,-0.16683176159858704,0.04368305578827858,-0.14189490675926209,0.5543848276138306,-0.7644025087356567,0.013613831251859665,-0.39478978514671328,-1.7531052827835084,-0.9356637001037598,0.9238303303718567,-1.107102394104004,-0.4040115773677826,0.09018862992525101,-0.8045204281806946,-0.51924729347229,-0.0251065194606781,-0.40568113327026369,0.7823483347892761,0.1240200474858284,-0.07986383885145188,0.04439187049865723,-1.0612456798553467,-0.5198623538017273,0.2239292412996292,-0.08770471066236496,-0.588695764541626,0.014974959194660187,0.8235077857971191,0.0776730626821518,0.020115653052926065,-0.13145628571510316,0.8944767713546753,-0.44156453013420107,-0.21696677803993226,-0.18728332221508027,0.420456200838089,-0.8579244017601013,-0.23061984777450562,-0.18911081552505494,-0.20386740565299989,0.20908449590206147,0.17387637495994569,-0.009879088960587979,-0.4029020071029663,0.31192219257354739,-0.24865230917930604,0.7808809280395508,-0.35621142387390139,0.20264971256256104,0.673833429813385,-0.5060264468193054,-0.31187373399734499,-0.7197264432907105,-0.683361828327179,-0.10471902042627335,-0.7835253477096558,-0.3869108557701111,0.7003861665725708,-0.3728622794151306,0.6563114523887634,1.0074914693832398,-0.07168847322463989,-0.09158802777528763,-0.0952407568693161,-0.9196219444274902,0.21139702200889588,0.2304033488035202,-0.2027858942747116,-0.24290142953395844,0.20001079142093659,-0.38806650042533877,0.8457913398742676,0.35829609632492068,-0.08654264360666275,-0.6450613737106323,1.4365971088409424,0.4014766216278076,-0.7262465357780457,-0.4195123016834259,-0.09093610942363739,-1.507662296295166,-0.31044477224349978,0.12802261114120484,-0.17118734121322633,-0.24264849722385407,0.04554023966193199,-0.19590309262275697,0.29205310344696047,0.09633557498455048,0.07360564172267914,0.2943105101585388,-0.16045695543289185,-0.36306431889533999,-0.4093576967716217,0.43332913517951968,-0.49859175086021426,0.013902888633310795,0.8368597030639648,-0.36100995540618899,0.7616249322891235,-1.002249836921692,-0.3292476534843445,0.36334800720214846,-0.5669947266578674,0.9526873826980591,0.033247437328100207,0.2133641242980957,0.1117127537727356,0.22802262008190156,0.4265897274017334,-0.31416255235671999,-0.22892607748508454,-0.9926409721374512,0.5710510015487671,-0.2336491346359253,0.23768065869808198,-0.7274095416069031,1.0987920761108399,-0.3999708592891693,1.1263878345489503,-0.6875318288803101,-0.7217543721199036,-0.1247560903429985,0.46142643690109255,-0.027743270620703698,0.2743382751941681,0.1042255386710167,1.5582472085952759,1.024130940437317,0.30388131737709048,0.024824680760502816,0.29071924090385439,-1.389109492301941,-0.024822816252708436,0.4101177453994751,-0.1554749608039856,0.9041181802749634,0.14039690792560578,0.36272287368774416,-1.0263400077819825,1.080291509628296,0.765961229801178,0.7303778529167175,0.2716146409511566,0.19722329080104829,-0.9285818934440613,1.2043161392211915,-0.6900008916854858,0.37497827410697939,0.7479908466339111,0.789506196975708,0.9694793224334717,0.08434969186782837,-1.4329875707626343,-1.5637918710708619,0.2711887061595917,-0.16736480593681336,0.5474043488502502,-0.6226450800895691,-0.0662594735622406,0.30704331398010256,1.1917771100997925,0.25322723388671877,0.45744842290878298,0.29680997133255007,-0.670521080493927,0.6441147923469544,-0.7485430836677551,0.08134660869836807,-0.1692361980676651,-0.6896889209747315,-0.12736546993255616,0.2938140630722046,-0.13985039293766023,0.24009113013744355,1.0134941339492798,-0.17810483276844026,-0.43110767006874087,-0.6199970245361328,0.2229848951101303,-0.0380265936255455,-0.40349307656288149,0.021202733740210534,-0.17650435864925385,-0.19796878099441529,-0.008183413185179234,-0.7487578988075256,0.25147560238838198,0.19000700116157533,0.8958870768547058,1.5903531312942505,-0.08714557439088822,0.5652180910110474,0.37176308035850527,-0.40461114048957827,-0.6814674735069275,0.8322668075561523,0.5879742503166199,-0.7741234302520752,0.1229487881064415,0.23399390280246736,-0.6627306938171387,-0.41013750433921816,-0.3269617259502411,0.8434346318244934,-0.35072487592697146,-0.8011900782585144,-0.3134230673313141,-1.1266735792160035,0.5766716003417969,-0.8257125616073608,0.37055665254592898,0.6665284037590027,0.006352369673550129,0.03675965964794159,0.18628434836864472,0.35046401619911196,-0.5945013761520386,0.08951506018638611,0.2715108394622803,0.13661590218544007,-0.16586026549339295,-1.2817111015319825,-0.7012098431587219,-0.05890483781695366,-0.4192028343677521,-0.13008975982666017,0.20325013995170594,0.36310461163520815,0.03342127054929733,0.700822114944458,-0.4851874113082886,0.03957929462194443,-0.8070490956306458,-0.31693369150161745,-1.610937237739563,-0.32818782329559328,0.7492338418960571,-0.1038653552532196,-1.0745761394500733,0.2606038451194763,-0.3887827694416046,0.7083911895751953,-0.4887174963951111,-0.4911828339099884,-0.8914527297019959,0.3744273781776428,-0.04286656901240349,-0.3628624975681305,0.6032088994979858,-0.1042480543255806,0.6597933173179627,-0.24576090276241303,-0.0033031227067112924,0.9306970238685608,0.9615440964698792,0.6244684457778931,0.6902512311935425,-0.2307809740304947,-0.4050043225288391,0.27933838963508608,-0.6559873223304749,0.7858386039733887,0.8225430250167847,0.7194147109985352,0.29802778363227847,1.0539277791976929,1.0071682929992676,-0.14464600384235383,-0.16055867075920106,-0.02453741990029812,-0.27694612741470339,-0.693838357925415,-0.779973566532135,-0.7434479594230652,0.7741575241088867,-0.27685120701789858,-1.1706926822662354,-0.13744544982910157,0.14472252130508424,0.4933246374130249,-0.7670663595199585,-0.15217575430870057,-0.3570171892642975,-0.23351585865020753,-0.09291992336511612,0.8080319762229919,-0.603485643863678,-0.5817707180976868,1.1746479272842408,0.43061375617980959,-0.5118350386619568,-0.08875393122434616,-0.733124852180481,-1.0269110202789307,0.13406747579574586,-0.9511893391609192,1.3454071283340455,-0.34689861536026,0.3989729583263397,1.4260201454162598,0.18050675094127656,-0.9900335669517517,0.024300487712025644,-0.05104057490825653,0.8318620324134827,-1.3881264925003052,2.290365219116211,1.170942783355713,1.2685221433639527,0.2553650140762329,-0.14693155884742738,-0.4128490388393402,0.20248188078403474,0.15027353167533875,-0.293058305978775,-0.401475727558136,-0.802574634552002,0.8467562794685364,0.5868867635726929,0.8705295920372009,-0.250873863697052,0.15169371664524079,0.22669123113155366,0.3309467136859894,-0.1539904773235321,0.10382068157196045,0.4895118474960327,0.4846186339855194,-0.7394464612007141,-0.21619749069213868,-0.07507532835006714,0.31299710273742678,-1.0669171810150147,0.6508623361587524,-0.3206336498260498,-0.13764703273773194,1.0485625267028809,0.07098283618688584,-0.9063278436660767,-0.9328981637954712,-1.5782666206359864,-1.1053181886672974,0.016304828226566316,0.5439304709434509,-1.003156304359436,-0.34860652685165408,-0.7646536827087402,-0.9098523855209351,-0.5213950872421265,-0.7115441560745239,-0.01983913779258728,0.0633629634976387,1.7335368394851685,-0.6792426705360413,-0.011422916315495968,-0.7941926717758179,0.5514616966247559,-1.2737818956375123,0.6918929815292358,0.6729196906089783,-1.2157583236694337,-0.2688998281955719,0.551080584526062,0.7790234684944153,0.0021950979717075826,0.7998639941215515,0.1102018803358078,-0.5602091550827026,-0.9370110034942627,-0.46262216567993166,0.9557413458824158,0.3165532350540161,-0.17112164199352265,0.9378542900085449]},"biases":[-0.786376953125,-0.024179179221391679,-0.4040873050689697,-0.14584602415561677,0.07557845115661621,0.36063358187675478,-0.7789528369903565,0.364351749420166,-0.949131429195404,-0.04972933232784271,-1.3730590343475342,-0.19093850255012513,1.3122637271881104,-0.08853219449520111,0.029970642179250718,-1.015609860420227,0.41487613320350649,0.582868754863739,-0.2475922405719757,-0.10751555114984513,-0.5556507110595703,-0.9395670890808106,0.7652387619018555,0.6638175845146179,-0.06431831419467926,1.053517460823059,-0.05713220685720444,-1.0337233543395997,-0.3521111011505127,-0.5441503524780273,-0.8446562886238098,-0.764289140701294,-0.4476332664489746,-1.796571969985962,-0.4877079129219055,-0.4276168644428253,0.8244565725326538,-0.44941890239715578,0.038446154445409778,-0.21071749925613404,0.5329943299293518,1.0656023025512696,-0.25590980052948,0.4005671441555023]},{"neurons":[0.11994107812643051,0.9950617551803589,0.999998152256012,0.9998191595077515,0.9896751046180725,-0.9629746675491333,0.9999629855155945,-0.9901257753372192,0.9953731894493103,0.9012128710746765,-0.9991339445114136,-0.9995094537734985,-0.999970018863678,-0.9700722098350525,-1.0,-0.9822134375572205,0.9999362230300903,0.9999946355819702,0.9999999403953552,-0.9993838667869568,0.9978830218315125,-0.9996224641799927],"weights":{"rows":22,"cols":44,"data":[0.304800808429718,0.28693127632141116,-0.08606922626495362,0.3760671019554138,-0.9156858921051025,0.7285457849502564,0.7355935573577881,-0.4370037317276001,0.702599823474884,-0.4314538836479187,-0.6345298290252686,0.8788246512413025,0.4760300815105438,-1.2006758451461793,0.6716902852058411,-0.3394499123096466,-0.6085390448570252,-0.8048996329307556,-0.9330485463142395,-0.9293193221092224,-0.7977343797683716,0.15551486611366273,-0.24730955064296723,0.07454530149698258,-0.5495651960372925,0.47231724858283999,1.0774775743484498,-0.8146166205406189,0.2720552682876587,0.1645403802394867,-1.9395657777786255,-1.4142769575119019,-0.9621120691299439,0.6395639181137085,-1.2793452739715577,0.36187320947647097,0.03203391283750534,-0.5855095982551575,-0.35747236013412478,-0.5377382040023804,-0.726762056350708,0.005070283077657223,-0.4292386770248413,-0.5747995376586914,0.6925419569015503,0.41838064789772036,0.4463314414024353,1.0557713508605958,0.7596156597137451,-0.1472904235124588,1.0739142894744874,-0.7678226232528687,-1.3894277811050416,0.4289434552192688,1.289873480796814,-0.5704752802848816,0.014507574960589409,0.48136916756629946,-0.08831458538770676,-0.8123321533203125,-0.1825156807899475,0.9535321593284607,-0.20816005766391755,-0.5301862359046936,-0.061624057590961459,0.7677298784255981,1.731526255607605,-0.2063150256872177,-0.5404431223869324,0.2376149594783783,0.3087345361709595,1.6878339052200318,2.0789523124694826,1.6199471950531006,-0.34558919072151186,-2.2133238315582277,-0.47384601831436159,-1.1950438022613526,-1.0044114589691163,-1.2069491147994996,0.4844506084918976,-0.09076105803251267,-0.1936100721359253,-0.7463909983634949,0.697916567325592,0.22330084443092347,-0.33749908208847048,1.1665968894958497,0.6450698971748352,0.011720563285052777,0.9421290755271912,-1.7103687524795533,1.8992449045181275,-0.0033765125554054977,0.6120304465293884,-0.8418496251106262,-0.5128944516181946,-0.17445048689842225,-0.6817272901535034,-0.2875584661960602,-0.7466077208518982,0.2486603856086731,0.8071451783180237,0.1590004414319992,-1.3251253366470338,1.4168438911437989,-0.6382213830947876,0.7094717621803284,-0.10639484226703644,0.3701714277267456,-0.6807665824890137,-0.41586974263191225,0.830134928226471,0.7896456122398377,0.2055749148130417,0.7440309524536133,-0.7613204717636108,-0.3959258794784546,0.1994934380054474,-0.3278738856315613,0.7393073439598084,1.4414554834365845,-0.01815134659409523,-0.3426749110221863,0.918095052242279,-0.5967154502868652,0.555406928062439,-0.3485052287578583,0.6638576984405518,-0.2881925702095032,-0.35280320048332217,1.0926285982131959,0.563946545124054,0.8626784086227417,-0.0867035984992981,0.7048366665840149,-0.0005395525367930532,-0.4683224558830261,0.08050885796546936,-0.6345031261444092,0.4294750690460205,-1.4620743989944459,0.11734927445650101,-0.29500681161880495,-0.5752832293510437,-0.2058141529560089,0.6083410382270813,0.7457677125930786,-0.18244822323322297,0.14210174977779389,0.30272185802459719,0.5194713473320007,-0.3283569812774658,-0.1642790287733078,1.1437523365020753,0.4577758312225342,-0.17125362157821656,0.5310178399085999,0.1744445562362671,-0.3311927020549774,-0.5096759796142578,0.05966924875974655,-0.5790097713470459,1.3335790634155274,-0.8520010113716126,-0.5765807628631592,-0.10830855369567871,-0.6365698575973511,0.06230754032731056,-1.1151043176651,0.24613520503044129,-0.6839770078659058,0.5468612313270569,0.7745920419692993,0.2087172269821167,-0.4001919627189636,-0.10321170836687088,-0.5483533143997192,0.4240642189979553,0.5745463967323303,-0.14582817256450654,-0.870563268661499,0.47011637687683108,-1.3589184284210206,0.30874788761138918,-0.3323911726474762,-0.15306271612644196,0.7273733615875244,1.2036702632904053,-0.07063597440719605,-0.11921187490224838,-0.9496620297431946,-0.3897235095500946,0.7523428201675415,0.818288266658783,0.15760917961597444,-0.06459244340658188,-0.5132280588150024,0.585110068321228,-0.20215287804603578,0.099958635866642,0.04353190213441849,-0.005538598634302616,0.6591372489929199,-0.257926881313324,-0.037806034088134769,-0.7446982860565186,-0.1457248032093048,0.5716617703437805,0.29630857706069949,-0.6684943437576294,0.41122668981552126,-0.948344349861145,-0.39987707138061526,-0.7404167652130127,0.2625904381275177,-0.7746988534927368,-0.21167868375778199,0.25451263785362246,1.0137522220611573,-0.07892946153879166,0.4529120922088623,-0.1984603852033615,-1.0784764289855958,-1.1689493656158448,-0.43644607067108157,-0.8996526598930359,0.07344025373458862,0.27111777663230898,0.9516041874885559,0.7517915368080139,1.0399997234344483,-0.514391303062439,0.433663934469223,-0.24403423070907594,-0.6831969618797302,0.12417414784431458,1.0679630041122437,0.003138643689453602,-0.5586598515510559,-1.1450377702713013,-0.8917765021324158,0.49113714694976809,-0.20824980735778809,0.13341619074344636,0.6639570593833923,-0.8915549516677856,0.6177413463592529,-0.5659472346305847,0.05466328561306,0.9518722295761108,0.08429837226867676,0.026195062324404718,0.5077170729637146,-0.7858843803405762,1.3301080465316773,-0.24947422742843629,-0.6919926404953003,0.7441722750663757,0.17497266829013825,0.03666504845023155,0.04821483790874481,0.4569060802459717,-0.7869402766227722,1.3868651390075684,0.5539042353630066,-0.8498242497444153,-0.28243288397789,-0.8955992460250855,-0.4272681176662445,-0.6997039914131165,-0.7204954028129578,-0.5523732900619507,-0.6511105298995972,-1.4287240505218506,-0.9096626043319702,-0.06504175066947937,0.3129216134548187,1.1168266534805298,-0.4950912594795227,-1.1458854675292969,-0.4549546241760254,-0.9845547676086426,-0.0077888756059110168,0.5356716513633728,-0.21563200652599336,-1.591760516166687,0.40420767664909365,-0.9577810168266296,-0.44357797503471377,-0.025501415133476259,-0.766927182674408,-0.14501605927944184,0.052598223090171817,-0.881742000579834,0.17618486285209657,0.9632320404052734,0.4885933995246887,-0.049155786633491519,0.026751473546028138,-0.4853212237358093,1.2581350803375245,-0.17920474708080293,0.05984580144286156,1.007934331893921,0.04604378342628479,-0.7086070775985718,-0.5155326128005981,1.4412472248077393,-1.0223177671432496,-0.1088244691491127,0.4231991469860077,-0.5901433229446411,0.4728890657424927,-0.5021971464157105,-0.23979443311691285,-0.3851237893104553,0.5940976142883301,0.9999043941497803,-0.24924297630786897,-0.18731297552585603,-0.5176786780357361,-0.3652392327785492,0.45552757382392886,-0.18384847044944764,-1.1208406686782838,0.15481030941009522,-0.27042075991630556,0.1625465303659439,-0.6373609900474548,1.4060757160186768,0.023293575271964074,-0.2991631031036377,0.22569912672042848,-0.02368984743952751,0.6410054564476013,0.06270021945238114,0.5134122967720032,-0.3015677332878113,0.2566576302051544,-0.6597189903259277,-0.3017762005329132,-0.14167764782905579,-0.4002334773540497,-0.8589767813682556,-0.4869758188724518,1.5082849264144898,0.884523868560791,-0.11383853852748871,-1.45907461643219,0.07031813263893128,0.578512966632843,0.11377586424350739,0.5126292109489441,-0.36212158203125,-0.5536687970161438,-0.19710783660411836,-0.3241824805736542,-0.563948929309845,-1.0721396207809449,0.6073607802391052,0.9533699750900269,-0.09176595509052277,1.8445839881896973,0.9265527129173279,-0.6624600291252136,-0.9010167717933655,1.4007315635681153,-0.3592818081378937,-0.8451603651046753,-0.6579951047897339,0.22918543219566346,1.4017283916473389,-0.6778804659843445,-0.531561553478241,0.7480251789093018,0.775109589099884,-0.8905665874481201,0.5004291534423828,-0.3917389214038849,-0.5840111970901489,-1.0336593389511109,0.05333349108695984,-0.6155556440353394,-0.4383668005466461,0.746015191078186,-0.22235211730003358,-1.049531102180481,-0.1560559868812561,-0.14235180616378785,-0.890562891960144,2.632401704788208,0.5322977900505066,-0.48808640241622927,-1.3843764066696168,0.6763895750045776,0.5647932291030884,-0.19582392275333405,0.37077054381370547,0.7171900272369385,0.40992286801338198,-0.17503628134727479,-0.47760286927223208,0.5222716331481934,0.5189776420593262,-1.3124370574951172,0.4632940888404846,-0.3852587044239044,0.3749349117279053,-0.5321227312088013,0.15959133207798005,0.4521658420562744,1.2964452505111695,-0.8611997365951538,0.711422324180603,-0.8090399503707886,-0.6175243854522705,0.0733305960893631,-0.4575958847999573,0.05083145201206207,0.06609676778316498,0.7155176401138306,-0.4336932599544525,-0.3685148060321808,-0.7133098840713501,-0.028021646663546563,0.9666943550109863,-0.27005910873413088,-0.40189844369888308,0.9670550227165222,0.9981104731559753,-0.2698381543159485,0.9474658966064453,1.0226144790649415,0.005933086853474379,0.6363030076026917,-0.5914022922515869,0.4318937659263611,0.10549705475568772,-0.47229281067848208,-1.120866060256958,0.1124037355184555,0.39897650480270388,-0.9035744667053223,0.8760904669761658,0.05072829872369766,0.7830379605293274,-0.20077458024024964,0.15417756140232087,-0.7139570116996765,1.3410860300064088,-0.3998410403728485,0.7166909575462341,0.34857141971588137,-0.29012346267700198,-1.8235262632369996,0.18329261243343354,-1.0868580341339112,0.16353633999824525,0.7906486392021179,-0.14514277875423432,-0.2971460521221161,-0.5659939050674439,-0.5591928362846375,-0.09772118926048279,0.6714769601821899,0.8284982442855835,0.7903837561607361,-0.08136042952537537,0.41385331749916079,-0.4928117096424103,0.2946833074092865,0.23415809869766236,0.7299177050590515,-0.8270471692085266,-0.19166173040866853,-0.44376707077026369,-0.3972439169883728,0.490918904542923,-0.2680926024913788,-0.5724115967750549,0.1985342651605606,-0.41756126284599306,-1.6075146198272706,-0.9004386067390442,0.22935201227664948,-1.204711675643921,0.302526593208313,-0.3402758836746216,0.009967229329049588,-0.520071268081665,-0.0027810779865831138,0.315975159406662,0.3854382038116455,0.41280144453048708,-1.0491822957992554,1.013577938079834,-0.5440019965171814,0.4147511422634125,-0.26242923736572268,0.48317617177963259,0.5774446129798889,-0.5883253812789917,-1.3638948202133179,-0.4347090423107147,0.15282264351844788,0.8907121419906616,-0.8606060743331909,0.594358503818512,0.08759297430515289,1.413543939590454,0.8719139695167542,-0.4005471169948578,0.5221219062805176,0.6456342339515686,1.120328664779663,1.648331880569458,-0.5889541506767273,-0.654538094997406,-1.0983161926269532,0.05346837639808655,0.4809676706790924,0.8222023248672485,0.26506152749061587,0.35865727066993716,-1.19025719165802,-0.24398967623710633,1.0180001258850098,0.23115089535713197,0.5691184997558594,1.2793331146240235,0.41367629170417788,-0.31471210718154909,-0.03277236223220825,0.9800126552581787,-0.004627040587365627,0.5181477069854736,0.4139597415924072,0.5185951590538025,0.2149682343006134,-0.17172688245773316,0.6516410112380981,-0.7463732361793518,0.5308599472045898,0.013364709913730622,-1.2835031747817994,-1.2967591285705567,0.16252049803733827,-0.6773765683174133,0.05486982688307762,-0.645026445388794,-0.3811050057411194,0.05826810747385025,0.7338501214981079,0.48270243406295779,0.8916144967079163,-0.056691303849220279,-0.7981042861938477,1.3728601932525635,-1.076167106628418,-0.513964056968689,-1.1803503036499024,0.3834596574306488,-0.040206778794527057,-0.24276167154312135,0.48465681076049807,-0.14086201786994935,-1.0673314332962037,-0.727955162525177,0.5767168402671814,0.07994028925895691,0.3520967364311218,-0.6128855347633362,0.7624305486679077,0.546614944934845,-0.27600765228271487,-0.41807740926742556,-0.14260637760162354,-0.3351399898529053,-0.4807441234588623,-0.10426463186740875,0.24802729487419129,-0.23472042381763459,-0.3316270709037781,-0.30990228056907656,-0.8485198020935059,0.6498591303825378,-0.2785660922527313,0.299352765083313,-0.35477012395858767,1.04201340675354,0.2914736270904541,-0.7586421966552734,0.5726650357246399,0.44711434841156008,-0.9415547847747803,0.2805756628513336,0.061412323266267779,0.6697213649749756,-0.19098550081253053,0.4530673623085022,-0.3948613107204437,0.657882034778595,-0.7194042205810547,0.13052618503570558,-0.1444179266691208,-0.07247557491064072,-0.0056512970477342609,-0.6339525580406189,-0.23981474339962007,-0.7208436131477356,-0.9554426670074463,0.11356812715530396,0.06435239315032959,-0.2251076102256775,-0.0672493651509285,0.31321024894714358,0.47942325472831728,-0.28006711602211,-0.4288730323314667,0.373307466506958,0.09771964699029923,-0.1418817937374115,-1.051344394683838,0.450074702501297,0.20904584228992463,1.0210996866226197,0.5717574954032898,0.11193978786468506,1.8932139873504639,-0.9136826395988464,0.36432918906211855,-0.7811031341552734,-0.35645848512649538,0.5710244178771973,0.2373536080121994,-0.9838218092918396,0.025271665304899217,-0.0779331624507904,-1.2240242958068848,0.696133017539978,-0.7579929828643799,-0.1707516312599182,-0.26940053701400759,0.8697386384010315,0.49801287055015566,1.1116268634796143,0.2044873833656311,0.57626873254776,-0.8953189253807068,0.0745759829878807,0.7422982454299927,-0.3292170763015747,0.033897899091243747,-0.40312787890434267,-0.38898542523384097,-0.05998186022043228,-0.42474350333213808,-0.6408966183662415,-1.4634544849395753,0.46836933493614199,0.7437868118286133,-0.4689532518386841,-0.12276951968669892,-0.7744850516319275,0.8067012429237366,0.1834346503019333,0.23190662264823914,-0.5321054458618164,0.6049000024795532,-0.18265098333358766,-0.29174163937568667,-0.3389146327972412,0.4380747675895691,0.07778991013765335,-0.06701686233282089,0.13442228734493257,-0.9853910803794861,0.4858015775680542,0.10341327637434006,-0.49304401874542239,0.5447919964790344,-0.7161505222320557,-0.10811656713485718,0.17695686221122743,-0.9338907599449158,-1.349636435508728,0.45254769921302798,-0.4432470500469208,0.05664722993969917,-0.5502543449401856,0.23814289271831513,0.42222923040390017,0.22760114073753358,0.657467782497406,0.9035733938217163,0.06679411232471466,0.10837635397911072,0.612411379814148,0.22568966448307038,-0.10967163741588593,-0.5220077037811279,0.39517879486083987,-0.165839284658432,0.3308843970298767,-0.13508038222789765,1.6151533126831055,-0.8052642941474915,1.6288764476776124,-0.2739994525909424,-0.3330725431442261,0.0733332484960556,-0.4303470849990845,0.2890552878379822,0.12517280876636506,-0.19338306784629823,-0.7630599737167358,-0.4822959005832672,-0.7945529818534851,-0.8765381574630737,-0.04926234856247902,-0.40725311636924746,-0.5198796987533569,0.06677594035863877,0.9156426191329956,-0.17515623569488526,0.319620281457901,1.2054417133331299,0.4171566963195801,0.3632618486881256,-0.1423177719116211,-0.22798682749271394,-0.40653350949287417,-0.7358501553535461,0.3330361843109131,-0.5021530389785767,0.011736489832401276,-1.716843605041504,0.0072399526834487919,-0.5663637518882752,0.8566495776176453,0.28084635734558108,-0.1863842010498047,-0.6877704858779907,-1.0201869010925294,0.3910079598426819,0.6302158832550049,0.309128075838089,0.05454393848776817,-1.0165082216262818,0.4258953630924225,-0.42135176062583926,0.24972444772720338,0.4087890088558197,0.16904783248901368,-0.8399143218994141,-1.1694520711898804,0.04617948830127716,-0.7241204380989075,-1.1465034484863282,0.6339327096939087,-0.7915637493133545,0.6176968812942505,0.6346027851104736,-0.44527336955070498,-0.04769351705908775,-0.22748085856437684,-1.0611015558242798,-1.1001843214035035,1.1037448644638062,-0.3099501430988312,0.5382807850837708,1.4046128988265992,0.4996521770954132,-0.6343239545822144,0.6541123390197754,-0.2455112636089325,-0.3010215759277344,-0.2626437842845917,-0.03500271961092949,-0.07770413905382157,-0.8395340442657471,-0.09723760932683945,-0.2529870569705963,0.8144065737724304,-1.1544259786605836,0.6860532760620117,0.26560962200164797,0.9265003800392151,-0.3435492217540741,-0.611168384552002,-0.20811371505260468,-0.5031386017799377,0.6859583258628845,-0.40626153349876406,0.5222225785255432,1.3646972179412842,0.1761753410100937,-0.5581271052360535,1.195608139038086,-0.6951490044593811,-1.1068137884140015,-0.44752880930900576,0.28628548979759219,0.7121714353561401,-0.8891559839248657,-0.5465260744094849,0.26020416617393496,0.06482329964637757,0.7449179887771606,-1.6906088590621949,0.15142010152339936,-0.8793935179710388,-0.2118605524301529,0.7050619125366211,-0.14678940176963807,-1.3940646648406983,0.02291722223162651,0.39654576778411868,0.8637573719024658,0.7453633546829224,-0.7381336688995361,0.12565389275550843,0.23545020818710328,-0.3207365870475769,-0.8323376178741455,0.9700542688369751,1.8801023960113526,0.622713565826416,-1.6339843273162842,-0.8939962387084961,0.06438279896974564,-0.17611072957515717,0.8274196982383728,-0.3602997064590454,0.7361015677452087,0.48946601152420046,-0.9439298510551453,-0.8194000720977783,0.3350762128829956,0.43511444330215456,0.6940315365791321,-0.024944540113210679,-0.9603008031845093,-0.3155640661716461,0.7577839493751526,0.5327622294425964,-0.08782599866390228,-0.5488973259925842,-0.0687812939286232,0.9907448887825012,0.4039062261581421,0.33717694878578188,-0.4186084270477295,-0.44153326749801638,0.21316282451152802,-0.737971842288971,-0.5478575229644775,-0.45738303661346438,0.38616904616355898,-0.8022974133491516,-0.856643795967102,0.026132745668292047,0.06982271373271942,0.40303167700767519,0.4769056737422943,0.5267183780670166,-0.05031518265604973,-0.10568788647651673,1.395077109336853,0.8626262545585632,2.0430545806884767,-1.2118890285491944,0.45031166076660159,0.3452513813972473,-0.050422538071870807,0.7435555458068848,0.6080392599105835,0.19379429519176484,0.385710209608078,0.22578449547290803,0.30097487568855288,-1.0787086486816407,0.09791699051856995,0.1466463804244995,0.7913798689842224,0.00279587903060019,-0.28588417172431948,0.5085136890411377,-1.5450330972671509,0.3345922827720642,1.665596842765808,0.2038538008928299,0.40181007981300356,0.7618191838264465,0.5479405522346497,-0.40897682309150698,-0.2902551591396332,-0.14243701100349427,0.14382366836071015,0.5175942778587341,-0.8366430997848511,-0.3293401896953583,-0.1683085858821869,-0.6305884718894959,1.430816411972046,-0.39638280868530276,0.6964821815490723,-0.03343574330210686,1.0847578048706055,0.17313463985919953,-1.100844144821167,0.7401884198188782,-0.7869635820388794,-0.45045605301856997,0.07360755652189255,0.22366346418857575,-0.3631330728530884,-0.8401810526847839,-0.6431359052658081,-0.36734604835510256,0.0027511129155755045,0.46665284037590029,-0.4759943187236786,0.5492026805877686,0.3058266043663025,-0.35776597261428835,0.18740159273147584,-0.8648924231529236,1.0410997867584229,-0.4081515371799469,-0.006735493894666433,0.4558429419994354,-0.16925811767578126,-1.0605053901672364,-0.039682723581790927,0.6383780241012573,0.14372529089450837,-0.47265538573265078,0.15784595906734467,0.3032146990299225,0.25805094838142397,1.5774589776992798,0.5548228025436401,-1.07528555393219,0.27200666069984438,1.1756569147109986,0.8780537843704224,1.2472805976867676,0.9497833251953125,-0.13532614707946778,-0.11734847724437714,0.526879608631134,0.6888915300369263,0.34915292263031008,0.5595415830612183,0.027754567563533784,0.5666083097457886,-0.32292604446411135,-0.3140813708305359,0.6072583198547363,2.052381992340088,-0.1890900880098343,-0.03557392954826355,0.2525804340839386,0.7109749913215637,0.14351098239421845,0.29777786135673525]},"biases":[0.11385979503393173,-1.1332398653030396,-0.49940770864486697,0.5501251220703125,0.43729808926582339,-0.5991011261940002,-0.12008516490459442,0.44667765498161318,0.8026062846183777,0.8869227766990662,0.35556232929229739,0.04714211821556091,-0.7285794019699097,0.5767273902893066,-0.8743777275085449,0.6281301379203796,-0.6352100968360901,-0.504803478717804,0.9113582968711853,0.11225366592407227,-0.5089221596717835,-0.16833633184432984]},{"neurons":[-0.43977391719818118,-0.9972104430198669,0.9575813412666321,-0.9191915392875671,-0.9778916239738464,-0.9060795903205872,0.9996716380119324,0.4687637388706207,-0.9255242347717285,0.9575145244598389,0.9566739201545715],"weights":{"rows":11,"cols":22,"data":[-0.9052857756614685,0.009775590151548386,1.2451286315917969,0.4426916837692261,0.629875898361206,0.31233254075050356,-0.3943638503551483,0.9923805594444275,0.16723211109638215,0.3770350217819214,-0.5522845387458801,0.5639163255691528,-0.02416684478521347,-0.1819796860218048,0.5828606486320496,0.7495825886726379,0.3384561538696289,-1.195593237876892,-0.41482317447662356,-0.5339281558990479,0.11759864538908005,0.03238619118928909,-1.4638267755508423,-0.267171174287796,0.4761096239089966,-0.4681684970855713,0.05769197270274162,-0.717724621295929,-0.3056267201900482,0.4838164150714874,-0.43951860070228579,0.5549172163009644,-1.0665110349655152,1.439176082611084,0.7307465076446533,0.20921286940574647,-0.3615129888057709,0.6546534299850464,-1.182774543762207,0.2041129618883133,0.3311261534690857,-0.5475581884384155,-0.2748449146747589,0.5647596120834351,0.09371772408485413,1.0185625553131104,-0.9127179384231567,0.6677699685096741,0.7112873196601868,-0.6526620984077454,0.7700408697128296,-0.6237464547157288,-0.3985903263092041,-0.12605948746204377,0.3131847083568573,-0.2538363039493561,-0.4085826277732849,-0.19716955721378327,-0.2786436080932617,0.004962376784533262,-1.202569603919983,0.040535371750593188,0.6716943979263306,0.7453309297561646,0.2544606328010559,0.2760332226753235,-0.4197244644165039,-0.2602066397666931,-0.4862120449542999,0.4450216293334961,0.5066549181938171,-0.25955525040626528,0.7030293941497803,-0.09787780046463013,-0.275260329246521,-0.3805818557739258,0.17839248478412629,0.12373051047325134,0.41059938073158266,-0.11347858607769013,-0.5787520408630371,-0.1783096343278885,-0.9849061369895935,-0.6607517004013062,-0.37111642956733706,0.08933237195014954,0.15923729538917542,0.20777876675128938,0.9716322422027588,0.6383546590805054,-0.3895907402038574,0.8579002618789673,0.2570244371891022,0.40101510286331179,-1.0406900644302369,-0.3984103500843048,-0.8241982460021973,-0.739013671875,-0.6703196167945862,0.4934641122817993,0.4930068552494049,-0.9042922854423523,-0.861885666847229,0.5743670463562012,-0.7312369346618652,-0.15180455148220063,0.2890305817127228,2.070200204849243,0.6057801246643066,0.0020645621698349716,-0.40649938583374026,-0.21685025095939637,-0.2994486093521118,-0.06776361912488938,-0.24304158985614777,0.25192615389823916,-0.1885031908750534,0.11569870263338089,-0.8071758151054382,-0.12661071121692658,-0.04397258162498474,0.6192389130592346,-0.4926513731479645,-0.027564989402890207,0.4181728661060333,0.9636719226837158,0.22445817291736604,0.29232853651046755,0.18579387664794923,-0.689906656742096,0.6488354206085205,-0.9785596132278442,-0.03916088491678238,-0.7207738757133484,1.2522917985916138,-0.1259743571281433,-0.18419110774993897,0.9257344603538513,0.36555999517440798,1.3053697347640992,0.1565771847963333,0.7924602031707764,-0.9705645442008972,-0.6317299604415894,-0.08628767728805542,-1.0044502019882203,-0.05095987766981125,0.37703609466552737,-0.6933010220527649,0.12250573188066483,0.41444116830825808,-0.3906500041484833,0.7525789737701416,-0.3959842920303345,-0.5278646945953369,-0.7760998606681824,-0.12012148648500443,0.09669138491153717,0.4703170657157898,0.20803150534629823,-0.4139445126056671,-0.11267714947462082,0.3893049657344818,-0.3277561068534851,0.7929628491401672,0.11672613769769669,-0.667323112487793,-0.4790830612182617,-0.6680631041526794,0.1043236032128334,0.14982859790325166,0.13486430048942567,0.6799567937850952,-0.6067287921905518,-0.05779936909675598,0.374686598777771,-0.8673220872879028,1.6521145105361939,-0.8563942313194275,1.0432982444763184,-0.3230563998222351,-1.0218214988708497,-0.016262535005807878,0.2331201136112213,-2.502098798751831,-0.16883409023284913,0.7780621647834778,-0.23421037197113038,0.2719089686870575,-0.45796090364456179,-0.33860841393470766,0.6332838535308838,0.8203889727592468,0.2142178863286972,-2.0171282291412355,0.9904430508613586,0.4534497559070587,-0.4608139097690582,-0.19902470707893372,0.7400600910186768,-0.4339611530303955,0.6254839301109314,0.07100030034780503,-1.0075138807296754,-0.023190166801214219,-0.9066249132156372,-0.8747822046279907,0.09760713577270508,0.30140218138694765,0.011933866888284684,0.523440420627594,-0.009247451089322567,-1.3977839946746827,-0.8946394920349121,-0.3173075020313263,-0.29506996273994448,-0.33688923716545107,1.2283766269683838,0.9150962233543396,0.8495540618896484,1.8182735443115235,-0.4283771514892578,-0.0008762322249822319,0.18721707165241242,0.5660703182220459,-0.2508532404899597,-0.7334458827972412,-0.06035548448562622,-0.8107462525367737,-0.0032863589003682138,-0.5464798808097839,1.0493861436843873,-0.08691412955522537,-1.5037239789962769,-1.1088051795959473,-0.8893548846244812,0.48103439807891848,2.0980677604675295,-0.31300002336502077,0.6579145789146423,-0.25053155422210696,0.6697513461112976]},"biases":[0.2708897590637207,-0.3525175154209137,-0.6307196617126465,-0.16425861418247224,-0.00047977734357118607,-0.7670854926109314,1.3600431680679322,-0.6148514747619629,0.5862327814102173,0.5429500937461853,-1.105343222618103]}],"seed":933318750}