{"layers":[{"neurons":[0.7831004858016968,0.950604259967804,-0.9259219169616699,0.0651707723736763,0.9981688261032105,-0.9993504285812378,-0.9945667386054993,-0.8976221084594727,-0.9999436140060425,-0.95899897813797,-0.9999749064445496,-0.9998120069503784,0.9871588349342346,-0.8352757692337036,0.9999938607215881,0.985737144947052,-0.9993457794189453,0.7572665214538574,-0.9633382558822632,-0.9139260053634644,0.9989378452301025,0.34025299549102785,-0.563094973564148,0.9997130632400513,0.04397695139050484,0.9999940395355225,0.9999158382415772,0.9980551600456238,-0.9978219866752625,-0.9625030159950256,-0.9866041541099548,-0.8992183208465576,-0.9456609487533569,0.5296719670295715,0.9994000792503357,0.9932626485824585,0.6342843174934387,0.9677370190620422,-0.9975929260253906,0.982163667678833,0.9074369668960571,0.9984027743339539,-0.3515864312648773,-0.9381446242332459],"weights":{"rows":44,"cols":22,"data":[1.7354854345321656,-0.9782642722129822,0.46123936772346499,-0.10520052164793015,0.8877987861633301,-1.1415544748306275,0.9486386179924011,1.0644155740737916,-0.797029435634613,1.1316167116165162,-0.11652836203575134,-0.7530081272125244,-0.9945597052574158,1.018566608428955,-0.29917168617248537,0.5632988810539246,-2.078000783920288,1.2583714723587037,-0.15917520225048066,0.478799432516098,-0.45599886775016787,0.4961257874965668,0.800529956817627,0.25135424733161929,0.12030401080846787,-1.5153428316116334,2.4084415435791017,1.316166877746582,0.6829808950424194,1.0124861001968384,-0.6470203995704651,0.10562131553888321,-0.9021365642547607,-0.5031754374504089,0.28325435519218447,-0.8631184697151184,-0.9991304874420166,-0.33015599846839907,-0.12582163512706757,1.5238981246948243,-1.1229898929595948,-1.2336270809173585,1.170861005783081,-0.16510243713855744,-0.19736619293689729,-0.16320626437664033,-1.7065335512161255,0.6751872301101685,-1.261680006980896,-0.9465280175209045,0.25322291254997256,-0.5741338133811951,-1.075505256652832,2.391765832901001,-0.8877812027931213,0.19728489220142365,-2.1688411235809328,-0.2992185056209564,-0.40064337849617007,0.37510064244270327,-0.6361320614814758,-0.004732678644359112,-0.5234860777854919,-0.7265587449073792,0.5519612431526184,-0.29199451208114626,-0.22778742015361787,0.826500415802002,0.27543607354164126,0.34072718024253847,0.49486076831817629,1.7189068794250489,1.8596707582473755,1.0645047426223755,0.42557618021965029,-1.6954317092895508,-1.762594223022461,0.4143158793449402,1.022344946861267,-0.29469066858291628,-1.2594783306121827,0.6981409788131714,1.4390459060668946,0.5071181058883667,0.4754473865032196,0.7888286113739014,0.1927156299352646,-1.2729054689407349,0.8521204590797424,0.6015672087669373,-0.712404727935791,1.0886822938919068,0.4555633068084717,0.9603597521781921,-2.1239194869995119,0.11076291650533676,0.48301011323928835,0.9873253107070923,-0.4017106592655182,-1.4232233762741089,-0.9442846179008484,1.0774062871932984,0.4375065565109253,0.7202829122543335,-0.7220420837402344,-1.0515636205673218,-0.3272189795970917,-0.9879934787750244,-0.738409698009491,-0.001218640012666583,-0.5827991366386414,0.2925036549568176,0.4678705036640167,-0.5684391856193543,0.8531807661056519,-2.129786252975464,0.5550899505615234,0.035253942012786868,0.07611594349145889,0.17166268825531007,-0.29230865836143496,-0.5222771763801575,1.462725043296814,-1.2026755809783936,-0.4076364040374756,0.8255422711372376,-1.695644736289978,0.43231824040412905,-0.16302457451820374,-0.16226857900619508,-1.5117566585540772,-0.19534389674663545,1.428112268447876,1.781735897064209,1.3938210010528565,-0.07568641752004624,-0.470236212015152,-0.3563069701194763,-0.21425624191761018,0.4025850296020508,-0.5054708123207092,0.9788976311683655,-0.022445153445005418,-0.8106335401535034,0.03484022617340088,-1.2270500659942628,0.27115684747695925,-0.719460129737854,-0.4057270586490631,0.008019601926207543,0.691155195236206,1.9858609437942505,0.23497068881988526,-2.7647104263305666,2.359215021133423,-1.2316384315490723,1.0239773988723755,0.9739617109298706,-0.3253289461135864,0.6457086801528931,-0.12877881526947022,0.9840324521064758,-0.4093051552772522,-1.0933891534805298,1.901015043258667,-0.45375171303749087,1.1139559745788575,0.3917684853076935,-0.5269262194633484,-0.5695897340774536,-0.4141315519809723,0.8797738552093506,0.7809982895851135,-0.7584231495857239,-1.2409486770629883,-1.1075422763824463,1.5260080099105836,-0.5757145881652832,-0.6990315318107605,0.05859299376606941,-0.19283422827720643,-0.701005220413208,0.3659270703792572,1.6203252077102662,0.8066049218177795,1.1526252031326295,-0.4065859615802765,0.919668972492218,-0.5409258008003235,-0.6788381338119507,0.09405812621116638,-1.4814329147338868,-1.6183562278747559,0.6581472754478455,-0.28720495104789736,-1.0367692708969117,0.3000650703907013,-2.7145276069641115,-1.1145039796829224,0.986992597579956,-0.4898195266723633,-0.008460971526801587,0.7854136228561401,-1.4016282558441163,0.5533807873725891,1.150346279144287,-1.9974982738494874,0.12087088823318482,0.7085505723953247,0.7165871262550354,0.4688169062137604,0.10061955451965332,-0.4774612784385681,1.4466508626937867,0.5341765880584717,1.4411702156066895,1.0122690200805665,-1.9387438297271729,0.5415763258934021,-1.373902678489685,1.1848825216293336,0.7136351466178894,-0.8407095670700073,0.1399611234664917,1.5952423810958863,-0.2326948642730713,-0.22914151847362519,-1.5358768701553345,3.420147657394409,1.278303623199463,0.03866482898592949,0.6691355109214783,0.42657342553138735,-0.6952256560325623,-1.0218945741653443,1.0495624542236329,0.7305843830108643,0.5816900730133057,-1.2930046319961548,-0.5155614018440247,-0.2981914281845093,0.5150481462478638,0.6316363215446472,0.5750216841697693,0.6099473237991333,2.3971681594848635,-0.8721877932548523,-0.8262199759483337,0.4710703492164612,-0.7514658570289612,0.24283379316329957,1.4423295259475709,-0.5969198346138,1.5943489074707032,1.5980291366577149,-0.8186410665512085,-0.0722886323928833,2.2414002418518068,-0.7583467960357666,0.1609199345111847,-0.35615265369415285,-0.31044256687164309,-0.4650058150291443,-0.32376807928085329,-0.11178525537252426,0.4432865381240845,-0.42102500796318056,-0.9233580231666565,-1.8016427755355836,-0.35984328389167788,-2.7667369842529299,0.9598308801651001,0.6149455308914185,0.7670667767524719,0.040248483419418338,0.15907973051071168,-0.4509895443916321,0.7022692561149597,0.33195173740386965,1.0391998291015626,-0.3415498435497284,-0.6212218403816223,-0.8364012241363525,1.3824574947357178,0.809550404548645,-0.23454414308071137,0.12851108610630036,-0.6274765133857727,-0.3773794174194336,-0.27222740650177,0.7475540637969971,-1.1190311908721924,-0.8225576281547546,-0.5607277154922485,-1.5973410606384278,0.4205266833305359,0.6533206701278687,-0.600530207157135,0.7467602491378784,0.1743537187576294,-0.42801907658576968,-2.6101691722869875,-0.6308087706565857,1.6617828607559205,-0.7374197840690613,0.911725640296936,0.8838356733322144,-0.21342326700687409,0.05713752284646034,-1.2220168113708497,-0.135596364736557,-1.1446348428726197,1.506454586982727,-2.021336078643799,-0.9719996452331543,-0.6749935746192932,-0.4108087718486786,-0.9664986729621887,-4.032782554626465,0.47340789437294009,-0.7048842310905457,0.8467665910720825,-3.08893084526062,-0.29736799001693728,-0.621592104434967,-0.26669377088546755,0.17468038201332093,-1.4902476072311402,-1.8471885919570923,-0.968104362487793,-1.9647232294082642,-0.31324130296707156,-0.21952252089977265,-1.5517228841781617,1.9022623300552369,-1.192884922027588,-2.2271618843078615,1.1189587116241456,-0.9714802503585815,-0.002223763382062316,-1.33232843875885,-0.9274775981903076,1.5454504489898682,0.922460675239563,0.7330967783927918,-0.9735071063041687,1.6968536376953126,0.02221258357167244,0.8184996247291565,2.7929818630218508,-0.36080706119537356,0.6630128622055054,-0.7522307634353638,1.5218799114227296,-0.06587973237037659,1.1367032527923585,1.1870100498199463,0.39985308051109316,2.5372040271759035,1.1598353385925294,1.220323085784912,-0.5640720129013062,-1.5859495401382447,-0.9620864391326904,1.6799492835998536,0.350277841091156,0.28645026683807375,0.05304494872689247,-1.1218931674957276,0.5807925462722778,1.626272201538086,-0.946236252784729,1.4051042795181275,-0.5656946301460266,1.1075971126556397,-0.13852037489414216,0.9545585513114929,0.42045924067497256,-0.179453507065773,-0.42641159892082217,0.35260772705078127,-0.5978811979293823,-1.5313829183578492,1.2349672317504883,1.1070624589920045,-1.4430564641952515,-1.1730908155441285,1.5588200092315674,-0.37711262702941897,1.5172221660614014,-1.5295441150665284,0.22974002361297608,-0.6133381724357605,1.498706340789795,1.4621447324752808,-0.35014116764068606,-1.8807847499847413,0.6800678372383118,0.20656158030033112,0.11933086812496185,1.596392273902893,0.7463765144348145,0.8122795820236206,-0.03781145066022873,-0.2072024792432785,-1.3030714988708497,0.4861851930618286,1.452298641204834,0.6536251306533814,-0.8931632041931152,0.10675209760665894,0.9824542999267578,1.2660741806030274,-0.10829325765371323,0.3588978350162506,0.5631685853004456,0.022150136530399324,1.060860276222229,0.9457720518112183,1.0143142938613892,0.42932936549186709,-0.9881458282470703,-1.4395122528076172,-0.05123363062739372,2.458972215652466,-0.2194681316614151,-0.8764971494674683,-0.7091891169548035,-1.5631554126739503,1.135036826133728,0.9079514145851135,0.3711329996585846,-0.13610540330410005,-0.7388671636581421,-0.1468815803527832,1.635543704032898,-0.8403192758560181,1.4549415111541749,-0.6363088488578796,0.4311441481113434,0.4785236418247223,-0.7315021753311157,1.584410309791565,-0.022907955572009088,1.1316334009170533,-0.9722333550453186,1.0316288471221924,-2.3590941429138185,-0.8316599726676941,-0.43322235345840456,-0.18753090500831605,-0.8798606395721436,-0.7627062201499939,1.794973611831665,0.3786122798919678,-1.5508997440338135,-0.4676533043384552,-1.0303478240966797,0.06036723032593727,1.042110562324524,0.5347641110420227,1.451345682144165,1.962931513786316,-0.16184915602207185,0.536186158657074,0.35002055764198305,0.2487432360649109,-0.8875692486763,-1.5571062564849854,-0.22501075267791749,0.1021575778722763,-0.29162701964378359,0.46912580728530886,1.383748173713684,-0.8032608032226563,1.0333631038665772,-0.19456985592842103,0.4030744135379791,0.7110735177993774,1.5766708850860596,0.5457839965820313,-1.211717128753662,0.9900757670402527,-0.444746196269989,0.08985448628664017,-1.5533250570297242,-0.7128666639328003,0.9997060894966126,0.8316785097122192,1.5098366737365723,-2.280733346939087,0.08857152611017227,1.4009941816329957,0.5556356906890869,1.6778819561004639,1.298699140548706,1.3314073085784913,0.6708043813705444,-2.3798952102661135,-0.21474722027778626,-0.4880661368370056,0.23587743937969209,0.009406233206391335,0.04785037040710449,-0.4911413788795471,1.8654143810272217,-0.6922203302383423,0.17833071947097779,1.3694679737091065,-0.4184606373310089,0.20097200572490693,-0.7395430207252502,-1.1573255062103272,0.6020606756210327,-0.3101663887500763,-0.3619151711463928,0.670322597026825,-1.582755208015442,0.5351547002792358,0.5547950267791748,-1.7961208820343018,0.3675248324871063,0.6091075539588928,-1.0056740045547486,-0.1359967142343521,-0.0761575847864151,-1.1206269264221192,-1.2516934871673585,0.6105095148086548,-0.6085421442985535,0.7748048901557922,0.49763768911361697,-1.5017547607421876,0.8141219615936279,0.6439911127090454,0.4107853174209595,-0.12236632406711579,-0.6578618884086609,0.620600700378418,0.1480935662984848,1.3698632717132569,-0.5474125742912293,1.1735988855361939,0.05651227757334709,0.2652636766433716,-2.096992254257202,-1.0592389106750489,-0.731689453125,-1.0492159128189088,-0.9508640170097351,-1.828548550605774,0.27799054980278017,0.8778021335601807,-2.0157618522644045,-1.4155889749526978,0.09582758694887161,-2.2802257537841799,-0.5197919607162476,0.6466267704963684,-0.6569634079933167,-1.3822444677352906,0.4501901865005493,-0.17064382135868073,0.13383033871650697,1.763225793838501,-2.182570457458496,0.1499904990196228,1.7058154344558716,0.3512992858886719,-1.4789355993270875,-0.16821610927581788,-1.0849205255508423,1.539929986000061,-1.0327136516571046,1.5683512687683106,2.1435658931732179,-1.422315239906311,0.45911455154418948,-0.3743036091327667,-0.3059287965297699,-0.1862563192844391,0.34848979115486147,-2.449054479598999,-0.12076211720705033,0.8219590187072754,1.8888778686523438,-0.07263150066137314,0.7914992570877075,0.8272544741630554,0.2980271279811859,1.7321609258651734,0.2552527189254761,-1.3967092037200928,0.8515568375587463,-0.037615709006786349,-0.8470370173454285,0.5142948627471924,-0.8980580568313599,-0.4749903082847595,0.1701655089855194,-1.349091649055481,0.5428550243377686,-0.10221116989850998,-1.1644638776779175,-0.7767443060874939,1.4225945472717286,-0.5672051310539246,0.30114349722862246,-0.5006588697433472,-0.9069666266441345,0.8593312501907349,-0.33875003457069399,-0.350927472114563,0.47093191742897036,-0.2933545708656311,-0.2995438575744629,1.1204249858856202,0.15111230313777924,0.011854753829538823,1.093736171722412,-0.7398974299430847,1.1211206912994385,-1.1208213567733765,0.35537320375442507,1.5984505414962769,-0.8788045048713684,0.0017220453592017294,0.2539407014846802,1.5001862049102784,-0.9918435215950012,0.3305492103099823,1.6025274991989136,-2.5341081619262697,0.019400417804718019,-0.17702364921569825,-1.2020087242126465,0.4097890555858612,-0.628042995929718,-0.4377793073654175,0.2924644649028778,-1.8735634088516236,0.20310093462467194,0.8427927494049072,-0.6022903323173523,-1.0732791423797608,-0.3125700056552887,-1.0248017311096192,-0.06927791982889176,-0.6268664002418518,-0.2914281487464905,1.5009864568710328,-0.8041078448295593,-0.09340324997901917,0.7073166966438294,-0.9925647377967835,-0.08154518902301789,-0.241610586643219,-0.5582905411720276,-0.19848883152008058,-0.37298670411109927,-0.34015342593193056,0.24742402136325837,0.0922662541270256,0.8619308471679688,1.1933246850967408,0.43467482924461367,0.2692314684391022,-0.8184716105461121,0.9441220760345459,0.0924181267619133,-0.08180809020996094,-0.9647006988525391,0.14411699771881104,-0.9454912543296814,-0.2804144620895386,-0.09499334543943405,-0.1252208799123764,-0.48324650526046755,0.23406343162059785,-0.5681365728378296,0.10476221144199372,-0.15546920895576478,-1.6405367851257325,0.18528442084789277,-0.4140685796737671,-0.6179748773574829,1.1114524602890015,-0.5344225764274597,-0.6255989670753479,-0.12129669636487961,-0.1559714376926422,1.16057288646698,-0.2038699984550476,-0.4660103917121887,-0.32296764850616457,0.49935591220855715,-0.6307319402694702,1.0944160223007203,0.2624607980251312,0.47917038202285769,-0.9184713959693909,0.926623523235321,0.5856020450592041,-0.5593573451042175,-1.2245105504989625,-0.7041270732879639,1.0410770177841187,0.5313037633895874,-0.6268646717071533,-0.07062548398971558,1.2334412336349488,-0.26050204038619997,0.8599358201026917,-0.6885330677032471,0.1643643081188202,-0.864407479763031,0.680678129196167,-0.10837892442941666,0.6462355852127075,-0.5681126117706299,1.431617021560669,1.132506012916565,0.47013577818870547,0.9861906170845032,0.016439776867628099,-0.8316936492919922,-1.7386833429336548,0.09623251110315323,0.38716793060302737,1.8465806245803834,-0.5816272497177124,0.7513599991798401,-1.9782410860061646,0.6036010980606079,1.15785813331604,1.5645729303359986,0.4152301847934723,-0.7458605170249939,-1.4843285083770753,0.7691552042961121,-1.4408495426177979,0.33355554938316347,1.086936116218567,-0.10089101642370224,1.3075350522994996,-0.24387049674987794,-1.2304060459136963,-2.0211586952209474,0.36247554421424868,-0.23240168392658235,1.0189882516860963,-0.3843022286891937,-0.1139570102095604,1.9096697568893433,1.1662065982818604,0.39169690012931826,0.555517315864563,1.9490381479263306,-1.7825764417648316,0.2832530736923218,-3.162618637084961,-0.20498411357402802,-1.4207061529159547,-0.43868809938430788,0.5217599868774414,-0.5769908428192139,-0.5304682850837708,0.915858805179596,1.3064290285110474,-0.39101850986480715,-0.2972128391265869,-1.2719184160232545,1.1751564741134644,-0.7260644435882568,-0.3657761514186859,0.07916747033596039,-1.5826985836029053,0.6961149573326111,-1.4852721691131592,-0.5737142562866211,0.32005539536476138,0.06950263679027558,0.4791545569896698,2.0385665893554689,0.6175146698951721,0.016935104504227639,0.6537579298019409,-0.10170753300189972,-1.2078005075454713,0.9609864354133606,1.123433232307434,-1.397208333015442,-0.30597490072250368,0.28137442469596865,-0.9175273776054382,-1.002701759338379,0.13142678141593934,0.30159619450569155,-0.20567625761032105,-0.3093756437301636,0.1546865850687027,-2.28495454788208,0.5482103824615479,-0.7673963308334351,0.4139617681503296,0.8427368402481079,-0.3067563474178314,0.03142443299293518,1.1140350103378297,0.715103268623352,0.4210485816001892,0.28590843081474306,0.2538679838180542,-0.045848071575164798,-0.06126909703016281,-0.6654704213142395,0.26140719652175906,-0.7501288056373596,-0.8134378790855408,1.466216802597046,-0.26086685061454775,-1.2529699802398682,0.13773491978645326,1.7423979043960572,-1.3238065242767335,0.6243573427200317,-0.8424153923988342,-0.06905721127986908,-2.019094228744507,0.5631012320518494,1.2963224649429322,-0.403338760137558,0.23751014471054078,1.1809149980545045,-0.29672226309776308,0.7178154587745667,-0.9283210635185242,-1.6429249048233033,-0.9206287860870361,0.3383360505104065,0.09234806150197983,-0.0009296528878621757,0.8956456780433655,-1.6696830987930298,-0.4348349869251251,0.172816202044487,-0.5199352502822876,2.4759511947631838,0.9903197884559631,0.16723594069480897,2.395294427871704,0.025869976729154588,-0.8256139755249023,0.5988584756851196,-0.7432659864425659,0.9614989161491394,0.8271299004554749,1.726580023765564,0.9596887230873108,0.27387040853500368,1.347548246383667,-0.15883244574069978,-0.6727599501609802,-0.1392984837293625,-0.15321503579616548,0.22343416512012483,-1.3631393909454346,-1.144323706626892,1.2131181955337525,0.15571492910385133,-0.4005149006843567,0.3516106605529785,-0.06795842200517655,0.08392302691936493,-1.0088369846343995,-0.7534605264663696,-0.13910672068595887,-0.4294460415840149,-0.879453718662262,0.4889940023422241,-0.19860325753688813,-0.4578348696231842,1.0270122289657593,-0.7236306071281433,-0.27451327443122866,-0.84820157289505,-0.6092235445976257,-0.4291875958442688,-0.13132178783416749,-0.2396620213985443,0.9843654632568359,0.5012500882148743,0.6812527179718018,1.4941269159317017,-0.6978457570075989,0.01182483695447445,0.38403138518333437,1.3795603513717652,0.64701247215271,-2.49259090423584,1.5523717403411866,0.3278646469116211,1.2107292413711548,0.6510879397392273,1.0960476398468018,0.3247620463371277,0.863008975982666,0.5613852739334106,-0.76183021068573,-0.7303209900856018,-1.4295328855514527,1.0739703178405762,-0.2087908834218979,0.6997266411781311,-0.7927722930908203,-0.9435158967971802,0.3654561936855316,0.5286480188369751,0.27427729964256289,-0.6513711810112,-0.32867249846458437,0.5991459488868713,-1.464332103729248,-1.355563759803772,-0.04834289848804474,0.7864543199539185,-0.7040733098983765,1.0337406396865845,0.16455140709877015,-0.3696078360080719,1.8583647012710572,0.29222914576530459,0.234282985329628,-1.637131690979004,-1.6187591552734376,-0.38010892271995547,-0.42049965262413027,-0.2560722827911377,-1.591851830482483,-0.016684606671333314,-0.8120787143707275,-1.4390921592712403,-0.18854275345802308,-1.1565324068069459,-0.16622620820999146,-0.11213352531194687,1.7702962160110474,-0.5271678566932678,-0.24214136600494386,-1.1473441123962403,1.2967568635940552,-0.7615318298339844,1.1110788583755494,1.21804940700531,-1.2329058647155762,-0.10625334829092026,0.5325154662132263,0.286562979221344,-1.2716690301895142,1.3498622179031373,0.9774060249328613,-0.8052695393562317,-3.0172579288482668,0.2765463590621948,1.3353242874145508,1.1168081760406495,0.01986546628177166,0.34801551699638369]},"biases":[1.568989634513855,0.5151370167732239,-1.680976152420044,0.7702383399009705,0.0381709523499012,-0.4421948790550232,-1.4730159044265748,0.3622807562351227,-0.26870444416999819,-0.3757321536540985,-0.6961702704429627,0.15186789631843568,1.1811230182647706,0.3472144305706024,-0.37616100907325747,-0.8271517157554627,0.18298348784446717,-0.08722176402807236,-1.2927525043487549,-0.21976178884506226,-0.8064777851104736,-1.240544080734253,2.1352508068084719,1.4617692232131959,0.4755333364009857,2.3113951683044435,0.6456052660942078,-0.4954560697078705,0.12902240455150605,-0.25820642709732058,-1.5652740001678467,-1.5032273530960084,0.5844096541404724,-0.5439977049827576,-0.23181656002998353,-1.2520610094070435,0.04114944487810135,-1.4635471105575562,0.007859395816922188,-0.7260721325874329,-0.08420655131340027,0.8227887153625488,-0.9282588958740234,-0.9879768490791321]},{"neurons":[0.9999902844429016,-0.9999949932098389,0.9999962449073792,0.20364739000797273,0.9999334812164307,-0.9999998807907105,1.0,-0.9999980330467224,1.0,1.0,-1.0,0.9861950278282166,-0.9999409914016724,-0.9992195963859558,-1.0,-0.9999202489852905,0.8705928325653076,0.9999904632568359,0.9999988079071045,-0.7453051209449768,0.9972639679908752,-0.9999633431434631],"weights":{"rows":22,"cols":44,"data":[0.11711648106575012,1.3100178241729737,-0.8931288123130798,0.8439234495162964,-1.1052347421646119,1.8844841718673707,1.9000983238220215,-0.5821753740310669,0.4174153804779053,-1.0168513059616089,-1.3562531471252442,2.222285270690918,0.36343255639076235,-2.140888214111328,0.4359341263771057,-0.5522651076316834,-0.6535298824310303,0.03711346536874771,-1.5690419673919678,-2.3924343585968019,-0.3129000961780548,-0.029826780781149865,-0.8931891322135925,-0.46526840329170229,-0.8000742197036743,-0.23916500806808473,1.7598388195037842,-1.2987620830535889,-0.01014784350991249,-0.8710064888000488,-2.01224946975708,-1.8591203689575196,-1.1375831365585328,-0.35972481966018679,-1.6794304847717286,-1.041776180267334,-0.7975108623504639,-0.49921664595603945,0.05842805653810501,0.4681500792503357,-0.928848147392273,0.29711905121803286,0.7052589058876038,0.1245562806725502,0.638625979423523,-0.28510791063308718,0.6761058568954468,1.5260741710662842,1.6378777027130128,0.8535431623458862,1.5881116390228272,0.1718415915966034,-1.095116138458252,1.4632951021194459,1.6737170219421387,-1.3681464195251465,0.2878369987010956,0.2940514087677002,-1.372137188911438,-1.3835452795028687,-0.25655892491340639,0.9798780083656311,-1.009879469871521,-0.3146204948425293,-0.2243589162826538,0.5735705494880676,1.4737507104873658,-0.14661717414855958,0.5187591314315796,-0.6470329761505127,0.8195266127586365,2.1785755157470705,2.452463388442993,1.6260863542556763,0.09270444512367249,-1.8344084024429322,-0.4323880970478058,-0.2749607563018799,-0.6365991234779358,-1.1255264282226563,0.16426172852516175,-0.20184007287025453,0.23150330781936646,-0.537748396396637,0.5074949264526367,0.43793851137161257,0.07028445601463318,1.069348692893982,1.2901736497879029,0.5842477083206177,0.8176417946815491,0.20854806900024415,2.128002405166626,0.01696728728711605,1.1498559713363648,-1.2947560548782349,-0.9427198767662048,-0.2448040246963501,-0.6160787343978882,-0.35901588201522829,-1.938745379447937,0.22851473093032838,0.28391218185424807,1.0266554355621338,-1.072305679321289,0.5572163462638855,0.20044682919979096,0.1923510581254959,0.6353342533111572,0.8252610564231873,-1.3732342720031739,-0.3571659326553345,-0.7734768986701965,-1.0373985767364503,0.01983334682881832,0.16475994884967805,-0.3674819767475128,-0.14592546224594117,-0.07597951591014862,0.04864802956581116,1.7858070135116578,1.820242166519165,-0.03553782403469086,0.012244002893567086,1.0850002765655518,-0.4186452627182007,-0.3082009553909302,-0.6530095934867859,0.8348997831344605,1.0795258283615113,-0.20923401415348054,1.0668872594833375,-0.6206983923912048,0.5795020461082459,-0.15277758240699769,2.05359148979187,0.4657984673976898,-0.46381300687789919,0.23849128186702729,-1.6437197923660279,0.3650049567222595,-1.2512702941894532,-0.14705513417720796,-0.32258620858192446,-1.1953026056289673,1.1488534212112427,0.7146786451339722,0.09919588267803192,0.7881145477294922,0.18399964272975923,-0.277732789516449,-0.020891163498163224,-0.8579273819923401,-0.7687059640884399,1.6585252285003663,0.2361522614955902,-0.4300130307674408,1.878995656967163,-1.0423070192337037,-0.3188917338848114,-0.5910990834236145,1.5707385540008546,0.23303082585334779,1.294114112854004,-0.06130164861679077,0.015013407915830613,0.10606727004051209,-0.9674844741821289,1.2585872411727906,-0.6530978679656982,0.07690636813640595,-0.6924708485603333,0.8346442580223084,0.013859022408723832,-0.04215531423687935,-0.14526526629924775,-1.089477300643921,0.11921457946300507,0.9675372242927551,0.49294450879096987,0.4939613342285156,-0.5269718766212463,0.8402830958366394,-1.4188342094421387,0.29033952951431277,-2.599890947341919,0.2959701120853424,1.025634527206421,0.7012763619422913,-1.333890676498413,-1.2790130376815797,-0.20788612961769105,-0.19977204501628877,1.0971876382827759,-0.03067879006266594,-0.2514567971229553,1.088804006576538,0.4660699665546417,0.7770296335220337,0.1504436731338501,1.5384944677352906,1.0189427137374879,0.293593168258667,1.2225966453552247,-0.6731160879135132,-1.1011137962341309,-0.6848203539848328,0.11676019430160523,-0.68364018201828,0.18017281591892243,-0.8655151724815369,0.033322326838970187,-2.6394004821777345,0.11076788604259491,-0.6287744045257568,-0.3325480818748474,-0.6163281798362732,0.5866491198539734,0.2547495663166046,0.5489697456359863,-0.5144404768943787,-1.110828161239624,-0.12735526263713838,-1.749237298965454,-0.4725564122200012,1.0652616024017335,-0.431819349527359,-0.33455410599708559,-0.11686162650585175,0.7149670720100403,1.7445775270462037,1.0153465270996094,-1.1623989343643189,1.3473095893859864,-1.1870310306549073,-0.5602640509605408,1.257334589958191,0.6371135115623474,0.05268477648496628,-1.834275245666504,-1.2965173721313477,-0.8136842250823975,0.23443181812763215,-0.6847646832466126,0.569993793964386,0.5715575218200684,-1.6918247938156129,1.0798852443695069,-0.5903334021568298,0.32775309681892397,0.4524606168270111,0.01956672966480255,0.3147164583206177,1.3634536266326905,-0.5076298713684082,1.9219540357589722,-0.4959184229373932,-0.05800474435091019,0.20686903595924378,0.1420319378376007,0.9790560603141785,0.5724877119064331,0.7797401547431946,-0.7968889474868774,0.8827031254768372,0.7222169637680054,-0.16111722588539124,-0.13663233816623689,-0.037518780678510669,-1.0244837999343873,-0.66236412525177,-0.5878301858901978,0.8933047652244568,-0.9117574095726013,-0.9218113422393799,-0.43840479850769045,-0.02710217796266079,0.8072468638420105,1.3758572340011597,-0.2447681427001953,-0.3837420642375946,-0.4749390780925751,-1.6583902835845948,-2.064932107925415,0.9863174557685852,-1.457696557044983,-1.2450096607208253,1.2216224670410157,-0.6540880799293518,-0.30425333976745608,0.19760186970233918,-0.6384308934211731,-0.37543967366218569,0.42328402400016787,0.007364051416516304,0.2507573664188385,1.269141435623169,-0.06489069759845734,-0.9589227437973023,0.3570915162563324,-0.8973713517189026,0.00952612143009901,-0.8768206238746643,0.10675825923681259,0.5766454339027405,0.27887994050979617,-1.255908727645874,0.2510586678981781,1.0681995153427125,-0.17655494809150697,-0.41505295038223269,0.5788173675537109,-0.32843682169914248,0.4525012969970703,0.5814064741134644,-0.23840759694576264,-0.1021813377737999,-0.1902957707643509,1.1447453498840333,-1.0778340101242066,-0.1764223873615265,0.2144070565700531,0.29040780663490298,0.2631346583366394,-0.2376270741224289,-1.080293893814087,0.37442678213119509,0.7289478778839111,-0.8734670877456665,-0.10483835637569428,2.2768561840057375,0.268422931432724,-0.3917616903781891,-0.3545820713043213,0.4801810085773468,1.1226468086242676,0.6786348819732666,1.3828792572021485,0.8832597136497498,-0.1830715388059616,0.036763325333595279,-0.7458988428115845,-0.35006341338157656,0.4978325366973877,-1.1194210052490235,0.2831536829471588,1.391096591949463,1.5980300903320313,0.5230826735496521,-1.7763841152191163,-0.2805342376232147,0.6127785444259644,0.8106343150138855,-0.14718270301818849,-1.405371904373169,-0.5948526859283447,-0.6049901247024536,-1.2353236675262452,-1.646224856376648,-2.227881669998169,1.1136952638626099,0.8183292150497437,-0.4566972255706787,2.7959179878234865,1.2175235748291016,-1.5204235315322877,-0.4837971031665802,1.3058497905731202,-0.5438395738601685,-1.3387991189956666,-1.7907943725585938,-0.16521579027175904,0.9999529123306274,-1.2358028888702393,1.2966161966323853,-0.06322230398654938,-0.00487985834479332,0.7370304465293884,0.31262698769569399,-1.490834355354309,-1.4699355363845826,-2.1572508811950685,-0.09882877767086029,-1.216961145401001,-0.4354761838912964,0.19898466765880586,-0.5617541074752808,-0.2611260414123535,1.207610845565796,0.25160303711891177,-0.8420615196228027,3.532529354095459,0.5674794316291809,1.7559999227523804,-1.4000184535980225,0.29324817657470705,0.24919657409191132,0.7498759031295776,-0.6687708497047424,-0.010551162995398045,0.13012614846229554,1.4317094087600709,-0.08979400992393494,0.13237936794757844,0.4184371531009674,-2.0988054275512697,-0.23359832167625428,0.3773796260356903,2.299666166305542,-0.7472769021987915,1.034148097038269,-1.2120777368545533,1.5111348628997803,-0.1852884292602539,1.0063049793243409,-1.1308773756027222,-1.508935570716858,-0.6111810803413391,-0.8327606916427612,0.009394098073244095,-0.17261910438537599,0.8304516077041626,-0.06415609270334244,0.7202704548835754,-0.9273420572280884,-0.1031617671251297,-0.18664124608039857,0.05370534583926201,-1.0381443500518799,0.9122719764709473,0.39076852798461916,0.026045946404337884,0.5683387517929077,2.0358123779296877,-0.3963606655597687,0.15140050649642945,-0.8157590627670288,1.1447536945343018,-0.11375672370195389,-1.116960048675537,-1.63356351852417,-0.11554169654846192,0.05757218226790428,-1.530057430267334,2.5405397415161135,-0.5505450367927551,0.6865975856781006,-0.7012829184532166,0.42518672347068789,-0.5732460021972656,1.6456685066223145,1.2065099477767945,1.2645015716552735,0.22324152290821076,-1.2513540983200074,-1.7654658555984498,-0.14468088746070863,-0.2789683938026428,0.9734116196632385,1.7154830694198609,-1.4744278192520142,-1.0988938808441163,-1.1870025396347047,-1.3835493326187134,-0.3949333429336548,-0.04227688908576965,0.418937623500824,0.5101586580276489,-0.2740478217601776,0.7252530455589294,0.011786936782300473,0.24303357303142548,-0.11342544853687287,1.4917218685150147,-0.6923615336418152,-0.8599419593811035,0.16569747030735017,-1.1961231231689454,-0.03871127590537071,-1.636201024055481,-0.6401130557060242,0.5803059339523315,-0.8735662698745728,-1.8768278360366822,0.6030442118644714,-0.2584618628025055,-3.1220433712005617,0.3695732057094574,-0.3620670735836029,-0.6878454089164734,-1.6550254821777344,-0.4174448549747467,2.2536942958831789,0.15818297863006593,0.008365998044610024,-0.5549445152282715,1.550325632095337,-0.06398579478263855,0.5475298166275024,-0.5294101238250732,0.42509734630584719,-0.8617703318595886,-0.743109405040741,-2.00773286819458,-1.9513968229293824,0.8351301550865173,0.9634729027748108,-0.6138003468513489,1.2420942783355713,0.5280653834342957,2.3329696655273439,1.7354804277420045,0.019708512350916864,0.3828752636909485,0.5513067841529846,0.6534029245376587,1.2006131410598755,-0.965643048286438,0.16030308604240418,-1.2798322439193726,0.4669962525367737,0.05460946261882782,0.7141820788383484,0.0014074044302105904,0.28538328409194949,-1.2013626098632813,0.7951672673225403,0.4446619749069214,1.0578221082687379,-0.505014955997467,1.3191653490066529,0.5569223761558533,-0.8101990222930908,0.6585374474525452,0.7495379447937012,-0.4571533799171448,1.2699402570724488,1.0345349311828614,-0.4002486765384674,0.8149445056915283,0.6647477746009827,-0.1656799018383026,-1.6471290588378907,1.9435245990753174,-0.2423587292432785,-0.7826434969902039,-2.155132532119751,-1.6344304084777833,0.49558398127555849,-0.7847327589988709,-1.028387188911438,-1.120523452758789,0.2823220193386078,1.0080496072769166,0.3633136749267578,-0.27909165620803835,-0.7748180031776428,0.39056187868118288,1.5545285940170289,-1.7205978631973267,-1.1489523649215699,-0.9624443650245667,0.032368626445531848,-0.3927523195743561,0.024091636762022973,-0.06946974247694016,0.15231193602085114,-0.4736787974834442,-1.5830814838409424,-0.5140352845191956,0.08001971244812012,0.42955949902534487,0.4733462333679199,1.6368491649627686,-1.0190743207931519,-0.9521166086196899,-1.9362647533416749,-0.8123354911804199,0.2028886377811432,-0.9899119138717651,-0.3209066092967987,0.871834933757782,-0.0654570683836937,-1.1097698211669922,-0.779193103313446,-0.38415324687957766,0.9042239189147949,-0.2997863292694092,-0.23102882504463197,-0.5089179873466492,1.0253607034683228,1.1304397583007813,0.47197890281677248,1.8795628547668458,0.7179014086723328,-1.1487572193145753,-0.490825891494751,-0.07737045735120774,0.028591757640242578,-0.08972267806529999,0.4996701776981354,-0.10253027081489563,1.5544099807739258,-0.5760906338691711,0.7574729323387146,-0.4601002335548401,-1.13065505027771,-0.6443034410476685,-1.7913649082183838,-0.3316541910171509,-0.810815155506134,-1.5254627466201783,0.8684463500976563,0.3880522549152374,-0.3273690342903137,-0.6660655736923218,1.0907822847366334,1.220950961112976,-0.28022223711013796,0.6437025666236877,0.4701094329357147,-0.049906473606824878,-0.7880268096923828,-0.9594613909721375,-1.1410367488861085,0.31133419275283816,1.1377021074295045,1.1603426933288575,0.04485674947500229,1.3331940174102784,-1.0526524782180787,-0.3812234103679657,-1.038646936416626,-2.0044291019439699,0.3869445025920868,-0.38771289587020876,-0.3227655589580536,0.19805090129375459,-0.5253667831420898,-2.6158270835876467,0.4570727050304413,-0.12203611433506012,0.7356064915657044,-1.022079348564148,1.6433684825897217,0.32030442357063296,2.4613420963287355,0.2780337333679199,1.0021024942398072,-0.48211005330085757,-0.04375762119889259,0.0807165876030922,-0.08974633365869522,-0.5215471982955933,-0.08964240550994873,-0.22039495408535005,0.8597936034202576,-0.9473832249641419,-0.713379442691803,-0.85769122838974,-0.17583803832530976,0.8132675290107727,0.16443142294883729,0.7041204571723938,-0.021344833076000215,0.704230546951294,1.3801170587539673,1.4351794719696046,-0.8965689539909363,1.234589695930481,0.6709646582603455,0.36865881085395815,-0.7949953079223633,0.09525226801633835,1.1162954568862916,-0.6867488026618958,0.3270224630832672,-0.7401400208473206,0.1483430415391922,0.5938079357147217,-1.0932010412216187,0.5902098417282105,-0.8782133460044861,-0.0471612848341465,0.0889037549495697,0.15632493793964387,-1.5554616451263428,-0.042039476335048679,0.29090023040771487,-0.046218711882829669,-0.08205727487802506,-0.4488914906978607,0.19451823830604554,0.5912916660308838,-0.46096208691596987,0.3835045099258423,1.1416772603988648,-0.4258033335208893,0.5092788338661194,1.3983027935028077,-1.0500813722610474,0.26419171690940859,0.20755821466445924,-0.10731852054595947,0.5664829611778259,-1.156246542930603,-0.6029936671257019,-1.1268960237503052,1.3892649412155152,-0.6315860152244568,0.6569345593452454,0.1431579887866974,0.022079914808273317,0.1900099664926529,-0.9457491040229797,-0.9876949787139893,0.32690638303756716,-0.5324352979660034,0.08879859000444412,-1.2410945892333985,0.6177700757980347,-0.059740230441093448,-0.6604951024055481,0.3471100926399231,0.056900352239608768,-0.883500337600708,0.19118806719779969,1.2358955144882203,-0.01768825203180313,-0.5449908971786499,0.06267683953046799,-0.7210791707038879,0.15003833174705506,-0.9697156548500061,-0.12500394880771638,0.07828464359045029,-0.3512449264526367,-1.4278393983840943,0.2490483969449997,-1.240790843963623,0.8310819268226624,1.084559679031372,-0.9896165132522583,-0.030003376305103303,-1.6302528381347657,0.6966832876205444,0.6202509999275208,0.26217415928840639,-0.9860931634902954,0.3478841483592987,0.5797789096832275,-0.005875364877283573,0.5631631016731262,-0.7694606781005859,-0.4374332129955292,0.6527977585792542,-1.1913021802902222,0.7159996628761292,-1.0940542221069337,-1.132568359375,0.256475031375885,-1.1663873195648194,0.6062706708908081,1.0696303844451905,-1.0356316566467286,-0.5831360220909119,-0.7052078247070313,-1.4020533561706544,-1.0582427978515626,1.1362537145614625,0.004694662988185883,0.8141974806785584,1.0635942220687867,-0.7685471177101135,0.7079688310623169,0.24788786470890046,0.6590341329574585,-0.26355767250061037,-0.6860526204109192,1.6156589984893799,0.14567241072654725,-1.8396124839782715,1.8863282203674317,-0.4013122022151947,0.48172110319137576,-2.035332679748535,0.4541361331939697,0.5918470025062561,-0.09393088519573212,-0.719601571559906,-1.1227418184280396,-0.08812938630580902,-1.024985671043396,1.2681279182434083,0.2716705799102783,0.5708022117614746,1.3243399858474732,0.07964347302913666,0.21637515723705293,1.4734989404678345,0.24226948618888856,-1.4938087463378907,-0.7144443392753601,0.17181891202926637,-0.5645339488983154,-1.3377699851989747,-1.400680422782898,0.8423611521720886,0.41185134649276736,0.33810189366340639,-1.7064670324325562,0.01512531191110611,0.3343130052089691,-0.13194450736045838,2.592893123626709,0.014735284261405468,-2.228368043899536,0.7289195656776428,0.69608074426651,0.864879310131073,0.825151801109314,0.1730370968580246,0.9325757026672363,-0.27446210384368899,-0.882936954498291,-0.8235048055648804,1.438684344291687,2.041334629058838,1.7623025178909302,-2.1329808235168459,-0.8474893569946289,-0.018099283799529077,0.03417569026350975,1.8715800046920777,-0.9336149096488953,0.881912887096405,0.5137431621551514,-1.3298596143722535,0.07349354773759842,-0.373212605714798,1.0587060451507569,0.589966893196106,0.2770730257034302,-0.3544430434703827,0.8080520033836365,0.1693507730960846,2.3184001445770265,-0.5202615857124329,-0.5654810070991516,-0.22415612637996674,0.30637094378471377,0.11197414249181748,0.1539282500743866,0.09338587522506714,-0.828215479850769,0.5950401425361633,-2.00774884223938,-0.8159512281417847,0.1479000747203827,0.9826395511627197,-3.9549970626831056,-0.295932799577713,0.46653053164482119,0.008456713519990445,0.6247625946998596,0.6351523399353027,0.17462141811847688,0.2077103704214096,-0.9157211780548096,1.369537353515625,1.8704203367233277,1.4232525825500489,-2.2871909141540529,0.02462499588727951,-0.43979009985923769,0.09992712736129761,0.8836807012557983,0.8550851941108704,0.7531688809394836,0.1650947779417038,1.342227816581726,0.6532828211784363,-2.10058856010437,1.2620680332183838,-2.375257968902588,1.3765500783920289,0.8114338517189026,-0.9940030574798584,0.8436362743377686,-2.145587682723999,1.9767935276031495,1.3843176364898682,-0.0513949915766716,-1.4529296159744263,1.5511032342910767,-0.06708277761936188,0.09266071766614914,0.37420064210891726,0.5300906300544739,0.7455552220344544,1.4316978454589844,-0.899556577205658,-0.7688445448875427,-0.30096232891082766,-0.6270668506622315,2.3249905109405519,0.7854399681091309,1.3792850971221924,0.30517053604125979,0.9826157093048096,-0.027200592681765558,-0.8777142763137817,1.1876938343048096,-1.9569178819656373,-1.2277053594589234,-0.584544837474823,0.7878903746604919,0.7559491395950317,-0.6579740047454834,1.44246506690979,-0.5467553734779358,-1.0061073303222657,0.04774175584316254,-0.9324714541435242,0.004115145653486252,-0.15693743526935578,-1.5023919343948365,0.9328280687332153,-0.585265040397644,0.5750859975814819,-1.6840827465057374,0.3529062569141388,0.18200211226940156,-0.649183452129364,-1.9008949995040894,0.5856188535690308,0.9540440440177918,0.2748049795627594,-0.20855876803398133,0.21871128678321839,0.07552944868803024,0.39470282196998598,2.606416940689087,1.9427058696746827,-2.0824060440063478,0.5816781520843506,0.7629101872444153,0.2190362811088562,0.7161734700202942,0.931609034538269,-0.478570818901062,-1.1664446592330933,0.17875392735004426,1.1330313682556153,0.11705181002616883,1.9274849891662598,-0.5174912214279175,0.1153462827205658,0.03447949141263962,0.5013260841369629,0.40096262097358706,0.6488997936248779,-0.3699072599411011,1.3920286893844605,-1.1229499578475953,0.9102510213851929,1.1523528099060059,0.8706860542297363]},"biases":[1.0599956512451172,-0.5847424864768982,0.0836099162697792,2.173619508743286,-1.1194641590118409,-0.33346545696258547,-0.167003333568573,0.05668981000781059,0.7982038259506226,0.5677742958068848,0.01072662603110075,0.2227119505405426,-2.554837942123413,0.035032544285058978,-1.5511561632156373,2.193739414215088,-1.1450167894363404,0.04407278075814247,-0.44120079278945925,-0.21326567232608796,-0.21715989708900453,-1.8498636484146119]},{"neurons":[0.027500204741954805,-0.999835729598999,0.9999997615814209,-0.4060572385787964,-0.9999959468841553,-0.9350973963737488,0.9999998211860657,-0.06774072349071503,-1.0,-0.9999454617500305,0.9986206889152527],"weights":{"rows":11,"cols":22,"data":[-1.6708011627197266,0.7757570147514343,2.226869821548462,-0.1338333785533905,1.2962626218795777,-0.3686594069004059,-0.043522175401449206,0.993552565574646,-0.4959145486354828,-0.35361406207084658,-0.452280193567276,0.8347057700157166,-0.3113653063774109,-0.11902566254138947,0.27456071972846987,-0.07451320439577103,-0.9303428530693054,-1.3326973915100098,-0.9984866976737976,-1.2245144844055176,0.8928254246711731,0.0714181438088417,-0.9083544611930847,-1.7669092416763306,-0.19093410670757295,-0.8853568434715271,-0.247513085603714,0.4745594263076782,-1.1965937614440919,0.09587766230106354,0.5795034766197205,1.171298861503601,-0.22403794527053834,0.36930856108665469,0.1695249080657959,0.5129566192626953,-0.7874877452850342,0.38246285915374758,-1.8879979848861695,-0.6080824732780457,-0.9417921304702759,0.1435718536376953,-0.9645470380783081,0.7138749361038208,-0.02390439249575138,0.0725402757525444,-0.41410011053085329,0.4684104919433594,2.0313031673431398,-0.7919647693634033,0.9488844871520996,0.5670795440673828,-0.4412747621536255,1.7107338905334473,0.04993627592921257,-0.2173480987548828,-1.203413724899292,-1.1361682415008546,-0.17015647888183595,-1.6245975494384766,-0.264191210269928,0.28038573265075686,1.7230010032653809,0.6563469171524048,0.3027622103691101,0.022519197314977647,0.7681739926338196,-1.3210701942443848,-2.163433313369751,0.08954764157533646,1.0769721269607545,-0.3568485379219055,0.3266533613204956,-0.058709822595119479,0.6183634400367737,-0.388877809047699,-0.8246549367904663,-0.3312949538230896,0.013781295157968998,-0.5358515381813049,0.6364871859550476,-0.7462671399116516,-1.7417088747024537,0.09219878911972046,-0.40814638137817385,0.5570363402366638,0.6921821236610413,0.559691846370697,1.069130778312683,0.8051491975784302,-0.35981789231300356,-0.27819758653640749,0.6563586592674255,0.07983668893575669,-2.3903279304504396,0.8784249424934387,-0.7982158660888672,-0.5281153321266174,0.3007408678531647,0.6098326444625855,0.9943597316741943,-1.7352856397628785,-0.4583665728569031,0.8410483002662659,-1.4521015882492066,0.3165956437587738,-0.48604393005371096,1.6164095401763917,0.22779762744903565,0.11109322309494019,-0.6228541731834412,-0.7150153517723084,-0.5911511182785034,1.1630079746246338,0.21167735755443574,-0.48523804545402529,-0.0858832597732544,0.14036262035369874,-1.4271409511566163,-0.8165717720985413,-0.39176028966903689,-0.2104596495628357,-0.7425979375839233,0.8084960579872131,0.3315882980823517,1.2823835611343384,-0.33680346608161929,0.5733760595321655,-0.06331734359264374,-1.44330632686615,0.9971936345100403,-1.1111494302749634,0.928450345993042,-1.5618501901626588,2.662814140319824,0.6495161056518555,0.2939983308315277,1.318613052368164,-0.15545286238193513,1.085261344909668,0.14122800529003144,0.7415995597839356,-2.254241943359375,-1.2407476902008057,0.23881253600120545,-0.6136309504508972,-0.8552228808403015,0.2073492705821991,-1.6649826765060425,0.6653701663017273,1.3637655973434449,0.2797015905380249,0.7254316210746765,-0.4548039138317108,0.028156936168670656,-0.20307718217372895,-0.5074300765991211,0.6436415314674377,-0.20044496655464173,0.529425323009491,-0.4688289165496826,0.12530237436294557,0.21761243045330048,-0.09608329087495804,1.6292723417282105,-0.17077571153640748,-0.2725301682949066,-1.399718165397644,-0.7074874043464661,-0.9739530086517334,0.1078544408082962,1.014169454574585,0.5730328559875488,0.4562615156173706,-0.08650457113981247,0.6002565026283264,-1.0743520259857178,3.457163095474243,-1.6659716367721558,0.180386483669281,-0.5643696784973145,-0.7517337799072266,-0.44371655583381655,0.2141098976135254,-2.562626600265503,0.5929863452911377,1.2003713846206666,-0.6721097230911255,-0.18595945835113526,-0.25201529264450076,0.7322890758514404,-0.6353959441184998,1.286711573600769,0.3669198751449585,-2.5414812564849855,1.1178390979766846,0.3860872983932495,-0.05958544462919235,-2.379694938659668,1.7301734685897828,-1.8399475812911988,0.5197765827178955,0.07404085993766785,-1.5129573345184327,0.33076784014701846,-0.4577631950378418,-0.17426267266273499,-0.8269348740577698,-0.21260859072208405,0.11674139648675919,1.5940561294555665,0.30514445900917055,-1.0717321634292603,0.030813533812761308,0.860411524772644,0.06386803835630417,-0.06573688238859177,1.3379803895950318,0.224069744348526,0.9920097589492798,2.0516200065612795,1.503130316734314,-2.0986857414245607,0.08260435611009598,-0.6224607229232788,-0.14449985325336457,-0.6580580472946167,-0.7473901510238648,-0.4654173254966736,-0.3502744436264038,-0.27704858779907229,0.87940913438797,-0.0592399425804615,-1.0483349561691285,-1.0017837285995484,-1.4645764827728272,1.086858868598938,1.758744716644287,0.5327038764953613,0.362451434135437,-0.08267128467559815,0.12645050883293153]},"biases":[0.4000309407711029,-0.26210522651672366,-1.5254696607589722,-1.4360142946243287,-0.516537606716156,-1.5654516220092774,0.6530671715736389,-0.9296116232872009,2.44988751411438,0.7636010050773621,-1.0989505052566529]}],"seed":177868256}