{"layers":[{"neurons":[-0.8760849237442017,0.6813766956329346,0.981730580329895,-0.7983804941177368,0.999704122543335,-0.9814337491989136,-0.921460747718811,-0.6525190472602844,-0.999920129776001,-0.9996174573898315,-0.9985321164131165,-0.9991726279258728,0.9898192286491394,-0.9875048995018005,0.9997325539588928,0.9226537346839905,-0.9894533157348633,0.12804707884788514,-0.9934864640235901,-0.9254081845283508,0.9998835325241089,-0.6145793795585632,-0.8400137424468994,0.9998283386230469,0.4522984027862549,0.9964377284049988,0.9992049336433411,0.992360532283783,-0.9970880746841431,-0.992215096950531,-0.9975923299789429,-0.9355817437171936,-0.9151856303215027,-0.9568281769752502,0.9686010479927063,0.9979375004768372,0.9965690970420837,0.938520610332489,-0.9749512076377869,0.996438205242157,0.9989434480667114,0.8754500150680542,0.41928476095199587,-0.24155667424201966],"weights":{"rows":44,"cols":22,"data":[0.9530307054519653,-0.8837011456489563,0.8001738786697388,0.10483052581548691,0.9361412525177002,-0.933758556842804,0.7515362501144409,0.9045234322547913,-0.025061164051294328,0.17357616126537324,-0.14883923530578614,0.24588797986507417,-0.29214611649513247,1.6625711917877198,0.2158476710319519,0.6857078671455383,-1.5939937829971314,0.8047115206718445,0.8159157633781433,0.9558415412902832,-0.4770843982696533,-0.355019748210907,1.0121831893920899,0.2521851658821106,-0.1248498260974884,-1.7799701690673829,1.3648470640182496,0.5913549661636353,0.6694492101669312,1.5207618474960328,-1.3832372426986695,-0.26254338026046755,-0.2716379761695862,-0.8811877965927124,0.568129301071167,-0.7120646834373474,-0.521003246307373,-0.0838618203997612,0.04341154173016548,0.7127910852432251,-0.3683634400367737,-0.672069251537323,1.1721060276031495,0.44953083992004397,-0.1639135777950287,-0.582284688949585,-1.0986790657043458,0.27012136578559878,-0.8970690965652466,-0.021156758069992067,0.25411078333854678,-0.9483190178871155,-1.2927448749542237,1.4388507604599,-1.4605108499526978,-0.3029495179653168,-2.0525848865509035,-0.09618378430604935,-0.5346921682357788,0.35280197858810427,-0.892454981803894,0.7181016802787781,-0.29675722122192385,-0.1873352974653244,0.49946635961532595,0.42508888244628909,0.031036294996738435,0.41642728447914126,0.03234297037124634,-0.05398397892713547,0.49654620885849,2.053705930709839,1.6863102912902833,0.9726091623306274,0.31484150886535647,-0.4785497784614563,-1.4006279706954957,0.24564756453037263,1.0514850616455079,-0.42294907569885256,0.2879102826118469,0.7140486836433411,1.8186044692993165,0.19880691170692445,-0.2773440182209015,0.6060832142829895,0.42729127407073977,-1.1885950565338135,0.8918240666389465,-0.537841796875,-0.30326998233795168,0.5835932493209839,0.023754024878144265,1.3620622158050538,-2.282677412033081,0.2801852822303772,0.19581478834152223,0.10122361779212952,0.3939327597618103,-1.2570847272872925,-1.0817830562591553,0.7144949436187744,0.1588400900363922,0.5443642139434815,-0.661960780620575,-0.7334349155426025,0.37972337007522585,-0.9785984754562378,-0.8072487115859985,0.15859182178974152,-0.3993935286998749,0.23566779494285584,0.22962221503257752,-0.17502932250499726,0.34848856925964358,-2.4643726348876955,0.08443371206521988,0.548080563545227,0.3926191031932831,-0.7965403199195862,-0.6068428158760071,-0.8046965599060059,0.9171260595321655,-1.7522790431976319,-0.372677743434906,1.1011446714401246,-0.4033840298652649,-0.3859746754169464,-0.16368839144706727,-0.7127914428710938,-1.7282649278640748,-0.30235642194747927,0.9025508761405945,0.867467999458313,1.074320673942566,-0.006723806727677584,-0.05999758094549179,-1.1705126762390137,0.09468256682157517,-0.11616212874650955,-0.3024652302265167,0.5231053829193115,0.742556631565094,-0.18032824993133546,-0.33146023750305178,-0.0772072970867157,-0.5404574871063232,-0.19442008435726167,-0.0059768520295619968,-0.14893196523189546,0.2064511626958847,0.9838183522224426,0.379848837852478,-0.5935231447219849,1.060315489768982,-0.7102749347686768,0.8074033260345459,1.0638843774795533,0.2476714551448822,0.05454220995306969,0.5734773874282837,0.2790648937225342,-1.1512095928192139,-0.6503702402114868,1.6525166034698487,0.4827735722064972,1.1090987920761109,0.4728963375091553,-0.019313374534249307,0.8047885298728943,-0.09265726804733277,0.024361595511436464,-0.24012728035449983,-1.281057596206665,-0.5075249671936035,-0.5676054358482361,0.4153764247894287,0.12709814310073853,-0.7823864221572876,0.5128206014633179,-0.6102380156517029,-0.7129945158958435,0.36721011996269228,0.7786197066307068,0.2984727919101715,0.41921266913414,-0.9880955219268799,0.9022884368896484,-0.7459467649459839,-0.4156152009963989,0.29409223794937136,-0.34871265292167666,-1.6181689500808716,0.5020652413368225,0.05421974137425423,-0.6245255470275879,0.5410044193267822,-2.262927293777466,-0.8809069991111755,1.7041404247283936,0.04005955532193184,0.12187494337558747,0.6211947202682495,-1.5517194271087647,0.3386295735836029,1.1553959846496583,-0.6243406534194946,1.0692168474197388,0.6808198690414429,0.8375908732414246,0.7577058672904968,-0.11250237375497818,-0.24321013689041139,1.4783239364624024,0.10926603525876999,0.7976124286651611,0.5207599401473999,-2.441638708114624,0.5967478156089783,-0.3404821455478668,1.083787441253662,0.2683962881565094,-0.7519186735153198,0.5554274320602417,1.6151885986328126,-0.23355746269226075,-0.28664422035217287,-0.5806071758270264,2.186610698699951,0.586290717124939,-0.4518064856529236,-0.05376391112804413,1.208213448524475,-1.1840375661849976,-0.7146071791648865,1.2229249477386475,0.8068076372146606,-0.07003846764564514,-1.2974084615707398,-1.847983717918396,-0.6256520748138428,0.5226960182189941,0.49022093415260317,0.44545072317123415,0.13035447895526887,2.0521886348724367,-0.5160484910011292,-0.7303237318992615,0.7892954349517822,-0.16566844284534455,0.04270371049642563,1.1493804454803467,-0.6996519565582275,1.6235888004302979,0.4554235637187958,-0.8880404233932495,-0.19001367688179017,1.3658432960510255,-0.299425333738327,0.12204045802354813,-0.3522339165210724,0.04242311045527458,-0.5272104144096375,0.42048782110214236,-0.2895916700363159,1.0013201236724854,0.022166874259710313,-1.0809687376022339,-0.9433647990226746,-0.9867695569992065,-1.771231770515442,0.2351439893245697,0.6019964218139648,0.758293628692627,0.4221997559070587,0.18137675523757935,-0.4963240623474121,0.7104666233062744,-0.06272795796394348,0.778642475605011,0.6083329319953919,-0.49274879693984988,-1.115630030632019,-0.4229525327682495,0.9380012154579163,-0.638580858707428,0.027982234954833986,-0.4676039516925812,-0.16436728835105897,0.6643235683441162,0.4886297285556793,-0.6989321708679199,-0.9657663702964783,-1.1509759426116944,-0.43876582384109499,1.9696975946426392,0.12972985208034516,0.4339902997016907,0.8362407684326172,-0.3287634253501892,-0.20547941327095033,-2.33384370803833,-0.5958278775215149,1.2122299671173096,-0.6495969891548157,0.2996455132961273,0.2987566292285919,0.3570677638053894,0.26157423853874209,-0.27577483654022219,-0.06221094727516174,-1.5685839653015137,1.0263563394546509,-1.478528380393982,-0.6586213707923889,-0.44869881868362429,-0.8417218923568726,-0.8728153705596924,-1.9725109338760377,0.7347386479377747,-0.13345718383789063,0.40875542163848879,-2.018258810043335,0.2060563713312149,-0.24685707688331605,-0.22237901389598847,0.139078751206398,-1.4953230619430543,-2.2672107219696047,-0.2898506820201874,-1.8781096935272217,0.2635745108127594,-0.15911561250686646,-0.9794076681137085,1.6132194995880128,-0.7831006646156311,-1.206512212753296,-0.21231183409690858,-0.7489075064659119,-0.1399489939212799,-1.1839441061019898,-0.6188682317733765,0.8924954533576965,1.193305253982544,0.8506367206573486,-0.30686110258102419,1.1035040616989136,-0.613200843334198,0.5698277354240418,2.742234706878662,-0.1417284607887268,0.5869216918945313,-0.598014771938324,1.544653058052063,-0.03174540773034096,0.760313868522644,0.9282510876655579,0.17462417483329774,1.0759789943695069,0.9239937663078308,1.0795917510986329,-1.1365357637405396,-1.2701297998428345,-0.5377193689346314,1.6912761926651,0.017487049102783204,0.7260843515396118,0.5903355479240418,-0.6939355134963989,-0.40544143319129946,1.6084293127059937,-1.2042818069458008,0.43196505308151247,-0.5425806045532227,0.07279475033283234,-0.01869887113571167,1.4706847667694092,1.5385652780532838,0.377682626247406,-0.3176586329936981,0.6971798539161682,-0.2903173565864563,-0.9154687523841858,0.03992296755313873,0.41722339391708376,-0.9650347232818604,-0.43438416719436648,1.4495726823806763,-0.22479082643985749,1.040191411972046,-0.6023820042610169,1.4617116451263428,-0.14198064804077149,1.8311258554458619,1.2704041004180909,-0.438709557056427,-1.751120686531067,-0.7424249053001404,0.6269294023513794,0.045323070138692859,0.5721739530563355,0.1274058222770691,0.5263783931732178,0.03023703582584858,-0.5274399518966675,-0.33891549706459048,0.49670031666755679,1.2479435205459595,1.525262713432312,-0.8463596105575562,-0.2016226351261139,1.0821659564971924,0.6753414273262024,-0.11738047003746033,0.47408410906791689,0.25892987847328188,0.4329703748226166,0.3876435458660126,1.3019112348556519,0.6344122886657715,0.9101940989494324,-1.1835747957229615,-1.686780571937561,-0.07845722138881684,1.605582356452942,0.4442891478538513,-0.6904982328414917,-0.6536101698875427,-0.6776014566421509,1.342726707458496,0.7507039904594421,0.3723970651626587,0.9143484830856323,-0.8726249933242798,-0.07103565335273743,2.0401790142059328,0.5919902324676514,1.1311136484146119,-0.07992815971374512,-0.5113568305969238,-0.46978554129600527,-0.0026518069207668306,1.3201981782913209,0.1166081354022026,0.6883524656295776,-0.8259543776512146,0.33354833722114565,-1.9956271648406983,-1.8110649585723878,-1.2646665573120118,0.1969977617263794,-0.4414215683937073,-1.2848273515701295,0.3927263915538788,0.45555636286735537,-1.1560699939727784,0.32828378677368166,-0.5936185717582703,0.3426418602466583,0.8515274524688721,-0.5453529953956604,0.8043198585510254,1.270163655281067,-0.16241665184497834,0.5348156690597534,0.3512127101421356,0.5257367491722107,-0.9274178743362427,-1.0859458446502686,-0.08630974590778351,0.3204982280731201,0.2032897174358368,0.5115385055541992,0.8435134887695313,-1.0803619623184205,0.6945204734802246,-0.5006752014160156,0.11234036087989807,0.538697361946106,2.3095436096191408,1.1852017641067505,-0.35130250453948977,0.23993834853172303,-0.21437858045101167,-0.29432910680770876,-1.057052731513977,-1.0330256223678589,-0.08462280035018921,0.21211381256580354,0.3518455922603607,-1.4776499271392823,0.07365652173757553,1.7567241191864014,0.34944742918014529,1.1489226818084717,0.4389462172985077,0.6936083436012268,0.12998689711093903,-2.185234308242798,-0.16670161485671998,-0.9224979877471924,-0.2563454806804657,0.6027954816818237,-0.3746136724948883,-0.057514455169439319,1.2837990522384644,-1.1078706979751588,0.4963964819908142,1.2019016742706299,-0.4371756911277771,-0.5917502641677856,-0.39396560192108157,-1.3489712476730347,-0.36037543416023257,0.360094279050827,-0.382281094789505,0.33629468083381655,-1.4588130712509156,0.40916359424591067,1.0779541730880738,-1.4215824604034424,0.18471291661262513,0.20089837908744813,-1.3368066549301148,0.004001843277364969,-0.3484477400779724,-0.9531139731407166,-1.1978116035461426,-0.1661294400691986,-0.8410531878471375,0.24255980551242829,-0.7757135629653931,-1.1522810459136963,0.8679178953170776,0.8284650444984436,0.6942546963691711,-0.7357401251792908,-0.6146997809410095,0.49594560265541079,-0.31742140650749209,1.7214949131011963,-1.0801059007644654,0.8159145712852478,-0.9453336000442505,0.1656254231929779,-0.8804485201835632,-1.1874940395355225,-0.9991543292999268,-0.8146529197692871,-0.395446240901947,-1.660601258277893,0.27893736958503725,0.6206541657447815,-0.928586483001709,-1.0417113304138184,0.0014981329441070557,-2.1103672981262209,-0.31182417273521426,0.280807763338089,-0.5003516674041748,-0.9776375889778137,1.0378332138061524,0.8613542914390564,-0.46583816409111025,1.0511572360992432,-1.5054417848587037,-0.6228653788566589,0.6943702101707459,0.30705782771110537,-1.3499369621276856,0.19590941071510316,-0.6721581816673279,1.0847142934799195,-1.2294491529464722,1.529181718826294,2.2038488388061525,-1.1140227317810059,0.648455023765564,0.40111467242240908,-0.2906649112701416,0.145370215177536,-0.09534198045730591,-1.1322510242462159,-0.7720237970352173,0.6063096523284912,1.43245267868042,-0.3443765640258789,0.793330192565918,0.8300720453262329,-0.15443886816501618,1.8568007946014405,-0.1417153924703598,-0.7039827704429627,0.2334568351507187,-0.29961681365966799,-1.144578456878662,-0.19017314910888673,-0.9012970924377441,0.6153473258018494,-0.45459243655204775,-1.3539574146270753,0.499203085899353,0.4958404302597046,-1.2886559963226319,-0.15790800750255586,0.05152343958616257,-1.1691203117370606,-0.000010426863809698261,0.09059871733188629,-0.4862510859966278,0.9306235909461975,-0.07017911970615387,-0.06575372815132141,0.495262086391449,-1.4312610626220704,-0.41857093572616579,0.025705263018608094,0.30572617053985598,-0.10447517037391663,1.0228594541549683,-1.1367120742797852,0.2027936726808548,0.0657082349061966,-0.35522982478141787,1.071157455444336,-0.8488073945045471,0.26508674025535586,-0.1868530511856079,0.5096922516822815,-1.2216695547103882,0.3128381371498108,0.08978329598903656,-0.9170387387275696,-0.08304934203624726,-0.18093490600585938,-0.25750041007995608,0.012865239754319191,-0.18703366816043855,-0.061764463782310489,0.7792426943778992,-0.7290114760398865,0.1455306112766266,0.6723526120185852,-0.4438246786594391,-0.2208530455827713,-0.1747574657201767,-0.6114163398742676,-0.20502778887748719,0.026198700070381166,-0.3370591998100281,1.2563178539276124,-0.5819147825241089,0.16144715249538423,1.3105568885803223,-0.3758428990840912,-0.06910409778356552,0.016519030556082727,-0.9356861710548401,1.3631212711334229,0.10459505021572113,0.19356289505958558,0.2063286304473877,-0.04079291597008705,0.4061172902584076,0.6499359607696533,0.34368783235549929,0.24654993414878846,-0.38885414600372317,2.013308525085449,-0.11209510266780853,-0.755641758441925,-0.951952338218689,0.4360470473766327,-1.2984592914581299,-0.47274383902549746,-0.051348138600587848,-0.1708281934261322,-0.25712624192237856,-0.2032775729894638,0.4042155146598816,0.28228282928466799,0.07233955711126328,-1.06536865234375,0.7394879460334778,-0.10729190707206726,-1.118211030960083,1.0278515815734864,-0.0809580460190773,-0.857327938079834,0.2891594171524048,0.05159687623381615,1.3662070035934449,0.4557235538959503,-0.42627644538879397,-0.20516559481620789,-0.25397512316703799,-0.10613373667001724,1.770872950553894,0.03317105397582054,0.6052760481834412,-0.3888862133026123,0.8382914066314697,0.8713034391403198,-0.4710308015346527,-0.12825320661067964,-0.727576494216919,0.5697960257530212,0.3824630379676819,-0.06123960018157959,-0.8247772455215454,1.1450732946395875,-0.3990519344806671,0.4843883216381073,-0.6909472942352295,-0.35208630561828616,-0.153639018535614,0.3479560911655426,0.03555874899029732,0.22042088210582734,0.12602448463439942,1.2627551555633546,0.9249753952026367,0.7786580920219421,0.9091154932975769,0.016497420147061349,-1.4073702096939088,-0.4043715298175812,0.4090936779975891,-0.1134631559252739,1.1480522155761719,-0.37411853671073916,0.40411505103111269,-1.5520553588867188,1.6937586069107056,0.13908901810646058,-0.06083093211054802,0.40723368525505068,0.19678986072540284,-0.8913658261299133,1.3612890243530274,-1.05112886428833,0.38896799087524416,0.33035770058631899,0.40092921257019045,0.9967703819274902,0.4796012043952942,-1.1833869218826295,-1.5521876811981202,-0.10650213062763214,-0.10437925159931183,0.8211502432823181,-0.7970876097679138,-0.06217522546648979,1.3529813289642335,0.5841468572616577,0.25264543294906618,0.132690891623497,1.2601362466812134,-1.2154507637023926,0.47601571679115298,-1.5561153888702393,-1.0533149242401124,-0.6715936064720154,-0.9987213611602783,-0.16488175094127656,-0.09637473523616791,-0.4382866621017456,0.9362130165100098,0.5984530448913574,-0.39235028624534609,-0.4773808717727661,-1.276505708694458,0.8486064672470093,-0.08865717053413391,-0.49373432993888857,0.05011384189128876,-1.620219349861145,-0.08278127759695053,-0.943453311920166,-0.48412013053894045,0.012798547744750977,0.16360704600811006,0.21384477615356446,2.217730760574341,0.437580943107605,0.1469404697418213,0.8422188758850098,0.5041800737380981,-0.43319955468177798,0.8296092748641968,1.7044039964675904,-0.9530432224273682,-0.08215218037366867,0.03195953369140625,-0.7673076391220093,-0.3495233654975891,-0.3262757956981659,0.8715571761131287,-0.4092026948928833,-0.7937024831771851,-0.27891039848327639,-3.1727263927459719,0.03814628720283508,-1.1557013988494874,0.3696313500404358,0.4425636827945709,0.0860024094581604,0.45866432785987856,0.8095431923866272,0.3375564217567444,0.1473456770181656,0.4022268056869507,0.2573602497577667,0.38531824946403506,0.29474717378616335,-1.7320815324783326,0.38077446818351748,-0.683584988117218,-0.43381834030151369,0.4595155119895935,0.2248508185148239,-0.02642679587006569,0.3354155123233795,-0.03739292919635773,-1.0718168020248414,0.1051810011267662,-0.8087347745895386,-0.5091035962104797,-2.1293141841888429,0.5760199427604675,0.22330529987812043,-0.1124025359749794,0.3032028079032898,1.0063965320587159,-0.26723015308380129,0.21414506435394288,0.5261996984481812,-0.5156746506690979,-0.9021673798561096,0.3560013771057129,-0.49363693594932558,-0.0009328192099928856,1.073603630065918,-0.42364567518234255,0.35276269912719729,-0.4596220850944519,-0.2344382405281067,1.5086617469787598,1.2381880283355713,0.6360176801681519,1.7050261497497559,-0.3554048538208008,0.16801583766937257,0.5925131440162659,-0.5942369103431702,0.9559823870658875,0.8498679995536804,0.6922184824943543,0.5169533491134644,0.6722167134284973,1.3438661098480225,-0.5231032967567444,-0.5698220133781433,0.17985324561595918,-0.29487165808677676,0.29735130071640017,-0.9636318683624268,-0.6387624144554138,0.6000683903694153,-0.27624279260635378,-0.9085594415664673,0.10373035818338394,-0.2852558195590973,0.2302502542734146,-0.8038263916969299,0.18158037960529328,-0.010970448143780232,-0.34425851702690127,-0.4868607521057129,0.8561943173408508,-0.9659026265144348,-0.44217735528945925,0.47488412261009219,-0.8298699855804443,0.1602967083454132,0.8234035968780518,-0.6970181465148926,-0.7766781449317932,-0.2280455082654953,-0.9788934588432312,1.08686101436615,-0.33380237221717837,0.6633278131484985,1.936805009841919,-0.6653568148612976,-0.6042842864990234,0.5989742875099182,0.3725912272930145,0.8300338387489319,-1.998125433921814,1.813726544380188,0.6076758503913879,0.2890840768814087,0.612849771976471,0.23928691446781159,0.264952152967453,0.9429916739463806,0.1499432921409607,-0.7187239527702332,-0.7301737666130066,-0.8008108735084534,0.4940243065357208,0.588638186454773,0.830316960811615,-0.30193570256233218,-0.19902917742729188,0.391354501247406,0.40244513750076296,-0.19005626440048219,0.12204837054014206,0.014324313960969448,0.12128579616546631,-0.9816228151321411,-0.8435332775115967,0.0006150007247924805,0.28306883573532107,-0.6516801118850708,1.0373653173446656,-0.31992897391319277,-0.14595550298690797,1.2121975421905518,0.3040396273136139,-0.08623699098825455,-0.9793381690979004,-1.570190191268921,-0.43268945813179018,-0.2555590867996216,-0.21168427169322968,-1.416851282119751,-0.1561506986618042,-0.9958634376525879,-1.6666473150253297,-0.09502089023590088,-0.8894761204719544,0.11055317521095276,0.07996838539838791,1.1987160444259644,-0.688262403011322,0.07543172687292099,-1.1044245958328248,0.17127862572669984,-1.0581324100494385,0.7230430245399475,1.0685054063796998,-1.3318488597869874,-0.5646147727966309,1.0634466409683228,1.2599533796310425,0.002190054627135396,1.182669758796692,0.13691940903663636,-0.7036091089248657,-1.408220648765564,-0.192946657538414,0.39885202050209048,0.7648841142654419,-0.2143450230360031,1.238175868988037]},"biases":[-0.30801618099212649,-0.214601531624794,-0.40323957800865176,0.26187264919281008,-0.2348022162914276,-0.3845409154891968,-0.7772409319877625,0.14326751232147218,-1.5590702295303345,-0.6017332077026367,-0.7142609357833862,-0.17525818943977357,1.309641718864441,-0.36574816703796389,-0.30553269386291506,-1.3727551698684693,0.5714560151100159,0.3350157141685486,-1.2972854375839234,0.3978921175003052,-0.8189002275466919,-1.0015478134155274,1.2154474258422852,1.4753377437591553,0.8232558965682983,1.324705958366394,0.3886975646018982,-0.488526314496994,-0.20933085680007935,-1.2708240747451783,-1.0322731733322144,-0.5523957014083862,0.12959538400173188,-1.949811339378357,0.3509032428264618,-1.1502244472503663,0.3181862235069275,-0.9245619773864746,1.291905164718628,-0.21027542650699616,-0.03093918040394783,1.335302710533142,-0.15802070498466493,0.07151419669389725]},{"neurons":[0.9999313354492188,-0.998954713344574,0.999991774559021,0.9972751140594482,0.9898977875709534,-0.9999902844429016,1.0,-1.0,1.0,0.9999995231628418,-0.9999911785125732,0.9963696002960205,-0.9681046009063721,-0.9997623562812805,-1.0,-0.9999998211860657,0.9999601244926453,1.0,1.0,-1.0,0.828264057636261,-0.999993622303009],"weights":{"rows":22,"cols":44,"data":[0.38958942890167239,0.5287976861000061,0.009007474407553673,0.3751656115055084,-0.8840559124946594,1.1614985466003419,0.6765022277832031,-1.0608806610107422,0.667707622051239,-1.058030128479004,-0.0660216212272644,1.2043616771697999,0.42322394251823428,-2.0440444946289064,0.45395469665527346,-0.5542569756507874,-0.43678411841392519,0.13209523260593415,-0.9227378368377686,-1.7027814388275147,-0.9076155424118042,0.153428316116333,-0.07386026531457901,-0.09406176954507828,-0.7638521194458008,0.4591139256954193,1.6152455806732178,-0.8989999890327454,0.6352427005767822,-0.31447604298591616,-1.7204550504684449,-1.5676931142807007,-0.9485153555870056,0.08181082457304001,-1.1690441370010377,0.18041937053203584,-0.13906018435955048,-0.5331618189811707,-0.6539897918701172,-0.12263980507850647,-0.7252374291419983,0.29813098907470705,0.661040723323822,-0.13703885674476624,0.951412558555603,-0.2111935168504715,0.7071207761764526,0.7968562841415405,1.3686649799346924,-0.06092606484889984,0.9944643974304199,-0.26874053478240969,-1.1193342208862305,1.3155454397201539,1.3594025373458863,-0.8057544231414795,-0.3297569453716278,0.6563924551010132,-0.197584867477417,-0.8262007236480713,0.001572348177433014,1.1757813692092896,-1.2182844877243043,-0.5275956988334656,-0.6212582588195801,0.6434770822525024,1.4784061908721924,-0.16608038544654847,0.21328721940517426,0.07684549689292908,0.5861341953277588,1.5725538730621338,2.4846010208129885,2.4719927310943605,-0.3448297083377838,-2.7320661544799806,-0.4339475631713867,-0.2759248614311218,-0.16614855825901032,-1.174957036972046,0.4874049425125122,0.054344821721315387,-0.19314594566822053,-0.839216411113739,0.8615352511405945,0.22278782725334168,0.028738727793097497,1.1746983528137208,0.2855149209499359,0.7506024241447449,1.3009594678878785,-0.5685727596282959,2.170421600341797,0.1369001716375351,1.0603617429733277,-1.3677576780319214,-0.5103099942207336,-0.322964072227478,-0.6414669156074524,-0.3900696039199829,-1.1632670164108277,0.4804985225200653,-0.0059693725779652599,0.9410707354545593,-1.3331478834152222,0.5878044366836548,0.01878216117620468,0.7650389671325684,-0.12374117225408554,0.8281546235084534,-0.998512327671051,-0.4377603828907013,-0.8836639523506165,0.9667264819145203,-0.24907423555850984,0.7425442934036255,-0.24943940341472627,-0.08279037475585938,-0.10318157821893692,-0.45047128200531008,1.114956021308899,1.430323600769043,-0.1829095333814621,-0.45286476612091067,0.9440733790397644,-0.5727566480636597,-0.2825467884540558,0.203385129570961,1.2733665704727173,0.4695247411727905,-0.5768782496452332,1.227812647819519,-0.30788323283195498,0.5276266932487488,-0.9389151930809021,1.1911327838897706,1.1391570568084717,-0.43285319209098818,-0.4765807092189789,-0.8182615637779236,0.13659143447875977,-1.504163384437561,0.12508337199687959,-0.30788955092430117,-0.8140658736228943,0.7728318572044373,0.47974342107772829,0.23435983061790467,-0.5984467267990112,0.8606782555580139,0.2174922376871109,-0.204679474234581,-0.7100606560707092,-0.4612330198287964,0.9501234292984009,-0.4019708037376404,-0.30549514293670657,0.7943086624145508,0.6231029629707336,-0.17806093394756318,-1.318833827972412,0.5553240776062012,0.23937472701072694,0.7846308946609497,-0.4173324704170227,-0.4851180613040924,0.131337508559227,-0.9187396764755249,0.8751840591430664,-1.1624436378479005,0.048089202493429187,-0.8975136280059815,0.814217209815979,0.29215821623802187,0.24270790815353394,-0.14577460289001466,-0.7653571367263794,-0.3784593641757965,1.2932485342025757,0.6506474614143372,0.43304401636123659,-1.3715006113052369,0.5290647745132446,-0.8497676849365234,-0.07245230674743653,-1.3851760625839234,0.32043784856796267,1.837377667427063,0.6181114315986633,-0.6383519172668457,-0.1619643270969391,-0.5953179001808167,0.0772014707326889,1.2002310752868653,0.15108096599578858,0.13319754600524903,0.4714936316013336,0.2627078890800476,0.39868026971817019,0.40405702590942385,0.979369044303894,0.20916375517845155,-1.0318559408187867,0.1559494584798813,-1.2176300287246705,-0.7231892943382263,-0.1207248792052269,-0.14540454745292664,0.06166454777121544,0.31703510880470278,-0.24831613898277284,0.07276657968759537,-1.5390273332595826,-0.3317575454711914,-0.18715882301330567,0.19487860798835755,-0.1115758866071701,0.22764518857002259,0.25566837191581728,0.5440107583999634,-0.5522083640098572,-0.17502367496490479,-0.19798462092876435,-1.6693464517593384,-0.45434635877609255,0.2441679686307907,0.10440222173929215,-0.40104666352272036,-0.4564801752567291,1.3598490953445435,1.599000096321106,1.2206295728683472,-0.3311231732368469,0.41708895564079287,-0.3212709426879883,-0.5697013139724731,0.9932498931884766,0.9917604327201843,0.16575416922569276,-1.5515446662902833,-2.205472946166992,-0.7745476961135864,0.3357946574687958,-0.6393064260482788,0.2074204534292221,1.5889875888824463,-1.3442754745483399,1.2049930095672608,-0.5827150344848633,0.24625517427921296,0.949780285358429,-0.3588503897190094,-0.29325252771377566,0.18490752577781678,-0.7303153872489929,0.7547909617424011,-0.4679763913154602,-0.1614805907011032,0.7220627665519714,0.22730103135108949,-0.04526554048061371,0.35911133885383608,0.4738577604293823,-1.310500979423523,1.3838173151016236,0.27448105812072756,-0.31544196605682375,0.16995565593242646,-0.6554378271102905,-0.967245876789093,-0.728380024433136,-0.2732917368412018,-0.053304169327020648,-0.9082505702972412,-0.8841726779937744,-0.3258862793445587,0.6783384084701538,0.21092914044857026,1.800892949104309,-0.3574514389038086,-0.48321324586868288,-0.6009714603424072,-1.1828680038452149,-0.5210366249084473,0.5270786881446838,-0.8546153903007507,-1.3349332809448243,1.5751029253005982,0.05436719208955765,-0.15186896920204163,-0.4133314788341522,-0.7855303883552551,-1.2792065143585206,-0.6440012454986572,-0.797116219997406,-0.09152170270681381,0.9610190391540527,0.9833429455757141,-0.17703230679035188,0.39153599739074709,-0.7139806151390076,0.35870587825775149,-1.5425835847854615,0.10713257640600205,0.1554112285375595,0.3245263695716858,-1.0697859525680543,-0.4705349802970886,1.146606206893921,-0.38782647252082827,-0.18415531516075135,0.7259634733200073,-1.1073616743087769,0.9950841665267944,-0.6868712306022644,-0.2392435222864151,-0.032727908343076709,1.2895996570587159,1.08790123462677,-0.5144374370574951,0.05884497985243797,-0.2814331352710724,-0.1293349713087082,0.1490621566772461,-0.4800683856010437,-1.1313120126724244,0.38502049446105959,0.47175997495651247,0.33842307329177859,-0.2899813950061798,2.2787177562713625,-0.40019491314888,-0.3103632926940918,-0.5426557064056397,0.4302627742290497,1.2957124710083008,0.790009081363678,1.1667752265930176,0.09283273667097092,-0.20912867784500123,-0.0877140611410141,-0.9449610710144043,-0.14136628806591035,-0.17853698134422303,-1.2638944387435914,0.6199021935462952,1.0489835739135743,1.281933069229126,-0.6670106053352356,-1.7870283126831055,-0.2887553572654724,0.32430681586265566,1.1157443523406983,0.17966750264167787,-1.4001774787902833,-0.5969382524490356,0.3280940055847168,-0.5969312787055969,-1.0320407152175904,-0.9051111936569214,0.6751031279563904,1.1536948680877686,-0.028794074431061746,1.6444505453109742,0.8009064197540283,-1.4468865394592286,-1.166205644607544,2.114553451538086,-0.8081636428833008,-1.7120506763458253,-0.8768584728240967,0.43031376600265505,1.275282859802246,-1.2381715774536133,0.05537382513284683,0.2275596559047699,0.4771925210952759,-0.09545201063156128,0.44275304675102236,-0.9106941223144531,-1.3157321214675904,-0.6577969789505005,-0.48946449160575869,-0.5930905342102051,-0.4374034106731415,0.19966241717338563,0.32982486486434939,-0.0010772272944450379,0.7308770418167114,0.06480930745601654,-0.4860938787460327,2.808654308319092,0.41488516330718996,-0.4993138313293457,-1.7235599756240845,0.16751059889793397,0.11133505403995514,0.6196789145469666,0.47716379165649416,0.440378874540329,0.6135068535804749,0.0439012385904789,-0.23959539830684663,1.154171347618103,0.7064656615257263,-2.7051310539245607,0.20569545030593873,0.5077826976776123,0.9796969890594482,-0.5713533163070679,0.4556145668029785,0.25017601251602175,1.2662560939788819,-0.9771832227706909,0.5576536655426025,-0.8258659839630127,-1.5089513063430787,1.2660928964614869,-0.9929032325744629,0.07912473380565644,0.4623152017593384,0.6757141351699829,0.2074286937713623,0.5808680653572083,-0.759108304977417,0.14640341699123383,0.7072188258171082,-0.07136024534702301,-1.020255446434021,1.2034809589385987,0.5360158681869507,0.11613623052835465,0.9690597057342529,1.2635082006454468,-0.49324798583984377,0.12248091399669647,-0.42652931809425356,0.8637267351150513,0.9541882276535034,-0.7736332416534424,-1.007269263267517,0.0736277624964714,0.05980701744556427,-1.330508828163147,1.464598536491394,-0.15551301836967469,0.8470007181167603,-0.16320444643497468,0.181562140583992,-0.22760283946990968,1.4460252523422242,0.06641197949647904,0.6892065405845642,0.4435823857784271,-0.14145147800445558,-1.8121428489685059,-0.19634030759334565,-0.6917186975479126,0.31779560446739199,1.3346890211105347,-0.24641041457653047,-1.1611733436584473,-0.5477709770202637,-0.8095738887786865,-0.14103014767169953,-0.36757856607437136,0.6945851445198059,0.3325517475605011,0.015053421258926392,0.41290247440338137,-0.49172869324684145,0.3687507212162018,0.5937778949737549,0.9513056874275208,-0.6948243975639343,-0.5783997178077698,-0.7216572761535645,-0.8005072474479675,-0.03885089233517647,-0.7942944169044495,-1.0503392219543458,0.47033780813217165,-0.6941155791282654,-1.5913963317871094,-0.7785466313362122,0.18795110285282136,-1.1606922149658204,-0.1401669830083847,0.17194852232933045,-0.45812276005744936,-1.1297459602355958,-0.6245474219322205,1.0981414318084717,0.7718749642372131,-0.5019093155860901,-1.0469810962677003,1.021475076675415,-0.4420163929462433,0.3732706606388092,-0.23009802401065827,0.41028109192848208,0.27357280254364016,-0.9433048367500305,-2.072334051132202,-1.2924251556396485,0.7033592462539673,1.0415221452713013,-0.7874916195869446,0.34200799465179446,-0.2059524804353714,1.3408347368240357,1.7356091737747193,-0.9699969291687012,0.28229954838752749,0.5407088994979858,0.48787054419517519,1.3664230108261109,-0.5540341138839722,0.13569660484790803,-1.1777321100234986,0.7984359860420227,0.8281691670417786,0.95746910572052,0.1000153049826622,0.3817739486694336,-1.2058160305023194,0.11691810935735703,0.6965941786766052,0.8380303978919983,0.023623447865247728,1.0213394165039063,-0.011524969711899758,-0.1501827836036682,0.43427032232284548,0.5124642848968506,-0.9851581454277039,1.1600767374038697,1.448257327079773,-0.05064035952091217,0.8336114287376404,0.1180257499217987,0.572376549243927,-0.7006896734237671,1.7835692167282105,0.01114684622734785,-1.2843679189682007,-1.7314579486846924,-0.5902918577194214,0.4973714053630829,-0.6389450430870056,-0.48727846145629885,-1.1294527053833008,0.27868974208831789,0.040337905287742618,1.020557165145874,0.6701877117156982,-0.6998797655105591,0.18807092308998109,1.546776533126831,-0.6289570331573486,-0.8618096113204956,-0.9658189415931702,0.33810850977897646,-0.07802820205688477,-0.15663233399391175,-0.09777974337339401,0.18305811285972596,-0.9580829739570618,-0.7262827157974243,-0.4145382046699524,-0.1110098585486412,1.025496006011963,-0.6027670502662659,1.7671265602111817,0.18032753467559815,-1.3110733032226563,-1.385751724243164,-0.8175041079521179,-0.29080408811569216,-0.17283090949058534,-0.06832829862833023,1.009631633758545,-0.06568001210689545,-0.04366901144385338,-0.7348813414573669,-0.37589117884635928,0.5423231720924377,-0.27792608737945559,-0.04286229982972145,-0.8564255833625794,0.9379348158836365,0.011387636885046959,-0.7229101657867432,1.5780333280563355,0.4487636983394623,-1.0233286619186402,-0.7201143503189087,-0.4397445321083069,0.42772114276885989,0.07635576277971268,0.3927277624607086,-0.5019577741622925,0.992408275604248,-0.7178231477737427,0.5155155658721924,-0.5914049744606018,-1.2975507974624634,-0.15404248237609864,-1.4645509719848633,-0.345762699842453,-1.176107406616211,-0.8858311176300049,0.5140365362167358,0.23786978423595429,-0.3454149067401886,-0.49693453311920168,0.3507632315158844,1.3811798095703126,-0.33188456296920779,0.3284386992454529,-0.0906604453921318,-0.024937942624092103,-0.15114791691303254,-1.3892573118209839,0.01671629026532173,0.2438126504421234,1.0397326946258546,0.5857255458831787,0.14140824973583222,1.471678376197815,-1.0710982084274293,0.28239554166793826,-0.7837328314781189,-1.975948452949524,0.4595980942249298,0.2282741814851761,-1.2167996168136597,-0.28452467918395998,-0.019970979541540147,-2.171473264694214,0.8246558308601379,-0.3661290407180786,-0.14672309160232545,-0.2687546908855438,1.0115482807159424,0.654442548751831,1.720198154449463,0.20403797924518586,0.9465501308441162,-0.7208823561668396,-0.08868871629238129,0.6081002950668335,-0.7658959627151489,0.04716711491346359,0.03721961751580238,-0.6819669604301453,0.8235545754432678,-0.5237585306167603,-0.7158807516098023,-0.9379801750183106,0.39151889085769656,1.1251537799835206,-0.18833909928798676,0.4508531391620636,0.06609340757131577,0.9694005846977234,0.6054294109344482,0.7705106735229492,-0.8996226191520691,1.2506719827651978,-0.24786587059497834,-0.32903164625167849,-1.105837106704712,0.549534261226654,0.1303085833787918,-0.8425354957580566,0.2976423501968384,-0.7440896034240723,0.10844781994819641,0.34616947174072268,-1.5869920253753663,0.5460511445999146,-0.7190356254577637,-0.5842680931091309,-0.11179324239492417,0.0641586184501648,-1.2055054903030396,0.3814125657081604,0.38074904680252077,0.2641396224498749,-0.5489352345466614,0.4849771559238434,0.48051872849464419,0.5932462811470032,-0.02328227087855339,0.8609901070594788,0.40947800874710085,-0.036972641944885257,0.39200541377067568,0.4990050792694092,-0.8703105449676514,-0.8406026363372803,0.07369241863489151,0.18059398233890534,0.9163930416107178,-0.13479699194431306,0.9848123788833618,-0.8290039896965027,1.625296711921692,-0.4636167287826538,0.2785213589668274,0.14368867874145509,0.02164696902036667,-0.26101571321487429,0.10016154497861862,-0.8866971135139465,0.29401639103889468,-0.17114821076393128,-0.704420804977417,-0.8408594131469727,0.6199362277984619,0.07053004205226898,-0.2079692929983139,0.3068309724330902,1.2813035249710084,-0.46695417165756228,0.19183923304080964,1.6044937372207642,-0.3532288670539856,0.27195170521736147,0.06768075376749039,-0.46300533413887026,-0.6361042261123657,-0.946058452129364,0.7442643642425537,-0.4754008948802948,-0.7194357514381409,-1.3016618490219117,0.21423962712287904,-1.0884788036346436,0.13168035447597505,-0.19701942801475526,-0.3195037245750427,-0.9949138164520264,-1.0756834745407105,1.0833592414855958,0.3265090584754944,0.2066825032234192,-0.8924166560173035,-0.04605412855744362,0.4248744249343872,-0.33418500423431399,0.296264111995697,-0.4120468497276306,0.34558171033859255,-0.342824250459671,-1.3774654865264893,0.6772330403327942,-0.6993988156318665,-0.5155217051506043,0.7360045313835144,-0.4113194942474365,1.1018842458724976,0.9135041832923889,0.17863468825817109,0.01841859333217144,0.057464342564344409,-1.0878984928131104,-1.1410417556762696,1.2330902814865113,-0.2976979911327362,0.48848697543144228,1.8225374221801758,0.21045617759227754,-0.2450784593820572,0.7144820690155029,0.02759554609656334,-0.8684157729148865,-1.0271556377410889,0.8141714930534363,-0.4090327024459839,-1.2879221439361573,1.384151577949524,-0.29016000032424929,0.8133120536804199,-1.3623619079589844,0.6845454573631287,0.41712287068367007,0.35848599672317507,-0.6485151648521423,-1.6640249490737916,-0.060489922761917117,-1.278985857963562,0.9349411129951477,0.02989323064684868,1.2615983486175538,1.6899573802947999,0.16293004155158997,0.15398894250392915,1.16884183883667,0.20517177879810334,-1.4599571228027344,-0.9424942135810852,0.31634342670440676,0.47726643085479739,-1.3751397132873536,-0.7921464443206787,0.3055628836154938,0.3645804226398468,0.3971661627292633,-1.7126216888427735,0.2529294490814209,-0.21913869678974152,0.06070178002119064,2.640488624572754,0.5096524357795715,-1.9772642850875855,0.4968583583831787,0.6982890963554382,1.2289735078811646,0.8591352701187134,-1.802788496017456,0.3515034317970276,0.012501988559961319,-1.0272048711776734,-1.325571894645691,1.362884283065796,1.7219833135604859,1.4854189157485963,-1.6713967323303223,-0.8920314908027649,0.38965529203414919,0.1244022324681282,2.366577625274658,-0.8260486125946045,0.6896241903305054,0.48834148049354555,-0.988746166229248,0.08151286840438843,0.5181903839111328,0.7202668786048889,0.6666630506515503,0.2792240083217621,-1.0021607875823975,0.6854537129402161,1.1389719247817994,1.6254172325134278,0.1664370447397232,-0.7297210693359375,-0.48287561535835268,0.1778649389743805,0.15177682042121888,0.19663046300411225,-1.3179757595062256,-0.5716277360916138,0.21269433200359345,-1.919503092765808,-1.1856040954589844,0.47440585494041445,0.3587036728858948,-2.372244358062744,-0.3628690838813782,-0.01637112908065319,-0.21177121996879579,1.5686919689178467,0.8882315158843994,0.5473044514656067,-0.17573241889476777,0.28377431631088259,1.9591273069381714,1.4442099332809449,1.7165051698684693,-1.3468821048736573,0.1571400910615921,0.07545311003923416,-0.0545237772166729,0.4889059364795685,0.9167384505271912,0.19332972168922425,0.820141077041626,0.5251736640930176,0.6801570057868958,-1.3461674451828004,0.8064439296722412,-0.8293436169624329,1.5886187553405762,-0.1369708925485611,-1.2929502725601197,0.35965755581855776,-2.4997785091400148,1.6037490367889405,1.516874074935913,0.5997335314750671,-0.7237234115600586,0.6296108961105347,0.31959399580955508,-0.7171496152877808,0.3608832359313965,0.011013715527951718,0.7480944991111755,0.263876348733902,-1.5344440937042237,0.06318236142396927,-0.2350025773048401,-0.629265546798706,1.4278147220611573,-0.39770907163619997,1.2279903888702393,-0.4000439941883087,1.0822654962539673,0.2135091871023178,-1.0035239458084107,1.5591944456100464,-2.0353994369506838,-0.4556499123573303,-0.049772441387176517,0.037576548755168918,0.8584511280059815,-0.6746530532836914,0.7266063690185547,-0.7606492042541504,-0.6333008408546448,-0.23731973767280579,-0.5864765644073486,0.2019624412059784,0.028589794412255288,-0.6652325391769409,0.5104503035545349,-1.468951940536499,1.0389156341552735,-1.423689842224121,0.20317405462265016,-0.2431451976299286,-0.9727141261100769,-1.4023019075393677,0.16976091265678407,0.6369113326072693,-0.07928567379713059,-0.47166380286216738,-0.07282866537570954,-0.19406680762767793,0.42201802134513857,2.1512017250061037,2.1415438652038576,-1.5807571411132813,0.5861582159996033,0.8561699390411377,0.8859127163887024,1.6848716735839844,0.49231967329978945,-0.39107266068458559,-0.7519805431365967,0.19751325249671937,0.6465110182762146,-0.04875176027417183,1.2130911350250245,0.15946170687675477,0.24004316329956056,-1.0814837217330933,0.42830342054367068,0.13147343695163728,1.4159387350082398,-0.8306863903999329,0.2964068055152893,-0.8995480537414551,0.45449069142341616,0.37806305289268496,0.3122505247592926]},"biases":[0.5697828531265259,-0.5758175253868103,-0.1923265904188156,1.286645770072937,-0.41318127512931826,-0.6326156258583069,-0.6962890625,0.4456068277359009,1.359910488128662,0.46920812129974368,0.3547808825969696,0.03481645509600639,-1.923384189605713,0.34433645009994509,-1.4658476114273072,1.409623622894287,-0.6338140964508057,-0.651425838470459,-0.03593392297625542,-0.39547333121299746,-0.6558225750923157,-0.1114865243434906]},{"neurons":[-0.9465619921684265,-0.9987029433250427,0.9990614652633667,-0.7889434695243836,-0.9993830919265747,-0.9423119425773621,0.9999880194664002,0.10806268453598023,-0.9999934434890747,-0.9356609582901001,0.9983233213424683],"weights":{"rows":11,"cols":22,"data":[-1.491644263267517,0.9418240189552307,1.8053059577941895,0.42079293727874758,1.3269761800765992,0.09659888595342636,-0.014078877866268158,1.5897773504257203,-0.3654301166534424,-0.34748512506484988,-0.6374540328979492,0.8745150566101074,0.269625723361969,0.17085184156894685,0.5810826420783997,0.7479352951049805,0.41102954745292666,-1.3132933378219605,-0.7859524488449097,-1.0213383436203004,0.07884012162685394,0.03231178596615791,-1.2023390531539918,-0.26655736565589907,0.04529685899615288,-0.24250727891921998,-0.270417183637619,0.4762234091758728,-0.33869898319244387,-0.2025904357433319,0.6136793494224548,0.014149443246424199,-1.0641672611236573,0.8596121072769165,0.6304794549942017,1.150711178779602,-0.36834853887557986,0.19737349450588227,-2.1478261947631838,-0.008412392809987069,0.3781023919582367,-0.17842337489128114,-0.539871096611023,0.5634057521820068,-0.779355525970459,0.24855199456214906,-1.6919939517974854,1.655623197555542,0.9752329587936401,-1.9989187717437745,0.4196176528930664,-0.3643878698348999,0.2807878851890564,0.3749590814113617,-0.18720032274723054,-0.1981281340122223,-0.5413053035736084,-0.41842958331108096,-0.6596956253051758,-0.37638890743255618,-0.7546164393424988,0.010566582903265953,0.4872078597545624,0.18646635115146638,0.5171260237693787,0.21083194017410279,0.0006436238181777298,-0.7220579981803894,-0.8835464715957642,0.23790717124938966,1.0807485580444337,-0.38320112228393557,0.3277986943721771,-0.26108065247535708,0.06192166358232498,-0.38957300782203677,-0.0473443903028965,-0.20612385869026185,0.15981964766979218,-0.5598347187042236,0.3829602599143982,0.30949655175209048,-1.0049266815185547,-1.0385773181915284,-0.5563797950744629,0.10191155970096588,0.6834056377410889,-0.03722105547785759,1.3752399682998658,0.8450909852981567,-0.6807566285133362,0.10502427816390991,0.8363333344459534,0.21858446300029756,-1.250859022140503,-0.15393301844596864,-0.8223869204521179,-0.45689767599105837,-0.34026893973350527,0.9657230973243713,1.03005051612854,-0.9927240610122681,-0.46001970767974856,0.6010883450508118,-1.4642870426177979,0.24398978054523469,0.34918490052223208,2.3621468544006349,0.6043883562088013,-0.2773633897304535,-0.3118877708911896,-0.25244733691215517,-0.788252592086792,1.435078501701355,0.17497488856315614,-0.04640137404203415,-0.48011675477027895,0.562028169631958,-1.3481956720352173,-0.5429713726043701,-0.04388033598661423,0.6611335873603821,-0.46464774012565615,0.27340349555015566,0.8265866637229919,1.628604531288147,-0.19915924966335298,0.7731984257698059,-0.0635330006480217,-0.7063407301902771,0.5906829833984375,-1.3522847890853882,0.5464203953742981,-1.5931751728057862,1.668457269668579,-0.3000769317150116,0.346386194229126,1.3489519357681275,0.7072917222976685,1.255439281463623,0.1562330573797226,1.1463207006454468,-0.9247236251831055,-0.9380868077278137,0.4870133399963379,-0.969738245010376,-0.14987210929393769,0.6029133796691895,-1.110488772392273,0.7727192044258118,0.8545780777931213,-0.12987183034420014,0.7054005265235901,-0.24208062887191773,-0.2779170572757721,0.28665417432785036,0.848906397819519,0.33232372999191286,0.04830693081021309,0.24827009439468385,-0.423258513212204,0.4685935378074646,0.38844937086105349,0.18009668588638307,1.235736608505249,-0.07370992749929428,-0.44595012068748476,-0.8865740895271301,-1.3018361330032349,-0.059745900332927707,-0.24535518884658814,0.13944022357463838,0.6785302758216858,-0.2829846143722534,-0.08472394943237305,1.0191280841827393,-1.078118920326233,2.143617630004883,-1.2030384540557862,1.7593955993652344,-0.8960013389587402,-1.1314936876296998,-0.21229279041290284,0.3372851014137268,-2.7683472633361818,-0.5504363775253296,0.9797621369361877,-0.6744663715362549,-0.29152703285217287,-0.3534286916255951,-0.7799956202507019,-0.008545247837901116,1.3767648935317994,0.25096482038497927,-2.2442493438720705,1.1350955963134766,0.6630216836929321,-0.5730907320976257,-0.05172460898756981,0.924068033695221,-1.4808615446090699,0.25269201397895815,0.25805923342704775,-1.6571481227874756,0.1525111049413681,-0.2767108380794525,-0.5872682929039002,-0.49970436096191409,0.5563313364982605,0.24297483265399934,0.4855036735534668,0.5032392144203186,-1.7395826578140259,-0.4331718683242798,-0.11039789021015167,-0.29439204931259158,-0.12963807582855225,1.4295153617858887,0.09237566590309143,0.7143316864967346,1.5997198820114136,1.4256401062011719,-0.8502976894378662,0.5832378268241882,-1.032479166984558,0.020916307345032693,-0.593959391117096,-0.5468544960021973,-1.1501047611236573,0.8337287306785584,0.24866412580013276,1.0659830570220948,-0.7115844488143921,-1.4653117656707764,-0.8118852972984314,-1.197068691253662,-0.052070215344429019,1.6025832891464234,0.15101683139801026,0.08303020149469376,-0.7911922335624695,-0.20461779832839967]},"biases":[0.39556559920310976,-0.005989724304527044,-1.2460848093032838,-0.31454718112945559,-0.9312735199928284,-1.1101117134094239,1.2498563528060914,-1.1206424236297608,0.8351073265075684,0.9631885886192322,-1.1028038263320923]}],"seed":1116101358}