{"layers":[{"neurons":[-0.8984990119934082,0.39989152550697329,0.96213698387146,-0.5340918302536011,0.9995173811912537,-0.9923158288002014,-0.9914355874061585,-0.9479265213012695,-0.9999862909317017,-0.9994510412216187,-0.9998924136161804,-0.9994093775749207,0.9982684254646301,-0.6917282938957214,0.9999104142189026,0.9965022206306458,-0.9999254941940308,0.9994698762893677,-0.9280838966369629,-0.8662717938423157,0.9968546032905579,-0.8126003742218018,0.7436479330062866,0.999975860118866,-0.9335435628890991,0.9651942253112793,0.9995197653770447,0.9997780919075012,-0.9994719624519348,-0.9908503890037537,-0.9694921374320984,-0.4583008289337158,-0.9245793223381043,0.6151913404464722,0.9999838471412659,0.9996408820152283,0.9964985847473145,0.9996779561042786,-0.9999303817749023,0.9984192252159119,0.9890509843826294,0.9951670169830322,0.9771432876586914,-0.700435996055603],"weights":{"rows":44,"cols":22,"data":[1.4423974752426148,-0.5395879745483398,0.6410114765167236,0.36444491147994997,0.6754541993141174,-0.45748063921928408,1.34786856174469,0.8503516316413879,-0.7246768474578857,0.5599370002746582,0.5594303011894226,-0.3478969633579254,-0.4888378381729126,1.495367407798767,0.21565347909927369,0.6525565981864929,-2.045645236968994,1.2616477012634278,0.8419762253761292,0.785653293132782,-0.40538424253463747,-0.5637825131416321,0.7439677119255066,0.2519834637641907,-0.03050766885280609,-1.327181339263916,1.3636192083358765,1.055319905281067,0.6688469648361206,0.9944063425064087,-1.3819928169250489,-0.26230716705322268,-0.5049499273300171,-0.5434942245483398,0.5093435049057007,-0.17593571543693543,-0.8089920878410339,-0.1671840101480484,-0.44722452759742739,1.7219995260238648,-0.6335390210151672,-1.189927101135254,1.1710515022277833,0.4397965669631958,-0.19788004457950593,-0.6399271488189697,-1.3797307014465333,0.4030275046825409,-0.8962620496749878,-0.7441148161888123,0.25388219952583315,-0.9473710656166077,-1.093352198600769,1.503191590309143,-0.8799709677696228,0.19779850542545319,-2.156665563583374,-0.0907762199640274,-0.8179561495780945,0.3524845838546753,-0.6560913324356079,0.35862478613853457,-0.07520351558923722,-0.18112529814243318,0.4926520586013794,-0.25077497959136965,0.49584460258483889,0.4160526692867279,-0.28176137804985049,0.4881138503551483,0.4960995018482208,1.9253329038619996,2.041595935821533,0.9717341661453247,0.6919875741004944,-0.06864545494318009,-2.0713658332824709,0.30106085538864138,1.0504339933395386,-0.3791493773460388,-1.3485772609710694,0.7027539014816284,1.230137586593628,0.09430524706840515,-0.26267561316490176,0.22402408719062806,0.4174400269985199,-1.187525749206543,0.8910217881202698,0.3456140160560608,-0.3207799196243286,0.9383167028427124,0.03319287672638893,1.3237665891647339,-2.2806239128112795,0.2799052298069,0.15330404043197633,0.07165209949016571,-0.1549212783575058,-1.5104721784591675,-1.0808099508285523,0.7138521671295166,0.221466526389122,0.681357204914093,-1.0503865480422974,-0.7344494462013245,-0.2700633108615875,-0.9904667139053345,-0.5997909307479858,0.15844914317131043,-0.3990342319011688,0.6319553256034851,0.229415625333786,-0.5665494799613953,0.348175048828125,-2.3283402919769289,0.5898646116256714,0.547587513923645,-0.08918575197458267,-0.27800261974334719,-0.6062362194061279,-0.803972601890564,1.0469015836715699,-1.7507026195526124,-0.2842622399330139,0.874704897403717,-0.7950807809829712,-0.3855888843536377,-0.2009900063276291,-0.343189537525177,-1.7452936172485352,-0.30208441615104678,1.0052897930145264,1.3437516689300538,1.3974498510360718,-0.006717757787555456,0.10377420485019684,-0.6216405034065247,0.09119340777397156,-0.11604601889848709,-0.0026406568940728904,0.5226348042488098,0.7504998445510864,-0.18014800548553468,-0.3311951458454132,-0.6727054715156555,-0.2540150284767151,-0.7263455390930176,-0.4056386649608612,0.5164240598678589,0.2369728684425354,0.9633211493492127,0.3795070946216583,-1.749243140220642,1.3463014364242554,-0.6990518569946289,0.8387736082077026,0.9764974117279053,-0.8564338684082031,0.6916488409042358,0.10877048224210739,0.9865943789482117,-0.3540252149105072,-1.0962356328964234,1.9040188789367676,0.4823874831199646,0.9076325297355652,0.5625897645950317,-0.5877484679222107,0.02988542430102825,0.07789228856563568,0.5686889886856079,0.15818434953689576,-1.279905080795288,-0.7685045599937439,-0.6140730977058411,0.7103590965270996,0.12698379158973695,-0.7008514404296875,0.5663074254989624,-0.14059989154338838,-0.6819603443145752,0.36687976121902468,0.5495124459266663,0.3142341375350952,1.5218656063079835,-0.9872065782546997,0.9014766812324524,-0.7452757358551025,-0.3505086600780487,-0.1661657691001892,-0.3058381676673889,-1.616713285446167,0.5824750661849976,-0.7351207137107849,-1.1206783056259156,0.5086796879768372,-2.2980310916900636,-0.7310845255851746,1.1665725708007813,-0.514646589756012,-0.01868787407875061,0.7534387111663818,-1.5124287605285645,0.2967376708984375,1.1543564796447755,-1.3272005319595338,0.6997653245925903,0.21674641966819764,0.7183809280395508,0.46999049186706545,-0.09355314821004868,-0.47865647077560427,1.1067698001861573,0.20131918787956239,1.1587084531784058,0.27805569767951968,-1.8932801485061646,0.534852921962738,-0.4257555902004242,1.1880861520767213,0.2681548595428467,-1.0347660779953004,0.5549277663230896,1.5992356538772584,-0.23332402110099793,-0.022097522392868997,-0.752992570400238,2.992826223373413,0.5016160607337952,-0.47444766759872439,-0.14331234991550446,0.8779984712600708,-1.1828540563583375,-0.9808880686759949,1.0522950887680054,1.0937691926956177,0.31356602907180788,-1.296241283416748,-1.2516391277313233,-0.6250892281532288,0.5163373947143555,0.23791082203388215,0.3788883090019226,0.5470401048660278,2.4036498069763185,-0.3872998356819153,-1.0219959020614625,0.4722495377063751,-0.16551940143108369,0.38891297578811648,1.148576021194458,-0.2160957157611847,1.6221281290054322,0.5516331791877747,-0.8938767910003662,-0.17943379282951356,1.9746778011322022,-0.29915595054626467,0.12193065881729126,-0.35704419016838076,0.04238494485616684,-0.5267361402511597,-0.6168918609619141,-0.2833113968372345,0.8092972636222839,-0.010678027756512165,-1.0799962282180787,-1.2197279930114747,-0.9858818054199219,-2.674787998199463,0.5004545450210571,1.038415551185608,0.9523575305938721,0.004817102570086718,-0.20636413991451264,-0.49587756395339968,0.3175785541534424,0.013731453567743302,1.3282294273376465,-0.05542702600359917,-0.6740936636924744,-0.5735266804695129,0.5774538516998291,0.9559946656227112,-0.6397554874420166,0.128845676779747,-0.5152174234390259,0.06590472906827927,0.618504524230957,0.4881901443004608,-0.6983034014701843,-0.978863537311554,-0.5622437596321106,-0.7972288131713867,1.4806081056594849,0.20537318289279939,0.4335998594760895,0.7912188768386841,0.1895502209663391,-0.42913341522216799,-2.3317441940307619,-0.5953513979911804,1.211139440536499,-0.6489476561546326,0.9140993356704712,1.0104036331176758,0.35671085119247439,0.05729201063513756,-0.28358587622642519,-0.1223461851477623,-1.5712586641311646,1.0731276273727418,-1.6837064027786255,-1.0533013343811036,-0.44820550084114077,-0.6882374882698059,-0.6898086667060852,-1.9707363843917847,0.474640429019928,-0.1333237886428833,0.36002495884895327,-2.531681537628174,0.20585039258003236,-0.23307760059833527,-0.22217896580696107,-0.39684414863586428,-1.4939779043197632,-2.3139195442199709,-0.28958994150161745,-1.8764201402664185,0.2633637487888336,-0.4036988615989685,-1.1325002908706666,0.896172285079956,-1.1648510694503785,-1.2260602712631226,0.3453684151172638,-0.6875860095024109,0.16327428817749024,-1.1378878355026246,-0.6182496547698975,0.6202282905578613,1.2255470752716065,0.8866526484489441,-0.4519481956958771,1.6865359544754029,-0.3231319487094879,0.8206306099891663,2.8811817169189455,-0.14160095155239106,0.5863937139511108,-0.5974767804145813,1.5431090593338013,-0.03171050548553467,1.1395487785339356,0.8120542168617249,0.2397475391626358,1.3918174505233765,0.9231625199317932,1.3110342025756837,-0.8016825318336487,-1.4222910404205323,-0.5371281504631043,1.6843231916427613,0.7068096995353699,0.7253586053848267,0.053183045238256457,-0.6109769940376282,0.5570107102394104,1.61809504032135,-1.1654351949691773,0.8529190421104431,-0.5426233410835266,0.5681949853897095,-0.014360414817929268,0.8830426931381226,1.4401609897613526,0.3773805797100067,-0.4144417643547058,0.4519077241420746,-0.5994377136230469,-1.2751574516296387,0.00926221814006567,0.21410903334617616,-1.1452276706695557,-1.131282925605774,1.4481236934661866,-0.22456614673137666,1.5242588520050049,-0.484528124332428,0.23031511902809144,-0.0924944132566452,1.86809241771698,1.1409542560577393,-0.5006124377250671,-2.1059350967407228,-0.41565433144569399,0.20874720811843873,0.04528229311108589,0.5716592073440552,0.7482448220252991,0.5657063722610474,-0.037909895181655887,-0.27402159571647646,-0.7969648241996765,0.49625349044799807,1.2469455003738404,0.9714013934135437,-1.0443263053894044,-0.20144124329090119,1.0998579263687134,0.9065775275230408,-0.10061490535736084,0.359832227230072,0.25869694352149966,0.432580828666687,0.5470914840698242,0.9184102416038513,0.9632053971290588,0.9093752503395081,-1.1825100183486939,-1.4434044361114503,-0.05136701837182045,1.604137897491455,-0.23398415744304658,-0.8056973814964294,-0.6530221700668335,-0.676991879940033,1.3413846492767335,0.750028669834137,0.3720620274543762,0.9135258793830872,-0.04387133941054344,-0.3042868375778198,1.6964198350906373,0.11624809354543686,1.4587295055389405,-0.20253479480743409,0.03533286973834038,-0.039463214576244357,-0.3969053030014038,1.3188786506652833,0.019505200907588006,0.6877331733703613,-0.8733670115470886,0.7614845037460327,-2.4314422607421877,-0.034759148955345157,-0.953184187412262,0.19682052731513978,-0.6328743696212769,-1.2610788345336915,0.7656468749046326,0.7278046607971191,-1.2704554796218873,-0.19275414943695069,-0.799519419670105,-0.024225382134318353,0.8844115138053894,0.4864918291568756,1.0503097772598267,1.2690210342407227,0.1943165510892868,0.5343344807624817,0.3508967459201813,0.8335574269294739,-0.8898800611495972,-0.528758704662323,0.05501244589686394,0.38104456663131716,0.2406294345855713,0.47034716606140139,0.8427546620368958,-1.2233870029449463,1.2953541278839112,-0.414251446723938,0.3835904002189636,0.08375459909439087,2.015180826187134,1.0043091773986817,-0.2882978618144989,0.0034221727401018144,-0.2141856998205185,-0.29354724287986758,-1.1007581949234009,-0.9730104207992554,0.5128896832466126,0.7272152900695801,0.351529061794281,-2.037684440612793,0.07359025627374649,1.7551437616348267,0.5571380257606506,1.1478891372680665,0.43855130672454836,0.6929843425750732,0.18020817637443543,-2.1832685470581056,0.380679190158844,-0.9739025235176086,-0.5435409545898438,0.40330854058265688,-0.3730265200138092,-0.043940477073192599,1.2825158834457398,-1.1068739891052247,0.49590033292770388,1.1805651187896729,-0.419508159160614,-0.21416349709033967,-0.39357179403305056,-0.8649218082427979,0.06821317970752716,-0.12040463835000992,-0.34867924451828005,0.8286337852478027,-1.309539794921875,0.0424303263425827,0.6961906552314758,-1.8035528659820557,0.667421817779541,-0.1480727195739746,-1.0051378011703492,0.003997843246906996,-0.07634822279214859,-1.1592506170272828,-1.2548267841339112,0.31335464119911196,-0.8402965664863586,0.2784193754196167,0.4323362410068512,-1.1511292457580567,1.553221583366394,0.8624633550643921,0.4680163562297821,-0.3024041950702667,-0.659574568271637,0.3193180561065674,-0.31713584065437319,1.8047622442245484,-0.5488927364349365,0.5321826338768005,-0.9146984219551086,0.16547642648220063,-0.40102991461753847,-1.2051100730895997,-0.7336678504943848,-0.8306115865707398,-0.3950904905796051,-1.3221763372421265,0.27868643403053286,0.7329597473144531,-1.4865878820419312,-1.4684715270996094,0.41315072774887087,-2.7267539501190187,-0.18425679206848145,0.08918670564889908,-0.9261640310287476,-0.9767580628395081,0.507571280002594,0.8216922879219055,-0.4653725326061249,1.0502115488052369,-2.1258151531219484,-0.6224294900894165,1.510674238204956,0.3054859936237335,-1.4387214183807374,0.19573315978050233,-0.7994204759597778,1.0837384462356568,-1.2283430099487305,1.5278059244155884,2.1794323921203615,-1.329782247543335,0.6133757829666138,0.06954026967287064,-0.3108040690422058,-0.17810237407684327,-0.1727275848388672,-1.131345510482788,-0.0329928994178772,0.6057641506195068,1.4869424104690552,-0.24298031628131867,0.31511712074279787,0.829325258731842,-0.15429992973804475,1.2606568336486817,-0.14158789813518525,-1.4003455638885499,0.349844366312027,-0.29934725165367129,-0.77804034948349,0.04893841594457626,-0.9004862308502197,-0.47622695565223696,0.474736750125885,-1.3527393341064454,0.045078545808792117,0.49539434909820559,-1.2874966859817505,-0.19747959077358247,-0.11245846748352051,-1.168068528175354,0.4164908230304718,-0.8168375492095947,-0.5155855417251587,0.6472799181938171,0.4079250991344452,-0.06569457799196243,0.45211756229400637,-0.2940889596939087,-0.19082769751548768,0.5279690027236939,0.15149058401584626,0.008790940046310425,1.1070048809051514,-0.5607969164848328,0.6603346467018127,0.06564255803823471,0.224167600274086,1.2367974519729615,-0.8480437994003296,-0.13880503177642823,0.3191177248954773,0.5092336535453796,-1.0844312906265259,0.3125254213809967,0.4348919689655304,-1.6099802255630494,-0.11290085315704346,-0.14174960553646089,-0.8264822363853455,0.4108559489250183,-0.6641513705253601,-0.5504322052001953,0.8047798871994019,-1.1803843975067139,-0.3240039646625519,0.9052643775939941,-0.9628623723983765,-0.25187891721725466,0.0614648275077343,-0.4326494336128235,-0.20484332740306855,-0.6654202342033386,-0.2921576499938965,1.3661772012710572,-0.37915849685668948,0.16130191087722779,0.9035189747810364,-0.3754296898841858,-0.0817493200302124,-0.24226386845111848,-0.8410304188728333,0.7081021070480347,-0.3739578127861023,0.19338876008987428,0.30325379967689516,0.0925157219171524,0.6884869933128357,0.6493512392044067,0.34337863326072695,0.2463773936033249,-0.388504296541214,1.6062963008880616,-0.11616888642311096,-0.7824181914329529,-0.9510008096694946,-0.320952832698822,-1.3260257244110108,-0.48189738392829897,-0.18915201723575593,0.1871490478515625,-0.25694629549980166,-0.2030947059392929,-0.44352149963378909,0.5563839673995972,0.10042881220579148,-1.1665500402450562,0.7184718251228333,-0.4039210081100464,-1.117205023765564,1.0269267559051514,-0.08088521659374237,-0.6271650195121765,0.2888992726802826,-0.08307170122861862,1.1637109518051148,0.9262382984161377,-0.4272688329219818,-0.2049810141324997,-0.2537465989589691,-0.24307431280612946,1.8969264030456544,0.03313789889216423,0.5087994933128357,-0.35638388991355898,0.969122052192688,0.3221622109413147,0.029231393709778787,-0.8539355397224426,-0.7269219160079956,1.0282851457595826,0.5520809292793274,0.024659566581249238,-0.8512309193611145,0.9083154201507568,-0.36519715189933779,0.48400095105171206,-0.6903256773948669,-0.3800078332424164,-0.333214670419693,1.2572643756866456,-0.0019269018666818739,0.6179868578910828,-0.22780664265155793,1.2723479270935059,1.2535160779953004,0.4410440921783447,0.4830866754055023,0.016484227031469346,-1.40596342086792,-0.39938560128211977,0.40868476033210757,-0.11334973573684693,1.2917195558547974,-1.2536919116973878,0.7533161640167236,-2.4190292358398439,0.6885076761245728,1.0915446281433106,0.6712214946746826,0.41631126403808596,-0.23750849068164826,-1.4881930351257325,0.5902451872825623,-1.0502883195877076,0.3616594076156616,0.289745032787323,-0.13784343004226685,1.310939073562622,-0.10437166690826416,-1.1717904806137086,-1.328345775604248,-0.1064063236117363,-0.2604069411754608,1.3803428411483765,-1.227212905883789,-0.05442493408918381,1.9146416187286378,0.45511069893836977,0.39275598526000979,0.2544423043727875,1.7661848068237305,-1.183206558227539,0.038149621337652209,-2.514832019805908,-1.0750865936279297,-1.2167747020721436,-0.9797448515892029,0.3648817241191864,-0.5564212799072266,-0.4378923773765564,0.9353707432746887,0.5950772166252136,-0.3919973075389862,-0.47695136070251467,-1.2753573656082154,1.356141448020935,-0.6835862994194031,-0.4932408034801483,0.1113307848572731,-1.6187617778778077,-0.3735319972038269,-0.9426044821739197,-0.5751504302024841,0.32092076539993288,0.18292273581027986,0.21365238726139069,1.8392549753189088,0.43714356422424319,0.3537594676017761,0.841461181640625,0.2055099606513977,-0.7055351734161377,0.8288629055023193,2.334484338760376,-0.8913507461547852,-0.082086481153965,0.21088843047618867,-0.9199162125587463,-0.695803165435791,-0.32594966888427737,0.30238139629364016,-0.4088345468044281,-0.6868476867675781,-0.9273391366004944,-3.170189142227173,0.5496376156806946,-0.8762162327766419,0.43403589725494387,0.38010117411613467,0.09318064898252487,0.47485750913619997,1.0470086336135865,0.33728647232055666,0.5481284856796265,0.2705351710319519,-0.17812342941761018,0.3547520935535431,0.2944819927215576,-1.697099208831787,0.03429652750492096,-0.1631513386964798,-0.4334280490875244,1.1363179683685303,-0.1346268653869629,0.0174386166036129,-0.21354340016841889,1.5448917150497437,-0.9028566479682922,0.625920295715332,-0.9244583249092102,-0.998344361782074,-2.127185821533203,0.5755017399787903,0.8641756772994995,-0.16078762710094453,0.06953100115060806,1.1839896440505982,-0.26696306467056277,0.21395240724086762,-0.9172173738479614,-1.3605639934539796,-1.1600077152252198,0.7810498476028442,0.09260701388120651,-0.0009319800301454961,1.0947728157043458,-0.3849835693836212,0.36969539523124697,-0.459208607673645,-0.3694397211074829,1.959269404411316,1.3876354694366456,0.16714826226234437,1.978660225868225,0.0259347353130579,-0.40379106998443606,0.5919800996780396,-0.7452009916305542,0.9551222920417786,0.8292832970619202,0.9412677884101868,0.9332978129386902,0.6716791391372681,1.3426570892333985,-0.15924596786499024,-0.507095456123352,0.19413942098617555,-0.8380651473999023,0.08152018487453461,-0.9814049005508423,-1.1841871738433838,0.6473593711853027,0.19281062483787538,-0.9077420830726624,0.352561354637146,-0.2849707007408142,0.29198676347732546,-0.8120560646057129,-0.4228876531124115,0.16465695202350617,-0.675501823425293,-0.23549744486808778,0.46167629957199099,-0.6066374182701111,-0.4417795240879059,1.029583215713501,-1.2899681329727173,0.16015249490737916,-0.10222771018743515,-0.6565537452697754,-0.4302619695663452,-0.2136269360780716,-0.7783874869346619,0.8754138946533203,-0.3272438049316406,0.6627310514450073,1.4213217496871949,-0.7096939086914063,0.05407273769378662,0.38499271869659426,0.3722560405731201,0.6260013580322266,-2.480391263961792,1.7749260663986207,0.6071898937225342,1.2138813734054566,0.6123596429824829,0.6117441058158875,0.05705241113901138,1.227026343345642,0.2969793677330017,-0.707672119140625,-0.24669426679611207,-1.121375322341919,0.7879059314727783,-0.17261996865272523,0.6643930673599243,-0.5837474465370178,-0.9091402292251587,0.5287933945655823,0.1083628237247467,-0.20964565873146058,-0.5228076577186585,-0.33096086978912356,0.6006458401679993,-1.4679975509643555,-0.33837655186653139,-0.048463914543390277,0.2828141748905182,-0.6510938405990601,1.036431908607483,0.5393595695495606,0.14156939089298249,1.3889914751052857,0.27308160066604617,-0.08615079522132874,-1.333431363105774,-2.0497474670410158,-0.4330931007862091,-0.24439115822315217,-0.2452012002468109,-1.9574642181396485,-0.1560102254152298,-0.8142744302749634,-1.5382752418518067,-0.5905730724334717,-0.6367136836051941,0.06634952127933502,-0.31440332531929018,1.21824312210083,-0.21978770196437837,-0.2925581634044647,-0.8228381276130676,0.5497546792030335,-0.763514518737793,0.8407412171363831,1.2171086072921754,-1.2121162414550782,-0.2366809844970703,0.5657185316085815,0.2872803509235382,-0.3935197591781616,1.2587714195251465,0.16483916342258454,-0.7029058337211609,-2.4834375381469728,-0.19277307391166688,1.2765717506408692,0.6419190168380737,-0.1706090271472931,0.9151723384857178]},"biases":[0.35125532746315,-0.21440847218036652,0.025269102305173875,0.2616370618343353,0.7915262579917908,-0.3841949701309204,-1.2656452655792237,0.36322396993637087,-1.2859214544296265,-0.6011918783187866,-0.6979129314422607,0.15227851271629334,1.4299834966659547,-0.17725950479507447,-1.1220502853393555,-1.3713829517364503,0.5866189002990723,0.15620020031929017,-1.296247959136963,0.11599016934633255,-0.8085774183273315,-1.000746726989746,0.9864320755004883,1.5485260486602784,0.8225152492523193,1.3236465454101563,0.38838672637939455,-0.4881356358528137,0.07807006686925888,-0.2588786780834198,-1.5696630477905274,-0.5518987774848938,0.47844213247299197,-1.5018041133880616,-0.23242008686065675,-1.3471190929412842,0.31793177127838137,-0.964799702167511,0.2958146035671234,-0.33955031633377077,-0.030911345034837724,1.3341014385223389,-0.02131553925573826,-0.2349899709224701]},{"neurons":[0.8925656676292419,-0.5917780995368958,0.9998443126678467,0.9998094439506531,0.999998927116394,-0.9698354005813599,0.9999991655349731,-0.9999939799308777,0.9999999403953552,0.9999999403953552,-0.9999980926513672,-0.4826541244983673,-0.9999997019767761,-0.9999998807907105,-1.0,-1.0,0.9997586607933044,0.9999826550483704,1.0,0.99215167760849,-0.9202725887298584,-0.9982082843780518],"weights":{"rows":22,"cols":44,"data":[0.634675145149231,0.31998276710510256,-0.5265974402427673,0.8460359573364258,-0.8834372758865356,1.7025104761123658,1.761095643043518,-0.4544116258621216,0.6671069264411926,-0.6787999272346497,-0.8936958312988281,1.737485408782959,0.42292776703834536,-1.3777587413787842,0.4535009562969208,-0.5537029504776001,-0.4363475441932678,-0.008849871344864369,-1.418341040611267,-1.999017357826233,-0.7649103999137878,0.15327495336532594,-0.09987790882587433,-0.11880546063184738,-0.7631648778915405,0.24227643013000489,1.6058531999588013,-0.8982810378074646,-0.010175280272960663,-0.571387529373169,-1.7189072370529175,-1.5596983432769776,-0.7667683959007263,-0.360625296831131,-1.1679924726486207,-0.4184025228023529,-0.13706116378307343,-0.5126129388809204,-0.32464414834976199,-0.012130681425333023,-0.7245849370956421,0.2978627681732178,0.660446047782898,0.12488055974245072,1.3120334148406983,-0.5681310892105103,1.1379992961883546,1.3066598176956177,1.6419776678085328,-0.48603305220603945,1.2337771654129029,-0.7529708743095398,-1.5727304220199586,0.8850733637809753,1.678410291671753,-1.1453746557235718,0.19006124138832093,0.6558019518852234,-0.644219696521759,-1.3870086669921876,-0.15209746360778809,0.982330858707428,-1.2171884775161744,-0.5271210074424744,-0.5206623077392578,0.5333511829376221,1.689671277999878,-0.1633741855621338,0.2098943144083023,0.3943752646446228,0.7925467491149902,2.8184032440185549,2.4821176528930666,1.9340876340866089,0.12575677037239076,-1.8390004634857178,-0.4335571527481079,-0.2756766378879547,-0.13773314654827119,-1.1739000082015992,0.48696649074554446,-0.20388339459896089,0.21718494594097138,-0.9862431883811951,0.989232063293457,0.22258739173412324,0.07046744972467423,1.1737589836120606,0.8553147912025452,0.22505217790603639,0.8880579471588135,-0.5661033391952515,2.168468952178955,0.5595719218254089,1.2263109683990479,-1.3614060878753663,-0.5098508596420288,-0.3109799027442932,-0.3452511727809906,-0.2866396903991699,-1.0935457944869996,0.4800662696361542,0.1421009600162506,0.7603709101676941,-1.3215841054916382,0.8231254816055298,0.018763387575745584,0.764427125453949,0.22582069039344788,0.8273268938064575,-0.9689188599586487,-0.06686711311340332,-1.1639783382415772,0.07203535735607147,0.019884981215000154,0.8681560754776001,-0.2492149919271469,-0.08271589130163193,-0.10308875143527985,0.1811307966709137,1.8314292430877686,1.3616807460784913,-0.15307791531085969,-0.32797282934188845,0.0931236743927002,-0.6950691342353821,-0.7190730571746826,0.20320215821266175,1.272348165512085,0.14791339635849,-0.6242691874504089,1.2166110277175904,-0.11294315755367279,0.5271519422531128,-0.93807053565979,1.732547640800476,1.1381323337554932,-0.4866484999656677,-0.47610434889793398,-1.2482141256332398,0.39934873580932619,-1.7523462772369385,-0.0745982825756073,-0.42261624336242678,-1.1982946395874024,1.0143953561782838,0.6967872977256775,0.23414897918701173,-0.03686907887458801,0.8156899213790894,0.2172965705394745,-0.17768701910972596,-0.3781292140483856,-0.4608180820941925,1.2307311296463013,0.21615494787693025,-0.38745519518852236,0.9230449199676514,-0.6261257529258728,0.0051702470518648628,-0.6696722507476807,1.7013953924179078,0.6858289241790772,1.3282443284988404,-0.4169570505619049,-0.484681636095047,0.03577347844839096,-0.5493890643119812,1.1802093982696534,-1.1418027877807618,0.03543314337730408,-0.7361140847206116,0.6632359027862549,0.2918953597545624,0.2424653172492981,-0.1456434577703476,-0.7646685838699341,0.26657557487487795,1.271449089050293,0.654927134513855,0.030346931889653207,-0.8812196254730225,0.5285888314247131,-1.4414070844650269,0.24502816796302796,-2.1957809925079347,0.32014957070350649,2.2564167976379396,0.6779481768608093,-1.152950406074524,-0.07897884398698807,-0.4518233835697174,0.30884191393852236,1.6293423175811768,-0.09912252426147461,0.15348604321479798,0.8712336421012878,0.020617930218577386,0.6079213619232178,0.4295941889286041,1.3972876071929932,0.23255985975265504,-0.12510967254638673,0.8514753580093384,-1.2203879356384278,-1.1039806604385377,-0.12061627209186554,0.20131908357143403,-0.7625758647918701,0.1398540884256363,-0.5270065069198608,0.0726938471198082,-1.5374889373779297,-0.33145907521247866,-0.7381987571716309,-0.02405697852373123,-0.2999492585659027,0.491864949464798,0.2554128170013428,0.5066906213760376,-0.5237889885902405,0.12800811231136323,-0.01606900244951248,-1.8459885120391846,-0.44497519731521609,0.36955419182777407,-0.08264286816120148,0.07902344316244126,-0.23458361625671388,0.37220072746276858,2.1672983169555666,0.8407526612281799,-0.3308252692222595,0.6830317974090576,-0.5997490882873535,-0.5679921507835388,0.9923563599586487,0.6603797674179077,0.19645282626152039,-1.6331602334976197,-1.746899962425232,-0.8118186593055725,0.23504216969013215,-0.6387313008308411,0.5714777708053589,0.9195829033851624,-1.696229338645935,1.203908920288086,-0.5426623821258545,-0.14129558205604554,0.45363861322402956,0.0012768929591402412,-0.037400491535663608,0.7337672114372253,-0.4442276656627655,1.7324970960617066,-0.4675086438655853,-0.058155760169029239,0.6939356327056885,-0.0435875840485096,0.45184606313705447,0.5739782452583313,0.7818483710289002,-1.309191107749939,1.375213623046875,0.38333526253700259,-0.5402437448501587,-0.13697434961795808,-0.6548481583595276,-0.9980446696281433,-0.6640885472297669,0.024584265425801278,0.3992370665073395,-0.5620625615119934,-1.306766390800476,-0.9380279779434204,0.2896241247653961,0.20953422784805299,1.7992727756500245,-0.5408978462219238,-0.48273026943206789,-0.6004307866096497,-1.181803822517395,-1.8698818683624268,0.8086580634117127,-0.918003261089325,-1.3337323665618897,1.2249253988265992,-0.6137053966522217,-0.15173234045505525,-0.7582011222839356,-0.7647061944007874,-0.8224310278892517,-0.2643389403820038,-0.5020124912261963,0.33643293380737307,0.9601544737815857,-0.21994005143642426,-0.17687304317951203,0.02667400613427162,-0.8997076153755188,0.38662245869636538,-1.7342301607131959,0.10704690217971802,0.15527141094207765,0.3242020010948181,-1.5740832090377808,-0.3792304992675781,1.070873498916626,-0.1722131222486496,-0.18402644991874696,0.7655237317085266,-0.3292918801307678,0.8200949430465698,-0.08711700141429901,-0.23902828991413117,0.06723996251821518,0.3197043240070343,1.1476109027862549,-0.8654496669769287,0.030494067817926408,-0.0589008703827858,-0.21424487233161927,0.25352561473846438,-0.47963646054267886,-1.1302942037582398,0.3846741020679474,1.013499140739441,0.33811861276626589,-0.4136899411678314,2.2827837467193605,-0.19210992753505708,-0.3100840747356415,-0.035742998123168948,0.4619910418987274,0.84139084815979,0.8632519245147705,1.5683331489562989,0.09273994714021683,-0.2089405506849289,-0.053397007286548617,-0.8725579380989075,-0.18106500804424287,0.4990787208080292,-1.0924371480941773,-0.3683743476867676,1.040030598640442,1.0240267515182496,0.6801549196243286,-1.787957787513733,-0.2915211021900177,0.288163959980011,0.7811981439590454,0.8048743605613709,-1.0061558485031129,-0.5964012742042542,-0.40166401863098147,-0.12072653323411942,-1.3692296743392945,-1.1762663125991822,1.1165947914123536,1.1660573482513428,-0.49265551567077639,1.2994883060455323,1.0318169593811036,-1.752898097038269,-1.4793579578399659,1.4967652559280396,-0.3372155427932739,-1.7103394269943238,-0.8760696053504944,0.4132722318172455,1.1107001304626465,-1.6779940128326417,-0.07845316827297211,-0.03714168444275856,0.07276207953691483,0.7295868992805481,-0.0827055498957634,-0.9099658131599426,-1.4736151695251465,-0.8303127884864807,-0.09908609092235565,-1.0183786153793336,-0.43700987100601199,0.1994827836751938,-0.0015093820402398706,-0.22004473209381104,0.7063837647438049,0.4096038043498993,-0.9911918044090271,2.8061275482177736,0.7762890458106995,-0.49886465072631838,-1.9309028387069703,0.1673431694507599,0.5986106395721436,0.7519032955169678,-0.4311527907848358,0.43998268246650698,0.13046492636203767,1.4355803728103638,-0.2741801142692566,0.6925143599510193,0.5309683680534363,-2.2751269340515138,0.016813138499855996,0.5073258876800537,2.006381034851074,-0.7492973208427429,0.7424063682556152,-0.2520706057548523,1.265243411064148,-0.2780763804912567,0.5590957403182983,-1.1475303173065186,-1.5074429512023926,0.2059585601091385,-0.9944555759429932,0.009418555535376072,-0.41074338555336,0.6750827431678772,-0.37109342217445376,0.7711659073829651,-0.5725085139274597,-0.5890810489654541,0.7116381525993347,0.05384517088532448,-1.4142024517059327,2.322762966156006,0.5361093878746033,0.02611898072063923,1.2143534421920777,1.8087007999420167,-0.49280422925949099,0.1517946720123291,-0.5797891616821289,0.8629496693611145,0.19183748960494996,-1.1197559833526612,-1.0497852563858033,0.8184806108474731,0.059759192168712619,-1.1909198760986329,1.4632809162139893,-0.11141987890005112,0.8462387323379517,-0.19820241630077363,0.3182045817375183,-0.5746809840202332,1.4447243213653565,0.9646540880203247,0.6885865330696106,0.14494439959526063,-1.016093134880066,-1.6529545783996583,-0.2770468294620514,-0.6438353061676025,0.18657729029655457,1.3334882259368897,-1.4882736206054688,-1.1717571020126343,-0.5472781658172607,-1.1381779909133912,0.11462666839361191,-0.04824061691761017,0.5967199802398682,0.8410223126411438,-0.5118231773376465,0.4125310182571411,-0.1042708158493042,0.16351526975631715,1.0433272123336793,1.108675241470337,-0.6942687630653381,-0.5778793692588806,-0.36153697967529299,-0.7789129614830017,-0.0388159416615963,-1.1851969957351685,-1.029183268547058,0.5818167924880981,-0.731708288192749,-2.265709161758423,0.45752227306365969,0.2855589985847473,-2.982975482940674,0.32280030846595766,-0.04336114227771759,-0.6041164994239807,-1.1995888948440552,-0.8496776819229126,1.2450600862503052,0.7711805701255798,-0.4905245900154114,-1.04603910446167,1.592208981513977,-0.09345081448554993,0.5349066257476807,-0.22991400957107545,0.9233786463737488,-0.26397639513015749,-0.7450440526008606,-1.938915729522705,-1.821652889251709,0.7027967572212219,0.9508943557739258,-1.0012611150741578,0.7184842228889465,0.6074767708778381,2.110783815383911,1.734047770500183,-0.5508878827095032,0.5538101196289063,0.5402224063873291,0.2835724949836731,1.2036185264587403,-0.5535356998443604,0.6850103139877319,-1.2240427732467652,0.46825888752937319,0.3665899932384491,0.6130083799362183,0.0014110686024650932,0.2861263155937195,-1.2047312259674073,0.11680124700069428,0.6452609300613403,1.6492890119552613,0.023602195084095,1.2547136545181275,0.5299703478813171,-0.1500476747751236,0.6601859331130981,0.5120032429695129,0.00938250869512558,1.1589171886444092,1.3736687898635865,0.2892535924911499,0.8328614830970764,0.446382075548172,-0.19110403954982758,-0.9544009566307068,1.781964659690857,0.05157148838043213,-1.5312374830245972,-1.9010531902313233,-1.135422945022583,0.49692392349243166,-0.4879887104034424,-0.33860820531845095,-1.0711873769760132,0.2830853760242462,0.22840099036693574,0.36429598927497866,0.21914780139923097,-0.6992501616477966,0.18790173530578614,1.5453850030899048,-1.438867211341858,-0.8609481453895569,-0.9649500846862793,0.33780431747436526,-0.38926705718040469,-0.15647576749324799,0.34315645694732668,-0.024418212473392488,-0.9726023077964783,-1.587203025817871,-0.31118759512901308,0.2884570062160492,0.13355204463005067,-0.44560351967811587,1.765536904335022,0.18016530573368073,-1.240376353263855,-1.6275966167449952,-1.1528148651123047,0.10403510928153992,-0.5899356603622437,0.1902824491262436,0.9795817732810974,-0.06562092900276184,-0.04227716475725174,-0.7342202067375183,-1.0195330381393433,0.9019154906272888,-0.2777038514614105,-0.23165348172187806,-0.8556550741195679,0.9844315648078919,0.40573182702064516,-0.5745118856430054,2.3658130168914797,0.4367007613182068,-0.9931578636169434,-0.719466507434845,0.12189449369907379,-0.3771745562553406,-0.09089021384716034,0.5010210871696472,-0.21287968754768372,1.2461090087890626,-0.7171773910522461,0.9328571557998657,-0.7538573145866394,-1.2962539196014405,-0.1539192944765091,-1.6269980669021607,-0.23765863478183747,-1.175284504890442,-1.5690504312515259,0.5834342241287231,0.23763202130794526,-0.3451041579246521,-0.47708213329315188,1.0936219692230225,1.0845229625701905,-0.5935303568840027,0.32811039686203005,0.47128623723983767,-0.050031401216983798,-0.8918120861053467,-1.24189031124115,-0.05639571696519852,0.9100393056869507,1.1469804048538209,0.881229043006897,0.14128102362155915,1.3223512172698975,-1.077049970626831,0.057279765605926517,-0.3494090139865875,-2.0096476078033449,0.4573418200016022,-0.14962247014045716,-0.8621189594268799,0.1985665112733841,-0.13407881557941438,-2.1695196628570558,0.4582168757915497,-0.3657996356487274,0.6527794599533081,-0.7104644775390625,1.3759287595748902,0.6538537740707398,2.467750310897827,0.29203471541404726,0.9456985592842102,-0.731749951839447,-0.025399543344974519,0.8689000010490418,-0.7652069330215454,-0.4557590186595917,-0.6594712734222412,-0.22096875309944154,0.8228136301040649,-0.7766505479812622,-0.7153082489967346,-0.9371362924575806,0.9006655216217041,1.1242539882659913,-0.0634622871875763,0.611335039138794,-0.3286902606487274,0.5640564560890198,1.5452851057052613,1.2540524005889893,-0.8989031910896301,1.249546766281128,0.3348868489265442,0.11690141260623932,-0.8864935040473938,-0.06921201199293137,1.1266453266143799,-1.2439953088760377,0.29737457633018496,-0.7570228576660156,0.35053229331970217,0.5953539609909058,-1.2807972431182862,0.59174644947052,-0.7183887958526611,-0.03856147453188896,-0.07116880267858505,0.1390397548675537,-1.3668522834777833,0.12266558408737183,0.41935837268829348,-0.04633904621005058,0.26409146189689639,0.4737892746925354,0.45131343603134158,0.5927718281745911,-0.31516507267951968,0.8107345700263977,0.33007919788360598,-0.0013526829425245524,0.7099815607070923,0.44437718391418459,-1.0450241565704346,-0.4850125312805176,0.09608285874128342,0.18041346967220307,0.9155686497688294,-0.7601770758628845,0.3783928155899048,-0.915970504283905,1.3950339555740357,-0.19281139969825746,-0.03283151611685753,0.14354504644870759,0.022135186940431596,-0.02909241057932377,-0.6542567610740662,-0.9901674389839172,0.29375189542770388,-0.5338749289512634,-0.27889180183410647,-0.9642043709754944,0.6193785071372986,-0.11254412680864334,-0.24785850942134858,0.34801381826400759,1.0177462100982667,-0.46041449904441836,0.1916666477918625,1.6030502319335938,-0.022149095311760904,-0.025604555383324624,0.06761986762285233,-0.4329463541507721,-0.9621306657791138,-0.9451128244400024,0.743594765663147,-0.4627348482608795,-0.757312536239624,-1.3004908561706544,0.2140468806028366,-1.2016053199768067,0.5719076991081238,0.3637586832046509,-0.43433454632759097,-0.6207171678543091,-0.6809476613998413,0.40625977516174319,0.6218658089637756,0.6975225210189819,-0.11561334133148194,-0.12897135317325593,0.6000799536705017,-0.005890661384910345,0.5646292567253113,-0.5500707626342773,0.05618748441338539,0.07934215664863587,-1.1918214559555054,0.6766237616539002,-0.9427247643470764,-0.606177568435669,0.1360226273536682,-0.8713020086288452,1.176155924797058,0.6325119733810425,-0.6514757871627808,-0.45298072695732119,-0.7265929579734802,-1.0869197845458985,-1.1400151252746583,1.2319809198379517,0.14622259140014649,0.48809632658958437,1.0510101318359376,-0.25563156604766848,0.7637609243392944,0.24853326380252839,-0.3637993335723877,-0.7131656408309937,-0.665060818195343,1.6198654174804688,-0.37243199348449709,-0.9895589351654053,1.8912392854690552,-0.23171080648899079,0.8119668960571289,-1.321877121925354,0.6973119378089905,0.5946345329284668,0.34459730982780459,-1.5388989448547364,-1.1257773637771607,-0.06221078708767891,-1.2778352499008179,1.2313308715820313,0.029866335913538934,0.8464367985725403,1.6510889530181885,-0.4071180820465088,-0.3847178518772125,1.3990670442581177,0.21749812364578248,-1.4586436748504639,-0.7162327766418457,0.30103713274002077,-0.1320851445198059,-1.6438158750534058,-0.825882613658905,0.7616670727729797,0.6951593160629273,0.3389482796192169,-1.7109097242355347,0.2526766359806061,0.3798257112503052,0.5556458234786987,2.636838912963867,0.5091938972473145,-1.9754855632781983,0.6071772575378418,0.6595284342765808,0.8942238688468933,0.8592172861099243,-1.8011666536331177,0.4964436888694763,0.39134323596954348,-1.087701439857483,-1.277958631515503,1.0524790287017823,1.968146562576294,1.8822870254516602,-2.1387481689453127,-1.2068485021591187,0.35778099298477175,0.13308799266815186,2.3644485473632814,-0.4983641505241394,0.8842089176177979,0.4879021644592285,-0.9878565669059753,-0.14569726586341859,0.3938649594783783,0.8551933765411377,-0.06219484657049179,0.32247450947761538,-1.0013593435287476,0.6848370432853699,0.7145145535469055,1.985938310623169,0.22287093102931977,-0.4234883785247803,-0.3615795969963074,0.6645031571388245,0.48826363682746889,0.19645355641841889,-0.652901828289032,-0.5711134672164917,0.21248173713684083,-1.4732534885406495,-0.8796760439872742,0.08782776445150376,0.6504052877426148,-2.595379590988159,-0.2967032194137573,0.19116932153701783,0.2548258900642395,0.565218985080719,0.7524239420890808,0.1967753916978836,-0.1629827618598938,-0.14492486417293549,1.9618226289749146,1.4429106712341309,1.7149609327316285,-1.7398645877838135,-0.3248056471347809,-0.16010291874408723,-0.19661463797092439,0.4884661138057709,0.8854376673698425,0.738608181476593,0.3628866672515869,0.5096319317817688,0.6795451045036316,-1.344956398010254,1.2906982898712159,-1.5028754472732545,1.4030513763427735,0.36237674951553347,-0.8766052722930908,0.336355596780777,-2.0554182529449465,1.6023062467575074,1.3567322492599488,0.4857272505760193,-0.911756694316864,0.8984178900718689,0.31927454471588137,-0.01133834570646286,-0.01239833328872919,0.5314176082611084,0.7474215030670166,0.6262605786323547,-1.093122124671936,-0.28820979595184328,-0.2527064085006714,-0.6286994218826294,1.4265302419662476,0.07854162156581879,1.2267630100250245,0.303540974855423,0.6418285369873047,0.2690833508968353,-0.9852240681648254,1.5288926362991334,-1.917957067489624,-0.30924075841903689,-0.049727663397789,0.7755937576293945,0.7578414678573608,-1.0848464965820313,0.9936827421188355,-0.6357647180557251,-0.5964519381523132,-0.23710623383522035,-0.900092601776123,-0.15883687138557435,0.028564073145389558,-1.0235674381256104,0.4140655994415283,-0.7833714485168457,1.001086950302124,-1.4222668409347535,0.2029912769794464,-0.2429264485836029,-1.4352149963378907,-1.8671127557754517,-0.3107943832874298,0.5766677260398865,0.1524694710969925,-0.7599385976791382,-0.07276315242052078,0.07573365420103073,0.3956908881664276,2.1490514278411867,1.1677582263946534,-2.0144670009613039,0.5856308937072754,1.0431894063949586,0.7857857942581177,1.2071467638015748,0.4918767511844635,-0.3571670949459076,-0.751304030418396,0.1792013943195343,0.6459293961524963,0.28679636120796206,2.0830113887786867,-0.21562770009040833,0.11565814912319184,-0.9797382950782776,0.6623987555503845,0.06383923441171646,1.2256709337234498,-0.7296328544616699,1.3523948192596436,-1.063669204711914,0.7563338279724121,0.6864564418792725,0.7683656811714172]},"biases":[0.5692702531814575,-0.5752995014190674,0.08810672163963318,1.589355707168579,-0.7946537733078003,-0.3343336284160614,0.018654681742191316,0.4452504813671112,0.800201952457428,0.5691956281661987,0.1692751944065094,0.19625523686408997,-2.4326772689819338,0.34675639867782595,-1.4292291402816773,1.5916335582733155,-0.633180558681488,0.0441875234246254,-0.44230523705482485,0.18536259233951569,-0.3457058370113373,-1.1245458126068116]},{"neurons":[-0.9998050332069397,-0.9998513460159302,0.998462975025177,-0.9159494042396545,-0.9974039196968079,-0.999993085861206,0.9999999403953552,-0.05394087731838226,-0.9999682307243347,0.941028356552124,0.9893961548805237],"weights":{"rows":11,"cols":22,"data":[-1.1617032289505005,0.7903658747673035,2.2326672077178957,-0.12303861230611801,1.4048727750778199,0.11931951344013214,-0.4653283357620239,0.9960396885871887,-0.3415730595588684,0.00524005526676774,-0.5108544230461121,1.0243706703186036,0.26938316226005556,0.21822868287563325,0.5806179046630859,0.7473371624946594,0.035568635910749438,-1.2919363975524903,-0.7853239178657532,-1.1893668174743653,0.06096635013818741,0.032282717525959018,-1.219614863395691,-0.8090912103652954,-0.02291106805205345,-0.2281828075647354,-0.2702009379863739,0.4757949709892273,-1.2333694696426392,-0.9599746465682983,0.6131272912025452,0.146969735622406,-0.8769261240959168,0.8588387966156006,0.629912257194519,0.514394998550415,-0.36801716685295107,0.7459377646446228,-2.011215925216675,-0.008404823951423169,-0.14824190735816956,-0.17828068137168885,-0.236155703663826,0.19843868911266328,-0.47884008288383486,0.27893292903900149,-1.747834324836731,0.9558038711547852,1.7971374988555909,-1.1748642921447755,0.959979772567749,0.1399887204170227,-0.19258853793144227,0.3746592104434967,0.21354515850543977,-0.19794988632202149,-0.599494218826294,-0.7013940215110779,-0.602420449256897,-0.37605029344558718,-0.7922408580780029,0.03236488997936249,1.2805051803588868,0.6137122511863709,0.5655319690704346,0.2106422632932663,0.7700968980789185,-0.512542188167572,-0.8470826148986816,-0.18217363953590394,1.0797762870788575,-0.3828946650028229,0.3275038003921509,0.048079945147037509,0.06186595559120178,-0.481211394071579,-0.04729706421494484,-0.2059384286403656,0.01381579227745533,-0.9750671982765198,0.38261574506759646,-0.6875573396682739,-1.2474825382232667,-0.34294989705085757,-0.9706007242202759,0.38281509280204775,0.6827908158302307,0.5610928535461426,1.3740026950836182,0.8443306684494019,-0.33900150656700137,-0.3437630236148834,0.63576340675354,-0.3001419007778168,-1.700523018836975,0.2141248881816864,-0.821647047996521,-0.4385075867176056,0.05654929205775261,1.3446699380874634,1.0291237831115723,-1.2247185707092286,-0.45955991744995119,0.650436282157898,-1.4558820724487305,0.5415481925010681,-0.40382230281829836,2.359785795211792,0.41580337285995486,0.15210343897342683,-0.37056177854537966,-1.1124900579452515,-0.6280884146690369,1.0005840063095093,0.21222847700119019,0.003214850788936019,-0.4722394049167633,0.5615225434303284,-1.3469828367233277,-0.26377183198928835,0.0002901854459196329,0.6605387926101685,-0.4265090823173523,0.2731848657131195,0.8258429765701294,1.275242805480957,-1.015204906463623,0.6799594759941101,-0.0634758472442627,-1.5648300647735596,0.5901515483856201,-1.3215677738189698,0.5458742380142212,-1.571714162826538,2.067016124725342,0.28005602955818179,0.446494460105896,1.3462154865264893,0.34131544828414919,0.7573850154876709,0.26755455136299136,1.3733720779418946,-1.858168363571167,-0.91018146276474,-0.0858970433473587,-1.0194860696792603,-0.8573637008666992,0.6023709774017334,-1.0934269428253174,0.7720240354537964,0.6649698615074158,-0.27285194396972659,0.7501745223999023,-0.3866521418094635,-0.4763236939907074,0.2864249348640442,0.22336797416210175,0.4797164797782898,0.04826347157359123,0.19829720258712769,-0.4228777289390564,0.12562859058380128,-0.010631733573973179,-0.2995111048221588,1.2346248626708985,0.24289174377918244,-0.24696411192417146,-1.1982686519622803,-0.795220136642456,-0.9763910174369812,0.14936484396457673,0.38120919466018679,0.7168365716934204,-0.3047301471233368,-0.18059730529785157,1.0180076360702515,-1.0771490335464478,2.719921827316284,-2.2464513778686525,0.6737987995147705,-0.5958212614059448,-1.0643739700317383,-0.45703089237213137,0.3369816541671753,-2.7664098739624025,-0.5499962568283081,1.347178339958191,-0.6738595962524414,0.05297214537858963,-0.3897547125816345,-0.5956239700317383,-0.008536706678569317,0.927234947681427,0.09094230085611344,-2.1805107593536379,1.007983684539795,0.6712294816970825,-0.5725752115249634,-0.23709212243556977,1.2252986431121827,-1.8447378873825074,0.8227916955947876,0.046076450496912,-1.6554917097091675,-0.0951746255159378,-0.2764619290828705,-0.3741210699081421,0.05564907193183899,-0.08813104778528214,0.21844832599163056,0.48501837253570559,0.5371838808059692,-1.4719949960708619,-0.2624504864215851,0.15846604108810426,-0.2941271960735321,0.1866738498210907,1.4282293319702149,-0.02294420637190342,0.9570357799530029,1.3964340686798096,0.9179494976997376,-1.7661232948303223,0.5827131271362305,-0.6241437792778015,0.02089749090373516,-0.5934250950813294,-0.546362578868866,-1.148955225944519,0.31672966480255129,0.11158405244350434,1.1681691408157349,-0.09262387454509735,-1.6017612218856812,-1.2774810791015626,-1.4299129247665406,0.45524346828460696,1.6011415719985963,0.5340908169746399,0.20684488117694856,-0.11669445782899857,0.9081942439079285]},"biases":[0.39520972967147829,-0.2628139555454254,-1.529441237449646,-0.879586935043335,-0.9070668816566467,-1.1091129779815674,1.1283918619155884,-1.1196342706680298,2.5815417766571047,0.9623220562934876,-1.1018116474151612]}],"seed":1633862351}