{"layers":[{"neurons":[-0.9949819445610046,0.8586085438728333,-0.7043983936309815,-0.9186765551567078,0.9987042546272278,-0.9844794869422913,-0.9723016619682312,-0.9978538751602173,-0.9999827742576599,-0.9117946028709412,-0.9983873963356018,-0.9999198317527771,0.9944449663162231,-0.9721167087554932,0.9997300505638123,0.9526304602622986,-0.9698588848114014,0.7865765690803528,-0.9532725811004639,-0.9162959456443787,0.9995391368865967,-0.7902427315711975,-0.988319456577301,0.9996846318244934,-0.4327571392059326,0.9999945759773254,0.9964794516563416,0.9747747778892517,-0.9987268447875977,-0.9953664541244507,-0.9978556632995606,-0.4782024621963501,-0.9713512063026428,-0.6273248791694641,0.9995507597923279,0.974162757396698,0.8887920379638672,0.2563458979129791,-0.9999306201934815,0.9961636662483215,0.9991874694824219,0.9997792840003967,0.6574137210845947,-0.981059193611145],"weights":{"rows":44,"cols":22,"data":[2.4094717502593996,-0.9791451692581177,0.6399226784706116,0.36386221647262576,0.6743742227554321,-0.6598794460296631,1.3868327140808106,0.8330217003822327,-0.8633167743682861,1.1416133642196656,0.6211190223693848,-0.34734073281288149,-0.48800748586654665,1.4269262552261353,-0.3620786666870117,0.5638061165809631,-2.06998872756958,1.2595045566558838,0.8133684396743774,0.8185433149337769,-0.593518853187561,-0.49395543336868288,0.7427782416343689,0.2515805959701538,-0.03045889176428318,-1.5821675062179566,0.8485080003738403,1.009357213973999,0.6677108407020569,0.9927171468734741,-1.379783272743225,-0.261887788772583,-0.5041426420211792,-0.5426252484321594,0.5411021113395691,-0.17565442621707917,-1.0000301599502564,-0.16691671311855317,-0.4465095102787018,1.7190744876861573,-0.6602081060409546,-1.1454747915267945,1.1719152927398682,0.40611228346824648,-0.19756367802619935,-0.1633695513010025,-1.3775248527526856,1.3482059240341187,-0.8948290944099426,-0.5802908539772034,1.0837637186050416,-0.7580842971801758,-1.0722635984420777,1.5007883310317994,-0.8764286041259766,0.1974625289440155,-2.1599974632263185,-0.09063108265399933,-0.3496065139770508,0.351921021938324,-0.6367685198783875,0.49242928624153139,-0.07508328557014466,0.2062973827123642,0.49046507477760317,-0.25037407875061037,0.46847811341285708,0.6424703001976013,-0.8462122678756714,0.48733341693878176,0.3550787568092346,1.7204546928405762,1.5708810091018677,0.947834849357605,0.6908121705055237,-0.4788900911808014,-2.068053960800171,0.3005795180797577,1.0232654809951783,-0.17349843680858613,-1.3596127033233643,0.7016303539276123,1.2280479669570923,0.5100197196006775,-0.2622556686401367,0.22364357113838197,0.41677260398864748,-1.555114984512329,0.8895082473754883,-0.024239392951130868,-1.1548523902893067,0.9368165135383606,-0.04187706857919693,1.2784324884414673,-2.276977777481079,-0.1676984280347824,0.15304364264011384,0.11590099334716797,-0.4145301580429077,-1.4245048761367798,-1.0790820121765137,0.3274427652359009,0.4221685826778412,0.533776581287384,-0.7226922512054443,-1.2700649499893189,-0.2696315348148346,-0.9887842535972595,-0.3512857258319855,0.15819582343101502,-0.39898961782455447,0.6309449076652527,0.22904883325099946,-0.5656437277793884,0.3475836217403412,-1.8414665460586548,0.5556453466415405,0.5467119812965393,-0.0674157366156578,-0.39941003918647768,-0.6052064299583435,-1.0262833833694459,0.9043028950691223,-1.74790358543396,-0.053590383380651477,0.8732191324234009,-0.7937301993370056,-0.1021580845117569,-0.3477711081504822,-0.4918823540210724,-2.0480310916900636,-0.30160143971443179,1.003582239151001,1.714624285697937,1.071099042892456,-0.0067070177756249908,-0.47065961360931399,-0.2815682590007782,0.09104760736227036,-0.11584889888763428,-0.0026364349760115148,0.509669303894043,0.5208454728126526,-0.32187336683273318,-0.4610796570777893,-0.6716300249099731,-0.7104995846748352,-1.1042532920837403,-0.5110141038894653,0.48919233679771426,0.5368799567222595,0.9617809653282166,-0.056457944214344028,-2.313782215118408,1.3441489934921265,-0.6979342103004456,0.46141740679740908,0.9749362468719482,-0.8549790382385254,-0.08310282975435257,0.5678575038909912,0.984918475151062,-0.16273365914821626,-1.2364239692687989,1.9324796199798585,0.4816162586212158,0.9061813950538635,0.5616902709007263,-0.6898031830787659,0.02983764559030533,-0.07135552912950516,0.5677797198295593,0.5880167484283447,-1.277858853340149,-1.2419419288635255,-1.0594542026519776,1.1584044694900513,-0.12208501249551773,-0.6997309327125549,0.5653454065322876,-0.14037510752677918,-0.680869996547699,0.8127098679542542,0.5486338138580322,0.31373175978660586,1.5194324254989625,-0.9856282472610474,0.9204970598220825,-0.7440098524093628,-0.3191946744918823,0.05454198643565178,-0.3053491711616516,-1.6141284704208375,0.6625611782073975,-0.28746354579925539,-1.0234190225601197,0.5078665018081665,-2.2943568229675295,-0.6615343689918518,1.1647075414657593,-0.8571462631225586,-0.0683264508843422,0.7261046171188355,-1.5100107192993165,0.4102277457714081,1.1525110006332398,-2.4490599632263185,0.6986465454101563,0.21637824177742005,0.717232346534729,0.4692390561103821,0.10071016103029251,-0.38679587841033938,1.4478087425231934,0.1376318633556366,1.4424679279327393,0.5237077474594116,-1.8993040323257447,0.10430508852005005,-0.42507490515708926,0.6652833223342896,0.2677260935306549,-0.8414666056632996,0.590458869934082,1.5966787338256837,-0.23295098543167115,-0.15080749988555909,-1.1307646036148072,2.9880411624908449,0.5007640719413757,-0.8552175760269165,0.308420330286026,0.4270002245903015,-0.89671391248703,-0.9793198108673096,1.050507664680481,1.0124801397323609,0.019196882843971254,-1.2941689491271973,-0.11867716163396836,-0.9716381430625916,0.5545845627784729,0.5125788450241089,0.5755394101142883,0.5461108684539795,2.399566650390625,-0.38668060302734377,-1.4818001985549927,0.47149452567100527,-0.46093103289604189,0.5803425908088684,1.4436283111572266,-0.21575023233890534,2.310302734375,0.805489182472229,-0.8193782567977905,0.2477230280637741,2.2434184551239015,-0.2986776828765869,0.3435932993888855,-0.3564733564853668,0.34837421774864199,0.21148796379566194,-0.6159055233001709,0.2569076716899872,0.4890172779560089,-0.010659889318048954,-1.078269362449646,-1.2177778482437134,-0.6711608171463013,-2.670511484146118,0.5009796023368836,1.036651611328125,0.9508348703384399,0.04028472676873207,0.15923890471458436,-0.4950847327709198,0.3170708119869232,0.013709500432014466,1.3259731531143189,-0.055338405072689059,-0.6730159521102905,-0.5456222891807556,0.6159359216690064,0.9544662237167358,-0.6387326717376709,0.12863968312740327,-0.5143937468528748,-0.22400937974452973,0.617453932762146,0.4874096214771271,-1.118844747543335,-0.9772985577583313,-0.5613448619842529,-0.8952293395996094,1.567462682723999,0.48736855387687685,0.15483994781970979,0.7653509378433228,0.18924716114997865,-0.42844730615615847,-2.3280158042907717,-0.7484273910522461,1.2092030048370362,-0.935287594795227,0.9126378893852234,1.0087882280349732,0.35614055395126345,0.4815002679824829,-0.2810331881046295,-0.135732039809227,-1.1456655263900757,1.0282458066940308,-2.4624240398406984,-0.920308530330658,-0.4474889039993286,-0.9648205637931824,-1.1680816411972047,-1.9675854444503785,0.4738815724849701,-0.1330973207950592,0.8652710914611816,-2.8742547035217287,0.1392499804496765,-0.622151792049408,-0.6560483574867249,0.04242607206106186,-1.4915894269943238,-2.434751510620117,-0.823718786239624,-1.4940285682678223,0.8099051713943481,-0.40301311016082766,-1.130576491355896,1.4275848865509034,-1.1939589977264405,-1.2241002321243287,0.34069886803627016,-0.6864867210388184,-0.4780016541481018,-1.629150390625,-0.6172611713409424,1.6141102313995362,1.2235875129699708,0.7822021245956421,-0.45118051767349245,1.6838395595550538,-0.08873749524354935,0.8192365765571594,3.2258474826812746,-0.8150773048400879,0.6636762022972107,-1.0302298069000245,1.5232503414154053,0.48059216141700747,1.1448395252227784,0.6871036291122437,0.23934029042720796,1.3895922899246216,1.1884164810180665,1.3088072538375855,-0.7221065759658814,-1.979945421218872,-0.27618223428726199,1.681630253791809,0.7056796550750732,0.7241989374160767,0.05309271067380905,-0.6522525548934937,0.7646397948265076,1.6155080795288087,-1.0144749879837037,0.823284387588501,-0.10414780676364899,1.3982210159301758,-0.030566781759262086,0.8816309571266174,1.4378584623336793,0.37677720189094546,-0.4137791395187378,0.4688156545162201,-0.34516441822052,-1.272991418838501,0.009247410111129284,0.737241268157959,-1.4471131563186646,-0.7332928776741028,1.4458084106445313,-0.2242071032524109,1.5218218564987183,-0.9155400395393372,-0.47083187103271487,-0.09234653413295746,1.8649190664291382,1.1391299962997437,-0.6822618842124939,-1.5767725706100464,-0.41498976945877077,0.20841346681118012,0.03804517164826393,0.5707451701164246,0.747048556804657,0.8136857151985169,-0.03784549981355667,-0.2735835313796997,-0.8359121680259705,0.22081029415130616,1.2903337478637696,0.9698483347892761,-1.0426565408706666,-0.20111918449401856,1.0172748565673829,0.9844939112663269,-0.0914233848452568,0.35925692319869997,0.13644224405288697,0.43188923597335818,1.0618155002593995,1.1473143100738526,0.9616653323173523,0.49685391783714297,-1.2131702899932862,-1.4409526586532593,-0.05128489434719086,1.60157310962677,-0.23361006379127503,-0.44699326157569888,-0.6519781947135925,-1.2242909669876099,0.9062156081199646,0.90885990858078,0.3713880181312561,0.4266104996204376,-0.043801199644804,-0.3038003146648407,1.5993809700012208,-0.37217801809310915,1.456397294998169,-0.20219075679779054,0.0352763831615448,0.3467375934123993,-0.30981943011283877,1.545741081237793,0.01947401463985443,1.76327645778656,-0.8719706535339356,0.42484620213508608,-2.427312135696411,-0.015095037408173085,-0.5809735655784607,0.33121421933174136,-0.6280284523963928,-1.259062647819519,1.7965898513793946,0.0545433834195137,-0.8648045063018799,-0.19244596362113954,-0.8368380069732666,-0.161651611328125,0.5641015768051148,0.48571404814720156,1.4526525735855103,1.266992211341858,-0.1690344661474228,0.47724196314811709,0.3503357470035553,0.2489672154188156,-0.8455250859260559,-0.7091014981269836,0.3231229782104492,0.3803972899913788,0.22656255960464478,0.46959519386291506,0.841407299041748,-1.1949357986450196,1.2931537628173829,-0.41358914971351626,0.14192627370357514,0.7117137908935547,2.1362075805664064,0.5219535231590271,-0.2671820819377899,-0.3133886158466339,-0.23302286863327027,-0.27956703305244448,-1.0988885164260865,-1.26511549949646,0.5586169362068176,0.8325106501579285,0.35093194246292117,-1.9125303030014039,0.4356321096420288,1.7523376941680909,0.7114574909210205,1.1950595378875733,0.971829891204834,1.3326061964035035,0.1799020618200302,-2.2115111351013185,0.3800705671310425,-0.9846071004867554,-0.19393965601921082,-0.07089690119028092,0.0478934608399868,-0.05751471966505051,1.6405746936798096,-1.1049939393997193,0.17849129438400269,1.1785597801208497,-0.2702108919620514,-0.11123078316450119,-0.7402089238166809,-1.3601354360580445,-0.4597248136997223,-0.1202121302485466,-0.3812297284603119,0.8273089528083801,-1.3074461221694947,1.4936357736587525,0.6950080990791321,-2.163193464279175,0.3678557574748993,0.018797660246491433,-1.0035308599472047,0.23838214576244355,-0.5548935532569885,-1.1573973894119263,-1.252820611000061,0.6110592484474182,-0.6090900897979736,0.27794644236564639,0.8582988381385803,-1.1492888927459717,1.5507382154464722,0.8389301896095276,0.37100672721862795,-0.44015347957611086,-0.6584542393684387,0.3412867486476898,-0.35860151052474978,1.3710967302322388,-0.5287520289421082,0.5313317179679871,-0.33846741914749148,-0.20030958950519563,-1.5511364936828614,-1.2031831741333008,-1.2286198139190674,-0.829283595085144,-0.3944588005542755,-1.3200623989105225,0.2782408595085144,0.731787919998169,-1.7317909002304078,-1.4661238193511963,0.06855156272649765,-2.7223944664001467,-0.23395124077796937,-0.4345003366470337,-0.9246832132339478,-1.1495600938796998,0.09380462020635605,0.47181031107902529,0.13396424055099488,1.0485323667526246,-2.122204303741455,-0.6214343309402466,0.9370048642158508,0.3049975335597992,-1.4804153442382813,0.3735467493534088,-0.7981423735618591,1.1250351667404175,-1.2263792753219605,1.5697635412216187,2.175947904586792,-1.3276562690734864,0.22990120947360993,0.504489004611969,-0.3061736524105072,-0.18644267320632935,0.14030572772026063,-1.6187056303024293,-0.032940153032541278,0.7504224181175232,1.4962669610977173,-0.24256759881973267,-0.3119218349456787,0.8279993534088135,-0.19254012405872346,1.5142775774002076,-0.16504499316215516,-1.3979668617248536,-0.2128450721502304,-0.03764957934617996,-0.7767964005470276,-0.22343342006206513,-0.9343050122261047,-0.1079184040427208,0.9342385530471802,-1.3505765199661255,0.04500647634267807,0.8019669055938721,-1.4090213775634766,0.3035322427749634,-0.11227867752313614,-1.1660844087600709,0.41582491993904116,-0.7591251134872437,-0.514761209487915,0.650269627571106,0.5577574968338013,0.5246952176094055,0.29746007919311526,-0.7224321961402893,-0.42265409231185915,0.5270194411277771,0.18244168162345887,0.42388245463371279,1.0948305130004883,-0.7405636310577393,0.6592788696289063,0.06553104519844055,0.23260118067264558,1.2238816022872925,-0.35610300302505495,-0.04714019596576691,-0.10394137352705002,0.5084195733070374,-1.5452344417572022,0.3120257556438446,0.9673871397972107,-1.6074061393737794,0.15221819281578065,-0.14152297377586366,-0.9618427753448486,0.41019904613494875,-0.9705891013145447,-0.43461573123931887,0.29272782802581789,-1.8215978145599366,-0.3234535753726959,0.8921983242034912,-0.9613230228424072,0.017992831766605378,0.16590438783168794,-0.4319576919078827,-0.20451581478118897,-0.30457860231399538,-0.29169055819511416,1.0617648363113404,-1.1006455421447755,0.16104403138160706,0.90207439661026,-0.3748294711112976,-0.28804105520248415,-0.20414164662361146,-0.9139114618301392,0.7069699764251709,-0.12135474383831024,0.19307956099510194,0.3027689754962921,-0.2935328781604767,0.6619783043861389,0.17379413545131684,0.4826310873031616,0.24598349630832673,-0.303326278924942,1.734096646308899,-0.3239286243915558,-0.3388122320175171,-0.9655693769454956,0.1341172754764557,-0.9463426470756531,-0.9190846681594849,-0.18884961307048798,0.18683114647865296,-0.25653550028800967,-0.20276999473571778,-0.44281241297721865,-0.32989999651908877,0.10026824474334717,-1.6533719301223755,0.7173231244087219,-0.4332282543182373,-1.115418791770935,0.8048007488250732,-0.12310132384300232,-0.4998571276664734,0.2884085476398468,-0.08293887972831726,1.1618503332138062,0.533625066280365,-0.42658567428588869,-0.2046532779932022,-0.2533409595489502,-0.28132638335227969,1.0569226741790772,0.033084921538829806,0.47955387830734255,-0.9193903207778931,0.4644324779510498,0.586129367351532,0.3192795515060425,-1.2256132364273072,-0.9985846877098084,1.0266411304473878,0.3087736964225769,0.024620139971375467,-0.4766327142715454,0.9234488606452942,-0.36461326479911806,0.9681565761566162,-0.689221978187561,-0.3794002830982208,-0.33268189430236819,0.8121774792671204,-0.34724244475364687,-0.2653768062591553,-0.27038952708244326,1.2703137397766114,1.7754359245300294,0.47993624210357668,0.10719634592533112,0.016457870602607728,-1.4037156105041505,-1.0442285537719727,0.4391256272792816,-0.11316851526498795,1.2896544933319092,-1.2516875267028809,0.866485595703125,-1.9802204370498658,1.2525959014892579,1.0897995233535767,0.6701483130455017,0.4156040847301483,-0.3200857937335968,-1.4858136177062989,0.5893015265464783,-1.0486090183258057,0.36108118295669558,-0.2592211365699768,-0.11262571066617966,0.8330893516540527,-0.10420479625463486,-0.7398986220359802,-1.9539331197738648,0.1834365725517273,-0.2599905729293823,1.0200077295303345,-0.8025601506233215,-0.08264277875423432,1.9115804433822632,0.45438307523727419,0.392128050327301,0.25401008129119875,1.9507930278778077,-1.4209145307540894,0.04215133562684059,-2.556372880935669,-0.6668564677238464,-1.2148293256759644,-0.7801741361618042,0.872749924659729,-0.19901540875434876,-0.9487820863723755,0.9336884617805481,0.5941258668899536,-0.39137059450149538,-0.6443591713905335,-1.5490124225616456,0.7938998341560364,-0.6829072833061218,-1.1977667808532715,0.11114167422056198,-2.086343288421631,-0.7135974764823914,-0.9428018927574158,-0.2896367907524109,0.09879080951213837,0.1826302856206894,0.47963395714759829,1.83631432056427,1.0083277225494385,0.35319387912750246,0.3976157307624817,0.6952521800994873,-0.6496163606643677,0.8275377154350281,1.0402989387512208,-0.8898367285728455,0.05963791161775589,0.21055126190185548,-0.9616819620132446,-0.72881019115448,0.005458108149468899,0.08643314242362976,-0.6543116569519043,-0.21779321134090424,0.2276405394077301,-2.8164215087890627,0.548758864402771,-0.8747278451919556,0.6473219394683838,0.6796175241470337,0.06665901094675064,0.4430827498435974,1.0453346967697144,0.3367471992969513,0.5471974015235901,0.27007564902305605,-0.17783863842487336,0.3541848957538605,-0.0613304004073143,-2.020129919052124,-0.19908881187438966,-0.19251631200313569,-0.4327351152896881,1.709458351135254,-0.13441164791584016,-0.5017448663711548,0.12410254031419754,1.7474075555801392,-0.9014131426811218,0.6249195337295532,-0.4258703887462616,-0.11085844039916992,-2.864840269088745,0.5636082291603088,0.9103232622146606,-0.16051450371742249,0.06941983848810196,1.1819783449172974,-0.2665362060070038,0.21358895301818849,-0.9157508611679077,-1.1553826332092286,-1.1581529378890992,0.8010215759277344,0.05199200287461281,-0.0009304899722337723,1.0930225849151612,-1.2759264707565308,0.31931784749031069,-0.7027087807655335,-0.3688490390777588,2.0878963470458986,1.385278344154358,0.1668810397386551,1.9754968881607056,-0.4725285470485687,-0.6805858612060547,0.5897957682609558,-0.743935227394104,0.9625571966171265,1.2232859134674073,0.9396688938140869,0.9605528712272644,0.6483803391456604,1.3076692819595338,-0.15897546708583833,-0.5062340497970581,0.1938290297985077,-0.878696858882904,0.4019928574562073,-0.9905282258987427,-0.7552914023399353,1.2168891429901124,0.19250234961509705,-0.9062907695770264,0.35196247696876528,-0.06801961362361908,0.2915199398994446,-0.6595546007156372,-0.4221692979335785,0.4933140277862549,-0.19732145965099336,-0.23512093722820283,0.057463936507701877,-1.167433261871338,-0.4410732388496399,1.0279370546340943,-1.2879056930541993,-0.2747604548931122,-0.10205405950546265,-1.0136184692382813,-0.003520345315337181,-0.11581065505743027,-0.45739638805389407,0.5258491039276123,-0.36967945098876955,0.2364196628332138,1.4301165342330933,-0.708488404750824,0.011836668476462365,0.38433873653411868,0.6717717051506043,0.6250004768371582,-2.4764256477355959,1.7720882892608643,0.6062191724777222,1.3607735633850098,0.6359008550643921,0.6107660531997681,0.05695550516247749,1.2249420881271363,0.5238341689109802,-0.7065407037734985,-0.24627521634101869,-1.1195825338363648,0.18843868374824525,-0.3778330683708191,0.6633308529853821,-0.5115982890129089,-0.907686710357666,0.3685646057128906,0.8444738984107971,-0.20931047201156617,-0.5219195485115051,-0.32896846532821658,0.47428610920906069,-1.4656505584716797,-0.36551252007484438,-0.048381589353084567,0.03843401372432709,-0.6500529050827026,1.7710790634155274,0.0077453195117414,0.0013914440060034395,1.3867707252502442,0.2726450264453888,-0.0860130563378334,-1.6525250673294068,-2.1594600677490236,-0.4242405593395233,-0.2440004199743271,-0.2579430043697357,-1.9683719873428345,-0.1557607799768448,-1.1034190654754639,-1.0403225421905518,-0.6158227324485779,-0.6704745292663574,0.033606693148612979,-0.31386926770210268,1.2162952423095704,0.05598156526684761,-0.29209044575691225,-0.8215688467025757,0.5709566473960877,-1.41910719871521,1.0771458148956299,1.2191461324691773,-1.2101783752441407,-0.10634902119636536,0.5772149562835693,0.28682100772857668,-0.888892412185669,1.351077675819397,0.5075679421424866,-0.5169615149497986,-2.9422762393951418,-0.19246485829353333,1.7397098541259766,0.6408286094665527,0.23521755635738374,0.3483637273311615]},"biases":[0.3506937623023987,0.21646079421043397,-0.3681551218032837,0.26121872663497927,0.15547852218151093,-0.38358074426651,-1.2636218070983887,0.3626432418823242,-1.4841678142547608,-0.37614572048187258,-0.6967971324920654,0.15201984345912934,1.0731154680252076,-0.17695841193199159,-0.7467327117919922,-1.3691904544830323,0.33293798565864565,0.15595045685768128,-1.2940460443496705,-0.8232750296592712,-0.8072846531867981,-1.2417852878570557,1.105124592781067,2.1890807151794435,0.6635042428970337,1.3215303421020508,1.101868987083435,-0.49600139260292055,0.05902668833732605,-0.25843894481658938,-1.9755700826644898,-0.38928723335266116,0.4776294529438019,-1.4216090440750123,-0.43137919902801516,-1.2617007493972779,0.3174234628677368,-1.5942257642745972,-0.23280876874923707,-0.3390074372291565,-0.030861923471093179,1.8227282762527466,-0.02128146030008793,-0.8030900359153748]},{"neurons":[0.9997645616531372,-0.9999999403953552,0.9998152256011963,0.9993059039115906,0.9710904955863953,-0.9895393252372742,1.0,-1.0,1.0,0.9999997019767761,-0.9923163652420044,0.9968875646591187,-0.9999997615814209,-0.9999999403953552,-1.0,-0.9999998807907105,0.9994364380836487,0.9999988079071045,1.0,-0.9849885702133179,0.9819134473800659,-0.9999829530715942],"weights":{"rows":22,"cols":44,"data":[0.5547695755958557,0.5334492325782776,-0.5257555842399597,0.8446833491325378,-0.8820248246192932,2.0506668090820314,2.0198230743408205,-0.8233687877655029,1.0062024593353272,-0.6777147054672241,-1.0984959602355958,1.4181525707244874,0.2617986798286438,-1.5876003503799439,0.656460702419281,-0.5528176426887512,-0.6541838049888611,0.10774649679660797,-1.3904321193695069,-1.8659610748291016,-0.7636874318122864,0.1530299037694931,-0.09971822053194046,-0.1186155155301094,-0.7008118629455566,-0.25489622354507449,1.603285789489746,-0.8968448638916016,-0.010157996788620949,-0.5704169869422913,-2.0455429553985597,-2.6048784255981447,-0.9378926157951355,-0.36004874110221865,-1.6824696063995362,-0.46285784244537356,0.2849225699901581,-0.511742115020752,-0.625477135181427,-0.012111286632716656,-0.7234264612197876,0.43487879633903506,0.6593901515007019,0.12468089908361435,0.6392010450363159,-0.38322940468788149,1.1361799240112305,1.3045706748962403,1.639352560043335,0.08968060463666916,1.2318044900894166,-0.360627144575119,-0.9426491856575012,0.9610000252723694,1.6753915548324586,-1.065903902053833,0.34962034225463869,0.6157106757164002,-1.3733726739883423,-1.3847911357879639,-0.15185429155826569,0.9807602763175964,-0.8200575113296509,-0.5053163766860962,-0.5197779536247253,0.24582593142986298,1.6868011951446534,-0.16309666633605958,0.7359879612922669,0.39374473690986636,0.7912796139717102,2.2667980194091799,2.4779012203216554,1.9309955835342408,0.0826074630022049,-1.751082181930542,-0.08704161643981934,-0.27520832419395449,-0.8259003162384033,-0.584987461566925,0.848318874835968,-0.08666533976793289,0.43828821182250979,-0.9845679998397827,0.9875518083572388,0.22220928966999055,0.07034774869680405,0.6397102475166321,0.8997383713722229,0.2246699035167694,0.43516233563423159,-0.2347687929868698,2.1650021076202394,-0.09427453577518463,1.2086671590805054,-1.3764737844467164,-0.5089848637580872,-0.3224527835845947,-0.3446992039680481,-0.6251024603843689,-1.0916882753372193,-0.10091614723205567,0.5271490216255188,0.7590792775154114,-1.663844347000122,0.47793880105018618,0.01873151585459709,0.7632049918174744,-0.0014987450558692217,0.8260042071342468,-1.1992981433868409,-0.30774885416030886,-1.4750748872756959,-0.3474074602127075,0.2741791009902954,0.2897072732448578,-0.6209232211112976,-0.46319717168807986,-0.102903351187706,0.04869670420885086,1.8285012245178223,1.3595036268234254,-0.10889732837677002,-0.3621523976325989,0.08295492827892304,-0.5862355828285217,-0.6757296919822693,0.20287726819515229,0.8356515765190125,0.6529237627983093,-0.62320876121521,1.1993045806884766,-0.11276257783174515,0.4343531131744385,-1.0626614093780518,1.7297778129577637,0.9711719155311585,-0.06983377039432526,-0.47534316778182986,-1.6539099216461182,0.4746621251106262,-1.749369502067566,-0.3927304446697235,-0.42189836502075198,-1.2213008403778077,1.0126720666885377,0.7153937220573425,0.2230243980884552,-0.03681013360619545,0.1841653287410736,0.2169274538755417,-0.016801070421934129,-0.37752464413642886,-0.8134832382202148,1.6600186824798585,0.18339167535305024,-0.11062459647655487,0.9673320055007935,-0.6354619860649109,-0.3253595232963562,-0.37229815125465395,1.1275246143341065,0.6498569846153259,1.3261206150054932,-0.5252310037612915,-0.3882679343223572,0.46421489119529726,-0.634204089641571,1.1783223152160645,-1.139977216720581,-0.24667418003082276,-1.0147919654846192,0.8353958129882813,0.29142871499061587,0.24205343425273896,-0.14539606869220735,-0.763446033000946,0.8057712912559509,0.9724791049957275,0.6538800597190857,0.030298413708806039,-0.6428755521774292,1.252724289894104,-1.4391025304794312,0.6231167316436768,-2.275418996810913,0.3196377158164978,2.252809524536133,0.5192375183105469,-0.94144606590271,-0.0788525640964508,-0.7048920392990112,-0.16428294777870179,1.6265745162963868,-0.44175076484680178,0.4980427324771881,0.8697537183761597,-0.060933880507946017,0.6068887114524841,0.4040748178958893,1.5157686471939088,0.3406721353530884,-0.1249096468091011,0.8501139879226685,-0.6526214480400086,-0.8641587495803833,-0.12042342871427536,0.11687701940536499,-0.2681637704372406,0.1396304965019226,-0.9188780784606934,0.0773129016160965,-1.5350308418273926,-1.7083284854888917,-0.6293405890464783,-0.32193440198898318,-0.29943978786468508,0.9447939991950989,0.2549789249897003,0.5100752711296082,-0.5579429864883423,0.1277906596660614,-0.01604331098496914,-1.8428528308868409,-0.4442637860774994,1.1677932739257813,-0.08250248432159424,0.07888921350240708,-0.19453538954257966,0.31040072441101076,2.4284424781799318,1.0516352653503419,-0.2857097387313843,0.7207563519477844,-0.8974618911743164,-0.729802668094635,1.4888193607330323,0.6593239903450012,0.19613873958587647,-1.8699536323547364,-0.9346746802330017,-0.8105207085609436,0.23464292287826539,-0.6377100944519043,0.5705640912055969,0.9181126952171326,-1.7113220691680909,1.2019840478897095,-0.5908650159835815,-0.1410696804523468,0.04134375602006912,0.0012748513836413622,-0.037340693175792697,1.3299721479415894,-0.44351744651794436,1.7297272682189942,-0.08853315562009812,-0.05805697292089462,0.19003216922283173,-0.04351789504289627,0.4511236548423767,0.5387694835662842,0.7805983424186707,-1.2137746810913087,1.37301504611969,0.3485352396965027,-0.679358184337616,-0.13674168288707734,-0.34268736839294436,-1.01280677318573,-0.6630268096923828,-0.014122706837952137,-0.03188396617770195,-0.3802349269390106,-1.304546594619751,-0.43122535943984988,0.2891610562801361,0.7905257940292358,2.053246021270752,-0.2449885457754135,-0.4819584786891937,-0.5078624486923218,-1.215064287185669,-1.8668923377990723,0.5813596844673157,-0.9165355563163757,-1.3316000699996949,1.198582649230957,-0.612724244594574,0.39810726046562197,-0.7569131851196289,-1.0552375316619874,-0.8210339546203613,-0.2639162838459015,-0.6488730311393738,0.3358614444732666,0.9586193561553955,-0.17861898243427277,-0.5264691710472107,0.02662869729101658,-0.8982692360877991,0.4303745925426483,-2.22451114654541,0.06539731472730637,0.5423953533172607,0.32368364930152895,-1.2429412603378297,-0.4075315296649933,1.0690544843673707,0.044735733419656757,-0.18373224139213563,0.7642998099327087,-0.3287654221057892,0.4710227847099304,0.042441513389348987,0.02366712875664234,0.06713247299194336,-0.13351720571517945,1.1457761526107789,-0.2502968907356262,0.030445313081145288,0.002163718920201063,-0.2139023393392563,0.2531202435493469,-0.24267594516277314,-1.0811585187911988,0.4292760193347931,1.4114277362823487,-0.15477971732616425,-0.18123936653137208,2.280998706817627,-0.20166271924972535,-0.30958834290504458,0.3565979599952698,0.8926889896392822,1.2267743349075318,0.6252390146255493,1.565669059753418,0.09259168058633805,0.3125457167625427,-0.5102189779281616,-1.1905272006988526,-0.18077552318572999,0.4982808232307434,-1.0957094430923463,-0.6497491598129273,1.462280511856079,1.0223894119262696,0.16888299584388734,-2.2203128337860109,0.08602133393287659,0.5860211253166199,0.7799491286277771,-0.14731523394584657,-1.0533334016799927,-0.5953882932662964,-0.756269097328186,-1.1291851997375489,-1.3670406341552735,-0.8540198802947998,1.1148096323013306,1.164193034172058,-0.4918678402900696,1.2974106073379517,0.6888959407806397,-2.6174540519714357,-1.9031485319137574,1.2634779214859009,0.014697225764393807,-1.2020010948181153,-1.1481820344924927,0.4125702381134033,1.125092625617981,-1.2369155883789063,-0.0783277302980423,-0.03708229586482048,0.07264575362205506,0.7376203536987305,-0.0825733095407486,-0.9085109233856201,-1.4712591171264649,-0.8289852738380432,-0.6741815209388733,-1.016750454902649,0.18946963548660279,-0.43955931067466738,-0.5622037649154663,-0.26136118173599245,1.0024088621139527,0.35533732175827029,-0.9896070957183838,3.166364908218384,0.4842708706855774,0.2731310725212097,-1.1817526817321778,-0.09057669341564179,0.5976536273956299,0.7506261467933655,-0.43046343326568606,-0.29578691720962527,0.13024333119392396,1.433285117149353,-0.0900760367512703,0.665260910987854,0.5301194190979004,-2.2714896202087404,0.016786258667707444,0.9525002241134644,2.003173351287842,-0.7480993866920471,0.4408062696456909,-0.7037645578384399,1.5126469135284424,-0.20210599899291993,0.023541659116744996,-1.145695686340332,-1.9083119630813599,0.9585306644439697,-0.5757580995559692,0.009403496980667115,-0.44800394773483279,2.1471495628356935,-0.3705001175403595,0.995444655418396,-0.3725805878639221,-0.5880804061889648,-0.18680931627750398,0.05375908315181732,-1.0391830205917359,2.6142632961273195,0.5957842469215393,0.05277029797434807,1.2124119997024537,1.7439485788345338,-0.8356138467788696,0.1515519917011261,-0.8604130744934082,0.8615700006484985,0.002822602167725563,-1.117965817451477,-1.2832854986190797,1.154828667640686,0.059663645923137668,-1.2646578550338746,2.285865068435669,-0.11123061925172806,0.8448857665061951,-0.19786573946475984,0.3560546040534973,-0.5737621784210205,1.0468733310699463,0.9631118774414063,0.648073673248291,-0.027308909222483636,-1.0143672227859498,-1.6382452249526978,-0.27660390734672549,-0.036767397075891498,0.43669283390045168,1.3233070373535157,-1.4858942031860352,-1.1698836088180543,-0.5838208794593811,-1.1363582611083985,0.26760736107826235,0.05409259721636772,0.5861054062843323,0.9412707686424255,-0.27685487270355227,0.41187146306037905,-0.10409370064735413,0.24325239658355714,1.0104774236679078,1.4613492488861085,-0.23930472135543824,-0.5769554972648621,-0.35640501976013186,-0.8009570240974426,0.2538156807422638,-0.775965690612793,-1.0275379419326783,0.5808865427970886,-0.8385653495788574,-2.303075075149536,0.5964961051940918,-0.1170680895447731,-3.124854803085327,0.32221975922584536,0.3550679385662079,-0.48938652873039248,-1.1976710557937623,-0.4178207516670227,0.9190044403076172,0.7698705792427063,-0.927742063999176,-1.0715734958648682,1.5896632671356202,-0.08721087872982025,1.02838933467865,-0.6649906635284424,0.9219023585319519,-0.26355433464050295,-0.7438529133796692,-2.00974178314209,-1.5283918380737305,0.7016730904579163,0.9492791295051575,-0.9996603727340698,1.2176012992858887,0.6065055131912231,1.8858743906021119,1.7311023473739625,-0.5499521493911743,0.5529246926307678,0.539304792881012,0.6539912819862366,1.2016942501068116,-0.9665125608444214,0.6839150786399841,-1.22196364402771,0.46746349334716799,0.3660039007663727,0.5841430425643921,0.001408812589943409,0.2698483169078827,-1.2028051614761353,-0.4658888280391693,0.8901386857032776,1.90768301486969,0.02356446161866188,1.3394461870193482,0.500706136226654,0.5871021151542664,0.659064531326294,0.4812183082103729,-0.4110593795776367,1.2712109088897706,0.3129424750804901,-0.11141600459814072,0.831529974937439,0.05190234258770943,-0.1907794326543808,-0.9487806558609009,1.7791155576705933,0.45764100551605227,-1.545054316520691,-1.8980138301849366,-1.6331030130386353,1.0093278884887696,-0.7854393720626831,-0.3119302988052368,-1.1215324401855469,0.2826327681541443,0.2280358225107193,-0.1261696070432663,0.09606176614761353,-0.6981321573257446,0.7931376695632935,1.098398208618164,-1.5315691232681275,-1.150101900100708,-0.9634073376655579,-0.15751448273658753,-0.3832664489746094,-0.15622557699680329,-0.03846830874681473,0.3719736337661743,-1.1704257726669312,-1.5845069885253907,-0.6070836782455444,0.06597652286291123,0.3232201635837555,-0.38644710183143618,1.1776726245880128,-0.13205717504024507,-1.2383933067321778,-1.6249943971633912,-1.287392258644104,0.5332580804824829,-0.5889924764633179,0.18995922803878785,0.9779179096221924,-0.06551600992679596,-0.04220534861087799,-0.7799727320671082,-1.0179030895233155,0.4922502338886261,-0.2772321105003357,-0.23125998675823213,-0.8484606146812439,0.9828577041625977,0.32415637373924258,-0.5735933184623718,2.402696132659912,1.0246585607528687,-1.2133768796920777,-0.5108095407485962,0.5886029601097107,-0.3869219124317169,-0.09073582291603089,0.5001201033592224,-0.10263285785913468,1.4103810787200928,-0.7160307168960571,0.9313656687736511,-0.7525767683982849,-1.2941814661026,-0.15365783870220185,-1.7517883777618409,-0.331952840089798,-1.1252565383911133,-1.4039783477783204,0.2694990932941437,0.2372521013021469,-0.38489454984664919,-0.4763193428516388,1.0917644500732422,0.8735347390174866,-0.5925814509391785,0.3373488187789917,0.47053277492523196,-0.26866066455841067,-0.7888152003288269,-1.239904761314392,-0.20796526968479157,0.9229614734649658,1.1389542818069459,0.8798201680183411,0.023144593462347986,0.9860357642173767,-1.0752205848693848,-0.3815285265445709,-0.27717888355255129,-2.006434440612793,0.45661062002182009,-0.5771000385284424,-0.860740602016449,0.19824904203414918,-0.13386443257331849,-1.961882472038269,-0.12699249386787415,-0.3652147948741913,0.7362688779830933,-0.7093285918235779,1.37372887134552,0.4387814700603485,2.4638047218322756,0.29153862595558169,0.9440921545028687,-0.2201870232820511,-0.23145292699337007,0.5794625878334045,-0.7639834880828857,-0.4549848437309265,-0.0897231251001358,0.28215667605400088,0.8061224818229675,-0.7753313183784485,-0.7107743620872498,-1.096671462059021,0.3632238209247589,1.122456431388855,-0.0633544847369194,0.6103576421737671,-0.030752714723348619,0.5631546974182129,0.9717507362365723,1.2520473003387452,-0.8355957865715027,1.2475489377975464,0.33431801199913027,0.39413344860076907,-1.0618404150009156,-0.06910134851932526,1.0870147943496705,-1.242006540298462,0.29689911007881167,-0.7557369470596314,0.09875315427780152,0.5944020748138428,-1.3691966533660889,0.590800404548645,-0.7446597218513489,-0.04721318930387497,-0.3414866626262665,0.8163229823112488,-1.3645305633544922,0.1224694699048996,0.4186879098415375,-0.04626495763659477,0.2636692225933075,0.8862062692642212,0.48787033557891848,0.5918241143226624,0.16070106625556947,0.8094383478164673,0.8267993330955505,-0.2969573140144348,0.5108738541603088,0.4436667263507843,-1.0433534383773804,-0.4842371344566345,0.09592924267053604,0.4391835927963257,0.9141048192977905,-0.7588858604431152,-0.01401175744831562,-0.9144145846366882,1.395517349243164,0.7937642931938171,1.1615108251571656,-0.06681019812822342,0.022099796682596208,-0.029045896604657174,-0.9466953277587891,-0.9885843396186829,0.7702232003211975,-0.5330213308334351,0.6812459826469421,-0.9626627564430237,0.5925301313400269,-0.11235295981168747,-0.2474622279405594,0.6518990397453308,1.0161190032958985,-0.500759482383728,0.1913602203130722,1.600487232208252,-0.022113682702183725,0.2987839877605438,0.1364963948726654,-0.7217284440994263,-0.9604963064193726,-0.9436017870903015,0.7159367799758911,-0.461995005607605,-0.35156121850013735,-1.2982817888259888,0.2137046754360199,-1.1018422842025757,0.5709933638572693,0.23165462911128999,-0.43364015221595766,-0.40968573093414309,-0.6798589825630188,0.5308736562728882,0.6208716034889221,0.6963376998901367,-0.11542849987745285,-0.17651835083961488,0.5803589820861816,-0.005880655255168676,0.563726544380188,-0.5491912961006165,0.05609765276312828,0.653385579586029,-1.2947770357131959,0.6755419373512268,-1.4888570308685303,-0.6515145301818848,0.30182552337646487,-0.8699089288711548,1.1925289630889893,0.6291120648384094,-0.6503691673278809,-0.4522565007209778,-0.7058427929878235,-1.0675538778305054,-1.1381925344467164,1.2300113439559937,0.15927766263484956,0.5839089751243591,1.0493297576904297,-0.2552228569984436,0.7624636292457581,-0.18102893233299256,-0.36321771144866946,-0.7120254635810852,-0.6639975309371948,1.617275595664978,-0.07650382816791535,-1.006025791168213,1.8880268335342408,-0.27072158455848696,0.4319075644016266,-1.3197636604309083,0.2991873025894165,0.593624472618103,-0.10538770258426666,-1.5362848043441773,-1.123977541923523,-0.04562858119606972,-1.2756646871566773,1.238331913948059,0.019215626642107965,0.8945708870887756,1.648449182510376,0.1901005059480667,-0.3841027617454529,0.9223296642303467,0.21715039014816285,-1.4563117027282715,-0.7150876522064209,0.32078176736831667,-0.5650423169136047,-1.4515267610549927,-0.8244797587394714,0.7118657231330872,0.6940478682518005,0.33840635418891909,-1.708174467086792,-0.10558246076107025,0.48229867219924929,0.5547574758529663,2.6326229572296144,0.4818441867828369,-1.9721298217773438,0.7284619808197022,0.696707546710968,1.094269871711731,0.825894832611084,-1.3952080011367798,0.9334154725074768,0.3907175660133362,-1.0859625339508057,-1.2759153842926026,1.0507961511611939,1.9649996757507325,1.8792774677276612,-2.135114908218384,-1.3231576681137086,0.03460165113210678,0.1328752040863037,2.3604321479797365,-0.497567355632782,0.8827952742576599,-0.295809268951416,-1.2314587831497193,0.23525109887123109,0.3932352364063263,1.3762370347976685,0.39407816529273989,0.32195889949798586,-0.40786513686180117,0.48375198245048525,1.075697898864746,2.2612192630767824,0.22251459956169129,-0.42514893412590029,-0.33335861563682558,0.17754718661308289,0.4874829947948456,0.19611985981464387,-0.710169792175293,-1.0981658697128297,0.5955759882926941,-0.9826822280883789,-1.1899962425231934,0.14801844954490663,0.24400728940963746,-2.5912303924560549,-0.6104222536087036,0.4223247766494751,0.2543930113315582,0.5673415064811707,0.7917737364768982,0.1964411437511444,-0.20252418518066407,-0.9513567686080933,1.8332334756851197,1.4406037330627442,1.1448544263839722,-1.7370829582214356,-0.3242539167404175,-0.1598469614982605,-0.5858551859855652,0.552870512008667,0.8558551669120789,0.786529004573822,0.36230647563934328,0.7529284358024597,0.6783908009529114,-1.7347511053085328,1.2886347770690919,-1.7709852457046509,1.385237216949463,0.36179739236831667,-1.363746166229248,0.41593220829963686,-2.2103989124298097,1.9394458532333375,1.3545629978179932,0.11890435218811035,-0.9102079272270203,0.8922246098518372,-0.06714318692684174,0.04873436689376831,-0.22526396811008454,0.4115571081638336,0.790575385093689,0.9089665412902832,-1.4338939189910889,-0.2836393117904663,-0.32322847843170168,-0.6017528176307678,2.2397055625915529,0.3146836459636688,1.2246791124343873,0.30305570363998415,0.9267170429229736,0.2548852264881134,-0.9345360994338989,1.5048224925994874,-1.9586800336837769,-0.750215470790863,-0.04964815825223923,1.0578187704086304,0.7566298246383667,-0.6585664749145508,1.1695384979248047,-0.6346848011016846,-1.0666279792785645,0.04778474569320679,-0.9333111643791199,-0.2329256385564804,-0.15707875788211823,-0.6852489709854126,0.4185366928577423,-0.7821190357208252,1.0467573404312134,-1.4199929237365723,0.2026667445898056,0.18218421936035157,-0.45604178309440615,-1.8641276359558106,-0.31029748916625979,0.9549031257629395,-0.3268415629863739,-0.23606956005096436,-0.07263955473899842,0.08199663460254669,0.39501872658729555,2.143537998199463,1.1658912897109986,-2.0844898223876955,0.5763348937034607,1.0424420833587647,0.7844510674476624,1.213908076286316,0.4910903871059418,-0.35659608244895937,-0.7501028776168823,0.1789148896932602,0.595089852809906,0.2575172781944275,2.0794730186462404,-0.21528296172618867,0.11546169221401215,-0.47396859526634219,0.6613397002220154,-0.27383705973625185,1.2237112522125245,-0.728466272354126,1.3215980529785157,-1.0618624687194825,0.9316405057907105,0.7192044854164124,0.887263834476471]},"biases":[0.5918483138084412,-0.9025388360023499,-0.1653592586517334,1.6762815713882447,-0.7358573079109192,-0.3337990939617157,-0.13039720058441163,0.044027991592884067,0.7465338706970215,1.0428071022033692,0.010737358592450619,0.1959022730588913,-2.4285449981689455,0.03506409004330635,-1.4266587495803834,1.5889300107955933,-1.1461623907089234,0.044116877019405368,-0.05832729488611221,-0.21347904205322267,-0.3451531231403351,-1.8515293598175049]},{"neurons":[0.6078818440437317,-0.999920129776001,0.9999796152114868,-0.8742375373840332,-0.999997615814209,-0.45275911688804629,1.0,-0.2525312900543213,-1.0,-0.45480668544769289,0.9935669898986816],"weights":{"rows":11,"cols":22,"data":[-1.1300227642059327,0.7765332460403442,2.228874921798706,-0.12284190207719803,2.5703365802764894,0.1191287487745285,-0.6233262419700623,1.435234546661377,-0.45120567083358767,0.005231677088886499,-0.45273274183273318,1.0227329730987549,0.2689255475997925,0.2178797870874405,0.5362998247146606,0.1260913759469986,0.035511765629053119,-1.2848858833312989,-0.8300915956497192,-1.7473450899124146,0.33397799730300906,0.05118868499994278,-1.1888365745544434,-0.8077976703643799,-0.19112513959407807,-0.22789643704891206,-0.26976895332336428,0.5113033056259155,-0.5866725444793701,-0.9584398865699768,0.6996087431907654,0.5776176452636719,-0.09655898809432984,0.35827115178108218,0.5399092435836792,0.5134698152542114,-0.36739203333854678,0.7447451949119568,-2.0077998638153078,-0.5329583883285523,-0.2821156680583954,-0.17797784507274629,-0.18797096610069276,0.9998025894165039,-0.4542505443096161,0.9890886545181274,-0.34497541189193728,0.953132152557373,1.794264316558838,-1.5552276372909547,0.9583491683006287,0.8492974638938904,-0.19226139783859254,0.3566587567329407,0.04998624324798584,-0.19763341546058656,-1.2123768329620362,-0.8918969035148621,-1.1403197050094605,-0.3754490613937378,-0.7909742593765259,1.2339988946914673,1.7243801355361939,0.9093560576438904,0.22159989178180695,0.30897918343544009,0.768865704536438,-0.5117226839065552,-1.2872422933578492,-0.1818641871213913,1.0780497789382935,-0.3822824954986572,0.3253489136695862,-0.05876268446445465,0.3086656332015991,-0.511102557182312,-0.48347270488739016,-0.6019219160079956,0.013793704099953175,-0.9735082387924194,0.5815147161483765,-0.6863207817077637,-1.1956555843353272,0.06335826963186264,-0.9690489768981934,0.3428038954734802,0.7356106042861939,0.560195803642273,0.9855184555053711,0.8058741688728333,-0.35775119066238406,-0.5915638208389282,0.6347469687461853,0.017156612128019334,-1.9025698900222779,0.2583267390727997,-0.7990145087242127,-0.4377627372741699,0.05645887926220894,1.2335641384124756,1.0274784564971924,-1.5871493816375733,-0.45882517099380495,0.6544913649559021,-1.453554391860962,0.5406824350357056,-0.5230576992034912,2.3615713119506838,0.41509705781936648,0.16068580746650697,-0.33921387791633608,-1.1106003522872925,-0.5334954261779785,0.9989843368530273,0.21186797320842744,0.0032093897461891176,-0.47148439288139346,0.5606247186660767,-1.3448293209075928,-0.30166539549827578,-0.39211305975914,0.6594826579093933,-0.3710523843765259,-0.21030917763710023,0.8245226144790649,1.0860196352005005,-0.695442795753479,0.36992672085762026,-0.0633743554353714,-1.5623282194137574,0.5892079472541809,-0.8721094727516174,0.31846150755882265,-1.5904475450515748,2.063711166381836,0.612480878829956,0.37348636984825137,1.3471254110336304,0.36717289686203005,0.7976053357124329,0.26712676882743838,0.8991880416870117,-2.2933201789855959,-0.9087262153625488,-0.0857597067952156,-1.5755419731140137,-0.8559929728507996,0.11653713136911392,-1.0916788578033448,0.6704494953155518,0.6992602944374085,-0.27241572737693789,0.7485971450805664,-0.3860339820384979,-0.5620502829551697,-0.20328037440776826,-0.08417826145887375,-0.030228810384869577,-0.22170966863632203,0.2811504900455475,-0.18239569664001466,0.1254277378320694,-0.010614736005663872,-0.2990322411060333,1.2326509952545167,0.242479145526886,-0.24656926095485688,-1.5653462409973145,-0.793948769569397,-0.7834764122962952,0.1491260528564453,0.3805997371673584,0.7156904935836792,0.14824408292770387,-0.18030856549739839,0.9904648661613464,-1.0754270553588868,2.715573310852051,-2.5312373638153078,0.44581034779548647,-0.5948686599731445,-0.6917812824249268,-0.44411608576774599,0.38449332118034365,-2.564934015274048,-0.5491169095039368,1.6392539739608765,-0.6727822422981262,0.05288216099143028,-0.6829732060432434,-0.594552755355835,-0.008523058146238327,0.9257525205612183,0.09079690277576447,-2.1770248413085939,1.0063722133636475,0.6701563000679016,-0.5716026425361633,-0.23671305179595948,1.4963825941085816,-1.841604471206665,0.821394145488739,-0.3646296262741089,-1.6595323085784913,-0.041051823645830157,-0.2760199308395386,0.05450988560914993,-0.05017499253153801,-0.08798134326934815,0.29450270533561709,1.1206049919128419,0.5363250374794006,-1.8645223379135132,-0.2620308995246887,0.8927053213119507,-0.2936569154262543,0.8264351487159729,1.0865284204483033,-0.022907523438334466,1.065727949142456,1.8465317487716675,1.2749109268188477,-1.1945195198059083,-0.31851083040237429,-0.6382477283477783,0.020864080637693406,-0.9435585141181946,-0.5454345345497131,-1.158921718597412,0.31622329354286196,0.17402538657188416,1.1661847829818726,-0.09247578680515289,-1.5992002487182618,-1.0086106061935425,-1.6226760149002076,0.45451563596725466,1.5985816717147828,0.5160629749298096,0.36277779936790469,-0.11649623513221741,0.6192963719367981]},"biases":[0.39453840255737307,-0.3370581269264221,-1.5269960165023804,-1.437307357788086,-1.2706884145736695,-1.5668611526489258,0.6536552309989929,-1.0138293504714966,2.5774145126342775,0.6182741522789002,-1.0999400615692139]}],"seed":1499234900}