{
"layers": [102, 102, 60, 15],
"fitness": 199.7345,
"weights": [
  [
    [-0.0002857149, 0.09524746, 0.08102103, -0.008013219, -0.03937171, -0.1356832, 0.09803553, 0.1368703, 0.1558072, -0.0365451, 0.02690712, -0.1285913, 0.1661756, 0.1289562, 0.02143514, -0.1673368, 0.1103192, 0.002102539, 0.03043897, 0.1109574, 0.07999849, -0.02153707, -0.08282964, 0.05796456, -0.07848176, 0.09922685, -0.155536, 0.05167997, -0.1430748, 0.09848338, -0.1706054, 0.1023013, 0.03462064, -0.1216709, 0.09867682, 0.1601648, 0.04986702, 0.1333768, -0.1265589, -0.03042601, -0.1607579, -0.04693448, 0.1133737, 0.08382205, 0.1060086, -0.009213328, 0.1011925, 0.03597523, 0.1376542, 0.08414728, 0.04021721, -0.1550018, -0.03783554, 0.1056828, 0.1134387, 0.05805063, -0.1027527, -0.1714015, -0.150639, 0.08036947, -0.04487792, -0.1630712, 0.07995306, 0.1697, -0.1036782, 0.1570152, -0.02778731, 0.04404589, 0.146576, 0.08089522, -0.06163907, 0.07385713, -0.1044073, -0.00707835, 0.107769, -0.1377811, -0.08206065, 0.08690311, -0.01333432, 0.1441752, -0.05575481, 0.1195751, 0.09765339, 0.09335965, 0.04364232, -0.004226789, 0.1113424, -0.07801951, -0.06413168, 0.1090291, 0.136974, -0.1220425, -0.0734773, 0.003834173, -0.114489, -0.0414858, -0.1549277, -0.06920826, 0.1546034, -0.05531469, -0.1121086, -0.1683838],
    [-0.07621236, 0.04380162, -0.07491657, -0.04855857, 0.1391965, 0.1523297, -0.1016954, -0.05717598, -0.06853487, -0.03558768, 0.09251261, -0.0307173, 0.03919688, -0.1424019, 0.004190102, -0.06444332, -0.09464411, -0.04351453, 0.02945016, 0.1557833, -0.04019018, 0.04562729, -0.08093588, -0.1213079, -0.1630491, -0.08838259, 0.02793342, 0.09214273, -0.09977923, 0.1704011, -0.1457623, -0.1480419, 0.1656248, -0.01412024, -0.1301123, -0.1117107, 0.0476639, 0.01551698, 0.1426775, 0.1387953, 0.130891, -0.04654968, 0.04641681, 0.06453829, 0.03709394, 0.1661848, -0.06508657, -0.0705267, -0.05227648, -0.1355068, -0.04639859, -0.02948202, -0.1389973, 0.1641236, -0.1179593, 0.1552044, 0.1170406, 0.1390338, 0.09755771, 0.08691919, 0.0331756, 0.07651484, 0.1019293, 0.08946535, 0.1368874, 0.09480359, -0.08402766, -0.1199381, 0.02121471, -0.1324147, 0.06134354, -0.06723195, -0.1184293, 0.134579, 0.08300252, 0.09828576, 0.006752789, 0.09607816, 0.06985803, 0.1685693, 0.04939966, -0.002422825, 0.06144646, 0.08204111, 0.09572423, -0.005160436, 0.03666551, 0.08296916, -0.06865856, -0.1089857, 0.1360223, 0.1591223, -0.06509332, 0.1389761, -0.1523515, 0.02319002, 0.1041504, -0.1259867, 0.1174323, -0.1497396, 0.004941955, -0.09254764],
    [0.1692549, -0.1189794, -0.1385883, 0.03414126, -0.1017304, 0.05027966, 0.1276883, 0.04661327, 0.04053417, -0.08885403, 0.02098176, 0.05501602, 0.04103665, -0.05866063, 0.01334114, 0.05567616, 0.1141134, -0.150542, 0.1363521, -0.1338013, 0.0596075, -0.05102803, 0.120802, -0.04011625, -0.1154017, -0.05205593, 0.1452628, 0.04302605, -0.002753526, 0.1504389, -0.1034934, -0.09670119, -0.02176519, 0.1291897, 0.005032286, -0.1393073, -0.1282257, 0.08351924, -0.02245697, 0.1579074, 0.03916924, -0.07198401, 0.1281793, 0.0006330162, 0.1287267, 0.1659243, 0.04387845, 0.0740188, 0.007224888, -0.09443988, 0.02278331, 0.09797833, 0.05407492, -0.04582129, 0.05121437, 0.1103111, 0.1491779, 0.1250694, -0.1640239, 0.1278486, 0.07872289, -0.1564292, -0.01151495, -0.05577616, -0.05102974, -0.1027104, 0.1213119, -0.01740333, 0.06336331, -0.1250492, -0.07961886, 0.02113812, 0.155009, -0.03563344, 0.01674834, 0.1600451, -0.1159798, 0.01717301, 0.007213116, -0.01244827, 0.1481382, 0.1562676, 0.07470433, 0.08258219, -0.1604504, 0.1325215, 0.007518023, -0.01950108, 0.04755923, -0.02180071, 0.007745147, -0.1500704, 0.03928731, 0.1337433, -0.08135568, 0.0004920363, 0.1442436, 0.1007905, 0.1714002, 0.1349983, -0.1343249, -0.128843],
    [-0.03998353, 0.107827, 0.101711, 0.06906839, -0.08481485, -0.04953658, 0.1488319, -0.1298569, 0.04973572, -0.02472903, -0.1499062, -0.1021282, -0.08334745, 0.07930645, -0.04422827, 0.08576004, 0.1709303, 0.1531142, -0.08332013, 0.1626041, -0.1274054, -0.1554881, 0.06939886, -0.005456507, 0.0761946, -0.1012859, -0.001370564, -0.04759638, 0.03469002, -0.04016773, 0.09977464, -0.01049294, -0.08145614, 0.04526841, -0.09573461, -0.07671988, 0.04585213, 0.1552269, -0.09784164, 0.05794453, 0.123602, 0.1264366, 0.07390779, 0.05526916, 0.02202606, -0.02334405, 0.03742799, 0.01021391, -0.1513861, -0.08541697, 0.08513776, 0.01745379, -0.1664036, 0.1428368, 0.08163591, -0.02731416, 0.02007653, -0.1119291, -0.01310652, 0.0709893, -0.167922, 0.1388123, -0.1534152, -0.1457036, -0.02887401, -0.09680386, 0.1185634, -0.06188044, 0.113847, 0.1434949, -0.06736526, 0.1181084, 0.1157991, 0.1294052, 0.1197794, -0.02816762, 0.1293899, -0.09317749, -0.09077121, 0.05538405, 0.03109568, -0.1684593, 0.1418575, 0.04655759, -0.01743044, -0.1377913, -0.1071338, 0.04746592, 0.04237677, -0.01485924, -0.1160719, 0.01215285, -0.08735494, 0.09883711, -0.1619825, -0.0388115, 0.1180983, 0.05011594, 0.001852915, -0.1516682, -0.02844927, -0.1464818],
    [0.06442343, -0.09448294, -0.1178859, -0.1330145, -0.05096808, -0.06662558, -0.04318304, -0.01828587, -0.1560498, 0.06305104, 0.0699706, 0.1500274, -0.04146439, 0.1464839, -0.002036259, 0.02935068, 0.036668, 0.1400667, -0.1565057, -0.0005179495, 0.07948579, -0.1530898, 0.1184723, -0.02402166, 0.136093, -0.149408, -0.06934834, 0.09426472, -0.09202567, 0.1519846, -0.03156312, -0.03198244, 0.04778494, -0.1035444, -0.09211598, 0.06051179, 0.005071908, -0.08507697, -0.02234547, -0.1236937, 0.1463666, 0.169403, 0.09115899, 0.03452262, 0.1651672, 0.1032776, 0.1346371, -0.1330828, 0.1702822, 0.07313921, -0.01776773, -0.06539394, -0.00677307, -0.02185935, -0.1652108, 0.03786919, 0.1465995, 0.08715753, 0.1262439, -0.0586868, 0.1424008, -0.1307699, -0.08804138, 0.02536619, 0.04509275, 0.1597396, 0.1009663, -0.01457867, 0.06733317, -0.1627339, -0.1110586, -0.09320875, -0.01917788, 0.1661427, 0.01263276, -0.05674292, -0.03267193, -0.1455607, -0.03049974, 0.1383542, -0.1085124, 0.01874615, -0.1206773, -0.04227687, 0.1391556, -0.08556144, 0.06625777, -0.01952352, 0.09336767, 0.1096089, 0.03428416, 0.1121223, -0.1144991, -0.1227954, 0.007768661, 0.05028011, 0.1219199, 0.1490602, -0.05795175, -0.146017, -0.1320779, 0.05789762],
    [0.1191605, 0.1179766, 0.1022161, -0.06021035, -0.1033492, -0.02072777, 0.1112834, 0.08125503, 0.149066, 0.106066, -0.1183447, 0.08813618, -0.07510559, 0.1063345, 0.01190417, -0.06992556, 0.02751009, 0.142426, -0.1457545, -0.1318049, -0.1348171, 0.1388928, 0.02564509, -0.144207, -0.01145995, -0.1231683, -0.09590222, 0.1413625, -0.05248742, 0.09124248, 0.0934936, 0.09128575, -0.08651607, 0.09088908, 0.03389908, -0.1393068, 0.1351077, -0.109533, -0.1475884, 0.06465788, -0.1256669, 0.127718, -0.1451703, -0.1072204, -0.02750343, -0.1160323, -0.004259616, 0.02487385, 0.1203209, -0.1249604, 0.1465425, 0.05103577, 0.152965, 0.09859206, -0.08083396, 0.08852807, 0.07878742, -0.1342896, -0.154048, 0.09271292, 0.02995293, 0.1491313, -0.1252842, -0.04658635, -0.1277996, -0.1500877, 0.1558662, 0.003450021, -0.02431548, -0.04502638, -0.132237, -0.05991881, 0.1334408, 0.1306226, 0.1449886, 0.12486, -0.1081293, 0.04036358, -0.02510369, -0.06605677, -0.1626395, 0.02747497, 0.1251454, -0.04448947, 0.0391649, 0.07608379, 0.02632421, -0.1287994, 0.1459885, -0.09479411, -0.1008083, 0.0002524257, 0.0697361, 0.02043778, 0.02022533, -0.06310214, 0.02022901, -0.1179309, -0.03224747, -0.125776, 0.08371198, 0.1534963],
    [-0.04385056, 0.08588287, -0.1087763, -0.1519435, 0.1686337, -0.09657614, 0.06396326, -0.1646034, -0.041283, 0.1380512, 0.08325414, 0.08403908, -0.1118103, -0.1163833, 0.15087, 0.1093032, -0.1109006, -0.1255517, 0.01071836, -0.115122, -0.04978976, 0.1351096, 0.1567234, 0.033632, 0.05358259, -0.1302786, -0.1281198, 0.1099194, -0.1632841, 0.07268587, 0.1256447, -0.08660014, -0.03069024, -0.0689435, 0.1256027, -0.1616165, -0.06477575, 0.1638917, 0.001394197, -0.153955, -0.05786997, -0.1389966, -0.04070497, 0.1453412, -0.02629742, 0.002637982, 0.0274775, -0.1610932, 0.03915088, -0.05256658, -0.0170427, 0.1067953, 0.1176107, -0.07887723, -0.1468019, -0.1496794, -0.131571, 0.1017733, 0.03195418, 0.01670152, -0.1049585, 0.07810106, 0.1103804, -0.08141886, 0.06858923, -0.03771147, 0.1441308, -0.141429, -0.07817775, -0.124882, 0.01054241, -0.07392368, 0.03818324, 0.05283409, -0.02644712, -0.1106757, 0.1200407, -0.1561427, 0.02837926, 0.1441184, 0.07646589, 0.1245476, 0.1543159, 0.1205613, -0.02796008, -0.01397368, -0.09049811, 0.1506909, -0.05801561, 0.145121, 0.07981621, 0.1415111, 0.04377411, 0.1123631, 0.02771336, -0.1491479, 0.08062114, -0.06217691, -0.08732505, -0.03324859, 0.06522349, 0.1491766],
    [-0.1522661, 0.0583941, -0.03406182, -0.005332977, 0.05018472, -0.1034151, -0.09600116, -0.1604236, 0.049327, 0.02882205, -0.07813077, 0.05545061, 0.009679496, -0.16496, 0.03909972, -0.1270366, -0.1475158, -0.003044948, 0.03435057, -0.1104847, -0.1344026, 0.04710475, -0.1383635, -0.1547198, 0.07841046, -0.04882059, -0.003577888, -0.02203305, 0.05571357, 0.1145456, 0.003764093, 0.06727392, 0.1693972, -0.1172154, -0.1431968, -0.03445908, 0.05690727, 0.03396577, -0.0453326, 0.1241242, -0.07901935, -0.0140714, -0.1573397, -0.07210618, 0.05669379, -0.07167436, -0.116325, -0.06691536, 0.07166772, -0.06609018, -0.06916516, -0.06165326, -0.1266782, -0.07897164, -0.1426049, -0.07368383, 0.02128826, 0.05919854, 0.06488698, -0.07286417, -0.1086517, -0.1502805, -0.07954665, -0.1672486, -0.08306642, -0.1276681, -0.002101153, 0.111579, -0.002939567, 0.09755304, -0.1607917, 0.02084535, -0.001521975, 0.07928695, 0.03229617, 0.01527263, 0.003410399, 0.03165491, 0.1040473, -0.1465661, -0.009144068, -0.09907745, 0.04885494, 0.144271, 0.04204811, -0.1563219, -0.04414728, -0.04283455, 0.03666244, -0.1448583, 0.1077583, -0.09745774, -0.06398395, -0.1310556, -0.1539827, -0.1643179, 0.05308563, 0.1633618, -0.03001177, 0.1476295, 0.1018391, 0.135414],
    [-0.0205685, 0.01466136, -0.04974389, 0.09957482, 0.1413959, -0.09800442, 0.08932902, 0.06070238, -0.06149432, 0.09575939, 0.1228307, 0.112125, -0.1127304, 0.01507932, 0.1682211, -0.1712083, -0.1230655, 0.1400564, -0.07568736, -0.00152275, -0.1264673, 0.1425469, 0.03962469, -0.03402956, -0.00632146, -0.06002516, -0.1074526, -0.05774706, 0.02274606, -0.1640294, 0.004620984, -0.1058419, -0.006853536, -0.138063, -0.1651124, -0.003151, -0.1591519, -0.08523293, -0.009291634, 0.06753393, -0.1227468, 0.1408627, -0.05018756, -0.05150822, -0.01974644, -0.03866214, -0.05583785, 0.1123087, -0.07322514, 0.006986916, -0.06093416, 0.01933204, 0.08099842, 0.1187029, -0.05967323, -0.08706315, 0.004456744, -0.06970578, 0.1152127, -0.04364206, 0.02612254, -0.05567439, 0.0494603, 0.03923114, -0.07248199, -0.04344486, -0.1219739, 0.1001229, 0.1319925, -0.1451374, 0.1327647, 0.04850625, -0.1456094, 0.02273628, 0.12046, 0.05605851, 0.0559567, 0.02811365, -0.0928268, 0.1399042, -0.1385063, 0.02172732, 0.02498065, 0.1517262, -0.1659751, 0.07549868, -0.1643908, 0.1053956, -0.08344059, -0.09673921, 0.05397144, -0.05600231, 0.05609841, -0.08838843, -0.1709252, 0.02146307, -0.130568, 0.06485909, -0.0565442, 0.06847522, -0.08614807, 0.1372453],
    [-0.04847233, 0.124799, -0.1710886, -0.1680881, -0.1071622, 0.1374979, -0.127216, -0.08180533, -0.1640495, 0.1209998, 0.1260629, -0.001940459, -0.1620146, 0.03601997, 0.04681784, 0.01699653, 0.1203331, -0.02030228, 0.1439167, 0.1329433, 0.1358299, 0.03597957, 0.03438589, 0.060227, 0.08840058, -0.1005434, 0.1637644, -0.0039213, -0.08663063, 0.1344659, 0.1642403, 0.05930194, 0.1156416, 0.07335673, -0.08124544, -0.05589052, -0.002172261, -0.1119766, -0.03508545, 0.02309865, 0.0959862, 0.1165197, 0.09760763, -0.1608177, 0.1502479, -0.03945541, 0.02608922, -0.03162462, -0.1085667, 0.1368917, -0.1571331, -0.1426898, -0.09006847, 0.09376792, 0.03196228, 0.0829739, -0.1623467, -0.1355881, -0.02612495, 0.1380685, -0.01573488, 0.1448727, 0.1492215, -0.1626394, 0.08568931, 0.08284654, -0.1032659, -0.0304521, 0.08831875, 0.04261683, -0.03035888, 0.1340534, -0.06865369, -0.1271868, -0.02627899, 0.1284974, 0.09258898, 0.1237139, 0.1703356, 0.1388483, 0.0406215, 0.1298954, -0.04375696, 0.09421651, -0.1648434, -0.04558332, -0.1229893, -0.07157786, -0.1419863, 0.03745572, -0.07030571, 0.04085694, 0.08242096, 0.1467313, -0.1110733, -0.06189929, 0.08801753, 0.1112446, -0.02159615, 0.1567275, 0.03770976, -0.1269877],
    [0.05703958, -0.1514532, -0.08256091, 0.1322544, -0.1125554, 0.1218833, -0.08111472, 0.0387027, -0.02632731, 0.0362675, 0.01011533, 0.02569714, -0.1678192, -0.01847813, 0.1296039, -0.05616779, -0.04920514, 0.0307496, -0.04332109, 0.05299592, -0.04819622, 0.07996492, 0.1307448, 0.0725233, -0.1663024, 0.09770045, -0.1622963, -0.1457525, 0.1038318, 0.1231906, -0.04699618, 0.01806401, 0.1378015, 0.1121369, 0.08761801, -0.07370505, 0.06481645, 0.156975, 0.07622146, -0.1117095, 0.0834559, -0.1310376, -0.03823341, 0.1684173, 0.1584946, 0.02863742, 0.03290781, 0.03929271, 0.1596942, 0.05725437, 0.104399, -0.1670398, -0.1133655, 0.1280707, -0.01765026, -0.02234024, 0.09177399, -0.1395472, -0.1415273, -0.04271165, -0.1335052, 0.06195168, 0.1018433, 0.134943, -0.1045963, 0.02773866, -0.1031772, 0.1430432, 0.0257061, -0.02367631, -0.1341217, -0.1373338, 0.1603374, -0.1223136, -0.1446125, -0.1486409, -0.1157172, 0.06442735, 0.08307534, 0.0178183, 0.08074773, -0.03064445, 0.141013, 0.1576204, -0.1292177, -0.005695656, -0.05518843, 0.05922564, 0.105243, -0.02766694, -0.1052553, 0.06723418, 0.01347457, 0.06751733, -0.1064622, -0.04452042, -0.04596546, -0.02562624, 0.003064081, 0.04497181, 0.08626828, 0.1019071],
    [-0.04145898, -0.02248511, -0.1208073, 0.1706972, 0.01841164, -0.03340736, -0.1483841, 0.04135685, -0.06828213, -0.01773028, 0.152746, -0.1132559, 0.05630482, -0.04578772, 0.03744783, -0.1239243, -0.03548241, -0.03264053, 0.04786471, 0.1213726, -0.1229473, -0.1009248, 0.1176531, 0.05461645, -0.104425, 0.117062, -0.04603535, -0.1258799, -0.1124779, 0.1148686, -0.1637926, 0.1191369, -0.1048902, 0.00456354, -0.1456728, -0.01802778, 0.1512483, -0.03273237, -0.0040337, 0.007902086, 0.04916267, -0.1353135, -0.09097819, -0.08741088, -0.01500411, 0.06332925, -0.1448533, 0.08603743, -0.1493663, -0.08346389, -0.0979021, -0.05629373, -0.1057428, 0.1072077, -0.07055078, -0.0880049, -0.1207754, -0.02647009, -0.09640769, -0.0752077, -0.131098, 0.1174545, 0.1363458, -0.1020572, -0.1371398, 0.02875596, 0.07969563, -0.1172005, -0.07215071, -0.08219726, 0.06033842, 0.04416581, 0.0008366853, 0.0925465, 0.1484451, -0.07966401, 0.1266904, -0.01470682, 0.05200139, -0.08575617, -0.1160531, -0.02971402, -0.06392375, -0.09137149, 0.07200214, 0.1689892, -0.03726767, -0.05534773, 0.0718991, -0.1387569, -0.135532, -0.1207655, 0.03075619, 0.003837273, -0.1242689, 0.008564562, -0.1555051, -0.1554044, -0.1009512, 0.1047723, -0.09869228, 0.167219],
    [0.1532623, -0.1249414, -0.03038365, 0.0542561, -0.003817573, 0.02908455, 0.09135644, -0.01717897, -0.08449875, -0.01438081, 0.1327681, 0.00830847, -0.1093495, -0.082431, 0.08380574, -0.06375287, -0.07935677, 0.04588113, -0.07040069, 0.1642299, 0.05537641, 0.01014043, -0.02261759, -0.1022702, 0.046146, -0.08979689, -0.01258627, -0.1455341, -0.1200704, 0.06495346, 0.1341199, -0.1201068, -0.003109142, 0.07644626, -0.01494057, 0.07867534, -0.1142671, 0.138858, 0.0970764, -0.04208115, -0.1265553, -0.04082829, -0.05260329, -0.08544952, -0.1205168, 0.1113384, -0.0491288, 0.1404413, 0.06524537, 0.07184988, -0.1269911, 0.006430551, 0.06545112, -0.1221237, -0.04863613, 0.07344967, -0.02087218, 0.04764808, -0.08223261, -0.08684857, 0.1214819, 0.02723217, -0.02265562, 0.109639, -0.05344413, -0.0751958, -0.1288655, 0.1672361, 0.02329262, 0.1399239, -0.1557501, 0.009045288, -0.07905264, -0.04057515, 0.07522113, -0.01694563, 0.1141286, 0.01969312, 0.004255071, 0.0469347, 0.05709846, -0.08187737, 0.04318977, 0.07032894, 0.03667194, -0.130523, 0.03269598, -0.1093391, 0.08129682, -0.167674, -0.04902613, 0.1594234, 0.1483477, -0.1518153, -0.1490205, 0.1011283, -0.1200748, -0.04751927, -0.005739734, -0.01543537, 0.1311146, -0.03725742],
    [-0.1703353, -0.02355504, 0.01144201, -0.1548649, -0.1402392, -0.01756291, -0.1433498, 0.07967596, 0.1004751, -0.121434, -0.1317468, 0.04890287, -0.01671301, 0.0134674, -0.1616477, 0.1381594, -0.05798503, 0.08280621, 0.08840696, 0.121264, -0.1023751, 0.1202954, 0.07273552, 0.1191833, 0.1225466, 0.04873248, 0.07391237, 0.1457678, -0.09969003, 0.09431309, 0.1608679, -0.02364266, 0.08835258, -0.06900889, -0.01681703, -0.1318378, 0.05243199, 0.1437504, -0.08090701, -0.0009232014, -0.1674009, 0.134921, -0.1392467, -0.07828152, -0.07578459, -0.1112445, -0.167756, 0.09557433, 0.0116367, -0.04573415, 0.1498548, -0.06166409, -0.009512633, 0.00621441, 0.0350953, -0.1460329, 0.1243206, -0.02972642, 0.02708502, -0.08748133, 0.1338456, 0.09437294, -0.1238532, 0.03892979, 0.1266269, -0.1597737, 0.1236613, -0.03659351, -0.02185677, -0.00486742, 0.09889443, 0.01561466, 0.04806788, 0.02127363, -0.1295279, -0.08745705, -0.01369242, 0.09981737, 0.1213269, -0.1254321, 0.1108414, 0.02738747, -0.08378486, 0.08830754, -0.06411703, 0.02983207, -0.02101493, -0.08112495, 0.02381206, -0.05777842, 0.08677043, -0.06043151, 0.03801487, 0.1247132, 0.1124673, 0.04426599, 0.1000992, 0.04412599, -0.07822964, 0.01061229, 0.04236679, -0.01062112],
    [-0.001333386, -0.08670975, -0.01738878, 0.07740506, -0.01569465, -0.1130384, -0.149206, 0.02348201, -0.02384239, -0.05770016, 0.1663591, 0.1372588, 0.05789795, 0.102633, 0.1032125, -0.03649472, -0.05472643, -0.1565821, -0.002728879, -0.02108677, 0.1205683, 0.07691689, -0.08220245, -0.1562319, 0.0254918, 0.06632985, 0.1431377, 0.02473442, -0.1651809, -0.07905342, -0.1441881, 0.05880376, -0.1457834, -0.05547154, -0.08612396, 0.03688557, 0.1110739, -0.07107556, 0.02941591, -0.1237565, -0.06653853, 0.1136665, -0.01510511, -0.01737884, -0.05224025, -0.01455328, -0.1470697, 0.02121393, 0.03166065, 0.007351562, 0.1115802, -0.05738884, 0.1687301, -0.08065887, -0.04752241, -0.0938511, 0.05455769, 0.07189031, 0.1297986, -0.1679385, 0.01775317, -0.1064545, -0.009083271, 0.1626574, -0.1110026, 0.08953927, -0.1303815, -0.01406761, -0.1023174, 0.1527443, -0.07151997, 0.1376583, -0.01639391, 0.04184897, 0.1221188, 0.01863481, 0.08077548, 0.130033, 0.1398055, -0.112014, -0.1667253, 0.03878713, -0.1476938, 0.0370986, -0.1018998, 0.1501515, 0.09945317, -0.1664761, -0.1368704, -0.1711608, 0.04346004, -0.006668851, 0.1484342, -0.1594616, 0.01691921, -0.004682317, 0.04033922, 0.1275928, 0.07610104, -0.1634912, 0.1244114, 0.1071937],
    [0.1194637, 0.1348635, -0.07949183, -0.05145785, 0.02825189, -0.01967669, 0.01624562, 0.1273601, -0.1521774, -0.02838045, -0.002054423, -0.128645, 0.1628054, -0.1304377, 0.1306438, 0.1252507, -0.07767273, -0.09768783, -0.04546544, 0.09322794, 0.008829027, 0.1585901, -0.1481805, -0.1530472, -0.03219129, -0.06423557, -0.06226347, 0.09590495, 0.1083093, 0.1249277, 0.07622469, 0.1104598, 0.07632381, 0.0910887, -0.1024284, -0.0527305, -0.1047367, 0.1442046, 0.04749507, 0.04881831, -0.02301547, 0.153313, 0.1322666, -0.04392059, 0.09874249, 0.06179524, 0.06315278, 0.1361198, 0.06808846, -0.1104585, -0.1565449, -0.1042087, 0.04459829, -0.0373091, -0.1486161, -0.1632507, -0.09491889, -0.1628335, -0.07247868, 0.1134818, -0.0502612, 0.1534843, -0.1407628, 0.01422675, -0.1432364, 0.1330885, 0.07390599, -0.0996909, 0.0943637, -0.02646245, -0.1403832, 0.01326084, 0.1536436, -0.1702897, 0.1319423, 0.1392987, 0.1261254, 0.06706662, 0.1544178, -0.05490805, -0.1647402, -0.03432563, -0.06848964, -0.09111063, -0.02788304, 0.06526544, 0.1007028, 0.01462574, -0.0250733, -0.1587454, -0.1565456, 0.1247499, 0.08609606, 0.02827512, -0.09236501, -0.02484328, -0.09245904, -0.1133352, 0.05033245, -0.06844287, 0.01614094, -0.1278126],
    [-0.02044821, -0.002740815, 0.0295472, 0.08896889, -0.157346, 0.156825, -0.01109117, 0.1654307, -0.130632, -0.09158541, -0.05734022, 0.04891415, -0.09844343, -0.08681587, -0.01550296, -0.1247272, 0.08857967, 0.1368837, 0.04784864, 0.1118379, -0.1647882, 0.1217736, 0.1081356, -0.06778142, 0.02602454, -0.1544607, -0.03914003, -0.1401486, 0.05924564, 0.153176, -0.06022134, -0.1199764, 0.1601235, -0.07845551, -0.1179776, -0.163166, -0.154379, -0.03920828, -0.0932046, 0.07685164, -0.01116833, 0.1267679, 0.04251979, 0.04794963, -0.05899682, 0.115934, -0.1394548, 0.1697691, -0.08312546, -0.03284395, -0.05024947, -0.09137043, -0.07317816, 0.0616285, 0.151658, -0.02774328, 0.1498421, -0.0960661, 0.1160112, -0.02277763, -0.04643887, -0.06008057, 0.007275715, 0.1452888, -0.1525573, -0.100541, 0.1407076, -0.1336919, 0.01205574, -0.02471885, -0.1353013, -0.1032126, 0.1457042, -0.1486894, 0.1278195, -0.03704916, -0.1369937, -0.08434515, -0.05918609, 0.1427611, -0.04256408, -0.03157076, 0.1318618, 0.1675783, -0.1366309, -0.09520377, 0.05512376, 0.00368914, 0.01771596, -0.08827416, -0.1356416, -0.1089272, 0.01918869, -0.1163807, 0.1175865, 0.0182274, 0.02423559, 0.1464826, -0.03624129, -0.07727697, 0.135489, 0.03614995],
    [-0.04590176, 0.1222712, -0.1554901, -0.06746718, 0.1639196, -0.05458888, 0.1326404, 0.03630921, -0.00770463, 0.01084012, 0.08242518, -0.142385, 0.0887597, 0.03565548, 0.1410757, -0.001985684, 0.1664734, 0.03058715, -0.07902377, 0.02829258, 0.0665309, 0.1321801, -0.1399279, 0.1705479, 0.1298691, -0.05878563, 0.04208319, 0.07824107, 0.1090104, -0.05820309, 0.04980699, 0.08273458, 0.0780841, 0.04608741, 0.1552427, -0.02550055, -0.09329383, 0.02865195, 0.05576333, -0.03919944, 0.1111872, -0.01213154, 0.109611, 0.1639815, 0.01143362, -0.1075069, -0.1655367, 0.007127851, 0.1647966, -0.1562159, 0.0006870329, 0.1536582, 0.09216374, 0.166834, -0.04598849, -0.1613775, 0.1194181, 0.137643, -0.1617383, 0.07535394, -0.1330271, -0.06545933, 0.07798273, -0.01548631, -0.1434286, -0.07681882, -0.005654156, -0.07227787, 0.09261058, -0.009052023, -0.04854512, -0.05177388, -0.09954537, 0.05430787, 0.06762601, -0.04194948, 0.03582783, 0.1377133, 0.08370519, 0.07783794, 0.02332614, -0.1317877, 0.04552577, 0.1094881, -0.1605064, -0.06492531, -0.05459015, 0.1238701, -0.0603297, -0.1443967, 0.07826817, 0.06672042, -0.08635251, 0.01456378, 0.02274765, 0.04627071, -0.0165989, -0.04380378, -0.02780424, 0.01116715, -0.1329847, -0.1711849],
    [-0.01554589, 0.05581535, -0.1385945, -0.07400696, 0.1186998, 0.142877, 0.01201992, 0.124463, 0.1505554, -0.1641336, -0.06033338, -0.1460057, 0.005765617, -0.08410081, -0.06823348, -0.08147602, 0.06256308, -0.108568, -0.1301866, -0.02411799, 0.03074539, 0.07438038, 0.04922813, 0.07986417, -0.1062274, 0.1107423, 0.1471437, 0.01383422, 0.1153272, 0.06872289, 0.09725849, 0.1373481, 0.0436162, 0.1411134, 0.1405152, -0.1198689, 0.1481612, -0.01740897, -0.1710316, 0.07487562, -0.02467154, 0.01391633, 0.1208082, 0.01662199, 0.1331963, -0.02903058, 0.1432049, -0.1410733, -0.08937155, -0.118303, -0.1499645, 0.110555, -0.143962, -0.09564613, -0.000282228, -0.1296624, -0.05090593, -0.007701606, -0.05062188, -0.1092866, 0.1003721, 0.1572696, -0.05321224, -0.0649884, -0.1439743, 0.02038835, 0.1166465, 0.1271065, -0.1254783, -0.1380245, -0.09295319, -0.03645894, 0.05796142, 0.02890983, -0.09733774, 0.1637388, 0.1637713, -0.08353086, -0.005830675, -0.03695917, 0.06860439, -0.06405443, 0.01406246, 0.002831504, 0.1354228, 0.1038219, -0.1321085, 0.05114437, -0.07743125, -0.0688692, -0.03984483, 0.05916979, 0.1129673, 0.08104841, -0.05984754, -0.05707073, 0.06878921, 0.161106, 0.1615648, 0.07922377, -0.1300405, 0.1643767],
    [0.08128051, -0.1172514, -0.1384598, 0.1545886, -0.05603069, -0.06416246, 0.1387617, 0.08599478, -0.04909874, 0.0541536, 0.1161707, 0.02167989, 0.01334065, -0.1044219, 0.1450378, -0.03290999, -0.006304279, -0.02552451, -0.01045287, 0.05522021, 0.02541256, -0.0344512, 0.1162955, 0.1168544, -0.125193, -0.02092457, -0.04238674, 0.07991393, -0.1205679, -0.01757252, 0.1580006, -0.1680549, -0.01384963, 0.1106459, 0.06488105, -0.146581, 0.1570514, 0.04723359, 0.06705002, 0.03565668, 0.1045458, 0.1369374, 0.106955, 0.09904613, 0.1693124, 0.07063013, -0.03617632, -0.1711253, 0.07916243, -0.05345934, -0.1114206, -0.1445532, -0.02730419, -0.03235935, -0.1252609, 0.08606319, 0.112586, -0.1631224, 0.07291342, -0.1076888, -0.03432751, -0.1118765, 0.01261877, 0.05300581, -0.1189356, -0.1635365, -0.08020209, -0.009731382, 0.0138166, 0.1491757, 0.08736516, -0.1136266, -0.1021539, -0.07950453, -0.1606347, 0.04510866, 0.0797307, -0.1615953, -0.1102997, -0.03602937, 0.005770892, 0.08538125, -0.06703949, 0.07909195, -0.07569414, 0.1649822, 0.1444417, -0.001835421, 0.09847884, 0.1581826, 0.1088788, 0.04401747, -0.11222, 0.1035785, 0.1398444, 0.1663257, -0.03352188, 0.1661204, -0.1510569, 0.09710687, 0.08844849, 0.04805545],
    [0.03839742, 0.04869683, 0.0823277, -0.08467157, 0.1472429, -0.1372685, 0.05513614, -0.07543287, -0.04622535, 0.1018089, 0.04436306, -0.08780651, 0.117765, 0.1472512, -0.1305634, 0.03894173, -0.02197894, -0.01469618, 0.1347145, -0.1501977, 0.1069304, 0.01602861, -0.114731, 0.07889483, 0.1165098, -0.03939788, -0.1242851, -0.1276124, -0.06877516, 0.1137323, 0.0712758, 0.0008066744, 0.1633179, 0.06394965, 0.08050637, -0.02426291, 0.02909862, 0.1493591, -0.0662429, 0.04546345, 0.1044997, -0.001075149, -0.009645686, -0.07926408, 0.06806876, 0.02621254, -0.07578284, -0.01240276, -0.1381514, -0.006061941, 0.06401969, -0.006491885, 0.1450186, 0.05074052, -0.1676816, 0.1627134, -0.0342802, -0.1478244, 0.01852241, 0.1011747, 0.05197911, -0.1111815, -0.06495701, 0.1481267, -0.05873542, 0.003410205, -0.05583761, -0.1518018, -0.07540727, 0.04604337, -0.0674586, 0.1659917, -0.07563813, -0.1270341, -0.1139277, -0.109139, -0.1520784, -0.01709262, 0.1441617, -0.04614684, -0.05414401, 0.1449986, -0.1059682, 0.02825496, -0.04909495, 0.07514573, -0.1460542, -0.06452899, 0.1485506, -0.1592968, 0.01759093, 0.0326346, -0.07062067, 0.02236645, -0.07541545, -0.1458329, -0.07824914, 0.09407507, -0.0769255, 0.059798, -0.134056, 0.112487],
    [0.1529051, -0.1540786, -0.05134978, -0.1597749, 0.1300343, 0.05529725, 0.05440907, -0.106712, 0.005644828, -0.09197469, -0.07840031, 0.1692031, -0.1540052, 0.1295565, 0.08334137, -0.01100457, -0.1115395, -0.141446, -0.01720653, -0.09646615, 0.03983939, 0.1478394, 0.05049306, 0.09970766, -0.07930942, -0.03019786, 0.1461516, -0.1584149, 0.1053153, 0.1542195, -0.1252398, 0.1693362, 0.1317095, 0.1035444, 0.09245855, -0.1297067, -0.08073435, -0.02429897, -0.05315325, 0.1100321, -0.07152717, -0.1002364, -0.03730598, 0.0607471, -0.1643438, -0.08366473, -0.1017461, 0.06101946, 0.1222206, -0.1556507, -0.1238566, 0.1606116, 0.07769353, -0.1196759, -0.03550673, 0.1582026, -0.1463272, -0.1117869, 0.101104, 0.12496, -0.03615478, 0.05289427, 0.1381401, 0.1021576, -0.004022866, 0.07302873, -0.1389542, -0.164018, 0.1368184, 0.111188, 0.1679158, 0.1529558, -0.1276409, 0.1288656, -0.02849898, 0.138533, -0.03946801, -0.00619331, 0.1574369, -0.06257844, -0.05102222, -0.04716067, 0.04113752, 0.1356154, 0.1457978, 0.0007921904, 0.09735282, -0.07210217, 0.06519516, -0.1113341, -0.09047864, -0.05490531, 0.07440233, 0.1597594, -0.06793356, -0.01794273, 0.05511865, 0.06571575, -0.1536577, 0.02124868, 0.04279141, -0.1129493],
    [0.07492141, 0.09747593, 0.1231516, 0.06104649, -0.003135636, -0.052008, 0.05901482, 0.005520165, -0.1654475, -0.04616414, -0.1549027, 0.03747638, 0.1381741, -0.1628772, 0.1160235, -0.1373747, 0.113127, -0.02781807, 0.1516183, -0.07293111, 0.09022567, -0.06251274, 0.05781348, 0.01916546, -0.03866033, 0.031537, 0.008714288, -0.1267212, 0.112519, -0.1521518, 0.009914443, 0.006748825, 0.1099546, 0.1294115, 0.04814455, 0.1593382, 0.112043, 0.124031, 0.07634491, 0.05568875, -0.048201, 0.1480804, 0.1312163, 0.05975073, 0.1080269, -0.03087255, 0.03783336, 0.02309047, 0.1126503, -0.09005297, 0.05311258, -0.1687798, -0.1352084, -0.05603498, 0.1166079, -0.1086012, 0.08582783, 0.1538074, -0.03533009, 0.09843035, -0.05900737, -0.07962276, -0.1119708, -0.0926861, -0.05006122, -0.1429758, 0.01941238, -0.120832, 0.1527386, 0.1120412, 0.1022145, -0.06502198, -0.04975918, -0.1620726, -0.02139102, -0.1052173, 0.159053, -0.04587004, 0.0897824, -0.04461484, -0.1065755, 0.1389508, 0.1615358, -0.01888113, 0.1541362, 0.001192287, 0.1587557, 0.09748877, -0.04063953, -0.06078017, -0.05224621, -0.03558147, 0.157585, -0.1100316, 0.05834397, 0.04265726, -0.01844692, 0.1588665, -0.06767535, -0.05880456, -0.06120062, -0.139856],
    [-0.1664983, 0.161174, 0.1407408, 0.1059705, 0.1223751, -0.1180487, 0.02453431, -0.1578771, 0.1345402, 0.1198348, 0.04443527, -0.08394964, 0.08376706, -0.002683565, -0.07712172, 0.1046126, 0.03495662, -0.05306276, 0.1049394, 0.09421687, 0.1334861, 0.08743994, -0.1169577, 0.1561207, 0.05909779, 0.01949343, -0.1596321, 0.04358049, 0.1221771, 0.1150345, 0.1156612, 0.04375902, 0.102357, -0.03423928, -0.08445057, 0.03416416, -0.1469597, -0.04223284, -0.120322, -0.01130073, 0.1321925, -0.043663, -0.144603, 0.04288552, 0.1333894, 0.1703626, 0.1118893, -0.1156426, -0.161281, 0.03726497, 0.08927493, -0.02530228, 0.04915261, 0.09259216, -0.1213991, 0.1551494, 0.16692, -0.08304761, 0.09767318, -0.1016112, 0.04775795, -0.05456545, 0.1306171, -0.04896468, -0.02789718, 0.005520865, 0.1579579, -0.02215309, -0.1023308, 0.1408238, -0.02896577, -0.05062176, 0.1021565, 0.1206931, 0.1078124, -0.09036826, 0.1346559, 0.1483821, 0.09662823, 0.07959124, -0.04680846, -0.02964708, -0.1606194, -0.0270389, -0.03896876, 0.04727476, -0.04438357, -0.07998886, -0.1396091, 0.1040256, 0.08353186, -0.03333245, -0.1299171, -0.1364723, 0.08654828, 0.1011863, 0.08647723, -0.02845944, 0.01888901, -0.07862511, 0.1647866, -0.03611192],
    [-0.1667024, 0.03421834, -0.1674359, 0.02575266, 0.06727478, -0.003938228, -0.03954439, -0.002414644, 0.08440123, -0.1663032, 0.03681991, 0.08662066, 0.1625776, 0.127101, -0.0404669, -0.1709179, -0.02847891, -0.03153887, -0.05100529, 0.001881301, 0.1056903, 0.1637906, 0.04175919, -0.1710842, -0.05510268, 0.01079515, 0.1636894, 0.1374802, -0.1432571, 0.03483993, -0.03253835, 0.07695026, -0.1480125, 0.03684755, 0.1398402, 0.05746286, -0.05500476, -0.04347986, 0.1331826, -0.03355181, 0.0432354, -0.07895578, -0.1546538, -0.06997573, -0.02079891, 0.1440673, 0.1336335, 0.05316512, -0.05284081, -0.05614386, -0.0471722, 0.01444334, -0.1427161, 0.03559983, 0.1215263, 0.03037494, 0.1384737, -0.1060056, 0.1337182, -0.1230742, -0.1064478, -0.06398369, 0.01422973, 0.1467313, -0.06939185, -0.07317124, -0.1456612, 0.04039045, 0.1552817, 0.04416353, -0.1695146, -0.05598305, 0.01161855, -0.1643066, 0.07703175, -0.0313496, -0.01959875, 0.07857418, -0.07055348, 0.1660853, -0.009043321, 0.002967536, -0.109629, 0.05480871, -0.1324038, -0.05197504, -0.04485032, -0.1455919, 0.05282722, 0.1047062, -0.08043672, 0.1122098, -0.05896534, -0.1009477, 0.1261667, -0.06872819, -0.164145, -0.1231596, 0.07568067, -0.02331825, -0.1697278, -0.051371],
    [-0.1095508, -0.1180189, 0.144676, 0.06911423, 0.05546824, 0.1387611, 0.1088092, -0.0673123, -0.05374756, 0.1624349, 0.1386528, 0.04981619, 0.06249329, -0.07635736, -0.08999486, 0.04069135, -0.01542217, 0.1635292, -0.1310879, -0.0298387, 0.1180702, 0.09773172, -0.08543496, 0.002770618, -0.01048079, 0.1313201, -0.1661807, -0.1192495, -0.1401221, 0.09603629, -0.041298, 0.1265035, -0.04535754, 0.03098929, 0.06160114, 0.01733872, 0.03681402, -0.07173516, 0.03832553, 0.03816596, -0.1642867, 0.1603077, 0.07110505, 0.1053778, 0.1209661, 0.04021005, -0.1210227, 0.002525046, 0.1670223, -0.1137097, -0.02275755, 0.007844269, -0.06633621, 0.1625521, -0.09390466, 0.158251, 0.1313542, -0.1421946, -0.06500374, 0.02164742, 0.1326038, 0.1598118, -0.03333265, 0.003873676, 0.1249885, -0.09540926, -0.1512071, -0.1309174, 0.07541993, 0.1346629, 0.1316323, 0.05676788, -0.05247724, -0.006159082, 0.06706069, -0.02885593, 0.02358022, -0.1552205, 0.04196285, -0.0675717, 0.1069964, -0.1378209, -0.1071144, -0.05476286, -0.1100903, -0.1432223, -0.152666, 0.004031464, -0.03379346, -0.09953989, -0.07697061, -0.02224411, 0.09639268, 0.04912935, 0.1293348, -0.08673786, -0.05202853, -0.02414203, -0.1044382, 0.1561234, -0.1657123, -0.1263485],
    [0.02794188, -0.0313507, 0.04808829, 0.1406701, -0.1448361, 0.114125, -0.1097646, 0.160761, -0.02683941, -0.09532867, 0.09543024, 0.01498735, -0.04885481, 0.11917, -0.150015, -0.1326289, -0.01110503, -0.1016589, 0.1511442, 0.1655823, -0.1465882, -0.1664439, -0.1420275, 0.01279172, 0.01380216, 0.04936531, -0.02817838, 0.01136717, 0.1122003, -0.008711711, -0.1049496, 0.1352542, -0.09007119, 0.08936141, -0.1524601, 0.152866, -0.05870181, -0.123891, -0.03309563, 0.04719087, 0.03527088, -0.02139939, -0.08606552, 0.07641736, 0.002772376, -0.114383, 0.1243721, -0.1263783, 0.1033956, 0.05592231, 0.09908113, -0.0742808, 0.03009196, 0.1572619, 0.05578345, -0.05600525, -0.1389614, -0.05983331, -0.08333991, -0.1418183, 0.1161748, 0.08437911, -0.1179685, 0.03628656, 0.128951, -0.06962058, -0.0788406, 0.08166249, 0.07793567, -0.1532221, -0.0750692, -0.1178724, 0.04646681, 0.1450989, -0.1498849, -0.08565412, 0.1389802, -0.09833251, 0.114072, -0.1048678, -0.004277572, -0.1684171, 0.08050964, -0.1041984, -0.07444958, -0.08778109, 0.04786716, 0.09627062, 0.1173706, 0.0700626, -0.1246494, -0.02211049, 0.01785412, -0.1597313, 0.07633828, -0.1057173, 0.1081371, -0.1193246, -0.07955508, 0.1589479, -0.09712265, -0.1209209],
    [-0.1171307, 0.06878488, -0.0795247, -0.02850045, 0.1558984, -0.03469408, 0.1557675, -0.09933232, 0.08162184, 0.04710582, 0.01590137, 0.1290061, -0.05957702, 0.07765894, -0.08253233, 0.02077009, -0.09710668, 0.09657966, -0.1414986, -0.08669692, 0.1438998, -0.06468171, 0.1361371, 0.1650241, -0.08792941, -0.0848404, -0.06549408, -0.05518466, -0.1407425, 0.06844468, 0.1052918, -0.0430664, 0.1097114, -0.05785738, 0.002084345, 0.002917662, 0.01490697, -0.1110646, 0.07551769, 0.05936421, -0.04848796, 0.03277612, -0.1029427, -0.06755771, -0.1584841, -0.02655649, 0.1384861, 0.0117137, 0.1026706, -0.05674447, -0.001060948, 0.1421039, -0.1360236, -0.1621896, 0.1050616, -0.1701144, -0.1207808, 0.1217872, -0.02303718, -0.09210365, -0.1422004, 0.05419543, -0.02936937, -0.09194867, -0.1501716, -0.05374944, -0.09181051, 0.06575905, 0.09904891, -0.1633409, 0.07991499, 0.1612232, 0.1489956, -0.1313329, -0.02931507, 0.03931651, -0.01317625, 0.09814467, -0.001830921, -0.1384849, 0.1658788, -0.004438505, 0.09924006, -0.129224, 0.03489664, 0.128647, 0.06849142, 0.06033507, -0.124817, -0.1700178, -0.1138557, -0.1046185, -0.03131051, 2.875924E-06, 0.009515375, 0.08716673, 0.01694612, -0.0502729, -0.03538541, 0.0556226, -0.1014542, -0.03231977],
    [0.1621804, -0.1356048, 0.02528928, -0.1061741, 0.1499521, 0.0294853, -0.1520813, -0.1499366, -0.1697543, 0.0876174, -0.0607318, -0.07703909, 0.0785687, 0.02322793, 0.03953387, 0.1697001, -0.09698687, 0.1178786, 0.1267185, 0.09427337, 0.05618366, 0.1126129, -0.09147854, 0.1134912, -0.1635473, -0.1135736, 0.02936357, -0.130054, -0.1317905, -0.0006716996, 0.02789555, -0.01683162, 0.02561663, -0.008498192, -0.005418435, -0.1240044, -0.1629809, -0.08055259, 0.1413395, -0.07971777, 0.1404988, 0.02016465, 0.0121654, 0.07714272, 0.1099413, -0.08126335, -0.1258075, 0.08420055, 0.04273662, -0.03221661, 0.05091601, 0.071165, 0.13313, -0.01981281, 0.08442532, -0.0007659495, 0.06956605, -0.005062789, 0.1027176, -0.05777209, 0.04138657, -0.01848809, -0.1165728, 0.1700164, 0.007990316, 0.04290866, 0.05175492, 0.03745019, -0.02182186, 0.1243967, 0.06576052, -0.01118739, -0.1554739, -0.1603957, 0.0461586, 0.06196386, -0.1624101, -0.07425548, 0.02324744, -0.150181, 0.102421, 0.1230087, -0.05884472, 0.1668756, 0.09789161, -0.04994927, -0.09974238, 0.03380188, -0.09326287, 0.1346475, -0.1668646, 0.07605369, 0.04517098, -0.1649469, 0.004274622, -0.1252149, 0.1675722, 0.06746577, 0.1523468, 0.08922125, 0.1057425, 0.161315],
    [0.05247753, -0.1622394, -0.02530339, 0.00592652, 0.04947678, 0.1450949, 0.1597831, 0.138299, -0.1572226, 0.1271219, -0.1699976, -0.01630625, -0.04849029, -0.06321909, 0.0446896, 0.06488366, -0.1546945, 0.08728126, -0.120319, -0.1186609, 0.1265228, 0.1461696, -0.1235632, 0.1137223, 0.07964791, -0.132586, 0.01117766, 0.1062362, 0.09730427, -0.1432405, 0.0386001, -0.1497022, -0.1224157, 0.1510986, 0.04019123, -0.05577652, -0.09592564, -0.008175343, -0.003893137, -0.1323134, 0.1537325, 0.08919774, -0.04661134, -0.0505361, -0.09870443, 0.1508439, -0.06425552, 0.1263013, 0.1042383, 0.0698106, 0.1266019, 0.05820131, 0.02848746, 0.01187509, 0.1614917, 0.06608526, -0.09260245, 0.09093897, -0.1101003, -0.0173301, -0.002314836, -0.08963929, 0.1075117, 0.1513319, -0.08805721, -0.08939479, 0.1134196, 0.05546113, -0.04764279, -0.07162836, -0.08613499, 0.1104067, -0.1053675, 0.07014892, 0.03242718, 0.1242484, 0.08256306, 0.1416518, -0.1417284, -0.03711867, 0.1126592, 0.03487447, -0.1181652, 0.0278274, -0.1465326, -0.05994948, -0.03858571, 0.05058878, -0.129236, -0.1396296, -0.04318349, -0.1623712, 0.1183926, -0.1573903, -0.1515274, -0.1046624, -0.113278, -0.1102279, -0.01789072, 0.0001733005, -0.122259, 0.1602501],
    [-0.1402666, -0.03601448, 0.06831065, 0.1116154, -0.07647029, -0.07855148, 0.1015648, 0.1614856, -0.1324844, 0.1432104, 0.06338903, 0.01557063, -0.03310633, -0.04103804, 0.01595666, -0.1536991, 0.05412097, -0.02689971, 0.0419703, -0.1108915, 0.1332552, 0.1337105, -0.02132306, -0.08299948, 0.1006305, 0.07295435, 0.04722423, -0.1084162, -0.1291835, -0.0944346, -0.1590233, -0.126782, 0.04008387, 0.06492725, -0.1388494, 0.1562799, 0.1320183, -0.00197199, 0.01602936, -0.1420112, 0.02872734, 0.0296901, -0.05057527, -0.1600541, -0.02011603, 0.02946268, -0.02170393, -0.05710332, -0.1598924, 0.04850686, -0.1640724, -0.06646439, -0.08694704, 0.07510672, 0.090618, 0.1008881, 0.1507944, -0.04927674, -0.138914, -0.1689289, -0.1215451, -0.09669013, 0.05247431, 0.01657608, -0.1713269, -0.02676968, 0.1464428, 0.09670563, -0.1479112, -0.1316343, 0.04399923, -0.06935006, 0.1167127, 0.07938655, -0.1628229, -0.1234336, -0.1461585, 0.07643547, -0.1237658, -0.1686227, -0.1109926, 0.09996195, -0.06174162, -0.1043277, -0.1351695, -0.06680234, -0.03343965, -0.1029978, 0.08053073, -0.07749893, 0.01203439, 0.023102, 0.1131221, 0.07967551, -0.1583163, -0.0226281, 0.09841076, 0.1203398, -0.1708483, 0.1192855, 0.1468244, -0.06794742],
    [0.1593785, 0.113881, 0.02602172, -0.03723934, -0.07732351, 0.09660623, 0.03865187, 0.01990865, -0.1023792, -0.06709231, -0.08286246, -0.1568372, 0.1001502, -0.1054282, 0.07994778, 0.021989, -0.07307136, 0.1376484, -0.08177622, -0.1095606, -0.07847276, -0.06600212, 0.1213164, 0.03255033, 0.1228615, -0.0535553, -0.09762894, 0.07417606, 0.1102704, 0.04422674, -0.1656466, 0.02801201, 0.1455328, -0.1397222, -0.1687485, -0.01910654, 0.1032537, -0.05406142, -0.08000396, 0.04142681, 0.1137934, -0.05573085, -0.05356859, -0.1528467, -0.03156157, -0.1007046, -0.1602594, -0.1211729, -0.06346637, 0.02528249, -0.03324899, 0.09875799, -0.04825992, 0.04810841, -0.02863702, -0.04930216, 0.107449, -0.03742243, 0.09409712, -0.1490187, -0.1452162, -0.06479254, -0.08755787, 0.1258742, 0.06608415, -0.1368623, -0.09942009, 0.0181569, 0.06184856, 0.1665876, -0.06126064, -0.08345927, -0.07378919, 0.1333201, 0.09602667, -0.1533402, 0.06152439, -0.03495367, 0.06635651, 0.1412579, 0.04882035, -0.06422706, 0.1316307, 0.05945478, 0.02457926, -0.1267331, 0.1576527, 0.1180853, -0.1317168, -0.1371949, 0.06884842, -0.03408892, -0.05763008, -0.01289845, -0.04082815, -0.02100283, 0.158812, 0.07292552, -0.1158642, 0.01365414, -0.1600612, -0.05491991],
    [0.1480501, -0.1575398, 0.1688405, -0.020814, 0.1231818, 0.160809, -0.08140917, -0.06257218, -0.1008894, 0.06582332, 0.157748, -0.03923547, -0.006655186, -0.1640039, -0.1438956, 0.1075837, 0.01803915, -0.1498388, -0.1648088, -0.04021692, -0.08679415, 0.06343234, 0.1631622, -0.1195135, -0.1139128, 0.03994779, 0.14687, 0.01046133, 0.08894329, -0.0005637854, 0.1569095, 0.1428208, -0.0855182, 0.06211388, -0.07154961, 0.007611811, -0.02713871, 0.05715636, -0.01696528, -0.07620181, 0.049693, 0.06722061, -0.1337578, -0.05691142, -0.1223758, 0.144346, 0.02197127, 0.01164071, -0.0135982, 0.0210958, -0.1695215, 0.03821044, 0.1051817, -0.08491556, -0.124541, -0.06488377, -0.1171457, 0.07618196, -0.04203759, 0.02561614, 0.01759869, 0.1678442, -0.112229, 0.07353815, 0.03646238, -0.03143813, -0.07929923, -0.1110218, -0.1464566, 0.03794953, -0.01703027, 0.1419799, -0.08834718, 0.05996335, -0.07504827, 0.04580802, 0.05932517, -0.07126017, -0.09150539, -0.05858724, 0.0656433, -0.0004184246, 0.07918313, 0.06369909, 0.1176112, -0.02287057, -0.1248873, -0.1102696, 0.1016344, -0.05888629, 0.1353981, -0.150421, -0.02082361, -0.06153345, 0.00428766, -0.1442977, -0.1300752, -0.1580173, -0.1502354, 0.0282478, 0.08191342, 0.1254617],
    [-0.1683268, -0.1172689, 0.07829802, -0.04374358, -0.06351361, -0.1533739, -0.1144159, 0.05839786, 0.06136882, -0.04968938, -0.08573749, 0.07545648, -0.1229238, -0.1396159, -0.06199979, -0.07355012, 0.1547659, 0.02951567, -0.1683824, -0.008184299, -0.09137444, -0.09716215, 0.04537734, 0.1067518, -0.1317455, 0.06936438, -0.1366027, -0.1522336, 0.131401, 0.1389424, 0.01599909, 0.07479278, -0.09180053, -0.1572544, -0.1646793, 0.1509642, -0.04637198, 0.1163843, 0.03064935, 0.0159073, -0.03352928, -0.1232089, -0.08674799, 0.04682831, -0.1240993, -0.1498197, -0.1030601, -0.1290357, -0.1569493, 0.0008366853, 0.1602638, 0.1567792, -0.109418, 0.1384925, -0.1462769, 0.02350716, 0.05946893, 0.137149, -0.0314573, 0.1154146, -0.07134055, -0.0007999241, -0.007632017, -0.07195789, -0.1544772, 0.1165289, -0.1064367, 0.03085478, 0.08337702, -0.02958865, -0.1147969, -0.1610874, -0.1240392, -0.1192715, 0.06338629, -0.08087607, 0.02860223, 0.1231527, 0.110274, 0.1505657, 0.09446303, 0.136847, -0.03374697, 0.08645485, 0.01026535, -0.058893, 0.04843424, -0.1258638, -0.1267938, -0.06260011, -0.1085774, 0.1280169, -0.02342366, 0.005673543, 0.01934524, 0.00732702, 0.01136938, -0.006287679, -0.1218676, 0.04407811, -0.04761372, 0.1004065],
    [0.00265941, 0.05119389, 0.02770448, -0.1109631, 0.1227679, 0.1082727, -0.04255705, -0.0722457, 0.1065187, -0.02143845, -0.108383, -0.1218395, -0.01839417, -0.01297167, 0.1138372, 0.02823807, -0.1574208, 0.002914056, 0.1100522, -0.1655529, 0.1330636, 0.1124678, -0.009211615, 0.1536832, -0.07673128, 0.03436385, 0.05573185, -0.1298981, -0.1481816, -0.07162926, 0.1669652, -0.1546639, -0.06839335, -0.14697, -0.1053612, 0.005107403, -0.08636372, 0.05295307, 0.05103524, -0.1246557, 0.003994495, 0.1681594, 0.1035136, -0.1078064, 0.1058128, 0.01246381, -0.07451394, -0.06408854, 0.04184367, -0.08683787, -0.1008025, 0.1263362, 0.09276901, -0.03524169, -0.05254405, -0.005136758, -0.006951913, 0.08304144, -0.02831233, -0.1636953, -0.05151656, -0.03766744, 0.1241152, -0.05467417, 0.09907696, 0.03910746, 0.0542328, 0.1024563, -0.01050463, -0.1531537, -0.06970051, 0.1298011, -0.09916683, 0.04287361, -0.1205911, -0.1289687, -0.05480219, 0.1178671, -0.1415681, 0.1340244, 0.08124808, 0.0212906, -0.1483239, -0.006030083, -0.02688037, 0.1529648, -0.0004619807, 0.1189815, -0.1181452, -0.06241702, -0.02359703, 0.083196, 0.001944184, -0.02182338, -0.02100544, 0.004248336, -0.03275302, 0.1260582, 0.09881086, 0.1534535, 0.09154539, -0.1283775],
    [0.1068476, 0.03553098, 0.05788937, -0.1142092, -0.0376755, 0.1476971, -0.1051427, -0.1503641, -0.05707474, -0.1015244, -0.01745853, 0.161001, 0.09832895, -0.1615823, 0.1579177, 0.1697731, -0.06215116, -0.04641663, 0.05694015, 0.1565771, -0.06140183, 0.0415913, 0.114997, -0.09273828, 0.1121818, 0.1289486, -0.1271703, -0.02463715, 0.1063396, -0.1351757, 0.1463852, -0.07410988, 0.1494849, 0.142329, -0.08913866, -0.08631297, 0.1014421, 0.06733803, 0.01053469, 0.1534363, -0.0562373, 0.04488852, 0.1550894, -0.05445268, 0.0851232, -0.008145332, -0.06528787, -0.06041953, 0.1559275, 0.1190299, 0.09592511, 0.06142, -0.09955458, -0.04580195, 0.1197051, -0.1380206, 0.08873533, -0.1268808, 0.1183471, -0.04195365, 0.03743502, -0.1293238, 0.170173, 0.1614021, 0.09780304, 0.08848301, -0.01192832, -0.07920961, 0.04622606, -0.01382269, -0.01492991, -0.02231309, -0.01000522, -0.1025684, -0.02306937, 0.0768509, 0.1587246, -0.1010472, -0.03333506, 0.080902, -0.08567338, -0.1387283, 0.06349444, -0.04388531, -0.00786075, 0.1273768, 0.1347675, -0.1633507, -0.1312087, -0.1704843, -0.06193044, 0.07072479, 0.1024491, 0.01979321, -0.09488384, -0.01570499, 0.02128561, 0.1585956, -0.1683213, -0.1106907, 0.009707272, 0.05960631],
    [-0.03439653, -0.01907207, -0.07675868, -0.09435655, 0.02695499, -0.09270911, 0.1489245, 0.08083944, -0.145952, -0.1205757, -0.1450989, 0.009239465, -0.1172699, 0.1331517, 0.1532979, 0.1083312, 0.1666877, -0.03992379, 0.0382252, -0.04557221, 0.01257145, 0.03917374, -0.002478346, -0.06979954, 0.02692965, 0.1320777, 0.1613881, 0.166169, -0.02246417, -0.03246847, 0.09951876, 0.07756358, 0.1703935, -0.001473472, 0.1274436, -0.1342997, -0.1276894, -0.1638267, -0.1455913, -0.02708866, 0.1198913, -0.05771251, -0.09032942, -0.03222813, 0.009552091, -0.003389925, 0.05129533, 0.08036582, -0.09161596, 0.02304529, 0.1686679, -0.1415154, -0.05942447, 0.03805907, -0.05844478, 0.08552833, 0.02264376, 0.1194315, -0.1671317, -0.1023589, 0.03986102, 0.1605239, -0.133138, 0.04501449, -0.1387731, -0.06874785, -0.1189575, 0.02027377, 0.1148203, -0.08252285, 0.06071476, 0.1266256, 0.04177558, -0.009752125, 0.06642386, 0.1523321, 0.03801115, -0.009347647, 0.0492334, 0.04862417, -0.04475181, 0.1399949, -0.07605658, -0.1020558, -0.03435028, 0.167735, -0.01559287, 0.1176782, -0.1570926, -0.03787896, 0.08016646, 0.06260307, -0.02135274, -0.06564938, -0.04743389, 0.1590674, 0.1461066, -0.0926574, 0.04849198, -0.1502183, -0.1119996, -0.04308651],
    [-0.1558181, 0.05816774, 0.1010378, -0.102787, -0.05065316, 0.1229211, -0.1108465, 0.157123, -0.1626516, -0.001405597, 0.1341249, 0.09458081, -0.05366946, -0.03680952, 0.1002058, 0.1024619, 0.05084445, -0.150112, 0.01846872, 0.1242479, -0.08526748, 0.1642345, -0.08723216, 0.1496377, 0.1126886, 0.09336239, 0.07513403, -0.1480239, -0.03403324, -0.03039314, -0.007596686, -0.1610446, -0.1108301, 0.005902633, 0.06545798, 0.03986761, -0.1338587, -0.09297784, 0.01961629, 0.1318594, -0.1196126, -0.1661088, -0.1401988, 0.006705761, -0.1554171, 0.03970835, 0.1556748, -0.05682348, -0.0483859, 0.149859, -0.002583593, -0.04454558, 0.04916042, 0.05169305, -0.1665205, 0.1151052, -0.1481324, 0.1054984, 0.1016789, 0.1183113, -0.1701746, -0.0749824, -0.03451826, -0.09733593, 0.08107345, 0.1634845, 0.07325791, 0.1520639, 0.1016596, 0.1581769, -0.04147951, 0.06630405, -0.1406746, -0.1598118, -0.06012341, -0.08732345, 0.0779824, 0.0183914, 0.030201, -0.1111724, 0.05742422, -0.1487021, 0.04555406, -0.1574582, -0.0544353, -0.06968121, 0.1605471, -0.125827, -0.0775854, 0.08923788, 0.02829045, 0.03827991, -0.1397299, -0.03174233, 0.1707681, 0.1049213, -0.0009405762, 0.1492418, -0.03879683, 0.06502968, -0.05552461, -0.05325694],
    [-0.1135093, -0.04014826, -0.09454791, 0.02739364, 0.05264056, -0.04391855, -0.02546342, 0.01356901, -0.08681046, 0.1379711, 0.1264939, -0.1232434, -0.1040353, -0.1418994, 0.1419613, -0.1250787, -0.08999158, -0.08210252, -0.0686101, 0.02857585, 0.1239288, 0.050949, -0.01341331, 0.05773228, 0.09041294, -0.08994736, 0.03442621, 0.04162078, 0.04133089, 0.0924379, -0.07327028, 0.1299894, -0.1394826, 0.09224818, -0.1706232, -0.08666267, 0.1454664, -0.02869812, 0.1544082, 0.1329407, -0.07066642, 0.149517, 0.1462833, 0.1411215, -0.1357213, 0.06660957, 0.09408717, -0.05219011, -0.1322681, -0.009114459, -0.08199899, -0.04527134, 0.07634278, 0.1114897, 0.03390938, 0.1194649, 0.1421356, -0.1525647, -0.05409949, 0.1151833, -0.08373792, -0.09664647, 0.03583322, 0.1586141, 0.09094388, 0.05741612, -0.1301979, -0.08279254, 0.1356074, -0.1649021, -0.03801201, -0.09534274, 0.01100264, 0.0409503, -0.04592286, -0.1312681, 0.0121717, 0.1661569, 0.07048915, 0.02796027, 0.06147721, 0.03195602, 0.001626238, 0.05921983, 0.0183941, -0.07579498, -0.1410436, -0.03497992, 0.1397934, 0.109325, 0.1434172, 0.01448005, -0.06815268, -0.13776, 0.09731688, -0.02022791, 0.1004338, 0.0516769, 0.03673056, 0.06871422, 0.002908707, 0.03245285],
    [-0.02693565, 0.01254971, 0.02237409, 0.142231, -0.1137686, 0.08705044, -0.08495305, 0.1290375, 0.007840469, 0.06264956, 0.006672606, 0.09124371, 0.0322074, -0.05019235, 0.01800995, 0.1248745, 0.0756516, -0.01562124, 0.02556753, 0.1400754, -0.07530403, 0.02459176, -0.02906464, 0.09551258, -0.1251247, -0.1082246, -0.01067154, 0.1517602, 0.1296647, 0.1546636, 0.09040807, -0.05355513, 0.03719088, -0.02845089, 0.002195895, 0.02077565, -0.03766716, 0.0001822263, -0.1169371, 0.002891406, 0.1210545, 0.1412657, 0.1122883, 0.07844068, 0.1425056, -0.1673089, 0.1252195, 0.04727919, 0.1552482, 0.03852953, -0.1528177, -0.0282234, -0.09997116, 0.1317329, -0.07285653, 0.09168981, 0.1071894, -0.0292501, -0.03992243, 0.0303269, 0.03757192, -0.02953194, 0.03171854, 0.09188554, -0.05766455, 0.04836555, 0.06045242, -0.0006833076, 0.160159, -0.0805221, -0.0123848, 0.05454151, -0.01571451, -0.1355837, 0.08507577, 0.1202263, -0.03333989, 0.004232511, 0.07806189, 0.02841042, -0.1206109, -0.0151893, 0.1582253, 0.07317858, 0.003917098, -0.02653126, 0.09300952, -0.149256, -0.1596225, 0.0583674, 0.0949325, 0.1132073, 0.08880758, -0.04334182, -0.0407135, -0.104405, 0.001853332, 0.001681849, 0.06444591, -0.0759984, -0.1280617, -0.0973015],
    [0.1428965, 0.1072362, -0.1282512, 0.08278863, 0.01978892, -0.03684007, -0.1647616, 0.1090571, -0.1014608, -0.09553103, -0.1480708, -0.03246328, 0.00636889, 0.09215565, 0.01717129, -0.08302729, 0.08095172, 0.04861101, 0.09721784, -0.05339706, 0.04577424, -0.162248, 0.1566128, 0.1090502, 0.07733171, -0.008682236, 0.08564045, -0.1381065, 0.03093848, 0.06445, -0.08750426, -0.08374135, 0.04111271, -0.08438949, -0.05035312, 0.0854115, -0.1511035, -0.07786454, -0.1173207, -0.01458272, -0.01461907, 0.06367783, -0.01851358, 0.02148241, 0.130975, 0.02874865, -0.134847, -0.1122107, -0.1342999, 0.083345, -0.1338081, -0.1661214, -0.05769873, 0.04314537, -0.1180166, -0.04608274, 0.0881671, -0.1701369, -0.1280135, -0.08545496, -0.0470338, -0.1009393, 0.04326104, 0.1167515, -0.1684948, 0.1107276, -0.1236012, 0.07934608, -0.1518328, 0.01667318, 0.06481849, 0.07961271, -0.05288817, 0.07798424, 0.1472794, 0.0879533, 0.1708589, -0.08151837, -0.09839417, 0.01486979, 0.06086515, -0.1362653, 0.06852564, 0.0541484, 0.1535692, -0.1228635, 0.008356676, 0.09374301, -0.1014556, 0.04343081, -0.08876707, -0.1367316, -0.1022919, 0.02565196, -0.1401133, 0.04568458, 0.1384772, -0.07553059, -0.06919146, 0.08723901, -0.002241477, 0.05402186],
    [0.01741454, 0.04131204, -0.0890925, -0.008061215, 0.1668233, 0.03774582, 0.05148771, -0.06562795, -0.1047374, -0.1576108, 0.1214111, 0.06393301, -0.001109123, 0.166884, -0.1045751, -0.02555951, 0.09561019, 0.005578801, -0.003088653, 0.01384497, 0.0827713, 0.06472187, -0.1406925, -0.1218205, -0.1480251, 0.09473293, -0.05742719, -0.1407077, 0.1019587, 0.1381416, -0.1515885, 0.0008742511, 0.1518062, 0.04344925, 0.09368324, 0.09320227, -0.1322036, -0.007052377, 0.1494935, -0.130918, 0.02525637, 0.05746891, 0.119409, 0.06514351, 0.002117097, -0.1610333, 0.06768195, -0.1427334, -0.09659602, -0.0205301, 0.124243, 0.115557, -0.1491332, 0.0866584, -0.04070497, -0.02423121, -0.1079257, -0.1489998, 0.07056765, 0.1634661, 0.1668525, -0.02771057, -0.07756451, -0.02002354, 0.0013787, -0.08373947, -0.06313264, 0.05081027, -0.1216903, -0.006824955, -0.0885676, 0.07640861, 0.008259535, -0.04418314, 0.1591859, 0.05637082, -0.1180848, -0.05308104, -0.1105593, 0.1110445, 0.1452539, 0.08230954, -0.1360483, 0.05856215, -0.03350843, -0.07317138, -0.01733312, -0.1331293, 0.1612823, -0.04332207, -0.1673906, 0.08011678, -0.07464454, -0.0001041293, 0.01630703, -0.03554623, -0.1632309, 0.167606, -0.1246151, 0.1029829, 0.04693679, 0.03072511],
    [0.0447035, -0.06988512, -0.125645, 0.1473018, 0.1025362, 0.08658256, -0.1497314, -0.1451986, 0.1451691, -0.08111034, 0.0048289, 0.09227054, -0.07416974, 0.1685862, 0.08729446, 0.1618271, -0.05525054, -0.133324, -0.08267392, 0.04240669, -0.1663486, -0.04456197, 0.07514904, -0.04190038, 0.1335577, -0.05841857, 0.02359147, -0.04329909, 0.1485943, -0.1410993, -0.1261089, -0.003600821, -0.01090391, -0.03590286, -0.1612125, 0.1100584, -0.1343741, 0.02923448, 0.1297839, -0.01380748, 0.0659381, 0.1373401, -0.1403201, 0.1185982, 0.07651381, 0.08762352, -0.1380096, -0.06473756, 0.1419261, 0.01419906, 0.127512, -0.06987838, 0.03175505, -0.1570977, -0.06923066, -0.1602817, -0.01765512, 0.1017817, 0.03615379, -0.09249146, -0.1091435, -0.1134125, -0.1082879, 0.07912801, 0.006996036, -0.03223509, -0.04668625, -0.05098064, -0.04251829, 0.1572862, -0.06457379, 0.0796942, -0.006715089, 0.152727, 0.00397867, -0.1251754, 0.150615, 0.04294076, -0.03987178, 0.03140676, 0.0669352, -0.1218534, -0.03010786, -0.06009819, 0.1036593, 0.1569129, -0.01698925, -0.1247868, -0.08327134, 0.06542642, -0.07724734, -0.1271244, -0.08470057, 0.1184263, -0.02516657, -0.12894, -0.04394373, 0.02667074, 0.1161719, -0.01136325, -0.06070367, -0.01162481],
    [-0.09646817, 0.1683433, -0.02067445, -0.03900012, -0.02497812, 0.07341565, -0.005916253, -0.03170198, -0.09894611, 0.1290475, -0.05800176, -0.1194691, 0.022609, 0.09982239, 0.100005, 0.001726821, -0.1097773, 0.1033194, 0.105763, -0.0670377, -0.1453285, 0.158729, -0.06436297, 0.1386136, 0.1499308, -0.02205795, 0.1293213, 0.09652544, -0.03007147, 0.01939538, 0.02122693, 0.1590715, -0.02095768, -0.06226679, 0.09249417, -0.01201811, 0.1621036, 0.1114808, -0.1309043, -0.170533, -0.1403856, -0.004614651, -0.0897732, -0.03413579, 0.04108751, 0.1667788, -0.02781615, -0.08706798, -0.1700737, 0.04805128, -0.07640241, 0.0008648038, 0.1274252, 0.1074155, -0.06127598, -0.135707, 0.11149, 0.04728536, -0.09918384, 0.1188769, -0.01575945, -0.1040433, -0.1073398, 0.1545668, -0.168769, -0.1429407, 0.09011982, -0.1408668, -0.02031961, 0.02436782, -0.0347368, 0.1141313, -0.06096457, 0.001162931, 0.08596481, -0.158397, 0.05967252, -0.00447914, 0.1329917, 0.1325513, -0.1487561, -0.1311333, -0.1019984, -0.07569022, 0.1657982, 0.08954635, 0.03821981, -0.1639987, -0.04334055, 0.0117943, 0.163479, 0.1643111, 0.1161464, -0.01642437, 0.03346811, 0.0805881, 0.1638384, 0.1311302, -0.004105181, 0.1119817, 0.01405816, -0.1186547],
    [0.04898133, -0.1472555, 0.003623262, -0.1364092, -0.0266363, -0.02787375, 0.1525447, -0.1077292, 0.134301, 0.04352922, -0.06249261, 0.1213934, 0.06841058, -0.1519897, -0.1103566, 0.06933123, 0.1014455, -0.1472927, -0.1069226, -0.1689314, -0.007383332, 5.480647E-05, -0.0843861, 0.004985675, -0.06236014, -0.004749745, 0.01409169, 0.1229295, 0.149368, -0.03601474, 0.08009679, -0.01219074, 0.0991138, 0.1108792, -0.04636425, 0.02833845, -0.02178285, -0.1319209, 0.06886878, -0.1697822, 0.07602654, 0.1515406, 0.1266645, 0.1009387, -0.04705457, 0.1472541, -0.08705474, 0.002390936, -0.01654929, -0.1344215, -0.001127556, 0.1349212, 0.1108988, -0.09637227, 0.1211768, 0.1702664, 0.009597033, -0.02955374, 0.07006321, -0.1451413, -0.03646147, -0.1562064, -0.1636253, -0.05182355, -0.04506752, 0.08798973, 0.006267324, 0.09258105, 0.1446878, 0.1600064, 0.1056267, 0.02580248, -0.1074083, -0.04595369, 0.08913718, -0.1714469, 0.03530183, -0.09966027, 0.05020226, 0.1178807, -0.01698144, -0.06394719, -0.08846207, 0.02202156, -0.1556702, 0.165232, 0.131307, -0.1143647, -0.1158165, 0.09186272, 0.004376397, -0.07093449, -0.07495002, 0.07033348, -0.105791, 0.05784398, -0.01321627, 0.004036903, -0.04419193, -0.05134876, 0.1536265, 0.08121631],
    [-0.06472999, -0.160996, -0.05167018, -0.07273644, 0.1110795, -0.1712131, -0.05910685, -0.1322659, 0.09915988, 0.06937195, 0.1166289, -0.03196788, 0.1118706, -0.09744062, 0.1342889, 0.1471566, -0.1511713, 0.01879905, 0.08712249, 0.1027762, -0.1651966, 0.04611685, -0.07583775, -0.1462955, -0.04689236, -0.02235676, 0.1542017, 0.1589548, -0.05448924, -0.1321474, 0.139098, 0.1683788, -0.1573188, -0.1500007, 0.1402757, 0.1642801, -0.05731773, -0.10183, -0.1025677, -0.01502645, 0.09969102, -0.09711202, 0.1220269, 0.09338672, 0.08808598, 0.1656091, 0.07760181, -0.0921846, -0.1646294, 0.1234065, 0.1274654, -0.04569241, 0.01772831, -0.04183778, 0.07788362, 0.1372923, 0.1027319, -0.03350966, 0.1402972, -0.0909905, -0.06631483, 0.0671284, 0.116251, -0.09798487, -0.05540641, 0.006567284, 0.1360816, 0.1336496, -0.0004244, -0.1599058, -0.1539125, -0.006972194, 0.1315899, -0.08629189, 0.02906047, -0.08994134, 0.06447728, 0.0305656, 0.05770095, 0.007365704, 0.0422312, -0.1041654, -0.03236082, 0.1610517, -0.1092441, 0.04716682, -0.0394379, -0.006001502, -0.06638201, -0.08754675, 0.09501755, -0.08796446, -0.01070511, -0.04643981, -0.06455764, -0.05185078, -0.08213572, 0.05804131, -0.009078979, -0.1597334, -0.08825178, 0.06529684],
    [-0.1093065, 0.155605, -0.008254737, -0.07172114, 0.01467726, 0.1298106, -0.007016808, -0.05274771, -0.03260157, -0.05974552, -0.01126966, 0.1271502, 0.1681865, 0.04254204, -0.07183543, -0.1633044, -0.02805939, -0.0938329, -0.1448292, -0.06504516, -0.1197061, 0.01369201, 0.06221107, -0.1198139, -0.04383563, -0.08740507, 0.1392363, -0.07724504, 0.1393608, -0.04306905, 0.07913594, -0.01360045, -0.1595207, -0.1227837, 0.08616594, 0.03491786, 0.02759257, -0.1122748, -0.1095942, -0.08399568, -0.0278489, -0.1271287, 0.09442954, -0.05056161, -0.152645, 0.1316857, 0.0805558, 0.1555634, -0.07090959, 0.001102254, -0.1302843, 0.05344034, -0.09358887, -0.04815721, -0.1583258, 0.07986728, -0.148076, 0.1221082, -0.0359523, 0.0855706, -0.1675809, -0.1631048, -0.1483103, -0.107179, 0.07749309, 0.06002771, -0.05003664, 0.01238468, 0.09946273, 0.1305599, -0.07229464, 0.01321107, -0.07168336, -0.006065577, 0.0636275, 0.05519895, 0.007523209, -0.007860824, -0.1371389, -0.04454537, 0.07438618, 0.1440902, 0.113291, 0.08737619, 0.1096698, -0.1004288, -0.1032458, -0.1657723, -0.08414881, -0.1343113, -0.1615058, -0.02150424, 0.02312669, -0.06416737, -0.04228714, -0.1463455, 0.1144736, 0.08959411, 0.05011602, -0.1539735, 0.06779795, -0.07005583],
    [0.05043998, 0.06043872, -0.007347181, -0.0979933, -0.1538273, -0.1085662, -0.1118919, -0.01338489, -0.1354184, -0.05013281, -0.02012461, 0.05509154, 0.1337574, 0.001376122, -0.164986, -0.1587101, -0.0174899, -0.005036086, -0.1072712, 0.1580593, -0.007835433, -0.07028212, 0.02639805, -0.01318704, 0.161192, -0.1638712, 0.05974505, 0.0874639, 0.05018092, 0.08645866, 0.1071892, -0.1333263, 0.127227, -0.128956, -0.01619087, -0.02222751, -0.1387069, -0.09813513, 0.1666321, -0.09491508, 0.06434701, 0.02992374, -0.08652999, -0.107653, 0.1134697, 0.0845914, -0.02477925, -0.121879, 0.005621448, 0.1095051, -0.03633688, 0.08673395, 0.1463176, 0.003272071, 0.1697906, -0.1151303, 0.09097593, -0.006442979, -0.1533265, 0.04662056, 0.06403462, 0.1242324, -0.1078784, 0.08674848, 0.07043325, -0.09604149, 0.08362636, 0.02376406, 0.02483812, 0.1441195, 0.01442771, -0.1423651, -0.1708008, 0.04913728, -0.07690515, 0.1661711, 0.1433894, 0.16724, 0.1705068, -0.1068918, -0.01432014, 0.1561943, -0.03337477, 0.02746622, -0.1034513, -0.1423995, -0.03851591, -0.09370877, 0.1489135, 0.03275032, -0.08596383, -0.0761178, 0.0715284, 0.1692207, 0.1180536, -0.08442374, -0.1437614, -0.004825354, -0.1219255, -0.01266988, -0.06021967, -0.1644724],
    [-0.0377603, 0.03647329, 0.1519807, 0.1640205, -0.03364831, -0.04734259, 0.07855205, 0.1262173, 0.1638096, -0.1441574, -0.134117, -0.09918, 0.1694501, -0.1336557, -0.06918749, 0.149795, 0.1599837, 0.03406712, -0.07225232, 0.1561487, 0.1324008, -0.09234537, -0.1176976, 0.01040033, 0.008703172, 0.05420847, -0.03771998, -0.04319961, 0.1498023, 0.1123355, 0.1040262, -0.03560048, -0.07620713, -0.06997487, 0.01960452, -0.1470564, 0.0217142, 0.1064013, -0.01178975, 0.1283035, 0.02137944, 0.05588027, -0.1370416, 0.0009786785, -0.1286546, -0.1018562, -0.02968724, -0.05110653, 0.08299766, -0.1003149, 0.0517853, 0.01038466, -0.170288, 0.07415672, -0.006438106, -0.1594388, -0.0569214, -0.01528567, 0.1330436, 0.1455711, -0.1318633, -0.1701634, 0.02090926, -0.1223821, 0.1422689, -0.06330302, -0.1046113, -0.07242131, 0.1036481, -0.1369435, 0.15777, -0.06891975, -0.1583786, -0.1041072, -0.02492075, -0.04394181, -0.001190901, 0.1663243, -0.1227451, 0.1035028, -0.09473702, -0.003640518, 0.04835161, 0.1079705, 0.1036438, -0.171019, 0.09740295, -0.01409602, -0.0901906, -0.1205366, -0.1207609, 0.1590614, 0.1073689, 0.1025275, -0.1170529, 0.0768262, 0.1503229, -0.156311, -0.08829717, -0.04162405, 0.005830958, -0.01011169],
    [-0.01097448, -0.1048677, 0.01508418, -0.09364093, 0.1380682, 0.08434886, 0.0601305, -0.1239574, 0.105529, 0.08893199, -0.0221228, 0.0667479, -0.07505511, 0.1105371, -0.03821944, 0.08026062, -0.05614325, -0.1593746, 0.02878067, -0.1630552, 0.03696693, 0.02130085, -0.02621381, -0.1214648, 0.08599792, -0.005196452, 0.09337248, 0.03934991, -0.150276, -0.0515671, 0.05504955, -0.01563866, 0.09099311, 0.1461228, 0.06402554, -0.08313774, -0.006758064, -0.0807626, -0.07944645, -0.1655698, -0.1237986, -0.09267212, 0.03561839, -0.1073456, 0.1103064, -0.1659529, -0.1047884, -0.02669229, 0.04002814, 0.1529005, -0.07453017, 0.1501423, -0.1129044, -0.03690206, 0.03009845, 0.1101301, -0.01947114, 0.1201503, -0.07232232, -0.05828479, 0.01150513, -0.1646908, -0.009848207, -0.04192854, -0.1323316, 0.05304442, -0.1636941, -0.04863082, 0.055982, -0.07410939, 0.1076083, -0.0787093, -0.04102699, 0.0255553, -0.08753599, -0.06780235, 0.1573135, 0.0119753, -0.1517302, -0.1189216, 0.09057269, -0.1667257, -0.1496505, 0.1047577, 0.06346475, -0.01587258, -0.09275736, -0.08155273, 0.06692237, -0.1118809, 0.07835846, -0.005966544, 0.1425416, 0.07019446, -0.04166792, -0.01136006, 0.02009739, -0.05687642, -0.03678781, 0.1138624, 0.01290123, -0.0861872],
    [-0.03193112, -0.03497282, -0.1194457, 0.02099963, 0.02421735, 0.02404925, 0.1414696, -0.1163857, 0.08639116, -0.002779245, 0.08856753, -0.09962238, -0.07776372, -0.03918567, -0.05887362, -0.1329522, -0.07703513, 0.03195578, 0.04028241, 0.04270257, 0.008166626, 0.07022566, 0.06003062, 0.1534671, -0.1394282, 0.07394843, 0.1414808, -0.1375746, 0.06269466, -0.1499728, 0.115144, -0.007545128, 0.1227752, -0.03960322, 0.1257275, 0.1633563, 0.09981651, -0.0934384, -0.04776979, -0.07890729, 0.02816068, 0.09589379, -0.1300242, 0.01213816, -0.058429, 0.01046877, -0.09775288, -0.003982186, -0.101394, -0.1398185, 0.1260966, 0.1250083, -0.06461477, -0.008363664, 0.05254107, 0.05324919, 0.0965597, -0.1420041, 0.0652609, 0.1294386, 0.1070634, 0.1519742, -0.04999523, -0.06421737, 0.1645253, 0.009473711, 0.05422912, -0.1660585, 0.08405246, 0.07857524, 0.08369459, 0.05587357, -0.03072377, -0.02800329, 0.08049627, 0.01728295, 0.09783927, -0.07202485, -0.1333892, -0.02709818, 0.1166326, -0.1474241, -0.1647736, 0.06242893, -0.0661047, 0.1620689, 0.1306641, -0.1342315, 0.1219049, 0.1707908, 0.06225703, 0.1415144, 0.09506948, 0.05574178, 0.1677954, -0.08029748, 0.147277, -0.01467644, -0.02869505, 0.1033441, 0.05544358, -0.07470849],
    [0.08481527, -0.1381065, -0.1471758, 0.1190196, 0.1395832, -0.1127784, -0.08381934, -0.07938845, 0.1245988, 0.1091242, 0.07902174, 0.1661458, 0.1535887, -0.084314, -0.112245, -0.143099, -0.01528011, -0.05526946, -0.1079543, -0.1006524, 0.02045827, 0.1013796, -0.09886806, 0.1623854, -0.01003915, -0.1712828, -0.1155207, -0.01971063, -0.1418928, -0.02731596, 0.06504665, 0.06657535, -0.01260749, -0.09843092, -0.08825178, 0.1287913, 0.1481744, 0.02658442, -0.1069451, 0.04515896, 0.1065874, -0.09245823, -0.1142724, -0.005959019, 0.08660778, -0.0353087, -0.08222421, -0.09989031, -0.01865162, 0.1207458, 0.1507935, 0.1400694, -0.1375021, 0.07467379, 0.05457049, 0.1224964, -0.04616088, 0.04408931, -0.1692599, -0.09037734, 0.1217826, 0.0406653, 0.06906573, 0.09592928, 0.09385414, 0.1446569, -0.04836084, 0.00109379, -0.1621748, -0.04229982, 0.1124943, -0.1502969, -0.02502351, 0.06247202, -0.07094476, -0.02337083, 0.1532021, 0.1431468, 0.1215119, -0.06605248, -0.01851222, -0.06387772, 0.1291717, 0.1617624, 0.121405, -0.0552579, 0.1207389, 0.1248956, 0.1605543, 0.0266231, 0.1094888, 0.118969, 0.04593886, 0.1505734, 0.09820856, -0.08988617, -0.04349789, 0.01737279, 0.02639605, 0.01169023, -0.02750944, -0.1480182],
    [-0.1319437, 0.1491484, -0.03141457, 0.005171627, -0.1300257, 0.1507224, -0.1439501, -0.1661137, 0.01744242, -0.08471725, -0.1285831, 0.1662532, 0.1140733, 0.03896871, 0.06063838, 0.1046652, 0.166619, -0.05771525, 0.1255383, 0.1678401, 0.055409, -0.09800111, 0.06335174, 0.07781079, 0.126341, -7.349253E-05, 0.08627553, 0.1122538, -0.05027625, 0.1310696, 0.1366716, -0.09242126, 0.05040687, -0.08255977, 0.1415979, -0.1339598, -0.0528896, 0.05751229, 0.02240799, -0.08514245, 0.1608763, 0.1051167, -0.1392639, -0.1257169, 0.08226878, -0.02762181, 0.01105793, -0.07695821, -0.0139395, 0.07645088, -0.1373556, 0.1037541, 0.06788762, -0.02338044, 0.03238474, 0.05498252, -0.1515244, 0.07314142, -0.07532436, -0.03581597, 0.03710261, -0.05468926, -0.0592877, 0.07801606, -0.07831137, -0.1106561, 0.02618253, -0.1546881, 0.09399113, -0.07271485, 0.002235398, 0.1124582, 0.02280363, -0.10878, 0.03929374, 0.1057926, -0.1136886, 0.1704079, 0.01620534, 0.1657575, 0.0374278, -0.05281677, 0.08364452, 0.1686695, -0.009673938, 0.08231286, 0.1037714, 0.03192221, -0.1237542, -0.1633346, 0.02630748, -0.1007167, 0.1673724, -0.01704237, 0.06049576, 0.1525354, -0.1281789, -0.0580931, -0.04460114, 0.1134241, -0.1298777, 0.06985942],
    [-0.07970662, -0.0448564, -0.1118064, 0.1494553, -0.06852727, 0.1444608, -0.1709416, -0.0592148, 0.1690764, -0.0778098, -0.09425418, -0.0293026, -0.1165821, -0.08734084, 0.09745312, 0.04485818, -0.07655182, 0.05637294, -0.03699216, 0.06635806, 0.05649634, 0.1364993, -0.01291239, -0.1436686, -0.03690156, -0.1585924, -0.04082268, -0.05597774, 0.03714366, -0.002738968, -0.1634887, -0.003874645, 0.04579657, -0.1132814, -0.1007999, -0.01315919, -0.08760289, -0.1547333, 0.06035801, 0.1576051, 0.07812396, -0.1266456, 0.1281961, 0.0225601, -0.1685115, 0.1603343, 0.04221791, 0.07027829, 0.05667285, -0.02731878, -0.1653707, 0.03643645, 0.1280023, 0.07420991, -0.04888498, -0.01017196, -0.02052619, 0.134202, 8.715689E-05, 0.0656251, -0.03887369, 0.006767958, 0.1058677, -0.02715081, -0.02882932, -0.0153226, -0.07423618, 0.1005484, 0.1611085, 0.01976423, 0.1580663, 0.1614361, -0.02081175, -0.06891035, 0.02192853, 0.02404545, 0.01245448, 0.1021093, -0.1031762, 0.06368224, 0.1572797, 0.06455868, -0.1285424, 0.03131317, -0.1628643, 0.083785, -0.08117111, -0.1328868, -0.04709693, 0.1218499, 0.1692874, 0.04184105, -0.103956, -0.1470218, -0.08552565, 0.02203898, -0.1254767, 0.05607225, 0.152839, 0.04811903, -0.07647094, 0.1051316],
    [0.1149403, 0.003370747, -0.1243947, -0.0004406273, -0.03059709, -0.04641578, -0.1212209, 0.111759, -0.130505, -0.0773343, -0.06155721, 0.06406251, 0.02549511, -0.1424355, -0.02750207, 0.0281859, 0.1489758, -0.02888449, -0.01061054, -0.09716307, 0.1071559, 0.01717676, 0.110307, -0.05829554, -0.01377448, 0.1527207, -0.01684393, -0.03759663, -0.06455442, -0.03883833, 0.04870076, 0.06680264, -0.000395, -0.06112522, 0.01366985, -0.1584806, -0.08463723, 0.08423968, -0.01221344, 0.1411362, 0.1711053, -0.1470347, -0.07915671, 0.1638457, -0.1668924, -0.03825721, 0.03850001, 0.1197536, 0.08882691, 0.0978131, -0.05776955, 0.07954209, -0.03360763, -0.007808328, 0.1470871, -0.1165145, -0.1381405, -0.09325419, 0.0838429, -0.09618299, -0.03951131, -0.1144319, -0.09409057, -0.05779854, -0.001329258, 0.07286575, -0.07038482, 0.0001596957, 0.02986221, -0.04499792, 0.1187605, 0.1673927, 0.08266102, -0.1612392, -0.09947354, -0.1065222, -0.1491681, -0.1280253, -0.1508973, -0.02101828, 0.03434002, -0.01434201, -0.07348858, 0.09672059, 0.09845153, -0.07157664, -0.06595337, -0.1654055, 0.002891168, -0.005372271, -0.02093224, -0.1070928, -0.009776443, 0.007807016, 0.06544155, -0.03206232, -0.1361964, -0.1168005, 0.1361542, -0.04243405, 0.1405886, 0.08059129],
    [0.1325439, -0.1259037, 0.05091212, -0.01082499, -0.1443449, 0.1397061, -0.02108124, -0.05369935, 0.02724265, 0.04481308, -0.1619874, 0.1007868, 0.1218873, 0.03528439, 0.1312372, 0.1546508, -0.04665096, 0.06378917, -0.00705041, 0.09249599, -0.1693126, 0.1562996, 0.1147483, -0.1036407, 0.03659596, 0.1374195, -0.1397746, -0.05327484, 0.1658353, -0.007618561, -0.0238943, 0.02854559, 0.04422121, -0.05612661, 0.05556556, -0.1397948, 0.0485879, 0.003196999, -0.002831221, -0.1342919, -0.1367609, 0.05484482, 0.006747514, 0.1547831, -0.02356231, 0.1682019, -0.05671528, -0.168026, 0.07397043, -0.05915072, -0.1050188, 0.1053217, 0.05890107, -0.08747932, 0.02982275, -0.05795731, 0.1035681, -0.03222477, 0.1523997, 0.005102411, 0.06554095, 0.06579544, 0.1364015, -0.1627774, 0.1568968, -0.01357841, 0.1714002, 0.1615545, -0.07667351, 0.05499148, -0.1622492, -0.01882134, -0.0005767941, 0.1706181, 0.1561711, 0.005558595, 0.1300477, -0.08146732, -0.07606603, -0.04018891, -0.1081304, -0.1251611, 0.08639912, -0.03443219, 0.04165231, -0.115143, -0.06160043, 0.1631782, -0.1054504, -0.1456652, 0.04225901, -0.1257104, 0.1645374, -0.1661074, 0.02643853, -0.01146539, -0.1040225, 0.1547606, 0.06425141, 0.09376486, -0.004184753, -0.1426017],
    [-0.005068913, 0.09617101, 0.08071825, 0.162573, 0.102475, 0.08484258, 0.04668479, -0.0722454, 0.05259771, -0.03327705, -0.1149033, -0.01646294, 0.1665375, -0.1392039, -0.1133934, -0.04215609, -0.1086422, 0.1260555, -0.05469634, 0.1660204, 0.08084209, -0.0586756, 0.1459131, -0.09128015, -0.07422286, -0.1377608, -0.1121614, 0.1107856, 0.02438748, -0.1504671, 0.1144983, -0.1549436, 0.05630977, 0.01036622, -0.1262404, 0.02194825, 0.1673153, 0.08091904, -0.0241624, 0.1111884, 0.02608439, 0.03368208, 0.03160053, 0.04782611, -0.09434853, 0.09450649, -0.1153031, -0.02286947, 0.1319133, 0.1668131, -0.04110938, -0.1535562, -0.0714675, 0.1113368, 0.01594967, -0.1656553, 0.02495281, 0.06460215, -0.081048, -0.09544398, 0.1388962, -0.002460361, -0.0377253, -0.0683009, 0.08378325, 0.02351901, 0.1509423, -0.05991943, 0.06959844, -0.1000627, -0.07265, -0.1061155, -0.1343407, 0.1286332, 0.1546234, -0.1450544, -0.1038914, 0.04380632, 0.1344668, -0.114636, -0.03704353, -0.02150522, 0.1697661, 0.01937096, -0.0781313, 0.05845702, 0.1590527, 0.01816234, 0.09827979, -0.005321607, 0.1234559, -0.04510778, -0.04232541, 0.08106515, -0.1218115, 0.1259464, -0.1261385, -0.1019847, 0.06610268, 0.06556916, 0.08171253, -0.0679228],
    [0.04052015, 0.05947327, -0.02623671, 0.01150578, -0.01095408, 0.08810315, -0.03974098, -0.08734988, 0.1244962, 0.06053805, -0.08248131, 0.07457791, 0.03129628, 0.1191828, 0.1048261, 0.1510376, 0.1198346, -0.1134904, 0.1414807, -0.1495718, 0.08122981, -0.1261844, -0.1349644, 0.1323307, 0.106405, 0.1472672, 0.003770828, 0.118055, -0.1224858, -0.008341268, 0.06698877, -0.1566028, 0.01663168, 0.09926598, -0.1631922, -0.1150229, -0.1688621, 0.05815793, -0.1629962, 0.03849228, -0.1489232, -0.07440975, -0.03814355, 0.0217014, 0.0437216, 0.085869, 0.07278229, 0.07625385, -0.01407909, 0.1618382, 0.08410524, -0.06231315, 0.1285277, 0.155567, 0.0706516, 0.08193786, 0.1188305, 0.1621394, -0.07433833, 0.1474302, -0.02188715, -0.06384982, 0.06654733, 0.01881386, 0.1618726, -0.1643173, -0.1609203, -0.06195502, -0.0464969, -0.07388708, -0.03170583, -0.1374113, -0.08813153, 0.1255958, -0.01326828, -0.1086256, -0.1706512, 0.00600931, 0.05369895, -0.004123747, -0.08028628, 0.003585204, 0.1163303, 0.04787607, 0.1302558, -0.1655181, 0.07828007, 0.1598648, -0.1415676, -0.08963688, -0.006098986, 0.09297869, -0.1467771, -0.06430998, 0.04549339, -0.04267913, -0.1516207, -0.1372085, 0.1065728, -0.01981717, 0.05905215, 0.03107348],
    [0.1576841, 0.1088104, 0.03081919, 0.08349036, -0.1468, -0.0133546, 0.04309282, 0.0499871, -0.06770401, 0.1282381, -0.04256445, 0.1529342, 0.003574535, -0.04650217, 0.1660882, 0.1330292, 0.1684926, -0.01909275, 0.02929774, 0.03953227, 0.1576766, -0.161603, 0.01853815, -0.1515041, -0.06472194, -0.007750094, 0.0919407, -0.1182569, 0.061195, 0.06005302, -0.1131468, 0.09682892, -0.08881111, 0.1550793, 0.1029605, -0.0378218, -0.08948044, -0.02281693, 0.07380974, -0.1403516, -0.05181206, 0.1581905, 0.141885, 0.1535337, -0.07810101, -0.1526594, -0.1310574, 0.06318925, -0.06763969, -0.05041172, -0.1509152, 0.05558923, 0.04271716, 0.07798436, -0.0735312, -0.03903933, -0.01500629, -0.07895631, -0.05701692, -0.06770152, 0.1561963, -0.1029545, 0.1022692, -0.09344421, -0.01843576, -0.1169193, 0.07207991, 0.07552922, -0.08198676, -0.1439082, -0.0790351, 0.1141492, 0.005352646, -0.03251493, -0.02114283, -0.1262426, 0.02884792, 0.006365895, -0.03843807, 0.07443546, 0.0653471, 0.08198555, -0.08464049, -0.1533787, 0.01851742, -0.06947285, -0.03636543, -0.06901993, -0.05319176, 0.09414883, -0.1024587, 0.002492458, -0.1604113, -0.06306615, -0.1666692, 0.07364553, 0.04430852, 0.1080341, 0.02793837, -0.01084511, -0.1226581, -0.05036375],
    [-0.1527931, 0.04410011, -0.1296469, -0.05228502, -0.1288415, 0.03336406, 0.1477408, 0.04286641, -0.1406159, 0.1111662, -0.07030259, -0.1292993, -0.09698768, -0.09561004, 0.1062695, -0.08799459, 0.1403235, 0.05933384, 0.08488405, 0.1249461, 0.03165451, -0.0850542, 0.1151694, -0.1190887, 0.07821911, -0.05924399, 0.156236, -0.05702685, -0.02268378, -0.1001255, 0.0716837, -0.06102316, -0.1217766, -0.09898101, -0.121811, 0.00761807, -0.08599396, -0.1331639, -0.07784557, -0.09505787, 0.05269682, 0.00623931, -0.1069692, 0.08598886, 0.07614385, 0.08931513, -0.03544794, -0.103146, -0.02772778, 0.1004256, -0.08919893, 0.05524994, 0.0680735, 0.1663425, 0.1555213, 0.1049021, 0.04549964, 0.02375597, -0.1433183, 0.1015815, -0.04371186, 0.1601555, 0.01717141, -0.05182588, 0.05912011, -0.1452806, 0.132976, 0.1581842, -0.03676802, 0.1030704, 0.0396174, 0.1038515, 0.0607063, -0.1550974, 0.1201, -0.04171704, 0.04796549, -0.04817757, 0.1442039, 0.08374432, 0.05630044, 0.02303216, 0.00618881, 0.06545905, 0.09713905, 0.1049611, 0.1694009, 0.1711087, -0.03327708, -0.02926482, -0.04521398, 0.1200028, 0.06697601, 0.09182752, 0.1280429, -0.1188632, 0.1230952, -0.1619547, 0.03229462, -0.04434198, 0.04269847, -0.09852357],
    [-0.1488813, 0.01942453, 0.1506144, -0.01838756, -0.09080204, -0.1428781, -0.1406834, 0.1533192, 0.04040897, 0.1638272, -0.1247313, -0.1435689, 0.03918575, 0.07276042, 0.08510885, -0.007573262, -0.1470265, -0.03879461, -0.1324991, -0.01990713, 0.1293548, -0.002446502, -0.1671353, -0.04711026, 0.1674039, 0.06375621, 0.08491725, 0.07757749, -0.09302039, -0.1362574, -0.1438393, 0.1650904, 0.1283671, -0.1673542, -0.0615409, -0.03082983, -0.1489281, -0.09682862, 0.04124714, 0.0959831, 0.1185786, -0.04788628, 0.1208691, -0.07556465, 0.1406689, 0.0328673, 0.0610146, 0.1139047, -0.1073927, 0.1040995, 0.04050706, 0.1112369, 0.02413328, -0.1032704, 0.04519171, -0.04116267, -0.01575793, -0.08490373, -0.1340476, -0.05616656, 0.1442812, -0.0775574, 0.1138601, -0.06492622, -0.007542431, 0.1652429, -0.05075158, -0.05154997, 0.08615918, 0.05969308, 0.02755806, -0.02411644, 0.02999656, -0.06448045, -0.1357172, -0.006414145, -0.01897942, 0.02800435, 0.04067017, 0.1289018, -0.0506012, 0.1330867, -0.06398676, 0.0533658, -0.1167734, 0.07291579, 0.06430215, -0.1445945, -0.09882857, -0.09120385, 0.1562774, 0.06729727, -0.06772093, 0.08128271, -0.1348897, 0.1582814, -0.07693148, 0.123892, -0.06041887, -0.05782209, 0.01724604, -0.0176709],
    [0.1575349, -0.04301201, 0.1448817, -0.07373302, -0.05091983, -0.08655954, 0.02029108, 0.07947103, -0.1211012, -0.1281843, -0.05610057, 0.1074993, -0.03250445, 0.04741194, 0.1212596, -0.01967476, 0.04046589, -0.1130706, -0.1488455, 0.1626109, 0.1705763, 0.04304535, -0.03618589, 0.0723649, 0.09346436, 0.08921437, -0.07799923, 0.05099427, -0.04317777, 0.03304553, -0.1618687, -0.13698, -0.0537781, -0.1083539, 0.03307988, -0.04120037, -0.009625286, 0.02426556, -0.08769248, -0.1205452, -0.09193076, -0.09105735, 0.09265031, -0.08596273, 0.164763, -0.1101202, -0.1467064, -0.02536975, -0.03397435, -0.1436696, -0.130954, 0.1320796, 0.1097742, -0.1165271, 0.04559589, 0.02542046, 0.05711878, -0.1245092, 0.1704751, -0.1448496, -0.05058496, 0.1086598, -0.05697791, -0.1488669, -0.05746338, 0.09634254, -0.02767344, -0.1550988, -0.1112368, -0.1208517, -0.05633244, -0.1621386, 0.1191581, -0.01984985, -0.08956356, -0.07366355, 0.05418009, -0.06997892, -0.006226182, -0.1305209, -0.006490156, 0.04456816, -0.1708909, 0.0228928, 0.0295842, -0.1682982, 0.01395978, -0.1143577, 0.1318634, 0.0175913, -0.07962503, 0.1282511, -0.07377893, 0.1358605, -0.06820199, -0.02185632, 0.1663916, 0.1016786, 0.03580935, -0.003229022, 0.09708843, 0.0197161],
    [-0.1618633, 0.1061677, 0.1182874, -0.1234628, 0.1307185, 0.1016305, 0.005446523, 0.07637075, -0.07577543, 0.03953244, 0.1701309, -0.1687892, 0.1302156, -0.07195179, -0.1208299, 0.1467113, -0.04970974, 0.08927117, 0.1385548, 0.1277097, 0.1564937, -0.1675602, -0.09263887, -0.1479483, 0.1495674, 0.01193291, 0.1206179, 0.09486099, -0.118446, -0.09697394, -0.1217716, -0.1596719, -0.02397136, -0.0001887977, -0.1674777, 0.09484124, 0.02926569, 0.007982954, -0.04046838, -0.01349206, 0.08316453, -0.08371355, -0.0291052, -0.08411042, 0.1703542, -0.1215642, 0.01907104, 0.007374093, 0.06805035, -0.08895855, -0.06703606, -0.1065648, -0.01339647, 0.1043039, 0.1070918, 0.05443634, 0.05512882, -0.05565308, 0.1490272, 0.01838858, 0.07120191, 0.1434193, 0.08486347, -0.07704584, -0.1483206, -0.1183096, -0.02525114, 0.1426583, 0.1084843, -0.1499257, -0.1269838, -0.02632122, 0.1549377, 0.0542332, -0.1171169, 0.1620594, -0.01822266, -0.09861868, 0.1612552, -0.1375249, 0.1093174, -0.04913223, 0.08890391, -0.1638037, 0.05047486, -0.05499314, -0.101253, 0.0199163, 0.1042923, -0.1157101, -0.1629255, 0.02127567, 0.009043202, 0.1534256, 0.01426964, 0.1328795, -0.06961775, 0.03478718, 0.04047656, -0.1588924, 0.05170549, 0.05176992],
    [-0.09120364, -0.004232183, 0.05252468, 0.1592609, -0.1503987, -0.05442083, 0.1406374, -0.145966, -0.03582947, 0.1303579, -0.1422497, 0.1478296, -0.09680827, 0.1248136, -0.0869133, -0.03006375, 0.1273408, -0.06659937, -0.06755923, 0.09926717, -0.1486659, 0.0468777, 0.1606059, 0.04582908, -0.07939292, 0.03211184, -0.1086515, -0.1471622, -0.1607584, 0.005937472, -0.08686874, -0.02542311, -0.104655, -0.01207042, 0.05155117, 0.1202043, -0.07564467, 0.1368733, 0.0193156, -0.1024292, 0.08213769, 0.06528286, 0.003893092, -0.1714035, 0.1298256, -0.02914862, -0.05021426, 0.01126061, -0.1032963, -0.005773544, 0.1104525, -0.02422884, 0.1025918, -0.1660707, -0.1552775, -0.03218961, 0.1000548, -0.1192009, 0.02864553, -0.05528958, -0.1658682, -0.001402125, -0.1606809, -0.1296846, -0.004129425, 0.02559198, -0.03904735, 0.0409963, -0.1357254, 0.05146494, -0.1299179, 0.1328403, -0.08037723, 0.01342034, -0.09210139, -0.05584052, 0.08504458, 0.1627056, -0.04337277, 0.1192681, -0.1301872, 0.159062, -0.009419039, -0.1231256, 0.07898732, 0.1556797, 0.147373, 0.169729, 0.1348982, 0.1111511, 0.1498094, -0.1208561, -0.168124, -0.1032771, -0.1279575, 0.146608, 0.1066322, -0.03247428, -0.03379989, 0.1081763, 0.007010669, -0.04297853],
    [-0.04103988, 0.05239854, 0.008575842, 0.06777129, 0.06421911, 0.02160299, -0.1429238, 0.03657719, 0.08358555, 0.02145177, -0.07618591, -0.1506283, 0.087069, -0.1467771, 0.1677106, -0.1119861, -0.06225595, -0.08264436, 0.01368338, -0.02590682, -0.05805749, 0.06444342, 0.06770582, -0.1338628, -0.02422467, -0.04087187, 0.1013115, 0.1114555, 0.05855597, -0.04270171, -0.1470879, 0.0303534, -0.09033976, 0.15888, -0.07977854, 0.002503172, 0.07191926, 0.01290187, 0.1510016, -0.05086153, -0.03424327, 0.01934795, 0.1204373, -0.006251663, -0.121216, 0.07179353, -0.0244052, -0.1630404, 0.1334184, -0.1300589, -0.1563362, -0.059712, -0.1353459, -0.02952957, -0.006173193, 0.1089404, 0.1265462, -0.07104902, -0.0801018, -0.03722028, -0.1363813, -0.05301741, -0.0699054, 0.01560804, 0.02328289, 0.09950538, -0.1361057, 0.09376092, -0.0694295, -0.1467877, -0.02600196, 0.108931, -0.1476717, -0.1059638, 0.03510055, -0.137055, 0.01841323, 0.001615316, 0.108485, -0.1348674, -0.003844351, -0.05481373, 0.03278629, 0.08843717, -0.03640443, -0.1558654, -0.005686179, 0.07060351, 0.02761412, 0.1144132, -0.1385845, 0.1674155, 0.06259281, -0.03336152, -0.1394581, -0.008482739, 0.1100162, 0.07357962, -0.07382096, 0.06676421, 0.0789483, 0.02002734],
    [-0.004968092, 0.1658308, 0.1119364, -0.07159029, 0.1565294, -0.1332823, -0.1328607, -0.1390854, 0.1075547, -0.09465479, 0.08810712, 0.1346206, -0.06121084, -0.0007986128, 0.1707426, -0.1390433, 0.1373511, -0.1222092, -0.01567841, 0.001381397, 0.006271452, 0.001374647, 0.0596719, 0.05159537, -0.105939, 0.04875792, -0.1001197, -0.1467814, -0.1475517, -0.06301603, -0.02584161, -0.007931933, -0.04720545, 0.06575149, 0.07305326, 0.02544093, 0.1452471, 0.05900534, 0.05274912, 0.0004393607, 0.0185509, 0.07857116, 0.1568226, 0.03856073, -0.03132209, -0.09314142, -0.09230608, -0.1585584, -0.1484561, -0.1282393, 0.0697386, 0.01940924, -0.1012064, -0.09027426, -0.05272445, -0.1282552, -0.05006261, -0.0821986, -0.03818786, 0.1442221, -0.1451758, 0.09945027, 0.08064163, -0.07763524, -0.09216256, -0.1291738, -0.04813202, 0.1562545, -0.07225314, 0.1159748, -0.07537378, 0.09445857, -0.06043957, -0.03355345, 0.03179288, 0.02596357, 0.1566501, -0.1229385, 0.07513955, -0.1414704, 0.03265832, 0.1568306, -0.02213368, 0.1714354, -0.1592751, 0.1163693, -0.009930685, -0.07573618, 0.1015172, -0.1511251, -0.04137729, 0.1466977, -0.129458, -0.07204832, 0.1601039, 0.08119199, -0.03496581, -0.01210639, -0.1204612, -0.1498962, -0.161406, 0.00332801],
    [0.01454282, -0.1615815, 0.1135178, -0.01508099, -0.171134, -0.1412207, -0.1277505, -0.01546317, -0.1616326, -0.1418518, -0.06203438, 0.05879051, 0.05200078, -0.1468918, -0.1496293, 0.01908155, 0.1322409, 0.0561723, -0.08256684, 0.004078895, 0.01382621, 0.1185706, -0.09937979, 0.1404875, 0.1079625, 0.08838103, 0.03713372, 0.07589092, -0.1170362, -0.1654028, -0.0474343, 0.07943688, 0.08520314, 0.1631725, 0.1695561, 0.1128242, -0.1035044, -0.01638463, 0.08087416, -0.1322086, 0.1276926, -0.01910269, 0.1577332, -0.009673655, 0.08892681, 0.1163729, 0.006029353, 0.09968488, -0.0925806, 0.105334, -0.07146473, 0.09656878, 0.1604715, 0.04613876, 0.1399376, 0.03365739, 0.05450802, -0.04516745, -0.1591061, 0.1669455, 0.1219141, 0.06145276, 0.07034955, -0.08399613, -0.03472695, 0.1422417, 0.0785117, -0.1473544, -0.03647746, 0.1207301, 0.1261274, -0.0729339, 0.06762597, 0.1561405, -0.1144383, 0.1301183, 0.1481022, -0.0578602, -0.116105, 0.03661403, 0.02040601, -0.09396185, 0.08813034, 0.00797911, 0.01102372, 0.09067847, -0.1309906, -0.01508863, -0.04459336, -0.04838483, 0.1558867, -0.1393182, 0.05704351, -0.09339617, 0.09419623, -0.1178318, -0.154844, -0.1257179, 0.1410473, -0.01705435, 0.160909, -0.07572183],
    [-0.003504112, 0.09885911, 0.07222421, -0.0637743, -0.02449764, 0.1610717, 0.09696977, -0.07545073, 0.09505124, -0.0419303, 0.02120808, 0.1628003, 0.04884943, 0.04996257, 0.1420225, 0.03906423, 0.1578778, 0.0553293, 0.1538679, 0.09639741, -0.1169228, -0.1236805, 0.1629782, -0.1633098, 0.02770795, 0.1539645, 0.05592125, 0.0340587, -0.04570444, -0.1033316, 0.1598561, 0.1470273, -0.02044199, -0.09668858, -0.02568078, 0.08063807, 0.1090422, 0.1485635, 0.004410863, 0.07199904, -0.1617268, 0.1004249, 0.158438, -0.157211, -0.1349945, -0.0001963228, 0.02061716, 0.002537191, 0.1343473, 0.1404318, -0.05057049, 0.1353311, 0.02384579, 0.0006890744, -0.1338346, 0.1257198, -0.1290558, -0.08205564, -0.06016455, 0.1493036, -0.01703885, 0.1689325, 0.1032845, 0.1099528, -0.04015972, -0.1380087, -0.01483481, -0.08464791, -0.01562631, -0.1613681, 0.1516535, -0.1506977, -0.1242443, 0.06481199, -0.01793255, -0.1232462, 0.09485196, -0.1332402, 0.06510941, -0.0353269, 0.136801, 0.1020528, 0.06995277, 0.01979816, 0.1580469, -0.1179058, 0.06547087, -0.1314722, 0.09119202, -0.07340419, -0.01772881, 0.01808985, -0.03433368, 0.1562112, -0.02063429, 0.09982525, -0.03077443, 0.1362191, -0.02575696, -0.00753662, 0.1258469, -0.1013668],
    [-0.08449502, 0.01444121, 0.08537058, 0.0625581, 0.001898557, -0.09098609, -0.1344339, -0.1646337, 0.01170155, 0.06871549, -0.08222649, 0.1235546, 0.1214592, -0.1488021, -0.08050092, 0.06268342, 0.04671791, 0.07538852, 0.04683395, 0.052727, 0.02876189, -0.09818907, 0.1146085, 0.004525915, -0.002797976, -0.1634824, 0.01800509, 0.02345085, -0.1347734, -0.07312566, 0.0102573, 0.06345167, 0.05794068, 0.1509314, 0.06617946, 0.08675281, 0.1420017, 0.1062167, -0.07366641, 0.1411289, -0.08423831, 0.09776873, 0.1566483, -0.008478075, -0.1494687, -0.1541984, -0.1552642, -0.1482076, 0.1493112, -0.0900249, 0.1420509, -0.1055669, -0.1403123, -0.1480664, -0.1499708, -0.07453729, 0.116495, 0.1289218, -0.0003919303, 0.08620499, 0.1052697, 0.124359, 0.09434779, 0.01191831, 0.09505038, -0.0942729, -0.1346794, -0.07028456, 0.01213309, -0.01086412, 0.08911039, 0.1079955, 0.08081634, -0.05569008, 0.1429728, -0.129305, -0.1172183, 0.1396393, 0.09939237, -0.1711027, 0.07471693, 0.1603564, -0.06021599, -0.00247021, 0.04307287, -0.1585884, -0.1012809, -0.1601172, -0.08957501, 0.1520509, 0.04739023, 0.03335121, -0.04828662, -0.1091814, 0.05886308, 0.1224139, -0.1139263, 0.1200349, -0.1009393, -0.006283179, -0.03703739, 0.05983848],
    [-0.1138459, 0.1146869, 0.03735927, -0.024717, 0.05535024, -0.02485357, 0.08093487, -0.08142357, 0.03495266, 0.03427187, -0.08185314, 0.1518696, -0.09546415, -0.1579909, 0.169619, 0.02122451, 0.05751131, -0.008731097, -0.02264065, 0.06747657, -0.04333732, -0.09592979, 0.1223785, 0.1103016, 0.04740851, -0.08475654, 0.00837259, -0.01678526, 0.1376019, 0.04019091, 0.05952654, -0.07570396, 0.1485829, -0.06087634, 0.01771842, -0.1163269, -0.02796972, -0.1690093, -0.1302623, -0.09358057, -0.04508926, 0.0423986, -0.1569994, 0.1585036, -0.07571402, 0.1007947, -0.0003200918, 0.1104009, 0.1459934, -0.09461989, -0.1496422, 0.1458317, 0.1049818, 0.1309919, -0.03411856, 0.1191809, -0.08130853, -0.03891437, 0.003337622, -0.1404501, -0.05040133, 0.1688931, -0.09556304, 0.04279715, 0.1699618, -0.1658754, 0.06828358, 0.04896346, 0.07197315, 0.08214606, -0.008772388, 0.1555126, -0.09392805, 0.1382325, 0.1692189, -0.04207207, -0.08952047, -0.1252455, -0.1111588, -0.1650218, -0.03992543, -0.1412505, 0.1389015, -0.1395059, 0.05242332, 0.07868801, 0.01673624, 0.1002151, 0.151163, -0.000948146, 0.09290607, 0.1440364, -0.00648509, -0.09406547, -0.1225121, -0.0343969, 0.007301882, -0.07675566, -0.09767719, -0.04657368, -0.1444585, -0.1602178],
    [0.07373291, 0.02053265, -0.002434641, 0.07415046, -0.02154934, -0.1385462, -0.02810641, 0.0978034, 0.06941644, 0.152444, 0.1008995, -0.1020512, 0.05727756, 0.07849237, -0.01251872, 0.02547807, -0.1241747, 0.01703475, -0.1410205, -0.04910149, -0.02090108, -0.1450965, 0.1214428, 0.1360036, 0.1099521, -0.05387145, 0.1025164, -0.1126249, 0.04517237, -0.03415987, 0.1562071, -0.1037151, 0.0966876, 0.07935859, -0.1021321, -0.1089637, -0.1559724, -0.08490746, 0.1544838, -0.0226292, 0.01556547, 0.140223, -0.03121185, 0.09003897, 0.1290686, -0.1114751, 0.03018093, 0.08994219, 0.1025422, 0.1030809, 0.007956386, -0.1671603, 0.154762, -0.02020214, 0.1362415, 0.1435443, -0.1310817, -0.1045271, 0.0580317, 0.1033484, 0.04837639, -0.1481472, 0.01926106, -0.07020213, -0.07704179, 0.007469073, 0.1610651, 0.051792, 0.09068923, 0.04416385, 0.01517691, -0.07641137, -0.05357182, 0.01780927, -0.03944683, -0.1184275, 0.09658284, 0.1418749, 0.00502722, 0.1085987, 0.0991178, 0.07011514, 0.03136404, 0.02088192, 0.01490059, 0.1287132, 0.1592532, -0.01679863, 0.04213132, -0.07469283, 0.02407338, -0.1446666, 0.08537827, -0.06575596, 0.1279184, -0.1156866, -0.0220505, -0.07537866, -0.0343758, -0.1183781, -0.07268721, 0.1548906],
    [-0.1662832, -0.01030068, 0.03281485, -0.117729, -0.102159, 0.04997279, -0.1443595, 0.1329502, 0.1352894, -0.1008938, -0.01935469, -0.01560608, -0.04166147, -0.02650048, 0.05730773, 0.09964776, 0.09736529, 0.1509686, -0.1587925, 0.0006376356, 0.1391628, 0.1194556, -0.1387502, 0.07085779, 0.02828902, -0.01591004, 0.00319463, 0.09068918, -0.005628437, 0.07914867, -0.07127517, -0.01047041, 0.1492931, 0.1631401, -0.1563515, 0.09118966, 0.08231743, -0.124898, -0.02960894, -0.06353183, 0.1258281, 0.1691858, 0.1576726, -0.1397871, -0.07698487, -0.03139192, -0.1610738, 0.05837431, -0.1475111, 0.1049788, -0.04634891, -0.05601801, -0.1100288, 0.05185256, -0.1317892, -0.1369946, -0.02863637, 0.08717175, -0.1106457, -0.1102327, 0.03700133, -0.1065393, 0.1217636, 0.08238478, -0.1233367, -0.02153033, 0.1155713, -0.06234211, -0.1086875, -0.08867066, -0.06294815, 0.003740326, 0.1150616, 0.004103497, 0.1286214, 0.1709606, -0.1473999, -0.0004308224, 0.170571, 0.04217723, -0.01110888, -0.04249318, -0.07429208, 0.1559822, 0.003656954, 0.07072262, -0.03813112, -0.113645, 0.00970453, -0.1113402, -0.1581604, 0.1347926, 0.08331831, 0.01447809, -0.1062125, 0.09930904, -0.09116169, -0.004501551, 0.1391725, 0.08343316, 0.15392, 0.1021568],
    [-0.1110703, 0.1465576, 0.1667802, 0.006632864, 0.1093437, 0.0969151, -0.03233208, -0.0005142391, -0.05753387, -0.167122, -0.04293482, 0.08605072, 0.06234596, -0.07349291, -0.04935798, -0.0673971, 0.01622133, -0.08816911, 0.001049906, -0.04887836, -0.1086126, 0.1638692, -0.1665713, 0.03657964, 0.05035117, 0.003159598, 0.07261273, -0.09197254, 0.128327, 0.1573834, -0.05312372, -0.1143642, 0.02234899, 0.04668454, 0.05757048, -0.104996, 0.09948637, -0.1285174, -0.1305994, -0.04369047, -0.1070911, 0.07281983, -0.0768306, 0.01250388, -0.08312313, -0.03418967, -0.04109937, 0.01994042, 0.001278356, 0.0808167, 0.166609, -0.01073147, 0.1059245, -0.1711959, -0.0140944, 0.1694709, -0.15655, -0.1522102, 0.006199077, 0.1504879, -0.1021969, -0.001664221, 0.1290585, -0.06768499, 0.1540223, 0.1183221, -0.1603824, 0.01144621, -0.01136966, -0.03045958, 0.06130805, 0.1630502, -0.07945953, 0.03022811, -0.1614427, -0.008019552, 0.007103816, -0.06425822, 0.09581573, 0.1251119, 0.0006403774, 0.04871769, -0.01050304, -0.1605624, 0.05886137, -0.1344644, -0.08832584, -0.0792018, -0.07004642, 0.1135048, 0.1443035, 0.08865641, 0.02765419, -0.006721064, 0.1408434, 0.06323676, 0.02276896, -0.01983529, -0.06016381, 0.07970757, -0.08345224, -0.01649389],
    [-0.1357398, -0.125388, 0.1570526, -0.04131842, -0.1124357, -0.1282869, 0.01823778, 0.00319463, 0.04101048, -0.09276719, -0.04641025, 0.03444687, 0.1554102, -0.04290554, -0.04724765, 0.05174327, -0.1469955, 0.09362362, 0.007310018, -0.09830948, 0.03710224, -0.06450744, 0.0002875924, -0.1196394, -0.09043118, -0.1368732, -0.1710397, -0.1591673, -0.02541624, -0.1527802, 0.02866617, 0.1182158, -0.1334782, 0.004585817, 0.0120741, 0.06788655, -0.1179634, 0.139245, 0.08400281, -0.009096146, 0.1667134, -0.05416556, -0.06259558, 0.06116363, -0.118229, 0.01068249, 0.03001632, 0.05061903, -0.01190093, 0.08471052, -0.035335, 0.07537033, -0.1592822, 0.01376127, 0.07935895, 0.1700819, -0.08391889, -0.06777667, -0.05213839, 0.01981011, -0.0913311, 0.1550666, -0.1651572, 0.1259444, 0.1322355, 0.09905262, 0.0264326, -0.1616093, -0.01206997, 0.06764053, 0.08726269, -0.144464, 0.1247993, 0.05353242, 0.1090757, -0.03261554, -0.08087771, -0.05550621, 0.1207489, 0.03224625, -0.05278276, 0.07480317, 0.09144647, 0.1535876, 0.09973449, -0.09384827, 0.1167941, 0.02719767, -0.1482481, -0.08646598, -0.04351878, 0.1297527, 0.01445295, -0.03402522, 0.03353873, 0.1593361, 0.1659462, 0.0108052, 0.1412339, 0.01363288, 0.1702647, 0.1613816],
    [0.1318235, -0.05334542, 0.06256922, -0.05218256, -0.0627698, -0.1621734, -0.05317361, -0.1270017, 0.07504931, -0.1212224, -0.05408476, 0.1574401, -0.07270753, 0.04224588, -0.1277605, -0.1297594, 0.07098149, -0.04926651, -0.1455047, -0.08155914, -0.1070816, 0.03497186, 0.02774724, -0.1526921, 0.1060865, 0.04350183, 0.129825, 0.1127613, -0.04566944, -0.1003532, 0.1565276, 0.07136016, -0.1679194, -0.01957615, 0.03207386, -0.03033696, -0.02345437, -0.06895283, 0.05918586, -0.07555103, 0.129534, 0.002768293, 0.1266679, 0.1434098, 0.1583801, -0.1496607, -0.1520999, -0.1658733, 0.01581331, 0.1668561, -0.08314092, -0.07384051, 0.04093103, 0.05650165, -0.005201161, 0.1615918, -0.06169869, 0.1281761, 0.04146999, 0.002237186, -0.02675918, 0.1036754, -0.1227333, 0.1080068, 0.1306515, -0.03220332, 0.01960759, 0.1107797, 0.05970358, 0.01223192, -0.07096609, -0.0936354, -0.06622499, 0.0710965, 0.02141289, -0.09680717, 0.009501845, -0.007397518, -0.1614924, -0.07435746, -0.1358553, 0.1687628, 0.1044717, 0.1604815, 0.06553563, -0.1365411, 0.1404004, -0.007947057, -0.04227823, 0.02083693, -0.1365105, -0.164141, -0.1013607, -0.08649947, 0.04774461, -0.1001233, 0.1325568, 0.09151709, -0.042014, 0.0513468, -0.01135805, -0.124312],
    [0.0689425, 0.07666502, -0.1321531, -0.09520753, 0.09422415, -0.0908751, 0.02670091, 0.1382765, -0.02542813, 0.0666036, 0.1435419, -0.0334765, -0.02314423, -0.04319192, 0.1620213, -0.0159416, -0.1261776, -0.1011861, 0.02446395, 0.02369148, 0.1172407, -0.0976293, 0.0666229, 0.1425777, -0.07740423, -0.1408541, -0.1092534, 0.06617235, -0.1499848, -0.09172501, 0.1629882, 0.1017045, -0.1603341, -0.04635897, 0.1292182, -0.1521597, -0.01365721, -0.05513564, 0.1561931, -0.0457001, 0.007360712, 0.02850282, 0.05904537, -0.1423753, 0.07993941, 0.1134716, 0.07919785, -0.1539745, -0.1404908, -0.1619201, -0.1117478, -0.1638519, 0.02054124, 0.08854005, -0.004794642, -0.07499275, -0.1418658, -0.1344293, 0.1660098, -0.01835567, 0.1577353, 0.1023332, 0.07555985, 0.05958248, 0.1015765, 0.1609686, 0.008140504, 0.0531479, 0.1269036, -0.06416769, -0.1645501, 0.1706953, -0.02826715, -0.09933539, -0.00193736, -0.04538615, 0.07901242, 0.1553136, -0.1395185, -0.0593299, 0.05019363, -0.05724246, -0.09209751, -0.03555702, 0.1681389, 0.1049366, -0.07711567, -0.006000653, 0.1091822, 0.1297049, 0.06242434, -0.004352227, -0.09920956, -0.1045778, -0.08198435, -0.07217255, 0.02553464, 0.1031414, 0.1593051, 0.04172663, 0.1032711, -0.02634621],
    [0.1028915, -0.0250953, -0.1675286, -0.04693403, -0.1137129, 0.03296012, 0.03290455, 0.08948036, -0.005765662, 0.1263938, -0.009044915, 0.05945294, -0.07794116, 0.1430282, 0.1061193, 0.09456156, -0.1584704, -0.06278718, -0.1688198, -0.02022365, 0.1580634, 0.01882702, 0.1630751, 0.03770874, 0.1426158, 0.04898624, -0.01286316, -0.0570675, -0.04893528, -0.1047425, 0.1057241, 0.1302706, -0.06580731, -0.1223141, -0.1090976, 0.1282527, -0.1335119, 0.03555682, 0.1668786, -0.008419156, 0.05287747, -0.05293351, -0.1564007, 0.07474461, -0.1027121, 0.1100621, 0.1415357, 0.03681217, -0.1088388, 0.05008389, 0.147406, -0.1363518, -0.1159414, 0.02970138, 0.05973413, 0.04119995, -0.05104839, -0.1137586, 0.06971125, 0.1117445, -0.1086321, -0.007575095, -0.10725, 0.113461, 0.08755014, -0.1666474, 0.08559918, 0.1131358, 0.1173161, -0.0701572, -0.03174585, -0.112689, 0.01163365, -0.04685736, -0.05261426, -0.07606566, 0.08149869, 0.1588147, -0.02797414, -0.1549384, -0.166074, 0.1391219, 0.1102417, -0.06047919, -0.1066793, -0.10009, 0.03783938, -0.1677773, -0.1578329, -0.09191437, -0.1306801, 0.05752845, 0.1069089, 0.1323802, -0.1339655, 0.0780284, 0.01903723, 0.1339511, 0.0561032, 0.1656623, 0.1258534, -0.0003328472],
    [0.07503864, -0.02745764, 0.1685656, -0.1268824, 0.03342523, -0.04078551, 0.1542927, 0.1312816, -0.006589279, 0.04522221, -0.05692279, 0.1489139, 0.1595195, 0.004277408, 0.1694515, -0.06212139, 0.08085339, 0.05263009, -0.06304125, 0.08906227, -0.04120073, 0.1399178, -0.06812933, -0.03438225, -0.1375761, -0.1210852, 0.06298882, 0.1577052, 0.1501629, -0.1342936, 0.09534352, 0.04401412, -0.08464618, -0.03411338, -0.005295277, 0.01764424, -0.06816703, -0.07561143, -0.1187966, 0.03434964, -0.06373636, 0.01102927, -0.0222812, -0.1321721, 0.131227, 0.05012621, -0.004617512, 0.02613702, 0.1672505, -0.1242927, 0.01389441, 0.1567477, -0.0967747, 0.03960989, -0.07506597, 0.1495795, 0.09422481, 0.1399332, -0.1274611, -0.03610849, 0.1594685, -0.143754, -0.07098176, -0.04636957, 0.1001604, 0.05910535, -0.03800763, -0.1495437, -0.1079413, -0.0009900481, 0.1109139, 0.007464901, 0.007836208, -0.1174158, 0.1103763, -0.07545634, 0.1195079, -0.03502555, -0.004040331, 0.0471003, -0.1248168, 0.1033725, -0.1509898, 0.1229476, 0.09767501, 0.04136266, -0.157575, 0.1020173, -0.1216932, -0.0799477, -0.126064, 0.07408823, 0.1177631, -0.1294439, -0.08840151, -0.06057765, -0.1630208, 0.1013991, -0.05452125, -0.1264739, 0.1085256, 0.05028674],
    [-0.12277, 0.06203657, -0.1298082, -0.1689689, 0.009965196, -0.09237637, 0.05113661, 0.1259821, 0.1179554, -0.1440688, 0.1626753, 0.04590783, 0.07821498, -0.1296902, 0.07347961, -0.02615018, 0.1685666, -0.09999238, -0.1639397, -0.08667856, 0.02446534, -0.06811777, 0.09720929, -0.006542176, -0.07810669, -0.145722, -0.03589946, -0.08379031, -0.04944663, 0.06973831, -0.168607, -0.1422576, -0.07611628, -0.1022154, -0.1471125, 0.04831178, -0.1695227, 0.1633444, -0.01067738, -0.1162367, -0.1143073, 0.1541448, 0.1239226, -0.04128025, 0.001753196, -0.1712993, -0.1050173, -0.04631539, 0.02145672, 0.003471166, 0.1488756, 0.01060215, -0.135343, 0.01035109, 0.13824, -0.06590717, -0.1095, 0.06520918, 0.01440179, -0.1193021, -0.1240969, 0.145212, 0.1198951, 0.1458475, -0.05030638, -0.01836894, -0.02328202, -0.03402445, 0.01084098, -0.1041083, 0.1607979, -0.03909612, -0.1364533, -0.0706647, 0.04308215, 0.07737198, 0.03688639, -0.1071298, -0.1504194, 0.1174449, 0.001538977, 0.07591357, -0.0276687, 0.05116456, -0.1555325, -0.01055828, 0.09885383, -0.1050724, -0.09093153, 0.1549091, 0.1198041, -0.07397936, -0.006260902, -0.07793912, -0.0008461177, -0.01280297, -0.1578632, 0.08183454, -0.1695337, 0.009254187, 0.1296923, -0.1449691],
    [0.02883513, -0.1099005, 0.1348672, 0.06249643, -0.1267995, -0.06988561, -0.03353015, -0.1699129, -0.02755508, 0.1487558, 0.1111294, 0.1424858, -0.07010944, -0.01331542, 0.07262483, 0.01450627, -0.1537993, 0.04499196, 0.0120945, -0.05573331, 0.06111792, -0.1065379, -0.02290745, 0.1114914, 0.09442382, -0.1575686, -0.02809349, -0.1629372, 0.1693039, -0.02205338, 0.1059915, -0.09000687, 0.1620062, -0.1258112, -0.05338046, 0.1464169, 0.04991784, 0.04142599, 0.1402545, 0.1343402, -0.1041136, 0.006524473, 0.06991282, -0.03995928, 0.1144597, 0.0804321, -0.06584416, 0.1093782, 0.03497854, 0.09477855, -0.06410673, 0.1643378, -0.00724782, 0.1081432, 0.01111166, -0.07579796, -0.06658584, -0.09822302, -0.1507001, 0.07615849, 0.003893957, 0.1522841, -0.1052273, 0.1546136, -0.0945379, 0.1283865, 0.1417082, -0.06409663, 0.1109132, 0.08881302, -0.02847743, 0.01033899, 0.1017996, -0.08152937, 0.09483556, -0.001357228, -0.05129564, -0.05547493, 0.03224918, -0.1524458, 0.1290527, -0.004511282, -0.04441126, -0.1350384, 0.0004232228, 0.1607422, -0.07673247, -0.01419948, 0.09497049, 0.1343982, 0.1081921, -0.1035556, -0.01795794, -0.03962015, -0.0888883, 0.03846468, 0.04008469, -0.1109606, 0.03755766, -0.05944537, 0.1270628, 0.1634487],
    [-0.13326, 0.1669084, -0.1288356, 0.1252594, -0.05484255, -0.07714908, -0.1442625, -0.1497662, -0.02997608, -0.1258376, 0.03813578, -0.0313099, -0.07065472, 0.01859106, -0.1207155, -0.08401732, -0.007134408, 0.1133202, -0.1137262, 0.1635946, 0.06177018, 0.1696986, -0.1215866, -0.04955019, 0.007801414, -0.1631243, 0.08701646, 0.1295784, 0.1643066, 0.1175008, -0.001588374, 0.01329122, -0.1686204, -0.005268618, -0.1605655, -0.06512395, 0.1082584, -0.05143127, -0.0759324, 0.1173884, 0.1161241, 0.1359825, -0.1360822, -0.002410725, -0.1496913, 0.1326057, 0.05793562, -0.1447368, 0.1674961, -0.0004232973, 0.1575164, -0.006377921, -0.01441668, -0.1134694, 0.03462976, 0.1477841, -0.15453, 0.01721254, -0.05620867, -0.1680978, 0.1394576, 0.08806742, 0.09497948, 0.08760039, -0.107785, 0.08496819, 0.1441616, 0.1266099, 0.08024893, -0.01553829, -0.05389054, -0.1155, 0.1404447, 0.05901956, 0.1179119, -0.1296704, 0.01485892, 0.01020202, -0.1160939, -0.1688661, 0.0164496, 0.1685104, -0.1449962, -0.1696303, 0.09052767, 0.1525419, -0.04677526, 0.1003295, -0.0442663, 0.09333238, -0.02146274, 0.1372241, -0.1010787, 0.1576762, -0.1474603, 0.1682201, -0.0747921, -0.009473622, -0.1110291, -0.06607203, 0.1020484, -0.07398215],
