{
"layers": [102, 102, 60, 15],
"fitness": 199.7468,
"weights": [
  [
    [0.1162492, -0.1219242, -0.1083759, 0.06425092, -0.1159048, 0.0008477271, 0.04479869, -0.06673966, -0.1548534, 0.1213142, 0.07743691, -0.06430316, 0.02304421, -0.06223829, -0.06081431, 0.003351897, 0.04377051, 0.1710131, 0.1243862, 0.09017003, 0.04190214, -0.06992458, 0.04160692, 0.1306899, 0.109889, 0.1474321, -0.1584278, 0.008087546, -0.06784913, -0.08599915, 0.09169103, 0.07064444, 0.09260358, 0.1290418, 0.1334088, -0.1312446, 0.1300759, -0.1362171, 0.06209589, -0.07719454, 0.0205012, -0.1698495, -0.1049359, 0.1136483, -0.06647237, 0.04876102, -0.1583912, -0.09443577, 0.07243486, 0.0166588, 0.1668142, -0.1092547, -0.01440077, 0.0137019, 0.09754831, 0.05356526, 0.003142178, -0.01579352, 0.1018695, -0.1250457, 0.001732633, 0.07955093, -0.1601087, 0.04417633, -0.05997826, -0.1455064, 0.08440752, 0.1403767, 0.123492, -0.001019001, -0.01406786, -0.00648059, -0.1418323, 0.1537476, 0.1427309, -0.154562, -0.02954966, 0.04077186, 0.138211, 0.001031637, -0.05618042, -0.1025522, -0.1667273, -0.09757911, 0.1589996, 0.1147221, -0.002342358, 0.1614785, 0.05635192, 0.1189834, -0.01156892, 0.06161214, -0.1372961, -0.1633361, 0.03700407, -0.1551637, -0.1023953, 0.09107263, -0.1559229, -0.07427736, 0.0928999, -0.1240058],
    [-0.1194833, 0.08734144, -0.1109473, 0.1215914, -0.1562739, 0.08672861, -0.1411283, -0.07522856, 0.1016766, -0.03271396, -0.06139701, 0.06714582, -0.139678, -0.005384699, -0.09716211, -0.04215437, 0.1241514, 0.1420116, 0.02087505, 0.03466639, 0.000714466, -0.1007627, -0.1421326, 0.1543251, 0.1520592, -0.07386434, 0.1260052, -0.09502323, 0.02360713, 0.0003510118, 0.1056133, 0.08984921, 0.09030855, -0.1297772, 0.07462697, -0.1595444, 0.02609527, -0.05444692, -0.1607636, 0.1314131, 0.001101017, 0.1407389, 0.04952192, -0.02150431, 0.1229613, -0.05751776, -0.08252566, -0.04050195, -0.05138629, -0.1594143, -0.053197, 0.1596377, -0.01151016, 0.08064313, 0.1643014, 0.1692108, 0.1343084, -0.06594193, -0.06272739, 0.1310291, -0.1446778, -0.09060799, -0.1212765, -0.0958422, 0.1389108, 0.053931, -0.1137047, 0.04202002, -0.1012319, -0.07426502, 0.09174889, 0.04136233, -0.005089074, 0.09792934, -0.03620556, -0.06813636, 0.06159308, -0.1361594, 0.08446775, 0.1011392, 0.07474948, 0.08853649, -0.01623882, 0.07897133, -0.07376626, 0.1632057, 0.02052161, -0.1457299, 0.1522254, -0.157891, 0.1058948, 0.0005737692, -0.1176846, -0.1567664, -0.02140851, 0.03583491, -0.143745, -0.1308766, 0.04163592, -0.003345683, 0.1153371, 0.1447357],
    [0.03176679, -0.1573064, 0.09592802, 0.1084501, 0.001963079, -0.06328785, 0.1497402, -0.01009485, -0.02872555, 0.137096, 0.03668338, 0.06069518, 0.1584733, -0.03117771, -0.009326756, -0.01181482, 0.1456047, -0.1287369, -0.02763644, 0.04178981, -0.02420254, 0.01362213, -0.06361799, -0.06103785, 0.066335, -0.1577318, 0.0004624277, 0.0619987, -0.14044, 0.01506042, 0.09085412, 0.116641, 0.1484579, 0.0214591, -0.004674599, 0.04481516, 0.09794173, -0.004079416, -0.1252496, 0.07368703, 0.07549843, 0.08741431, 0.04481427, 0.01458465, 0.1310932, 0.04675614, 0.001929626, -0.1027624, -0.1694037, 0.01190637, 7.623434E-05, -0.03138326, 0.04379488, -0.0944349, 0.00263916, 0.1027585, 0.04459494, 0.09424941, -0.01095469, -0.1441168, -0.153449, 0.06960142, 0.02798587, -0.1640587, -0.1675967, 0.05250571, -0.05541691, -0.102635, 0.006286502, 0.158159, -0.1374756, 0.001830101, -0.06722541, 0.1335528, -0.1698258, 0.1573441, -0.1286602, 0.1256739, 0.05084437, 0.0243284, 0.02644904, 0.04865238, -0.05016695, -0.0757103, -0.1084588, 0.1139406, 0.1312073, -0.02394871, -0.0707271, -0.06260739, 0.1673633, 0.1575882, -0.1080795, -0.08735879, 0.06110688, 0.04987168, 0.1190862, 0.03847605, -0.06618963, 0.09581725, 0.149531, -0.1586872],
    [-0.00764285, 0.1584681, -0.1197875, -0.06881389, -0.132146, 0.03418235, -0.06292264, -0.0382091, -0.1292176, -0.04169409, 0.1465511, -0.107003, -0.0837614, -0.1038788, -0.1063299, -0.01720065, -0.1416806, 0.03320517, -0.09264647, 0.1648336, 0.1048917, -0.09941138, -0.04195836, 0.1372619, 0.0625769, 0.08702844, 0.1658945, 0.1117118, -0.1512122, 0.1617226, 0.1365898, -0.07830806, -0.1097803, -0.1353089, 0.0101662, -0.1052689, -0.1370038, -0.05451688, -0.1080617, -0.1564669, -0.08502813, 0.1616673, -0.150904, 0.04166098, -0.1019047, -0.01110566, 0.1269709, -0.1602059, 0.1710466, 0.05300054, 0.1242704, -0.1693362, 0.1615581, -0.08681934, 0.0553067, -0.05307736, 0.04141434, 0.02039306, -0.05621706, 0.08673188, -0.02613506, -0.03098209, 0.04502108, -0.1369658, -0.1066365, 0.002069473, 0.05713101, 0.08494161, -0.1706025, -0.07295033, -0.0264712, 0.1671344, 0.04276983, -0.04620127, 0.037995, -0.06992708, -0.01980135, -0.1621963, -0.1328443, -0.1459737, 0.07393555, 0.03943399, -0.04221003, -0.01471001, 0.1444245, 0.05572068, -0.06204116, 0.04928861, -0.1349408, 0.07781006, -0.01960996, 0.0179186, -0.1004622, -0.06920187, 0.0865644, -0.06321397, 0.01532105, -0.06142408, -0.03703947, 0.1543896, -0.04520653, 0.166756],
    [-0.1382865, 0.0320241, -0.07468092, -0.05553839, -0.08648466, -0.00475359, 0.06408397, 0.0597381, -0.06482771, -0.1448113, 0.06757838, -0.1092993, -0.05792967, 0.04094289, 0.01742765, 0.002056628, 0.006141052, 0.156566, -0.06103085, 0.02890754, 0.1202874, 0.005091161, -0.1096618, -0.01200388, 0.08586705, 0.1221673, -0.09981198, -0.01089177, 0.01778592, 0.01514448, 0.02859928, -0.08267443, 0.1583801, 0.00624238, 0.02940474, -0.1238726, -0.002038881, 0.08555499, -0.01378253, 0.1271205, -0.07043585, -0.1406656, -0.002767876, 0.0003051758, -0.141888, -0.004060373, 0.1287246, 0.1314341, -0.02820091, 0.07388632, 0.1080252, 0.05862806, -0.1414223, -0.06679927, -0.01002885, 0.08330268, 0.1620968, -0.05949149, 0.04828634, 0.07741986, 0.05608353, 0.04230656, 0.1437102, 0.08344764, 0.1132922, 0.1121306, -0.1593335, 0.1102765, -0.1313356, -0.1309943, -0.1491656, 0.142771, -0.01939832, 0.07059717, -0.1093925, 0.1342659, -0.01948553, 0.04416827, 0.08078375, -0.1341237, -0.08150815, 0.07859324, 0.08159629, 0.08230448, 0.1159592, -0.002183914, -0.01235087, -0.133681, -0.09775373, -0.1057376, -0.07251237, -0.09357361, -0.0927778, -0.01376851, -0.03696813, -0.01049943, -0.07722288, -0.0558655, -0.162922, 0.102192, -0.04217519, -0.01463935],
    [0.03684762, -0.1562957, -0.06069668, -0.1227487, 0.001550272, 0.009338453, -0.06094797, -0.06373419, 0.06991462, -0.1259517, -0.1620413, -0.03972539, 0.1343315, -0.150125, -0.1441122, 0.08218254, -0.09150209, 0.08361576, 0.0173628, -0.03013338, -0.05351609, -0.1026918, 0.07165337, 0.05512605, 0.08599429, 0.06324412, 0.1146958, 0.09371488, 0.1316111, 0.06644785, -0.1312361, 0.1358212, 0.1039858, -0.04617718, -0.1438816, -0.05949557, -0.0007209182, -0.1634166, 0.1454005, -0.1653057, 0.1139308, -0.1195359, -0.1363092, -0.1189679, 0.1358439, 0.161172, 0.03435519, -0.05548143, 0.05194121, 0.02972007, 0.1186493, 0.159629, -0.08584173, 0.01298852, 0.1606074, -0.07160138, -0.03398274, 0.1362732, -0.07340194, -0.05310655, -0.1565256, 0.1699418, -0.01381189, -0.1402479, -0.1485172, -0.1247578, 0.01125579, 0.03696764, -0.01118268, -0.03766111, 0.1516373, 0.1667892, -0.09485148, -0.01782824, -0.04954189, 0.06458244, -0.006264821, 0.006184801, -0.1459549, -0.02503267, 0.1247426, -0.1405983, -0.03819728, 0.09336558, -0.0539832, 0.06388975, -0.1515027, 0.1395656, -0.07849152, -0.03012495, 0.1266618, 0.1125413, -0.06663871, -0.1431443, 0.1580336, -0.01760614, 0.1428837, 0.07262181, 0.06100928, 0.1285368, 0.1705827, 0.1215065],
    [0.02995642, 0.1374797, 0.04322734, 0.1342851, -0.02012543, 0.1648441, 0.09367208, -0.05802694, -0.1063438, 0.03793505, -0.01277623, 0.1605955, -0.003893986, 0.0519946, 0.02363926, -0.1172613, 0.05146641, -0.1270558, 0.0185056, -0.1674613, 0.05824191, 0.1651325, -0.0502085, -0.1383255, -0.1159576, 0.1224398, -0.1308274, 0.1594756, -0.0713307, 0.1102336, 0.09790011, -0.01628332, 0.02122125, -0.05247004, -0.1277003, -0.1636608, 0.1496613, -0.04376449, -0.0433681, 0.01985979, -0.03415443, 0.1163356, -0.04054615, -0.1530562, 0.1129596, 0.1048508, -0.006308943, -0.06490993, 0.05274024, 0.03803919, 0.1077202, -0.1498832, 0.08317478, 0.08987845, 0.1690633, 0.1247959, -0.01941475, 0.02064189, 0.07011236, 0.09398745, 0.1613268, -0.1623152, -0.07413515, 0.1701788, 0.05769997, -0.0616084, -0.08110227, -0.04405962, 0.08862109, 0.1351103, 0.09014115, 0.07156415, 0.1020079, -0.02947487, 0.02106979, -0.1335673, 0.164463, -0.03645645, 0.1300553, 0.07495984, 0.01318491, 0.003526807, -0.08680098, -0.07072367, 0.1315353, 0.02402955, 0.1100252, -0.1345004, -0.002354741, -0.1495948, -0.02316974, 0.07965437, 0.1210017, -0.1354995, -0.03842972, -0.007084593, -0.1669913, -0.1176349, -0.0002729148, 0.1692489, -0.06768708, -0.09575613],
    [0.1200775, -0.1024568, 0.1336288, 0.06624354, -0.01662518, -0.07103993, 0.07556226, 0.1064429, 0.081202, -0.03871557, 0.1169099, -0.08399962, 0.1172571, -0.1160509, -0.09148013, 0.05057144, 0.08015656, 0.1152704, -0.1081358, -0.1173372, -0.07948969, 0.04737764, -0.02641678, 0.1651067, -0.1091344, 0.1145567, 0.01373801, 0.06939207, 0.01338555, -0.01492299, -0.05358364, 0.09274849, -0.08451988, 0.1511519, -0.08522112, -0.09112256, 0.03082472, 0.1697642, 0.1296429, 0.1292336, -0.01214692, -0.01230605, -0.0597203, -0.1424689, 0.05323222, 0.06715801, 0.02386902, 0.1613786, 0.004999742, 0.0008675456, 0.1267215, 0.0356738, -0.09883966, -0.09349834, -0.05101944, 0.1149844, 0.06820978, -0.0115703, -0.1019423, -0.0479712, -0.1275748, -0.04540272, 0.07577378, 0.08035929, -0.005439371, -0.01507215, 0.04861996, -0.131499, 0.02477588, -0.05141725, 0.01724783, -0.03252077, -0.1009404, -0.04610208, -0.01461498, 0.1304485, -0.1591345, 0.1712074, -0.09341763, 0.06681389, -0.1071109, -0.01917495, 0.04336927, 0.1481264, 0.1596778, 0.06336626, -0.1668869, -0.1297327, 0.02915536, -0.1299555, -0.01670597, 0.0118304, 0.1030453, -0.1025971, -0.02279496, -0.01437464, -0.1168751, 0.07573546, -0.01455975, 0.0006877184, -0.1315209, -0.07963149],
    [0.1277867, 0.08215065, 0.02545448, 0.1055706, 0.06322479, 0.0953664, -0.1676158, -0.08404414, -0.1602029, 0.1097128, -0.1566824, -0.04899452, -0.1051538, -0.05226666, 0.05605041, 0.07494076, 0.1085544, 0.151028, -0.03652069, 0.1540946, -0.1320277, 0.04741408, 0.0135843, -0.0913883, 0.0779205, -0.07333578, -0.03936689, -0.03012396, 0.0966571, -0.1424808, 0.14912, 0.1521122, -0.1360534, -0.1169616, -0.003914803, 0.1012708, -0.05552743, -0.1569986, -0.01179144, -0.003201827, 0.1615687, 0.1557145, 0.08677179, 0.08457297, 0.03251688, -0.09753187, -0.1555695, 0.07407229, 0.0458797, -0.006191552, -0.119302, 0.003209278, 0.005748808, -0.1104601, 0.1083091, -0.009939015, 0.0984229, -0.024441, -0.02834442, 0.02286328, -0.09491922, -0.06411098, 0.06629424, -0.1473973, -0.1157303, -0.1165751, -0.02658357, -0.168647, 0.08283953, -0.03407924, -0.07216887, 0.06140807, 0.09413899, 0.01499169, -0.1390366, -0.1503604, 0.1410414, -0.1314487, -0.004510343, -0.08081371, 0.006136522, 0.1399115, -0.01183596, -0.0831062, -0.05277163, 0.1271832, 0.1713596, 0.1053736, -0.08942826, 0.1549614, -0.05228661, 0.159618, -0.04570414, -0.01892933, -0.04577902, -0.1073686, -0.1130845, -0.1336147, 0.02115411, -0.1016504, 0.1012779, 0.1614567],
    [0.1268904, 0.04395822, -0.01338027, 0.04972427, -0.1128363, 0.06921948, 0.01797234, -0.119321, -0.1253605, -0.1014291, 0.07963078, 0.1471453, -0.162474, 0.08447851, 0.05633169, -0.07747099, 0.1217158, -0.0581075, 0.01993039, -0.00798288, -0.1280384, -0.142698, -0.1559915, 0.102455, 0.1398986, 0.06827205, 0.1524034, 0.0149342, -0.04123561, -0.07377468, 0.08507717, -0.09584264, 0.07067588, 0.116118, 0.008049279, -0.1607769, -0.1550002, 0.004870608, 0.03160267, -0.006503895, -0.01025395, -0.1412711, 0.1582778, 0.1382586, 0.02090971, 0.08211626, 0.1256804, 0.145386, -0.009576216, 0.01070704, 0.05232155, -0.1434849, 0.02922098, -0.1254785, 0.04917031, -0.03160061, -0.09122266, -0.1549291, 0.03862251, 0.1666955, 0.1465153, -0.1435518, -0.117379, 0.1389829, -0.0721402, 0.09259917, -0.05772972, 0.1439581, 0.04077786, 0.1675708, 0.07449135, 0.1711557, 0.1325763, -0.1062129, 0.135067, -0.1265076, 0.001740441, 0.01397119, 0.1652632, -0.01111476, -0.08520549, 0.08639422, 0.1645501, -0.08148952, -0.0908352, -0.07817174, 0.0186896, 0.06929524, 0.09232692, 0.1616194, -0.05407385, -0.0209102, 0.1582581, 0.06090964, 0.07487909, 0.1358043, 0.110012, 0.03619345, 0.09518004, 0.03986377, -0.007601216, -0.1452373],
    [-0.04247674, 0.07201412, 0.09676982, -0.1143883, -0.01621646, 8.192658E-05, -0.07330847, -0.009627447, -0.06277847, 0.170107, -0.1126832, -0.02646241, 0.02205087, -0.01333852, 0.05187864, -0.03753246, -0.02761824, 0.1462093, -0.01617394, -0.0169563, 0.154707, -0.01509812, -0.1539719, -0.04882655, -0.1662447, 0.1448894, 0.06428273, -0.09344201, -0.1580534, 0.05547765, -0.01663601, 0.1428759, 0.1652984, -0.1654018, 0.07897419, -0.0571274, 0.03557366, 0.1265541, -0.04627204, -0.08642685, 0.06313499, 0.07396082, 0.02847548, -0.05684613, 0.1394105, 0.01415126, 0.01523224, 0.1110084, 0.09200174, 0.1555966, 0.1128788, 0.1237144, -0.02505621, 0.1563544, 0.1343993, 0.1391963, -0.09670387, -0.1200871, -0.01971368, -0.147353, -0.06558877, 0.03145067, 0.1213386, -0.114588, 0.1195436, 0.04282543, -0.09349932, 0.02295092, 0.01111445, 0.00731574, -0.1507816, 0.01135679, 0.00143975, -0.09494163, -0.06595738, 0.1348949, 0.008187026, 0.01363006, 0.07022218, 0.08865683, -0.1151901, -0.1621702, 0.02460432, -0.09700306, 0.1256366, -0.0892664, 0.124073, 0.0575888, -0.01409668, 0.1020897, -0.1108821, 0.0199317, -0.1129331, 0.09104908, -0.05978907, -0.08350188, -0.02720262, -0.07115, 0.01153019, -0.09184747, 0.07815618, 0.1478175],
    [-0.1596266, -0.1440244, 0.09573323, 0.1367095, 0.1232238, -0.08443986, 0.08725125, 0.1362479, -0.08178313, -0.1042662, -0.1046192, 0.09320215, -0.09277369, -0.1547139, -0.09715749, -0.1357086, 0.06389936, 0.1251094, 0.1068685, 0.05099504, -0.02954535, 0.02107981, -0.1028408, -0.1532934, 0.0023987, 0.05834957, 0.03962697, 0.09122346, 0.1308796, 0.1513345, -0.0246136, 0.07274602, -0.07024796, -0.1325227, -0.1003435, 0.1638576, 0.03449012, -0.1464679, 0.1185345, -0.09388079, 0.01847984, -0.04326601, 0.008484572, -0.006228641, -0.01587537, -0.02076489, 0.04799252, 0.06971402, 0.1620318, -0.06181198, 0.08832175, 0.02869955, 0.1266807, -0.0928795, 0.09086243, -0.02844468, -0.1226309, 0.1710287, 0.03285801, 0.1082845, 0.07497698, 0.04311163, 0.1005348, -0.1303532, -0.08896904, 0.05557358, 0.1494648, 0.08482541, 0.008408114, 0.0944896, 0.02362341, 0.1634111, 0.1450119, 0.04116917, 0.1395595, 0.04329469, 0.03298117, 0.1131046, -0.1132029, -0.146162, 0.07408557, 0.003268152, 0.06061144, -0.1062899, 0.1383416, 0.08806671, 0.08761094, 0.100679, 0.1023135, -0.1076517, -0.07034104, -0.1078356, -0.06172845, 0.1624996, 0.02922595, -0.1401169, -0.1691778, -0.02421433, 0.1424448, 0.0319902, 0.1206446, 0.1618282],
    [-0.132416, 0.1350044, 0.1517866, 0.145336, 0.05561536, 0.1560675, 0.1080058, -0.1248492, -0.03858727, 0.1696789, 0.08590973, -0.1210498, -0.03732672, -0.04956496, -0.01869819, -0.147621, 0.03993863, -0.1391952, 0.07487272, 0.112205, -0.01001532, -0.1028703, 0.08707862, -0.02862369, 0.07542054, -0.09637325, 0.0697155, 0.07458846, -0.1113246, 0.0009145737, 0.0653841, 0.169791, 0.03076935, -0.1576975, 0.1509571, -0.09382312, 0.04349799, 0.1605663, 0.04088451, -0.133609, -0.1503524, 0.1032552, -0.07393844, -0.1598209, 0.06858195, 0.02925664, -0.1330408, 0.01401499, -0.07065244, -0.09576897, 0.1232936, -0.1059743, 0.02490206, 0.003123373, -0.157334, 0.1089662, 0.1647485, -0.05810954, -0.008226201, 0.07080951, -0.1441972, -0.05212801, -0.1517601, -0.02681617, 0.01487368, 0.1288965, 0.09918899, 0.01775755, 0.1597249, -0.04581414, 0.1450235, 0.1161406, 0.1053636, -0.1707122, -0.1115152, 0.08905512, 0.08903402, -0.10646, -0.1047413, -0.0002671033, 0.08851694, 0.02462611, -0.1541553, -0.03931491, -0.04606175, -0.1563681, 0.006934449, 0.06374652, 0.002662227, -0.1097092, -0.08510576, 0.04322051, 0.1469376, 0.03148122, -0.05089988, -0.0409718, -0.1390138, 0.09720664, -0.1582444, 0.1434835, 0.1239011, 0.04078551],
    [0.1100726, -0.1088217, 0.1531499, 0.1146346, -0.1619531, -0.03481518, 0.08429109, -0.07331513, -0.07868363, 0.06752506, -0.05701626, 0.1158723, 0.09033754, -0.1581212, 0.06258402, -0.09960148, 0.1006384, -0.00905861, -0.03739172, -0.06608099, 0.03639929, -0.09387734, -0.1179119, 0.08778961, 0.04193898, -0.03349273, -0.1006156, 0.06309218, -0.07331264, -0.06483401, -0.09047721, 0.1554351, -0.1547553, -0.1710888, 0.08304407, 0.01226659, 0.03539367, 0.1061658, -0.1226149, -0.02568781, -0.1263251, -0.1631884, -0.1385272, 0.01524152, 0.03689477, 0.07548073, 0.1424018, -0.1555855, 0.08544782, -0.03170051, -0.1678409, 0.05569231, -0.08183207, 0.01122214, 0.1135867, 0.00837037, 0.1412972, -0.0426946, 0.1499382, -0.1366164, 0.1363128, -0.04039519, -0.1159427, 0.0724585, -0.09582375, 0.08969048, 0.05734081, -0.01121351, 0.05447748, -0.04493189, 0.0421325, 0.1020579, 0.1007259, 0.08688962, -0.1096836, 0.1164467, 0.1556036, 0.09096833, -0.05765429, 0.1566712, 0.07760222, -0.007424265, 0.1080099, -0.0625353, -0.01251446, -0.05556574, 0.1572931, 0.05682848, 0.1578056, -0.1658558, 0.0960616, -0.07355036, -0.03406946, -0.1216165, 0.0042319, 0.1476683, -0.01814921, -0.1667841, 0.006636336, -0.1613814, 0.009391442, 0.1713422],
    [0.08951797, -0.07027753, -0.0249078, 0.05720085, -0.1504669, -0.02365068, 0.01373142, -0.0163926, 0.1699707, -0.1568042, 0.09044634, -0.161827, 0.10489, -0.04664781, -0.07936151, 0.04540294, 0.1388327, 0.08206208, 0.08256526, -0.1495727, 0.1359668, 0.1486667, 0.008320451, -0.1081471, -0.1704929, -0.06671606, -0.1660803, -0.1461159, -0.1605234, 0.00509207, 0.02105936, 0.01631938, -0.04333057, 0.1165508, 0.07936022, 0.03225164, 0.02362634, 0.03342494, 0.1692336, -0.09854361, -0.1145622, 0.08989603, 0.0310833, -0.02718957, 0.03377785, -0.1309132, 0.135325, -0.03081372, 0.04842017, 0.05617344, -0.1193453, -0.1644825, -0.03338985, -0.04975055, 0.1630635, 0.06140046, -0.1422051, 0.1252517, -0.1314092, 0.04373579, -0.02264147, -0.006567359, 0.06711891, 0.1210901, 0.11889, -0.003568277, 0.1186452, -0.00505285, 0.01420087, 0.06655253, -0.1510537, 0.1574325, 0.03987849, -0.0704181, 0.05769707, -0.1218081, 0.07433957, 0.1159277, 0.04599655, -0.03814776, 0.1235814, -0.08106305, 0.08964305, -0.08529262, 0.01510254, -0.0823442, -0.08245067, 0.01190645, 0.0707568, -0.1625411, 0.05359898, -0.1529133, 0.003827676, 0.01191995, -0.01478958, 0.09858854, 0.1298321, -0.1453236, -0.08985813, -0.1427642, 0.06633705, -0.0581158],
    [-0.1067519, 0.04058106, -0.07609391, -0.1660219, -0.06779552, -0.1181975, 0.09737775, 0.00182949, 0.05800603, -0.01263618, -0.1310052, -0.1537299, 0.006442979, -0.06373142, -0.1252003, -0.01245938, 0.1671632, -0.1195384, 0.07917781, -0.01006198, 0.02454221, 0.06054835, 0.1103427, -0.01826264, -0.1689391, 0.04256012, 0.1254629, -0.1262584, 0.1368488, 0.0593793, 0.08583564, 0.1583927, 0.07229409, 0.0706372, -0.1230799, -0.1616195, 0.1161941, -0.08436929, 0.1050131, 0.1571418, -0.0300875, 0.1026893, -0.1437781, 0.05965915, 0.1538398, 0.006855875, -0.05351098, -0.07916648, -0.1235242, -0.01732686, 0.09900118, -0.08962293, 0.06509866, -0.1173628, 0.1398394, -0.006325379, 0.07718831, 0.1017915, 0.03745019, -0.003315911, -0.05589743, 0.1082963, 0.03814793, -0.1528981, 0.02941455, 0.0499326, 0.02375327, 0.06251598, 0.03198186, 0.1264287, 0.03582485, 0.07278708, 0.115361, -0.02792172, 0.07628721, 0.03113669, 0.01716115, 0.09047035, 0.05619602, 0.1626628, 0.1513319, 0.1392269, -0.1280725, 0.05480237, -0.08840601, -0.09188113, -0.1211542, 0.1001886, 0.1484828, -0.1583696, 0.01104763, -0.06959069, -0.1479817, 0.1222904, -0.1046294, 0.01582243, 0.0664434, 0.1577707, 0.1509666, -0.1074418, 0.03288636, -0.07245971],
    [0.05389281, -0.04367338, -0.08803512, -0.1108314, -0.09658866, -0.1033186, 0.0361385, 0.1238704, -0.05855122, 0.1056674, 0.06166587, 0.06555465, -0.03331344, 0.09530868, 0.1339363, -0.1158503, -0.1487171, -0.1524677, -0.1706404, -0.007586747, 0.1605408, 0.1524579, -0.03257258, 0.1373079, -0.08908962, 0.05039243, -0.04560295, -0.09454455, -0.1047003, 0.05677643, -0.08455123, -0.008267954, 0.02505429, -0.09120622, -0.1592936, -0.1031095, 0.000175193, -0.1268163, 0.09151815, 0.05896327, -0.1644395, -0.09646889, -0.08470593, -0.002334058, 0.07267892, 0.1187338, -0.0003266782, 0.07991172, 0.165664, -0.1697528, -0.07975454, -0.03540929, -0.1575019, 0.1257909, 0.1599587, -0.144678, -0.05041225, -0.0819069, 0.01710272, 0.02605806, 0.08161367, 0.02255605, 0.1042912, 0.1133611, 0.1030442, 0.1366983, 0.06387237, -0.0842583, -0.1655446, -0.04888384, -0.0362318, 0.04608103, 0.06093601, -0.1312423, -0.1072135, -0.1699919, -0.1102222, -0.05863091, 0.1364169, 0.01770222, 0.1359215, -0.1593472, 0.1707893, 0.006492242, -0.06374314, -0.0779646, 0.1020612, 0.05226643, 0.07645261, 0.02495076, 0.1133509, 0.165894, -0.000549227, -0.1296835, 0.1122249, 0.03148347, -0.1644254, 0.1494081, 0.08808823, -0.06222541, -0.0625699, 0.03168391],
    [-0.1593169, 0.1699228, -0.1255423, -0.01176044, -0.01607932, 0.09575216, -0.06326945, -0.01341373, 0.1613471, 0.1683444, 0.002118781, 0.07047226, 0.1414758, 0.05948271, 0.1466508, 0.160778, 0.144115, 0.03411983, -0.06752779, -0.02196476, -0.00877893, 0.07757626, 0.1360008, 0.07281639, 0.01507069, -0.1000615, 0.1082469, 0.1081442, 0.1467409, 0.12649, 0.1521861, -0.06446773, 0.1568208, -0.1703369, 0.1337795, -0.1142313, 0.07539257, 0.05733423, 0.1201366, 0.03355345, -0.1262476, 0.04017554, 0.02718119, -0.05405721, 0.05780424, 0.03340481, 0.092072, -0.09712683, -0.1088879, 0.008423239, 0.05265642, 0.04566278, -0.1194225, 0.02694653, -0.161566, -0.04868446, 0.01797189, -0.1432977, -0.003382474, 0.1576277, -0.1328242, -0.02837865, 0.07603043, 0.1196277, 0.1607778, -0.01064153, 0.04536438, -0.1302432, 0.03015758, -0.1507448, 0.06491985, 0.1488181, 0.08099683, 0.1175917, -0.01776081, -0.05731258, -0.03753868, -0.0611682, 0.01448402, -0.1142506, -0.15855, -0.07367818, 0.1547582, -0.003142834, 0.1165558, 0.06148035, 0.1435053, -0.1449831, -0.1228253, -0.01125583, -0.1186754, -0.008435711, -0.02011378, -0.160454, -0.02681139, -0.00906752, 0.1249569, -0.1410892, 0.03449298, -0.02701689, 0.1458416, -0.07679],
    [-0.01954286, -0.1125095, 0.1461415, -0.0734098, -0.1504798, -0.1297935, 0.01228054, -0.1026871, 0.06346986, -0.1176663, -0.08889333, 0.02228099, -0.01154083, -0.1215506, -0.05522613, 0.02202944, -0.1272366, -0.0314856, 0.08753321, -0.1551619, 0.1446535, -0.1412265, -0.1441195, -0.07292677, -0.004215002, 0.08438213, 0.07465208, -0.125772, -0.13896, 0.139196, -0.05482513, -0.09866386, -0.0381842, 0.1560836, -0.05827959, 0.03799286, -0.07347946, -0.1082738, -0.0693575, -0.0418258, -0.1288219, 0.02199158, -0.1574548, -0.1077151, -0.02685568, -0.04107283, 0.08074082, -0.02395575, -0.1099422, 0.002757981, 0.1065802, -0.1590923, -0.03600189, -0.1093599, 0.07946403, 0.1536496, -0.03935397, -0.06041835, -0.1342768, -0.14574, 0.04078825, 0.004657418, -0.1436619, 0.05373637, -0.04483947, -0.02985652, -0.08982261, 0.08445067, -0.1672228, 0.07062207, 0.04042979, -0.07059094, 0.124879, -0.1515981, 0.1109825, 0.08585232, 0.09226907, -0.09889493, 0.05026221, -0.04346964, 0.01690003, -0.006355226, 0.1585786, 0.03256644, 0.1233136, -0.01128359, 0.1218595, 0.002717957, 0.04873175, -0.08241452, 0.1285378, 0.09762354, 0.07514663, -0.08635204, 0.01035085, 0.04824383, -0.1575716, 0.1355717, 0.08845945, -0.1425501, 0.04274791, -0.03835347],
    [0.08460114, 0.003135517, -0.1160033, -0.0879143, 0.1663445, 0.006090313, 0.1378129, 0.1395854, -0.07986788, -0.01689661, 0.04829964, 0.00885348, -0.02332532, 0.1341927, 0.03020513, 0.1121445, 0.1445899, -0.1469575, 0.04979759, 0.04490078, -0.003787726, -0.1421816, 0.1139723, -0.09777774, 0.1560248, 0.007731453, 0.01201521, 0.006867602, -0.09166078, 0.04706002, 0.03087682, -0.02699837, 0.07742706, -0.07229358, 0.0179902, 0.08509213, -0.1412202, -0.03340162, 0.1212185, -0.11632, 0.08404363, 0.1709582, 0.1576671, -0.01088415, -0.1047477, 0.004710287, 0.1277062, 0.04948062, -0.1466794, 0.003268972, 0.1531751, 0.1271395, 0.04289275, -0.02070446, -0.03194354, -0.01358254, 0.006636918, 0.01776257, -0.1702448, -0.0886877, -0.01345509, 0.105603, -0.07769233, 0.08178785, 0.1703847, 0.09222744, -0.05779044, -0.1398613, 0.03262271, -0.006973252, -0.135503, 0.02632511, 0.1472498, -0.009356111, 0.1610661, -0.1714487, -0.08125813, 0.02776086, -0.1144737, -0.1493482, -0.01123564, 0.136255, -0.01197056, -0.07507239, -0.01337136, 0.1657699, 0.04578598, -0.03172606, -0.05082882, 0.02669245, 0.1059035, 0.07055363, -0.1448987, -0.1148701, -0.1668132, -0.1318163, -0.0137302, 0.1498476, -0.08102755, 0.1307782, -0.09966166, 0.07686991],
    [-0.1222388, 0.05435064, 0.09590921, 0.01874442, 0.0829109, -0.07389294, -0.1034377, -0.1343404, -0.02177316, -0.05095063, -0.009048596, 0.09824909, -0.07242855, 0.08683164, -0.126471, 0.1246238, 0.04073723, 0.1572316, 0.07756612, 0.0827336, -0.08075111, 0.08439915, -0.1082715, 0.00233078, -0.05845222, -0.03109254, -0.09958999, -0.1061299, -0.1368736, -0.08765068, -0.04876591, -0.02885495, -0.07097974, -0.005809575, -0.007639945, 0.1447174, -0.06868194, 0.02540904, 0.1357955, 0.0120873, -0.007661939, -0.1482795, 0.07661133, -0.0111676, 0.1427016, 0.1417413, -0.06963746, -0.1387741, 0.08768294, 0.1467109, -0.07681195, -0.08752163, 0.006957933, 0.02255192, -0.1614628, -0.1360952, -0.01899597, 0.01413377, 0.03909923, 0.07737652, -0.088089, 0.04697113, -0.009409845, 0.01125468, 0.04363946, 0.1711911, -0.1043746, -0.12775, 0.1475623, 0.07257119, 0.09849201, -0.03494836, 0.06178318, -0.1014485, 0.1497316, -0.1612281, 0.170759, 0.02984904, 0.07021847, 0.07698984, 0.1676676, -0.1135302, -0.01258491, 0.1304007, 0.05968797, 0.09035115, -0.01336391, -0.09653579, -0.09054796, -0.03526214, -0.01546554, 0.08238037, -0.1201081, 0.1378499, -0.09860703, -0.07213469, 0.06610128, 0.02167912, 0.09265167, -0.04735702, -0.163754, -0.008565053],
    [0.1377462, 0.08493716, -0.1025757, -0.05021794, 0.02972032, 0.05157059, -0.04079692, 0.134074, 0.09407429, -0.03331372, 0.09708933, 0.122692, -0.165033, -0.09143753, 0.1221868, 0.1433847, -0.0460705, 0.1503109, 0.08317659, 0.01664068, -0.04590598, -0.07813278, 0.07740305, 0.1303075, -0.09223597, -0.1050393, 0.02767651, -0.167103, 0.07217154, 0.1700753, 0.03800358, 0.1124674, 0.006598189, -0.1644945, -0.1094127, -0.1164065, -0.111845, 0.1492369, -0.0324513, 0.09483544, -0.01174776, -0.102797, 0.009956405, 0.03974453, 0.02263664, 0.06035061, -0.1119087, 0.08762021, 0.01621401, -0.05345783, 0.1362062, -0.1609143, 0.1105172, -0.05920187, -0.05480477, 0.1251864, -0.03114738, -0.1182199, 0.05531197, 0.1662231, -0.0748608, -0.06457391, 0.1534036, 0.004234597, 0.08294871, 0.1415294, -0.1270963, 0.04556989, 0.02576134, -0.03098655, 0.0869348, 0.06795104, -0.01538086, 0.04339601, 0.1343586, -0.1157677, -0.1648387, -0.115553, 0.1085054, 0.06561901, 0.1297988, 0.05703108, -0.1223719, -0.05920102, 0.05767638, 0.0529036, -0.163135, 0.06479089, 0.09464175, -0.001167178, 0.06011468, -0.0978312, -0.1433085, 0.04756957, 0.01487029, -0.1043595, 0.09460907, 0.0534993, -0.1296052, 0.06157918, 0.1620104, 0.03574654],
    [-0.1127346, -0.05364333, -0.05705928, 0.0783695, -0.06982784, -0.09989689, -0.1674692, -0.1627062, 0.006336704, 0.001081884, 0.04950344, 0.01298317, -0.07810202, 0.07647011, 0.01305255, 0.07962285, 0.02838686, 0.03675546, -0.05365973, 0.005599648, 0.1239044, 0.1276869, -0.102947, -0.03525072, 0.04855106, -0.1186039, -0.09073846, 0.06111064, -0.04787806, -0.08575071, -0.1616121, 0.008237526, -0.1567489, 0.07209025, -0.09052064, 0.1186794, -0.1418657, 0.01647291, 0.0552806, -0.1302003, 0.07434456, 0.08206965, -0.03004272, 0.09043625, 0.05896256, 0.0490629, -0.1153447, -0.1385589, 0.151709, -0.1341934, 0.1162178, -0.07170433, -0.080698, -0.124259, -0.1361979, -0.08451669, 0.005878225, 0.09502782, 0.08403204, -0.1308253, 0.07198088, -0.05183786, -0.01761587, -0.1187309, 0.04388336, -0.06318919, -0.05385399, 0.1655359, -0.1686531, 0.1394303, -0.04628477, 0.05748919, 0.06093707, -0.0358755, -0.1648238, 0.05200944, -0.04724629, 0.03446591, 0.08090429, -0.1054379, -0.01348957, 0.03348607, -0.04664569, 0.08458221, 0.09283918, -0.1689525, 0.1045973, -0.1252491, -0.08521142, -0.1604229, 0.04442652, -0.01191132, -0.09905022, -0.145163, -0.0465422, -0.168542, -0.05584624, 0.05988039, 0.1332706, -0.0003867447, 0.09836721, 0.003977448],
    [0.09417844, 0.1069753, -0.06816565, -0.04767804, 0.1271588, -0.09878229, -0.1400026, -0.1124643, 0.0001156181, -0.01464094, -0.1305551, 0.1154507, -0.1104212, -0.08203267, 0.006775975, -0.01038061, 0.02226247, -0.005193427, 0.01677573, -0.03459929, 0.04385661, -0.04209955, -0.1686577, -0.1576946, 0.1693822, 0.1592681, -0.1361798, -0.1282185, 0.1584619, -0.169352, -0.003106445, -0.08687655, -0.110691, -0.01205786, 0.03111915, -0.1304721, 0.01679328, -0.151396, -0.0677451, -0.1703008, -0.06320629, -0.1177454, 0.04015505, -0.1554296, -0.03104106, 0.05811638, -0.08958377, -0.1535279, 0.07147387, -0.03587341, -0.08042405, -0.07249311, 0.1027877, -0.02316493, 0.1219591, 0.0244132, -0.1313091, -0.09401722, 0.04613828, 0.1497965, 0.04206945, -0.04937957, -0.01849031, -0.01329657, -0.07644044, 0.1171425, -0.0426984, -0.02108771, -0.07719871, -0.02776176, -0.02761003, -0.1311245, -0.1460825, 0.1286281, -0.03395714, -0.1373358, 0.03566906, -0.1310891, 0.1181276, -0.1136705, -0.1419717, -0.05393074, -0.02699482, -0.09820668, 0.1348416, 0.1121494, 0.04389669, -0.1438284, 0.1138612, 0.0106383, -0.0649783, 0.04439295, -0.03528757, -0.1429601, -0.1315561, -0.05553459, -0.02787319, 0.1616262, -0.005121917, -0.1645363, -0.08216079, -0.01418239],
    [-0.03804521, -0.007761836, -0.0526071, -0.1548681, -0.002073765, -0.1189552, -0.1708408, -0.155619, 0.1586767, -0.09528907, -0.1282911, -0.1380112, 0.01630604, 0.01452319, -0.06298283, 0.03475642, 0.1267348, -0.01338641, 0.01580811, 0.08143339, -0.04509711, -0.02403171, -0.0006732941, 0.02392271, 0.0168356, -0.06677073, 0.02974731, 0.02356878, 0.09679011, 0.08400593, -0.08215453, 0.1301072, 0.110509, -0.1045329, 0.1226069, 0.05758896, -0.03112537, 0.02361445, 0.09152216, 0.1411705, -0.1104213, -0.1450864, 0.1023146, 0.03728554, 0.1333007, -0.1296394, 0.1684746, 0.1441343, 0.1587226, 0.05936352, 0.1183901, -0.06971319, -0.1461054, 0.05395827, -0.1083973, -0.138082, 0.008609369, 0.05140192, -0.03109568, 0.06342146, 0.1514961, 0.0527465, 0.1086456, 0.1708594, 0.1685964, -0.04118171, -0.1018003, 0.01674968, 0.09102406, 0.01922618, -0.08938853, 0.06562056, -0.02669086, -0.1431146, -0.04107414, -0.03757462, -0.07156011, -0.1024888, -0.113317, -0.1243648, 0.06516109, -0.1047042, 0.08529767, 0.08374207, 0.06341107, -0.07471196, -0.1544093, -0.08141191, 0.08382373, 0.1326677, 0.006916553, 0.1022811, -0.08943309, -0.113112, -0.04149128, -0.08627196, -0.03760137, 0.108835, -0.1238398, 0.1699585, -0.0410272, -0.0107713],
    [0.02177218, -0.1298558, 0.07756743, -0.1657661, -0.03631309, -0.1427337, 0.07173657, -0.08760084, 0.09727205, 0.1347003, 0.09538228, -0.1183551, -0.1671851, -0.1367802, -0.08989792, -0.1628134, 0.0171313, 0.1698497, 0.02227642, 0.08155249, 0.03185862, -0.1427673, 0.09489606, -0.05144783, 0.02237128, -0.1281769, 0.01946211, 0.09243213, -0.09946544, 0.1317934, 0.01027116, 0.1557849, 0.150752, -0.09998979, 0.1230552, 0.1603369, 0.1300946, -0.106882, -0.1629866, -0.02308135, 0.08731171, -0.09059875, -0.1422026, -0.1160322, -0.09650095, -0.002944157, -0.07417019, -0.1342168, 0.1011506, 0.1208305, 0.1095866, 0.1709055, 0.08640097, 0.1295314, 0.1174955, -0.101993, 0.0102212, -0.141037, -0.04564375, -0.1049834, 0.1274755, 0.1156501, -0.06988242, 0.1148132, 0.08153684, 0.09539904, -0.06531139, -0.1406818, 0.06365468, 0.1085242, 0.01814264, -0.07730637, -0.08838381, -0.1575509, -0.08844833, -0.008354232, -0.02210435, 0.1555505, 0.05407849, -0.1622065, -0.00747937, -0.05645764, -0.03574409, 0.1186628, 0.09470578, -0.1213497, -0.009893924, 0.045058, -0.0483834, -0.134162, 0.08614836, -0.02794637, 0.08176483, 0.1137052, -0.006780759, -0.03585657, 0.03890477, -0.1714216, -0.1215551, 0.1121399, 0.08797424, -0.09329403],
    [-0.06026603, 0.05437317, 0.1062684, 0.07552897, -0.06524082, 0.0506066, 0.113456, 0.05513885, 0.03517745, 0.04778199, -0.1304037, -0.04901276, 0.02129292, -0.04728183, 0.1058374, 0.1369798, 0.0013946, -0.1310776, -0.1534919, -0.0654778, -0.109455, -0.06622152, -0.05560717, 0.1109509, 0.1546085, -0.002425402, 0.1251693, 0.0386349, 0.1138214, 0.004926264, 0.0779084, 0.1132456, -0.131958, -0.03896193, -0.1399823, -0.1198584, -0.1114148, -0.001549974, -0.04113486, -0.01202932, 0.06171366, 0.05209253, 0.07485898, -0.1137861, 0.08928834, 0.1192853, 0.07527015, -0.1651173, 0.04167835, -0.02742182, 0.01508066, -0.07138713, -0.01243481, 0.02855185, 0.1393816, -0.06530271, -0.06733009, 0.0924197, -0.03278597, -0.04953122, -0.1170088, 0.109127, -0.1601038, -0.1450481, -0.09632893, -0.1675133, -0.1055765, -0.1184111, -0.1207087, 0.05805534, 0.1457864, 0.00705716, 0.05638177, 0.1274178, 0.1377225, -0.1445949, -0.0007836819, 0.1182135, 0.08027019, -0.1366789, -0.1332328, 0.07048289, -0.1174638, 0.08155335, 0.06709258, -0.06365916, 0.1238264, -0.05014778, 0.05071238, -0.0483457, 0.1508381, 0.1424042, -0.004583254, -0.0974554, -0.05359807, 0.1044645, -0.02550831, -0.1216095, 0.1203563, -0.1309523, -0.1700106, -0.1109961],
    [-0.1570626, 0.1184588, 0.1178544, 0.1269461, 0.1304678, -0.1051006, 0.002703443, -0.04313925, 0.08040272, -0.09468047, -0.1440157, 0.08298163, 0.02288532, -0.02594464, 0.1457403, -0.01645663, 0.1618184, 0.07683368, 0.1117961, -0.1592795, -0.1038845, 0.01126622, 0.1671329, 0.1353652, 0.06255511, 0.08025417, 0.1560945, -0.1228492, 0.1491371, 0.1504091, 0.0659145, 0.06300501, 0.09329259, 0.07052635, 0.08449397, 0.07737496, -0.07683763, 0.08898552, 0.04480503, -0.1420701, -0.04704897, 0.1655473, 0.06226672, -0.1168879, -0.1069062, 0.1368677, -0.1627776, 0.05669543, -0.1054272, -0.1666351, -0.01036729, 0.09875749, -0.09630182, -0.1574008, 0.1308979, -0.1380772, 0.01471831, -0.05834923, -0.1536557, 0.1304734, -0.0987369, -0.07429343, 0.04262757, -0.0893902, -0.1011091, -0.1490115, 0.1438839, -0.1140006, 0.1431509, -0.1128546, -0.01207609, -0.143081, 0.1375807, 0.1235565, -0.1012326, 0.150537, -0.1157277, 0.1323329, 0.1017953, -0.1276921, -0.06470534, -0.08984803, -0.05863712, -0.1307877, -0.1022667, -0.03870253, -0.1436042, -0.01176894, 0.1376427, 0.08763192, 0.01441099, 0.1333956, -0.09825207, 0.06932342, 0.09261143, -0.08221789, -0.01243047, -0.1239422, -0.05446993, -0.0248629, -0.07213153, 0.06374288],
    [0.1373205, -0.03481454, 0.05540515, -0.07248072, -0.167978, -0.04189305, 0.0173572, 0.07744026, 0.1287744, -0.09868894, 0.008023351, -0.107473, 0.097553, -0.007937819, -0.1090892, -0.06008281, -0.1259923, 0.06380417, 0.1076988, 0.0912918, -0.1675842, -0.1409349, 0.01153354, 0.08404051, -0.0425382, -0.03219411, 0.1480734, -0.1427411, 0.01371437, 0.009219915, -0.02038687, 0.08447009, 0.08360812, 0.02709778, 0.01267299, -0.06024387, 0.001202956, -0.02011664, -0.09392285, 0.04382923, -0.07228021, 0.07224158, 0.1505839, 0.1378924, 0.1138711, 0.08460812, 0.07154865, -0.06372954, 0.08193497, -0.123179, -0.1361339, 0.1533519, -0.1508383, -0.1486443, 0.11647, 0.159549, -0.08243804, 0.01588327, -0.05684715, -0.1357073, 0.1060748, -0.1260059, 0.08817308, -0.1078671, -0.1681104, 0.1610665, -0.1330094, 0.07221607, -0.09996106, -0.02675913, 0.1070644, -0.1629627, 0.1376178, 0.04233032, -0.07400553, 0.135584, -0.1360516, -0.015908, 0.01398069, -0.006978497, -0.1548401, 0.0171486, 0.1090746, -0.06898427, 0.1659631, -0.1118174, 0.09580715, 0.06898596, 0.1476697, -0.07059962, -0.0107554, -0.04472977, 0.09187187, 0.102945, -0.05309592, 0.1582189, 0.08235849, 0.0558981, 0.1664563, -0.1217779, 0.03332676, 0.1297262],
    [0.06755078, -0.02290966, -0.09004978, 0.06119373, -0.0179283, 0.1479275, 0.1305481, -0.1250206, -0.02252051, -0.1077578, -0.07706624, -0.1665648, 0.04430226, 0.07232909, -0.08912022, 0.02950071, -0.09077825, 0.1087902, 0.1377025, -0.163423, -0.06732039, -0.02203706, 0.07448726, 0.1185666, -0.1465365, 0.1438004, 0.05757996, 0.02989176, -0.08403338, 0.1012189, -0.02685964, 0.06757576, 0.02093062, 0.1550123, -0.1149954, -0.1067525, -0.08729012, -0.1033678, 0.1169215, 0.1380901, 0.01980577, 0.165629, -0.09372295, -0.005474702, -0.08332838, 0.04089485, -0.115184, 0.1263637, -0.1543672, -0.01448128, 0.1334215, -0.04733134, 0.01210193, 0.1317071, -0.1640247, 0.004984528, 0.104692, -0.1520899, -0.0006887019, -0.03927575, -0.1692757, -0.1470477, -0.1105037, -0.1258827, 0.1195424, 0.141454, -0.01267123, 0.1353177, -0.01670986, 0.1088299, -0.04961615, 0.04108486, -0.1040969, -0.1533303, -0.08868505, 0.1121438, -0.1065932, -0.09160943, -0.05670564, -0.03438054, -0.138496, 0.09461129, -0.07960455, 0.1066833, 0.06446476, 0.1292512, 0.09472282, -0.1185676, -0.09193121, 0.1240399, 0.1115252, -0.006433904, -0.01893444, 0.05920872, -0.1381097, 0.06868777, -0.1623609, -0.05405782, -0.06484084, 0.03343667, 0.1030727, 0.01983607],
    [0.05143594, 0.1126462, -0.07914702, 0.07199167, 0.1597324, 0.03802718, -0.1279573, -0.05172076, 0.141811, 0.169443, 0.1111267, 0.01691103, 0.01618432, 0.0535424, -0.1542591, -0.04635035, -0.1621543, -0.05886835, -0.05570611, -0.003642768, -0.06386994, 0.07006669, -0.08114947, 0.1106143, -0.007167608, 0.1196726, 0.1246363, -0.1440839, -0.1146417, -0.0467982, 0.00195682, -0.1030978, 0.1562405, -0.1020177, 0.09468754, 0.08983433, -0.1273959, -0.1510911, -0.1197172, -0.08145014, -0.1385401, -0.04328233, -0.09322456, -0.06180197, 0.1542364, 0.1349448, -0.1390519, 0.1524599, 0.1019044, 0.1103885, -0.06609567, 0.1268592, 0.03460453, -0.1312532, 0.03773233, -0.1453623, 0.1591878, -0.102311, 0.1606619, 0.04800352, 0.05759088, 0.07624494, -0.1606651, 0.1077887, 0.01294681, 0.1522869, -0.04599895, -0.09386666, -0.1025369, -0.1653633, 0.1357745, 0.08310581, -0.08581267, 0.1202627, -0.1189326, -0.09934552, -0.02066112, -0.1086241, -0.1331501, -0.09104998, 0.1355709, 0.1018577, -0.1302057, 0.01762503, -0.1192386, 0.1133333, 0.1567078, 0.03855816, -0.1528843, -0.04883085, 0.003503755, -0.08732636, -0.09520082, 0.04389616, -0.1076361, 0.03694311, -0.1031097, 0.1380976, -0.03202692, -0.1168742, -0.07576738, 0.160778],
    [-0.1444723, -0.1462597, 0.08107786, 0.005948961, 0.06054692, -0.04457833, 0.05598062, -0.1543038, 0.05503985, -0.03218459, -0.1181778, 0.04897683, -0.115625, -0.1157579, -0.07151695, 0.04922151, 0.1220623, -0.05206537, 0.0254346, 0.1681431, 0.1465452, 0.1226572, 0.09008477, 0.1066173, 0.08117042, -0.04285377, 0.01321149, -0.01481092, 0.102649, 0.04561146, -0.04427268, -0.02398191, 0.152164, 0.1221375, 0.01746303, 0.1098348, -0.1446971, 0.0800052, -0.04764271, -0.01161398, 0.09120356, -0.1279682, -0.1634025, -0.07655203, 0.07584271, -0.141644, 0.1452644, -0.004901856, -0.008081615, -0.0482492, 0.1297643, 0.03090015, 0.05493015, 0.0069585, 0.1298214, 0.0692187, 0.04609828, -0.1378888, -0.1589633, 0.1703856, 0.05178673, 0.08103681, 0.02819665, -0.018336, 0.05624893, 0.1626451, 0.07136486, 0.07674626, 0.0519354, 0.04880919, -0.09757598, -0.1492237, 0.04155965, 0.05566901, 0.04373603, -0.01943332, -0.07619159, -0.06497732, -0.1363501, -0.1662077, 0.1580423, 0.03857881, -0.1641767, 0.03932318, 0.1119979, -0.03883967, -0.1004672, -0.07056494, -0.04158075, 0.05102841, -0.02696852, 0.07413697, -0.06748015, 0.1338366, -0.04317062, 0.07427791, 0.145835, 0.09432036, 0.07837031, -0.1188075, -0.003632143, -0.04075533],
    [-0.1212609, 0.1104194, -0.141896, -0.1177285, -0.1148473, 0.02252702, 0.05387207, -0.03204548, -0.1226883, 0.1300505, -0.1310386, 0.0912637, 0.1042484, -0.1578831, -0.1182901, -0.03793174, 0.04878167, -0.1698665, 0.08286731, -0.0940382, 0.1679633, 0.06350283, 0.165173, -0.1189703, -0.05172056, 0.09594834, 0.0401984, -0.1691588, 0.1702767, 0.07521147, -0.1452096, -0.09298266, 0.1257684, 0.0002472252, 0.1584879, -0.1631032, 0.07866348, 0.1065171, 0.1007254, 0.1013824, 0.02650069, -0.1152055, -0.006555334, -0.1005363, 0.1261563, -0.148853, -0.1023546, 0.03974527, -0.09096719, 0.05928281, -0.02880663, 0.1173989, -0.01418455, -0.0622012, 0.05463097, -0.01529472, 0.14602, 0.1111844, -0.1343942, 0.002267733, 0.02384959, 0.08011399, -0.1443727, 0.06962489, -0.07287636, 0.1119098, -0.1574949, 0.0556924, -0.07173508, -0.01126638, 0.09670289, -0.0118546, -0.03350863, -0.02369565, 0.108427, 0.13804, -0.04009372, -0.161392, 0.1221117, 0.05119262, 0.1206935, 0.04778767, 0.1044322, -0.123915, 0.1209185, -0.08505322, 0.07469105, 0.06421804, 0.1355655, -0.05606148, 0.09005697, -0.1241708, 0.06477547, 0.1461607, 0.06054855, -0.1298235, 0.150709, 0.02216557, 0.07633068, 0.1344149, 0.08338867, -0.09071147],
    [-0.06721883, -0.08568136, 0.09242404, -0.1233766, 0.09713075, 0.1629366, -0.1557435, -0.1104884, -0.1288437, 0.02268407, -0.04097928, 0.01953939, -0.09798016, -0.1079341, 0.002706259, 0.1062328, 0.08294655, 0.0249165, -0.07552688, 0.07955362, -0.1477988, 0.1330651, 0.1244743, 0.01697665, 0.159205, -0.07292379, 0.1631109, -0.1427736, -0.004787937, 0.007299468, -0.03336565, -0.05047342, 0.05821521, 0.06901618, 0.1618345, 0.05589692, -0.04679951, 0.1508552, 0.1637871, -0.1557014, -0.08908547, 0.1499788, 0.02610528, 0.06329225, 0.05635413, 0.1358106, -0.1307895, -0.0317006, 0.01410453, 0.1418203, 0.137207, 0.07479785, 0.05449101, -0.04794516, -0.1083345, 0.04683239, 0.05589172, 0.08720733, -0.01426661, -0.1698608, 0.08912049, 0.05957066, -0.1522605, -0.1356174, 0.1362053, 0.01126945, -0.08637954, -0.1575285, -0.04681063, -0.01430888, -0.07721327, 0.0571847, -0.0722001, 0.09586288, 0.0749969, -0.0803142, -0.1633242, -0.07346475, 0.03599957, 0.06852793, 0.03745727, 0.1613815, 0.1149251, -0.04417762, 0.1081422, -0.0389138, -0.01277524, 0.05282889, 0.07915087, -0.07469483, 0.1293597, -0.02067919, 0.02312993, 0.07386065, -0.00327003, -0.1338595, 0.1042679, -0.0001621395, -0.03242075, -0.08416109, -0.06947011, 0.1696508],
    [0.1435808, -0.009829924, 0.02738792, -0.04384957, 0.01735312, 0.1610759, -0.04593271, -0.1668397, 0.1133383, 0.1001751, 0.02428678, -0.1233651, -0.05603768, -0.01384076, -0.06334752, -0.06796831, 0.02382122, 0.007791966, 0.06673906, 0.09503366, -0.01547091, 0.1565132, 0.08183058, -0.09383298, -0.01669486, -0.1189461, 0.1462543, 0.01334523, 0.08479606, 0.09592883, -0.07914771, 0.0132211, -0.1024414, -0.1152694, -0.111363, 0.167936, 0.05868895, 0.09478445, -0.1714179, 0.03265741, -0.1651428, 0.163064, 0.006328568, 0.1618342, 0.05431793, -0.01560347, -0.06288637, -0.01854077, -0.08988474, -0.07307811, -0.1531873, -0.1136901, 0.007046402, 0.08751706, 0.01633205, 0.06843949, 0.07130295, 0.1490458, 0.01785229, -0.09858839, -0.1054659, 0.1617572, -0.04700579, 0.160951, -0.002386838, -0.1227261, 0.09888515, -0.1041474, -0.1017924, -0.07854997, -0.1597456, -0.1082152, 0.1438186, -0.001327306, 0.1524306, 0.04409348, 0.06444915, -0.1483267, 0.1151262, -0.1515333, 0.0309744, 0.133247, -0.05882476, 0.0003320277, -0.08758675, -0.1685362, -0.04154629, 0.04314295, -0.1514458, 0.01530658, 0.1075571, 0.004585132, 0.08382622, 0.089497, 0.07939277, -0.09872565, -0.1639148, 0.1278164, -0.08017065, 0.1229437, -0.112236, 0.1007701],
    [-0.1229498, 0.1240428, -0.1357793, -0.001501769, -0.09446095, -0.1058175, -0.1295862, -0.118446, -0.1434691, 0.09950028, -0.0557827, 0.1710374, 0.03013259, -0.06329215, 0.1263371, -0.1084971, -0.1540268, -0.09716649, 0.01848593, -0.1592395, 0.04052751, -0.1342985, -0.00881581, -0.02546421, -0.06298123, -0.0829096, 0.1444768, -0.003979117, -0.02236183, 0.1410443, -0.05471465, -0.04578078, -0.1267962, 0.01317951, 0.1637424, -0.0123678, -0.07686405, 0.05736195, 0.09098934, 0.0472975, 0.04689799, -0.01412842, -0.02994676, -0.1694692, -0.06848375, -0.09472407, 0.07141298, 0.03871217, -0.0195151, 0.04140264, -0.07715109, 0.01912084, -0.1082026, 0.1468458, -0.05062577, -0.0296908, 0.04157686, 0.1574575, -0.07713829, 0.1065003, 0.0977648, 0.1109201, 0.1593123, 0.09443972, -0.06749016, -0.08790709, -0.09805287, -0.06799784, 0.1621804, -0.05924239, 0.1336718, 0.1242314, 0.05855883, 0.06608362, 0.1534918, -0.1326891, 0.017968, 0.1474357, 0.08122887, -0.07934876, 0.105295, -0.04209255, 0.003918201, -0.1058995, 0.03155679, 0.1335454, 0.1564238, 0.1012583, -0.01235259, 0.06205606, 0.07322986, 0.06334082, -0.1679635, -0.06106356, -0.01467918, 0.08632475, -0.007376835, -0.1494309, 0.1600829, -0.1472603, 0.04949714, -0.08175348],
    [0.05254374, 0.05604612, 0.06155359, -0.1362603, 0.09109104, 0.1180301, 0.149122, -0.1323133, 0.08277114, 0.02682215, 0.1607464, 0.1376077, -0.1388346, 0.1272879, -0.03343819, 0.119017, 0.07387537, -0.04655663, -0.1496668, -0.1342054, 0.09431534, 0.0143782, 0.09726376, -0.04886102, -0.1693531, 0.04237284, -0.08126418, -0.1052166, 0.1696569, -0.04781125, 0.1167584, 0.1111615, 0.05023338, 0.1257908, 0.1216204, 0.03847368, 0.1107304, -0.03363666, -0.1281162, 0.05770517, 0.02768084, 0.08657196, -0.01493841, -0.09119023, 0.07650118, -0.007006586, -0.1403375, -0.02884984, 0.03211249, 0.06467039, -0.034724, -0.06026951, 0.1557798, 0.04329333, 0.116578, -0.05440374, 0.08816613, -0.0862913, 0.1211705, -0.01146527, 0.1621872, 0.1591221, 0.06270873, -0.1438065, 0.04176205, 0.1406373, 0.02107282, 0.1537182, -0.06562974, -0.08122848, 0.1278578, 0.1304529, -0.1680154, -0.1526324, -0.1123611, -0.04296291, -0.007134691, 0.1485236, -0.03449216, -0.1370712, 0.03937572, 0.05229313, -0.1041915, 0.1671716, 0.03980398, -0.09696872, 0.0001010597, -0.1316348, 0.02014379, -0.002491802, -0.006133735, 0.1223514, 0.03258792, -0.08824454, 0.1168982, 0.09946507, -0.1307236, -0.1439612, 0.05524467, 0.06837836, 0.02910258, 0.1182517],
    [0.1314167, 0.08236352, -0.0897416, -0.001081884, -0.1184655, -0.1444288, 0.02755806, -0.02276082, -0.1024112, 0.0009931624, -0.1583566, -0.09199892, 0.1583718, -0.006816328, -0.09997381, -0.06480858, 0.1285643, 0.02786161, 0.01960947, 0.105243, 0.09895879, -0.04534045, -0.01859617, -0.0292093, 0.01140311, 0.003186941, 0.0873961, 0.01048328, -0.06865896, 0.1184923, -0.1708693, -0.06207281, -0.05704828, 0.1639418, 0.08578057, 0.1554942, 0.04491628, -0.02786827, -0.004016861, 0.03640902, 0.03568031, -0.00313887, -0.05236005, 0.0547298, 0.05749663, -0.1133183, 0.1388801, 0.08736099, 0.1290996, 0.1259571, 0.1255919, -0.1172721, -0.007907644, -0.05456655, -0.07143705, 0.006539762, 0.1306662, 0.1231062, -0.01777145, -0.08770368, 0.115623, 0.07450762, -0.0671216, 0.1400777, 0.10742, 0.02061851, -0.07031408, 0.0283113, -0.1713265, -0.08349939, -0.03451118, -0.1316495, -0.01125273, 0.1422992, 0.05556535, 0.05421399, 0.1270761, -0.1676088, -0.1116872, 0.01533835, -0.05553217, 0.1239457, -0.06071335, -0.07164541, -0.05189368, -0.04675196, -0.07350391, 0.09742989, 0.1708194, 0.1227303, 0.07010189, -0.1594784, -0.09615969, 0.02764912, -0.06579486, -0.06231978, 0.1146338, 0.1294056, -0.1470135, -0.1491322, -0.07257967, 0.1392482],
    [-0.1124549, 0.1651092, -0.02749391, -0.1531695, 0.1514264, -0.007650375, 0.03156485, -0.03816162, 0.00518173, -0.02183956, -0.007346734, 0.1480493, -0.007702425, 0.1032285, 0.01064046, 0.1529519, 0.05665446, 0.1287884, -0.01922625, 0.03011587, 0.1055175, 0.1414206, 0.006568089, 0.005785614, -0.01370922, 0.09234582, -0.1685905, -0.09114014, 0.1376171, -0.01353239, -0.04731286, -0.1201563, 0.03609917, 0.03541601, 0.08870961, -0.07282296, -0.01192313, 0.1601277, -0.06809768, 0.001927823, -0.07354876, 0.08215715, 0.01626135, -0.04477124, -0.1111122, -0.08003867, -0.1358448, -0.0346949, -0.1003556, 0.01444542, 0.05911329, 0.05432843, 0.01192445, 0.00460577, 0.1537207, 0.00178726, -0.0480307, 0.04877452, 0.1105098, 0.005040377, -0.1311881, -0.06460218, -0.03210457, -0.1191853, -0.07903244, 0.08931549, -0.01600146, -0.1015599, 0.015258, -0.06111566, -0.1198741, 0.08967237, -0.1692192, 0.01750188, 0.01616412, -0.06306036, 0.1604651, -0.02204949, 0.1355112, 0.1242831, -0.1200948, -0.05824774, -0.09244604, 0.07707889, 0.1690972, 0.08645783, -0.06681727, -0.1220224, -0.1141675, -0.1251442, -0.05452828, 0.03102797, -0.06967974, 0.07595368, -0.1540748, 0.1234177, -0.1268882, 0.1114208, -0.09221025, -0.02289531, 0.1257696, 0.1102297],
    [0.08183815, -0.02183478, 0.1372541, -0.05412659, -0.07899956, 0.1327096, -0.1652265, 0.09035553, -0.1433049, -0.1425219, -0.04500251, -0.04473031, -0.1022764, 0.02060686, -0.05860405, -0.02681392, 0.09179738, 0.09635048, -0.1404001, -0.0001079291, 0.158687, 0.06611596, 0.110321, 0.01683752, 0.03785343, -0.007747188, -0.06666733, 0.03120899, -0.1026066, -0.02851644, 0.05162084, -0.1456928, -0.1289756, 0.1660981, -0.04686284, 0.07495764, 0.04811409, -0.03864434, 0.1360122, 0.01760834, -0.03526631, 0.07996626, -0.003179908, 0.1369657, 0.03756244, -0.125615, -0.1077468, 0.039269, -0.0191991, -0.1485608, -0.1019421, -0.01885405, 0.04883605, -0.1604464, 0.04024358, 0.08755259, 0.1426857, -0.1254468, 0.01983635, -0.07125938, 0.1186232, 0.1509311, 0.1305638, -0.1262527, 0.04650357, 0.08897657, -0.01305971, 0.06972371, -0.002216458, 0.03961226, 0.1423185, 0.1111092, -0.1215908, -0.1555135, 0.05823733, 0.009116352, -0.09149706, -0.03599302, 0.118911, -0.03598619, -0.1173226, -0.06306632, 0.08787745, -0.01239952, -0.03614905, 0.1015218, 0.1537972, -0.01414596, 0.1317207, -0.1200748, -0.08936178, -0.04565026, -0.08941425, 0.147204, -0.09002875, -0.1400234, 0.1164977, -0.06128952, 0.02053453, 0.04759991, 0.1129714, -0.1585782],
    [0.1352069, -0.09106676, 0.0553336, -0.1213881, 0.07814673, -0.01059659, -0.02729163, -0.0366209, 0.03060171, -0.1129264, -0.01324832, -0.1304236, -0.114685, -0.101555, 0.1620352, 0.1369546, -0.1565559, -0.1287128, -0.128462, -0.01533532, 0.1248973, -0.1626904, -0.1127875, -0.04252577, 0.007415712, 0.1531007, -0.1276013, -0.1089817, -0.08632667, -0.0389677, -0.1057874, -0.09805642, 0.08388399, 0.1148018, -0.1458164, -0.05661179, 0.08119542, 0.03310572, 0.08882119, 0.07967383, 0.1242417, -0.05957265, 0.08292488, 0.1219078, 0.03759159, -0.1597741, -0.1446881, 0.1593315, 0.07737202, -0.09370402, 0.1140743, -0.04508398, 0.1371417, -0.105677, -0.08735581, -0.1154382, 0.05410809, 0.1526821, -0.07340583, -0.1561369, 0.1076951, -0.08474003, -0.058, 0.09975812, 0.00920397, -0.1408032, -0.03148375, -0.07694153, 0.006277129, -0.1039138, 0.115485, 0.07700165, -0.05122662, 0.06366274, -0.139931, -0.06907742, -0.1602665, -0.008073196, 0.1508852, -0.111419, -0.1027359, 0.1012736, -0.1026296, 0.08531947, 0.1694414, 0.1396774, 0.0534629, -0.08259831, 0.1096258, 0.0902193, -0.02209368, 0.1165662, 0.1659523, -0.01551379, 0.05241854, -0.09671198, -0.03975148, 0.006013408, -0.1269069, 0.04694803, 0.07813672, 0.1657926],
    [-0.02259044, -0.07569206, 0.07915124, -0.06623437, 0.01686749, 0.1427637, 0.1046501, -0.06713592, 0.04240048, 0.1472122, -0.1110488, 0.087008, 0.01853512, -0.1675624, 0.02585186, -0.02138709, -0.03467195, -0.1020026, 0.1469009, -0.004884139, 0.1029552, -0.04293002, -0.1235334, -0.1361008, -0.0617507, -0.06090721, 0.06713855, -0.1575224, 0.0195685, 0.1652306, -0.009847268, 0.1430352, 0.1306307, -0.1616024, -0.1547842, 0.1113778, 0.1689699, -0.03282481, -0.09801967, 0.06631493, 0.04896861, 0.01463911, -0.05946491, -0.1137999, -0.01644507, -0.100368, 0.05878213, 0.09556955, 0.134879, -0.0301128, 0.1667269, 0.1671469, 0.04946835, -0.005326152, 0.142322, 0.03632741, 0.1044332, -0.02812734, 0.1649536, -0.09596135, 0.108056, 0.09002867, 0.03149742, -0.07690375, 0.04844021, -0.1697212, 0.01608546, -0.01091617, 0.02608918, 0.07019189, 0.1403037, -0.122167, -0.07599345, -0.04660738, 0.00259681, 0.05684536, -0.1655117, -0.1261385, 0.0003507584, -0.08824296, -0.123277, 0.02248389, 0.1288035, 0.05284178, -0.07973863, -0.1344114, -0.01317412, 0.02601129, 0.08741075, -0.06233953, -0.009397984, -0.07524753, 0.1399436, 0.003175288, 0.04507395, 0.1511219, 0.1130131, -0.05641606, 0.007258177, -0.05213835, -0.08400379, 0.1026963],
    [-0.09722271, -0.01811995, -0.1162605, -0.1070341, -0.02891698, -0.04364471, 0.002260745, -0.06374073, 0.04938813, -0.01419812, 0.06634898, -0.1007922, 0.05021539, -0.04659732, -0.02473386, -0.07461387, -0.04977447, 0.1178671, 0.1102732, 0.1058672, 0.009694874, -0.09723784, -0.08649878, 0.03556712, -0.1423261, 0.02119802, -0.1561231, 0.05377885, -0.03689779, 0.02896135, 0.04846155, 0.04186653, -0.0733299, -0.06519964, 0.07433593, 0.006747678, -0.1452002, -0.05347643, -0.08008589, -0.08595826, 0.1114561, -0.1145611, -0.09094249, -0.1144344, 0.15035, 0.004229516, 0.1234298, 0.01650326, 0.05022937, -0.1051294, -0.1260157, -0.05413825, -0.08343939, 0.02386031, -0.09581275, -0.1607613, 0.06939526, -0.06649438, 0.1104337, 0.1086809, 0.08597957, -0.008241698, -0.0275601, 0.162543, 0.07536191, -0.1441698, -0.1204048, -0.06592606, 0.1071185, -0.07258928, -0.008381173, -0.08627111, 0.1634151, -0.1025942, -0.1156522, -0.1611261, -0.1356359, -0.05330727, -0.04320149, -0.02222043, -0.09604357, 0.07052635, 0.1318298, 0.009327084, 0.08002208, 0.04192866, -0.04216607, -0.1450426, -0.07519658, -0.1549442, -0.1290244, -0.02333739, -0.08793609, -0.1113904, 0.07661477, -0.002742037, -0.1125255, -0.1147194, 0.0280472, -0.1483581, -0.02890868, 0.1552718],
    [-0.1266554, -0.04358964, 0.003571346, 0.09088026, -0.1174247, -0.01633713, -0.1200558, -0.03331994, 0.1368789, 0.1543955, 0.08783324, 0.08178446, -0.008437395, 0.08514343, -0.01761852, -0.1452378, -0.09800793, 0.1050459, -0.08411108, -0.1143025, 0.02089435, 0.09750201, 0.07001051, -0.1696418, -0.1225146, -0.1109759, -0.03800841, -0.08866321, -0.02581188, 0.06595924, 0.1642803, 0.08854087, -0.05446401, -0.03084819, -0.05737886, -0.0798796, -0.1426284, 0.1270603, -0.06772695, -0.05834183, -0.1007779, -0.04196943, 0.05909995, 0.119459, -0.08909069, -0.1090609, -0.1500929, 0.1093768, -0.1491899, 0.01869769, -0.05564462, -0.08868928, -0.06477247, 0.0445307, -0.09829015, 0.01618208, 0.070484, -0.01785433, -0.03936745, -0.0299755, 0.1464189, 0.04824885, 0.1096435, -0.1354084, 0.1242355, -0.1491856, -0.04784752, 0.1547012, -0.01632395, 0.116403, -0.1351207, -0.1041629, -0.1025808, 0.08418788, -0.004590735, 0.01347661, -0.1675279, -0.134837, -0.1648339, -0.01912534, -0.1021929, 0.1686063, -0.1585409, 0.06081171, 0.06702144, -0.07333259, -0.0912012, 0.02903241, -0.1400085, -0.1631443, 0.005391687, 0.1436429, -0.05809036, 0.1440888, 0.1251454, 0.08848313, 0.07876513, 0.06093491, 0.1126918, -0.00894326, -0.001288578, 0.1312212],
    [-0.05356139, -0.04644947, -0.07217497, -0.1321798, -0.0858662, -0.08323152, -0.1291181, -0.05909078, 0.1434932, -0.1324776, -0.04938529, 0.01003335, -0.1579294, -0.07018791, 0.156448, -0.1303354, -0.06216894, -0.1328746, -0.1371938, 0.09133326, -0.0378875, -0.05032928, 0.1146063, 0.1465124, 0.1332772, -0.1351962, -0.04113993, 0.1022396, 0.06776492, -0.126591, -0.03964113, -0.0753742, -0.05776849, 0.07881628, -0.1337503, 0.02518521, -0.07442211, -0.03077361, 0.06081579, 0.06257965, 0.1662121, -0.03334889, 0.1623445, -0.08878792, -0.08533213, -0.08137559, 0.07184917, 0.1468041, -0.0237392, -0.1473318, -0.02685682, 0.07647721, 0.006975472, -0.1589027, -0.1414239, 0.1625053, 0.1234594, -0.05491035, -0.06791291, 0.143177, -0.1276992, 0.005665079, -0.1144392, 0.03043006, 0.1457476, 0.02255528, 0.1001591, -0.004593715, -0.1032965, -0.05251939, 0.1244666, -0.05790309, 0.1127677, -0.02749558, -0.02091646, 0.06026838, -0.02990268, 0.1378203, 0.0197897, 0.114382, 0.01825202, 0.01385769, -0.04061925, 0.1691598, 0.07468323, 0.0160601, 0.008160576, -0.1158028, -0.05001052, 0.15903, -0.002010748, -0.07254869, -0.05739142, 0.06417679, -0.04379804, 0.03319208, -0.1639022, -0.05416315, -0.06922109, 0.04502509, 0.1139407, -0.0260936],
    [-0.1699774, 0.110967, -0.001722157, 0.06533716, 0.09903312, 0.1271731, -0.1591206, -0.05035414, 0.0360788, 0.05083276, -0.05992891, -0.1096481, 0.1555449, 0.07305371, -0.1511113, -0.09759308, 0.1187877, 0.01700634, 0.1363425, 0.1256011, 0.1233094, -0.0969726, 0.08509396, -0.02235149, 0.03390174, 0.018382, 0.08680548, 0.0775173, -0.1527078, -0.01063699, -0.08146746, 0.09021001, 0.1339776, -0.02131958, -0.05205192, -0.1282177, -0.0993432, 0.1713433, -0.1172061, -0.1535803, -0.117299, -0.05098456, 0.08699994, 0.1429353, -0.0273885, 0.009410083, -0.08192022, -0.1266693, 0.1627977, 0.1177523, 0.02458718, -0.1216547, 0.1487514, 0.1339999, 0.007426053, 0.00935705, 0.0224456, -0.1145955, 0.01900014, -0.1699215, -0.1202373, 0.1487184, -0.03271265, 0.1156753, 0.06481056, 0.02530044, -0.06341036, -0.01481701, -0.1701685, 0.04070856, 0.05888636, -0.1263662, -0.09705009, 0.07285957, -0.1257856, 0.159118, 0.04125744, 0.1627377, 0.1583567, 0.1360141, -0.0687243, 0.02024373, 0.1081674, -0.06347992, 0.1196533, -0.004489779, -0.06418216, 0.02937028, -0.02550705, 0.07102437, 0.1577754, 0.05236563, -0.03612988, 0.003668204, 0.1498546, -0.009732455, 0.1060712, -0.07528228, -0.003866062, 0.1169479, -0.05762301, 0.1237663],
    [-0.09057732, 0.07384339, -0.1698477, 0.09324728, -0.0777988, 0.09318306, -0.03881861, 0.1240746, 0.1030598, 0.03637463, -0.01115574, 0.008224279, -0.07821766, 0.157225, -0.1205371, -0.1573127, -0.06462821, -0.1385046, -0.06597283, -0.135166, -0.013143, 0.02069101, 0.08523483, -0.004939631, 0.1538147, 0.04636291, -0.07253294, -0.09111328, -0.1206291, -0.1609366, -0.1402855, -0.007174924, -0.09589751, 0.07480582, -0.0610854, -0.02509162, 0.02504808, 0.09801758, -0.1317536, -0.1518206, -0.1324187, -0.1687155, 0.07753243, 0.1591326, -0.1500291, -0.06599112, 0.146242, 0.04128215, 0.01330912, -0.08772407, -0.1400995, -0.1064449, 0.00692898, -0.0002868921, -0.04850872, 0.07220384, -0.09321994, -4.500151E-05, -0.04002135, -0.149551, 0.08399681, 0.1146342, 0.1360612, 0.1475758, -0.06471334, 0.01807615, 0.07948677, 0.01512469, -0.1027855, -0.07077977, -0.006500021, 0.1195856, -0.03461331, -0.04470643, 0.03033431, 0.06631742, -0.0807945, -0.1321158, -0.0775114, -0.1427572, 0.01167642, -0.1294537, 0.1032319, -0.04103403, 0.126003, -0.05122985, -0.05945861, -0.1124245, -0.102853, -0.08148648, -0.1157587, -0.04068244, -0.1510023, -0.09836886, -0.06196184, -0.1207514, 0.004469708, -0.1323091, 0.1499535, 0.08913273, -0.1634834, 0.1476351],
    [-0.02214848, 0.0988028, 0.01876132, -0.1113432, -0.01773608, 0.1229045, -0.03543547, 0.01491576, -0.1550869, -0.0961483, 0.09204982, -0.1132729, -0.03387798, 0.04280433, 0.1655932, -0.05956918, -0.01044759, -0.02766003, -0.1155173, -0.0793706, -0.02884805, 0.025407, 0.04594605, 0.06145709, 0.1386072, 0.05547654, 0.1447418, -0.121208, -0.003364161, 0.1085458, 0.04436715, 0.08345814, 0.0699309, 0.08356752, -0.1482858, 0.04029547, -0.1557358, -0.01344168, -0.04962069, 0.1303641, -0.07150194, 0.1556846, 0.08477883, 0.1559029, 0.009840116, -0.07048021, 0.03360611, -0.08025333, -0.006471679, 0.0559322, 0.1300275, -0.1105589, 0.113729, -0.01451206, -0.09654187, -0.08840413, -0.141583, -0.1179469, -0.05401754, -0.1027936, -0.02710685, 0.1027908, 0.1374052, 0.08060605, 0.07002653, 0.007031277, -0.02852499, -0.0050589, -0.104425, -0.1301448, 0.02623904, -0.09615708, 0.1689464, 0.07429005, -0.1496725, -0.1116849, -0.01282525, 0.08973812, 0.07470372, 0.06628385, -0.1460596, 0.01368155, -0.1218513, -0.005102649, -0.1609537, 0.1661748, -0.1661324, 0.07861793, -0.0591086, 0.04210813, 0.1648062, 0.1690881, -0.09375103, -0.10988, -0.0197363, -0.07972563, 0.06513239, 0.1213302, -0.03249864, 0.09799239, 0.1110946, 0.1001908],
    [0.1365285, 0.1316267, -0.1245123, 0.1361566, 0.08692974, 0.1154064, -0.1078634, -0.03639123, -0.1210351, 0.09116451, 0.04292191, 0.09142914, 0.04032217, -0.1487877, -0.01046079, -0.08205156, 0.1403859, 0.1662299, -0.05510607, 0.03390124, -0.0135839, -0.1660959, 0.05997876, 0.06812996, 0.02919894, 0.1472799, -0.1490026, -0.1654151, -0.1131244, 0.08376966, -0.01038752, -0.03591406, -0.1435552, 0.1310508, 0.07285197, -0.1137016, 0.1055804, 0.07236576, -0.0189759, -0.05975444, 0.1323867, -0.01098368, -0.1037538, 0.1151184, -0.05096072, 0.08685733, 0.04826333, 0.08092673, 0.07002199, -0.06914926, -0.02392745, -0.1305235, 0.1332022, 0.01031233, -0.07994114, -0.1686737, 0.1633322, 0.06512237, 0.02690515, -0.07749598, -0.1309563, 0.1543564, 0.04661426, -0.04377115, 0.152504, 0.1352232, 0.08568902, 0.1631836, 0.16042, 0.1566745, -0.1329137, 0.09589179, 0.0119675, 0.1651314, 0.09958953, -0.02144907, -0.03733505, 0.1585952, 0.09790415, 0.1264736, 0.0301954, 0.05809116, -0.039803, -0.1140359, -0.1049487, -0.05541266, 0.06296126, 0.05569341, 0.148714, 0.04046327, 0.1137372, 0.1518855, 0.1661672, -0.02513354, -0.02564922, 0.03730002, 0.1106053, 0.1100762, -0.1238636, -0.1492798, -0.04268822, 0.08491601],
    [-0.01372014, 0.1026524, 0.1675744, 0.083921, 0.1569685, -0.09792934, -0.009162307, -0.1413764, -0.02183314, -0.06283665, -0.02026953, -0.1494382, -0.1530459, 0.1627269, -0.1634076, -0.02049057, 0.06912985, 0.1627494, -0.1492649, -0.1543347, -0.07169431, -0.09342541, -0.0668297, 0.07151463, 0.03774333, 0.1069776, -0.1021566, 0.02756725, 0.006430835, 0.008570284, -0.14453, 0.032515, 0.05854971, 0.1009725, -0.1169439, 0.01034455, 0.1436832, -0.05626555, 0.08540967, 0.1423958, 0.09601973, 0.1038499, 0.1469045, 0.1324822, 0.1423153, 0.06289845, 0.03236012, -0.113242, 0.1687595, 0.1316869, -0.09787033, -0.01829225, 0.05865325, -0.08178212, -0.07528907, 0.1544736, -0.1240601, 0.02987991, -0.05170064, 0.0576083, -0.04583789, 0.1200264, -0.1019478, -0.04900993, -0.04399529, -0.03773993, 0.1562267, -0.02248077, 0.1153796, -0.1317524, -0.04129539, 0.1106888, 0.03054512, 0.1699307, -0.02788728, -0.06740758, 0.1676566, 0.003908634, 0.0001890063, -0.01410413, -0.008325562, 0.01940608, -0.152453, -0.1636352, -0.1380984, 0.1659321, 0.1237697, -0.06052592, 0.037012, 0.06990444, 0.1088725, 0.06355111, 0.01484641, -0.01917359, -0.1567678, -0.1117016, 0.03859785, -0.1585325, 0.158557, -0.1293223, -0.1195096, -0.04624587],
    [0.1599153, -0.04623856, -0.02374251, -0.05445799, -0.00634627, 0.1522935, -0.008313909, -0.06247143, 0.1567958, 0.1704697, 0.143558, 0.03847565, -0.03822565, 0.006751969, -0.1478306, -0.1649378, -0.05884042, 0.0004879087, -0.105842, -0.01965347, 0.02283381, -0.07799596, 0.07192883, 0.1065389, 0.07631101, -0.1335199, -0.09040509, -0.08558448, 0.09231888, -0.1566467, 0.1647, 0.09868406, -0.166959, 0.1650968, -0.07280101, 0.01009811, 0.08961807, -0.08643662, -0.04573232, 0.05328877, -0.09057044, 0.01408421, -0.0922695, -0.0560178, -0.1221821, -0.1425139, -0.1471101, -0.03751591, -0.001446292, -0.1327401, 0.1390042, -0.1234352, 0.170742, -0.1625091, -0.0859092, 0.07756743, -0.01018231, 0.1094922, -0.1595398, -0.1418085, 0.0306996, -0.1644567, 0.09952371, -0.06574178, 0.01620317, 0.002096742, 0.06269503, 0.08096976, 0.05792985, 0.1344607, 0.1608507, -0.03408569, 0.1317254, -0.1210673, -0.08164318, -0.1541246, 0.1132114, 0.02695712, 0.1497219, 0.1045554, -0.158975, 0.1651842, -0.1289765, 0.1556055, 0.00583759, 0.01958039, -0.1329568, 0.05566508, 0.02364974, -0.006986469, -0.1070778, -0.08364225, 0.09158194, -0.1696597, -0.08350377, -0.07310072, 0.01790188, -0.006514207, 0.02134293, -0.1653851, 0.1277648, 0.07037544],
    [-0.1216429, 0.1039268, 0.09934691, -0.137595, -0.08974735, 0.169927, 0.07602381, 0.07890059, -0.04554693, -0.0468655, 0.1351083, 0.1030058, 0.1069416, 0.03004342, 0.0997486, 0.09804191, -0.161901, 0.03384134, -0.08448059, 0.07183237, -0.04751326, 0.1465604, -0.0654621, 0.04221939, 0.1346679, 0.1040986, -0.1337882, -0.1105793, 0.1129294, -0.1590787, 0.02593021, 0.04115465, -0.04759528, -0.05560324, -0.08322706, 0.08916511, 0.04697796, 0.03802367, 0.06395362, 0.09736241, 0.1013017, -0.146745, 0.1066751, -0.1627004, -0.001772419, -0.06812921, 0.1253894, 0.1312991, 0.1401245, 0.1674534, 0.1015023, 0.09514881, 0.09480603, -0.02209586, 0.123149, -0.1694773, 0.03494971, -0.02461825, 0.04817718, -0.09527208, -0.1425667, -0.05680393, -0.04922918, -0.1402921, 0.03312923, -0.1488425, -0.08813698, -0.1049535, -0.01887323, -0.007157505, 0.05817285, 0.06412192, 0.1344761, 0.06249034, 0.1501954, -0.02818251, 0.08394365, 0.1433966, -0.02924475, -0.09302421, -0.05991697, -0.1232056, -0.1018463, 0.03908329, -0.07510123, 0.04262881, -0.06983928, 0.1335178, -0.09164446, -0.084065, -0.09080575, -0.1646359, 0.1228022, -0.1632359, -0.08038487, -0.1244148, 0.004613295, 0.1434825, -0.1062679, -0.1604353, -0.0005459189, -0.1152902],
    [-0.121588, 0.04287319, -0.1270067, -0.04495348, 0.03079949, -0.01646899, 0.1584231, -0.1662962, 0.1352204, -0.1622827, -0.1611914, 0.03921425, -0.08971621, -0.1071285, 0.0442489, -0.05078572, -0.06286445, -0.09152724, -0.09569254, 0.06113072, -0.02844322, 0.07216688, 0.0958803, -0.1220888, -0.1253685, 0.05821713, 0.06958375, -0.03699347, 0.06764478, 0.02770157, -0.1104776, -0.02261987, -0.1012468, 0.1395538, -0.1574548, -0.1105104, -0.1663021, -0.1586547, 0.1671329, -0.05832878, 0.1468976, -0.1342581, 0.1014614, -0.1707111, 0.04927086, -0.06872067, 0.08521271, 0.03649415, 0.1483702, -0.1650143, -0.1569868, 0.08376309, -0.1044645, -0.04720716, -0.1212677, -0.1653212, -0.1151738, 0.04289807, 0.006588623, -0.08997823, -0.1090738, -0.002834782, 0.07078068, 0.06890075, -0.0775163, -0.1668142, -0.06294297, -0.07954605, -0.1268671, 0.1094466, -0.06781392, 0.01645243, -0.01056904, 0.15476, 0.01432161, 0.03757115, 0.06055967, 0.006799892, 0.06956781, -0.05577804, -0.02782159, 0.1443988, -0.112471, 0.03671372, 0.1389595, -0.06412786, -0.07382284, -0.1546662, 0.04827568, 0.09262778, -0.1452844, 0.1669916, 0.07719301, 0.02185604, 0.1352455, 0.1586989, 0.05482535, -0.1612919, 0.02453783, -0.03846416, 0.1707308, 0.04726594],
    [-0.06656486, 0.03302255, -0.03989288, 0.1242497, 0.06214806, 0.1686938, -0.1505138, 0.08384818, 0.06189206, 0.08966652, 0.04164401, 0.03966026, 0.01562513, 0.05393349, 0.1334451, 0.1042208, 0.1572077, -0.0867533, -0.04611254, 0.03938295, 0.07758546, 0.09771439, -0.108372, 0.09128243, -0.1042136, -0.08260973, -0.03278226, -0.07783066, 0.1385223, -0.1701474, 0.1594724, 0.1149009, -0.0810964, -0.1498049, 0.1601273, -0.1004078, -0.008239567, 0.152169, -0.1305297, -0.04798527, -0.07755874, 0.1089551, 0.1186148, -0.02873868, -0.1183705, 0.1253769, -0.05007896, -0.09840766, 0.102973, -0.1318321, -0.01153322, 0.1306992, -0.1628892, -0.1231145, -0.1554239, 0.01337247, -0.1124844, 0.1240345, -0.138765, -0.02737582, 0.1097485, 0.1418074, 0.1449807, 0.1271985, 0.0179842, 0.05148604, 0.1139346, -0.1628477, 0.1064953, -0.1565861, -0.1041829, 0.1281561, 0.1496131, 0.1352888, -0.04767059, 0.1540418, 0.05766473, -0.1054852, -0.1217384, -0.09712021, 0.1235406, 0.05980941, -0.07042812, -0.1594519, -0.0692516, -0.1115118, -0.1104128, 0.01293582, -0.1291624, 0.02263553, 0.07157437, 0.1158531, -0.08861737, -0.08140667, 0.1640703, -0.1549432, -0.1094886, -0.08429299, -0.07850125, 0.1342769, -0.1480516, 0.09056959],
    [0.03218642, 0.03737725, -0.0379512, 0.09657617, -0.04927387, 0.1507404, -0.0862368, -0.03251362, -0.0009757876, -0.07479022, -0.1375402, -0.1083169, 0.08490269, -0.1176726, 0.06657632, 0.04757179, 0.1077349, 0.06113902, -0.1284679, 0.1259208, 0.08039519, -0.1021097, -0.162582, -0.07714352, -0.07880539, 0.1071547, -0.06829886, 0.02953281, 0.1623522, -0.134289, -0.1132796, 0.00249286, -0.05894202, 0.1182478, -0.1312951, -0.1048063, 0.1201765, -0.001968428, -0.05133551, -0.05357971, 0.1372128, -0.1680751, 0.01217484, -0.03269638, -0.02129579, -0.096191, 0.1057571, -0.01443855, 0.08828437, -0.09511621, 0.04231887, 0.1660687, -0.00646694, 0.02437301, -0.07121269, -0.09862138, -0.05290297, 0.06679492, 0.1330711, 0.1142989, 0.07314551, -0.0773399, 0.1671547, -0.1294625, -0.02582443, -0.01804058, 0.1508802, -0.1258367, -0.05593836, -0.1225603, -0.1692684, -0.140191, -0.05277535, -0.01665772, -0.161496, 0.1685391, 0.1240412, 0.1261336, -0.1360251, -0.1310429, -0.04703666, -0.01696362, -0.1082288, 0.07760161, 0.1491795, 0.0571277, 0.055715, -0.1456854, 0.003108531, -0.0454957, 0.09073216, 0.1328566, 0.07361707, -0.03297651, 0.08615072, 0.1126442, 0.05567068, 0.09822411, 0.1489508, -0.08789373, 0.1010493, -0.0457553],
    [-0.001423791, 0.161678, -0.02060895, -0.02255261, -0.02909034, -0.01760982, -0.1422874, 0.0802737, -0.1215724, -0.06873007, -0.1085578, -0.1276273, 0.05538065, -0.08211808, 0.01561593, 0.1387265, 0.04939095, -0.0310072, 0.001767635, 0.06974788, -0.1207545, -0.1563586, 0.01311192, 0.1449517, 0.09096636, 0.06551736, 0.1605917, -0.03113899, -0.1563298, 0.01260184, -0.123531, -0.1463564, -0.04953564, -0.1106044, -0.06551921, 0.05476443, 0.08296572, -0.1689074, 0.07767083, -0.1628871, 0.1479503, -0.07990132, -0.1481211, -0.07706869, 0.004700765, 0.1309233, -0.1072804, -0.01540798, -0.06573756, -0.04073027, -0.01668398, -0.05322721, -0.06657937, 0.09852488, -0.1116222, 0.05909828, 0.1599112, -0.1696902, -0.1614317, -0.109391, 0.1435089, -0.1674827, 0.05034439, 0.1546141, 0.04021209, -0.02775064, 0.1206387, 0.02628879, 0.01895747, 0.03017507, -0.1202675, 0.04753376, 0.01299544, -0.04740286, -0.06917796, -0.1180523, 0.1464982, -0.0508399, 0.06004452, 0.03397988, -0.06459686, -0.08384751, 0.06741573, 0.06932783, 0.1685808, 0.1641186, 0.04024921, 0.1567732, 0.02066529, 0.0634132, -0.1147832, 0.1584304, 0.1372907, -0.1258111, -0.1638926, -0.00783281, -0.110385, -0.1260682, -0.08690955, 0.004369408, -0.1617957, 0.06040924],
    [0.1052614, -0.1558022, 0.1260748, -0.03577745, 0.1254146, 0.1292576, 0.1390811, 0.003781915, 0.1180418, 0.08679787, -0.07919519, -0.1595705, 0.1252378, -0.01345915, -0.1578233, -0.138742, -0.04406951, 0.0712958, 0.08947054, -0.1202908, 0.05116371, 0.1061044, -0.08683933, 0.04188153, -0.1666458, -0.1204457, 0.01688306, 0.06233497, -0.04937724, 0.1409895, -0.05452481, 0.01400624, -0.1306435, -0.1499967, -0.1574729, 0.0699118, 0.01680693, -0.03060196, 0.0483411, -0.04093418, 0.07802558, -0.1241439, 0.005274147, 0.1386441, 0.1632069, -0.124193, -0.0768611, -0.05247568, -0.0842952, -0.03355402, 0.1597129, -0.137607, 0.08321658, -0.009306237, -0.03829034, -0.1666814, -0.1562378, -0.0140149, 0.08509512, 0.05717149, -0.007748991, -0.1645727, -0.04392795, -0.1163346, -0.1156605, -0.1443308, 0.06619741, 0.009246498, -0.01825495, -0.03430146, 0.0952725, 0.1378426, -0.1385144, -0.05885763, -0.1506596, -0.0863842, -0.0145819, -0.02427074, -0.06507485, -0.05320967, -0.1162763, 0.04342733, -0.09118156, -0.1166126, 0.1187358, 0.1484286, 0.1369644, -0.08082561, 0.07279202, 0.05544702, 0.1173592, 0.06591704, 0.02197388, -0.05762317, 0.1302046, -0.02630442, -0.04480498, -0.0993736, -0.1360606, 0.1659615, 0.04449958, 0.1230079],
    [-0.01651224, -0.1242708, 0.08695975, 0.04710243, -0.1289868, 0.07942326, 0.1156169, -0.1531457, 0.08914544, -0.1378134, -0.08851609, 0.03307898, -0.04605784, 0.04819975, 0.04515221, 0.1404504, -0.01934716, -0.139793, -0.01170087, -0.08098079, 0.1621108, -0.109129, 0.05652411, 0.0513491, 0.1512846, 0.1181206, 0.03355312, -0.03242031, 0.1531314, -0.02576657, -0.1050553, 0.03443561, -0.1290489, 0.02096213, 0.04884354, 0.1370427, 0.1204868, -0.01688212, 0.007599548, 0.0001747012, -0.08901782, -0.1172663, 0.1265931, 0.1044854, 0.155146, 0.01155256, 0.05403016, 0.04107566, 0.03865963, -0.1357997, 0.1640977, -0.03318787, 0.1093131, 0.1147217, -0.1545607, 0.164327, 0.02706033, 0.05538512, 0.07468381, 0.05254778, -0.1297815, -0.07817407, 0.0341707, -0.09237133, 0.01146163, 0.1196402, -0.1501501, 0.1183081, 0.002295494, -0.1319316, 0.01115914, 0.1503952, -0.01827516, -0.03274521, -0.07026948, -0.07911582, -0.01656029, -0.1119824, -0.1121914, 0.06276748, 0.001143664, -0.1518794, 0.1381598, -0.1305673, 0.1409363, 0.1466713, -0.04321727, 0.08975671, -0.05530791, 0.01687583, 0.1698498, -0.1641039, -0.1304585, 0.1645467, 0.08992971, -0.152029, 0.04757129, -0.1430084, -0.09039728, 0.1477101, -0.1579566, 0.09766573],
    [-0.06424685, 0.122204, 0.1559337, -0.09431837, -0.01606007, 0.06639503, -0.03747776, 0.1576432, 0.1561864, 0.08963758, 0.156558, 0.1268322, -0.07776262, -0.1601045, -0.05783632, -0.02419871, -0.1435618, -0.07216339, -0.0290982, -0.09472321, -0.1356448, -0.1312689, 0.07601678, -0.08251254, -0.1689256, -0.1488767, 0.09843059, -0.1224367, 0.1150807, 0.09863041, 0.1371648, 0.1508381, 0.133812, 0.1208723, 0.1558765, 0.1349945, 0.08599232, -0.07714549, 0.05051211, -0.1270654, 0.1297915, -0.06041577, -0.01295638, -0.06522556, -0.005279288, -0.004719123, 0.008488908, 0.1546442, 0.157008, -0.07441294, 0.01677769, 0.1154045, 0.04270053, -0.05181014, -0.1543136, -0.1307389, -0.1176908, 0.002745554, -0.1336006, -0.1455152, 0.1245064, 0.0397644, 0.0245259, 0.09910783, 0.1052357, -0.1256503, 0.1628325, -0.007532567, 0.1496001, -0.01319055, -0.06379308, -0.1214632, -0.06426002, -0.1596505, 0.1714876, -0.1635928, -0.1560675, -0.00860782, 0.05669514, 0.03182714, 0.1090019, -0.160025, -0.08364291, -0.05285709, 0.004355505, -0.1267772, 0.1563398, 0.0004246831, -0.07358038, -0.1330732, -0.06476103, -0.0174551, 0.0519188, -0.0882358, 0.01234719, -0.07188617, -0.150803, 0.1194108, -0.09721483, -0.159567, 0.1461091, 0.1018921],
    [0.1201436, -0.1603394, -0.1043322, -0.1263295, -0.1315811, -0.0369128, 0.1493367, 0.1478519, -0.02669278, -0.07838203, -0.09621458, 0.08109994, -0.1048592, -0.03166032, 0.1389049, 0.1106468, 0.04859191, 0.06989479, 0.1592712, -0.05507869, -0.1297518, -0.08647273, -0.1215101, 0.03383154, 0.01209258, 0.02394098, 0.006870061, -0.0001008064, -0.03149046, 0.1490524, -0.03651831, 0.08805372, 0.1610367, 0.03346722, -0.1097033, 0.0361551, -0.09385578, 0.1153153, -0.1005225, -0.0274165, -0.1217054, -0.07322791, 0.05253777, -0.06680806, -0.02117223, 0.1705385, 0.01860835, -0.09227039, 0.03733367, -0.1360846, -0.07780991, 0.1513796, -0.04792545, 0.1180543, -0.1214543, 0.1333818, -0.09285881, 0.03249988, 0.1269833, -0.1187343, -0.009916618, 0.01448193, 0.04135565, 0.1559578, -0.1466724, -0.08042277, 0.1049434, 0.1390754, -0.08532686, -0.02292691, -0.1570681, -0.1310536, 0.1649591, -0.005818605, 0.08147918, -0.1573614, 0.1237864, 0.09673037, -0.1645896, 0.1535719, 0.1067164, 0.1391336, -0.07051484, 0.01986031, 0.04900926, -0.03617574, 0.06919335, -0.1082296, -0.1144045, -0.05846294, 0.1594747, -0.07070142, 0.1679783, -0.1124597, 0.05385658, 0.1016003, 0.1575771, 0.001283348, -0.1611943, -0.09236051, 0.07491066, -0.01261108],
    [0.03363024, 0.1674372, -0.1226299, -0.1213033, 0.0514144, 0.0911354, 0.1402239, -0.01423636, 0.147594, 0.1516241, -0.1524229, -0.104725, -0.09924202, -0.1009962, 0.113064, -0.1425343, 0.003642932, -0.1237873, 0.01713106, -0.07388937, -0.04355967, 0.04583117, -0.06493996, 0.1710747, 0.01283932, 0.03305878, 0.09388171, 0.07667013, -0.1499599, 0.1711346, -0.1632088, 0.09294627, -0.08703606, -0.1580227, -0.1419709, 0.1360258, 0.1377868, -0.07755548, -0.07620943, 0.03654653, 0.06990133, 0.07668325, 0.1710367, -0.06799416, 0.08457166, -0.1522389, 0.1221689, -0.158741, -0.05599168, 0.14604, 0.07429042, -0.02218479, 0.004375204, -0.136979, 0.03222829, 0.1296374, 0.02892263, -0.1185483, 0.1017282, -0.03650343, -0.08317907, -0.031523, 0.02894308, 0.04230039, 0.100382, -0.08232363, 0.02231351, -0.08685459, 0.1484877, 0.1608827, -0.01572342, 0.11346, 0.02620494, -0.06032651, 0.120872, -0.03600606, 0.02780616, 0.07432035, 0.09452955, -0.05088173, 0.05546927, -0.1366406, 0.1340979, 0.09179968, 0.1490356, -0.09227009, -0.09477656, 0.12103, -0.08658623, 0.06817858, -0.02161333, 0.1711283, 0.1303555, 0.06224432, 0.1041852, -0.03305268, 0.0322431, -0.07203001, 0.05793377, 0.03604805, 0.09617518, -0.02436937],
    [-0.1404712, 0.1585407, 0.04061043, -0.09549244, -0.1017001, -0.01331711, -0.1170487, 0.1646483, -0.1603859, -0.16819, -0.009835571, -0.002142087, -0.05327755, 0.08412892, -0.08772637, -0.1351277, 0.01097158, -0.04420853, 0.1129322, -0.1247086, -0.04505709, 0.1675581, -0.06746559, -0.05372082, -0.09348948, 0.03632776, -0.01170029, -0.131543, -0.06990793, 0.06617476, 0.006519392, -0.08774437, 0.08948547, -0.1494525, 0.09914741, 0.07400613, 0.06369937, -0.04037295, -0.05412537, 0.0442904, 0.05488252, 0.1183324, -0.1490298, 0.03758305, -0.04098214, 0.05456224, -0.1637815, -0.05819082, 0.1273069, 0.1016282, -0.05372809, -0.1222305, 0.0117422, -0.151843, 0.002587244, -0.05956316, -0.1106249, -0.1217972, -0.1303773, 0.03189632, -0.04467016, -0.09031121, -0.101166, 0.01403384, -0.1305577, 0.16237, 0.1504975, 0.1128318, 0.152425, -0.1337121, 0.03475009, -0.06396911, -0.0141329, -0.09182785, 0.1117931, -0.03298546, 0.009353787, 0.08123872, -0.1412345, 0.1025265, -0.1196739, -0.05229205, 0.00242658, -0.00742127, 0.1098724, 0.02330394, -0.1709284, -0.04041351, 0.05962075, 0.101316, 0.03641634, 0.1217868, -0.04159245, -0.04395477, -0.1704594, 0.1256949, -0.1565811, -0.105743, 0.05292229, 0.033549, -0.07616174, -0.1419074],
    [0.04464711, -0.1422915, -0.118572, 0.04776506, 0.1709852, -0.08750762, -0.01353553, 0.02382506, -0.004935741, 0.009651735, 0.05874836, -0.05193558, -0.1475525, -0.1341348, -0.07128146, -0.001839668, 0.1396411, 0.1430032, -0.01248874, 0.02749088, 0.1336174, 0.02201211, 0.0423616, 0.07452308, 0.1534259, 0.05298553, -0.1439005, -0.08517049, 0.130203, -0.04486467, 0.04255721, -0.1580241, -0.03075242, -0.004180908, 0.0794038, 0.01138745, -0.0921209, -0.151608, 0.03043133, -0.1557447, -0.1518832, 0.1381674, -0.1347302, 0.1194022, 0.1523293, 0.08043538, -0.07690993, 0.1054415, -0.02963495, -0.01974897, 0.06191173, -0.07188526, -0.01298067, -0.02293725, 0.06962579, -0.005530596, 0.02142303, 0.06165233, 0.1119595, -0.1234475, -0.02767599, 0.08074323, 0.1484476, -0.1171831, 0.03341132, 0.006462559, 0.1378583, -0.02278589, 0.001501158, 0.0880457, 0.03168142, -0.09743546, -0.1571284, -0.04108249, 0.1325762, 0.1402669, 0.01928306, 0.08523785, -0.1655275, 0.1694156, -0.05960217, -0.01686941, 0.0478688, 0.1631103, 0.1493898, 0.1438882, -0.04783574, -0.02171673, 0.064457, 0.04625366, -0.08644509, -0.1390027, -0.04991296, 0.06888096, -0.003328621, -0.02345327, 0.1632434, -0.1480088, -0.1508109, -0.07620423, -0.06059183, -0.1643481],
    [-0.0875525, 0.05258426, -0.1422329, 0.1031099, 0.09761164, -0.006411657, -0.003378138, -0.1481452, -0.1224452, 0.06719996, 0.1282835, -0.1469449, 0.1625005, 0.06507494, 0.1576683, 0.1122114, 0.06819649, 0.1210078, -0.05375606, -0.1563282, 0.1119129, 0.09630288, 0.04330883, -0.03988107, -0.07473351, 0.05172601, 0.06496447, -0.03879228, -0.1466195, 0.1042619, 0.06234535, -0.02201645, -0.08524378, 0.1483717, 0.09386703, -0.1090782, 0.05383916, 0.1524083, 0.02578506, 0.03830056, -0.1265226, -0.127068, -0.001644179, 0.002829626, -0.01603034, 0.06855083, 0.01119716, 0.06713282, -0.09513593, 0.1384858, -0.1203805, -0.04458462, -0.02180403, -0.07412039, 0.1460298, -0.1342448, 0.05964945, 0.008707911, -0.145862, -0.09787022, -0.06314655, 0.02235407, -0.1413632, -0.03258473, 0.158981, 0.02355933, -0.05453707, -0.1400154, -0.07316442, -0.1095228, -0.02084167, 0.04074556, 0.1432544, 0.0705174, 0.02467175, 0.1492849, -0.0744832, -0.03209402, 0.08880423, -0.07925542, -0.05964053, 0.1365948, 0.08546437, 0.032848, -0.111393, -0.02989614, 0.1189958, 0.08198604, -0.1510434, -0.009767741, 0.014708, 0.14236, -0.01631398, 0.1021592, 0.09428151, -0.118184, 0.07180367, -0.04173289, 0.07290851, -0.1189564, -0.1085691, 0.1081378],
    [-0.1175856, 0.09231965, -0.02362578, 0.02880189, -0.1537856, 0.08449908, -0.1325378, -0.1552777, -0.1220163, -0.1178682, 0.03897931, 0.07270391, 0.07894373, 0.05678105, -0.1144129, 0.0003143698, -0.05312229, -0.08564346, 0.05932268, 0.003604829, 0.05182197, 0.01681715, 0.04546145, -0.1173993, 0.168049, 0.03866908, -0.1420556, 0.04802045, -0.1433529, 0.1061357, 0.04441985, -0.118586, -0.09318592, -0.08630268, -0.1447695, 0.08839832, 0.03050722, 0.06824233, -0.07635814, 0.04808489, 0.05813498, -0.04424149, 0.1424925, -0.03325979, -0.1329504, 0.09513233, 0.1562628, 0.07024533, 0.1237281, 0.105787, -0.03508468, 0.06041827, 0.07774382, 0.03236401, -0.09869082, -0.07839556, -0.03618254, -0.1063222, -0.01318057, 0.03144336, 0.1476303, -0.06727701, -0.1029611, -0.1381048, 0.05797176, -0.1160087, -0.1398977, -0.1698955, -0.05173163, -0.04219317, -0.04828049, 0.02829516, 0.03288338, -0.1113569, -0.06018025, 0.003838181, 0.1277023, -0.1298963, -0.02087775, 0.07246999, 0.09507479, 0.03420709, -0.01385802, -0.1266665, -0.07422003, -0.1036168, -0.02095097, -0.03257805, -0.1049354, 0.03187874, 0.04859665, -0.1231471, 0.001058578, -0.04588664, 0.1626627, 0.1224241, -0.00204955, 0.05727927, 0.1467304, 0.1441803, -0.109379, 0.1153877],
    [0.1056637, -0.09527437, -0.05545579, -0.06947309, -8.34465E-07, -0.08926611, -0.1562395, -0.1621378, -0.04006952, 0.1568636, -0.009068757, -0.1670892, 0.005757689, 0.05041234, 0.07355394, -0.1310971, -0.04098767, -0.138293, -0.01560239, -0.1353585, -0.1422067, -0.01872636, -0.007746249, -0.0900882, -0.1583493, 0.03147063, -0.006852388, 0.1231986, 0.07202083, -0.1370443, 0.1297398, 0.07157522, 0.009997815, -0.141529, -0.1041108, -0.1529122, 0.1669903, -0.03225356, -0.09470452, 0.1157677, -0.02955194, 0.02918276, -0.1290324, 0.04489518, 0.0802338, 0.169848, 0.1386068, -0.00657542, 0.1075095, 0.1030922, -0.1035613, 0.07561202, 0.02292597, 0.1355623, -0.0986803, 0.05540274, 0.1222774, 0.09422064, -0.01916754, 0.1625571, -0.07928963, -0.1406039, -0.13114, -0.121368, -0.08614109, -0.1691293, -0.1591666, -0.1416957, 0.1514376, -0.1630246, 0.1149072, 0.1180317, 0.08326531, 0.1393509, -0.1593658, 0.07969154, -0.1420517, 0.06779034, 0.05954764, 0.0388938, -0.07233348, -0.0588322, 0.01616257, -0.1613144, 0.1115779, -0.1239262, -0.1554891, 0.03161786, -0.1576548, 0.09791858, 0.1275783, 0.08113266, 0.07988735, 0.0129561, 0.1689358, -0.03693713, 0.1555613, -0.09729962, 0.07593487, 0.1581548, 0.122217, 0.1389919],
    [0.01069391, 0.06434492, -0.1275129, -0.1035538, 0.08723652, 0.08684517, 0.06933094, -0.08400337, -0.1243904, 0.05302377, -0.07527435, -0.117586, -0.04519047, 0.03449216, -0.1554485, 0.05521277, -0.1379389, -0.01323193, -0.04230095, 0.1260583, -0.05119837, -0.06158404, 0.05191487, -0.04168682, -0.16781, 0.06700394, -0.1373076, -0.1330907, -0.1535197, 0.02829692, -0.09493195, 0.07589599, 0.08467065, -0.011481, -0.08760239, -0.1043924, 0.15287, 0.1458825, -0.1020137, -0.04896353, -0.03053425, -0.04056075, 0.06249885, 0.1714905, -0.1701932, -0.121924, -0.05807805, 0.02133177, -0.05930201, 0.1227622, -0.03521365, -0.02794556, 0.164642, -0.1385161, -0.1179948, -0.1267731, -0.08675511, 0.1582814, 0.01011197, 0.1525184, -0.01781058, 0.04917171, 0.1212191, 0.1514244, -0.1527749, 0.03784126, -0.06820171, -0.01158237, 0.02317166, 0.1636589, -0.08604161, 0.1433101, -0.08123805, 0.07113612, 0.03173743, -0.06922053, -0.06683694, -0.0359282, -0.135721, 0.1073476, 0.162045, -0.140664, 0.1578213, 0.1178274, -0.02709958, -0.1208975, 0.0643796, 0.106465, 0.03891732, 0.05188682, 0.1154153, 0.1138809, 0.1503743, 0.04217838, -0.06920969, -0.1097042, 0.01913033, -0.10061, 0.1590974, -0.08899681, -0.1435552, 0.1245644],
    [-0.09315588, -0.09992786, 0.004815459, -0.1304405, 0.06528662, -0.05517179, -0.04609177, -0.07596508, -0.1201901, -0.05701749, -0.03347167, -0.1340145, -0.08796021, 0.02293693, 0.02483407, 0.06372619, 0.126768, -0.1006517, -0.09041421, 0.1268992, -0.1108981, -0.161833, 0.02782506, 0.06256198, -0.05281354, 0.06350904, -0.06979223, 0.08489922, -0.113993, -0.1239026, 0.1009938, -0.1517311, -0.1162233, 0.06717362, -0.05428872, 0.1058471, -0.1496238, -0.1340958, -0.09233381, -0.1589098, -0.002372324, -0.08646573, -0.1573863, 0.1370192, 0.0884624, 0.09657393, -0.1666062, 0.1483401, 0.03394607, 0.05751536, -0.1353037, 0.01598606, -0.04594846, 0.04900059, 0.02157383, -0.136035, 0.1254317, -0.1206187, -0.08947419, 0.1289291, 0.0697868, -0.1161975, -0.08868267, -0.01521915, 0.1101725, 0.1556696, 0.09604327, 0.1094466, -0.164311, -0.05722578, 0.1106982, 0.07637295, 0.1288964, -0.1421527, 0.1177431, -0.1466566, -0.06096179, -0.08580928, -0.05495131, 0.1531643, -0.08240599, -0.1495496, 0.02699821, -0.1484025, -0.09684511, 0.132455, 0.03939804, -0.02556139, -0.07853656, 0.07687817, 0.1638571, 0.04108825, -0.06623629, -0.04892375, 0.04318114, -0.006569892, 0.04801158, -0.1611956, 0.1402551, -0.1640709, 0.01511653, 0.07219869],
    [-0.0213933, -0.07330312, -0.146531, -0.02833997, 0.1550169, 0.1479921, 0.04407586, -0.05994347, -0.1630251, 0.03138587, 0.1663843, 0.02326906, 0.08132336, 0.06152521, -0.005656078, -0.1379652, 0.1595027, 0.05950364, 0.05712328, 0.09479332, 0.02537273, 0.1624753, 0.0814477, 0.05611514, 0.1012672, -0.01687537, -0.1492404, -0.08253126, -0.0771427, 0.1614222, -0.0232718, -0.1386824, -0.0111647, -0.1495079, 0.1398492, -0.1155115, -0.1429757, -0.126333, 0.1641193, 0.01317984, -0.09200092, 0.02236216, -0.05545363, -0.1120403, 0.008938923, 0.1161482, 0.1243149, 0.1211768, -0.0769165, 0.02562408, -0.04143968, -0.08097367, -0.02736346, 0.1626496, -0.1529217, 0.05957978, 0.05453983, 0.133782, -0.08645539, -0.005773231, 0.1592538, 0.03657331, 0.1518872, 0.1304524, 0.1509243, -0.128608, 0.1089267, -0.06186469, 0.009004846, -0.1488275, -0.04040006, 0.1288103, -0.05691392, 0.1550944, 0.1556814, 0.1421348, -0.1144791, 0.07218888, -0.1068995, 0.03961422, 0.02612075, 0.1353595, -0.01032354, 0.158945, -0.1080678, -0.09641631, -0.1076704, -0.1569525, -0.1043309, 0.02221607, 0.1709365, 0.002533183, -0.002993181, -0.07494184, -0.1012731, 0.1490478, 0.1437518, 0.1087101, 0.03630748, -0.1408282, -0.07832716, -0.0847372],
    [0.08341913, 0.1229136, 0.1460726, -0.03937551, -0.05570109, 0.0143486, -0.08797603, -0.01076975, 0.08518842, -0.02741405, 0.0885423, 0.04950569, 0.05759386, 0.1127774, 0.02185372, -0.1293669, 0.01857176, -0.06344806, 0.123741, 0.1605685, -0.01791506, -0.03890923, -0.1586879, 0.1136959, 0.160635, 0.006190568, -0.009618163, 0.007404268, 0.1445341, -0.1638115, -0.1386297, -0.08518251, -0.01343666, -0.0515191, 0.1081039, -0.1544503, 0.1065526, -0.1131722, 0.09454046, -0.05252728, 0.0260741, -0.09779139, -0.02197371, -0.1245733, -0.09391533, 0.1272266, 0.0253403, -0.04783848, -0.02774344, 0.1283609, -0.06955557, 0.07365878, 0.1574018, -0.06187871, -0.03108297, 0.1624691, -0.04758731, -0.09085871, 0.01067093, 0.07174033, -0.07624193, 0.08878107, -0.06358106, -0.06244199, 0.1226459, 0.1368548, -0.09290694, -0.01888946, 0.01421578, -0.1096104, -0.1648474, -0.005386502, 0.03822389, 0.1637402, 0.003705412, -0.1219299, -0.08731303, -0.1093895, 0.1619545, -0.05644394, 0.1279527, 0.1583687, -0.1106084, 0.07869799, 0.1394691, -0.04153107, 0.09021565, -0.1658976, -0.06395298, 0.1361858, -0.06351802, -0.04860449, 0.02028303, 0.02668472, 0.1140007, 0.1014834, 0.1172811, 0.04474426, 0.1604261, 0.03521445, -0.1008447, 0.01026094],
    [-0.1042892, -0.02065563, -0.07364273, 0.1624075, 0.1631, 0.1112135, -0.08791007, -0.02153315, -0.1178196, -0.1059254, -0.06344606, 0.009146154, 0.04728875, 0.03868152, -0.1131117, 0.03642757, -0.02739999, -0.004487768, 0.08960453, 0.1682877, -0.04975951, -0.002578571, -0.1099831, -0.06521027, -0.1164732, -0.04507913, 0.05190305, 0.01872154, -0.1655026, 0.01337697, 0.03948358, -0.1297155, -0.01936348, 0.1399608, 0.006518409, -0.1648048, -0.1238164, -0.06927994, -0.08534639, -0.0996011, -0.1178192, 0.1520345, -0.1394057, 0.002493843, 0.04933832, -0.1359612, 0.1291688, 0.05391575, -0.1382706, 0.1004027, -0.09659635, -0.07726201, -0.161564, 0.1343785, -0.1576767, 0.08031808, 0.002310336, -0.1360766, -0.1194798, -0.03215465, 0.1642539, -0.08012409, 0.01493645, 0.0005560219, 0.1416085, 0.0939374, 0.03181115, 0.01176915, -0.07015981, -0.081089, -0.01972175, 0.1245849, -0.05726552, -0.008202657, -0.06603241, -0.1643495, 0.05986657, 0.1377591, 0.1374538, 0.02631193, -0.1002081, -0.0806904, 0.1526766, 0.1336991, 0.06113832, 0.05204792, 0.1014938, -0.02394593, -0.0324592, 0.01431331, 0.04910232, -0.1532411, -0.0005491078, -0.08244433, 0.04172231, -0.06700662, 0.1313391, -0.0463133, -0.1186446, -0.1042866, -0.08315592, -0.0195512],
    [0.1544615, 0.08008996, 0.027086, -0.1145728, -0.1053299, -0.003522277, 0.1677074, 0.1318109, -0.04258652, 0.1326209, 0.1403045, 0.01658785, -0.03903671, -0.005798161, 0.153307, -0.1528198, 0.08432837, -0.01680607, 0.05311037, 0.1480999, 0.07157567, 0.08038939, -0.09231369, -0.1113785, 0.09857166, -0.1109253, -0.07920659, -0.1665508, 0.155316, -0.0841292, 0.1572289, -0.1010331, 0.1217121, 0.1493866, -0.06814079, -0.1380738, 0.05705937, -0.1346976, -0.05057694, 0.01834589, 0.01220624, -0.1355076, -0.0639621, 0.0527582, -0.1609565, 0.03331625, 0.1637447, -0.102449, -0.0325525, -0.1171598, -0.03037438, -0.09184147, 0.1151444, 0.1361704, -0.08253552, -0.1038923, 0.1447726, -0.03294495, -0.1189996, 0.1182806, -0.07928472, -0.06474304, -0.16004, -0.0327232, 0.09890039, 0.1345507, 0.05167203, 0.02034022, -0.1450501, -0.1232632, 0.003440738, -0.03297451, 0.06668337, 0.0709547, -0.1123803, 0.1526129, -0.0584539, -0.001316994, 0.1055918, -0.1140709, 0.08215535, 0.07086098, 0.07977204, 0.095865, 0.09610526, -0.07686454, -0.04731462, -0.08333991, 0.1205726, -0.08600886, 0.01631692, -0.02940765, 0.1082073, 0.01888047, -0.01892933, 0.03244811, 0.1315884, 0.0009658039, 0.08362006, 0.01603787, 0.0573467, 0.1252596],
    [-0.05145249, 0.1241662, 0.05702364, 0.04913957, -0.04826605, -0.02146405, -0.1059056, -0.09443615, 0.1676527, -0.08666638, 0.04981717, -0.0869248, -0.09023316, -0.1362578, 0.01778167, -0.05004118, 0.04972705, 0.005966946, 0.01683113, 0.1391568, 0.05587795, 0.1154694, 0.02329592, -0.0007738769, 0.1431898, -0.0107498, -0.06566028, -0.007259965, -0.01086511, -0.1382131, -0.1426765, 0.1516255, 0.1443641, 0.06607622, 0.03743054, -0.1630004, 0.07006505, -0.1638556, -0.1356124, 0.0187441, -0.001969367, 0.08723287, 0.009716094, -0.0245142, -0.1194199, 0.1089474, 0.02423432, -0.08220457, 0.1278711, 0.02438037, -0.01972845, -0.08055387, 0.1387476, -0.03054884, -0.007963002, 0.04938596, -0.02084659, -0.0936323, -0.0841292, -0.1293155, -0.1404695, 0.1132774, 0.002905637, -0.148229, 0.0595483, 0.09031571, 0.1538946, -0.1058745, -0.0979533, -0.1517093, 0.08619975, 0.09779163, -0.119626, 0.0008559376, 0.1205997, -0.01245914, 0.1291773, 0.09272829, -0.06640805, -0.1679104, 0.06658303, -0.05994886, 0.1503455, 0.09829892, -0.1184071, -0.1024599, 0.06507912, 0.09948883, -0.1405753, -0.1544756, 0.1296154, -0.04081295, 0.01042265, 0.06623626, 0.0168248, 0.1276657, -0.001857787, 0.005715162, 0.02646098, -0.162071, 0.01937215, 0.1438281],
    [-0.1175685, -0.03930213, -0.1426705, 0.06788521, 0.05646326, 0.1694624, -0.08195843, 0.02323034, 0.1206871, 0.1526639, -0.0009787679, 0.0397543, 0.007927924, 0.1663028, 0.08154223, 0.07473868, -0.1061598, 0.06407592, -0.01582786, 0.02753864, 0.1713638, 0.1246776, 0.02744026, -0.08839012, 0.002677962, -0.06624635, -0.00892736, -0.1566157, 0.02140439, -0.06797323, 0.06954867, 0.07018477, 0.1624786, -0.01773854, 0.04487069, 0.1035829, 0.08405028, 0.1057977, -0.1141621, 0.03566162, 0.09737588, -0.1487599, -0.06432365, 0.02510385, -0.0878479, 0.007358998, 0.04180478, -0.1491445, 0.09470746, 0.02712943, 0.1200854, -0.007784858, -0.113996, -0.1351599, 0.08204246, 0.1494119, -0.0598336, 0.05351958, 0.03535552, -0.1508879, 0.04784353, -0.007816419, 0.07813786, -0.1157439, 0.01205851, -0.102997, 0.11238, 0.1199074, -0.09519362, -0.1234477, -0.1518167, -0.06489326, 0.1356523, 0.1114128, -0.1037678, 0.1574754, 0.07180674, -0.08239082, -0.04211041, 0.04078715, 0.1601922, -0.1662145, -0.1279287, -0.04698297, 0.1493616, -0.08556651, 0.06332655, 0.1442346, -0.1465285, 0.1215735, -0.03632168, 0.1502523, 0.08263199, -0.1390671, -0.09346126, -0.03495765, -0.135923, 0.06854024, -0.1390817, -0.1094218, -0.1467593, 0.01580447],
    [-0.1022844, -0.105739, 0.06945937, 0.0351624, 0.1696328, 0.137852, -0.05876923, -0.1057843, -0.1169175, 0.04819758, 0.06549434, 0.04953271, 0.1345426, -0.1117351, 0.1587829, -0.112264, 0.05493411, 0.0002221316, -0.1687515, 0.01687276, -0.09862502, -0.02669114, 0.1586172, -0.08294575, -0.1170842, 0.1676358, -0.1156229, 0.09521745, -0.1509105, 0.06296068, -0.1643302, -0.1531909, 0.147051, -0.148512, -0.135847, 0.005559698, 0.06129611, -0.03644459, 0.05323602, -0.1268546, 0.1040976, 0.04415838, 0.0586245, -0.02498719, 0.001248911, -0.1243435, -0.1687098, -0.0414928, 0.0271253, 0.02051347, -0.1445961, 0.1087864, 0.1704785, -0.1132195, -0.04939012, -0.1524281, -0.1101741, -0.07204825, 0.1616038, -0.008977041, -0.1623854, -0.01892875, 0.1569307, -0.1240984, -0.1671848, 0.01775064, 0.09871653, -0.1281286, -0.04115379, 0.1387255, -0.1225893, -0.1417492, -0.0468424, -0.07689753, 0.07702218, 0.06263562, -0.1169831, -0.06321564, 0.09359345, -0.08480103, 0.03511621, -0.1435712, -0.104191, -0.145731, -0.06969786, 0.1106686, -0.06881638, -0.1571024, 0.06643923, -0.158782, -0.08395456, -0.1306643, -0.08127018, 0.04168408, -0.1501806, 0.1702721, 0.01499917, 0.04610503, -0.05449614, -0.1522809, -0.1171414, 0.163403],
    [-0.1438868, -0.07582393, -0.1407244, -0.1713839, 0.09569266, 0.06737598, -0.1474268, -0.07898509, -0.1487169, 0.1671848, -0.05829129, -0.1111127, -0.1595621, 0.003965542, -0.1126491, -0.1463843, 0.1197068, -0.0319799, 0.1618942, 0.03211001, 0.1273536, 0.1707938, 0.07902081, -0.001798168, -0.09894828, 0.07755855, -0.04774055, -0.1224866, 0.1275552, -0.07707515, -0.02048436, 0.1427731, 0.0236295, 0.1147204, 0.1546251, -0.06433301, -0.1620023, -0.1525378, -0.06996101, 0.1358704, 0.1371144, -0.1609329, -0.1605011, 0.1319624, -0.0598347, -0.01666206, 0.04038909, 0.09177051, -0.1414318, 0.1433954, -0.01740648, 0.148521, -0.0004252195, -0.08345599, -0.1143152, -0.07797389, 0.01395267, 0.05671751, -0.02253716, 0.1511147, -0.09503056, 0.1410064, 0.04135136, -0.1345868, 0.1006866, 0.1461587, -0.003871098, 0.1693856, -0.168839, -0.07088378, 0.05554429, 0.06232524, -0.109975, 0.00647606, 0.09314621, 0.04630224, -0.07796709, 0.02382886, 0.0871767, -0.01022626, 0.02140668, 0.09565382, -0.1220753, 0.06097346, 0.01499578, 0.1033834, 0.1409964, -0.162396, -0.1363427, -0.1498626, 0.02520256, -0.05638756, 0.09457637, -0.08037476, 0.06748208, -0.1602308, -0.0884187, 0.0006132275, 0.04136662, 0.1696178, -0.1403595, 0.1608634],
    [0.1424757, 0.02142385, 0.08395571, -0.0686904, 0.01033351, -0.1642458, -0.05585989, 0.00433436, -0.09533469, -0.1527521, -0.02557091, 0.05194153, 0.04625268, -0.02218299, -0.1004401, -0.1092198, 0.1315127, -0.1652319, 0.09873832, 0.1058822, 0.08774219, -0.06747189, -0.1056561, -0.102107, -0.06599037, 0.1669875, 0.1476863, -0.03503516, 0.01817678, -0.01687452, 0.1002827, -0.05693407, -0.006647944, 0.1625938, -0.0192609, -0.03991091, -0.08121024, 0.05325332, -0.1254538, -0.1075602, 0.07190323, 0.09392498, -0.1713448, -0.06207924, -0.1306875, -0.1479724, 0.1225744, 0.0967325, 0.07816792, -0.01543675, 0.04263568, 0.04141907, 0.02395718, 0.1394503, 0.06623642, -0.04090118, 0.01815425, 0.04474267, 0.02585387, -0.07875358, 0.0896875, -0.1120265, 0.1382214, 0.06027811, -0.01217665, 0.09149399, 0.07360668, 0.08487873, 0.009260193, -0.1391064, 0.0126299, 0.04427671, 0.1695348, 0.1687387, 0.08176962, 0.1645292, 0.02933581, -0.06130289, 0.09979974, 0.1029154, -0.08355741, -0.05814, -0.1499068, -0.03856045, 0.06370886, 0.04628588, 0.02583767, 0.0530647, -0.1637626, -0.00985229, -0.02388202, 0.1488618, -0.06023332, 0.1347868, -0.008689955, -0.1123914, -0.1279577, -0.0590456, -0.1487845, -0.09754835, -0.02549936, -0.1594771],
    [0.1690683, 0.135581, 0.09757978, 0.04235256, -0.07069394, -0.1574923, 0.1268284, -0.09027953, 0.1687055, -0.1322256, 0.1166345, 0.09389888, 0.1109675, -0.07882421, -0.152473, 0.09025118, -0.09036203, 0.1137157, -0.134214, 0.05492733, -0.1055498, -0.01044862, 0.07923404, 0.05726328, -0.1548124, 0.03140005, -0.143374, 0.07178923, 0.03997621, -0.0578133, 0.06842874, -0.05772461, -0.07292497, 0.01393342, 0.1176372, -0.03597052, 0.1163593, -0.0846668, -0.07135797, 0.01155579, 0.1549999, -0.1047532, 0.01492353, -0.02243547, 0.09057043, 0.06625552, -0.1091749, 0.1565399, -0.1645258, 0.01014125, 0.1098025, 0.08398564, -0.05312422, 0.06372239, 0.1600318, -0.0319449, 0.1110357, -0.02749117, 0.05505224, 0.03843725, -0.06154278, 0.0489054, -0.06065677, -0.1433149, -0.1618303, 0.0354079, -0.0101458, -0.1271223, 0.08710564, 0.08065287, -0.06195886, 0.07291612, -0.1678764, -0.1200694, 0.1327599, 0.04077762, -0.03776267, -0.1276898, 0.06955096, 0.1444871, -0.1687167, 0.1148935, -0.1448022, -0.1515713, 0.02288049, 0.03652927, -0.09596391, 0.0693076, -0.08803897, 0.06616388, -0.06796542, 0.1040794, 0.06366736, -0.0309756, -0.058602, -0.05729369, -0.007320404, 0.1651391, 0.1375087, 0.08552064, 0.08446939, 0.03294854],
    [-0.137964, -0.06627893, 0.1162731, -0.02379841, 0.06604306, 0.07194073, 0.03200746, 0.1603446, 0.1689395, -0.1641905, 0.1446971, 0.1574185, 0.04196543, -0.1539399, -0.09197195, -0.002976939, -0.05939834, -0.1551864, 0.167159, 0.08678454, 0.1470543, 0.1175378, 0.16131, -0.07099611, 0.06641985, -0.09735592, 0.08829512, -0.0008644015, -0.01982643, -0.01158299, 0.02958527, -0.09203335, 0.01203725, 0.09229798, -0.1697745, 0.1218802, 0.1163562, 0.1234255, 0.03257294, 0.06570606, 0.1149649, -0.1525862, -0.09941085, -0.1554766, -0.118213, -0.04094216, 0.03941792, 0.07028213, 0.1220359, 0.09015752, 0.07473983, 0.1113917, 0.1065398, -0.1670482, 0.07783615, -0.02488653, -0.1427306, -0.1151139, -0.01048513, 0.1699289, 0.1583699, 0.1635559, 0.1109116, -0.1676524, -0.008596197, 0.1459482, 0.01646294, 0.1612621, -0.03297859, 0.1379567, 0.06587636, -0.1289966, -0.02924863, -0.1271839, 0.1646193, 0.1256582, 0.08306328, -0.1295181, 0.1514715, -0.05091472, -0.007945582, 0.05755449, 0.1244041, 0.1498462, 0.1631584, 0.1606516, 0.07757647, 0.06838601, -0.00988996, 0.0942753, -0.149603, 0.05460043, -0.1188955, 0.01134452, -0.07489102, -0.1459867, 0.05784684, 0.1498686, -0.0254252, -0.1334673, 0.06054017, 0.06784371],
    [0.1053262, -0.0503698, 0.134054, 0.1680037, 0.05716454, 0.01188605, 0.1249701, 0.05774667, -0.09281363, -0.01284876, 0.09657417, 0.1660184, 0.04464184, -0.0145238, -0.07223724, -0.03043795, 0.08315091, -0.0864159, 0.09446846, -0.0109589, -0.02263059, -0.1061873, -0.07175209, -0.1517923, -0.08692063, 0.1283326, -0.0801054, -0.120446, 0.1454649, 0.04890217, -0.1362506, -0.01231587, -0.1151915, 0.1278541, 0.05095215, -0.07309324, -0.04230623, 0.1403932, 0.03695995, -0.09585692, -0.09525083, 0.135877, 0.114987, -0.1136213, -0.09788642, -0.04215974, -0.05077758, -0.1504054, 0.1219708, 0.1131305, 0.09008963, 0.1628926, -0.04111528, 0.03852074, 0.1187013, 0.0860786, 0.04120389, -0.1655259, -0.05830294, 0.0243977, 0.06885279, -0.01598139, -0.03885852, -0.08990491, -0.08312263, -0.1211371, -0.113681, -0.08681108, 0.1457694, 0.1382146, 0.01489151, 0.09203842, -0.1536733, -0.1485813, 0.1166203, 0.04016376, 0.09653209, -0.03768617, -0.1318756, 0.1707085, -0.03890431, 0.1706608, -0.005721956, -0.008986771, 0.08785762, -0.07682872, -0.07874961, -0.0358533, 0.02860513, 0.01106374, 0.06373012, 0.0006230325, -0.05082813, 0.06230839, -0.03817923, -0.03410597, 0.1123857, 0.1054747, 0.02593549, 0.01684852, 0.06624734, -0.1528731],
    [-0.1174572, 0.01624022, -0.1607212, 0.1208041, 0.1557232, 0.07306638, -0.07895996, -0.1588789, -0.1048191, 0.1463116, -0.1055543, 0.1002777, 0.07100271, -0.04178658, 0.07947908, 0.1495534, -0.1432043, 0.06942433, 0.07400522, -0.1378088, -0.1252415, -0.07627665, -0.0539141, 0.1370304, -0.01523711, -0.08142904, -0.08822995, 0.1220906, 0.01825982, -0.04055215, 0.1255548, -0.05897212, 0.1323243, -0.03891183, -0.001903787, -0.009454295, 0.00932987, -0.01127104, -0.1326222, 0.1200735, -0.1080109, 0.04112612, -0.09651412, 0.03944097, -0.05881032, -0.06711501, -0.1422545, 0.1567971, 0.08872543, 0.06515901, -0.05898046, 0.1699272, 0.02811979, 0.06338146, 0.1250208, -0.0658206, 0.1529744, 0.07792393, 0.1402643, 0.09389688, 0.1359377, -0.0078917, -0.1417447, 0.03284486, 0.02782592, 0.1129204, 0.114826, -0.01148808, 0.08753697, 0.1521891, 0.1089977, 0.03331164, -0.1360501, 0.148607, -0.1060388, 0.005404323, -0.1617451, 0.03774922, -0.003224194, 0.1226184, 0.06070601, 0.1380251, 0.02257609, 0.01706211, -0.08413382, -0.004248857, 0.1122895, -0.06766546, -0.1073474, -0.03932105, 0.1110293, -0.01066901, 0.1121349, 0.1549178, -0.08867486, 0.05521432, 0.005977705, 0.01290266, 0.04790887, -0.09492291, 0.01649733, 0.1289117],
