{
"layers": [102, 102, 60, 15],
"fitness": 199.2973,
"weights": [
  [
    [-0.008792758, 0.02934154, -0.08400241, 0.004195571, 0.03385616, 0.09184758, 0.004248857, -0.1067696, 0.02190496, -0.06610173, -0.0930592, 0.04178074, -0.02367529, 0.08778246, -0.04789818, -0.01864636, 0.0984152, -0.05232868, 0.1393915, 0.06025992, 0.1104728, -0.1011139, -0.004165232, -0.04187557, 0.1383816, -0.09322068, 0.06716917, -0.04810857, 0.009751558, 0.1392806, 0.06404245, -0.0939972, -0.09445544, -0.08750296, -0.04604957, -0.1118469, -0.05073716, 0.1355692, 0.05816704, -0.1326633, -0.001868159, 0.1189517, -0.04152203, 0.1335558, 0.06119558, -0.006478697, -0.0192909, -0.04540199, -0.1394804, -0.1157508, 0.08775194, 0.01909837, 0.04577733, -0.05983619, -0.09971495, 0.1227343, 0.01125807, 0.07613857, -0.1040015, -0.107067, -0.06374401, 0.09702334, -0.07593349, -0.09355745, 0.1155148, 0.02289404, 0.0268111, -0.02637789, -0.01522504, -0.1382062, 0.1116393, -0.1227836, 0.05182099, 0.02431983, -0.09043254, 0.1002555, -0.1075039, -0.01932372, -0.08492494, -0.06384976, 0.04494994, 0.1256622, 0.01637216, -0.04490316, 0.007764325, -0.1202217, 0.1178954, 0.03440712, -0.1057768, -0.09888048, -0.1154577, 0.08749093, 0.05555144, -0.06660716, 0.04410612, 0.1208899, 0.09192817, -0.01055631, -0.04438401, 0.07103359, -0.0618996, 0.1269838],
    [0.0832704, 0.05797447, -0.06301366, -0.03704963, 0.08752064, -0.09465398, 0.01788071, 0.03848327, 0.07889629, 0.1086477, -0.005186126, 0.03332497, -0.02611539, -0.0487016, -0.02034284, -0.119035, -0.0462386, -0.01540883, -0.09259859, -0.1156438, -0.09321384, -0.08722031, -0.09619841, 0.07884327, -0.05524117, -0.06052483, 0.1001257, -0.1107119, -0.1192906, -0.05484338, -0.01639045, -0.05292747, 0.0697757, 0.08337042, -0.03068085, 0.0192061, 0.11306, -0.03686755, 0.07604235, 0.03581957, -0.08043602, 0.04140412, -0.04262758, 0.01176195, 0.1327166, -0.1027755, -0.05507058, 0.04655711, 0.04032658, 0.1239166, 0.1143619, -0.01713108, -0.004934892, -0.03701751, 0.101622, 0.0551632, 0.02489251, 0.105972, -0.05328436, -0.1052261, 0.02549415, -0.06902266, 0.05359315, 0.0773631, 0.004419088, -0.07186876, 0.08005239, -0.06249179, 0.08185309, 0.09302938, -0.09170817, 0.06301816, -0.130461, 0.08279435, -0.01178475, 0.05127288, 0.006533578, 0.05143456, 0.03762431, -0.07344769, -0.08639844, -0.08510132, 0.1367937, -0.03954501, -0.1072237, -0.06102754, -0.1145594, -0.09466773, -0.1268751, -0.05503185, 0.1002532, 0.06810093, 0.01772603, 0.1187847, 0.04033008, -0.003813177, -0.04474491, -0.03906347, 0.04367145, 0.09118731, -0.1069504, -0.03642449],
    [0.002420649, -0.1219783, -0.06393911, -0.04086894, -0.05901194, 0.0002348423, 0.01442513, 0.07990122, -0.0209592, 0.05844116, 0.1133124, 0.1035731, -0.1388663, 0.07130101, 0.03040616, -0.06171565, 0.04292502, 0.0654476, -0.1333042, -0.1112601, -0.08200319, -0.09458888, 0.04713851, -0.04378317, 0.03160356, 0.009685755, -0.03938827, -0.0537827, 0.04676853, -0.06133435, -0.1244384, -0.09178431, -0.1051188, -0.03164339, 0.006016716, -0.06819877, -0.07884759, -0.05916808, -0.0217349, -0.07994659, 0.0454361, -0.1278745, 0.03726275, 0.009806737, -0.1208034, -0.1049095, 0.03957842, 0.09399235, 0.03935003, 0.1277661, 0.1051644, -0.01401168, -0.05492024, 0.04817663, -0.008191094, -0.07366376, -0.1328528, 0.06653322, -0.1120744, -0.08750942, 0.0911288, 0.1259657, -0.007972628, 0.04455879, -0.004429236, 0.1041859, 0.08531338, -0.1283282, 0.04562435, 0.0144695, 0.1229351, 0.04433077, -0.09992929, 0.07436971, -0.08427346, 0.0516559, -0.05500247, -0.08938521, -0.04460526, -0.07076868, -0.03870935, 0.0437711, 0.005464122, -0.08663324, 0.006796286, -0.1141225, 0.02988468, -0.01569163, -0.04301094, 0.0001361668, 0.05784978, -0.09960939, 0.001856938, -0.1246282, 0.07433663, -0.04209034, 0.07153907, -0.04888402, -0.121734, 0.02756974, 0.09467378, -0.07759079],
    [0.09266675, -0.0641496, 0.008038819, -0.09140967, -0.1264797, 0.1083342, 0.0583554, -0.04700793, -0.03744234, 0.03674297, -0.09872688, 0.006446853, -0.0156694, -0.0700362, 0.1205524, -0.01161078, -0.0215173, 0.04391522, 0.002644762, -0.05050179, 0.1067382, -0.1106431, 0.06382972, -0.1375885, 0.08687901, -0.07806467, -0.07461266, -0.127169, 0.06642529, -0.07817608, 0.04037996, -0.0764588, -0.05526184, 0.01340555, 0.08623334, 0.120117, -0.07949764, -0.004549533, -0.03549064, -0.007475346, 0.1117589, 0.008732006, -0.03734365, -0.1134104, -0.09710069, -0.06066558, 0.1195411, -0.1325318, 0.1331408, 0.01772429, -0.1210047, 0.01518254, -0.04625055, 0.1180847, -0.1084402, 0.07265495, -0.06534362, -0.01346807, 0.008414045, 0.03763479, -0.04905111, 0.1005171, -0.116408, 0.09528086, 0.008036092, -0.07323578, -0.03661656, 0.0724323, 0.0723702, -0.01884577, -0.0757062, -0.1263189, 0.1187296, -0.08423336, -0.04321609, 0.1259243, 0.1047596, -0.01220801, -0.1182531, -0.06087223, -0.01979959, 0.00919202, -0.002046138, 0.03280973, -0.01206365, -0.01619408, 0.09742877, -0.111442, 0.1056201, 0.08869551, -0.07208806, 0.08125663, -0.08336769, -0.04289059, 0.0352191, -0.1294839, 0.003011107, -0.1080044, -0.006267875, -0.07472487, -0.04713539, 0.1196429],
    [-0.06524554, -0.04423114, -0.005495265, -0.127064, -0.05158368, -0.009719074, -0.006451294, 0.1091505, -0.08470921, -0.09296155, 0.08548421, 0.07402418, -0.02542515, -0.09004734, 0.1314112, 0.1077273, -0.04172093, 0.06887083, 0.02699085, 0.08284507, -0.1202597, 0.1106145, 0.1119278, 0.1051741, 0.08681051, -0.09165795, -0.06011619, 0.03103428, -0.02910294, 0.1150054, 0.1243102, -0.08955872, 0.1365897, 0.1308309, -0.1093831, -0.00811471, -0.1287024, 0.04894365, -0.1243748, -0.1349242, 0.07590751, -0.06666224, -0.06450512, 0.1204526, 0.09800382, -0.1382814, -0.04750888, 0.03450577, -0.06624262, 0.1278598, 0.05465417, -0.03929305, 0.1059971, 0.05488042, 0.03589071, -0.1202549, -0.1113081, -0.1344142, 0.05632086, 0.01093012, 0.04885785, 0.03418341, -0.1133501, 0.1268909, 0.009251952, 0.09309008, -0.08633107, -0.1151703, -0.05288795, 0.1246429, -0.1265325, 0.06442274, -0.1058158, -0.1073471, 0.03924132, 0.09312657, 0.08912627, 0.00022012, 0.02554877, -0.03158376, -0.03744414, -0.04498234, 0.1341494, 0.1318165, -0.07485621, 0.03107213, -0.1159635, -0.1205225, -0.1052705, 0.1002885, -0.02613819, 0.0456112, -0.07608154, -0.02734363, 0.1297184, 0.009701744, -0.01727824, -0.01086529, 0.1042501, 0.08595905, 0.09395756, 0.06601268],
    [-0.1001428, 0.01734691, 0.04555114, 0.0306243, 0.1350985, 0.109605, 0.07593255, 0.03366466, -0.06003763, -0.06238365, -0.08426945, 0.02916633, -0.03529717, 0.06703527, -0.01650934, 0.07815557, -0.05621536, 0.01419154, 0.03516521, -0.08781888, -0.1031943, 0.01055588, 0.03087766, -0.04298263, 0.09702878, -0.07682905, -0.1399069, 0.02701488, -0.03970383, 0.01621568, -0.1239955, 0.08973663, -0.02255645, -0.04089221, -0.1049058, 0.04998043, -0.1039274, 0.07407452, 0.1099825, 0.1220294, -0.02536875, -0.1141685, -0.03535169, 0.05856519, 0.03602111, -0.03782761, -0.0903593, 0.06981196, 0.06204317, -0.02252977, -0.01219647, 0.06858595, 0.05896702, 0.04550257, 0.03917412, 0.001085401, -0.05609707, 0.07090759, -0.1073424, -0.0003804415, 0.09415914, -0.07837912, -0.0233632, -0.01234627, -0.129818, -0.1257818, -0.01667744, -0.1002386, 0.07699957, -0.02247706, -0.068106, 0.1379406, -0.1092553, -0.1394183, -0.03127398, -0.01963557, -0.1180719, -0.07247691, 0.0005105436, -0.08649178, 0.03917946, -0.004495382, -0.1002311, 0.0724961, -0.09875596, -0.03451529, 0.07461967, 0.07022026, -0.08988105, 0.1377354, -0.1099102, -0.1161848, 0.05880239, 0.1124348, 0.1207087, 0.05751112, -0.09291865, 0.09643719, 0.07494835, -0.01801211, 0.03473346, 0.03082445],
    [-0.137611, 0.05630177, 0.01891175, 0.09883338, -0.01190554, -0.02092755, 0.1226903, -0.05538025, -0.1278944, 0.021518, 0.1247829, -0.04525584, 0.1072294, 0.1172162, 0.1232722, -0.1245608, 0.08711017, 0.007743031, -0.07490155, -0.06401449, 0.1186693, -0.03620949, -0.04920211, -0.1045731, 0.07090829, -0.04406912, 0.0901456, -0.1050125, -0.07705159, 0.07121995, 0.1326904, -0.1251366, 0.1329773, -0.00424172, -0.042106, -0.06346042, 0.103434, 0.1248511, 0.05468538, -0.1396509, -0.02229998, 0.006516829, 0.1049065, 0.007212043, -0.11464, -0.06902619, -0.1210122, 0.104457, -0.1232368, 0.1023115, -0.06722221, -0.006592005, -0.04395431, -0.01511313, 0.1279711, -0.07922484, -0.1101011, -0.1383423, 0.04726664, 0.09814388, -0.009133294, 0.01502025, 0.1298551, 0.02758273, 0.07588491, 0.1319672, -0.03801574, 0.0766317, 0.04337379, 0.01794371, -0.1162826, 0.1386612, -0.008140743, 0.03878274, -0.02600077, 0.1391711, 0.03969399, -0.0312423, -0.1229147, -0.06758812, -0.09628294, 0.005102292, -0.04438171, -0.08102067, 0.07080053, -0.03154911, -0.05825713, -0.00625892, -0.03110952, -0.09975642, 0.06257216, 0.09620734, 0.08411344, -0.07817751, -0.005821243, -0.1159534, 0.09554152, 0.06322704, 0.07926133, 0.1114661, 0.05846033, -0.1145838],
    [0.1201349, 0.1031229, 0.05323636, 0.06377373, 0.0401684, -0.00500153, 0.05880279, -0.07780664, 0.08182862, 0.09214501, -0.08867183, -0.03986882, 0.07241023, -0.1310591, 0.1349703, -0.02878838, -0.01966381, -0.1005182, 0.07217103, 0.001799121, 0.01892219, 0.01751784, -0.02094865, -0.03288862, 0.07064883, 0.1136299, 0.1288312, 0.02379521, 0.1153441, -0.01183346, -0.086786, -0.01167248, 0.08668444, 0.01746526, -0.09800145, 0.08187777, -0.09017295, 0.03402806, 0.1094452, 0.06783085, 0.04899673, -0.03631826, 0.01118465, 0.09552868, 0.1067792, -0.09267072, -0.04099056, -0.09603988, -0.06665973, 0.0743193, 0.1088377, 0.007128343, 0.04596932, -0.1317081, -0.04276753, -0.03047089, 0.1267119, -0.0556883, 0.1172787, -0.1118821, -0.03477415, -0.03144955, -0.04452626, 0.0804224, 0.02483262, 0.1185904, -0.1069671, 0.05046278, 0.05387105, 0.06413393, 0.1144889, -0.09146512, 0.1172547, 0.04609331, -0.03189912, -0.07714203, -0.05521253, -0.1219801, -0.009373441, 0.03942735, 0.05081389, -0.08249657, 0.07208803, -0.01842391, -0.09664337, -0.0139818, -0.1185867, 0.0309902, -0.02624338, -0.07725514, 0.01396678, -0.1318008, 0.1375932, -0.09894529, 0.04166072, -0.05738681, -0.1210209, 0.1092092, -0.02999128, -0.03934831, 0.0955479, 0.1020282],
    [0.1224115, 0.1152287, 0.0381336, -0.03687773, 0.08550861, 0.1396099, 0.004488468, -0.0440348, 0.09857926, -0.09460053, -0.04020694, 0.01988542, 0.04404339, 0.08849196, 0.04174291, 0.04249265, -0.08212879, -0.05691792, -0.06773919, -0.05857162, 0.06561753, 0.1217997, -0.01085821, 0.06201155, 0.0911305, 0.1328394, 0.09095372, 0.009801507, 0.1387954, 0.0004250854, -0.1253982, -0.1206997, -0.04687889, 0.02313635, -0.09411153, 0.1248649, -0.006948054, -0.01086399, 0.02785857, -0.07447876, 0.02152601, -0.03513512, -0.08516549, -0.06541082, -0.1289131, 0.04339415, -0.02782878, 0.1223766, -0.1229994, 0.08817761, -0.09061843, 0.108269, -0.1389207, 0.06586762, -0.0113834, -0.04801339, -0.0763301, -0.1273212, -0.02972019, -0.1329146, -0.1032729, 0.06220649, 0.04767425, 0.05455027, 0.04617545, 0.05600057, 0.06189063, -0.09334984, 0.0795842, 0.02209396, 0.002012789, 0.03315924, -0.08337459, -0.1045424, 0.02250727, -0.02200559, 0.1353659, -0.0772685, -0.01476796, 0.04018789, -0.0152412, -0.1304623, 0.1010595, -0.1011799, -0.1188817, -0.06355868, -0.08444086, 0.1188312, 0.1333343, -0.08242342, 0.08958282, -0.01578885, -0.07514615, -0.09709661, -0.1320674, 0.04370136, -0.0471397, 0.06476073, -0.04326594, 0.1106258, -0.05205785, 0.03198615],
    [-0.01199529, -0.1020134, -0.001427308, 0.07039763, -0.0496642, 0.1020302, 0.1014793, -0.1054437, -0.02821565, -0.05529693, 0.03801554, 0.04414592, 0.04867777, -0.0772949, 0.01211934, -0.05381412, -0.06106273, -0.126764, -0.1134022, 0.008960232, -0.007080734, 0.09964938, 0.06349593, -0.04870373, 0.05899836, -0.07629211, 0.1260003, 0.1360456, -0.1032729, 0.01119299, 0.1327251, 0.1395599, 0.1350394, 0.03071938, 0.06495069, 0.06584425, -0.03068626, 0.1299375, -0.02855231, 0.09748368, 0.1366252, 0.109578, -0.1038013, 0.1184751, -0.1303649, 0.04335947, 0.08661914, -0.002312481, 0.07397451, -0.1225608, -0.0793276, -0.01961654, 0.008717582, 0.1286323, 0.06370479, -0.07331921, 0.01454365, -0.01004551, -0.04789414, 0.04638507, -0.1223003, 0.1355578, -0.09371135, -0.1146999, 0.06289062, -0.04014234, -0.04244789, 0.03882654, -0.05998018, 0.03207436, -0.1031351, -0.1117088, 0.05012696, -0.0007970929, 0.07278829, -0.09004258, 0.08379114, -0.1199714, 0.04795261, 0.04050012, 0.04506108, -0.1198466, 0.1209243, -0.06822187, -0.05171742, -0.08636038, -0.01841, 0.01840783, -0.1056231, 0.03657037, -0.02878704, 0.07845314, 0.001647085, 0.008240476, 0.004769072, -0.05123471, 0.01560974, 0.11257, -0.09310611, 0.009521931, -0.09543586, -0.1109815],
    [-0.07792608, 0.01378641, -0.09369937, 0.06572823, -0.00743331, 0.07619519, -0.03046325, -0.02786291, -0.04117054, -0.05940716, 0.06950264, -0.05681292, -0.04413239, -0.04366696, -0.02319444, -0.0442491, 0.08381037, -0.1076819, -0.01930619, -0.07441379, -0.09112045, -0.09623484, 0.1071642, 0.06400269, -0.1394195, 0.1210561, -0.1090259, -0.005374908, -0.07137993, -0.05014681, -0.1210873, 0.1030577, 0.1390709, -0.03708656, 0.005909875, 0.08025821, -0.1164316, -0.1216532, 0.03716969, 0.09238268, 0.1040257, 0.06528902, -0.02346409, -0.01283292, 0.001792237, 0.0926529, -0.03229967, -0.09319711, 0.02620485, 0.1026753, -0.03127632, -0.0157351, 0.07863683, -0.1383791, -0.125987, -0.02151322, -0.02529724, -0.04091245, 0.01209213, 0.07201492, 0.08205601, 0.01388799, -0.04135016, 0.09548341, 0.08218147, 0.106954, 0.01215713, -0.07981363, -0.1143539, 0.06537235, -0.06706467, -0.003725886, 0.112803, -0.1169407, 0.1029714, 0.0938601, 0.1361319, 0.0841703, 0.03593054, -0.05530471, -0.1385018, -0.1244235, 0.1315336, 0.007278338, -0.03523171, 0.003714859, -0.01535742, -0.01481333, 0.1235088, 0.1275422, 0.1127173, -0.05728886, -0.02621855, -0.06641212, 0.08410072, 0.06856178, -0.04366316, 0.05524519, 0.1041021, -0.1323381, -0.1168183, -0.1261902],
    [-0.1306622, -0.02560015, 0.128612, -0.03221658, -0.1379578, 0.1210162, -0.1311774, 0.009047627, -0.1014997, 0.01181079, -0.09688406, -0.1077776, 0.06083816, 0.1000604, 0.05764913, 0.136303, -0.0869737, -0.1212787, 0.07264273, 0.08163138, 0.0844506, -0.06428541, -0.04649353, 0.1231961, 0.07513765, 0.0823927, -0.03615648, -0.0817323, -0.07040554, -0.1134426, 0.1000412, 0.01214838, -0.04841769, 0.05650045, -0.01430684, -0.1298413, 0.02119376, 0.06256151, 0.02925006, -0.09763466, -0.01252151, 0.02494787, -0.1076224, 0.1122229, 0.01493242, 0.0917747, -0.1025484, -0.002306044, 0.1326442, -0.004665107, 0.03943495, 0.1361225, -0.1082426, 0.1353183, -0.04677673, -0.01022223, 0.04365693, -0.09931614, -0.01036966, -0.02918396, 0.1216996, 0.1396673, -0.04007724, 0.02611268, 0.01366831, -0.09961873, -0.06332378, 0.04442592, 0.003925785, -0.07621108, -0.05323131, -0.1044851, -0.07483554, -0.05164875, -0.08979158, -0.08609784, 0.02183933, -0.1230838, 0.03176945, -0.1052719, 0.09858039, 0.06380822, 0.0007642061, 0.005579993, -0.06390999, -0.1127402, -0.04598063, -0.04185811, -0.1391359, 0.06309807, -0.08459233, 0.05969221, -0.0002107769, -0.1363034, 0.06417422, -0.00258638, 0.007663667, -0.1351014, -0.02561301, -0.04873889, 0.04680292, -0.002931371],
    [0.01564533, 0.121562, -0.1127612, 0.002539694, 0.03784064, 0.09109354, -0.02940223, -0.1085136, 0.05099538, -0.114218, 0.06510767, -0.06925961, 0.0490839, -0.09461226, 0.1284178, -0.1373006, 0.04349805, -0.01822744, 0.108746, 0.1337119, -0.01139431, -0.09222864, -0.01585799, 0.1051756, 0.1034017, 0.1169285, -0.04747983, -0.006461769, -0.01557802, -0.06454338, -0.1041146, 0.00667344, -0.1026395, 0.0833563, -0.08679768, -0.04829186, 0.0917348, 0.03203623, -0.02948493, -0.04387966, -0.102814, 0.1211582, 0.05694466, 0.01536065, -0.1030385, -0.1181898, 0.03075163, 0.05309558, 0.08035279, -0.1388149, -0.07236727, -0.1128269, -0.01546448, 0.06918868, 0.1397067, -0.06970057, 0.1117556, 0.1296883, -0.06554016, -0.1141836, 0.03049554, 0.007465228, 0.002517328, -0.04287313, 0.07625519, 0.05465431, 0.1190916, 0.03279652, -0.06354155, -0.1035576, -0.1236458, 0.06292551, -0.09558803, -0.02757969, -0.1025772, -0.01673308, -0.02559695, -0.07556097, -0.136558, -0.06650473, -0.0322971, -0.04213331, -0.03603151, -0.06625234, 0.02376172, 0.1374398, 0.04099264, 0.1288773, 0.1071648, 0.1029254, -0.09109607, -0.09298715, -0.1368963, -0.07615566, 0.01586384, -0.04839639, -0.0228492, -0.1180836, -0.1045885, 0.07343349, 0.1389147, 0.006679446],
    [0.0009212196, 0.1252797, -0.07898289, -0.04059708, -0.02007689, 0.02096795, -0.08847277, 0.09012537, 0.02840311, 0.0126888, -0.01621738, -0.08253793, 0.08043168, -0.1071218, 0.03236558, 0.1394096, -0.1088357, 0.01547146, -0.1109323, -0.118773, 0.002557561, -0.1367293, 0.1257291, -0.03179266, 0.03660595, -0.02602428, 0.001313165, -0.004667714, 0.03236277, -0.09163222, -0.03139022, -0.03848466, -0.0793054, -0.05941026, 0.08328198, 0.1232222, -0.07126859, -0.06616053, 0.01745224, -0.01022793, -0.123856, 0.03840705, -0.09529585, -0.1144534, -0.01689717, 0.01185305, 0.07273924, -0.08759837, 0.09894439, -0.06960061, 0.1159145, 0.06451064, 0.03803915, 0.09647031, -0.01974794, -0.01822177, -0.1286562, 0.04443814, -0.1283912, 0.1219568, -0.0763548, 0.007871658, -0.07147782, 0.06335915, 0.08743922, -0.0704338, 0.08194647, -0.0904261, 0.09777761, -0.07535201, 0.04695005, -0.1182972, -0.1173204, -0.1040166, 0.05645724, 0.07148293, 0.05581851, 0.1354577, -0.05186509, 0.1304799, -0.04682441, -0.02115697, -0.0551303, 0.06345029, -0.0304099, 0.07526705, -0.1101554, -0.01217376, 0.05814758, 0.03857108, 0.08172873, 0.1218005, 0.1399299, 0.09865971, -0.0315216, -0.02763912, 0.02498963, 0.08015174, -0.07812473, -0.1007728, -0.04853647, 0.1078634],
    [-0.0519135, -0.1064484, 0.1103924, 0.06486225, -0.02583525, -0.09233931, -0.08928183, 0.1155958, 0.1344766, 0.08088088, 0.09030832, -0.04994249, -0.1398384, -0.05606309, 0.1262407, -0.04357833, -0.0421101, 0.1120026, -0.08007409, -0.04680113, -0.1315956, 0.1072396, -0.07428329, -0.0393869, 0.02401274, -0.1254994, 0.07345162, 0.02652329, -0.0008504391, -0.1043007, 0.1170766, 0.0148138, 0.1202989, 0.07068555, -0.07279344, 0.1101415, -0.02356422, 0.06544159, -0.1371119, -0.01355691, 0.1388506, 0.1161368, -0.02778529, -0.005617425, -0.01287578, 0.1006649, 0.07829559, 0.0583824, -0.1217381, 0.04079631, 0.08583255, 0.1016576, -0.01430582, -0.1079509, 0.02721346, -0.1324404, -0.07391535, -0.008093283, 0.1050359, -0.05466871, -0.1045801, -0.05260173, 0.05991776, -0.02510538, 0.01634118, 0.08770721, 0.07282421, -0.1168135, -0.1259729, -0.1111271, 0.1163592, 0.1149943, -0.1034281, -0.001468197, -0.03705661, 0.05747078, 0.01909423, 0.1187406, 0.09424043, 0.1338089, 0.02837503, 0.1015187, -0.021027, 0.1071436, -0.06420448, 0.02022712, -0.0313767, -0.07611006, 0.03707124, 0.04839907, -0.1131292, 0.1127685, 0.01007393, -0.1320529, 0.02807036, 0.06257369, -0.03825644, -0.01633123, -0.1189649, 0.1098006, 0.0644816, -0.0004184693],
    [0.1085085, -0.107402, -0.1238673, 0.0506253, 0.01635353, -0.0436699, 0.03373274, 0.08151437, -0.04235091, 0.0775515, -0.06313175, -0.0583884, 0.02131021, -0.1075785, 0.1191873, 0.1314949, 0.1087543, 0.08402751, 0.05145746, -0.1004042, 0.11063, -0.0720893, 0.06173659, 0.01047654, 0.0964511, -0.08634292, 0.04860456, 0.05592572, -0.1291025, 0.09255198, 0.0935718, 0.04954418, 0.01980737, 0.09332061, 0.0867241, -0.05238253, -0.05434141, 0.0977737, -0.05109692, -0.1090916, 0.03025246, 0.002552554, -0.01588076, -0.07689121, 0.03241348, 0.06815294, -0.01260303, 0.05933899, -0.05949603, 0.1169405, -0.1398401, -0.05572215, -0.02117971, -0.05738297, 0.1184178, 0.04197267, 0.1020916, -0.1086288, -0.1154654, 0.007848963, 0.1027646, 0.020923, 0.02187208, 0.05903118, -0.1209291, -0.07393551, -0.02112739, 0.05523143, 0.120844, 0.05453692, -0.09992461, 0.07807114, -0.08802931, -0.08671282, -0.1372698, 0.09571967, 0.05837997, 0.1196795, 0.01469241, 0.06912675, 0.1107394, -0.01586995, 0.01488675, -0.07404044, -0.04569889, -0.03400967, -0.03168535, 0.0008703023, -0.0648825, -0.08593401, -0.1289104, 0.01247299, -0.02342253, -0.109363, -0.06964819, 0.05354421, -0.1252051, -0.09434527, -0.07588647, -0.08371072, 0.1130117, -0.06295654],
    [0.01593912, 0.1210464, 0.1391891, -0.09123887, 0.03331228, -0.008994341, -0.01023865, -0.09986556, 0.05644379, -0.1159801, 0.002523884, 0.1247127, -0.05300917, 0.02545312, -0.1289307, 0.1297184, 0.08468787, 0.007492676, 0.09298155, -0.09011108, 0.08297183, -0.06815536, -0.0597811, -0.1100954, -0.0847065, -0.05210927, -0.1143686, 0.09265473, -0.07446864, -0.01200049, 0.09239884, 0.03605466, 0.1212147, -0.07589366, 0.09901467, 0.07129753, -0.07047132, -0.06576955, -0.05792384, 0.1119864, 0.1396173, 0.01953061, -0.1223207, 0.1045664, -0.04480029, 0.08144312, 0.09263234, -0.01904098, -0.03660314, -0.08561541, -0.07999858, -0.08271611, -0.1223443, 0.04433098, 0.01370534, 0.1250804, 0.1208744, 0.01895952, -0.1182739, 0.07789804, 0.1198986, 0.1249047, 0.1371913, 0.04012419, 0.07351562, 0.07803315, 0.02726584, -0.06742083, -0.01172636, 0.08122511, 0.1266804, -0.06484011, 0.09932561, -0.1063017, -0.009198129, 0.03532856, -0.06592482, -0.05630673, 0.001906678, 0.00742577, 0.03799618, 0.02772379, 0.08407689, 0.1130172, 0.1021075, -0.0885153, -0.02393068, -0.1144725, -0.128026, 0.03981481, -0.014044, 0.08388665, 0.09339441, 0.08654246, 0.03317246, 0.1321674, -0.1151668, 0.002337456, 0.1148425, -0.1132438, 0.1382102, -0.01294726],
    [-0.02795475, 0.001036331, 0.1094989, 0.03796757, 0.01676169, -0.04403293, 0.07979733, -0.03693996, -0.0281811, 0.105806, 0.05489037, -0.1346274, -0.04271835, 0.08682676, -0.04727234, 0.1081473, 0.1010808, -0.02191428, -0.02589538, -0.08511464, 0.04948269, -0.1022373, 0.05770401, 0.1371535, 0.1297621, 0.09196062, -0.08824818, -0.07602733, -0.1210474, 0.07776961, -0.05147468, 0.07197232, 0.1031006, 0.03658559, 0.07271494, 0.09201901, -0.06178719, -0.1041774, 0.09495953, -0.0919466, 0.03772663, -0.07680652, -0.04406655, -0.1055525, -0.1282618, -0.008187383, -0.08848438, -0.08999009, 0.09085242, 0.138243, -0.05749525, 0.1214486, -0.0803626, -0.05603461, -0.1023529, -0.1341553, -0.09185115, 0.05596571, -0.09638564, -0.08167928, 0.05803015, 0.05421762, 0.08908588, -0.06554964, -0.03837306, 0.05406679, -0.04316138, -0.06697382, 0.0540296, 0.1122005, -0.02487679, 0.05327452, 0.1177458, -0.06357394, -0.1330457, -0.01668474, 0.1205759, -0.01534209, 0.02819546, -0.120068, 0.05922458, 0.0689882, -0.1385394, 0.04625797, 0.1066781, -0.07449524, -0.09770446, -0.1022716, 0.01636462, -0.1162204, -0.07353592, -0.06728098, -0.1209284, -0.09484167, 0.09644757, -0.09782349, -0.08276208, -0.07883964, 0.0007181615, 0.02163221, 0.0863565, -0.02972063],
    [0.09384745, -0.1282358, -0.004312858, -0.08468974, 0.0962057, -0.1127728, -0.03145189, -0.007888764, 0.1254456, 0.1139075, 0.01176268, -0.1131002, 0.02297296, -0.09862897, 0.1129438, -0.01928816, -0.07139947, 0.0553188, 0.1156722, -0.1295521, -0.09554249, 0.03990669, 0.01312861, -0.06908278, 0.05104379, 0.02756834, -0.08502376, 0.03875089, 0.0537516, 0.054781, 0.07211434, 0.1143633, 0.07908018, -0.00450556, 0.02762437, 0.1313283, -0.103492, -0.1248597, 0.03625458, 0.1027828, 0.03521315, -0.1254797, 0.05193273, 0.08448602, -0.01872241, 0.04092788, -0.0304727, 0.09844951, 0.02663489, 0.05430359, 0.03327109, 0.0341188, 0.101314, 0.1086247, 0.06773005, -0.1236993, 0.02983654, 0.1082982, 0.04589621, -0.0683271, -0.02931497, 0.1267516, 0.02893908, -0.1029661, 0.1014909, 0.1275775, 0.08940975, 0.02791445, 0.1181082, -0.1084598, 0.1007683, 0.0154583, -0.0922717, -0.03516724, -0.1143428, 0.02840421, -0.04625165, -0.1193319, -0.09328915, 0.001527667, -0.09267206, 0.04838712, 0.06157727, -0.07403697, -0.1081, 0.1006173, 0.08202536, 0.01040934, -0.0589868, -0.006394595, -0.09196517, -0.13915, 0.1202016, -0.1233401, -0.07626614, 0.08993964, 0.09004761, 0.01204436, -0.02771821, -0.04858227, 0.06681696, -0.1284051],
    [0.1270086, -0.08343983, 0.1283428, -0.01731162, -0.1054903, 0.06697731, -0.04548997, 0.009061009, 0.1072984, -0.09904148, -0.03826262, 0.09449594, -0.03030033, 0.008436784, -0.08997513, -0.08828707, 0.02997473, -0.01019846, -0.1220937, 0.1105125, 0.09169517, 0.1124424, 0.00228554, -0.08467789, -0.07657988, -0.05446146, 0.10022, -0.01217389, 0.112559, -0.08910178, -0.1047918, 0.06903508, 0.02140032, -0.0040209, -0.1063377, -0.0133123, -0.09239547, 0.05110371, -0.01177995, -0.04561011, 0.04540772, -0.008452997, -0.04361138, -0.1111142, 0.03667372, 0.04899707, -0.08714966, 0.136199, -0.1310019, 0.07001137, -0.04201533, 0.1337779, 0.02593931, -0.03593186, -0.0341965, 0.05957523, 0.1360983, -0.07576756, -0.08009607, -0.007559344, 0.04765191, 0.003308401, 0.1183576, -0.1053285, -0.1315663, 0.0750439, 0.06549063, 0.1036856, 0.01042438, -0.03781529, -0.07546346, -0.004170612, -0.03350001, 0.02921825, -0.0484495, 0.1116289, 0.01548558, 0.06609134, 0.07386833, -0.1264196, 0.01259351, 0.07032108, 0.1166794, 0.03534078, 0.1327466, -0.08178039, -0.07300122, 0.09978934, 0.09509583, -0.01388346, 0.1199948, -0.1290165, -0.02159799, 0.1281929, -0.0067202, 0.04391038, -0.001302406, -0.1170616, 0.1025078, 0.09624416, -0.02196276, 0.01290947],
    [0.1215862, -0.09953284, 0.0635381, 0.07713455, 0.02857234, 0.01796226, 0.1200909, -0.08787693, -0.09712645, 0.08794276, 0.06487915, -0.002726555, -0.01705515, 0.04693429, 0.03420357, 0.01872335, -0.09948076, 0.1296689, -0.02763094, -0.1375603, 0.02651401, 0.05326174, -0.04571141, -0.1141095, 0.08501361, -0.1381647, 0.04381878, -0.08254975, -0.07325101, 0.0123502, -0.052665, 0.09308097, -0.001721427, 0.07370515, -0.1249396, -0.1340059, 0.1318976, 0.03707902, 0.0590013, 0.07843184, 0.08019598, 0.03267943, -0.03222333, 0.1341311, 0.03184183, -0.04479368, -0.1347447, -0.02972484, 0.06892802, 0.1134271, 0.09351555, 0.1399594, 0.1077816, -0.01164845, -0.009002686, -0.06246725, -0.0320984, 0.006915182, 0.005429059, 0.02229618, -0.1391842, 0.07273768, -0.02285622, 0.01609336, 0.08712065, -0.05674551, 0.003044784, 0.02118164, -0.1311383, 0.06233886, 0.01405996, 0.04725419, -0.02844167, 0.06454039, -0.124452, 0.04868555, 0.1062431, 0.09563808, -0.1354684, -0.1318689, 0.110107, -0.006552979, 0.04866939, -0.0786441, -0.09824631, -0.03927132, -0.08290526, -0.04245812, -0.008428529, 0.06582008, -0.1158339, -0.08083224, -0.01917976, 0.01873086, -0.1305851, -0.06551626, 0.05401327, -0.1184402, -0.01426569, -0.05853122, -0.1192019, -0.115721],
    [-0.0191589, -0.09841013, -0.03886713, -0.05425474, -0.02908898, -0.136606, -0.01162538, 0.06992631, 0.1034716, 0.05570724, -0.124185, -0.08572511, 0.09537944, 0.03247635, -0.138606, -0.06316824, -0.09866729, 0.07091354, -0.1236454, 0.0636071, 0.07228647, 0.02227701, 0.01289225, 0.02163725, 0.03902739, -0.1346094, -0.08463316, -0.09817863, 0.05395612, 0.04171881, -0.007302016, 0.06094045, 0.03453192, -0.08961551, 0.08704407, -0.05960516, 0.016123, -0.04231189, -0.06993461, 0.119012, 0.02699152, 0.0432938, -0.1171431, -0.04950588, 0.1198769, 0.032529, -0.03341191, 0.05330918, -0.07860354, -0.05663885, 0.100285, -0.116571, -0.09421062, -0.09512134, 0.08528917, 0.1198622, 0.06519908, -0.1391581, 0.08215116, 0.0494692, -0.1183717, 0.05031665, 0.04418118, 0.1273575, 0.05540707, 0.125782, -0.009994701, -0.07360175, -0.01182479, 0.02906634, 0.08834283, -0.06790213, -0.06552854, -0.1181147, -0.124455, -0.1100417, -0.018844, -0.004058138, 0.06276213, -0.05296232, 0.1119015, 0.01855863, 0.005561739, -0.08591908, -0.01259872, -0.05597304, 0.01622967, -0.1242881, -0.001557678, 0.03424213, -0.06370814, 0.05244767, 0.1143075, 0.0568584, -0.02594018, -0.03402169, 0.09000197, -0.02592866, 0.0895011, -0.01544755, -0.04115933, 0.01784562],
    [-0.05182866, -0.05472103, 0.1385379, 0.02256186, 0.09394154, -0.08948484, 0.09745918, 0.009234324, -0.006738931, 0.04414962, -0.1284427, -0.0003358126, 0.02578293, -0.102721, 0.009659246, 0.0600739, -0.1306365, -0.08453761, 0.03457628, 0.09944664, 0.0208375, 0.03368871, 0.07404354, 0.04480485, -0.01134597, -0.1372641, 0.1259, -0.01908044, -0.05880101, -0.09891762, 0.1170508, -0.1066259, -0.08252881, -0.1272331, -0.06048213, -0.1290173, 0.02359016, 0.03358264, 0.0652305, 0.1125319, -0.1227816, -0.08507167, -0.0571445, 0.06876993, 0.1125132, 0.04264599, -0.02569449, 0.1397921, 0.02512811, -0.07592985, -0.009089053, 0.008423522, 0.02505197, 0.1093497, 0.06368152, 0.08110426, 0.08439402, -0.01625541, 0.1172236, -0.06339949, -0.06300552, 0.1166551, 0.0004219711, -0.083661, -0.008089766, -0.04576309, 0.139191, 0.1304395, -0.0640039, 0.1354546, -0.0897011, 0.06386494, -0.1380991, -0.08493245, -0.07948098, 0.007437825, -0.05359465, 0.02177056, -0.03254399, -0.1264804, -0.06843917, -0.1132325, -0.1295042, 0.03041144, 0.04734376, 0.002814904, -0.06593895, 0.03413777, -0.05180593, 0.0268773, 0.1372098, 0.1170082, 0.03393726, -0.1148509, 0.0888229, -0.039941, 0.01501107, -0.07213725, 0.0587881, -0.05311082, 0.03320188, -0.03045854],
    [-0.1291964, -0.01060635, 0.02827461, -0.01990652, 0.1025904, -0.1328535, -0.06310047, -0.09535734, 0.05067481, 0.06559256, -0.1248114, 0.1165978, 0.110002, -0.1225586, -0.0158411, -0.04180013, 0.1326211, 0.06815548, 0.04430811, 0.0753871, 0.03642314, 0.0135961, -0.1017233, 0.04659136, -0.08400819, -0.1020495, 0.0219257, -0.05858785, 0.06580849, -0.08219913, 0.09908397, -0.1360435, -0.06693247, -0.1327587, 0.003363088, 0.06778197, 0.03520615, 0.1219743, -0.002598956, -0.1377171, 0.001150876, 0.1003289, -0.1345512, -0.08904685, -0.06369789, -0.09532292, 0.01954232, -0.05528517, 0.07069179, 0.01109415, -0.1363122, 0.08457947, -0.04358801, 0.01716833, -0.02770059, 0.04395245, -0.06473601, -0.1258791, 0.07164444, -0.08397573, -0.08329815, 0.03356094, 0.08480322, 0.07532804, -0.0931, -0.03237876, 0.09245235, -0.133394, 0.06670976, 0.0412656, 0.0860802, 0.06717913, -0.05714123, -0.07041356, -0.02460013, -0.1072642, 0.08928943, 0.1139264, 0.1010792, -0.08691491, 0.06456486, -0.07408784, -0.04329829, 0.02901069, -0.01898923, -0.06386456, 0.09388485, -0.01466399, 0.1201363, 0.1330229, -0.1399549, -0.08976604, 0.13736, -3.623962E-05, -0.07799108, 0.04207113, -0.09141718, -0.05976217, 0.01001857, -0.1051872, 0.01124805, -0.008786455],
    [0.03581592, -0.06512262, 0.09150888, 0.1134273, 0.1301869, -0.0766717, -0.01023668, -0.1120133, 0.07967848, 0.05929336, -0.09865034, 0.04418004, -0.1036282, -0.1384481, 0.1064332, -0.09385563, 0.1303239, 0.04099031, 0.02864408, 0.05911484, 0.09078346, -0.03400983, -0.1016375, 0.06907734, -0.04839168, 0.1092625, -0.04016384, -0.02781393, -0.0820526, 0.09487399, -0.1037094, -0.01394078, 0.02141868, 0.06548873, -0.03486123, -0.05287226, -0.1294923, -0.04219791, 0.02720118, -0.12174, 0.08179053, 0.04007318, -0.07900019, 0.03976453, -0.06364268, 0.1308024, 0.113837, -0.06407538, -0.01975736, -0.03413506, -0.1067317, -0.01690705, -0.03475165, 0.002742752, -0.1124424, 0.1358105, 0.1309867, -0.07741703, 0.1369398, 0.05081002, 0.09540762, -0.02292265, 0.1073875, 0.1050129, -0.1077948, -0.08023815, 0.08997422, -0.04213955, 0.1114137, 0.0700077, 0.03718012, 0.1164684, 0.007988051, -0.003312677, -0.0673842, 0.1356694, 0.05019272, 0.07856738, 0.1060806, -0.01485333, 0.05117282, -0.1118162, 0.1028125, 0.017491, 0.08664384, -0.1352104, -0.09824473, 0.05917123, 0.08439765, -0.1075737, -0.0209408, 0.07410938, -0.004323214, -0.1357192, 0.09368354, -0.04610946, -0.04112153, -0.1373234, 0.08349975, 0.1141576, -0.0960764, -0.09630412],
    [0.07278495, 0.09142752, -0.02323267, 0.06836981, 0.1214883, 0.09850013, 0.1140038, -0.1335583, -0.009343624, 0.09370981, -0.01033179, -0.13567, 0.006236926, -0.002266303, 0.1383236, -0.08552948, -0.04977607, 0.03491037, 0.05243882, -0.07179634, 0.1011993, 0.1298747, -0.1134527, -0.05523716, -0.04184927, -0.1344576, -0.0185602, -0.07580215, 0.1129211, 0.03926663, -0.1397732, 0.03947101, -0.09337662, 0.09699783, 0.1108918, -0.114095, -0.08718002, -0.009051874, 0.06940071, 0.04670036, -0.0357847, 0.04211399, -0.03501296, 0.0651059, -0.02962925, -0.03159842, 0.02689336, 0.0065694, -0.09915441, -0.04165076, -0.1173011, 0.04830896, 0.0932719, -0.05696239, 0.09501157, -0.01157412, 0.01340751, 0.09536135, 0.1386396, 0.05318318, 0.03666344, -0.1318504, -0.01512872, -0.02122908, 0.0123558, -0.1379835, 0.02422515, -0.08481348, 0.01748306, -0.134138, 0.08169568, -0.02288532, 0.1138023, -0.1326148, -0.04181759, -0.07995948, 0.00451611, -0.04494308, 0.1032058, 0.02570902, 0.09247939, -0.03445753, -0.1165511, 0.1095533, 0.0777883, -0.1308521, 0.03967727, 0.03314232, 0.103148, -0.06875166, -0.07658386, -0.09363984, -0.08291084, 0.05839853, 0.06991138, -0.09935693, -0.04634313, 0.1167623, 0.1357805, -0.007669479, 0.01734878, 0.1387668],
    [0.02596866, 0.01398972, -0.04481795, -0.09386572, -0.08678097, 0.08018292, 0.05626164, 0.08233751, 0.1130899, 0.1351647, -0.1197977, 0.1251128, -0.07182449, 0.1215982, -0.08373436, -0.09778188, 0.03016505, 0.07385749, -0.1310086, -0.09607433, -0.004620641, 0.0568349, -0.05231976, 0.1364508, 0.03049563, 0.08707642, 0.003869206, -0.03822403, -0.1016737, -0.114203, 0.1342513, 0.134512, 0.01771344, 0.1301303, -0.09407324, 0.06212717, -0.1346632, -0.0459576, -0.05914612, 0.08423179, 0.09775437, 0.1364109, 0.01636067, 0.0687047, -0.07697982, -0.002108961, 0.0550777, -0.1371574, 0.1219618, 0.09112519, 0.1242631, 0.06671006, 0.05710065, -0.08407542, -0.1376538, 0.07559779, -0.1244662, 0.1279854, 0.05947217, -0.08839858, 0.0897634, 0.07300132, 0.03436275, -0.0007149279, -0.04429451, -0.04652624, -0.009640858, -0.008430541, -0.0366008, 0.03764614, -0.09743507, -0.06356379, -0.04915784, -0.1037312, -0.05885153, -0.0581129, -0.04667391, 0.1036386, 0.03111053, -0.1222693, -0.1071582, -0.05636425, 0.0003852546, -0.07187942, 0.008857697, -0.1053268, 0.1276779, 0.04530786, 0.02985594, 0.01370795, 0.1387694, 0.136045, -0.1037035, 0.1272147, -0.1091854, -0.1311781, -0.06368685, 0.1393857, 0.1266651, -0.06166123, 0.1188714, -0.1026711],
    [-0.1192368, -0.01985798, -0.1148994, 0.08522063, -0.1246319, 0.0475609, -0.006964147, 0.0105058, 0.1026543, -0.03819077, -0.06838746, 0.1094016, -0.1120216, 0.00310117, 0.07221676, -0.1071575, 0.004609689, -0.05530831, 0.01884657, -0.07633264, -0.06595607, -0.03356678, -0.1045151, -0.03644192, 0.06463443, 0.04650973, 0.08125833, 0.03339878, -0.1044743, -0.05543494, 0.01930175, -0.08325601, 0.06037484, 0.01373191, -0.110637, -0.08318664, -0.06084633, 0.09457636, 0.07882431, 0.07060656, 7.389486E-05, -0.06617495, -0.01236255, 0.04262812, 0.1198568, -0.02267189, -0.006049633, -0.05362105, 0.1183217, -0.03447626, -0.001046777, 0.1342606, -0.04056236, -0.02987143, 0.03698004, -0.02131562, 0.001837403, 0.08749724, -0.01919602, 0.1386911, -0.01492177, 0.09151036, 0.1305536, 0.002729595, 0.04122504, -0.05777488, 0.1303159, -0.0304108, 0.09282964, -0.1306287, -0.12396, 0.003415793, -0.1211476, 0.08680379, -0.1216256, -0.1036787, -0.02960789, 0.05620325, -0.06691794, -0.1315251, 0.07730378, 0.07929681, -0.02133952, 0.02917074, -0.1120214, 0.1256585, 0.08720762, 0.08401032, 0.07221153, 0.02841847, 0.1126701, 0.04665542, -0.1261019, 0.04988161, 0.06974505, 0.02638577, 0.04001723, 0.07877401, 0.1225973, 0.01649635, 0.02736169, -0.09119426],
    [-0.02542134, 0.02128437, -0.02339789, 0.1266496, -0.0815323, 0.06680404, -0.08082753, 0.01018611, 0.03071945, 0.0674215, -0.1036065, -0.123662, 0.03886347, 0.02419036, 0.08438139, 0.1146589, -0.1374927, -0.09793209, -0.04666156, 0.07308014, -0.0334505, 0.08749226, -0.07915787, -0.0602533, 0.05067268, -0.003105983, -0.1253994, -0.02589828, 0.0955261, -0.09381664, 0.1231325, -0.05651061, -0.09980229, 0.1198568, 0.0290586, -0.08501725, -0.1231756, 0.1154513, 0.07998041, 0.02266041, -0.04157601, -0.05957041, 0.1066398, 0.01092018, 0.1332875, -0.1267088, -0.1059345, -0.02633927, -0.03570427, -0.1251957, 0.07675469, 0.04644079, 0.08119483, 0.07832877, 0.1096317, -0.009105921, -0.1391801, -0.01900769, 0.1175857, -0.1102261, -0.1360361, -0.05201515, 0.03183658, 0.07147982, 0.05888135, 0.03298798, 0.02709775, 0.1060771, -0.1031281, 0.09859134, -0.05428545, 0.1259442, -0.1305262, 0.03666257, 0.1111536, -0.1141337, 0.05470979, -0.1133485, -0.1100159, 0.1397665, -0.1286138, -0.1126273, -0.05558103, -0.1132395, -0.09510444, 0.02712706, -0.1382683, 0.06045447, 0.0289097, 0.04079805, -0.09467478, -0.1005455, 0.02063456, -0.1181191, 0.101678, 0.084388, 0.07781925, 0.0922459, 0.06482536, -0.04714911, 0.02299193, -0.02310723],
    [-0.1035755, 0.1368702, 0.1174688, -0.03115456, 0.0221618, 0.0288027, -0.001480594, 0.02675017, -0.05457757, -0.0564757, -0.1294171, 0.008002907, -0.06724901, -0.05530784, 0.04157589, -0.1014086, 0.03055399, 0.03760458, 0.09050669, 0.1161605, -0.02457802, -0.01697823, -0.03041908, -0.0519226, 0.06230607, -0.04540727, -0.06087817, 0.0506481, 0.08613966, -0.08893488, 0.1151504, 0.04882617, -0.006907731, -0.06546368, -0.0158205, 0.06247143, 0.009424374, 0.1072611, 0.09523004, 0.0326816, -0.03164493, -0.06988983, 0.126716, 0.1060311, -0.1246374, -0.1336106, -0.01893321, -0.07464628, -0.1358948, 0.04945895, -0.02386722, -0.0888387, -0.08659524, -0.09638637, -0.08279607, -0.0749816, -0.1152547, -0.1097392, -0.0825211, -0.08623281, -0.05239093, -0.1258483, -0.02141978, -0.0414637, 0.1053432, 0.06078721, 0.05759969, 0.07510239, -0.005192026, -0.1101152, 0.1085757, -0.1283607, 0.03019239, 0.01350276, 0.02953207, 0.0322307, 0.1313436, 0.1248377, -0.1128866, 0.09103215, 0.05211549, -0.0985001, -0.1337645, 0.03209342, 0.07992893, -0.02869497, 0.08236689, 0.06947938, 0.1174819, 0.1338129, -0.09296866, -0.08516514, 0.08457473, -0.02895911, -0.01011969, -0.1165085, -0.08718944, -0.02872661, -0.02986616, -0.006230474, -0.03252856, -0.1397886],
    [0.02565818, 0.1281934, -0.01865174, 0.05280323, -0.0589642, -0.001078054, -0.133158, 0.1250629, -0.1247752, -0.1297642, -0.1190374, 0.02410753, -0.01636475, -0.04626371, -0.1158443, 0.09364033, 0.0539644, -0.1272839, -0.05877651, 0.09590876, -0.094919, -0.02551512, 0.1270768, 0.1094014, 0.02101696, -0.02728036, -0.08476573, -0.08837502, 0.07584691, 0.06945821, -0.06092695, -0.1111292, -0.0986525, -0.02880688, -0.09158494, -0.06206165, -0.01266359, 0.08947405, -0.1151948, 0.03608998, -0.006352335, 0.0226942, 0.1337624, -0.08235522, -0.03868558, 0.03632739, -0.001101762, -0.01336432, -0.1156394, -0.0682005, -0.02220967, -0.02562756, -0.105844, 0.08264562, -0.1145762, 0.1129451, 0.009317249, 0.1114953, 0.08894964, -0.01116145, 0.02774522, 0.122918, -0.1174999, 0.09816618, -0.036146, -0.09506848, 0.01569317, -0.08228223, 0.06605919, 0.1295692, -0.09460701, 0.05129267, 0.0757079, 0.0002863556, 0.09200726, 0.1315797, 0.02775106, -0.1107707, 0.1331126, -0.1025676, -0.03555938, 0.03635583, 0.1034018, -0.104737, -0.04214476, -0.1178934, 0.07648902, -0.1275255, -0.008579805, -0.1267023, 0.00537838, -0.0008861572, 0.04357002, -0.09915037, -0.03983393, -0.05651021, 0.06787695, -0.04397628, 0.0744205, -0.03401424, 0.1226471, 0.09086211],
    [0.09472796, -0.1370117, -0.1142073, 0.05839396, -0.1311675, 5.295873E-05, -0.02299336, 0.1109229, -0.1039016, -0.1381116, -0.1278835, -0.07395962, 0.118992, 0.1287048, 0.07750683, -0.02491866, -0.06686172, 0.06394736, 0.112341, 0.0886673, 0.05904924, -0.00104785, -0.006165981, 0.002751663, 0.04615047, -0.05767686, -0.03578196, 0.07229803, -0.1077026, 0.04107491, -0.06693046, -0.08265851, 0.06271932, 0.06425638, -0.04024617, -0.004805058, -0.03254018, 0.102501, 0.117872, -0.115791, 0.1193181, -0.08805868, 0.07016534, 0.0381351, 0.07059407, -2.633035E-05, 0.06608626, 0.06329679, -0.1199083, 0.02265086, -0.0374337, -0.03758166, -0.07424602, -0.03618538, -0.02504452, -0.02525708, -0.009155363, -0.1011251, -0.01781497, 0.08193395, 0.1098786, -0.09850484, 0.124996, 0.06153678, -0.04860181, 0.07989271, 0.01355724, -0.0224593, -0.09817265, 0.02310364, 0.1276094, 0.1248951, 0.01525165, -0.006034076, 0.1284286, 0.03180273, 0.1101051, -0.1214687, 0.05749195, -0.05909667, 0.07159186, 0.1001723, 0.1207322, 0.006689757, -0.07241194, 0.1344668, -0.09937002, -0.09439364, -0.08866674, -0.03132262, 0.1018401, 0.01574068, 0.00274916, -0.099426, -0.05744023, 0.008195341, 0.03053236, 0.09662919, 0.01817587, -0.08652216, -0.06356719, -0.135428],
    [0.1229059, 0.07390149, 0.1137516, -0.08340026, -0.0441453, -0.004341304, 0.03563154, 0.06309003, 0.01655084, -0.09664211, 0.005695209, -0.1282398, -0.1051543, -0.07427363, 0.09827594, -0.08054359, 0.07451811, 0.02559598, 0.06833255, 0.007762924, -0.07635197, -0.09929186, 0.03420186, -0.04500188, -0.1044676, -0.04572216, -0.1386096, 0.04908013, 0.08242174, -0.01654653, -0.1294409, -0.1148435, -0.05416159, -0.004851669, -0.06091069, 0.01639092, -0.0841244, 0.07770958, 0.1045984, 7.259846E-05, 0.03376693, -0.06030829, -0.08756718, 0.008854955, -0.04932163, 0.05072476, -0.1322802, 0.1282815, -0.08713128, -0.1394713, 0.05113319, -0.02342186, -0.05354356, -0.01439978, -0.01912093, 0.1178364, -0.02347835, 0.09492283, -0.04693979, 0.0608599, 0.02806562, 0.1376693, -0.03515211, -0.1330885, -0.07721981, -0.09564371, 0.123311, -0.1191576, -0.03827604, -0.003061712, -0.03418086, 0.008004203, 0.1062085, 0.06318434, 0.04469655, 0.01221916, 0.1318667, -0.126282, 0.08715861, 0.03188626, -0.1155305, -0.03502615, 0.02730967, -0.04403223, -0.03194763, -0.02331866, 0.03121782, -0.1146954, -0.04312903, 0.1232602, 0.1298731, 0.1230298, -0.01995149, -0.0417012, -0.0448269, -0.08224234, 0.08909914, -0.1158033, 0.0940921, 0.1169361, 0.0142536, -0.08242609],
    [0.09778465, -0.06639589, 0.06915003, 0.0689801, -0.07287163, 0.07705753, 0.05554489, -0.1143458, -0.1319665, -0.03350595, -0.1382743, -0.002775073, 0.02969943, -0.137934, -0.08029948, -0.04176984, -0.02220434, -0.02265196, 0.03037938, 0.03028217, 0.04524342, -0.1285044, 0.03879646, 0.001756176, -0.02412876, -0.08502357, -0.02711033, 0.04861688, -0.1250026, 0.01540866, -0.08644347, 0.06507713, 0.06661431, 0.1132473, 0.1118563, 0.0521475, 0.123092, -0.03540811, 0.07394382, 0.1143697, 0.100247, -0.02464176, 0.01453453, -0.0981997, 0.009621054, -0.09994632, -0.04815331, -0.03391232, -0.05214329, 0.1069344, 0.1224344, -0.01773104, -0.1135146, 0.01053578, -0.05606739, 0.1141127, 0.06341677, 0.01989174, 0.1039272, -0.1261962, -0.1178583, -0.02809123, 0.0653829, -0.06124778, -0.07339276, 0.0530674, 0.0698646, -0.07364953, -0.06710644, 0.1258201, -0.0395155, -0.07761359, 0.1286964, -0.05488499, 0.1345378, -0.02811076, 0.08899564, 0.08591605, -0.0539948, 0.07938369, 0.0009874552, -0.03601722, 0.0859324, 0.07725861, -0.08810677, -0.1111298, -0.0733486, 0.00561896, 0.0002443939, -0.1258242, 0.1026292, -0.01275539, 0.05753358, -0.05634192, 0.07064739, 0.04567958, 0.01519303, 0.1370377, 0.1205715, 0.08825292, 0.08903086, 0.09744165],
    [0.06645493, -0.04256728, -0.0474006, -0.06548144, -0.05693978, 0.0248798, -0.1245161, -0.1016333, 0.01322103, -0.05807338, 0.1018933, 0.1178984, -0.1114972, -0.06443711, 0.05724771, -0.1082138, 0.02594231, 0.02111307, 0.01459353, -0.1115555, -0.01034676, -0.03253487, -0.05860377, 0.1188033, -0.01962662, 0.1379252, -0.0004629642, -0.03871539, 0.135477, -0.05606225, 0.08750962, -0.1264365, 0.06442514, -0.02346867, 0.06070455, -0.03601512, -0.1352154, 0.09438032, -0.03660144, 0.06101103, 0.01538515, -0.08514442, 0.1188651, 0.1328901, 0.06680715, -0.07787944, -0.0976634, 0.1322224, -0.06053698, -0.05968338, 0.1028858, 0.04677324, 0.08281155, -0.1039832, -0.01550017, 0.1376327, 0.1083668, -0.0288674, 0.1126762, -0.007467702, -0.06878701, -0.02523205, 0.0198471, 0.01076753, -0.03894715, 0.07439493, 0.08627644, 0.03453088, -0.06014727, -0.02551008, -0.05813852, 0.06978431, -0.08769606, -0.09246287, 0.06539805, -0.1071714, 0.05764997, -0.06467101, -0.06226327, 0.1367488, -0.0351678, -0.1324743, -0.007575199, -0.09858967, 0.02670073, -0.0459625, -0.09444843, 0.09765201, -0.1399052, -0.09185122, 0.05602757, 0.08225331, -0.03946799, 0.05729328, -0.09157425, 0.009617552, 0.04886907, -0.1234946, 0.08242061, -0.03330484, 0.09739167, 0.009001762],
    [0.1041473, 0.08213777, 0.05116261, -0.05828771, -0.08913372, 0.08475912, -0.03419693, -0.04484189, 0.1190934, 0.08807832, -0.08733052, -0.1058468, -0.1189053, -0.1172733, 0.1025276, 0.006949097, -0.07574409, -0.03081233, 0.06725321, -0.06980257, 0.1280652, -0.05384363, -0.006223962, 0.06058436, 0.1384074, -0.03267403, -0.1178333, 0.06062492, -0.1334187, -0.01220524, 0.1252885, 0.08090609, 0.03890136, 0.09780562, -0.06745622, -0.0152228, 0.03487418, -0.09486942, -0.1274094, 0.1015662, -0.1149543, 0.06033861, 0.01413263, -0.09608771, 0.04015998, -0.05053705, -0.05068582, -0.1092242, 0.00260748, 0.139785, -0.02001319, 0.1363282, 0.07785738, -0.1333446, 0.08624813, 0.005351678, -0.09390131, 0.08542863, 0.08430424, -0.1327564, -0.04711382, -0.1138332, -0.126057, -0.06949982, 0.06951289, 0.09417637, 0.0166112, -0.01606679, 0.07655628, -0.06839533, 0.108503, 0.07880488, 0.1340021, 0.01179591, 0.06984144, -0.1088537, 0.02729161, 0.03837514, -0.04133049, -0.004972324, -0.132826, -0.04162882, 0.04886667, 0.09223552, -0.06156131, -0.1173015, 0.06883657, 0.0882189, 0.1014087, -0.03311918, -0.09625357, -0.1352429, -0.02212341, 0.02176926, -0.09457423, 0.1072968, 0.09246227, 0.01227202, -0.02783269, 0.1188381, -0.1377165, -0.09944591],
    [0.1163148, -0.05294323, 0.01533391, -0.03398516, 0.06038739, 0.1168019, 0.04493538, -0.09843136, 0.008857802, 0.1213659, 0.008091643, -0.09943496, -0.09084615, 0.03321453, 0.1318645, -0.01758715, 0.008897766, 0.104234, 0.06706134, 0.06099657, -0.01310059, -0.04242563, 0.00848636, -0.02834876, -0.07239588, -0.03211813, 0.0522958, -0.02212955, -0.1189481, 0.07275944, 0.0684246, -0.01560283, 0.104577, 0.01023932, 0.01474065, -0.08041148, 0.1215712, -0.01666194, -0.07498735, -0.1359029, -0.1068158, 0.05757105, 0.003205165, -0.07483745, -0.05667137, 0.10024, -0.115962, 0.1256566, -0.0003696978, -0.03359926, -0.1269517, 0.07367006, -0.1201494, 0.1129065, -0.0642167, 0.04705397, -0.1136293, 0.1010687, -0.01946861, 0.04969642, 0.05134712, 0.09591468, 0.03981344, 0.05802495, 0.06130916, 0.04935002, 0.04367208, 0.02239153, -0.1100461, -0.0804882, -0.01658188, 0.05062981, -0.1128516, 0.05218707, -0.1249321, 0.1258282, -0.03416885, -0.1321238, -0.008455545, -0.09175557, -0.0572972, 0.1260227, -0.07162939, 0.03798373, 0.06942986, 0.07747735, -0.07470904, 0.1092851, -0.1052331, -0.03309341, 0.1019791, -0.06813937, -0.02970016, -0.02339676, -0.08765623, -0.07992049, -0.1188855, 0.1258186, -0.07068418, 0.06599866, 0.04608968, 0.0613139],
    [-0.1169286, 0.03795786, 0.001788527, 0.06669177, -0.06769691, -0.02779854, -0.004379302, 0.1285359, -0.08637206, 0.03669592, -0.1394816, 0.08948334, -0.1335045, 0.06599145, -0.08835287, 0.05177348, -0.1274448, 0.06528525, -0.1068001, -0.0174698, -0.122135, 0.06068249, -0.03095244, -0.08213808, 0.009012476, 0.07826912, 0.04433505, 0.07312264, -0.07821006, -0.002549052, 0.1195987, 0.07040752, 0.1277085, -0.07565294, -0.09157893, -0.05184352, 0.04792804, -0.08792624, 0.1117584, -0.06495379, 0.06734632, 0.1060532, 0.09588836, -0.1385375, 0.05886399, -0.0807458, -0.1142783, -0.1166924, 0.1075679, 0.02296014, 0.07717358, 0.01645018, 0.006553978, 0.1236462, 0.1239114, -0.1120212, -0.005885646, -0.1196788, 0.1250495, -0.004300177, 0.06199373, 0.07519928, 0.09025808, 0.02928642, 0.04921417, -0.1178423, -0.007974222, 0.006894276, 0.1128058, 0.05696523, 0.08313625, -0.07991071, -0.1246676, 0.1329205, -0.06937644, 0.04527478, -0.001166135, -0.02661693, -0.09818144, -0.1392078, 0.04563554, -0.1149132, -0.1214823, -0.03047797, -0.1118343, 0.05635422, -0.07349339, -0.02404103, 0.1225827, 0.05329696, 0.01938635, 0.07310829, -0.09556016, 0.07331054, 0.02531377, -0.0272429, 0.09430981, -0.0005128831, -0.09923644, -0.06127526, 0.07665424, -0.06230396],
    [0.1138396, -0.04269161, 0.1253013, 0.1382844, 0.1387843, -0.02589885, -0.02828452, -0.04222759, -0.08959834, -0.1349076, -0.04830521, -0.09889187, -0.128023, -0.07442561, -0.05462204, 0.1238133, 0.0813491, -0.006519422, 0.07532927, 0.02614142, -0.04423344, -0.09992205, 0.1192139, 0.09228092, -0.02050522, 0.04603105, 0.06002934, 0.08505995, -0.01041085, -0.1273125, 0.08842595, -0.08770089, 0.05700456, 0.09213535, -0.006350502, 0.1178809, -0.008120254, -0.1341268, -0.07882312, 0.008789226, -0.05102127, 0.08716042, 0.003675565, -0.1360339, -0.1273883, -0.04389742, -0.05683091, -0.05818775, 0.1100221, 0.02589171, 0.07361414, 0.012154, -0.07268095, -0.002553195, 0.0589351, 0.06658374, 0.1140825, -0.04402545, 0.02314573, -0.02894582, 0.1002555, 0.1396258, 0.08511644, -0.07282475, 0.1090029, -0.01756068, 0.09776542, 0.1032512, 0.06820292, 0.0784492, 0.0908272, -0.05351529, 0.1054734, -0.1172395, 0.1245833, 0.0535358, -0.1074196, 0.02358431, -0.002658218, -0.1335905, 0.05463681, 0.1306085, 0.1298848, -0.02641715, 0.0366578, -0.1041299, 0.02150424, 0.06906236, -0.03565717, 0.07923862, -0.09886907, -0.05200049, 0.03681011, -0.1320249, 0.02292015, -0.03971355, 0.1204784, -0.008345008, 0.05344185, 0.1066014, -0.1225861, -0.1025224],
    [-0.01266308, -0.1028798, 0.1097022, -0.1346263, -0.1279015, -0.1269562, -0.07883266, 0.09053715, -0.01143742, -0.02796687, -0.03636704, -0.03808718, 0.01285222, -0.008339986, 0.01334247, 0.09359263, 0.0220082, 0.04571573, 0.1278589, 0.06875238, -0.119789, 0.02299643, 0.04528579, 0.06219771, -0.02593103, -0.05923485, -0.003667384, -0.06878692, -0.0321016, -0.0004096478, 0.06030927, -0.09338297, -0.0411215, -0.02781897, -0.0568867, -0.08969203, 0.07369607, -0.0178346, -0.009257793, 0.02594896, 0.1344407, -0.0004320294, -0.04532714, 0.07859172, 0.1288809, 0.110435, 0.09549853, -0.1324145, -0.04359846, 0.08307245, 0.1029399, 0.08240512, -0.09824774, -0.01198506, 0.0580168, -0.1036737, 0.06841619, 0.104298, 0.05975274, 0.05912687, -0.01768407, -0.01565181, 0.01782371, -0.1105458, -0.0008944124, 0.04243489, 0.1195054, 0.1153736, 0.1201033, 0.1316101, 0.08712406, -0.1329484, -0.1071843, -0.02821038, 0.07882758, 0.0516299, -0.06226877, -0.006372899, -0.09832466, -0.004084438, -0.006559521, 0.008116648, 0.06734595, 0.04949828, -0.06619845, -0.1271368, -0.0201432, -0.04576829, -0.01329096, -0.02171214, -0.009587198, -0.1105407, -0.001482919, -0.03845425, 0.03890737, -0.02625126, 0.06248876, 0.07331137, 0.02671522, 0.03981558, 0.05914469, -0.1321077],
    [-0.1282715, 0.1381891, -0.0164836, 0.07166684, 0.08181039, 0.03228842, -0.01522431, 0.02776292, 0.01746403, -0.1266152, -0.06620413, -0.09106402, 0.08651482, -0.120621, 0.04287915, -0.07178043, -0.07565288, 0.02103068, -0.02255825, 0.1061707, 0.1363949, -0.03746037, 0.08177827, -0.06512438, 0.09761612, -0.00920561, -0.1278138, -0.05557099, -0.02356945, -0.108917, 0.06672151, -0.02673548, 0.06566447, -0.09547636, 0.01328306, 0.05394049, 0.09154817, -0.01036988, -0.05920738, 0.08782181, 0.1038781, -0.05394689, 0.04244107, -0.006588697, 0.1106861, -0.002977386, 0.08125894, 0.105346, 0.1162364, -0.06518829, 0.04551899, 0.1127502, -0.1162985, 0.03477977, -0.1068912, -0.08671837, -0.02836105, 0.0661972, -0.1122505, -0.1016255, -0.001020372, 0.0542662, -0.09397088, -0.0009601414, -0.02608818, 0.1380846, 0.0219885, 0.02208067, -0.1130715, 0.0562607, 0.04536816, 0.003794223, 0.07459396, 0.04166509, 0.1103507, -0.03310366, -0.09829357, -0.03360841, -0.1178826, -0.02933252, -0.05768554, -0.06882247, -0.08227456, 0.08639412, -0.1277403, -0.04455681, 0.03886197, -0.1360553, 0.1267218, 0.1105845, -0.0877658, 0.1033314, 0.07049866, -0.1308455, 0.005040586, -0.1383943, -0.1126778, 0.0425468, 0.005860567, 0.1013508, 0.1392577, -0.0895891],
    [-0.06752712, 0.1061514, -0.08639523, -0.0239857, 0.134045, 0.1205127, 0.04389022, -0.02063927, 0.112866, -0.1103223, -0.02140529, -0.09655954, 0.06052778, -0.1346423, -0.1060274, 0.05464055, -0.03472842, 0.08691524, -0.03187231, -0.0604482, -0.03150113, 0.07812863, 0.07047983, 0.0455275, 0.03961527, -0.09410313, -0.09164554, -0.04060824, 0.1027907, 0.0709976, -0.03818463, 0.1167711, 0.07957885, -0.0022192, -0.09596585, 0.06877324, -0.05868159, 0.09018686, 0.00571163, 0.05757632, -0.09597804, 0.02561016, 0.07298817, 0.006823674, 0.02992822, -0.06944545, 0.003861323, 0.00275594, -0.04097314, -0.01084486, -0.09337115, -0.1346105, 0.09248307, 0.1126422, -0.1237732, 0.03472154, -0.04238657, -0.07152265, -0.02649458, -0.1120655, -0.09354602, 0.006036982, 0.1323425, -0.06663895, 0.03667072, -0.0764751, 0.135635, 0.1075656, 0.04787676, -0.01159245, 0.01679652, -0.1215262, 0.08612324, -0.0760553, 0.09533146, -0.09677635, -0.118287, 0.0913095, 0.09394177, -0.02997175, 0.07370692, 0.08600078, -0.06473915, -0.1393227, -0.06302851, 0.1218943, -0.06934722, 0.07156131, 0.008774936, 0.1049491, 0.04125422, -0.05912859, 0.07674668, -0.08836652, -0.03079824, 0.115475, -0.1132317, 0.1238163, -0.008273587, 0.07508623, 0.01201744, 0.1193523],
    [-0.02486554, 0.133057, -0.1393617, -0.02408245, 0.07158138, -0.1207123, 0.06203145, -0.06315562, -0.09447901, -0.1279967, -0.03336166, 0.08631991, 0.02838328, -0.02478341, -0.1141511, -0.06205394, -0.1014645, -0.001310319, -0.06492126, -0.1340764, -0.06554967, -0.09385554, 0.1212248, 0.1201246, 0.1099888, 0.01161543, -0.03479556, -0.106738, 0.1195496, -0.06265548, -0.04955809, 0.08873723, -0.08295932, -0.1346992, -0.09766085, -0.1270906, -0.03197991, 0.04592348, 0.03329492, 0.06027388, -0.1297356, 0.1098964, 0.1205015, 0.007626981, 0.1017137, -0.01651061, 0.1330387, 0.05944332, -0.01318157, -0.1313289, -0.06663233, -0.02449383, -0.05731476, 0.1361613, -0.05212919, 0.1311698, 0.02601049, 0.05882526, -0.001330659, 0.1240596, 0.1126637, 0.06574403, -0.05458181, -0.01478162, 0.01204769, -0.1132569, -0.07266526, -0.1226244, -0.12466, -0.0860917, 0.1202325, 0.1218533, -0.0480811, 0.0781922, -0.0695888, 0.05660694, 0.005079255, 0.1049624, 0.06995258, -0.05153694, 0.1127196, -0.08207327, 0.04139651, 0.02817529, 0.1149608, 0.09533814, -0.07503548, 0.08130243, 0.04817462, -0.03592715, 0.03985638, 0.01591244, -0.1304732, 0.1398015, 0.03189778, 0.07449384, 0.08073816, 0.119641, -0.1116156, -0.0095696, -0.1242886, -0.0001601726],
    [-0.03991586, 0.08574729, -0.09363389, 0.01112132, -0.1116771, -0.06939849, -0.02825378, 0.1332376, 0.06796328, -0.1015538, -0.1327645, -0.07970829, -0.1003275, -0.06456725, -0.05728348, -0.03473714, -0.09667715, 0.02966972, 0.01128037, -0.1271678, -0.07427911, 0.003814459, -0.03374866, -0.03326384, -0.07864083, 0.09053887, -0.1278429, -0.04040979, -0.03169377, 0.02970601, 0.1374096, 0.03734748, 0.04678362, 0.05172355, -0.02389489, 0.05254753, -0.009233922, -0.1106654, -0.1355578, -0.01362078, 0.05282856, -0.05989331, -0.02807117, 0.09309997, -0.06912071, 0.1205682, -0.07999891, -0.1301042, -0.1045584, -0.1251984, -0.01336093, 0.03098823, -0.1397519, 0.06669701, -0.1332898, 0.0140395, -0.07364105, 0.04931159, -0.09291621, -0.1138346, -0.001114979, -0.005968273, -0.1224947, 0.05596117, -0.05918257, -0.09998447, 0.1031968, 0.0471756, 0.03602923, -0.1385164, -0.09108853, -0.01059224, 0.01184438, 0.1394747, -0.003471255, -0.1157198, -0.04433637, 0.1039422, 0.1187624, -0.09233955, 0.1289195, 0.0626627, 0.1155793, 0.02338574, 0.1284272, 0.08317308, 0.1166245, 0.01361914, 0.1255245, 0.09153806, 0.134277, -0.07991171, 0.06508644, -0.03552339, -0.04734722, -0.06306688, -0.04995428, -0.1096628, 0.1355705, -0.09235637, -0.02379043, 0.06970122],
    [0.02398524, -0.05631675, 0.1093651, -0.06208712, 0.1360513, -0.01000355, -0.1337522, -0.02215098, -0.08654684, -0.0227393, 0.05328404, -0.05303915, -0.03026748, 0.01923434, -0.06219192, 0.01261875, 0.06544306, 0.1314226, 0.01512395, 0.005285114, -0.1151197, -0.1041193, -0.06528206, 0.02918096, -0.002263039, -0.0035851, -0.0540185, -0.04508263, -0.04984307, -0.03607364, -0.08982721, 0.08264115, 0.09586416, 0.04373535, 0.09754512, 0.09630054, 0.05770805, 0.1175648, 0.1255128, -0.121602, -0.01357107, -0.09662428, -0.0512951, 0.05632594, 0.004066914, 0.1095114, 0.02926943, -0.03916012, 0.1280112, -0.05856167, -0.02087286, 0.002296358, 0.04079127, 0.1164889, 0.1092256, 0.1295244, 0.05721849, 0.1179352, 0.04720682, 0.00194411, -0.1237589, -0.04390496, -0.1198914, 0.0773158, -0.002614781, 0.003870174, -0.03174424, 0.06069597, 0.08052482, -0.04963368, -0.1391261, -0.0414418, -0.02018185, 0.02720946, 0.08954032, -0.05697504, 0.1068146, -0.09574792, -0.1397146, 0.07406828, -0.1211312, -0.1017537, 0.08778626, 0.07354644, -0.08838205, -0.0133381, 0.1070277, 0.05147032, 0.0974521, -0.04582011, 0.06039768, 0.1382842, -0.06197398, 0.08103822, -0.06752251, 0.09698994, -0.1391427, -0.03753572, 0.1399118, -0.08011843, 0.01434891, -0.01373328],
    [-0.06880261, 0.0289751, -0.1199733, 0.08189693, -0.1217698, -0.1342811, -0.008034915, -0.02014931, -0.05220485, -0.07805632, -0.07160789, -0.09933293, 0.1028562, -0.02124374, 0.0726857, 0.06399113, 0.07647155, 0.04520337, 0.133279, 0.04408299, -0.07385622, 0.04863925, 0.07867441, 0.02251953, -0.102675, -0.004490331, 0.07691628, 0.1199536, -0.103435, -0.08706808, -0.1233582, -0.1055643, 0.0780453, -0.1180479, -0.09131789, 0.05237689, 0.1224872, -0.05810399, -0.05884041, -0.008179381, 0.009971902, -0.04046544, -0.0753919, 0.1382967, -0.1036637, 0.07566256, -0.02670517, -0.06707598, -0.06630078, 0.016913, -0.07482205, 0.07772601, 0.03755129, 0.04010236, 0.05047727, 0.08511584, -0.1065555, -0.1365893, 0.07556127, 0.1231134, 0.08709889, -0.1124478, 0.07619292, 0.08078276, -0.04031662, -0.1094783, -0.01097296, -0.0442948, -0.06109612, 0.05706709, -0.01226416, -0.1342422, 0.09847796, 0.1363708, -0.02400627, -0.09016803, 0.008294061, 0.02819104, -0.1000842, -0.1371302, 0.05362911, 0.08387213, -0.002005771, -0.02918309, 0.1026325, -0.05436938, -0.01175834, -0.03035836, -0.08549263, 0.002872691, 0.04576854, -0.1313078, -0.03150581, -0.012246, 0.1371533, 0.1154575, -0.005722761, -0.07293215, 0.03963931, 0.1226573, 0.05473566, -0.06465912],
    [-0.07904936, -0.06339777, 0.07819366, -0.1310516, 0.1009884, -0.137387, 0.02172105, -0.03391546, 0.08467805, -0.02711157, 0.08867143, -0.001009792, -0.0996415, 0.1398747, -0.1090141, 0.1313208, 0.1327829, -0.05524598, -0.02461555, -0.1185201, -0.06300084, -0.04561362, 0.05802522, 0.03334193, 0.1115853, 0.01199451, -0.04621089, -0.1278075, -0.059073, 0.1076324, 0.1264165, -0.1169766, -0.06646894, -0.01716095, 0.113048, 0.1312606, -0.0328712, 0.1347306, -0.01840298, 0.04531173, -0.1266844, -0.04917069, 0.09429164, -0.06675506, 0.08429693, 0.133739, -0.1371429, 0.1266589, -0.06596619, -0.1319632, 0.07187784, -0.07717912, -0.03621964, 0.004853204, -0.09562697, 0.05368536, -0.01151079, 0.07579513, 0.06691014, 0.01584838, 0.03973439, -0.03146888, 0.1297383, -0.01008013, -0.01036347, 0.002788752, -0.08249757, -0.03232181, -0.0009759367, -0.09023571, -0.0948332, 0.05599883, 0.1370533, -0.136043, 0.07462241, -0.119921, 0.04477597, 0.08331523, 0.04705868, 0.1304675, 0.07788989, 0.07381448, 0.1184747, -0.1267494, -0.076371, 0.1275278, -0.03489484, -0.02000665, -0.1148418, -0.1339125, -0.004444197, -0.1068018, 0.00937286, -0.0005607158, 0.125164, 0.1276634, -0.125953, 0.02896906, -0.08095744, 0.01906739, 0.01412337, 0.009331197],
    [-0.01779741, -0.03971538, -0.06496911, -0.05316234, -0.04640041, -0.04331611, -0.1081942, -0.02001249, 0.1140657, -0.03962788, 0.02366918, 0.07790235, 0.07318901, -0.08951609, -0.06393179, 0.07916741, -0.07139312, 0.02351477, 0.1331301, -0.1322416, 0.0682768, -0.1270196, 0.03225364, 0.04317735, -0.07852976, -0.1388938, -0.1320209, -0.06506909, -0.1238089, -0.04713602, 0.06151431, 0.1286329, 0.09763752, 0.06326347, 0.04858769, 0.07646494, 0.1282657, -0.005882934, 0.07557139, -0.1174067, -0.05532203, -0.01445344, -0.1167641, 0.09790537, 0.08042604, 0.02693132, 0.1398856, -0.0454494, 0.02429852, -0.08170614, 0.03150434, -0.1393472, -0.03465974, 0.0669485, -0.0749179, -0.0849414, -0.02192857, 0.01523542, -0.1150229, 0.08512081, -0.06557465, -0.1062416, -0.0805852, 0.000218451, 0.06974702, 0.09613602, 0.02380636, 0.1314902, 0.08467088, 0.0687886, -0.05709001, -0.05255399, 0.1199348, -0.1005182, -0.05496621, -0.06842262, -0.1072948, -0.04209992, -0.003587767, -0.01192924, 0.007496983, 0.1065081, -0.1290072, -0.05260951, 0.07717942, -0.1322666, -0.02252303, -0.05452326, -0.04696743, 0.09845185, -0.1020964, 0.1307205, 0.02377668, -0.0956296, 0.13274, -0.1362693, -0.1364102, 0.05883484, 0.09382331, 0.05740672, 0.02588446, 0.08693563],
    [0.1318422, -0.01790858, -0.1146736, 0.09375969, 0.1373741, -0.07355952, 0.007874131, 0.0221422, -0.08935086, -0.004156277, -0.1311996, 0.1186727, 0.08258039, -0.03764632, -0.02009856, -0.03854075, 0.1014688, -0.04015453, -0.02039168, 0.07579617, -0.02045738, -0.0576122, -0.1241524, 0.09604594, 0.06520586, -0.0862326, 0.05448204, -0.08480789, -0.05027929, -0.08852351, -0.05605851, -0.1356647, 0.03804038, -0.05805087, 0.08610818, -0.08204243, -0.1358746, 0.04677464, 0.04765471, -0.1001216, 0.07796107, -0.1237027, 0.07220772, 0.1112957, -0.05398018, -0.01704213, 0.02561931, -0.04760109, 0.06064215, 0.0893784, -0.06861731, -0.01605153, 0.07858782, 0.004969209, -0.1027, -0.1053061, -0.004535168, 0.0475387, 0.02470979, 0.06531686, 0.1379145, 0.03072762, 0.1020357, -0.1167733, -0.01503325, -0.08118576, 0.0736497, -0.05510613, 0.01864256, -0.1354194, -0.1307931, 0.1339571, 0.1047489, 0.08389814, 0.08986142, -0.1324381, 0.03889121, 0.03647405, -0.004084274, 0.07562296, -0.02093539, -0.05711822, 0.1216298, -0.1009918, 0.008520439, 0.0479446, 0.075927, -0.1253192, -0.04752173, 0.06155521, -0.1112464, -0.1392763, 0.1306616, -0.1236997, -0.06628422, -0.06588657, -0.08976747, 0.1287014, -0.1361331, 0.1126025, 0.03528843, 0.1200548],
    [-0.06475116, 0.03566783, 0.04556776, 0.1210974, -0.1159265, 0.1257472, -0.1058353, -0.002712533, -0.08327651, 0.138156, -0.04532307, 0.05864144, -0.04277438, 0.130566, 0.08131833, 0.1062175, -0.009526238, 0.08801682, -0.1018915, 0.1382934, -0.1202058, -0.1229604, 0.03855342, -0.133125, -0.06536388, 0.0624503, 0.1032439, 0.04424047, -0.05022724, -0.09060527, 0.02253304, -0.02945217, -0.08249089, -0.05513935, 0.01203063, 0.05705875, 0.06475245, -0.07154281, 0.1206676, 0.01114102, 0.04368904, -0.007220283, 0.1172787, 0.06783435, 0.06929782, 0.1175492, -0.07823801, -0.1086599, -0.09983447, 0.04535681, 0.05904103, 0.001736686, 0.00809662, 0.1001326, 0.1154937, -0.01288663, 0.0189044, 0.1050433, 0.03545142, -0.0242576, 0.07507148, -0.01788027, 0.04891932, -0.08722135, -0.1299982, -0.03034356, -0.1267057, 0.1118109, 0.01199244, 0.03345414, 0.05194372, -0.1071813, 0.01442149, 0.09231941, -0.1088392, 0.1303241, 0.1333457, -0.02098991, 0.07384169, -0.137901, -0.02956755, 0.0743395, -0.02052375, -0.04309681, 0.09276745, 0.1169286, 0.09254603, 0.1275564, 0.04234091, -0.1221033, -0.1333986, 0.02575332, -0.05726098, -0.02049264, 0.008588612, 0.1311256, -0.01008658, 0.0381568, 0.05774675, 0.08193145, -0.02137434, -0.1141212],
    [0.09538165, 0.02662631, -0.07141833, -0.08789039, -0.08126652, 0.01475321, 0.09113674, 0.03326024, 0.0394421, -0.1017085, -0.06505615, -0.0180289, -0.06598839, -0.01762497, 0.03818865, 0.132735, -0.05174056, 0.1200424, -0.02856613, 0.02645195, -0.1190807, -0.00446406, -0.009099141, 0.05071701, 0.0003728569, 0.04525298, 0.05408592, -0.112533, 0.03986729, -0.09733565, -0.1235302, 0.06678037, -0.06492861, -0.04151638, 0.04332761, -0.07307023, -0.08795142, 0.0102284, 0.09222837, 0.07469308, -0.06834699, 0.09177019, -0.0250528, 0.01448022, 0.06581664, -0.01492928, -0.1062707, 0.01598799, -0.05656627, 0.0478422, 0.006359473, -0.009956181, 0.1017141, -0.03207827, -0.08746961, -0.08784738, 0.02983728, -0.1212639, -0.07773268, -0.029919, -0.08254801, -0.08022182, 0.04036891, 0.0953116, 0.1187507, 0.1087569, 0.04260051, 0.1135717, 0.00101456, 0.07323882, 0.1167574, 0.1090658, 0.0577801, 0.06922177, 0.01796784, 0.08937243, 0.1020282, -0.02684499, 0.0838306, 0.116869, -0.1112556, -0.1365571, -0.1140546, 0.1020484, 0.03403103, 0.09578934, -0.01889765, -0.002691031, 0.01774179, 0.1340208, -0.1262721, -0.03492139, 0.08542973, -0.08393176, -0.04789197, -0.06928405, -0.1218232, 0.07124899, -0.06901684, -0.08113791, 0.07396962, 0.02255668],
    [-0.1184443, 0.07867415, 0.09896658, 0.04296752, 0.08499929, -0.1173716, 0.1083972, -0.1178549, 0.08994195, -0.01147731, -0.1195232, 0.08206873, 0.1136084, 0.1133868, -0.01840465, 0.08614187, 0.01209404, -0.06106353, -0.02306514, -0.08662473, 0.1193197, 0.1116648, 0.1015433, 0.1005133, 0.1037737, 0.0645463, -0.08437105, 0.04917982, 0.0174698, -0.1186372, 0.01335409, 0.02435952, 0.08668625, -0.03335351, 0.08038627, -0.07160148, 0.005862072, 0.07959872, -0.09734935, -0.0002013296, -0.02657173, 0.04918179, -0.133582, 0.05005708, 0.05693609, -0.08912605, -0.05710867, 0.06501937, -0.1065856, -0.1274408, -0.01670327, -0.1282751, -0.06829639, -0.08394885, -0.04105436, -0.1298565, 0.1219981, -0.1234207, 0.09101081, 0.08084476, -0.02185262, 0.05486066, 0.1146316, 0.0555491, -0.1306646, -0.1010058, 0.120432, -0.01621458, -0.1019789, 0.01963907, -0.1247114, -0.07356334, 0.05586001, -0.008654714, 0.01663584, 0.1342309, 0.02834131, -0.02994755, -0.07106759, 0.0743182, -0.0847455, -0.04150887, -0.01326479, 0.1206659, -0.1073395, -0.1333041, 0.04753476, 0.07661885, -0.1013877, -0.1218048, -0.01512118, -0.09139054, 0.02011982, -0.05579657, 0.02650553, 0.1265188, -0.04407954, 0.01514468, 0.07447949, 0.05339114, 0.0753044, 0.05394363],
    [0.03563771, -0.1321304, -0.08586013, -0.09097727, -0.07451655, 0.01430087, -0.1002396, -0.1388346, -0.1388167, 0.130536, -0.1327783, -0.1246823, -0.05430802, 0.1142097, 0.0008292347, -0.09349945, 0.06426653, 0.01849903, 0.101587, 0.04082733, -0.01681842, 0.01860974, -0.09977935, -0.06382917, -0.03963489, 0.0116819, 0.009778693, 0.1001712, -0.1113995, 0.02090454, 0.02560085, -0.002861902, -0.07558568, -0.04533562, 0.1342703, -0.01556617, 0.09202586, -0.02480855, 0.008554459, 0.02024598, -0.1241851, -0.07491741, -0.001344442, -0.05698508, -0.0196767, 0.1135844, -0.06634618, 0.06848136, 0.1097668, -0.02337896, 0.09630485, 0.01902202, -0.1356349, -0.1023616, -0.0575131, -0.06525335, 0.01116785, -0.06163158, -0.06965132, -0.123687, -0.01980296, 0.09381343, 0.02695343, 0.1200996, 0.1229777, -0.1364955, -0.02173553, 0.006798729, 0.09587117, -0.06304641, 0.1273377, -0.1349516, -0.008433267, 0.06172494, -0.06071806, -0.1011833, -0.09845923, 0.03654335, 0.1348983, -0.1233173, -0.12984, -0.08689761, -0.09330174, 0.1192444, -0.01739041, 0.06093093, -0.1085635, -0.1320727, 0.04852113, 0.07375369, 0.1111863, 0.07647249, 0.1054036, -0.1200238, 0.03489912, -0.1180968, -0.07518496, 0.0293804, 0.09705254, -0.0209216, 0.07018183, 0.08661627],
    [-0.1108327, 0.03741528, -0.0482961, 0.07947259, -0.0114276, -0.002432063, -0.05675599, 0.1337979, -0.005178571, 0.1028598, 0.0587441, -0.1281384, 0.1297669, -0.007252395, 0.05692951, -0.01808693, -0.129607, 0.136357, 0.111474, -0.0814742, -0.03836338, -0.1399909, -0.0291861, -0.04451512, -0.04464746, -0.04053685, -0.004092425, -0.09833017, 0.05091993, -0.1366533, 0.1253142, -0.1381962, 0.09144264, -0.05732702, 0.1354613, -0.1100971, -0.05718289, -0.1316195, -0.1382299, -0.1082045, 0.09385754, -0.04301715, 0.104422, 0.09808452, 0.1081949, 0.1315015, -0.13049, 0.05568798, -0.09472089, 0.07175291, 0.01075763, -0.01538709, 0.1185725, 0.01737612, -0.006537125, -0.1204909, 0.01555732, -0.01320884, -0.1012372, 0.08036968, -0.08345425, -0.1109884, -0.08551739, 0.02238695, 0.03675889, -0.1018127, 0.01733826, -0.02334761, 0.1026398, 0.01674567, 0.02777754, -0.1241256, 0.0265092, -0.08970828, -0.07666939, 0.08920613, -0.04412457, 0.04056114, 0.1062567, 0.05054007, 0.02791625, -0.1024868, -0.06807034, -0.05598513, -0.058582, -0.1326845, -0.138228, 0.1307328, 0.007355556, -0.1213313, -0.04880512, -0.04639624, 0.07484192, -0.08857976, -0.03511389, -0.06250307, -0.02926749, 0.07032255, 0.03960883, -0.08723904, -0.09938148, 0.05960087],
    [0.01050469, -0.1208037, 0.01220934, 0.1221538, -0.00130491, -0.05002929, -0.01938455, -0.1119312, 0.001606315, 0.04523785, 0.06341954, 0.1330794, 0.06654601, 0.03630929, -0.0008338541, -0.09859057, 0.1132502, 0.02230716, -0.1288225, -0.01256941, -0.09137522, 0.07267962, 0.0253973, 0.1246976, -0.06415157, 0.0006597042, 0.09134059, 0.01157773, 0.04669088, -0.1165263, -0.07308005, 0.0196531, -0.003746882, 0.01774092, -0.05073325, 0.1350357, 0.07066122, -0.0144532, -0.09641418, 0.01427907, 0.09769324, 0.07863559, -0.03457368, 0.0164658, 0.06468949, -0.1014221, -0.01054479, 0.1366638, -0.1069203, 0.05888782, -0.05315486, 0.002006099, 0.009742677, -0.1204439, -0.1016253, -0.1068639, 0.1357516, 0.07976628, 0.01658763, -0.04254675, -0.1177628, -0.08399446, 0.07188419, 0.01092154, 0.1073379, -0.07585043, 0.1000045, 0.01626733, -0.02114776, -0.1097536, -0.1225581, -0.06490664, 0.03885976, 0.04647778, -0.08937, -0.1195629, -0.04475522, 0.1192554, -0.0894645, 0.08127396, 0.01973847, 0.124724, -0.1346045, 0.1384715, -0.09469715, -0.0611763, 0.08664024, -0.08522224, -0.04256121, -0.1399086, 0.1322115, 0.0949894, 0.1397008, 0.1146225, -0.02299516, -0.1140853, 0.0001933128, 0.1045748, -0.03622659, -0.105018, -0.04357903, 0.09450354],
    [-0.06333186, 0.01929834, -0.07567759, 0.07781251, -0.07743329, 0.03737361, 0.1040386, -0.1063964, -0.1252133, 0.007834435, 0.09274137, -0.02335579, -0.02052489, 0.08694001, 0.004462227, 0.09396404, -0.08555335, -0.09374653, 0.1181191, -0.0004512221, -0.07743329, 0.006370157, 0.04659536, 0.04869844, 0.1396363, -0.07741889, 0.01531415, -0.02982706, 0.05181632, 0.06439386, -0.07743545, -0.035809, 0.06035751, -0.1125458, 0.006318718, -0.07937531, 0.07507227, 0.0004263818, -0.02077481, 0.09429856, -0.05049348, 0.1259387, 0.007378563, -0.1188262, 0.09544675, 0.04878577, -0.1332962, 0.06655926, -0.06578264, -0.03938396, 0.03116581, -0.1181648, -0.136851, 0.05400369, -0.1153208, 0.07596476, 0.1290966, -0.08809558, 0.132693, -0.02498372, 0.08926376, -0.08329968, -0.06882918, 0.1054473, 0.128905, -0.1336732, 0.05706105, 0.03346656, 0.06430416, -0.0986505, 0.10702, -0.01171301, -0.1087656, -0.04162155, 0.07767285, -0.1136262, 0.07970054, 0.06771653, 0.1059149, -0.004803717, -0.1033258, 0.08333723, 0.0578483, -0.05815083, 0.07396906, 0.03845496, -0.1272114, -0.07085419, -0.09551361, -0.0668119, -0.03606099, -0.123744, 0.01790644, -0.09934832, 0.1190559, -0.1212895, -0.05087955, -0.1094285, 0.09184457, -0.0647732, -0.04554946, -0.02771881],
    [-0.07819544, -0.08593261, 0.03940858, 0.07387875, -0.06497592, -0.0979436, 0.132254, -0.06681962, -0.062071, 0.1098042, 0.07014959, 0.08628255, -0.0798219, 0.1037043, 0.08337159, 0.05567984, 0.1219609, 0.1344336, 0.05771921, 0.06294878, 0.109574, -0.03173483, 0.1297546, 0.09262882, -0.1274358, 0.04385437, -0.07675083, 0.1173072, -0.1113125, 0.1049133, 0.05638507, 0.02667119, -0.1396475, -0.0283335, 0.00463222, -0.04762679, -0.03445546, 0.01248905, 0.00524725, 0.1267809, -0.047501, -0.04088026, -0.0077454, -0.001328245, 0.04555755, -0.001606017, -0.0802896, 0.0153306, -0.1176786, -0.1328621, 0.1188792, -0.0841886, 0.1018439, 0.01502964, -0.05126979, 0.1196533, 0.09781203, -0.1005248, -0.003539294, 0.06948087, 0.01362242, 0.02724, 0.1295057, -0.02446251, -0.001495183, 0.04095512, -0.04534985, 0.1195948, 0.124063, 0.1297278, 0.06060473, 0.01983197, 0.1181164, 0.02959947, -0.01318187, 0.1328103, 0.0788575, 0.02107965, 0.1116197, 0.1393005, 0.09707375, -0.06278792, 0.1371865, 0.04862435, 0.1190604, 0.1017423, -0.004474953, 0.04521589, -0.005209252, -0.1136477, 0.08125477, -0.04594944, -0.03535673, 0.02763512, -0.09575489, 0.03926379, -0.02052692, -0.1380947, 0.07944234, -0.120593, -0.04963328, -0.07742411],
    [-0.1015564, 0.03936762, 0.03097612, -0.1136767, 0.1217652, 0.02921691, -0.09170096, -0.007365376, -0.1007982, -0.05555286, -0.05452248, -0.1319268, 0.0745082, -0.03194626, -0.1207897, -0.1348215, -0.09238839, -0.1360228, -0.008350581, -0.09004834, -0.02615698, -0.06478281, 0.04922963, -0.01996021, -0.135759, 0.05820179, 0.02994882, 0.1140266, -0.1347869, 0.1360842, -0.06227932, 0.09859638, 0.02085927, -0.05312595, -0.01042363, -0.1059486, 0.1120983, 0.101592, -0.03590201, 0.06207071, -0.004484966, -0.01694281, -0.05472827, 0.1315877, 0.04727596, 0.06283383, 0.06474353, 0.08295508, 0.02579656, 0.1292989, -0.1270013, -0.1116757, 0.136936, 0.1359044, -0.1175397, -0.1193408, -0.07977569, 0.1018219, 0.01776196, 0.02801948, 0.1272943, 0.1170262, 0.003812715, 0.1315756, -0.06841503, -0.03369214, -0.04641714, -0.1155781, -0.1306927, -0.1128952, 0.101539, 0.01472723, -0.04899268, 0.1021483, -0.05844486, 0.05412902, 0.137908, 0.1295634, -0.0170013, -0.04303895, -0.05771969, -0.07040322, -0.001938134, 0.1249087, 0.07820141, -0.1132138, 0.1077937, 0.1042657, -0.04758896, 0.1239007, -0.007816479, 0.06899462, 0.06828234, -0.01120768, 0.01781197, 0.05665138, 0.1219672, -0.04962206, -0.09687556, -0.01485088, 0.01707308, -0.1224424],
    [-0.0008433312, 0.05965001, -0.09036991, -0.06517987, 0.0512225, 0.1393023, -0.08313879, -0.06725737, -0.1313974, -0.02566469, 0.1070649, 0.1200114, 0.07475232, 0.02352008, -0.1085464, 0.1239619, -0.01619098, -0.1118592, 0.114892, 0.06668519, 0.01973329, 0.1281261, 0.1090654, 0.05185478, 0.02952496, 0.08021558, 0.01521726, -0.1088716, -0.1029918, 0.1236095, 0.04495725, -0.008766457, -0.08092442, 0.02381834, -0.1071334, 0.01649612, -0.08207838, 0.02232596, 0.03571052, 0.03674994, -0.1115728, 0.03355693, -0.05298185, -0.1029031, 0.08044747, 0.04339462, -0.09025297, -0.07656591, -0.04871415, 0.04734897, -0.01770914, 0.04017711, -0.0126248, -0.115091, 0.06684277, 0.08861335, 0.07961278, 0.1033363, -0.1169555, -0.1120837, -0.08621104, -0.004546121, -0.126032, -0.08956777, -0.02795321, -0.06317091, 0.1160865, -0.05805025, 1.217425E-05, -0.01864533, -0.04427401, 0.08782312, 0.02651614, -0.04121171, 0.08633607, -0.04760786, 0.08691847, 0.07837895, 0.1343309, -0.007466033, -0.1151558, -0.01743408, -0.119437, 0.08866403, 0.06510076, -0.02226249, -0.116219, 0.03173403, 0.07761904, 0.08736126, 0.0310957, -0.08065593, -0.0286504, -0.03472007, -0.0530952, 0.1273884, 0.09686749, 0.04434286, 0.1328561, -0.06572899, -0.06105211, 0.035156],
    [0.1327181, 0.07910094, 0.1376746, 0.1340995, 0.1048501, 0.03114565, -0.12835, -0.0009843409, -0.07901768, 0.1004557, -0.1202505, 0.004020244, 0.05053386, -0.130366, 0.05298641, 0.1227051, -0.08906262, 0.03817093, 0.01170853, -0.01870776, 0.06301905, -0.07233249, 0.01323107, -0.1211796, -0.06664929, -0.0345895, -0.1186124, 0.0729443, 0.04966, -0.006784767, 0.1138605, 0.07387224, -0.1335644, -0.05432792, 0.0757478, -0.08913526, -0.1233258, 0.02658505, -0.06740463, 0.1276072, -0.1368328, 0.1347514, 0.006506741, -0.009269133, -0.02218276, -0.003463134, -0.07977426, 0.02144622, -0.00921315, 0.1030941, -0.08239882, 0.08573002, 0.07236382, -0.1098114, 0.007539913, -0.1310723, 0.1233769, -0.09377594, 0.02223358, -0.1041341, 0.1326978, -0.1131261, -0.1378845, -0.1026682, -0.1052533, 0.1077185, 0.07199509, -0.07720065, 0.08201815, 0.002383396, 0.06989936, -0.03516731, 0.08285972, 0.112275, 0.1012244, -0.04470798, -0.03662787, -0.0898712, -0.09423587, 0.08578661, -0.01307844, -0.04956998, 0.03720412, 0.06830241, -0.1396083, 0.05680234, 0.1077444, 0.03772352, -0.0507817, 0.03402072, 0.1117858, -0.02110082, -0.1219574, 0.03969884, -0.03436569, -0.06197658, 0.1063353, 0.1015069, 0.04162921, -0.06097199, 0.1350008, 0.03095973],
    [0.1014987, -0.1087836, -0.1110294, 0.1204749, 0.01634632, 0.1347369, -0.1276173, 0.045183, -0.02716509, 0.03629915, -0.001864925, 0.1297724, -0.07763737, -0.04366035, -0.09745488, 0.001247391, -0.1004745, 0.03937496, -0.1093791, -0.1044636, -0.01975552, -0.08720569, -0.08742593, -0.007489398, 0.0996178, -0.1292071, -0.1299325, 0.1076028, 0.06482707, -0.03702539, 0.09226607, -0.01270689, -0.058918, -0.04042195, -0.06171952, 0.1260695, -0.09421356, -0.04040766, -0.03310406, 0.09188083, -0.0739347, 0.1237506, -0.03129618, -7.747114E-05, 0.003234655, -0.02021657, -0.05317412, 0.13832, -0.1323114, -0.1255583, -0.03756223, -0.08505754, -0.0369213, 0.0275392, -0.08538435, -0.08156931, 0.0778286, 0.05300086, -0.009536251, 0.06653482, 0.1058216, -0.05562483, 0.0417119, 0.02455977, 0.125823, -0.07331964, 0.05186112, -0.1083099, -0.07754894, 0.1002245, 0.02666237, 0.1342825, -0.05320507, -0.1276034, 0.04405164, 0.124782, 0.07907473, 0.09203811, -0.05625972, 0.0359451, 0.1339566, 0.1032127, -0.09505157, 0.006090567, -0.0850517, -0.1032633, -0.01558019, -0.04770724, -0.08839434, -0.1390401, 0.04579071, -0.118229, 0.1388384, -0.07813875, -0.08115338, -0.08873381, 0.07029444, 0.1363217, 0.07754746, 0.08657771, -0.11453, -0.02038354],
    [0.009179562, -0.1037897, 0.0890585, -0.01750812, 0.132316, 0.1168732, -0.03517705, -0.08542004, -0.1009112, 0.06046965, -0.01456799, 0.0794754, 0.09917285, -0.1198078, -0.09476422, 0.1086838, 0.03240434, 0.07334328, 0.03379233, 0.03903256, 0.06108498, -0.08209246, -0.08038084, 0.03047484, -0.07541087, -0.1386304, -0.08235118, -0.04891123, -0.03238631, 0.04515422, -0.08219075, -0.06702317, -0.01016079, -0.07314664, 0.04502949, 0.03952096, -0.09025286, 0.07016654, -0.1224345, -0.003446952, -0.03237502, 0.1039419, 0.0569221, -0.004058659, -0.02822116, -0.01832536, 0.1039417, 0.009360582, 0.03480992, -0.02822019, -0.1228391, 0.03413409, 0.05339548, 0.118653, -0.09364568, 0.06729087, 0.03514992, -0.04592331, 0.05667478, 0.09052649, 0.01198514, -0.1057901, 0.1329832, 0.0860368, -0.08042608, 0.09999418, 0.09869623, 0.1067744, 0.0730684, -0.1214101, 0.08013028, -0.06539583, 0.06385989, -0.05671396, 0.07381031, -0.09581278, 0.03360283, -0.1209123, -0.04399701, -0.0388516, -0.06051001, -0.03810537, 0.1302072, 0.1009266, -0.115563, -0.003379807, -0.09559779, 0.06320888, -0.04400712, -0.0615564, 0.01395082, 0.08165689, -0.1222863, 0.01131606, -0.04473469, -0.1093902, -0.03138739, -0.09099014, -0.1076998, -0.05891435, -0.0706948, 0.0348431],
    [0.08443467, -0.01743098, -0.04938496, -0.1288028, -0.1308392, -0.01597521, -0.007374391, -0.09219515, 0.1277622, -0.1269685, -0.136209, -0.043502, -0.06562473, -0.08634195, -0.1322838, -0.1333276, 0.041885, 0.03947085, 0.07051358, -0.05753531, -0.08977678, -0.1133016, 0.04744362, -0.03710471, -0.05259956, 0.1354519, -0.08572459, -0.1393787, -0.112657, -0.111002, 0.007275239, 0.07668098, 0.08179791, 0.07231559, -0.008762747, 0.01199318, 0.08374874, -0.0206589, 0.1139316, 0.1016327, 0.1328411, -0.04152609, 0.01053958, 0.09120722, -0.05250879, -0.0233358, -0.05648948, 0.05293285, -0.09714752, -0.07896334, -0.08200733, -0.1232454, -0.04372308, 0.04303032, -0.1043398, -0.1016749, 0.09507895, 0.01749861, 0.07087351, 0.04039435, -0.06222534, 0.1000328, -0.04148082, 0.01379679, -0.06007175, -0.02789402, 0.1117965, -0.03570351, -0.09604615, 0.08521606, -0.04377126, -0.1289047, -0.04365772, 0.08471414, -0.1043696, -0.09298398, 0.09185579, 0.04155592, 0.0689607, -0.03354819, -0.1014353, -0.07131119, 0.06787471, -0.1317739, -0.04543918, -0.1206648, -0.00617516, -0.1214436, -0.1342409, 0.06782536, 0.1242342, 0.002390608, -0.1281754, -0.03299479, 0.06405286, 0.1227499, -0.0006869882, 0.1239087, -0.1277396, 0.01931604, 0.01173708, 0.08915846],
    [-0.05936356, 0.08527472, 0.003122136, 0.0945795, 0.016289, -0.03585234, 0.1097748, 0.04046579, -0.08664986, 0.05262548, 0.05053536, 0.1212271, -0.09168229, 0.1143, 0.0372349, 0.04995546, 0.09325624, 0.06276442, -0.07932696, 0.05656978, 0.1268671, 0.115755, -0.01528303, -0.006831408, -0.07381706, -0.05026693, -0.01356892, -0.09711494, -0.05153146, 0.03162506, 0.06790342, -0.03599386, 0.1284056, -0.02414201, 0.0002245605, 0.08644164, -0.03129124, 0.008311316, 0.09186363, 0.1190923, -0.05933468, -0.07403329, 0.07213003, -0.1339615, -0.04190339, -0.02196069, -0.05605017, -0.02818811, -0.08743131, 0.04055513, 0.08303039, -0.02300895, 0.08548264, 0.1362745, -0.04680525, 0.1011649, -0.06987898, 0.1202139, 0.102485, -0.1345094, 0.1043966, 0.1368831, 0.1031962, -0.1329723, 0.006207749, 0.01445043, 0.01840141, -0.09096214, 0.07312298, -0.03773964, -0.02547509, -0.00233151, 0.01235534, -0.1052291, 0.02079067, -0.1209549, 0.1233883, 0.0850959, -0.07807809, -0.1008024, 0.08683691, 0.05759878, 0.05503179, 0.1005083, 0.04652375, 0.05478821, 0.1133619, 0.01176119, -0.03332898, -0.03546059, -0.04188799, 0.1203873, 0.09403501, 0.121913, 0.1367918, -0.09576918, 0.1243217, -0.1021466, -0.06286366, 0.07595561, -0.007940769, -0.1181237],
    [0.06963131, 0.05516323, -0.1123265, -0.08663113, -0.04660821, 0.06776, -0.01892833, -0.1012949, 0.03158566, -0.1055702, 0.03238117, 0.01902479, 0.0974736, 0.05731618, -0.1370409, -0.1074952, 0.1292681, -0.008372918, 0.1183371, -0.0718932, -0.105581, -0.05961354, 0.07324684, -0.1259865, 0.0797355, 0.1208859, 0.05802468, 0.1145358, 0.09394117, 0.01617873, -0.07774487, -0.1320967, -0.03379524, 0.004114792, -0.1242766, -0.01300429, 0.08324833, -0.02572395, 0.07999891, -0.02368313, 0.02275105, 0.1319031, -0.06243931, 0.06466929, -0.0953297, 0.02780154, 0.1126151, -0.0386989, 0.006897122, -0.09173019, 0.03290208, -0.09655106, 0.08953144, 0.1372334, 0.005593419, -0.1322914, 0.02257638, -0.04636252, -0.09883562, 0.1134512, -0.042169, -0.01878952, -0.01113985, -0.01218665, -0.1276407, -0.05242449, 0.1021466, -0.01347445, 0.05086514, -0.02435641, -0.03169957, -0.1332128, 0.01807193, 0.1010687, -0.08777465, -0.1294664, -0.07359171, 0.09276621, 0.1166893, -0.1167919, -0.121289, -0.09889445, 0.1064363, -0.04653342, 0.07921432, 0.001496851, 0.07246826, -0.08407933, 0.07048017, -0.09804252, -0.03085202, 0.02667529, -0.07647876, 0.06369747, -0.05633901, -0.1398799, -0.03731114, -0.04232267, -0.09710716, 0.03773148, -0.007993549, -0.0466309],
    [0.02826079, -0.04207726, -0.04968363, 0.02879115, 0.02855625, -0.08049972, 0.09434423, 0.136757, 0.06882315, -0.1244492, 0.13918, 0.06854703, 0.129269, 0.1325645, -0.02918559, 0.02359663, 0.07342778, -0.0808254, 0.1167506, -0.04387438, 0.003339618, -0.02319625, 0.04220684, -0.005914345, -0.001814172, 0.07127777, 0.07902773, -0.05954961, -0.1337812, -0.1394465, 0.02939476, 0.04108993, -0.1147939, 0.03313822, -0.04977076, -0.1001727, 0.03361923, 0.12631, 0.08275236, 0.1136262, -0.08863892, -0.08276539, -0.07541084, 0.08476499, -0.1172487, -0.05998342, 0.0811976, 0.04207667, 0.05250192, -0.01443689, 0.02546798, -0.006666362, -0.1328163, -0.1383116, -0.006180808, -0.1065737, -0.07377476, -0.129264, -0.1278093, -0.0008129478, -0.006558761, 0.01797275, -0.07927255, 0.101232, -0.04296831, -0.04448497, -0.1194454, -0.0007695109, 0.08385605, 0.009063482, 0.04528179, 0.04527999, 0.08571116, -0.1145058, -0.08251546, -0.1273356, -0.09020269, -0.0285645, 0.01595985, -0.01904067, -0.07940562, 0.09748642, -0.02784351, -0.01002134, -0.06030328, 0.07904702, -0.1298549, -0.08482452, -0.09449556, -0.1348967, -0.0543383, 0.08006871, 0.02071328, -0.1130307, 0.0142388, 0.005762547, -0.003730595, -0.06982911, -0.01572873, -0.05406982, 0.08620633, -0.07332392],
    [-0.05324036, -0.1390391, -0.006795317, -0.0947991, -0.1253246, -0.1204763, -0.1151815, 0.1195451, 0.02577068, -0.05466731, 0.09161454, 0.1370873, 0.08416782, 0.02391072, -0.05737209, 0.05668383, 0.09880233, -0.04800792, 0.04162122, 0.1084577, 0.03951391, 0.05859346, 0.06794816, 0.09307425, -0.1247094, -0.01800002, -0.08155943, 0.05544217, -0.1102661, -0.0930758, -0.04042679, 3.559887E-05, 0.08013044, 0.07099894, 0.1118861, 0.07461877, 0.04579712, -0.08509174, 0.03241001, -0.006012276, 0.01202783, -0.1256146, 0.02957447, -0.04546289, 0.04702837, -0.01132064, 0.04346433, 0.03569056, -0.03739209, 0.1213738, 0.1367377, -0.0889037, -0.09908284, 0.1217541, 0.05087219, -0.1246732, 0.0207471, -0.1163072, 0.07918501, 0.05205072, 0.02518323, 0.1145576, 0.05886949, -0.1023997, 0.08834052, -0.09576692, 0.1028423, -0.08510339, 0.09903039, -0.1288565, 0.1070731, 0.09209076, 0.1129875, -0.04688056, 0.07823837, -0.1067979, 0.008062869, -0.03882429, 0.1370453, -0.1197781, -0.02868208, -0.05193683, 0.04816641, -0.1178804, -0.0850893, 0.007815272, -0.1214739, 0.01316276, -0.08417971, 0.0386279, 0.0218356, -0.05927709, 0.05375971, -0.008526221, -0.03510551, -0.05304663, -0.02894886, -0.04112407, 0.007861912, -0.06265637, -0.1080093, -0.01941673],
    [0.09254883, 0.01066512, 0.08019631, -0.09619775, -0.08906475, -0.001578107, 0.02876384, 0.1162047, 0.02889565, 0.07469128, -0.08895358, -0.006215662, 0.04802543, 0.1337878, -0.01192082, 0.01147997, 0.02244891, 0.02795061, -0.08751628, 0.05629833, 0.007946908, -0.08445701, -0.1283693, 0.1058817, 0.06499957, 0.08460988, -0.02460694, 0.02485459, -0.08582267, 0.03070843, 0.1216552, -0.136702, 0.03188449, 0.1165265, -0.04781198, -0.09326866, 0.009125918, 0.02080011, -0.05878415, 0.02775711, 0.04193258, -0.09159295, -0.03462373, 0.01305255, 0.1254083, 0.07623001, -0.07673267, -0.06376541, 0.02350048, 0.0005876273, -0.01574231, 0.127127, -0.006612271, -0.002612278, 0.06510928, 0.1188483, 0.02613598, -0.06736527, 0.1263846, 0.02845229, 0.08070584, 0.08756384, 0.06145455, -0.06176963, 0.05083766, 0.1195471, -0.1144589, 0.05991375, -0.08561739, 0.09288867, 0.1368586, -0.1257259, -0.0237287, -0.05117935, -0.03861, -0.1378435, -0.03886288, 0.01388395, -0.1356087, 0.03900405, 0.08539003, 0.00258106, 0.04205881, -0.09119008, -0.1222539, 0.1170015, -0.09397776, 0.01861468, 0.05083139, -0.003767118, 0.07297732, -0.05571461, -0.0569277, -0.02755205, 0.01059434, 0.01963413, 0.01240131, 0.07009867, -0.03036229, -0.08484459, -0.02024522, 0.04094384],
    [0.09365686, -0.01789556, -0.01953618, 0.1155753, 0.1282816, -0.06171554, -0.02804212, 0.0616151, 0.007877111, 0.09200646, 0.004496977, 0.02841933, 0.03101905, 0.03607677, 0.04052262, -0.04924491, 0.01858583, 0.05882522, -0.03539342, 0.1286923, -0.1234195, -0.02532713, 0.04995596, 0.06716414, -0.02148435, 0.04217702, 0.04867947, 0.06067137, 0.02193782, 0.08371519, 0.04739457, 0.09609793, 0.138139, 0.008418486, -0.08607583, -0.05044504, -0.1159807, 0.1021508, 0.00485374, -0.103522, 0.05783582, 0.04785442, 0.0641205, -0.06953558, 0.1035644, -0.02730797, 0.06126686, 0.1387687, -0.08989972, -0.001175717, 0.08526009, 0.0585274, 0.0137433, 0.1275155, 0.06785728, -0.0009116977, -0.05469649, -0.04216422, 0.1210414, 0.01272064, -0.07404682, -0.1215367, 0.009656146, -0.08424659, 0.1393715, -0.1088344, -0.04994833, -0.07967885, -0.04328406, -0.08851646, 0.02856022, -0.08439051, -0.1323582, -0.06838015, -0.0928705, -0.02732237, -0.02121629, -0.08767162, -0.04504834, -0.05817126, 0.1244003, 0.1106615, 0.008704066, -0.04011213, 0.07558054, 0.007329553, 0.01414302, 0.06860835, -0.09719901, -0.04806026, 0.03710286, 0.1074803, 0.02557652, 0.1012597, -0.1398665, -0.02282062, -0.05727196, 0.03182173, -0.1264345, 0.1147283, 0.03942687, -0.0286922],
    [0.1024281, 0.03909523, -0.01622249, 0.1337785, 0.1267435, 0.1262726, -0.09368373, 0.1267325, -0.09928706, -0.1362542, -0.06705813, -0.04709767, 0.1295667, 0.01251896, -0.071556, -0.1326289, -0.127662, 0.008424491, -0.0536294, -0.09652559, 0.1037317, 0.05470104, -0.04352634, -0.1150365, -0.06296279, 0.13464, -0.07018296, 0.1343149, 0.03946323, 0.05060928, -0.08432558, 0.04429902, 0.0668861, -0.1155507, 0.1163622, 0.03947772, 0.03597824, 0.02602595, -0.08195141, 0.1055901, -0.09857395, 0.1329014, 0.08847143, 0.1025682, -0.05647856, -0.07628997, 0.02982593, -0.01499271, 0.1377746, -0.07839341, 0.09966888, 0.1358337, 0.07968488, 0.0833362, -0.08609423, -0.04678622, -0.1355558, -0.09679341, 0.1183524, -0.1052898, -0.003260896, -0.07292965, -0.08787838, -0.03638687, 0.04239082, 0.09935746, -0.05100932, 0.1231342, 0.1009217, 0.1145737, 0.03189063, 0.1033788, 0.0901687, 0.1144087, -0.07550265, 0.06800438, -0.1072165, 0.03341734, -0.03787471, -0.1285436, -0.05410013, 0.08626506, 0.08934522, -0.007767797, 0.001491368, -0.0833582, 0.04757676, 0.113725, 0.0318418, 0.1127867, -0.04735393, 0.00471665, 0.02672433, -0.106529, -0.07825045, -0.1213344, 0.01394482, 0.0330665, -0.02838969, -0.04111947, -0.07944231, -0.1071746],
    [0.03524975, -0.01026422, 0.1374483, -0.10438, 0.01065232, 0.05693208, -0.07743165, 0.0172375, -0.03716551, -0.04438111, -0.003280252, 0.03543654, 0.04056308, -0.05402745, -0.0002379566, -0.1376594, 0.0627315, -0.08482344, 0.1118445, -0.05980908, 0.09254853, 0.06536888, -0.106184, 0.09519986, 0.03166282, 0.1054502, 0.08448469, -0.1179544, -0.09343332, 0.1097127, 0.0888349, -0.01861759, 0.1104854, -0.09513059, 0.06601311, 0.08805608, -0.047806, 0.05546684, -0.03161588, -0.09270684, 0.07557556, 0.03388979, -0.1113692, -0.07398398, 0.1374916, 0.05299289, -0.08496477, 0.07124135, 0.09465972, -0.1216528, -0.03089108, -0.1189146, 0.02053997, -0.01456942, 0.09338911, 0.05301065, -0.02780528, 0.06647146, 0.04333767, 0.061957, 0.05890889, 0.1034685, 0.06231376, 0.07055284, 0.0706505, -0.05165289, 0.04632538, -0.008039191, 0.005375206, -0.03215301, 0.09775791, -0.08172013, -0.09681498, 0.002614751, 0.04807924, -0.09424144, 0.0176405, 0.04356248, -0.03359065, 0.04722444, -0.03632791, -0.1119843, 0.02003366, 0.05865186, 0.03863754, 0.1344337, -0.05015626, -0.03511435, 0.009859085, -0.1347229, 0.1375768, -0.07934977, -0.05711238, -0.02789726, -0.07070681, 0.1249143, 0.0437908, 0.131249, 0.03441553, 0.006734163, -0.1056725, -0.1156158],
    [0.1165298, 0.07630439, 0.05468312, -0.1239045, 0.07936519, 0.1111687, 0.04530689, 0.008378193, 0.08812706, 0.06686795, -0.0659878, -0.07511705, -0.03469126, 0.08347321, 0.1057919, -0.1140355, -0.002604231, -0.113901, 0.1128042, 0.01723467, -0.006056309, 0.006909639, -0.03943638, -0.1038738, 0.0706303, 0.1145361, -0.0739467, -0.06783549, -0.1053635, -0.1164314, 0.08913106, -0.02476215, 0.1262493, 0.05875852, 0.02565186, 0.1363134, 0.1225632, 0.1010226, 0.1022032, -0.06669636, 0.1169559, 0.05051793, -0.06440647, -0.04815474, 0.06071384, -0.06990832, -0.07492077, -0.09123777, 0.02273165, -0.02119567, 0.09519178, 0.008978158, 0.05115299, -0.1279203, 0.06031411, 0.05011307, 0.02968037, 0.009029895, -0.09507908, -0.1151366, -0.04324424, -0.1312222, -0.06047502, 0.03355579, -0.01831027, -0.07539949, -0.04831854, -0.07794942, -0.07417585, -0.01489779, 0.07970138, 0.01302214, 0.1256525, 0.07096632, -0.1271995, 0.1274131, 0.01245773, -0.08702387, 0.1138917, -0.1205495, 0.0304964, -0.006412864, 0.0706098, -0.05093297, -0.01550484, 0.1171127, 0.09120845, 0.09469875, -0.04149001, 0.01877517, 0.02181129, -0.112711, -0.1233391, -0.1082658, 0.1348995, -0.04947457, -0.06717831, -0.04990444, -0.04223377, 0.009218857, -0.05061123, 0.1108901],
    [0.04009769, -0.06851546, -0.1073176, 0.05564865, 0.06649336, 0.05401064, -0.09273843, -0.1397166, -0.01061237, -0.033732, 0.04349444, 0.1205443, 0.07946551, -0.09359527, -0.06541187, 0.05977564, 0.1337181, -0.1377379, -0.1177983, -0.004664674, -0.03634627, -0.007126868, -0.07183708, 0.1358292, 0.1087389, 0.04410039, -0.1272725, 0.07264276, 0.1059623, -0.05591032, -0.04984805, 0.08180194, -0.05462338, 0.06647563, 0.05030961, 0.07903401, -0.07936746, 0.03936024, -0.01981238, -0.02866415, -0.07476446, -0.08791319, 0.0806589, -0.08952753, 0.05803954, 0.03714065, -0.08052222, -0.1245606, 0.057994, -0.02460894, 0.0394614, 0.1250479, 0.03755657, -0.07043913, -0.06195852, -0.001854539, 0.06662901, 0.05546657, -0.0679263, -0.03209035, -0.108198, -0.02579272, 0.124585, -0.02140716, -0.1051809, -0.05634081, 0.04166863, 0.1250312, -0.06587538, -0.05417401, 0.06505155, -0.1148088, 0.1171391, -0.03919724, -0.08341767, -0.06819539, -0.1028405, 0.04308023, 0.1252134, 0.1339498, -0.07508764, -0.08511715, 0.1355539, -0.03940209, -0.06061643, 0.09585131, 0.02827141, -0.08133386, 0.06321286, -0.07443205, -0.07949837, -0.0418704, 0.1030387, 0.03203513, 0.008899525, 0.01319799, -0.1383133, 0.09663382, -0.02461889, 0.1333327, -0.04830508, 0.08591321],
    [-0.110412, 0.06447639, -0.1308554, 0.04258619, 0.1192366, -0.05795997, -0.008072048, 0.08245646, -0.07875955, -0.1089274, -0.03494529, -0.05680029, -0.1164117, -0.02808084, -0.02315779, 0.1085247, 0.00725247, -0.1100162, 0.1233745, 0.00169462, 0.1189265, 0.1029126, -0.08381832, -0.004991278, -0.1392418, 0.04380145, -0.08261093, -2.919137E-05, -0.01084566, 0.0001771599, -0.1343364, 0.122615, 0.0152645, -0.03753442, 0.03957277, -0.01288199, 0.006258324, -0.1119862, -0.08306292, -0.02467, 0.03015998, 0.006113559, 0.05523428, 0.09222537, -0.0009336323, -0.1163886, -0.07802698, -0.03922061, -0.0828447, 0.08111367, 0.06653513, -0.1068457, 0.04474629, -0.09798303, 0.1101361, -0.02809466, 0.1047403, 0.06699254, 0.1168178, 0.1291666, 0.08183537, 0.04173126, -0.0467975, -0.002329707, -0.001087338, -0.1062504, 0.03771605, -0.1251448, 0.1307729, 0.007611424, -0.05538402, -0.02336578, -0.02503377, -0.1347357, -0.1251859, -0.07418145, -0.007469937, -0.1039793, 0.06263923, 0.1146596, 0.0857774, -0.05244248, -0.1299966, -0.1286091, -0.1040547, -0.001623839, -0.03019794, -0.09326194, -0.095497, 0.07795156, 0.04322853, 0.119412, 0.1048218, -0.0308184, 0.002913713, 0.0726274, -0.08946551, 0.07489557, -0.01354459, -0.06959762, 0.02807343, 0.03828957],
    [0.0475831, -0.1106062, 0.08252724, 0.1268164, 0.1396329, 0.1174792, -0.1294558, -0.01961624, -0.06122031, 0.1361801, -0.03548553, 0.01376022, -0.05342421, -0.05555099, -0.047612, -0.1140812, 0.06869379, 0.05868071, 0.06345577, 0.1176715, -0.1291689, -0.006682977, 0.1128078, 0.09227675, 0.132242, 0.05983002, -0.01850131, -0.007923543, 0.04492914, 0.09963313, -0.06917298, 0.07679135, 0.06130689, -0.01628789, -0.1358229, 0.02627644, -0.1298578, -0.1012406, 0.0985666, -0.05010361, 0.07278769, -0.02268268, 0.03774739, 0.07059658, 0.03616771, -0.03489845, 0.09097175, 0.1264631, -0.02329786, -0.1323654, 0.08987331, -0.1237252, 0.04698303, -0.03407096, 0.03628195, 0.06440988, 0.1118003, 0.04390875, 0.01096775, -0.1139852, 0.07532591, -0.04732155, -0.1273583, -0.06734006, -0.05471101, -0.04069661, -0.03557901, -0.04130382, -0.04154576, 0.07904232, -0.01788384, -0.1237962, -0.1145527, 0.01035726, 0.02236178, 0.05084554, 0.09250069, -0.03025436, -0.03590314, -0.03920465, -0.009927392, -0.03678842, -0.1257923, -0.1348498, 0.09335199, -0.005782977, 0.0001059473, 0.1086394, -0.02309205, -0.0990594, 0.09997579, -0.04449973, 0.06587323, -0.03894064, 0.008822918, -0.09925149, 0.05838818, -0.1118955, -0.02565954, -0.133571, -0.09671669, -0.06454688],
    [-0.06637676, -0.04199886, 0.03155275, 0.03539677, 0.1234814, -0.125328, -0.09977996, -0.08391908, -0.03730927, 0.09789048, -0.1078415, -0.106278, -0.1065285, 0.06543057, 0.08449053, -0.04604302, 0.01361968, 0.1380157, 0.1029058, -0.001762524, -0.09726237, 0.1372397, 0.1291007, -0.01258661, 0.008764684, -0.08739395, -0.1238535, 0.03929314, 0.02995409, 0.1377345, -0.1014487, -0.1284496, -0.08983836, 0.1046356, 0.06383322, 0.08829509, 0.06501836, 0.04890055, -0.0584922, -0.0766927, 0.1137108, 0.02695269, -0.006644592, -0.1161265, 0.1121821, -0.06110192, 0.02523004, 0.02812351, 0.1298251, -0.1062636, 0.05611688, 0.03333535, 0.06155591, -0.0842481, -0.01193705, 0.1254633, -0.084492, 0.03217862, 0.06609327, -0.08559471, -0.0021341, 0.112247, 0.05470932, -0.03575899, 0.05750694, 0.1110537, -0.07513297, -0.09870048, -0.008984923, -0.1310144, 0.04613278, 0.0112803, -0.01106046, -0.09026481, -0.006743282, -0.1193928, 0.09814274, 0.07088436, 0.09187062, -0.07743289, 0.05878853, 0.09689196, -0.02074637, -0.1204974, -0.08098948, 0.0006222874, -0.03978412, -0.004948318, -0.0599958, 0.05743293, -0.09488972, 0.05455101, 0.03626422, 0.117094, 0.1169846, -0.0080484, 0.06621696, -0.1109567, 0.06272222, 0.01225959, -0.1154115, 0.06518669],
    [0.04685724, -0.0008287132, -0.03110455, -0.101864, 0.1123384, 0.1319471, -0.02484992, -0.02961053, 0.1024819, -0.0001941472, -0.112206, -0.1158221, 0.05209736, 0.1051152, -0.04683205, 0.1396614, 0.09056295, -0.1008801, -0.1042276, 0.05799877, -0.1277638, -0.03440602, -0.06282014, 0.01464327, 0.04865814, -0.01540789, 0.01664361, -0.08029149, 0.1090322, -0.04332674, -0.09141912, -0.02122698, -0.0003545731, 0.1195406, 0.0631152, 0.06215274, -0.07623859, -0.111323, -0.02795358, 0.06076284, 0.03129037, 0.1097607, -0.08167906, 0.03188109, 0.04245866, 0.08946049, 0.07774867, 0.1165427, -0.1261061, -0.0472676, 0.008159041, -0.05461556, 0.1055028, 0.1231293, 0.08042247, -0.1046746, -0.02677074, -0.05612828, 0.1265927, -0.06665353, -0.1114826, -0.08041462, -0.137465, -0.07920681, 0.06486723, 0.1025854, -0.1135108, 0.09966925, -0.06844985, -0.06446058, -0.1294658, 0.02901953, 0.01849429, 0.06175869, 0.04335038, -0.09035185, 0.08399569, -0.0888609, 0.04000291, 0.02114852, -0.003558993, 0.0102773, -0.08822438, -0.01534626, 0.1363926, -0.1359535, -0.1186425, 0.08913623, -0.05207241, -0.09762436, 0.002653673, -0.08481246, 0.1392974, -0.02120421, 0.09939329, -0.06407592, 0.06019729, 0.04904758, 0.09559755, -0.1053316, -0.05970211, 0.09687807],
    [-0.09035182, -0.1096305, 0.07994709, 0.01613042, 0.01796754, 0.01794961, 0.08608378, -0.05235061, 0.0713212, -0.09779593, 0.03248349, -0.1382873, -0.06346567, 0.05832308, 0.01655862, -0.106326, 0.06509625, -0.127581, 0.1146596, -0.03801394, -0.1128063, 0.107566, 0.1106018, -0.04072696, -0.02467541, -0.12572, 0.02357236, -0.05925625, 0.04256533, -0.07694669, 0.009362414, -0.03398994, 0.1346435, -0.07148476, 0.06650037, 0.02635706, -0.01863594, -0.03293366, 0.1255832, 0.04206341, -0.09560679, -0.06839029, -0.08202319, -0.131922, 0.09743547, -0.1331755, -0.09995849, 0.07275337, 0.1124143, -0.07332546, 0.1225363, -0.0697481, 0.02400864, -0.04873705, -0.126159, 0.1399555, -0.07958815, -0.08131637, 0.0988836, -0.1285437, -0.1052716, -0.01726448, -0.06178689, 0.02030985, 0.1231368, -0.1179318, -0.1060044, 0.1063325, 0.0755805, 0.110976, 0.04516791, -0.04143919, -0.1042224, 0.1067992, -0.04898223, 0.05903455, 0.09489755, -0.1365067, -0.02441223, 0.1071056, 0.07914665, 0.02385323, 0.06254902, 0.02112218, -0.09071538, -0.1104637, -0.03588825, 0.00979422, -0.06208425, -0.02085193, -0.1290171, -0.09694037, 0.04242023, -0.08895415, -0.06203972, 0.07076134, 0.08953862, -0.09876865, -0.0718668, -0.1254553, 0.02301199, 0.0009190142],
    [0.02578147, -0.05674471, 0.03016832, 0.01543373, -0.03771614, -0.05267458, 0.04470499, 0.03018983, 0.07781725, 0.05319393, 0.1043753, -0.04559463, 0.004314661, 0.006936669, -0.1328133, -0.06562163, -0.03206471, -0.1205296, 0.004640907, -0.1076976, -0.09957978, 0.04508277, -0.09589501, 0.03909376, 0.03809253, -0.08934569, 0.08554474, -0.03683296, -0.04175148, -0.1261078, 0.1359074, 0.132426, 0.1343298, 0.06487003, -0.08246541, 0.1011909, 0.1079337, -0.1036695, -0.08783914, 0.1338747, 0.07823453, 0.01802837, -0.08573703, 0.06390934, -0.02045228, -0.1258762, -0.07506844, 0.130598, -0.0213279, 0.05190956, 0.01925775, -0.09060615, -0.05396615, 0.08874355, 0.07633791, -0.01284488, 0.01558794, -0.1212594, 0.04148822, 0.1298833, 0.01648263, 0.02200957, 0.1305124, 0.1045205, -0.1221535, -0.09012951, -0.05069917, -0.01503888, 0.07883883, 0.04747, -0.01827315, -0.1316239, 0.02543022, -0.003991529, 0.03961257, -0.02665262, 0.1090604, 0.01420067, -0.01403038, -0.04496786, 0.03618477, 0.08362535, 0.1176092, 0.08898295, 0.009420544, 0.1335369, -0.09800085, 0.1172058, 0.007518709, -0.04232952, -0.05225035, -0.1126401, 0.05488346, -0.1203818, -0.107802, -0.1331151, -0.09316179, 0.07420976, 0.1355972, -0.01777881, -0.06591976, 0.01300882],
    [-0.1396704, 0.07741752, 0.1389722, -0.07791924, -0.003873512, -0.1043249, -0.02918099, 0.07379065, -0.0682487, -0.00645496, -0.04004492, -0.06207951, 0.1166098, 0.01625865, 0.1360754, -0.1090039, 0.002892256, 0.09356485, 0.02770653, -0.05012915, 0.07388596, 0.03494105, 0.1109765, 0.1239441, 0.1312435, -0.09231955, -0.08805358, -0.03710856, -0.09251069, 0.006584331, 0.02276634, -0.08893999, 0.09614977, 0.09433274, -0.1036383, -0.1067537, -0.134534, -0.06167768, 0.03108405, -0.06866038, 0.07927124, 0.01535898, 0.0202294, 0.008488163, 0.04121269, 0.1128857, -0.09273757, -0.1215596, -0.087446, -0.07766625, -0.002820745, 0.0524225, -0.08146515, -0.1258323, 0.06537712, 0.004227087, 0.07512346, 0.1292206, 0.007731944, -0.07235354, -0.00150986, 0.07135987, -0.0974541, -0.1192491, 0.05753171, 0.08424819, -0.135177, -0.1184761, 0.1292474, -0.02694875, 0.03695049, 0.09846628, -0.08372237, -0.05459146, 0.03610504, -0.07199836, 0.1098461, -0.04410708, 0.07510239, -0.1063115, 0.08839217, -0.07383472, 0.04399939, -0.1297445, 0.001403227, -0.0988889, -0.1129749, -0.0521743, 0.03180867, 0.08921035, -0.1077761, -0.1266263, -0.03820066, -0.02733004, -0.05604349, -0.1218713, -0.03118314, 0.1301381, 0.1232951, 0.12912, 0.0431938, -0.06490771],
