{
"layers": [102, 102, 60, 15],
"fitness": 199.3281,
"weights": [
  [
    [-0.1108942, -0.1335998, 0.01289661, 0.0301279, -0.04396766, -0.02713958, -0.02439227, -0.02609499, -0.08186471, -0.1121074, 0.02130296, -0.02058768, -0.08885673, 0.03159992, -0.02274504, 0.01766117, -0.05126211, -0.1160593, -0.1288003, -0.03518737, -0.1053935, 0.02576564, -0.00111495, -0.07703841, 0.1101154, -0.1318032, -0.1252974, 0.05763855, -0.03861817, -0.08244641, -0.08595164, -0.0396424, 0.072308, 0.0636012, -0.07078274, 0.05567843, 0.1120437, 0.01566075, 0.1274566, 0.1140933, -0.09875813, 0.09398881, -0.07448487, 0.1202412, -0.01510582, 0.1330311, 0.1336775, 0.1270432, -0.0946684, -0.01336652, -0.1094193, -0.09817854, 0.05726093, -0.09270993, -0.1154896, 0.1134612, 0.05123692, 0.02617461, 0.1358666, 0.139469, 0.04378089, 0.1007845, -0.02608107, 0.1061829, -0.1184036, 0.02180084, 0.03166462, 0.1283986, 0.09570394, -0.03208828, -0.03218807, 0.08104634, -0.02320856, -0.1057723, 0.06610329, -0.02363529, -0.04151301, -0.07590617, -0.03940824, 0.03731262, 0.05374673, 0.06588708, -0.04168534, -0.07355651, -0.1047752, -0.03558141, -0.0007746816, -0.07814586, 0.1294495, 0.04941065, -0.1051939, -0.02266241, 0.04530065, 0.09113905, 0.135993, -0.07418774, 0.06796655, -0.0961237, -0.03412909, -0.1369517, 0.107999, -0.1257108],
    [-0.03884202, -0.05253974, -0.03666497, -0.001185223, 0.02790387, 0.03888143, -0.1133128, 0.04872074, 0.08860734, 0.03568352, 0.06309651, -0.07668205, -0.004123807, -0.06269227, -0.02404065, 0.1279987, 0.007960975, -0.08769645, 0.01016437, 0.1166804, 0.01615095, 0.1112946, -0.1349583, -0.1203483, 0.08568031, -0.08931531, 0.1148827, 0.09320943, 0.1352465, 0.02877846, -0.1211071, -0.1360638, 0.04968918, 0.003767043, -0.08873193, 0.138847, -0.1307295, 0.05803797, 0.06490716, 0.01066908, -0.03524926, 0.13223, 0.0875345, -0.02065879, 0.04469508, -0.06096334, -0.1165523, 0.1047742, -0.02340717, -0.09056175, 0.08704263, -0.02915949, 0.1298552, -0.05144921, -0.03414218, 0.04923227, -0.1066986, -0.04383062, -0.06338234, 0.08126962, -0.1257947, 0.09588686, 0.05987493, -0.08837371, -0.0133394, 0.1276542, 0.04868575, 0.09956986, 0.03100646, 0.1263763, 0.05692397, 0.1313392, -0.1182564, -0.03009003, 0.1147543, 0.08707595, 0.09408456, -0.02617718, 0.02780695, -0.07914765, 0.05612165, 0.07283717, -0.07986553, 0.09003332, 0.03247872, -0.0237459, 0.05078488, 0.1011131, 0.1194501, 0.104883, -0.07981075, 0.1290443, -0.05804424, -0.09451126, -0.03013911, -0.008386537, 0.08884136, -0.1188222, 0.01943686, 0.02819218, -0.108495, 0.07604206],
    [0.07519704, -0.03621794, -0.1048494, -0.1131606, -0.02621384, 0.06401948, -0.00125286, 0.02299683, 0.121064, -0.1060956, -0.04942175, 0.1044784, 0.08804032, 0.05824366, 0.04092227, 0.1380786, 0.06997875, 0.08910464, -0.04699925, -0.1008994, -0.04055506, -0.09432299, -0.05749104, 0.05973354, 0.08069927, -0.08356619, -0.02289808, 0.03151769, -0.04442868, 0.02967158, -0.09936254, 0.05986929, 0.1239228, 0.1058129, -0.00342308, -0.09405151, 0.1105408, -0.07995176, -0.000945881, -0.09737748, 0.04041748, 0.03169059, -0.09778194, 0.06889563, 0.1354317, -0.08154339, -0.1256133, -0.1150481, 0.03583559, 0.01986176, -0.01983735, 0.111525, 0.1123822, 0.07870877, 0.04977041, -0.06588383, -0.03848183, 0.03950102, 0.1152868, -0.02742619, 0.001114383, 0.06168117, -0.0004478097, 0.08597974, 0.07353098, -0.05809675, 0.0515203, 0.05540838, -0.1084325, 0.08249459, -0.1213807, 0.09858766, -0.09993128, -0.06685077, 0.004216611, -0.08661617, 0.04602548, 0.02221689, -0.1102758, -0.03475052, 0.09342984, -0.1180975, -0.1093055, -0.1119429, -0.04892348, 0.02060972, -0.01823702, 0.1280369, 0.01115845, -0.07018904, 0.07505572, -0.008088306, 0.002362132, 0.09082642, 0.1255484, 0.01398996, 0.04497691, 0.1294249, 0.01997109, 0.1302197, 0.1029813, -0.01439512],
    [-0.02023326, 0.09294225, -0.08285141, 0.03093642, 0.1096206, -0.06216902, 0.03294381, 0.116294, 0.03701235, -0.01560436, 0.1282867, 0.1250578, -0.09345394, -0.1040179, 0.06384878, -0.07669219, -0.02799304, -0.07531235, 0.09872568, 0.01752966, 0.1334174, -0.1349982, -0.1159363, 0.002505511, 0.118907, -0.01444095, 0.05401785, -0.1242035, -0.05352914, 0.1035107, -0.1305309, -0.05733323, -0.05113034, 0.04408119, 0.09166145, 0.08639479, -0.0238973, -0.03496529, 0.1002683, 0.139239, -0.05313536, -0.09148431, -0.003617778, -0.1282284, 0.1374012, 0.05231143, 0.1154216, -0.109552, 0.1226076, -0.1129719, 0.05398853, -0.1106549, 0.03371477, -0.07601143, -0.1014487, 0.03897928, -0.09556396, 0.1162827, 0.03902335, -0.09426704, 0.08316263, -0.05022834, 0.0641868, -0.04740321, -0.1159329, 0.002759874, -0.004136384, -0.06466474, 0.122374, -0.1122014, -0.09123492, -0.125312, 0.05125171, 0.01651425, -0.120555, 0.02468954, -0.05004181, 0.1258532, 0.1351282, 0.05560832, -0.07714804, 0.04457359, -0.010019, -0.01150382, -0.1329703, -1.637638E-05, -0.02256954, -0.1198046, -0.0381003, 0.1391269, -0.09838989, 0.01346143, -0.06402554, -0.1269871, -0.1361368, 0.0436425, 0.08397049, 0.09067736, 0.1384413, -0.03546483, -0.138663, 0.1186919],
    [-0.02198777, 0.04303513, -0.1390339, -0.1320813, -0.02204596, -0.1107255, -0.0377564, -0.02319467, 0.05529584, -0.01667176, -0.02758901, -0.04845418, -0.0781486, -0.04250365, -0.1109972, -0.01842859, 0.006002322, 0.04440439, 0.03552681, 0.01555265, 0.01962178, 0.08089624, 0.1288376, 0.03301986, 0.0499804, 0.04311685, 0.03493875, 0.01958956, 0.1137336, 0.04718338, -0.08315298, 0.125357, 0.04232429, 0.07015315, 0.03383446, -0.06287424, -0.04091912, -0.0479921, -0.1073006, 0.008819371, -0.09398538, 0.1308744, 0.07929007, -0.1366546, 0.01215182, -0.1260738, 0.1116315, 0.1038836, -0.05958583, 0.08556313, -0.03525828, -0.04274773, -0.03699905, 0.02332835, 0.1359477, 0.01772336, 0.081512, -0.06181988, -0.06503865, 0.04608237, -0.08927381, -0.08567508, -0.02365743, 0.08855315, -0.0661446, 0.0921846, -0.0734334, -0.07479548, -0.007836774, 0.0429735, -0.009984389, -0.09426117, 0.1008419, 0.08794023, -0.08816364, -0.05964626, 0.02587004, 0.04753637, 0.05817962, 0.011755, -0.1209312, -0.1107588, -0.03496038, 0.1362443, -0.04406856, -0.078511, -0.108012, 0.03728918, -0.1111383, 0.05066112, 0.1340975, -0.01982937, -0.09631115, -0.1164252, -0.02852403, 0.1054593, -0.09674643, 0.01730027, -0.1261127, -0.01783016, -0.1202266, 0.03863918],
    [-0.0639098, -0.08572713, -0.03773119, 0.1283355, 0.01065536, -0.1194036, -0.08195609, -0.1198891, 0.03519316, 0.095824, 0.05187945, 0.0105945, -0.06319936, -0.1141123, 0.07296283, -0.02052345, 0.1215661, 0.09676944, 0.03483876, -0.08964862, -0.1272017, -0.04839212, -0.1308184, 0.128306, 0.0261016, 0.01822187, -0.04648088, -0.1015586, -0.09738377, 0.1294632, -0.1309861, 0.06109262, 0.09657183, 0.008282304, 0.07964098, 0.09319377, 0.06976114, 0.07704197, -0.09900485, 0.0617422, -0.07693651, -0.1033083, -0.1161615, 0.1081108, -0.03442675, -0.02757859, -0.1141482, 0.1270491, 0.1341301, -0.1258068, 0.1391527, -0.07361497, -0.1076517, 0.02929116, 0.05579151, -0.04549581, 0.1291739, -0.01948898, -0.107215, -0.0189051, -0.09003776, 0.1024339, -0.01749003, -0.02613805, -0.01860974, -0.007206529, 0.1129146, 0.09396771, -0.03546102, -0.1355065, -0.08636692, 0.05632988, -0.03378735, 0.1110869, 0.1190359, 0.01528046, 0.01216832, -0.1248303, 0.06729607, 0.02848804, -0.06728952, 0.08422638, -0.0207043, 0.016613, -0.02772686, 0.09604427, 0.0555289, 0.1114347, -0.1224282, -0.09331499, 0.01123042, 0.02351454, -0.09007049, 0.1085624, -0.08584173, 0.08479737, 0.1256306, 0.06250275, -0.02523956, -0.03153875, -0.06187035, 0.03348729],
    [0.0778724, -0.09635623, -0.01643465, -0.09105828, -0.09086579, -0.07188389, 0.09171477, -0.02585715, 0.1355667, -0.04532, 0.09260742, 0.1094945, -0.01814084, -0.1157466, 0.05336386, 0.03194826, 0.01941483, -0.04838637, 0.1127206, 0.1255334, 0.1050929, 0.05711503, 0.05003021, -0.02488184, 0.09466743, 0.02694551, 0.07413705, 0.03041437, -0.1129261, 0.06104645, 0.02669045, -0.0432414, -0.06385791, 0.1219143, 0.02740109, 0.1315667, 0.02082923, 0.1384594, -0.000646323, -0.1100127, -0.09445788, 0.07440657, -0.1055772, -0.07614304, -0.1292288, -0.1246752, -0.1111743, 0.0009330064, -0.06476466, 0.09777483, -0.04841174, 0.08061419, -0.0849642, -0.124391, 0.005843744, 0.1246782, -0.0470114, -0.07025361, -0.06425306, 0.09086491, -0.0125642, 0.09971198, 0.002123281, -0.003397062, 0.06552315, -0.08528399, 0.03732578, 0.1026197, 0.122713, -0.1137628, 0.09480125, -0.07913083, -0.07460064, -0.03166746, -0.05947946, 0.08963066, 0.02963964, -0.1367655, -0.07807602, 0.09740332, 0.1201589, -0.005084068, 0.05100282, 0.02303953, 0.09391733, 0.02738085, -0.03090951, -0.0463076, 0.01390044, -0.0205532, 0.07433169, 0.02649841, 0.1152298, -0.1016501, -0.09238409, 0.0360098, 0.1175087, -0.09031463, -0.0865743, -0.1163263, -0.0990952, -0.008684233],
    [0.1115674, -0.1208021, 0.1017888, -0.009335205, -0.06143792, 0.09242949, 0.02606745, -0.0276008, -0.0995589, -0.08967173, 0.1265317, 0.1074302, 0.08165452, -0.06501511, -0.0317197, -0.04651663, -0.01428394, 0.04133745, -0.01257405, 0.05741977, 0.0723203, -0.1321545, -0.02666534, -0.02274247, -0.1141748, 0.1092294, 0.1317409, -0.02988959, 0.06721278, 0.02940881, 0.04107514, 0.05046682, 0.03121072, -0.07605551, 0.02302888, -0.138254, -0.1252016, -0.05259082, -0.1345964, 0.0925924, -0.0522629, -0.09582463, -0.09332067, 0.1294261, 0.06610586, 0.03071631, 0.07663234, -0.03983473, -0.1097167, 0.07527302, 0.009037316, -0.0151103, -0.064234, -0.04433797, 0.1085073, 0.1340945, -0.08809191, -0.03823735, 0.05167153, 0.006775498, -0.04460151, -0.09129432, 0.1134757, -0.04720704, 0.09536772, -0.1375498, -0.05359992, 0.009673163, -0.01717401, -0.1134153, -0.07707416, -0.1228902, 0.02419396, 0.04263587, -0.1072714, -0.08932678, -0.009654611, -0.1298563, 0.01223539, 0.008047968, 0.03021884, -0.1072616, -0.1349301, -0.07888083, 0.09522393, -0.123555, -0.08187343, 0.04293844, -0.09631906, 0.08130313, 0.005581707, -0.1382734, 0.0515879, -0.07864948, 0.1325478, 0.06970649, 0.03228866, 0.1005629, -0.04703443, 0.06092309, -0.01235637, -0.1084019],
    [0.09955196, 0.1329436, -0.02713066, 0.1085702, -0.06823623, 0.1287, 0.08244231, 0.1085501, 0.1234302, 0.03867547, -0.08314307, 0.09851068, 0.06768712, 0.09549709, -0.07196377, -0.09006424, 0.1235238, 0.04410229, 0.02092782, -0.04538754, -0.1209258, 0.08971106, 0.0711458, 0.05043511, 0.1137465, -0.1002682, 0.04716271, 0.01087551, -0.0417016, -0.06576237, 0.0008233041, -0.05812382, 0.04077357, -0.0309891, 0.1057232, 0.08169755, -0.1146846, 0.1074882, 0.0805961, -0.04356123, 0.01608601, 0.05201619, -0.005248889, 0.01191032, -0.03716097, 0.04802289, 0.05088941, 0.01085554, -0.1367265, 0.1352746, 0.07605153, -0.1171495, 0.05835346, -0.05574475, 0.09280901, -0.06474879, -0.1271533, 0.03924349, 0.08367579, -0.05738681, -0.1072383, 0.0738246, -0.1107251, 0.009114727, -0.1112966, -0.08681452, -0.02436322, -0.04449151, 0.018261, -0.1047527, 0.1323728, 0.01271971, 0.1151262, -0.02654232, -0.02022812, -0.1381128, 0.002603605, 0.03704173, 0.09888597, -0.03719306, 0.0721921, -0.09480141, 0.03545526, -0.09220029, -0.0776802, -0.007674992, -0.01149434, 0.1372074, 0.1259697, -0.06922172, -0.04511482, -0.06505311, 0.004278436, 0.005256236, -0.02278791, 0.1133021, 0.03084695, -0.02174956, 0.01109214, 0.1039585, 0.007820651, 0.08487977],
    [-0.02580594, -0.09371097, 0.04607802, -0.02933506, 0.1219044, -0.0210077, -0.1112876, 0.1073445, -0.02974313, -0.05933902, 0.1378027, -0.06521943, 0.08966698, -0.01634559, 0.1189125, -0.114322, 0.1085697, 0.0104855, 0.04514271, -0.0162497, -0.03025205, -0.003921211, 0.04633472, -0.02824974, 0.1394727, -0.1179176, -0.002985731, 0.01785884, 0.01473919, 0.04089944, -0.1036861, -0.01483406, 0.02593841, -0.05972081, -0.08032669, 0.03223281, -0.01079364, -0.08339639, 0.06358086, 0.06131787, -0.0008751452, 0.04577956, -0.06447838, -0.1226544, 0.117758, 0.130261, -0.00206095, -0.1322707, 0.02172536, -0.07465607, 0.0305388, 0.04268117, 0.02526332, -0.05102241, -0.04014966, -0.06182415, -0.07945988, -0.10794, -0.09229888, 0.07484062, 0.01238008, -0.01885669, 0.04877686, 0.1242846, 0.08365476, 0.1273528, -0.04636523, 0.1380613, 0.04368627, 0.07459173, -0.1309459, 0.0963126, -0.09049094, -0.003020719, 0.1327474, 0.04142432, 0.03113252, -0.08528213, 0.1286536, -0.01353067, -0.1200383, -0.02737908, 0.03108515, 0.07090389, 0.007422492, 0.1156243, 0.1189716, 0.03794193, -0.09725243, 0.06439543, -0.05423674, 0.1350899, -0.1095525, -0.05051605, 0.1047685, 0.05237746, -0.1267588, 0.1113381, 0.1069288, -0.03926158, -0.08088101, 0.1192605],
    [-0.09101449, 0.06277303, -0.1193593, -0.1056173, -0.06703612, -0.02071989, 0.01024236, -0.05778222, -0.06588157, -0.07174224, 0.08178142, -0.1344371, -0.065688, 0.03000744, 0.09823769, -0.08462988, 0.09191031, -0.06241066, -0.118586, 0.004320234, 0.07607764, -0.005929142, 0.006146982, 0.01367974, 0.06565426, -0.0410594, 0.08330675, 0.1375317, 0.0842602, 0.05670179, 0.001136184, -0.0870782, -0.0803148, 0.04402296, 0.05457188, -0.1127472, 0.1399951, 0.0635005, -0.1374817, -0.02720872, 0.1078297, 0.02016145, -0.06733309, 0.06261256, 0.1049914, -0.07047676, -0.07903472, 0.07158355, -0.001092821, -0.02335927, -0.0154122, 0.08141157, 0.1181501, 0.1165058, -0.01910451, 0.03331352, -0.006548077, -0.1162112, 0.0893331, 0.0943727, 0.0310965, 0.01045625, 0.1306506, 0.09031866, 0.006646886, -0.04855904, 0.1364804, 0.0308801, -0.06727859, 0.05452206, -0.05982103, 0.0735018, -0.01524815, -0.04020908, -0.005764991, -0.05516552, -0.05282705, 0.01128364, 0.03849095, -0.0843839, 0.00646922, 0.03320925, 0.03030707, -0.04292427, -0.02837283, -0.1123351, 0.1166731, -0.03388704, -0.05314401, 0.1041328, -0.03742692, 0.0745507, 0.03991967, -0.1365447, 0.03550861, 0.1364566, -0.01369894, -0.1267433, 0.04629704, -0.06003977, 0.05218603, -0.07252969],
    [-0.0720236, -0.06438857, 0.1335899, 0.07485928, -0.1171206, 0.0819193, -0.0934253, -0.1106751, -0.08069283, -0.1327498, 0.1137392, -0.06392132, -0.03698303, 0.0930649, -0.05708304, -0.08238292, -0.05819316, -0.05414714, 0.005837336, -0.003092334, -0.04217787, -0.031053, -0.03060283, 0.09286793, 0.01835752, -0.1028772, -0.04238146, 0.0481619, 0.05330971, -0.07048851, 0.03047383, -0.06838569, -0.07578535, 0.1172771, -0.1257132, 0.01831485, 0.0276878, 0.08576491, 0.1098313, 0.08123192, 0.08445584, -0.01931931, -0.07273994, -0.06456405, -0.01447737, 0.02935138, 0.01503117, -0.0435801, 0.02573623, -0.05856224, -0.05341676, 0.1011899, -0.1114408, 0.006724507, 0.06066459, 0.05238594, 0.08791533, 0.0297019, 0.07690352, 0.08740847, 0.08992806, 0.1092555, -0.004692346, -0.06532784, -0.07144383, -0.0852384, -0.1367718, 0.09996144, -0.02496342, 0.01118642, -0.03613487, 0.009184241, -0.1288494, 0.06084033, -0.02153452, -0.08741762, 0.1255728, 0.08647391, 0.1018622, 0.05634607, 0.0168079, -0.1164622, -0.05277771, -0.1392786, 0.1273562, 0.1351595, -0.06681709, -0.05359291, 0.04997008, -0.06876725, -0.09722878, -0.1039386, 0.1165803, 0.04579632, -0.1085917, 0.1025843, 0.1081295, 0.1312821, 0.01762791, 0.1269947, 0.01944881, 0.1015205],
    [0.08467438, -0.0452344, -0.08512092, 0.02026795, 0.02350322, -0.129144, 0.04808845, -0.1315871, 0.005976215, 0.0796716, -0.105399, -0.1075297, -0.05902997, 0.07266743, -0.05072789, 0.127996, -0.08834079, 0.09258813, 0.1361519, -0.06931554, 0.08485663, 0.09442435, -0.0328545, -0.004740328, -0.05475979, -0.02102914, 0.02345608, -0.1265023, 0.06155227, 0.1163, -0.1131002, -0.03154924, 0.01546825, 0.0842145, 0.03025997, -0.04409089, -0.1390428, -0.1166914, 0.09641673, 0.004694521, -0.04380865, 0.03635743, -0.04924631, 0.07855646, -0.1252936, 0.0155416, -0.03332046, -0.05052977, -0.007251903, -0.02135144, -0.00583373, -0.008324876, -0.008216769, 0.09070517, -0.01694225, 0.03689611, -0.130328, 0.1073684, -0.03118281, 0.07675917, 0.006723315, 0.08037829, -0.07492448, -0.08054303, 0.03982339, -0.0297901, -0.006171316, 0.00982146, -0.001511708, 0.01789086, -0.03581635, -0.07059294, -0.04859296, -0.08795226, -0.05310331, 0.04029657, 0.07804063, -0.01086159, 0.1253621, 0.09210384, -0.1352354, 0.002806112, 0.0240723, 0.1274566, 0.1113281, 0.05161955, 0.1399741, 0.1400274, -0.01366842, 0.08453043, 0.01411892, -0.05595875, 0.1069027, -0.06370343, 0.0190548, 0.05545862, 0.01063958, 0.03171233, 0.1087888, 0.08843149, -0.04368062, -0.07365698],
    [-0.1299482, 0.06969648, -0.08287692, -0.1028389, -0.1080903, 0.1225969, 0.08040624, -0.1003686, 0.1178763, -0.04492843, 0.00385882, -0.1212483, -0.02388789, 0.1395306, 0.06622651, -0.09754041, 0.02407087, 0.06659956, -0.09865664, 0.09073832, -0.08111738, -0.09802639, 0.0007926822, -0.1272884, -0.02620012, 0.07850806, -0.107213, -0.1008984, 0.06122987, -0.0969626, 0.07980267, -0.09536178, 0.001231059, -0.04085465, -0.03271002, -0.02340844, 0.1341056, -0.06697072, 0.02015274, 0.01764737, 0.1260173, 0.07611326, 0.07826297, -0.07172184, -0.118411, 0.02666037, -0.1312934, -0.1096184, 0.005224884, 0.1342607, 0.07490094, -0.1131408, -0.01899591, -0.03275131, -0.08801788, 0.1024328, 0.04209406, 0.1329661, 0.02859324, 0.0470042, 0.136054, 0.07003597, 0.09882277, -0.09284236, -0.05210913, 0.05545642, 0.005414441, 0.01175764, 0.05579735, -0.1220277, -0.02855925, -0.09917401, 0.1103861, 0.04824617, 0.08769488, -0.07381997, 0.03329659, -0.1019939, 0.03639536, 0.07788204, -0.07060473, -0.1381994, 0.06374535, 0.01265535, 0.06715071, 0.01417057, 0.0213955, 0.1223339, -0.08565748, 0.01985127, 0.01668865, 0.03271034, 0.08616243, -0.1090678, 0.1051898, 0.07340528, 0.1226016, 0.0186257, 0.07461794, 0.09591815, 0.09826393, -0.1228606],
    [-0.08196016, -0.04298724, 0.1039574, -0.0493461, -0.05510609, 0.001912087, 0.0380072, -0.01084866, 0.1204815, -0.1178585, -0.1114797, 0.03144007, -0.08063737, -0.09908958, 0.08344798, 0.1081963, 0.07204556, -0.06907934, -0.1289002, -0.0619854, 0.02578914, -0.1344831, 0.005929872, -0.03084758, -0.07761671, -0.007537082, 0.0008119792, 0.01162197, -0.04057568, 0.004958794, -0.03674045, 0.08852564, -0.07769753, 0.06986958, 0.0156261, 0.05283193, -0.06616701, -0.01672938, -0.009330973, -0.1198672, -0.02681324, -0.05665648, 0.1316316, -0.1044398, 0.06033751, 0.1123267, 0.02586235, 0.004740328, 0.09858823, 0.06551971, -0.0005131513, 0.08704998, -0.04280756, 0.03272397, 0.08806396, 0.02642083, -0.09979485, 0.01866516, 0.06400833, -0.06582063, 0.1257658, -0.01139866, 0.1163333, 0.04828229, -0.01901464, -0.02608621, -0.1021257, -0.105728, 0.02548654, -0.08153394, 0.0007283092, 0.02894565, 0.1139543, -0.001700595, 0.09874457, 0.03236628, -0.06905724, -0.1126471, -0.07511832, 0.06290348, -0.09868135, -0.0387612, -0.03155708, 0.08149717, -0.03091055, 0.1279987, 0.06330657, 0.07637874, 0.002266407, -0.03938864, -0.06297828, 0.1242304, 0.1306446, 0.04054188, 0.09418651, -0.03536718, 0.1149592, -0.005170256, 0.1331469, -0.09664635, -0.09309746, 0.1280071],
    [0.05494125, 0.02269606, 0.02029176, -0.1327055, -0.08930042, -0.1166231, 0.03368353, 0.06199769, 0.0944332, 0.09095499, -0.1384052, -0.04291649, -0.0390024, 0.1384549, 0.1390864, -0.1088946, -0.0002314448, -0.05568199, 0.0873189, 0.02441768, 0.03945846, -0.139945, -0.1186387, -0.0009425133, 0.05608032, 0.08156504, 0.03167123, 0.07668592, 0.09412275, 0.1240008, 0.1385343, -0.1194744, -0.05164962, -0.1081513, 0.123599, -0.08939336, -0.0009054244, -0.09302208, -0.07266399, -0.120408, 0.005702317, -0.02693927, -0.08281744, 0.008428335, -0.06507221, -0.05682908, 0.1048198, -0.06350797, -0.01706858, 0.08752398, -0.02417259, -0.0862119, -0.1059377, -0.07988746, 0.06856993, 0.0187772, -0.0441801, 0.005019695, 0.1350156, -0.02859788, -0.1040194, -0.04258598, 0.1374815, 0.1178535, 0.1095349, 0.09225337, 0.01849015, -0.02430306, -0.05853276, 0.003930733, -0.02956389, -0.1328772, -0.09008694, -0.009298414, 0.07220204, 0.0850902, -0.04087692, -0.1170551, -0.03719363, -0.1129137, 0.08776018, 0.1226221, 0.06239728, -0.0004711896, -0.07659417, 0.1095562, 0.09525795, -0.06925257, 0.03483863, -0.1027772, -0.0668548, -0.0273935, -0.08130625, 0.1163737, -0.1250395, 0.0486937, -0.1264719, -0.01549409, 0.1282545, -0.07147735, 0.03384508, 0.05034146],
    [-0.008653775, 0.1086179, 0.0266588, -0.1316094, 0.05153929, -0.04786009, 0.0953985, -0.06523776, -0.09541804, 0.09316937, 0.1319835, 0.02273085, -0.1370881, -0.06613873, -0.02723429, 0.02780862, 0.0004611611, -0.0774236, 0.1297507, 0.1215068, -0.06901146, 0.06854699, 0.005599156, 0.1057035, 0.1383888, 0.1175498, 0.06471249, 0.04504479, 0.0365539, -0.03421255, 0.1236799, 0.05284789, -0.02723546, -0.05869591, 0.09422414, 0.01216966, -0.1046691, -0.03615641, 0.01582344, 0.005080894, -0.1274322, 0.1274742, -0.004311323, -0.06149426, 0.01319519, -0.04434602, 0.06423362, -0.1063042, 0.07143669, 0.08040207, 0.0408344, 0.07844429, -0.0522818, 0.1269382, -0.04021379, -0.04066122, -0.05778673, 0.05050431, 0.03592629, 0.01107475, -0.1056654, -0.08892921, -0.08457766, 0.07119094, -0.1261747, -0.0508274, -0.09644496, -0.03525721, 0.0806137, -0.08230974, 0.08716072, -0.08453982, 0.02429846, -0.05081606, 0.04874487, -0.01935974, 0.0589565, 0.04312466, 0.1098654, -0.03505954, -0.05159026, 0.0005573183, 0.03859228, 0.05128836, -0.02275239, -0.0007048398, 0.09784435, 0.1302668, 0.01803108, 0.00413999, -0.02579121, -0.04679459, 0.1067837, 0.1256511, 0.07355051, 0.09755302, -0.1375412, 0.06213969, 0.001604408, -0.05410217, -0.1164085, 0.1236979],
    [-0.1140315, 0.0897647, -0.1315672, -0.1296398, 0.004575104, -0.06864253, -0.08175884, -0.006263331, 0.08900385, 0.03379907, 0.05582095, -0.07910278, 0.1306161, 0.131882, 0.05074663, -0.09595887, -0.136997, 0.03714019, -0.06360301, -0.01432414, 0.04081567, -0.0538705, -0.05870372, -0.07579383, 0.1109886, -0.09604058, 0.1010474, 0.02063005, 0.1096168, 0.05865913, 0.1113592, -0.02137304, -0.04849584, -0.1303222, -0.05024216, 0.1066497, -0.07648544, 0.09754241, -0.07406361, 0.1082987, 0.04663593, 0.1164061, -0.0255421, 0.01362652, -0.05334258, -0.04453434, -0.0167447, 0.1314207, 0.00649783, -0.08911102, -0.07410865, 0.07109468, 0.1359523, -0.06417221, 0.07166187, 0.0693042, 0.1259178, 0.009607702, -0.04992864, 0.0287849, 0.1093761, -0.09216705, -0.04373046, 0.005481914, -0.1203602, -0.09279501, 0.128567, -0.1340099, 0.04814751, 0.0671211, -0.02179029, 0.03075631, 0.1329611, 0.02248717, 0.07942885, -0.03640019, 0.1156093, -0.01743104, -0.02199921, 0.036186, 0.09740706, -0.03342934, 0.01567194, -0.09808041, -0.1346392, 0.07967818, -0.1098488, 0.1196036, -0.09130032, 0.03501137, 0.0657465, 0.1070156, -0.09270565, 0.06986718, 0.03644674, -0.06874168, -0.1180073, 0.05113112, 0.1364287, -0.119926, -0.08122198, -0.01250811],
    [0.0776004, 0.03744652, 0.1216971, -0.03427882, 0.08827686, 0.1313706, 0.03599634, 0.09553809, -0.0676447, 0.09941365, -0.1163466, 0.08721968, -0.1157577, 0.1185718, -0.1023442, 0.05527951, -0.05045105, -0.1035676, 0.02142278, -0.114466, 0.09046596, 0.08042537, 0.136851, -0.09983107, 0.1200839, 0.08806382, 0.02195127, 0.09230232, -0.05181294, -0.1274794, -0.08314598, 0.03839995, -0.0763471, 0.01722331, 0.104438, -0.1128702, -0.07032272, -0.09842391, -0.08458781, -0.04882165, 0.06388494, -0.03146925, -0.08833097, -0.008411035, -0.08371606, -0.04375807, 0.1022462, -0.07447067, 0.0381126, -0.1204779, -0.1066102, 0.1376457, 0.1288394, -0.001398727, -0.01564837, 0.07356744, 0.03500575, 0.02578437, 0.08338922, -0.1319378, 0.1250988, 0.01375242, 0.01724786, -0.1227829, 0.0698838, 0.03934004, -0.1138922, 0.05406676, 0.04171083, 0.1203498, -0.09673838, 0.0102707, -0.06023187, 0.09918393, 0.0648703, 0.1291788, 0.005294755, -0.05831131, -0.1239135, -0.008072749, -0.06079104, 0.04844601, 0.12645, -0.03202127, 0.08526216, 0.044436, -0.1130784, 0.08538452, -0.1263539, -0.002785146, -0.09405355, -0.12771, 0.1191709, 0.008291051, 0.08051691, -0.134989, -0.02281936, -0.04138094, -0.0219692, -0.07526775, -0.005255267, 0.09555785],
    [0.07700224, -0.05432308, 0.009991094, -0.06088555, 0.1163884, -0.1362015, 0.02384178, 0.07235973, 0.06255914, 0.03505691, -0.07991147, 0.1153729, -0.008372948, 0.1388973, 0.07067647, 0.0821979, 0.1366454, -0.003875479, 0.07651759, 0.06360199, 0.03194185, -0.1222215, -0.01755847, 0.05065922, -0.0344591, 0.05544033, -0.008022562, 0.1302912, -0.01699156, -0.09083664, 0.1217873, -0.1153786, 0.07031982, -0.09598207, 0.08942538, -0.1383435, 0.09337369, 0.1264486, 0.006248638, 0.007634729, -0.03756123, 0.1054099, 0.08444215, 0.08582187, 0.02478268, 0.1106321, 0.03273989, 0.05940319, 0.1306475, -0.08864591, -0.1082461, -0.09609312, 0.06256782, 0.08848675, -0.1346859, 0.01232593, 0.09778939, 0.08659584, -0.1299946, 0.1059446, 0.02027597, 0.08168947, 0.0478363, 0.05619647, -0.004953489, 0.09629847, 0.02358398, -0.1107241, -0.0835031, -0.03942319, -0.02981227, -0.04002576, 0.003047332, -0.1132696, 0.09043084, -0.1327512, -0.01375872, 0.1003101, -0.03680652, -0.1147189, -0.01860263, -0.130709, 0.004777282, 0.05431748, 0.06302349, -0.1323902, 0.03234678, -0.01380239, 0.02034688, 0.0329836, -0.01502806, 0.1286076, 0.1393382, 0.05665248, 0.04139053, 0.01666872, -0.09864011, 0.1400169, -0.1122698, -0.02061396, -0.1292783, -0.1323449],
    [-0.103575, -0.01454879, -0.04527032, 0.03917345, -0.07326002, -0.1136963, 0.1050959, -0.1051138, 0.01808609, -0.1192216, 0.1306679, 0.1135668, 0.108405, -0.130798, -0.1330222, -0.08370151, -0.08505902, 0.03092293, -0.002503574, -0.01662689, -0.08032745, 0.04930247, 0.02546454, 0.08150852, 0.01857552, 0.05972643, -0.08425803, -0.007589996, 0.02879405, -0.001857713, -0.1287289, -0.05506913, 0.06261583, 0.1097697, -0.07957759, -0.08009733, -0.08055848, 0.02376443, 0.04921297, 0.083424, -0.04802077, 0.04070854, 0.01993647, -0.09726958, -0.0694617, 0.02420421, 0.08407342, 0.006821066, 0.09527577, -0.08867508, 0.009275585, 0.07190852, -0.1159932, 0.0484384, -0.03297823, 0.01197833, 0.05344312, -0.1108842, -0.01776415, -0.1154517, -0.1049314, -0.1059095, -0.07595515, -0.03436084, 0.1308229, 0.06451742, 0.03647254, 0.123296, 0.01027538, -0.02712993, 0.02725105, -0.1014049, 0.01639673, 0.02800512, 0.05760216, -0.09618387, 0.120036, -0.05500831, 0.04083934, -0.03593153, 0.06666376, -0.004958868, -0.02454584, 0.006457895, 0.1171603, -0.01407686, -0.06750698, 0.0815351, 0.1272475, -0.1325737, 0.08506189, 0.1155704, 0.1009646, -0.1279746, -0.1107499, 0.01504323, 0.06359044, 0.07027812, 0.08397222, 0.04998631, 0.1374823, 0.06442033],
    [-0.02728667, 0.04250106, 0.05568661, 0.08052162, 0.1220519, -0.04326737, -0.09966704, 0.08692034, -0.03940132, -0.1327692, 0.004802093, 0.07041022, -0.07608846, -0.0908719, -0.09629814, 0.02645261, -0.1390713, 0.09107131, -0.01666759, 0.05294822, 0.02551141, -0.007944047, 0.007410944, 0.0638841, 0.1370768, 0.01344441, 0.06549241, 0.1296035, 0.1021483, 0.0929307, -0.02586609, -0.1350502, 0.03277728, 0.1385438, -0.03291226, -0.1171056, -0.03618445, 0.09947288, -0.03424363, 0.1054601, 0.1029249, -0.1178851, 0.07585886, -0.1345638, 0.02436303, 0.04132403, 0.06435647, -0.08173244, 0.007789373, -0.06071265, 0.02274173, -0.09317224, -0.137992, -0.08554965, 0.05652872, -0.05230811, 0.1012788, -0.1114908, -0.120324, 0.01842195, -0.05575524, 0.1360979, -0.02851371, -0.03337501, -0.1325997, -0.04236367, 0.1295726, 0.08704975, -0.001731575, 0.1192268, 0.03550664, 0.05558108, 0.06320348, 0.1318019, 0.1108264, 0.1095433, 0.09115791, -0.1368949, 0.03414598, 0.04570354, -0.101785, -0.003939375, -0.1396514, 0.05343063, 0.008237064, -0.08256765, 0.06581928, -0.04001859, -0.1301545, 0.001136884, 0.1202786, 0.06375162, 0.04517309, 0.02825405, 0.1074205, 0.001740351, -0.09900232, -0.1064586, 0.02102697, 0.0673106, 0.1274505, -0.1063827],
    [-0.06056252, 0.05175389, -0.1118661, 0.01813109, 0.1177301, -0.06601471, -0.09346189, -0.006744608, 0.07019836, -0.0887506, 0.09667893, 0.02834085, 0.1328426, -0.08553889, 0.1098688, -0.0458373, -0.0551718, 0.0811512, 0.08481386, -0.07019286, 0.096596, 0.05505169, -0.07820319, -0.08544205, -0.1185071, -0.09125812, -0.07529332, 0.09796907, 0.1045646, 0.07419111, 0.00681071, 0.07019966, -0.1364099, 0.008921161, -0.07945611, 0.02888933, -0.01100744, 0.07159313, -0.1296685, 0.00305827, 0.07202944, 0.03373064, -0.1304825, 0.007632688, -0.1341617, -0.1005789, -0.1120474, 0.02304828, -0.05362636, -0.08677031, 0.00806132, -0.1192099, 0.1053127, -0.1132881, -0.03698547, -0.02144912, -0.06981358, -0.06817286, -0.1351317, -0.0523476, 0.128191, 0.08671422, 0.05875732, 0.09971786, 0.1167552, -0.01954623, -0.008541346, 0.1191517, 0.007828593, 0.1123345, 0.04782354, -0.0009763092, 0.06388647, -0.04460625, 0.1063185, -0.0888813, 0.03462332, -0.09917247, 0.01444179, 0.002207249, 0.06526041, -0.07558875, -0.07240666, 0.09020786, -0.06285499, -0.07028222, 0.09332651, 0.08073813, -0.1364733, -0.05227155, 0.0262755, 0.1018241, -0.0699341, -0.08346012, -0.08115494, -0.13506, -0.09192577, -0.06105749, 0.008787364, -0.0500095, 0.05375598, -0.0248173],
    [-0.07088256, 0.1085773, 0.03099278, 0.01549349, 0.07184529, 0.09139925, -0.07993832, -0.06782314, 0.1348682, -0.07907644, 0.1136946, -0.07573023, 0.07930723, -0.1190932, 0.0786677, 0.1092624, -0.09284373, -0.04500902, -0.04274149, -0.08336952, -0.09395005, -0.1245847, -0.001522213, 0.02227384, -0.07941924, -0.1009944, 0.04799144, -0.08911513, 0.0594279, -0.1011246, 0.09293461, 0.1019185, 0.09815766, 0.07998852, 0.09801307, -0.09310514, -0.03671491, 0.08355771, 0.03877613, -0.09734808, 0.05361361, -0.1331842, -0.05882418, 0.03531418, -0.09212238, 0.07060947, 0.03860226, -0.06601126, -0.08383885, -0.1107211, 0.0392263, 0.01319104, 0.1382906, 0.1182316, -0.04765587, -0.07740945, -0.08904348, -0.08682774, 0.0167166, 0.08276341, 0.06533623, 0.01900762, 0.03975753, -0.03296417, -0.09087621, -0.07869329, -0.009715065, 0.04510578, 0.12127, 0.02607442, 0.137639, 0.09967943, 0.02252236, 0.08994745, -0.02079992, 0.109394, -0.01881823, 0.03037815, 0.0727277, 0.09420304, -0.1176844, -0.0915654, 0.05040817, 0.04919087, -0.07989992, 0.0905996, 0.1321648, 0.1141022, -0.04713769, 0.0685964, 0.136255, -0.0766747, 0.06167115, 0.09725082, 0.1111792, -0.05071796, -0.06792226, 0.0277063, -0.1110375, -0.04193239, 0.01495372, 0.06846443],
    [0.1090595, 0.05934046, -0.06037997, 0.100063, 0.02832589, -0.1240187, -0.07663874, -0.05707325, 0.1028023, 0.004060268, 0.07341193, -0.04375603, 0.04661129, 0.07005804, -0.01399502, -0.0915346, -0.09877446, 0.0757966, -0.03754734, -0.04704292, -0.04715772, -0.09686151, -0.02125536, -0.06116766, -0.07839167, 0.09618326, -0.02121195, -0.002997041, 0.02173257, -0.01819262, -0.1278571, 0.1196907, -0.1358223, 0.02733959, -0.04242603, 0.00456515, 0.09250954, 0.1180671, 0.00315322, -0.01159279, -0.09649087, -0.1084977, 0.1068274, -0.01642938, -0.008286715, 0.09567787, 0.06300467, 0.1379136, -0.1326035, 0.07241555, 0.05847351, -0.03331966, 0.05178104, 0.1333373, -0.1339124, 0.1114163, 0.07315993, 0.04104687, 0.0398706, 0.1183594, -0.03785602, -0.115519, -0.04703477, -0.01773815, 0.0664559, 0.04398173, 0.03759222, -0.04034219, 0.1367473, 0.009195328, 0.06110644, -0.001738757, -0.07164815, 0.1063222, -0.02961683, 0.0332386, 0.09746863, -0.03980261, -0.01139525, 0.0733287, 0.04428728, 0.03441724, 0.01979535, -0.08349338, -0.08223172, -0.05644117, 0.1187656, -0.1215104, -0.02543089, -0.1369411, 0.1358178, -0.04502257, 0.07338268, 0.03340913, 0.1394271, -0.06324899, -0.03699284, 0.08075368, -0.0513197, -0.01144463, 0.1256671, 0.1301474],
    [-0.02028762, -0.1156522, 0.07845891, -0.08467118, 0.1082813, -0.08479553, 0.1108155, 0.07391534, 0.05116384, -0.1042812, 0.04440662, -0.08971049, -0.04564114, 0.07517985, -0.00658223, 0.1054812, 0.1120446, 0.07439619, -0.1367685, -0.04893619, -0.04334433, -0.1178163, -0.1143873, 0.08771117, 0.08846538, -0.1139854, 0.1264011, 0.05983133, -0.08840425, -0.02544715, 0.05455522, -0.09368782, -0.06122428, -0.1117036, -0.0834673, 0.1155659, -0.09229961, 0.0008279085, 0.006088585, -0.1124895, 3.343821E-05, -0.01561227, 0.01452918, 0.005749598, -0.08174086, -0.01877509, -0.07574506, -0.03329636, -0.08692288, 0.02275178, 0.006772548, -0.04700899, 0.103687, 0.02174422, 0.002226576, -0.04678648, 0.05435941, 0.1270254, -0.01247759, 0.05443586, 0.1205446, -0.03406986, -0.1311463, -0.1223379, -0.04913788, -0.0994629, 0.01063372, 0.1210103, -0.1229854, 0.1141401, 0.1307925, 0.05621947, -0.06083961, -0.1357122, -0.09996821, -0.05344211, -0.04025121, 0.08401652, 0.03153539, 0.1065287, 0.116972, -0.1211482, -0.06515567, -0.1317686, 0.008687541, -0.1323124, 0.06201729, -0.1059239, 0.09307957, 0.1250698, -0.1359609, -0.05325715, 0.03013153, -0.08940679, -0.1276219, -0.1326074, -0.1322928, 0.05406732, -0.1336459, 0.1107812, -0.1084426, 0.03954236],
    [0.07298005, -0.04540453, -0.00411956, 0.01971413, -0.002905041, 0.009283796, 0.1051105, 0.00424245, -0.1371294, 0.05095241, 0.03670437, 0.04463425, -0.1007826, -0.1263738, 0.122112, 0.08352426, -0.1051465, 0.03789706, 0.1168242, -0.06359838, -0.01395603, -0.05535632, -0.04404478, 0.01682103, 0.1246353, -0.0726423, -0.06453159, 0.06973754, -0.03657039, -0.1296992, 0.1286319, 0.06679223, -0.1298931, 0.1071275, 0.03127922, -0.07772985, 0.03151432, 0.007493541, 0.1236231, -0.06216431, -0.1025065, 0.04516707, -0.007388473, 0.1010234, 0.06788787, 0.1071282, -0.01601821, 0.09415737, 0.02344937, 0.09623454, -0.1000797, 0.04322813, -0.1334316, 0.1381385, 0.04844718, 0.004341036, -0.01970127, -0.07553139, 0.03105877, -0.13096, 0.005017161, -0.09305796, 0.09032814, 0.07738671, 0.09370731, 0.1081225, -0.03874914, -0.003936306, -0.0429621, -0.006051198, 0.1326627, 0.07629858, 0.05028584, 0.1255393, 0.09425399, 0.009567872, -0.05205745, -0.133879, 0.1096479, -0.01307379, 0.02008764, 0.005769163, -0.09555401, 0.08240075, 0.0306229, -0.04780099, 0.08727263, 0.1271348, -0.0435431, 0.06776518, 0.09126283, 0.06876557, 0.1362176, 0.04671047, 0.03256956, -0.07806009, 0.061658, -0.1235785, -0.1272901, -0.06885184, -0.1051785, -0.02268632],
    [0.1123049, -0.01087438, 0.1161742, -0.04433623, 0.127187, 0.09087594, -0.09640166, -0.1369564, -0.06583859, 0.03887635, -0.1318675, -0.02873079, -0.1080667, 0.1332672, 0.1252254, 0.09185399, 0.03747197, -0.09430628, -0.110549, 0.08998929, 7.259846E-05, 0.04095903, 0.1084815, -0.1347558, -0.06887993, -0.03843632, -0.08406003, -0.03236477, 0.1044488, -0.1312651, 0.04482388, -0.1194427, 0.07879944, 0.10256, -0.02447447, -0.003858894, -0.1316358, 0.122886, 0.0703535, -0.1331882, -0.01708824, 0.03456206, -0.06589928, -0.02387099, 0.04197197, 0.1310891, -0.04552492, 0.07304291, 0.08340524, -0.1038109, -0.1042956, 0.05573395, 0.09365205, 0.06128462, -0.1247245, -0.1186486, -0.04220943, -0.01515363, -0.04232067, -0.1219552, -0.1284398, 0.03600078, -0.1067466, -0.1311852, -0.04694302, 0.1360249, -0.04293579, 0.06656291, -0.1128388, -0.109161, 0.1391944, -0.04206777, -0.09295861, -0.04591189, -0.08596352, 0.04319871, -0.1381215, 0.03348792, -0.07052727, 0.0187978, -0.1385555, -0.02217739, 0.06917597, -0.1150747, -0.001198322, -0.08975466, 0.09573457, -0.1044059, -0.1162709, 0.03404412, -0.1195242, -0.1008319, -0.07263525, 0.0607794, 0.02303416, -0.08745481, 0.0695208, 0.04362688, -0.06914124, -0.1280607, 0.07460168, -0.02354365],
    [-0.01598499, 0.03272374, 0.09066007, -0.1123195, 0.1100016, 0.0383906, -0.0319981, -0.1109623, -0.09339365, -0.09958091, 0.05535703, 0.09163688, -0.08745074, -0.01482555, 0.1328128, -0.1043708, 0.04475183, -0.08078463, -0.07561924, 0.07940498, 0.06081826, 0.04181746, -0.09244707, -0.005373076, -0.04797162, 0.1245111, -0.07762188, -0.05047606, 0.05636002, 0.03811834, 0.1310038, 0.02535203, -0.06171214, 0.01394682, -0.05743432, -0.03643805, 0.01207353, -0.09045932, -0.06813499, -0.1322621, 0.1011675, -0.01423597, 0.08546635, 0.1134101, 0.08553105, 0.1294446, -0.08581012, -0.08781724, -0.0523471, 0.02833727, -0.06297517, -0.0297437, 0.1261144, -0.05291322, -0.1360073, 0.067936, 0.1077118, 0.06085168, 0.09353083, 0.114786, 0.1112687, -0.04700242, 0.01776479, -0.03987944, -0.02026041, -0.03398803, 0.07736107, -0.1275853, 0.04957486, 0.08875012, -0.08904532, 0.1366894, 0.08814786, 0.007406279, 0.0003030598, 0.03968418, 0.0870882, -0.01548758, -0.1132834, -0.07577752, 0.1077317, -0.1327726, -0.08590129, 0.08575606, 0.1200322, 0.1323127, -0.1378737, -0.08857509, 0.1297353, 0.1043872, 0.01255138, 0.1357994, 0.02052833, -0.07833259, -0.02794653, -0.08409706, -0.05148008, 0.08891034, -0.02615659, -0.08050193, -0.0170847, 0.01706487],
    [0.1180048, 0.06144374, -0.035917, -0.03163597, 0.02331126, -0.09709077, 0.07819126, -0.002810121, 0.05622635, 0.003889233, 0.004977465, -0.09518811, -0.06207331, -0.09324025, -0.03102957, 0.07952744, -0.008586749, -0.03349166, 0.1067812, -0.001572236, 0.02517008, 0.02821182, -0.08854598, -0.02630715, 0.06906863, -0.07451063, -0.1366241, -0.02742516, 0.08244989, 0.03111303, 0.03718816, 0.1037624, 0.109738, -0.07969594, 0.02933436, 0.1068389, 0.07194754, -0.09041986, -0.05823429, -0.09007154, 0.06362376, 0.04506585, -0.00527215, -0.05315208, -0.08490147, 0.1296774, -0.08693174, -0.114802, -0.06125052, -0.00663203, -0.01031116, -0.01142386, 0.1238268, 0.09443748, 0.1166435, -0.0561568, -0.03158082, 0.01816247, -0.124632, -0.1286611, -0.03918522, -0.1342701, 0.1337893, 0.06004696, -0.06023217, -0.04613173, -0.04959265, -0.04372291, -0.1121704, 0.004363611, -0.05886314, -0.02491358, -0.01177177, -0.1195836, -0.03810484, -0.04697801, -0.07991274, -0.02468179, -0.04830718, 0.03886897, -0.07646278, 0.08875039, 0.09508471, 0.1258615, -0.04093881, 0.01903443, 0.09770502, -0.1204827, 0.0007982254, -0.07956885, -0.1255153, -0.009929627, -0.006110355, 0.03128486, -0.1257448, 0.1369457, -0.1252164, -0.05726709, -0.1119516, 0.09793341, 0.02065733, 0.09344283],
    [-0.1106376, -0.09757206, -0.09666622, -0.1007609, 0.04691529, 0.03973195, -0.06650971, -0.07812209, 0.0869989, 0.01276056, 0.1116059, -0.06232339, -0.03450066, -0.09318663, 0.02659944, 0.05828508, 0.09539106, -0.1371992, 0.01381648, 0.05143132, 0.1112868, 0.03294194, -0.08794327, -0.1054585, 0.1304166, -0.04015486, 0.1355568, -0.06811257, 0.1262543, 0.06016434, -0.09091219, -0.108921, -0.04136284, 0.01537304, 0.1139403, 0.1355059, 0.01784425, 0.1347475, 0.1251918, 0.09255081, 0.1093128, -0.01187259, 0.02986001, -0.1122395, -0.03443279, -0.007205188, -0.1207476, -0.1131858, -0.03976375, 0.1254672, -0.0222435, -0.1042458, -0.0385911, 0.1189439, 0.04533277, -0.1114625, -0.06526907, 0.1296189, -0.1339682, 0.0005427301, -0.07969701, -0.001860648, -0.08508281, -0.1332937, 0.06081339, -0.1242044, -0.09468496, -0.09952937, -0.0939603, 0.1244971, 0.08731917, -0.1158451, -0.002772331, 0.1400069, 0.08857141, -0.02481413, -0.1016765, 0.0006150454, -0.01114409, 0.06843675, -0.1051053, 0.01630926, -0.08913609, 0.07316744, -0.0280703, 0.02089332, 0.1361346, -0.1059337, -0.121899, -0.123843, -0.1030326, -0.1259588, -0.06791753, -0.01882684, 0.02167928, -0.1023185, 0.08577112, -0.1311447, -0.0440766, -0.1034283, 0.09878932, 0.1081253],
    [-0.02702777, 0.06724209, 0.00339523, -0.04371073, 0.06957565, 0.1218628, 0.02200997, 0.1168149, -0.1353527, 0.01091588, -0.04709697, 0.05887437, -0.04134595, 0.1378077, 0.02561982, -0.07096823, 0.122725, -0.0726378, 0.1383189, -0.1074503, -0.1275463, 0.1139602, 0.009028271, -0.01435825, 0.07025575, 0.03114191, 0.1116091, -0.02014079, 0.1324576, -0.06837727, -0.07877274, 0.1274296, 0.003889233, -0.0552842, 0.1308569, 0.04281505, 0.06638469, 0.0507315, 0.130233, 0.1312689, 0.05712081, -0.1197002, 0.07646765, -0.1321538, -0.0449153, -0.01669252, 0.09080061, 0.07749087, -0.06886441, -0.09947945, -0.06358498, 0.05918409, -0.03168452, 0.1124807, -0.0864577, 0.1017025, -0.08077532, 0.02572861, 0.01484746, 0.1306676, -0.1346804, 0.1354112, 0.01943305, -0.04670272, 0.1057839, -0.07518262, 0.01688649, -0.1381922, 0.09011145, 0.0698847, 0.05326835, 0.1275969, 0.08738914, -0.02923751, 0.07033096, 0.05797697, -0.09472726, -0.02000454, -0.0414243, 0.002440721, 0.07974825, -0.1363102, -0.06733292, -0.06428327, 0.01344664, 0.1031063, -0.02778568, 0.08475508, -0.008980289, 0.07839224, -0.03996557, -0.07935056, 0.08708914, 0.005737871, -0.008167565, 0.1065485, 0.1355554, -0.1078925, -0.06864449, -0.08386736, 0.1114505, -0.07350223],
    [-0.0754503, 0.09244801, 0.01121126, -0.007275775, 0.05766162, 0.06089198, -0.04965347, -0.04118657, -0.04207315, -0.007500619, 0.04457699, 0.04286299, -0.08190794, -0.0936421, 0.09127492, -0.05727153, -0.07098575, 0.1007466, 0.1148652, 0.02934317, 0.0611023, 0.07704528, 0.1330058, -0.03979764, -0.1273603, -0.1298343, -0.08809261, -0.06466313, 0.02638487, 0.09587945, 0.05836401, 0.08495706, -0.09483747, 0.1117583, -0.08410296, 0.08394571, -0.06804696, -0.004429176, -0.08942711, -0.1173715, 0.02535684, 0.02650462, -0.03034553, 0.07504369, 0.02876301, 0.1125778, 0.02993349, 0.01115423, -0.1344069, -0.08676471, -0.07398365, 0.08508172, -0.1358974, -0.03649637, -0.03206184, -0.1067283, -0.1156672, -0.02379284, 0.03562095, -0.02876885, -0.01675619, 0.1108804, 0.05391612, 0.05504188, 0.07428111, 0.09709397, -0.1049717, 0.1385197, -0.1084759, -0.09625447, -0.009832978, -0.06033389, 0.09577131, 0.02526987, -0.03531474, 0.05369982, 0.02620833, -0.1149985, 0.07710798, 0.1204288, -0.02752571, -0.1110759, 0.1162955, -0.1141109, 0.0122878, 0.1052658, 0.1131636, 0.0626829, 0.01396218, -0.0485779, -0.01953995, 0.09959093, 0.1160879, 0.08978103, 0.05568925, 0.1236774, -0.1299247, 0.07338746, 0.08059397, -0.1092741, 0.001809597, -0.03982612],
    [0.04923224, 0.09085877, -0.01234095, 0.02045624, 0.0207047, 0.1251804, 0.06541301, -0.1262449, 0.1196427, 0.05952699, -0.09964015, 0.02695312, 0.1302788, -0.004639104, 0.02317131, -0.1078619, -0.06278497, -0.1005272, -0.09041645, 0.05105894, -0.04725094, 0.09183967, 0.1145006, -0.06303887, 0.05891226, -0.02380255, -0.06309278, 0.00141722, -0.09363472, -0.1309798, 0.001080871, 0.05839165, 0.03979682, -0.05442864, 0.1301338, 0.09836789, -0.1149984, -0.04431935, 0.1180828, -0.02791185, -0.03375323, -0.08486788, 0.05851007, 0.06258899, -0.04342893, 0.09627938, 0.05432359, -0.04895539, -0.09398904, -0.00757958, -0.03785325, 0.1001018, 0.1299785, 0.0596208, 0.03047353, -0.1353839, 0.1255774, 0.02617317, 0.08280571, 0.02876768, 0.04814474, 0.08573958, 0.1069206, -0.02688285, 0.069154, -0.02425786, 0.02897874, -0.1159273, -0.07567982, 0.06966613, 0.08970842, -0.132644, -0.1205693, -0.07532924, -0.003866434, -0.05514322, 0.1044612, 0.06675109, 0.04731191, 0.08427806, -0.07693394, -0.139212, 0.0220722, -0.008809626, -0.1013513, 0.05542841, -0.06065473, 0.09215799, 0.1274841, -0.09152488, 0.1385495, 0.05672436, 0.04084762, -0.03016128, 0.01209517, 0.09315918, 0.1151622, 0.02686355, -0.06846628, -0.0784898, 0.09824564, 0.1120202],
    [0.08476111, 0.12111, -0.009840995, 0.03970635, 0.07766929, 0.1311791, -0.1232634, 0.1229564, 0.0436366, 0.001906887, 0.08717667, -0.08602746, -0.002845183, -0.04784767, 0.117384, -0.1057942, 0.1081474, -0.1225518, -0.09907359, -0.05812426, -0.1391922, -0.0008212924, -0.02928846, 0.08070341, 0.1111805, -0.1144478, -0.06960763, -0.08516201, -0.1065725, -0.0716365, 0.1353215, 0.01661807, 0.1220297, -0.1250612, 0.0794768, 0.05346522, 0.02011869, 0.05206655, 0.0239587, 0.048242, 0.1170651, 0.1073171, -0.07884248, 0.02898141, -0.04184055, -0.02891511, 0.1196307, 0.126738, 0.1064635, 0.05534371, 0.06385746, -0.09358428, -0.08524561, -0.02800746, -0.1376808, 0.003566295, 0.02073611, 0.02436607, 0.1274325, -0.093105, -0.03313902, 0.08219696, 0.02020135, -0.0180742, -0.01411414, -0.07252686, -0.1341041, 0.05706085, -0.08123377, -0.05867655, -0.1155105, -0.02607052, -0.1170771, -0.08910818, -0.1385068, -0.0724986, 0.0520347, 0.07474811, 0.08398692, 0.09647422, 0.08602999, 0.1184024, -0.09906144, 0.12629, 0.09978433, -0.007657766, -0.07304232, -0.01480819, 0.02002988, 0.1052584, 0.09741397, 0.0167598, -0.005144984, 0.03649862, 0.060284, -0.1336603, -0.1196732, -0.1391359, -0.1147265, 0.1036379, 0.1389857, -0.04017236],
    [0.05141316, -0.02737137, 0.1168601, 0.02829437, 0.02392408, 0.08104153, -0.08819136, -0.06070761, -0.1368595, -0.05049806, 0.1127118, -0.135998, 0.1298084, -0.02409892, 0.1300227, -0.05404341, -0.05717288, 0.09079999, -0.007834703, -0.01255539, 0.08551282, 0.1355409, -0.1333337, 0.007279247, -0.1321988, 0.004060507, 0.1391364, -0.1200558, -0.1214985, -0.119367, 0.08488805, 0.05619193, -0.1181709, -0.1332062, 0.06884996, 0.07138097, -0.1145168, -0.03646195, -0.06303747, -0.006031573, -0.06819904, -0.1366419, -0.1085936, -0.07417135, 0.1349785, 0.04984355, -0.04266267, -0.0167875, 0.119158, -0.02345368, 0.129094, 0.06628206, 0.03649294, -0.06873113, -0.02583902, 0.1132436, -0.03134055, -0.05257663, 0.0699065, -0.1193023, -0.1280112, -0.1072323, -0.04025766, -0.1177553, -0.06216598, -0.04916532, 0.0609477, 0.08895491, -0.06637526, 0.04616182, -0.03218967, -0.04220796, 0.08745531, -0.07839902, 0.007084101, -0.007511899, -0.08625951, 0.09779747, -0.04343797, 0.1260421, -0.0009700209, -0.0783439, -0.05736214, 0.1181241, -0.007269695, 0.09845527, -0.009938851, 0.07526968, -0.01354539, 0.0777486, -0.02593287, -0.04917841, 0.1080427, 0.04967576, -0.02227942, 0.09884937, -0.1020391, 0.05477742, -0.01662769, 0.1385935, -0.03880547, 0.08696685],
    [0.07682294, -0.03871703, 0.0007963926, -0.1007528, 0.1205597, 0.03460823, -0.02764159, -0.04582412, 0.02061436, 0.1188243, 0.07008515, -0.06473778, 0.1267096, -0.0146599, -0.04174557, 0.1293746, 0.0723447, 0.0529361, 0.05216309, 0.05576343, -0.00747788, 0.01695006, -0.1240515, -0.07806496, -0.138513, 0.005062968, 0.1253201, 0.00526765, -0.1053994, 0.07652901, -0.1362535, 0.0403408, -0.01317057, -0.02320936, 0.1350597, 0.08357814, 0.08093296, 0.01326703, -0.08536842, -0.1277096, -0.09559163, 0.09295036, -0.0997211, -0.03662594, 0.08141094, -0.00618948, 0.05977991, -0.03577101, 0.05519081, -0.04134271, 0.04032564, -0.1016972, 0.03709912, 0.02208605, 0.006879523, -0.08067122, 0.06209171, 0.04278467, 0.04227697, -0.1169818, -0.07038535, -0.1262845, -0.08379695, -0.1152078, -0.1239449, -0.1392158, 0.08204205, -0.1330527, -0.03430973, 0.02550754, -0.08643647, 0.02054305, 0.0158227, -0.05565798, 0.1091603, 0.00521493, 0.1245212, 0.08728581, 0.1209081, -0.07867572, 0.07816305, 0.04501026, -0.129559, -0.07139952, 0.04069335, -0.00282234, 0.08159453, -0.1335991, -0.1250133, 0.001910254, 0.07756221, 0.05947314, -0.004415527, 0.07351178, 0.122432, 0.02787252, -0.1077302, -0.1325148, -0.05983726, -0.01774389, -0.06736541, -0.1026721],
    [-0.1115883, -0.1271881, -0.07587162, 0.01417114, -0.1186649, -0.05077492, -0.0611716, -0.02688896, 0.08280751, -0.1216355, -0.1229147, 0.05631439, 0.01942253, 0.007530734, -0.08868076, 0.05130062, 0.04281662, 0.03216997, 0.03671506, 0.04180164, -0.0561597, 0.06666817, 0.07784963, 0.07462198, 0.07978281, -0.06738511, -0.1233546, 0.05585073, 0.04436716, 0.005590349, 0.03386394, 0.01762408, 0.1352122, -0.1167533, 0.001908287, 0.1317572, -0.0890523, -0.11493, -0.01487386, 0.09758905, 0.05860218, -0.01273991, -0.04514436, 0.08575463, 0.1233632, -0.1325732, 0.04043771, -0.004512474, -0.05158909, 0.0849016, 0.1355266, -0.04478263, 0.0850918, -0.0385723, 0.04203674, 0.09472653, -0.03913214, 0.1066509, 0.107021, -0.02098924, -0.04240049, -0.1299623, 0.0981333, -0.1019, 0.02134289, 0.1016075, -0.02015104, 0.02993993, 0.01947208, -0.02464356, 0.07954864, -0.00146316, 0.01198205, 0.07224037, -0.07513508, 0.120354, 0.06960741, 0.08946544, 0.0874096, 0.1101425, -0.01705395, -0.09191582, -0.07317783, 0.1323146, -0.1136012, -0.04793724, -0.03629492, 0.04227684, 0.06124816, -0.1276922, 0.1112967, -0.1115826, 0.1346542, -0.1271041, 0.02506866, 0.02817309, -0.006324396, -0.1206004, -0.06630786, -0.1025517, 0.09067121, -0.09827301],
    [0.01095954, 0.04103641, 0.05738806, -0.044911, 0.1239293, -0.082286, -0.1065396, -0.02808902, -0.04006095, 0.1369639, 0.05511368, 0.01511367, -0.01369175, -0.04417762, -0.02064697, 0.09283712, 0.01857352, 0.04377184, -0.1198507, 0.008791924, 0.04650877, -0.07384451, 0.003463134, -0.1105607, 0.003275245, 0.136138, -0.0592906, 0.1028972, 0.05273422, 0.02244187, -0.09270956, -0.03504725, 0.1236398, 0.05708162, -0.07724012, -0.1269349, 0.08622633, 0.1065396, 0.07247356, -0.1311307, -0.1253157, -0.07765619, 0.1065346, -0.08661133, -0.1250177, 0.1090482, 0.1360128, 0.07700992, 0.1156362, -0.09870178, -0.07988517, 0.1210197, -0.1302745, 0.01204285, -0.09578294, 0.008861378, 0.1399326, 0.07708123, 0.03262338, 0.02475597, 0.1318761, -0.1017548, 0.06643189, 0.04129228, -0.1166367, 0.03480935, 0.07642595, 0.1263611, -0.1032094, 0.1100187, 0.1212452, 0.1146707, -0.04725371, -0.03484213, -0.1307884, 0.02833878, -0.1157592, -0.118238, 0.0649375, -0.05836967, 0.04131649, -0.1219569, 0.07211904, 0.1357026, 0.08832814, -0.1131659, -0.06669319, 0.03706637, -0.1192763, -0.05781771, -0.04925299, 0.06232965, -0.07750286, 0.1214518, -0.1071164, -0.1249901, -0.08667606, 0.1026573, 0.05590632, -0.03165123, 0.00290437, -0.04840353],
    [-0.09886059, -0.008514434, 0.008782089, 0.04934835, -0.04227823, -0.1118047, 0.1089134, 0.05566888, -0.04096879, 0.07588968, -0.09226005, -0.02042864, 0.03281724, -0.002155498, 0.09774622, -0.09506465, -0.1322914, 0.07649179, 0.06049089, 0.05540344, 0.1341402, -0.09397252, -0.00177592, 0.03456296, -0.00364773, 0.0654714, 0.1340586, 0.1092819, -0.005123526, 0.04814681, 0.02171621, -0.06082453, 0.09705348, -0.1217033, -0.03840254, 0.135293, 0.04300935, 0.06891349, 0.05382194, 0.01263307, 0.1158071, -0.1028779, 0.005244613, 0.0400874, -0.08087678, 0.109852, 0.08644277, -0.01425764, 0.1097436, 0.0508371, -0.1211065, -0.03738515, -0.07897899, 0.1234598, 0.06937464, 0.03457845, -0.02422571, -0.01979275, 0.1031248, -0.1027811, -0.1049595, 0.05329783, -0.08639653, -0.05031861, 0.01353952, -0.05754726, 0.01617922, -0.09860343, -0.09271626, -0.0634928, -0.0008274019, 0.1306987, 0.01975786, 0.04725633, 0.09814825, -0.1143586, 0.0272833, 0.07583366, 0.05048271, 0.009390324, -0.1238257, -0.04587527, 0.02232032, -0.0660549, -0.0218008, -0.07939945, -0.06135455, -0.03375908, -0.09526123, 0.04211252, -0.1228984, -0.04819083, 0.07152763, 0.110819, -0.09455529, 0.02328515, -0.0565657, 0.02162687, 0.01565481, -0.0007117242, 0.009221867, -0.0007080138],
    [0.0271956, 0.02358675, 0.0164813, -0.07520132, -0.01257679, -0.007973686, 0.0391253, 0.1055528, 0.05533216, 0.103197, 0.08527578, -0.1150612, -0.02617087, 0.05494362, -0.007855475, -0.03339885, 0.018884, 0.01968728, 0.09541927, 0.02559865, -0.00777404, -0.1287881, 0.01309268, -0.05154976, -0.02289841, 0.06280118, 0.1271075, -0.004157379, 0.1396006, -0.1094955, -0.03262221, -0.1151028, 0.1034551, -0.04768144, -0.05051181, -0.1045575, 0.1334514, 0.1299106, -0.1285566, 0.09363005, -0.1218285, -0.05492855, 0.09760016, 0.03582788, -0.05763373, 0.1320205, 0.1207119, 0.1166659, -0.07356203, 0.01956556, -0.09795429, 0.001225829, -0.01518658, -0.007447466, -0.09801835, 0.1004264, 0.009998381, -0.001871422, -0.0638964, 0.06096826, -0.09315641, 0.05255167, -0.1271537, 0.1318673, -0.01844702, 0.01736781, -0.1040016, -0.1261734, -0.07187994, 0.1224267, -0.1093088, -0.1369495, 0.1303384, -0.118475, 0.088606, 0.03378178, 0.06680511, 0.0407076, -0.009345263, 0.04631082, -0.07788795, 0.07334015, 0.0103533, 0.06962396, 0.1162698, -0.04901882, 0.002663657, -0.0113005, -0.1116671, 0.1111448, -0.03641942, 0.112219, 0.04897791, -0.01378272, 0.1214286, 0.02082999, -0.05930396, -0.03779906, 0.02843182, -0.0422567, 0.08043562, -0.003190443],
    [0.0001954585, 0.0449524, 0.08912638, -0.04199102, 0.01381402, -0.03043421, 0.08055127, 0.1005523, -0.03040636, 0.1318863, -0.02922115, 0.003285259, 0.1095507, 0.03500767, 0.1279002, -0.04911992, -0.1170546, 0.1090891, 0.09569353, 0.1012844, 0.09489782, -0.00905551, 0.06994176, 0.09580717, 0.05213672, 0.06762202, -0.05416617, -0.02589458, -0.00522688, 0.01533381, -0.06374356, 0.0537492, -0.05111489, 0.07202707, -0.0360437, -0.006234244, 0.099361, 0.1048533, -0.03399875, -0.0607871, 0.1259487, -0.06221659, 0.03973573, -0.0792387, -0.05681736, 0.002375647, 0.1322381, -0.08390863, 0.09578498, 0.1030472, -0.02781079, -0.04956314, 0.03169156, -0.0968304, 0.04355774, 0.07237171, -0.07488185, -0.01247586, 0.04138122, -0.07118376, -0.01849917, -0.09835628, 0.03273105, 0.1217647, 0.006077006, -0.1182642, 0.005398318, 0.1068137, -0.1351226, 0.03402419, -0.0972991, -0.05525623, -0.07150489, 0.04908223, 0.0455262, 0.01933687, -0.1051542, 0.06291139, -0.02348419, -0.04068495, -0.05061183, -0.1030232, 0.07200947, -0.03129722, -0.111368, -0.09587377, -0.07715099, 0.04741107, 0.1300259, 0.1303314, -0.1370285, -0.03553006, -0.1253465, -0.05169839, 0.05216383, -0.02887651, -0.02992651, 0.07762702, 0.1295577, -0.06288236, -0.03889811, -0.0002402961],
    [0.07385164, -0.1397413, 0.1350607, 0.07427888, 0.05249948, 0.05844046, -0.1172395, 0.05026621, -0.00423187, 0.0950135, 0.1014497, 0.1019543, 0.01518919, 0.06903856, -0.03652862, 0.1326398, -0.09507464, 0.04213205, -0.11175, 0.1251232, -0.0671065, -0.0588988, 0.1146444, 0.1023542, 0.06239155, -0.08792321, -0.02243536, -0.0457463, -0.01449357, 0.04793131, -0.135652, -0.005318999, 0.04965713, -0.1159641, 0.09255555, 0.09477323, -0.08936495, 0.1071721, -0.1237495, -0.06018937, -0.08133766, -0.1062602, 0.1396923, -0.09901774, 0.05224529, 0.1102833, 0.1000301, 0.08675072, -0.03252622, -0.1252735, -0.120603, 0.01131612, 0.02763492, 0.04958835, 0.08731342, -0.1156698, 0.07820999, 0.1142965, 0.1205399, 0.08737839, -0.09718144, 0.0002263337, 0.125885, -0.07186446, -0.0837591, 0.07963581, -0.1251009, -0.01479337, -0.1078738, 0.04574721, -0.1009204, 0.1125982, 0.1126139, -0.00142464, 0.1131105, -0.03155315, -0.07989869, 0.0189659, 0.03041681, -0.04786887, 0.03773208, 0.006089926, 0.1120098, -0.06317382, 0.08072307, -0.07272099, 0.05432162, 0.008570224, 0.09480365, -0.05545029, -0.06790781, -0.08837685, 0.05920141, -0.08657454, 0.06441599, 0.06699023, 0.06082263, -0.05260877, -0.08144346, -0.1096292, -0.1205781, 0.01435715],
    [-0.0582146, 0.008000031, -0.1199586, 0.03598922, 0.07694462, -0.04955302, -0.131713, -0.0413359, 0.05438004, 0.1285308, 0.04186874, 0.1217976, 0.0165686, -0.003890872, -0.105966, -0.04147001, 0.001385346, -0.006507471, 0.01514652, 0.06191554, -0.02054989, 0.1011074, -0.01711381, 0.02222456, -0.1362154, 0.09276247, 0.02373669, 0.09280834, 0.0348217, -0.01828667, 0.1257901, -0.04849721, -0.03900354, 0.06222702, -0.1178207, -0.01753694, 0.08540522, 0.04428424, 0.09032771, 0.09907359, -0.1286018, -0.13351, 0.1310249, 0.1125611, -0.07355928, 0.07090358, -0.01671182, -0.1137412, -0.1180049, 0.0764364, -0.1368744, 0.05773657, -0.004445672, 0.0002420247, -0.1388386, -0.09312204, -0.09250924, -0.001965672, -0.04243531, -0.1191313, -0.08849567, -0.1018477, 0.04558045, -0.09838429, -0.1180534, -0.004967079, 0.1021156, -0.1057047, 0.0007270426, -0.02069622, -0.09745133, -0.1185387, -0.08760808, -0.03611061, 0.01895702, 0.02303987, 0.08965407, -0.02028118, 0.03087409, 0.03979141, -0.104914, 0.07382784, 0.1255687, 0.08985949, 0.04656712, -0.103672, 0.1024263, -0.1082516, -0.04292962, -0.08134191, 0.09474903, 0.0415367, 0.04631443, -0.1272258, 0.03584043, 0.08474399, 0.1109176, 0.1243458, -0.1227352, -0.04544653, 0.1359193, -0.09340861],
    [0.02030141, -0.06955704, -0.02793625, -0.05748005, -0.06578171, -0.137922, 0.02665182, 0.05841849, -0.03378712, -0.09723055, 0.1381824, -0.0004151911, -0.08478186, -0.07643376, 0.1385421, 0.07226981, 0.1169478, -0.04761571, 0.03436292, -0.0295977, 0.03853135, -0.0397289, 0.04176842, 0.1385132, -0.123424, -0.1129621, -0.07036322, 0.04720011, -0.04779662, 0.0574367, -0.1004118, -0.03946499, 0.1208792, 0.09557752, 0.0219286, -0.004702836, 0.005708769, -0.1316127, 0.03860206, 0.001009881, -0.02235927, 0.007209465, -0.06536692, -0.04965381, -0.07470414, -0.01366153, 0.004997492, -0.07394555, 0.01286754, 0.114143, -0.1057533, -0.09317692, -0.1252253, 0.123273, 0.04645481, -0.02819676, 0.03661487, 0.02346964, -0.1365966, -0.07550012, -0.1346553, -0.0166962, -0.107931, 0.1092712, -0.09919494, 0.097496, -0.139176, -0.04017296, 0.1273612, -0.05487243, -0.0380371, -0.02867363, 0.1362173, -0.02093199, -0.09055734, -0.05307824, -0.07355027, 0.1293423, 0.01942414, 0.08331019, -0.09381571, 0.1087354, -0.09121118, 0.04808538, 0.07905671, -0.1176959, 0.1324003, 0.007777855, 0.06697768, 0.07292263, -0.01602519, 0.1081457, -0.03171079, 0.08104437, 0.05941047, -0.09731945, -0.1263489, -0.041039, 0.01482227, 0.08560112, 0.1245208, 0.1242704],
    [-0.1285926, -0.136598, 0.02258563, 0.1108832, 0.07739315, -0.09428477, -0.08971003, -0.02627203, 0.0536652, -0.0008018911, -0.04151805, -0.1368631, -0.05502978, 0.01012798, 0.1373445, 0.01673593, 0.1242063, -0.01066959, -0.1071371, 0.07507388, -0.1116434, 0.09391436, 0.06352805, -0.02292926, -0.0008985549, 0.08817586, 0.08543988, -0.03538781, 0.09989414, 0.01498039, -0.1105169, 0.07023919, 0.02854934, -0.008558199, -0.0324415, 0.04995449, 0.009198189, -0.1213042, -0.09709431, 0.008397877, -0.04170758, 0.1242187, -0.05027224, 0.01093806, 0.1371887, 0.04787095, -0.1248207, -0.07701179, 0.08704874, -0.08689731, 0.09305309, -0.1378874, 0.1109326, -0.03997772, -0.1368902, 0.08297527, 0.1123759, -0.1057455, 0.08799111, 0.08213927, -0.02925998, 0.00352414, -0.09478542, 0.006991625, 0.09683654, 0.09906425, -0.08556303, -0.07573895, 0.0366124, -0.07751121, -0.08714423, 0.05239689, 0.0161394, -0.04433393, -0.09474479, -0.1025084, -0.1208965, -0.08039829, 0.005498603, 0.01856473, -0.09131335, 0.09936287, 0.007113323, 0.1384649, -0.02088321, 0.09539303, 0.04007572, 0.08855726, 0.1386662, 0.02200516, -0.02713634, 0.0905772, 0.03884534, -0.09881382, 0.1168812, -0.1220852, 0.1005059, -0.09262575, 0.0260617, 0.1392059, 0.05765845, -0.02998998],
    [-0.0866776, -0.02174121, -0.1172327, -0.01000418, -0.1046695, 0.05871746, -0.06336614, -0.1169273, 0.03824888, -0.0990414, -0.02735655, -0.01916964, -0.08679989, 0.01221332, 0.06913324, -0.1148655, 0.05456009, -0.07515872, -0.04113873, -0.06104533, 0.03105186, -0.03963709, 0.1181561, -0.03066777, 0.008456245, -0.08397573, -0.03161949, -0.1001438, 0.03766941, 0.08661774, 0.1063857, -0.06607826, -0.05023284, 0.1205279, -0.1172141, -0.06246348, -0.09092665, 0.07377793, -0.04928887, -0.07621005, 0.08913633, -0.04250161, 0.02315548, -0.04886635, 0.02585695, 0.05531353, -0.05395297, 0.131356, 0.1033317, 0.08905286, 0.125249, -0.01069893, -0.01606528, -0.03765644, 0.002492562, -0.07403293, 0.005125552, 0.02286233, 0.1382678, -0.009911478, -0.09208976, -0.06711395, 0.09587455, -0.1363029, 0.09331336, -0.05954173, 0.01193635, -0.07286975, 0.1048601, -0.04000787, 0.09157172, 0.01441772, 0.06816486, 0.08289428, 0.1257328, 0.09300017, -0.01694551, -0.1342466, 0.008839339, 0.06141526, -0.03249127, 0.06786226, -0.02518604, -0.06988592, 0.04036213, 0.07841995, 0.04752107, -0.1136148, -0.05527516, 0.05240424, -0.02408947, -0.07065551, 0.03692375, -0.02889047, -0.04431113, -0.01048292, -0.02040917, -0.003758729, -0.1272181, 0.04244844, 0.1065024, 0.05843599],
    [0.09313792, -0.07787511, 0.1341844, 0.1136851, -0.1182009, 0.1049883, 0.1263561, 0.08223205, -0.04016291, -0.05570833, -0.06948744, -0.02411938, -0.03816503, -0.121853, 0.005120113, 0.00995931, -0.05748553, -0.0765478, 0.1160191, -0.1334671, -0.1301387, 0.08768708, -0.09415564, -0.0292525, -0.08672071, 0.07225038, -0.0871038, -0.07699651, -0.1384311, 0.08026949, 0.02144518, -0.1391913, 0.1167803, 0.0129731, -0.09726724, -0.1166399, -0.07696529, -0.1294152, -0.01460782, -0.07035373, -0.102056, -0.03869486, 0.1044967, 0.001890063, -0.1231592, -0.06718415, -0.02339515, 0.122749, -0.1129436, -0.1037477, 0.1295156, 0.1152021, -0.05161743, 0.01226319, -0.07611898, -0.0590727, -0.1280396, 0.0891172, 0.03433945, 0.01771218, 0.1116127, -0.01471989, -0.04020685, 0.09693135, 0.1327096, -0.01557695, 0.02429362, -0.04730539, 0.1130431, -0.04773733, 0.08307109, 0.134741, -0.02093503, -0.05809528, -0.07275563, 0.0403627, -0.002833426, 0.1138411, 0.04690952, -0.05159667, 0.0001627654, 0.03645452, -0.09041806, -0.03987336, -0.1230481, -0.03158336, 0.0211529, 0.01224503, 0.07048757, 0.1326736, -0.1391794, -0.09145407, 0.002439976, 0.08678997, -0.01750281, 0.04489949, -0.04630734, -0.01063246, -0.07935581, 0.1247338, 0.01471755, 0.1196115],
    [-0.02863828, 0.05357326, -0.1215918, 0.1164809, 0.1189099, 0.07171949, 0.09488644, -0.04805289, -0.05705136, 0.03619748, 0.04771007, 0.1142799, -0.005423322, -0.008006573, -0.05746232, 0.1347986, 0.05480871, 0.09479864, 0.09809102, -0.1372396, 0.05313864, 0.1018044, -0.09703672, -0.1272637, -0.07776274, -0.0327252, -0.007156447, -0.04566994, 0.07675767, 0.1022207, -0.0378872, -0.04664339, 0.110803, 0.02508007, -0.06758949, 0.01907022, 0.135385, -0.006429017, -0.09183784, 0.03124283, 0.04647715, 0.02249258, -0.008974776, 0.1111405, 0.04550567, -0.1234836, 0.09047323, 0.1127419, 0.1385717, -0.1315026, -0.04002316, -0.02853315, 0.09454328, -0.0388325, -0.0114087, -0.07016748, -0.006773025, -0.05202093, 0.05010533, -0.06862716, 0.05568444, 0.06434762, -0.06289899, -0.0559416, 0.08135161, -0.02124491, -0.005923763, 0.05739273, 0.0807412, 0.1088205, -0.08194274, -0.09000491, -0.07439396, -0.1265096, -0.05056195, 0.07526184, -0.017851, -0.01585739, 0.02619958, -0.02973662, -0.111564, -0.07069521, 0.09779316, -0.1052871, 0.02840668, -0.01810148, 0.008875623, 0.03192112, -0.08480608, -0.1309235, 0.05571074, -0.07457323, -0.05106914, -0.02957641, -0.1118421, -0.1211024, 0.0104479, -0.1092839, -0.1077354, 0.05663475, -0.1391132, -0.006865531],
    [0.1397329, -0.01415707, -0.1205404, -0.1260415, -0.131427, -0.03926962, -0.04040112, 0.07251032, 0.01062658, -0.09729008, -0.005300567, -0.0223746, -0.08339746, 0.04767614, 0.05269996, 0.1229016, -0.1230513, -0.1129781, -0.04839155, 0.05632874, -0.04027722, 0.1224818, -0.1374168, -0.09594402, 0.125667, 0.003860757, -0.02889791, 0.1272653, -0.1351852, 0.1399697, 0.06149722, -0.0710863, 0.1226824, 0.03752575, -0.1009643, -0.04024123, -0.0761959, 0.1144861, 0.1354597, -0.09601232, -0.04747729, 0.01174623, 0.1123985, 0.0005087107, 0.1015225, 0.00526464, 0.07802914, -0.08703135, -0.02366243, 0.01259495, 0.001508936, -0.1130941, 0.03238875, -0.1363416, 0.003624558, 0.01500733, -0.1126774, 0.07525149, 0.1114461, -0.03201867, 0.06368218, -0.08234911, -0.1384497, -0.1103154, 0.05945301, 0.03345944, -0.06906238, -0.07890411, 0.05057225, 0.1108895, 0.01372303, -0.1317187, -0.1065891, -0.04744414, -0.0477642, -0.03653567, 0.04685637, 0.006189644, 0.07372338, -0.01710186, 0.003751561, 0.06087128, -0.07981469, -0.02065822, -0.1011842, -0.06174479, 0.05750928, 0.05474208, 0.08349645, -0.009517565, 0.07100932, -0.1064584, 0.09593397, -0.1316586, -0.01581493, -0.09027043, 0.03272814, -0.1354744, 0.07832657, -0.1320297, 0.02026011, 0.1073793],
    [-0.1012432, 0.03725035, -0.1208754, -0.007068351, 0.01098868, 0.08673769, 0.07608719, -0.1187851, 0.08664975, 0.116895, 0.03888296, -0.04071701, -0.01763219, 0.00556241, -0.1351792, -0.03202832, 0.1270232, 0.04408018, 0.1007835, -0.06314287, -0.09999143, -0.08561115, 0.04875068, -0.01228125, -0.04990597, -0.1096256, -0.117931, -0.1215615, 0.1313475, 0.07602222, -0.01785443, -0.07595378, 0.1386031, 0.1248478, 0.04784594, 0.06865112, 0.1251019, 0.02747427, -0.1035715, -0.01367339, 0.1397912, -0.116257, -0.1325153, 0.05061996, -0.1304931, -0.1052961, -0.1233461, 0.1307141, -0.1165664, 0.0796519, -0.02739982, 0.02407224, 0.05779729, -0.0171023, 0.1182394, -0.05847988, 0.1008701, 0.03035969, 0.06945844, 0.07113318, 0.1164592, 0.07744263, -0.02731916, 0.1137169, 0.08729096, 0.1186771, 0.1337808, 0.04659913, -0.08178021, 0.0439641, -0.04457374, 0.08196691, -0.1371245, -0.02750565, 0.09809317, 0.007744566, -0.1299593, -0.02046756, -0.1027104, 0.08672414, -0.02574183, 0.03739601, -0.09246795, -0.07518302, -0.05948905, 0.1204438, -0.01656896, -0.02000551, 0.01117417, 0.05867636, 0.008091748, -0.08081314, -0.1325173, -0.05574609, -0.1227992, -0.08255802, -0.03708832, -0.01457156, -0.05790081, -0.1012517, -0.01049365, 0.1172198],
    [0.04818046, 0.1011622, -0.05354363, -0.06587595, 0.07985836, 0.1211235, 0.1031248, -0.02926248, 0.07090432, -0.0005473346, 0.03041741, 0.008631945, -0.1369181, -0.09466697, -0.05830167, 0.1033392, 0.004129112, -0.1295211, -0.008046776, -0.1006697, 0.04669372, -0.1312241, -0.07426862, -0.05906896, -0.0325922, 0.02396681, -0.1071401, -0.07397607, -0.1038478, -0.1389522, -0.03201166, 0.09333172, 0.08820391, -0.06288417, -0.02930855, 0.03668257, -0.001083598, 0.1141012, -0.01808913, -0.008858472, -0.1085143, 0.1015151, -0.07570978, -0.01041576, -0.06609222, 0.08914468, 0.05239422, -0.008822218, -0.120916, -0.0938805, -0.06208659, -0.1193307, -0.1014873, -0.05737182, -0.05483668, -0.05533421, 0.03259113, 0.1229686, 0.03306567, -0.1129657, 0.1082622, -0.09825081, 0.09184978, -0.09136336, 0.03090571, 0.1275286, -0.05528924, 0.06292, -0.0005610585, 0.0718319, 0.1333122, -0.1119162, 0.04700623, -0.0910603, -0.1046649, 0.1322958, -0.1252434, 0.1169595, 0.1399255, -0.05883753, -0.09333886, -0.1125086, -0.0828409, 0.0710587, 0.1290628, 0.04519705, -0.09187606, -0.02184962, 0.0533678, 0.1337183, -0.07841809, 0.01705782, 0.00928697, -0.022975, 0.07854494, 0.0621945, -0.0435673, 0.0270038, -0.1088896, 0.107149, 0.08487412, -0.01996585],
    [0.00395076, 0.09062774, 0.1349985, -0.02727365, -0.07773235, 0.09821005, 0.0230415, -0.1075161, -0.1232776, 0.07673824, 0.1097396, 0.09427565, -0.006052971, -0.09637278, -0.08924663, 0.003414929, 0.1179796, -0.1333048, 0.04242167, -0.01358436, -0.1084743, 0.1196021, -0.003365189, 0.04951374, -0.0785967, -0.1183797, 0.1204333, -0.08200049, 0.08603022, -0.04634633, 0.07324082, 0.09838986, -0.03927393, -0.05115822, -0.07932533, 0.1367928, 0.002572224, 0.1349323, 0.1067148, -0.05327228, -0.1168814, -0.06299253, 0.07400364, 0.02213516, -0.01197462, -0.04641831, 0.04932047, -0.077977, -0.06429683, 0.07149695, -0.05958376, -0.05983599, 0.05770735, 0.04110336, -0.02363837, -0.009610206, -0.03221437, -0.016525, 0.04153289, -0.09748906, -0.02486467, 0.08537401, -0.1159499, 0.05760796, -0.0406486, 0.03547396, 0.07013593, 0.09255715, -0.1302777, -0.05965534, 0.006936744, -0.1047106, -0.1142033, -0.02401705, -0.08587785, 0.04739004, -0.04378895, -0.05922357, -0.1194433, 0.01596599, -0.01677362, -0.02925533, -0.135261, 0.1172002, 0.126715, 0.06612926, 0.05541863, -0.06562573, 0.1130377, -0.03463858, 0.02961212, -0.002767459, -0.03652145, -0.06933217, -0.05385548, -0.01833975, -0.1312785, -0.03550396, 0.05812204, -0.09745304, -0.04368819, 0.1378421],
    [-0.07260954, 0.05562685, 0.1107306, -0.1332887, -0.06625481, 0.07431643, -0.09382102, 0.05140468, -0.1268177, 0.09635746, 0.1309582, 0.06886565, 0.04982613, 0.02406703, -0.116284, 0.05181632, 0.1014352, 0.05387869, 0.09838031, -0.1261226, 0.03480611, 0.08583269, -0.1081191, 0.1127797, 0.04608991, 0.1234295, -0.02106452, -0.00740768, 0.04873593, -0.03713386, -0.03471029, 0.009616584, 0.09975588, -0.02920105, 0.1138491, 0.128104, 0.0202531, -0.102881, -0.05976288, -0.05208439, -0.1333881, -0.02734256, -0.01190017, -0.003712565, 0.1020141, -0.01703615, -0.1321577, -0.05141835, -0.04062186, -0.07617927, 0.01222947, -0.05051619, -0.1299575, -0.04735827, 0.0141544, 0.09351985, 0.0887325, 0.1061694, 0.09821646, 0.01583656, -0.05034992, -0.01570903, 0.07099853, -0.1229232, -0.1266447, -0.04078037, -0.05392803, -0.06163332, -0.135004, 0.005981058, -0.08501706, -0.07362242, -0.1249834, 0.05204528, 0.05004216, -0.1373719, -0.133166, 0.05893857, -0.1333954, 0.1286703, -0.01983918, -0.01592389, -0.09054929, 0.1256308, 0.1016745, 0.07598764, 0.1059885, -0.03781589, -0.09761392, -0.06468847, -0.05274005, 0.01219954, 0.02437735, -0.09200068, 0.03325249, -0.06837614, -0.1272732, -0.0236019, 0.04244744, 0.1389664, 0.03487101, 0.08399025],
    [-0.06908728, 0.1189357, -0.08020289, -0.05572069, -0.02324719, 0.1173965, 0.02753302, -0.0825609, -0.0394922, 0.02499885, 0.04066584, -0.04539191, -0.06200723, -0.044781, 0.06037651, 0.05082367, 0.09146105, -0.0009161085, -0.1160009, 0.07385141, -0.05619378, 0.1186495, 0.0883292, 0.1061704, 0.05621086, -0.01994883, 0.05682088, 0.04016556, -0.1179888, -0.1349201, -0.06994976, -0.134927, 0.116734, 0.003471121, 0.09989677, 0.01616804, -0.0003634095, -0.04237235, -0.03438275, -0.1389002, 0.08105675, 0.0377043, 0.1176964, 0.05905598, -0.03042052, 0.1290837, 0.09107357, -0.04779923, -0.1391344, 0.06725501, 0.02731909, 0.03315768, -0.09511627, -0.09309906, 0.07316848, 0.008256733, 0.1119461, 0.05936226, 0.07677586, -0.1278052, -0.05863248, -0.08585733, -0.01356617, 0.05123615, -0.03173923, 0.07249881, -0.09465034, -0.09861293, -0.01412851, 0.1334933, -0.01928079, 0.02323347, -0.09123158, 0.04937512, -0.0613673, -0.02487285, -0.02651417, -0.0205792, -0.01010534, -0.05788388, 0.1334172, -0.07650948, 0.07036541, -0.1277536, -0.07729821, -0.101786, -0.02384044, 0.09211597, 0.1047437, -0.03521321, 0.08056926, -0.01940888, -0.05351672, -0.03272, -0.01521723, -0.1291164, 0.1174857, -0.03625523, 0.01979518, 0.01366602, 0.001100302, -0.1364442],
    [-0.08620439, -0.1052395, -0.01354149, 0.05659222, -0.1058018, -0.04064867, -0.02406987, -0.05638762, -0.08090612, 0.1196455, -0.0349296, 0.1270945, -0.1112904, -0.03490283, 0.000254482, 0.09166563, 0.08933647, 0.1336679, -0.0709534, -0.01323158, -0.129205, 0.06676004, -0.1036516, -0.06834914, -0.01112624, -0.01729105, 0.06854799, -0.1141572, 0.06944906, 0.03305258, -0.1016133, 0.08525629, -0.03747085, -0.05179431, -0.1203227, 0.03134058, -0.002350435, -0.1118043, 0.004426733, 0.1389863, 0.09483469, -0.1135467, -0.1293337, -0.04861489, -0.1168824, -0.001424372, 0.09067546, -0.005898327, 0.01366261, -0.05329247, -0.05186639, 0.1142912, 0.005339265, 0.06522292, -0.06756993, 0.03961287, 0.004265755, 0.04019133, 0.004097566, 0.0778909, 0.04996521, -0.02606444, -0.114704, -0.09261054, -0.1292624, -0.05603514, 0.088946, -0.1370711, -0.01545293, 0.04155853, 0.1238439, -0.07254311, 0.06256442, 0.1394196, 0.1246511, -0.1021216, -0.03707257, -0.04710779, -0.0006966293, 0.08321407, -0.0167165, 0.01744102, -0.08204913, -0.03045133, -0.09046473, -0.1359538, -0.1094965, -0.0324261, 0.07308272, 0.04589591, -0.06141077, 0.08267517, 0.0560019, 0.01105382, 0.09370998, -0.09315681, 0.06758903, 0.06031762, -0.0144124, 0.0285029, -0.01092963, 0.07116102],
    [-0.06019518, 0.03050732, 0.04849338, 0.1254723, 0.03978701, -0.05781104, 0.1343692, -0.1242557, 0.05552596, -0.0705895, 0.04886016, -0.08914427, -0.06673482, 0.1257208, -0.0738425, 0.1209619, -0.1397679, -0.0702474, 0.08712576, -0.1303072, -0.009817064, 0.1298044, 0.03547215, 0.005083486, 0.02873209, 0.1272738, 0.02967489, 0.007202759, -0.1063962, 0.02876167, -0.1136176, -0.01355368, -0.1362576, 0.06985329, 0.1372512, -0.1311131, 0.109758, -0.03085025, 0.04542247, 0.09829084, 0.08727773, -0.05908498, 0.03423355, -0.1213918, 0.0274504, 0.1285127, -0.1106502, 0.007796779, -0.03568535, -0.08063503, 0.1354135, -0.0510207, -0.1188555, -0.007785663, 0.03993436, -0.1287938, 0.08891852, 0.1228677, 0.01774843, -0.1081749, 0.02569493, 0.07013048, -0.01534122, 0.03689797, 0.07513517, -0.04735724, -0.1343799, -0.07117242, 0.1343135, -0.006660983, -0.09247907, -0.1134907, -0.1239974, 0.005855098, -0.08956529, -0.1375126, -0.002814323, 0.004892528, -0.0207247, 0.01437429, 0.0504527, 0.06579958, -0.004866153, 0.06009747, 0.02963293, 0.06190071, 0.1380942, -0.04881187, -0.1343718, 0.07605895, -0.05123771, 0.05702569, 0.02913555, 0.08141357, -0.03442699, 0.131256, -0.04281984, 0.08523726, -0.01649448, -0.1038842, 0.005452007, 0.01936832],
    [-0.1361212, -0.1369374, -0.09630916, -0.05868319, 0.02357079, -0.0774224, 0.08225749, -0.1226634, -0.09959136, -0.003409758, -0.002992436, 0.06265032, 0.04266278, -0.07877468, 0.1094545, 0.1031909, -0.04940155, -0.09458871, -0.09522606, 0.01994004, -0.08094381, -0.02631953, -0.04347276, 0.002681494, -0.04711566, 0.134949, 0.05371901, 0.1112298, 0.07965714, 0.08888166, 0.09627613, 0.1010614, -0.01044597, -0.05289218, 0.04883178, 0.1141975, -0.09784755, 0.04274267, 0.0777875, -0.04739019, -0.08289264, 0.07863715, 0.08021244, -0.1385392, -0.07360166, -0.01257084, 0.08532453, -0.02701004, 0.1112368, -0.07088907, 0.0256062, -0.1337121, -0.01707321, -0.04047349, 0.08799335, 0.03886654, 0.1312983, -0.003238693, -0.1301554, 0.02349457, 0.01927808, 0.02769401, 0.1314859, -0.1084835, -0.07527326, -0.131189, -0.1333561, -0.05060256, -0.01278083, 0.1363521, -0.1080317, 0.08074544, 0.1327888, 0.05502131, 0.1011767, -0.0806822, 0.08764043, 0.1050176, 0.1319877, -0.1038806, -0.09950373, 0.05079743, 0.1168276, 0.08464073, 0.1255804, 0.01925521, -0.0851118, -0.005225509, -0.1088144, -0.1049927, 0.1105784, -0.1249572, 0.1326563, 0.07141068, 0.1081247, 0.03934211, -0.07454379, -0.04510206, 0.1094623, -0.02813072, 0.04323306, -0.1278739],
    [-0.0800593, -0.07494217, 0.05643404, 0.1091822, 0.04475947, 0.1010441, -0.09540558, -0.02239576, 0.1266966, 0.06264434, 0.120568, -0.06289744, -0.01929291, 0.06766732, -0.1317759, -0.1218306, 0.08904001, -0.1190281, 0.09109303, 0.04910961, -0.02482825, -0.02794136, 0.00163503, 0.03198552, -0.1213681, 0.03814405, 0.0001458377, 0.1037629, -0.01273596, -0.1299467, 0.1297776, -0.04286071, 0.09524339, 0.006234989, -0.1294591, -0.001591995, -0.08600256, 0.06624848, -0.002567515, 0.1046533, 0.1115779, 0.08666819, 0.1078473, 0.01435079, 0.04462991, -0.0938112, 0.1092275, 0.0311145, -0.01255071, -0.09310874, -0.06042734, 0.1064191, -0.06046316, 0.1101042, -0.0009029508, 0.03474711, 0.02085817, -0.08494531, -0.04728406, 0.01848562, -0.07233535, -0.116995, 0.1114695, 0.04053858, 0.0685526, -0.009408191, -0.1189531, 0.02298751, 0.09560993, 0.07377649, -0.1147169, -0.1027255, 0.1017732, -0.02438235, 0.1138637, 0.03340616, -0.1084317, 0.1307889, -0.1325863, -0.06057841, 0.05531887, 0.04510581, -0.002099589, -0.02978991, -0.08301894, -0.01671459, 0.03089669, -0.02048002, 0.1083181, -0.1115956, -0.02438543, -0.111395, 0.1189541, 0.01688352, -0.06522204, 0.01255701, 0.01662171, 0.1268274, -0.01958856, -0.09321995, -0.1073676, 0.08740991],
    [-0.1270506, -0.07348834, -0.09404387, 0.07954821, -0.01269257, -0.02643839, 0.09702103, -0.01238859, -0.06360011, 0.07530273, -0.1339129, 0.08491369, -0.04733076, -0.06791981, 0.108417, -0.05034475, 0.03174986, -0.1025305, 0.06696987, 0.01655641, 0.0261655, -0.003404617, 0.08833928, 0.07616261, 0.1053123, 0.0761569, 0.02842298, -0.1325601, 0.03551259, 0.004551739, 0.03670203, -0.1297521, -0.005028442, 0.1396555, -0.07684119, -0.03080155, 0.04014516, 0.1269662, -0.1334301, 0.1002611, -0.08858256, -0.1230209, 0.08894196, -0.05344388, -0.06549843, 0.04848924, 0.06897068, 0.1268633, 0.09412062, -0.01365916, -0.07161413, 0.02134149, 0.03800483, 0.08921672, -0.00536029, 0.04949037, 0.01832616, 0.1005819, -0.1143847, 0.08654156, -0.04212967, 0.04189959, 0.006401584, -0.007575765, 0.02421296, -0.03852509, 0.04930201, 0.1054316, 0.1185058, -0.1013791, 0.1348214, -0.1047547, 0.001749307, -0.001836702, -0.09520237, -0.04199446, -0.02015651, -0.003773689, 0.02063653, -0.124703, -0.1323138, 0.02494513, -0.1069445, -0.08023538, 0.1000522, 0.03614847, -0.03175166, -0.04615189, 0.01117907, 0.01216689, 0.1247152, 0.1269227, 0.07139422, -0.07402401, -0.04310165, -0.1269992, 0.007268459, -0.09222296, -0.08248691, 0.1095017, 0.115123, 0.04939192],
    [0.09845166, -0.02422284, -0.1287747, -0.1100511, 0.02195087, 0.02139581, -0.09442201, 0.1341626, 0.08356943, 0.001833335, 0.04444725, 0.04849716, -0.08297391, -0.01939122, 0.06094175, -0.1329593, -0.1341953, -0.08284721, 0.1379425, 0.04359753, 0.1393345, 0.1258255, -0.09975836, 0.1119243, -0.003582999, -0.04161447, 0.1021009, -0.07105863, 0.0506667, 0.04179519, 0.09648283, 0.08751878, -0.07494287, -0.06425349, 0.02831357, 0.1164454, -0.1060863, 0.08426321, 8.589029E-05, -0.1341133, -0.04093605, 0.1312175, -0.08292423, -0.03743834, -0.1347606, 0.1374192, -0.0732681, -0.04162759, 0.05978055, 0.0318705, 0.08007152, -0.001398221, 0.01501581, -0.130166, 0.06127537, -0.08494611, 0.05736405, -0.0568867, -0.001208395, -0.01131152, 0.0690916, -0.1071147, -0.03451131, 0.09310503, 0.1323, 0.02762126, -0.01380159, -0.06664778, -0.06674755, -0.03068583, -0.139291, -0.0267454, 0.128864, -0.0158636, -0.0117515, 0.03341958, -0.01546858, 0.1085361, 0.1018434, 0.07471693, 0.01154806, 0.009345397, -0.02521622, -0.1059105, 0.02681564, -0.003747448, -0.05837521, 0.004406005, 0.1149127, 0.1336693, -0.09063613, 0.08198556, 0.04753573, 0.03297907, -0.1285182, 0.04348082, 0.04935957, -0.07418621, -0.1172666, 0.07947055, -0.01001824, -0.003553987],
    [-0.1069622, 0.02852073, -0.08955245, -0.0817755, 0.02061716, 0.04130393, -0.01036845, 0.1058816, 0.03551142, 0.02897697, -0.09215786, 0.007168174, 0.002967507, 0.04570805, 0.03803418, -0.119278, -0.05903668, 0.07773148, -0.05879617, -0.08217804, -0.0617104, 0.03247422, 0.0810903, 0.07569084, 0.1207391, -0.001726434, 0.02270905, -0.06476496, -0.06587766, 0.014513, -0.02164176, -0.07730696, -0.1155828, -0.01410052, -0.1353833, 0.1157933, -0.02600171, -0.0535233, -0.1164482, 0.003204331, 0.0917082, -0.02638184, -0.1266095, 0.1252874, 0.1359498, -0.07344514, 0.1149235, -0.08412226, 0.1242787, 0.007748678, 0.1233856, -0.08966963, -0.08480051, -0.08047526, 0.1211783, -0.08907005, 0.0562192, 0.004287988, 0.02307185, -0.01803785, -0.09000948, 0.1125534, 0.05430179, -0.115083, 0.1010628, -0.06182822, -0.06321879, -0.01036762, 0.0337037, 0.01341118, -0.05169208, 0.1178561, 0.02375758, 0.01612617, -0.02327747, -0.089313, -0.1072562, -0.07811545, 0.06354601, -0.08634585, -0.010682, -0.105969, 0.0670763, 0.02376923, -0.05546839, 0.09411521, 0.0723246, -0.03053897, -0.1063603, 0.0890142, -0.03839162, 0.1188215, -0.1383469, 0.06567082, 0.004447937, -0.1016612, -0.02674637, 0.02635333, -4.161894E-05, 0.05425632, 0.1154618, -0.1202972],
    [0.08883078, 0.04108402, 0.002552956, -0.06137595, 0.005523279, -0.002360389, 0.08956195, 0.01122545, 0.07410166, -0.06941132, 0.07445578, -0.1180319, 0.02729763, -0.0698064, 0.01521312, 0.136247, 0.009976, -0.1298873, 0.03100382, -0.04715225, 0.03213595, -0.06015421, -0.02430613, -0.0706335, -0.01668347, 0.04338747, -0.1306676, -0.05148072, -0.01973516, -0.1254621, -0.1323395, -0.002272785, -0.05926466, 0.06637958, 0.1008334, 0.111513, -0.06511934, -0.08725503, -0.01332968, 0.1334716, -0.1051951, 0.04518166, 0.09166299, 0.1255924, 0.07618484, -0.06899144, 0.08863905, 1.737475E-05, 0.001360029, -0.07139575, 0.07548288, -0.07678337, 0.1351629, 0.1154299, 0.0891192, -0.1028346, 0.03809701, -0.1120486, 0.1301791, 0.01839611, -0.1087029, 0.06816126, -0.03251424, -0.09133348, 0.05185575, 0.09686883, -0.1299198, 0.03024414, -0.07944261, 0.06698406, -0.02229798, 0.1017652, 0.05641508, 0.1217329, 0.07228297, -0.09402056, -0.08742259, -0.1086681, -0.03459568, -0.04377069, -0.05264884, -0.12432, 0.04751436, -0.137146, 0.1386696, -0.02845189, -0.1077425, 0.1240013, -0.05290714, -0.131925, 0.04257688, 0.03965333, -0.02325941, -0.0872813, -0.008381963, 0.06395552, -0.05998071, -0.004809037, 0.1328285, -0.08558457, -0.1237421, 0.0404457],
    [-0.04179208, 0.01921144, 0.01410703, 0.05669094, -0.03403617, 0.1399952, 0.07992135, 0.1016445, 0.1083108, -0.119523, -0.06846878, 0.03718018, 0.008274287, 0.120295, -0.1077783, 0.09027296, 0.04057696, -0.05172894, -0.05998859, 0.02966167, -0.02040981, -0.03038987, 0.01343612, 0.06130555, -0.009186372, -0.02452925, 0.05206337, 0.04534973, 0.002351239, 0.05524299, -0.0415297, -0.01190701, -0.0797582, 0.08239156, 0.09486938, -0.1137217, -0.09677361, 0.01563648, 0.03446254, 0.1383631, 0.1337791, 0.1204555, -0.07257897, -0.01641636, 0.1165878, 0.02543032, -0.1261308, -0.1072597, -0.1236605, 0.03730678, 0.007562116, 0.04735892, -0.01711445, 0.08467168, -0.02669953, -0.135672, 0.01146248, -0.01685682, 0.1124663, 0.05256535, -0.1283392, 0.1252573, 0.09523898, 0.01016052, -0.0633357, -0.1339094, -0.01300916, -0.1107022, 0.1106699, -0.02691339, 0.04608661, -0.002277359, 0.1394316, 0.05859794, -0.1149095, -0.07821818, -0.04840243, -0.138457, 0.08982934, 0.1133985, 0.1036399, -0.0823908, -0.007294595, -0.1356304, -0.05487176, 0.05644913, 0.0851132, -0.01402465, -0.09548377, 0.06918471, 0.03777571, -0.0009680837, -0.06180732, 0.1200159, 0.1012304, 0.09587148, -0.02759442, -0.01350877, 0.01989794, 0.1215348, -0.001771837, -0.1259794],
    [-0.0389535, -0.0302422, -0.05514529, -0.1359164, -0.0632273, -0.1159868, -0.1061871, -0.004071325, 0.1388095, -0.08555382, 0.1130023, -0.0116052, -0.0770101, 0.0317782, 0.1175546, -0.08276671, 0.01950112, 0.07928463, -0.03877632, -0.002580032, 0.06338095, -0.1050266, 0.1299767, 0.08855746, 0.00171192, -0.0249688, -0.0170846, 0.1052283, -0.1012356, 0.03726779, -0.1124912, 0.1320785, -0.09209818, 0.09252246, -0.06462938, -0.07666883, -0.1234007, 0.1230558, -0.083269, -0.1290936, 0.1199435, 0.08255191, -0.09819959, 0.01776619, -0.05853693, -0.07593048, -0.05467226, -0.003692627, -0.04669775, 0.08260243, 0.06890618, 0.116875, -0.09230857, -0.1188024, -0.115133, -0.007827669, 0.01897341, 0.05812327, 0.08793062, -0.05474423, -0.07187611, 0.1229021, -0.1381475, -0.1282187, -0.005712301, -0.03013217, -0.1011869, -0.06447373, 0.02809186, -0.1069918, 0.07928159, 0.1305267, 0.0005258322, 0.1241004, -0.05731693, 0.01675275, -0.04260508, 0.08870228, 0.101589, 0.1029786, 0.1004899, -0.08928393, -0.02597647, 0.0741491, 0.06712928, 0.1030913, 0.0468298, -0.006738275, 0.002616361, -0.03916018, 0.09097145, 0.1306302, 0.08713871, 0.06409609, 0.0111099, -0.03765758, 0.01750759, 0.01259017, -0.1361811, -0.1004867, -0.1386759, 0.1201162],
    [0.07540213, -0.1133511, 0.05340556, -0.02868582, 0.1044323, 0.1393671, 0.1118165, -0.02365609, -0.1130224, 0.1363858, -0.01391107, -0.01451857, 0.1300708, 0.0433802, 0.07732622, -0.04950561, -0.005567506, -0.02116662, -0.1316041, 0.1181149, -0.09166417, 0.06516145, -0.02776402, -0.09569827, -0.1322083, 0.106374, -0.1329459, -0.03474769, 0.1324095, 0.03937477, -0.004107177, 0.06543682, -0.08626065, 0.08903804, -0.1347944, -0.110483, -0.04728392, -0.0286322, -0.09566505, 0.1194458, -0.03483395, -0.125803, 0.0687675, -0.1016752, 0.006532818, 0.1275771, 0.0659655, -0.1054721, -0.109599, 0.04443524, 0.02506809, -0.08144933, 0.07267912, 0.1049331, -0.05873881, -0.04298186, -0.009643555, 0.08010187, -0.08488938, 0.08890186, -0.09932645, -0.1099693, -0.07304186, 0.08984162, -0.09610057, -0.04278219, -0.1098203, 0.0814954, 0.01718289, 0.02649811, 0.05272407, -0.09359877, 0.1008291, 0.01197362, -0.09516507, -0.0212573, -0.02147821, -0.05007122, 0.08768129, -0.05584281, -0.08728331, 0.003329128, 0.1394579, -0.1138186, 0.01437496, 0.1110645, -0.1395977, -0.08407281, 0.1110892, 0.003474727, 0.1279658, 0.05266381, 0.002315253, -0.04248385, 0.06499813, 0.04394598, -0.03718982, -0.09773511, -0.01648563, -0.108977, 0.1352004, 0.03245785],
    [0.02283865, -0.02115717, -0.03912142, 0.09369075, -0.05443124, -0.04957138, -0.101413, -0.1161195, 0.06285991, -0.0354877, 0.03495127, 0.05057489, -0.07702611, -0.02821489, 0.01790534, -0.02920669, -0.03976973, 0.04494149, 0.06387983, 0.1188587, 0.01500854, -0.07817216, 0.1281917, 0.02311788, -0.002432033, 0.04097636, 0.04567046, -0.1316619, 0.02857852, -0.07293028, -0.1002961, -0.136897, -0.05153254, -0.02219248, 0.1171119, -0.1065894, 0.103748, 0.07806577, 0.04920856, -0.03382091, 0.1208163, -0.1011436, -0.1298652, 0.03824551, -0.08436303, -0.08428554, -0.1133713, -0.03821495, -0.05724122, 0.02435131, -0.1287662, 0.0940264, -0.01539844, 0.1045656, -0.08784032, -0.0809343, 0.1039635, -0.1228529, -0.1332342, -0.1298532, -0.07451318, -0.1000369, 0.08482853, 0.01172279, 0.05505653, 0.01448455, -0.01105742, -0.07512216, 0.05731221, 0.1109862, -0.09916076, -0.09677447, 0.07907737, -0.05674044, 0.0999359, -0.05184579, -0.134413, -0.0357249, 0.001159281, -0.0290393, -0.01689601, -0.1003238, -0.08435479, -0.04653105, -0.0672331, -0.0655842, -0.01296844, -0.1010262, -0.09830275, -0.04270409, 0.1340493, -0.1142429, 0.09363292, -0.0449115, -0.02451229, 0.1087086, -0.06000528, -0.07127413, -0.1047232, 0.06192268, 0.09832129, -0.07742952],
    [-0.1070492, -0.1196393, 0.06149919, -0.09694842, -0.03131704, -0.1075185, -0.05668989, 0.04577575, 0.04805624, -0.1199692, 0.130892, 0.07399236, 0.04981387, -0.02001272, -0.07180019, 0.1365489, 0.0964428, 0.03714867, 0.09565945, -0.1056971, 0.08773077, 0.1308761, 0.009596914, -0.06914784, 0.1221867, 0.1139666, -0.01274896, 0.07236767, 0.002511919, 0.129177, -0.0249453, 0.03813336, -0.02214978, -0.00837034, -0.1195154, 0.03029686, -0.03628093, 0.02844852, -0.07369103, -0.1048148, -0.04251561, -0.1198253, -0.02239072, -0.00424926, 0.07780873, -0.1051264, 0.09623234, 0.05171814, 0.05012472, 0.13652, -0.0637617, -0.09753963, -0.08900249, -0.03563453, -0.02531888, 0.09125966, 0.02949234, 0.05869196, -0.02294381, -0.001756281, 0.1014128, 0.04664731, 0.03015584, 0.01815112, -0.1242588, -0.1017705, -0.06740506, -0.1153407, -0.1130056, -0.04935912, 0.08839715, -0.06440563, 0.1175529, -0.02798887, 0.08063576, -0.07590337, 0.02747928, 0.1376591, 0.04359726, -0.03495828, 0.115096, -0.09084198, -0.1029082, -0.05597468, 0.1286329, -0.08791943, -0.09471418, 0.04125005, 0.04163224, -0.05679652, 0.02117433, -0.08124448, -0.1338611, 0.03424183, 0.1316075, 0.05001856, -0.02205887, 0.1058832, -0.1190098, -0.1244416, -0.04706228, -0.05410717],
    [0.03807484, 0.004440099, 0.03256458, -0.003607333, -0.03091419, 0.04428267, -0.0125031, -0.136552, -0.08744302, 0.03048111, -0.09014055, -0.07047516, 0.09774972, -0.01556453, 0.06340789, 0.1327076, -0.06178185, -0.07130685, -0.02746752, -0.03095432, 0.1040283, -0.05601488, 0.06881434, -0.02574244, -0.08694665, 0.03707058, 0.0006791055, -0.08933988, 0.07920974, 0.01336461, 0.04343691, -0.1301041, -0.1129945, -0.1125472, -0.09097716, 0.09760036, -0.01197705, 0.03997206, 0.031326, 0.02749206, 0.008726433, 0.1010011, 0.00398846, 0.01463352, 0.0550767, 0.1237096, -0.01148239, -0.07410511, -0.1090843, -0.1228985, -0.08504616, 0.09089874, -0.113649, -0.1092065, 0.1003861, 0.02338033, 0.008792266, -0.006337479, 0.1138386, 0.00751555, -0.05262089, 0.00299184, 0.07350627, -0.1147649, 0.01415548, -0.01662515, -0.006056309, 0.02345281, 0.105808, 0.1379381, -0.09891938, -0.1134549, 0.07286801, 0.008287847, 0.1350257, 0.05388705, 0.0001875013, 0.02208231, -0.0898741, 0.127742, 0.1282036, -0.02059967, -0.1176716, 0.1128805, -0.02851789, -0.1177446, -0.03467667, -0.04227907, -0.1306981, -0.03129978, -0.03569172, 0.01382433, -0.09585749, -0.1166081, -0.104361, 0.1124879, -0.08814472, -0.07939751, 0.0596413, 0.09792817, -0.1012504, -0.06986824],
    [0.02875813, -0.06926069, 0.0615528, 0.01617762, 0.0415182, -0.01773084, -0.05385952, 0.09629045, -0.1206809, 0.0002159178, 0.0809582, 0.1229569, 0.1091553, 0.04701101, -0.06635135, 0.04233577, 0.04313441, -0.1293748, -0.09566475, 0.05151349, -0.1306508, -0.08404614, -0.131942, 0.1215682, 0.09400681, -0.09181726, -0.008800715, -0.0474422, -0.05396082, -0.08563201, 0.03276506, -0.01706317, 0.02641916, 0.008242503, -0.005882129, -0.1247254, -0.1131068, -0.002878964, -0.05524674, 0.02259494, -0.01188572, -0.04519734, -0.002217561, 0.05720724, 0.02734443, -0.05947239, 0.0715106, -0.07624079, -0.02320342, -0.003531083, -0.002049446, 0.08730988, 0.0563228, -0.03909682, 0.0648267, 0.1131885, 0.1395294, -0.07756625, 0.06698112, 0.077872, 0.07935958, -0.09749156, -0.04631451, -0.12372, 0.04867493, 0.09675932, -0.1131655, 0.06651776, -0.1043835, -0.04938466, 0.09823094, -0.1035897, 0.03834533, 0.01381658, -0.1208109, 0.05798092, 0.02236211, -0.1044118, -0.002486393, 0.09850223, -0.07439239, -0.1283477, 0.1223181, -0.1321378, -0.03784274, -0.05911066, 0.08433212, -0.05410807, -0.08784068, -0.01501237, 0.02254523, -0.0709731, -0.01620366, 0.05981002, 0.09504969, 0.09478485, -0.04591876, -0.05339493, -0.02206675, 0.0696476, 0.01697026, -0.1082236],
    [-0.06761616, 0.06923285, 0.1179518, -0.03398356, 0.07644648, 0.0435141, -0.08617872, 0.002435312, 0.03729136, -0.03980118, 0.01646714, 0.1022052, -0.07523356, 0.07763216, 0.1400138, -0.1111894, -0.02832516, -0.07077329, -0.1094084, 0.04169484, -0.08919729, 0.05453468, 0.01040965, 0.0393116, -0.08818565, -0.02437885, 0.08657791, -0.1219654, -0.04723218, 0.1381628, -0.01817924, 0.1197013, 0.1227089, 0.04905009, 0.07554071, 0.1204548, 0.106731, -0.06608959, -0.1176744, -0.1115693, 0.03159277, -0.09910287, -0.06049972, -0.123957, -0.1284249, -0.003428549, 0.08981839, -0.03711697, -0.07496572, 0.06161874, 0.04497301, -0.1190738, -0.1304923, 0.082674, 0.1322303, -0.1302449, -0.05001427, -0.1091677, 0.1194205, 0.07059076, -0.06808065, -0.1395006, -0.09603576, 0.02387847, -0.09930769, 0.08949672, 0.04426624, 0.1080993, -0.117206, -0.1042726, 0.01196741, -0.05818028, 0.0694357, 0.1013799, -0.1294296, 0.06028523, -0.113434, -0.02278747, -0.02713594, -0.1328241, 0.07738113, -0.07169329, 0.1354506, -0.0004521608, 0.1159388, 0.120629, -0.1191482, -0.04826448, 0.1040462, -0.1073687, 0.1004689, -0.02565253, -0.0507408, 0.06277691, 0.03604351, 0.03744283, 0.1236939, 0.08691243, 0.09495975, 0.03238267, 0.05667716, 0.1005093],
    [0.05900895, -0.05241297, -0.1254921, -0.08097596, -0.06700851, -0.005595863, 0.02671989, 0.1380784, -0.07034692, -0.08189435, -0.1100638, -0.07097387, 0.002144158, 0.01180285, -0.1225934, -0.1257835, -0.1369923, 0.03415122, -0.1068698, -0.1121069, -0.04547487, 0.06738498, 0.1165427, 0.1230991, 0.1319094, -0.07714254, 0.03919078, 0.04818467, -0.0460044, 0.0422478, -0.0207679, 0.1032557, -0.082517, 0.07244395, 0.0007693768, 0.03402874, 0.0256514, -0.09377865, 0.04676159, -0.0280556, -0.1393995, -0.09354959, 0.1095947, -0.09371167, 0.03160429, -0.1102985, -0.1029394, -0.1092927, 0.04010516, 0.03495558, 0.05770716, -0.1180934, -0.006233945, -0.02395345, 0.04044626, 0.09311906, -0.08111995, 0.117447, 0.1110128, -0.09653585, 0.08546401, -0.006316379, 0.09004705, 0.01797606, 0.02510364, -0.08711235, -0.05032723, -0.1389347, 0.05252055, 0.1085158, -0.1212231, 0.008284345, -0.006782904, -0.06349632, -0.06440753, -0.105826, 0.1109333, -0.03511499, -0.1044004, -0.003509417, 0.08337102, -0.0565874, -0.08568759, -0.01384966, 0.02340844, 0.02832806, 0.03269205, -0.003214523, -0.04004496, -0.002978787, -0.1213665, 0.1019271, 0.08593314, -0.06680924, -0.03137867, -0.1299595, 0.06433684, -0.09785767, -0.07923092, 0.1030633, 0.09295878, -0.1297957],
    [-0.05531619, 0.1006438, 0.06831056, -0.02396544, 0.0284172, -0.09469768, 0.1025935, -0.03001008, -0.1341209, -0.01045918, 0.09285021, 0.1006567, -0.08103141, 0.03807247, 0.06796301, 0.1053825, 0.06604613, 0.04433868, -0.1100124, -0.07886815, 0.1380891, 0.03345003, 0.03185064, 0.001076058, -0.1324651, -0.03667885, -0.1310974, 0.1266396, 0.004621342, 0.06654761, 0.07918882, -0.02976343, 0.1084889, -0.04542423, 0.05366289, 0.02806535, 0.07574062, 0.04260195, 0.03315731, 0.0163349, -0.1123941, -0.00131309, 0.1252525, -0.04903378, -0.1282753, -0.08348504, -0.1050768, -0.03778003, -0.06682557, -0.136473, 0.08300629, -0.1313462, -0.1004469, 0.1144051, -0.1146492, -0.119749, -0.116024, -0.02639796, -0.09500569, 0.118311, 0.007835671, -0.009183168, 0.06131082, -0.1169629, -0.105144, 0.02465792, 0.1276301, 0.0840648, 0.1005973, -0.03369935, -0.09087837, 0.008822843, 0.1278798, 0.05146277, 0.07718547, -0.02119984, 0.1227943, -0.07392819, 0.1005938, 0.1146817, 0.1093744, 0.1166572, 0.02505831, 0.1026784, 0.06106752, -0.1309884, -0.07857984, 0.1373882, -0.1202086, -0.01131412, -0.001242578, 0.05989673, -0.008172363, -0.08310485, 0.1200463, 0.0900404, -0.03933202, 0.1331094, 0.03893919, -0.1034137, 0.06267956, -0.06364952],
    [0.07377452, 0.1247755, 0.03167297, -0.03583584, -0.07193142, -0.07069924, -0.06259738, 0.001234233, 0.1329212, -0.1290132, 0.1302797, 0.03505775, 0.1303432, -0.01193115, -0.03594007, 0.03722979, -0.02325083, 0.04324906, 0.1158467, 0.1019597, 0.08701125, 0.07345085, 0.03675271, -0.08750005, -0.01089373, 0.09819983, -0.06340167, 0.1242563, 0.002948135, -0.09674045, -0.03788683, -0.007214814, 0.07323071, 0.02307121, -0.01152454, -0.1037944, -0.108025, -0.1331778, 0.06663672, 0.03528437, 0.1152232, -0.05906522, 0.04096247, -0.07364503, -0.02878127, 0.0566263, -0.01359941, -0.09951952, -0.07302135, -0.05030666, 0.002802581, -0.1050824, 0.02923604, 0.08774693, 0.003173485, 0.09483737, 0.09525408, 0.04819315, -0.09916157, -0.08884203, -0.02198496, -0.01244354, -0.1012279, 0.1241951, -0.1003016, 0.1225442, 0.09931897, 0.02186184, 0.01879984, 0.1073126, -0.08619365, 0.1386332, -0.099935, -0.1299048, -0.06506328, -0.03960587, 0.003398031, -0.1039973, -0.06875457, 0.002551794, -0.1176634, -0.07945754, -0.1018768, 0.05756243, 0.1184204, 0.01452161, -0.07657041, -0.1112978, -0.0219088, -0.1098977, -0.08609776, -0.05976181, -0.002215758, 0.1153495, -0.09232993, 0.0563416, -0.1060589, -0.1140344, -0.120939, 0.04952445, 0.05141499, 0.1349778],
    [0.1231231, -0.1076463, -0.05354927, -0.03802802, 0.1155128, -0.1076331, 0.005463347, 0.1138671, 0.105474, 0.07793432, -0.1154835, -0.04403914, 0.1110055, -0.09173374, 0.01668925, 0.1283454, 0.02658916, -0.004894972, 0.08090489, 0.02271536, -0.02802172, 0.08060628, 0.1056298, 0.1366335, 0.02396183, 0.049594, 0.061229, 0.02713437, 0.02849265, -0.009550944, 0.05290588, -0.01358899, -0.0778096, -0.03255881, 0.0580583, 0.08329377, -0.0108299, -0.04855831, 0.1185015, 0.07470708, -0.0925909, -0.06278738, 0.002411202, -0.1191344, 0.1296811, 0.1304925, 0.09139714, 0.001091048, 0.04842445, -0.1397702, 0.05667214, 0.1124397, 0.01940104, 0.08307029, -0.1235286, -0.07971406, 0.04337298, 0.03130205, 0.0167186, -0.06565347, -0.06229021, 0.1224387, 0.0939828, -0.1259584, 0.1055373, -0.1100854, 0.1100142, 0.0952903, 0.02826703, 0.01679986, 0.001284108, 0.04531297, 0.05426593, 0.03183962, -0.1082091, 0.1050524, -0.001612261, 0.08938445, 0.1100673, -0.04171315, -0.006972626, 0.1328318, -0.1008348, 0.09863928, 0.03111286, 0.08055647, 0.06030827, -0.03136626, -0.08762488, 0.07959779, -0.006072298, -0.004118159, 0.05140441, 0.06053131, -0.1314339, -0.1366187, 0.003012344, -0.03823972, 0.02930268, 0.09051234, -0.0746944, -0.02776562],
    [0.08609566, -0.02664895, -0.1036587, 0.06822939, 0.10135, -0.06171592, 0.1389841, -0.09386455, -0.02514187, -0.1368557, 0.01073956, -0.08796601, 0.1001947, 0.01722842, 0.02857067, -0.08370382, -0.006276622, 0.1176547, 0.07587355, -0.07622327, -0.1117108, 0.06624758, 0.03550458, 0.09896198, -0.0375427, -0.1125467, -0.01614167, -0.0100152, 0.007146969, -0.1125239, 0.07874899, -0.006317109, 0.1192275, -0.1279845, -0.03568972, -0.003037617, -0.1363369, 0.01107222, 0.02396584, 0.1118113, -0.03637765, 0.0568342, -0.06462066, -0.002814427, -0.1046109, -0.1378752, 0.03607566, 0.02463248, -0.006745815, 0.13009, -0.09305018, 0.03605563, -0.13168, 0.03495421, -0.05254354, -0.04046501, -0.138254, 0.04958592, -0.001033694, 0.09327042, -0.05349038, 0.09262833, 0.06712544, 0.04724708, -0.05025074, 0.08517806, 0.04890322, 0.09840214, 0.1349248, 0.08640835, 0.09587184, -0.05814052, -0.1039447, 0.00408861, -0.09075795, 0.1173613, -0.1025472, 0.1101331, -0.07388233, -0.07575347, 0.03805728, -0.1077214, 0.08905955, -0.05599317, -0.02014947, -0.07120657, 0.008612186, -0.103074, -0.05445401, -0.1324487, 0.04900781, -0.08218515, 0.1202379, 0.05188146, 0.08625972, 0.1217664, -0.07765751, 0.05445392, -0.05208026, 0.08555956, -0.09756041, -0.02011384],
    [-0.07441983, 0.01551032, -0.001577377, -0.08126655, 0.0243855, -0.05131866, 0.03674434, -0.05478559, 0.04356118, -0.01626809, -0.09426825, -0.00669454, -0.01942257, 0.05219618, -0.1148729, 0.02535106, -0.003399134, 0.04266465, -0.00583683, -0.05662953, 0.1335611, -0.04029041, -0.04779542, 0.04717613, 0.1151241, -0.1202925, 0.0331526, 0.07387304, 0.101956, 0.05057579, 0.05667582, -0.03517027, 0.1057448, 0.0830811, -0.05358169, 0.1172318, -0.004544288, -0.1390977, -0.07215421, 0.08763713, 0.03157485, -0.0652682, 0.03004543, -0.1195426, -0.004765868, -0.06052947, 0.1118609, -0.01605039, -0.07190251, -0.02732794, -0.07621323, 0.04220417, 0.01456845, -0.02517686, -0.1294812, -0.0475668, -0.01684783, -0.04907595, -0.09534666, 0.06346478, 0.1053547, 0.1355181, 0.05877438, 0.06485929, 0.060309, -0.03735153, 0.02775934, -0.1311323, -0.1039412, -0.004041344, -0.04094292, 0.1259228, -0.06504539, -0.132794, 0.1242182, -0.1385688, -0.1340912, 0.04984612, 0.1270022, 0.08017201, -0.1352734, 0.000915572, -0.03496706, -0.07955819, 0.1172061, -0.05493062, -0.03600327, -0.130283, -0.04870623, -0.04072024, -0.1170674, -0.1191091, 0.04621948, 0.06121719, 0.1081852, 0.09054439, 0.0505349, -0.1276391, -0.01444951, -0.03348091, -0.01859662, -0.06582962],
    [0.05194495, -0.04849374, 0.09441975, -0.07028206, 0.08844863, -0.1192555, 0.06081372, 0.1296087, -0.008019999, 0.07262947, 0.03775855, 0.01736927, -0.0387216, 0.09217766, -0.02359029, 0.0314143, -0.1384205, 0.1332795, -0.1000758, -0.1378208, -0.07665968, -0.03360213, -0.05770984, -0.002158076, -0.1143356, 0.0756048, 0.1277349, 0.008125231, -0.08135365, -0.08440681, 0.1264242, 0.02536155, 0.1159102, -0.09724414, -0.08046964, -0.1078254, -0.08692035, 0.02815907, 0.02782184, 0.09473127, 0.03467647, 0.09566388, 0.0658351, -0.003009737, 0.08370127, -0.06006885, 0.02680135, 0.09883903, 0.1274537, -0.1057284, 0.1291565, 0.06527707, 0.02968971, 0.08564015, -0.1113107, 0.01768036, 0.03509514, 0.05104532, 0.08422224, -0.051147, -0.09973045, -0.06604919, 0.002796799, -0.02446538, -0.03335749, 0.1353862, 0.08585933, -0.01813657, -0.1076957, -0.106405, 0.01797765, 0.1147286, -0.04280582, 0.0237458, 0.0445195, 0.1171082, -0.05407009, -0.08835812, -0.009141847, 0.09024476, -0.1296698, 0.05136689, -0.1274256, 0.09996961, -0.05712797, -0.1235613, 0.06284218, 0.01488966, 0.06966913, 0.1311154, 0.08009419, 0.1164949, 0.05288024, -0.0302415, -0.1139826, -0.05279723, -0.03627105, 0.04311992, -0.1192744, 0.1301586, 0.06359652, -0.1195907],
    [0.1128083, 0.01358549, 0.1007189, -0.03648609, -0.1030441, 0.01250274, 0.09856163, -0.03829641, -0.01938074, 0.07753611, -0.1053258, 0.05487825, -0.02204672, -0.04471499, -0.004363179, -0.1362469, -0.1239758, 0.1095487, 0.03030657, -0.05472747, 0.03067705, -0.08660775, 0.05929796, -0.05270813, 0.07967924, -0.1022508, 0.07026052, -0.06438002, -0.1208743, -0.02155552, 0.03301425, -0.005328849, -0.0002175868, 0.06561877, 0.0912986, 0.01625124, 0.02901827, -0.08801398, -0.05042962, 0.08639299, -0.1319379, -0.02062121, 0.1149866, -0.07318334, 0.1095868, -0.1356197, -0.01720011, 0.0331988, -0.09787466, 0.03409721, 0.008504644, 0.1226013, -0.06618597, -0.1066808, 0.04752301, -0.06158191, -0.1005163, -0.05748012, -0.03391372, -0.003198534, 0.02728744, 0.03066793, 0.06985579, 0.1378914, -0.04638532, 0.1255267, -0.06131312, 0.04638236, 0.04005959, -0.0126767, -0.08355227, -0.1301886, -0.1315493, -0.08028495, -0.02022185, -0.03206731, 0.05965959, -0.08514264, -0.03632871, 0.09542751, 0.07098802, -0.07297759, 0.1018931, 0.1072213, -0.04672285, -0.09117764, -0.08858971, 0.1189954, -0.1243286, -0.1004771, 0.1378257, 0.09499371, -0.1204024, -0.02705141, -0.1328487, 0.04704737, 0.09585962, 0.04494787, -0.02031076, -0.08478794, -0.1212229, -0.07208359],
    [-0.001223922, 0.1218468, 0.07003434, 0.09344646, -0.1374897, 0.03032978, 0.07162832, 0.05138826, 0.1049397, 0.07208098, 0.1178519, -0.07959895, -0.06677635, 0.1197888, 0.09586473, -0.05110814, 0.004795715, 0.03784956, 0.02784815, -0.1396795, 0.01672705, 0.1378041, 0.1078935, -0.1235264, 0.08843584, -0.1061644, 0.04383914, -0.04822362, 0.01790618, -0.009060755, 0.124511, 0.07478964, -0.1009479, -0.1286807, -0.1178793, 0.0767837, -0.01836599, -0.01679595, 0.1140761, 0.05291843, -0.005700588, -0.1044226, -0.05807434, -0.02362588, -0.02234508, 0.09229718, 0.09586123, 0.1235971, -0.05062339, -0.1006025, 0.03873771, 0.03226182, -0.06931654, 0.02298785, 0.05095805, 0.1119573, -0.09617692, -0.1021379, 0.03565594, -0.1292756, 0.03350405, -0.02220994, -0.08756836, -0.03283227, 0.0565822, -0.02424841, 0.06397694, 0.1305218, 0.02210892, 0.05347177, 0.1233536, 0.1393294, -0.06018053, 0.05924081, -0.07205909, 0.05626614, 0.0604105, -0.09072293, -0.09356555, -0.1038886, -0.110282, -0.07599278, -0.0353997, -0.09838492, -0.07265863, -0.0601259, 0.03067552, -0.06349097, 0.1256241, -0.004802287, -0.07720043, 0.1278273, -0.1259252, 0.1250875, -0.06326322, 0.1015617, -0.07700251, -0.09012583, -0.08574088, -0.09979174, -0.03469911, 0.07025471],
