{
"layers": [102, 102, 60, 15],
"fitness": 100.7245,
"weights": [
  [
    [0.1392065, 0.1069208, -0.16, 0.1031699, 0.05196868, 0.1045192, -0.06549138, 0.09869836, 0.02309778, -0.01297188, 0.1269509, -0.1075771, -0.06995456, 0.05591834, -0.0908004, -0.1473352, 0.002445966, -0.06044279, 0.09398581, -0.09713071, 0.002205297, -0.03479789, 0.1634874, 0.03389201, -0.02070151, 0.1705223, -0.02958591, 0.06284599, 0.07216626, 0.08817283, 0.04724836, -0.05061096, 0.07128512, 0.06852221, 0.1577262, -0.09305765, 0.06479935, -0.1040918, 0.1243667, -0.07511304, -0.1163694, -0.05666773, 0.004933789, 0.1681922, -0.1647386, 0.128316, -0.1111862, 0.1285886, 0.1586665, 0.01803972, 0.04295192, -0.01753752, -0.1292867, 0.01381974, 0.008716255, -0.09737961, -0.0948415, -0.1119161, -0.1630009, -0.1338561, -0.05132144, 0.1044131, 0.1650059, 0.1201108, -0.1574829, -0.01399291, -0.0685351, 0.06389989, 0.04143457, -0.1065419, -0.1075401, 0.03501329, 0.1458657, -0.05489685, 0.06116159, -0.1024742, -0.1291922, 0.08669594, -0.1688506, 0.07402772, 0.09394693, -0.1470688, -0.09547801, -0.007091671, 0.09510721, 0.02174085, -0.02903651, -0.0160381, 0.1580205, -0.1267835, 0.03304349, 0.03894165, -0.1558584, -0.1338319, 0.08421801, 0.06551617, 0.04273385, -0.05721331, -0.04215074, 0.1158059, -0.03102073, -0.1043064],
    [0.02574274, -0.1274316, -0.04046695, -0.09998669, 0.1249437, 0.04452535, -0.1654237, 0.03402878, 0.03281856, 0.03352188, -0.1136698, 0.1143117, -0.1251047, -0.01225719, 0.04119603, 0.1545703, 0.09331913, -0.08908649, 0.1037261, -0.1350205, 0.007370085, -0.04718325, -0.1241753, -0.03059693, 0.1496096, 0.1009047, -0.04464829, 0.02506894, 0.1462303, 0.04051299, 0.1344801, -0.1286738, -0.1016218, 0.1584739, 0.08772281, -0.05918111, 0.1217468, -0.09583994, 0.003531724, -0.02895166, 0.01136926, 0.1318396, 0.168943, -0.03752156, -0.1383976, -0.03710812, 0.1306457, 0.01554675, -0.1676542, -0.01220886, -0.1463392, -0.01631835, 0.0891517, -0.09757083, -0.1022764, 0.1047859, 0.01943119, -0.1006166, 0.07856973, 0.08777875, 0.004089594, -0.01963542, 0.01308873, 0.1536174, -0.0382196, 0.09633444, 0.1198893, 0.1279848, -0.06683493, 0.06557816, 0.1690075, 0.07682939, -0.134758, 0.1217883, 0.09027229, 0.01660621, 0.02238764, 0.1069403, 0.06005315, 0.02860734, 0.007318646, 0.06480075, -0.07144068, 0.0135368, 0.01430051, -0.1036097, 0.1372398, 0.1093561, -0.03631227, -0.01648284, 0.1027586, -0.1486109, -0.05697407, -0.01047151, -0.1281756, 0.03091288, -0.1049694, 0.06879191, -0.03507806, 0.01885492, -0.005767658, -0.1365899],
    [-0.02086049, -0.05227144, 0.09959672, 0.07719547, -0.02234437, -0.01779206, -0.07800557, 0.1207259, 0.01507166, 0.1286184, 0.05747133, 0.04106462, 0.1529775, 0.003321722, 0.153459, -0.09267192, 0.07609131, -0.1102155, -0.1082886, -0.1257051, -0.0491748, -0.04126815, -0.01347926, 0.04029477, -0.04462931, -0.002938554, 0.06263427, -0.0197715, 0.01705222, -0.02517164, -0.03159955, 0.04109004, -0.004865259, 0.1612185, 0.1322092, 0.0963573, -0.1686625, -0.05715508, -0.1387065, 0.01065534, -0.1699743, -0.1526157, 0.029284, -0.1055506, 0.0992298, -0.1663356, 0.05000649, -0.1241089, 0.1265807, -0.01789035, 0.1334749, 0.1172943, 0.007126555, 0.001437739, 0.1385673, -0.04897878, 0.07002028, -0.0871581, -0.05113749, 0.002408803, 0.06623895, -0.08227853, -0.1522124, 0.03840283, 0.09985159, 0.02534084, 0.09020388, 0.02086286, -0.09118639, 0.1023658, -0.07322747, -0.01729125, -0.1548156, 0.06020811, 0.01616478, -0.03647943, 0.03342628, -0.009507611, 0.1412732, -0.1185642, -0.1235897, -0.05053459, -0.1360102, 0.1516863, -0.1141401, -0.1020535, 0.1336335, -0.1607455, 0.1189231, -0.165337, 0.1440191, 0.09634275, -0.1364285, -0.03213462, -0.07441275, 0.03955325, -0.07023853, 0.00726524, 0.1268752, -0.09710851, 0.04847034, 0.1565189],
    [-0.02561267, 0.05564239, -0.03998896, -0.1110568, -0.02509323, -0.1068193, 0.1644749, 0.1453619, -0.07161711, 0.01552798, -0.008751214, -0.1597735, 0.03475079, 0.1167862, 0.153968, 0.1641161, -0.1125003, 0.04262021, 0.09400467, -0.03052758, -0.09025194, -0.06492813, -0.03936189, 0.1130303, -0.168451, 0.1379559, -0.06877933, 0.03823391, -0.1557727, -0.1080113, -0.1171522, 0.008935541, -0.1510791, -0.1592139, -0.08174606, 0.01603229, -0.05464326, -0.1021333, 0.1294789, 0.165411, 0.134715, -0.1364333, 0.1468204, -0.07305141, -0.163357, 0.04619969, 0.07719788, 0.06186356, -0.1012163, 0.01904067, 0.01402941, -0.09272076, -0.1608576, 0.007305309, -0.138127, -0.05819316, 0.07442458, -0.03017156, 0.09913817, 0.04862937, 0.07444118, 0.1514957, 0.08640309, 0.146831, 0.06192539, 0.003886104, -0.02709965, -0.07975401, 0.0679317, 0.0990806, 0.1201207, -0.145588, -0.1097664, -0.007984713, -0.05893033, -0.1132622, 0.08220401, -0.1492866, -0.04290153, 0.115498, -0.1004878, 0.1350864, -0.06520855, -0.06502847, -0.02271175, -0.1412789, 0.01165687, -0.004028276, 0.0348517, 0.1094233, -0.02788696, 0.145789, 0.07879473, 0.0269051, -0.05039929, -0.1211257, -0.02522112, -0.1650459, 0.08554775, 0.08288521, 0.02883387, -0.1114468],
    [-0.07295784, 0.1501156, 0.08833593, -0.1693398, -0.02230348, 0.04953251, -0.002256572, 0.01317562, -0.1406113, -0.03954516, -0.1011804, -0.1484348, 0.08421266, -0.06118529, 0.09929179, -0.1064658, 0.05764584, 0.06404328, 0.1603211, -0.06759639, -0.09590574, 0.09257802, 0.1011939, -0.07410613, 0.09233016, 0.1580939, 0.1558302, -0.0200614, -0.09330269, -0.07659279, -0.06687427, 0.1345513, -0.07011127, -0.07420646, 0.02680984, 0.01422977, -0.1548196, 0.1028197, 0.1433728, -0.05086398, 0.05393378, 0.005535781, 0.1413734, -0.113454, 0.04660056, -0.02571468, -0.1371102, 0.1264962, -0.04537471, -0.02541788, -0.133189, 0.1553117, 0.1208091, -0.04978015, 0.04139127, -0.06012354, 0.02578902, 0.02391547, 0.1501706, -0.0181845, 0.007831052, 0.09995715, -0.04700775, -0.08087896, -0.1191298, -0.01341879, -0.07847363, 0.1155322, 0.005288243, -0.1511771, 0.03267071, -0.03351158, 0.137035, -0.06230449, -0.111951, -0.05918086, 0.1391457, -0.01137491, 0.155667, -0.12191, 0.1658096, 0.1044274, -0.1139174, 0.121001, 0.1584469, 0.00877808, -0.1578348, 0.0068793, 0.1531393, -0.1063923, 0.01963028, -0.02238469, 0.04464789, -0.073237, -0.07824089, 0.06866609, -0.03464276, -0.04406673, 0.12317, 0.1619882, 0.03797328, -0.156736],
    [0.04828214, -0.1621701, -0.07145222, 0.03612709, 0.1441686, 0.07763874, -0.07539845, 0.1705436, -0.07737523, 0.03635316, 0.1671654, 0.1506743, -0.08265594, -0.0878811, 0.1182395, -0.04172938, 0.1284317, -0.1156605, 0.01398677, 0.04116733, -0.07868288, 0.142938, 0.03433932, 0.07236094, 0.08209558, 0.08700448, -0.06064904, 0.1422247, -0.04712097, 0.1005084, 0.1712873, -0.04766168, -0.07094438, 0.1203469, 0.1678648, 0.1043445, 0.06809819, -0.08137281, -0.1554051, 0.07976294, -0.08015398, 0.08783693, 0.07694645, 0.1293445, -0.08025412, 0.06440286, 0.04144467, 0.07711888, -0.143814, 0.1426283, -0.05570444, -0.004020706, 0.01926515, -0.03987505, -0.00353834, -0.0385492, -0.07446308, 0.03601411, 0.07298268, 0.1372695, 0.1132671, 0.02490084, 0.1273391, 0.1607996, 0.06737246, 0.07881812, -0.05565255, 0.06520722, 0.09412226, -0.1464399, -0.1696507, -0.1094752, 0.1380738, 0.1039928, -0.1548376, -0.1705083, -0.07549854, -0.05059534, 0.1140068, 0.113298, 0.07860799, 0.0972717, 0.1421531, 0.1412529, 0.09809501, -0.05742114, 0.07886854, -0.07522155, 0.02106942, -0.1058422, -0.1461623, -0.04218881, -0.08601089, -0.1087892, -0.1065071, -0.009114385, 0.1307059, 0.1196056, -0.1189079, -0.01241106, -0.05513065, 0.07720879],
    [0.08268939, -0.08893438, -0.1610904, -0.02713789, 0.07615526, 0.07635987, -0.1065914, 0.0644664, 0.147257, -0.107667, 0.1400768, 0.1083107, 0.05069263, 0.157698, -0.03775102, 0.08368765, -0.001697749, -0.164303, -0.07268447, 0.05514061, -0.11675, -0.1048873, -0.0682109, -0.162572, -0.09471519, -0.04156493, 0.02877833, -0.04649775, 0.03924049, 0.0829959, 0.08831565, -0.08663069, 0.04123896, -0.07451124, 0.1323185, -0.05907127, 0.07562629, 0.1601952, -0.02957606, 0.0757133, -0.05818735, 0.03640194, 0.06197981, -0.003731579, -0.005842611, 0.08350091, 0.0302632, -0.1227739, 0.09110735, -0.07817309, -0.1382135, -0.07194708, -0.06070489, 0.03201571, -0.1334255, -0.1335003, -0.1612256, 0.1478278, 0.003815487, -0.007862702, -0.1027464, -0.01534557, -0.001166195, 0.01234609, 0.1444085, -0.1100533, 0.05868968, -0.0572082, 0.006777406, 0.02569248, -0.06683284, -0.04804354, -0.1655221, -0.09029482, 0.06779468, -0.08070134, -0.1509973, -0.155449, 0.1116136, -0.1475626, -0.06338489, -0.02407841, -0.05597606, 0.03383259, -0.05216305, -0.1705334, 0.1216322, -0.075104, 0.0108939, 0.03087714, -0.07124557, -0.115179, -0.0397061, -0.07543512, 0.1099571, -0.05460073, 0.083895, 0.1024521, 0.1279586, 0.1703434, -0.1577043, 0.1456695],
    [-0.02125996, -0.04430036, 0.1054402, 0.007920936, -0.09285612, -0.0363306, -0.1707548, 0.1020585, -0.04295211, 0.0422422, -0.0823276, -0.1226073, 0.04280496, 0.130669, -0.06267339, 0.1621252, -0.1238071, -0.1540715, -0.01194651, -0.07805836, -0.03967081, -0.1172455, 0.01954551, -0.1547761, 0.03520972, 0.02060109, -0.09979414, -0.050651, -0.1229521, -0.1487135, 0.1426102, -0.15555, 0.1589287, 0.1670254, 0.06979973, 0.004790142, -0.02350941, -0.01174964, 0.1033697, 0.05151997, 0.04201142, 0.04657958, 0.1107212, -0.0735677, 0.02479036, 0.103036, 0.1451719, 0.01944026, 0.1071806, 0.1544277, 0.1652204, 0.1020128, 0.002916843, -0.09667133, -0.0193605, 0.01332736, -0.07297798, -0.03673334, 0.05969762, 0.006685078, 0.02805395, 0.1618946, -0.1365033, -0.09403534, 0.1619621, 0.06651377, -0.0382257, 0.06739389, 0.1602627, 0.01749063, -0.03093499, -0.1291889, -0.08646856, 0.1192432, 0.02865121, -0.04813816, 0.03413562, 0.1011434, -0.09599303, 0.08437862, 0.1207372, -0.1059221, 0.1657199, 0.1071363, 0.05945013, 0.1243453, 0.1403488, 0.1252411, 0.01629132, -0.0234289, 0.1202218, -0.02037187, 0.01753642, 0.03103362, -0.1496713, -0.08017592, 0.1239168, -0.1368256, 0.1537637, 0.006448418, 0.05678673, 0.02382715],
    [0.05695392, 0.07743993, -0.01156838, -0.1077394, -0.1496746, 0.08965118, -0.06292942, 0.02037834, 0.1395735, 0.08886571, 0.1300869, -0.0825951, -0.07215963, -0.03531206, -0.03218524, -0.1000267, -0.04786907, -0.1468556, 0.1384025, -0.1664778, -0.1106645, -0.09620459, -0.01201612, -0.01722693, 0.0652371, -0.07683212, 0.04059529, 0.168743, -0.1052976, -0.04291923, 0.03829479, 0.1646646, -0.1679843, -0.1562879, 0.1629496, 0.1184154, 0.009340987, -0.04940185, -0.1542044, -0.04164752, 0.1036959, 0.03066349, -0.09161796, -0.1006449, -0.02520464, 0.01601966, 0.05743563, -0.09477673, -0.1501607, 0.05492242, 0.04212269, 0.1381227, 0.07454336, -0.01540671, -0.08940537, 0.04614981, -0.002216578, 0.1403209, -0.1657144, 0.1356353, -0.1606915, -0.1048348, -0.1201186, -0.08249597, 0.0546766, -0.08606049, -0.05020891, 0.002770707, 0.0360636, -0.0597515, -0.06477889, -0.1625785, 0.01240426, -0.08611525, -0.1540379, -0.1580139, 0.1492638, -0.1426026, 0.02464348, 0.05789207, 0.04253358, -0.1186578, -0.08530898, 0.1428419, -0.02820973, 0.09454501, 0.09245352, 0.1144479, 0.1223906, -0.1647173, 0.04996363, 0.113491, 0.08279194, 0.1085612, -0.05993819, -0.1179851, 0.1612395, -0.04863115, -0.1003996, -0.1410175, -0.1383183, 0.1545439],
    [-0.1653155, -0.1003734, 0.1099833, -0.06895998, 0.1606629, -0.02536663, 0.1159039, -0.1217112, 0.02189158, 0.06079257, 0.05444939, -0.1585795, -0.07410662, -0.06578279, -0.04788109, -0.1356838, 0.1147861, 0.1004504, 0.120058, -0.1442035, 0.1143571, -0.1061115, -0.1423041, 0.08375736, 0.0008346736, -0.12135, 0.02349408, 0.1199756, 0.00615263, -0.09639857, -0.06488881, 0.09534483, -0.09085013, 0.08475398, 0.06893899, 0.07886739, 0.02591594, -0.01318622, 0.04008476, 0.1712429, -0.1040328, 0.03936177, -0.02426854, 0.1521489, 0.005053878, -0.03025253, 0.1106562, -0.03929144, 0.1672441, 0.1233411, 0.08113195, -0.1606647, -0.1337747, 0.1170314, -0.03339779, 0.05721565, -0.1120057, 0.06307611, -0.1283584, -0.06505325, 0.0613956, 0.1448488, -0.1106533, 0.0363965, -0.1155491, 0.110383, -0.091505, 0.04519542, 0.1178472, -0.01475081, -0.06447542, -0.1401508, 0.07604159, 0.004353002, -0.1465782, -0.1415827, -0.09185847, 0.05067138, 0.1054851, 0.1429974, -0.1531013, -0.02969325, 0.1102441, 0.09204615, -0.04437748, 0.04763941, -0.02300729, 0.1555094, 0.1599984, 0.07392942, 0.1234978, -0.135487, -0.06932709, 0.1516558, 0.1123783, 0.1145149, 0.1049277, -0.02233529, -0.136004, -0.007282749, 0.09062053, -0.120105],
    [-0.1573097, -0.0533343, -0.1370835, -0.01654275, 0.1484285, -0.1100045, 0.08987162, 0.08903067, 0.1331531, -0.03591672, -0.08402861, -0.1073294, -0.007611856, 0.03771348, 0.1009948, 0.1274443, -0.1187701, 0.04295486, 0.06954319, 0.1650355, 0.04901416, 0.128575, 0.06655498, 0.1392383, -0.004334316, 0.1640234, -0.06207347, 0.1281549, 0.1660604, 0.08945182, -0.01904733, -0.05002483, 0.007237807, 0.0550753, -0.06565742, -0.1423533, 0.07016429, -0.08534508, 0.02195315, -0.004583046, 0.1180191, -0.0997806, 0.03759503, 0.1591807, 0.1544349, -0.1182677, -0.007240549, 0.05022381, -0.06738283, 0.09225084, -0.0607567, 0.03626783, 0.06630564, -0.05029633, -0.05508105, 0.1364185, 0.01152693, 0.1295289, -0.09671177, 0.1608277, -0.05940251, 0.1617741, -0.06610617, -0.1141753, -0.06429256, -0.07090268, 0.1647473, 0.1126065, -0.01218908, 0.04673782, 0.1435637, -0.05385951, 0.1128511, -0.1066163, 0.1562204, -0.167029, -0.1296392, -0.1195707, -0.07660894, 0.1068946, 0.1678065, 0.05440883, -0.0590382, 0.04036003, 0.04190263, -0.1071621, -0.1021531, -0.06189531, 0.1701956, -0.07164018, 0.1344754, -0.0505363, -0.02813843, 0.1343476, 0.1479357, 0.03466222, -0.1478906, -0.07264215, -0.09809639, -0.05546062, 0.1300581, 0.1421519],
    [0.0809422, -0.1381655, 0.05976803, -0.1316409, 0.1356024, 0.1672723, 0.1492425, -0.007436156, 0.01721798, 0.0897366, 0.08189833, -0.1503503, -0.1476243, -0.08316814, 0.1110558, -0.01831077, 0.05779115, -0.1345425, 0.1673087, 0.1383755, -0.148122, 0.1529129, 0.0652726, -0.1006913, -0.1401647, -0.1521637, 0.08399162, 0.009332478, 0.1633756, 0.1267421, 0.001890615, 0.1188438, 0.08359627, -0.1242502, 0.1556735, -0.1709097, 0.1654368, 0.1036646, -0.1399099, -0.1148451, -0.1309846, 0.02435903, 0.122977, -0.1279857, 0.1475151, 0.1315944, -0.1458585, 0.1167712, 0.0348981, -0.12205, -0.1222235, 0.09862277, -0.1580024, -0.002462327, -0.01259375, -0.1466278, 0.13736, -0.1504185, -0.1053071, -0.01300541, 0.05144674, 0.1648432, -0.1546633, -0.106617, -0.1013546, -0.03465912, -0.07671015, -0.06963423, -0.04956283, 0.07737517, -0.1255673, -0.007151529, -0.05882746, 0.1438912, 0.013456, -0.05869678, -0.07567349, -0.0005570799, -0.04359885, -0.03415971, 0.009383962, 0.1289455, -0.05941433, -0.05185451, -0.08839779, -0.04367542, 0.006388843, -0.09463264, -0.01889984, -0.1269512, 0.1123387, -0.1232509, -0.05728776, -0.1497702, -0.04693604, 0.07096521, -0.03388987, -0.1541993, -0.1457707, -0.007828802, -0.09402429, -0.02746156],
    [0.1506559, 0.1517351, 0.1651018, 0.07149202, -0.1252101, 0.160754, 0.1458501, 0.1631431, 0.02575979, 0.1375764, -0.003462091, 0.1313954, 0.07564861, 0.1207154, -0.02081086, -0.1334561, 0.09072529, 0.1446451, 0.09110678, -0.00335516, 0.05184119, -0.08968758, -0.001608893, 0.1638238, 0.05773808, 0.02341957, 0.02437297, -0.01174401, 0.04877042, 0.01956007, 0.1591056, -0.1394526, 0.05889298, 0.1682487, 0.07259167, -0.09994278, -0.1026387, 0.1699309, -0.02292781, 0.01375747, -0.0969867, -0.1612374, 0.1147864, -0.02728705, 0.1457507, -0.1421943, -0.1092075, -0.09531449, 0.02752948, -0.1584747, 0.1435153, 0.09667234, 0.04872242, -0.02328537, -0.05156563, -0.001324072, -0.1317355, 0.1710082, -0.07500468, -0.09591641, -0.04232456, 0.09818531, 0.05722239, -0.08486595, -0.129808, 0.1471711, 0.005809903, -0.124937, 0.1609504, -0.02588724, 0.07954574, 0.1461383, 0.03658107, -0.02034681, 0.01389788, 0.007089749, -0.08976559, -0.102099, 0.1264666, 0.03732663, 0.08182833, -0.00620459, 0.1267644, -0.0768795, 0.03216602, -0.08298837, -0.04281811, 0.1176066, -0.07904418, 0.1661464, -0.07864822, 0.02149111, -0.007446751, -0.03556728, 0.1423802, -0.1359607, -0.1078966, -0.09071054, 0.1594374, -0.02915859, -0.05165869, 0.02923812],
    [-0.04320365, -0.07664362, -0.08404709, -0.04237178, 0.009139493, -0.0208371, -0.1373259, -0.05459853, 0.1418698, 0.1661995, -0.06418005, -0.1313373, -0.05074675, -0.1330995, 0.08269344, 0.1259838, -0.06625648, 0.1548002, -0.05271762, 0.08869616, -0.1190099, -0.05278623, -0.01750077, 0.1031631, 0.01227608, -0.08641459, 0.141596, 0.1456949, -0.102002, 0.03656594, -0.1685284, -0.1294323, -0.1215022, 0.08855112, 0.03706102, 0.07706503, -0.1224403, -0.01701494, 0.04897033, -0.08943395, -0.1214142, -0.01879685, -0.07228556, 0.07774918, 0.06849723, 0.09030578, -0.1571802, 0.1196274, 0.06080721, -0.1189168, 0.0008790344, -0.152532, -0.1016494, -0.06812823, 0.07452889, 0.05485017, 0.1395595, 0.01461355, 0.07202418, 0.08586647, -0.08293851, 0.05306969, -0.08478777, 0.04126963, 0.01208067, -0.0236225, -0.02847846, -0.09645254, -0.1426948, 0.05533866, 0.09651554, -0.1143117, 0.1286817, 0.08769533, -0.05450898, 0.09593154, 0.09392919, 0.09856957, 0.129058, -0.05659037, -0.06608753, -0.1123064, 0.09191032, -0.1610766, -0.01924376, -0.04695255, 0.1340979, 0.1639441, -0.0450418, -0.02578141, 0.03823027, 0.1411544, -0.08696704, 0.009760708, 0.08155274, 0.0465923, -0.09934564, 0.1714086, 0.008044094, 0.1564975, -0.05147784, 0.09067467],
    [0.05886946, 0.06107883, 0.1426533, -0.08861754, 0.08705796, 0.04898971, -0.01837485, 0.05451918, 0.08330707, 0.09210012, 0.1458922, -0.08808227, 0.04878891, -0.06933534, -0.1111836, 0.16821, -0.03077286, 0.09046078, 0.07470801, -0.141211, 0.1628434, -0.02500175, -0.03229286, -0.1547409, 0.08393331, 0.06129297, 0.1162982, -0.1387153, 0.1010139, 0.01578079, 0.09479634, -0.1208123, -0.06053206, -0.03068145, 0.07363302, -0.01307692, 0.1150163, -0.07554772, 0.005223677, 0.01759706, -0.01351586, 0.02596623, 0.04115266, -0.05251952, -0.1482851, 0.005671486, -0.0197323, 0.1564415, 0.1593102, 0.002221078, 0.01010592, 0.05764686, -0.09057997, -0.1041726, -0.07630543, 0.1199611, -0.107414, 0.08469751, 0.0997649, 0.1502399, 0.02039763, 0.05143688, -0.1395263, -0.05730674, 0.08511666, 0.1038867, 0.06393518, -0.1515075, -0.05895172, -0.05635939, -0.08821764, -0.07779156, -0.103418, 0.0733567, -0.09302761, 0.1639475, 0.1134971, -0.01518092, -0.08389689, 0.1165042, 0.08827734, 0.03124362, 0.01360275, 0.0291664, 0.1525748, 0.03727482, 0.1287942, -0.1511023, -0.08968522, 0.1159541, 0.09252475, 0.1091943, -0.1489342, 0.04516771, -0.07949255, -0.06823978, -0.06891476, -0.08139949, -0.08699642, 0.1564656, 0.0225686, 0.1348977],
    [-0.13437, 0.1015449, -0.1521393, -0.03249787, 0.0005830079, 0.1024756, -0.0935414, -0.01950365, -0.1260464, -0.1093982, 0.06068422, -0.1427408, -0.09366579, 0.1114255, 0.1666159, -0.1578262, 0.1004118, -0.06146558, 0.1248327, -0.09181505, -0.01518853, -0.1448065, 0.01562746, -0.1337367, -0.1003305, 0.05041349, -0.05148266, 0.1246125, 0.08200039, 0.09550212, -0.1698322, -0.1475085, -0.07047854, 0.08901758, -0.01785401, -0.0499094, 0.02901091, -0.08292519, -0.1610352, 0.07210457, 0.1238382, 0.06041288, -0.08396919, -0.03220728, -0.0714633, 0.05164006, -0.06455708, 0.0661443, -0.03184386, 0.1260284, -0.1321473, 0.006073833, 0.1675044, 0.03316616, -0.05471858, 0.04995308, -0.06945191, 0.1637985, 0.03033876, 0.05992471, -0.1567843, 0.093247, -0.04317605, -0.1368246, -0.01029778, 0.004378349, 0.1454367, 0.1415937, 0.07949839, 0.02965969, 0.1475718, 0.08144443, -0.04349384, 0.09291686, -0.1133057, 0.04645353, -0.126421, -0.003990367, -0.1276489, 0.1468044, -0.05982505, -0.1546637, -0.1330409, 0.09482444, 0.0579617, -0.1197277, 0.1663212, -0.1355963, -0.103903, 0.1589308, -0.06121853, -0.0419483, -0.02677165, -0.1476157, -0.1099319, -0.09075706, -0.08564021, -0.02493592, 0.01606718, 0.006588578, 0.03967658, 0.1268954],
    [0.1451261, -0.09144894, -0.01884376, -0.1366999, 0.0516628, -0.156488, -0.1654503, 0.002684027, -0.1226021, 0.1657207, 0.1407948, -0.1580208, 0.1596267, -0.1127167, -0.06416945, -0.0349874, -0.1553004, -0.1311913, 0.06893747, -0.1662344, 0.07759413, -0.04446396, -0.02144952, -0.05377373, -0.1209525, -0.1403506, 0.1475864, 0.07960154, 0.05517875, 0.09466235, -0.1282183, 0.04962508, -0.03519443, -0.007017955, 0.10961, 0.003332227, 0.0427067, -0.07797818, 0.1446971, 0.06381546, 0.04747864, 0.005508065, 0.1343862, -0.1067167, 0.03176156, 0.07459348, -0.1667672, -0.1375725, 0.01309189, 0.07557743, 0.01169407, -0.08504252, 0.006028816, -0.02135871, 0.1073433, -0.06071328, 0.02659567, 0.0171414, -0.0450611, -0.01730695, 0.04066174, -0.1417951, 0.03775363, -0.1572563, 0.0990081, -0.1517571, -0.1713326, -0.1642357, -0.02146293, 0.008573472, 0.09666017, -0.1518982, 0.16501, -0.00658457, -0.04133019, -0.09300437, -0.1021108, -0.04010835, 0.03436692, -0.1085516, 0.0131865, 0.084755, 0.07883644, -0.007411748, 0.03575599, 0.005789861, 0.07092841, -0.02074763, -0.0776635, 0.09147613, 0.1099245, 0.08153291, 0.1224227, 0.105157, -0.1006502, -0.04769108, -0.125731, -0.1368166, 0.03539449, -0.1600167, -0.1045995, 0.05765945],
    [-0.04728964, 0.007028833, -0.1524617, -0.02856331, 0.03698923, -0.01578414, 0.1250515, -0.03693263, -0.1669085, -0.01885405, 0.008853108, -0.02102236, 0.1465511, -0.05732444, 0.02363767, -0.04873214, -0.03793617, -0.09684752, 0.01057631, -0.0741284, 0.1214841, 0.08888049, -0.01277496, 0.04542031, 0.09186477, -0.1626884, 0.1055619, -0.1344093, 0.1080391, -0.03831531, 0.01400121, -0.03851734, 0.1591399, -0.06597058, 0.03755431, 0.1558208, 0.09556922, -0.08263873, -0.0410548, -0.0870385, 0.1649252, -0.01977265, -0.1562231, 0.007088572, 0.09036461, -0.1012761, -0.03018785, -0.06170781, 0.08343472, 0.05902885, 0.1322987, 0.153074, -0.02035417, -0.07847105, -0.1167736, -0.1489084, -0.1223854, -0.03242096, 0.1489221, 0.01389354, 0.0297637, 0.1569421, -0.04144664, 0.1443672, 0.1213067, -0.04568142, -0.09948139, 0.1550584, 0.109292, -0.05011969, -0.07002267, -0.05706831, 0.01409656, -0.0810873, -0.02586691, -0.09844618, 0.08006489, -0.03989823, -0.1041307, -0.1354167, 0.09608859, 0.01411565, -0.0431294, 0.01019801, 0.1036761, 0.08238662, -0.05330785, 0.01574481, 0.0343857, -0.113442, 0.09885289, -0.04133137, 0.1023775, -0.05376056, 0.06389964, 0.02413607, -0.01632297, 0.01359154, 0.1033569, 0.04892131, 0.111538, 0.02662924],
    [0.09797612, -0.02997485, -0.02163795, -0.09419794, -0.05604999, 0.009640202, 0.005415857, 0.13781, 0.1408374, 0.11872, 0.01504946, 0.1563821, 0.08909728, -0.08503838, 0.01362082, 0.1344945, -0.009878308, -0.1005901, -0.14037, -0.05510089, 0.09593754, -0.1122663, 0.07557293, 0.1401445, -0.03748311, 0.03994864, 0.03605464, -0.07538675, -0.1422937, 0.07688472, -0.03204098, 0.1441443, -0.1499057, 0.1390363, 0.1658732, -0.03386493, -0.1438456, 0.07110439, -0.02005273, 0.08282195, 0.1000444, 0.1474598, 0.06748936, 0.1364444, 0.1272945, 0.1165653, 0.009556353, -0.1362698, -0.002282247, -0.09063546, -0.07162881, 0.1144182, 0.08098255, -0.04084881, -0.1286314, 0.08397971, 0.1099295, -0.109488, 0.09891443, -0.07703856, 0.03045145, 0.1697751, 0.03441566, 0.1041152, -0.006743133, 0.008837402, 0.1229538, 0.06978762, -0.1048109, -0.03706744, 0.1253105, 0.1438074, 0.05874386, 0.01051436, -0.1689555, 0.05677409, -0.01843794, -0.1647875, -0.08470015, 0.09653083, 0.1677934, 0.09962629, 0.05898469, 0.1614962, -0.1286408, -0.02271216, 0.09303728, -0.1424883, -0.08173738, -0.1627564, -0.02735005, 0.01686737, 0.1428714, -0.03488293, -0.08076318, -0.007148549, -0.03878549, 0.02484834, 0.1649828, 0.15773, 0.1591157, 0.0380643],
    [-0.009618536, -0.1481429, 0.06487115, 0.1256146, 0.04323462, -0.07233311, -0.02653229, 0.04557303, -0.07666561, 0.05484596, -0.1296665, 0.005616456, 0.04202063, 0.1338029, -0.03715155, 0.1010518, 0.05757608, 0.1596052, 0.0202499, 0.1507019, -0.03996643, -0.1133595, 0.1700637, -0.001667783, 0.02095662, -0.07691573, -0.1508415, -0.1708894, 0.02207704, 0.1201179, 0.05326427, -0.1284148, 0.1658515, -0.0193107, -0.02292785, 0.122048, 0.009905621, 0.03829962, -0.0083808, 0.01274507, 0.06470065, -0.1310471, 0.07199981, -0.1421655, 0.02596562, 0.02122402, -0.1123312, 0.1285564, 0.1162241, -0.1330018, -0.02722993, -0.03935364, 0.1142147, -0.1097446, 0.08071379, -0.06448781, 0.1086431, -0.1389865, -0.1422607, 0.1710083, 0.001252845, 0.06670185, -0.1553029, 0.1272246, 0.167199, -0.06310165, -0.03950027, -0.09085627, -0.0003656447, 0.08711737, -0.06959388, 0.1437914, 0.06350074, 0.01961936, 0.1243863, 0.1485771, 0.1365495, -0.159737, 0.1207806, -0.0183292, -0.00587675, 0.1199082, 0.02628773, 0.154002, -0.1527433, 0.1004907, 0.0546598, -0.06833905, 0.07588098, 0.06388967, 0.03430825, -0.06207019, -0.1105667, -0.06520659, 0.09687111, -0.1536102, -0.09699841, 0.06635205, 0.01922365, -0.1546635, 0.08559632, -0.1263178],
    [-0.160822, 0.07755627, 0.1456391, -0.1609784, 0.133236, 0.1146484, -0.02649148, -0.1250935, 0.05392789, -0.08936711, -0.06491947, -0.05280904, 0.0371172, -0.102369, 0.01524684, -0.06704521, 0.1554391, -0.1571095, 0.1406488, -0.02166423, 0.02324256, 0.03810188, -0.118967, -0.1083564, -0.05310258, 0.1307506, 0.01891738, 0.08682628, 0.02012888, -0.06525397, -0.09350375, 0.02057076, 0.06859891, 0.02336201, 0.06439301, 0.1573595, 0.07596713, -0.1099221, -0.08996587, 0.06740035, -0.004528418, 0.09829554, -0.07696243, -0.008407742, 0.03287707, -0.06658685, 0.03210224, 0.106785, 0.03079091, -0.003912315, 0.05914574, -0.08985041, 0.1543226, -0.0895256, 0.09325089, -0.07151228, -0.1627259, 0.1380331, 0.1514807, 0.142084, -0.01814328, 0.1379377, 0.0360391, -0.06143843, 0.1012086, -0.1602352, -0.1491014, 0.168162, -0.03915456, 0.0299677, 0.1435139, -0.1116688, 0.0648474, -0.1387965, 0.1587227, -0.1299005, -0.07028657, -0.05451271, 0.1033751, 0.123177, 0.1203936, 0.07484156, 0.1567551, -0.09569202, -0.04812834, 0.03410161, 0.03935041, -0.1523204, 0.07632989, -0.02106386, 0.1545015, -0.1658034, 0.1609629, 0.08422259, -0.106022, -0.1594895, 0.08265869, 0.00192742, 0.05798873, -0.165401, 0.108319, 0.0744725],
    [0.163323, -0.1241137, 0.09559257, -0.01724271, 0.04851937, -0.157164, 0.0806428, -0.005487502, -0.02574593, 0.1311294, 0.106829, -0.1377363, -0.1315764, -0.04321003, -0.009030476, 0.1389904, 0.08292709, -0.08352826, -0.01624668, 0.09765433, -0.1278216, 0.1498565, -0.03930572, 0.1270631, -0.03512144, 0.05658961, -0.1569193, -0.01567575, 0.1252899, 0.01489551, -0.1369833, -0.03715679, -0.1598083, -0.002108395, -0.0001622587, 0.06810829, -0.09281654, 0.1217298, -0.05557286, -0.04479152, 0.07446964, -0.06066073, -0.05433962, 0.05489973, 0.08869616, 0.1356048, 0.1121221, 0.01846565, 0.0870719, -0.1323195, -0.002404869, 0.06768309, 0.1419028, -0.1325711, -0.1487598, -0.107103, 0.009636357, -0.08175687, 0.03427304, -0.0253408, -0.01257963, -0.02366842, -0.1556181, 0.02184492, 0.01357262, 0.01626614, 0.1356372, -0.1048996, 0.09568812, 0.115704, 0.05411549, 0.1013229, -0.0234179, -0.0473697, -0.045044, -0.09789623, -0.09820121, 0.06339304, 0.06880352, 0.05373686, -0.11168, -0.09704648, 0.1019488, 0.05503041, 0.01096818, 0.1682819, -0.164415, 0.01459879, 0.1316949, -0.1115212, 0.1077599, -0.1542936, -0.1338478, -0.1624749, 0.09259585, 0.02790324, 0.002821207, -0.04650302, -0.1256935, -0.1290149, -0.1651972, 0.02025546],
    [0.1503381, 0.07566027, -0.008733749, 0.08233694, 0.01356338, -0.1092303, -0.08743353, -0.155595, 0.02124742, -0.03984492, 0.03174116, 0.1098068, 0.1404229, 0.02918084, -0.135772, -0.009092882, -0.05611978, 0.05784304, -0.0601641, -0.1195466, 0.1490797, 0.1116598, 0.1713202, -0.07621388, -0.131286, 0.09340933, 0.07399386, -0.1408331, -0.07606275, -0.1563385, 0.06575251, -0.006421149, 0.1579131, -0.1034065, -0.08146931, -0.04678699, 0.1460768, 0.03413624, -0.05559085, 0.0302116, -0.05760248, -0.01616117, -0.1182616, 0.1662097, 0.02108206, -0.1510643, -0.09863336, 0.02605152, -0.007632419, 0.006531134, -0.04995041, 0.05071213, 0.03852721, 0.1064444, -0.0144731, -0.1281022, -0.02718593, -0.04662201, -0.1193764, -0.1499126, -0.04348598, 0.09872193, 0.09793319, 0.03050493, 0.09906486, 0.09856601, -0.1414117, -0.04512231, -0.06889014, 0.1376618, 0.1382633, -0.1221355, -0.1612222, -0.03356759, 0.08803053, 0.001412794, 0.1244698, -0.0566293, 0.003452688, -0.0951847, -0.0268648, -0.02874766, 0.1053348, -0.03983596, 0.01006517, -0.1100282, -0.148588, -0.1516389, 0.1699759, -0.0009721369, 0.132275, 0.04204856, 0.002628446, -0.02552128, -0.06883952, 0.09115838, -0.1510438, 0.1020917, -0.07458574, 0.08299603, -0.06765097, 0.129764],
    [0.1412029, 0.1323232, 0.1192908, -0.1523739, 0.04455822, -0.02540229, -0.02091111, 0.0175408, 0.09475157, -0.07920627, 0.09585667, -0.1523537, -0.06751747, 0.1533695, -0.07132383, 0.03777477, 0.0872822, -0.1129191, -0.009075373, -0.01807512, 0.05674138, 0.16012, -0.04585503, -0.03417218, 0.04910641, 0.04787489, -0.006032422, 0.1255936, 0.1045108, 0.155299, -0.08555676, -0.07331796, 0.06347146, 0.03770845, 0.1085276, 0.1551935, 0.140551, -0.1696059, 0.08593659, 0.08897693, 0.1277232, -0.06525341, -0.05384414, -0.06201901, 0.07853186, -0.03992604, -0.08370318, 0.1382429, -0.1511033, -0.01908921, -0.0312217, 0.1672777, 0.1250526, -0.1045887, 0.1508818, -0.08114062, -0.05710933, -0.005300969, 0.09493946, 0.06558818, 0.004429951, -0.1496953, 0.09255369, -0.118892, 0.1309599, 0.09471519, 0.1235496, -0.08356751, 0.1548395, -0.08889513, -0.00884366, -0.05167877, -0.00798738, 0.1164805, -0.097912, 0.103153, -0.009366751, 0.02340204, -0.1120065, 0.1674564, -0.06584468, 0.08376346, -0.01809533, 0.163158, 0.01706816, 0.0605037, -0.1089644, -0.1414508, 0.09792984, -0.1137712, -0.01816557, -0.1100868, -0.08841227, 0.0960331, 0.04048315, -0.03933544, 0.09250365, -0.05712818, -0.1125357, 0.05628053, -0.08052678, -0.09407826],
    [-0.07995088, -0.06664713, 0.08323048, -0.07989172, 0.05871851, -0.1214211, 0.08440304, 0.008947074, -0.007462651, -0.1152985, -0.1348081, 0.1018915, 0.1094813, 0.02739005, 0.02014253, 0.0706516, 0.07752192, -0.1345019, 0.05053109, 0.1583753, 0.03031975, 0.1670941, 0.1661798, -0.133698, -0.1538624, -0.157261, 0.02913864, 0.1072046, -0.005835459, 0.1471277, 0.08038926, 0.01273674, 0.0272087, -0.04032314, 0.1054347, 0.0994228, -0.1563692, 0.07757348, 0.004148394, -0.09677266, 0.03750704, 0.009790838, 0.1327448, 0.05045376, -0.1669656, -0.06274629, 0.01298353, 0.05330565, 0.00990741, 0.02058874, 0.1381447, 0.1145305, 0.04079394, -0.05820787, 0.1371637, -0.1174226, -0.05795134, 0.1693487, -0.01815695, 0.04031476, 0.004954726, -0.09017088, -0.07605708, 0.07374059, -0.1190163, 0.02869676, -0.05244036, 0.06163667, 0.128196, 0.03947696, 0.02335918, -0.1013315, -0.1491891, -0.1157156, -0.1638844, -0.1207413, -0.06766799, 0.1297143, 0.0435926, -0.07806171, -0.118651, -0.03299078, 0.03931099, 0.1147936, -0.05033268, -0.09567288, 0.1192951, -0.150403, -0.1302427, 0.07849388, 0.09153868, -0.1601073, 0.102589, -0.05802098, 0.02649274, -0.04641609, -0.01934013, 0.03074004, 0.04418937, -0.1346227, 0.1183481, 0.1420827],
    [0.008285776, -0.08434908, 0.1377177, -0.09761377, 0.1230579, -0.1292018, 0.01192321, -0.08131178, 0.1668161, -0.1004141, -0.0625986, -0.09533693, 0.09249461, 0.03938504, -0.1426266, -0.1400671, 0.01377845, 0.1708108, 0.1431761, 0.1200152, -0.03196305, -0.03485416, 0.06785217, -0.08800502, -0.06579669, 0.01887764, -0.09075706, -0.1678954, -0.04607017, -0.1407573, 0.1525457, 0.1024895, -0.1553797, 0.09747867, -0.07431845, 0.007942766, -0.09744589, -0.1517677, -0.05269722, -0.01956098, 0.07786113, 0.03349425, 0.0292376, -0.05916242, -0.1685591, 0.04168563, -0.1649627, 0.09462927, 0.1354957, -0.1259501, 0.1236847, 0.1238516, -0.06794763, -0.0170604, 0.1170799, 0.0672011, -0.01210587, 0.1683776, -0.09454345, 0.1188628, 0.1474677, -0.09593988, -0.1101252, -0.1505828, -0.0251054, 0.07668428, 0.1160144, -0.06006601, -0.05594899, -0.1166522, -0.1385574, -0.1613509, 0.1500731, -0.1662063, 0.1218629, 0.1138118, -0.05071491, 0.02515063, -0.1674295, -0.04624334, -0.09670804, 0.007053807, 0.04663638, 0.007852569, 0.1509546, -0.1186044, 0.1495695, -0.09892436, -0.05861754, 0.02773523, -0.1622592, -0.006727606, 0.1363857, -0.1460682, -0.093955, -0.02257033, -0.1374311, -0.05363683, 0.07802035, -0.01833162, 0.1308915, -0.1394382],
    [0.1117456, -0.05630693, -0.08971535, 0.142382, -0.1094215, 0.1100232, 0.04152772, -0.03414339, 0.1159698, -0.05712028, 0.096366, 0.01886599, 0.03812367, -0.1121249, 0.1581969, 0.1390028, 0.09523107, 0.1291825, 0.05323152, -0.1104889, 0.1655618, -0.0206082, -0.1236676, 0.04302854, -0.1544706, -0.1019271, 0.0001313984, -0.09715395, 0.1129952, 0.00758794, -0.06416091, -0.04986962, 0.04457196, -0.04064216, 0.147287, -0.09285827, -0.06157957, 0.001197934, 0.08168198, 0.07542299, 0.05350253, -0.02460416, -0.05687544, -0.1305641, 0.01290241, 0.01072702, -0.1022874, -0.1028772, -0.09128461, -0.08481602, 0.03449821, 0.1005881, -0.1418695, 0.1564647, 0.08868749, 0.01837517, 0.02672164, 0.03508779, 0.1518683, 0.01281331, 0.09405026, -0.1655615, 0.04036485, 0.06883394, 0.1451666, -0.051686, -0.01429597, -0.09434839, -0.1313325, -0.08054716, -0.1277743, 0.02612205, -0.04617666, 0.00740549, 0.01719835, -0.0238384, 0.006780759, 0.03978796, -0.005671367, 0.1633026, 0.1335235, -0.03907534, -0.04499277, 0.03300452, -0.09152727, -0.02026001, -0.01637232, 0.1660811, -0.05229627, 0.1430897, -0.004757717, 0.08023573, 0.09550584, 0.08130528, 0.1603104, -0.04296593, 0.04474819, -0.1687614, -0.05603196, 0.05458955, -0.0006130189, -0.1712409],
    [-0.08921946, -0.04757336, 0.06175844, -0.1147325, 0.06005887, 0.1055963, -0.1186591, -0.05885003, -0.1673427, 0.153438, 0.1275626, -0.06410338, -0.1321452, -0.02753258, 0.05589524, -0.06808408, 0.116756, -0.07967563, 0.02635601, 0.09994759, 0.1704016, 0.0944577, -0.06908241, 0.04432774, 0.04359898, 0.1311405, -0.07597694, 0.06362344, -0.09625917, 0.09863822, 0.03537683, -0.08582015, -0.1503427, 0.04022685, -0.08459862, -0.05617924, -0.1655185, 0.007352501, 0.08305973, 0.1064617, -0.07056199, -0.09113483, -0.1612215, -0.1120948, 0.0245546, 0.06788966, 0.07426564, -0.03603628, 0.01960987, -0.06498866, 0.09708838, 0.1636801, -0.05280054, 0.1618893, 0.1628462, -0.08580036, 0.04205608, 0.04596748, -0.1284913, 0.1255591, -0.02864401, -0.09573536, -0.02868405, -0.1245633, -0.1352047, 0.08585174, 0.005837947, -0.03384143, -0.04710388, 0.1503608, 0.1401928, 0.1058558, 0.09148131, 0.004731998, 0.005785525, -0.1173314, -0.1589105, -0.05481593, -0.1619395, -0.1455641, 0.07438749, 0.07685376, 0.03372648, 0.03022443, -0.02497162, 0.1069337, 0.1628824, -0.02497411, -0.1152011, 0.07911673, 0.02206743, 0.02195184, 0.1390196, 0.1446392, -0.0215973, 0.0741393, 0.1252632, 0.08021328, -0.1658751, -0.0497416, 0.1319524, -0.09217165],
    [-0.1361182, 0.07995604, 0.1036074, -0.08050235, 0.07425861, 0.08794516, 0.1575072, 0.1237547, -0.09078993, 0.0938593, 0.03278479, -0.1633502, -0.07800953, 0.001042351, 0.03725058, -0.1226162, 0.105003, 0.05420012, -0.1336988, -0.08353941, -0.1397355, 0.04476409, -0.03186055, -0.1002622, -0.01147439, -0.04973538, -0.1383135, -0.05119882, 0.04188749, 0.05471789, -0.1581549, 0.04841053, -0.04022668, 0.1377008, -0.06455234, -0.09027257, -0.1188755, 0.1381508, -0.02983394, 0.07640108, 0.1081204, 0.07632159, -0.07958559, -0.1501298, 0.05276506, -0.02174491, 0.01131827, 0.1626328, -0.1441218, 0.02681226, -0.1314115, -0.1711349, 0.07722303, -0.1209025, 0.05140401, -0.06301035, -0.09661089, -0.09017739, 0.03638701, 0.01461217, 0.1456435, -0.07780656, -0.05575715, -0.1254078, 0.1161922, -0.1169705, 0.1432282, -0.1319579, 0.1064432, 0.02888648, -0.09523191, -0.1318556, -0.1219228, 0.00422968, 0.01739933, -0.01134624, 0.08381919, 0.1423255, -0.09217291, -0.09361033, -0.02425632, 0.142884, 0.1301683, -0.04134367, 0.04786639, -0.01877546, -0.004439279, -0.07640687, 0.09247936, -0.1051293, 0.1451902, -0.1483421, -0.008482412, -0.07524073, -0.09675629, 0.01101471, 0.004979625, 0.1384827, 0.1681609, 0.09844948, 0.1666743, -0.02057305],
    [0.02786668, -0.04631452, 0.1288458, -0.1382985, -0.03419773, -0.04298192, -0.0342257, 0.0624746, 0.0300363, 0.1202188, -0.1481473, -0.1379773, -0.1080461, 0.133578, -0.1404218, -0.0814366, 0.03992578, -0.03272878, -0.04513526, 0.07346595, 0.1665765, 0.13302, 0.08483674, -0.1528101, -0.1182601, 0.05051088, 0.05744115, -0.1008307, 0.14929, 0.00222443, 0.09464873, 0.1320488, -0.07273459, 0.007860899, -0.07415485, -0.1022934, -0.04781881, 0.08856478, -0.1615161, 0.01009195, 0.0983538, 0.05891469, 0.0919431, -0.01881166, 0.02888566, 0.1484568, -0.06709918, 0.1174434, -0.1058834, -0.0202775, -0.1196405, -0.1391473, -0.1645337, 0.07591835, 0.1474141, -0.1090003, -0.08282672, 0.006231949, -0.1515882, 0.05462958, 0.04366633, -0.1093948, 0.1640033, 0.1165627, -0.1334938, -0.00604865, 0.085712, -0.04691244, 0.1381641, 0.02904202, -0.1233945, 0.003356636, -0.1312249, -0.1481396, 0.006596968, 0.02157535, -0.1671467, -0.1401242, 0.06261791, 0.01073238, -0.001544699, 0.1427536, 0.1299364, -0.02865215, -0.006496832, -0.1488661, 0.1490452, 0.1324618, -0.1636653, -0.1329421, -0.1698681, 0.1590873, -0.05205825, 0.1693429, -0.08891238, -0.1450388, -0.06617177, -0.158399, 0.1076372, 0.01479992, -0.06143029, 0.08245601],
    [-0.09494965, -0.03400764, -0.1071158, -0.07724361, -0.1038127, 0.02026707, -0.005059764, -0.01807533, -0.1296491, -0.1090164, -0.1487474, -0.1514957, 0.03327189, 0.1665412, -0.1431816, 0.1230508, 0.03835076, -0.1551099, -0.02689779, 0.0662697, -0.1224251, 0.01303731, 0.04689733, 0.1436691, 0.1271641, 0.02037996, -0.05180965, -0.1297519, -0.06707282, -0.1190216, -0.06192594, 0.1062911, 0.0223027, -0.02369483, 0.06827802, -0.04436448, -0.1512817, -0.0134266, 0.06358983, 0.09845734, -0.09682965, 0.02956429, 0.03521316, 0.06815507, 0.1334386, -0.06580585, -0.05189891, 0.02348173, -0.001217633, -0.08573271, -0.1476119, -0.02408941, 0.07376492, -0.02245247, 0.09304379, 0.08320524, 0.02495092, 0.0526597, -0.1533979, -0.007283241, 0.03741847, 0.1241024, 0.1658409, 0.007551178, -0.02108881, -0.1291096, -0.03976576, -0.100326, -0.08626245, 0.03684694, 0.02694824, 0.1139829, 0.08305101, -0.1291168, 0.11714, 0.05289296, -0.0973356, 0.0875972, -0.03792067, 0.08429848, 0.08126632, 0.09472013, 0.02100103, 0.03342673, -0.1415132, -0.1141821, -0.0461459, 0.01372635, -0.1028085, -0.1601017, -0.109093, -0.09418003, -0.1154942, 0.1266351, 0.0460984, -0.1120465, 0.1641378, 0.1408433, 0.01927832, 0.1026004, 0.004595637, -0.03131075],
    [0.1000084, -0.1074171, 0.0642997, -0.1394142, -0.1673447, 0.1097993, 0.00306195, -0.1544503, 0.02432987, -0.001256928, 0.04013424, -0.150527, -0.1162315, -0.1425631, -0.1175046, 0.123112, -0.1535984, -0.1643692, -0.002767876, 0.1235741, 0.1405011, -0.0904028, 0.0126054, -0.04460724, 0.1509956, 0.07085767, -0.1076619, 0.1426489, -0.02205786, -0.08232375, -0.08235385, -0.1708422, 0.1697817, 0.1583705, 0.1011807, -0.1349122, -0.06965174, -0.07149315, -0.1349302, -0.01962991, 0.0120168, -0.1110791, 0.05581608, 0.001313478, -0.08829828, 0.1620562, 0.1260182, 0.03636211, -0.0200094, -0.1349617, -0.07793176, -0.1606137, -0.0129886, 0.02595732, 0.05367557, -0.1153041, -0.1261802, 0.08279342, 0.02641673, 0.06556098, 0.09891544, 0.1517153, 0.01871859, 0.007716402, -0.1348363, 0.1225176, 0.1509563, 0.0110186, 0.05843973, 0.1642817, -0.02328853, -0.09285639, 0.05040183, 0.1347363, 0.07340731, -0.03678127, -0.02845033, 0.1512832, -0.05852358, 0.1351227, -0.1070019, 0.09348954, -0.116969, -0.1649952, -0.1452275, -0.09001859, -0.1676823, -0.1014506, 0.03565042, 0.1325693, 0.04119608, -0.02121806, 0.09339027, -0.04334334, 0.03271858, 0.02721043, 0.04690469, 0.005868256, 0.02148849, 0.1618694, -0.1387804, 0.07281079],
    [-0.08773623, 0.1117269, -0.06017089, 0.09988041, -0.05517231, 0.1363268, 0.07039903, 0.162894, 0.07615858, 0.09572415, -0.00481227, 0.08973725, 0.02280813, -0.1404632, -0.02241364, -0.1507837, -0.1425684, -0.1407919, 0.01388264, 0.04047051, 0.1500618, -0.09492813, 0.1464136, -0.00763908, 0.02318507, -0.06731978, -0.05889067, 0.02838556, 0.15152, -0.1329304, 0.08501811, -0.1083826, 0.05467803, 0.1648703, -0.05881413, 0.1408343, 0.01884857, -0.09941511, -0.05792713, -0.1447753, 0.1234454, 0.07312077, -0.1129483, -0.130986, 0.101414, 0.02768101, -0.03021704, 0.1202852, -0.04087493, 0.08834799, 0.1413693, -0.1376222, 0.05764392, 0.07858134, 0.02031398, 0.01822278, 0.1388796, -0.05102357, 0.09078641, 0.02876218, 0.1356103, 0.00566335, 0.07007539, 0.1250779, 0.1369944, 0.08163092, -0.1528196, -0.03472622, 0.06127187, -0.01152995, -0.1408858, -0.1615815, -0.1155965, 0.1639114, -0.08401205, -0.07430296, 0.08274657, 0.1668019, -0.05447194, 0.00748539, -0.05498546, -0.1188156, -0.1214188, 0.1088472, -0.1486682, -0.01551004, -0.167034, -0.153909, -0.04547095, 0.04859056, -0.1568421, -0.08272462, 0.05768574, 0.127238, 0.1173774, -0.1328826, 0.1250163, 0.1291002, -0.001590505, 0.08282049, -0.06354161, 0.04277943],
    [0.1541673, -0.1568485, -0.114907, 0.08359484, -0.05311194, 0.06907073, -0.1602475, -0.1227051, 0.06744766, 0.08417909, 0.1359652, -0.09635289, -0.08937688, 0.04326496, 0.02071047, -0.08155231, -0.05469846, 0.01080753, 0.1335096, 0.1213721, -0.08418386, -0.09813543, 0.031267, -0.1131391, 0.02320373, 0.09875337, 0.1497364, 0.00437884, 0.119471, -0.06359567, -0.03224742, -0.08389767, 0.1149277, -0.0006341934, 0.0809103, 0.03098026, 0.06395223, 0.1257794, 0.02055579, -0.116858, 0.00947617, -0.112777, -0.1578964, 0.009744436, 0.1146136, -0.10035, -0.08493261, -0.1076668, 0.06823917, -0.1443778, -0.1496856, -0.1609658, -0.1191457, -0.07163535, -0.01491126, -0.119186, 0.09728682, -0.02565306, 0.0519372, 0.07901247, 0.1258553, 0.04507517, 0.09419577, 0.1373458, -0.036139, 0.1414674, 0.05964434, 0.1474348, -0.0876654, 0.02226371, -0.1060629, -0.1714724, -0.09486438, -0.05363606, 0.1462195, 0.1673995, -0.1282246, 0.1205478, 0.09062491, 0.1626997, -0.03199048, -0.009562641, 0.004128769, 0.08376668, 0.08696367, -0.09027033, 0.0009607375, 0.1095376, 0.01953943, 0.1452033, 0.1584815, -0.07799363, -0.10904, -0.09154318, -0.005984083, -0.01268415, 0.04935812, -0.07784165, -0.09877194, -0.1267602, 0.02258107, 0.1571793],
    [-0.09201024, -0.0323095, -0.06412497, -0.02650531, -0.1017707, -0.1689164, 0.09443939, -0.1007145, -0.07080932, 0.1133455, 0.06945467, 0.1172206, 0.08477271, 0.06831257, 0.1124486, -0.04972973, -0.1083085, 0.1468924, 0.05478626, 0.1298893, 0.1054355, 0.1673583, -0.05523005, -0.03450063, -0.08185975, 0.08706782, 0.1198783, -0.1495137, 0.0007945299, -0.04674157, -0.09438752, 0.1506902, -0.08770107, -0.05758028, 0.002354786, 0.1337688, -0.06356005, -0.03976551, 0.03797852, 0.1578477, 0.04965938, 0.1443797, 0.02139032, -0.07853376, 0.1213355, -0.06192051, -0.1607212, -0.1268262, 0.08344874, 0.08407453, -0.0515938, -0.07585812, 0.1628215, -0.140755, -0.03572577, 0.004563376, -0.06209992, 0.1378266, -0.04951822, -0.1507075, -0.1521628, 0.1555056, 0.01848961, 0.03795767, 0.06652746, 0.05380649, 0.0300227, 0.1021284, -0.1347146, -0.1561126, -0.1637754, -0.02325691, -0.05035844, -0.001977637, -0.09637387, -0.1347441, -0.05800695, 0.01121719, 0.09517665, -0.1232303, -0.03895195, 0.1125093, -0.1306519, 0.1206808, 0.001024038, 0.01586576, -0.08117263, 0.1065851, -0.1424093, -0.1208528, -0.08141772, -0.1049114, 0.1165277, -0.05657315, -0.0719592, -0.108915, 0.009527311, 0.008943841, 0.00812529, 0.1664556, 0.03024995, -0.1434801],
    [-0.02784628, -0.1210851, -0.1196355, -0.1679984, -0.1099717, 0.1073667, 0.02821498, 0.133292, 0.009442553, -0.03416064, -0.07542065, 0.03284322, 0.05378474, -0.1055828, 0.1496584, -0.07797965, 0.06832905, -0.04985015, 0.04431171, -0.01137196, -0.1534921, -0.1057795, -0.03001595, -0.1177612, -0.02781148, -0.1104117, -0.09285937, -0.05865221, 0.001884237, -0.009371817, 0.048158, 0.07684313, -0.1366683, 0.04571038, 0.1703907, 0.06629763, -0.1305845, -0.1656222, -0.06128044, 0.05021956, -0.05913461, -0.03917266, -0.02134706, -0.01847559, 0.0462907, -0.1358844, 0.1468336, -0.06110143, -0.1386294, -0.1146149, -0.07535179, 0.03432861, 0.0834507, -0.05488601, -0.09957049, -0.1051714, 0.1492923, 0.1640617, 0.03379616, 0.1015608, 0.1603935, 0.01734261, 0.1549153, 0.0005916357, -0.06567353, -0.1658851, 0.02288991, -0.0720298, 0.1574996, -0.07727313, -0.005257621, 0.1091443, 0.02494422, -0.09241988, -0.005790725, 0.1218547, 0.07552489, 0.03196603, -0.1313519, -0.1652275, -0.152794, -0.07526687, -0.1265659, -0.1648963, 0.1694835, -0.1198142, 0.07593766, -0.0495809, -0.06099467, -0.1268332, -0.09320055, 0.08977859, -0.06925839, 0.03442159, -0.01444304, -0.01985647, 0.1425707, 0.08567585, -0.0184141, 0.1287059, 0.04944844, 0.03713667],
    [0.167012, -0.01067173, -0.07053149, -0.06590492, 0.005700439, 0.006487131, -0.04130262, -0.1073927, 0.0110727, 0.05138242, 0.1402139, -0.0793968, 0.0004717559, 0.1230256, -0.1562453, 0.01788585, 0.009859577, -0.008780807, -0.05185413, -0.09236218, -0.06729575, 0.1050867, 0.04885462, -0.007730141, 0.1376142, 0.1130768, -0.06495909, 0.1530521, 0.08560217, -0.05335871, -0.009192526, 0.148296, 0.03746079, -0.05591039, 0.006615281, 0.05820061, -0.05611553, -0.002664551, 0.1537953, -0.03641798, -0.0469811, 0.08508509, 0.03796449, 0.1286777, -0.1542905, 0.1305376, -0.1545124, -0.1405508, 0.04432258, -0.1288116, 0.1664642, 0.1149236, 0.0267521, 0.1433428, 0.1680226, 0.07651954, -0.08559667, 0.1175595, -0.1117185, 0.1061413, 0.09485482, -0.00504005, 0.09075747, -0.1600771, 0.07763964, -0.06242074, 0.03213875, 0.1085357, -0.1230564, 0.1188291, 0.03713454, -0.08663608, -0.1162566, -0.006831706, -0.001822874, 0.01990031, 0.07785463, 0.0452292, 0.02491605, -0.03401181, 0.09976886, -0.1218933, 0.1616113, 0.1604901, 0.0526276, 0.05128596, 0.1220422, 0.1333264, -0.04484643, 0.1680126, -0.1067327, -0.1141501, -0.02657579, 0.08456594, 0.1584248, -0.07840599, 0.04268421, 0.06639355, -0.06882542, -0.08175005, 0.04386713, 0.1071935],
    [-0.1083167, 0.1103302, -0.01802471, -0.02647173, 0.002471194, 0.04516766, -0.02369855, -0.1307908, -0.04475705, -0.005369619, 0.1663461, -0.1411712, -0.01307975, -0.1297294, 0.02789915, -0.01798914, 0.169839, -0.1045446, 0.02563928, -0.1675984, 0.1311446, 0.1116086, -0.1191526, 0.1368702, 0.02519622, 0.1476358, -0.04435912, -0.132783, -0.05313595, 0.08000703, 0.1124842, -0.008378834, 0.005613595, -0.1701422, 0.06060665, -0.09043507, 0.1261961, 0.005817309, -0.1018164, -0.02662592, 0.04903678, 0.03585784, 0.09555151, -0.01078872, -0.145762, -0.02542135, -0.07765827, 0.0253448, -0.104657, -0.0005348474, -0.06274007, -0.1261863, 0.08398126, 0.1244759, -0.02225609, -0.02006288, -0.08561163, 0.03421147, 0.09913252, 0.1464563, -0.03118011, -0.06271562, -0.1004134, 0.04353642, -0.1233247, 0.1420225, 0.1223672, -0.05362935, -0.1144639, -0.03718331, -0.08413373, -0.08636727, -0.02967592, 0.1153133, -0.04062936, -0.056089, 0.1574416, -0.005285874, -0.08349542, 0.08700587, 0.1550743, 0.08557142, -0.146975, -0.1509436, -0.1669417, -0.001400366, 0.09573237, -0.169083, -0.1004931, -0.09979369, 0.08325395, -0.08054806, 0.07995294, -0.07570781, 0.008542061, 0.1106761, 0.1436725, 0.06707337, 0.06580643, 0.0166034, 0.05659313, -0.0640718],
    [0.04962618, -0.01631324, -0.02553837, 0.1444728, 0.05105331, -0.09326209, -0.1634431, -0.1309722, 0.140844, 0.1383198, 0.1196333, 0.01908851, -0.1302639, 0.1533313, -0.07667154, -0.1645592, -0.1465163, 0.1097175, 0.01568075, 0.1350031, -0.0522633, 0.0823257, -0.08293063, -0.1356321, -0.004725173, 0.00792028, 0.159685, -0.08256407, 0.006419092, -0.08664503, 0.07719428, 0.1223312, -0.02343388, -0.08892109, 0.02726497, 0.1442557, 0.02723451, 0.1514092, -0.06851892, -0.1202507, -0.1714525, 0.06379019, -0.04739681, -0.05275001, 0.1253474, -0.003901929, 0.156411, -0.01675092, 0.1672731, 0.1376672, -0.0739698, 0.035331, 0.07724948, 0.08053012, -0.004826039, -0.1709569, 0.02265002, 0.1240419, -0.01261815, -0.07744876, -0.01765634, 0.116587, -0.002769679, -0.06568572, -0.02716047, 0.05711642, 0.06989177, -0.08525874, -0.04188231, -0.0353476, 0.09599254, 0.16166, -0.00892581, -0.02251188, -0.057321, -0.05969507, -0.123797, -0.05732596, -0.09789227, 0.1517957, -0.08647875, 0.1216029, -0.1665264, -0.1697901, -0.003030747, -0.0003759861, -0.04875389, -0.08401246, 0.1530509, 0.07703114, -0.07904376, 0.1387581, 0.09036649, -0.1129231, -0.03418019, 0.05643652, -0.008637175, 0.01354526, -0.1553366, 0.03979369, -0.05536641, -0.1375446],
    [0.01282975, 0.1241659, -0.09697406, -0.1324439, -0.1360127, -0.07382886, 0.137931, -0.01875404, -0.1293302, 0.03100699, -0.1316182, 0.013537, -0.08437721, -0.07624525, -0.0443729, -0.08245117, -0.1025973, -0.07394232, -0.0689092, -0.07309106, -0.0395941, -0.0160076, 0.1296275, 0.0651983, 0.1490959, 0.09885488, -0.1332259, -0.1245166, -0.04028112, -0.01578979, -0.1451787, -0.01965326, -0.1098888, 0.02615473, -0.1419485, 0.0449763, 0.02702422, -0.03098962, 0.1166044, 0.1700805, -0.04555899, -0.1534479, -0.1592834, 0.1244041, 0.06358039, 0.1628508, -0.07395181, -0.1678829, -0.1320186, 0.002875209, -0.04693313, -0.1191993, 0.002443388, 0.1416264, 0.04509038, -0.1259876, 0.1299182, 0.1698634, 0.044292, -0.1344411, 0.07551467, -0.1179909, 0.02987206, -0.04690655, -0.01460432, 0.166816, -0.1515284, -0.07698217, -0.09309347, 0.03016818, -0.05746546, -0.1697641, -0.01745775, 0.02192821, 0.03999539, 0.03075328, 0.005750373, -0.1391114, -0.004773661, -0.07170768, 0.02609278, 0.1317533, 0.1674858, 0.1536465, 0.1695006, -0.04048041, 0.0457572, 0.1328008, 0.1349433, -0.1514982, -0.01943459, -0.04823776, 0.141083, 0.1532556, -0.1301218, 0.08003059, -0.07219209, -0.01980455, 0.07288566, -0.1096622, 0.04198427, -0.04919463],
    [-0.09121019, 0.170298, 0.02326776, 0.1670829, -0.09948163, -0.0187353, -0.06583096, -0.07038347, 0.1619972, -0.004397526, 0.06278041, -0.04534765, 0.1673785, 0.1160893, 0.05733978, -0.07866372, -0.04799202, 0.03535995, 0.08288677, 0.02564481, 0.1124221, -0.1510521, 0.1107201, 0.005801886, 0.04898231, 0.01827216, -0.14608, -0.1568143, -0.05431166, -0.09814985, 0.07905389, 0.08420502, 0.03836349, -0.03637549, 0.1178545, -0.1096616, 0.1506149, 0.1504004, 0.05709016, 0.1036123, 0.04658093, -0.1082853, 0.1605814, -0.066599, 0.08059247, 0.01056923, 0.02231018, 0.05328692, 0.1471342, -0.1592881, -0.04822896, 0.0763391, -0.1128996, -0.02268432, 0.1018262, -0.147006, -0.1558424, 0.0760088, -0.1645667, 0.1238202, -0.07549816, -0.1576923, -0.1140688, 0.1275824, 0.1306401, 0.006935567, -0.1644305, 0.011446, -0.0678447, 0.05597501, 0.108163, 0.0804543, 0.0561117, 0.04834069, 0.08438165, 0.05533028, 0.1263637, 0.1678348, -0.005910113, -0.1445192, 0.08067884, 0.02697682, -0.07325074, 0.08446559, 0.1629239, 0.0729658, -0.02633411, 0.1531521, 0.09351449, -0.02631995, 0.02898924, 0.08683033, -0.09937893, -0.1424421, 0.03734049, -0.04837907, -0.08339251, -0.1549283, -0.0935206, -0.02205889, -0.01945499, 0.01416971],
    [0.0913185, 0.01926915, 0.1696952, 0.129986, 0.1547121, 0.1184504, 0.1359779, -0.1079327, -0.1408104, -0.02110799, 0.02634449, 0.005307794, 0.126487, 0.1375649, -0.01449142, -0.08997871, -0.08741935, -0.1239766, -0.03286465, 0.03220719, -0.1102301, -0.07413907, -0.007257879, 0.07802889, -0.01802295, 0.02117668, 0.07950529, -0.1462682, 0.005724326, 0.1512019, -0.1016674, 0.1536277, -0.1383428, -0.0720406, -0.1585495, -0.01236558, -0.08073615, 0.1692967, -0.1422648, 0.09616835, 0.03622653, 0.01636644, 0.09794341, 0.1649812, 0.1645188, 0.02298182, -0.08910955, -0.1148827, 0.04311028, -0.1145939, -0.1470021, 0.04168682, 0.01724574, 0.09749497, -0.1287713, -0.1168966, -0.05136098, -0.08672185, 0.01082729, 0.1436121, -0.1183676, -0.06342851, -0.1571249, 0.08201469, -0.1262289, -0.02140619, -0.07018705, -0.09535984, -0.07403411, 0.09026484, 0.0119949, -0.1281608, -0.1604391, -0.1217345, 0.0378312, 0.03416412, 0.06018161, 0.1462669, 0.06918526, -0.09375252, 0.07062069, -0.09107293, -0.002651677, -0.09307601, -0.02530567, -0.05413944, 0.0992693, -0.1446314, 0.1053812, 0.02259199, -0.01703848, 0.09768708, -6.429851E-05, -0.1545334, 0.07387483, 0.05631173, -0.1237263, 0.02731444, 0.03582729, 0.1088501, -0.1058766, -0.1630744],
    [-0.1429372, 0.1057399, -0.09308095, -0.03289564, -0.1417132, -0.06316519, -0.1025971, -0.05273958, -0.03067879, 0.1668647, 0.09907598, -0.1074531, -0.08085553, 0.02055636, -0.006026, -0.1652082, 0.1514074, -0.06694193, 0.0713191, -0.007890299, 0.1344948, 0.1550315, 0.1279025, -0.1009061, -0.0925044, -0.1081096, -0.1255296, 0.11857, 0.02499337, 0.1684664, 0.02316263, -0.1393337, 0.02753851, 0.1462065, -0.1706588, 0.09542513, 0.06127011, 0.007157221, 0.1359504, -0.02745101, -0.05076066, -0.06370328, -0.05010824, 0.01832189, -0.06056027, 0.05925377, -0.1042167, 0.09060753, -0.008163646, -0.02570282, -0.0287962, 0.06564301, 0.1050303, 0.08540304, 0.1673937, -0.0617065, 0.124166, 0.0921388, -0.1060574, -0.1335078, -0.03538811, 0.09649746, 0.1251069, -0.1364136, 0.1015011, -0.1565953, 0.08922876, 0.01059827, 0.1440486, 0.02823226, -0.08437689, -0.05235633, 0.07898773, 0.1079126, 0.080528, 0.01763606, 0.03795026, -0.1099018, -0.1507383, -0.1712624, -0.07003789, -0.05175915, -0.1543379, -0.001782432, 0.1542712, -0.1054121, -0.1285761, 0.1391972, 0.0643937, 0.1361326, 0.02383512, 0.03104131, 0.04699513, -0.09112428, 0.1457429, 0.09002577, -0.08136983, -0.07719316, 0.1344748, -0.07397242, -0.02037805, 0.003615707],
    [-0.08209549, -0.1462191, 0.1340349, -0.1429662, 0.05557398, 0.06395562, 0.005075827, -0.1233695, -0.0009644926, 0.1646563, -0.1201321, 0.04725887, 0.1232408, 0.1390751, -0.03822225, -0.1127915, -0.1453689, 0.05594361, -0.1643428, -0.1102924, -0.07032193, -0.01813303, -0.09339444, -0.04937585, -0.01524757, 0.02654751, -0.02956228, 0.06971562, 0.03260435, -0.1050826, 0.1177837, 0.02885607, 0.1226002, 0.1602211, -0.1139161, -0.1307872, -0.1119462, -0.002307802, -0.1086461, 0.08697762, 0.1457392, 0.04649159, 0.1316011, 0.09374048, -0.04466063, -0.05135059, -0.03990102, 0.003133759, 0.007944599, 0.0676012, 0.1201181, 0.07212456, -0.1001064, 0.1615955, -0.04597336, -0.08876846, -0.06172265, 0.121814, -0.09766219, -0.06779978, 0.0566767, -0.1492136, -0.02161002, 0.1572897, -0.09808816, 0.09884185, 0.112046, 0.06048963, -0.01212905, -0.1013386, -0.1313527, -0.1030437, -0.1297601, 0.08129114, 0.1244632, -0.08204772, 0.113224, 0.1173815, -0.09842353, 0.03627592, 0.07933278, 0.01853967, 0.1003869, -0.01810044, -0.0918249, 0.1048498, 0.06711233, 0.004651651, 0.0502687, 0.04443916, -0.04503751, 0.10068, -0.1565812, -0.04610211, 0.07697557, 0.00235638, -0.1552088, -0.03085558, -0.07721581, 0.104408, -0.04232705, 0.01677859],
    [-0.1691927, 0.1210109, -0.1526422, -0.002987579, -0.09628502, -0.074734, 0.04612425, 0.1001381, -0.01185174, 0.09759627, -0.1306466, -0.05525904, -0.1560809, 0.04896715, -0.1135147, -0.1285054, 0.01106857, -0.08231799, -0.05936174, 0.08754543, 0.0730134, -0.09500395, 0.1098118, -0.1547361, 0.07906215, -0.1711463, -0.1066936, -0.1155913, 0.1010596, -0.002170786, 0.1250972, 0.01482311, 0.1198626, -0.05022068, 0.1618662, -0.04121488, 0.1350944, 0.005599082, 0.005534768, 0.1134849, 0.02988113, -0.0324558, -0.01967844, 0.1682332, 0.1083037, 0.09361635, -0.05111998, 0.1470385, 0.1346664, -0.0785592, 0.09717552, 0.06126782, -0.131418, -0.03555474, -0.09420343, 0.07720835, 0.09670125, -0.1039713, 0.1487352, 0.09746782, -0.07146935, 0.03757834, -0.09229548, 0.1565149, -0.09003939, -0.03956655, -0.01302397, -0.06915674, 0.1132209, 0.1376814, -0.04853829, -0.03686084, 0.1175214, -0.07736276, -0.06693572, -0.1251267, -0.04394336, 0.1608466, -0.1079646, 0.05064001, 0.1263614, -0.1043443, -0.08450274, 0.04607195, -0.005260855, 0.1185152, -0.1408225, -0.06153141, 0.09565611, 0.01095048, -0.1527403, 0.05607454, 0.1530872, 0.1433617, 0.04164246, 0.1032352, -0.03766355, -0.1535791, 0.03455153, -0.1172506, -0.008467153, 0.05883528],
    [-0.05855669, -0.118592, -0.09074099, -0.005660981, -0.163805, 0.03261411, -0.1662859, -0.08498694, -0.09140988, -0.1248117, -0.07395472, 0.1325861, 0.1188423, 0.1709377, -0.09263925, 0.05115827, 0.1094332, -0.08471041, 0.0503533, -0.07951905, -0.07857613, 0.103175, -0.1329443, 0.002998248, -0.06924649, -0.02489282, 0.1695102, -0.08837225, -0.01743506, -0.1196256, 0.07806014, -0.1062268, 0.05681277, 0.1691049, -0.08786587, -0.02490215, 0.1684424, 0.1284583, 0.07956241, 0.1284708, -0.1269931, -0.07937314, -0.02809234, -0.05093382, -0.1599969, -0.1644064, 0.0257604, 0.1640047, 0.09741586, -0.09731729, 0.1220029, -0.05659707, -0.169078, 0.0679492, 0.0781655, -0.1389684, -0.1379135, 0.03763182, 0.1534609, -0.08188404, -0.08813267, -0.05749143, 0.07712309, 0.05785687, -0.1297891, 0.04353715, -0.1681874, -0.0314302, -0.1186066, 0.001084059, 0.08584177, 0.03344926, -0.1079868, -0.05172632, -0.1347535, 0.03139462, 0.1096085, 0.08849196, 0.1066532, 0.02310678, 0.1478496, -0.03683168, -0.06620096, -0.05756503, -0.1084587, -0.002530769, 0.1043135, -0.1007342, -0.1403957, -0.07348089, -0.07786958, 0.09022543, -0.1251777, -0.05178573, -0.1336213, -0.02739528, 0.03237794, 0.1353873, -0.1350853, -0.03559059, -0.1583018, -0.109357],
    [0.09309699, 0.1060755, 0.1179955, 0.06954626, -0.1207704, -0.009539738, 0.01781949, 0.1012314, 0.002747566, -0.04479396, -0.1475569, 0.02121328, 0.01469488, 0.1563719, -0.03276087, 0.1325763, 0.08421986, 0.1153184, -0.1503416, -0.1283202, 0.04105063, -0.02277333, 0.01445842, 0.1413269, 0.1133241, -0.127198, 0.1599909, -0.08416827, 0.1307582, 0.04364686, -0.07696205, -0.1366595, 0.1670017, 0.02454065, 0.03415607, -0.1003645, 0.1085767, 0.1271759, 0.1071529, 0.1492058, 0.09306705, 0.02613452, 0.06846406, -0.09893443, -0.1142315, 0.08507033, 0.1455685, -0.1473785, 0.1177772, -0.09531961, 0.1474102, 0.03028303, -0.08891578, -0.07792707, 0.07977013, -0.0263956, 0.1060077, 0.1483173, -0.1695006, -0.08703353, 0.04535894, 0.04329489, -0.06298655, 0.1295539, -0.1333506, 0.08908198, -0.1315489, -0.06619257, 0.09258325, 0.08085935, 0.1474609, -0.1629997, -0.03967768, 0.1421077, 0.1092669, 0.1358431, -0.06052053, -0.0816154, 0.1525972, -0.1117965, 0.001224101, 0.09500913, -0.1198858, 0.02129497, 0.003799871, -0.05527241, -0.1021239, -0.08047131, -0.1668639, -0.12321, 0.129264, 0.07091627, 0.161128, 0.1280742, -0.05929833, -0.1617085, 0.1355859, 0.1425693, 0.1486471, -0.154818, 0.1534539, 0.1010008],
    [0.04378229, 0.07949144, 0.1655621, 0.01570405, 0.08388425, -0.1589568, -0.1229074, -0.1342783, -0.04401913, 0.003247917, 0.005222082, -0.1122267, 0.1083038, -0.03756092, 0.02644977, 0.153431, -0.06740083, 0.03858057, -0.09915908, 0.05902259, -0.1180811, -0.1103815, 0.04577694, 0.0137026, 0.05228663, -0.161848, 0.07600872, -0.1635064, 0.1376936, -0.03214811, 0.05087688, 0.07391466, 0.07286432, -0.01715587, -0.004808217, 0.09721449, 0.1524728, -0.1615706, -0.1028301, -0.0007284135, -0.06804661, -0.1602589, 0.04035246, -0.0200426, 0.01949967, 0.07171126, 0.1303774, 0.07441636, 0.1285625, -0.0913149, -0.08413883, 0.004494309, -0.1434982, -0.04366194, -0.1672681, 0.1391476, -0.1189898, -0.09538703, -0.141923, 0.1261226, -0.03221488, 0.08735465, 0.06879678, -0.1018097, -0.02974886, -0.0008356124, -0.1160135, -0.05423642, -0.0855629, 0.1442937, 0.1023251, -0.06250758, -0.01629533, 0.1339726, -0.05322255, -0.07163867, -0.03550719, 0.1528364, -0.05825436, 0.006623253, -0.05529331, -0.04539365, 0.07468017, -0.01117565, 0.1486294, -0.00278686, 0.08750033, 0.1282861, 0.06901549, 0.08881052, -0.1271497, 0.01072936, -0.1037126, -0.01410715, -0.1407252, 0.09265199, 0.1006528, -0.1643563, -0.08345388, 0.0137452, -0.01089948, -0.1496021],
    [0.1401935, -0.1361621, 0.1014343, 0.1095162, -0.06385894, -0.09862293, -0.1383872, -0.1635423, 0.07388362, -0.07867111, -0.09360837, 0.04796202, 0.1499825, -0.08467864, 0.1419436, -0.008581936, 0.1695602, 0.1364421, -0.002866909, 0.1311692, 0.005219311, 0.1235579, -0.03796618, -0.05747941, 0.1643779, -0.1596782, -0.1437688, 0.1445738, -0.01704307, 0.01350646, 0.07947884, -0.08404009, 0.1709757, 0.02007306, 0.1204696, -0.1039129, 0.06997518, 0.06053833, 0.06139764, -0.07764584, 0.123475, -0.00396812, 0.04784103, -0.0346895, -0.1004579, 0.07870384, -0.1322646, 0.09987628, 0.144171, -0.07507077, -0.002960145, -0.04951765, 0.1297223, -0.007775247, 0.1710578, 0.1197035, 0.09138785, 0.03071919, -0.1557387, -0.06906994, 0.03482807, 0.1543236, 0.04562332, -0.122351, -0.1670812, -0.1581288, 0.003042445, 0.1649372, 0.09287642, 0.03647849, 0.05934545, 0.1633987, -0.04028998, 0.03161901, 0.1357182, 0.1394775, 0.0456178, 0.05881897, -0.06327191, -0.1514589, 0.04443073, -0.06577493, 0.0867228, -0.1576233, 0.0215693, 0.1342488, -0.1438962, -0.1473167, -0.08861955, 0.1316453, 0.1534943, 0.05488979, -0.02764875, 0.1552539, -0.08210652, 0.02666816, 0.1427636, -0.05532458, -0.1104725, -0.1027503, -0.1026656, 0.1362409],
    [0.04429854, 0.05241788, 0.04988181, -0.02693959, -0.09830181, -0.02323046, 0.09535325, -0.01598507, -0.1213923, 0.06428935, -0.1590597, 0.06240333, -0.1351245, -0.1073494, -0.1169811, -0.1008519, -0.09619739, 0.09741174, 0.1034825, -0.07033171, 0.11059, 0.120324, -0.1448934, 0.1375269, -0.1251723, 0.158025, 0.1588211, 0.1412692, 0.1361746, 0.1458959, 0.1596435, -0.1487456, 0.08045305, -0.1409631, 0.1071862, 0.06011922, 0.131859, -0.1647855, -0.07696022, 0.1273191, -0.07489134, 0.1359535, -0.1576986, -0.08860902, 0.1309567, -0.06373927, -0.1678829, 0.02046096, -0.00474979, 0.04478674, -0.008581847, 0.04683007, -0.03618772, 0.07753173, 0.04284371, 0.03493299, -0.1687872, 0.07846206, 0.07464088, 0.1465387, -0.04844429, -0.102482, 0.05914178, 0.06670026, -0.03976358, 0.03848889, 0.06861506, -0.1557746, -0.1360392, 0.0357862, 0.01471876, 0.1706956, 0.06271502, 0.04370745, -0.04103886, -0.1041533, -0.1545493, 0.1630351, -0.03702742, -0.08501928, -0.03496026, 0.1564325, 0.005166605, -0.06607731, 0.01849362, -0.1673042, -0.02831797, 0.1283053, -0.06763454, -0.1047139, 0.0765354, -0.06305446, 0.1641278, -0.06195448, -0.1665365, 0.05162812, -0.06882976, 0.1389115, -0.1160074, 0.1608496, -0.09037144, 0.01113902],
    [0.1075799, 0.1277751, 0.06884437, -0.1413156, 0.1131159, -0.07201141, -0.1522776, -0.05119056, 0.1045991, 0.1624419, 0.02245228, 0.1589441, -0.07341751, -0.03958261, -0.1093361, -0.05518712, -0.09559168, -0.1484895, -0.08011247, -0.007927343, 0.04137544, 0.04850024, 0.1621117, -0.005903542, -0.005847186, -0.07866568, -0.1431614, 0.08049745, -0.06225653, -0.1213588, 0.04372168, -0.08446668, -0.08474987, 0.1040205, -0.1204156, -0.01938008, -0.02393329, 0.06717592, 0.009129927, 0.05998642, 0.03805907, 0.03274247, 0.005440846, -0.04520142, -0.03665087, -0.0285714, -0.001544416, -0.04463238, -0.09624298, -0.009897321, 0.0905401, -0.008193731, -0.02626558, 0.08723161, -0.02138394, -0.07935927, 0.01371212, -0.08044799, 0.1116747, 0.1616908, -0.1347705, 0.1152611, 0.1144418, -0.05482161, 0.0475838, 0.04736289, 0.08629172, 0.09104516, 0.01054102, 0.1590435, 0.1422817, 0.0714939, -0.1383867, -0.1690807, -0.110979, 0.100211, -0.04045387, 0.01676454, -0.05660566, 0.1350048, 0.01796068, 0.01742455, -0.1126871, 0.01695229, -0.05556157, -0.1107279, -0.1422269, 0.1655184, -0.01851439, -0.07558343, 0.05560849, -0.1533161, 0.0702042, 0.03094436, 0.06094692, 0.04097302, 0.1258213, 0.0379138, 0.006859958, 0.1110431, 0.1362287, 0.0629992],
    [0.1711059, 0.119808, 0.06882744, -0.1062418, 0.09890686, -0.1161314, 0.08487154, 0.1318224, -0.1634253, -0.005797341, 0.05346508, 0.1237947, 0.1476948, 0.1205233, -0.1161427, 0.1498198, -0.003858298, -0.09879892, -0.08100171, 0.1687697, 0.03913623, -0.09044047, 0.1074612, -0.08290769, -0.079522, -0.09201102, -0.03804202, 0.07315928, 0.08560167, -0.09162374, -0.06924289, -0.1097343, 0.04452927, -0.0512272, 0.09320296, -0.02980079, -0.1009279, 0.07578923, 0.07107823, 0.06108169, -0.0635861, -0.02464908, 0.03346595, -0.1698396, 0.1610766, -0.06208402, 0.00200887, 0.06623924, -0.02380945, 0.1007183, -0.1490962, 0.1113318, 0.0009445399, -0.06171435, 0.002298489, -0.001754418, 0.09491104, -0.002137303, 0.0610837, 0.05717938, -0.002487838, -0.101527, -0.04587515, -0.1220307, 0.09448302, 0.1183512, -0.08271293, 0.03469203, -0.02106616, -0.1326913, -0.04183438, 0.08564125, 0.1241988, -0.1138707, 0.1279808, -0.1670981, -0.07058473, 0.0219181, 0.009300545, 0.1684442, -0.07790461, -0.06956665, -0.06359522, 0.0337096, -0.07674105, 0.1080694, -0.01399258, 0.04776306, 0.02821219, -0.06911404, 0.03786542, -0.04112931, 0.1353359, -0.1292307, -0.1200682, -0.1383163, 0.03688288, 0.04545703, 0.05810338, -0.02809979, -0.0436535, 0.02708875],
    [0.08428265, -0.005749717, 0.1281856, -0.1529843, -0.06468068, 0.1308605, 0.04740553, 0.06995849, -0.02080169, 0.003706768, 0.01959155, -0.1681748, -0.06150655, 0.09598599, -0.07803108, 0.001045004, -0.03578502, -0.06259295, -0.160284, 0.01516575, 0.1284155, 0.1341328, 0.1537, -0.09325191, -0.1141422, 0.111777, -0.09068812, -0.1366941, 0.1464181, 0.09130692, -0.1004156, 0.06733358, -0.1116136, -0.06127643, -0.0523625, 0.09448691, 0.1373848, -0.05715643, 0.06022328, -0.02506652, -0.01583026, -0.07356909, 0.03185576, -0.02938949, 0.1214043, 0.06214941, 0.03364374, 0.09819593, -0.01662302, -0.02268191, 0.04060777, 0.06534894, 0.03257833, 0.09008674, 0.02051048, -0.03068234, 0.06963274, -0.1110895, 0.05888541, -0.1219911, -0.03029263, 0.003534913, 0.01642577, -0.04609774, -0.1115418, 0.05355663, -0.04198216, -0.07782203, 0.04206218, 0.08339927, 0.05590726, -0.158943, 0.1253365, 0.06729458, -0.01844729, 0.004510388, 0.09305359, -0.1203713, 0.05488959, -0.03383173, -0.03168988, 0.1212939, -0.06811568, 0.008807436, -0.05871363, 0.003789157, 0.02018517, 0.03365248, -0.08404299, -0.08920462, -0.1025118, 0.1558046, -0.1403067, -0.03481196, 0.1181286, 0.0149488, 0.09143335, -0.01023358, 0.0424594, -0.07148832, -0.0001887232, 0.1707408],
    [0.05980957, -0.08580936, 0.1006498, -0.170847, -0.1144845, -0.06438227, -0.01908647, 0.01164435, -0.1384721, 0.08595921, -0.07658894, -0.03265399, -0.09972708, -0.1567846, 0.01187456, 0.07883354, 0.08538093, 0.02222134, -0.03233314, -0.1018447, 0.01577973, 0.1608016, -0.1695027, -0.08150373, -0.02369234, 0.1641348, 0.1618859, 0.01806343, 0.1526227, -0.01659109, 0.03687592, 0.007041171, -0.1606767, 0.08787315, 0.1434879, -0.08026434, 0.05939583, 0.05198098, -0.1239275, -0.06279735, 0.02293533, 0.02315171, 0.09309244, 0.0002255589, -0.0968173, 0.07472445, -0.04971759, -0.07637796, -0.09957134, -0.1163828, -0.06466751, 0.08746255, 0.006393537, 0.1159377, -0.09492095, 0.09839334, -0.06443903, -0.159977, 0.1299711, -0.1032542, -0.08774965, -0.03006469, 0.07295026, -0.1058194, 0.1111072, -0.09384672, -0.1088998, 0.1585994, -0.08452208, -0.01598151, 0.07917565, 0.02884015, -0.1316742, -0.02515689, 0.04663151, 0.03275947, -0.1576609, 0.1630009, 0.1126654, -0.001064226, 0.02866344, 0.03692077, 0.08619673, 0.1123148, 0.008573353, -0.07487756, 0.1325326, -0.09250362, -0.06310688, -0.009783968, 0.111735, -0.1586247, 0.05927132, -0.0686184, 0.1650396, 0.1663209, 0.01647668, 0.07761919, 0.1479642, -0.1125243, -0.06037537, 0.02196407],
    [-0.01577692, -0.1056371, 0.1064016, -0.06749426, 0.02301069, 0.1366386, 0.04438596, 0.1402252, -0.03260051, 0.0009781122, -0.1673761, -0.09087555, 0.02437334, 0.07214063, -0.03986797, -0.1378779, 0.1058254, -0.0744087, 0.04585607, 0.005809903, -0.03096382, 0.1110172, 0.1080552, -0.09344176, -0.1572965, 0.1125978, 0.01071595, 0.01079915, 0.05743264, 0.1542419, -0.002322853, -0.1183252, -0.09559478, -0.0308755, 0.1628571, -0.156174, -0.1508614, -0.129877, -0.1379616, -0.09842075, 0.01997738, 0.09371112, 0.03739922, -0.04954787, -0.0208867, -0.04852566, -0.03831229, -0.05685304, 0.02314521, -0.06891888, 0.1707782, -0.1027137, -0.04942635, 0.01284921, -0.05439556, -0.1023388, 0.1317039, 0.1036031, 0.1137071, 0.05706698, -0.01930133, -0.134207, 0.05868105, -0.005593479, 0.02016661, -0.1443343, 0.1711425, -0.009925649, -0.1354998, -0.07051341, -0.0409025, 0.1501791, 0.1190165, -0.06318539, 0.03148961, -0.02433208, -0.1098875, 0.01047887, -0.1505841, 0.04789419, -0.1336938, -0.05411829, 0.08053172, 0.1559038, 0.1507137, 0.1191221, -0.076335, 0.165815, 0.09463009, 0.02418807, -0.1159912, -0.0787427, 0.08811554, -0.1477908, -0.02748793, -0.1271719, -0.008122802, 0.1533771, 0.07877994, -0.07876267, -0.07500853, -0.1002684],
    [-0.1406847, 0.0274163, 0.1486836, -0.1106414, 0.03596714, 0.006137177, -0.05979925, -0.006265968, 0.03533573, 0.1004982, -0.05220181, 0.04224229, -0.0418141, 0.1197729, -0.154742, -0.01078509, 0.1675869, -0.1454524, -0.0217851, 0.1617927, -0.1043336, -0.05731017, 0.08234949, 0.1330605, 0.07417491, 0.01378621, -0.1566622, -0.08355998, -0.1510604, 4.847348E-05, 0.1038632, 0.1060834, 0.1577335, -0.1119637, -0.03111735, -0.1208376, -0.132541, 0.02833441, 0.03632417, -0.1443365, 0.008390576, 0.06496046, -0.04232618, -0.04342948, -0.07631111, 0.02561246, -0.119212, 0.08384719, 0.01226795, 0.09607272, 0.1072634, -0.02515602, 0.02791584, 0.007862791, 0.1422764, 0.09707244, 0.01071921, -0.01066341, -0.123227, 0.1110538, 0.01019388, -0.02031042, -0.03686263, 0.07835833, 0.01662804, -0.07120737, -0.0287603, -0.08032243, -0.1400802, -0.1202924, -0.1623358, -0.1393554, 0.05168761, -0.1216292, 0.01019424, 0.1178736, 0.1520028, -0.1520772, -0.07119209, -0.03400408, -0.1311449, -0.1378402, -0.002536744, -0.001316875, 0.1197733, 0.06992909, -0.03891277, 0.1148503, 0.0768471, 0.1534094, 0.008767158, -0.02097775, -0.163782, -0.1038388, 0.08977892, -0.01503548, 0.04582433, -0.115418, -0.1655215, -0.02352585, -0.169125, 0.07802955],
    [0.09850804, 0.02226979, -0.1281911, -0.01495841, 0.0881808, 0.004408821, -0.1620914, -0.08387928, -0.03970598, 0.144652, 0.01819992, -0.1663461, -0.1481983, 0.09413035, -0.1411874, 0.07270906, 0.1174389, -0.08059157, 0.002120733, -0.04928029, 0.02727789, 0.09895392, -0.1500768, 0.131103, 0.01515757, 0.01654565, 0.06061376, -0.08207504, 0.1713013, -0.1082893, -0.1039415, -0.0373389, 0.1522987, -0.1318407, -0.05505497, -0.02128929, 0.009458706, 0.08900973, -0.1710305, -0.09160365, 0.01658106, 0.09932184, -0.1029586, -0.07509267, -0.00559786, 0.1009874, -0.06862874, 0.09097463, -0.145193, 0.1417893, 0.139265, -0.00413993, 0.06185318, -0.1456888, 0.07735968, 0.1563813, -0.09141372, -0.1189118, 0.1510667, -0.1279713, 0.1354888, -0.1304617, 0.1601018, -0.09733413, 0.1112925, 0.1008767, 0.0340962, -0.1166332, 0.1573552, -0.1252737, 0.05143705, -0.08493231, -0.1505406, 0.1430339, -0.1659051, 0.06022099, 0.09534441, 0.01785743, -0.05241734, 0.03962976, 0.1536998, 0.1650394, 0.04836474, -0.07020536, -0.07398841, 0.09054738, -0.0803486, 0.01573545, 0.1315838, 0.1232343, -0.1211524, 0.1395477, -0.08516772, -0.08817773, 0.006173119, 0.01229259, 0.0973107, 0.01211154, 0.1704361, 0.01504852, 0.05153237, -0.04200934],
    [0.08329946, -0.06295368, -0.0002933592, -0.1211187, 0.05108136, -0.06530496, 0.1346409, -0.0948397, 0.0990714, -0.1114332, -0.1077009, -0.03228226, -0.09101601, -0.09021105, -0.03347564, -0.1105699, -0.07453127, -0.01930186, -0.1444223, 0.05364453, 0.07977642, -0.08897261, 0.007283732, 0.1190642, 0.06925305, 0.105755, -0.01094966, -0.06121363, 0.05684279, 0.07456286, -0.01163438, -0.07246068, 0.03978309, -0.07462385, 0.1066863, -0.0841258, -0.01750399, 0.01522025, 0.1247769, -0.04653193, 0.03480145, -0.1176807, -0.1695728, 0.1567561, 0.09758285, 0.01848753, -0.02089876, 0.1111198, 0.02598165, -0.06642236, -0.05710475, -0.1326033, -0.03361315, -0.04471955, 0.02949646, 0.009833366, 0.01232007, 0.1219017, -0.01382628, 0.1193457, -0.1422003, 0.0664086, -0.07127272, -0.1553858, -0.04583307, -0.08222272, -0.01156135, -0.01953554, -0.03967142, 0.1353623, -0.1524961, -0.08488767, 0.1364362, -0.1114164, -0.02030008, -0.1271746, 0.0348084, 0.05917486, -0.0144435, -0.1125916, 0.004043311, 0.02476166, -0.04201883, 0.03740098, 0.1584127, -0.1457038, -0.1453647, -0.1425198, -0.05472324, 0.06026392, -0.1237102, -0.04922685, -0.05002168, -0.1628039, 0.07965405, 0.02973087, 0.1323463, 0.06438524, -0.1510529, 0.01665655, -0.1329828, 0.04367945],
    [0.08303127, 0.09926488, -0.02543022, 0.09096035, 0.03095482, 0.1544642, 0.107888, 0.1284987, 0.08625008, -0.1332413, 0.1298263, 0.09897752, 0.1363609, -0.1659691, 0.04942608, -0.163581, -0.1063646, -0.06478424, 0.1298559, -0.112519, -0.1044013, -0.1448887, 0.01009464, -0.07833293, -0.1199607, -0.02974187, 0.03553069, -0.01688036, 0.1349444, -0.109268, 0.1541229, -0.001978129, -0.05183905, -0.1637447, 0.1233807, -0.04333903, 0.1536225, -0.1030331, -0.0171539, 0.1432244, -0.08245064, -0.1280707, -0.01891726, -0.1008238, -0.1352924, -0.1212231, -0.0976836, -0.09420033, -0.03001843, 0.08390309, -0.152917, -0.09927483, 0.1522351, 0.04639485, 0.1423826, -0.1298342, 0.04882367, -0.08627184, -0.08636813, -0.003535643, 0.05942878, -0.04236585, 0.105272, -0.1678133, -0.06140376, -0.03920628, 0.1020244, -0.1516685, -0.02464704, -0.05118221, 0.01759104, -0.1627289, -0.1148347, 0.02258761, -0.1706681, 0.1507964, 0.1153067, 0.02532846, 0.1645493, 0.1262838, 0.0549916, 0.1601483, 0.05292752, 0.0948834, 0.149333, 0.1612605, -0.1162925, 0.04879365, 0.07988319, 0.05418132, 0.1495215, -0.007556334, 0.1606968, 0.07546384, -0.1645905, 0.08862983, -0.07044075, 0.004198328, -0.1269431, -0.1104746, -0.07355715, -0.09804352],
    [-0.008304134, 0.1583481, 0.1324261, 0.08726837, -0.06525594, 0.1247521, 0.04863456, 0.08640154, 0.01231594, -0.03810833, 0.03010418, -0.1449703, 0.04736758, 0.00981684, -0.1613943, -0.05634549, -0.1011669, -0.1116044, 0.1120379, -0.1544509, 0.1063513, 0.08350287, -0.1544865, 0.08519201, -0.1309717, -0.1494829, 0.05432652, -0.02000596, -0.08628656, 0.04918025, -0.01837893, 0.02332443, 0.04813416, -0.08418803, -0.09413315, 0.04910763, -0.007023185, 0.007561475, -0.1110282, -0.0009486377, -0.08932535, 0.04337982, 0.03294662, 0.164971, -0.1459474, -0.1474337, -0.06989625, 0.03259519, -0.1637294, -0.1554693, 0.1457528, -0.04720782, -0.001502186, -0.04924685, -0.05605743, 0.07788104, -0.1615621, 0.125983, -0.0007312745, 0.01905355, 0.08211941, 0.003597096, -0.1071319, 0.1074035, -0.02272807, 0.1328134, -0.1502626, 0.06453411, -0.1379066, -0.04116626, 0.1099276, 0.03665549, -0.001594469, -0.138619, -0.07263434, -0.1053836, -0.07465251, -0.008391798, -0.06350946, -0.02138349, -0.1371671, -0.1486876, -0.008542225, -0.009612486, 0.02525195, -0.02396339, 0.002675682, -0.1245535, -0.03176536, 0.1005661, 0.00310263, 0.01470309, 0.02753222, -0.09643139, -0.05121022, -0.04400699, -0.09499093, 0.1230135, -0.08586113, 0.05711777, -0.1447684, 0.131817],
    [0.006519854, -0.01396662, -0.09832121, -0.117067, 0.02924606, -0.01354641, -0.02070332, 0.03394406, -0.06089932, 0.1013275, 0.124377, -0.04080114, -0.006225243, 0.048149, -0.0132487, 0.07617432, -0.1200188, -0.1309105, -0.02890824, -0.05242245, 0.00624916, -0.003546238, 0.01374823, -0.133161, 0.005280152, -0.1400199, 0.1518078, 0.1659234, 0.06681789, 0.003807798, 0.006243765, 0.1621965, 0.02259146, 0.0969443, 0.09221166, -0.05026566, -0.04583524, 0.03822054, 0.06989671, 0.05982172, -0.02025256, 0.1073049, -0.1561162, 0.1608486, 0.09293196, 0.1508393, 0.04151823, -0.07558358, 0.03861445, 0.1006706, -0.001299217, 0.09326912, 0.04339793, 0.05410228, -0.06287955, -0.06180033, 0.01443806, 0.1218389, 0.007396162, 0.01844317, -0.1167645, 0.1357419, -0.04946392, -0.08820488, -0.1314418, 0.08018981, -0.03491671, 0.1514429, 0.1367988, -0.07538855, 0.04495885, -0.1038211, 0.1180569, -0.05244232, 0.04857535, -0.03268984, -0.1200467, 0.08889647, 0.09166531, -0.1063434, -0.1553046, -0.02686276, -0.1595727, -0.08620806, -0.07851897, -0.1249733, -0.03609729, 0.1167795, -0.03243895, 0.1711624, 0.1234134, -0.1250368, -0.08972631, 0.08518789, -0.1087505, -0.06017457, 0.1078704, 0.04682316, -0.03205582, -0.1368716, 0.0556419, -0.1420093],
    [-0.01746327, -0.1194019, 0.1067031, 0.08901234, 0.06545308, -0.1496232, -0.03502037, -0.1318002, 0.0255039, -0.03981608, 0.02766445, 0.1567512, 0.1055284, 0.1588065, 0.02800097, -0.08737232, -0.008476242, 0.1547115, 0.1164863, 0.118421, -0.1402563, 0.1396026, 0.1249774, -0.00157468, -0.1269019, 0.07018874, -0.02560461, 0.09622695, 0.1255189, -0.0581997, 0.1596627, -0.006545201, 0.07459696, 0.0358551, 0.1529167, -0.1528286, 0.08115838, -0.1022499, -0.08045314, -0.113503, 0.1653872, -0.103542, -0.03888674, 0.1178103, -0.1668036, 0.02273935, -0.06280389, 0.1654959, 0.1455214, -0.04411747, 0.01112707, 0.03703591, 0.1602177, -0.1272548, 0.1632546, -0.08711354, -0.1399476, 0.09703241, 0.08873193, -0.05825244, -0.03885432, 0.03488, 0.04180858, -0.1129509, -0.009792358, -0.09827204, 0.08161759, 0.1262239, -0.05826467, 0.1009898, -0.05756703, 0.03761518, -0.06504777, 0.01603377, 0.1474573, -0.0287704, -0.09605663, -0.04563129, 0.09910162, -0.09483038, 0.09895846, 0.1240786, 0.09455277, -0.01009333, -0.1443668, -0.1610316, 0.1630266, -0.1221234, -0.1005792, 0.09543118, 0.006817803, -0.05851519, 0.06861388, -0.1525786, -0.07057017, -0.05311113, -0.1636427, 0.147404, -0.07824084, 0.1665814, 0.08214366, 0.04108195],
    [0.1708319, 0.04073179, 0.08745749, -0.0002353787, -0.1400287, -0.1297606, -0.1117872, 0.0288808, 0.1453051, 0.06019061, -0.1041983, -0.01501238, 0.1339939, 0.04993857, -0.1576385, 0.1678995, 0.07179786, -0.1662401, 0.09328196, 0.1086996, -0.07764354, -0.08922011, -0.1262531, -0.1424997, 0.1508818, 0.01082119, -0.07911594, 0.1662271, 0.01724517, -0.09478776, 0.1355795, 0.108984, -0.1569694, 0.03454953, 0.07703171, -0.005116552, -0.02878234, -0.04548351, 0.070383, 0.04227471, 0.0383154, 0.0450609, 0.1090816, 0.04661401, -0.1140509, 0.06857892, -0.005777806, 0.119612, -0.1069761, 0.08960871, -0.1502133, 0.02757004, -0.1336756, 0.001998886, 0.02563487, -0.09144722, 0.1490542, -0.1279549, 0.03748119, 0.006653517, 0.1544161, 0.02582832, 0.03382859, 0.1218268, 0.01730528, -0.1019513, -0.07904328, 0.006771386, -0.08595951, 0.09813154, 0.04957814, -0.1318006, -0.004968986, 0.01549973, 0.07977171, 0.05679863, -0.02997918, 0.1423437, 0.01275913, -0.1336563, -0.03968103, -0.1470966, -0.06438227, 0.1433308, 0.09694786, 0.09976633, 0.05209589, -0.07472739, 0.1028628, 0.02876705, 0.1020181, -0.1393417, -0.1301745, -0.08170034, 0.03937767, -0.07636423, 0.1562079, -0.02288128, 0.1213569, 0.06760582, -0.04307531, 0.1258797],
    [0.006574556, 0.1345656, 0.09815259, 0.05719803, 0.03757741, 0.01860452, -0.1455576, -0.05341632, 0.07514977, -0.1665258, -0.006428212, 0.03991933, -0.1688488, 0.1284005, -0.133786, -0.005969688, -0.006927669, -0.0846145, -0.161651, 0.1029674, -0.1201495, -0.1546826, -0.1277324, -0.01745963, 0.1644178, -0.06098534, -0.02914485, -0.06380764, 0.1489814, -0.1417712, -0.01052177, 0.0213386, -0.06590299, -0.09204709, 0.1687611, 0.02514535, -0.0003300309, 0.06889961, 0.1237586, 0.05611498, -0.04315127, 0.1503282, 0.142685, -0.1495441, -0.01382384, -0.008247018, 0.1344498, 0.1454354, 0.06365444, -0.06166634, -0.05419484, 0.07725978, -0.08918367, -0.1167195, 0.002676502, 0.1538153, -0.1129851, 0.06412457, 0.06891997, -0.06246682, -0.105189, 0.1050136, 0.1027981, 0.08702386, -0.02249219, 0.03996819, 0.006321415, 0.1677626, -0.1588183, 0.0722976, 0.1283283, -0.1125863, 0.051433, 0.1498603, -0.04436468, 0.1682657, -0.05556472, -0.0006543994, 0.1440077, -0.1221412, 0.00750272, -0.03894635, 0.05824322, -0.08685867, 0.07067588, 0.1149582, -0.0008718371, -0.08001609, 0.1568561, 0.08769099, -0.03650105, 0.07321882, -0.1542833, 0.04697461, -0.1530262, -0.02218433, -0.04796143, 0.1582185, -0.02108337, 0.08025368, -0.1613924, -0.1199921],
    [0.1224923, 0.06110913, 0.08245768, -0.09075473, 0.1097405, 0.03942348, 0.0757425, -0.007737592, -0.06599283, -0.1599524, 0.04528641, 0.06688458, 0.1077828, -0.001590833, 0.1577135, -0.01747619, 0.02639666, 0.1510839, -0.08584427, -0.1071775, -0.06283198, -0.06158837, -0.1388211, 0.03707382, 0.09273086, 0.1675003, 0.03416203, 0.04180618, -0.1368879, 0.08755206, 0.1340697, -0.06188956, 0.01951616, -0.1255398, 0.001503125, -0.002447516, -0.09116738, 0.159072, 0.1118271, 0.06768882, -0.1046715, 0.163531, -0.1310729, -0.01522405, 0.07105872, -0.01003814, 0.1692082, 0.1070258, 0.03020766, -0.02639912, 0.03813067, 0.1131435, 0.1671463, -0.03053011, -0.1232963, 0.1094251, -0.08729954, 0.1636939, -0.1238721, 0.08328094, -0.07875122, 0.0396962, -0.04820006, 0.1287318, 0.02058977, -0.01496479, 0.09682057, 0.1700287, -0.02874121, 0.1490486, -0.04512058, -0.08932932, 0.1182601, -0.0543541, 0.1328036, 0.000136137, -0.08196943, 0.01291513, 0.05549134, -0.1419898, -0.09414329, 0.1326411, -0.04100938, -0.1112521, -0.1288938, -0.002179697, -0.1268411, 0.06243011, 0.07832476, -0.1249795, -0.0516091, 0.06265283, 0.1428271, 0.004459321, 0.05666035, 0.03994521, -0.08392061, -0.04787226, -0.009474322, 0.01474419, 0.1084052, 0.002730668],
    [-0.07248351, -0.03704304, -0.01650214, 0.01818691, -0.08271097, 0.00846307, 0.1035846, -0.05186149, -0.003579482, -0.04271197, 0.1178512, 0.1550422, -0.03258729, -0.06614968, -0.08673801, -0.01738003, 0.02434897, 0.09808128, -0.008194312, 0.09160872, -0.1271293, 0.02737521, -0.1053432, 0.1236515, 0.1636961, 0.0078412, 0.1033381, 0.03709267, -0.1438829, -0.08895044, 0.07246271, -0.03264989, 0.09524035, -0.005927697, -0.1347177, 0.06782068, -0.06501797, 0.07665557, -0.06063968, 0.1546749, 0.1425288, 0.1226803, -0.02281193, 0.1580874, 0.05673182, 0.1571708, 0.159121, -0.01413217, 0.07271156, -0.1354826, -0.03657164, 0.03269422, 0.1121896, -0.06414925, -0.04272301, 0.09711358, -0.07568392, 0.1348819, -0.1299696, -0.1014565, 0.06413402, 0.08625789, -0.06371269, -0.07504447, -0.1557893, -0.03554194, 0.1699271, 0.04875922, 0.1651522, -0.1287227, 0.0732656, 0.1188589, 0.06457414, -0.1249397, 0.01060918, -0.1466163, -0.168688, 0.04130656, -0.0666174, 0.0276373, 0.06874382, 0.09315811, -0.01249863, 0.05549138, 0.152286, -0.03033324, -0.008071154, -0.1537479, -0.03409092, 0.03250568, 0.1378837, 0.1511259, 0.01750711, 0.1411895, 0.02272725, 0.0788662, 0.07596644, 0.03235893, -0.02352796, -0.09758933, -0.1596238, -0.004776612],
    [-0.1142738, -0.1245151, -0.06240855, 0.07172496, 0.1199148, 0.04889555, -0.01972048, 0.03632241, -0.1087969, 0.1137095, -0.09532757, 0.1087532, -0.104444, 0.09558181, -0.04370998, -0.03296375, -0.1067225, -0.08834558, 0.06447691, -0.0490395, 0.06779546, 0.1306683, -0.1314357, -0.08918886, -0.04945975, -0.1330114, 0.1584846, -0.1029503, -0.03936914, 0.07690377, 0.03316334, 0.1191778, -0.0794305, -0.1403281, 0.1202867, 0.1557583, 0.02881169, -0.04905418, -0.04493585, -0.06987032, 0.04676292, -0.1211202, 0.08619604, -0.1623916, 0.1471489, 0.008381784, -0.07001674, 0.1665624, -0.007121399, 0.128043, 0.03533341, -0.0233676, -0.1278081, -0.0983886, 0.1143423, -0.02744304, -0.1662307, 0.1136212, -0.06670102, 0.06165348, 0.04919587, 0.07452889, 0.09708148, -0.03919826, -0.01570743, 0.1651569, 0.1093838, -0.009259537, 0.07695276, 0.04638683, 0.06736179, 0.1269579, -0.08646389, -0.04933925, 0.07781848, 0.09690366, 0.08851846, -0.02604195, 0.02115469, -0.1500247, -0.07422805, -0.06388058, 0.003449336, 0.008588105, 0.1509684, 0.1559033, 0.0612818, -0.1147837, 0.07098754, -0.0785787, -0.03119889, 0.1516672, -0.0009328872, -0.03999886, -0.1023532, -0.1629075, 0.1154356, -0.0889238, -0.01630327, -0.04016516, 0.1426367, -0.08918388],
    [0.1219178, -0.0146382, 0.01212411, -0.1098033, 0.1427629, -0.01784313, 0.07249869, -0.1552945, 0.06596488, -0.0944701, 0.1472571, 0.008722544, 0.03808151, 0.1502354, 0.09105816, -0.1031356, -0.1515896, 0.1474049, 0.00580278, -0.008765027, -0.009772927, -0.009398401, 0.1251173, 0.03885406, -0.1537667, -0.1442348, 0.1449195, -0.09126486, 0.04306019, -0.08359854, -0.09825434, 0.08634503, -0.1524007, 0.1284323, 0.02878745, 0.03337117, 0.118891, -0.06234358, 0.117028, 0.1087653, -0.0198231, 0.0750368, -0.1000116, 0.1673102, 0.08618867, 0.01953243, -0.04251611, -0.05859693, -0.1007354, 0.05896751, -0.1231166, -0.09829178, 0.1353136, -0.06837933, -0.144126, -0.0244202, 0.122547, 0.1078836, -0.1288007, -0.01222073, -0.095163, -0.06864968, 0.1702635, 0.04383408, -0.1270076, -0.1152027, 0.1399412, 0.06875911, -0.1575753, -0.09164426, 0.1590578, 0.1383856, -0.1414349, 0.01934908, -0.002567574, 0.08704508, -0.1409778, 0.1695697, 0.158253, 0.06439112, -0.06340852, 0.06708109, -0.06116979, -0.02213089, -0.04123136, -0.1452917, -0.09686793, -0.1143945, -0.03501186, -0.1052428, -0.1020371, -0.160964, 0.1313139, 0.04816401, -0.008129179, 0.008618534, -0.1177548, 0.07770433, 0.0295465, 0.05270852, 0.03698616, -0.151675],
    [-0.01147087, 0.05835079, -0.08795981, 0.09324618, 0.1073625, 0.1184065, 0.03197041, -0.05068293, -0.1701268, -0.1159369, 0.02906525, 0.09266013, 0.08682375, -0.06200527, -0.1303158, -0.1198148, -0.1171394, 0.1426744, -0.02300921, 0.1079838, 0.08453057, -0.12255, -0.1369581, -0.09666111, 0.05080549, -0.1388354, 0.0929201, 0.04242146, 0.1087596, -0.06546067, 0.1014754, 0.1467363, -0.022322, -0.08288012, 0.03952987, -0.03688888, 0.05947805, 0.1536413, -0.04832616, -0.06457363, -0.04688006, 0.03278634, 0.04103337, 0.1319461, 0.1334161, 0.01772386, -0.08754073, 0.00518316, -0.1028575, 0.1321313, 0.06283082, 0.00508973, -0.00501813, -0.009702072, 0.07940389, -0.1209461, 0.09523684, -0.1576401, -0.04539126, 0.117264, -0.06432728, 0.1037392, -0.1529866, 0.04438715, -0.02432518, 0.004676521, -0.110206, 0.031876, -0.1148135, -0.03191452, 0.1043583, 0.06558584, 0.05901576, 0.09787668, -0.09266753, -0.03599045, -0.009962812, -0.04653664, 0.1474678, -0.125012, -0.05400671, -0.1528084, 0.138356, -0.1642137, 0.05898547, 0.0760025, -0.1408519, -0.0004505366, 0.1045922, 0.06628426, -0.02088286, -0.1024926, 0.06390676, 0.1624231, 0.09378631, 0.04075946, 0.1653835, -0.1609109, -0.1487259, -0.06875648, -0.1273697, 0.1150428],
    [-0.02173473, -0.009097621, 0.0009463429, -0.01346564, -0.03184177, -0.02531704, 0.1541099, 0.09253488, -0.1021348, -0.1528605, -0.1331587, 0.1620956, 0.01618375, 0.1106596, -0.003224567, 0.00984776, 0.07627576, -0.1142424, -0.102086, 0.06058482, -0.0843461, 0.1307442, 0.132062, 0.03123638, 0.01435056, 0.06250277, 0.1653091, -0.1403454, -0.1388621, 0.1337306, 0.1427631, 0.04273, -0.0279247, -0.004028723, 0.0866072, 0.01622137, 0.0880336, -0.1298584, -0.07100481, -0.1669496, -0.01176141, -0.008396387, 0.04475559, -0.06931309, 0.01981154, 0.03933924, 0.1470321, 0.0938279, -0.127518, -0.05595676, -0.09759017, 0.06467268, -0.03800657, -0.169772, 0.08669116, 0.05786071, 0.1111176, -0.05496918, -0.01249225, -0.01002428, 0.09829529, 0.05353884, -0.09961183, -0.07202551, 0.1251445, 0.1356337, 0.09508163, 0.0190248, 0.02713102, 0.04921734, 0.1378553, -0.009881079, 0.07086078, 0.1328133, -0.1371809, -0.1392418, -0.1575597, 0.09249923, 0.1038308, 0.09100054, -0.06317492, -0.108729, -0.05240319, -0.01411299, -0.04285349, -0.1536997, -0.09265571, -0.05233993, 0.02386579, 0.06511755, 0.1441949, 0.1158977, -0.137661, 0.1204816, -0.1506633, 0.1415049, -0.03007592, 0.1659437, 0.1027228, 0.02298656, -0.04696388, -0.1618158],
    [-0.1664364, 0.1528164, 0.07830252, -0.07741314, 0.1302404, -0.05898766, 0.02369724, -0.1175808, 0.1549347, -0.0608074, -0.0327161, 0.01949453, -0.1572476, 0.1440059, -0.1608725, 0.04931326, 0.08045284, 0.1224793, 0.06794008, -0.1165091, -0.008249924, -0.1519534, 0.05054151, 0.1632693, -0.1427208, 0.1200316, -0.124071, -0.04329108, 0.01362024, 0.1336741, 0.04805639, 0.01737605, -0.1296313, 0.1251191, 0.09296364, -0.072589, 0.08324782, -0.02000776, -0.1101392, 0.1271763, 0.1555732, 0.151143, -0.1451027, 0.06554087, -0.05128326, 0.1535739, 0.1284361, 0.04360887, -0.1426468, -0.06678328, 0.1488326, 0.1072365, 0.1549826, -0.00330691, -0.06150675, 0.04816647, -0.1065059, 0.0003050119, 0.1556572, 0.0699816, -0.0131876, 0.1051634, 0.0005755275, -0.07593748, -0.1162219, -0.0006807297, -0.08530171, 0.1112374, 0.03814584, 0.05058211, 0.09835891, -0.02244046, -0.007133752, 0.1567526, 0.08216463, -0.0190921, -0.1168405, -0.1055588, 0.0157478, 0.04356059, -0.1640321, 0.01775251, -0.07477473, 0.07696383, 0.04246594, -0.1294978, -0.08099084, -0.1272506, 0.131246, -0.1471122, -0.03185551, -0.02372763, 0.1434307, -0.1362743, -0.0835584, 0.04819451, -0.1413492, 0.03560168, -0.1104636, -0.03817557, 0.09087215, 0.1253544],
    [0.1121521, 0.0598997, -0.05008714, 0.08013633, 0.07360403, -0.1113853, -0.1359379, -0.144715, -0.1679313, -0.04599433, 0.08458437, -0.0306049, -0.05358355, -0.08327114, -0.05602889, -0.07513753, 0.1252602, -0.064614, -0.03114815, 0.09075134, -0.04590969, -0.1655583, -0.02093622, 0.03913285, 0.01585472, 0.07495948, 0.09083679, 0.03047635, 0.101767, -0.1030726, -0.1445818, -0.09983774, 0.005371869, 0.1366327, -0.09404986, 0.1171148, -0.1152864, 0.07728612, 0.09919643, -0.1079073, -0.06824018, -0.06847222, 0.0507545, -0.1510112, -0.16591, -0.02484025, 0.1401992, 0.1669417, -0.001705721, -0.1240746, -0.07196663, -0.152157, -0.1353427, 0.1223616, 0.09305017, 0.1644935, -0.06170294, 0.007331192, 0.06014351, 0.06643023, 0.07184104, -0.1627046, -0.01930116, 0.00508441, 0.09334689, -0.1076002, 0.01956417, -0.1038726, 0.165086, -0.08863433, -0.1421497, -0.1340636, 0.07831606, 0.1585513, -0.0442488, 0.09231855, -0.1657836, -0.0171721, -0.1448231, 0.1053809, -0.1402723, -0.04841787, 0.07193676, -0.09097271, -0.1206968, 0.09829144, -0.03875625, -0.1002008, -0.05959068, -0.05003424, -0.07727613, -0.09518008, 0.00635168, -0.115087, -0.08569387, -0.007032052, 0.03880975, -0.1140114, 0.03518683, -0.1235747, -0.007182643, 0.1480985],
    [0.102753, -0.03686476, -0.134729, 0.01605316, -0.07395378, 0.0607666, 0.0771094, 0.116851, -0.04314964, 0.09443231, 0.1102531, -0.08644263, -0.04671192, -0.159287, 0.07985771, 0.02280188, -0.03230795, 0.111312, -0.0539814, 0.02517618, 0.03454831, -0.04110903, 0.123108, -0.1674893, 0.139608, -0.01300193, -0.04287638, 0.04238355, 0.08228624, -0.06595014, 0.03598963, -0.05948727, 0.06790181, 0.002608165, -0.03543212, -0.03165267, -0.1244739, -0.01153748, 0.03698562, 0.1565841, 0.1226747, 0.04272804, -0.03983383, 0.05615885, -0.01359421, 0.007163271, 0.1331051, 0.05191981, -0.1191287, 0.06878884, -0.05142252, 0.05101667, -0.07736358, -0.06555372, -0.001191959, -0.002131164, -0.03413235, 0.07576756, -0.08700652, -0.1110484, 0.1231477, -0.05922616, -0.03768347, -0.01603009, -0.09079708, 0.1650106, -0.04342957, -0.1075549, -0.1333774, 0.008341759, -0.07434152, -0.05250128, -0.03730947, -0.03814355, -0.1042045, 0.03498422, 0.1417916, 0.1442616, 0.08737357, -0.05040137, -0.00304547, 0.1142214, -0.0938582, 0.1003346, 0.0619132, 0.1411495, -0.1108909, 0.05135458, -0.1324005, -0.1116434, 0.07974649, 0.1420455, 0.06596734, -0.0558455, 0.01907629, 0.1161626, 0.1629402, 0.1038013, 0.08858736, 0.08439711, 0.02984667, 0.1452315],
    [0.08479843, -0.0483529, -0.08832188, 0.02407195, 0.1459502, 0.1702134, 0.01507142, -0.04562233, -0.08342566, 0.1573665, 0.1102381, -0.1548819, 0.148172, -0.07517602, -0.1618963, -0.00526695, -0.1701646, 0.09332416, 0.03391773, 0.1697304, -0.05939237, -0.0009831041, -0.05105551, -0.07771109, 0.14144, 0.04659259, 0.09572534, -0.1435509, 0.1123319, 0.05169829, -0.1253919, 0.1048119, -0.1481288, 0.132292, 0.003882989, 0.1136182, -0.07250105, -0.1116382, 0.1454531, 0.09650082, 0.1286433, 0.03116876, -0.0503227, -0.06600906, -0.03366639, 0.07202598, -0.1686114, 0.06938704, 0.0372314, -0.05933578, 0.1000073, -0.08735216, -0.1420302, -0.08601429, -0.01425737, -0.1098212, -0.03217682, -0.1666553, -0.02594852, -0.1485132, -0.04098336, -0.02516817, -0.07285972, 0.09350705, -0.09612842, 0.08123475, -0.1086477, -0.05798753, 0.08143286, 0.05851079, 0.1253029, -0.02734524, -0.0510021, -0.1711809, 0.1606395, 0.07098079, -0.1247046, -0.1490774, 0.05328283, -0.1233369, 0.0008325875, 0.1447157, -0.1312518, -0.1336796, -0.1161873, -0.05041765, -0.0414737, -0.03233686, -0.1259866, 0.06729244, -0.1708841, 0.169731, -0.1520538, 0.0750844, 0.08702697, -0.1341671, 0.07400335, 0.04143082, -0.1171953, 0.01692984, -0.04238462, 0.0271365],
    [0.1497951, -0.03915215, -0.1378798, 0.1161189, 0.084267, -0.01296276, -0.02656242, -0.01284933, 0.1207248, 0.1132102, -0.0569589, 0.04982948, -0.08897133, -0.1356855, -0.107464, 0.09809572, 0.04366829, 0.09632476, -0.09742837, -0.1028396, 0.002066642, -0.04735948, -0.1440761, 0.07656553, -0.08759957, 0.1258707, 0.01291108, 0.1380419, 0.07867423, 0.136191, -0.1171179, -0.1075614, 0.1528533, -0.02829495, 0.03272414, 0.1690976, -0.03271335, -0.05657009, -0.1711994, -0.07678697, 0.02248327, -0.1197951, -0.1030417, -0.1526116, 0.1587945, -0.05227156, 0.0360878, -0.1506622, -0.1488843, -0.1114381, -0.1499101, -0.0474823, -0.05448641, 0.03655867, -0.1157119, -0.1663605, 0.07304929, -0.1064344, 0.008908257, 0.1581363, -0.05443673, -0.0813361, 0.03738511, -0.02260435, 0.1021263, -0.1102875, 0.1261315, -0.006240085, 0.05259726, 0.1199922, 0.1653529, -0.09747089, 0.0642389, 0.1407626, -0.08431183, -0.1706282, 0.08066399, -0.01997484, 0.05077715, 0.1487498, 0.1498357, -0.1534881, -0.1604257, -0.0242914, 0.03924569, 0.03810209, 0.05674004, 0.03929913, 0.09543065, 0.09341718, -0.1134873, 0.01556082, -0.05107709, 0.006631106, 0.1364564, -0.1066941, 0.02394274, -0.07913868, 0.001751393, 0.08317487, 0.1153357, 0.01136778],
    [0.1177418, -0.03319523, 0.1648233, 0.1300163, -0.144369, 0.07081535, -0.03550436, -0.0103253, 0.06486437, 0.1652322, -0.1054152, 0.168113, 0.01691729, -0.1316298, 0.0850978, -0.1632206, -0.1622841, 0.1464783, 0.05291811, -0.03705113, -0.07704212, 0.07400138, 0.1191008, 0.1589982, 0.1528686, -0.111467, -0.1224735, 0.0002413094, -0.1215991, 0.05597117, -0.05821266, 0.148378, 0.1038382, -0.1415652, 0.1324335, 0.06213015, 0.1240288, -0.06314348, -0.08244319, -0.02342077, -0.0208517, 0.09933753, 0.1688201, -0.02156827, -0.1466596, -0.07232964, -0.02388579, 0.07008091, 0.1543657, 0.1605668, -0.02592543, -0.02395652, 0.100404, -0.113392, 0.03101735, -0.08584036, 0.007031158, -0.1549292, 0.1624566, 0.02947912, 0.1433638, -0.1478036, -0.1555557, -0.1204467, 0.03673531, -0.03041227, 0.1617917, -0.01291774, -0.0008838624, 0.06887728, 0.0572805, 0.1386989, -0.07252088, -0.003926292, -0.1052603, 0.02558997, -0.06273606, 0.07309975, 0.02552043, -0.1275493, 0.02841124, 0.1699559, -0.1499777, -0.1043207, -0.06460819, 0.09758939, -0.005279616, 0.1523245, 0.002961248, -0.01122369, 0.0004305691, 0.1058129, -0.07964201, -0.07167678, 0.02400383, -0.1459439, -0.05637648, 0.03423797, 0.09743284, -0.07007371, -0.0944324, -0.02850336],
    [0.1269928, 0.06353962, 0.09206275, -0.1172114, 0.1305876, -0.05404139, -0.01980054, -0.1647553, -0.08616398, 0.02690764, 0.142648, 0.08481826, 0.04598658, 0.09912304, 0.1509896, 0.1445696, -0.07897581, 0.09182636, 0.01137953, -0.02295557, 0.0166388, -0.07456477, -0.1134527, 0.0849237, 0.08274525, 0.003012478, 0.002683371, -0.1207771, -0.08490656, 0.07283565, -0.1615855, 0.1651012, -0.06040174, 0.1260394, 0.01314239, -0.086251, -0.1345601, 0.09048964, -0.006361693, -0.08608298, 0.1280675, -0.01692861, 0.05182929, -0.02873299, 0.03907461, 0.09134005, 0.1177165, 0.03801319, -0.1194183, 0.1323087, 0.1171938, 0.004430443, 0.1262537, 0.1504947, 0.07946375, 0.00267747, -0.1125322, -0.044617, 0.01612204, 0.1608623, -0.1542384, 0.009511486, 0.0008077323, -0.03627405, -0.02513178, -0.0944008, 0.009221792, -0.1213408, -0.06150978, -0.02810641, 0.04640127, -0.1606805, -0.08235879, -0.09641504, 0.05032141, 0.04582123, 0.08359797, -0.04316846, 0.1193855, -0.1447459, 0.1604408, -0.02150027, 0.1654049, -0.03376113, -0.1650699, 0.04707254, 0.05970723, -0.1417939, 0.07803065, 0.05782991, -0.1046477, 0.06382515, 0.004614368, -0.09733634, -0.1346603, 0.06637475, 0.07173277, 0.06117745, 0.139485, 0.1371977, 0.1182354, 0.09488703],
    [0.01376937, 0.0810907, -0.07232837, 0.1204638, 0.05232118, 0.04428456, -0.08597539, -0.1468336, -0.05655602, 0.08049304, -0.1619958, 0.06116069, 0.1503343, 0.164446, 0.02352262, -0.02715179, 0.1400304, -0.04577349, 0.03742853, 0.0388162, -0.1167704, 0.005588531, -0.1054909, 0.01280461, -0.04237776, 0.0374794, -0.05804076, -0.06336567, -0.01208325, -0.03039715, 0.049837, -0.0388324, -0.00493072, 0.03171919, -0.1152384, 0.1306186, 0.1109319, 0.08278111, 0.0424525, 0.08194236, -0.07966208, -0.1107033, 0.0623065, -0.1505225, 0.1510536, 0.1318128, -0.1543357, -0.1143474, -0.09255902, -0.01189716, 0.03198305, -0.1070666, -0.04197079, -0.1410531, -0.1493722, -0.003212824, -0.1130998, 0.1308807, 0.06337047, 0.09035356, -0.007713094, 0.007370293, -0.1380551, -0.05781735, 0.09445341, 0.09057236, -0.05900638, -0.02707344, -0.01995902, 0.1567187, -0.09241228, -0.05997017, -0.05335585, -0.04155299, -0.1088897, 0.09737003, -0.05981066, 0.07117146, -0.1331826, 0.01793173, -0.0161268, -0.109143, 0.1583936, 0.1238045, -0.1445343, 0.02606268, 0.03636645, 0.05062219, -0.1181087, -0.0004178584, 0.1499027, -0.1532933, -0.04207353, 0.01431511, 0.1155116, 0.08652036, -0.1137449, 0.1273198, 0.1289764, 0.1649759, -0.05281509, -0.07392335],
    [0.1472842, 0.12665, 0.04871232, 0.01737785, 0.002222672, 0.08212894, -0.07573839, -0.100244, -0.1122661, -0.1317521, -0.1188154, -0.01727621, 0.1560781, 0.1191409, -0.0402686, -0.01720829, 0.1397739, 0.114853, -0.009411067, -0.1185505, -0.02986245, -0.1228456, 0.1360427, -0.1611579, -0.006460801, -0.07146636, -0.1588749, 0.0604476, 0.1371415, 0.04416905, -0.001522869, 0.07457746, -0.1638367, 0.1311564, 0.1066778, -0.07405415, 0.03103513, 0.108396, 0.03653912, -0.09667407, -0.07542004, 0.0001814812, -0.1068786, 0.03197221, -0.168373, 0.1642666, 0.15234, -0.1632523, 0.1612059, -0.1108565, -0.1546331, -0.07587282, 0.1316762, -0.05159347, -0.1248998, -0.01122603, 0.07707623, -0.04618782, -0.1418448, 0.01644184, -0.01669481, -0.1650567, -0.1599533, -0.00627394, -0.1649103, 0.01858345, 0.1380232, 0.1129138, 0.1384255, -0.06914766, 0.0824399, -0.1602841, 0.09033509, 0.02011019, 0.05547471, -0.1512181, -0.165794, -0.01779877, 0.04115425, 0.02298358, -0.001644477, -0.1538401, 0.02000023, 0.1403855, 0.1475298, 0.1671022, 0.1098126, -0.09653215, -0.02332884, 0.03833981, 0.1551569, -0.0664067, -0.1332586, 0.09252724, 0.03684889, 0.02266289, 0.1641978, -0.1616501, 0.1448331, -0.09461039, 0.09797464, 0.1064449],
    [-0.1605702, -0.00661695, 0.1514354, 0.1477103, -0.08858921, -0.03565176, -0.1461239, -0.1681114, -0.09588023, 0.1430321, 0.1324108, 0.1004824, 0.07674475, 0.04271655, 0.1530676, 0.002193883, -0.1483393, -0.02770105, 0.1663651, -0.1092537, 0.0634428, 0.08499317, 0.114945, -0.07982747, 0.1315675, 0.006315157, -0.08856164, 0.0100127, 0.05287064, -0.05506319, -0.02936798, -0.04048045, -0.004316002, -0.0705144, -0.1524081, 0.07138558, 0.04161751, 0.0583326, -0.02050909, 0.03633918, -0.1183385, 0.06667986, 0.09951495, -0.1431884, -0.04657601, -0.1579942, -0.03098521, 0.05422073, 0.01171337, 0.09529237, -0.09276097, 0.038395, 0.09782957, -0.08143668, -0.02731232, -0.1642615, 0.1283905, 0.01117876, 0.05585402, 0.1713068, -0.09604146, 0.1344663, -0.01270112, 0.08643667, -0.04339808, -0.001766771, 0.1136316, 0.1192637, -0.04827914, -0.006385282, -0.0453788, 0.05575229, -0.02240424, 0.09513339, -0.09222738, -0.05523619, -0.1020099, 0.002826601, 0.1186382, 0.08697799, -0.003904954, 0.01188375, -0.08224647, -0.1354482, 0.02042891, 0.01786561, -0.007411703, -0.01870771, 0.0830145, -0.07000354, 0.0851232, 0.04523092, -0.06083357, 0.04021062, -0.01790638, -0.1708728, -0.1145224, 0.1619834, 0.06575149, -0.01156414, 0.1691178, -0.02110133],
