{
"layers": [102, 102, 60, 15],
"fitness": 0,
"weights": [
  [
    [-0.1338726, 0.1085076, 0.06511611, -0.1350027, 0.0238038, -0.149867, -0.02155347, -0.1503195, -0.07787362, -0.09357555, 0.04503932, 0.1545186, -0.1035024, -0.01093207, -0.03374775, 0.1446262, -0.07396109, 0.1623256, -0.0707733, -0.1541439, -0.01887724, -0.1423801, 0.05512588, 0.07648376, 0.08276157, 0.1040932, 0.004911259, -0.05818824, -0.1380741, 0.06516052, -0.1032613, 0.1283961, 0.09557626, -0.05854483, -0.03502142, -0.1139306, -0.1230297, 0.1087946, -0.04112354, 0.0143113, 0.0452613, 0.138628, -0.06476536, -0.1094638, -0.03556332, 0.05474419, 0.09580511, -0.01775694, 0.08397718, -0.09367903, -0.1437648, -0.1163111, -0.1212914, 0.07475115, 0.04746993, 0.1023902, -0.0509184, -0.05220439, -0.05673565, 0.04298083, 0.06673477, 0.1605672, -0.0188318, -0.05818702, 0.01454699, 0.07839844, 0.1367475, 0.01882666, 0.03682028, 0.0008257627, -0.1340173, 0.1492187, -0.06326239, 0.05230659, 0.09882136, 0.1159623, 0.09934012, -0.1447124, -0.1062231, 0.02776159, 0.0006597936, -0.03543039, -0.02116229, 0.1597161, -0.1584443, 0.05352318, 0.004609495, 0.09760948, -0.06213427, 0.1000804, 0.0644099, 0.02165511, -0.06377538, 0.1426283, 0.009236798, -0.1127522, 0.06019462, -0.1558299, -0.05884741, -0.04615617, 0.05328398, 0.1602213],
    [0.1133555, 0.03772378, 0.02065049, -0.1399631, -0.1320433, 0.01803648, -0.01510364, -0.1489742, 0.167997, -0.1413346, 0.02393465, 0.09225075, -0.1300434, 0.05800406, -0.01802202, -0.05398884, -0.1304773, -0.120577, 0.03613682, 0.1245952, -0.1626948, -0.1613842, -0.08728601, 0.1605597, -0.004184425, -0.1282224, -0.04379915, -0.09569325, -0.08979656, 0.1194816, -0.09815587, -0.03658329, -0.1298209, 0.06807473, 0.09164107, 0.08782993, 0.07781288, 0.06799585, 0.01338609, -0.1156764, -0.04224135, 0.09974924, -0.08340816, 0.09576336, 0.06379551, 0.005439043, 0.1614959, 0.1356125, -0.09735601, -0.01273236, -0.05607906, -0.02929406, 0.01240794, 0.1131173, 0.1356756, -0.05802224, -0.00631696, -0.06852804, 0.1701003, -0.1142831, 0.1190149, 0.06583755, 0.08869759, 0.1052853, -0.03993642, 0.05005195, -0.1238577, -0.0147962, -0.1499831, 0.07231931, 0.1093322, 0.07352589, 0.1071118, -0.04315937, 0.08035107, -0.006174058, 0.0365978, -0.08511345, -0.110594, -0.1396702, 0.09786678, 0.02414821, 0.06873769, 0.06935363, -0.1577039, 0.02724722, 0.09674917, 0.1651273, 0.1095317, -0.04940651, 0.1510206, -0.1024615, -0.1658927, 0.08466162, -0.009744227, -0.1209207, -0.04948371, 0.04347227, -0.00399822, -0.03787139, 0.003912926, 0.04135197],
    [-0.02007277, -0.06612732, -0.1143497, -0.1130616, 0.09137382, -0.03219333, -0.1156459, 0.09668372, -0.002651393, 0.1323072, 0.05351345, -0.1344931, -0.1207542, 0.01507735, -0.1267392, 0.03434791, 0.02129285, -0.1562481, 0.07846984, -0.0149921, 0.1347198, 0.1512647, 0.01838221, 0.1710752, 0.08220245, -0.1459535, 0.01194321, -0.09760924, 0.07153381, 0.1045494, 0.1470773, 0.1155978, 0.04465774, 0.09530626, -0.1407163, -0.1425298, 0.03256321, -0.1315805, -0.1595985, 0.124119, 0.157179, -0.148401, 0.1100409, -0.07005228, -0.1531081, 0.07987832, 0.1537264, -0.1698207, -0.0874887, -0.01121318, 0.08220617, 0.1685017, -0.1386364, -0.02218081, 0.01517348, 0.06093208, -0.1077324, 0.1094037, -0.003326863, -0.0667, -0.1155662, 0.1274019, -0.07990827, 0.04338627, 0.04460496, 0.08290529, -0.01144049, 0.002150834, 0.1647866, -0.05310324, 0.08352311, -0.1192205, 0.05723924, 0.01534615, -0.1660606, 0.008957162, 0.04245543, -0.05136658, -0.09663855, -0.06727064, 0.02756239, -0.03947438, -0.1128477, 0.1309277, 0.09568465, 0.03843099, -0.08609594, -0.1227724, 0.03892766, 0.1510759, -0.1653616, -0.1496257, 0.09157283, 0.1562906, -0.1339301, 0.07930788, -0.1448894, -0.09873845, 0.02983333, -0.04459611, 0.07615171, -0.1198203],
    [0.05087087, 0.1005211, -0.02499279, -0.04349969, 0.1485586, -0.08131476, -0.1248296, 0.133677, 0.1526839, -0.1569834, 0.01270145, 0.02751452, -0.01757984, -0.01076987, 0.031005, 0.1045922, 0.08279694, 0.1694603, -0.01435845, -0.07325858, -0.06772572, -0.1388824, -0.1027202, -0.03566039, 0.1609907, 0.09190443, 0.007237151, -0.1498392, 0.1495418, 0.1090098, 0.01977727, -0.03091475, -0.001875117, 0.03755516, 0.09223361, 0.02198949, 0.1187125, -0.07505511, -0.1529967, -0.138861, -0.03592138, -0.0725605, 0.1357176, 0.04540465, -0.03838801, -0.04049161, 0.03057911, 0.1668261, 0.06875584, 0.1479045, -0.1364321, 0.0141235, -0.04782467, 0.06388926, 0.002733663, 0.16375, -0.1127497, 0.03920317, -0.1404804, -0.028695, 0.09394471, 0.1115102, -0.03756137, 0.129758, 0.04412063, 0.1609928, -0.02477683, -0.04806006, 0.1522385, 0.06082144, 0.1043965, -0.1669624, -0.00931102, -0.02108926, -0.04121169, -0.1450796, -0.1056407, 0.06299785, 0.1198297, -0.001673669, -0.05362792, 0.1583811, -0.1027715, -0.1362562, 0.07802235, 0.1649736, 0.09338181, 0.1678414, 0.1430949, -0.008927241, 0.1407966, -0.01736486, -0.00429, 0.1006062, 0.06998638, -0.1061252, -0.01388386, 0.02484682, 0.0407887, -0.1265849, 0.1347022, -0.1212673],
    [-0.16129, -0.1355372, -0.1230797, -0.007160366, -0.0861208, 0.1086587, 0.09316261, 0.09707318, 0.1395809, -0.1338704, 0.1644453, 0.1414415, 0.1693826, 0.02604114, -0.1684774, -0.09959556, 0.1470648, 0.103735, -0.1565811, -0.07142535, -0.1253612, 0.1267163, -0.02330406, -0.127193, -0.124428, 0.01329891, 0.1680798, -0.03147893, -0.1039134, -0.1389428, 0.1250096, 0.0006019324, 0.05033654, 0.1187413, 0.1475346, 0.04471528, -0.02660073, -0.08273407, -0.007263854, -0.09923868, 0.1486785, -0.0747917, 0.01955186, 0.08013755, 0.1205948, -0.1337004, 0.1359196, -0.1014001, 0.1014798, 0.04192454, -0.1532243, 0.107725, -0.07613431, -0.03594215, 0.1562856, -0.1380032, -0.09902917, 0.09713827, 0.1352379, 0.03289834, 0.158274, 0.1203226, -0.09762396, 0.1069257, 0.05128744, -0.1289157, -0.08599369, -0.07701759, 0.09531198, -0.07959314, -0.1278195, 0.03286162, 0.01515254, -0.1694096, -0.1456691, -0.04448277, -0.1336556, 0.01716785, -0.1204492, -0.1472434, -0.06158023, 0.03376852, -0.04222339, -0.1302291, -0.1443412, 0.04918704, -0.01604003, -0.1382814, -0.01895419, -0.1051554, 0.1672904, -0.066525, -0.1679379, 0.05757882, 0.1200963, -0.03480934, 0.02983178, 0.08016066, 0.1588318, 0.16849, -0.1669627, -0.07396539],
    [-0.04971342, -0.1554503, -0.0913562, -0.1656939, -0.01431976, 0.002360597, 0.06971067, -0.0802797, 0.03592706, -0.04429759, 0.06220854, 0.13805, -0.0004341304, -0.04918744, 0.002830803, 0.09336767, -0.008807227, -0.135929, 0.09222892, -0.1447558, -0.1284502, -0.1486624, -0.03350827, -0.1552401, -0.06738774, 0.06108713, -0.1069839, 0.08030188, 0.04967242, 0.146118, -0.0738686, 0.1308245, 0.08457537, -0.06163502, -0.1492221, -0.1576768, -0.1586853, 0.1313907, -0.08139895, -0.01669829, -0.137515, 5.686283E-05, -0.002423972, -0.09199394, -0.1669574, -0.1174966, 0.03278483, -0.1564022, -0.1682483, 0.1404201, 0.100388, -0.1311389, 0.1166109, -0.1429103, 0.03188336, -0.1623245, -0.1579901, -0.03583843, -0.04539323, 0.02146012, 0.09228772, 0.1377302, -0.1239701, 0.004051372, -0.1509713, 0.04465308, -0.1323017, 0.1398418, -0.14939, -0.1077561, 0.01973549, 0.09361864, -0.1079448, 0.03453915, -0.0005401522, 0.1659123, 0.08156652, 0.07952926, -0.1152194, 0.09063725, 0.137542, 0.009215415, -0.1711164, 0.06874947, 0.00354436, 0.1487011, 0.1226447, 0.06004542, 0.1224414, 0.008496061, 0.02707173, -0.09301452, -0.1491293, -0.01678587, -0.1578977, -0.1409183, 0.03678323, -0.04220757, 0.022581, 0.001571327, -0.07031703, 0.07206417],
    [0.1278858, -0.150824, 0.1558596, -0.1555751, -0.09187897, 0.02070658, -0.04087342, -0.1682006, 0.1203885, -0.1357421, 0.02613869, -0.05306885, -0.02122734, 0.09041004, 0.09393339, -0.1316994, 0.1491968, -0.01318258, -0.06729136, 0.06057721, 0.0426513, 0.1473966, -0.1202251, 0.1088728, 0.02152975, 0.1247234, 0.03672783, -0.06761549, -0.09384288, 0.1344403, 0.1549386, 0.03392929, 0.0518981, -0.1579393, -0.0275262, 0.1282735, -0.01111265, 0.1533711, 0.08852468, -0.1409845, 0.01257162, 0.04714658, 0.02693459, 0.02501839, 0.03236465, -0.04174562, -0.1241705, 0.09105055, 0.06656692, 0.04868309, 0.08681495, -0.03956085, -0.1207793, 0.09755325, -0.07704894, -0.1114964, 0.04587635, 0.1335832, 0.08937363, 0.0582617, 0.1489304, -0.03681684, -0.02612582, -0.08649121, 0.1299431, -0.1597853, 0.1436096, -0.01717435, 0.07307133, -0.02179164, -0.06930766, -0.1521674, -0.05205257, 0.02334026, -0.1292225, 0.08605815, -0.1708653, -0.04251672, -0.1265839, -0.07160755, -0.05337437, -0.0265296, -0.1165967, -0.01714258, -0.07010286, -0.07707618, -0.1138486, 0.1170366, -0.106459, 0.139586, -0.05927143, -0.09955103, 0.08877359, -0.05866447, -0.03585264, 0.1478014, -0.1136877, -0.02047899, 0.08087984, 0.1351011, 0.155696, -0.08210497],
    [-0.06501813, 0.05402778, 0.09230946, 0.06871124, 0.1514701, 0.0245232, -0.01223536, 0.08730574, 0.1055797, 0.1497149, 0.03398408, -0.1329271, -0.06023832, -0.04121877, -0.03434092, -0.03923327, 0.06065134, -0.08049519, 0.1528857, -0.003391191, -0.1405576, 0.152731, 0.01153208, -0.07207291, -0.1119616, -0.109207, 0.1337758, 0.1567643, 0.05953059, -0.01296301, 0.08353235, 0.1346066, -0.05930765, -0.1295068, -0.03206609, -0.07799907, -0.06199631, 0.03073406, 0.05001838, -0.02812666, -0.1262866, 0.05068634, -0.009218886, -0.004707426, -0.05654131, -0.134584, 0.1305681, -0.07910951, 0.1618523, -0.09140793, -0.06374581, 0.06611326, -0.08301514, 0.01522541, -0.1039821, 0.08864447, 0.04885928, -0.08757965, 0.03208788, 0.05101385, -0.07545356, 0.07935769, 0.03362709, 0.06448206, -0.02944048, 0.1171206, -0.03540263, -0.02815008, 0.08490004, 0.01496606, 0.06990939, -0.1014678, -0.08223777, 0.0431463, -0.01453902, -0.02525944, -0.08084343, 0.09580837, 0.03551352, -0.1561495, -0.08960871, -0.06341751, 0.02489434, -0.0969847, -0.009583175, -0.1067265, -0.1540892, 0.1628124, 0.02610664, 0.09078176, -0.1529997, -0.03612611, -0.1201991, 0.004183233, 0.1072548, -0.1279813, 0.08392767, -0.01657848, 0.1037022, -0.04215671, 0.03359716, -0.02678719],
    [0.1343621, 0.01677455, -0.04898684, 0.0864015, 0.05436536, 0.09125246, 0.08257724, -0.1352534, -0.1210946, 0.03943947, 0.1381585, 0.1404809, 0.07671192, 0.07767529, -0.06972313, 0.02650636, 0.1149877, 0.07133096, -0.09659855, 0.04639182, -0.03314309, 0.05754643, -0.05036408, 0.1477513, -0.1092463, -0.04414585, -0.01169178, -0.1275512, 0.01692584, -0.08510192, 0.007900983, -0.01899995, -0.1470736, 0.1532093, 0.01238447, 0.07186791, -0.06478506, -0.0975842, -0.1660953, 0.08791167, -0.1277417, -0.08011828, 0.1145528, -0.02744725, -0.1449274, 0.1599641, 0.07993994, 0.1057436, 0.05350797, 0.07463393, 0.04147959, -0.0510966, -0.004955336, 0.1075485, 0.1155208, -0.1632092, 0.04530386, -0.1067834, -0.06784946, 0.08128083, 0.03413816, -0.1285433, 0.1448807, -0.03363273, -0.03450124, -0.04916429, 0.08813689, 0.1284572, -0.04893703, 0.13123, -0.08160736, -0.1378188, -0.1038022, 0.0485915, 0.02358133, -0.1601019, -0.01142555, 0.09494866, 0.1048075, 0.1058018, 0.1667488, 0.1487688, 0.0862186, 0.04012594, 0.1667553, 0.09588651, -0.1625544, -0.1659472, -0.02185126, -0.05581345, 0.01341024, -0.1571344, -0.1225346, 0.08093254, -0.1570076, -0.06582785, -0.1541437, -0.1628975, 0.03512941, 0.03838998, 0.03248037, 0.01802176],
    [-0.02528077, 0.1685908, -0.1536703, -0.002534613, 0.09022097, 0.1548943, 0.1297181, 0.1098591, -0.1650649, -0.04145277, 0.06807374, -0.09892245, 0.1575309, -0.117911, -0.1581676, -0.1571134, 0.07899112, 0.1445667, -0.04081528, 0.1329998, 0.1049985, -0.1084149, -0.01161242, 0.08214743, 0.1065126, -0.1173527, -0.1232221, -0.02434403, -0.1458097, -0.03654693, 0.0466347, -0.1551803, 0.0492541, -7.256866E-06, -0.0729038, 0.1255418, -0.1611605, -0.07087091, -0.12373, 0.0462443, -0.03925718, -0.1281154, -0.1026473, -0.07115875, -0.1596239, -0.06177813, 0.03224137, -0.1206382, 0.01604141, -0.1669234, -0.06594414, 0.0282445, 0.07313843, -0.09381716, 0.1071976, 0.01217321, 0.03220224, 0.08686043, -0.1354271, 0.01033339, -0.001347288, -0.06564111, 0.0599039, -0.06286682, 0.1713038, -0.05245728, -0.1185752, 0.02053744, 0.05980111, 0.1590201, -0.03488992, -0.1368577, 0.1326996, -0.09892245, -0.0172753, 0.004618943, 0.03637418, 0.06363273, 0.1637651, 0.06166222, -0.1002, 0.0813209, -0.1401054, 0.15729, 0.129382, 0.1282941, -0.02841975, -0.1405518, 0.13994, -0.04334578, -0.02481195, 0.1343344, 0.05277374, -0.08929478, 0.131326, -0.03605112, 0.002490371, -0.1555014, -0.09629692, -0.06059466, 0.09101854, 0.06592882],
    [-0.1333792, -0.1556001, 0.02135545, 0.09045109, 0.1356464, -0.02984303, -0.1303506, 0.01763186, -0.06291087, -0.109385, 0.0374711, 0.02840073, -0.02858202, -0.07159205, -0.157959, 0.1190436, -0.08615597, 0.1592266, -0.08202478, -0.00674428, -0.1316844, 0.1186266, 0.1354406, 0.01774928, -0.01880699, -0.132095, -0.1303465, 0.1142745, -0.1448156, 0.1146092, 0.05713907, -0.1389096, -0.04971355, -0.01855299, -0.01903658, 0.1259252, 0.03619787, -0.1533136, -0.03091611, -0.05523108, 0.1478155, -0.1300377, -0.147092, 0.01907097, 0.0860631, 0.01376797, 0.03927116, -0.04033352, 0.02875233, -0.0741654, 0.1015435, 0.05824285, 0.150447, -0.003773823, -0.03015088, 0.07537033, -0.1633954, 0.01549548, 0.06241899, 0.02733579, 0.006956294, -0.1445381, -0.156808, 0.1582623, -0.05747372, -0.1666043, 0.1537031, -0.160557, 0.09251616, 0.08519311, -0.01103987, 0.001887143, 0.05995293, 0.04949064, -0.1362664, -0.133363, -0.02902767, -0.1012535, -0.1242626, -0.1130136, 0.1285909, -0.08722474, -0.08029152, 0.1487039, 0.1184454, -0.08141954, 0.0008239299, -0.008799985, 0.163892, -0.06595337, -0.1641932, -0.1420652, -0.1337357, 0.01957753, 0.01047294, -0.1192727, -0.03757185, -0.06271578, 0.1281608, 0.06351529, 0.1458798, -0.002765313],
    [-0.1104742, -0.1563663, 0.1034091, -0.1275886, 0.02095625, 0.00391902, -0.01805034, 0.06939988, -0.01566757, 0.1045196, -0.1423494, 0.02672365, 0.02811696, 0.09280635, -0.137596, 0.08157761, -0.05726585, -0.1098994, 0.1353785, -0.01064345, 0.1222612, 0.005603701, -0.02006836, 0.1310194, -0.04649988, 0.01768571, -0.1329345, -0.04258448, -0.09783371, 0.1092306, -0.08706002, -0.03829058, 0.1462723, 0.04296476, 0.1280187, 0.1435972, -0.004048675, 0.01920962, -0.009920165, -0.1468029, 0.1707505, 0.1069028, 0.00459972, 0.05072052, 0.07733637, 0.1218852, -0.05271582, -0.1181778, 0.1077136, 0.07895599, 0.09710364, -0.04481196, -0.0178017, -0.07693842, -0.09475555, -0.1121498, -0.01197816, -0.03010893, -0.1173252, 0.0293224, -0.1472155, 0.1700277, -0.06104749, -0.1693456, 0.01301335, 0.1676063, 0.1616084, -0.08023763, -0.08676018, -0.05184351, -0.1544667, -0.004098102, 0.152632, 0.157068, 0.02823955, 0.1485655, 0.1444295, -0.02412751, -0.1294739, 0.09213946, 0.1072486, -0.03257115, -0.0656698, 0.02061221, -0.1216195, -0.02938402, 0.1677906, -0.01716773, 0.130361, 0.07457055, 0.04648476, 0.1633274, 0.1381505, 0.07348234, 0.04460549, 0.1214675, -0.09087612, 0.005033016, -0.09384771, 0.002602249, -0.111518, -0.03414956],
    [0.04553255, -0.1424761, -0.08952358, 0.153219, -0.04638396, 0.1028505, -0.1134093, -0.03684354, 0.1667442, 0.05322792, -0.07328054, -0.1135106, -0.07505375, -0.02230826, -0.04148948, -0.0547934, 0.006436676, -0.01376876, -0.07803886, -0.08173357, 0.1636183, 0.1029553, 0.03822406, 0.007948697, 0.07696735, 0.08822815, 0.1509244, 0.1680933, 0.1626157, -0.1439559, -0.08765061, -0.1616124, -0.02808324, 0.1374342, -0.09057404, 0.1249627, -0.1631528, -0.1365414, 0.1304818, -0.1697817, 0.1602885, 0.1520794, 0.01996377, -0.05134393, 0.07934763, 0.1175126, 0.01271285, -0.02046522, 0.1117688, 0.01207888, 0.1166822, -0.05771484, -0.123088, 0.07177758, -0.1374621, 0.08644439, -0.01030837, -0.07865812, 0.1102705, 0.05155265, -0.03194518, -0.06925732, 0.1037568, 0.06800767, -0.1180772, 0.07685253, -0.03185616, 0.05278948, -0.1684586, -0.0004323721, 0.1424355, -0.04436725, -0.1590586, 0.05085717, -0.1372222, 0.1573071, 0.1090148, -0.0278278, 0.06301139, 0.06338723, -0.03177214, -0.06958419, -0.142777, 0.07704545, -0.1201604, 0.1402925, 0.003834218, -0.1241897, 0.108107, 0.08405663, 0.05220592, 0.02545676, 0.0244357, -0.09330057, -0.03632581, 0.01541542, 0.1149332, 0.04004371, 0.08905802, 0.03682154, -0.1513271, -0.0636332],
    [-0.0585726, -0.1678084, 0.09865482, -0.1609732, 0.05003003, 0.08465127, 0.009173021, -0.07584985, 0.1329997, -0.0559384, -0.04303761, -0.05064993, -0.05357301, 0.1310274, 0.05986645, -0.1628151, 0.1528106, -0.1180155, 0.1464889, -0.1423038, 0.07771511, -0.08841141, 0.09977423, 0.1279132, -0.005702153, 0.02462578, -0.09571292, -0.168336, 0.02372043, 0.02539273, -0.09257849, -0.09341423, -0.02250862, 0.00636746, -0.1027265, -0.03774378, -0.1603673, 0.06398339, -0.1456413, -0.1170279, -0.02391538, 0.1446588, -0.01357412, 0.06081178, -0.0990148, 0.06233231, 0.1682861, 0.0277196, 0.06206339, 0.1321105, -0.06751879, -0.06710462, -0.01297241, 0.1441032, -0.117143, -0.01315232, -0.1493845, -0.06810661, -0.0007279515, -0.05972055, 0.09284008, -0.03512986, -0.1685614, 0.09442033, 0.02681556, 0.06542969, 0.09359206, 0.1348644, -0.1301447, -0.1161234, -0.07815829, 0.07016699, 0.07355803, -0.04752785, -0.1056325, 0.1120125, -0.147515, -0.1590511, -0.1345088, 0.09990949, -0.02221414, -0.1675453, -0.1699897, 0.1184955, 0.121487, -0.1177907, 0.03547071, -0.12813, -0.04874032, 0.1287124, 0.06382809, -0.0549835, 0.08694707, -0.02071746, -0.01225895, 0.09636797, 0.1528371, -0.07401924, 0.1541914, 0.01942682, -0.06439549, 0.1710453],
    [0.01574869, 0.1328789, 0.03258987, 0.1438227, -0.1252454, 0.06822188, 0.09472357, 0.09761213, 0.1384966, 0.07932357, 0.008587047, 0.04730728, 0.1122264, 0.1609029, 0.02027223, 0.1712496, -0.002294391, -0.1408769, 0.07158181, 0.1038766, 0.06863731, -0.06213647, 0.02849522, 0.08354585, 0.08091076, -0.08022253, 0.04245539, -0.1309458, -0.1210753, 0.02521004, 0.09735016, 0.05510102, 0.009707138, -0.09101089, -0.01291709, -0.07448794, 0.09352079, 0.1343172, -0.06378858, -0.04431811, -0.1426554, -0.04022375, 0.08815239, -0.1264906, -0.0410665, -0.01457258, 0.03786007, 0.05983509, 0.08799627, 0.01618351, 0.1302208, 0.1254021, -0.1540117, 0.153369, 0.1270687, 0.07108894, -0.04853077, 0.1012226, -0.1275795, -0.07109571, -0.001123026, 0.04643308, -0.1459128, -0.01681659, 0.1393663, -0.08164461, 0.005227119, -0.120194, 0.1280416, -0.07868488, 0.07625642, 0.1450655, -0.02890325, -0.06274804, -0.06626457, 0.1670077, -0.03612255, -0.01922205, -0.02107054, -0.04521185, 0.08926827, 0.03118989, 0.1285063, -0.1520459, -0.1659855, 0.1108241, -0.01229358, -0.0347186, -0.109554, -0.1245901, 0.06502612, 0.05184921, -0.01979236, -0.03904943, -0.05751972, 0.1121037, -0.0450709, -0.001210898, -0.07162161, 0.06211826, -0.08781593, -0.09657787],
    [0.1160364, -0.1228755, 0.04896453, -0.1244467, -0.1046248, -0.009234756, 0.06415483, 0.008216798, 0.003024176, -0.1261752, -0.1307262, 0.0804418, -0.07705025, 0.0282577, 0.1603408, -0.1025877, -0.1414748, -0.0454755, 0.07488474, 0.04205719, -0.1372725, 0.1029688, 0.03408018, 0.1525082, 0.08456866, 0.150202, -0.1169323, 0.1140998, -0.01469848, 0.02827643, -0.06935459, 0.03957497, -0.007703245, -0.05907823, -0.0355688, 0.1345232, -0.0449947, 0.05434504, 0.03946395, 0.1175154, -0.05275945, -0.05243811, 0.1100562, 0.1257744, 0.1571458, -0.1435187, -0.0503712, 0.1056788, -0.1550914, -0.1240653, 0.05014452, -0.03522338, -0.1686901, 0.1144701, -0.165148, -0.1223276, 0.05427099, -0.09066944, -0.00399904, 0.005502209, -0.07398926, -0.1307785, -0.1105718, 0.06336364, -0.1658126, 0.06147018, -0.1435631, -0.00382787, 0.02755773, 0.1564808, -0.003365993, 0.05750825, -0.03207836, 0.112315, -0.06439483, 0.06675427, -0.0624689, -0.1189737, -0.1012869, -0.1586832, 0.07864307, -0.02952479, -0.07302107, -0.1308555, 0.02697408, -0.1380744, 0.1160232, -0.000824213, -0.152787, -0.05335585, 0.03429672, -0.0166433, -0.09318297, 0.007622972, 0.001785085, 0.1418392, -0.01013945, -0.08868916, -0.1258817, 0.1135964, 0.02785622, 0.1690873],
    [-0.0215553, -0.06145704, -0.01519772, 0.003638968, -0.05526595, 0.08221558, 0.1493269, 0.02488403, 0.1089529, -0.01623233, -0.152196, 0.05982348, -0.04905561, -0.004033417, 0.02391416, -0.1287517, -0.04453547, 0.07258431, -0.04903222, 0.06045929, -0.09387146, -0.1533949, -0.05725072, -0.05116561, 0.0957762, 0.06659869, -0.06175577, 0.1083101, 0.08050717, -0.1556289, -0.1201945, 0.110819, -0.04344612, -0.160459, 0.07215817, -0.1093197, 0.1559016, -0.1217634, -0.04962719, -0.1691624, 0.1268995, -0.08442326, -0.143765, 0.05789084, 0.002405569, 0.1129149, 0.04997508, 0.1442867, -0.02451174, 0.005345449, -0.08679178, -0.141352, 0.1531795, 0.1034837, 0.1626857, -0.1175569, 0.01078673, 0.09507774, -0.06401972, -0.1114698, -0.08166356, 0.06215162, -0.0428507, 0.0531026, 0.1602912, 0.09179342, -0.05565263, 0.01689635, 0.1556652, 0.04412112, 0.005999535, 0.03131951, -0.1017828, 0.1386134, -0.06307797, 0.09028266, 0.01887155, -0.03033651, 0.04104798, -0.1119514, -0.09322717, -0.1195938, -0.08519314, 0.1614191, -0.1648798, -0.1371559, -0.1663779, 0.1638488, 0.1087551, -0.05488782, 0.01648547, -0.01682313, -0.05148855, -0.06853944, -0.09550817, 0.169123, 0.1694316, -0.1431151, 0.09410162, 0.07204274, -0.01402815, 0.06619325],
    [0.09873967, 0.15961, 0.01156151, 0.07882217, 0.1678158, -0.08570377, -0.0826696, 0.1527621, 0.009524614, 0.05849173, -0.1036773, -0.01710431, 0.03571801, 0.1540642, 0.07601546, -0.1632784, -0.09797989, -0.0165737, 0.04986918, 0.1271433, -0.1486155, -0.1465614, -0.101085, -0.09993451, -0.1552275, -0.1424015, 0.1096416, 0.1056912, 0.08679542, -0.02324139, 0.05948594, -0.05718248, 0.1224683, 0.01452629, 0.04313821, -0.1280245, 0.0001579374, -0.005479038, -0.006582201, 0.07859711, 0.1616238, 0.1440085, -0.09880485, 0.0571048, -0.1432529, 0.110262, 0.1339558, -0.09451149, 0.08448277, 0.1059382, 0.007766619, -0.08773949, 0.1210742, 0.1015887, -0.02635802, 0.09268175, -0.01641975, -0.01594079, 0.03331907, 0.1379454, 0.0180061, 0.05267033, -0.09642, 0.06271045, 0.09851703, 0.04854407, -0.02388166, -0.005564287, -0.1585575, -0.1175862, 0.03165667, 0.1385627, -0.01661929, -0.09952988, -0.03579196, -0.04627123, -0.1313999, 0.1076186, 0.1570466, -0.05949925, 0.02512278, -0.07915568, 0.07353595, 0.04004371, -0.0202589, -0.09689208, 0.1468632, 0.01340351, -0.16213, 0.1146822, 0.1321643, 0.01727387, -0.1560191, -0.03300256, -0.04867866, 0.03248847, 0.1190303, -0.01100735, -0.05626404, -0.04245609, -0.004973039, -0.001164481],
    [-0.09263645, 0.1223025, 0.005989522, 0.06731072, -0.1332923, -0.1700425, -0.05840034, 0.1347499, -0.09091513, -0.1671409, -0.112284, -0.1525601, -0.04185544, -0.0329721, 0.0315482, 0.008014113, 0.1644108, 0.01347215, 0.08391753, 0.007977113, -0.07798749, 0.03592907, -0.07264428, 0.05947232, 0.1379711, -0.02092288, -0.03179827, -0.04708642, 0.1561847, -0.1154162, -0.0184619, 0.09024464, -0.06920384, -0.1369974, 0.08774464, -0.1628857, 0.1273158, 0.02680129, -0.07946397, -0.08861251, -0.05704039, -0.06972018, -0.008310765, 0.01548104, -0.04389168, -0.1040335, 0.1180862, -0.01502812, 0.08716063, 0.1275145, -0.06787211, -0.1536552, -0.009878144, -0.1485087, 0.1616067, -0.143478, -0.01350924, 0.05322797, -0.04021561, 0.1335302, -0.1539262, 0.04591834, -0.1389699, -0.0855874, 0.1414589, 0.01624888, 0.06014748, -0.1175713, -0.05758886, -0.1117112, -0.05680704, -0.04043052, -0.1111545, 0.1679786, -0.05256122, 0.1087753, 0.03150825, -0.09684281, 0.1550748, 0.1210471, 0.1615226, -0.08714967, 0.006983846, 0.150071, 0.01223618, 0.1635409, -0.0508841, 0.1594517, -0.1660998, 0.0006829351, -0.03778349, -0.1140187, -0.06337945, 0.0515003, -0.07407443, -0.05009274, -0.1612182, -0.02213612, -0.08360974, 0.06763636, 0.1469225, -0.03791678],
    [-0.01620431, -0.04338442, -0.01636721, -0.07124165, 0.1120483, 0.01133876, 0.06358746, -0.03912573, 0.06684525, 0.04608496, 0.0437676, 0.1128798, 0.06337582, -0.008566022, 0.09263809, -0.01184185, -0.1385391, 0.1645467, 0.1552207, -0.1139293, 0.1056658, -0.1152037, 0.1092673, 0.06092244, -0.01611526, 0.09429248, 0.1274565, -0.1368134, -0.1571885, -0.005698562, -0.008182943, -0.08811174, -0.09064122, 0.1650259, -0.1119474, -0.1710644, -0.02718528, -0.117883, -0.08273784, 0.03001651, 0.1082017, 0.0508849, 0.1385373, -0.06132117, -0.1252579, -0.1149151, -0.02868548, 0.09326036, 0.1530419, -0.1027808, -0.08197458, 0.04747721, 0.1076817, 0.1208654, -0.07386492, -0.09452288, -0.04200085, -0.0652045, -0.03484929, -0.01739785, -0.1215211, 0.1371005, 0.01773089, -0.1702275, -0.1288285, -0.1606918, 0.01191254, -0.0811957, -0.02673779, 0.09549819, 0.04135546, -0.1317973, -0.05849066, 0.04884476, 0.1409494, -0.1098846, -0.04811248, -0.0938981, -0.01288049, -0.004833728, -0.1044364, 0.0679624, -0.0012106, -0.1295204, 0.043966, 0.121825, 0.04791443, 0.1379637, -0.1190397, 0.05912559, -0.1222263, 0.1450076, 0.1514591, -0.09250422, -0.09503318, 0.0844252, -0.07635507, 0.07335052, -0.01598597, -0.1062781, -0.145562, 0.1024878],
    [0.112624, 0.06353006, -0.1130578, -0.09334039, 0.03067756, 0.04233319, 0.1223382, -0.01986702, 0.03946964, -0.1155039, 0.1125122, 0.1642924, 0.08658971, 0.1629175, -0.1204391, 0.02995335, -0.08882423, 0.1370019, 0.08889879, -0.04239288, -0.1237144, -0.1285551, -0.1039032, -0.06326835, -0.1667563, 0.02762462, -0.0217804, 0.04305787, 0.1461205, 0.1506607, 0.0414997, -0.153716, 0.09327272, -0.02318247, -0.01675022, 0.06097874, -0.03371488, 0.1484953, 0.0700094, 0.1241474, -0.03116921, -0.02088568, 0.02182917, 0.08994755, -0.07585447, 0.1314786, 0.1426037, 0.05294956, -0.08408757, 0.05582928, 0.07314694, -0.07057397, -0.134215, -0.06125672, 0.1394364, -0.0408401, 0.0860604, -0.002436563, 0.1126937, -0.06689961, 0.04358631, -0.006551653, -0.1637577, 0.003430724, 0.1197692, 0.01822297, 0.08977447, -0.1054481, 0.1285285, 0.1321013, -0.06312758, 0.1386827, 0.1125392, 0.1313292, -0.04979434, -0.1422607, 0.0691729, -0.03042181, 0.08526362, 0.09292362, -0.08776964, 0.01607081, -0.08792198, -0.1443662, -0.02921268, 0.02215898, 0.02434173, 0.1131506, -0.1255289, 0.04713788, -0.1416157, -0.06671737, 0.07638125, 0.02737516, 0.1056062, 0.1072998, 0.03884707, -0.1606285, 0.1176697, -0.1081436, -0.07707098, -0.002704471],
    [0.0301566, -0.13455, -0.1174095, -0.1256572, 0.1392549, 0.08307035, 0.009725496, -0.1607087, 0.1695855, -0.09622414, 0.1608159, 0.0583335, -0.1115087, 0.09392268, 0.1618325, -0.08012943, 0.1119937, 0.04686196, -0.02234294, -0.03531414, 0.1535325, 0.03480193, -0.01210022, 0.07329765, -0.1022368, 0.1574163, 0.08324401, 0.1093291, 0.1576376, 0.1173416, 0.1614901, -0.006777778, 0.02457896, 0.1444276, 0.08839882, -0.05195023, -0.1594223, -0.0001823008, -0.1489017, -0.04978559, -0.1425651, 0.05588857, -0.008334562, -0.08774219, -0.02279025, -0.08688293, 0.03440647, 0.09620221, -0.0866764, 0.007167682, -0.1343079, -0.05428348, -0.0780775, -0.09562639, 0.007507056, -0.1335934, -0.01361199, -0.01451375, -0.04670624, 0.01723871, -0.02060902, -0.05003157, -0.1086607, -0.02905384, -0.1334732, 0.06241073, 0.01553825, -0.04426205, -0.09777553, -0.01029806, -0.04117477, -0.06967083, 0.08350627, 0.02011894, 0.04079737, -0.1143797, 0.02365035, 0.1297124, 0.1358435, 0.0414311, -0.12419, 0.154908, -0.02640288, -0.01860628, -0.08632828, 0.1321765, 0.02969097, -0.06300454, 0.1044185, -0.1624783, -0.1242196, -0.1241628, 0.09751035, -0.1521359, 0.0616576, -3.665686E-05, 0.1240825, -0.1023026, -0.1571865, 0.1248534, 0.09329284, 0.1667587],
    [0.1181271, 0.1512507, -0.05755129, 0.04015595, 0.1398587, -0.1025834, -0.06775685, 0.04514051, 0.07898887, 0.1642268, -0.06089985, -0.1119011, -0.06300294, -0.05547747, 0.1617708, -0.170181, -0.1537025, -0.1031724, -0.1207346, -0.1059928, -0.0581548, 0.02335165, -0.1461336, 0.1245397, 0.03943542, 0.03594804, 0.04821558, -0.1428453, 0.1113196, -0.165427, -0.08994253, -0.1639057, -0.04478064, -0.02833748, -0.02743722, -0.1668205, -0.1653416, 0.07382376, -0.1231406, -0.04144582, 0.1584199, -0.06120352, -0.04489782, 0.04633601, -0.08564268, 0.03612062, 0.12494, 0.1128734, 0.1261732, 0.1083923, 0.1656487, -0.03460939, 0.1304014, -0.07415326, -0.07667723, 0.1046131, -0.09114338, 0.08998471, 0.0746244, -0.1032795, -0.1552563, -0.1705185, -0.1323425, 0.002546549, 0.069851, -0.06913081, -0.02491012, -0.1023834, -0.1451933, -0.1678929, 0.07147898, 0.05952343, 0.06038132, 0.09182964, -0.01917769, -0.1026716, 0.03046249, -0.1038054, -0.0162814, -0.03213012, -0.04076213, -0.1481033, 0.04184285, 0.139218, -0.1331027, -0.06498043, 0.06851305, -0.06324619, 0.03099702, -0.1166301, -0.110007, 0.1180181, -0.1649799, 0.1335325, -0.08749892, 0.09179473, -0.1345444, 0.1397829, -0.1007742, 0.1195198, 0.03680879, 0.14646],
    [-0.1215482, 0.07203436, 0.1312107, 0.1654115, 0.03835122, -0.1193496, -0.1707754, 0.07109037, -0.000912562, -0.06080392, 0.147453, 0.01446165, -0.1172748, 0.1250864, -0.1663766, -0.1665496, -0.0006494969, -0.1160575, -0.00362502, 0.1312404, 0.1355995, -0.00504525, 0.0009160489, 0.110321, 0.1693233, -0.004288971, 0.04917727, -0.05017754, -0.1032078, 0.07121353, 0.1022397, 0.1364716, 0.1166702, -0.09664239, -0.05027433, 0.1393726, -0.07973261, -0.09227093, 0.07364586, -0.02704723, -0.03776079, 0.06651323, -0.1031531, 0.05345019, 0.1115225, 0.05968937, 0.1648232, 0.1076081, -0.02037445, -0.08880492, 0.05513394, -0.07972987, -0.08412407, -0.003955975, 0.09835131, 0.001920104, 0.01951852, -0.07300974, 0.1419934, 0.1563518, 0.04050203, -0.06990966, 0.05485957, -0.1561579, 0.04597922, 0.07890726, 0.03846611, 0.1009233, 0.01929405, -0.007037938, -0.1455993, -0.04102156, 0.07541355, 0.02316795, 0.03458691, 0.1358103, 0.07064489, -0.1066028, 0.02197535, 0.1054408, 0.1158263, 5.00679E-06, 0.0101469, 0.1260049, -0.1285434, 0.0644467, -0.1129982, 0.1442967, 0.08154465, -0.05047918, 0.1515112, -0.1710296, -0.04271814, -0.1009303, -0.02611527, 0.04941683, -0.1428312, -0.01136856, 0.09629593, 0.1628922, 0.1693381, 0.071125],
    [0.1391563, 0.03156562, -0.03929158, -0.145333, 0.008581609, -0.02203922, 0.1150408, 0.04696819, -0.009774849, -0.05236749, -0.1081404, -0.05952436, 0.03675264, 0.05651159, -0.1594259, -0.07715435, -0.01890603, 0.1229181, -0.01995493, -0.1263182, -0.03072618, -0.07647835, -0.1399627, 0.09853417, -0.01631811, -0.06419341, -0.07510732, -0.04350145, 0.06894655, -0.008481964, -0.03173947, 0.1476898, -0.1709961, 0.05764473, -0.03633001, -0.1099196, 0.1267809, -0.03488694, 0.03024721, 0.05537935, -0.04807703, 0.05159497, 0.03654116, 0.143517, -0.05834804, -0.1446611, 0.01235569, -0.05555765, 0.06591414, -0.08535548, -0.1443491, -0.095607, -0.1013454, -0.06330527, 0.0334819, -0.1349211, -0.1346615, 0.091176, 0.08040345, -0.07325459, 0.1684217, -0.01372983, -0.0899917, -0.1103358, -0.07274547, -0.03043897, -0.1615523, 0.05441169, 0.1461791, -0.09260829, -0.1155793, 0.1212648, 0.1212317, 0.03098638, 0.1033486, 0.0552703, -0.1211836, -0.1138027, -0.1090743, 0.1006798, -0.1271993, -0.08801217, -0.1474559, -0.1218285, 0.06173525, -0.01325479, 0.06993466, -0.1278134, -0.08205043, 0.1342662, 0.007542387, 0.06844971, -0.03290929, 0.01801008, 0.1563093, -0.0174032, -0.1017486, -0.002406299, 0.06473479, -0.1335749, -0.1695873, 0.02334569],
    [0.1491919, -0.04018809, -0.0594443, -0.1070641, -0.08666222, 0.154766, 0.08590189, 0.06524067, 0.06010593, -0.1222553, 0.01861097, -0.07369785, 0.07195434, -0.1598982, 0.1032764, 0.1517367, -0.09073315, 0.1182002, -0.03441738, -0.1271293, -0.1195875, 0.07424487, -0.168256, 0.1487769, -0.1182233, 0.08644611, 0.005389735, -0.02402219, -0.04813059, 0.03928471, -0.1276723, 0.09732403, 0.001895696, -0.1210195, 0.1650248, -0.1155052, -0.09258114, -0.1007038, -0.0002035648, -0.006841391, -0.05622843, 0.09805364, 0.108037, -0.0178493, 0.1215883, -0.09395401, 0.09297775, -0.1558929, -0.1627648, -0.06320746, -0.1575394, -0.08601674, -0.06792824, -0.1604792, 0.07033721, 0.08554374, -0.1503467, 0.1711265, 0.01795892, 0.09545911, 0.05107535, -0.155803, 0.001826793, 0.1293859, 0.08973215, 0.156064, -0.005320221, 0.04463022, -0.01431416, 0.07679652, 0.0695333, -0.001019731, 0.1349799, -0.08575653, -0.06341596, -0.07594909, -0.0287547, 0.05549748, -0.1254458, -0.04700714, 0.02197781, 0.0327798, -0.03490068, -0.161526, -0.06871355, -0.1025457, -0.04713933, -0.08615132, 0.02828763, 0.1328352, -0.1124298, -0.03664601, 0.1687353, 0.02155882, 0.09134115, 0.152866, 0.1025794, -0.04012717, -0.1125723, -0.05007136, -0.04148692, -0.1318558],
    [-0.09633229, -0.1559703, -0.134443, -0.149429, 0.0735761, 0.05362899, 0.1402126, 0.1276701, 0.08303148, 0.1539825, 0.1343475, 0.1370012, 0.04218574, 0.05999099, 0.07487459, -0.1628592, 0.1309388, 0.1095816, 0.112392, -0.09298782, 0.1157548, 0.07619345, -0.09591211, 0.06912061, 0.00533089, 0.00428766, 0.1308423, 0.09539405, 0.1688874, 0.09359492, -0.1228027, -0.04626662, -0.07985912, -0.1155018, 0.01651728, 0.1044694, -0.07682876, 0.1057899, -0.06968951, -0.008685142, 0.1639083, 0.04427122, 0.01642516, 0.1631284, -0.1297332, 0.08353963, 0.04182339, -0.05284793, 0.03701188, -0.1555709, -0.009655297, -0.171345, 0.02511579, -0.1402893, -0.02292196, -0.0725331, 0.003520593, 0.119699, -0.1428671, 0.08794618, 0.09493046, 0.1304603, 0.05806527, -0.1537842, 0.1195386, -0.005753756, -0.1119109, 0.1309856, 0.0421655, 0.008313015, -0.05599045, 0.1525215, -0.03220384, 0.004254505, -0.1551568, -0.05061276, 0.1296296, 0.01236755, 0.0289122, -0.1274592, -0.05094568, -0.05925581, -0.04835556, -0.09037851, -0.07396457, 0.09084473, -0.07206358, -0.09679694, -0.0004993528, -0.08923118, 0.1604682, -0.1539749, 0.05933249, 0.007928252, -0.1451922, 0.1486096, 0.009299532, 0.07538349, 0.04869233, 0.07655307, 0.1272989, -0.1679044],
    [0.03384134, 0.1619387, 0.05575209, 0.1133671, -0.1575995, 0.01852563, -0.08462958, -0.1416338, -0.1228545, -0.05119641, -0.1000984, -0.1277106, -0.02107397, 0.1292598, 0.1375402, -0.1094341, -0.03215432, -0.05126056, 0.1059098, 0.133071, -0.1049444, 0.05772729, 0.1124793, 0.04239304, 0.08594899, -0.1020116, 0.03803053, 0.07859491, -0.1336369, 0.1597628, 0.1238568, -0.1349921, -0.08288582, -0.03074773, 0.1541999, 0.1087644, 0.1175438, 0.1329141, 0.01651348, 0.1036846, -0.0448755, -0.1253179, -0.03679247, -0.1312841, 0.1291484, -0.09765719, -0.1093895, -0.01536921, 0.06903107, 0.03123274, -0.01869798, 0.04509795, 0.04000217, -0.161179, -0.03264107, 0.09851809, 0.006002814, 0.07270387, -0.116337, -0.1624401, 0.1410716, 0.09078494, -0.115752, -0.1672486, -0.08164852, 0.07529473, 0.06182063, -0.07750085, -0.1606257, 0.04655566, 0.09507909, 0.1285087, -0.1248244, 0.06508557, 0.1691461, 0.006159171, -0.1430965, -9.091198E-05, -0.009525388, -0.1586791, -0.1164047, 0.02671613, -0.01913357, 0.1052147, 0.01280253, -0.03809243, 0.07636486, 0.1289814, -0.1442951, -0.04825015, -0.1645947, 0.08303789, -0.1459046, 0.04827286, -0.01363909, -0.05604545, -0.03688689, 0.07715478, -0.03958924, -0.169255, 0.05470338, -0.1303642],
    [0.08423544, 0.1572467, 0.0273788, -0.02715367, -0.1608429, -0.08371798, 0.03477998, 0.03851077, 0.150347, -0.1672374, -0.05748762, 0.09433234, 0.1467599, 0.1642363, 0.04314929, 0.01625477, 0.1040766, 0.06094938, 0.1536658, 0.03359172, -0.09219645, -0.08030228, 0.06345633, 0.01849093, -0.1523513, -0.102315, -0.08507658, 0.04527455, 0.12527, 0.09871853, -0.1324211, -0.01294166, -0.160123, -0.003597066, 0.1015296, -0.09186162, -0.07401364, -0.08070789, -0.1501371, 0.06855782, 0.1355067, -0.1346112, 0.1299597, 0.02531385, -0.07149646, -0.03309251, 0.05673378, 0.08768862, 0.05855217, 0.008981451, -0.01637535, -0.09017558, -0.005689234, -0.0404586, -0.1244737, 0.1354799, 0.08050252, -0.009605408, -0.07133614, 0.10646, 0.08224685, 0.1471576, -0.03978366, -0.02673759, -0.04600795, 0.01407088, 0.07562776, 0.06574302, 0.01879297, -0.1672069, 0.03719203, -0.03682522, 0.1004715, -0.1402058, 0.02794854, 0.1203109, 0.05025869, 0.05571219, -0.1572303, -0.1610668, 0.01897635, -0.1373932, -0.01593061, 0.02120964, 0.02070723, 0.1157026, 0.03985612, -0.1639521, -0.04439053, -0.1559001, 0.07281978, -0.1448872, 0.07941362, -0.0337327, 0.125213, -0.03122208, 0.1645598, -0.1470988, -0.02916314, -0.005419046, -0.02701285, 0.1474182],
    [0.07926704, 0.1296202, -0.08435224, 0.1474981, -0.1280225, -0.05733826, -0.05586202, -0.1486373, 0.1509946, 0.03859222, -0.1143086, -0.1507199, 0.005068675, -0.03223664, -0.1651681, 0.07430993, -0.05505358, 0.04727915, -0.05455266, -0.04783566, -0.0223386, -0.1371275, -0.1509184, -0.04180008, -0.009189203, 0.04215147, -0.1658401, -0.05720014, -0.0202986, 0.09660219, -0.1236372, 0.1582072, 0.1460341, -0.1704419, -0.01187566, 0.143568, -0.06994057, -0.1003178, -0.07336371, 0.06091908, -0.1596232, -0.01790017, -0.008342415, 0.1048755, -0.1092379, 0.1233719, 0.1295241, -0.0180961, 0.1533045, 0.148715, 0.04702482, -0.1168428, 0.1331576, -0.1370544, -0.1670394, -0.05101176, 0.07575382, -0.1095594, -0.1675799, -0.0843951, 0.08608359, 0.08707739, 0.07198803, 0.03777935, 0.08559424, -0.02116592, -0.07264686, -0.1093684, 0.1418176, 0.1539136, 0.1323843, -0.1669704, -0.06745774, 0.1553871, 0.1035157, -0.06083222, 0.05731476, 0.05461335, -0.1399444, 0.02065028, -0.06244003, 0.02014281, -0.1528757, 0.1631225, -0.1514673, 0.1251362, -0.1455777, -0.0194518, 0.06963838, 0.02387916, -0.1417236, 0.03503864, 0.0001411736, -0.1250517, -0.09940653, -0.1418617, -0.005732208, 0.006995216, -0.08720084, 0.07421944, -0.09856535, -0.09697692],
    [-0.09580176, 0.1362084, 0.1281966, -0.1194358, 0.09543887, 0.1341879, -0.04163946, -0.08398665, 0.05694411, -0.1409179, -0.009152457, -0.1609168, 0.0819862, 0.04321663, -0.1710431, 0.1344319, 0.1134274, -0.1530479, -0.07886778, -0.1479243, -0.1394123, -0.1369574, 0.1139936, -0.1259526, -0.1192704, 0.1284424, 0.01476975, 0.1680657, -0.1366056, -0.1250259, -0.1402697, 0.1554108, -0.1645937, -0.1096569, -0.1315526, 0.1514115, -0.1105711, 0.01350078, -0.149933, -0.03858915, -0.1592269, -0.04081839, -0.1293833, -0.05883572, -0.005976766, -0.1646307, -0.03177117, -0.02249083, 0.07857279, 0.1453519, 0.1557111, 0.09819675, 0.1287049, 0.08067213, -0.05034928, -0.03852978, 0.05021624, -0.04936656, -0.1072775, 0.04988223, 0.04812807, 0.05952982, -0.07250403, 0.1002647, 0.01064733, 0.1665022, 0.02811512, -0.1126581, -0.09410615, 0.02369276, 0.1172304, 0.004411727, -0.1318111, -0.00608626, 0.1493484, -0.1563614, 0.02740951, 0.01347935, -0.1535948, 0.04617438, 0.1229745, -0.06300355, -0.1118018, -0.1446409, -0.1136564, -0.097063, 0.03784318, 0.1058552, 0.1618752, 0.03263824, -0.00254418, 0.06452217, -0.1036197, 0.03559431, -0.07629713, 0.05307464, -0.1106909, -0.05832138, 0.008594528, -0.09838738, -0.05055295, -0.1011591],
    [-0.02973643, -0.1166574, 0.03955567, -0.1454137, -0.1152338, 0.05240083, 0.04659913, 0.1587238, -0.04534064, 0.0970109, -0.1311333, -0.09362791, -0.009851024, 0.07071669, -0.02590609, -0.1134432, 0.0784321, 0.06314836, -0.15172, 0.05727118, -0.08892612, 0.1036542, -0.1365065, 0.01625425, 0.05695077, -0.07436286, -0.1693562, -0.07863091, -0.1696243, 0.008122921, 0.01687951, -0.02679889, 0.07946543, -0.05868913, -0.02566352, 0.04049656, -0.04370114, -0.1575776, 0.01484637, -0.1680763, 0.03915602, -0.03786448, 0.008006021, 0.07251267, 0.02644913, -0.01216544, 0.05613386, 0.08394586, 0.09874315, 0.06149352, -0.1514979, -0.07567869, -0.03236078, 0.15043, 0.08065103, -0.01527296, -0.16606, 0.07804292, 0.08453453, 0.1202105, -0.1113018, -0.02284713, -0.01488958, 0.03988285, -0.1531402, -0.1035248, -0.06357297, -0.05083875, -0.1103508, -0.1384767, 0.1362048, 0.1419377, 0.04295532, 0.04172264, -0.1386364, 0.1396836, -0.03647538, -0.07714438, 0.1171147, -0.02963097, -0.05767191, 0.05578815, 0.1137013, 0.1405924, 0.1225612, 0.03552297, -0.04483016, 0.02495465, 0.01096173, 0.1617688, 0.1097258, -0.05804947, -0.04169814, 0.09255141, 0.1411486, -0.106641, 0.112121, 0.03561647, -0.1320578, 0.1442868, -0.05896443, -0.121934],
    [0.03600079, -0.1374667, 0.02947016, 0.02014327, -0.1668265, -0.09332731, -0.1334861, 0.01532063, 0.06496475, -0.06793147, 0.1229608, 0.08051144, -0.00560841, -0.1154871, -0.03443684, -0.01895484, -0.09820469, -0.09050797, 0.06256464, -0.09720786, -0.1310542, -0.1501542, 0.01254955, -0.03405847, 0.08152122, -0.06623898, -0.1178028, 0.1268067, 0.1648887, 0.01844917, -0.069997, -0.07678816, 0.07051577, -0.0420223, -0.141709, -0.004230455, -0.002478644, -0.03737071, -0.07756169, 0.03033017, -0.04084611, 0.1261009, 0.009005338, -0.0407407, -0.01226987, 0.1174499, -0.09051197, -0.1382693, 0.1648587, 0.1204019, -0.1057852, 0.1181916, 0.115557, 0.1458188, 0.01560779, -0.08803378, -0.1432513, 0.01161234, 0.1216739, -0.1181415, -0.05206782, -0.01838298, 0.05126936, 0.1498932, -0.04221235, -0.0669993, 0.07704847, -0.06379843, 0.01739295, -0.01746643, -0.02335979, -0.1052324, 0.1153931, -0.143881, 0.06635271, 0.007125482, 0.0141159, -0.06558338, 0.001813054, 0.115998, -0.1445886, -0.1156325, -0.08195911, 0.1175104, 0.04979881, -0.1243084, 0.04205395, 0.09497903, -0.08452977, 0.1281748, 0.03867154, -0.03635329, -0.1567592, -0.04249866, -0.1265347, -0.02438356, 0.05252689, 0.0102517, 0.0294231, -0.04086055, -0.1709052, 0.06076158],
    [-0.06014995, 0.04744066, 0.1170983, -0.08923687, -0.1578662, -0.08183629, -0.06960206, -0.02078681, -0.100497, 0.147456, 0.02006701, 0.02997984, 0.1166425, 0.1277596, -0.0582403, -0.05115417, 0.1496467, -0.1190797, -0.01025902, -0.1578433, -0.001830518, -0.08901559, 0.1120669, -0.06326406, 0.009184867, 0.166639, -0.026103, -0.1627159, -0.1224613, 0.08191301, 0.01698974, 0.05430607, -0.01183861, 0.06522333, 0.1210207, 0.1158851, 0.1184243, -0.02406679, 0.03216295, 0.01777484, -0.1195943, 0.05652558, 0.0214389, -0.1548432, 0.09127266, -0.1257382, -0.1621367, -0.132292, -0.1689801, 0.09375054, -0.03110452, 0.03447029, 0.04802626, -0.02345613, 0.05835521, -0.01102203, -0.03883129, -0.1168829, 0.17077, 0.1254848, -0.1118232, -0.1275551, 0.1413583, 0.02976935, -0.09906875, 0.1583067, -0.06780873, -0.1278511, 0.1599683, -0.1256313, 0.1394919, 0.1386264, 0.04756614, -0.01068315, 0.03627855, 0.1318202, 0.1172276, 0.1599033, -0.02973381, 0.1433369, 0.002306908, 0.02555722, 0.09589065, 0.1101366, 0.04523361, -0.1117757, -0.1502254, 0.04761141, -0.04401079, -0.06531547, 0.02620396, -0.1091856, 0.08127106, -0.1117147, -0.1207232, -0.07349779, 0.01953861, -0.106846, 0.1635525, -0.03977934, 0.0727264, 0.1496156],
    [-0.03213385, 0.07120441, 0.05362981, -0.1156761, 0.02830353, 0.1284368, 0.1375597, -0.1471359, 0.1648189, 0.09802294, -0.1438256, -0.1186118, -0.04771222, 0.1247253, -0.002663821, 0.1134285, 0.02696268, 0.1660161, -0.1679328, -0.1336151, 0.1700231, 0.07646205, -0.05036543, 0.05332978, -0.1229173, 0.03709628, 0.07640886, -0.01988804, -0.1438401, 0.1093518, -0.04991223, -0.126607, -0.1227917, -0.1226615, 0.1419544, -0.0888695, -0.107385, -0.0711516, 0.1329631, -0.1656978, -0.1600242, -0.03168747, 0.1592736, -0.005445957, -0.06433116, -0.06406829, -0.004766181, 0.1340538, 0.1069165, -0.1156115, 0.05029304, -0.1569481, -0.04338057, 0.1026556, -0.1049877, 0.0251027, -0.111036, 0.03444588, 0.1623162, 0.05528584, -0.07576153, 0.03585158, 0.1115911, -0.04354307, -0.102002, -0.1014474, 0.1591973, 0.06351652, 0.009990007, 0.05462941, 0.09201388, 0.1568231, 0.04993906, -0.02066892, 0.156776, -0.1147609, -0.1181379, 0.07914511, -0.116272, -0.09122907, 0.02919981, -0.09666552, 0.07329119, 0.1004144, -0.03792977, -0.005742878, 0.1060601, 0.1418021, -0.04449283, 0.1702537, -0.1238594, -0.007483914, 0.008187279, -0.004970789, -0.1590329, 0.1155689, -0.06215745, 0.1180871, 0.03141536, -0.0304487, -0.1323359, 0.08600578],
    [0.008967191, -0.07477243, -0.06575294, -0.1038365, -0.002940804, -0.1290917, -0.02269956, 0.1075673, -0.0304077, -0.08030228, 0.006136104, 0.08391602, -0.01384002, -0.1603715, -0.06876498, 0.1326613, -0.04639709, 0.1326711, -0.07925529, -0.04384381, -0.01827647, -0.1581926, 0.006677061, 0.1251637, 0.06324895, -0.03708397, 0.1417221, -0.07255636, -0.119338, -0.04682343, 0.07260688, -0.1213902, -0.01608387, -0.1447838, -0.131505, 0.06634351, -0.09140797, 0.155832, -0.1001314, -0.02411628, 0.157529, 0.08662659, -0.008315176, 0.05717468, -0.08615638, -0.1178583, 0.005524576, 0.1366991, 0.08282924, -0.02091801, -0.07675634, -0.04014108, 0.02311239, 0.1402025, 0.15648, 0.1668183, -0.1486887, -0.00936994, -0.01196815, -0.05798049, 0.07184194, 0.1304742, 0.1361813, -0.07041344, 0.1600006, -0.04162017, -0.08833822, -0.1712785, -0.05458875, -0.01463759, 0.06046522, 0.005364865, 0.1373158, -0.1337263, -0.1680341, -0.1654745, 0.05061421, -0.05559502, 0.1114946, 0.07988302, -0.1453531, 0.02038242, -0.1196804, -0.01147524, -0.1483046, -0.03246909, 0.132062, 0.07287323, 0.1211484, -0.03925967, -0.1416683, -0.06306559, -0.05295996, -0.1383855, -0.1461118, 0.1406922, -0.03082001, -0.0336432, -0.1470121, -0.168153, -0.009274825, -0.09619461],
    [-0.01917964, 0.02653164, -0.0429748, 0.1241951, 0.1499275, -0.1216386, -0.03616676, -0.06448437, -0.07323126, -0.03445725, 0.09830935, 0.03007238, -0.0326871, 0.003672168, 0.1010257, 0.08174426, 0.1394814, 0.01200144, -0.07125042, -0.1684836, 0.02470973, -0.1401476, -0.07849354, -0.02872759, -0.01639143, 0.1179415, -0.05271116, 0.0204539, 0.111263, 0.1293539, 0.06747579, -0.1174171, -0.01466204, -0.0539641, -0.08361788, -0.120392, 0.06466459, -0.09999402, -0.1195338, -0.056474, 0.05473752, -0.1566567, -0.008836865, -0.1371153, -0.1232709, 0.01457953, -0.0166765, -0.03621639, -0.03256403, -0.08106326, 0.01199415, -0.1701834, -0.1406904, 0.1015983, -0.1023143, -0.0310736, -0.04818992, -0.02988334, -0.08612265, -0.1604714, -0.07321553, -0.1302336, 0.01176146, 0.06233808, 0.03764434, -0.04392387, 0.01821554, 0.08225013, -0.01606563, 0.04524221, -0.1079893, -0.0324087, -0.09992985, -0.1356013, -0.1371408, 0.06674536, 0.08933295, -0.06849995, 0.0667959, 0.07332317, 0.05536193, -0.1467511, -0.05601012, -0.1651206, -0.06463665, -0.1234253, -0.04960425, -0.07343931, -0.08696066, 0.1671421, 0.1441815, -0.1243277, -0.04468423, -0.1088186, -0.0160543, 0.1295507, 0.1575097, -0.1467925, -0.07496159, 0.04201773, -0.002595291, -0.1023052],
    [-0.1499702, -0.02926008, 0.1570034, -0.100272, -0.03393306, -0.05215111, -0.05234619, -0.01340787, -0.01360528, -0.05434056, -0.1448349, 0.08810721, -0.1231344, -0.04902171, 0.02991049, -0.0223431, 0.1236525, 0.0948513, -0.06681542, 0.1218614, 0.1552555, -0.141578, 0.129257, 0.1217924, 0.0767948, 0.1026718, -0.1147064, 0.06271883, -0.006492734, -0.1022206, -0.01037669, 0.03972659, 0.04353368, 0.004853934, -0.04140285, -0.08557226, -0.1428292, 0.1270741, -0.0847152, 0.07645326, 0.007882953, -0.1533747, -0.06623228, 0.128303, 0.1687615, 0.1221706, -0.0980709, -0.1573227, -0.1524288, 0.1184724, 0.08047587, -0.09475468, 0.07055048, 0.03426397, -0.1113906, 0.04886415, 0.02766514, 0.126022, -0.02006504, 0.08187367, 0.02346051, 0.0840819, -0.03607626, -0.06066372, -0.01606345, 0.0403523, -0.01140124, -0.1354998, -0.1372458, -0.1371515, 0.08287756, 0.1543639, 0.06443144, -0.1541665, 0.09539229, 0.1658226, -0.07976006, 0.1229837, 0.02477343, 0.1604253, 0.06523506, 0.142493, -0.1497398, -0.1081516, 0.103335, -0.08975171, -0.08231406, -0.1609468, -0.04353003, 0.07735059, 0.08582555, -0.1686758, 0.1191313, 0.1193003, -0.006506801, -0.04286449, -0.02487209, -0.1573974, 0.08037364, -0.124372, -0.1156262, 0.1277788],
    [-0.1128598, 0.1539533, 0.03011718, -0.1457395, 0.07983489, 0.009013996, 0.08983384, 0.03601424, 0.1459262, 0.08634651, -0.09954317, 0.07556884, 0.1158095, -0.05539565, 0.1432247, -0.0863748, -0.01874018, -0.115241, -0.1404534, -0.04008648, 0.01175095, -0.1215725, -0.1527083, -0.1577729, 0.08253177, 0.02774002, 0.00727734, 0.07474257, 0.04946063, 0.05447387, 0.0963264, 0.1599189, -0.08771627, 0.06716704, 0.114731, -0.09235404, 0.1590693, 0.1636069, -0.1102017, -0.09473409, -0.0337062, 0.1004395, -0.1354326, -0.03933774, -0.08993916, -0.1475129, 0.001290336, 0.1599997, -0.06573094, -0.1092102, -0.1609763, -0.1535465, 0.1237503, -0.08161577, 0.04011208, -0.0574393, -0.1580812, -0.1250868, -0.161873, 0.1075497, 0.1077299, -0.007385463, 0.00944075, 0.1061946, 0.006173775, -0.007037699, 0.0562203, 0.01994549, 0.1162713, 0.09311035, 0.08814396, 0.0336995, -0.01956698, -0.07410416, 0.1467539, -0.02616535, -0.04867612, -0.0980043, -0.09741713, -0.1468224, -0.06971788, -0.09855064, -0.02501737, 0.07035998, -0.07455888, 0.0270611, 0.1663941, 0.03832804, -0.1213308, 0.03926703, 0.01003371, -0.02173799, 0.00105989, -0.06176279, 0.07206134, 0.0202243, -0.168694, 0.004286513, -0.1065345, 0.01593933, 0.1534937, 0.1041619],
    [0.1366391, 0.03029157, 0.08575133, 0.1635455, -0.003649846, 0.09044458, 0.03412637, 0.06201109, -0.1147735, -0.110173, 0.1554592, -0.02636208, -0.02611597, -0.1670774, 0.1398724, 0.02088617, 0.1689796, 0.005211502, -0.1212371, 0.1134203, 0.0268995, 0.07430498, -0.03755945, -0.1192547, 0.09908427, 0.02981518, -0.07790123, -0.1290406, -0.0494548, -0.03724204, 0.08609626, -0.08785729, 0.005750403, -0.08558989, 0.01714262, -0.05598277, 0.0191516, -0.1403445, 0.02436323, -0.01282905, -0.04172431, -0.06133478, 0.1308535, 0.005244285, -0.09404747, -0.1291901, 0.09548257, -0.1682151, 0.01363342, -0.07286572, -0.0401984, -0.101572, 0.02778827, -0.1250129, -0.1366505, -0.03096575, 0.04108772, -0.1391078, -0.04709505, -0.1016644, 0.1283446, 0.04217081, -0.04962097, 0.04040709, -0.0384904, -0.003616855, 0.05056375, -0.0370809, 0.06024913, 0.01866604, -0.1593997, -0.1156776, -0.1182102, 0.1570795, -0.1663736, -0.003878981, -0.1713157, 0.1268122, 0.1663707, -0.1683431, 0.1272149, 0.124872, -0.1295843, -0.1023772, 0.06055652, 0.111715, 0.1694144, 0.024358, -0.03264728, 0.085582, 0.1109986, 0.05140696, -0.1278574, 0.06252915, 0.164736, 0.1203439, 0.1207004, 0.1266658, 0.05996184, 0.003743604, -0.08606271, 0.06056703],
    [0.0012943, 0.1173077, -0.008382156, -0.06023983, 0.04914435, 0.1353792, -0.05575669, -0.1338972, 0.1484913, 0.02677365, 0.08427538, -0.05765277, 0.08640829, -0.02128327, -0.1643963, -0.06594744, 0.09082702, 0.009499967, -0.03429136, -0.1368106, -0.06802073, -0.06810947, 0.06010286, 0.133268, -0.04818125, -0.05705331, 0.009242043, -0.0717157, -0.1690738, -0.1385072, 0.02960931, 0.0883383, -0.01172724, 0.01947027, 0.03970905, -0.1519044, 0.1264465, 0.03794201, -0.08123751, -0.05391291, -0.0750138, 0.1654423, -0.07254119, -0.07491751, 0.03451833, -0.153912, 0.07023715, -0.1041109, 0.1242762, 0.04561032, 0.1330384, -0.07216163, -0.08256321, 0.148916, 0.02573578, 0.06431773, -0.1272438, -0.1679164, 0.1659104, 0.1118842, -0.168711, -0.05427146, -0.1061672, -0.1677598, -0.1586692, 0.04040411, 0.0130382, 0.02788447, 0.08261101, -0.1157368, 0.08694041, -0.1016202, -0.1210738, 0.005988583, 0.1096541, 0.1399802, 0.01372051, 0.1406714, 0.002647057, -0.05200374, 0.001605794, -0.1581336, 0.00334473, -0.04984586, 0.1065102, -0.08405133, 0.1420175, -0.09614845, 0.09279931, -0.05214702, -0.1282639, 0.1671981, -0.1671956, 0.09437364, -0.04774726, 0.01010372, 0.03786178, 0.03222285, 0.1100647, -0.05042839, 0.1635032, 0.07471713],
    [-0.05189601, 0.1447736, -0.01997885, -0.1303257, 0.164495, -0.07799134, -0.01810396, 0.1027706, 0.1114648, 0.09722803, -0.1308606, 0.06469779, -0.1334984, -0.01022471, -0.1451648, 0.0169982, 0.002734393, 0.1644747, 0.05481644, 0.08061577, -0.1604279, 0.06017197, 0.1572683, 0.145443, 0.09354602, -0.04283173, 0.0479388, -0.1092884, -0.1363161, -0.1182317, 0.005866781, 0.00693953, -0.1535677, -0.05402948, 0.007894918, -0.03181042, 0.0643771, 0.1296899, 0.1386518, -0.05832711, -0.07075474, 0.1274934, -0.02624959, -0.03765222, -0.001383156, 0.09632541, 0.03305314, -0.09561838, -0.109391, 0.01537371, 0.0006692857, 0.02051899, -0.1053388, -0.05089792, 0.0417735, -0.01850908, -0.1351406, -0.008811966, -0.09591563, -0.1547356, -0.1223099, -0.1158127, 0.1513088, 0.1252668, -0.1392568, -0.0396208, 0.05736861, 0.02520166, -0.04220733, 0.1630997, -0.0846699, 0.1327958, 0.1004081, -0.1626062, 0.01152034, -0.02907322, -0.1000776, 0.07418759, 0.0507051, -0.1559069, -0.1578738, 0.0004006922, 0.1404319, -0.116807, 0.1294672, -0.1657978, -0.1231721, -0.138464, 0.06596774, 0.1226473, -0.04368684, -0.1149378, -0.1198276, 0.08827877, 0.1263724, 0.1235659, 0.1214784, 0.1552023, 0.09997372, -0.08840983, 0.09344175, -0.07310787],
    [-0.1670055, -0.1513398, 0.04677515, 0.08131354, -0.0001934618, -0.01707381, -0.1107455, -0.007401854, 0.0821848, 0.03436521, -0.03211491, -0.1470519, 0.01622771, 0.1030834, 0.1318052, -0.03837976, -0.1567814, -0.05433422, 0.05458812, 0.02672417, 0.07899795, 0.08471735, -0.0932939, 0.06644593, 0.07688999, -0.08897192, 0.1495278, -0.1085717, -0.1645049, 0.075541, -0.06655782, 0.1137958, 0.09931096, -0.1514047, 0.1263603, 0.06210129, -0.04033148, -0.08808537, 0.08089991, 0.05855761, -0.1482209, 0.0002707392, 0.0476451, 0.1530573, -0.03929284, -0.1132249, -0.107189, -0.1052656, 0.09403704, 0.1548072, -0.09943421, 0.02622333, 0.01368783, 0.1036519, -0.01448074, -0.02652824, -0.1130089, 0.06045647, 0.1628427, -0.01196341, -0.06054236, 0.06036017, 0.04312193, 0.1495513, 0.01556997, 0.04587888, -0.05868586, 0.07080407, 0.05272957, -0.1016834, 0.0550163, -0.004193544, -0.04773998, 0.08523177, 0.1142487, 0.1459004, 0.0510282, -0.1712312, 0.1344617, -0.07282525, 0.02757454, -0.1382071, -0.1568777, -0.06959376, -0.03676225, 0.11405, -0.08519368, 0.07879273, -0.09076278, -0.02448569, -0.007252365, 0.04974627, -0.1033745, 0.118748, 0.1361176, -0.04729459, 0.06765468, -0.03746615, -0.1224907, -0.1137904, 0.1024525, 0.1598263],
    [-0.07556334, -0.08184569, -0.1482738, -0.08467628, 0.06734949, -0.06510608, 0.07875246, 0.08313341, 0.1542672, -0.09182891, 0.03472641, -0.02627297, -0.1321334, 0.01828419, -0.04074131, 0.01048717, -0.1110519, 0.06351513, -0.1328544, 0.1529645, -0.1162684, 0.03093986, 0.1410094, -0.1486829, -0.03509049, -0.1583605, -0.007374987, 0.05180901, -0.01860864, 0.1350274, -0.0188081, 0.00822261, -0.01942793, 0.0263467, 0.1237955, -0.008775249, -0.1475579, -0.1305093, 0.1174708, -0.1384941, -0.01454486, 0.1448363, -0.1449944, -0.1692861, 0.05706678, 0.003809229, -0.03137463, -0.02574401, 0.1435391, -0.1549972, 0.1691888, 0.1629451, 0.02174479, -0.01120354, -0.01975556, 0.07150756, 0.1311235, 0.1030706, -0.1548283, -0.16515, 0.1592197, 0.002423882, -0.02643023, 0.1353635, 0.07037879, -0.1144858, -0.142575, 0.0009431988, 0.09367518, 0.1218977, 0.07760738, 0.07749898, 0.146889, 0.006562203, 0.1386567, -0.007664934, -0.04019582, -0.1324484, -0.02173714, -0.1111961, 0.02922888, 0.07071751, -0.1314038, 0.1199513, 0.1065329, -0.04566677, 0.007515445, -0.1533208, -0.1575396, -0.05126804, -0.09544836, 0.04354452, -0.1706723, 0.01733197, 0.05032791, -0.1215713, 0.1286752, -0.02146323, -0.008140832, 0.05888406, 0.1476171, 0.06835624],
    [0.0961125, 0.139712, 0.07254604, 0.1558142, 0.1008573, -0.03964317, 0.06403486, 0.02770141, -0.1321005, -0.002204597, 0.1689969, -0.09693865, -0.1443837, 0.1472338, -0.120458, -0.01711237, 0.1036562, 0.1451924, 0.04502828, -0.05920776, 0.03241262, 0.06417163, -0.1219525, -0.09079088, 0.06211004, -0.1241117, -0.01899667, 0.1683404, 0.1039362, -0.09638724, 0.1001284, -0.1009006, 0.01713568, 0.05205287, -0.04897796, 0.124788, -0.1359248, -0.06110817, 0.04831333, -0.07041149, -0.09921496, -0.108801, -0.1561166, -0.004712462, 0.001490161, -0.1462539, 0.1571894, -0.0196656, 0.0158582, 0.08871779, -0.06331137, -0.05338991, 0.09240953, 0.073542, -0.02879052, 0.1192658, -0.07808378, 0.1437891, -0.1570951, -0.130511, -0.09952863, 0.01363079, 0.09471358, -0.05746477, -0.1317253, -0.1433048, 0.03151982, -0.07439353, 0.09626804, 0.09674741, 0.1588243, -0.001881748, 0.1476728, -0.1200125, -0.07514109, -0.01700537, 0.0698079, 0.006913722, -0.1259459, 0.0815608, 0.1491071, 0.1493795, -0.03855795, -0.1686815, -0.1129138, -0.04270968, 0.08408611, -0.08973174, -0.06482559, -0.06007329, 0.1526736, 0.07012998, -0.05691551, -0.02600655, -0.09370638, -0.04251853, -0.1709843, -0.1131153, -0.1407189, 0.06121871, -0.05098448, 0.04579232],
    [0.04880711, -0.01174736, -0.1693212, 0.1333153, 0.1433838, 0.134289, -0.06629005, -0.08692382, 0.1311945, -0.1384318, -0.05489554, 0.07568394, 0.1049945, -0.02419825, 0.007849991, -0.1561958, 0.004573479, -0.1438937, 0.1514517, 0.08316915, 0.009719893, -0.01705962, -0.02320102, 0.0143221, 0.1610169, 0.09464927, 0.1515557, -0.0889783, -0.1647757, 0.1170424, -0.03322196, 0.1399955, 0.0603033, -0.03692552, -0.07344799, 0.1240883, 0.0744642, -0.1547017, 0.1482064, -0.1016767, -0.0004986078, 0.1187731, 0.1551511, -0.1055853, -0.03746058, -0.03719121, -0.01928142, -0.06867437, -0.001292661, -0.1608345, -0.01797892, -0.003459513, -0.03819691, 0.114802, -0.02595642, 0.1341661, -0.1447646, -0.02211204, -0.01764654, -0.1454124, 0.1581025, -0.1669049, -0.1179046, 0.03977107, -0.02143371, 0.1053986, 0.03165774, 0.1001937, -0.01737413, -0.161045, 0.09463868, -0.1053986, -0.1693607, -0.1233672, 0.1317578, 0.1160638, -0.09353597, -0.1599248, -0.09713541, 0.007761747, -0.148801, 0.1010188, 0.04981022, 0.1142001, -0.03060633, 0.06656226, -0.02915978, -0.03705914, 0.08275507, -0.03209634, -0.12818, -0.01374954, -0.03894536, -0.08447719, -0.05824843, -0.01793562, 0.1252131, 0.08338279, -0.05661433, 0.08581176, -0.01564161, -0.001828223],
    [-0.04082222, 0.1292779, -0.008272856, -0.05162843, -0.01074043, -0.02266604, -0.1169672, -0.1282639, -0.1371982, 0.0317775, 0.1597805, 0.01664858, -0.005602062, -0.07079215, -0.009621322, 0.1572165, 0.1574476, 0.0348524, -0.05456537, -0.1187675, -0.164433, -0.04773712, 0.06472433, -0.009489089, 0.05056318, 0.155595, -0.1275385, -0.02479421, -0.08320282, 0.05567456, -0.06398173, -0.03603791, 0.07745127, 0.001282856, 0.07846211, 0.03683262, 0.02053249, -0.07171877, -0.1284792, -0.0395254, -0.09410684, -0.08931853, 0.07302313, -0.006548911, 0.03740747, -0.006299302, 0.01494904, -0.02652784, -0.1459642, 0.1236573, -0.164961, 0.04671362, 0.1085567, 0.1497861, 0.01625134, 0.1026287, 0.07139474, 0.0995504, 0.1568974, -0.08514624, -0.07675226, -0.12622, 0.01951751, 0.09637889, -0.03382835, 0.06823133, 0.1434631, 0.1268614, -0.03119268, -0.04090355, -0.04650965, 0.04092444, -0.1046039, -0.1703768, -0.1082885, 0.05417997, 0.1020611, -0.04586479, -0.00533244, -0.07372636, 0.1301078, -0.100566, 0.05318577, -0.05032503, -0.05843227, 0.117756, 0.01784734, 0.0568793, -0.05195947, -0.1638414, -0.1052043, 0.1433334, 0.07921837, 0.07960048, -0.02294061, -0.06276968, 0.05969942, 0.05241662, 0.05436245, -0.05823449, 0.08401374, -0.01259562],
    [0.0919158, -0.110531, 0.05255338, -0.04974585, -0.1464859, 0.1168974, 0.03370343, 0.07412932, -0.02196959, -0.132884, 0.0710189, -0.02263795, -0.01556286, 0.03654914, -0.1658929, 0.08230354, 0.04963289, -0.04036146, 0.04573945, -0.1641693, -0.1047292, 0.1191899, -0.07411253, 0.1421362, -0.00524421, 0.091415, 0.03059655, 0.09075244, 0.07990842, -0.1569994, -0.006041244, 0.01390074, 0.05577315, 0.03794745, -0.003827706, -0.1342485, -0.09358634, 0.07903111, -0.1410939, 0.07303368, 0.1461218, -0.02367419, 0.08489386, 0.01066908, -0.1658861, -0.1348099, -0.06295474, -0.1126148, 0.1481851, 0.01275484, 0.1453193, 0.1293342, -0.1365403, -0.09854426, 0.1619744, -0.001012951, 0.01191095, 0.03817368, -0.165098, 0.06001152, 0.1592195, -0.05672698, -0.1034728, 0.1666542, 0.01244658, -0.01902619, 0.1373947, 0.09259123, -0.05813003, -0.114007, 0.1008824, -0.04645228, 0.0591985, -0.1443997, -0.1641531, -0.08101652, 0.1387733, -0.05692725, 0.1445125, -0.164702, 0.09933005, 0.08847778, -0.1076612, 0.1714111, 0.0573622, 0.04539562, 0.02529885, 0.133636, -0.1330623, 0.08533178, 0.004515082, -0.05898132, 0.08949058, -0.1384736, 0.1020807, 0.06736527, 0.0490542, -0.0945033, 0.09301308, 0.1575148, -0.09387578, -0.02658132],
    [-0.01774728, 0.08204675, 0.05735214, 0.0480189, 0.008354023, -0.0802883, 0.1483025, 0.1491926, 0.1469052, 0.1247783, 0.008771613, -0.03087942, -0.169771, -0.1323266, -0.1346322, 0.022618, -0.06110813, -0.1447133, -0.007486939, 0.02615742, -0.1466413, 0.05516477, 0.08657543, -0.129508, 0.1690562, -0.09810595, -0.1505957, -0.1234806, 0.06423628, 0.1665056, 0.0819539, -0.08225273, -0.02006979, -0.01694509, 0.08863981, 0.06388526, 0.07302979, 0.03066738, -0.07610847, -0.03096399, 0.056799, 0.1215884, -0.1164431, 0.1602535, 0.08087996, -0.1259347, 0.06644271, 0.08769177, -0.05406367, 0.1583281, 0.1493324, -0.003534868, 0.04508393, -0.1068786, 0.0374262, 0.0761919, 0.1046525, -0.009073868, -0.006955221, -0.04229209, -0.02441125, -0.1027119, -0.1017155, 0.06857434, -0.1533706, -0.03656414, -0.1153734, 0.04175575, 0.08702738, 0.08908018, 0.008905768, 0.1659021, 0.07604682, -0.03509274, -0.03475659, 0.1620783, 0.03612672, -0.054646, -0.1261923, -0.01242234, 0.1449751, -0.1606816, -0.01261243, 0.1250394, 0.1695797, -0.1146616, 0.01133278, 0.1629572, 0.09856294, -0.1424304, 0.1425952, -0.01587009, 0.03845544, 0.1550011, 0.07841026, 0.06190633, -0.1425963, 0.06474918, 0.01946504, 0.1116918, -0.03767794, -0.001502305],
    [0.05297368, -0.08078729, -0.07989736, 0.008403003, -0.01640214, -0.002661005, -0.009283289, 0.1011622, -0.1678158, -0.07039452, -0.170648, 0.1294019, 0.1094234, 0.04252502, 0.1262382, 0.1324798, -0.05522653, 0.09335674, -0.03379323, 0.04577883, -0.01309262, -0.1322686, -0.1196692, 0.06889863, -0.0272875, 0.06302966, 0.0445027, 0.1289771, 0.06440057, 0.04704142, -0.001752004, 0.1217722, -0.1343726, 0.1245507, 0.008528158, 0.0373939, -0.1701003, 0.1317808, -0.0363566, -0.02200513, -0.135733, 0.007480517, -0.0189687, -0.01527894, 0.02311108, 0.02392332, 0.05851157, -0.104725, -0.1141001, -0.1063247, 0.08314113, 0.08300359, -0.1674947, 0.07094269, 0.09708668, 0.1281867, 0.1092083, -0.1658549, 0.08659805, -0.06532496, -0.1150287, -0.0414722, 0.114185, -0.08161258, 0.1311245, 0.1277288, -0.1633028, 0.05601872, -0.07049747, -0.1140712, 0.1146885, -0.1045501, 0.05079883, 0.06483914, 0.03335109, -0.09966211, 0.01737429, -0.1248835, 0.1090275, -0.1585585, 0.08472462, -0.1635249, -0.1067067, 0.04849443, -0.1407635, -0.009604752, 0.1162412, 0.0896915, -0.1437164, -0.1594335, -0.0867018, -0.1352292, -0.01461519, 0.08714174, -0.04937225, -0.01203415, 0.139497, -0.08593555, -0.1023751, 0.1231766, 0.1006977, 0.1680815],
    [0.04260239, -0.1086225, -0.1244868, 0.0347182, -0.01063061, 0.0007960796, -0.08181716, 0.1039679, -0.07658842, -0.1542466, -0.002215475, -0.1297321, 0.06400367, 0.084788, 0.09259115, -0.137572, 0.1671252, 0.1615021, -0.1531458, -0.1096491, 0.113285, -0.04358511, 0.07569085, -0.1500294, -0.05402863, -0.06114918, 0.0915146, 0.06828088, -0.144974, 0.005809039, -0.03608163, 0.1064307, 0.01991576, -0.1527782, -0.1549339, 0.06013938, 0.1357964, 0.06881636, -0.1115273, 0.1626276, 0.09023434, 0.07162997, -0.1143181, 0.08203261, -0.1662336, -0.1107862, -0.1305981, 0.09140472, -0.06929412, -0.0502785, -0.1211818, -0.1526277, 0.0199533, 0.03479965, 0.1670328, -0.1618811, -0.00813216, 0.09206586, 0.007329568, 0.003926829, 0.0907212, 0.1707678, -0.1489316, -0.138499, 0.1066825, 0.001874015, 0.1415081, 0.007324979, 0.09721993, -0.03892423, 0.167076, -0.07843204, -0.04267125, -0.06921071, 0.02982193, 0.03778867, 0.02101071, 0.1667718, 0.1351648, 0.1423091, 0.1670417, -0.06810153, -0.01320842, 0.08466305, 0.1424405, -0.1002196, 0.04965709, 0.002047718, -0.02514847, 0.02125853, -0.04508363, 0.1118227, -0.08213032, -0.06206922, -0.1002708, 0.1316495, -0.1006612, 0.1359135, 0.06311941, -0.009285331, -0.1214846, 0.06572364],
    [-0.02221684, 0.03933471, -0.0408854, 0.02321881, 0.14121, -0.01702917, 0.0657855, -0.02640958, 0.09065611, 0.01191798, 0.1070773, 0.1101833, -0.003681168, 0.1020476, -0.07422265, 0.08197209, -0.04663853, 0.08861278, -0.02533148, 0.162901, 0.1312559, -0.1674811, 0.04914153, -0.004842892, 0.04393598, 0.1569407, 0.1156285, -0.1297623, -0.1201712, -0.1580586, 0.009545639, -0.006696403, 0.1584854, 0.07767644, 0.1491542, 0.01208881, 0.02611355, -0.0833272, -0.1612123, 0.07287082, 0.05698995, 0.09933279, 0.1700464, 0.0249863, -0.08972398, 0.1672782, 0.07616524, -0.05493283, -0.0470403, -0.1689503, 0.1235498, -0.1350526, 0.1221517, 0.1136996, 0.1062957, 0.02737467, -0.01590043, -0.03657788, 0.01420593, 0.1388398, -0.01511398, 0.08854999, -0.1077902, -0.04235047, 0.1554012, -0.06238586, -0.1341671, -0.01773579, 0.1517429, -0.001518205, 0.01312533, 0.01275207, 0.0312598, 0.08615883, -0.03769904, 0.1122373, 0.1456434, -0.111631, 0.06537057, 0.1069938, 0.1018508, 0.03141065, 0.02047536, -0.1288124, -0.1380919, -0.1056426, 0.1581219, -0.08979423, 0.01297691, -0.1182419, -0.03421417, -0.07469234, -0.1703465, 0.07268269, 0.02328485, 0.02466749, 0.090318, 0.1354103, 0.1204997, 0.1502207, 0.08532638, -0.06835602],
    [-0.09635179, -0.05539691, -0.07168381, -0.1510191, -0.1254876, 0.1534586, 0.08920832, 0.1504361, 0.1268077, 0.14117, -0.170457, 0.06124803, 0.1554921, -0.03457324, -0.15284, -0.0684562, 0.1291112, -0.1276236, -0.001975343, -0.1379733, -0.1139089, 0.1614585, -0.01640798, 0.1096391, -0.1440399, -0.07095346, -0.1513409, 0.1032953, 0.003042653, -0.03167099, 0.1115137, 0.0265432, 0.05355278, -0.1294588, -0.1320542, 0.08156022, 0.05688061, -0.09939496, -0.0940304, 0.06240987, 0.07106493, -0.02867751, -0.07886897, 0.07503521, -0.03634438, -0.03894998, -0.004946589, 0.02441767, 0.00885731, 0.04202893, -0.09113728, 0.1490522, -0.1095944, -0.09051238, -0.1188518, 0.1485731, -0.109892, -0.169586, 0.1021577, -0.1293037, 0.0450784, -0.00545302, -0.1194207, -0.1343565, 0.1663576, 0.1649476, 0.04625652, 0.09739284, 0.04111053, -0.0589435, -0.05851024, -0.02246466, 0.05242504, -0.05275095, 0.04040737, 0.07383685, 0.1453884, -0.14607, -0.02740946, -0.01625057, 0.1096251, -0.1458757, -0.08191843, -0.140008, 0.1077501, 0.07150204, -0.08475886, -0.06837429, -0.007486045, -0.09629654, -0.06460422, -0.1320839, 0.005649701, -0.1298845, 0.1135275, -0.02285045, 0.0926042, -0.07040931, -0.1021902, 0.0005835444, -0.1041354, 0.144728],
    [0.08317748, -0.0907167, -0.07371072, -0.1675172, 0.08062764, -0.1378148, 0.05736309, 0.05113517, 0.1415855, 0.02381845, -0.08106999, 0.1288732, 0.1277626, -0.01243509, 0.05087058, -0.1425529, -0.01516525, 0.1379584, -0.1256511, 0.02501574, 0.01099113, -0.008391276, 0.09691936, 0.04400636, 0.1375549, -0.1028684, 0.1270971, 0.0986302, -0.05499519, -0.03941359, -0.02889098, 0.06832549, -0.02412444, 0.1296584, 0.08860011, 0.01642704, 0.1053277, 0.1579644, 0.1348055, 0.1124654, 0.03345102, -0.1464002, -0.1529269, -0.04731716, -0.08173472, 0.0597567, 0.01530534, 0.142986, 0.122739, -0.03983457, 0.04830458, 0.1443221, 0.01557009, 0.08344359, -0.1320463, -0.09537975, -0.0541275, -0.1288023, -0.1125598, 0.01614708, 0.03948341, -0.02805035, 0.07089472, 0.02214631, -0.1502482, 0.02371274, 0.1669425, -0.124357, 0.003320649, -0.06840263, -0.06853822, 0.05834883, -0.168473, 0.0326889, -0.03491756, -0.04731892, -0.1512537, -0.02618298, 0.08785741, 0.03969102, 0.1193851, -0.005967811, -0.025372, 0.1209676, 0.0209509, 0.002646446, 0.06527166, 0.02481407, -0.08040009, -0.1454741, -0.06160158, -0.1681166, 0.03004122, -0.05265502, 0.1208036, -0.009544238, 0.04444905, 0.07947634, -0.1317454, 0.1114632, -0.002104133, -0.1093306],
    [-0.1565393, 0.1576531, -0.08520259, -0.1382917, -0.07455492, 0.06708632, 0.1298039, -0.02408679, 0.06268284, -0.05035317, 0.04409381, -0.05414393, -0.06116914, 0.102588, -0.01843527, 0.09539483, 0.08998774, -0.006202832, 0.07395285, -0.07257244, 0.1271269, -0.01539935, -0.08037145, 0.1480085, 0.1123569, -0.1039068, -0.04222928, -0.1186603, -0.09030662, -0.1376683, 0.07979078, 0.1169455, 0.1257875, -0.02770349, 0.1300248, -0.002553582, -0.1426997, 0.05501352, -0.05285279, -0.04342012, 0.1639798, 0.1023112, 0.122162, 0.04204062, 0.06672819, -0.1647528, 0.06566083, 0.05484101, -0.06886475, -0.1559077, -0.1408638, -0.1272933, -0.07216702, 0.04015636, 0.1302413, 0.1471665, 0.09061505, 0.02675906, 0.07200063, -0.09351082, -0.1088399, -0.114156, -0.00760217, -0.06702289, 0.03606543, -0.005865544, 0.0797682, -0.128718, 0.01506317, 0.1514649, 0.1191023, -0.01282473, -0.1034563, 0.07387868, 0.09998333, 0.1356433, 0.08073334, -0.1703445, -0.06682037, -0.01811528, -0.1401436, 0.1158603, 0.07478693, 0.1417413, 0.102023, 0.1613341, 0.1003651, -0.01186523, 0.08279346, 0.06144532, -0.1291684, 0.0357153, 0.1088977, -0.1395872, 0.02313107, 0.02236061, -0.04784576, -0.05463263, -0.04541621, -0.1328711, -0.1529669, -0.0843782],
    [0.1080062, -0.1016894, -0.0632073, -0.07708664, 0.03525281, 0.1439387, -0.04558255, -0.1499644, -0.0680981, -0.01669744, 0.02846991, 0.04782304, -0.02942179, 0.1362404, -0.03418411, 0.0471252, 0.1223222, 0.09843488, -0.09988414, -0.0727741, 0.1501736, 0.05304581, 0.06614111, -0.0418489, -0.1150575, 0.07865731, -0.03828187, 0.1544142, -0.02031513, 0.1044732, -0.1086456, 0.04467303, -0.05737314, -0.1130665, 0.09615441, 0.06084618, -0.0147053, 0.1113753, 0.07190818, 0.1558906, -0.1055717, -0.09181444, 0.07777187, -0.08154668, 0.08282662, 0.05956543, 0.1053095, -0.1417914, -0.09848715, -0.0674981, 0.05165363, -0.01336965, -0.1659998, 0.05075332, 0.1000876, -0.1406124, -0.03893624, -0.01685195, -0.08249937, -0.1002127, 0.1100895, 0.1534819, -0.1562039, 0.1516395, -0.1250611, 0.1274998, 0.1591303, 0.04976291, 0.0961419, 0.1191152, 0.08497233, 0.1258054, 0.1291918, 0.009666339, -0.03105557, -0.04096563, -0.1692884, -0.03091018, 0.07764409, -0.1197041, -0.02236699, -0.1300254, 0.1604744, -0.09319345, 0.08022121, -0.00354439, -0.0459449, 0.1142077, -0.08751748, -0.0127916, 0.04121014, 0.09105901, -0.1362013, 0.08675106, -0.09477113, 0.05754832, 0.1058159, 0.06206813, -0.07163139, 0.1621415, 0.1676977, 0.016519],
    [-0.1471387, -0.06856361, -0.08109947, -0.1310272, -0.04260696, 0.1275893, 0.1523478, -0.0008610934, -0.04485989, -0.1336614, 0.1285025, 0.06281835, 0.1170835, -0.002009317, -0.09979124, -0.1701394, 0.0005763769, 0.05505768, -0.02988252, 0.00282529, 0.1054118, -0.00835447, 0.1643845, -0.01421902, 0.117114, 0.04698119, 0.0631531, -0.1318121, -0.07335974, -0.1392107, 0.09402961, -0.1666778, 0.1701701, 0.04055168, -0.1538904, 0.1295978, 0.00300695, -0.1555226, 0.06033699, -0.04398319, -0.01849526, -0.08752464, -0.07056801, 0.08028761, 0.04856259, -0.07675308, -0.1280846, -0.09248324, 0.05614683, -0.09708266, 0.1695853, 0.09843022, 0.08593234, 0.04386533, -0.05608196, 0.09969915, -0.1148597, -0.06323867, -0.09199844, 0.05028293, 0.01171796, -0.004145786, -0.03364517, 0.04027052, 0.09600517, 0.1044143, 0.05353769, 0.1665662, -0.05009716, 0.04760281, 0.06387904, 0.06991389, -0.15136, -0.1391378, -0.1028265, 0.05934279, -0.1330377, 0.01571529, 0.06891032, 0.1415333, 0.1579599, -0.1704949, 0.05467075, -0.06546034, 0.1062268, -0.02516457, 0.1218071, 0.1354756, -0.03735273, 0.1547246, 0.1490394, 0.08845025, -0.00513868, 0.01525894, -0.100866, -0.1125986, -0.115844, 0.1597944, -0.003965303, 0.1685474, 0.0468418, 0.1057465],
    [-0.09750553, -0.0006566048, -0.03276995, -0.09062468, -0.1076856, -0.08813272, 0.04579526, 0.1694376, -0.1251491, 0.118664, -0.07891525, -0.1210216, 0.01046714, -0.09823318, 0.1502238, 0.1171115, -0.03503533, -0.1582923, -0.05556869, 0.09887285, 0.07298183, 0.1690487, 0.0568147, 0.1713363, -0.03920713, 0.1569979, 0.08818476, 0.1514014, 0.07894181, -0.03851445, -0.02749377, 0.03199998, 0.1402738, 0.03006513, -0.08977906, -0.07878874, 0.07572013, 0.1124123, -0.1211881, 0.1351186, -0.09085672, 0.004981056, -0.1402497, 0.1325245, -0.1025072, 0.08985359, 0.1697331, 0.02649745, -0.01501942, -0.04523471, 0.1490594, 0.1267644, -0.01969387, -0.02096328, 0.03924868, 0.0795039, -0.07254182, 0.07570692, -0.07561311, -0.04387021, 0.04750227, 0.05059401, -0.1459564, 0.1383294, 0.0975703, 0.115212, -0.1166976, -0.05805708, -0.1018305, -0.01992267, 0.03062384, 0.1415253, -0.0595924, -0.1059112, 0.0461929, -0.1427811, 0.0383964, 0.095668, -0.1588528, -0.0971658, -0.1689965, -0.08662439, 0.07967715, 0.1588197, 0.1555356, 0.1017108, -0.1221024, 0.0687621, -0.1207468, -0.05437679, 0.1366336, -0.09956665, 0.02258471, -0.002775162, -0.06285739, -0.01678996, 0.1515642, 0.05603541, -0.04101159, 0.130575, -0.003483355, -0.05175674],
    [-0.06879352, -0.1099644, -0.1068091, 0.1567564, -0.1131155, 0.1458188, 0.04414672, 0.1285066, -0.07143639, 0.02561466, -0.02995564, 0.06761555, -0.07474577, 0.08048543, -0.01135466, -0.0289714, 0.02389327, 0.01366368, -0.121599, -0.04310454, 0.05775615, 0.0262859, 0.1519653, -2.720952E-05, -0.1398149, 0.01756565, -0.005773097, 0.01951407, 0.06441848, 0.1574975, 0.1036559, 0.1607103, -0.118953, -0.01656123, 0.02250379, 0.1111265, -0.1084345, -0.0767079, -0.06342717, 0.1465747, -0.1121985, 0.0836481, 0.1376032, -0.03943354, -0.02017941, -0.1093795, -0.07503945, 0.1223388, 0.1320293, 0.01900579, 0.1057616, -0.1584017, 0.127214, 0.007354915, -0.02712174, -0.06377426, 0.08988172, -0.1629185, 0.1312598, 0.122098, 0.0547105, -0.1600964, -0.0109369, -0.1517417, -0.122136, 0.01944342, -0.1221112, 0.1109244, -0.08773331, -0.09571712, -0.05932454, 0.08939628, 0.1264368, -0.0962526, 0.1671129, -0.1036536, -0.1002405, 0.1638712, -0.1328608, -0.07741408, -0.02285041, -0.08420871, 0.06648138, 0.1003127, 0.1500154, 0.0327239, -0.1681012, 0.08665362, 0.03478898, 0.1117764, -0.1183892, 0.1123138, -0.03522517, 0.04956914, 0.1530515, -0.1264062, -0.06384546, 0.09922652, 0.1699986, 0.1697662, -0.06769612, 0.08748852],
    [0.06493773, -0.01688503, 0.1227952, -0.1594377, -0.009228662, 0.1210702, 0.04901306, 0.1235781, 0.1045089, 0.03689343, 0.02516666, -0.1115084, -0.08183719, 0.1578757, -0.161355, -0.01647262, 0.1079742, 0.143245, 0.06033335, -0.03949839, 0.07981469, -0.1448216, -0.04123615, 0.06196104, -0.01859045, 0.02618363, 0.1601717, 0.04097666, -0.09951802, -0.04130276, 0.0700404, 0.005530789, -0.1666296, -0.06562541, -0.05383113, 0.09949357, 0.00335063, 0.03044429, -0.0095613, -0.003323555, -0.08819161, -0.00356856, 0.04309462, -0.08291324, -0.01786725, 0.1103844, 0.141644, -0.1192381, 0.008889988, 0.05736117, -0.1664984, 0.09169202, -0.1023586, -0.1583029, 0.01146224, 0.08014409, -0.1534675, 0.04871183, -0.03522894, -0.01008773, -0.1477018, 0.002288759, 0.03515914, -0.08752144, 0.04421435, -0.001060292, 0.1650843, -0.03905401, 0.03571436, 0.1328895, 0.1153799, -0.134955, 0.04869577, -0.07777615, 0.1168369, -0.07925104, -0.009344622, 0.01123551, 0.1176778, -0.02614982, 0.0501213, -0.1345046, 0.04710051, -0.09876536, -0.08842046, 0.1627578, -0.06206349, 0.02382281, 0.07494672, 0.0221511, 0.100334, 0.08564542, 0.01267719, 0.01909067, -0.1067977, 0.1667059, 0.03845745, -0.05231102, -0.1295922, 0.1173776, 0.131422, 0.01896425],
    [-0.1236071, 0.07685368, 0.1283391, 0.05171231, -0.05796929, -0.03205669, 0.03455535, 0.04127601, 0.09243001, -0.02967641, -0.1335058, -0.1433087, 0.1088201, 0.06223459, 0.04289394, 0.01060608, -0.09893532, 0.00394772, -0.1659513, 0.07472552, 0.01764457, 0.1523456, 0.01446925, 0.01088105, -0.05310819, 0.005555078, -0.04315868, 0.0288821, -0.1395067, 0.1424546, -0.08393236, 0.1590549, 0.03405584, -0.1209639, 0.04168363, -0.1394103, -0.1374358, -0.02697441, -0.1555905, -0.1472038, -0.07960157, 0.01820458, -0.1005635, -0.08794836, -0.08553486, 0.1422129, -0.07939877, 0.1587861, 0.1262952, 0.1672534, 0.1244461, -0.001370847, 0.03902678, -0.1331223, 0.03393613, -0.08753522, 0.03145906, -0.07111979, 0.1454042, -0.1119241, 0.07617301, -0.01088919, 0.1230243, 0.04089996, -0.05088582, 0.1246055, 0.01632245, 0.09876849, 0.1250816, -0.05466996, -0.02749553, -0.1380885, 0.1190346, 0.1239301, 0.002733991, 0.03665136, -0.0779651, -0.08981656, 0.04977015, -0.1402517, 0.03632589, -0.09742461, -0.1288233, -0.05456267, -0.09928672, -0.1470425, -0.002675265, -0.1145873, -0.1594696, -0.07803775, 0.07786698, -0.06662677, 0.05989409, 0.1437652, 0.1049555, -0.02287266, 0.0663005, 0.1415114, -0.159144, -0.0670469, -0.01168042, -0.1220189],
    [-0.1199101, -0.02544707, -0.01125881, 0.1206692, 0.1260954, -0.02993998, 0.1580861, -0.1406756, 0.02573484, -0.1426579, -0.1499313, 0.07542332, 0.0572603, -0.08261059, -0.02807043, 0.003670171, -0.006333321, 0.0808127, -0.08745618, 0.04191056, -0.007596642, 0.1517089, -0.1129563, -0.0347473, 0.1040893, -0.01468617, 0.06795517, 0.06742378, -0.09884484, 0.04205829, -0.1240897, -0.1105156, -0.1413411, 0.06892758, 0.07340768, 0.1498385, 0.03241025, 0.1290589, -0.07977466, 0.1695376, 0.110158, -0.1327651, -0.08596109, -0.03147906, 0.06455357, 0.03825836, 0.07841611, -0.1207622, -0.02911304, -0.1649768, 9.872019E-05, -0.05066584, 0.1384925, -0.1613729, -0.1135446, 0.1494034, -0.1416647, 0.006902978, -0.1342807, 0.03323014, 0.1476738, -0.03750712, -0.09981115, 0.1091454, -0.0419066, 0.001863301, 0.09947021, 0.1462224, -0.04195452, -0.02639209, 0.09959579, 0.1068328, -0.02897058, -0.1323012, 0.07967351, 0.006423265, -0.02414596, -0.09971602, 0.01097026, -0.1615032, -0.1184294, 0.03717944, 0.1101855, -0.1479488, -0.1363285, -0.002147928, -0.07689333, 0.06650031, 0.001375511, -0.1206415, 0.0831821, 0.1299404, 0.1633375, -0.157983, 0.00392817, -0.1147107, -0.03559358, 0.1068046, 0.1511202, 0.109432, -0.04462658, 0.1693047],
    [0.0757169, 0.1601773, -0.08585106, 0.1423503, -0.05776808, -0.05868308, 0.08815075, -0.01659864, -0.0192041, -0.02891302, -0.06477877, -0.05663179, 0.05578619, -0.06999552, -0.006135494, 0.1297203, -0.01875331, 0.08969478, 0.08990172, -0.07728058, -0.03277077, -0.1448632, -0.1556659, -0.1600736, 0.07138003, 0.07782126, 0.1665389, 0.09843411, -0.1214842, -0.1033527, -0.04320562, -0.005759493, 0.05062938, 0.02345765, 0.06459875, -0.04823146, -0.1416721, -0.01436846, 0.1341386, -0.0755568, -0.07009861, 0.1668918, -0.130117, 0.01105973, 0.1166679, -0.004983753, 0.05142744, -0.07257906, 0.1501028, -0.1029602, -0.1654309, -0.004038572, -0.1334638, -0.1232126, -0.1482794, 0.113822, -0.1236393, -0.06928116, -0.05068244, 0.09103481, 0.079006, -0.08319079, 0.02092505, -0.1135713, 0.02721521, -0.148108, -0.0277961, -0.0305472, -0.1588757, 0.02149868, -0.1629569, 0.1226281, -0.113757, 0.0579099, 0.05251233, 0.005702034, 0.003106683, -0.07085013, 0.05592235, -0.09426947, 0.150477, -0.03650808, 0.1167594, 0.04705995, 0.102674, 0.09060855, -0.09495188, 0.06177606, -0.08938096, 0.08132324, -0.1369586, 0.01747714, 0.100419, 0.001203731, -0.006529659, -0.09998183, 0.1347415, 0.1541882, -0.1040607, -0.06316671, -0.03753307, -0.04219538],
    [-0.1307565, -0.0943922, 0.1153696, 0.04223219, 0.1537603, -0.1624521, 0.0666967, 0.1086414, 0.08328003, -0.08607917, -0.0996425, -0.1321402, -0.07624847, -0.05470382, 0.02699535, -0.03747797, -0.1679905, -0.09506409, -0.05733953, 0.06742423, -0.05589727, 0.1578202, -0.06751044, 0.05354419, -0.09839772, 0.01881112, 0.072222, 0.05607429, 0.03266212, 0.1302341, 0.0102665, 0.1625664, 0.02574834, -0.01544224, 0.1619195, -0.1321935, -0.1261909, -0.1114133, 0.01204187, -0.105922, -0.02873851, 0.04823385, -0.0496707, 0.079908, 0.09367849, 0.01013225, 0.1604004, -0.0792359, -0.06479198, -0.1119626, -0.0932243, -0.06957008, -0.09175245, 0.1529146, 0.1328948, -0.1215597, 0.0189216, -0.1492137, 0.1445062, -0.05007921, -0.01025435, 0.04471998, -0.1347628, -0.152599, -0.0771748, -0.1390626, 0.157369, 0.02631718, 0.1289427, -0.04869657, 0.09638368, -0.09131135, 0.1443309, 0.01285894, -0.1313964, -0.02560882, 0.03707877, -0.1420804, -0.09996531, -0.1590784, 0.1282111, 0.1605578, -0.1545997, -0.0494712, 0.1354115, 0.0200493, -0.04489283, -0.03171964, 0.1315904, -0.0473818, 0.09845407, -0.08278076, 0.112751, -0.1094209, -0.1355736, 0.1346776, -0.002562866, 0.1461444, 0.1292765, -0.0837398, -0.06557225, -0.02043714],
    [0.09611753, 0.04673652, 0.1693153, 0.06248253, -0.05978842, 0.1247244, -0.008300543, -0.09725289, 0.05375264, -0.04807617, -0.0832843, 0.07095949, -0.07488295, -0.004667968, 0.1399963, 0.07190745, -0.1639541, -0.003236711, 0.02536738, -0.114226, 0.1448316, -0.1395326, -0.08213551, 0.07798993, -0.06544451, 0.06396441, -0.06699055, 0.01932575, -0.04843104, 0.02220421, -0.0275801, 0.1389932, -0.1686336, 0.07589881, -0.0581889, 0.02143402, -0.168138, -0.02852601, 0.1641592, 0.1002182, -0.03948775, 0.04325192, 0.0754822, -0.1296197, 0.07056017, 0.07325022, -0.0630485, 0.04083028, -0.1410481, -0.0009678155, 0.1649829, -0.05211627, -0.04632638, -0.140938, 0.00727126, 0.03653099, 0.1125458, 0.03642279, 0.08429398, 0.02983075, -0.122971, -0.0912887, 0.1092057, 0.05459119, 0.06772092, 0.03545868, 0.1541665, -0.1250394, -0.03156063, -0.06255968, 0.09542046, -0.03494509, 0.02331044, -0.01168606, 0.03597769, 0.0891716, 0.0620272, 0.08996324, -0.06134185, 0.00276053, 0.08318554, 0.1150997, 0.1498494, -0.09417631, -0.1051061, -0.1675558, 0.0138994, -0.0499249, -0.1628423, 0.102612, -0.03284305, 0.09391124, 0.02722605, -0.136819, 0.1593133, 0.1520461, 0.1371864, -0.001476333, -0.1032314, 0.1183755, -0.01091753, -0.1350562],
    [-0.02450733, -0.1000981, 0.09788351, -0.07978813, 0.1477366, -0.02637319, 0.0153643, -0.023955, 0.02815233, 0.001294106, -0.1117565, -0.1023157, 0.1436098, 0.1137793, 0.0673207, -0.1394422, 0.02924658, 0.1561012, 0.02563103, -0.02629121, 0.1131181, -0.04518367, 0.07317981, 0.1219694, -0.1118453, -0.1029323, -0.09898426, 0.0009702146, -0.04524104, -0.04724123, 0.06000305, -0.08018027, -0.06646289, -0.09907366, 0.05703451, -0.08827321, -0.1485724, -0.1442065, 0.1311058, 0.1152997, 0.1541938, 0.06015639, -0.04727271, -0.03835906, -0.04986937, 0.1692306, -0.007600248, 0.147296, -0.1242217, -0.1663994, -0.1596978, 0.0972005, -0.1089829, -0.004820898, 0.03183825, 0.09416895, 0.1150126, -0.06174485, 0.1230854, -0.1434487, 0.1074778, 0.02961606, 0.06682026, 0.1617888, -0.08632977, 0.04734505, -0.1341965, -0.00827457, 0.08908276, 0.1355802, -0.07582331, -0.1198568, -0.0461598, -0.0412527, -0.1257705, 0.03870282, 0.1341405, 0.1189231, -0.0518287, -0.06562802, -0.07594177, 0.007390812, 0.1651789, -0.148307, -0.1626288, -0.03920305, -0.08004557, -0.03593287, 0.08509077, 0.161563, 0.1138224, 0.1368047, 0.02320728, 0.1466962, 0.01582079, -0.1148639, 0.1156167, 0.1371686, -0.09701266, 0.0135736, 0.05777317, -0.04372212],
    [-0.03993696, -0.1641762, -0.1403602, -0.08533122, -0.1515975, 0.09877475, 0.03070025, -0.06467356, 0.05134738, 0.1257584, -0.1096417, 0.06612782, 0.1686225, -0.1408217, -0.1515621, 0.1571317, -0.04407512, -0.02699049, 0.09230779, 0.1477009, -0.0488389, -0.01274504, 0.1228556, -0.1250715, -0.01171505, -0.01580647, 0.03908169, -0.166628, -0.1067561, -0.1356928, 0.1395033, 0.07188921, 0.01517679, -0.06315395, 0.1372108, -0.04233302, -0.1469436, -0.137778, -0.1423907, 0.1236431, -0.09749748, 0.1591724, -0.02756059, -0.02577679, -0.1200956, 0.02384879, -0.1648807, -0.05802735, -0.08467577, 0.1580177, -0.1400479, -0.1603934, 0.03144234, 0.08347948, -0.06808051, -0.1447688, -0.02337231, 0.1290766, -0.1181093, 0.07258574, -0.1542396, 0.1019913, -0.01046292, -0.0347579, 0.1189382, 0.09278704, 0.1439891, -0.1437246, -0.08514591, 0.1304315, -0.01583853, -0.03663459, -0.02358644, 0.1672791, -0.1007834, 0.02718724, 0.1079852, 0.104507, -0.0006779581, 0.005045906, 0.01866731, 0.0002820343, 0.1652719, -0.01231664, 0.100562, -0.1539431, 0.1290165, -0.03619154, 0.154855, 0.1181178, -0.1003767, -0.06547445, -0.06735614, -0.1396394, -0.002514213, 0.1316461, 0.1227664, -0.0789961, 0.1050151, -0.1479757, 0.0249681, 0.03762741],
    [-0.149917, 0.1515267, 0.06935273, -0.1103185, -0.0390902, -0.1226373, -0.05893712, 0.0703307, -0.09804298, 0.1419739, 0.07264258, -0.01757322, -0.109535, -0.0863757, 0.0337662, 0.1458902, -0.09591891, 0.009532422, 0.1196749, 0.1034518, 0.1585109, 0.1391418, -0.007982135, 0.02596369, -0.1310734, 0.1029632, -0.1257687, 0.05502852, 0.02887459, 0.002899989, -0.1562731, 0.1119387, -0.05504127, -0.06031011, 0.01553248, -0.1348055, -0.05356761, -0.05564851, -0.1127401, 0.1565244, -0.1543007, 0.06147569, 0.07746901, -0.1376248, -0.0873493, -0.08147262, 0.1688088, 0.1436529, -0.06168613, -0.08147494, 0.1397978, 0.1309225, -0.04016919, 0.02742043, -0.1626341, 0.002889201, -0.009167537, -0.03188139, 0.1360936, 0.07505172, -0.006985858, 0.1669318, 0.09496255, -0.02765121, 0.004442349, -0.04020886, 0.02696754, -0.01868834, 0.005497798, -0.06748919, -0.1712997, 0.04268663, -0.1510746, 0.01818818, 0.1211254, 0.05152827, -0.1383899, 0.0250814, -0.1150275, 0.0390029, -0.09184115, 0.0572569, 0.1545298, 0.1096239, -0.117477, -0.02095367, 0.02571864, -0.09128513, 0.09583323, 0.1329652, 0.1544055, 0.03513701, -0.01912747, 0.1546447, 0.1394303, -0.06584682, -0.08514468, 0.09190828, -0.08307491, 0.1598326, 0.0964116, -0.1205706],
    [0.06931324, 0.05562587, -0.1436251, -0.1379796, 0.09571265, 0.03162196, -0.1541683, 0.006359279, 0.1060274, -0.09317447, 0.1200774, 0.08732963, 0.1123466, 0.01796244, 0.1417493, 0.04805287, -0.1647095, -0.07397324, -0.1307541, -0.1676497, -0.05370634, -0.01015732, -0.08231946, -0.03089717, 0.104745, -0.1657028, -0.04112619, -0.06387354, 0.08198837, 0.1085179, -0.07605246, -0.04992539, 0.03841783, 0.1121795, -0.1205829, 0.1523142, 0.04864604, -0.1632202, -0.03746501, -0.01115783, -0.1019486, -0.03791064, -0.1228701, -0.0625338, 0.1517442, -0.04354103, -0.1291466, -0.1216736, 0.1620493, 0.03666265, -0.03853443, -0.1303284, 0.03677543, -0.1206284, 0.04857723, 0.05855855, 0.04523693, -0.1645946, 0.02731203, -0.1307812, -0.01080127, 0.005332574, -0.001466602, 0.1073713, -0.1397233, -0.1350876, 0.02355888, -0.07321867, 0.1654092, 0.05793332, -0.1106988, 0.123465, -0.03749023, -0.042128, 0.003564596, -0.0775986, -0.1607652, -0.01628131, -0.1512782, -0.04921254, 0.00136663, -0.06530215, 0.1275142, 0.02555992, -0.1467613, -0.0361672, -0.02518514, 0.07180069, 0.1384467, 0.1481384, 0.07126954, -0.1549098, 0.02792029, -0.1599158, 0.07015501, -0.07639743, 0.01275444, -0.05925862, 0.03578579, 0.1542892, -0.1047852, -0.1566199],
    [0.061523, -0.07962607, -0.002972737, -0.024196, 0.1527858, -0.08997147, 0.02281459, 0.05236203, -0.05212498, 0.02686025, 0.1631216, -0.06097377, 0.1280889, -0.03155383, 0.000947535, -0.1273532, -0.05979112, -0.09040828, -0.1202345, 0.0823694, 0.08952693, 0.1324206, -0.1661217, -0.07154307, -0.1561919, -0.003127739, 0.08086161, 0.06120322, -0.07270803, -0.03738199, 0.1232325, 0.1121591, -0.09296896, 0.00780423, 0.05998302, -0.03660777, -0.1198793, -0.06789492, 0.09241259, -0.1279591, -0.05459653, 0.105346, 0.08905713, 0.1134855, 0.02153875, 0.1021237, -0.09592609, 0.1696941, -0.06470342, 0.01679814, -0.1412769, 0.1599937, -0.1639112, -0.1672198, 0.148151, 0.1587479, 0.03763145, 0.09102766, 0.0002901703, 0.1630594, 0.1582187, 0.08262496, 0.04436412, -0.004410252, 0.1182065, 0.01358268, 0.07892774, -0.06937905, 0.07939669, 0.1462437, -0.1221089, -0.01254177, -0.1207247, -0.01643738, -0.07751577, 0.1415377, -0.08407848, -0.01800881, 0.1239577, -0.05386196, -0.01399863, 0.1322933, -0.1064305, -0.1551006, 0.02787045, -0.08863609, 0.02301528, 0.001091778, 0.09853698, -0.03114945, 0.07219301, 0.1457471, 0.1251418, -0.08532248, 0.09048572, 0.08329422, 0.1138295, 0.005577654, 0.08026198, 0.05544575, 0.163477, -0.1630609],
    [0.1517668, -0.07475264, -0.1683013, -0.1378741, -0.01835987, 0.1532514, -0.0009940118, 0.03902522, -0.0435521, -0.1490799, -0.08703257, 0.1035068, 0.09753759, -0.03521442, -0.06353298, -0.09459703, 0.06948391, -0.084785, -0.03179725, -0.07390654, -0.04716995, -0.1150941, -0.1604225, 0.06358068, -0.1408782, -0.1568991, 0.04815522, -0.06890339, -0.1293921, 0.07442041, 0.1164558, 0.1117744, -0.01138419, 0.001144454, -0.049648, -0.07269131, -0.02972768, 0.1033875, -0.02581601, 0.03275122, 0.03003864, 0.09268163, 0.0936643, 0.01400158, -0.01565064, 0.06798816, 0.132221, -0.1677697, 0.09844932, 0.1428233, -0.07528919, 0.08801807, -0.0154476, 0.004736006, -0.09292705, -0.1517411, 0.08834521, -0.1410804, -0.05294627, -0.1280679, -0.1447737, 0.08483313, -0.09427534, -0.161333, 0.122849, 0.1705262, 0.1611565, 0.1190604, 0.06235271, -0.01784252, 0.07446109, -0.1382573, 0.1549737, -0.1542546, 0.1543462, 0.05537465, -0.03673501, 0.1578517, 0.1157724, -0.01622677, -0.1430513, -0.1077804, 0.05442395, -0.05553079, 0.02715813, -0.04691318, 0.0773005, -0.05184539, -0.1204683, 0.01698938, -0.08757557, -0.06271988, 0.04932933, -0.008386731, -0.03180428, 0.05643006, -0.05284944, 0.1229409, -0.1641802, 0.1500669, -0.08616705, -0.1291129],
    [-0.1368086, -0.05679326, 0.09373526, -0.1554302, -0.0141076, -0.0565667, -0.1665943, -0.02021249, 0.1672401, -0.09446602, -0.05924346, -0.08556826, -0.07632419, -0.04211843, 0.1490487, 0.013134, 0.1423974, 0.08162156, 0.1522803, -0.08510529, 0.07847613, -0.01982957, 0.06382707, 0.1636877, 0.1342532, -0.07035878, -0.04593717, -0.09569397, -0.08001025, 0.1119314, -0.1446978, -0.01595818, -0.06269604, -0.01386189, 0.1149719, -0.04007782, 0.1473356, -0.04629201, 0.07908684, 0.1499566, -0.095277, -0.1645536, -0.1678218, -0.143186, 0.06124815, -0.05748088, 0.0217925, 0.04320261, 0.09823167, -0.02766073, 0.08909879, -0.1346919, 0.1336273, 0.09415738, -0.1528455, -0.04188427, 0.04134069, -0.1389751, 0.05753564, -0.1232212, -0.04970619, -0.1659603, -0.1369662, -0.1018586, 0.1095758, 0.09825779, -0.08590655, -0.1286635, 0.1117611, -0.1250519, 0.1499474, -0.1537424, 0.01457483, 0.1301583, 0.1135262, -0.004057869, -0.02974944, -0.007396653, 0.01143193, -0.1091881, -0.09660329, 0.1525629, -0.09389009, -0.09782512, 0.1623421, -0.0131966, 0.1620081, 0.06063903, -0.09778072, 0.06029496, -0.00369592, 0.03126672, -0.09109549, -0.1079118, 0.1680118, 0.04104756, -0.1331974, -0.1421233, 0.03651401, -0.1427189, -0.1660508, -0.1510952],
    [0.08933844, -0.1231482, 0.0718594, -0.05099073, 0.1644836, -0.02058879, -0.0574211, -0.05874556, -0.01142785, 0.04099438, 0.1004791, -0.04668665, 0.09656395, -0.01458889, -0.1114835, -0.02453195, 0.04212952, 0.05485409, 0.1214707, -0.1495969, -0.1312715, -0.0981016, -0.09502496, -0.1657042, 0.06068278, -0.03966533, 0.131778, -0.05312728, -0.07317448, -0.05647433, -0.14908, -0.1646152, 0.08187653, -0.01690952, 0.07498209, 0.01674466, 0.1103506, 0.01953653, 0.002043128, -0.1707776, -0.1036164, 0.1280326, 0.1242418, 0.1249952, -0.03635348, 0.07210281, -0.03755684, -0.01426511, -0.01214479, -0.1062012, 0.01387866, -0.1290842, 0.06869198, 0.004142225, 0.163595, -0.1440613, 0.1507751, 0.1193872, -0.1378704, 0.1404533, -0.09265168, -0.1621572, -0.133399, -0.1228945, -0.05607203, 0.1004296, 0.143089, -0.1561471, 0.01617083, 0.07504939, -0.1443861, -0.06100391, -0.02324048, -0.150517, -0.07962374, 0.0817254, -0.05120773, -0.02498025, -0.1242817, -0.05506225, 0.03224646, -0.04741717, -0.1605156, -0.04258293, 0.05540433, 0.03743127, 0.07422137, 0.04068263, 0.00303027, -0.1369482, -0.1074465, -0.0646528, -0.0742673, -0.1128781, -0.0461417, 0.1227667, 0.01236145, -0.1385326, -0.1324904, 0.1401794, 0.009181157, -0.05936396],
    [0.07163562, -0.09796865, 0.0623061, -0.1598784, -0.04372074, 0.06783998, 0.09287803, -0.08671676, 0.1367812, 0.02090415, -0.01871549, 0.04074843, 0.03425051, -0.1440964, 0.06584381, -0.004851311, -0.1482752, -0.06407169, 0.06694436, 0.09306799, -0.03920485, 0.005156711, -0.1278446, -0.05428112, 0.1690064, -0.083327, 0.02134685, 0.09987972, 0.07224874, -0.1426777, -0.08564578, 0.05098454, -0.0341135, 0.1367685, 0.07765403, 0.06606039, -0.07497807, -0.05330118, -0.04283966, -0.1526987, 0.04755845, -0.120514, 0.1607807, 0.1338667, -0.09031849, 0.07145628, 0.1560933, -0.03209043, 0.04419771, -0.01749419, 0.1643657, -0.05150528, 0.07001721, 0.07516196, 0.1364702, 0.06941693, 0.05829371, 0.1505205, 0.09492588, 0.1031195, 0.1006539, 0.1070307, -0.1006042, -0.1133593, 0.1621339, 0.06254628, -0.02043733, -0.0842335, 0.1370708, -0.08145855, 0.1333139, -0.1015053, -0.05528975, -0.09926129, -0.08004954, -0.1155663, 0.1439564, -0.03796618, 0.1272659, -0.1142489, -0.09119698, 0.09867834, -0.0971893, 0.008019716, -0.01260577, -0.02104419, -0.09543417, -0.07238296, 0.07766282, -0.03421147, -0.1520144, -0.02701338, -0.0932764, 0.06832173, 0.006127119, 0.1661857, 0.08203506, 0.0370876, -0.1036242, -0.06032994, 0.03502494, 0.006019741],
    [0.1566055, 0.08464526, -0.09138907, -0.01390855, -0.114537, 0.09248169, 0.01848614, -0.03634532, -0.00680615, 0.1297051, -0.1620857, 0.07114717, -0.04206896, 0.07955416, 0.1534073, -0.07389215, -0.01011921, 0.1057102, 0.1648711, -0.05589253, 0.01153216, 0.13074, -0.02626443, -0.1198749, 0.1409194, 0.1600888, 0.04131481, 0.045842, 0.1387729, 0.05143407, 0.03488551, -0.08220519, -0.1360821, 0.1391865, 0.04157159, -0.05958843, -0.01005781, -0.03604142, -0.08478861, -0.03286296, 0.07056471, -0.07926179, -0.06442447, -0.03436059, 0.09735212, 0.04953034, 0.005631506, 0.1015499, 0.003466055, 0.05733071, 0.00376156, 0.03820296, 0.05895872, -0.1221466, 0.1466627, -0.1146427, -0.07026723, -0.1032518, 0.1404456, -0.08039387, -0.0732336, -0.1507403, -0.1135815, -0.03150523, -0.1658506, -0.04601268, -0.01038028, 0.1020215, 0.06956445, -0.1631993, -0.1285106, -0.1671915, -0.141141, -0.03898486, -0.006251872, 0.006025746, 0.104023, 0.1173057, -0.1291979, 0.1006259, 0.133003, -0.09785889, 0.01385629, 0.06011235, 0.1498986, -0.1161549, 0.01352486, -0.05878068, 0.08356404, 0.02527006, -0.1261564, 0.1359203, -0.02309079, 0.1016879, 0.1359918, 0.03178498, -0.07819819, 0.0915514, -0.001097992, -0.1487093, -0.0002556145, -0.06958485],
    [-0.02854486, -0.1712223, -0.1211476, -0.1669682, -0.1435009, -0.005056247, -0.09079926, -0.1129916, -0.08225094, -0.1081026, 0.1131477, -0.1454798, -0.1418561, 0.05649364, -0.09150429, -0.125094, -0.141305, 0.09519427, -0.1152153, 0.1595957, -0.09290485, 0.06049519, 0.04507624, 0.03123797, -0.09536757, 0.1657233, -0.0312805, 0.1594476, -0.0009352267, -0.03942703, 0.1238287, 0.08302681, -0.05637121, 0.1116551, -0.09262018, 0.08929709, 0.07715453, 0.0945666, -0.1271936, 0.1081381, -0.07858263, -0.04555322, 0.02945434, -0.1346687, -0.07347885, -0.03081851, -0.04015064, -0.05638912, 0.1141177, 0.07922374, -0.01213433, 0.1654246, -0.05529875, -0.01417106, 0.03927435, -0.1006404, -0.1073171, -0.1146853, -0.01220964, 0.06440903, -0.1627903, 0.01575516, 0.126643, -0.1462145, -0.149596, 0.002324894, 0.143226, -0.1339631, -0.09661646, -0.1115433, -0.06255305, -0.06468141, 0.1212336, -0.1437375, 0.01837288, 0.0575982, -0.1328039, -0.1490804, -0.01366539, 0.1580503, -0.1232772, 0.02383243, 0.01455386, -0.1610818, -0.01855233, 0.1664262, -0.146165, -0.161252, -0.009360209, -0.1206485, 0.03050342, 0.1152815, -0.1365595, 0.1615419, -0.02527273, 0.04663899, 0.04733717, -0.131064, -0.1124653, 0.005140841, -0.008587569, 0.1159298],
    [0.01168908, 0.07808785, -0.055638, -0.08793612, -0.1514495, -0.1467453, -0.122946, 0.01469852, 0.04923766, 0.1495789, 0.04324067, -0.01802295, -0.05441968, -0.1440098, 0.1206499, 0.00893496, 0.123671, -0.05210446, -0.03492019, 0.02954896, 0.08835912, -0.1613062, -0.1680689, -0.05446899, 0.1607397, 0.02289854, -0.03533843, -0.009150937, -0.1037877, 0.140882, 0.0542505, -0.08964984, 0.1174341, 0.06897178, 0.03586741, -0.03667393, -0.1121678, -0.03357586, 0.1279554, -0.1028039, -0.1226473, 0.0868365, 0.1227369, 0.1470861, 0.01162854, 0.1623226, -0.1141421, 0.07303764, 0.1181316, 0.1271192, -0.1561428, 0.01868077, 0.118857, -0.1092157, 0.02906129, 0.01905011, 0.03545386, 0.05589618, 0.03295758, -0.0727997, -0.08282109, -0.02686267, 0.1118666, -0.07398722, 0.0177183, 0.02025366, -0.01754133, 0.003599435, 0.02773061, -0.07725585, 0.1574398, 0.01222497, 0.1460627, -0.05065815, 0.1635484, 0.06578285, -0.1664385, -0.04478113, 0.1622439, -0.08839972, -0.04628938, 0.04804593, -0.09098379, -0.01656242, 0.04594127, -0.09455912, -0.07615823, 0.1533976, -0.04615816, -0.08113416, -0.1550906, -0.1075666, -0.1487565, -0.02395643, -0.1304211, -0.11561, 0.0616159, -0.1111468, -0.02541146, 0.1521616, 0.09641038, 0.1086408],
    [0.004463404, -0.0324026, -0.05547039, 0.0621573, 0.1361753, 0.1092413, -0.0824977, 0.002450585, -0.1553514, 0.02616638, -0.1260021, 0.09750361, -0.01581964, 0.1562526, -0.05828974, -0.1441437, -0.01821382, 0.08848946, 0.1521734, 0.007944077, -0.05683598, -0.03306933, 0.05465223, -0.01181985, 0.05631815, -0.05564642, -0.03889973, -0.00372614, -0.05791626, 0.01446177, -0.1553234, -0.1420437, -0.04638305, -0.03229743, -0.0013455, -0.04455088, 0.01701571, -0.01618837, -0.1528702, 0.06456134, 0.05484265, 0.09156162, 0.08303335, 0.1059149, -0.03400056, -0.06569909, 0.1312956, 0.07165991, 0.1354032, 0.1025407, 0.06116454, 0.1316146, -0.148872, -0.02336136, -0.004833773, 0.03113498, 0.07263424, -0.0196044, -0.1379725, 0.1168115, -0.06591187, -0.08364041, 0.01727052, -0.1414408, -0.0643557, -0.160583, 0.03567646, -0.1428293, 0.06360255, -0.02624685, 0.0005605221, -0.05565181, -0.06591903, 0.1297215, 0.04356067, 0.00848192, 0.1220694, -0.09636647, 0.02770562, -0.06307082, -0.1074638, -0.03952529, -0.1641978, -0.032592, 0.1010838, -0.1525248, -0.03981376, 0.1115838, 0.0333551, 0.04397319, -0.03586307, -0.111646, -0.144452, -0.151642, -0.06855986, -0.05959404, -0.1367213, -0.04913162, 0.03821698, -0.04987517, -0.1172811, 0.09927784],
    [-0.02854012, 0.004420519, 0.09868781, -0.1439095, -0.1061362, 0.08788595, 0.1094569, 0.1271336, 0.1513204, -0.09832163, 0.07276083, -0.01400395, -0.1091229, -0.1119141, 0.1443402, 0.1344502, -0.05634287, 0.04089108, 0.08182183, 0.1418771, -0.1020366, 0.1390438, 0.07272714, 0.0901313, -0.07860835, -0.1243205, 0.1502897, -0.05678381, 0.07945047, 0.05331305, -0.07865201, 0.1022345, -0.07885168, 0.01170859, 0.1063762, -0.03086095, -0.1328643, -0.09902413, 0.09455968, -0.09227015, -0.1392281, -0.1307488, -0.0473551, 0.05634906, -0.07407178, 0.1468097, -0.02540381, -0.09415392, -0.1682455, -0.01700152, 0.04463452, 0.01100597, -0.1039553, -0.03157331, -0.04136522, 0.170415, -0.1282162, -0.1491717, -0.1061481, -0.04951324, -0.0506687, 0.1491717, -0.07645094, 0.05272814, -0.1136193, 0.02690794, -0.06319717, 0.1051739, -0.04598145, -0.05686305, 0.07987742, 0.002313495, -0.1486094, 0.1590942, -0.1460747, -0.1027123, 0.09062417, -0.03564857, 0.01175725, -0.08135916, -0.1388884, -0.06149788, 0.08280919, 0.02075274, -0.08844401, 0.1380057, -0.07787092, 0.04072145, -0.00223498, -0.09131716, 0.05768149, 0.06340866, 0.1680322, -0.1633043, 0.03779669, -0.02629758, -0.1677097, 0.1466064, -0.06111696, -0.1521317, 0.1547325, -0.05150151],
    [-0.01454097, 0.04132904, -0.07561919, 0.1318155, -0.1041245, 0.1616081, -0.05436596, 0.00212042, 0.09666176, -0.1012835, -0.1288487, 0.0501617, 0.0545137, -0.05097442, -0.05502446, 0.01904279, -0.1209238, 0.1106143, -0.08953666, 0.1577702, 0.1695386, -0.09269081, 0.07141539, -0.1218699, -0.007912874, -0.03905316, 0.08128349, -0.1165275, -0.03571208, -0.07451361, 0.1057695, 0.1687806, 0.1412313, 0.1570713, 0.05817011, -0.1019191, -0.1101529, -0.1449827, -0.1478183, 0.1054793, -0.01500796, -0.1559838, 0.05489895, -0.1373413, 0.06839954, -0.04003778, 0.06994782, 0.1174369, -0.02884841, -0.02185576, 0.1476279, -0.1562522, -0.06409945, 0.01095554, 0.07348631, -0.1068321, 0.1575485, -0.1052888, -0.09443518, 0.1233628, 0.05671763, 0.1629391, 0.1420428, -0.06902364, -0.1156458, 0.1574242, -0.05769493, -0.06585659, 0.1175746, -0.08688132, -0.04895453, -0.09140302, -0.1625655, -0.08023207, -0.003808334, -0.07782677, -0.1089912, 0.1572602, 0.08109249, -0.09433447, 0.0893828, 0.02292363, -0.008169577, -0.08977275, 0.08018813, 0.08760108, 0.03037874, 0.06070859, 0.1482209, 0.1550758, -0.003277972, 0.1582154, -0.02602179, -0.1248047, -0.01441549, -0.01685223, -0.04757762, -0.02203341, 0.1114878, 0.03199299, 0.1452604, -0.005096227],
