{
"layers": [102, 102, 60, 15],
"fitness": 57.31907,
"weights": [
  [
    [-0.1314577, -0.08010177, -0.04049633, 0.08045181, 0.02909492, 0.06632517, 0.08456344, 0.1369668, -0.01876685, -0.1368552, -0.1360085, 0.1114677, 0.03109109, 0.08688966, -0.02572845, 0.101513, -0.01608915, -0.06889188, 0.03170796, 0.04292652, -0.07035978, 0.106413, 0.008758351, 0.01488781, 0.1355974, -0.03980629, 0.0911518, 0.1176777, -0.03422397, -0.04055549, 0.09547222, 0.09169929, 0.1000434, -0.02462584, 0.0538171, 0.02429716, -0.1034776, -0.06698768, -0.005719185, -0.1077234, -0.02959369, 0.1168664, 0.02547943, 0.1312854, 0.03400446, 0.1072353, 0.1138938, 0.1356284, 0.02718392, -0.4587263, 0.1048679, 0.06531957, 0.1177919, 0.04602748, -0.08675773, 0.1167201, -0.09005162, 0.08486942, 0.1049088, -0.1241292, 0.02031299, 0.1124712, -0.08635961, -0.0293607, -0.0677551, -0.04244243, -0.1367679, 0.01050316, 0.1188249, 0.1148948, -0.136729, 0.005541712, 0.0815661, 0.02318643, -0.003344193, -0.006072164, -0.02116348, -0.1013175, -0.254997, -0.1313765, 0.08223609, -0.0578071, 0.1202437, -0.1257132, 0.1389456, -0.1055735, 0.5209781, 0.04158827, -0.02250073, -0.05751665, 0.1091816, 0.07215644, -0.08049765, -0.07530147, -0.0576254, -0.0219478, 0.03955297, -0.08967337, -0.1158003, 0.1514608, 0.6073859, 0.1159327],
    [0.08742362, 0.1153387, -0.09422521, -0.2539268, -0.0987584, 0.0315478, 0.06822118, 0.1051409, 0.1316508, 0.0794343, -0.03488977, -0.07295762, -0.1156255, 0.08467765, -0.08017164, 0.005351782, -0.1045018, -0.07176442, 0.07710958, -0.01318179, -0.01785116, 0.0141717, 0.124444, 0.1393275, -0.1138926, -0.6612852, -0.01668047, -0.05709105, 0.08928099, 0.09049384, 0.06756303, 0.01766033, -0.1358662, -0.01367028, 0.1020337, 0.1053458, 0.08608921, -0.1165683, 0.08141294, -0.1239294, 0.01338004, -0.1131788, -0.04056871, -0.03823929, -0.05880854, 0.1085476, -0.08553857, -0.03166996, -0.07346678, -0.1073934, -0.1153478, 0.02243693, 0.1177538, -0.003057025, -0.09976086, 0.05154366, -0.08902709, -0.134866, -0.06752732, -0.06129916, 0.03538112, -0.06470761, -0.04741546, 0.06832561, 0.05850733, -0.5658054, 0.09508729, -0.4827134, 0.1205081, 0.00240095, -0.01586691, 0.1111309, 0.06698199, 0.1191787, 0.09054542, -0.01640911, 0.0750885, 0.04537603, -0.1069789, 0.09682322, 0.07780369, -0.1108107, 0.1297028, 0.1366776, -0.08854668, -0.08289352, -0.09587722, 0.05676412, 0.002039149, -0.01562226, 0.1126753, 0.1145331, 0.09116635, -0.02031647, -0.2612717, -0.1274328, -0.08504379, 0.009442508, -0.09841985, 0.04120761, -0.4169863, 0.1171658],
    [-0.09026168, 0.118218, -0.5567583, 0.1063204, -0.1191282, -0.006744951, -0.04578616, 0.02648005, -0.048276, 0.09747501, -0.1215223, -0.06887268, 0.09649615, 0.1094175, -0.02564095, -0.04136041, 0.12901, -0.07298076, 0.01505501, -0.06150709, -0.02745277, 0.1091835, 0.0379018, -0.05521763, -0.07864124, -0.04245277, 0.1359356, 0.1001375, -0.6792645, 0.05623212, -0.1490695, -0.03290769, 0.0104626, 0.1261148, -0.07088159, 0.05735013, 0.04071255, -0.09976213, -0.0003794134, 0.3338978, -0.1026106, -0.006954163, -0.09088905, 0.02246517, -0.007096156, 0.03115459, 0.6193628, 0.1301847, 0.1603833, -0.05635437, 0.07784015, 0.1382808, -0.02840655, 0.1235411, 0.0183273, -0.0128181, 0.005396217, 0.1210596, 0.06335744, -0.05924356, -0.0932527, -0.04973838, -0.1073922, -0.01135232, -0.07534884, -0.04029822, -0.06188087, 0.07198116, -0.1216735, -0.03004013, 0.2739896, 0.07651649, -0.02951551, -0.1117779, 0.0233409, 0.03701032, -0.1060791, 0.08751564, -0.1074937, -0.08190508, -0.06639139, 0.004155755, 0.1086096, -0.1042251, -0.006461501, -0.1292432, -0.2844166, -0.7314773, -0.05173258, -0.4245248, 0.05010533, 0.1394541, -0.07617055, -0.1034621, 0.08549897, 0.008731708, -0.08616367, 0.1174018, 0.09257819, -0.01588473, 0.0328298, 0.7559679],
    [-0.1101035, 0.4773111, -0.01259044, -0.05781631, 0.01158227, 0.02823384, 0.01816952, 0.09236845, 0.02636347, 0.1205191, -0.0202546, 0.02806272, -0.002909358, -0.06223579, -0.002162814, -0.4962316, 0.038498, 0.1159563, -0.05064836, -0.03011124, 0.02632752, 0.1097849, -0.1310885, 0.01771398, 0.04201908, -0.05529626, -0.06187293, -0.04975587, 0.001056224, 0.05048282, 0.03032367, -0.3150591, -0.1042291, -0.1111377, -0.07565746, 0.003002152, -0.09580778, -0.02390688, -0.05106347, -0.1227364, -0.07326868, -0.0108135, 0.1012579, -0.4860537, 0.09532915, 0.1385087, 0.0006312728, 0.02541032, -0.118375, 0.06683322, -0.0764237, 0.2945113, 0.1331491, 0.007490739, -0.06155316, -0.003480569, -0.003967527, -0.08749949, -0.1126784, -0.08709352, -0.07338496, -0.01179525, 0.1147198, 0.06598624, -0.07438114, -0.06839059, -0.03123762, 0.7404933, 0.009884134, -0.001228094, -0.02630376, -0.08949235, -0.05763007, -0.04469827, -0.134986, -0.07311442, -0.03617784, 0.09457713, -0.0008371335, 0.0559753, 0.06493934, 0.03922076, -0.006905088, -0.05884627, -0.008703724, -0.08787318, 0.110227, -0.0967932, -0.052324, -0.1105351, 0.07273948, 0.1004116, 0.1311547, -0.1010979, 0.1376739, -0.1161243, -0.1178063, -0.5211643, -0.04138508, -0.6074437, -0.09193845, -0.04057488],
    [0.0781961, -0.02047338, 0.04944516, -0.05539417, -0.09549853, 0.1060807, -0.04314569, -0.1050681, -0.08961634, -0.02924101, -0.1209401, 1.020249, -0.1164227, 0.05127181, -0.0940696, -0.05670458, 0.09537019, 0.05968998, 0.02122511, 0.02637826, 0.1326441, -0.09801327, -0.06472765, 0.05755455, -0.1307277, -0.06363937, 0.01941419, -0.05622794, -0.02502583, 0.03589388, -0.0735683, -0.08060642, -0.08061317, -0.1049698, 0.07197666, -0.03382962, 0.03774877, -0.09188099, 0.02445701, -0.05192514, -0.05088172, -0.06839404, 0.09601867, -0.117485, 0.09656485, 0.03399107, 0.0895877, -0.03065698, 0.1369958, -0.005199045, 0.0782975, 0.08029146, 0.1017721, 0.1009569, 0.03931313, -0.5689884, -0.07533352, -0.1110273, 0.04401775, -0.03537913, -0.1118457, -0.3917678, 0.05710335, -0.1281004, 0.1276974, 0.05246413, -0.1358838, 0.1217756, -0.1194623, 0.01095162, -0.09683251, -0.1148558, 0.02851726, 0.04154387, -0.02576344, 0.02950118, 0.1154049, 0.06924414, -0.104644, -0.1257885, 0.6903065, -0.02928368, -0.02577823, 0.08078232, -0.06460591, 0.06232634, -0.02444352, -0.107362, -0.04447936, -0.06788585, -0.07034032, -0.05446927, 0.1360843, 0.03531174, -0.047766, -0.4824421, 0.05130125, 0.06069457, -0.09862716, 0.05379079, -0.5381678, -0.1144537],
    [-0.08695841, 0.1156303, 0.08728117, 0.02274604, -0.1326102, -0.08502661, 0.06728071, 0.1170006, -0.1064888, -0.07456519, -0.1446458, -0.02045761, 0.71236, 0.1293958, -0.05013947, -0.08034432, 0.108297, 0.1222632, -0.01296429, 0.03502406, 0.05470068, 0.1091919, -0.05327311, -0.08853105, 0.09146976, 0.1008457, -0.1060635, 0.02963573, -0.07387154, -0.1162627, -0.1217725, -0.04805793, -0.02081634, 0.05251501, 0.01544488, -0.06296332, 0.1303373, 0.05446768, 0.02140362, -0.04652531, -0.1054615, 0.5068318, 0.06524372, -0.1295588, 0.4595969, -0.1125036, -0.07711762, 0.01194574, -0.1307192, 0.1333651, 0.1205893, 0.05505402, -0.007416785, -0.07436234, -0.02073251, -0.05361187, -0.009469688, -0.09535594, 0.02819742, 0.01368575, 0.0393775, -0.02029997, 0.06452336, -0.03804665, 0.4662445, 0.09324506, 0.04761281, -0.01911372, -0.09727719, -0.08483025, -0.00392279, 0.02193468, 0.1286088, -0.1228564, 0.1299949, -0.09024428, -0.02860359, 0.004729509, 0.05337077, -0.137573, 0.041453, 0.09586233, 0.01303801, 0.1004071, 0.09176663, -0.1897461, 0.02360782, -0.1162854, -0.1378161, 0.1199621, -0.005494937, -0.009846509, 0.01104216, -0.05821159, -0.4181135, 0.05278903, -0.107564, 0.1143037, 0.1108349, 0.03714903, 0.08889298, 0.01507454],
    [-0.1111412, 0.08237343, -0.1227443, -0.02164973, 0.01749541, -0.03524305, -0.03309211, 0.006366983, -0.1329088, -0.1121385, 0.09866729, -0.1356597, -0.07217219, -0.01974113, -0.07018541, 2.165139E-05, -0.05291195, -0.03455478, 0.01751317, -0.006301895, 0.1012369, 0.02335222, 0.004110485, 0.02300535, -0.05062415, -0.0308198, 0.04888993, -0.01641275, 0.3018718, 0.4299254, -0.110429, 0.09478432, 0.1096228, 0.006178826, 0.0909806, -0.0793701, 0.02294135, 0.1002678, -0.08313562, 0.08471969, -0.07451284, 0.1106803, 0.1239413, -0.1254598, 0.007982507, 0.04989905, -0.09861831, -0.1161605, 0.0006624758, 0.0564302, 0.02384645, 0.1186268, 0.0607767, -0.1162198, 0.06275387, -0.04191437, -0.08524039, -0.07761557, -0.04996333, -0.07741246, -0.1210582, 0.03653812, 0.09114432, 0.02974463, -0.04178734, 0.07052597, 0.01510723, -0.0363868, 0.1016339, 0.09270078, -0.1034683, 0.07068308, 0.09043302, -0.1033904, -0.08130524, -0.09678166, 0.1287854, -0.08132571, 0.0455922, 0.04982155, -0.0866528, 0.1220479, 0.4083139, 0.026037, -0.01233411, 0.08598222, -0.07739893, 0.03435618, 0.1168235, -0.09334064, 0.006065622, -0.09313612, 0.108865, -0.1324993, -0.02092294, -0.02155142, -0.009820163, -0.1162795, -0.1297875, -0.05922744, -0.02688178, 0.2729751],
    [-0.5809433, 0.137903, 0.1362746, -0.3551722, 0.1154255, -0.0586218, -0.1482147, 0.03428787, -0.3129892, 0.124814, -0.07956821, 0.02058612, 0.01019648, -0.09313225, 0.4625289, -0.07015177, 0.004463732, -0.0001462847, 0.113507, 0.1193252, 0.04660765, 0.1265423, -0.1149042, 0.12772, -0.06754188, 0.1233067, -0.08960442, -0.01110277, 0.04940471, -0.08185952, 0.07485454, 0.04193441, -0.1157624, 1.075017, -0.1154609, -0.1093831, 0.02034456, -0.05558609, 0.01263754, 0.02143964, -0.02210926, 0.009288043, -0.02379674, -0.06247299, 0.1370798, -0.09706236, -0.07929186, 0.06638262, -0.07792786, 0.1362052, -0.007971615, -0.04760149, 0.008840363, 0.0001479512, -0.09456915, 0.07432988, -0.4263113, 0.130151, -0.01649178, 0.137899, 0.0865292, -0.2975056, 0.1269578, 0.03588242, -0.006538495, -0.03178033, -0.07417297, -0.0336182, 0.03150664, 0.1218752, -1.141334, -0.09297383, -0.001468629, -0.08056653, -0.0496695, -0.03975671, -0.01572028, 0.1109971, 0.09076791, 0.1372115, 0.05055969, -0.1022347, -0.05379783, 0.1088052, -0.0520358, 0.3240014, -0.1314291, 0.01534949, -0.06994538, 0.01752162, -0.08708704, -0.04740839, 0.01697593, 0.07751358, 0.1240868, -1.128014, -0.1283386, -0.09484547, 0.1041797, 0.1369586, 0.8243169, -0.016121],
    [-0.01814772, -0.03825441, -0.0460434, -0.09599797, 0.1305195, -0.01537915, -0.004382402, 0.0003980398, 0.1156458, -0.04543929, 0.1027684, -0.1117693, -0.06045685, -0.1116619, 0.05198395, -0.1143099, 0.8719128, 0.02366027, 0.02909996, -0.1012436, 0.08371475, -0.04988821, 0.1281724, 0.07959618, 0.08143391, 0.05632674, 0.07847333, 0.02651711, 0.06883414, -0.06496119, 0.02267109, -0.04707132, -0.0351679, -0.01679395, 0.1370499, -0.1252547, -0.05138848, -0.1021722, -0.02555117, -0.1312849, -0.07432678, 1.199785, -0.0407172, 0.01320463, -0.007174075, 0.1294325, 0.07649852, -0.1314501, -0.07222976, 0.01188491, -0.09278139, -0.04393825, -0.00520736, 0.06802908, 0.0559176, 0.0819629, -0.02708563, -0.1149559, -0.08429423, 0.04796005, -0.06883302, -0.04974081, 0.12537, -0.1111778, -0.08264175, 0.1722423, -0.1109213, -0.06022713, 0.09513529, 0.09244848, -0.01760611, 0.1215605, -0.09454899, 0.06327071, -0.137197, 0.04778094, -0.3905081, 0.07885954, 0.04152137, -0.06198844, -0.03763414, -0.5511593, 0.01630362, -0.1280561, 0.1347195, -0.0249919, 0.0205958, -0.128228, -0.09404834, -0.1178558, 0.1079829, -0.3576587, -0.06293471, -0.07541141, -0.01417644, -0.1171805, -0.06878872, 0.01428932, 0.02687857, 9.717047E-05, -0.04665354, 0.09461452],
    [0.07448229, -0.008591086, 0.0876197, 0.0837471, -0.1081683, 0.6014305, 0.1221196, -0.05163826, 0.02864866, 0.06231533, -0.09588346, 0.01136626, -6.258488E-06, -0.0247112, -0.003826708, 0.006375298, -0.1039311, 0.00462231, -0.07563224, -0.06980704, 0.139344, -0.017042, -0.04542339, 0.09399425, -0.1291622, -0.06510952, -0.03045547, -0.1164987, 0.05027997, 0.1397301, 0.06827463, 0.03844839, 0.037021, 0.08250304, -0.1145533, -0.05987852, 0.01396368, 0.1042061, 0.0129704, 0.3869403, 0.06991255, 0.1117794, -1.300308, 0.04677948, -0.09847879, 0.03438582, -0.09997316, -0.1019158, -0.03358087, 0.1048021, -0.1186949, -0.1238989, -0.09954493, -0.1099494, 0.122073, 0.02421566, -0.06162474, -0.1009752, 0.05880633, 0.05887757, -0.04134094, 0.05810584, -0.09623861, 0.2526904, -0.02525869, -0.07619072, 0.3644298, 0.01063296, 0.1135622, 0.104875, -0.01393621, -0.1386129, 0.02390178, 0.05857847, -0.1313446, -0.1011674, 0.03730621, 0.006536022, 0.01151106, -0.05090523, -0.09791368, 0.03415256, -0.07368852, -0.7203744, 0.05599198, -0.03486867, 0.1155584, -0.08802627, 0.06772708, 0.03313053, 0.1060676, 0.05858609, 0.0570925, 0.08164106, -0.06219256, 0.07397714, -0.0378882, -0.02412085, -0.06674357, -0.03823708, 0.0229076, -0.06982313],
    [0.1275377, 0.0942422, 0.008502841, -0.03019032, 0.08711024, -0.007316336, 0.07136284, -0.06340097, 0.1386609, -0.01672157, -0.07917997, 0.02377548, -0.02834098, -0.0440757, 0.1068942, -0.007431611, -0.1252504, -0.1024776, 0.1302747, -0.1010061, -0.07315597, -0.09005846, 0.1180209, -0.1791857, -0.7435523, 0.1275056, -0.05748296, 0.1038891, 0.1390711, 0.07648414, -0.08164725, 0.1367636, 0.004883409, 0.1078423, -0.04648231, -0.1269471, 0.1299081, 0.08830244, -0.1013464, -0.09032017, 0.04847305, 0.03588654, 0.5515162, -0.0911745, -0.04638392, 0.02860062, 0.1308397, -0.09995814, -0.02648532, -0.002313316, -0.1107367, -0.06948413, 0.08625093, -0.02614296, 0.115394, -0.01379421, 0.08010811, -0.06703649, 0.1092831, 0.1311608, 0.05494305, -0.1334606, -0.02742109, 0.1324271, 0.06858201, -0.1189349, -0.1237297, -0.08769628, 0.03967383, 0.008146062, -0.07716914, 0.003819361, 0.08331811, 0.379459, -0.1022357, -0.009044021, -0.7217304, -0.1311122, 0.1122239, -0.05440877, 0.09649745, -0.3562468, -0.05396502, -0.04069564, -0.09220654, 0.03622336, 0.1078642, -0.02598709, 0.07968475, 0.1178467, 0.1143977, 0.06904693, -0.1619416, 0.02186427, -0.3918855, 0.08430314, 0.04058244, -0.1343298, -0.006616414, 0.0263202, 0.1050093, 0.008650109],
    [0.1244891, -0.04425174, -0.2684738, 0.8888696, 0.1356265, 0.06828041, -0.005416483, -0.1026813, -0.7818769, 0.03630021, -0.07243718, -0.0363438, -0.1196363, 0.09802796, 0.1036275, 0.001394093, -0.1390023, 0.08536215, -1.005367, 0.04564218, 0.1070039, -0.02651067, 0.2640081, -0.1036311, -0.06470075, -0.06602187, 0.02502923, -0.02459238, -0.09296621, 0.1381819, -0.1325964, -0.08945869, 0.002853826, 0.05208157, 0.139709, -0.07272603, 0.006482303, 0.09609365, -0.09107271, 0.0399352, 0.1388636, 0.02460717, 0.4639857, 0.0820535, 0.0004161298, -0.03288869, 0.1168265, 0.02722625, -0.5627703, -0.2388851, 0.04329894, 0.02863023, 0.0883024, -0.02504632, -0.07370421, 0.1328481, -0.1270123, -0.08818983, -0.01054142, 0.06143853, 0.7940357, -0.1120906, 0.09398608, -0.05472504, -0.02784331, 0.1152353, 0.02917798, -0.03958531, -0.2131205, 0.03893057, 0.06265251, 0.1241548, -0.02716325, 0.004936337, 0.1223521, 0.09878778, 0.06265111, 0.01897481, 0.09377391, 0.1243812, 0.05724123, 0.07681669, 0.07425991, 0.2762318, -0.008913726, 0.1077652, 0.1389663, -0.004054695, -0.0483401, -0.01761049, -0.03902768, 0.0933382, -0.3789707, 0.01725036, -0.05184385, 0.1175656, 0.03412135, -0.08376093, -0.02693256, 0.1269668, 0.003230169, 0.07259779],
    [-0.09024169, -0.1069288, -0.09395909, 0.00599815, -0.008888081, -0.09943749, -0.05342915, -0.01580683, -0.07175656, 0.1154047, -0.07284485, -0.07410407, -0.06503224, 0.09933807, -0.06933984, 0.6929432, 0.001126409, 0.04305966, -0.5839218, -0.1188805, 0.09460083, -0.0465212, 0.08703933, -0.03969685, -0.0848289, -0.2927298, -0.05410834, -0.09884022, 0.09635092, 0.3881895, -0.1260861, 0.1190553, 0.089033, 0.04947899, 0.1194042, 0.1189793, 0.7900971, 0.2174176, 0.129236, -0.05023685, 0.1362468, -0.1174525, -0.1070093, -0.00153254, -0.0001181066, 0.06674158, 0.04769117, 0.1272677, 0.1192479, 0.09091339, -0.15823, 0.1307877, 0.09147249, -0.008903101, -1.130743, -0.1220265, -0.03834245, -0.07319675, -0.01361617, 0.117219, -0.1148805, -0.04728519, -0.1257855, -0.005044192, 0.1225403, -0.07047315, -0.08671065, -0.01930335, 0.03043107, 0.08064805, 0.01243326, -0.02624579, 0.0235523, -0.0929942, -0.005567551, -0.01192351, 0.0524653, -0.05486095, 0.1247777, 0.08498977, -0.444297, 0.3004939, 0.02428086, 0.1039623, -0.03099081, -0.08477443, 0.03972865, 0.1348272, 0.09432483, -0.0788084, 0.1233988, -0.1014184, 0.02364087, -0.3670765, -0.04022257, 0.08236716, -0.06441174, -0.1226396, 0.0989711, -0.003741607, -0.002373576, 0.04654709],
    [-0.04738985, 0.07446226, -0.06212452, -0.5293134, 0.0213472, -0.1318194, -0.428194, 0.02826937, -0.1253682, -0.02755539, 0.01184985, 0.05925228, -0.09450781, 0.03988486, -0.117874, -0.09718499, 0.08954847, -0.1115815, -0.1537578, 0.05428326, -0.07296677, -0.07294373, 0.03980249, -0.01177266, -0.04573555, 0.02034053, 0.0801356, 0.04246871, -0.1079178, -0.1129154, -0.09573376, 0.009245142, -0.02606617, -0.1086952, -0.05509177, -0.04125744, -0.006879181, 0.107896, -0.1249426, -0.1103575, 0.1059667, -0.05960827, 0.03284669, -0.06190698, 0.0294494, -0.1110773, -0.05103873, -0.06007205, 0.04119396, 0.1241122, -0.09978984, -0.05882328, -0.1286872, 0.1076327, 0.1147232, 0.1362259, -0.05783163, -0.09642066, 0.01769822, 0.1000481, 0.1196975, 0.05788416, 0.07182526, 0.1212431, 0.1023066, 0.1328122, 0.1399656, -0.5854742, 1.013122, 0.03566149, -0.09726024, -0.02527839, 0.0589129, -0.4591073, 0.5086013, 0.09878039, 0.08442242, 0.03958185, -0.1260439, -0.05594997, 0.06003975, -0.04230791, -0.05263929, 0.05651837, 0.09699686, 0.01325193, -0.135249, 0.06366205, 0.1325912, -0.03301576, 0.1069913, -0.1222481, -0.03211001, 0.0353944, -0.013556, -0.0106627, 0.04788079, -0.01119103, 0.06123003, 0.02440326, -0.08227903, -0.107033],
    [-0.03921377, -0.1338697, -0.05624253, -0.1082326, 0.005374745, 0.01499128, 0.08708189, -0.05413892, 0.05192746, 0.1094577, -0.08003156, 0.05829444, -0.04107913, -0.1233718, -0.1091246, 0.06920398, 0.04110458, 0.092591, 0.2411282, 0.1037474, -0.1177317, -0.1106754, 0.1056332, -0.7721584, -0.1002672, -0.04755134, -0.1010013, 0.0983474, -0.04292037, -0.03106669, -0.03888485, -0.1158121, 0.03507641, -0.7388558, -0.02043241, -0.104513, -0.08461125, 0.06590471, 0.02998107, 0.1295617, 0.09894712, 0.1050816, 0.09291464, 0.1670069, -0.09928639, -0.08873039, -0.1033971, -0.05304739, 0.02709017, -0.05313833, 0.008746356, -0.1171984, 0.1397239, 0.09350543, 0.044323, -0.1138839, -0.1280439, -0.02472876, 0.08977075, 0.09413761, 0.01542161, -0.03878814, -0.113601, -0.04497379, 0.1029871, -0.108418, -0.0578281, 0.009766117, -0.007655323, 0.02129772, 0.2016335, 0.05353994, 0.05710378, -0.02149794, -0.03179556, -0.09286256, -0.09541777, 0.02758056, 0.06650889, 1.089155, -0.04997845, 0.09559634, 0.4193789, -0.003849313, -0.04274866, 0.118432, 0.1130093, -0.09038912, 0.05069992, -0.1146329, 0.02185312, 0.04124717, -0.01447992, 0.09616904, 0.02149606, -0.1003857, 0.1345526, 0.008668706, 0.1265575, 0.1169032, -0.00591372, -0.1400217],
    [-0.8757465, 0.07445298, 0.05003998, -0.1363092, -0.03394757, -0.09096427, -0.02795755, -0.09622492, 0.1074684, 0.1228303, 0.0624482, -0.2447087, 0.01428451, -0.03455715, -0.4698938, -0.05202126, 0.1167726, 0.1069401, 0.0446698, -0.05642758, -0.09660028, 0.04712145, -0.01294927, -0.02824176, 0.07193456, 0.01979852, -0.0971043, -0.1095654, -0.01812509, 0.7260779, -0.01129623, -0.7952658, -0.2266611, -0.01417507, 0.009909272, 0.07790168, -0.04971464, -0.07059477, -0.07760672, -0.03243661, 0.07581869, -0.009521171, 0.05391045, 0.07806236, -0.08844987, -0.02730387, 0.06728646, 0.1047503, -0.09512457, -0.02117861, 0.1317117, 0.1166963, 0.1040214, -0.06707205, -0.007366776, -0.1104679, -0.1203843, -0.01077187, -0.1371372, 0.04880834, 0.04439264, 0.08957107, 0.07136618, -0.03572694, 0.1024752, -0.0009751618, 0.1274765, -0.1142678, 0.009541363, -0.02952445, -0.1006729, -0.05116463, -0.02599401, -0.1272068, -0.07491334, 0.1061202, -0.01343766, 0.01379995, 0.1138502, -0.03982228, 0.01621124, -0.02770045, 0.05900427, 0.1001936, 0.4747102, 0.1139891, 0.03382689, 0.07724706, 0.1036086, -0.1085658, -0.02529891, -0.8605054, -0.04980027, -0.06718275, -0.1110753, -0.09306638, 0.4049849, -0.08304578, 0.1378748, -0.005929738, 0.05226836, -0.07413413],
    [0.1041102, 0.05616198, 0.07201001, -0.130925, -0.01522644, -0.04405991, 0.09803317, -0.09106025, 0.0589825, -0.02306968, 0.05943034, 0.04403204, 0.3373441, 0.09336661, 0.1076273, -0.007056162, 0.1027209, -0.04554555, 0.004317865, 0.06039677, -0.09209119, -0.07661177, -0.1977073, 0.09825842, -0.9336114, 0.1021051, -0.1209301, -0.1312404, -0.4279501, -0.03664447, -0.04539579, 0.1069745, -0.1373406, 0.08119777, 0.1352385, -0.01118816, 0.1160109, -0.1378704, -0.1314796, -0.1252096, -0.08884728, 0.08154815, -0.04304874, -0.1081386, 0.1217012, 0.1136906, 0.01980637, 0.02697365, 0.03724802, 0.08803959, 0.09210174, -0.07371683, -0.02076668, 0.03071164, -0.1319297, -0.02281936, 0.0473008, -0.5942662, 0.01329477, 0.09103364, 0.03574111, 0.1055778, -0.06917158, 0.1015363, -0.007877409, 0.0479221, 0.1284941, 0.002856225, 0.08174686, 0.09961927, 0.00433065, -1.137945, 0.1229371, -0.01960015, -0.8997607, -0.09268786, -0.01140413, -0.2932714, -0.094887, 0.1122258, 0.0004462451, 0.02924545, 0.02476514, -0.05864397, 0.01490358, 0.06079886, 0.005143151, 0.06349193, 0.03533344, -0.05612431, -0.008240879, -0.1348938, 0.1302695, 0.06210066, -0.02819662, 0.03252272, -0.1205712, 0.06787951, 0.08663086, 0.1289173, -0.02893527, -0.07066157],
    [0.04267276, -0.009788677, 0.006041869, 0.05076957, 0.0975357, -0.07061231, -0.05166594, 0.03732688, -0.1212643, 0.04205193, -0.04936707, -0.07074988, -0.08942372, -0.04055382, 0.01108256, 0.09838314, -0.07806066, -0.1273403, 0.04108275, 0.06875218, -0.1308039, 0.1272675, -0.03273462, -0.01398498, -0.01059817, 0.06838918, -0.01661507, -0.02587962, 0.113526, -0.2669716, 0.00943093, 0.06244626, 0.01110527, 0.1250459, 0.201572, -0.03248186, -0.116906, -0.3136533, -0.04515231, 0.05635234, 0.7241027, -0.1198426, 0.4045925, 0.01341418, 0.1187202, -0.06348255, 0.06728926, -0.03425415, 1.026622, 0.08932507, -0.001406267, 0.0579306, -0.04452573, 0.08442852, 0.1340626, -0.1327194, -0.07882312, -0.06971303, 0.01910925, -0.07139412, 0.1086207, 0.02884473, -0.131914, 0.01057927, -0.08921091, 0.07220818, -0.09544387, 0.01293882, -0.009377703, -0.03143991, -0.09170061, 0.04746269, -0.04162185, 0.1128774, 0.03279412, 0.1144551, 0.0664376, 0.1931127, -0.06600349, -0.09912725, -0.04177715, 0.05842247, 0.0997, -0.1343301, -0.06007025, -0.03598077, 0.07199515, 0.1269177, 0.04821771, -0.08347054, 0.03177395, 0.1273722, 0.09772556, -0.08473831, 0.3668367, -0.1269239, 0.05547909, 0.1316855, -0.02134406, 0.1102831, -0.07578495, 0.0543334],
    [-0.06470923, 0.1204379, 0.04727098, 0.05675484, -0.06528516, -0.1239711, 0.009317487, 0.01234019, -0.09820858, -0.01640064, -0.04029037, 0.08210288, -0.1250406, 0.09457706, 0.06383609, 0.1001848, 0.007060543, -0.03797925, 0.01976684, 0.01621775, 0.1523338, 0.07281072, 0.5310835, -0.05958439, -0.07134785, 0.1113292, -0.1065219, 0.05914459, 0.0505603, 0.1130031, 0.05122383, -0.09361774, -0.3462555, 0.09807417, 0.08476145, -0.07248808, -0.05955228, 0.101777, -0.07426609, -0.1028306, 0.01021314, -0.0009526126, -0.08297564, -0.02010663, -0.1255488, -0.0167425, -0.1025482, -0.04070772, -0.488847, -0.04753235, -0.1349191, -0.0507608, 0.02660922, 0.4474105, -0.1172254, 0.05511766, -0.04847318, 0.09971648, -0.03246176, 0.03975476, 0.1281775, -0.1241225, -0.06564853, 0.06315169, 0.1256833, 0.35015, 0.09996982, -0.0005235374, 0.1169965, -0.3755502, -0.09187512, -0.00739783, 0.09270918, -0.8262008, -0.001668513, 0.1109466, -0.005643994, 0.6944415, 0.02809763, -0.1342631, 0.04671709, -0.1267689, -0.09696865, -0.1284696, -0.1224203, 0.1082797, 0.06982645, 0.07519373, -0.09696341, 0.06897832, -0.002121091, 0.04528519, 0.6756691, 0.1013599, 0.06192458, -0.1150601, 0.03106442, 0.02409264, -0.05019986, -0.09911019, -0.005801141, 0.02333473],
    [0.1382464, -0.03549377, -0.1081751, 0.07158224, -0.008664533, 0.1377672, -0.09344961, -0.04670976, 0.1346384, 0.009028003, 0.09820183, 0.01200207, -0.02978596, -0.0875127, -0.00677292, 0.299234, 0.09366681, -0.0009939969, -0.1187727, -0.001254663, 0.1164341, -0.05615392, 0.1322001, 0.1295114, -0.09737134, 0.02386549, -0.9317155, -0.02626863, 0.06842016, -0.09966427, 0.01524799, 0.5220832, -0.06044555, 0.02301182, -0.7831289, 0.03392781, -0.07484138, -0.02923564, -0.13883, 0.2863371, 0.0113247, 0.06904039, -0.04103727, -0.06290612, -0.004024182, 0.07037593, 0.04887925, -0.02115144, 0.8417555, 0.02229881, 0.06628884, -0.04855594, -0.06358592, 0.06048748, -0.1388612, -0.1129542, 0.0557877, 0.04375782, -0.07760288, -0.04161256, -0.06789561, -0.03031516, 0.06861098, -0.09534642, -0.01295948, -0.07711202, 0.02750565, 0.05433454, 0.04002921, 0.07728037, -0.02893327, -0.01444733, 0.06773622, 0.07664014, -0.1291329, 0.09460263, -0.1191147, -0.1149553, -0.07081664, 0.1049507, -0.1161065, -0.1343906, -0.1043541, 0.12702, 0.07786001, -0.1327358, 0.08729863, 0.1094248, -0.09662865, -0.06824848, 0.01733749, -0.02839567, 0.05734982, 0.07159968, -0.01044295, 0.07848794, 1.884091, -0.09896305, -0.1393881, 0.1343643, -0.1155978, 0.0531726],
    [-0.1160171, -0.1230768, 0.1450975, 0.04668197, -0.125029, -0.01614253, 0.008365631, 0.1023301, 0.1267912, 0.03124847, -0.067038, 0.1323203, 0.126137, 0.0540339, 0.113978, 0.01521352, 0.06774875, 0.08306912, -0.04738374, -0.0007651001, -0.9004534, -0.0577455, 0.1279959, 0.07318781, 0.1092685, 0.07725093, 0.01596135, -0.04575805, 0.02371909, -0.03164255, -0.01065159, 0.01038153, 0.02091469, 0.1317885, 0.01542118, 0.07769649, 0.03985107, -0.09451006, -0.01277761, 0.114354, -0.07821923, -0.01701643, -0.03895039, -0.1013273, 0.05008296, 0.112335, 0.1029696, 0.03127705, -0.05070208, -0.005619556, -0.03099504, -0.1311739, -0.1123426, -0.1141559, 0.8888874, 0.008367136, -0.02318696, -0.09242201, 0.08938254, 0.01686119, -0.1733657, 0.1250005, 0.01616487, -0.06687163, -0.007683709, -0.1134778, 0.07090042, -0.01160744, -0.08495362, -0.0007221997, -0.1068255, -0.1262747, -0.08345045, -0.03746768, -0.1725501, 0.1376737, 1.449597, 0.1344476, -0.007888958, 0.04324462, -0.04828902, 0.03303435, 0.1399982, 0.6898168, -0.1623668, 0.081108, -0.00056234, 0.04135114, 0.01110853, 0.107259, -0.06140481, -0.09718876, 0.09464613, 0.119814, 0.006796196, -0.08216836, 0.09930582, -0.036962, -0.07305314, -0.1335746, 0.01905614, -0.3386118],
    [-0.0925481, -0.08224665, 0.1207714, -0.0703091, -0.1010718, -0.07556143, -0.03961976, 0.08198597, 0.1176534, 0.08253532, 0.02081724, -0.02493934, -0.09388933, 0.3662226, 0.1183742, 0.004003942, 0.2906989, -0.1207897, 0.03040359, 0.02457068, 0.09319952, 0.01094317, -0.046348, 0.09113604, 0.2251464, -0.1336222, 0.01935643, 0.02890512, -0.04792872, -0.1266435, 0.1254156, -0.02101912, -0.001719984, -0.08786762, -0.01652276, -0.06108075, -0.04332196, -0.06335963, -0.05113291, 0.02408084, 0.09154364, -0.05430983, -0.06680082, -0.01157653, 0.01218966, -0.4335721, -0.02665335, -0.07303497, -0.04096085, 0.07732476, 0.115718, 0.511838, -0.758714, -0.07201202, 0.1107577, 0.09171127, 0.1086901, -0.1077959, -0.01106921, -0.6747134, 0.001798317, -0.05519633, 0.1159315, -0.05950927, 0.08978707, -0.01515527, -0.1035829, -0.2430311, -0.1393651, 0.03702287, 0.1008045, 0.3487342, -0.09547789, -0.003230744, 0.05015235, -0.07805252, -0.09476154, -0.1018147, 0.07356356, 0.04088645, 0.02271652, -0.004436821, -0.1424574, 0.01766403, 0.04343328, -0.08108932, -0.09281546, 0.02766657, -0.1143749, 0.01977746, 0.2170563, 0.01254414, -0.1165659, 0.1102401, 0.1296416, -0.8847073, 0.08507226, -0.06675482, -0.06916511, -0.05939815, 0.05953253, 0.04567353],
    [0.1350198, 0.09250918, 0.05018903, 0.1332301, 0.04278484, -0.01072326, -0.1327109, -0.02403278, 0.07313108, 0.1988995, 0.1317557, 0.09297984, -0.01379965, 0.3595412, 0.09962598, 0.2900058, -0.1271475, 0.1153826, -0.06332956, 0.05771176, -0.03093916, 0.0219682, -0.02357477, 0.0394209, -0.03926772, -0.09031317, -0.3910378, -0.0721164, 0.06146988, 0.8345696, 0.2856442, 0.1354296, 0.04094681, -0.05086042, -0.07952665, 0.03225601, 0.08548431, -0.09205173, 0.06703644, 0.3534135, -0.08985031, 0.07908108, -0.08960132, 0.0957396, 0.1217491, 0.06333214, 0.09283328, 0.1267772, 0.06387585, 0.05991045, 0.07281189, -0.3764863, -0.08546281, -0.06790538, -0.1535627, 0.03482227, 0.01259017, 0.09838979, -0.127704, 0.07730822, -0.09575613, 0.9851874, -0.1389813, 0.1231032, -0.004909217, -0.0133992, 0.02531467, 0.1356829, 0.07485853, -0.02247128, 0.02715413, 0.1033945, 0.1003551, 0.0425297, 0.1299353, 0.09800266, 0.1268097, -0.1207922, -0.05795075, -0.08427569, 0.09815506, -0.008001, -0.04533446, -0.06878394, 0.09493382, -0.06447698, 0.1024745, 0.1343997, 0.05697742, -0.09755336, -0.06861901, -0.1163753, 0.04255127, 0.0150125, 0.009959444, 0.07281716, -0.6592155, -0.5759275, 0.4106821, 0.09284006, -0.08894423, -0.137393],
    [-0.07722035, -0.001563385, 0.0270016, -0.08948121, 0.002795205, -0.1205561, 0.1155466, -0.02615274, -0.009111866, -0.1299159, 0.07464929, -0.04904085, -0.09597263, -0.004213601, -0.06273109, 0.0459305, 0.07325295, 0.128342, -0.04066613, -0.1040094, -0.05267678, 0.1172365, -0.1033438, 0.01199254, 0.02756451, -0.05367583, -0.1084373, 0.03636098, -0.1006115, -0.05955896, 0.04382335, -0.00340642, -0.05007009, -0.01841384, -0.05781193, 0.1064032, 0.1142089, -0.6617514, -0.01142479, 0.0379205, 0.03095739, 0.06182837, -0.03189488, 0.07850468, -0.03333765, 0.03324685, -0.04807596, -0.3940816, 0.06439446, 0.1397861, 0.6049643, -0.1253537, 0.01674026, -0.06208171, -0.07795997, -0.0774202, -0.05172954, 0.09560679, -0.09896626, 0.04754254, 0.1192442, -0.06629911, 0.07831115, -0.08065327, 0.06489344, 0.0316958, -0.006589174, 0.01506092, -0.06959821, 0.03145573, -0.1115175, 0.08121226, -0.02488093, 0.06115779, 0.01744129, 0.0730719, -0.08083542, 0.03610755, -0.113226, -0.08571006, -0.04028837, -0.09861602, -0.02644914, -0.4535473, 0.01647011, 0.0892693, -0.07588434, -0.09741123, -0.04875458, 0.03460877, -0.1001955, -0.06995359, 0.04161903, -0.04331645, 0.1001368, 0.07402839, -0.157693, 0.1031665, -0.1315691, -0.1263148, -0.04283564, -0.1235721],
    [-0.1109932, -0.1165038, 0.5936522, 0.09895764, 0.1050489, -0.1129093, -0.01835802, -0.05929458, -0.02622315, 0.1332028, 0.05371274, -0.1056387, 0.2447152, 0.9764708, -0.1397281, -0.1106667, -0.1139417, 0.0957184, 0.06816466, 0.1059521, 0.1283008, -0.04308686, -0.1258765, 0.06119448, 0.008502275, -0.1026447, -0.009346396, -0.09564546, 0.01976721, 0.1345061, 0.01715764, -0.1101973, 0.1264288, -0.1253132, -0.01799178, -0.569049, 0.6312838, 0.3613605, 0.01036678, -0.03040763, 0.09956159, 0.03499443, 0.002760381, 0.09207961, -0.1196535, 0.03765148, -0.007702664, -0.4914442, -0.0970231, 0.1350343, 0.03898505, 0.2916863, 0.1142018, 0.2374803, 0.01954596, 0.02668777, 0.009660318, -0.03710452, -0.005417943, 0.1361699, 0.0627264, 0.1168447, -0.09631093, 0.08053607, -0.005574487, -0.03334503, 0.1147962, -0.02802776, -0.01670351, 0.1345894, 0.1255195, 0.07674257, -0.1129717, -0.07201225, -0.4162722, -0.09651612, 0.04497388, -0.02253461, 0.05861834, -0.1252054, 0.08987217, 0.0232513, 0.1155087, 0.01321174, 0.4289249, 0.09783359, -0.0675337, 0.05378772, -0.07267225, 0.1399298, 0.1210803, -0.1383932, -0.09647414, 0.8162123, 0.1290354, 0.07784687, -0.1315349, 0.004864022, -0.06336989, 0.008507192, -0.1379987, -0.03009504],
    [-0.04549497, 0.1121556, 0.0363835, -0.01976621, 0.07119952, 1.085263, -0.09310624, -0.1080581, 0.4302225, 0.03696468, 0.1148692, 0.1385585, 0.04502084, -0.1380725, 0.06767379, 0.08879964, -0.1113257, 0.0808953, -0.04410671, -0.04900116, 0.07636169, 0.02039769, 0.07323618, 0.08929066, 0.02050038, -0.05206051, -0.01386981, -0.08568138, 0.108717, -0.09636493, 0.006754324, -0.0223771, 0.01694548, 0.05292792, 0.07050714, -0.1101397, 0.09337212, 0.6966665, 0.05249835, -0.105605, -0.02042897, 0.05922802, -0.05533919, -0.05880682, -0.1151178, -0.1085372, -0.04069303, -0.09679417, 0.01337603, 0.0542006, -0.02641564, 0.09515172, 0.1254821, 0.1280072, 0.01401107, -0.07300195, -0.08731954, 4.909933E-05, -0.004531205, -0.06878779, -0.1393184, -0.0812781, 0.02745697, -0.1035031, 0.09446516, 0.04080664, -0.1256924, 0.01642858, 0.08712797, -0.03714777, -0.09394951, 0.003553852, -0.02467104, 0.01437922, 0.08322436, -0.001310259, -0.08741963, -0.0411655, 0.1341358, 0.003721178, -0.03695305, 0.2074902, -0.009640351, -0.02188396, -0.03327231, -0.09897454, -0.007652894, 0.09744406, 0.001569286, -0.09832466, 0.07523657, 0.008104056, -0.02789629, 0.1167532, -0.08317491, -0.08397961, -0.07597335, -0.137609, 0.01998651, -0.02600873, 0.1025966, -0.03079356],
    [0.07110791, -0.03809255, 0.004747435, -0.08107725, -0.06699847, -0.002915949, -0.003716335, 0.1203054, 0.42943, 0.002849489, 0.04941525, -0.08499499, -0.04702832, -0.07252882, -0.1258035, 0.07041626, 0.08772063, -0.04140598, -0.07302199, 0.04446742, -0.01689704, 0.4637715, -0.008905366, 0.03651839, -0.4458856, 0.04906601, 0.03164966, -0.1145461, 0.0002380162, 0.1107434, -0.09203997, -0.07044411, 0.05582993, -0.1207388, -0.1071814, 0.08271934, 0.09997647, 0.0480113, -0.03892592, -0.07816599, 0.09979565, 0.04299733, -0.135306, 0.02549979, -0.01105815, -0.03405574, 0.01733482, -0.03746121, 0.09112966, 0.1180275, -0.1124006, 0.5127143, -0.3121515, -0.004853263, -0.2672385, -0.07635485, 0.04657396, 0.07621212, -0.1122257, -0.09890857, -0.06516084, -0.03487335, -0.006401017, 0.1378681, 0.008695677, 0.08456718, 0.09388208, -0.001675352, 0.001793206, -0.05693625, -0.9721989, 0.1144033, 0.0412198, 0.01370999, -0.1003039, 0.03377244, -0.7618898, -0.06062655, 0.01348339, 0.6403401, 0.1114502, 0.09808668, 0.04043114, 0.3762443, 0.06817664, 0.04392067, 0.03782689, 0.00985001, -0.07094125, -0.1141965, 0.09195492, -0.05518852, -0.004729137, 0.5067992, 0.08588853, -0.1337937, -0.008028209, -0.01174806, 0.01128148, 0.01126555, 0.05192305, -0.03614886],
    [0.1273248, 0.08759907, -0.08082481, -0.09183082, 0.08531247, 0.03131184, 0.1353503, 0.04808829, -0.1261078, -0.08450893, -0.1191893, 0.120254, -0.04109728, -0.04267215, -0.1316579, -0.04017032, 0.05185284, -0.06973056, -0.8390954, 0.0114888, 0.219062, 0.03363455, 0.1083336, 0.1339222, -0.0009860843, -0.1012286, -0.08258022, 0.122595, -0.06711153, -0.001705438, -0.1261549, -0.09151436, -0.1014156, 0.1364328, -0.03688253, -0.130785, 0.1295358, -0.02631159, 0.09776919, 0.07443191, 0.01249142, 0.1223136, 0.08439114, 0.08891822, -0.03949424, 0.0898895, -0.05989917, 0.1256068, -0.01533618, -0.06333056, -0.07004403, 0.9390249, 0.01019755, 0.03199003, -0.09360762, 0.08348212, 0.07018881, 0.05692068, 0.0008115768, 0.03563275, -0.1052236, -0.0737325, 0.03712346, 0.7141963, -0.1185292, 0.02489746, 0.04746345, 0.08602514, 0.04147604, -0.02741798, 0.001083872, -0.1360982, 0.009997234, -0.02467988, -0.03922141, 0.02103705, -0.001040936, 0.02633721, 0.06065894, -0.08501676, 0.06086827, -0.04947038, -0.1212732, -0.002256491, 0.08473931, -0.1086774, -0.08563662, -0.06203724, 0.02131746, 0.1105476, -0.1168815, -0.005563244, 0.06160947, -0.1283939, -0.05556473, 0.04114231, 0.04405655, -0.1043114, -0.01139334, 0.1309497, 0.1013168, -0.04034071],
    [0.1069911, 0.0692851, 0.0008410439, -0.06516846, 0.09738337, -0.03817365, 0.02713874, 0.1376944, 0.05439731, -0.07574086, -0.07318394, 0.03809327, 0.001233429, 0.03505033, 0.031116, -0.1255677, -0.02242257, -0.1565149, 0.06946942, 0.1322898, 0.06040034, -0.05091774, -0.04022521, 0.0581399, 0.02001019, -0.06556056, -0.1296005, -0.04202287, -0.0606154, 0.09999396, -0.006664619, -0.0819618, -0.07257894, -0.4520109, -0.1056309, 0.02320803, -0.07880221, 0.03146718, -0.06843096, -0.02723609, -0.04315533, 0.02073932, 0.0524709, 0.07407746, -0.02981417, -0.2425355, -0.06681669, -0.1343121, -0.1352642, -0.04520422, 0.102589, 0.05329642, -0.05219133, -0.0008900613, 0.08793104, -0.0459836, -0.05565295, -0.07381493, -0.09153382, -0.09568962, -0.0504177, 0.02526149, 0.04255955, 0.07375543, -0.04670352, -0.128111, 0.09544912, -0.04647987, -0.05163893, 0.09572445, -0.1337939, -0.06156698, -0.05807956, -0.1295694, 0.03415269, -0.1318035, -0.007496744, 0.1254095, 0.1109717, -0.05150379, -0.1171677, -0.05763349, -0.02593237, -0.1091258, -0.02113473, 0.05069985, 0.6005623, 0.04288883, 0.1285877, 0.07422526, -0.02043775, 0.03734347, -0.1193044, 0.1071765, 0.1242736, -0.1376067, -0.05356907, 0.1026678, -0.1015753, 0.0123889, -0.1015297, 0.06056383],
    [-0.1016861, 0.6287099, -0.09641501, -0.1314748, 0.05890131, -0.2122982, -0.1056427, -0.004946619, 0.1384173, -0.1053344, -0.008057624, -0.1193782, 0.05706472, 0.1174018, -0.06911255, -0.138797, -0.03470124, 0.02278106, 0.09455642, -0.1083471, 0.741711, 0.1328921, 0.06667518, -0.007916704, 0.05842093, -0.1169771, -0.01381792, 0.01486896, 0.03791175, -0.1346852, 0.08923514, 0.09725773, 0.03739902, 0.1343175, -0.1164506, -0.08322853, -0.1124574, 0.03537761, -0.02373345, -0.06157389, -0.102389, -0.03406342, 0.079566, 0.04529611, 0.1132013, -0.01717354, 0.003059149, -0.03039064, -0.1373854, 0.1068411, 0.05506694, 0.1015406, -0.09984986, 0.07750443, 0.02660191, -0.09562029, -0.04586808, 0.003693432, 0.121302, -0.03261437, 0.07427163, -0.04216359, 0.05472411, 0.09759669, -0.09873413, -0.1353513, -0.134801, 0.0751103, -0.05649699, 0.1259442, 0.07179868, 0.1052424, 0.07781945, 0.1270065, -0.03245421, 0.1162472, -0.06464687, -0.04871912, -0.04489958, 0.1040107, 0.09527735, 0.09454651, -0.1014803, -0.03614319, -0.07471232, -0.161389, 0.1191678, 0.03301866, -0.01377583, -0.05743285, -0.01191573, -0.08170469, -0.06019117, -0.1385857, 0.1384672, 0.06927292, -0.6921651, 0.0704426, -0.02766199, -0.006227344, -0.08855774, -0.1302058],
    [0.1144828, -0.08379081, -0.2810833, -0.06107912, 0.1076683, -0.04396062, -0.06142272, 1.166377, 0.07135883, -0.02395609, 0.1203146, 0.006948695, 0.02496937, -0.1274959, -0.07627793, -0.0275162, 0.107922, -0.1254724, 0.07477124, -0.6111623, -0.1127842, 0.1035256, 0.1084685, 0.4260498, -0.1224235, -0.09389162, 0.09198563, 0.1376896, 0.1141669, -0.07437222, -0.137943, -0.09692387, -0.1313329, -0.124715, 0.01675175, -0.09220648, -0.1037853, -0.129992, -0.01642391, -0.1288601, -0.1275089, 0.08892276, -0.05893843, 0.02488194, -0.05362826, 0.03677895, 0.06270637, -0.6787671, -0.1315114, 0.1315214, -0.1234123, 0.09001946, -0.01615636, 0.1277477, -1.029651, 0.1151496, -0.001022041, -0.1056755, 0.006024659, -0.07039203, 0.02297713, -0.05876495, -0.1302385, -0.05230584, -0.09784938, -0.0002351105, -0.02177016, -0.05016381, 0.01655564, 0.04163034, -0.1347929, 0.03135941, 0.002768084, 0.02079551, -0.1189815, -0.08726509, -0.2213126, -0.04225246, 0.04192173, 0.06894407, 0.05259476, -0.1335376, -0.1046788, 0.02850494, 0.01270662, 0.005104095, -0.02735128, -0.07922231, -0.03656908, 0.1231153, -0.06682092, 0.05641524, -0.05209063, -0.1281332, 0.01481026, 0.08185807, 0.07107843, -0.0504425, -0.04851598, 0.006657109, -0.1178601, -0.08911268],
    [0.1196664, 0.07750612, 0.07625535, 0.03981922, 0.1258332, -0.091961, 0.03336486, 0.113199, 0.1065697, -0.03877041, -0.05326447, 0.4357029, -0.03941283, 0.05814106, 0.06112371, 0.03207045, 0.06577113, 0.05858014, 0.1078984, 0.1394368, -0.1126401, 0.1351938, 0.05556957, -0.111803, -0.1101725, -0.08074421, 0.06745052, 0.08838522, 0.1379815, 0.1067512, 0.09644394, 0.07802971, -0.1096359, 0.1124684, 0.08401998, 0.0630741, -0.1195626, 0.04931259, -0.04362249, 0.02993943, -0.1025136, -0.02402765, 0.09588125, -0.07714671, 0.06069637, -0.09033241, 0.0822494, 0.04290826, -0.1113901, 0.115961, -0.04764679, -0.0450619, 0.1088701, 0.1029432, -0.01707653, -0.1228999, 0.02254133, -0.09519416, -0.319905, 0.136788, -0.2922361, -0.1016225, 0.1217009, -0.1113283, 0.008871049, -0.1260978, 0.07927228, 0.09161074, 0.1207195, 0.1112522, 0.05319467, -0.07633851, 0.08190109, 0.09449737, -0.05621668, 0.1057307, -0.02486037, -0.1082703, -0.1170186, 0.07634102, -0.08253005, 0.0576732, 0.06822664, 0.1067729, -0.003646731, -0.01351715, -0.1208625, 0.01469298, 0.04949147, -0.05191253, -0.06803468, -0.05685815, 0.08002812, 0.07651114, 0.09170108, 0.1279599, -0.006108195, 0.1373775, -0.1039232, 0.03831321, -0.06060602, -0.3748969],
    [-0.1339367, -0.04995518, 0.02493995, -0.02686962, 0.06908946, -0.1334433, 0.06136263, 0.08380146, -0.1038637, -0.1227728, -0.08091229, -0.06395623, -0.003997177, -0.01678453, 0.022333, 0.1261201, 0.00488548, -0.08638094, 0.0795261, -0.1111056, -0.07758315, -0.4623044, 0.1226099, -0.04618281, 0.1232382, 0.01663139, -0.03321253, 0.1057364, 0.04795885, 0.03902045, -0.08740009, 0.03291784, -0.08969407, -0.1027959, -0.05457373, 0.1168202, -0.001412719, -0.1046361, -0.04311247, 0.00089477, -0.1009095, -0.02315328, -0.0937665, -0.07700028, -0.003893271, -0.07075226, -0.005338654, -0.1242155, -0.1306079, 0.08378093, -0.1032879, 0.1050967, 0.04823618, -0.09493993, -0.05843317, 0.04532429, 0.1263455, 0.2400795, -0.02254185, -0.04579317, -0.5257676, -0.07881901, -0.07978551, -0.8612637, 0.2699745, -0.135184, 0.02644753, -0.06117247, -0.1372247, -0.09641622, -0.04383051, 0.01754769, -0.06319174, 0.06989859, 0.04997215, -0.05813938, -0.087961, 0.01213481, 0.09926419, 0.08271513, -0.06756368, -0.1287153, -0.04545271, 0.4844899, 0.1398115, -0.07292207, -0.1355261, -0.1069633, -0.1052861, -0.02303269, -0.05382273, 0.06928565, -0.1214347, 0.1028385, -0.09549606, -0.07437065, -0.1189411, -0.08679041, -0.1016417, 0.02346129, -0.02800659, -0.07478911],
    [0.02109978, 0.1155006, 0.03810629, -0.07539292, -0.1353381, 0.05966591, -0.0649, 0.03639266, -0.08235785, -0.04496338, -0.007337064, -0.002531522, 1.496586, 0.05018705, -0.08608009, -0.02661566, 0.04794927, 0.1017264, -0.00383839, -0.0787313, -0.1115918, -0.1252392, 0.06242242, 0.04644292, -0.07976568, -0.01851506, 0.0830093, 0.0036624, -0.0911109, 0.1204061, 0.1267661, -0.1025603, 0.1285551, -0.110923, 0.08553907, -0.01726722, -0.05306014, -0.04679606, -0.1194129, -0.06540468, -0.1120002, 0.1267648, 0.3517327, -0.04758993, -0.1379951, 0.0441323, -0.1144888, 0.06254011, 0.0123134, 0.06383064, -0.1060154, 0.07805845, 0.1242528, 0.07140297, 0.09799728, 0.03191357, 0.1101608, -0.1060849, -0.03365622, 0.01874752, -0.04767434, -0.003842965, 0.1140838, 0.0061012, 0.004798487, 0.02055412, -0.04534297, -0.06664054, 0.06659147, 0.08648353, -0.08884925, 0.5397819, -0.05478303, -0.1159497, 0.01998865, 0.3097487, -0.1094608, -0.08491479, 0.008378789, -0.00248906, -0.08680062, 0.1352937, -0.1344573, 0.06814823, -0.124137, -0.08374924, -0.1117855, -0.01870909, 0.02586967, 0.07768614, 0.1045038, -0.1099219, -0.7857761, -0.6680742, 0.06093521, 0.07885753, 0.08254487, -0.0791122, 0.00781768, -0.5732881, 0.4087344, 0.007791206],
    [-0.1226107, 0.01915709, 0.117881, -0.07716367, -0.04670042, -0.04396793, 0.09857509, -0.1392321, -0.1037911, 0.02590366, -1.154849, 0.07080327, -0.138075, 0.07909407, -0.5193491, -0.1359565, -0.04783645, 0.02862129, -0.0424486, 0.1193693, -0.06338978, -0.0484471, -0.06136614, -0.05381238, 0.1321054, 0.1265073, -0.1086437, 0.1373624, 0.1243512, -0.01339349, 0.6813514, -0.05481424, -0.1365695, 0.09724821, 0.07374601, -0.1007014, -0.01412345, 0.05643072, -0.3441474, -0.05234921, 0.9431359, -0.08577934, -0.1097624, -0.08086185, 0.007011995, 0.06273779, -0.1145393, -0.05114643, -0.1000689, -0.2820751, 0.05577919, 0.01845787, -0.120684, 0.05751088, -0.04584973, 0.4226294, 0.0705465, -0.09105828, 0.5933065, 0.01444429, 0.1145931, -0.0853257, 0.2438045, -0.07721381, 0.05833476, -0.10158, 0.08227495, -0.024664, -0.01487674, -0.05177398, 0.0631557, -0.09535654, 0.09229848, -0.03262421, -0.06511484, -0.04526882, 0.06730315, -0.05548398, -0.05242282, -0.007615596, 0.2871405, 0.03074943, -0.02199471, 0.03181602, 0.003769547, -0.04998539, -0.07221816, -0.05052824, -0.02596218, -0.001979902, 0.07189921, 0.05967448, -0.06436212, 0.0007187277, -0.09617098, 0.06771056, -0.5000499, -2.157688E-05, -0.005071804, -0.001423853, -0.08393604, 0.1079287],
    [0.1277319, 0.1264699, -0.01886266, 0.349516, -0.001197577, -0.06631714, -0.03354104, -0.07784101, -0.0790337, 0.09534816, -0.001115412, 0.09272715, 0.1010219, 0.6627347, 0.09258149, 0.0003928393, 0.1148824, 0.1309331, 0.007487506, -0.04285757, -0.05202386, 0.1301048, -0.107728, 0.07825366, -0.04806073, 0.02800994, 0.03643338, 0.01987314, -0.1236426, -0.134778, 0.08870496, 0.02595219, -0.3255567, -0.04468171, 0.06516048, -0.1083457, 0.06001461, 0.295992, -0.1337997, -0.08787787, 0.06482173, 0.06132084, 0.09603276, -0.08275293, -0.0150297, 0.136839, 0.09234937, -0.1308968, -0.1341895, -0.1063746, -0.07664512, -0.02094871, -0.05237518, 0.007662177, 0.1167372, -0.1173662, -0.002478294, -0.01375285, -0.00773485, -0.3660623, 0.104665, 0.04918122, -0.01686903, -0.02262542, -0.0629559, 0.02706838, 0.09262703, -0.03757989, -0.7582752, 0.04881034, -0.04399427, -0.05982915, 0.6176717, -0.1397283, 0.09078069, -0.5523803, -0.09109239, 0.06333114, 0.02401158, 0.0002241582, -0.01366285, -0.8261975, 0.1086721, 0.04323592, 0.01102117, 0.1110476, 0.8309992, -0.1281114, 0.008740899, -0.6102637, -0.08406988, 0.02123603, -0.03690952, -0.1154512, 0.06318244, -0.1059582, 0.1164864, -0.02198693, 0.05168615, 0.01668529, 0.01634815, -0.09868199],
    [-0.1123636, -0.04222992, 0.4145682, -0.02764577, 0.1263861, -0.07145458, -0.08127947, 0.0519496, -0.102734, 0.1343304, 0.07108323, 0.1096314, -0.0786407, 0.00857769, 0.07726939, 0.01396425, 0.1062192, 0.01511794, -0.05462508, 0.0310092, 0.6384045, 0.01163208, 0.1379889, 1.279516, 0.03113877, 0.1119209, 0.1324731, 0.3914107, -0.07800147, -0.0006936342, 0.03475126, 0.04882073, -0.04871716, -0.004402965, 0.03797101, -0.08331344, -0.0588551, 0.02203153, -0.03571329, 0.04093262, -0.04055746, -0.02875489, 0.07733286, 0.06253046, 0.09601881, -0.2846664, -0.007251874, 0.09247433, -0.05177999, 0.1313027, -0.09449036, 0.03608891, 0.1398144, -0.6570438, -0.08095323, -0.07442713, -0.05317456, -0.01093784, 0.1202295, -0.4074643, 0.03100993, -0.0411001, -0.06916189, -0.1269596, 0.1215978, 0.06274749, 0.04697776, -0.1161439, -0.01298532, -0.02476692, 0.07617316, -0.00236854, 0.06990801, -0.1112671, -0.1219979, 0.0728594, 0.1165065, -0.122868, 0.1387731, -0.03548767, -0.1257283, 0.06148387, 0.1054331, -0.120442, 0.01345021, 0.07849006, 0.1393465, -0.05123113, 0.1195196, 0.008793801, -0.07929979, 0.01700715, -0.0364462, 0.08953875, -0.1246205, -0.03876486, -0.05740153, -0.03650986, 0.1225857, -0.08465178, 0.08951131, 0.05767196],
    [-0.009208441, 0.138096, -0.004291192, 0.7474168, 0.1241617, -0.0368108, -0.1336756, -0.01496844, -0.120341, 0.787666, -0.05655088, -0.01852698, -0.09644082, -0.01127577, 0.01527509, -0.03198566, -0.1210001, 0.08313549, 0.09312987, 0.1253143, 0.1193247, -0.1295989, 0.1012261, -0.1012608, 0.1166001, 0.1109473, 0.1121835, 0.08547156, -0.123472, -0.133075, 0.07633007, -0.008891523, 0.01846605, -0.06360999, 0.1081939, 0.09709792, -0.0816617, -0.01437205, -0.2964859, -0.1187201, -0.08055651, 0.01131515, 0.006225377, -0.133242, -0.002125725, -0.09219886, -0.2008111, -0.1943538, -0.07079025, 0.07680297, -0.1219154, 0.1354804, 0.03838722, -0.09626365, 0.02259564, -0.07930143, -0.07709929, 0.06898791, 0.01735559, 0.08247142, 0.104004, 0.3560537, -0.02923734, -0.008110195, -0.04278549, -0.1527533, 0.05452183, 0.1352634, -0.04910696, 0.01320343, 0.1122597, 0.01193532, -0.08778954, 0.06676148, -0.1084129, 0.04055427, 0.07001615, -0.1319119, 0.07396385, 0.2803493, -0.04785204, -0.05417311, 0.1110442, -0.01201805, -0.02934852, -0.07139158, 0.07661501, -0.06482773, -0.0005862564, -0.1310941, -0.323366, -0.06969219, 0.1067678, 0.08190334, 0.04814234, 0.09412893, 0.1298567, 0.1123438, 0.1316188, -0.005667776, -0.1090614, 0.09107571],
    [0.0003399849, 0.1162704, -0.08677211, -0.09186013, -0.006723747, 0.08396454, 0.09567674, 0.08985738, -0.01884584, -0.1362736, -0.03513923, 0.0147676, -0.09649418, -0.01388039, -0.09606829, -0.1406953, -0.01432423, -0.09487168, 0.0985686, -0.003369927, -0.08351324, 0.04762146, 0.004643902, -0.1379107, 0.03659894, 0.04282644, -0.1087364, -0.3542459, 0.06641935, 0.1681033, 0.1165755, 0.136664, -0.1323662, 0.003195763, -0.06991443, 0.065898, 0.1275057, -0.1321556, -0.5944169, -0.1033616, -0.03877872, 0.03162356, 0.01369379, -0.02333673, 0.05800321, 0.0940475, 0.1329162, 0.0196984, -0.02803988, 0.03854183, -0.06952684, 0.1113975, 0.002191857, 0.1225932, -0.02672126, -0.01520307, -0.02195775, -0.1058547, -0.1215696, 0.05563436, 0.111033, 0.1223132, -0.009503305, -0.002302632, 0.1087163, -0.04889957, -0.07682283, 0.07442647, 0.1262338, 0.06671855, 0.7432768, -0.009126484, -0.07531275, 0.1326202, 0.1094629, -0.04615196, -0.409087, 0.2696351, 0.09968661, -0.08478399, -0.009317622, 0.1066153, -0.0832665, 0.001102835, 0.1075402, -0.0437948, 0.1207879, -0.1299054, -0.1009566, -0.07413642, -0.0752857, 0.1029495, -0.03739731, 0.04653447, -0.01944864, -0.09652883, 0.06121789, 0.05687556, 0.8168278, -0.09827368, 0.06898657, 0.04157595],
    [0.05700533, 0.05368369, 0.01277626, 0.06169012, 0.02581419, 0.08619305, -0.09452251, 0.03459094, 0.09869944, 0.1117966, 0.02016616, 0.1363424, 0.1037746, 0.08297944, 0.5216666, 0.03886157, 0.006333977, 0.003984805, 0.05485585, 0.1008969, 0.1024253, 0.01346514, -0.04784102, 0.5464747, -0.03519264, 0.02485919, -0.04265298, -0.04536604, 0.02504776, 0.01029904, 0.2992281, 0.1311811, 1.142622, -0.09087333, 0.1185261, 0.04034067, -0.6296727, 0.1389218, 0.1193958, 0.07374855, 0.05321213, 0.02109487, 0.129603, -0.1159637, 0.05868801, -0.001688182, 0.1217207, 0.09414098, 0.04692631, 0.09169124, 0.05175709, 0.008165553, 0.02618616, -0.1336654, -0.005695283, 0.532521, 0.05860852, -0.03153421, -0.5468512, -0.009195521, -0.01972358, -0.09446836, 0.1101422, -0.02552193, -0.1147907, 0.04129943, 0.1385833, -0.6765113, 0.0835966, -0.06458534, 0.1009199, -0.006405011, 0.09330688, -0.006944224, -0.1033818, -0.01587081, 0.06509221, 0.0005733371, -0.02568935, -0.0363189, 0.156705, 0.1327359, 0.07309043, 0.001298875, 0.06916285, -0.1230515, 0.1342437, -0.09750545, 0.07774971, -0.1171801, -0.06537914, -0.05379258, -0.04540443, -0.001582608, 0.5194184, 0.00111872, 0.02077925, -0.03910016, 0.334007, -0.06758648, 0.04262565, 0.07185701],
    [0.02928882, -0.09186239, -0.08015318, 0.03347297, 0.03064801, 0.0564707, 0.03063576, 0.02828756, -0.05829101, 0.01610411, -0.05290316, -0.03647627, 0.1321945, -0.06756808, -0.09107383, 0.03041424, 0.1242502, -0.01101148, 0.09512147, -0.05882351, -0.008434638, 0.1289347, 0.08464374, 0.0391837, -0.06086255, -0.02971532, -0.07678437, 0.05715563, -0.03452297, -0.134719, -0.07207936, -0.09220269, 0.03225294, 0.09913719, 0.04889932, 0.03093966, 0.1327935, -0.008549049, -0.05334786, 0.06901338, 0.01956433, -0.09532399, -0.1179919, -0.003822454, -0.04136922, -0.09811567, 0.07474942, -0.117757, 0.03943162, 0.00933902, -0.06742479, -0.05616708, -0.05398385, -0.05587896, 0.1270882, -0.05209998, 0.008097947, -0.01215239, -0.1033305, 0.07093814, -0.08244845, 0.1055888, -0.09453566, 0.04621527, -0.02940147, -0.02457899, -0.0806051, 0.1179906, -0.02551058, 0.02103157, 0.1320998, 0.01269446, -0.01293798, 0.06495982, -0.05037568, -0.09405611, 0.08633817, 0.01112442, 0.3693752, 0.04350824, 0.008765817, 0.02784644, 0.08331546, -0.0286747, -0.01642311, 0.006581492, 0.1194515, -0.1068282, 0.3265149, 0.1026532, 0.1053486, 0.05258096, -0.1177083, -0.0443802, 0.09804849, 0.06831165, 0.1072015, -0.04150737, -0.04016338, -0.06706557, 0.08703656, -0.03115179],
    [0.1110981, 0.01564566, -0.09052089, 0.05451238, 0.1292397, -0.07507372, -0.04563239, 0.04378402, -0.06497054, 0.07206753, 0.06446233, -0.2474262, 0.1365786, 0.1349961, -0.03902781, 0.01152305, -0.09176636, 0.05937892, -0.0499271, -0.01523615, 0.1271526, 0.04791675, 0.0867013, -0.7207143, -0.01509264, 0.09193274, 0.01585479, -0.08648033, 0.1186446, 0.2715917, -0.05458378, -0.0308826, -0.05529295, 0.1088482, -0.0574648, 0.09505647, 0.1359387, 0.3792927, -0.1082864, -0.1217077, 0.02916153, -0.01093833, -0.03408295, -0.1273599, -0.02066293, -0.3595363, -0.1100844, 0.06445022, 0.05582045, -0.08056602, -0.06444609, -0.07546282, 0.1135222, 0.05418267, 0.1366035, -0.07577243, 0.01800416, -0.005382255, 0.07754683, -0.06625104, -0.1155487, 0.02672423, -0.06425303, 0.1383586, -0.04980261, -0.07745369, -0.09735458, 0.08513089, -0.04668699, -0.08031407, -0.8327104, 0.08003877, -0.1305751, -0.05473972, -0.133484, -0.09483936, 0.03978433, -0.1279982, 0.04729068, -0.1862546, -0.01718936, 0.1001797, 0.01529034, 0.0008192956, 1.246325, 0.133181, -0.1314936, -0.06476562, 0.05817792, -0.1603418, -0.4315984, -0.07323328, 0.116003, 0.1379138, -0.09865457, 0.1157657, -0.03126673, -0.1818614, -0.009782776, -0.0215425, -0.05451978, 0.1325371],
    [0.07141715, 0.02139598, 0.04578009, 0.3837815, -0.08861315, -0.005776465, -0.04023666, 0.1311015, 0.1170234, -0.06760153, 0.007842079, -0.04004176, -0.04168054, 0.077012, -0.115146, -0.1081604, -0.08725917, -0.1133812, 0.05260545, 0.08625828, -0.03978328, -0.04252505, 0.02572441, 0.07310686, -0.0806141, -0.07386178, -0.0418917, -0.09402955, -0.05156712, 0.005341232, 0.00973843, 0.003569707, 0.02202536, 0.08802716, -0.0850862, 0.1162306, -0.08212675, 0.1159525, 0.1111567, 0.01702688, 0.1758769, 0.02488714, 0.1330751, 0.01019502, -0.02784087, 0.03580598, 0.0268525, -0.3522813, -0.03810063, -0.1264828, 0.08440764, -0.1237119, 0.09701068, 0.03421399, -0.04053412, 0.07253322, 0.122121, 0.0407254, 0.1169675, 0.07789994, -0.04501289, 0.109362, -0.02358251, 0.0931448, -0.007272169, -0.03129868, 0.05952291, -0.4726857, 0.03527465, 0.6850972, 0.05265496, 0.0801691, -0.8839338, 0.8730628, 0.06455655, -0.009000391, 0.05819054, 0.0139178, -0.05137779, -0.04264501, -0.05878836, -0.1072811, 0.005892515, -0.02601937, -0.1222188, 0.1238507, 0.03903216, -0.05917683, -0.2531761, 0.04402323, -0.03257453, -0.1335422, -0.5605809, 0.02858964, 0.009041682, -0.1271668, -0.02674373, -0.1005625, -1.238925, -0.06818031, -0.04966499, -0.1021306],
    [0.1875782, 0.01724752, 0.006533355, -0.03894128, -0.03684922, 0.1307857, -0.05916314, 0.07811972, -0.1256848, 0.07190081, 0.0152402, 0.08485249, -0.002266377, -0.1134425, 0.05438152, -0.02231541, -0.0640626, -0.05578008, -0.3364041, 0.05541366, 0.1308331, 0.01529388, -0.08966048, -0.07025988, -0.03037828, 0.03927337, -0.0802343, 0.07412096, -0.0796075, -0.05623192, -0.2571245, 0.03512127, -0.03741323, 0.1377728, 0.08823486, 0.06040091, -0.0320819, 0.09422855, 0.08158558, 0.1084959, 0.0112143, 0.06916679, -0.1256097, 0.4789791, -0.007105067, 0.1247667, 0.3384435, 0.01133262, 0.001236245, 0.08121697, 0.06470278, 0.1340758, -0.06206739, 0.09145176, 0.06225493, 0.09967139, 0.06188325, 0.003475919, 0.1295329, 0.06601539, 0.09997636, 0.02463488, 0.03519823, -0.001039296, -0.01478021, 0.07528921, -0.08444008, -0.06929247, -0.1176788, -0.07390526, -0.01529515, -0.01700955, -0.0284563, 0.002658352, -0.1299752, -0.09164444, 0.03955508, -0.08638224, -0.04224208, 0.04127609, -0.1278195, 0.1236605, 0.02667022, -0.09774232, 0.02363716, 0.002916023, 0.09576377, -0.07496738, 0.1085435, 0.05725258, 0.07521446, -0.06373212, -0.05598389, -0.06872208, 0.1330471, -0.06826581, 0.1336105, 0.1024197, -0.004266724, 0.02180531, 0.050241, -0.009550646],
    [0.03125688, -0.07787895, 0.02258199, 0.005329877, 0.07012534, 0.05210247, -0.07996432, 0.04439547, 0.1486005, -0.06363647, -0.01408967, -0.05221556, -0.1015676, 0.0921849, 0.08213293, -0.1072046, -0.1198537, -0.1025294, 0.09052202, -0.02999913, -0.04871862, 0.03528069, -0.06856757, -0.3075385, -0.5071814, -0.04305945, 0.1246787, -0.300642, -0.05343279, -0.1161571, -0.1271531, 0.01626746, 0.02814024, 0.08387761, 0.1207326, -0.01981205, -0.0285897, 0.1138486, 0.09872839, -0.01018189, -0.07725598, 0.1782417, 0.09473637, 0.05406642, 0.03543914, -0.01321694, 0.02965109, -0.1100229, -0.02481717, 0.1361285, 0.06832054, 0.02434403, -0.05258163, 0.1167265, 0.1293779, -0.06158674, 0.0477119, -0.1292024, 0.1151937, 0.0445657, 0.1044865, 0.1111749, -0.04528895, 0.2752267, -0.07494462, 0.3926003, 0.03689497, -0.0274331, 0.1967672, 0.1047381, -0.04361595, 0.1028953, -0.1124608, -0.1389573, 0.0522722, -0.05905771, -0.08796537, 0.1334102, 0.01763783, -0.1013828, 0.02948743, -0.02779447, -0.04093869, 0.07904849, -0.07725318, -0.04768875, 0.02023169, 0.1285632, -0.07388757, -0.1306463, -0.007930353, -0.08270375, 0.005332187, 0.05534584, 0.1373722, -0.07865869, -0.09962621, -0.03856823, -0.4258208, -0.09300771, -0.09100868, -0.02632712],
    [-0.01522567, -0.07981345, 0.05759148, 0.04088515, 0.5133089, -0.03816947, 0.08304224, 0.1023307, -0.0590525, -0.1322297, 0.1275296, 0.1355046, -0.09052479, -0.07057472, 0.03533497, 0.06270483, 0.03418624, 0.08400628, 0.01040287, 0.1360242, 0.5352442, 0.6562202, -0.05955027, -0.09647168, 0.07451712, 0.0395939, -0.3449689, 0.02182995, -0.2836174, -0.4340092, -0.1061163, -0.07625966, -0.1390039, 0.02533737, -0.1283866, -0.09185272, 0.07615112, -0.09094073, 0.0391199, -0.279618, -0.07202798, 0.03323783, 0.01053247, -0.008472025, -0.2164896, 0.1165768, 0.02518397, -0.1219085, -0.1161158, -0.03008733, 0.1035648, 0.000710085, 0.03289056, -0.06803879, -0.04475903, -0.05965728, 0.1047327, 0.1023007, -0.08747734, 0.01441838, 0.07632743, -0.04832892, -0.3551212, -0.01186809, -0.2121108, 0.0671407, 0.03358611, -0.1179027, 0.1042702, 0.1308291, -0.5173789, 0.0583332, -0.04044261, 0.0110916, -0.02059513, -0.04276669, 0.02501747, -0.05139966, 0.03284536, -1.311079, -0.06276645, 0.01982647, 0.04010864, 0.0732428, -0.0042983, -0.008088306, 0.1777516, -0.0990147, -0.2610265, -0.09982739, -0.05083311, -0.01591268, 0.1053815, 0.02621217, -0.05546162, 0.06880946, -0.005296364, 0.08921549, -0.0014496, 0.07568496, -0.02637048, 0.007988974],
    [-0.08226821, 0.08231685, -0.05587402, -0.08719414, 0.07850692, 0.1127049, -0.096449, 0.0902994, 0.0118949, 0.07434034, -0.07753471, 0.137601, 0.01353285, -0.07224819, -0.01588841, 0.1043694, -0.07229583, -0.02084932, -0.1328309, -0.05021849, -0.1337308, 0.02583261, 0.07005654, 0.056171, 0.1020364, -0.1044799, -0.03458871, 0.03588944, 0.1235331, 0.1218664, 0.004718259, 0.1058009, 0.1124365, 0.007375553, -0.002176374, -0.06260937, -0.04967758, -0.05037861, -0.02622773, 0.1232318, 0.007309452, 0.03904428, 0.007982269, -0.1124232, -0.2560898, -0.1377992, -0.09413941, 0.04871703, 0.03811393, -0.4640972, 0.1336132, 0.000197351, 0.1255134, -0.009628966, 0.02735652, -0.08914258, 0.0671619, -0.1242766, 0.06268093, 0.4849488, -0.0793919, -0.07323949, -0.0115599, -0.07009143, 0.02736546, -0.05054997, -0.1013091, -0.2188457, -0.07857285, -0.0945394, 0.1008575, 0.1365908, -0.05947819, 0.06324537, 0.08090843, 0.4066272, 0.1094227, -0.07059905, -0.1061638, 0.07874065, -0.01610738, 0.04842835, -0.1372778, -0.03757986, 0.006793961, -0.1015627, -0.01531227, 0.1386357, -0.02363566, 0.3709384, 0.0538387, -0.9443282, 0.07866734, -0.2011037, 0.09018385, -0.1290719, -0.1841353, 0.06133286, 0.09897938, 0.02042804, -0.0294028, 0.1008739],
    [-0.02858359, 0.03107153, -0.0666132, -0.05167562, -0.06052456, -0.04374542, -0.08847737, -0.1373555, -0.1227477, -0.03675203, 0.08041228, -0.1242486, -0.03721796, 0.03693099, -0.137912, -0.006997809, -0.003245726, -0.07154228, 0.09546411, -0.07227229, 0.1175896, -0.1391294, -0.1192952, 0.1109412, -0.1268527, -0.04812233, -0.04287703, -0.1061568, -0.03099, -0.1356654, 0.1221728, -0.1920611, 0.000827238, -0.05150008, -0.06734514, 0.0244341, -0.08461012, 0.03262294, 0.07337467, -0.05807178, 0.006364182, 0.0885188, 0.06013099, -0.03291206, -0.03451065, -0.1078331, 0.1144931, -0.05065036, -0.1104613, 0.1287822, 0.02173454, 0.09174728, 0.3822544, -0.1039829, -0.1326739, 0.1280253, -0.02859621, -0.01973793, -0.03046305, -0.08397046, 0.1355481, 0.01442623, 0.1124403, -0.08499655, 0.1150998, -0.1368721, 0.0961667, -0.05734962, -0.1206576, -0.06182271, -0.08133206, 0.1136559, 0.002285242, 0.06347743, 0.3428316, 0.01685257, -0.06521453, -0.02391269, 0.04276567, 0.1023675, 0.1210432, -0.1052947, -0.08170146, -0.0385479, -0.06623866, -0.05726689, -0.007256508, 0.08847423, 0.07062723, -0.2433214, -0.08531775, 0.07214886, 0.001106508, -0.3083266, 0.0232985, 0.03647047, -0.130211, 0.02671268, -0.07081318, -0.03215772, -0.06065314, -0.06468444],
    [-0.1395734, -0.0005629957, -0.1055435, 0.002336979, 0.5310038, 0.06666459, 0.1188632, -0.1070877, 0.0363386, 0.1370568, 0.04542067, -0.09813266, 0.03665499, -0.1379658, 0.05357312, 0.1338626, 0.07050033, -0.0425743, -1.06151, -0.04340912, -0.1268987, -0.7133372, -0.004964948, 0.03112962, -0.111482, -0.06609976, 0.1379517, 0.06172614, 0.04182107, 0.08153967, 0.08673118, -0.0124779, -0.04524882, -0.05202527, -0.1036543, 0.04968203, 0.0282877, 0.01555108, 0.01791052, 0.1293309, 0.1283596, 0.1232742, 0.02771004, -0.1395447, 0.04698176, 0.07938428, -0.04756306, -0.1108859, -0.06140827, 0.02603249, -0.08076237, -0.03851752, -0.116984, -0.5947036, -0.0420448, -0.06743568, -0.05811373, -0.09628972, 0.1337167, 0.03737218, 0.1752615, -0.1215409, -0.0196107, 0.09977698, -0.1106424, -0.4256774, -0.02455856, -0.1002703, -0.07760228, -0.01731212, 0.0381169, 0.0599823, 0.009245142, 0.03742169, 0.07448786, -0.4213022, 0.05578252, 0.1252962, 0.00409475, -1.071505, 0.09223381, 0.1221844, 0.02938711, 0.07592601, -0.06143521, -0.04885159, 0.135606, -0.1084653, 0.07098806, 0.04584456, 0.01846642, -0.115051, -0.0649429, 0.02013652, 0.02256015, 0.07304606, -0.02233657, 0.07877591, -0.002658918, -0.1077389, 0.1092514, -0.02525344],
    [0.06781468, -0.1141957, -0.00351952, -0.09475784, 0.03315431, -0.005379185, -0.03066433, 0.03720792, 0.1249277, 0.04861641, -0.03173169, 0.3837306, 0.006244466, -0.02515021, -0.3036696, 0.06573014, -0.05953559, 0.2732622, -0.003808603, 0.09466033, 0.1253086, 0.1193714, -0.03147516, 0.05525888, 0.08383721, -0.01238392, 0.07876121, 0.1049377, 0.02485489, -0.02920933, -0.07568009, 0.02898802, -0.1270485, 0.04290068, 0.1684476, -0.0131, 0.1341941, -0.06879169, -0.09538582, -0.05783895, -0.4019913, -0.08786064, -0.06135712, -0.12796, 0.02598912, 0.02596465, 0.06477559, 0.06685382, -0.0978788, -0.07054277, -0.09885548, -0.1147607, 0.06395848, 0.01639259, -0.04692486, 0.02349237, -0.04849601, -0.006112456, 0.006597415, 0.06532538, -0.09148471, 0.01528857, 0.4733816, 0.05954084, 0.08530393, 0.06584191, 0.7578043, 0.2688364, 0.2561778, -0.008382723, 0.02555675, -0.05529255, -0.126232, -0.05596924, 0.5281854, 0.09395553, 0.1224152, -0.05898403, -0.08724631, -0.02922462, -0.09495261, -0.09418438, 0.080657, -0.1424168, 0.03343664, 0.01252584, 0.06710111, -0.1048338, -0.03968653, 0.005114272, 0.1007546, 0.1171678, 0.002947539, 0.03677632, 0.3977373, -0.006839395, -0.01837014, 0.1362607, 0.1099203, 0.02015841, -0.1301244, 0.005557895],
    [0.108649, 0.01161282, -0.1030722, -0.08761396, -0.110275, -0.003541663, -0.02078546, 0.09552111, -0.0254596, -0.0694629, -0.02388128, -0.003586233, -0.05576101, 0.102147, -0.03547852, 0.01726815, -0.4960631, 0.0470475, 0.0887738, 0.07701045, -0.9397402, 0.1005416, 0.05903582, -0.05847751, -0.04975827, 0.08500176, -0.09954776, 0.4698014, -0.003391551, 0.05076916, -0.02156732, -0.03241569, 0.003766658, 0.07171395, -0.1318517, -0.01401596, 0.004887193, 0.4006374, 0.03669222, -0.03336539, -0.09038874, 0.05403648, 0.01413317, 0.09415957, 0.8771728, -0.07179628, 0.2061906, 0.06962503, -0.1012087, -0.02023811, 0.1103447, 0.1206463, 0.009840757, 0.01887053, -0.1212738, -0.0330673, -0.01897037, -0.04753495, 0.03476238, -0.04437415, -0.5920686, 0.001253471, -0.06158745, 0.07330272, -0.07626326, -0.1286732, 0.0335801, 0.4733007, -0.00473775, -0.04786329, -0.04077257, 0.008629918, 0.09257892, -0.04828021, -0.02039465, 0.0141748, -0.09567474, -0.05786133, 0.08908628, 0.05001168, -0.1030978, -0.1123851, 0.1118831, -0.09302095, -0.2880462, 0.003655806, 0.1122215, 0.05639417, 8.949637E-05, -0.05614174, 0.1019593, 0.08689981, -0.07054076, -0.3246727, -0.09324282, -0.04919313, -0.09374346, 0.01979572, -0.03189401, -0.06805538, 0.003859952, -0.0444164],
    [-0.02741334, 0.03743298, -0.004067585, -0.03881384, 0.1120659, 0.1181127, -0.05059748, 0.1072208, 0.239737, 0.04448187, -0.0285082, 0.04608657, 0.126837, -0.1375694, 0.1349361, -0.1290196, 0.1025216, -0.1153034, 0.08494721, -0.01675422, -0.08365129, 0.04338677, -0.09538452, 0.01181319, -0.02207804, 0.1237234, 0.08973207, 0.1233284, -0.06158735, 0.01633063, 0.03713728, 0.1330728, 0.001695558, -0.01098888, 0.02847015, 0.509098, 0.07689261, 0.02356238, -0.1078694, 0.01977168, 0.06510764, 0.09657237, -0.0856469, 0.06205048, -0.0007338971, -0.04740268, 0.03102839, -0.009797364, -0.02787606, -0.07077323, -0.1378534, 0.03866098, -0.08944784, -0.0824118, -0.08246174, 0.9168551, -0.06134604, -0.0005984753, -0.1225404, 0.04082776, -0.2191418, 0.139523, -0.07904336, 0.01440664, -0.06555021, -0.08351322, -0.03656087, -0.01640254, -0.1099975, 0.01958081, -0.045167, 0.02272181, -0.01463301, -0.1222627, -0.07895519, 0.111169, -0.1808385, -0.06277372, 0.1375221, -0.1466263, -0.1196421, 0.005245373, -0.07148018, -0.1233875, -0.1741358, -0.06184538, 0.02681644, 0.1075309, -0.05423257, 0.03894085, -0.01858857, 0.01239116, -0.705123, 0.05538574, -0.09902138, 0.04091185, 0.1291612, -0.03094984, 0.1213653, 0.005829692, -0.05423257, 0.06940048],
    [0.1226452, -0.0557938, -0.001472339, 0.06311847, -0.396101, -0.07846422, -0.6630889, -0.07429123, 0.1245986, 0.01923886, -0.03751055, -0.1314813, -0.02757936, 0.08541043, -0.06005349, -0.1073222, 0.02582149, -0.1089718, -0.1978055, 0.4080771, 0.798605, -0.2305385, 0.1088957, 0.03630335, -0.277046, 0.07086816, 0.1003785, -0.03536497, -0.6319007, 0.1061396, -0.08718949, -0.1228216, 0.002332643, 0.05705107, -0.1366728, -0.005984366, 0.08090785, 0.0881388, 0.1357196, 0.1291285, -0.1021178, 0.1338805, -0.1010025, 0.0975161, 0.06926904, 0.09084494, 0.1090605, -0.07376482, -0.03038383, 0.1070228, 0.08418297, 0.1259407, -0.05671453, 0.5987181, -0.1338929, -0.1165543, -0.0005547106, -0.5266576, -0.1077959, -0.1208174, 0.1398795, 0.02498309, -0.1236044, -0.09776706, 0.003816007, -0.001757354, 0.1072191, 0.1000076, 0.04476806, -0.1399752, -0.08561312, 0.1349304, 0.03328688, 0.1271866, -0.73192, -0.01301686, -0.04562203, 0.03277181, -0.6175235, -0.0882196, -0.01658372, -0.1116144, 0.9256128, 0.1352247, -0.08032916, -0.1206731, -0.5978083, -0.0675135, -0.07882752, -0.09820583, -0.3479883, -0.08620894, 0.09759095, -0.03685145, 0.04121349, -0.1117259, -0.03194873, -0.007522449, 0.09858012, 0.05473701, -0.09777847, -0.1302477],
    [-0.02457753, -0.07204329, 0.02167842, -0.01066658, 0.04637369, -0.05402271, 0.02024579, -0.06151624, -0.05195075, 0.02041588, 0.118041, -0.06201484, 0.04573092, -0.1151281, 0.08981037, -0.08720188, 0.09924512, -0.05662659, -0.4860451, -0.05627054, -0.06986278, 0.09479706, -0.160523, -0.1238392, 0.0726361, 0.3249349, -0.1118254, -0.06579643, -0.1028482, -0.2800581, -0.01493706, 0.05680792, -0.02364691, 0.0436164, -0.05067967, 0.006150916, -0.4691223, -0.0659017, -0.05010772, -0.07241052, 0.08562977, 0.1351027, -0.003779769, 0.03872275, -0.2730718, 0.03206804, 0.006693965, 0.05885557, -0.08283716, -0.07684417, 0.08804099, -0.01060621, 0.1384615, 0.05847983, -0.07088794, 0.07753711, 0.1285596, -0.1029659, 0.07861535, -0.1344837, 0.06572933, -0.07532184, 0.1252383, 0.006189108, 0.08800934, -0.1371745, -0.007132754, 0.02512307, 0.09880507, 0.01789524, 0.06587613, -0.0283966, -0.002855708, 0.1115707, 0.07895959, -0.1062429, 0.1021339, -0.03282128, 0.03795879, -0.0367449, 0.08850391, 0.005340689, -0.1077786, 0.0128585, -0.05634185, -0.1380361, 0.06038537, 0.02555986, 0.00459155, -0.06811297, 0.1090468, -0.06007526, -0.1091861, -0.1041161, -0.02660276, -0.1096579, 0.2432111, 0.04060955, -0.1333642, -0.07979937, 0.01856193, -0.1347434],
    [-0.0402011, -0.1195057, -0.00156118, -0.1285383, 0.03467767, -0.06787252, 0.1136507, 0.08947623, 0.003494561, -0.1080688, 0.1173847, 0.1178802, 0.04584834, 0.0821577, -0.07765476, -0.09143324, -0.02327931, -0.1100504, 0.04675385, -0.1215916, 0.1202631, -0.03279351, 0.0295319, 0.1285883, -0.0003122389, 0.1237788, 0.1882382, 0.06093477, -0.1318962, -0.05841024, 0.01569694, 0.03831588, -0.1385934, 0.06724526, -0.07248195, 0.01357758, -0.1203441, -0.06951889, -0.0307751, 0.1127525, -0.1023918, -0.008018762, 0.1309687, 0.1074495, -0.04999214, 0.1256425, -0.09800796, 0.7292262, 0.1386874, -0.107387, 0.04364632, 0.04919919, -0.08285432, -0.01314214, -0.1071976, 0.1019673, 0.111146, 0.05471089, 0.2430827, 0.02330178, 0.1462645, -0.03141546, -0.006752089, -0.0759466, 0.5786649, -0.07535869, 0.1177304, 0.08756252, 0.04297159, 0.02731061, 0.1043483, -0.06150429, -0.1254586, 0.1084161, 0.008792832, 0.01366381, 0.1286605, 0.009226933, 0.1316421, -0.01689647, 0.005486786, -0.1300017, -0.1160818, 0.1280485, 0.1357557, -0.09473617, -0.1382333, -0.04455588, -0.009289265, -0.05055114, -0.002856441, -0.06664038, -0.1211167, -0.09219892, 0.08803731, 0.1050954, 0.07629064, 0.06780106, 0.01277706, 0.01949428, 0.01883101, 0.0115391],
    [-0.1103414, -0.01173043, -0.3639644, -0.01295173, 0.04697713, -0.03127465, 1.099449, 0.02508835, 4.321337E-06, -0.04145122, -0.03419623, -0.03506454, 0.0112137, -0.01614447, 0.1354516, -0.1186647, -0.0573352, 1.318482, 0.1140006, 0.005962089, -0.08979785, -0.5516831, -0.1096799, -0.08371149, -0.02543469, -0.004715815, 0.02479336, -0.1114835, 0.1057074, 0.07926787, 0.05375284, 0.0612676, 0.05744902, 0.04518624, -0.1132404, -0.04036376, 0.01357354, 0.06410381, -0.08251396, -0.09782384, 0.06005581, 0.08483787, -0.02344406, 0.1074062, 0.04723329, -0.1230871, 0.5310749, -0.08511193, -0.120048, -0.08744135, 0.09158053, -0.1123238, 0.02660178, -0.01169138, -0.1062896, 0.04560499, -0.1298281, -0.01072437, -0.1308366, -0.01237357, -0.1308954, -0.001470879, 0.1332146, -0.134293, 0.08278231, 0.03521463, 0.1015733, -0.02147573, 0.07674004, 0.04670961, 0.06333335, 0.1056351, 0.821392, -0.1112663, 0.03181522, 0.07595011, 0.03368887, -0.07269037, 0.07453597, 0.08489202, -0.02082445, 0.04547355, 0.1151344, 0.05953747, -0.03971855, 0.1226813, 0.1281322, 0.03252853, -0.07710811, -0.05578862, 0.06240823, -0.07238309, 0.08810896, -0.08334301, 0.1085844, 0.04150734, -0.1030798, -0.1033284, 0.1278944, -0.1376581, 0.1190189, 0.1125325],
    [-0.06445938, -0.02091336, 0.06271358, -0.03361255, -0.1083847, -0.03575878, -0.09865548, 0.08477257, -0.1339874, -0.003515586, -0.06755577, 0.1395162, 0.04432647, 0.09284894, -0.05003307, 0.0216024, 0.05145402, 0.07440333, 0.112299, -0.1350764, 0.0470657, -0.01140593, -0.07973701, -0.008253664, 0.02410419, -0.09100486, 0.08951321, 0.03623705, -0.05921152, -0.5770596, 0.1075906, 0.1811609, 0.09825064, -0.1145798, -0.08762795, -0.01677474, 0.1278419, -0.01610361, -0.09527879, 0.0436586, -0.0310109, -0.05601451, -0.06883119, 0.1260084, -0.105011, -0.6662529, -0.006352305, -0.1063903, -0.3500042, 0.00777705, 0.104103, -0.0433478, -0.07034498, 0.1196988, 0.08179386, 0.1224276, 0.08071659, -0.06943339, 0.04519592, 0.1080296, -0.3890467, -0.06691861, -0.07213619, 0.03983865, 0.006830275, -0.08691597, 0.01228093, 0.08938259, 0.08314216, 0.1223735, -0.001693353, -0.04148727, 0.1180351, -0.0835482, 0.02284324, -0.03896765, 0.1346973, 0.03914323, -1.154364, 0.02011515, 0.004700314, 0.001757488, -0.125173, -0.1019545, 0.08443137, -0.1181699, 0.1228212, -0.06376, 0.09358238, -0.08238892, -0.04013169, -0.04219529, -0.09412031, -0.1293872, -0.3418929, 0.126836, -0.01238673, 0.8577893, 0.1297385, 0.001643434, 0.0365529, -0.01750188],
    [0.05642423, -0.1400079, -0.06157817, 0.08288667, -0.02131462, -0.02511543, -0.09319228, 0.1163713, -0.07021098, 0.02528309, -0.1375682, 0.1346742, -0.9755613, 0.4404865, -0.01015414, -0.2604269, 0.03131841, -0.1057279, 0.05655118, -0.01235117, -0.05685742, 0.3240117, 0.06448607, -0.1279114, -0.0006187111, 0.02371612, -0.1320485, 0.08157863, -0.07291074, 0.002748132, 0.06120316, 0.06106244, 0.3836866, -0.00561969, -0.08595337, -0.07728395, -0.1022324, -0.04076648, 0.08600485, 0.002446383, -0.03566734, -0.04087492, 0.05164422, 0.07393978, 0.08235751, -0.0226724, 0.1097892, -0.01555829, -0.09838785, -0.05754562, 0.06061772, -0.009555817, -0.07219908, 0.1147767, 0.00124158, 0.129657, -0.009022892, -0.0121149, 0.3085846, 0.03266761, 0.02750892, -0.04349135, -0.06099987, -0.1303831, 0.09138873, -0.363694, -0.03040966, 0.08911712, 0.08239798, -0.1241504, -0.008950606, -0.1309381, -0.1327719, 0.06592127, 0.0370387, 0.08853045, -0.2666437, -0.1153361, -0.1024736, -0.4666607, 0.2691474, -0.1385555, 0.1056217, -0.1082469, 0.0303659, 0.08747531, 0.05985626, 0.01535487, -0.1223757, -0.1760511, -0.04241161, -0.1100269, -0.03185548, 0.3959295, -0.2040993, 0.02803196, 0.03137717, 0.07944434, 0.3752421, 0.06705203, 0.09470843, 0.03093425],
    [0.116486, -0.111527, -0.04336056, 0.1358404, 0.05741119, -0.1383787, 0.09054741, 0.00450626, -0.1058259, 0.0851164, 0.06911557, 0.009069934, 0.0008777205, -0.1133884, -0.01398508, -0.06083861, 0.06678031, -0.1080059, 0.02711123, -0.1138372, 0.1388778, 0.04022552, 0.1089454, 0.02686619, 0.01524103, 0.07777338, 0.06211474, -0.07212216, -0.1052927, -0.0356411, 0.137047, -0.06553037, -0.08349882, 0.03746502, -0.03603151, -0.1085688, 0.107405, 0.1253219, -0.02973231, -0.1342309, -0.1144616, -0.0470756, -6.912649E-05, -1.029937, -0.01795632, -0.0348019, 0.04085961, 0.01895404, 0.09297754, -0.09290631, -0.05515514, 0.07550144, -0.1340464, 0.07344694, 0.02783269, -0.03898491, 0.0243012, -0.02810388, 0.02256897, 0.07987919, -0.06321664, 0.006119072, 0.07145996, -0.2346094, 0.03762133, 0.08688232, -0.08047438, -0.05881817, 0.0794735, 0.02304471, 0.5365561, -0.04674488, -0.2937958, 0.03953267, 0.01618243, 0.03961287, -0.09853371, -0.05995811, 0.03092843, 0.1011253, 0.1399063, 0.1142674, -0.07932466, -0.01068304, 0.05436896, -0.03207811, -0.04279872, -0.07788065, -0.006188318, -0.005683959, 0.08241677, 0.0006294996, -0.1149521, 0.1073622, 0.1278831, 0.08591912, -0.02695285, -0.08947523, 0.009296273, 0.0787165, -0.01585786, 0.03508995],
    [-0.1014785, -0.1080731, -0.1114262, 0.4567944, -0.09432136, 0.04940847, -0.06750898, -0.03787325, 0.1327732, -0.1249699, -0.1178496, -0.04117794, 0.0904471, 0.1020035, 0.01805613, -0.09872118, 0.01252972, 0.0883483, -0.05285937, -0.09759215, -0.05776921, -0.03556031, 0.0700516, 0.1302703, 0.03356825, 0.1142058, 0.111939, 0.1005399, 0.002097579, -0.04066095, -0.0438806, 0.006407857, 0.02535871, -0.0279699, 0.02978336, 0.04997305, 0.0194187, -0.1185462, 0.07541647, -0.04943471, 0.100589, 0.01933801, -0.0638855, 0.3742918, -0.08842172, 0.1199726, -0.07095175, 0.1019581, 0.05876249, -0.02083106, 0.0175814, -0.1038371, -0.0770966, -0.1107194, -0.06746243, 0.2418608, -0.01240355, -0.05127496, 0.08070461, 0.04899383, -0.02983947, -0.04342605, -0.1477969, -0.04953958, 0.1242904, -0.05979084, -0.1155557, 0.04439728, 0.06421901, 0.05041222, -0.02673465, 0.06724219, -0.1100205, 0.05448645, 0.1113611, 0.007365777, 0.08966635, 0.00640972, -0.06163278, 0.1202718, 0.001107227, -0.01712156, -0.06048099, 0.09152408, 0.008367598, 0.1061458, -0.08584407, 0.01003429, -0.01431021, 0.009820998, 0.1030107, -0.09210187, -0.005068764, 0.6420656, 0.04490624, -0.1023364, -0.0981766, 0.06005257, -0.05589849, -0.08229442, -0.09029113, 0.001170039],
    [0.09682967, -0.0002563149, 0.08272261, -0.07759364, 0.02350089, 0.03059131, -0.03191528, -0.03802415, 0.01058622, -0.1125287, -0.05807945, -0.07793085, -0.09865785, 0.1061184, -0.1086488, 0.03422981, 0.004679292, -0.07880095, -0.1111661, -0.7023857, -0.1333265, 0.1044358, 0.06864821, 0.08843017, -0.08817023, -0.09272608, 0.01452388, 0.1011671, 0.1050591, -0.05824508, 0.05553951, -0.03971078, 0.08984593, 0.0271522, 0.256008, -0.0313078, 0.116353, 0.1123035, 0.01011589, -0.1429237, 0.07665554, -0.03447075, 0.07980087, 0.08951738, -0.08335897, -0.07025845, -0.002597392, -0.03287354, 0.08464764, 0.09403525, 0.05402268, 0.1076976, -0.01355519, 0.00623104, -0.03726538, -0.005313247, -0.1374201, -0.1062792, 0.002477244, -0.4884954, -0.007440194, -0.07053685, -0.03073451, -0.01088916, -0.08244625, -0.09385163, -0.03945841, -0.02142856, 0.1172473, -0.08669834, 0.1113123, 0.03094687, 0.101173, 0.1941384, 0.03735488, 0.1275908, 0.0557441, -0.02781109, -0.1264699, -0.09793209, 0.02422137, -0.1366442, 0.1241535, -0.04063958, 0.01996291, 0.02344483, -0.003593475, 0.2693311, 0.06996356, -0.113875, -0.1027335, 0.1104814, -0.09548675, 0.03775314, 0.06289008, -0.121454, 0.6248727, 0.06445612, -0.09655431, 0.08608057, -0.08536072, -0.1028413],
    [-0.0811047, -0.07530677, 0.0357384, -0.01849833, 0.09679741, -0.134976, 0.1093511, -0.05942074, 0.1195336, 0.1255963, -0.01285842, 0.04681818, -0.1390232, 0.1269871, 0.1394235, 0.02299957, -0.02981998, -0.05475104, 0.01180162, -0.05429687, 0.001916364, -0.1046052, -0.1369371, -0.1368854, -0.1125029, -0.9707881, -0.04038653, -0.1146147, 0.05823812, -0.091795, 0.08415621, 0.08201501, 0.06128098, 0.04227261, 0.03362601, 0.1396749, 0.06912008, 0.03149452, -0.1063976, -0.1210472, 0.03261891, 0.05203199, 0.1074058, -0.02826359, 0.0367649, -0.08747341, 0.07241006, 0.1073087, -0.03474024, 0.07979362, -0.06881422, 0.07179992, -0.03240323, 0.02163438, -0.09481053, -0.1329779, 0.03520834, 0.132376, -0.02178532, -0.02223518, 0.07169739, -0.009197488, -0.05212609, -0.1146616, 0.1261698, 0.04324595, -0.03173617, 0.1009768, 0.1128896, 0.6151232, 0.008619666, 0.07437679, 0.106245, 0.09585238, -0.03457321, 0.0447812, -0.1230187, -0.1220751, 0.1056274, -0.1261096, 0.08918657, -0.1060172, 0.1028896, -0.1290175, 0.04253441, -0.07498407, 0.1392918, 0.05523718, -0.397711, -0.03989613, -0.03607391, 0.08829792, -0.05747679, -0.01241153, -0.13966, 0.08361049, -0.006281987, 0.07558788, -0.07339863, -0.1086685, -0.1279271, -0.03221314],
    [0.01077318, 0.01731636, -0.01958689, 0.1288822, -0.09933029, -0.05104437, -0.07733613, 0.03449288, -0.08690216, 0.03012967, -0.00733012, -0.1315205, 0.02686822, 0.005434334, -0.1293447, 0.1280775, -0.1245298, 0.6271505, -0.0609776, 0.1334404, 0.1277414, -0.1027144, 0.06289677, -0.06797779, -0.03957376, -0.1228707, 0.1392633, -0.03701254, 0.0677829, 0.05568094, -0.03941268, -0.02589551, -0.08475594, -0.1383597, 0.01210012, -0.1283531, 0.02620606, -0.01224217, -0.1300485, 0.1238109, 0.01213887, -0.01795118, -0.02983597, -0.07035427, -0.07287179, -0.1650797, -0.0134661, -0.1300283, 0.07260107, -0.01921565, 0.2717244, -0.0487009, 0.08789872, 0.03416571, -0.07206599, -0.1388894, 0.06308405, -0.05764668, 0.1196394, -0.1295397, 0.04609358, 0.07186542, -0.09950994, 0.07840343, 0.104953, -0.09110258, -0.1378577, 0.07034552, 0.03436762, 0.04142421, 0.01163965, 0.07800511, -0.1198734, -0.06653398, -0.01688418, -0.05518031, 1.34239, 0.2977171, -0.113863, 0.04126364, 0.03493364, -0.1196502, -0.05351235, -0.04583996, 0.01532599, 0.1146229, -0.05983602, -0.01024725, 0.1310398, -0.09511034, -0.07518509, 0.1081619, -0.09455848, -0.05585122, -0.06196089, -0.09480375, -0.02629654, -0.7575091, -0.06931524, 0.09916299, -0.09176709, 0.02792083],
    [0.1387162, 0.05544984, -0.01339509, -0.04026136, 0.1272298, -0.08233245, 0.03756508, 0.02503937, 0.0576505, 0.6371416, -0.1000665, -0.1093725, -0.09750171, 0.0558491, -0.02097362, 0.1182583, -0.05912454, 0.06150009, -0.03860525, 0.1028208, 0.07441155, 0.90416, -0.1394304, 0.1352405, 0.1125578, -0.381249, 0.02013214, -0.02981077, -0.01110891, 0.01819683, 0.2318135, 0.1123758, 0.1157375, -0.06110904, 0.04651537, -0.04820659, 0.1243899, 0.03085646, -0.1043293, -0.09516761, 0.418941, -0.202669, 0.02247909, -0.01208109, 0.07214625, 0.09884773, 0.1319066, -0.0748143, 0.05436866, 0.1245485, -0.1206059, 0.6402208, -0.02869043, -0.1080474, 0.08319768, -0.07839341, 0.00738658, -0.09148261, 0.05058317, -0.06244428, 0.05670496, 0.03896419, 0.1085276, 0.05123996, -0.07061988, -0.06698114, -0.07860294, -0.1031235, 0.01719544, 0.1255764, -0.1367383, 0.1271319, 0.003272876, 0.03487207, -0.04122964, -0.04325329, 0.00418897, 0.1389189, 0.1041302, -0.0273684, 1.249239, -0.6098674, 0.08173908, 0.09600845, -0.1134933, 0.01067005, 0.2612888, -0.01538533, 0.1290136, -0.03110488, -0.05021656, 0.08262526, -0.02540879, -0.1283722, -0.02584399, -0.081705, 0.1338677, 0.07143772, -0.6802503, -0.03952862, -0.3111432, -0.08823951],
    [-0.1317791, 0.05357039, -0.1383282, 0.1107098, 0.09440996, -0.006732896, -0.02147857, -0.07222375, -0.03927089, 0.02324562, 0.05651643, -0.03881518, -0.1273178, 0.002526149, -0.1274949, -0.002947837, 0.1167665, 0.08875213, 0.004622236, 0.08432367, -0.04470902, -0.13072, 0.02819823, -0.1002822, 0.1216133, -0.1182567, -0.1291925, -0.1341576, 0.1322441, 0.02710279, 0.01521516, 0.052125, -0.09798883, 0.04442866, 0.08493832, -0.07679987, -0.09274051, -0.01769899, -0.1245048, -0.3926753, -0.004363105, -0.07542486, -0.3779779, 0.003078341, 1.086726, -0.07070869, -0.03290625, -0.1148792, 0.09514064, -0.10942, 0.03369037, -0.1155152, -0.01876715, 0.1011128, 0.1226431, -0.027239, 0.1017874, -0.1202606, -0.05558434, 0.121339, 0.04067061, 0.01375546, -0.007802188, 0.1171815, 0.03443043, 0.07712974, 0.02119236, 0.2290974, 0.0990359, 0.11791, -0.1268852, -0.05378757, -0.01115501, -0.01547587, -0.002490789, -0.09919094, 0.001776084, -0.0962494, 0.1149146, 0.0792649, -0.1024659, 0.1394018, 0.2609718, 0.08776362, 0.07830607, 0.123395, 0.02068694, -0.1113628, 0.08522844, -0.009616077, -0.05735696, 0.01963113, -0.09599787, -0.1355181, -0.07509288, -0.0333219, -0.1307657, 0.1013547, -0.1138004, 0.03152841, -0.02966014, -0.0526872],
    [-0.08387464, -0.4999211, -0.005465895, 0.1174388, 0.03314115, -0.08810085, -0.06187239, -0.1279056, 0.116501, -0.04883427, 0.109498, -0.07491453, -0.000310868, -0.009346098, -0.04661481, 0.05593794, 0.1393807, -0.04189083, -0.1263131, -0.05841706, 0.1395525, -0.0008992851, 0.1362859, -0.07806663, 0.5593349, -0.09886253, -0.03486647, 0.05175429, -0.1288598, -0.05068415, -0.008948505, -0.4298062, -0.1088866, -0.01545029, 0.08836533, -0.004498482, 0.01014467, 0.04052739, -0.5161567, 0.002036318, -0.123957, 0.10705, -0.04954207, 0.07334869, 0.1185307, -0.119389, 0.1363198, -0.08997744, 0.04226172, 0.08168356, -0.07341586, -0.1369104, -0.05296857, -0.5168965, 0.09663542, 0.08002955, -0.1376366, 0.1156017, -0.1314261, -0.1182401, 0.1307431, 0.105315, 0.0243023, -0.1320636, 0.008738741, -0.08735669, -0.06478719, -0.01145887, -0.009144217, 0.07725728, -0.5687421, -0.00666219, 0.0003315657, -0.07541402, -0.1383404, 0.08494928, 0.05416478, 0.08087594, -0.05860163, 0.1324808, -0.02735531, 0.5835825, 0.2446866, -0.1043432, -0.134925, -0.1113925, 0.02950696, -0.003876388, 0.3750537, 0.06995364, -0.1375757, -0.07053041, 0.06474985, 0.4970035, 0.2391173, 0.1029084, -0.134304, 0.1243042, 0.09364495, 0.1226267, -0.03493044, -0.1247382],
    [0.08787292, -0.1362896, -0.3876978, 0.2557436, -0.1069223, 0.07863735, -1.238762, 0.02645575, 0.003093123, -0.1156822, 0.01212192, -0.0310716, 0.0557689, 0.02728447, 0.0009242147, -0.05196063, -0.1359188, -0.05810276, 0.04519118, 0.04680412, -0.04062209, 0.1178524, -0.02673999, 0.03347607, -0.03849431, -0.03375841, -0.05576539, -0.5135666, -0.06264356, -0.01668304, -0.09688632, 0.04990231, 0.467991, -0.06406267, -0.06935193, -0.04340669, -0.05434104, -0.04522729, -0.02431849, -0.7361262, 0.1223628, -0.05503755, 0.1146867, -0.130525, -0.002870917, -0.04138985, -0.07299668, -0.04401197, 0.09046009, 0.1293835, 0.08319695, 0.07041647, -0.07635967, -0.0676602, 0.04729405, 0.07564951, -0.06256597, -0.0131197, -0.06120038, 0.09828483, 0.645237, -0.06676424, -0.04365738, 0.1233915, 0.1367699, 0.1504663, -0.01898195, -0.01662432, 0.01275256, -0.08118092, -0.1471622, 0.1014846, 0.1184388, -0.03550399, 0.118356, 0.1001279, 0.03399057, -0.01739585, -0.1188385, 0.00168474, -0.03217074, 0.03902015, -0.09017828, -0.003260195, 0.09498523, -0.09598178, 0.02135575, 0.1033389, 0.04259471, -0.546356, 0.1215489, 0.1290194, 0.05159698, -0.01419093, -0.05514542, -0.02285635, -0.01844816, 0.1293521, -0.09365332, -0.09530149, -0.07752062, -0.0503763],
    [0.08813915, 0.09357683, 0.05293583, 0.02010296, 0.03298264, -0.1318104, 0.05405841, 0.08840606, 0.06166411, 0.04909883, 0.4768557, -0.1054325, 0.01410359, -0.04190098, 0.01799081, -0.03400353, 1.005247, 0.1017646, 0.1302314, -0.002742887, -0.03721252, -0.0966704, -0.006791413, 0.1183209, -0.000808537, -0.1036143, -0.06302789, -0.1167804, -0.1279929, 0.002615288, -0.06803334, 0.0381536, 0.09755166, 0.03816031, 0.08733051, 0.09428003, -0.006536022, 0.07475458, 0.006576255, 0.3061221, -0.1136587, 0.06314118, 0.09679697, 0.04399674, 0.07242773, -0.01646811, -0.07496445, 0.2684484, 0.09537958, -0.77868, 0.09580133, 0.08027206, -0.07036269, 0.04482795, 0.03813116, 0.1133586, 0.08328919, -0.05783437, 0.218305, 0.01223625, -0.08971663, 0.08745881, 0.1109966, -0.1303487, 0.02940601, -0.07613523, -0.06502052, 0.1015801, 0.08842261, 0.05494625, 0.08019311, 0.109049, -0.01589906, 0.03916257, 0.09313251, 0.1355628, 0.07433286, 0.08247843, -0.009292405, -0.1359951, -0.02694224, -0.05740787, 0.3890943, 0.1120306, -0.04122142, 0.06370829, 0.1271652, -0.101238, -0.06237901, -0.09550187, 0.0551054, -0.01349719, -0.08148779, -0.5741755, 0.03166612, -0.1023891, -0.02203884, 0.07755741, 0.05531056, 0.03931373, -0.0767827, -0.05782102],
    [0.1093746, -0.08176623, -0.6231197, -0.4435183, -0.01886582, 0.04194543, -0.06812118, 0.0146044, -0.07796258, 0.01488768, 0.3266123, -0.01633771, 0.05125138, -0.02859344, 0.06161873, 0.07552062, -0.1302774, -0.04498415, 0.0322105, -0.1043262, 0.05248896, -0.06237203, 0.009122282, -0.1372989, -0.1038727, -0.1246228, 0.122228, -0.9016572, -0.1329965, -0.03725502, 0.05749112, -0.07051328, 0.01422271, 0.05146948, -0.1072125, -0.0201609, 0.1117887, 0.0009366721, 0.03773231, -0.1234345, -0.01766217, 0.5248177, -0.0820304, 0.1361412, -0.626867, 0.1302913, 0.0440614, -0.03499409, -0.1031396, -0.03931556, 0.07338879, -0.08572432, 0.03144121, -0.1097515, 0.02743107, 0.03343217, 0.1244303, -0.1223498, -0.03174812, 0.1078742, -0.02525364, 0.1320399, -0.05027726, 0.1093332, 0.1055821, 0.1289348, -0.130866, 0.2681264, -0.9876301, -0.1236753, -0.07473923, -0.05235118, -0.133499, 0.0250943, 0.02036818, 0.0909152, -0.1216181, -0.03103544, -0.006685078, 0.04285171, -0.07196929, 0.02541633, 0.06222998, 0.07000493, -0.1310617, 0.0711209, 0.03637583, -0.2905723, -0.07900135, -0.04063324, 0.2725642, 0.1130668, 0.1050108, 0.1180992, -0.01728091, -0.007832602, 0.07468627, 0.08128694, -0.03470949, -0.02541997, -0.01796978, 0.09527331],
    [-0.0646881, 0.1273446, -0.02405658, 0.06792773, 0.1378171, 0.1201888, 0.56426, 0.008681819, -0.106328, 0.1250619, 0.004371792, 0.09500346, -0.01839991, -0.05777051, 0.0741681, -0.03608146, 0.4027056, 0.1345371, -0.007169202, -0.08567572, 0.06564811, 0.1350631, -0.9514842, -0.09024349, 0.01272495, 0.02476699, -0.08716831, 0.02650222, 0.05261393, -0.09414646, -0.08759175, -0.1160113, 0.11065, -0.1145139, 0.03058754, -0.06360115, 0.1103622, 0.07579794, 0.1630377, 0.08310404, 0.1571953, -0.1391084, 0.3000686, 0.1093751, 0.1010491, -0.07372138, -0.1384552, 0.0423322, 0.01091661, -0.1246124, 0.1111916, -0.116513, 0.1258467, 0.02952088, 0.01145822, -0.2287131, -0.04259336, 0.01986022, -0.1742315, -0.04796151, -0.0651603, 0.08008087, 0.7494733, -0.03160129, 0.1190424, -0.0675182, 0.0456567, -0.01431245, 0.003808215, -0.08290379, -0.391071, -0.01678233, -0.122739, 0.09253836, -0.06795225, -0.04986417, 0.08015134, -0.002403453, 0.02910841, 0.03367521, -0.0418887, -0.1159702, 0.001430109, 0.03678323, 0.06689325, -0.09241135, 0.0764579, 0.07340679, -0.1355898, -0.04587443, -0.02250727, 0.1202692, -0.007627323, -0.0736924, 0.4457214, 0.1182295, 0.08022393, -0.08724795, 0.08999249, -0.05422355, 0.008358255, -0.1282102],
    [-0.134303, -0.1286799, -0.05572456, 0.04289744, -0.08150673, 0.08145541, -0.1177587, -0.02629016, -0.1116092, -0.08008514, 0.04437888, 0.09630781, 0.1283168, -0.0592637, -0.1120992, 0.09212371, 0.04629096, 0.02979932, 0.04440843, 0.1290303, 0.1050064, -0.03856453, -0.05498056, -0.1330854, -0.06552137, 0.07002616, -0.1369567, 0.09125486, -0.2425911, -0.004289553, 0.1084936, -0.1198003, 0.01572342, 0.06127764, 0.07576121, -0.07355051, 0.01891121, 0.05819691, 0.112322, 0.03723757, 0.0251589, 0.134035, -0.07810719, 0.1166082, 0.1231227, -0.0006460845, 0.03384909, -0.01834737, 0.0720672, 0.1037902, 0.1163832, -0.04069257, 0.1109018, -0.02817535, 0.0692818, -0.1009909, -0.04756108, 0.1201482, 0.01278462, 0.1069635, -0.1092253, 0.02296719, 0.09442252, 0.09197421, 0.09409548, -0.04614174, 0.0696298, -0.1676128, 0.2458385, 0.01531531, -0.09817278, -0.07451841, 0.1150952, -0.04469179, -0.01350544, -0.07053147, -0.03668159, -0.07516482, -0.0008447617, -0.06696394, 0.07461907, 0.004689783, 0.06811295, 0.1371344, 0.1290909, -0.01088536, 0.09727652, 0.05172725, -0.07847938, -0.1390306, 0.08878067, 0.01551799, 0.07801432, -0.1269531, 0.06512643, -0.03660641, -0.09240735, -0.01997887, 0.3702645, 0.06860535, -0.1337177, 0.07011126],
    [-0.06039135, -0.03357346, 0.04319815, 0.06058173, 0.1003508, -0.02386291, 0.1162421, 0.544642, 0.05459588, -0.4832768, -0.3606614, 0.03637319, -0.05396448, 0.0959973, -0.06990412, -0.0104914, -0.06684358, 0.09180882, 0.03793714, 0.04352415, 0.04990181, 0.04013791, -0.1181798, 0.08320573, -0.07446361, -0.07278922, -0.122046, -0.1227899, -0.01464779, 0.05632324, -0.03756113, 0.04965266, -0.4420544, 0.08813651, 0.1169357, -0.006261066, 0.08632101, -0.7277476, -0.1183861, 0.1043202, -0.01413147, -0.1115849, 0.1052553, -1.194069, 0.08780304, -0.1347485, 0.03340746, -0.0100088, -0.8175232, -0.7286016, 0.04541089, 0.08235257, -0.01210335, 0.109412, -0.08004822, -0.01846317, 0.06997848, 0.02994788, -0.1148071, -0.03791341, -0.04614242, -0.07338659, 0.006752551, 0.1055664, 0.06102862, 0.06779528, -0.1053883, 0.1162577, 0.09354819, 0.02669921, 0.06146096, -0.05093314, -0.06047792, 0.1349117, -0.1321276, -0.004866928, 0.9693365, -0.07647265, -0.1174031, -0.1195786, -0.0865031, -0.02605683, -0.009548813, -0.03962727, -0.03854875, 0.05068135, -0.02222133, 0.02982563, 0.05143526, 0.08804443, 0.0390407, 0.04165906, -0.1082537, -0.01128668, -0.1090016, 0.08360966, -0.09534097, -0.1274426, -0.1034368, 0.08506719, -0.4676919, -0.06246928],
    [-0.4622801, 0.005702287, 0.108843, 0.1164267, 0.04068911, 0.08274227, -0.03721015, -0.1019529, -0.1168608, -0.01766257, -0.03812617, -0.01049402, -0.004660398, 0.05260842, -0.08907093, 0.1037313, 0.1018345, 3.05916E-05, -0.004965171, -0.02882672, -0.08078837, 0.05545999, -0.1096646, -0.01689919, -0.01724298, -0.1203606, 0.02909018, -0.1374359, -0.01329765, -0.06583565, 0.0196969, -0.1276388, 0.0721959, -0.2780046, -0.07634947, -0.0355949, -0.09102798, -0.04557563, -0.1397093, -0.03031275, -0.02921567, -0.01557389, -0.05543307, 0.1204755, -0.1117182, 0.05602664, 0.3148646, -0.03436454, 0.1363725, -0.05918685, -0.0112969, 0.5520213, -0.03802903, -0.06921814, -0.1088442, 0.1060753, 0.05381337, -0.08602153, 0.004137561, 0.01816471, -0.1123101, -0.0153289, 0.06402747, -0.05480576, -0.03236257, 0.09721427, 0.04518053, 0.1062156, -0.05581744, 0.09420495, -0.08232336, 0.08259131, 0.03309037, -0.09347475, 0.07005862, 0.007835271, -0.019675, 0.6337418, -0.09975749, -0.02795468, 0.05087515, 0.0609689, 0.7382388, -0.01716018, 0.07876822, -0.06273191, -0.1194672, -0.01896895, 0.04235053, 0.1038371, -0.1112563, 0.03946083, -0.005312845, 0.04946066, 0.06792503, -0.05812686, 0.03648894, -0.06898148, -0.006792054, 0.1223064, 0.0287586, 0.09643405],
    [-0.07564133, 0.06466198, -0.1209614, -0.1000143, -0.01604285, 0.04569059, 0.02227078, 0.07964793, -0.003363267, -0.02820854, -0.007137462, -0.001327264, -0.03131841, 0.02840391, 0.01995463, 0.1203781, -0.1087091, 0.0544383, -0.1244405, 0.1190193, 0.07003137, 0.01334634, 0.06672291, 0.08636766, -0.06708013, 0.1367117, 0.1204554, -0.04582047, 0.001572778, -0.06398918, -0.135616, -0.01024973, -0.09803531, -0.03422754, -0.2921508, 0.02757215, -0.8384205, -0.07942481, -0.360133, -0.05400962, 0.05358995, -0.1170533, 0.1140747, -0.1024643, -0.04692633, -0.1170007, -0.03770144, 0.0002577156, -0.09451437, -0.05156855, 0.1264927, -0.0894911, 0.07785327, 0.08649842, -0.1374055, -0.02707759, -0.1037107, -0.09021604, 0.08852511, 0.1254313, -0.136781, -0.06516623, -0.1802805, -0.07664103, 0.06543541, 0.06983167, -0.07124005, -0.05720386, 0.03773992, -0.07388186, 0.02401348, 0.03828257, -0.1291047, -0.03210367, -0.07191435, -0.06998968, -0.06116426, 0.02607589, -0.09326691, 0.09847803, -0.08837244, 0.01317608, -0.06979132, -0.1152214, 0.1375338, -0.05410688, 0.08087201, -0.03994748, -0.1310382, 0.02895641, 0.07380567, 0.1015778, -0.03049563, -0.1279906, -0.04758024, 0.05056314, -0.04615466, 0.1160307, 0.05985083, -0.04625118, 0.06183795, -0.1359361],
    [0.003675938, 0.03926464, 0.08343269, -0.02944106, -0.115535, 0.02736897, 0.01458396, 0.1226939, 0.1315256, 0.4421958, -0.009203314, -0.05426255, 0.01045091, -0.07820316, 0.12654, -0.03571333, -0.1272062, 0.1709385, 0.05364227, 0.4085501, 0.02415651, -0.006540567, 0.6638828, -0.1350171, -0.08245347, -0.02249639, 0.1265127, 0.01627631, 0.137359, 0.3756449, -0.001440331, 0.05387355, -0.08343495, -0.03447336, 0.1101369, 0.0648938, -0.5182346, -0.1221621, -0.07750736, 0.03011632, 0.1133192, -0.03814537, 0.02072972, -0.2937343, -0.07575725, 0.04317187, 0.0797444, -0.03350742, 0.02980275, 0.02915999, 0.1077291, -0.003096238, -0.0860991, -0.1193942, 0.0565171, 0.07685318, -0.05048145, -0.02060161, 0.1208887, -0.01148723, -0.8157331, -0.1145718, -0.04192692, 0.135252, -0.05778476, 0.03491325, 0.02467862, -0.01640119, 0.08836353, 0.05799453, 0.02673793, -0.08078864, -0.00188075, -0.1117149, -0.08460574, -0.1125212, 0.127565, 0.005167052, -0.09130934, -0.04889967, 0.130631, 0.1374102, 0.03416073, 0.09220182, -0.09991476, 0.03307565, 0.09371482, -0.009927332, -0.1167221, 0.1121533, -0.06514117, -0.1010101, -0.1016634, 0.05964567, -0.002976368, 0.006874442, -0.1266454, 0.01283713, -0.1089752, -0.1072514, 0.005364597, -0.02707905],
    [0.1324149, -0.06612083, -0.02049354, -1.224303, -0.07214776, 0.05105647, 0.03670634, 0.03254175, -0.02402879, -0.7198371, 0.09879947, 0.01291934, -0.1011972, -0.01407902, 0.1074698, 0.3238177, -0.07677099, 0.1375434, 0.1322383, 0.0479888, 0.04827716, 0.09052594, -0.02890089, 0.0512871, 0.07944544, -0.1398676, -0.1245946, -0.073087, -0.02301713, -0.00270322, 0.1301919, -0.02545683, 0.368408, -0.006628673, -0.1193718, -0.06761135, -0.06949869, 0.1338869, 0.007685378, -0.1300022, 0.1348876, -0.1076994, 0.05262361, 0.7187104, -0.0256574, -0.1072496, -0.03724727, -0.08887379, 0.04887208, -0.1226844, 0.131349, 0.03743949, -0.05962175, 0.1284711, 0.0453777, -0.07992166, -0.02931871, -0.0003040284, -0.03023232, 0.3239929, 0.08313309, 0.1896447, 0.06243915, -0.1268062, 0.5323812, 0.03686593, -0.08970481, 0.002002563, 0.04955146, -0.09966061, -0.01269925, 0.09543203, 0.1299094, 0.08429202, 0.04167433, 0.09225641, 0.09375752, -0.0518091, -0.1064339, 0.1358591, -0.2599008, 0.1246855, 0.07070744, -0.1697, -0.04204397, 0.1347018, 0.08110666, 0.07393504, -0.05063661, -0.1267827, 0.0461041, -0.1774159, -0.03839869, -0.02502045, -0.02241219, -0.0438223, 0.03302026, 0.09318793, 0.06587607, -0.01978495, -0.08173278, 0.09797235],
    [-0.1153727, -0.02775434, -0.09679568, 0.02570571, -0.2194626, -0.0448885, -0.05572389, 0.07119998, 0.02714753, 0.01341175, -0.08291906, 0.03976677, -0.1367264, 0.03079851, -0.06777354, 0.04084338, -0.09975615, 1.067524, -0.06434037, 0.1215485, -0.4415471, 0.04371966, -0.0609589, -0.07498328, -0.01325114, 0.09075294, 0.04962164, -0.03839175, 0.05562642, 0.03034216, -0.03828432, 0.6647489, 0.004534602, -0.04068519, -0.02739291, -0.1119814, 0.07896016, -0.07676864, 0.0597518, 0.07406266, 0.02338327, -0.03982876, 0.01050423, -0.1141937, 0.128423, -0.06822999, -0.2332989, -0.03689195, 0.06983803, -0.07851143, 0.1295833, -0.0672961, -0.100581, 0.07272666, -0.5866488, 0.01037396, -0.06865955, 0.07497253, 0.1081838, -0.3545759, -0.05172099, 0.002382889, 0.03441186, -0.03264177, -0.09075411, 0.1851482, 0.2268754, 0.6028248, -0.03146388, 0.05773593, -0.0710748, -0.1252913, 0.07536259, 0.004352451, 0.2325058, 0.09431505, 0.1393355, 0.03901929, -0.005566284, 0.2102627, 0.07911206, -0.1170148, 0.06519264, 0.08681588, -0.01953538, -0.1069357, 0.07788195, -0.02040564, -0.02929416, 0.115347, -0.05880104, -0.002926539, 0.01156084, -0.01695159, 0.0331919, -0.05488946, 0.06715716, -0.01743578, 0.139865, -0.09683737, 0.02651167, 0.02601276],
    [-0.02155699, 0.06370322, -0.1233137, 0.03009543, -0.003750622, 0.01346627, 0.02449951, 0.5133274, 0.1266152, -0.001342341, -0.07214105, -0.000584662, -0.06980196, 0.03912567, 0.04407297, -0.08227985, -0.07250783, -0.09349424, 0.2532337, 0.1398657, 0.04690211, -0.2188211, -0.1029487, 0.03973986, 0.07905036, 0.09495258, -0.1032176, 0.1364748, -0.1040671, 0.01971873, 0.05535736, -0.1337354, -0.09972084, -0.06031992, 0.1150619, -0.1187831, 0.007904053, -0.06649552, 0.05887934, 0.09990632, 0.1174337, 0.1195206, 0.1228515, 0.03094734, 0.6184356, -0.04204217, 0.1192572, -0.02423399, -0.03829293, 0.09092858, -0.03929205, 0.01113351, 0.1613205, -0.1365251, 0.07865471, -0.107805, 0.02252126, -0.09956075, 0.06796041, 0.01911402, 0.09330317, -0.09793405, -0.09701876, 0.009915605, -0.123575, -0.130652, -0.09363233, -0.06598635, -0.002752468, 0.07969604, -0.3733785, 0.04019522, -0.07959461, -0.05906248, 0.1081724, 0.132302, 0.0694368, -0.1110078, -0.00576742, -0.0934934, -0.1270129, 0.06571139, -0.01701122, -0.06308377, -0.0468232, 0.1310234, 0.05653013, 0.09175804, -0.1247676, 0.07730094, 0.03849797, 0.1078197, 0.02733964, 0.07968609, -0.08817668, -0.1170578, 0.02142719, -0.04001741, -0.02797151, 0.06347156, -0.03817104, 0.02110777],
    [0.04173734, -0.07603768, -0.589089, 0.1258816, -0.03594701, -0.05938929, 0.1208469, -0.7513138, 0.05683336, 0.1244871, -0.1032635, 0.01680663, 0.02203066, -0.01565263, 0.07261559, 0.08109494, 0.08261307, 0.1204961, -0.1316832, 0.1018423, 0.05167794, 0.05743373, 0.09318493, -0.03038616, 0.005695641, 0.1211015, 0.1321049, 0.0721742, 0.4121666, -0.1123263, -0.04795927, 0.06669401, 0.1267171, 0.1005521, 0.058787, -0.1358286, 0.03027011, -0.04994616, -0.06722355, -0.137847, 0.00502333, 0.1657248, 0.1309225, 0.04118054, -0.0480205, 0.1220291, 0.1095151, 0.07155998, 0.03637603, -0.009923264, 0.1035624, -0.05430715, 0.1125821, -0.1222409, -0.04904085, 0.01799655, 0.04064637, 0.1075746, -0.007548466, 0.05172808, -0.1328238, -0.1323255, 0.05372192, -0.08126731, 0.01597421, 0.01226516, -0.1372284, -0.570658, -0.1153786, 0.2892824, 0.1314273, -0.0003442913, 0.1245832, 0.1323592, -0.1129825, -0.02157459, -0.06090622, -0.2825105, 0.005222738, -0.03354141, 0.1338075, -0.07563996, 0.03920279, 0.07752359, 0.03108865, 0.07300453, 0.02358134, -0.6978902, 0.01179671, 0.1149665, 0.02109998, 0.02525982, 0.08014804, -0.02218731, -0.1270392, 0.01599183, 0.02367088, -0.01925982, -0.1286891, -0.02879369, 0.1174764, -0.0367098],
    [0.139566, 0.0976273, 0.2313746, 0.117184, 0.00409168, -0.105195, 0.0655095, -0.02914176, -0.0288019, 0.03222222, 0.02936344, 0.1371871, 0.05262738, 0.02725042, -0.01074815, 0.03939473, -0.1228136, -0.001562869, -0.0993459, 0.0915222, 0.08444008, 0.08189639, -0.1038896, 0.0980321, -0.01990549, 0.1293219, 0.02700557, 0.05243833, 0.002587035, 0.07516035, 0.16106, -0.05899899, -0.01081043, 0.1148085, -0.008394808, 0.05659459, 0.003904894, -1.099535, 0.547053, -0.1395764, 0.01243066, -0.04931666, -0.02560526, 0.05254719, -0.0889295, 0.01024342, 0.877688, -0.05760916, -0.01971663, -0.06808402, 0.07651365, -0.969532, -0.1326442, 0.09135254, 0.1038336, -0.2392534, -0.7938582, 0.01751414, -0.1272589, 0.01572866, -0.6213737, -0.09101154, 0.518748, 0.006076679, -0.1120503, -0.1081702, -0.08293211, 0.06195083, -0.10187, 0.07550542, -0.07047796, 0.05174669, -0.06284708, 0.09633596, -0.1055829, -0.1279053, -0.1258553, -0.07008205, -0.06844071, -0.1323355, 0.04876507, 0.02162977, 0.1358194, -0.01309867, -0.01336949, 0.04539163, -0.0001330972, 0.03597344, 0.01673933, -0.07370444, -0.1143061, 0.0931063, -0.8099148, -0.01987331, 0.08103028, 0.124014, 0.07739896, -0.06157787, -0.001504526, 0.1201405, 0.1311261, -0.08567505],
