{
"layers": [102, 102, 60, 15],
"fitness": -1.998974,
"weights": [
  [
    [0.05181532, -0.06465745, -0.03877278, -0.003625393, -0.1180741, 0.09774262, -0.04398483, -0.1382846, 0.03569397, -0.06019625, -0.03399154, -0.1093279, -0.05335654, 0.01525973, 0.04283782, -0.07769266, 0.07917723, 0.1179252, -0.06254551, -0.1192206, 0.007403031, -0.05794047, 0.08169761, 0.05431307, 0.04030858, -0.1384785, -0.06023324, 0.06711777, 0.04820223, -0.1390554, 0.01060441, -0.02918032, 0.08339106, -0.08178245, 0.09830797, -0.08923718, -0.1240855, 0.09827548, -0.01248203, -0.1136797, 0.02292335, -0.04187107, 0.1020801, -0.02567317, -0.09066728, -0.1051177, -0.0117124, -0.07829726, 0.09826106, 0.00794822, -0.07277541, 0.1251178, -0.1158528, 0.1022665, -0.07492419, 0.07996803, -0.02097699, -0.1096094, -0.02981548, -0.04594504, 0.07468287, -0.1370287, 0.02547753, -0.03484971, 0.09496844, 0.1285203, -0.04596948, -0.01979311, -0.04258681, -0.07783926, 0.0261499, -0.09222043, -0.05731453, -0.03605822, -0.05287595, -0.08606102, 0.07226437, 0.1106411, 0.1153137, -0.04463016, -0.08277005, -0.1261749, -0.1138914, 0.01378557, 0.05018174, -0.05324737, 0.05730613, 0.01313989, -0.1281439, 0.06879307, -0.02424608, -0.07710925, 0.1286464, 0.05425161, -0.05802317, -0.1351966, -0.1209259, 0.1296791, -0.1319308, -0.03773129, -0.005768061, 0.009197801],
    [-0.01027794, -0.09219031, -0.09070724, 0.01058529, -0.0007435679, -0.09172139, 0.02750942, -0.1324771, -0.02451206, 0.05238297, -0.09440976, 0.04979625, -0.09331447, -0.03622418, -0.1008958, 0.124126, -0.01666611, -0.01966558, -0.1115156, 0.118304, -0.1245277, -0.01407959, -0.1159071, -0.0981846, -0.1185374, 0.07023896, 0.08439402, -0.1164307, 0.1052098, -0.0007308275, -0.01072471, 0.09865564, -0.1216457, 0.002761543, 0.01107071, 0.008523241, -0.06667553, 0.0184985, -0.09651825, 0.1301536, -0.069829, 0.1285569, 0.1199522, -0.06100754, 0.1053028, -0.01179516, -0.1333336, 0.01035233, 0.01372801, -0.005292356, 0.002715513, 0.09339468, 0.02385643, 0.01370604, -0.07524866, -0.09431829, -0.03501396, 0.02846548, -0.07771763, 0.1040651, 0.1035267, 0.03247815, 0.08073749, -0.02699756, -0.007176146, -0.03707961, 0.03748559, -0.1239179, 0.0106159, -0.004470378, -0.07193613, -0.1314148, 0.02251886, 0.1261211, 0.006578654, 0.1231214, -0.02928909, -0.1106705, -0.04528268, -0.1192811, -0.05463229, -0.09104733, 0.07543203, 0.07063951, -0.04655595, -0.08050045, -0.09612283, 0.05474738, 0.04692193, -0.01387881, -0.06970872, 0.06138084, -0.1008806, 0.05683606, -0.07516351, -0.0001680851, 0.1283214, 0.1173938, -0.07221469, -0.07768811, 0.04945612, 0.07466184],
    [0.1116363, -0.03570734, 0.01820621, 0.09135498, 0.0791411, -0.06840558, -0.01665764, -0.04950658, 0.006672606, 0.09819014, -0.04709887, 0.08906702, 0.06513124, -0.02345635, -0.118524, -0.09994555, -0.1151036, -0.06392162, -0.08843988, -0.09952222, -0.1167895, -0.02272945, 0.1030038, -0.0131198, 0.08128962, -0.01164173, 0.1345662, -0.1324589, 0.02506912, 0.1276437, 0.09437885, -0.082093, 0.1056801, 0.05558185, -0.06833014, -0.003512189, -0.03870023, 0.08906842, -0.1120441, 0.04114382, 0.008129328, 0.04354618, -0.101059, -0.08884621, -0.1316654, 0.04985651, -0.119357, -0.08442105, 0.07332439, -0.131402, -0.03829204, 0.118568, -0.03065778, 0.08832146, -0.01754759, -0.09459358, -0.07449085, 0.0169152, -0.09386605, 0.0501736, -0.1143216, 0.08067379, 0.1029831, 0.1112131, -0.02782201, -0.1041821, 0.009842202, 0.115794, 0.06166832, -0.0604219, 0.110598, 0.09089963, 0.06455962, 0.009386182, -0.05993935, -0.0285687, 0.1220742, -0.09225135, 0.07208286, 0.03117686, 0.02241786, -0.06728578, -0.03125001, -0.135666, -0.01219165, 0.1339237, -0.1144968, -0.1395093, 0.1282257, -0.06806353, -0.01779016, -0.03268844, -0.1188833, 0.01832794, -0.02778098, -0.09994762, 0.1367446, 0.03260966, -0.1156274, 0.09324422, 0.004316628, 0.07116136],
    [-0.008924663, -0.02622001, 0.05468131, -0.02769501, 0.03695526, -0.05235952, 0.1077254, 0.1207308, -0.04668699, -0.02006721, -0.0115153, -0.08232012, -0.06419124, -0.0182437, -0.09099923, 0.04258833, 0.130117, 0.0962981, -0.0583662, -0.06421794, 0.1217958, -0.006086022, 0.07673006, 0.03274006, -0.09159322, -0.1263822, 0.08143244, 0.005879268, -0.03514333, -0.006206974, 0.1381522, 0.01431118, 0.08015008, 0.1355045, -0.009692505, 0.1275629, 0.05544006, -0.01428472, 0.02448, 0.004022747, 0.07611293, -0.01159309, -0.1355059, 0.02706299, -0.1118252, -0.06439438, -0.09527461, 0.05267426, 0.04613421, -0.07214873, 0.01720716, 0.1373163, -0.1144626, -0.0727078, -0.06638321, 0.0879223, -0.07175796, -0.0309248, -0.0490718, -0.04635501, -0.1271172, -0.08868085, 0.06795527, -0.1123743, -0.0995727, 0.03110692, -0.04064246, -0.07468161, -0.0765232, -0.1365847, 0.1253479, -0.07104698, 0.06042755, -0.04342973, -0.1016713, -0.1341755, 0.04532769, 0.0884576, -0.0739512, -0.1085787, 0.06476831, -0.05992022, -0.02618413, -0.0593102, 0.1022049, 0.03995977, 0.01017933, 0.01724782, -0.1170631, 0.008836702, 0.08880648, 0.108348, -0.03159525, 0.1313791, 0.03689874, 0.1393134, 0.109346, -0.137397, 0.007392749, -0.05193586, 0.02383951, 0.1313873],
    [0.1297737, -0.05406201, 0.1313653, 0.005259663, 0.08050259, 0.002739519, 0.06723361, 0.003059104, 0.1131437, 0.01086962, 0.1108743, -0.01351224, 0.01214865, 0.02610814, -0.0609354, -0.1067477, 0.1271832, -0.07939233, 0.05239182, 0.111956, 0.1198931, 0.1385795, -0.06121624, -0.02868976, 0.005227089, -0.1294984, 0.001689211, -0.04885256, 0.05093976, 0.02569246, 0.04628485, 0.0559773, 0.07524148, -0.116419, -0.02061923, -0.1204067, 0.03480037, -0.01442917, -0.1120636, -0.07887203, 0.02601757, 0.1162556, 0.02123723, 0.05534565, -0.1283661, -0.08423978, 0.0871497, 0.07515133, -0.09464429, -0.005086824, 0.04705571, 0.1287351, 0.1271148, 0.0009439588, -0.09811006, -0.04509108, -0.109423, -0.0860076, 0.1305496, 0.108636, -0.01165956, -0.1173878, -0.05355601, -0.03227851, 0.133058, -0.004459217, 0.0594507, -0.08284047, -0.04637718, 0.07718953, 0.01552297, 0.05760369, 0.02585374, 0.02573493, -0.041572, 0.1380872, 0.1066036, -0.03432566, -0.04698369, 0.1133613, -0.01262496, -0.0974741, 0.1197645, -0.1180817, -0.05176079, 0.006770223, 0.09032278, 0.1352255, -0.0956073, 0.03604702, 0.05318572, 0.1074, -0.08312157, 0.1149598, 0.01421964, 0.1268533, 0.003686488, 0.04621674, 0.06870878, 0.01598342, -0.006724507, 0.01644497],
    [-0.1012337, 0.08628726, 0.1046378, 0.06462465, 0.008484125, -0.1311463, 0.02275115, -0.06418368, -0.001159891, -0.1254823, 0.111911, -0.01947308, 0.01815587, 0.09080519, -0.1385486, 0.013567, -0.04814319, -0.125933, 0.03377366, -0.01136367, 0.1204423, 0.0447351, -0.06185813, -0.04792636, -0.1335634, 0.03003221, 0.02900111, 0.05542223, 0.1360953, -0.1171661, 0.03015357, 0.09869927, 0.09736437, 0.009473085, 0.003252208, -0.07771002, 0.03077357, 0.08213978, -0.03948572, -0.0120555, -0.1160875, 0.04143894, -0.05896693, 0.05843358, -0.1213677, -0.05979843, 0.08296996, 0.008972108, 0.08303059, -0.0971974, -0.0456852, 0.1384719, 0.001642868, -0.03182304, 0.03826801, -0.06505822, -0.07304673, -0.1351996, -0.1191984, 0.05502224, 0.05590445, 0.08656622, -0.019119, 0.05251681, -0.1336838, 0.07004128, -0.02148131, 0.1356767, 0.08580548, -0.06813781, -0.07932182, 0.06600273, 0.02007222, 0.1261616, 0.1310084, -0.0709092, -0.05041339, 0.03296952, -0.07031007, 0.05354084, -0.08426541, 0.1147128, -0.1242732, 0.004733175, -0.04009043, 0.07592901, -0.02038607, -0.1325754, -0.1036091, -0.04818379, 0.1254091, 0.004229859, -0.02196126, -0.03260141, -0.03795487, -0.02795912, 0.1116097, -0.09555589, -0.1219468, -0.02709594, 0.06524869, 0.1386507],
    [-0.04344849, -0.05474597, 0.008762419, 0.05384752, -0.07152884, -0.06611419, -0.07660797, -0.05527085, -0.01418495, -0.09668173, -0.007403329, 0.1080075, 0.08336128, -0.07053632, 0.1064373, -0.01185052, 0.1217967, 0.0009034872, 0.08040364, -0.1098523, 0.06009948, -0.0695017, -0.1048563, 0.0400875, 0.1013436, 0.08210008, -0.02794643, -0.05538733, -0.04962954, -0.010919, 0.1217272, 0.1356243, -0.08722472, -0.06927127, -0.08721998, 0.06920788, 0.07013266, -0.1019537, 0.07060175, -0.03857911, 0.1165658, 0.09304698, 0.07818258, -0.07352117, 0.1094851, 0.0165296, -0.09508492, -0.1302908, 0.0258002, 0.05153292, 0.02246754, -0.03984538, 0.06038796, 0.006063014, -0.0001109242, -0.1184521, -0.1000551, -0.07357885, -0.06097169, -0.01976146, -0.05832487, 0.07167582, -0.04977887, -0.04113205, -0.1094128, 0.01499158, -0.125035, -0.1214466, 0.1124343, -0.1333237, -0.05998665, 0.07445712, 0.09318335, 0.1037974, -0.0450788, -0.02008951, -0.1083925, -0.05148569, -0.116099, -0.002349511, -0.02285421, 0.1152016, 0.08563951, 0.1395098, -0.08408791, -0.01960739, 0.092976, -0.07386136, -0.09968437, 0.07798628, -0.1245705, -0.001166865, -0.08015399, 0.09949675, -0.1322875, 0.07381429, 0.08010715, -0.02562783, -0.1030681, -0.118326, 0.02707655, -0.1334461],
    [0.0342467, -0.02165558, -0.01115955, -0.06427513, 0.008941531, 0.04602331, -0.1130614, 0.02702847, -0.1289028, 0.04639265, -0.08388466, 0.01453216, 0.05286923, 0.05586044, 0.002111033, 0.04490874, 0.1093227, 0.06501486, 0.09784378, -0.09148635, 0.06564867, -0.1042534, 0.05055489, -0.08576238, -0.04863212, 0.01812218, -0.05004558, 0.1026935, -0.02861417, 0.03867982, 0.1212242, 0.0782379, -0.03017166, 0.0007062554, 0.1338364, 0.05670149, -0.06816185, 0.03029692, 0.02538896, -0.08840896, -0.119065, -0.05156094, -0.1215024, -0.04422633, -0.1254641, 0.1056171, 0.06201706, -0.03236291, -0.1003048, -0.009168789, -0.0500508, 0.05537139, 0.0782817, -0.1127959, 0.09810765, -0.07372321, 0.05949039, -0.1186984, -0.0625059, 0.1265177, -0.05936228, -0.1150821, -0.05113735, 0.05857394, 0.11645, -0.08839414, -0.1208472, 0.02391593, 0.007828504, 0.07029184, 0.1352342, 0.03567421, 0.08591875, -0.1168459, 0.06764699, 0.0494928, 0.1006117, -0.01568519, 0.03695326, 0.1149654, 0.06192411, 0.03948947, -0.06909156, -0.1016853, 0.06318648, 0.1160813, -0.002227455, -0.0007362664, 0.05523207, -0.01585662, 0.04013161, -0.1295716, -0.108919, 0.1242565, -0.1255121, -0.01222473, 0.1382213, 0.05892872, -0.05943726, 0.06435744, -0.0907495, 0.03046856],
    [-0.04835973, -0.1165582, -0.09924525, -0.02245065, 0.1052747, 0.06635612, 0.01473485, -0.009842262, 0.0961432, 0.06744444, 0.07049949, -0.121137, 0.1154926, 0.02637476, 0.126827, 0.07884388, -0.0630784, 0.001883909, 0.136066, 0.01663199, 0.1046996, 0.009328663, -0.01222561, 0.1209129, -0.1298247, 0.01586213, 0.05345757, 0.1022361, -0.03725385, -0.07890314, -0.04513368, 0.0851354, 0.1272761, 0.002891585, 0.05208387, -0.06951618, 0.005662724, 0.03990452, 0.01523168, 0.07167199, -0.09702426, 0.09407043, 0.02530719, -0.09549125, -0.09517065, -0.0434334, -0.0920312, 0.09883615, 0.0730753, -0.1316423, -0.0627813, -0.09439988, -0.1356121, -0.1287128, -0.01830964, -0.1017804, -0.06750865, 0.1240607, -0.0201054, 0.06028283, 0.07805709, 0.1247857, 0.0242198, 0.02761853, -0.1366359, 0.03641115, -0.1011235, -0.03849665, 0.09015532, 0.06816336, 0.01185429, 0.103002, -0.1357126, -0.02723837, 0.07329357, -0.02289097, -0.1327146, 0.07604285, -0.09747748, -0.1310122, -0.09778038, 0.09368908, -0.07718143, 0.02622986, -0.09006605, -0.1232247, 0.1233321, 0.09985054, -0.004965112, 0.005352944, -0.09019265, -0.05857009, 0.1019312, 0.084537, 0.08122752, 0.09648293, -0.01411521, 0.04441828, -0.0738021, -0.05224831, 0.02469982, -0.03391435],
    [-0.03132943, 0.1270335, 0.0445625, -0.03472441, 0.1018725, -0.003093332, -0.1144708, -0.04451501, 0.02045271, 0.07394902, -0.1255112, -0.0895623, 0.1221377, 0.1200188, 0.005779982, 0.1361278, 0.04896108, -0.01835027, -0.0973058, 0.06424066, -0.1149954, -0.1032127, -0.08391567, 0.1129895, -0.07164535, 0.08242118, 0.01271507, -0.1336399, -0.1286165, -0.1101687, -0.09506366, 0.008103698, 0.06691481, -0.04479976, 0.0927421, -0.1349129, -0.02266522, -0.103492, 0.1002738, -0.08143444, -0.02603072, -0.07113849, -0.07712597, -0.1131981, -0.09833598, 0.07322837, 0.0564252, -0.05811414, -0.0394688, 0.1300536, -0.08210632, 0.05676352, -0.1027833, 0.08002485, 0.06723398, -0.08122125, -0.01437198, 0.1368497, 0.1159423, 0.05594828, -0.06761716, -0.1149849, 0.1219359, -0.138702, -0.04399544, -0.07150976, -0.07386196, 0.103205, 0.0617399, 0.1159723, -0.1018395, -0.08971673, 0.07807131, 0.1095184, -0.08694676, -0.04650128, 0.03935934, 0.06317466, 0.05105507, 0.01489606, -0.1160492, -0.01086873, -0.1146826, -0.0006736368, -0.1208131, 0.1351775, -0.08735542, 0.01960372, 0.02749343, -0.08024383, -0.1017501, -0.10483, 0.03541914, -0.108187, 0.07816643, -0.05399467, -0.07999423, -0.007575408, -0.02416996, 0.08169107, -0.09577763, 0.1222019],
    [-0.05036482, 0.07511678, 0.008957684, -0.09957828, -0.07867695, 0.07103726, -0.07289149, 0.03511166, -0.05164418, -0.08958924, -0.07602707, -0.1102946, 0.05693986, 0.100079, -0.1324455, 0.1025744, -0.01737231, 0.1142374, -0.1226869, -0.0906623, -0.03592628, -0.007637441, 0.03839701, -0.006921858, 0.1242125, 0.0403619, -0.1193777, 0.1311172, -0.004207298, -0.003782168, 0.01565073, 0.02699128, 0.029893, -0.003805712, -0.07824983, 0.1333462, 0.03018996, -0.03934617, 0.05195216, -0.05434407, -0.04190519, 0.04177079, 0.01821145, -0.1308499, -0.02283568, -0.1162449, 0.07091601, -0.076795, -0.1203296, 0.1229164, -0.01710313, 0.1047065, -0.103306, 0.1098187, -0.05991922, 0.02289661, 0.03437777, -0.1298272, 0.05211052, -0.09429055, -0.05442046, 0.02562175, -0.02589478, -0.09331246, 0.1017372, -0.09913899, -0.03040142, -0.03667418, 0.1268197, 0.04048529, 0.03498282, 0.03914971, -0.01168904, -0.04677576, 0.05708198, 0.06617944, -0.04608012, -0.0004342198, 0.01901644, -0.05450743, 0.1034667, -0.0134647, 0.05265379, 0.05865316, 0.0353299, -0.03943878, 0.06288815, 0.0636892, 0.1026413, -0.04534207, -0.1396718, -0.05336288, 0.1113092, -0.09201841, 0.1322035, -0.1288764, 0.09547108, 0.04733311, -0.1330961, 0.1367748, -0.04571965, -0.09437354],
    [0.02122538, 0.1238463, 0.04461198, 0.1239829, -0.10277, 0.06026964, 0.00565362, -0.1126126, -0.02807096, -0.1040727, 0.006724209, 0.0618478, 0.118123, 0.08828416, 0.07381351, -0.1015254, -0.1052797, -0.003025562, -0.008016557, 0.09432754, -0.08829689, -0.05336485, 0.05994613, -0.09939843, 0.1333465, -0.1304137, 0.01739629, 0.1236291, -0.08240964, 0.0304958, 0.03927992, -0.0164156, -0.1078032, -0.1175913, -0.04175472, 0.04065462, -0.1307332, 0.07726482, -0.05794124, -0.05338091, -0.08835836, 0.0714916, 0.1263088, 0.1074706, -0.007529363, -0.06298946, 0.008769095, -0.02978626, 0.06793407, -0.07023826, 0.1183077, -0.03587731, -0.04760502, 0.1048099, -0.1152852, 0.005291656, -0.06531778, -0.1219339, -0.05438741, -0.07333939, -0.1006043, -0.08071907, -0.1017039, -0.003341556, -0.1179117, -0.04401247, -0.06939095, 0.1146515, -0.06454836, 0.1152226, -0.08157907, 0.04057299, -0.01809911, 0.0965918, 0.05911561, -0.1379404, -0.05291171, -0.0824583, -0.01528564, 0.0228003, 0.03365295, -0.1030199, 0.02483927, 0.09555802, -0.07417604, -0.03695939, 0.08286353, -0.1207875, -0.0586892, 0.04748137, 0.0302604, -0.09906939, 0.01134139, -0.1011073, -0.06875196, 0.06364913, 0.09425353, -0.1302909, 0.05807559, -0.07164505, 0.02770032, -0.1377598],
    [0.01236363, -0.08596082, 0.03758695, 0.08951698, -0.1216427, -0.09781162, -0.07175098, -0.01974714, -0.07817043, -0.06228229, -0.01166704, -0.05267077, -0.01574231, 0.1367659, 0.0578041, 0.05072609, -0.115495, 0.07361481, -0.1218916, 0.0861832, 0.09200563, 0.01433676, 0.06766782, 0.06773008, 0.1311378, 0.1118421, 0.07127143, 0.01468807, -0.09805951, -0.06458651, 0.04025827, 0.01557101, -0.01087204, 0.07505876, -0.05211885, 0.08657497, 0.1397498, -0.08287224, 0.03935429, -0.04226455, 0.07315011, -0.09266709, 0.07409449, -0.1255859, -0.1160459, -0.08271788, 0.06467276, 0.06829456, 0.04884953, 0.06081265, -0.09246588, 0.01856086, 0.03449552, 0.1153573, -0.04751692, 0.01336642, -0.0687511, 0.1208732, -0.06310782, -0.07607333, -0.01719674, 0.120975, 0.01400594, -0.1264416, -0.0895292, -0.01969189, -0.07266343, 0.0933001, -0.01332906, -0.07711242, -0.05292326, 0.07125798, 0.09078987, 0.01794103, -0.1192099, 0.02852009, 0.01616297, -0.003072932, -0.08936131, -0.03540554, -0.1306489, 0.09558493, 0.06874096, 0.1027896, -0.07846202, 0.05442565, 0.01817496, 0.1362471, 0.05852566, 0.03550878, -0.04307908, -0.1364054, 0.05637575, -0.05500254, -0.03511165, 0.05586192, 0.04422007, 0.08307793, -0.03472729, -0.02141324, 0.01912574, -0.0903803],
    [-0.08978808, -0.10702, 0.007544562, -0.01620694, 0.03168716, 0.1218241, -0.0404341, -0.07498117, 0.06824252, 0.000689894, -0.1328931, -0.01161411, 0.04819632, 0.01381679, 0.05387522, 0.06172187, 0.04904868, -0.05269754, 0.02882794, 0.0773169, -0.1188812, -0.04412614, 0.005452499, 0.1086651, 0.1171816, 0.103645, 0.05855624, -0.07598414, -0.129066, 0.02110843, 0.0889277, 0.08732093, -0.09166069, -0.06989671, 0.04820761, -0.1121849, 0.04844114, 0.1033111, -0.1390025, -0.1043917, 0.02589287, -0.02434543, -0.06256357, -0.1281398, 0.04826069, 0.1274036, -0.1002698, 0.06517173, 0.09741, 0.03837147, -0.0128011, 0.01774469, 0.1117156, 0.09576407, -0.07159476, -0.008312821, -0.08001654, -0.01004508, -0.04410033, -0.0446136, 0.1032656, 0.03467277, 0.01911436, 0.114946, 0.03503815, 0.06655923, -0.05971961, 0.07583509, -0.04298887, 0.05706108, -0.04201098, -0.001075923, -0.1081768, 0.1366153, 0.1390138, -0.005749568, 0.09886563, -0.03453469, 0.07442464, -0.0147704, -0.07586768, 0.101542, -0.06194754, -0.03815869, 0.1168561, 0.07497015, 0.07162164, 0.02525267, -0.1284012, -0.1351039, -0.03468332, -0.01477988, -0.06176168, 0.136135, -0.07023609, 0.1125285, -0.08927628, 0.1069046, 0.1153208, -0.07966653, -0.00969179, 0.09491445],
    [0.1321364, -0.1082298, 0.06706789, -0.1368856, -0.09438263, 0.05348128, 0.002168685, -0.1366943, -0.04201319, 0.01700203, 0.1004931, 0.09915869, -0.05416854, -0.04680144, -0.1393408, 0.1388703, 0.1359155, 0.0352632, 0.08840837, -0.09741317, -0.1268565, -0.1061401, 0.08943419, 0.1314588, -0.02836989, 0.02175413, 0.02710579, -0.1304086, 0.1170959, 0.1277225, -0.05691207, 0.06146543, 0.05111543, 0.01696348, -0.07537659, 0.12636, 0.02635847, 0.0832484, -0.004259437, 0.01013753, 0.01656913, 0.04908207, 0.1090453, -0.1376974, 0.000458166, 0.08899558, 0.103406, -0.1208055, -0.07471302, -0.05370137, -0.08201909, 0.03077684, 0.01449034, 0.07159874, 0.07321405, -0.0889091, -0.08111188, -0.09575807, 0.09694448, -0.01523215, -0.003307492, 0.03837527, -0.1196227, -0.02811824, 0.08101836, -0.002476543, 0.1308751, -0.01996802, -0.1049204, -0.06051451, 0.04471491, -0.0109977, -0.08633006, -0.02918226, -0.03704272, -0.01155283, 0.09724815, 0.104146, 0.09150511, 0.1335086, 0.01481357, 0.008794501, -0.1101809, -0.05375836, -0.05083846, -0.1034397, -0.1004063, 0.06948438, 0.1074847, -0.0570357, 0.06179398, 0.02628595, -0.1120356, 0.01047622, -0.1170845, 0.08653655, -0.01410587, 0.07653131, 0.02610554, 0.03654489, 0.08799542, -0.0139987],
    [0.08978483, -0.1358786, 0.05416838, 0.04710826, 0.1376718, -0.009465382, 0.007519811, -0.120724, 0.08394571, -0.1198664, 0.09874171, 0.04732653, 0.07078447, -0.01350519, 0.03342757, 0.07371096, -0.04166365, 0.04178238, 0.05288098, 0.01664735, -0.03841275, 0.1058701, -0.07537642, 0.09748098, -0.1284666, -0.07207686, -0.0909802, -0.1306414, 0.03876485, -0.1130525, 0.001500815, -0.07982928, 0.0004910529, -0.1357536, -0.01486038, 0.1009513, 0.06940849, -0.05918761, -0.03882753, -0.03708802, 0.1358749, -0.1187599, -0.04806547, -0.1042707, -0.1388159, -0.1068799, -0.01772736, 0.08922082, 0.03310937, -0.1350451, 0.1373034, 0.00336872, -0.08129366, -0.06566262, 0.05007755, 0.0387129, 0.06318097, -0.08145221, 0.07188946, -0.05585629, 0.06724126, 0.1086541, -0.02596191, -0.1267221, -0.02246737, 0.06470938, 0.1227801, -0.08139916, -0.08732504, -0.06675538, 0.08689791, -0.05309243, 0.1185905, 0.1163791, -0.1372878, 0.04213653, 0.07684143, -0.08147427, -0.08539133, 0.08640808, -0.09014206, -0.02262549, 0.06283259, -0.006969288, 0.04085961, -0.1226733, -0.006854042, -0.04530501, 0.06136438, 0.07813781, 0.07108427, 0.03477723, 0.09180935, -0.04764906, 0.08431462, 0.07978247, 0.02735785, 0.05868187, -0.03695191, 0.04487111, -0.105416, -0.09848951],
    [0.1342448, 0.1031737, 0.1328353, -0.06240091, 0.1196554, -0.1025756, 0.08356195, 0.1248407, -0.009646654, 0.08658232, -0.02473888, -0.08172786, -0.08980794, -0.02382967, 0.1387392, 0.08019561, -0.08886731, 0.1201801, 0.09678379, 0.09242712, 0.1023145, 0.1065016, -0.1345185, -0.1132554, 0.02542271, -0.0879833, -0.07888989, -0.01104937, 0.00530754, 0.126697, 0.007128671, -0.1142118, 0.01990112, -0.05710237, 0.06532688, -0.01763713, 0.000450179, -0.08508763, -0.009009063, 0.1232046, -0.03525, 0.08415898, 0.04389359, -0.006002486, 0.09744683, -0.03845869, -0.1096145, -0.0976246, 0.1126251, 0.1178159, -0.104295, -0.108534, 0.1147503, 0.1091904, -0.109235, -0.08662204, 0.04476064, -0.06037162, -0.0221425, 0.1047885, 0.06488308, 0.01866846, -0.1381037, 0.08983171, 0.1147249, 0.05809122, 0.0007668734, -0.06133415, 0.01469986, 0.004951119, -0.02785125, -0.03268063, -0.09195451, -0.1093456, -0.06940024, -0.05144854, -0.01405405, 0.05627015, 0.06209445, 0.1143515, 0.1359761, 0.08814909, 0.12927, 0.1149075, -0.00157927, 0.002443925, -0.09012607, 0.05291316, -0.1252346, 0.06104625, 0.1061292, 0.1071257, 0.1015432, -0.09254032, 0.09961316, -0.1198223, 0.1113186, 0.04174108, 0.0488291, 0.1037656, 0.02116141, 0.0310761],
    [-0.06632058, -0.1099619, 0.04583051, -0.1342586, 0.04621537, -0.1151217, 0.117005, 0.06264164, -0.1138027, -0.05408871, 0.1313152, -0.04853995, -0.1229236, -0.1210763, 0.08558006, 0.03916651, 0.1188246, 0.1185361, 0.1101928, -0.02681564, -0.1066406, 0.07391161, -0.06131111, -0.1019946, -0.04625078, -0.04620574, -0.02815099, -0.008504957, -0.13615, 0.1096136, -0.06542064, 0.1319637, 0.03473109, -0.06526577, 0.09705909, 0.006776094, -0.06381792, -0.02384268, -0.1233486, -0.09356916, 0.0583387, -0.06982373, 0.1045081, -0.09765491, -0.1268259, 0.06144751, -0.03727986, -0.1319047, -0.01121794, -0.04848583, 0.001637101, -0.005551651, -0.1380614, -0.08553784, -0.07303989, -0.1192105, -0.03390871, 0.05755749, 0.09968717, -0.07652007, -0.1068388, -0.07351032, 0.02448932, 0.008948132, -0.1353938, -0.1113348, -0.1248111, 0.07726472, -0.05806173, -0.04901258, 0.1135713, 0.04962584, -0.1400127, -0.03654261, 0.1397742, 0.04522613, -0.06674013, -0.06677659, 0.07877401, -0.1025375, 0.07428665, 0.1108694, 0.1202834, 0.004281178, -0.06401573, 0.03779891, 0.03326431, -0.1270959, 0.07584388, 0.03800824, -0.007027686, -0.1205307, 0.04275997, 0.05827978, 0.07938582, -0.03342002, -0.07295382, -0.1036752, 0.01005757, 0.1316115, -0.02760056, 0.07956607],
    [-0.07313243, -0.0619248, -0.08803338, -0.08627214, -0.01843317, -0.002512693, -0.004928485, 0.06480891, 0.04902428, 0.1023876, 0.09974223, 0.1212901, -0.04449265, 0.007198155, -0.08038765, 0.1058353, 0.01321462, -0.1267049, -0.08416383, -0.003471985, 0.1281802, 0.02216206, 0.1241715, 0.1100075, -0.04501854, 0.07664412, 0.09547929, 0.1250045, -0.04747248, -0.06433672, -0.03314662, 0.1114664, -0.07286464, 0.0009873807, 0.1140579, 0.08142743, 0.04739704, 0.1317587, -0.07870276, -0.05554371, 0.0780431, -0.01715384, 0.08178733, 0.07211164, 0.08732013, -0.07009664, 0.07144296, 0.0577988, -0.1137056, -0.1029082, -0.09609045, 0.07538272, 0.103928, -0.03636864, -0.1055951, -0.0902328, 0.1134984, -0.004591063, -0.05774016, 0.003793359, -0.1053123, 0.04311965, 0.1118921, 0.01911129, -0.005821615, 0.08393309, 0.02210939, 0.05886566, 0.04277165, -0.04802421, 0.1023054, 0.1025741, 0.1200317, -0.06284383, -0.01538015, 0.06104281, -0.06657377, 0.1044874, 0.1144649, 0.08281392, -0.09346624, -0.08002248, -0.01405081, -0.02559724, 0.1277504, 0.13638, 0.08473033, 0.00184609, 0.002961665, -0.03695004, 0.01435669, 0.001745433, -0.001913264, 0.04560485, 0.002304807, 0.1263507, 0.02555221, -0.04070776, 0.1066532, 0.05661612, 0.03066333, -0.0314175],
    [0.06292601, -0.1137929, 0.05259997, 0.1354774, -0.004054397, 0.08446285, 0.03310032, 0.08865504, 0.0881789, -0.02775397, 0.1353823, -0.1379963, -0.04761647, -0.1293579, -0.1025632, 0.005156979, 0.02785586, 0.08088478, 0.07585777, -0.02452311, 0.06089952, -0.0962334, 0.08423226, -0.02076533, 0.1079665, -0.07227153, -0.1392127, -0.09035179, -0.07271668, -0.05811037, -0.02540535, 0.1015368, 0.136989, -0.1159387, -0.1043897, -0.01828954, -0.01991707, 0.03489779, -0.08516555, -0.03036784, -0.1351684, 0.03686295, 0.09591621, 0.1059727, 0.006029934, -0.008346274, 0.08462314, 0.09205504, 0.007311463, 0.1131041, 0.05278429, 0.07243991, 0.1058485, -0.09588139, -0.03924668, 0.136927, -0.1278547, 0.02810882, -0.0866776, -0.06697012, -0.0751891, 0.03821579, -0.007369578, 0.1344891, 0.1044208, -0.01718082, -0.005510688, -0.1310854, 0.04404743, -0.03059883, -0.01685698, 0.03577189, -0.06109705, 0.08547099, 0.03855889, -0.1241741, 0.1228754, -0.04142635, 0.03738874, -0.1211035, -0.05082787, -0.1098083, 0.05091235, -0.01792918, 0.1083164, 0.09798527, -0.08769803, -0.1138202, 0.05194112, 0.05340613, 0.07167172, 0.127856, 0.01738741, -0.1328422, -0.115197, 0.1396296, -0.02158657, -0.1026818, -0.09323241, 0.1057412, -0.08913513, -0.09757386],
    [0.07466531, 0.1196706, 0.02002304, 0.07927398, 0.1219384, -0.1315951, -0.03619771, -0.03653146, 0.03637462, 0.08030926, -0.01157129, -0.1003093, -0.1292578, 0.0006487221, 0.09240778, 0.02690986, 0.05171867, -0.08801001, -0.03367912, -0.119645, 0.1147575, -0.008593917, -0.0436465, -0.1231843, -0.08975834, 0.0938594, -0.1263674, 0.0151106, -0.01457407, 0.1217205, 0.05383092, 0.03998858, -0.1146213, 0.01474015, 0.05758854, 0.1129284, 0.01931037, 0.07468447, 0.03524958, -0.03388545, -0.09020993, 0.02788344, -0.008639753, -0.05049445, 0.07723768, 0.05530876, 0.02032882, 0.07181087, -0.09816131, 0.05866161, -0.05129874, -0.05956957, -0.01733112, 0.07186842, -0.06057828, -0.03944245, 0.04413864, -0.04793303, 0.1089593, -0.00997591, -0.1094804, -0.02999769, -0.03991746, 0.07594343, -0.08375105, 0.08963367, -0.04918288, -0.1141402, -0.05540516, -0.0825596, -0.07639, 0.01521569, 0.08968589, -0.0002819896, 0.0672251, 0.03215585, -0.03945203, 0.05345533, -0.06745832, 0.07540055, -0.098847, 0.006407961, 0.08646978, 0.1044267, 0.03893718, -0.001032457, 0.01315378, 0.04846234, -0.01377608, 0.1031719, -0.0863345, 0.1234579, 0.1231798, 0.04949438, 0.1172533, -0.1064628, 0.07185203, -0.02042744, 0.1105088, 0.1105061, -0.1007015, -0.08607025],
    [-0.06338687, -0.02694638, -0.05726075, -0.1364876, 0.09584697, -0.01262546, 0.05886946, -0.08211246, -0.09406666, 0.1341939, -0.1377969, -0.1172416, -0.04424503, -0.1339496, 0.03623481, 0.1251696, -0.0422142, 0.08524337, 0.04161054, -0.05679048, 0.07646003, 0.01212849, 0.09258777, 0.008600831, -0.1120772, 0.123814, 0.04662695, -0.03245438, -0.07340111, -0.1177356, 0.05346579, -0.03070322, 0.04595457, 0.008101061, -0.09884821, -0.04890107, -0.1101761, -0.1100404, -0.04284027, 0.1308608, 0.02359266, -0.0571655, -0.01107055, -0.0620713, -0.06709762, 0.02387156, 0.03545379, -0.1071215, 0.09975138, 0.09676416, 0.1012813, 0.03491685, -0.08682717, -0.02428778, 0.0829758, -0.0711257, -0.06337382, 0.1024607, 0.008608073, 0.04616597, -0.09064114, 0.05880119, -0.05977376, -0.04919133, -0.1274719, -0.09678967, -0.00658229, -0.03158199, -0.09439184, -0.04833863, 0.03263773, -0.06531522, 0.03705138, 0.06331665, -0.03971615, 0.1184793, -0.05808279, -0.1286618, 0.1357318, -0.04578376, 0.05352802, 0.05462472, -0.0659759, 0.0730543, -0.07198337, 0.09943338, -0.07975133, -0.1272609, 0.05481782, -0.04990517, 0.1229417, 0.09683284, -0.1131326, 0.1234067, 0.1286127, 0.12673, -0.09483756, -0.08466567, -0.1311338, 0.003322259, 0.09108696, -0.002442285],
    [0.04161866, -0.04438661, -0.09992889, 0.1267395, 0.002907246, 0.0004012138, 8.077919E-05, 0.01105231, -0.02862829, -0.123869, -0.1324924, -0.07615973, 0.08653234, 0.00309369, 0.04537463, -0.09224012, -0.133241, -0.0815319, -0.1296481, 0.05279198, 0.05915117, -0.05026072, -0.1371937, -0.1032633, -0.1155349, -0.1252035, 0.06401698, 0.08254019, 0.1346838, -0.06890076, 0.06039854, 0.01114766, -0.05357351, 0.1228277, 0.1162349, -0.03266278, -0.0190121, 0.1261986, 0.01941542, 0.02982753, -0.05071877, 0.02930008, 0.009078905, -0.01953304, -0.06700838, -0.06280461, 0.03214774, 0.06742838, -0.03345764, -0.1381802, 0.1371264, -0.06988499, 0.1071974, -0.01756719, 0.07929778, -0.1122027, 0.1146322, 0.01005407, 0.005094007, -0.09552233, -0.08619328, -0.124579, 0.05251401, -0.07577184, -0.1355087, 0.02862976, 0.08643272, -0.01475437, -0.05570025, -0.09893441, -0.1067278, -0.1081167, -0.03902985, 0.05454884, -0.0405856, -0.1113671, -0.008244485, 0.03729519, -0.02527284, -0.06151567, 0.01957911, 0.08363056, -0.07246746, -0.08430263, -0.06008504, -0.007196143, -0.1056314, 0.1210391, -0.02881685, 0.08079812, 0.0168047, -0.03822362, -0.03070289, 0.06965151, 0.1394473, -0.007221386, -0.09298301, 0.05035515, 0.09821515, -0.06109655, -0.02501698, 0.05607365],
    [0.1209941, -0.007885993, 0.1374768, -0.07850532, -0.08710447, -0.01822644, -0.0003722012, -0.05270506, 0.1388826, -0.09431872, -0.1025029, 0.03569087, 0.02041912, -0.1087351, 0.1045506, 0.06747639, -0.002514035, -0.1017219, -0.01148362, -0.02014009, -0.04336877, 0.1219478, 0.02643665, -0.03577709, 0.05765411, 0.1310095, 0.1100834, -0.11739, 0.1346197, 0.06314953, 0.03789075, 0.05455642, -0.1296502, 0.1067459, 0.1172809, -0.1361497, 0.05706552, -0.05921876, -0.01846685, 0.05435404, -0.09185739, 0.03264538, -0.04925355, 0.06295966, -0.003774256, -0.01025988, 0.1286125, -0.03680368, 0.06641079, 0.06018374, -0.04059057, -0.03469233, -0.09132166, -0.1303655, -0.1340415, -0.07762556, -0.1106569, -0.07946308, -0.02540451, -0.02618369, 0.117146, 0.01209049, -0.1289126, -0.03604354, 0.1206363, -0.05274095, 0.02355553, -0.09622285, -0.1339014, 0.04133458, 0.005979851, -0.02188657, 0.04936901, 0.1384846, 0.003446713, 0.06653289, 0.009359941, -0.01630849, 0.09739454, 0.04459619, -0.0962121, 0.1081126, -0.04210527, -0.001742736, 0.08885993, -0.1176632, -0.02969131, 0.08306247, 0.08398254, 0.07527282, -0.04704178, -0.08065063, -0.104659, 0.06779963, 0.02130283, 0.07380985, -0.04134154, 0.1288187, 0.001600772, -0.001987413, 0.03604461, 0.09836882],
    [0.1195959, 0.10632, -0.1263459, -0.1155123, -0.04922665, 0.0255238, -0.006797567, 0.01143147, -0.01782402, 0.02112883, 0.1279368, 0.01313595, 0.05874407, -0.001014322, 0.0500254, -0.08585553, -0.08364882, -0.01171434, 0.001162723, 0.1093184, 0.1014525, -0.1048878, 0.09249516, 0.08520688, 0.1006894, -0.1140826, 0.1128869, -0.08824734, -0.1115712, -0.06585242, -0.1183353, 0.1351508, 0.007427037, 0.1211826, 0.04379077, 0.1021932, -0.06520762, 0.08722489, 0.09625928, 0.03731232, 0.0687268, 0.07579904, 0.1048192, 0.08994548, -0.1171632, 0.07567775, -0.08359283, 0.02390869, 0.09714559, 0.08705292, 0.1202607, 0.01255375, -0.1097389, -0.02137461, -0.03193264, 0.04311351, 0.1118394, 0.003610298, 0.07541908, 0.09985687, -0.0712719, 0.02572631, 0.1352241, -0.07177494, -0.1079377, -0.003683984, 0.07077923, -0.0123118, 0.03446224, -0.026099, 0.08454785, 0.007850364, 0.08761172, -0.0252658, 0.08716045, 0.02713387, -0.08095513, 0.03412455, 0.09245372, 0.07577574, -0.0555825, 0.05455649, -0.08830884, 0.1232449, -0.1229075, -0.003272414, 0.1311694, -0.1155341, 0.06575755, 0.1122213, 0.09335105, -0.009266809, -0.005114838, 0.05917324, -0.09298785, -0.07565229, 0.01531421, -0.08665106, -0.05150242, 0.07801683, -0.08362435, 0.01109023],
    [0.1225111, -0.1192072, 0.07609013, 0.09838833, -0.1094944, 0.09699579, 0.07919559, 0.06127477, 0.1127303, 0.1171002, 0.06908359, 0.1378078, -0.03255781, -0.1031547, -0.06106853, -0.02575352, -0.1104967, 0.006686151, -0.1175909, -0.006072, -0.0465613, -0.1300206, -0.1184465, -0.08687934, 0.03216797, -0.1061318, 0.05782183, 0.03106562, 0.02681994, -0.00565581, -0.07167116, -0.03618124, 0.05886579, -0.08734839, 0.05378408, -0.1253024, -0.06808902, 0.06932019, 0.1352939, 0.02395232, 0.1223987, 0.02187863, 0.04046866, -0.1289316, -0.1099557, -0.04997084, -0.08060595, -0.05679342, 0.01237373, -0.119727, 0.1131354, 0.08175918, 0.1374152, 0.08357367, 0.0846632, 0.1281887, 0.004472107, 0.08780983, -0.08249195, -0.01661537, -0.005648136, 0.03545607, -0.04980658, 0.03830817, 0.1391065, -0.0008489341, -0.1146125, -0.1098321, -0.04165296, -0.005621061, 0.0275646, 0.02322028, 0.002022594, 0.06494241, -0.1023927, -0.05658847, 0.0694749, -0.09927924, 0.04831417, -0.1097875, -0.04141509, -0.01867504, 0.04051217, 0.07811181, -0.1064314, 0.1274594, 0.01898272, 0.04859554, 0.0687892, -0.06347011, 0.05459638, 0.09045231, 0.07086843, -0.0785148, 0.06552716, 0.113669, 0.09235467, -0.04675934, 0.102956, -0.1087056, 0.1047564, 0.04424995],
    [0.1131973, 0.01625387, -0.02478471, 0.1211528, -0.0128255, 0.04207259, 0.02891711, 0.01758007, 0.03902532, 0.08369142, -0.07960373, -0.001711816, -0.1317425, -0.01970805, 0.1195681, 0.03101057, -0.1232312, -0.01663256, -0.03135841, -0.04152463, -0.007061377, 0.03623889, 0.027114, 0.0805461, -0.0462402, -0.003169447, -0.1195207, 0.0613573, -0.1306794, -0.04519333, 0.01598002, 0.009243339, -0.02525044, -0.1292276, -0.1162042, -0.01095964, 0.004516572, -0.1276334, 0.1265262, 0.1316874, 0.01919278, 0.09388639, 0.02900221, -0.0277731, -0.1262371, -0.1005906, -0.06722519, 0.0840448, 0.1130172, -0.01635733, -0.03889721, -0.004363433, -0.07912882, 0.02204138, 0.02475617, -0.0409949, -0.1104543, -0.104024, 0.1315849, -0.1163457, 0.114206, -0.001753852, 0.0615711, -0.1195636, -0.1259319, 0.08580811, 0.1181049, -0.06143604, -0.02503754, -0.02281652, -0.01796173, 0.04618021, -0.03933335, 0.08075642, 0.06847381, -0.1273663, -0.02495465, -0.0775896, -0.09516889, 0.04140953, -0.09418976, -0.008141652, -0.07158759, -0.03823885, -0.04815724, -0.08155206, -0.05404635, -0.004372358, 0.04906244, -0.1248503, -0.02514444, -0.04049847, 0.04347541, 0.08469491, 0.1155686, 0.1054474, -0.03820089, 0.1237872, -0.009151727, -0.1266293, -0.02166542, -0.03044082],
    [0.06324988, 0.05109917, -0.09314384, 0.08817102, -0.05609624, 0.06329475, 0.1114243, -0.009590775, -0.08297648, 0.07582298, -0.0921395, -0.05787216, -0.05130852, 0.117112, -0.04098973, 0.06850325, 0.01094718, -0.0158427, -0.05852184, -0.1072145, 0.009045452, -0.02348072, -0.1104746, -0.03223691, 0.1078167, -0.05443655, -0.005055547, -0.0818145, 0.1122475, 0.1175102, 0.04031886, -0.1302166, 0.07854621, -0.05301628, -0.0578738, 0.07931951, 0.09429128, -0.1076081, -0.1353458, -0.003755555, 0.09611371, 0.06841725, 0.06612602, -0.13097, 0.1186199, 0.07505962, -0.1381834, -0.07256056, -0.03030574, -0.1387583, 0.1322098, 0.08045688, 0.0457395, 0.1177353, 0.0008845627, 0.05603852, 0.04177413, -0.0190541, -0.04114497, 0.1034601, 0.02509246, -0.0353172, -0.01350166, 0.01719193, -0.1383817, 0.07828, 0.1049471, 0.0249025, 0.1284543, -0.07452767, -0.1398429, -0.09323074, -0.05167502, -0.06028188, 0.0001531541, 0.1232911, 0.1018984, 0.07435052, 0.1279323, 0.08877566, -0.02850287, 0.09633426, -0.001819983, -0.09860133, 0.01498529, -0.04404528, -0.1292425, -0.09312497, 0.09821075, -0.09583779, 0.1007128, 0.07804233, 0.01941913, 0.1218035, 0.0672464, -0.09305462, -0.04648034, -0.02545035, -0.1066797, 0.1117994, 0.1181787, 0.03583893],
    [-0.1121208, 0.005894721, 0.05029316, -0.06471281, 0.04366517, 0.09992585, 0.1107264, -0.09397452, -0.02969141, 0.06743025, 0.1293252, -0.07651623, -0.01925424, -0.04858064, 0.08708697, -0.1141799, 0.02620519, 0.08809981, -0.03525855, 0.006242692, 0.04177209, 0.05372883, 0.0367445, 0.1388895, -0.04396619, -0.06407215, 0.1327175, 0.004782453, 0.0614001, -0.06793499, 0.05778871, 0.009735227, 0.0002872944, -0.06149593, 0.1293317, -0.01389788, -0.1047041, -0.0259984, -0.1240297, -0.03086551, -0.1383426, 0.03167701, -0.1097246, -0.02150818, -0.03102529, 0.1319952, 0.02492477, -0.06935082, -0.1198787, 0.1385998, 0.1101304, -0.1290814, 0.01664478, -0.1360232, -0.03536715, 0.06810363, 0.00889039, -0.0408038, 0.07538737, -0.1296343, -0.06383905, -0.05346277, -0.03052595, 0.09556446, 0.04334481, -0.03107791, 0.06762291, 0.1183715, -0.00991872, 0.07993825, -0.1078097, -0.02389633, -0.06726912, 0.04380976, 0.09596445, 0.005143553, 0.0709362, 0.07691889, -0.1043411, -0.09188901, -0.01641449, -0.08924437, 0.09183666, 0.03820872, 0.05800429, -0.06223128, -0.05765636, -0.1151795, -0.07895645, -0.08472103, 0.04080101, 0.1399892, -0.1096799, 0.0208535, 0.03095195, -0.1226648, -0.0573384, 0.02866031, 0.1182762, 0.1206225, -0.01316734, 0.04449793],
    [-0.0006246269, 0.05853909, 0.08095647, 0.05431771, -0.0006424785, -0.02986282, -0.04675199, -0.06514308, -0.06107902, 0.1148958, 0.01238438, -0.03062941, -0.1203022, 0.129709, 0.1218375, 0.07562059, -0.1366965, 0.129197, 0.04237873, 0.0747874, -0.02649684, 0.005003363, 0.0952241, 0.04527965, -0.06182906, -0.1024979, -0.04190272, 0.06277511, 0.05413376, -0.09383744, -0.1357002, -0.1125791, -0.1205506, 0.006240591, 0.1325507, 0.1095741, -0.1345823, -0.02552513, 0.05771934, -0.078082, -0.04657732, 0.1326417, -0.035914, -0.1010262, 0.004998133, 0.1070224, 0.05790206, -0.04611835, -0.1394421, -0.04641377, -0.02744819, 0.02888479, -0.08495355, 0.04878644, 0.03817813, 0.1045522, -0.08915733, 0.02020265, 0.0106602, -0.006437793, -0.1086011, -0.05811651, -0.1116612, 0.006061956, -0.07539648, 0.07948491, 0.05038352, 0.03304149, -0.03375107, 0.04406065, -0.1252023, -0.09311736, 0.1078918, 0.1239667, -0.05409078, 0.02074376, 0.05383389, 0.110463, 0.09077601, 0.1085076, 0.08584236, -0.0520042, -0.03543485, -0.04700279, 0.1159463, 0.008217305, 0.1375139, 0.09448221, 0.08054306, 0.05790259, -0.1188191, 0.01136521, 0.1246933, -0.03444257, 0.09974417, 0.02228903, 0.1230934, -0.07669429, -0.01962542, -0.06692836, 0.05524435, -0.06405358],
    [0.1058443, 0.03773507, 0.08821379, -0.02136596, -0.004941806, -0.03898902, -0.06297447, 0.06950084, -0.1314948, 0.1162746, 0.01280414, 0.08522057, 0.05971714, -0.08546475, -0.02054745, -0.1194682, -0.04480036, -0.07868066, -0.09782779, 0.1013868, -0.0803535, -0.02251361, -0.114832, -0.131886, -0.004135951, -0.01647104, -0.07064225, 0.008828253, 0.1352511, 0.02222363, -0.0759213, -0.05826698, 0.006534114, -0.03746635, 0.1078188, 0.1233725, -0.03912239, 0.1173994, -0.0964479, 0.02020182, 0.09665646, -0.1168471, -0.1063883, -0.0164221, 0.02871987, -0.09917966, 0.09515288, 0.02290696, -0.03174585, -0.05296186, 0.001585349, 0.02079644, 0.1271978, -0.1387153, 0.04216083, -0.1328986, -0.1066334, 0.1111521, 0.136051, -0.1224076, 0.1259849, 0.05301104, 0.1287075, 0.07728411, -0.0491747, -0.1285721, 0.1282538, -0.06528416, 0.04781633, -0.08161052, 0.05466105, -0.1041631, 0.07273741, 0.00488469, -0.00275591, -0.1041659, 0.07428368, -0.06447597, -0.03122327, -0.0457697, -0.09397002, -0.1109647, -0.02583067, -0.08731596, 0.1145236, 0.09548477, -0.09889913, -0.02345234, -0.1058898, -0.07710268, -0.002978086, 0.05648575, 0.0346326, 0.03430252, -0.06065907, 0.09337912, 0.07014388, -0.04350591, 0.01150519, 0.03559829, 0.09141016, -0.1263988],
    [0.03160119, -0.1002091, -0.1190697, 0.00771606, 0.01453887, 0.02677494, 0.1067346, 0.05300544, -0.1289914, 0.01964295, 0.1048366, 0.1194905, 0.1343003, -0.01084255, 0.1205819, 0.06242463, -0.1012303, -0.06632712, 0.1106028, 0.0143394, 0.1140718, -0.139399, 0.09748031, -0.01219559, 0.02911231, -0.08741722, -0.1036811, -0.1349579, 0.03584918, 0.02464433, -0.03810574, 0.07118623, -0.07553677, 0.1146991, 0.1105102, 0.09862916, 0.06631207, 0.06832024, -0.07488753, -0.01532703, -0.1339472, -0.07771629, -0.09366374, -0.06159826, -0.06492904, -0.0466898, -0.1138987, -0.09686506, 0.09715393, 0.003964186, -0.01828119, -0.006408349, -0.0992759, 0.1060689, 0.1189141, 0.06541345, 0.02499798, -0.06570639, 0.1353842, -0.03095084, -0.1046584, 0.08364084, -0.1059004, -0.05552054, -0.0445939, 0.1210222, -0.1270194, 0.09688342, -0.06498407, 0.02670009, 0.07437616, 0.1206874, -0.1004293, -0.02044526, -0.01103665, 0.09003763, 0.05140024, 0.04413701, -0.007768109, 0.08410597, 0.03613032, 0.08328983, 0.1225139, 0.1221847, 0.1290395, 0.08018049, -0.04076064, -0.02894165, -0.0780212, 0.03954155, -0.1207554, 0.007635564, 0.004274935, 0.04647705, -0.06873417, -0.1302819, 0.05788917, -0.02389199, 0.05907008, -0.02295173, 0.005962595, 0.08241009],
    [0.08857368, 0.03717213, 0.1246932, 0.0859055, -0.0008628964, -0.02517356, 0.1223412, -0.1195518, 0.0150522, 0.001815572, 0.103437, 0.007117823, -0.06430982, -0.08693253, 0.09431398, -0.0775954, 0.120634, 0.03910684, 0.029872, -0.02091856, -0.01583409, 0.03861318, -0.04037431, 0.1018961, -0.06938732, -0.008707762, 0.01107088, 0.06136411, 0.02111247, -0.06338601, -0.06802106, -0.02926215, -0.1173416, 0.1331661, 0.06922331, -0.05833014, -0.1016798, -0.0925014, -0.1036976, 0.04120471, 0.002077743, -0.09106649, -0.004403695, 0.08436684, -0.008913025, -0.07209615, 0.005056649, -0.06991634, 0.07593399, -0.07583573, 0.03080582, -0.02383173, 0.1219706, -0.05820829, 0.01549302, 0.1267575, -0.03468412, -0.0888436, 0.00567168, 0.04658779, 0.04870158, 0.08894012, -0.1351112, -0.03197063, 0.03227567, 0.04854356, -0.04113943, -0.06618066, -0.1104613, 0.000669986, 0.00120002, -0.08040424, 0.1060087, -0.02352342, 0.05442411, -0.0355497, -0.1197548, 0.05176868, 0.01614697, -0.111341, -0.008992001, 0.05966944, 0.05544319, 0.02937943, -0.007227868, 0.07879841, 0.1162606, 0.1262691, -0.06708577, 0.01474425, 0.03127204, -0.04764225, -0.06540875, -0.0292319, -0.02053884, 0.004820749, 0.1236158, -0.06161232, -0.009289503, -0.05479441, 0.001042932, -0.1006578],
    [0.0716354, -0.02413009, -0.05434471, -0.1244923, -0.1233945, -0.1100661, -0.1236746, 0.09675555, -0.1009704, -0.1033784, 0.099534, -0.106453, 0.06304493, 0.02091419, -0.09820056, 0.06802935, -0.09160013, -0.08632889, 0.01920022, 0.1290779, 0.1177095, 0.1139978, 0.1227798, 0.01371002, -0.0887129, -0.002414644, -0.01960592, -0.1059195, -0.0355465, 0.1039118, -0.1113877, -0.04562194, -0.1186733, 0.02854961, -0.02444879, 0.04162794, -0.03362497, -0.07873043, -0.03037151, -0.1203229, -0.116698, 0.1017721, -0.1261751, -0.03700873, 0.08672991, 0.07023124, 0.05273953, -0.05399323, 0.09356198, -0.000713557, -0.08763465, -0.1267885, -0.1050905, 0.1293386, -0.02260793, -0.004646078, 0.06613938, -0.09420858, -0.1002629, 0.09929791, 0.09383938, 0.1213576, 0.04039007, 0.008783355, 0.09211503, -0.1003718, -0.06818809, 0.09864065, 0.1176154, 0.03798397, 0.02983567, 0.07184195, -0.1188598, 0.01710109, -0.09007449, 0.04125896, 0.09904434, 0.1129075, -0.07333393, 0.08465175, 0.1153837, -0.063375, -0.06703171, -0.02951303, -0.07054143, -0.1053369, 0.1023158, -0.1325496, -0.0877623, -0.04325101, -0.0812595, -0.05492825, 0.1082255, 0.1026625, -0.1190988, -0.07640973, -0.05435145, 0.002312809, -0.1363971, 0.1069649, 0.03485638, 0.1382582],
    [0.121178, -0.05149527, -0.130743, 0.103098, -0.09289984, 0.05513752, -0.1077399, 0.1327823, -0.08740744, 0.02634878, 0.01277503, 0.02002447, 0.005045071, -0.08140774, 0.1040108, -0.1336293, -0.1083907, 0.1235028, 0.02992909, 0.01500784, 0.03888286, -0.1271496, -0.06306084, -0.1223362, 0.02808708, 0.1380374, -0.06227832, 0.07871398, 0.1344936, 0.07990599, -0.05666849, 0.05442191, -0.06878167, -0.01747547, -0.0008471608, 0.04444929, -0.00110817, 0.01081878, -0.09797455, 0.06672035, -0.07012635, 0.06241942, -0.02481456, 0.04181847, -0.08821122, -0.03522589, 0.1251681, -0.07929388, 0.009097442, 0.1307347, -0.07937694, 0.07726552, 0.05232007, 0.01483409, 0.003846809, 0.02575052, -0.0413985, 0.02732059, 0.07158882, 0.02420956, 0.02243062, 0.1382892, 0.05836475, -0.1196528, 0.05729664, -0.04357515, -0.08905791, -0.08179581, 0.0129929, 0.06055522, 0.05151078, -0.1188714, -0.07774964, -0.08805007, -0.1259274, -0.0940858, -0.1386793, 0.005186588, -0.1357521, 0.1077442, -0.07824609, 0.08224878, 0.06503072, 0.05900944, 0.0215842, 0.1250367, 0.03702634, 0.004995257, -0.07968892, 0.05342813, -0.134383, 0.1172697, -0.02868138, 0.1266878, -0.04951216, -0.04083292, 0.137255, 0.1016673, -0.09744288, -0.02055106, 0.1079707, -0.1023927],
    [0.03304967, 0.03420888, 0.002808452, 0.0247142, 0.06369618, 0.07112123, 0.004485562, -0.05944178, 0.04335125, 0.1264731, -0.05177895, -0.0886022, -0.1366507, 0.0555118, 0.1177372, -0.1062083, 0.01297975, 0.07189029, -0.06374079, 0.13159, 0.1135575, 0.06189988, 0.06053996, 0.014001, -0.1250076, 0.08279333, 0.1291669, -0.01724615, 0.07416824, 0.1282332, 0.08695563, -0.04263672, -0.1285441, 0.008800983, 0.1121161, -0.005948707, -0.1215386, 0.005661964, 0.131044, 0.02181229, -0.1065394, 0.06560725, 0.0433198, -0.05121781, 0.01615275, 0.06485417, 0.09918843, 0.03571811, 0.05754059, -0.093794, 0.08271326, 0.05868023, -0.1389747, -0.02147153, -0.05810146, 0.08744533, -0.07919158, 0.09509139, 0.1236784, -0.08684036, -0.1093204, -0.09025156, -0.02841697, -0.1160495, 0.04621935, 0.03733175, -0.06185016, 0.02413771, 0.01439878, -0.1351042, -0.06633763, 0.1253348, -0.1325642, -0.04417976, -0.08970498, 0.03913088, -0.04895188, -0.04850663, 0.09220393, -0.02387106, 0.1192653, 0.01879763, 0.1396743, 0.07309096, 0.09565614, -0.02296812, -0.09096263, -0.02070427, -0.06765175, 0.1111637, -0.0908304, 0.124556, 0.09480204, -0.1370843, -0.04955903, -0.1255155, 0.1251511, -0.03320345, 0.01171611, -0.1384595, 0.128992, -0.1057757],
    [0.130709, 0.06243401, 0.04258148, 0.01481287, -0.03408301, 0.08470907, 0.09345077, 0.07541047, -0.1385515, -0.07890841, -0.1153142, -0.01711765, -0.1041078, -0.06214875, 0.09000899, 0.04685403, 0.1107515, -0.0003115982, -0.03599299, 0.002731562, 0.114465, 0.08237323, -0.01107155, -0.110141, 0.09614053, 0.04849456, 0.1049533, -0.09867784, 0.1008561, 0.1363066, -0.108082, -0.04124826, 0.109257, -0.1210305, 0.1107989, 0.04701886, 0.103096, -0.10891, -0.04919623, 0.1309613, 0.09485109, -0.00563401, 0.0636289, 0.04994638, 0.02018543, -0.08695917, -0.006685182, 0.06282512, -0.04942926, 0.01878238, 0.1108162, -0.01084238, -0.0487914, 0.03467697, 0.05086327, -0.1327343, 0.09935503, -0.1231341, 0.05622932, -0.09317778, 0.1296917, 0.02378252, 0.1297106, 0.03873253, 0.04921594, 0.06778236, -0.05151454, -0.1209945, -0.02898181, 0.03541576, 0.01878665, -0.05997674, -0.05524755, 0.006940112, -0.06932665, -0.03260298, 0.02063499, -0.04077452, 0.01821145, 0.1257101, 0.09310417, 0.07278789, -0.07246388, -0.06881319, 0.1124007, 0.1132073, 0.1369087, -0.03005418, 0.124145, 0.08249643, 0.1137126, 0.006725922, 0.06330567, 0.1368773, 0.09506378, -0.1233999, 0.1036619, 0.05093956, -0.08353411, -0.001822114, -0.03085896, -0.007377923],
    [0.08919027, -0.1258407, -0.1165178, 0.04764723, -0.01588504, -0.1138315, 0.09661624, -0.1206417, -0.03538594, 0.08852718, 0.07145548, -0.1151006, 0.1178006, 0.05465874, 0.1043012, -0.1128961, -0.01791329, 0.06332941, -0.04309116, -0.1267144, -0.1181011, 0.04231237, 0.0003898293, 0.08649451, -0.09269056, 0.08097302, -0.1216114, 0.06726693, 0.08809681, -0.01490648, 0.09577569, -0.1206907, -0.02011789, -0.09461011, -0.03453996, -0.06287588, 0.1094099, -0.09225051, -0.04422423, -0.07285917, 0.1104071, -0.08590533, 0.1287101, 0.06399237, 0.02412899, 0.1307381, 0.01554641, -0.05921302, 0.1218327, 0.1021198, -0.0565041, 0.1087088, 0.01956175, 0.04942573, -0.1003424, -0.03755648, -0.04705737, 0.08987047, 0.1048903, -0.03030337, 0.05649022, -0.04091792, 0.1235806, 0.1206089, 0.004867584, 0.0319708, -0.003720179, -0.08936885, 0.1077684, -0.09406142, 0.04225848, -0.1195365, 0.06644569, -0.08431819, -0.05501362, -0.1168921, 0.1291039, 0.1168397, -0.008291915, -0.02929163, -0.1138777, 0.03941716, -0.05283423, 0.1375376, 0.0730709, 0.03294, -0.04091201, 0.08053605, -0.1069319, -0.01495439, 0.1126917, 0.1374447, -0.08295919, -0.06603216, 0.04512748, 0.05131548, 0.05477716, 0.01717411, -0.133417, -0.11715, -0.05187931, 0.03553786],
    [-0.00826475, 0.08694194, 0.04650382, -0.09046023, -0.04108745, 0.009047657, -0.03330761, 0.03471697, 0.1025684, 0.04810552, -0.01963554, 0.0009739697, -0.03684121, -0.06069222, 0.1018603, -0.08074501, -0.02124594, -0.0357635, -0.1239799, 0.1374334, -0.08302952, 0.09469354, 0.04503928, 0.03931236, 0.138667, -0.08100368, -0.01619916, 0.06978585, -0.1269348, 0.1115286, 0.1256141, 0.02423526, -0.05804406, -0.04167139, -0.1272616, -0.07841387, 0.1169902, -0.1120582, -0.133922, 0.107873, -0.06218287, -0.02093048, 0.09733272, 0.003728211, -0.1325178, 0.1334008, -0.08339256, 0.02826359, 0.05825704, 0.03362427, -0.0437305, 0.01118149, -0.006453693, -0.06597537, 0.0002501458, -0.1161285, 0.06397174, 0.1089021, 0.02596718, -0.1187022, -0.05778129, 0.04337512, -0.07451448, -0.0626523, -0.1167874, 0.1115441, 0.03821122, -0.09033166, -0.1039608, -0.004788831, 0.1140132, 0.01934412, 0.0858601, -0.0977764, 0.04333683, -0.1104116, -0.09045818, 0.07713228, -0.105796, 0.06316829, -0.02469024, -0.0603351, 0.05562705, -0.04693121, 0.1123267, -0.1003121, -0.01694665, -0.04604106, -0.04696216, 0.08612134, 0.12922, -0.1044658, 0.04212518, 0.1204805, -0.07276903, 0.06315687, 0.07929131, 0.1321315, 0.004504189, 0.1227261, 0.04978269, -0.1380966],
    [-0.1077175, -0.05749067, 0.02852961, 0.003487244, -0.04808537, -0.01949342, -0.05713542, 0.02796943, -0.01135308, 0.06152206, -0.07177438, 0.0141656, -0.09858876, 0.1070914, 0.06007835, 0.08990412, 0.1208213, 0.008236602, -0.07434815, 0.03442635, -0.1279845, 0.03791779, -0.0658419, 0.0243029, -0.04452123, -0.07327227, 0.1111666, 0.1307961, -0.1014315, -0.1234781, 0.1352341, -0.07266577, -0.1005343, -0.009907603, -0.03261676, 0.0433651, 0.1135164, -0.005608603, 0.06593005, 0.02335295, -0.02373004, -0.04147989, 0.02691857, -0.05456369, -0.1146475, 0.02605659, 0.1213723, -0.04799266, -0.03732897, 0.05821067, 0.08236743, -0.05712947, -0.1352172, 0.06592217, -0.01397629, 0.01132904, -0.0685619, -0.02178835, -0.0004817992, 0.07709396, -0.05726515, -0.08082813, 0.0685521, -0.115078, 0.1255432, 0.1193558, -0.1156102, 0.02351881, -0.1034421, -0.009289578, -0.06086665, -0.03340586, -0.0006470829, -0.0136091, 0.1267686, -0.1377372, -0.04285082, -0.07349662, 0.006240025, 0.05247792, -0.1286927, 0.04954058, -0.1191272, -0.03569289, 0.1086795, -0.00111489, 0.03943105, -0.0492166, 0.01784836, -0.06682719, -0.1246848, -0.1191181, 0.04150131, 0.1146382, -0.06730224, 0.03454834, -0.01272188, 0.08759896, 0.03114374, 0.05768295, -0.05931838, -0.06473257],
    [0.02961002, -0.04722126, -0.1144483, 0.1008603, 0.1020551, 0.1067942, -0.1086958, 0.136845, 0.09786908, -0.03984902, 0.1385446, 0.0008668303, -0.06441812, 0.0406, 0.1058175, -0.0311823, -0.1124755, 0.03812421, 0.09766319, -0.06810866, -0.1045766, -0.02376276, -0.08155757, 0.115541, 0.1230977, 0.04662004, -0.05373253, 0.02740599, -0.07833149, 0.07458335, -0.06130511, -0.132967, 0.08224186, 0.1102037, -0.05440864, -0.1155092, 0.1316244, -0.05946888, 0.06916896, -0.000722602, 0.04455012, -0.02936654, 0.0005880296, -0.04021662, -0.08363083, 0.02260005, -0.1366335, -0.09330018, 0.04968207, -0.03477232, -0.05888961, 0.1272771, 0.08335857, 0.04433395, 0.03766477, -0.0369889, 0.08232737, -0.1239781, 0.09264779, -0.07894294, 0.05125044, 0.08960176, -0.02478912, -0.1002356, -0.1083492, -0.007447138, -0.1267237, 0.09226282, 0.1329035, -0.08215046, -0.06950668, 0.09298595, 0.07976805, 0.02147223, 0.03609743, -0.1132367, 0.1294181, 0.02804899, -0.02904798, -0.02796747, -0.1280592, 0.1332227, -0.07808681, 0.1337667, -0.07031284, -0.04215991, -0.1245306, 0.02050689, -0.05853069, -0.1315353, 0.10053, 0.01371525, 0.1377942, 0.115972, -0.01149881, -0.05243968, 0.04660545, -0.05636458, -0.03635028, 0.08286387, 0.01029076, -0.1362043],
    [-0.00378494, 0.04374103, 0.04186273, 0.1025316, 0.01563511, 0.06023979, 0.06078568, -0.01121677, 0.0297047, -0.1172894, -0.1088202, -0.02532612, -0.01538506, -0.04615677, -0.007691115, 0.007422864, 0.04038677, 0.1232893, -0.05096805, -0.0924771, -0.05031905, -0.02381524, -0.08211303, 0.009275809, 0.05438275, 0.1398416, -0.1366838, 0.09864449, 0.1359887, -0.1325033, -0.003094703, 0.06252355, -0.03044419, -0.06778134, 0.0221834, 0.002031043, 0.01750756, 0.06956911, -0.02362835, -0.01564766, -0.1393057, 0.03958162, 0.01081905, 0.007420093, -0.05648448, 0.03469621, -0.1139566, -0.04274553, 0.06267322, -0.03832993, -0.01700684, -0.08808109, 0.1331521, 0.07610088, -0.07028496, -0.05612141, -0.07987548, -0.009727225, 0.05470598, 0.06936653, -0.04729094, 0.08043656, 0.02317471, -0.07498868, -0.01130153, -0.02834171, -0.03167066, -0.1227305, 0.05233229, 0.01199107, 0.05606443, -0.04838307, -0.05220248, 0.03808993, 0.09365449, -0.1324421, 0.06349246, -0.03099561, -0.09972921, -0.1072185, 0.1094058, 0.1083552, -0.1248124, -0.1303998, 0.07944474, -0.009897515, -0.1250965, 0.00215821, -0.02916123, 0.02656735, -0.04277694, -0.03255988, -0.08161055, 0.02376556, -0.02391997, 0.07076965, 0.1024105, 0.1219312, 0.01728551, 0.04551699, -0.1225996, -0.104192],
    [0.06675283, 0.1152814, -0.1197403, 0.05737283, -0.1026768, -0.05688957, 0.09340143, 0.03355069, -0.04577581, 0.121834, -0.1215895, 0.09300986, -0.08235301, -0.03196258, -0.07070087, -0.009238988, 0.05871349, -0.03592064, -0.09681177, -0.01434924, 0.1290855, -0.1286389, 0.0500285, 0.03510622, 0.0254648, 0.1052016, -0.1142325, 0.01652526, -0.1018642, -0.1053935, -0.1127113, 0.0625727, -0.1169881, 0.05397051, -0.1069258, 0.06833106, 0.03560306, -0.1170931, 0.06643189, 0.03030921, 0.07995254, 0.07798918, 0.1261601, 0.02789826, 0.02339729, 0.06298614, 0.001762897, -0.06424776, 0.02742849, -0.08135825, -0.06647661, -0.06132758, 0.02039038, 0.03354564, 0.02446542, 0.01530172, 0.04441527, 0.03487198, 0.08156931, 0.01641045, -0.06461759, -0.08147825, -0.119016, 0.1260652, -0.03557637, 0.06335251, 0.03856764, -0.006526098, 0.07213618, 0.08617075, 0.122307, -0.0389972, -0.006439373, -0.009096876, 0.02416575, -0.01983755, 0.1003134, -0.006803229, 0.019417, -0.0003751069, 0.08488097, 0.08641362, -0.03474174, 0.002544776, -0.06829913, 0.01118693, -0.06448926, 0.08137004, -0.07845104, 0.1234219, -0.008502945, 0.1333786, -0.02858536, -0.07594129, -0.0352474, -0.006345794, -0.0344389, 0.0493192, -0.007167935, 0.0005783439, 0.004252434, 0.1394029],
    [-0.0001908541, -0.003881916, -0.1391347, 0.114355, -0.1070414, -0.06010417, -0.01184885, -0.05038464, -0.03933529, -0.06107942, -0.1162068, -0.117908, 0.01548855, 0.01244828, -0.09538302, 0.05196102, -0.002944559, 0.08927505, -0.08311613, 0.06506724, 0.110157, 0.1247985, -0.01772326, -0.1028636, 0.07787757, 0.05308225, 0.1300017, -0.1278388, 0.118623, -0.05785514, -0.04561493, 0.08447083, -0.01662929, 0.1336918, -0.06295802, 0.1020859, 0.1051086, 0.1108051, -0.1285087, -0.04297705, 0.1040873, 0.08379688, -0.1236089, 0.002251327, 0.1169246, -0.05160321, -0.1127212, 0.05645801, 0.09606642, 0.0824348, 0.02791786, -0.1286873, -0.1312768, -0.05681779, 0.07625411, -0.008024439, 0.1174682, -0.06257021, -0.08006138, 0.06548512, -0.1319136, -0.0144269, -0.1279705, -0.04683462, 0.05774191, 0.1320276, 0.02735164, 0.1394195, -0.1314851, 0.05191521, -0.04445004, 0.07189062, 0.01983401, 0.1048715, 0.02939783, -0.04920118, 0.08149834, 0.09376132, -0.04465583, -0.09297971, 0.08507848, 0.05448377, -0.03464445, -0.05456999, -0.06796199, 0.02379557, -0.1009126, 0.02199924, -0.05996155, 0.1140166, -0.07988574, -0.135694, 0.1358051, 0.09437077, -0.09943345, -0.01118349, 0.06940769, -0.134309, -0.1077268, 0.09921034, -0.125536, 0.000682652],
    [0.09376062, -0.05624146, -0.07288775, 0.1240832, 0.1105495, -0.01417238, 0.09573883, 0.1296432, -0.1236525, 0.0142138, 0.04425285, -0.1380428, -0.09118155, -0.1243282, 0.05029639, 0.03812298, 0.06325849, -0.08396615, 0.01904378, 0.07951492, -0.1384577, -0.07128815, 0.08306912, 0.03776813, 0.03970842, -0.06928852, -0.1292428, 0.1235494, -0.1168746, -0.02568471, -0.003965884, 0.02044617, 0.06234116, -0.1257281, -0.1111085, 0.01542759, -0.02256877, -0.1176381, 0.06427921, -0.1278331, 0.1209227, -0.1011813, -0.05452195, 0.08949187, 0.02825328, -0.05883406, -0.1057412, 0.04396811, -0.1174808, -0.03848536, 0.07201445, -0.005427569, -0.0645313, 0.07003327, -0.07725334, 0.09442069, -0.02621497, -0.123629, 0.1157483, -0.08060281, -0.01090415, -0.06743574, 0.1120307, 0.1230626, -0.1161396, -0.09445441, -0.08007516, 0.02072386, -0.0158166, -0.1072809, -0.1313033, 0.07431903, -0.03145069, 0.1090267, -0.03738285, -0.02302852, -0.13517, -0.06645131, 0.09444539, -0.004495248, 0.1045323, -0.03481198, -0.08892764, -0.01026352, 0.07291195, 0.07507972, -0.1162367, -0.1056644, 0.07774924, -0.1125804, -0.1037252, -0.008196533, 0.08098283, -0.01901324, -0.09944984, 0.0006033629, 0.1036604, 0.07701597, 0.02001356, -0.06056088, 0.1318008, -0.08861525],
    [0.05083963, -0.02341081, -0.1234482, -0.1391449, 0.1356717, -0.06439258, -0.124032, 0.04314914, 0.08876361, 0.1296571, -0.03592432, 0.06985226, 0.03932318, 0.115027, -0.005849048, -0.04370058, -0.1150896, -0.02322769, 0.01666722, -0.0614059, 0.1330255, -0.1128239, -0.04498865, -0.005940557, 0.09266157, -0.1357269, -0.07662065, -0.04012705, -0.02223888, 0.1074081, -0.08013919, -0.1020071, -0.09327677, -0.08368748, 0.02643248, 0.06416994, -0.1315273, -0.1352939, 0.08796214, -0.08714102, 0.02667286, 0.04606107, -0.0825026, 0.09180608, 0.02623758, -0.1393986, 0.009764671, -0.07640295, 0.06822142, 0.06130555, 0.0254828, 0.0157761, -0.0358063, 0.02139801, 0.08508576, -0.103639, -0.02649905, 0.1262795, -0.1140294, -0.0221162, -0.008798972, -0.02892272, 0.07434575, 0.1099706, 0.01876795, -0.09537029, -0.007603914, 0.03753036, -0.1302335, 0.09900191, -0.1065246, 0.07204323, -0.08025721, 0.05731127, 0.1311724, -0.05930212, -0.09990679, -0.01403014, -0.1392653, 0.1366134, -0.008244917, 0.1216345, 0.09947614, 0.004928112, -0.1237735, 0.1089122, -0.07398716, 0.0183031, -0.01060311, 0.07109328, 0.04116448, -0.1359536, 0.12246, 0.05628104, 0.1160543, -0.1312833, 0.07579236, 0.0902549, 0.01961247, -0.09512457, -0.03690627, 0.1253953],
    [-0.02450234, 0.1260092, -0.1166015, 0.03579923, -0.1059264, 0.04394878, -0.06405172, 0.01820728, 0.04685266, 0.03887839, -0.001144633, 0.1000632, -0.04406027, 0.05728029, 0.01691654, -0.08440019, 0.02459288, 0.1161747, 0.07477478, -0.1076357, -0.03471146, 0.1187316, -0.02476144, 0.1159783, -0.1243759, 0.03087973, 0.02895007, 0.06070181, 0.04308407, -0.09148288, -0.01207824, 0.1009003, -0.005390808, 0.09709321, -0.0730107, 0.06981146, 0.1377134, -0.11199, -0.1104163, 0.03072499, -0.01217005, -0.0044038, 0.08294943, -0.03776434, 0.08453289, 0.1384345, 0.01659808, -0.07891062, 0.002049699, -0.02175153, -0.02731378, 0.05454297, -0.07500504, -0.02232108, -0.1039529, 0.006285504, -0.0467779, 0.07561506, -0.1032684, 0.06415432, -0.1369118, 0.0124169, 0.1190178, 0.09603143, -0.000864163, 0.05070559, -0.1004226, 0.1268307, -0.06547783, -0.03932577, 0.08437545, 0.04799177, 0.1263614, -0.05415685, 0.01792768, -0.1329608, 0.07209518, -0.09964001, -0.1146582, -0.0005805492, -0.06853035, 0.01453079, 0.01262699, -0.1035276, 0.0295969, 0.04189996, -0.09413347, 0.1253586, 0.1133589, 0.08875459, 0.05377206, 0.1131052, 0.04913064, -0.01776275, -0.09525131, 0.05264711, -0.07381879, -0.1031339, 0.112379, 0.01797068, 0.05898324, 0.1186744],
    [0.0953525, 0.05366987, 0.09219842, -0.1082579, 0.05710181, 0.1134221, -0.07105125, 0.129161, -0.09040807, -0.03849588, -0.137186, 0.0527482, 0.04058812, -0.1176762, 0.05936503, 0.004970521, 0.003862724, 0.01287428, -0.126737, -0.02487749, -0.09710433, -0.05149401, 0.02853972, 0.004788801, 0.03738894, -0.1060429, -0.1185979, -0.09696454, 0.01369943, -0.1072245, 0.1301808, -0.02820537, 0.04083313, 0.06310736, -0.06300542, 0.05528689, 0.09742132, -0.05432438, -0.118691, -0.07170378, -0.05091297, 0.02147897, -0.1250011, 0.05233366, 0.08293314, 0.1298936, 0.08803572, -0.09595042, 0.07297939, 0.09772827, -0.08417277, 0.03151268, -0.09041084, -0.05020914, 0.06428866, -0.04529887, 0.1382694, 0.102431, -0.1277068, 0.08400881, -0.09570989, -0.008174777, -0.1217557, 0.1088969, 0.05142896, 0.0348008, -0.0431806, -0.0407759, -0.05561205, 0.1300138, 0.06813855, 0.05945454, -0.07548656, -0.1064972, 0.0195922, -0.04150467, 0.09405381, 0.005494162, -0.09275793, 0.02609766, -0.1025227, 0.09881449, -0.1341627, -0.02509476, -0.09181115, 0.09723152, -0.09388478, -0.02124354, 0.002099618, -0.1075101, 0.01768473, 0.126997, 0.05634617, -0.05040318, -0.1352814, -0.03849098, -0.04124112, 0.1342713, 0.1175995, -0.05474126, 0.0149359, 0.1366322],
    [0.04973274, -0.06499933, -0.1283328, 0.07163296, -0.11928, -0.02469324, 0.1347796, 0.0543528, -0.130342, -0.04638062, 0.1100117, 0.122525, -0.09275889, -0.1131069, -0.02361359, -0.1286628, 0.07471919, -0.02993723, -0.0627792, 0.0967693, 0.07435686, -0.03155816, -0.1201794, 0.07231309, -0.130336, -0.06014073, -0.08599925, -0.05329958, -0.04470541, 0.08075382, 0.01071091, -0.1278968, 0.01272118, -0.108466, -0.005012244, 0.03003722, 0.0113827, 0.04479012, 0.1346735, 0.1098835, -0.02300027, 0.02285838, 0.01220143, -0.1336771, -0.1279334, -0.0847272, 0.08219102, -0.03052104, -0.1121669, -0.1399947, -0.1230658, 0.08551703, 0.1187604, 0.08944103, -0.03219111, -0.100731, 0.1301538, 0.03306814, 0.1222874, 0.08462093, -0.06221385, -0.04895556, 0.04649017, 0.05169363, -0.1054014, 0.06017008, -0.00713855, -0.004209638, 0.002579436, 0.03565057, -0.02159849, 0.09630628, -0.03730346, -0.1184726, -0.07945286, 0.05535386, -0.07880725, -0.06838469, -0.09472565, 0.07039604, -0.1198836, 0.03455605, -0.07082294, -0.09070647, 0.05233873, -0.1164378, -0.01931854, -0.07997584, -0.0826095, 0.1287119, 0.1323807, -0.08822124, -0.07007033, -0.02131993, 0.03926446, -0.132643, 0.06370375, 0.09572318, -0.1064342, -0.09492113, 0.01189369, 0.109597],
    [0.1154121, -0.08928727, 0.05714558, -0.1388122, 0.1067912, -0.07742627, 0.04648446, -0.1372714, 0.05122664, 0.1024532, -0.06877756, 0.06137339, 0.008226484, -0.01199538, -0.117057, -0.05508563, -0.1028269, -0.04971941, 0.0986767, -0.1040546, -0.09464647, 0.1288501, -0.0170837, 0.08622256, 0.09878564, 0.01319422, 0.1104779, 0.1049043, -0.04391575, 0.07178046, 0.1181108, 0.0213031, 0.1149995, 0.1053939, 0.1181175, 0.05242016, 0.005976483, 0.01366694, 0.1280928, -0.02870882, -0.04930396, -0.08482823, 0.1378576, 0.1346519, -0.1277329, -0.04008332, 0.05177278, 0.02564896, -0.06037286, 0.006209612, -0.05668211, -0.1108243, -0.06607543, -0.1027204, -0.09138986, -0.03300481, -0.01888256, 0.03340633, -0.04936132, -0.02116772, 0.1159228, 0.06647426, -0.06352709, 0.06289429, -0.02822617, -0.03490442, 0.02502422, -0.06707281, -0.06547213, 0.005008981, 0.1315692, -0.1266945, 0.009464845, -0.07208493, 0.004228801, 0.1325861, -0.03087583, 0.005679086, -0.02710028, 0.04189649, 0.05155685, 0.07735226, 0.005472332, -0.1191771, 0.138969, 0.1260328, 0.1337343, 0.1344986, -0.1311281, -0.1193209, 0.03442425, -0.1174978, -0.08315521, 0.1224648, 0.01497215, 0.03966368, 0.01616891, -0.0554071, -0.05017325, 0.03965854, 0.1090788, -0.09272724],
    [-0.08882344, -0.1015199, -0.1283988, 0.05430856, 0.12805, 0.02618015, -0.02770178, 0.05101504, -0.05248515, -0.110198, 0.07334252, 0.06059044, 0.02238328, -0.1363686, -0.09426281, -0.03677334, 0.1305344, 0.05691953, -0.04254559, -0.1210741, 0.04849425, -0.02637605, 0.03656262, -0.09312804, -0.114268, -0.06798857, 0.09680513, -0.1238793, 0.04257835, -0.02575209, 0.01652072, 0.1248955, 0.1238169, 0.1348596, 0.005549058, 0.01446943, -0.06896539, -0.03894718, -0.05556574, 0.1090427, 0.07499269, -0.05574045, 0.0968339, 0.06380948, -0.128957, 0.0146578, -0.1376087, 0.01837394, -0.006732419, -0.06616884, -0.005167127, -0.1019398, -0.04714474, 0.02551752, -0.1293565, -0.0952706, 0.05294631, 0.08618072, 0.0274517, -0.0939962, -0.04473506, 0.0748916, -0.0213044, -0.1133489, -0.04303738, -0.1372903, 0.04277612, -0.07341763, -0.01197498, 0.07086954, 0.09388454, 0.09097999, 0.1278029, -0.04573448, 0.1107206, 0.0325302, -0.1294322, -0.1071754, 0.1167194, -0.116713, 0.06328426, -0.08727112, 0.1132783, -0.06769858, -0.0678557, -0.09483813, -0.08195001, 0.1074359, -0.002356723, 0.110385, 0.09916644, 0.120586, 0.07044388, 0.005145058, 0.04203774, 0.02591123, 0.03019527, 0.09610905, 0.01474045, -0.01103175, 0.03853435, -0.1303824],
    [0.04017885, 0.06324093, 0.07104057, 0.04258202, 0.06803366, 0.07112273, 0.1131261, 0.023323, 0.05994604, -0.08477771, 0.02845723, 0.04806959, -0.02051654, -0.134911, 0.02658445, -0.1252554, -0.08066484, 0.1135118, -0.0502717, -0.1277994, -0.1250438, 0.1083869, -0.1103973, -0.1198568, 0.1344211, 0.0273456, -0.1342827, 0.02705785, 0.03738136, 0.1232448, -0.1389089, -0.04999191, -0.04991284, 0.06910596, 0.05471329, -0.09702116, 0.09798062, -0.04129614, 0.09749293, -0.04967007, 0.0007135868, -0.08801502, 0.07263665, 0.1080691, 0.1335211, 0.04412415, 0.08544829, -0.0378827, 0.03336647, -0.005565703, -0.0853713, -0.01810569, -0.06154779, -0.134676, 0.126193, -0.003998175, -0.04149281, 0.02985206, 0.02580661, -0.1353714, -0.03979404, 0.1298675, 0.1148983, -0.03069725, -0.09009242, 0.01944244, -0.01067793, -0.01619949, -0.1246211, 0.08808482, -0.1005686, -0.01975279, 0.131612, 0.04398751, -0.0253551, -0.1072637, 0.02804662, 0.05320248, -0.1261814, 0.1282758, -0.1019291, 0.05212664, -0.01491795, 0.04509617, 0.1019376, 0.08780963, 0.04021954, 0.1028707, -0.1244733, -0.006216794, -0.1254277, 0.02913262, 0.09907115, 0.1364555, 0.02279755, -0.1165095, -0.05019468, -0.01277092, 0.05278913, 0.03766076, -0.07052396, 0.07871998],
    [0.05209328, 0.1040677, 0.08934726, -0.1090341, -0.01379515, 0.04359239, -0.1097124, -0.0323577, 0.006697044, 0.07993871, 0.04855184, -0.04867589, -0.06481925, -0.08961681, -0.04060577, 0.1166731, -0.02234685, 0.06759056, 0.07741459, -0.03821531, 0.09585485, 0.05975932, -0.1369975, -0.1029553, 0.09769912, -0.09621067, 0.009418502, 0.09529313, -0.1268563, 0.1235435, 0.05046706, -0.1273953, -0.04772077, 0.009528548, 0.05944836, 0.07213998, -0.01627037, -0.1262329, -0.08120376, 0.1188192, -0.0182843, 0.07407455, -0.02996831, 0.01680907, 0.03765809, 0.137926, 0.1190844, 0.02652596, -0.09560248, 0.08214461, -0.01203054, -0.09998497, -0.09223735, -0.08472063, -0.0512979, -0.1273042, -0.05328206, 0.05758713, 0.01005156, -0.06389748, 0.05183097, 0.0280315, -0.04948662, 0.07114153, 0.04826346, -0.09669486, -0.1063669, -0.02957514, -0.1217787, -0.0539731, -0.03716555, 0.1244643, -0.02183789, 0.1371308, 0.03965193, -0.06293491, -0.05472383, -0.04969651, 0.0802291, 0.04839353, 0.03517547, -0.07187286, -0.1279772, 0.0719825, -0.09607993, 0.04159478, 0.05252372, 0.1371105, -0.03240767, 0.02204405, 0.08318894, 0.1149395, 0.09431776, 0.1126619, 0.09187686, -0.06054646, -0.008235961, -0.08205879, -0.06452034, -0.04946439, -0.044102, -0.1064226],
    [-0.09139808, 0.06907298, 0.0008672625, 0.02250554, -0.1037657, 0.03042656, 0.06608987, -0.09968084, -0.1127369, 0.136917, -0.07206911, -0.006897286, -0.05365865, 0.1071875, -0.03431334, 0.003608391, -0.06358625, -0.01207724, -0.05519286, 0.1182889, 0.0862731, 0.1363696, 0.06501032, -0.01297705, -0.1296028, 0.1113529, -0.05267775, -0.1351451, 0.05148558, 0.09294602, 0.04311942, 0.02584146, 0.1364195, 0.09159248, -0.1299575, -0.05406728, -0.1107474, -0.1392072, -0.0495167, -0.02356305, -0.1201661, 0.06495196, 0.08085217, 0.1349737, 0.0002889335, -0.01306592, -0.1130446, -0.01325814, 0.1323266, 0.1382045, -0.08137311, -0.1239026, -0.0475886, -0.07733656, -0.1336723, 0.03026804, 0.02438509, -0.09196636, 0.03507921, -0.1136003, -0.01917158, 0.02900097, 0.06950628, -0.03935078, -0.06246558, -0.0001095831, -0.1171773, -0.05628082, -0.01928018, -0.1288834, 0.1144039, 0.1045557, 0.1120733, 0.08599647, -0.106367, -0.04932129, 0.05848744, -0.1196686, 0.01103775, -0.05291712, -0.1000891, -0.1298775, 0.004233509, 0.02271442, 0.08360034, -0.1033205, -0.02353647, -0.07070334, 0.09848374, -0.04561045, -0.002896518, -0.02915521, -0.1344489, -0.1266603, -0.01364355, -0.1090401, 0.03087192, -0.004858181, -0.08058405, -0.1285856, 0.04138082, -0.06857578],
    [-0.05398856, -0.07169299, -0.03847625, -0.1387129, -0.1170087, 0.04508972, -0.1047237, 0.06651246, -0.07910419, -0.08084412, -0.1138495, -0.1354387, 0.1185031, -0.05178623, -0.04881387, 0.115372, 0.06217023, -0.09548157, 0.004295006, 0.08205971, -0.02831107, -0.0833766, 0.08470199, -0.05017449, -0.03635031, 0.04524773, -0.03418794, 0.1268881, 0.05192452, 0.1348008, -0.04019823, -0.08391421, 0.02170001, 0.04686422, 0.07261509, 0.03707515, -0.07963037, -0.0510345, 0.01937012, -0.07293819, 0.05971011, -0.01047201, -0.1109028, 0.02293226, 0.1109587, 0.07520482, -0.1015182, -0.04284054, -0.02627964, 0.09406726, 0.09404987, -0.1334015, 0.07784275, 0.01799598, -0.04314164, -0.05074247, 0.08887565, -0.1359562, 0.03121041, -0.04556178, -0.1072993, 0.1075314, 0.07442136, 0.110902, -0.1037283, 0.08793856, 0.09133214, -0.02796299, 0.08557668, -0.08148973, 0.09792006, -0.1051935, 0.002647609, 0.1020767, 0.09127122, 0.0407277, 0.104085, -0.04567659, -0.03284135, 0.1062937, 0.03098433, 0.1010797, 0.04862432, -0.08379856, -0.02936177, -0.09933703, 0.1180846, 0.09354078, -0.09207436, 0.1374652, -0.003158763, 0.01127703, -0.1367358, -0.03263223, 0.07025852, 0.01870428, -0.02578711, -0.02555608, -0.009578615, -0.1195168, -0.1316209, -0.03991419],
    [-0.1103533, -0.09310053, -0.08316603, 0.09667303, 0.04471704, 0.02425062, 0.1076859, 0.05028197, 0.01681942, -0.127354, 0.1121901, 0.0203187, -0.1149717, -0.0993332, -0.1028199, -0.03403844, 0.1025252, 0.1314324, 0.1220601, 0.1128832, 0.002727762, 0.1187058, 0.06450567, -0.07778186, -0.0005580187, -0.01428023, -0.1083508, -0.002209693, 0.01134858, 0.02453452, 0.07362472, 0.1120574, 0.07010709, -0.01730892, 0.1043622, 0.1051262, -0.06970668, -0.03707781, 0.1007925, 0.1015227, -0.05838066, 0.09561397, -0.0324647, 0.0152436, 0.09487122, 0.07009073, -0.1183304, 0.1099842, -0.08796895, 0.1338938, -0.0340918, -0.04774174, 0.08809921, -0.1017005, -0.09489839, -0.06322029, -0.1259259, -0.125992, 0.07092348, -0.04774688, 0.01072738, 0.06365925, 0.07563458, 0.005650744, 0.03906434, -0.06238499, 0.03507334, 0.016956, 0.0255042, 0.1315033, 0.08086138, 0.09622088, -0.00178346, -0.1293613, 0.09489803, -0.000691995, 0.1023191, -0.02670046, -0.06368227, -0.04858345, -0.1170012, -0.1291779, 0.1003513, 0.08657373, 0.1011667, 0.08392946, 0.07754295, -0.05672812, 0.1095741, 0.009032607, -0.008158311, -0.08909833, -0.04384728, -0.1347357, -0.06604359, 0.131071, -0.1252828, -0.1370584, 0.03907005, 0.01021501, 0.08843563, -0.1010276],
    [0.02009325, 0.1329059, 0.003524035, -0.04731761, 0.1024143, -0.09154908, -0.06316908, 0.06561145, -0.005921334, -0.05592791, 0.1121495, 0.08338922, 0.0380062, -0.02811055, 0.02865667, 0.04514197, -0.1322477, -0.06900959, 0.07372341, -0.05691144, -0.1341019, 0.07207792, -0.01289736, 0.07056066, -0.03018135, 0.06630627, 0.01778833, 0.0933148, -0.04569826, -0.02066571, -0.1073309, -0.1281633, 0.0320995, 0.0677852, -0.02896452, -0.02033269, -0.1030661, 0.1164846, -0.02662037, -0.1101097, -0.09718789, 0.09464787, 0.0320566, 0.01685882, 0.02225591, -0.05179514, 0.05314318, -0.07976387, 0.01620339, -0.1124238, 0.1103903, 0.1225278, 0.05479806, 0.007137522, 0.09091026, 0.1071472, 0.01603647, -0.1294963, -0.00789009, -0.09392437, 0.07412434, 0.1117818, -0.1083457, -0.01202944, 0.05674415, -0.09521846, 0.01559478, 0.07105492, 0.007641137, 0.09268515, 0.0402769, -0.06359693, 0.05197838, -0.006350458, 0.1175404, -0.05873647, -0.09564239, -0.0217153, 0.01473331, -0.07720947, 0.07421003, -0.05304846, -0.1037828, -0.1382072, 0.008082554, 0.003638312, 0.1021992, 0.001335427, 0.08532175, -0.001407638, 0.0920805, -0.04776811, -0.1105063, 0.02128924, -0.09896372, -0.1003876, -0.1036704, 0.1219769, 0.1327676, 0.05427815, -0.09300952, 0.1054531],
    [0.1201901, -0.02275028, 0.08492514, 0.08842542, -0.005692512, 0.1309433, -0.1136546, -0.004349619, 0.05791378, -0.1197185, -0.06651154, 0.04851058, 0.02185869, 0.1388922, 0.07438578, 0.1162446, -0.01894973, -0.002720445, -0.1212433, 0.08009282, -0.1375842, -0.02534132, -0.1124913, 0.06460245, -0.09429872, 0.1336066, -0.1132873, 0.03994555, -0.04583243, 0.03422888, 0.004689917, -0.07210216, 0.02664074, -0.1054851, 0.08854287, 0.006248534, -0.1278334, -0.1034715, -0.0398982, 0.07091467, 0.1351868, -0.01935974, 0.1203006, -0.09051578, -0.1067939, -0.1357582, 0.05570304, 0.1384632, -0.04820623, -0.104622, 0.1169648, 0.04748955, -0.03360187, 0.03380295, -0.0326148, 0.1376504, -0.115869, 0.06637321, -0.1368168, -0.06717077, -0.05517226, -0.01337002, 0.0631583, 0.03647025, -0.07002716, -0.07298897, 0.1249372, -0.1081257, 0.02452518, 0.02791028, -0.119804, -0.1083479, 0.002651513, -0.1027835, -0.01249759, -0.05337366, 0.007099092, 0.1236, -0.1369957, 0.05256869, 0.1260288, -0.0561365, -0.002343401, -0.02964748, 0.07646251, -0.01802029, 0.07680017, 0.02495204, 0.005263701, 0.1078587, 0.123464, 0.1155037, 0.01272385, -0.08378266, -0.03351176, -0.03408615, -0.08769198, 0.07670231, -0.08558817, 0.104192, 0.0833134, 0.06686397],
    [-0.1235133, 0.1104636, 0.05125969, 0.1284127, -0.09798206, 0.0214772, 0.1185044, 0.08835845, 0.07917873, -0.1035781, 0.09267089, 0.001937032, -0.02045147, 0.1023598, 0.02289885, -0.1347328, -0.02657406, 0.09235637, 0.04472395, -0.08343248, 0.06778403, -0.08368498, 0.09201437, 0.005302399, -0.1352139, 0.1302777, -0.005052015, 0.06277314, 0.0006709248, 0.01793559, -0.02584089, 0.07215354, -0.01523756, 0.07223603, 0.1143963, 0.02659854, -0.0946236, -0.125045, 0.03838389, 0.1093607, -0.06287064, 0.04243279, -0.01291341, 0.05967688, 0.1386101, -0.04360336, 0.04352125, 0.1176176, -0.04730329, 0.05939148, -0.08962005, -0.04630336, 0.00262256, -0.001702264, -0.0239598, 0.05234945, 0.1023567, -0.1299373, 0.01201992, -0.1268285, 0.1061034, -0.1164836, -0.015994, -0.07179788, -0.1018585, 0.01896753, -0.05516916, 0.03336283, -0.009845108, 0.05199363, 0.08997083, 0.01508849, -0.03210317, -0.04601892, 0.005536526, -0.02298852, 0.1085161, -0.1376451, -0.06668057, -0.07674091, -0.0703786, 0.1388483, 0.07399056, -0.1234395, -0.131639, -0.03329973, 0.00613983, 0.04480778, 0.06767553, -0.1089419, 0.08945946, -0.005577132, -0.02248517, 0.1048723, -0.1339594, 0.0001621693, -0.01275741, -0.1191406, 0.08327284, -0.07328039, -0.1239906, -0.07452646],
    [0.09677725, 0.1284045, 0.1049777, 0.05733594, -0.05498871, 0.05821434, -0.1385075, -0.08267017, -0.1292293, 0.05022314, -0.01407598, 0.02367432, 0.06194802, -0.1275077, -0.1339682, -0.06018513, 0.06796258, 0.05666062, -0.01167168, 0.1020221, -0.02769835, 0.01949752, 0.1354818, 0.0853273, -0.1322201, -0.005360588, 0.091865, -0.07384253, -0.01357874, -0.1250841, -0.1306557, 0.01281546, 0.1012446, -0.08055177, -0.09118621, -0.09124488, 0.0005934685, 0.04847435, -0.1256799, -0.1343661, -0.07518068, 0.008770898, 0.03527525, 0.08860864, 0.09199925, 0.01037559, 0.03631243, -0.03346094, 0.06066329, -0.07805225, 0.1294907, 0.09329146, 0.006100073, -0.04610221, -0.1052599, 0.04724675, -0.1198362, -0.03393268, 0.09797765, 0.1163468, -0.1003307, 0.005589247, -0.1181392, 0.03237322, -0.06868191, 0.0688563, 0.03660432, -0.02774772, -0.09023076, 0.1301502, 0.1256919, -0.04839882, -0.02195337, -0.04707096, 0.05181385, -0.1141737, -0.1234687, -0.02498316, -0.09420672, -0.1113448, 0.1353293, 0.120267, 0.1195922, 0.03605523, 0.02268341, 0.1142995, -0.03714127, -0.005757138, 0.1208801, -0.08074741, 0.001425639, 0.02874865, -0.05645412, -0.1214855, -0.102096, -0.1370272, 0.02486537, 0.1092371, -0.1193001, 0.08805067, 0.123224, 0.1243332],
    [-0.006987125, -0.02963813, 0.07540406, -0.0006119311, 0.10269, -0.1313625, -0.1126262, 0.1388273, 0.1063251, 0.03728081, 0.006525397, -0.07011002, 0.1080988, -0.04553223, 0.06971805, 0.05850446, 0.1260658, 0.02295834, -0.04924664, 0.05457875, -0.08370878, 0.09756838, -0.04784149, -0.03407216, 0.02082151, -0.1058287, 0.0881326, 0.1125296, -0.08350469, 0.01004681, -0.04666887, -0.1113702, 0.03355686, 0.1117955, -0.119612, 0.06550986, 0.04431899, -0.03326815, -0.09709835, 0.1078563, -0.05221423, -0.0258266, -0.03125642, 0.04091763, 0.09291817, 0.06526051, -0.128308, 0.007968485, 0.06493136, 0.1273706, 0.05870835, 0.1297181, -0.01809644, 0.04992447, 0.1369279, 0.06798902, -0.01926459, 0.02166793, -0.0534624, 0.002781913, -0.09899163, 0.0695859, -0.1157389, -0.1360691, -0.1054796, 0.1365478, -0.04777192, 0.1152851, 0.08860029, 0.06433401, -0.0794816, -0.1271693, 0.04048599, 0.06081636, 0.01746763, -0.0004077554, 0.09974623, 0.01166484, 0.1189662, 0.05570731, -0.116662, -0.1162553, 0.03577944, -0.1321977, 0.02251909, 0.07140186, -0.04620779, 0.08160634, 0.1200347, -0.1026775, -0.001572758, -0.05278258, -0.01571801, -0.07230324, 0.01198129, 0.075473, -0.04970719, 0.1175728, -0.08281876, 0.03503611, 0.02015411, -0.04033902],
    [0.1163493, 0.06635758, 0.1381068, 0.05946472, 0.08055217, -0.136532, 0.03214213, -0.08681358, 0.023681, -0.1094603, 0.1298047, -0.08656353, -0.1234784, -0.0131247, -0.06973074, 0.02579959, 0.1323621, 0.1036614, 0.00713338, -0.1216659, 0.05236534, 0.05186837, -0.1103026, -0.0559451, -0.03786727, -0.09928015, -0.0008310378, -0.05306338, -0.04140735, 0.0007466078, 0.1127868, 0.05809843, 0.07274519, 0.1330438, 0.0915226, 0.0764863, -0.1003676, 0.1344787, 0.1369676, -0.0735423, 0.02646497, 0.05398493, 0.08065797, 0.002812967, -0.01089029, -0.1124779, 0.08524434, -0.1287396, 0.06039801, -0.08917305, -0.1156638, 0.1217411, 0.1273167, -0.1242925, -0.04378465, -0.08927588, 0.09811217, -0.08988546, 0.1271649, 0.03542795, 0.1173462, 0.0822029, 0.1358639, 0.02817813, -0.08319418, -0.1098115, -0.0714857, -0.1376246, -0.0798901, 0.07260513, 0.040599, -0.1063027, 0.1323179, -0.03247255, 0.09471962, -0.02478181, -0.09540504, 0.03036994, 0.1202167, 0.05947367, -0.1222783, 0.003673762, 0.0938334, -0.1342246, 0.06167937, -0.1358483, -0.1257734, 0.005164489, -0.06492504, 0.02954572, -0.029703, -0.04107162, -0.1012168, -0.1194127, -0.08197902, 0.08008724, 0.1317572, 0.1048098, -0.09312083, 0.1175622, -0.001993358, 0.1289632],
    [-0.1214289, -0.09498703, -0.1079931, 0.04022863, -0.1378951, -0.04073223, 0.02402433, -0.1074429, -0.1130202, -0.08102992, 0.05980198, -0.1103196, 0.08732904, 0.1347095, 0.08352482, 0.09136489, -0.09058708, 0.05785134, 0.04022615, 0.1380373, 0.05143512, -0.04904703, -0.1280765, -0.08835989, -0.01592466, -0.1349529, -0.135152, -0.116317, -0.09674247, -0.09057647, 0.1318239, 0.02598114, -0.002653942, 0.1241128, 0.1020952, -0.1320014, -0.0605297, 0.1135234, 0.09568812, -0.01081842, 0.04697883, -0.1140365, 0.005125284, 0.01212335, -0.1050808, -0.07950905, 0.1344272, -0.1365522, -0.0553903, -0.06770059, -0.06461409, 0.07066211, -0.1011025, -0.1313689, -0.01412542, 0.01374243, 0.08367176, 0.1250242, 0.05750103, 0.0625135, 0.04395328, 0.06385385, -0.0331536, -0.00299938, 0.01594783, 0.0746415, 0.1102585, -0.1048787, -0.08621041, -0.01308297, -0.0685665, -0.007441163, -0.03875041, 0.03290421, 0.02654278, -0.01079561, -0.07183601, -0.005276665, -0.03877234, 0.1250671, -0.06601132, -0.1081664, 0.1086196, 0.1241933, -0.09046707, 0.04949688, -0.0415476, -0.07501847, 0.1054841, -0.06650721, -0.07971182, 0.07042828, 0.04414285, -0.06282711, 0.08018062, 0.05511806, 0.07263385, -0.03230932, -0.06107518, -0.08268355, 0.02446979, -0.01913302],
    [0.05316305, -0.09503637, 0.1088234, 0.09068601, 0.0925279, 0.05543021, -0.09235351, 0.03509861, 0.1096241, -0.06290188, 0.1345631, 0.1175571, 0.05170738, 0.06991272, 0.07032749, 0.02068704, -0.1046675, -0.0863487, -0.09725617, 0.1212774, 0.1223215, 0.0002782494, 0.0183278, -0.08411832, -0.05321665, -0.007261515, -0.09386075, 0.05723168, 0.04566064, 0.06845805, 0.1015042, 0.06891496, 0.07485604, 0.1192047, 0.06073049, -0.01720665, 0.06696259, 0.07614334, -0.04391699, 0.00483577, -0.1179316, -0.02495084, -0.09561922, -0.09975281, -0.01531097, 0.07566836, 0.0607593, -0.07844706, -0.1261189, -0.08587779, -0.006041512, 0.1167963, -0.0644104, 0.09093168, 0.09301683, 0.1304538, 0.1301525, 0.00698331, 0.04894268, 0.0477734, -0.09586006, 0.09168056, -0.02885985, -0.04874116, 0.1060652, 0.02425302, 0.02281351, 0.05572417, 0.1199331, -0.03622438, 0.1089272, 0.1328694, 0.09471965, 0.06553838, 0.1278767, -0.02458978, -0.02783256, 0.04781242, -0.1278664, -0.1223508, -0.04645731, -0.04605548, 0.08503821, -0.03173399, 0.1228667, -0.1054842, -0.07248358, -0.1392194, 0.09528072, -0.1356783, 0.0616807, -0.001639739, -0.04159253, -0.05048861, 0.01012661, 0.00430131, -0.01206966, -0.1219602, 0.07410267, -0.06808679, -0.07396019, -0.02653147],
    [0.1120813, -0.01515306, 0.1227472, -0.06675, 0.001713187, -0.09737858, -0.1122833, -0.04880977, -0.1073826, -0.05392669, 0.06063771, -0.01043996, -0.01847182, -0.08021694, 0.0250313, 0.05887797, 0.05956842, -0.1105506, -0.1365459, -0.05409092, 0.0252871, -0.01483032, -0.09974173, -0.07316254, -0.04174304, 0.1336797, 0.01558587, -0.02483533, 0.01950103, 0.04351527, 0.1123744, 0.07205575, -0.07143494, 0.06428175, 0.06830775, 0.03929841, -0.07526782, 0.01942334, 0.05164586, 0.06005167, -0.07754733, 0.08796133, -0.04916845, -0.0459813, -0.05467068, -0.04883991, -0.112829, -0.07791403, 0.02886707, 0.09740175, 0.09274471, 0.1220484, 0.033665, -0.1036271, -5.833805E-05, -0.06378517, 0.1010187, -0.07928346, -0.02795722, 0.01951608, -0.08909532, -0.04829647, 0.1309213, -0.1073054, 0.04603045, -0.05219387, 0.09309148, -0.130407, 0.1105749, 0.02269894, 0.08461409, 0.05743874, -0.048618, -0.04042421, 0.05349761, -0.1301886, 0.01341699, -0.08448739, 0.01685141, 0.01559658, -0.02833648, -0.01058161, -0.1065002, 0.06055618, -0.1356164, -0.008844241, -0.06267531, -0.06924298, 0.1139635, -0.09712265, 0.04686932, -0.001253605, -0.01890984, 0.005625576, 0.01965804, 0.04884904, 0.1364938, 0.001963899, 0.04815993, -0.07720022, 0.1157927, -0.1265995],
    [0.04122888, -0.01941679, -0.05661744, -0.02613525, 0.08499391, -0.1381381, -0.1319731, -0.1309481, 0.02967373, -0.03777206, -0.1010882, -0.09105058, -0.02715273, 0.1283091, -0.01145411, -0.1283493, -0.1298497, -0.1031347, 0.03336951, 0.008720487, 2.518296E-05, 0.1017965, 0.1359621, 0.06314392, -0.05343069, 0.1399714, 0.1249326, -0.1167485, -0.01968411, 0.1284892, 0.05276093, -0.117924, -0.05049929, -0.08015576, -0.03711934, -0.05366538, -0.1357754, -0.00164488, -0.005353585, -0.05932466, -0.03139143, 0.04165251, 0.06470671, -0.1390257, 0.05165257, -0.06366788, -0.05669397, 0.03267412, 0.08315215, -0.09999692, -0.129553, -0.02654202, -0.01313803, 0.03660883, -0.113385, 0.07048908, -0.0179861, 0.02445517, -0.04592568, -0.005766928, 0.0608879, -0.1261325, 0.01049589, -0.09922837, -0.02827471, -0.03102786, -0.03237479, -0.08632039, 0.1160719, 0.05201105, 0.01223084, 0.05663865, -0.1050934, -0.02156911, -0.05398074, -0.1106863, -0.03726056, -0.05525339, 0.08205357, 0.07164004, 0.002614781, -0.1119019, -0.07498714, -0.09072611, -0.1390491, 0.1381626, 0.09654385, -0.06834292, 0.01196496, -0.01541437, -0.008406669, -0.102874, -0.05613316, -0.03035314, -0.1106137, 0.1114972, 0.05752123, -0.1051776, 0.05231173, -0.08043922, -0.1164884, -0.001896366],
    [0.07805748, -0.06358783, -0.08807841, 0.09925251, -0.08663954, -0.113915, -0.05396118, 0.09070784, 0.05678485, 0.08645459, -0.1009814, -0.1145698, -0.02987143, -0.02483142, 0.02955527, 0.1155806, -0.04834244, 0.02302314, -0.1045915, -0.100156, -0.04014034, -0.08233227, -0.08330736, -0.01473241, -0.1355733, -0.04005935, -0.1130048, -0.01997847, -0.04864898, 0.09542912, -0.09765375, -0.08202781, 0.0303661, 0.03590804, 0.04448889, -0.01358402, 0.02975498, -0.0709897, 0.1046146, -0.1309861, -0.08573875, -0.04805483, -0.1221773, -0.09600505, 0.08705439, -0.01624142, -0.09494013, 0.07382814, -0.04761754, -0.0517925, 0.01577066, 0.02767465, -0.06070401, -0.003178135, -0.07400775, 0.08946827, -0.04040535, 0.06438418, 0.005684093, 0.04228706, -0.05941573, -0.06292042, -0.135181, -0.02990097, -0.1069787, -0.09398019, 0.05788476, 0.01925528, -0.0513182, 0.06538139, -0.1008156, -0.1034801, 0.1056133, -0.06172025, -0.1330945, 0.009669557, 0.1236545, 0.1126288, -0.1245432, 0.1290363, 5.64009E-05, -0.05817764, 0.116138, -0.1311468, -0.1396678, 0.1377173, 0.1242956, -0.07195292, -0.1274025, 0.05105086, -0.1031999, -0.1309262, 0.04540735, 0.07075152, 0.08880892, 0.06740187, -0.1380979, -0.0313774, 0.1141032, -0.1176082, -0.0460743, -0.08463712],
    [-0.05584134, -0.1182359, 0.06822269, 0.07186301, -0.004395083, -0.09632896, 0.1155238, 0.02755643, 0.01124461, -0.005063355, 0.1388845, 0.1303174, -0.006446719, -0.1288684, -0.09332879, -0.1397502, 0.0928251, -0.0669072, 0.0253081, 0.02555341, -0.05850619, 0.1045588, 0.1103682, -0.1117854, 0.1296982, 0.1257143, -0.09021311, 0.07030375, 0.07724041, 0.0061768, 0.09716475, -0.09071946, 0.04805256, -0.02652963, 0.003820688, -0.1232467, -0.04367371, -0.04005474, -0.0995708, 0.07637637, -0.006517723, 0.0864438, -0.07842991, -0.1015915, 0.08793102, 0.05832943, 0.07615586, -0.05475855, -0.03359742, -0.1353035, 0.08523192, -0.117341, 0.06919066, 0.07707082, -0.1136113, -0.03311642, -0.01045325, -0.06705162, 0.05873645, 0.0009159446, -0.1193038, -0.0388514, 0.05535423, -0.01544382, 0.1104797, 0.00217247, 0.01061791, -0.01976915, -0.04029498, 0.1254254, -0.0967914, -0.02858089, 0.04112081, -0.09585458, -0.07834825, 0.1140247, -0.0009817779, 0.1390611, 0.1257172, -0.0739305, -0.03524973, -0.1016264, 0.0543077, -0.02020535, -0.0300431, -0.01373705, 0.04949504, 0.1172543, 0.1261939, -0.03090256, 0.1186235, 0.005656719, 0.04292586, -0.08816749, 0.1393269, 0.1032759, -0.003670454, -0.09203383, 0.009648055, -0.1119198, 0.07546599, -0.03174094],
    [0.009624422, -0.1279177, -0.02914523, 0.09347485, 0.05676696, 0.05355226, 0.009447277, 0.1357523, 0.1107161, 0.1039127, -0.1138095, 0.02055493, -0.0490441, -0.1017673, 0.09913475, 0.04177653, 0.03200071, 0.001606449, 0.08388522, 0.09153853, 0.03350678, -0.0267273, -0.1207323, 0.05033408, 0.006922051, 0.09110636, -0.107382, 0.02276714, -0.05687027, -0.01091179, 0.05410581, -0.06490938, -0.1260045, -0.04958503, -0.1309677, 0.1178088, 0.07068148, 0.05661152, -0.09497027, -0.0008368492, 0.01995276, 0.08496116, 0.0132958, 0.01196694, 0.08375739, 0.0336903, 0.1078999, 0.01583906, 0.04379524, -0.06993774, 0.05227574, 0.1311377, -0.06954663, 0.0661133, -0.1159153, 0.02158964, 0.08864857, 0.05146795, -0.05942751, -0.073438, 0.09100156, -0.08984964, 0.05205109, -0.02454444, 0.07921008, 0.09766617, 0.04386024, -0.1372491, 0.05574483, -0.03892855, 0.06863876, -0.1267788, -0.07209904, -0.03187508, 0.03435357, 0.05822269, -0.07714725, -0.006318584, -0.06524546, -0.0747204, 0.08112296, 0.0619317, 0.01144859, -0.003122404, -0.0687785, 0.00087367, -0.1213345, -0.1324425, -0.09912241, -0.07122092, -0.06064288, -0.1075722, -0.06314491, -0.0916661, 0.1376365, -0.09315164, -0.0608095, 0.1317568, -0.10283, -0.06527612, 0.07945636, 0.01333404],
    [0.1081431, 0.1321452, -0.09262249, -0.09516481, -0.09077224, 0.02571636, 0.005782321, -0.08444783, 0.05480911, -0.008489057, 0.1088435, 0.07588137, -0.06327741, -0.09472853, -0.06027207, -0.06710747, 0.00648731, 0.04981304, 0.1057127, 0.05076184, 0.1211257, 0.0601349, 0.06489538, 0.1344435, 0.06374435, 0.09581168, -0.02563958, 0.1344591, -0.06068724, -0.03172018, 0.06776611, 0.1113614, 0.07139569, 0.1280705, -0.04334763, -0.04074121, -0.06148328, -0.1334297, 0.01931821, 0.06475739, 0.08835895, 0.1184183, -0.08734053, -0.07873334, 0.1073806, -0.06244661, -0.02957166, -0.06419884, -0.07051325, -0.03311674, 0.06763938, -0.05241981, -0.1151414, -0.0753229, -0.03658424, 0.03239923, -0.04252148, 0.02132897, -0.08670171, 0.1174953, -0.1089128, -0.0407398, -0.09869644, -0.07811268, -0.006074607, 0.1383118, -0.1139218, -0.06978855, 0.07372802, 0.07904212, -0.01700374, 0.07846432, -0.1258637, -0.07214081, 0.01875106, -0.1278272, -0.0004146546, 0.05983564, 0.06625853, -0.05608802, -0.05349101, -0.08789012, 0.01033756, 0.0732222, -0.1071059, -0.01467235, 0.07224922, -0.04317022, -0.1283286, -0.1029743, -0.01409751, -0.04542333, 0.1389467, 0.05634954, 0.1184876, 0.06045627, 0.1116585, -0.1378529, 0.1165216, -0.07396202, -0.1094056, 0.07421534],
    [-0.09894916, 0.1091894, 0.06272974, 0.03281424, 0.04054121, 0.05056197, -0.0639988, 0.06566287, -0.05287639, 0.07529789, -0.09316263, 0.05920779, -0.1140872, -0.01423396, 0.08258854, -0.06036187, 0.01937273, -0.03695295, 0.1016437, -0.02030014, 0.01492354, 0.1094942, -0.091818, -0.01207958, 0.06891136, -0.07914668, -0.04682377, -0.08092992, 0.1204152, 0.1295655, 0.1352725, 0.01227584, 0.09220994, 0.04358441, -0.07341386, 0.07650618, -0.08904515, -0.0755972, 0.05145503, 0.1134848, 0.102648, 0.04143744, -0.1244903, 0.1229717, -0.02680543, 0.002644837, -0.06328438, 0.0447142, -0.07875587, 0.01731456, 0.117975, 0.007572398, -0.1067158, -0.03288318, -0.02231273, 0.008440822, -0.001062572, -0.01008491, -0.08925258, 0.03080304, 0.1189167, -0.05441285, 0.02799745, 0.119831, 0.006041244, -0.06337169, 0.1227959, 0.08141084, 0.03600238, -0.08658789, -0.03916783, 0.1205012, 0.0528511, -0.08623645, 0.002708495, 0.03016983, 0.1046764, -0.05406635, -0.1103492, -0.08104745, -0.090772, -0.07983609, -0.04130526, -0.1015079, -0.03995155, -0.07420126, 0.1364671, 0.08834539, -0.06203851, -0.06329116, -0.003045127, -0.05370538, -0.1188582, -0.03225457, -0.05229836, 0.0972184, -0.09968123, 0.09617217, 0.09871908, 0.1052679, -0.110009, -0.004175708],
    [-0.1299495, 0.0363616, 0.05666824, 0.1305451, 0.1204647, 0.08501355, -0.02938354, -0.1026725, -0.03742689, -0.09703125, -0.0320163, -0.003178895, 0.1357693, 0.1287669, -0.1111579, -0.1124182, -0.1133034, -0.03212046, -0.03182317, -0.07223864, 0.07796337, 0.08474743, 0.02175904, -0.07769306, 0.04781416, 0.01710837, 0.09328628, 0.02548677, 0.09837554, -0.01680486, 0.05328391, 0.08683895, 0.07130398, -0.02394304, 0.007992312, 0.08460318, -0.09178221, -0.008605272, 0.08192804, -0.08993377, -0.1246691, 0.08471043, -0.0368806, 0.1372125, 0.06244196, 0.03945936, 0.1390031, 0.1071834, -0.05734204, 0.0215201, 0.01599784, 0.03658913, 0.06989268, 0.06994039, 0.01142436, 0.0327883, -0.119825, -0.07612062, -0.08595781, 0.1352783, 0.02354489, 0.02789579, 0.1373131, 0.05984759, -0.05756636, -0.01808442, 0.105352, -0.1286291, -0.1145448, 0.01303713, -0.1087275, 0.1347858, 0.06224568, 0.06614161, -0.07528077, 0.0333459, 0.1248949, 0.1321615, 0.1090815, -0.09871604, 0.0074016, -0.05510797, 0.0908305, 0.01818958, -0.04427327, -0.0238498, 0.0831204, -0.009154022, -0.02021059, -0.002884939, 0.0762874, 0.1023284, -0.06533201, -0.01138256, 0.02439865, -0.03233112, -0.01502082, 0.009430617, 0.1120887, -0.06176235, 0.04416852, 0.1305091],
    [-0.003863469, 0.125816, 0.1389603, 0.1138799, -0.08337086, -0.0908075, -0.1005211, 0.1319911, 0.03808492, -0.06874332, -0.08319041, -0.04419255, -0.07723922, -0.03869192, 0.0145358, 0.08275115, -0.1037459, 0.08129125, -0.006609395, -0.1220983, -0.05774881, -0.07207492, 0.08270715, -0.09393857, 0.08713097, -0.03117579, 0.01603056, 0.06432742, -0.0001896173, -0.1045735, -0.08553192, 0.126639, -0.1249252, 0.05270381, 0.1274314, 0.1091272, 0.001947984, -0.01652223, 0.03246053, 0.08384606, 0.07899812, 0.01703793, 0.1313966, 0.04149373, 0.1293985, 0.1220485, 0.08611803, -0.03047223, -0.1362279, -0.003905728, -0.04819344, -0.122658, -0.07736294, -0.09833214, 0.05247795, -0.1092728, 0.02538822, -0.06570065, -0.08483493, 0.1398197, -0.05247921, 0.0599612, 0.03961103, 0.07951325, 0.04210488, -0.01727052, -0.05886915, -0.05417147, 0.07833502, -0.03029956, -0.09018689, 0.03935016, -0.1041035, 0.08442186, 0.05630166, 0.02126317, 0.07284274, -0.1087875, 0.002919123, 0.06503946, -0.06005062, -0.1388057, 0.03463103, 0.1102873, -0.1016938, 0.1068482, 0.06647594, 0.1013037, 0.07117575, -0.08582307, 0.009402454, 0.04146334, 0.06732195, 0.007979199, -0.05286911, -0.1169332, -0.04776077, 0.03321096, -0.03451529, -0.03961946, 0.1034839, 0.05485856],
    [-0.06557755, -0.06368494, -0.1333995, 0.01207878, -0.1176265, 0.03842952, -0.09814525, -0.001254767, -0.02097438, -0.1055864, -0.01055257, 0.03388852, -0.0187108, 0.1102275, -0.06817891, -0.1290355, 0.08134367, 0.03538823, -0.07584769, 0.06234704, 0.07504737, -0.1256205, 0.04291948, 0.08573139, -0.01290482, -0.008268178, 0.08070283, -0.06047401, -0.06842504, -0.04846456, -0.1170832, 0.01669987, 0.09122744, 0.1064935, -0.04487491, -0.03212798, -0.04439349, 0.09142385, -0.09773745, -0.07579106, -0.09025469, 0.1261384, 0.09510708, 0.1393202, -0.03595597, 0.10023, 0.1339069, -0.07123874, 0.1255877, -0.003688291, -0.03441587, -0.06728601, -0.07266036, -0.004030183, -0.05442129, 0.1384192, -0.01386669, 0.04479493, -0.05249006, 0.04078923, -0.1361345, 0.00951229, -0.07820632, 0.01626883, 0.09295958, -0.110791, 0.0637743, 0.0462734, -0.1012936, 0.09978086, 0.02864736, -0.1224745, 0.1213307, 0.1175411, 0.08812642, -0.05090389, -0.03731745, 0.07037951, 0.030175, -0.05299528, 0.1244358, -0.01560433, 0.01230574, 0.1070237, 0.05438876, 0.02498366, -0.05815785, 0.03765061, 0.09719917, -0.1342264, -0.05362809, 0.1088203, -0.1243649, 0.0112741, -0.1159677, -0.1277391, -0.09257835, 0.06541892, 0.08121774, -0.06108129, -0.02172862, 0.04997876],
    [0.01748596, 0.09424548, -0.0870799, -0.03227494, 0.04028578, -0.04113606, 0.1055273, 0.08991243, 0.1112141, -0.01169802, 0.04575112, -0.0537586, 0.1092052, 0.0008323491, 0.05467604, 0.04350072, -0.08713418, -0.08633848, -0.06829408, 0.09854487, -0.04576409, -0.1162197, 0.06274326, -0.06561171, 0.09384699, 0.06468351, 0.05004817, 0.0817562, -0.04193196, 0.1397581, -0.005011708, 0.02027777, 0.1355271, -0.06739478, 0.09043548, -0.130826, 0.07837421, -0.1227296, -0.1199314, -0.1066357, 0.1172504, 0.02876284, 0.1285072, -0.006938249, 0.1087936, -0.06486134, 0.02456344, 0.1234531, -0.1209074, -0.07540049, 0.07295258, -0.03714732, 0.03801902, 0.04519535, 0.06174861, -0.04891303, 0.07297482, -0.08900489, 0.1351205, 0.05372449, -0.07754542, -0.06979272, 0.04131004, 0.1281078, 0.01363784, -0.0001602322, 0.08471254, -0.02282998, 0.06709423, -0.06230069, -0.08409038, -0.0992917, -0.1054094, 0.03326705, -0.02673351, 0.0389094, -0.02646667, 0.1093845, -0.04908305, -0.127807, 0.06445041, -0.01775585, -0.1019157, 0.08250207, 0.05257713, -0.1071223, -0.1299815, 0.1066227, -0.1158225, -0.1313681, 0.119644, -0.1092182, -0.08787633, -0.007518142, 0.06793791, -0.1335468, -0.1132274, 0.007084638, 0.1294745, 0.06838791, 0.0843451, -0.1386779],
    [-0.0715549, 0.1206799, 0.01815139, 0.09293039, -0.09010203, 0.08575453, 0.1107208, -0.1105108, -0.0963794, -0.02196586, 0.111573, 0.03640371, 0.09123746, -0.005998448, -0.03660454, -0.06788889, 0.09898679, -0.08996372, 0.004612923, 0.02888913, 0.1162762, 0.06691562, -0.1259457, -0.003609166, 0.006322682, 0.1209758, 0.02700436, 0.09378049, -0.05216742, 0.1270003, 0.07127273, 0.08465005, -0.1130604, 0.02193014, 0.1013485, 0.1026527, 0.02056398, 0.0307122, -0.04173842, 0.09435375, 0.07267458, 0.03127114, -0.06477401, 0.04723833, 0.03178835, 0.01490961, -0.0712332, 0.1346173, -0.07252769, -0.08460554, 0.05127939, 0.06877538, 0.001056999, 0.02453446, 0.1364903, 0.01342595, 0.1099417, 0.01785954, 0.04638333, -0.047307, -0.1351961, -0.02447293, 0.03720719, -0.1368229, -0.03378071, -0.07622153, 0.06132942, -0.1369545, -0.01667266, 0.09214124, -0.08719751, -0.0118801, -0.03729428, -0.088366, -0.1015586, -0.07965425, -0.03507927, -0.08026716, 0.07196337, -0.08862573, -0.02879879, 0.1361736, 0.1163122, 0.02539773, -0.1160438, 0.1023466, -0.02654452, 0.09192196, 0.04912757, 0.05206781, 0.02512281, 0.07911503, -0.04430335, 0.1392637, -0.02039632, 0.08830631, 0.1269154, 0.02494934, 0.127211, -0.1034225, -0.03896959, 0.07905387],
    [0.08182856, 0.001689181, -0.007412314, 0.09937346, 0.03878691, -0.08916034, 0.0507545, 0.03028003, 0.1001108, -0.01670044, 0.06654107, 0.1225661, 0.07433136, 0.05659816, -0.03257821, 0.129447, 0.1220235, 0.04930718, -0.03242758, 0.1205324, -0.08287385, -0.02496253, 0.03628753, 0.08885165, -0.04865111, 0.008324876, 0.00585486, -0.1105043, 0.04395916, -0.001977861, -0.01328129, 0.03961063, -0.106216, 0.01455677, -0.05648804, 0.004583642, 0.04845359, 0.1034919, 0.05026928, 0.1380122, -0.03092848, -0.1188885, -0.1208058, -0.05017506, 0.0234648, 0.03426139, 0.05896979, 0.06400773, 0.05574323, -0.00588727, 0.09587558, -0.0250948, -0.094906, -0.0256121, -0.1004617, -0.04544102, 0.05320619, 0.0348212, 0.1400245, 0.1366692, 0.06743866, 0.1140911, 0.0217362, 0.003771752, -0.004637673, -0.01765318, -0.1393751, -0.105057, 0.09155856, 0.1293435, 0.1140416, -0.03291193, 0.09319441, 0.02369195, 0.0794361, 0.1010902, 0.1056679, -0.08567384, 0.05357766, -0.1377143, 0.1354723, 0.03466743, -0.02522129, 0.05504632, 0.06339353, 0.1225287, -0.01255913, 0.08068901, -0.03068576, -0.1236381, 0.0156512, 0.1105701, -0.005836561, -0.07681026, 0.01334397, -0.04044631, -0.05365433, 0.009493828, 0.07283887, 0.1191465, 0.1020198, -0.03055096],
    [-0.05060489, 0.02519782, -0.008759275, -0.1027653, 0.08030932, -0.1094758, 0.04749754, 0.0806813, -0.008102551, 0.04610831, -0.0679632, 0.06014451, 0.130131, 0.0752611, 0.005218238, 0.02965048, -0.1231425, -0.05368121, 0.0779999, -0.09514888, 0.03742696, 0.05744361, -0.04656941, 0.1030793, 0.1348504, 0.127366, -0.08308348, -0.1291464, 0.1065215, 0.01972277, 0.08605326, 0.01959761, -0.07726198, -0.04127387, 0.1274662, -0.1039675, -0.1318711, -0.06389467, 0.1364292, 0.05433831, -0.1179732, 0.08602735, -0.1094341, 0.07030278, 0.003774196, 0.06599134, 0.09879489, -0.09249245, -0.1096868, -0.1270173, -0.02722304, 0.06176717, 0.005880505, 0.09463875, 0.009928226, 0.07473632, -0.09250396, -0.02762901, 0.09281339, -0.1144245, -0.0958855, 0.07033207, 0.1134449, -0.1213561, -0.0602531, -0.03671568, 0.0881124, 0.09563518, -0.1186681, -0.1213078, 0.0716573, 0.05424407, 0.03559552, 0.04997071, -0.05505885, -0.1244176, -0.1350475, 0.05647687, 0.1228897, 0.07460472, -0.122587, 0.08820891, 0.04615441, -0.02031069, 0.006438464, 0.03710065, 0.0002587885, -0.08541197, -0.0899756, 0.02259871, 0.04220987, 0.01621678, 0.05720187, 0.1221393, 0.05077253, 0.0729232, 0.009503767, 0.04639605, 0.1156624, 0.09803314, -0.005228624, -0.07819881],
    [-0.1133417, -0.1281049, 0.1036657, -0.1203273, 0.1077309, 0.05202131, 0.1006606, 0.09128323, 0.03505047, -0.07610576, 0.004770502, 0.09617127, 0.1284643, 0.1102166, -0.0466485, 0.01057047, 0.02619968, 0.1039099, -0.03693071, -0.08256526, 0.1188584, -0.08906469, -0.05075923, -0.02842578, 0.02611856, 0.1154112, 0.06986851, 0.06243391, 0.0845119, -0.08052306, 0.1250429, -0.07745923, -0.04969224, 0.08858463, -0.01784111, -0.06346083, 0.1165562, -0.1148994, 0.07361658, 0.02975538, 0.07067266, 0.1361704, -0.1063395, -0.04557556, -0.07441969, -0.0004195422, -0.1000704, 0.09390338, -0.09650536, 0.1131594, -0.0272165, -0.1266143, 0.1234426, -0.03891811, 0.03341317, 0.01578578, 0.06503946, -0.03607371, -0.1264086, 0.1178466, -0.1249533, -0.03549872, 0.1352996, 0.08487276, -0.1111046, -0.02566285, 0.04119075, -0.07365607, -0.1394124, -0.06447241, 0.02011432, 0.01474179, -0.08078633, 0.02911692, 0.001018703, 0.09627059, -0.08917493, 0.0469615, 0.1135238, -0.03884786, 0.06318094, 0.005706757, -0.02961987, -0.06171802, -0.02492033, 0.1012617, -0.01375268, 0.06762455, 0.0889684, -0.0179625, -0.0688412, -0.1089433, 0.02240915, 0.01382777, 0.08094932, 0.03373608, -0.05882365, -0.04845548, -0.03988324, 0.1103466, 0.09415554, 0.07998966],
    [-0.04282686, 0.06865011, -0.09256484, 0.08232176, 0.01264709, -0.07738218, -0.02402917, -0.116324, 0.02815452, -0.0418038, -0.02658972, -0.0003843457, -0.06370577, 0.1268457, -0.03904049, 0.08523349, 0.1102954, 0.09514628, -0.02326074, 0.09839697, 0.02764891, -0.008658528, 0.01297544, -0.1308031, -0.06276774, 0.003279522, -0.1099695, -0.03661843, -0.05561051, 0.04937112, 0.07281239, -0.1124929, 0.008361667, -0.07118142, -0.05567572, 0.03638361, 0.09718582, 0.0349106, -0.03713924, -0.01313622, 0.02154394, 0.1335872, -0.09599443, 0.03922416, -0.1014087, -0.05097313, -0.03208901, -0.0646055, 0.07491924, 0.03112999, -0.113451, -0.1384375, -0.1324031, 0.09344797, 0.1192489, -0.08809428, 0.04494309, -0.1141938, -0.002576888, -0.0280098, 0.1175353, -0.04060967, 0.01855636, -0.01899003, -0.05100347, 0.03020097, 0.1217494, 0.06098759, -0.03743677, -0.03217511, -0.04531522, -0.06603277, 0.02439234, -0.009206504, 0.04259647, -0.1148633, -0.1194699, -0.1377285, -0.003299221, -0.04755989, 0.1287628, 0.01721597, -0.09371088, -0.08708186, 0.08095764, -0.05964843, -0.1157469, -0.02856743, 0.008102551, 0.10348, 0.06793915, 0.09845619, -0.08543463, -0.02608778, 0.1003967, -0.1311266, 0.02795855, 0.03553365, -0.003803805, -0.08779968, 0.02562806, -0.1075919],
